digraph Tree {
node [shape=box, style="filled, rounded", color="black", fontname=helvetica] ;
edge [fontname=helvetica] ;
0 [label="TASK_F <= 0.6\ngini = 0.43\nsamples = 4273\nvalue = [86720, 193680]\nclass = 3", fillcolor="#92c9f1"] ;
1 [label="TASK_N_S <= 0.9\ngini = 0.43\nsamples = 2704\nvalue = [78160, 34640]\nclass = 1", fillcolor="#f1b991"] ;
0 -> 1 [labeldistance=2.5, labelangle=45, headlabel="True"] ;
2 [label="TASK_F <= 0.3\ngini = 0.07\nsamples = 1769\nvalue = [56000, 2240]\nclass = 1", fillcolor="#e68641"] ;
1 -> 2 ;
3 [label="TASK_E <= 2.5\ngini = 0.06\nsamples = 1643\nvalue = [52200, 1600]\nclass = 1", fillcolor="#e6853f"] ;
2 -> 3 ;
4 [label="TASK_N_S <= 0.3\ngini = 0.05\nsamples = 1586\nvalue = [50420, 1280]\nclass = 1", fillcolor="#e6843e"] ;
3 -> 4 ;
5 [label="gini = 0.0\nsamples = 1254\nvalue = [40700, 0]\nclass = 1", fillcolor="#e58139"] ;
4 -> 5 ;
6 [label="TASK_N_S <= 0.5\ngini = 0.21\nsamples = 332\nvalue = [9720, 1280]\nclass = 1", fillcolor="#e89253"] ;
4 -> 6 ;
7 [label="TASK_D <= 1.5\ngini = 0.13\nsamples = 139\nvalue = [4120, 320]\nclass = 1", fillcolor="#e78b48"] ;
6 -> 7 ;
8 [label="gini = 0.0\nsamples = 54\nvalue = [1740, 0]\nclass = 1", fillcolor="#e58139"] ;
7 -> 8 ;
9 [label="TASK_E <= 1.5\ngini = 0.21\nsamples = 85\nvalue = [2380, 320]\nclass = 1", fillcolor="#e89254"] ;
7 -> 9 ;
10 [label="gini = 0.0\nsamples = 15\nvalue = [400, 0]\nclass = 1", fillcolor="#e58139"] ;
9 -> 10 ;
11 [label="TASK_I <= 2.5\ngini = 0.24\nsamples = 70\nvalue = [1980, 320]\nclass = 1", fillcolor="#e99559"] ;
9 -> 11 ;
12 [label="gini = 0.08\nsamples = 64\nvalue = [1840, 80]\nclass = 1", fillcolor="#e68642"] ;
11 -> 12 ;
13 [label="gini = 0.47\nsamples = 6\nvalue = [140, 240]\nclass = 3", fillcolor="#acd6f4"] ;
11 -> 13 ;
14 [label="TASK_RN <= 0.7\ngini = 0.25\nsamples = 193\nvalue = [5600, 960]\nclass = 1", fillcolor="#e9975b"] ;
6 -> 14 ;
15 [label="gini = 0.0\nsamples = 73\nvalue = [2340, 0]\nclass = 1", fillcolor="#e58139"] ;
14 -> 15 ;
16 [label="TASK_E <= 1.5\ngini = 0.35\nsamples = 120\nvalue = [3260, 960]\nclass = 1", fillcolor="#eda673"] ;
14 -> 16 ;
17 [label="gini = 0.0\nsamples = 27\nvalue = [800, 0]\nclass = 1", fillcolor="#e58139"] ;
16 -> 17 ;
18 [label="TASK_F <= 0.1\ngini = 0.4\nsamples = 93\nvalue = [2460, 960]\nclass = 1", fillcolor="#efb286"] ;
16 -> 18 ;
19 [label="gini = 0.29\nsamples = 66\nvalue = [1880, 400]\nclass = 1", fillcolor="#eb9c63"] ;
18 -> 19 ;
20 [label="gini = 0.5\nsamples = 27\nvalue = [580, 560]\nclass = 1", fillcolor="#fefbf8"] ;
18 -> 20 ;
21 [label="TASK_N_S <= 0.1\ngini = 0.26\nsamples = 57\nvalue = [1780, 320]\nclass = 1", fillcolor="#ea985d"] ;
3 -> 21 ;
22 [label="gini = 0.0\nsamples = 39\nvalue = [1240, 0]\nclass = 1", fillcolor="#e58139"] ;
21 -> 22 ;
23 [label="TASK_RN <= 0.7\ngini = 0.47\nsamples = 18\nvalue = [540, 320]\nclass = 1", fillcolor="#f4ccae"] ;
21 -> 23 ;
24 [label="TASK_R <= 1.5\ngini = 0.38\nsamples = 3\nvalue = [80, 240]\nclass = 3", fillcolor="#7bbeee"] ;
23 -> 24 ;
25 [label="gini = 0.0\nsamples = 1\nvalue = [0, 240]\nclass = 3", fillcolor="#399de5"] ;
24 -> 25 ;
26 [label="gini = 0.0\nsamples = 2\nvalue = [80, 0]\nclass = 1", fillcolor="#e58139"] ;
24 -> 26 ;
27 [label="TASK_N_S <= 0.3\ngini = 0.25\nsamples = 15\nvalue = [460, 80]\nclass = 1", fillcolor="#ea975b"] ;
23 -> 27 ;
28 [label="TASK_M <= 1.5\ngini = 0.32\nsamples = 2\nvalue = [20, 80]\nclass = 3", fillcolor="#6ab6ec"] ;
27 -> 28 ;
29 [label="gini = 0.0\nsamples = 1\nvalue = [20, 0]\nclass = 1", fillcolor="#e58139"] ;
28 -> 29 ;
30 [label="gini = 0.0\nsamples = 1\nvalue = [0, 80]\nclass = 3", fillcolor="#399de5"] ;
28 -> 30 ;
31 [label="gini = 0.0\nsamples = 13\nvalue = [440, 0]\nclass = 1", fillcolor="#e58139"] ;
27 -> 31 ;
32 [label="TASK_E <= 2.5\ngini = 0.25\nsamples = 126\nvalue = [3800, 640]\nclass = 1", fillcolor="#e9965a"] ;
2 -> 32 ;
33 [label="TASK_I <= 2.5\ngini = 0.18\nsamples = 120\nvalue = [3680, 400]\nclass = 1", fillcolor="#e88f4f"] ;
32 -> 33 ;
34 [label="TASK_D <= 1.5\ngini = 0.13\nsamples = 107\nvalue = [3180, 240]\nclass = 1", fillcolor="#e78b48"] ;
33 -> 34 ;
35 [label="TASK_N_S <= 0.5\ngini = 0.32\nsamples = 24\nvalue = [640, 160]\nclass = 1", fillcolor="#eca06a"] ;
34 -> 35 ;
36 [label="gini = 0.0\nsamples = 22\nvalue = [640, 0]\nclass = 1", fillcolor="#e58139"] ;
35 -> 36 ;
37 [label="gini = 0.0\nsamples = 2\nvalue = [0, 160]\nclass = 3", fillcolor="#399de5"] ;
35 -> 37 ;
38 [label="TASK_RN <= 0.9\ngini = 0.06\nsamples = 83\nvalue = [2540, 80]\nclass = 1", fillcolor="#e6853f"] ;
34 -> 38 ;
39 [label="gini = 0.0\nsamples = 49\nvalue = [1480, 0]\nclass = 1", fillcolor="#e58139"] ;
38 -> 39 ;
40 [label="TASK_N_S <= 0.5\ngini = 0.13\nsamples = 34\nvalue = [1060, 80]\nclass = 1", fillcolor="#e78b48"] ;
38 -> 40 ;
41 [label="gini = 0.0\nsamples = 30\nvalue = [960, 0]\nclass = 1", fillcolor="#e58139"] ;
40 -> 41 ;
42 [label="TASK_N_S <= 0.7\ngini = 0.49\nsamples = 4\nvalue = [100, 80]\nclass = 1", fillcolor="#fae6d7"] ;
40 -> 42 ;
43 [label="gini = 0.32\nsamples = 2\nvalue = [20, 80]\nclass = 3", fillcolor="#6ab6ec"] ;
42 -> 43 ;
44 [label="gini = 0.0\nsamples = 2\nvalue = [80, 0]\nclass = 1", fillcolor="#e58139"] ;
42 -> 44 ;
45 [label="TASK_RN <= 0.7\ngini = 0.37\nsamples = 13\nvalue = [500, 160]\nclass = 1", fillcolor="#eda978"] ;
33 -> 45 ;
46 [label="gini = 0.0\nsamples = 7\nvalue = [360, 0]\nclass = 1", fillcolor="#e58139"] ;
45 -> 46 ;
47 [label="TASK_N_S <= 0.3\ngini = 0.5\nsamples = 6\nvalue = [140, 160]\nclass = 3", fillcolor="#e6f3fc"] ;
45 -> 47 ;
48 [label="gini = 0.0\nsamples = 4\nvalue = [120, 0]\nclass = 1", fillcolor="#e58139"] ;
47 -> 48 ;
49 [label="TASK_N_S <= 0.7\ngini = 0.2\nsamples = 2\nvalue = [20, 160]\nclass = 3", fillcolor="#52a9e8"] ;
47 -> 49 ;
50 [label="gini = 0.0\nsamples = 1\nvalue = [0, 160]\nclass = 3", fillcolor="#399de5"] ;
49 -> 50 ;
51 [label="gini = 0.0\nsamples = 1\nvalue = [20, 0]\nclass = 1", fillcolor="#e58139"] ;
49 -> 51 ;
52 [label="TASK_N_S <= 0.4\ngini = 0.44\nsamples = 6\nvalue = [120, 240]\nclass = 3", fillcolor="#9ccef2"] ;
32 -> 52 ;
53 [label="TASK_RN <= 0.9\ngini = 0.24\nsamples = 4\nvalue = [40, 240]\nclass = 3", fillcolor="#5aade9"] ;
52 -> 53 ;
54 [label="gini = 0.0\nsamples = 2\nvalue = [0, 240]\nclass = 3", fillcolor="#399de5"] ;
53 -> 54 ;
55 [label="gini = 0.0\nsamples = 2\nvalue = [40, 0]\nclass = 1", fillcolor="#e58139"] ;
53 -> 55 ;
56 [label="gini = 0.0\nsamples = 2\nvalue = [80, 0]\nclass = 1", fillcolor="#e58139"] ;
52 -> 56 ;
57 [label="TASK_N_L <= 0.9\ngini = 0.48\nsamples = 935\nvalue = [22160, 32400]\nclass = 3", fillcolor="#c0e0f7"] ;
1 -> 57 ;
58 [label="TASK_I <= 2.5\ngini = 0.48\nsamples = 521\nvalue = [14440, 10080]\nclass = 1", fillcolor="#f7d9c3"] ;
57 -> 58 ;
59 [label="TASK_D <= 1.5\ngini = 0.44\nsamples = 460\nvalue = [13440, 6720]\nclass = 1", fillcolor="#f2c09c"] ;
58 -> 59 ;
60 [label="TASK_F <= 0.3\ngini = 0.05\nsamples = 102\nvalue = [3200, 80]\nclass = 1", fillcolor="#e6843e"] ;
59 -> 60 ;
61 [label="gini = 0.0\nsamples = 98\nvalue = [3140, 0]\nclass = 1", fillcolor="#e58139"] ;
60 -> 61 ;
62 [label="TASK_N_L <= 0.5\ngini = 0.49\nsamples = 4\nvalue = [60, 80]\nclass = 3", fillcolor="#cee6f8"] ;
60 -> 62 ;
63 [label="gini = 0.0\nsamples = 2\nvalue = [40, 0]\nclass = 1", fillcolor="#e58139"] ;
62 -> 63 ;
64 [label="TASK_R <= 0.5\ngini = 0.32\nsamples = 2\nvalue = [20, 80]\nclass = 3", fillcolor="#6ab6ec"] ;
62 -> 64 ;
65 [label="gini = 0.0\nsamples = 1\nvalue = [20, 0]\nclass = 1", fillcolor="#e58139"] ;
64 -> 65 ;
66 [label="gini = 0.0\nsamples = 1\nvalue = [0, 80]\nclass = 3", fillcolor="#399de5"] ;
64 -> 66 ;
67 [label="TASK_F <= 0.1\ngini = 0.48\nsamples = 358\nvalue = [10240, 6640]\nclass = 1", fillcolor="#f6d3b9"] ;
59 -> 67 ;
68 [label="TASK_E <= 2.5\ngini = 0.37\nsamples = 175\nvalue = [5600, 1840]\nclass = 1", fillcolor="#eeaa7a"] ;
67 -> 68 ;
69 [label="TASK_RN <= 0.9\ngini = 0.31\nsamples = 165\nvalue = [5380, 1280]\nclass = 1", fillcolor="#eb9f68"] ;
68 -> 69 ;
70 [label="TASK_N_L <= 0.3\ngini = 0.12\nsamples = 101\nvalue = [3540, 240]\nclass = 1", fillcolor="#e78a46"] ;
69 -> 70 ;
71 [label="gini = 0.2\nsamples = 51\nvalue = [1860, 240]\nclass = 1", fillcolor="#e89153"] ;
70 -> 71 ;
72 [label="gini = 0.0\nsamples = 50\nvalue = [1680, 0]\nclass = 1", fillcolor="#e58139"] ;
70 -> 72 ;
73 [label="TASK_E <= 1.5\ngini = 0.46\nsamples = 64\nvalue = [1840, 1040]\nclass = 1", fillcolor="#f4c8a9"] ;
69 -> 73 ;
74 [label="gini = 0.0\nsamples = 15\nvalue = [480, 0]\nclass = 1", fillcolor="#e58139"] ;
73 -> 74 ;
75 [label="gini = 0.49\nsamples = 49\nvalue = [1360, 1040]\nclass = 1", fillcolor="#f9e1d0"] ;
73 -> 75 ;
76 [label="TASK_I <= 1.5\ngini = 0.4\nsamples = 10\nvalue = [220, 560]\nclass = 3", fillcolor="#87c4ef"] ;
68 -> 76 ;
77 [label="gini = 0.0\nsamples = 2\nvalue = [100, 0]\nclass = 1", fillcolor="#e58139"] ;
76 -> 77 ;
78 [label="TASK_RN <= 0.5\ngini = 0.29\nsamples = 8\nvalue = [120, 560]\nclass = 3", fillcolor="#63b2eb"] ;
76 -> 78 ;
79 [label="gini = 0.0\nsamples = 1\nvalue = [40, 0]\nclass = 1", fillcolor="#e58139"] ;
78 -> 79 ;
80 [label="gini = 0.22\nsamples = 7\nvalue = [80, 560]\nclass = 3", fillcolor="#55abe9"] ;
78 -> 80 ;
81 [label="TASK_E <= 2.5\ngini = 0.5\nsamples = 183\nvalue = [4640, 4800]\nclass = 3", fillcolor="#f8fcfe"] ;
67 -> 81 ;
82 [label="TASK_F <= 0.3\ngini = 0.47\nsamples = 158\nvalue = [4520, 2640]\nclass = 1", fillcolor="#f4cbad"] ;
81 -> 82 ;
83 [label="TASK_E <= 1.5\ngini = 0.48\nsamples = 123\nvalue = [3440, 2240]\nclass = 1", fillcolor="#f6d3ba"] ;
82 -> 83 ;
84 [label="gini = 0.0\nsamples = 28\nvalue = [1040, 0]\nclass = 1", fillcolor="#e58139"] ;
83 -> 84 ;
85 [label="gini = 0.5\nsamples = 95\nvalue = [2400, 2240]\nclass = 1", fillcolor="#fdf7f2"] ;
83 -> 85 ;
86 [label="TASK_E <= 1.5\ngini = 0.39\nsamples = 35\nvalue = [1080, 400]\nclass = 1", fillcolor="#efb082"] ;
82 -> 86 ;
87 [label="gini = 0.44\nsamples = 11\nvalue = [320, 160]\nclass = 1", fillcolor="#f2c09c"] ;
86 -> 87 ;
88 [label="gini = 0.36\nsamples = 24\nvalue = [760, 240]\nclass = 1", fillcolor="#eda978"] ;
86 -> 88 ;
89 [label="TASK_R <= 13.0\ngini = 0.1\nsamples = 25\nvalue = [120, 2160]\nclass = 3", fillcolor="#44a2e6"] ;
81 -> 89 ;
90 [label="TASK_RN <= 0.9\ngini = 0.02\nsamples = 22\nvalue = [20, 2160]\nclass = 3", fillcolor="#3b9ee5"] ;
89 -> 90 ;
91 [label="gini = 0.0\nsamples = 5\nvalue = [0, 480]\nclass = 3", fillcolor="#399de5"] ;
90 -> 91 ;
92 [label="gini = 0.02\nsamples = 17\nvalue = [20, 1680]\nclass = 3", fillcolor="#3b9ee5"] ;
90 -> 92 ;
93 [label="gini = 0.0\nsamples = 3\nvalue = [100, 0]\nclass = 1", fillcolor="#e58139"] ;
89 -> 93 ;
94 [label="TASK_RN <= 0.5\ngini = 0.35\nsamples = 61\nvalue = [1000, 3360]\nclass = 3", fillcolor="#74baed"] ;
58 -> 94 ;
95 [label="gini = 0.0\nsamples = 9\nvalue = [280, 0]\nclass = 1", fillcolor="#e58139"] ;
94 -> 95 ;
96 [label="TASK_D <= 1.5\ngini = 0.29\nsamples = 52\nvalue = [720, 3360]\nclass = 3", fillcolor="#63b2eb"] ;
94 -> 96 ;
97 [label="gini = 0.0\nsamples = 5\nvalue = [100, 0]\nclass = 1", fillcolor="#e58139"] ;
96 -> 97 ;
98 [label="TASK_N_L <= 0.7\ngini = 0.26\nsamples = 47\nvalue = [620, 3360]\nclass = 3", fillcolor="#5eafea"] ;
96 -> 98 ;
99 [label="TASK_R <= 12.5\ngini = 0.2\nsamples = 32\nvalue = [300, 2400]\nclass = 3", fillcolor="#52a9e8"] ;
98 -> 99 ;
100 [label="TASK_E <= 2.5\ngini = 0.17\nsamples = 30\nvalue = [240, 2400]\nclass = 3", fillcolor="#4da7e8"] ;
99 -> 100 ;
101 [label="gini = 0.23\nsamples = 21\nvalue = [220, 1440]\nclass = 3", fillcolor="#57ace9"] ;
100 -> 101 ;
102 [label="gini = 0.04\nsamples = 9\nvalue = [20, 960]\nclass = 3", fillcolor="#3d9fe6"] ;
100 -> 102 ;
103 [label="gini = 0.0\nsamples = 2\nvalue = [60, 0]\nclass = 1", fillcolor="#e58139"] ;
99 -> 103 ;
104 [label="TASK_F <= 0.1\ngini = 0.38\nsamples = 15\nvalue = [320, 960]\nclass = 3", fillcolor="#7bbeee"] ;
98 -> 104 ;
105 [label="TASK_R <= -0.5\ngini = 0.36\nsamples = 7\nvalue = [260, 80]\nclass = 1", fillcolor="#eda876"] ;
104 -> 105 ;
106 [label="gini = 0.44\nsamples = 2\nvalue = [40, 80]\nclass = 3", fillcolor="#9ccef2"] ;
105 -> 106 ;
107 [label="gini = 0.0\nsamples = 5\nvalue = [220, 0]\nclass = 1", fillcolor="#e58139"] ;
105 -> 107 ;
108 [label="TASK_RN <= 0.9\ngini = 0.12\nsamples = 8\nvalue = [60, 880]\nclass = 3", fillcolor="#46a4e7"] ;
104 -> 108 ;
109 [label="gini = 0.0\nsamples = 2\nvalue = [60, 0]\nclass = 1", fillcolor="#e58139"] ;
108 -> 109 ;
110 [label="gini = 0.0\nsamples = 6\nvalue = [0, 880]\nclass = 3", fillcolor="#399de5"] ;
108 -> 110 ;
111 [label="TASK_RN <= 0.7\ngini = 0.38\nsamples = 414\nvalue = [7720, 22320]\nclass = 3", fillcolor="#7dbfee"] ;
57 -> 111 ;
112 [label="TASK_F <= 0.3\ngini = 0.48\nsamples = 127\nvalue = [3420, 2240]\nclass = 1", fillcolor="#f6d4bb"] ;
111 -> 112 ;
113 [label="TASK_R <= -0.5\ngini = 0.38\nsamples = 107\nvalue = [3100, 1040]\nclass = 1", fillcolor="#eeab7b"] ;
112 -> 113 ;
114 [label="TASK_F <= 0.1\ngini = 0.47\nsamples = 51\nvalue = [1360, 800]\nclass = 1", fillcolor="#f4cbad"] ;
113 -> 114 ;
115 [label="TASK_D <= 1.5\ngini = 0.38\nsamples = 25\nvalue = [720, 240]\nclass = 1", fillcolor="#eeab7b"] ;
114 -> 115 ;
116 [label="gini = 0.0\nsamples = 2\nvalue = [40, 0]\nclass = 1", fillcolor="#e58139"] ;
115 -> 116 ;
117 [label="TASK_RN <= 0.5\ngini = 0.39\nsamples = 23\nvalue = [680, 240]\nclass = 1", fillcolor="#eead7f"] ;
115 -> 117 ;
118 [label="gini = 0.49\nsamples = 13\nvalue = [300, 240]\nclass = 1", fillcolor="#fae6d7"] ;
117 -> 118 ;
119 [label="gini = 0.0\nsamples = 10\nvalue = [380, 0]\nclass = 1", fillcolor="#e58139"] ;
117 -> 119 ;
120 [label="TASK_E <= 2.5\ngini = 0.5\nsamples = 26\nvalue = [640, 560]\nclass = 1", fillcolor="#fcefe6"] ;
114 -> 120 ;
121 [label="TASK_M <= 1.5\ngini = 0.49\nsamples = 25\nvalue = [640, 480]\nclass = 1", fillcolor="#f8e0ce"] ;
120 -> 121 ;
122 [label="gini = 0.0\nsamples = 1\nvalue = [40, 0]\nclass = 1", fillcolor="#e58139"] ;
121 -> 122 ;
123 [label="gini = 0.49\nsamples = 24\nvalue = [600, 480]\nclass = 1", fillcolor="#fae6d7"] ;
121 -> 123 ;
124 [label="gini = 0.0\nsamples = 1\nvalue = [0, 80]\nclass = 3", fillcolor="#399de5"] ;
120 -> 124 ;
125 [label="TASK_RN <= 0.5\ngini = 0.21\nsamples = 56\nvalue = [1740, 240]\nclass = 1", fillcolor="#e99254"] ;
113 -> 125 ;
126 [label="gini = 0.0\nsamples = 33\nvalue = [920, 0]\nclass = 1", fillcolor="#e58139"] ;
125 -> 126 ;
127 [label="TASK_R <= 4.0\ngini = 0.35\nsamples = 23\nvalue = [820, 240]\nclass = 1", fillcolor="#eda673"] ;
125 -> 127 ;
128 [label="TASK_R <= 2.5\ngini = 0.45\nsamples = 13\nvalue = [460, 240]\nclass = 1", fillcolor="#f3c3a0"] ;
127 -> 128 ;
129 [label="gini = 0.38\nsamples = 12\nvalue = [460, 160]\nclass = 1", fillcolor="#eead7e"] ;
128 -> 129 ;
130 [label="gini = 0.0\nsamples = 1\nvalue = [0, 80]\nclass = 3", fillcolor="#399de5"] ;
128 -> 130 ;
131 [label="gini = 0.0\nsamples = 10\nvalue = [360, 0]\nclass = 1", fillcolor="#e58139"] ;
127 -> 131 ;
132 [label="TASK_RN <= 0.1\ngini = 0.33\nsamples = 20\nvalue = [320, 1200]\nclass = 3", fillcolor="#6eb7ec"] ;
112 -> 132 ;
133 [label="gini = 0.0\nsamples = 2\nvalue = [60, 0]\nclass = 1", fillcolor="#e58139"] ;
132 -> 133 ;
134 [label="TASK_E <= 2.5\ngini = 0.29\nsamples = 18\nvalue = [260, 1200]\nclass = 3", fillcolor="#64b2eb"] ;
132 -> 134 ;
135 [label="TASK_I <= 2.5\ngini = 0.4\nsamples = 12\nvalue = [240, 640]\nclass = 3", fillcolor="#83c2ef"] ;
134 -> 135 ;
136 [label="TASK_R <= 4.0\ngini = 0.48\nsamples = 10\nvalue = [240, 160]\nclass = 1", fillcolor="#f6d5bd"] ;
135 -> 136 ;
137 [label="gini = 0.5\nsamples = 7\nvalue = [140, 160]\nclass = 3", fillcolor="#e6f3fc"] ;
136 -> 137 ;
138 [label="gini = 0.0\nsamples = 3\nvalue = [100, 0]\nclass = 1", fillcolor="#e58139"] ;
136 -> 138 ;
139 [label="gini = 0.0\nsamples = 2\nvalue = [0, 480]\nclass = 3", fillcolor="#399de5"] ;
135 -> 139 ;
140 [label="TASK_R <= 5.5\ngini = 0.07\nsamples = 6\nvalue = [20, 560]\nclass = 3", fillcolor="#40a0e6"] ;
134 -> 140 ;
141 [label="gini = 0.0\nsamples = 4\nvalue = [0, 400]\nclass = 3", fillcolor="#399de5"] ;
140 -> 141 ;
142 [label="TASK_RN <= 0.5\ngini = 0.2\nsamples = 2\nvalue = [20, 160]\nclass = 3", fillcolor="#52a9e8"] ;
140 -> 142 ;
143 [label="gini = 0.0\nsamples = 1\nvalue = [20, 0]\nclass = 1", fillcolor="#e58139"] ;
142 -> 143 ;
144 [label="gini = 0.0\nsamples = 1\nvalue = [0, 160]\nclass = 3", fillcolor="#399de5"] ;
142 -> 144 ;
145 [label="TASK_D <= 1.5\ngini = 0.29\nsamples = 287\nvalue = [4300, 20080]\nclass = 3", fillcolor="#63b2eb"] ;
111 -> 145 ;
146 [label="TASK_E <= 1.5\ngini = 0.13\nsamples = 37\nvalue = [1100, 80]\nclass = 1", fillcolor="#e78a47"] ;
145 -> 146 ;
147 [label="gini = 0.0\nsamples = 10\nvalue = [300, 0]\nclass = 1", fillcolor="#e58139"] ;
146 -> 147 ;
148 [label="TASK_F <= 0.1\ngini = 0.17\nsamples = 27\nvalue = [800, 80]\nclass = 1", fillcolor="#e88e4d"] ;
146 -> 148 ;
149 [label="gini = 0.0\nsamples = 16\nvalue = [480, 0]\nclass = 1", fillcolor="#e58139"] ;
148 -> 149 ;
150 [label="TASK_F <= 0.3\ngini = 0.32\nsamples = 11\nvalue = [320, 80]\nclass = 1", fillcolor="#eca06a"] ;
148 -> 150 ;
151 [label="TASK_R <= -0.5\ngini = 0.36\nsamples = 10\nvalue = [260, 80]\nclass = 1", fillcolor="#eda876"] ;
150 -> 151 ;
152 [label="gini = 0.41\nsamples = 7\nvalue = [200, 80]\nclass = 1", fillcolor="#efb388"] ;
151 -> 152 ;
153 [label="gini = 0.0\nsamples = 3\nvalue = [60, 0]\nclass = 1", fillcolor="#e58139"] ;
151 -> 153 ;
154 [label="gini = 0.0\nsamples = 1\nvalue = [60, 0]\nclass = 1", fillcolor="#e58139"] ;
150 -> 154 ;
155 [label="TASK_E <= 1.5\ngini = 0.24\nsamples = 250\nvalue = [3200, 20000]\nclass = 3", fillcolor="#59ade9"] ;
145 -> 155 ;
156 [label="TASK_M <= 1.5\ngini = 0.5\nsamples = 29\nvalue = [840, 720]\nclass = 1", fillcolor="#fbede3"] ;
155 -> 156 ;
157 [label="gini = 0.0\nsamples = 1\nvalue = [40, 0]\nclass = 1", fillcolor="#e58139"] ;
156 -> 157 ;
158 [label="TASK_I <= 1.5\ngini = 0.5\nsamples = 28\nvalue = [800, 720]\nclass = 1", fillcolor="#fcf2eb"] ;
156 -> 158 ;
159 [label="gini = 0.0\nsamples = 9\nvalue = [260, 0]\nclass = 1", fillcolor="#e58139"] ;
158 -> 159 ;
160 [label="TASK_F <= 0.3\ngini = 0.49\nsamples = 19\nvalue = [540, 720]\nclass = 3", fillcolor="#cee6f8"] ;
158 -> 160 ;
161 [label="gini = 0.5\nsamples = 16\nvalue = [460, 560]\nclass = 3", fillcolor="#dceefa"] ;
160 -> 161 ;
162 [label="gini = 0.44\nsamples = 3\nvalue = [80, 160]\nclass = 3", fillcolor="#9ccef2"] ;
160 -> 162 ;
163 [label="TASK_E <= 2.5\ngini = 0.19\nsamples = 221\nvalue = [2360, 19280]\nclass = 3", fillcolor="#51a9e8"] ;
155 -> 163 ;
164 [label="TASK_D <= 2.5\ngini = 0.24\nsamples = 161\nvalue = [2060, 13040]\nclass = 3", fillcolor="#58ace9"] ;
163 -> 164 ;
165 [label="TASK_RN <= 0.9\ngini = 0.25\nsamples = 154\nvalue = [2060, 12080]\nclass = 3", fillcolor="#5baee9"] ;
164 -> 165 ;
166 [label="gini = 0.28\nsamples = 58\nvalue = [820, 4080]\nclass = 3", fillcolor="#61b1ea"] ;
165 -> 166 ;
167 [label="gini = 0.23\nsamples = 96\nvalue = [1240, 8000]\nclass = 3", fillcolor="#58ace9"] ;
165 -> 167 ;
168 [label="gini = 0.0\nsamples = 7\nvalue = [0, 960]\nclass = 3", fillcolor="#399de5"] ;
164 -> 168 ;
169 [label="TASK_R <= 4.5\ngini = 0.09\nsamples = 60\nvalue = [300, 6240]\nclass = 3", fillcolor="#43a2e6"] ;
163 -> 169 ;
170 [label="TASK_I <= 2.5\ngini = 0.04\nsamples = 51\nvalue = [120, 5760]\nclass = 3", fillcolor="#3d9fe6"] ;
169 -> 170 ;
171 [label="gini = 0.06\nsamples = 35\nvalue = [120, 3920]\nclass = 3", fillcolor="#3fa0e6"] ;
170 -> 171 ;
172 [label="gini = 0.0\nsamples = 16\nvalue = [0, 1840]\nclass = 3", fillcolor="#399de5"] ;
170 -> 172 ;
173 [label="TASK_F <= 0.1\ngini = 0.4\nsamples = 9\nvalue = [180, 480]\nclass = 3", fillcolor="#83c2ef"] ;
169 -> 173 ;
174 [label="gini = 0.0\nsamples = 2\nvalue = [40, 0]\nclass = 1", fillcolor="#e58139"] ;
173 -> 174 ;
175 [label="gini = 0.35\nsamples = 7\nvalue = [140, 480]\nclass = 3", fillcolor="#73baed"] ;
173 -> 175 ;
176 [label="TASK_N_S <= 0.1\ngini = 0.1\nsamples = 1569\nvalue = [8560, 159040]\nclass = 3", fillcolor="#44a2e6"] ;
0 -> 176 [labeldistance=2.5, labelangle=-45, headlabel="False"] ;
177 [label="TASK_R <= 2.5\ngini = 0.47\nsamples = 121\nvalue = [2880, 4800]\nclass = 3", fillcolor="#b0d8f5"] ;
176 -> 177 ;
178 [label="TASK_F <= 0.9\ngini = 0.42\nsamples = 97\nvalue = [2100, 4800]\nclass = 3", fillcolor="#90c8f0"] ;
177 -> 178 ;
179 [label="gini = 0.0\nsamples = 10\nvalue = [420, 0]\nclass = 1", fillcolor="#e58139"] ;
178 -> 179 ;
180 [label="TASK_E <= 1.5\ngini = 0.38\nsamples = 87\nvalue = [1680, 4800]\nclass = 3", fillcolor="#7ebfee"] ;
178 -> 180 ;
181 [label="gini = 0.0\nsamples = 19\nvalue = [620, 0]\nclass = 1", fillcolor="#e58139"] ;
180 -> 181 ;
182 [label="TASK_E <= 2.5\ngini = 0.3\nsamples = 68\nvalue = [1060, 4800]\nclass = 3", fillcolor="#65b3eb"] ;
180 -> 182 ;
183 [label="TASK_RN <= 0.5\ngini = 0.46\nsamples = 43\nvalue = [1000, 1840]\nclass = 3", fillcolor="#a5d2f3"] ;
182 -> 183 ;
184 [label="gini = 0.0\nsamples = 3\nvalue = [60, 0]\nclass = 1", fillcolor="#e58139"] ;
183 -> 184 ;
185 [label="TASK_R <= -0.5\ngini = 0.45\nsamples = 40\nvalue = [940, 1840]\nclass = 3", fillcolor="#9ecff2"] ;
183 -> 185 ;
186 [label="TASK_I <= 2.5\ngini = 0.37\nsamples = 23\nvalue = [500, 1520]\nclass = 3", fillcolor="#7abdee"] ;
185 -> 186 ;
187 [label="gini = 0.33\nsamples = 20\nvalue = [380, 1440]\nclass = 3", fillcolor="#6db7ec"] ;
186 -> 187 ;
188 [label="gini = 0.48\nsamples = 3\nvalue = [120, 80]\nclass = 1", fillcolor="#f6d5bd"] ;
186 -> 188 ;
189 [label="TASK_D <= 1.5\ngini = 0.49\nsamples = 17\nvalue = [440, 320]\nclass = 1", fillcolor="#f8ddc9"] ;
185 -> 189 ;
190 [label="gini = 0.0\nsamples = 3\nvalue = [100, 0]\nclass = 1", fillcolor="#e58139"] ;
189 -> 190 ;
191 [label="gini = 0.5\nsamples = 14\nvalue = [340, 320]\nclass = 1", fillcolor="#fdf8f3"] ;
189 -> 191 ;
192 [label="TASK_RN <= 0.9\ngini = 0.04\nsamples = 25\nvalue = [60, 2960]\nclass = 3", fillcolor="#3d9fe6"] ;
182 -> 192 ;
193 [label="gini = 0.0\nsamples = 5\nvalue = [0, 560]\nclass = 3", fillcolor="#399de5"] ;
192 -> 193 ;
194 [label="TASK_D <= 1.5\ngini = 0.05\nsamples = 20\nvalue = [60, 2400]\nclass = 3", fillcolor="#3e9fe6"] ;
192 -> 194 ;
195 [label="gini = 0.0\nsamples = 1\nvalue = [40, 0]\nclass = 1", fillcolor="#e58139"] ;
194 -> 195 ;
196 [label="TASK_I <= 1.5\ngini = 0.02\nsamples = 19\nvalue = [20, 2400]\nclass = 3", fillcolor="#3b9ee5"] ;
194 -> 196 ;
197 [label="gini = 0.0\nsamples = 7\nvalue = [0, 880]\nclass = 3", fillcolor="#399de5"] ;
196 -> 197 ;
198 [label="gini = 0.03\nsamples = 12\nvalue = [20, 1520]\nclass = 3", fillcolor="#3c9ee5"] ;
196 -> 198 ;
199 [label="gini = 0.0\nsamples = 24\nvalue = [780, 0]\nclass = 1", fillcolor="#e58139"] ;
177 -> 199 ;
200 [label="TASK_N_L <= 0.9\ngini = 0.07\nsamples = 1448\nvalue = [5680, 154240]\nclass = 3", fillcolor="#40a1e6"] ;
176 -> 200 ;
201 [label="TASK_E <= 1.5\ngini = 0.1\nsamples = 640\nvalue = [3840, 65360]\nclass = 3", fillcolor="#45a3e7"] ;
200 -> 201 ;
202 [label="TASK_N_L <= 0.5\ngini = 0.48\nsamples = 51\nvalue = [1180, 1760]\nclass = 3", fillcolor="#bedff6"] ;
201 -> 202 ;
203 [label="TASK_I <= 1.5\ngini = 0.5\nsamples = 30\nvalue = [740, 720]\nclass = 1", fillcolor="#fefcfa"] ;
202 -> 203 ;
204 [label="TASK_N_L <= 0.2\ngini = 0.27\nsamples = 13\nvalue = [420, 80]\nclass = 1", fillcolor="#ea995f"] ;
203 -> 204 ;
205 [label="TASK_RN <= 0.9\ngini = 0.43\nsamples = 7\nvalue = [180, 80]\nclass = 1", fillcolor="#f1b991"] ;
204 -> 205 ;
206 [label="gini = 0.0\nsamples = 2\nvalue = [80, 0]\nclass = 1", fillcolor="#e58139"] ;
205 -> 206 ;
207 [label="TASK_N_S <= 0.9\ngini = 0.49\nsamples = 5\nvalue = [100, 80]\nclass = 1", fillcolor="#fae6d7"] ;
205 -> 207 ;
208 [label="gini = 0.0\nsamples = 1\nvalue = [20, 0]\nclass = 1", fillcolor="#e58139"] ;
207 -> 208 ;
209 [label="gini = 0.5\nsamples = 4\nvalue = [80, 80]\nclass = 1", fillcolor="#ffffff"] ;
207 -> 209 ;
210 [label="gini = 0.0\nsamples = 6\nvalue = [240, 0]\nclass = 1", fillcolor="#e58139"] ;
204 -> 210 ;
211 [label="TASK_RN <= 0.6\ngini = 0.44\nsamples = 17\nvalue = [320, 640]\nclass = 3", fillcolor="#9ccef2"] ;
203 -> 211 ;
212 [label="gini = 0.0\nsamples = 4\nvalue = [100, 0]\nclass = 1", fillcolor="#e58139"] ;
211 -> 212 ;
213 [label="TASK_F <= 0.9\ngini = 0.38\nsamples = 13\nvalue = [220, 640]\nclass = 3", fillcolor="#7dbfee"] ;
211 -> 213 ;
214 [label="gini = 0.0\nsamples = 2\nvalue = [100, 0]\nclass = 1", fillcolor="#e58139"] ;
213 -> 214 ;
215 [label="TASK_R <= 28.0\ngini = 0.27\nsamples = 11\nvalue = [120, 640]\nclass = 3", fillcolor="#5eafea"] ;
213 -> 215 ;
216 [label="gini = 0.2\nsamples = 10\nvalue = [80, 640]\nclass = 3", fillcolor="#52a9e8"] ;
215 -> 216 ;
217 [label="gini = 0.0\nsamples = 1\nvalue = [40, 0]\nclass = 1", fillcolor="#e58139"] ;
215 -> 217 ;
218 [label="TASK_R <= 4.0\ngini = 0.42\nsamples = 21\nvalue = [440, 1040]\nclass = 3", fillcolor="#8dc6f0"] ;
202 -> 218 ;
219 [label="TASK_RN <= 0.7\ngini = 0.4\nsamples = 20\nvalue = [400, 1040]\nclass = 3", fillcolor="#85c3ef"] ;
218 -> 219 ;
220 [label="gini = 0.0\nsamples = 4\nvalue = [160, 0]\nclass = 1", fillcolor="#e58139"] ;
219 -> 220 ;
221 [label="TASK_D <= 1.5\ngini = 0.3\nsamples = 16\nvalue = [240, 1040]\nclass = 3", fillcolor="#67b4eb"] ;
219 -> 221 ;
222 [label="TASK_I <= 1.5\ngini = 0.5\nsamples = 3\nvalue = [80, 80]\nclass = 1", fillcolor="#ffffff"] ;
221 -> 222 ;
223 [label="gini = 0.0\nsamples = 2\nvalue = [80, 0]\nclass = 1", fillcolor="#e58139"] ;
222 -> 223 ;
224 [label="gini = 0.0\nsamples = 1\nvalue = [0, 80]\nclass = 3", fillcolor="#399de5"] ;
222 -> 224 ;
225 [label="TASK_R <= -0.5\ngini = 0.24\nsamples = 13\nvalue = [160, 960]\nclass = 3", fillcolor="#5aade9"] ;
221 -> 225 ;
226 [label="gini = 0.0\nsamples = 4\nvalue = [0, 400]\nclass = 3", fillcolor="#399de5"] ;
225 -> 226 ;
227 [label="gini = 0.35\nsamples = 9\nvalue = [160, 560]\nclass = 3", fillcolor="#72b9ec"] ;
225 -> 227 ;
228 [label="gini = 0.0\nsamples = 1\nvalue = [40, 0]\nclass = 1", fillcolor="#e58139"] ;
218 -> 228 ;
229 [label="TASK_RN <= 0.3\ngini = 0.08\nsamples = 589\nvalue = [2660, 63600]\nclass = 3", fillcolor="#41a1e6"] ;
201 -> 229 ;
230 [label="TASK_D <= 2.5\ngini = 0.44\nsamples = 12\nvalue = [320, 160]\nclass = 1", fillcolor="#f2c09c"] ;
229 -> 230 ;
231 [label="TASK_N_S <= 0.9\ngini = 0.47\nsamples = 10\nvalue = [260, 160]\nclass = 1", fillcolor="#f5cfb3"] ;
230 -> 231 ;
232 [label="TASK_R <= 4.5\ngini = 0.49\nsamples = 6\nvalue = [120, 160]\nclass = 3", fillcolor="#cee6f8"] ;
231 -> 232 ;
233 [label="TASK_E <= 2.5\ngini = 0.32\nsamples = 4\nvalue = [40, 160]\nclass = 3", fillcolor="#6ab6ec"] ;
232 -> 233 ;
234 [label="gini = 0.44\nsamples = 3\nvalue = [40, 80]\nclass = 3", fillcolor="#9ccef2"] ;
233 -> 234 ;
235 [label="gini = 0.0\nsamples = 1\nvalue = [0, 80]\nclass = 3", fillcolor="#399de5"] ;
233 -> 235 ;
236 [label="gini = 0.0\nsamples = 2\nvalue = [80, 0]\nclass = 1", fillcolor="#e58139"] ;
232 -> 236 ;
237 [label="gini = 0.0\nsamples = 4\nvalue = [140, 0]\nclass = 1", fillcolor="#e58139"] ;
231 -> 237 ;
238 [label="gini = 0.0\nsamples = 2\nvalue = [60, 0]\nclass = 1", fillcolor="#e58139"] ;
230 -> 238 ;
239 [label="TASK_RN <= 0.7\ngini = 0.07\nsamples = 577\nvalue = [2340, 63440]\nclass = 3", fillcolor="#40a1e6"] ;
229 -> 239 ;
240 [label="TASK_N_L <= 0.5\ngini = 0.24\nsamples = 48\nvalue = [680, 4080]\nclass = 3", fillcolor="#5aade9"] ;
239 -> 240 ;
241 [label="TASK_D <= 1.5\ngini = 0.13\nsamples = 32\nvalue = [260, 3440]\nclass = 3", fillcolor="#48a4e7"] ;
240 -> 241 ;
242 [label="gini = 0.0\nsamples = 1\nvalue = [20, 0]\nclass = 1", fillcolor="#e58139"] ;
241 -> 242 ;
243 [label="TASK_I <= 2.5\ngini = 0.12\nsamples = 31\nvalue = [240, 3440]\nclass = 3", fillcolor="#47a4e7"] ;
241 -> 243 ;
244 [label="gini = 0.2\nsamples = 19\nvalue = [240, 1920]\nclass = 3", fillcolor="#52a9e8"] ;
243 -> 244 ;
245 [label="gini = 0.0\nsamples = 12\nvalue = [0, 1520]\nclass = 3", fillcolor="#399de5"] ;
243 -> 245 ;
246 [label="TASK_E <= 2.5\ngini = 0.48\nsamples = 16\nvalue = [420, 640]\nclass = 3", fillcolor="#bbddf6"] ;
240 -> 246 ;
247 [label="TASK_F <= 0.9\ngini = 0.42\nsamples = 13\nvalue = [380, 160]\nclass = 1", fillcolor="#f0b68c"] ;
246 -> 247 ;
248 [label="gini = 0.0\nsamples = 1\nvalue = [40, 0]\nclass = 1", fillcolor="#e58139"] ;
247 -> 248 ;
249 [label="gini = 0.44\nsamples = 12\nvalue = [340, 160]\nclass = 1", fillcolor="#f1bc96"] ;
247 -> 249 ;
250 [label="TASK_R <= 10.5\ngini = 0.14\nsamples = 3\nvalue = [40, 480]\nclass = 3", fillcolor="#49a5e7"] ;
246 -> 250 ;
251 [label="gini = 0.0\nsamples = 2\nvalue = [0, 480]\nclass = 3", fillcolor="#399de5"] ;
250 -> 251 ;
252 [label="gini = 0.0\nsamples = 1\nvalue = [40, 0]\nclass = 1", fillcolor="#e58139"] ;
250 -> 252 ;
253 [label="TASK_E <= 2.5\ngini = 0.05\nsamples = 529\nvalue = [1660, 59360]\nclass = 3", fillcolor="#3fa0e6"] ;
239 -> 253 ;
254 [label="TASK_R <= 40.5\ngini = 0.11\nsamples = 252\nvalue = [1520, 24960]\nclass = 3", fillcolor="#45a3e7"] ;
253 -> 254 ;
255 [label="TASK_N_S <= 0.5\ngini = 0.1\nsamples = 245\nvalue = [1320, 24880]\nclass = 3", fillcolor="#44a2e6"] ;
254 -> 255 ;
256 [label="gini = 0.24\nsamples = 28\nvalue = [280, 1760]\nclass = 3", fillcolor="#58ade9"] ;
255 -> 256 ;
257 [label="gini = 0.08\nsamples = 217\nvalue = [1040, 23120]\nclass = 3", fillcolor="#42a1e6"] ;
255 -> 257 ;
258 [label="TASK_N_L <= 0.3\ngini = 0.41\nsamples = 7\nvalue = [200, 80]\nclass = 1", fillcolor="#efb388"] ;
254 -> 258 ;
259 [label="gini = 0.32\nsamples = 2\nvalue = [20, 80]\nclass = 3", fillcolor="#6ab6ec"] ;
258 -> 259 ;
260 [label="gini = 0.0\nsamples = 5\nvalue = [180, 0]\nclass = 1", fillcolor="#e58139"] ;
258 -> 260 ;
261 [label="TASK_R <= 36.5\ngini = 0.01\nsamples = 277\nvalue = [140, 34400]\nclass = 3", fillcolor="#3a9de5"] ;
253 -> 261 ;
262 [label="TASK_N_L <= 0.5\ngini = 0.01\nsamples = 276\nvalue = [120, 34400]\nclass = 3", fillcolor="#3a9de5"] ;
261 -> 262 ;
263 [label="gini = 0.0\nsamples = 171\nvalue = [20, 22080]\nclass = 3", fillcolor="#399de5"] ;
262 -> 263 ;
264 [label="gini = 0.02\nsamples = 105\nvalue = [100, 12320]\nclass = 3", fillcolor="#3b9ee5"] ;
262 -> 264 ;
265 [label="gini = 0.0\nsamples = 1\nvalue = [20, 0]\nclass = 1", fillcolor="#e58139"] ;
261 -> 265 ;
266 [label="TASK_E <= 1.5\ngini = 0.04\nsamples = 808\nvalue = [1840, 88880]\nclass = 3", fillcolor="#3d9fe6"] ;
200 -> 266 ;
267 [label="TASK_R <= 10.0\ngini = 0.41\nsamples = 51\nvalue = [880, 2160]\nclass = 3", fillcolor="#8ac5f0"] ;
266 -> 267 ;
268 [label="TASK_R <= 4.5\ngini = 0.39\nsamples = 49\nvalue = [780, 2160]\nclass = 3", fillcolor="#80c0ee"] ;
267 -> 268 ;
269 [label="TASK_RN <= 0.7\ngini = 0.41\nsamples = 46\nvalue = [780, 1920]\nclass = 3", fillcolor="#89c5f0"] ;
268 -> 269 ;
270 [label="TASK_I <= 1.5\ngini = 0.43\nsamples = 14\nvalue = [360, 160]\nclass = 1", fillcolor="#f1b991"] ;
269 -> 270 ;
271 [label="gini = 0.0\nsamples = 5\nvalue = [140, 0]\nclass = 1", fillcolor="#e58139"] ;
270 -> 271 ;
272 [label="TASK_I <= 2.5\ngini = 0.49\nsamples = 9\nvalue = [220, 160]\nclass = 1", fillcolor="#f8ddc9"] ;
270 -> 272 ;
273 [label="gini = 0.5\nsamples = 8\nvalue = [180, 160]\nclass = 1", fillcolor="#fcf1e9"] ;
272 -> 273 ;
274 [label="gini = 0.0\nsamples = 1\nvalue = [40, 0]\nclass = 1", fillcolor="#e58139"] ;
272 -> 274 ;
275 [label="TASK_I <= 1.5\ngini = 0.31\nsamples = 32\nvalue = [420, 1760]\nclass = 3", fillcolor="#68b4eb"] ;
269 -> 275 ;
276 [label="TASK_F <= 0.9\ngini = 0.39\nsamples = 7\nvalue = [220, 80]\nclass = 1", fillcolor="#eeaf81"] ;
275 -> 276 ;
277 [label="gini = 0.0\nsamples = 1\nvalue = [20, 0]\nclass = 1", fillcolor="#e58139"] ;
276 -> 277 ;
278 [label="gini = 0.41\nsamples = 6\nvalue = [200, 80]\nclass = 1", fillcolor="#efb388"] ;
276 -> 278 ;
279 [label="TASK_RN <= 0.9\ngini = 0.19\nsamples = 25\nvalue = [200, 1680]\nclass = 3", fillcolor="#51a9e8"] ;
275 -> 279 ;
280 [label="gini = 0.16\nsamples = 9\nvalue = [60, 640]\nclass = 3", fillcolor="#4ca6e7"] ;
279 -> 280 ;
281 [label="gini = 0.21\nsamples = 16\nvalue = [140, 1040]\nclass = 3", fillcolor="#54aae8"] ;
279 -> 281 ;
282 [label="gini = 0.0\nsamples = 3\nvalue = [0, 240]\nclass = 3", fillcolor="#399de5"] ;
268 -> 282 ;
283 [label="gini = 0.0\nsamples = 2\nvalue = [100, 0]\nclass = 1", fillcolor="#e58139"] ;
267 -> 283 ;
284 [label="TASK_E <= 2.5\ngini = 0.02\nsamples = 757\nvalue = [960, 86720]\nclass = 3", fillcolor="#3b9ee5"] ;
266 -> 284 ;
285 [label="TASK_M <= 1.5\ngini = 0.04\nsamples = 394\nvalue = [940, 43280]\nclass = 3", fillcolor="#3d9fe6"] ;
284 -> 285 ;
286 [label="gini = 0.0\nsamples = 5\nvalue = [0, 640]\nclass = 3", fillcolor="#399de5"] ;
285 -> 286 ;
287 [label="TASK_R <= 9.0\ngini = 0.04\nsamples = 389\nvalue = [940, 42640]\nclass = 3", fillcolor="#3d9fe6"] ;
285 -> 287 ;
288 [label="TASK_R <= 0.5\ngini = 0.03\nsamples = 379\nvalue = [760, 42320]\nclass = 3", fillcolor="#3d9fe5"] ;
287 -> 288 ;
289 [label="TASK_N_S <= 0.9\ngini = 0.04\nsamples = 291\nvalue = [720, 32720]\nclass = 3", fillcolor="#3d9fe6"] ;
288 -> 289 ;
290 [label="gini = 0.0\nsamples = 1\nvalue = [40, 0]\nclass = 1", fillcolor="#e58139"] ;
289 -> 290 ;
291 [label="gini = 0.04\nsamples = 290\nvalue = [680, 32720]\nclass = 3", fillcolor="#3d9fe6"] ;
289 -> 291 ;
292 [label="TASK_RN <= 0.1\ngini = 0.01\nsamples = 88\nvalue = [40, 9600]\nclass = 3", fillcolor="#3a9de5"] ;
288 -> 292 ;
293 [label="gini = 0.0\nsamples = 1\nvalue = [20, 0]\nclass = 1", fillcolor="#e58139"] ;
292 -> 293 ;
294 [label="gini = 0.0\nsamples = 87\nvalue = [20, 9600]\nclass = 3", fillcolor="#399de5"] ;
292 -> 294 ;
295 [label="TASK_RN <= 0.9\ngini = 0.46\nsamples = 10\nvalue = [180, 320]\nclass = 3", fillcolor="#a8d4f4"] ;
287 -> 295 ;
296 [label="TASK_I <= 2.5\ngini = 0.4\nsamples = 8\nvalue = [120, 320]\nclass = 3", fillcolor="#83c2ef"] ;
295 -> 296 ;
297 [label="gini = 0.48\nsamples = 6\nvalue = [120, 80]\nclass = 1", fillcolor="#f6d5bd"] ;
296 -> 297 ;
298 [label="gini = 0.0\nsamples = 2\nvalue = [0, 240]\nclass = 3", fillcolor="#399de5"] ;
296 -> 298 ;
299 [label="gini = 0.0\nsamples = 2\nvalue = [60, 0]\nclass = 1", fillcolor="#e58139"] ;
295 -> 299 ;
300 [label="TASK_D <= 1.5\ngini = 0.0\nsamples = 363\nvalue = [20, 43440]\nclass = 3", fillcolor="#399de5"] ;
284 -> 300 ;
301 [label="gini = 0.0\nsamples = 2\nvalue = [0, 320]\nclass = 3", fillcolor="#399de5"] ;
300 -> 301 ;
302 [label="TASK_R <= 0.5\ngini = 0.0\nsamples = 361\nvalue = [20, 43120]\nclass = 3", fillcolor="#399de5"] ;
300 -> 302 ;
303 [label="gini = 0.0\nsamples = 271\nvalue = [0, 32160]\nclass = 3", fillcolor="#399de5"] ;
302 -> 303 ;
304 [label="TASK_F <= 0.9\ngini = 0.0\nsamples = 90\nvalue = [20, 10960]\nclass = 3", fillcolor="#399de5"] ;
302 -> 304 ;
305 [label="gini = 0.0\nsamples = 1\nvalue = [0, 80]\nclass = 3", fillcolor="#399de5"] ;
304 -> 305 ;
306 [label="TASK_RN <= 0.9\ngini = 0.0\nsamples = 89\nvalue = [20, 10880]\nclass = 3", fillcolor="#399de5"] ;
304 -> 306 ;
307 [label="gini = 0.0\nsamples = 34\nvalue = [0, 4240]\nclass = 3", fillcolor="#399de5"] ;
306 -> 307 ;
308 [label="gini = 0.01\nsamples = 55\nvalue = [20, 6640]\nclass = 3", fillcolor="#3a9de5"] ;
306 -> 308 ;
}