digraph Tree {
node [shape=box, style="filled, rounded", color="black", fontname=helvetica] ;
edge [fontname=helvetica] ;
0 [label="TASK_N_S <= 0.9\ngini = 0.5\nsamples = 4277\nvalue = [174400, 143820]\nclass = 1", fillcolor="#fae9dc"] ;
1 [label="TASK_D <= 1.5\ngini = 0.19\nsamples = 2066\nvalue = [121680, 14040]\nclass = 1", fillcolor="#e89050"] ;
0 -> 1 [labeldistance=2.5, labelangle=45, headlabel="True"] ;
2 [label="TASK_RN <= 0.9\ngini = 0.05\nsamples = 685\nvalue = [43560, 1140]\nclass = 1", fillcolor="#e6843e"] ;
1 -> 2 ;
3 [label="TASK_N_S <= 0.5\ngini = 0.01\nsamples = 348\nvalue = [22120, 60]\nclass = 1", fillcolor="#e5813a"] ;
2 -> 3 ;
4 [label="gini = 0.0\nsamples = 314\nvalue = [20440, 0]\nclass = 1", fillcolor="#e58139"] ;
3 -> 4 ;
5 [label="TASK_RN <= 0.7\ngini = 0.07\nsamples = 34\nvalue = [1680, 60]\nclass = 1", fillcolor="#e68640"] ;
3 -> 5 ;
6 [label="gini = 0.0\nsamples = 17\nvalue = [960, 0]\nclass = 1", fillcolor="#e58139"] ;
5 -> 6 ;
7 [label="TASK_N_S <= 0.7\ngini = 0.14\nsamples = 17\nvalue = [720, 60]\nclass = 1", fillcolor="#e78c49"] ;
5 -> 7 ;
8 [label="TASK_E <= 1.5\ngini = 0.44\nsamples = 4\nvalue = [120, 60]\nclass = 1", fillcolor="#f2c09c"] ;
7 -> 8 ;
9 [label="gini = 0.0\nsamples = 2\nvalue = [80, 0]\nclass = 1", fillcolor="#e58139"] ;
8 -> 9 ;
10 [label="TASK_R <= 2.0\ngini = 0.48\nsamples = 2\nvalue = [40, 60]\nclass = 3", fillcolor="#bddef6"] ;
8 -> 10 ;
11 [label="gini = 0.0\nsamples = 1\nvalue = [0, 60]\nclass = 3", fillcolor="#399de5"] ;
10 -> 11 ;
12 [label="gini = 0.0\nsamples = 1\nvalue = [40, 0]\nclass = 1", fillcolor="#e58139"] ;
10 -> 12 ;
13 [label="gini = 0.0\nsamples = 13\nvalue = [600, 0]\nclass = 1", fillcolor="#e58139"] ;
7 -> 13 ;
14 [label="TASK_F <= 0.3\ngini = 0.09\nsamples = 337\nvalue = [21440, 1080]\nclass = 1", fillcolor="#e68743"] ;
2 -> 14 ;
15 [label="TASK_F <= 0.1\ngini = 0.01\nsamples = 282\nvalue = [18400, 60]\nclass = 1", fillcolor="#e5813a"] ;
14 -> 15 ;
16 [label="gini = 0.0\nsamples = 194\nvalue = [12960, 0]\nclass = 1", fillcolor="#e58139"] ;
15 -> 16 ;
17 [label="TASK_R <= -0.5\ngini = 0.02\nsamples = 88\nvalue = [5440, 60]\nclass = 1", fillcolor="#e5823b"] ;
15 -> 17 ;
18 [label="TASK_E <= 1.5\ngini = 0.06\nsamples = 29\nvalue = [1960, 60]\nclass = 1", fillcolor="#e6853f"] ;
17 -> 18 ;
19 [label="gini = 0.0\nsamples = 8\nvalue = [520, 0]\nclass = 1", fillcolor="#e58139"] ;
18 -> 19 ;
20 [label="TASK_N_S <= 0.5\ngini = 0.08\nsamples = 21\nvalue = [1440, 60]\nclass = 1", fillcolor="#e68641"] ;
18 -> 20 ;
21 [label="gini = 0.0\nsamples = 18\nvalue = [1320, 0]\nclass = 1", fillcolor="#e58139"] ;
20 -> 21 ;
22 [label="TASK_N_S <= 0.7\ngini = 0.44\nsamples = 3\nvalue = [120, 60]\nclass = 1", fillcolor="#f2c09c"] ;
20 -> 22 ;
23 [label="gini = 0.48\nsamples = 2\nvalue = [40, 60]\nclass = 3", fillcolor="#bddef6"] ;
22 -> 23 ;
24 [label="gini = 0.0\nsamples = 1\nvalue = [80, 0]\nclass = 1", fillcolor="#e58139"] ;
22 -> 24 ;
25 [label="gini = 0.0\nsamples = 59\nvalue = [3480, 0]\nclass = 1", fillcolor="#e58139"] ;
17 -> 25 ;
26 [label="TASK_N_L <= 0.1\ngini = 0.38\nsamples = 55\nvalue = [3040, 1020]\nclass = 1", fillcolor="#eeab7b"] ;
14 -> 26 ;
27 [label="TASK_E <= 1.5\ngini = 0.36\nsamples = 49\nvalue = [2800, 840]\nclass = 1", fillcolor="#eda774"] ;
26 -> 27 ;
28 [label="gini = 0.0\nsamples = 20\nvalue = [1400, 0]\nclass = 1", fillcolor="#e58139"] ;
27 -> 28 ;
29 [label="TASK_N_S <= 0.2\ngini = 0.47\nsamples = 29\nvalue = [1400, 840]\nclass = 1", fillcolor="#f5cdb0"] ;
27 -> 29 ;
30 [label="TASK_I <= 1.5\ngini = 0.4\nsamples = 26\nvalue = [1400, 540]\nclass = 1", fillcolor="#efb285"] ;
29 -> 30 ;
31 [label="gini = 0.0\nsamples = 3\nvalue = [160, 0]\nclass = 1", fillcolor="#e58139"] ;
30 -> 31 ;
32 [label="TASK_R <= -0.5\ngini = 0.42\nsamples = 23\nvalue = [1240, 540]\nclass = 1", fillcolor="#f0b88f"] ;
30 -> 32 ;
33 [label="gini = 0.49\nsamples = 13\nvalue = [440, 540]\nclass = 3", fillcolor="#daedfa"] ;
32 -> 33 ;
34 [label="gini = 0.0\nsamples = 10\nvalue = [800, 0]\nclass = 1", fillcolor="#e58139"] ;
32 -> 34 ;
35 [label="gini = 0.0\nsamples = 3\nvalue = [0, 300]\nclass = 3", fillcolor="#399de5"] ;
29 -> 35 ;
36 [label="TASK_E <= 2.5\ngini = 0.49\nsamples = 6\nvalue = [240, 180]\nclass = 1", fillcolor="#f8e0ce"] ;
26 -> 36 ;
37 [label="TASK_R <= -0.5\ngini = 0.48\nsamples = 4\nvalue = [120, 180]\nclass = 3", fillcolor="#bddef6"] ;
36 -> 37 ;
38 [label="gini = 0.0\nsamples = 2\nvalue = [0, 180]\nclass = 3", fillcolor="#399de5"] ;
37 -> 38 ;
39 [label="gini = 0.0\nsamples = 2\nvalue = [120, 0]\nclass = 1", fillcolor="#e58139"] ;
37 -> 39 ;
40 [label="gini = 0.0\nsamples = 2\nvalue = [120, 0]\nclass = 1", fillcolor="#e58139"] ;
36 -> 40 ;
41 [label="TASK_F <= 0.9\ngini = 0.24\nsamples = 1381\nvalue = [78120, 12900]\nclass = 1", fillcolor="#e9965a"] ;
1 -> 41 ;
42 [label="TASK_E <= 2.5\ngini = 0.04\nsamples = 1173\nvalue = [72920, 1500]\nclass = 1", fillcolor="#e6843d"] ;
41 -> 42 ;
43 [label="TASK_N_S <= 0.7\ngini = 0.02\nsamples = 1129\nvalue = [70680, 900]\nclass = 1", fillcolor="#e5833c"] ;
42 -> 43 ;
44 [label="TASK_N_S <= 0.3\ngini = 0.01\nsamples = 1051\nvalue = [65760, 420]\nclass = 1", fillcolor="#e5823a"] ;
43 -> 44 ;
45 [label="TASK_I <= 2.5\ngini = 0.0\nsamples = 867\nvalue = [54680, 120]\nclass = 1", fillcolor="#e58139"] ;
44 -> 45 ;
46 [label="gini = 0.0\nsamples = 768\nvalue = [48600, 0]\nclass = 1", fillcolor="#e58139"] ;
45 -> 46 ;
47 [label="TASK_F <= 0.3\ngini = 0.04\nsamples = 99\nvalue = [6080, 120]\nclass = 1", fillcolor="#e6833d"] ;
45 -> 47 ;
48 [label="TASK_N_S <= 0.1\ngini = 0.02\nsamples = 87\nvalue = [5440, 60]\nclass = 1", fillcolor="#e5823b"] ;
47 -> 48 ;
49 [label="gini = 0.0\nsamples = 82\nvalue = [5280, 0]\nclass = 1", fillcolor="#e58139"] ;
48 -> 49 ;
50 [label="gini = 0.4\nsamples = 5\nvalue = [160, 60]\nclass = 1", fillcolor="#efb083"] ;
48 -> 50 ;
51 [label="TASK_E <= 1.5\ngini = 0.16\nsamples = 12\nvalue = [640, 60]\nclass = 1", fillcolor="#e78d4c"] ;
47 -> 51 ;
52 [label="gini = 0.0\nsamples = 2\nvalue = [120, 0]\nclass = 1", fillcolor="#e58139"] ;
51 -> 52 ;
53 [label="gini = 0.19\nsamples = 10\nvalue = [520, 60]\nclass = 1", fillcolor="#e89050"] ;
51 -> 53 ;
54 [label="TASK_I <= 2.5\ngini = 0.05\nsamples = 184\nvalue = [11080, 300]\nclass = 1", fillcolor="#e6843e"] ;
44 -> 54 ;
55 [label="TASK_F <= 0.3\ngini = 0.02\nsamples = 163\nvalue = [10040, 120]\nclass = 1", fillcolor="#e5833b"] ;
54 -> 55 ;
56 [label="gini = 0.0\nsamples = 142\nvalue = [8680, 0]\nclass = 1", fillcolor="#e58139"] ;
55 -> 56 ;
57 [label="TASK_RN <= 0.9\ngini = 0.15\nsamples = 21\nvalue = [1360, 120]\nclass = 1", fillcolor="#e78c4a"] ;
55 -> 57 ;
58 [label="gini = 0.0\nsamples = 14\nvalue = [1040, 0]\nclass = 1", fillcolor="#e58139"] ;
57 -> 58 ;
59 [label="gini = 0.4\nsamples = 7\nvalue = [320, 120]\nclass = 1", fillcolor="#efb083"] ;
57 -> 59 ;
60 [label="TASK_R <= -0.5\ngini = 0.25\nsamples = 21\nvalue = [1040, 180]\nclass = 1", fillcolor="#ea975b"] ;
54 -> 60 ;
61 [label="TASK_N_L <= 0.1\ngini = 0.5\nsamples = 7\nvalue = [160, 180]\nclass = 3", fillcolor="#e9f4fc"] ;
60 -> 61 ;
62 [label="gini = 0.3\nsamples = 4\nvalue = [40, 180]\nclass = 3", fillcolor="#65b3eb"] ;
61 -> 62 ;
63 [label="gini = 0.0\nsamples = 3\nvalue = [120, 0]\nclass = 1", fillcolor="#e58139"] ;
61 -> 63 ;
64 [label="gini = 0.0\nsamples = 14\nvalue = [880, 0]\nclass = 1", fillcolor="#e58139"] ;
60 -> 64 ;
65 [label="TASK_I <= 2.5\ngini = 0.16\nsamples = 78\nvalue = [4920, 480]\nclass = 1", fillcolor="#e88d4c"] ;
43 -> 65 ;
66 [label="TASK_N_L <= 0.1\ngini = 0.1\nsamples = 69\nvalue = [4400, 240]\nclass = 1", fillcolor="#e68844"] ;
65 -> 66 ;
67 [label="TASK_E <= 1.5\ngini = 0.19\nsamples = 32\nvalue = [2040, 240]\nclass = 1", fillcolor="#e89050"] ;
66 -> 67 ;
68 [label="gini = 0.0\nsamples = 9\nvalue = [640, 0]\nclass = 1", fillcolor="#e58139"] ;
67 -> 68 ;
69 [label="TASK_F <= 0.6\ngini = 0.25\nsamples = 23\nvalue = [1400, 240]\nclass = 1", fillcolor="#e9975b"] ;
67 -> 69 ;
70 [label="gini = 0.0\nsamples = 22\nvalue = [1400, 0]\nclass = 1", fillcolor="#e58139"] ;
69 -> 70 ;
71 [label="gini = 0.0\nsamples = 1\nvalue = [0, 240]\nclass = 3", fillcolor="#399de5"] ;
69 -> 71 ;
72 [label="gini = 0.0\nsamples = 37\nvalue = [2360, 0]\nclass = 1", fillcolor="#e58139"] ;
66 -> 72 ;
73 [label="TASK_N_L <= 0.5\ngini = 0.43\nsamples = 9\nvalue = [520, 240]\nclass = 1", fillcolor="#f1bb94"] ;
65 -> 73 ;
74 [label="TASK_RN <= 0.7\ngini = 0.47\nsamples = 8\nvalue = [400, 240]\nclass = 1", fillcolor="#f5cdb0"] ;
73 -> 74 ;
75 [label="gini = 0.0\nsamples = 5\nvalue = [360, 0]\nclass = 1", fillcolor="#e58139"] ;
74 -> 75 ;
76 [label="TASK_RN <= 0.9\ngini = 0.24\nsamples = 3\nvalue = [40, 240]\nclass = 3", fillcolor="#5aade9"] ;
74 -> 76 ;
77 [label="gini = 0.0\nsamples = 2\nvalue = [0, 240]\nclass = 3", fillcolor="#399de5"] ;
76 -> 77 ;
78 [label="gini = 0.0\nsamples = 1\nvalue = [40, 0]\nclass = 1", fillcolor="#e58139"] ;
76 -> 78 ;
79 [label="gini = 0.0\nsamples = 1\nvalue = [120, 0]\nclass = 1", fillcolor="#e58139"] ;
73 -> 79 ;
80 [label="TASK_F <= 0.1\ngini = 0.33\nsamples = 44\nvalue = [2240, 600]\nclass = 1", fillcolor="#eca36e"] ;
42 -> 80 ;
81 [label="TASK_R <= 0.5\ngini = 0.23\nsamples = 27\nvalue = [1560, 240]\nclass = 1", fillcolor="#e99457"] ;
80 -> 81 ;
82 [label="TASK_D <= 2.5\ngini = 0.35\nsamples = 15\nvalue = [840, 240]\nclass = 1", fillcolor="#eca572"] ;
81 -> 82 ;
83 [label="TASK_R <= -0.5\ngini = 0.36\nsamples = 14\nvalue = [760, 240]\nclass = 1", fillcolor="#eda978"] ;
82 -> 83 ;
84 [label="gini = 0.0\nsamples = 10\nvalue = [680, 0]\nclass = 1", fillcolor="#e58139"] ;
83 -> 84 ;
85 [label="TASK_I <= 1.5\ngini = 0.38\nsamples = 4\nvalue = [80, 240]\nclass = 3", fillcolor="#7bbeee"] ;
83 -> 85 ;
86 [label="gini = 0.0\nsamples = 1\nvalue = [40, 0]\nclass = 1", fillcolor="#e58139"] ;
85 -> 86 ;
87 [label="gini = 0.24\nsamples = 3\nvalue = [40, 240]\nclass = 3", fillcolor="#5aade9"] ;
85 -> 87 ;
88 [label="gini = 0.0\nsamples = 1\nvalue = [80, 0]\nclass = 1", fillcolor="#e58139"] ;
82 -> 88 ;
89 [label="gini = 0.0\nsamples = 12\nvalue = [720, 0]\nclass = 1", fillcolor="#e58139"] ;
81 -> 89 ;
90 [label="TASK_M <= 1.5\ngini = 0.45\nsamples = 17\nvalue = [680, 360]\nclass = 1", fillcolor="#f3c4a2"] ;
80 -> 90 ;
91 [label="TASK_R <= 15.0\ngini = 0.4\nsamples = 3\nvalue = [160, 60]\nclass = 1", fillcolor="#efb083"] ;
90 -> 91 ;
92 [label="gini = 0.0\nsamples = 1\nvalue = [0, 60]\nclass = 3", fillcolor="#399de5"] ;
91 -> 92 ;
93 [label="gini = 0.0\nsamples = 2\nvalue = [160, 0]\nclass = 1", fillcolor="#e58139"] ;
91 -> 93 ;
94 [label="TASK_F <= 0.3\ngini = 0.46\nsamples = 14\nvalue = [520, 300]\nclass = 1", fillcolor="#f4caab"] ;
90 -> 94 ;
95 [label="TASK_N_S <= 0.1\ngini = 0.49\nsamples = 11\nvalue = [320, 240]\nclass = 1", fillcolor="#f8e0ce"] ;
94 -> 95 ;
96 [label="TASK_I <= 1.5\ngini = 0.44\nsamples = 7\nvalue = [240, 120]\nclass = 1", fillcolor="#f2c09c"] ;
95 -> 96 ;
97 [label="gini = 0.0\nsamples = 3\nvalue = [120, 0]\nclass = 1", fillcolor="#e58139"] ;
96 -> 97 ;
98 [label="gini = 0.5\nsamples = 4\nvalue = [120, 120]\nclass = 1", fillcolor="#ffffff"] ;
96 -> 98 ;
99 [label="TASK_N_S <= 0.3\ngini = 0.48\nsamples = 4\nvalue = [80, 120]\nclass = 3", fillcolor="#bddef6"] ;
95 -> 99 ;
100 [label="gini = 0.0\nsamples = 1\nvalue = [0, 60]\nclass = 3", fillcolor="#399de5"] ;
99 -> 100 ;
101 [label="gini = 0.49\nsamples = 3\nvalue = [80, 60]\nclass = 1", fillcolor="#f8e0ce"] ;
99 -> 101 ;
102 [label="TASK_RN <= 0.8\ngini = 0.36\nsamples = 3\nvalue = [200, 60]\nclass = 1", fillcolor="#eda774"] ;
94 -> 102 ;
103 [label="gini = 0.0\nsamples = 1\nvalue = [0, 60]\nclass = 3", fillcolor="#399de5"] ;
102 -> 103 ;
104 [label="gini = 0.0\nsamples = 2\nvalue = [200, 0]\nclass = 1", fillcolor="#e58139"] ;
102 -> 104 ;
105 [label="TASK_R <= 14.0\ngini = 0.43\nsamples = 208\nvalue = [5200, 11400]\nclass = 3", fillcolor="#93caf1"] ;
41 -> 105 ;
106 [label="TASK_N_S <= 0.5\ngini = 0.41\nsamples = 195\nvalue = [4520, 11280]\nclass = 3", fillcolor="#88c4ef"] ;
105 -> 106 ;
107 [label="TASK_N_L <= 0.5\ngini = 0.49\nsamples = 119\nvalue = [3720, 5100]\nclass = 3", fillcolor="#c9e4f8"] ;
106 -> 107 ;
108 [label="TASK_RN <= 0.5\ngini = 0.48\nsamples = 117\nvalue = [3560, 5100]\nclass = 3", fillcolor="#c3e1f7"] ;
107 -> 108 ;
109 [label="TASK_N_L <= 0.3\ngini = 0.26\nsamples = 13\nvalue = [680, 120]\nclass = 1", fillcolor="#ea975c"] ;
108 -> 109 ;
110 [label="TASK_E <= 2.5\ngini = 0.17\nsamples = 10\nvalue = [560, 60]\nclass = 1", fillcolor="#e88e4e"] ;
109 -> 110 ;
111 [label="gini = 0.0\nsamples = 9\nvalue = [560, 0]\nclass = 1", fillcolor="#e58139"] ;
110 -> 111 ;
112 [label="gini = 0.0\nsamples = 1\nvalue = [0, 60]\nclass = 3", fillcolor="#399de5"] ;
110 -> 112 ;
113 [label="TASK_RN <= 0.3\ngini = 0.44\nsamples = 3\nvalue = [120, 60]\nclass = 1", fillcolor="#f2c09c"] ;
109 -> 113 ;
114 [label="gini = 0.48\nsamples = 2\nvalue = [40, 60]\nclass = 3", fillcolor="#bddef6"] ;
113 -> 114 ;
115 [label="gini = 0.0\nsamples = 1\nvalue = [80, 0]\nclass = 1", fillcolor="#e58139"] ;
113 -> 115 ;
116 [label="TASK_I <= 2.5\ngini = 0.46\nsamples = 104\nvalue = [2880, 4980]\nclass = 3", fillcolor="#acd6f4"] ;
108 -> 116 ;
117 [label="TASK_R <= 2.5\ngini = 0.49\nsamples = 74\nvalue = [2320, 3120]\nclass = 3", fillcolor="#cce6f8"] ;
116 -> 117 ;
118 [label="gini = 0.48\nsamples = 68\nvalue = [2040, 3000]\nclass = 3", fillcolor="#c0e0f7"] ;
117 -> 118 ;
119 [label="gini = 0.42\nsamples = 6\nvalue = [280, 120]\nclass = 1", fillcolor="#f0b78e"] ;
117 -> 119 ;
120 [label="TASK_RN <= 0.9\ngini = 0.36\nsamples = 30\nvalue = [560, 1860]\nclass = 3", fillcolor="#75bbed"] ;
116 -> 120 ;
121 [label="gini = 0.44\nsamples = 19\nvalue = [480, 1020]\nclass = 3", fillcolor="#96cbf1"] ;
120 -> 121 ;
122 [label="gini = 0.16\nsamples = 11\nvalue = [80, 840]\nclass = 3", fillcolor="#4ca6e7"] ;
120 -> 122 ;
123 [label="gini = 0.0\nsamples = 2\nvalue = [160, 0]\nclass = 1", fillcolor="#e58139"] ;
107 -> 123 ;
124 [label="TASK_N_S <= 0.7\ngini = 0.2\nsamples = 76\nvalue = [800, 6180]\nclass = 3", fillcolor="#53aae8"] ;
106 -> 124 ;
125 [label="TASK_R <= 3.5\ngini = 0.13\nsamples = 39\nvalue = [280, 3600]\nclass = 3", fillcolor="#48a5e7"] ;
124 -> 125 ;
126 [label="TASK_RN <= 0.7\ngini = 0.12\nsamples = 35\nvalue = [240, 3360]\nclass = 3", fillcolor="#47a4e7"] ;
125 -> 126 ;
127 [label="TASK_I <= 2.5\ngini = 0.48\nsamples = 5\nvalue = [120, 180]\nclass = 3", fillcolor="#bddef6"] ;
126 -> 127 ;
128 [label="gini = 0.44\nsamples = 4\nvalue = [120, 60]\nclass = 1", fillcolor="#f2c09c"] ;
127 -> 128 ;
129 [label="gini = 0.0\nsamples = 1\nvalue = [0, 120]\nclass = 3", fillcolor="#399de5"] ;
127 -> 129 ;
130 [label="TASK_E <= 2.5\ngini = 0.07\nsamples = 30\nvalue = [120, 3180]\nclass = 3", fillcolor="#40a1e6"] ;
126 -> 130 ;
131 [label="gini = 0.11\nsamples = 17\nvalue = [120, 1860]\nclass = 3", fillcolor="#46a3e7"] ;
130 -> 131 ;
132 [label="gini = 0.0\nsamples = 13\nvalue = [0, 1320]\nclass = 3", fillcolor="#399de5"] ;
130 -> 132 ;
133 [label="TASK_N_L <= 0.4\ngini = 0.24\nsamples = 4\nvalue = [40, 240]\nclass = 3", fillcolor="#5aade9"] ;
125 -> 133 ;
134 [label="gini = 0.0\nsamples = 3\nvalue = [0, 240]\nclass = 3", fillcolor="#399de5"] ;
133 -> 134 ;
135 [label="gini = 0.0\nsamples = 1\nvalue = [40, 0]\nclass = 1", fillcolor="#e58139"] ;
133 -> 135 ;
136 [label="TASK_I <= 1.5\ngini = 0.28\nsamples = 37\nvalue = [520, 2580]\nclass = 3", fillcolor="#61b1ea"] ;
124 -> 136 ;
137 [label="TASK_E <= 2.5\ngini = 0.5\nsamples = 4\nvalue = [200, 240]\nclass = 3", fillcolor="#deeffb"] ;
136 -> 137 ;
138 [label="TASK_N_L <= 0.1\ngini = 0.47\nsamples = 3\nvalue = [200, 120]\nclass = 1", fillcolor="#f5cdb0"] ;
137 -> 138 ;
139 [label="gini = 0.0\nsamples = 1\nvalue = [0, 120]\nclass = 3", fillcolor="#399de5"] ;
138 -> 139 ;
140 [label="gini = 0.0\nsamples = 2\nvalue = [200, 0]\nclass = 1", fillcolor="#e58139"] ;
138 -> 140 ;
141 [label="gini = 0.0\nsamples = 1\nvalue = [0, 120]\nclass = 3", fillcolor="#399de5"] ;
137 -> 141 ;
142 [label="TASK_I <= 2.5\ngini = 0.21\nsamples = 33\nvalue = [320, 2340]\nclass = 3", fillcolor="#54aae9"] ;
136 -> 142 ;
143 [label="TASK_R <= -0.5\ngini = 0.28\nsamples = 21\nvalue = [280, 1380]\nclass = 3", fillcolor="#61b1ea"] ;
142 -> 143 ;
144 [label="gini = 0.4\nsamples = 8\nvalue = [160, 420]\nclass = 3", fillcolor="#84c2ef"] ;
143 -> 144 ;
145 [label="gini = 0.2\nsamples = 13\nvalue = [120, 960]\nclass = 3", fillcolor="#52a9e8"] ;
143 -> 145 ;
146 [label="TASK_RN <= 0.5\ngini = 0.08\nsamples = 12\nvalue = [40, 960]\nclass = 3", fillcolor="#41a1e6"] ;
142 -> 146 ;
147 [label="gini = 0.0\nsamples = 1\nvalue = [40, 0]\nclass = 1", fillcolor="#e58139"] ;
146 -> 147 ;
148 [label="gini = 0.0\nsamples = 11\nvalue = [0, 960]\nclass = 3", fillcolor="#399de5"] ;
146 -> 148 ;
149 [label="TASK_R <= 26.5\ngini = 0.26\nsamples = 13\nvalue = [680, 120]\nclass = 1", fillcolor="#ea975c"] ;
105 -> 149 ;
150 [label="TASK_RN <= 0.9\ngini = 0.4\nsamples = 7\nvalue = [320, 120]\nclass = 1", fillcolor="#efb083"] ;
149 -> 150 ;
151 [label="gini = 0.0\nsamples = 4\nvalue = [200, 0]\nclass = 1", fillcolor="#e58139"] ;
150 -> 151 ;
152 [label="TASK_M <= 1.5\ngini = 0.5\nsamples = 3\nvalue = [120, 120]\nclass = 1", fillcolor="#ffffff"] ;
150 -> 152 ;
153 [label="gini = 0.0\nsamples = 1\nvalue = [80, 0]\nclass = 1", fillcolor="#e58139"] ;
152 -> 153 ;
154 [label="TASK_E <= 2.5\ngini = 0.38\nsamples = 2\nvalue = [40, 120]\nclass = 3", fillcolor="#7bbeee"] ;
152 -> 154 ;
155 [label="gini = 0.0\nsamples = 1\nvalue = [40, 0]\nclass = 1", fillcolor="#e58139"] ;
154 -> 155 ;
156 [label="gini = 0.0\nsamples = 1\nvalue = [0, 120]\nclass = 3", fillcolor="#399de5"] ;
154 -> 156 ;
157 [label="gini = 0.0\nsamples = 6\nvalue = [360, 0]\nclass = 1", fillcolor="#e58139"] ;
149 -> 157 ;
158 [label="TASK_N_L <= 0.9\ngini = 0.41\nsamples = 2211\nvalue = [52720, 129780]\nclass = 3", fillcolor="#89c5f0"] ;
0 -> 158 [labeldistance=2.5, labelangle=-45, headlabel="False"] ;
159 [label="TASK_E <= 2.5\ngini = 0.49\nsamples = 978\nvalue = [33200, 41640]\nclass = 3", fillcolor="#d7ebfa"] ;
158 -> 159 ;
160 [label="TASK_I <= 2.5\ngini = 0.46\nsamples = 713\nvalue = [32160, 18600]\nclass = 1", fillcolor="#f4caac"] ;
159 -> 160 ;
161 [label="TASK_D <= 1.5\ngini = 0.41\nsamples = 607\nvalue = [29800, 12000]\nclass = 1", fillcolor="#efb489"] ;
160 -> 161 ;
162 [label="TASK_RN <= 0.9\ngini = 0.05\nsamples = 107\nvalue = [6320, 180]\nclass = 1", fillcolor="#e6853f"] ;
161 -> 162 ;
163 [label="gini = 0.0\nsamples = 48\nvalue = [3280, 0]\nclass = 1", fillcolor="#e58139"] ;
162 -> 163 ;
164 [label="TASK_R <= 0.5\ngini = 0.11\nsamples = 59\nvalue = [3040, 180]\nclass = 1", fillcolor="#e78845"] ;
162 -> 164 ;
165 [label="TASK_R <= -0.5\ngini = 0.04\nsamples = 49\nvalue = [2640, 60]\nclass = 1", fillcolor="#e6843d"] ;
164 -> 165 ;
166 [label="gini = 0.0\nsamples = 29\nvalue = [1560, 0]\nclass = 1", fillcolor="#e58139"] ;
165 -> 166 ;
167 [label="TASK_N_L <= 0.5\ngini = 0.1\nsamples = 20\nvalue = [1080, 60]\nclass = 1", fillcolor="#e68844"] ;
165 -> 167 ;
168 [label="gini = 0.0\nsamples = 12\nvalue = [760, 0]\nclass = 1", fillcolor="#e58139"] ;
167 -> 168 ;
169 [label="gini = 0.27\nsamples = 8\nvalue = [320, 60]\nclass = 1", fillcolor="#ea995e"] ;
167 -> 169 ;
170 [label="TASK_F <= 0.3\ngini = 0.36\nsamples = 10\nvalue = [400, 120]\nclass = 1", fillcolor="#eda774"] ;
164 -> 170 ;
171 [label="gini = 0.0\nsamples = 8\nvalue = [360, 0]\nclass = 1", fillcolor="#e58139"] ;
170 -> 171 ;
172 [label="TASK_F <= 0.7\ngini = 0.38\nsamples = 2\nvalue = [40, 120]\nclass = 3", fillcolor="#7bbeee"] ;
170 -> 172 ;
173 [label="gini = 0.0\nsamples = 1\nvalue = [0, 120]\nclass = 3", fillcolor="#399de5"] ;
172 -> 173 ;
174 [label="gini = 0.0\nsamples = 1\nvalue = [40, 0]\nclass = 1", fillcolor="#e58139"] ;
172 -> 174 ;
175 [label="TASK_E <= 1.5\ngini = 0.45\nsamples = 500\nvalue = [23480, 11820]\nclass = 1", fillcolor="#f2c09d"] ;
161 -> 175 ;
176 [label="TASK_I <= 1.5\ngini = 0.28\nsamples = 124\nvalue = [7120, 1440]\nclass = 1", fillcolor="#ea9a61"] ;
175 -> 176 ;
177 [label="TASK_N_L <= 0.1\ngini = 0.09\nsamples = 38\nvalue = [2360, 120]\nclass = 1", fillcolor="#e68743"] ;
176 -> 177 ;
178 [label="TASK_R <= 0.5\ngini = 0.23\nsamples = 14\nvalue = [800, 120]\nclass = 1", fillcolor="#e99457"] ;
177 -> 178 ;
179 [label="gini = 0.27\nsamples = 11\nvalue = [640, 120]\nclass = 1", fillcolor="#ea995e"] ;
178 -> 179 ;
180 [label="gini = 0.0\nsamples = 3\nvalue = [160, 0]\nclass = 1", fillcolor="#e58139"] ;
178 -> 180 ;
181 [label="gini = 0.0\nsamples = 24\nvalue = [1560, 0]\nclass = 1", fillcolor="#e58139"] ;
177 -> 181 ;
182 [label="TASK_RN <= 0.7\ngini = 0.34\nsamples = 86\nvalue = [4760, 1320]\nclass = 1", fillcolor="#eca470"] ;
176 -> 182 ;
183 [label="gini = 0.0\nsamples = 31\nvalue = [2080, 0]\nclass = 1", fillcolor="#e58139"] ;
182 -> 183 ;
184 [label="TASK_R <= -0.5\ngini = 0.44\nsamples = 55\nvalue = [2680, 1320]\nclass = 1", fillcolor="#f2bf9b"] ;
182 -> 184 ;
185 [label="gini = 0.45\nsamples = 10\nvalue = [320, 600]\nclass = 3", fillcolor="#a3d1f3"] ;
184 -> 185 ;
186 [label="gini = 0.36\nsamples = 45\nvalue = [2360, 720]\nclass = 1", fillcolor="#eda775"] ;
184 -> 186 ;
187 [label="TASK_F <= 0.9\ngini = 0.47\nsamples = 376\nvalue = [16360, 10380]\nclass = 1", fillcolor="#f5d1b7"] ;
175 -> 187 ;
188 [label="TASK_RN <= 0.5\ngini = 0.25\nsamples = 252\nvalue = [14640, 2520]\nclass = 1", fillcolor="#e9975b"] ;
187 -> 188 ;
189 [label="gini = 0.0\nsamples = 51\nvalue = [3760, 0]\nclass = 1", fillcolor="#e58139"] ;
188 -> 189 ;
190 [label="TASK_F <= 0.1\ngini = 0.31\nsamples = 201\nvalue = [10880, 2520]\nclass = 1", fillcolor="#eb9e67"] ;
188 -> 190 ;
191 [label="gini = 0.21\nsamples = 112\nvalue = [6640, 900]\nclass = 1", fillcolor="#e99254"] ;
190 -> 191 ;
192 [label="gini = 0.4\nsamples = 89\nvalue = [4240, 1620]\nclass = 1", fillcolor="#efb185"] ;
190 -> 192 ;
193 [label="TASK_R <= -0.5\ngini = 0.29\nsamples = 124\nvalue = [1720, 7860]\nclass = 3", fillcolor="#64b2eb"] ;
187 -> 193 ;
194 [label="TASK_D <= 2.5\ngini = 0.19\nsamples = 76\nvalue = [640, 5460]\nclass = 3", fillcolor="#50a8e8"] ;
193 -> 194 ;
195 [label="gini = 0.19\nsamples = 74\nvalue = [640, 5340]\nclass = 3", fillcolor="#51a9e8"] ;
194 -> 195 ;
196 [label="gini = 0.0\nsamples = 2\nvalue = [0, 120]\nclass = 3", fillcolor="#399de5"] ;
194 -> 196 ;
197 [label="TASK_M <= 1.5\ngini = 0.43\nsamples = 48\nvalue = [1080, 2400]\nclass = 3", fillcolor="#92c9f1"] ;
193 -> 197 ;
198 [label="gini = 0.0\nsamples = 1\nvalue = [80, 0]\nclass = 1", fillcolor="#e58139"] ;
197 -> 198 ;
199 [label="gini = 0.42\nsamples = 47\nvalue = [1000, 2400]\nclass = 3", fillcolor="#8bc6f0"] ;
197 -> 199 ;
200 [label="TASK_F <= 0.7\ngini = 0.39\nsamples = 106\nvalue = [2360, 6600]\nclass = 3", fillcolor="#80c0ee"] ;
160 -> 200 ;
201 [label="TASK_RN <= 0.9\ngini = 0.5\nsamples = 48\nvalue = [2120, 1740]\nclass = 1", fillcolor="#fae8dc"] ;
200 -> 201 ;
202 [label="TASK_F <= 0.1\ngini = 0.38\nsamples = 28\nvalue = [1560, 540]\nclass = 1", fillcolor="#eead7e"] ;
201 -> 202 ;
203 [label="TASK_RN <= 0.3\ngini = 0.45\nsamples = 17\nvalue = [920, 480]\nclass = 1", fillcolor="#f3c3a0"] ;
202 -> 203 ;
204 [label="gini = 0.0\nsamples = 4\nvalue = [280, 0]\nclass = 1", fillcolor="#e58139"] ;
203 -> 204 ;
205 [label="TASK_RN <= 0.7\ngini = 0.49\nsamples = 13\nvalue = [640, 480]\nclass = 1", fillcolor="#f8e0ce"] ;
203 -> 205 ;
206 [label="gini = 0.33\nsamples = 3\nvalue = [80, 300]\nclass = 3", fillcolor="#6eb7ec"] ;
205 -> 206 ;
207 [label="gini = 0.37\nsamples = 10\nvalue = [560, 180]\nclass = 1", fillcolor="#edaa79"] ;
205 -> 207 ;
208 [label="TASK_R <= -0.5\ngini = 0.16\nsamples = 11\nvalue = [640, 60]\nclass = 1", fillcolor="#e78d4c"] ;
202 -> 208 ;
209 [label="TASK_F <= 0.3\ngini = 0.36\nsamples = 4\nvalue = [200, 60]\nclass = 1", fillcolor="#eda774"] ;
208 -> 209 ;
210 [label="gini = 0.0\nsamples = 2\nvalue = [120, 0]\nclass = 1", fillcolor="#e58139"] ;
209 -> 210 ;
211 [label="gini = 0.49\nsamples = 2\nvalue = [80, 60]\nclass = 1", fillcolor="#f8e0ce"] ;
209 -> 211 ;
212 [label="gini = 0.0\nsamples = 7\nvalue = [440, 0]\nclass = 1", fillcolor="#e58139"] ;
208 -> 212 ;
213 [label="TASK_E <= 1.5\ngini = 0.43\nsamples = 20\nvalue = [560, 1200]\nclass = 3", fillcolor="#95cbf1"] ;
201 -> 213 ;
214 [label="gini = 0.0\nsamples = 1\nvalue = [80, 0]\nclass = 1", fillcolor="#e58139"] ;
213 -> 214 ;
215 [label="TASK_R <= 0.5\ngini = 0.41\nsamples = 19\nvalue = [480, 1200]\nclass = 3", fillcolor="#88c4ef"] ;
213 -> 215 ;
216 [label="TASK_F <= 0.1\ngini = 0.22\nsamples = 15\nvalue = [160, 1140]\nclass = 3", fillcolor="#55abe9"] ;
215 -> 216 ;
217 [label="gini = 0.44\nsamples = 5\nvalue = [120, 240]\nclass = 3", fillcolor="#9ccef2"] ;
216 -> 217 ;
218 [label="gini = 0.08\nsamples = 10\nvalue = [40, 900]\nclass = 3", fillcolor="#42a1e6"] ;
216 -> 218 ;
219 [label="TASK_F <= 0.2\ngini = 0.27\nsamples = 4\nvalue = [320, 60]\nclass = 1", fillcolor="#ea995e"] ;
215 -> 219 ;
220 [label="gini = 0.4\nsamples = 3\nvalue = [160, 60]\nclass = 1", fillcolor="#efb083"] ;
219 -> 220 ;
221 [label="gini = 0.0\nsamples = 1\nvalue = [160, 0]\nclass = 1", fillcolor="#e58139"] ;
219 -> 221 ;
222 [label="TASK_D <= 1.5\ngini = 0.09\nsamples = 58\nvalue = [240, 4860]\nclass = 3", fillcolor="#43a2e6"] ;
200 -> 222 ;
223 [label="gini = 0.0\nsamples = 1\nvalue = [40, 0]\nclass = 1", fillcolor="#e58139"] ;
222 -> 223 ;
224 [label="TASK_RN <= 0.1\ngini = 0.08\nsamples = 57\nvalue = [200, 4860]\nclass = 3", fillcolor="#41a1e6"] ;
222 -> 224 ;
225 [label="gini = 0.0\nsamples = 1\nvalue = [40, 0]\nclass = 1", fillcolor="#e58139"] ;
224 -> 225 ;
226 [label="TASK_RN <= 0.9\ngini = 0.06\nsamples = 56\nvalue = [160, 4860]\nclass = 3", fillcolor="#40a0e6"] ;
224 -> 226 ;
227 [label="TASK_RN <= 0.3\ngini = 0.14\nsamples = 19\nvalue = [160, 1920]\nclass = 3", fillcolor="#49a5e7"] ;
226 -> 227 ;
228 [label="gini = 0.3\nsamples = 2\nvalue = [40, 180]\nclass = 3", fillcolor="#65b3eb"] ;
227 -> 228 ;
229 [label="gini = 0.12\nsamples = 17\nvalue = [120, 1740]\nclass = 3", fillcolor="#47a4e7"] ;
227 -> 229 ;
230 [label="gini = 0.0\nsamples = 37\nvalue = [0, 2940]\nclass = 3", fillcolor="#399de5"] ;
226 -> 230 ;
231 [label="TASK_D <= 1.5\ngini = 0.08\nsamples = 265\nvalue = [1040, 23040]\nclass = 3", fillcolor="#42a1e6"] ;
159 -> 231 ;
232 [label="gini = 0.0\nsamples = 3\nvalue = [200, 0]\nclass = 1", fillcolor="#e58139"] ;
231 -> 232 ;
233 [label="TASK_RN <= 0.5\ngini = 0.07\nsamples = 262\nvalue = [840, 23040]\nclass = 3", fillcolor="#40a1e6"] ;
231 -> 233 ;
234 [label="TASK_N_L <= 0.7\ngini = 0.32\nsamples = 4\nvalue = [240, 60]\nclass = 1", fillcolor="#eca06a"] ;
233 -> 234 ;
235 [label="gini = 0.0\nsamples = 2\nvalue = [120, 0]\nclass = 1", fillcolor="#e58139"] ;
234 -> 235 ;
236 [label="TASK_R <= 10.5\ngini = 0.44\nsamples = 2\nvalue = [120, 60]\nclass = 1", fillcolor="#f2c09c"] ;
234 -> 236 ;
237 [label="gini = 0.0\nsamples = 1\nvalue = [0, 60]\nclass = 3", fillcolor="#399de5"] ;
236 -> 237 ;
238 [label="gini = 0.0\nsamples = 1\nvalue = [120, 0]\nclass = 1", fillcolor="#e58139"] ;
236 -> 238 ;
239 [label="TASK_F <= 0.1\ngini = 0.05\nsamples = 258\nvalue = [600, 22980]\nclass = 3", fillcolor="#3ea0e6"] ;
233 -> 239 ;
240 [label="TASK_I <= 1.5\ngini = 0.35\nsamples = 12\nvalue = [240, 840]\nclass = 3", fillcolor="#72b9ec"] ;
239 -> 240 ;
241 [label="gini = 0.0\nsamples = 2\nvalue = [80, 0]\nclass = 1", fillcolor="#e58139"] ;
240 -> 241 ;
242 [label="TASK_R <= -0.5\ngini = 0.27\nsamples = 10\nvalue = [160, 840]\nclass = 3", fillcolor="#5fb0ea"] ;
240 -> 242 ;
243 [label="TASK_I <= 2.5\ngini = 0.48\nsamples = 2\nvalue = [120, 180]\nclass = 3", fillcolor="#bddef6"] ;
242 -> 243 ;
244 [label="gini = 0.0\nsamples = 1\nvalue = [120, 0]\nclass = 1", fillcolor="#e58139"] ;
243 -> 244 ;
245 [label="gini = 0.0\nsamples = 1\nvalue = [0, 180]\nclass = 3", fillcolor="#399de5"] ;
243 -> 245 ;
246 [label="TASK_R <= 2.5\ngini = 0.11\nsamples = 8\nvalue = [40, 660]\nclass = 3", fillcolor="#45a3e7"] ;
242 -> 246 ;
247 [label="gini = 0.0\nsamples = 5\nvalue = [0, 420]\nclass = 3", fillcolor="#399de5"] ;
246 -> 247 ;
248 [label="gini = 0.24\nsamples = 3\nvalue = [40, 240]\nclass = 3", fillcolor="#5aade9"] ;
246 -> 248 ;
249 [label="TASK_RN <= 0.7\ngini = 0.03\nsamples = 246\nvalue = [360, 22140]\nclass = 3", fillcolor="#3c9fe5"] ;
239 -> 249 ;
250 [label="TASK_R <= 18.0\ngini = 0.12\nsamples = 8\nvalue = [40, 600]\nclass = 3", fillcolor="#46a4e7"] ;
249 -> 250 ;
251 [label="gini = 0.0\nsamples = 7\nvalue = [0, 600]\nclass = 3", fillcolor="#399de5"] ;
250 -> 251 ;
252 [label="gini = 0.0\nsamples = 1\nvalue = [40, 0]\nclass = 1", fillcolor="#e58139"] ;
250 -> 252 ;
253 [label="TASK_F <= 0.6\ngini = 0.03\nsamples = 238\nvalue = [320, 21540]\nclass = 3", fillcolor="#3c9ee5"] ;
249 -> 253 ;
254 [label="TASK_R <= 5.0\ngini = 0.08\nsamples = 25\nvalue = [80, 1860]\nclass = 3", fillcolor="#42a1e6"] ;
253 -> 254 ;
255 [label="gini = 0.0\nsamples = 22\nvalue = [0, 1800]\nclass = 3", fillcolor="#399de5"] ;
254 -> 255 ;
256 [label="gini = 0.49\nsamples = 3\nvalue = [80, 60]\nclass = 1", fillcolor="#f8e0ce"] ;
254 -> 256 ;
257 [label="TASK_I <= 1.5\ngini = 0.02\nsamples = 213\nvalue = [240, 19680]\nclass = 3", fillcolor="#3b9ee5"] ;
253 -> 257 ;
258 [label="gini = 0.05\nsamples = 54\nvalue = [120, 4500]\nclass = 3", fillcolor="#3ea0e6"] ;
257 -> 258 ;
259 [label="gini = 0.02\nsamples = 159\nvalue = [120, 15180]\nclass = 3", fillcolor="#3b9ee5"] ;
257 -> 259 ;
260 [label="TASK_F <= 0.3\ngini = 0.3\nsamples = 1233\nvalue = [19520, 88140]\nclass = 3", fillcolor="#65b3eb"] ;
158 -> 260 ;
261 [label="TASK_E <= 2.5\ngini = 0.49\nsamples = 343\nvalue = [14480, 10680]\nclass = 1", fillcolor="#f8decb"] ;
260 -> 261 ;
262 [label="TASK_RN <= 0.9\ngini = 0.46\nsamples = 293\nvalue = [13560, 7320]\nclass = 1", fillcolor="#f3c5a4"] ;
261 -> 262 ;
263 [label="TASK_R <= 4.5\ngini = 0.3\nsamples = 167\nvalue = [9240, 2100]\nclass = 1", fillcolor="#eb9e66"] ;
262 -> 263 ;
264 [label="TASK_I <= 1.5\ngini = 0.34\nsamples = 142\nvalue = [7680, 2100]\nclass = 1", fillcolor="#eca36f"] ;
263 -> 264 ;
265 [label="TASK_RN <= 0.3\ngini = 0.17\nsamples = 40\nvalue = [2360, 240]\nclass = 1", fillcolor="#e88e4d"] ;
264 -> 265 ;
266 [label="gini = 0.0\nsamples = 8\nvalue = [400, 0]\nclass = 1", fillcolor="#e58139"] ;
265 -> 266 ;
267 [label="TASK_E <= 1.5\ngini = 0.19\nsamples = 32\nvalue = [1960, 240]\nclass = 1", fillcolor="#e89051"] ;
265 -> 267 ;
268 [label="gini = 0.0\nsamples = 11\nvalue = [560, 0]\nclass = 1", fillcolor="#e58139"] ;
267 -> 268 ;
269 [label="gini = 0.25\nsamples = 21\nvalue = [1400, 240]\nclass = 1", fillcolor="#e9975b"] ;
267 -> 269 ;
270 [label="TASK_R <= 3.5\ngini = 0.38\nsamples = 102\nvalue = [5320, 1860]\nclass = 1", fillcolor="#eead7e"] ;
264 -> 270 ;
271 [label="TASK_RN <= 0.7\ngini = 0.38\nsamples = 101\nvalue = [5320, 1800]\nclass = 1", fillcolor="#eeac7c"] ;
270 -> 271 ;
272 [label="gini = 0.23\nsamples = 55\nvalue = [3160, 480]\nclass = 1", fillcolor="#e99457"] ;
271 -> 272 ;
273 [label="gini = 0.47\nsamples = 46\nvalue = [2160, 1320]\nclass = 1", fillcolor="#f5ceb2"] ;
271 -> 273 ;
274 [label="gini = 0.0\nsamples = 1\nvalue = [0, 60]\nclass = 3", fillcolor="#399de5"] ;
270 -> 274 ;
275 [label="gini = 0.0\nsamples = 25\nvalue = [1560, 0]\nclass = 1", fillcolor="#e58139"] ;
263 -> 275 ;
276 [label="TASK_M <= 1.5\ngini = 0.5\nsamples = 126\nvalue = [4320, 5220]\nclass = 3", fillcolor="#ddeefb"] ;
262 -> 276 ;
277 [label="gini = 0.0\nsamples = 1\nvalue = [40, 0]\nclass = 1", fillcolor="#e58139"] ;
276 -> 277 ;
278 [label="TASK_I <= 2.5\ngini = 0.5\nsamples = 125\nvalue = [4280, 5220]\nclass = 3", fillcolor="#dbedfa"] ;
276 -> 278 ;
279 [label="TASK_E <= 1.5\ngini = 0.5\nsamples = 108\nvalue = [4080, 4020]\nclass = 1", fillcolor="#fffdfc"] ;
278 -> 279 ;
280 [label="TASK_R <= 0.5\ngini = 0.34\nsamples = 21\nvalue = [1080, 300]\nclass = 1", fillcolor="#eca470"] ;
279 -> 280 ;
281 [label="gini = 0.11\nsamples = 19\nvalue = [1000, 60]\nclass = 1", fillcolor="#e78945"] ;
280 -> 281 ;
282 [label="gini = 0.38\nsamples = 2\nvalue = [80, 240]\nclass = 3", fillcolor="#7bbeee"] ;
280 -> 282 ;
283 [label="TASK_R <= 3.5\ngini = 0.49\nsamples = 87\nvalue = [3000, 3720]\nclass = 3", fillcolor="#d9ecfa"] ;
279 -> 283 ;
284 [label="gini = 0.5\nsamples = 78\nvalue = [2840, 3180]\nclass = 3", fillcolor="#eaf5fc"] ;
283 -> 284 ;
285 [label="gini = 0.35\nsamples = 9\nvalue = [160, 540]\nclass = 3", fillcolor="#74baed"] ;
283 -> 285 ;
286 [label="TASK_R <= -0.5\ngini = 0.24\nsamples = 17\nvalue = [200, 1200]\nclass = 3", fillcolor="#5aade9"] ;
278 -> 286 ;
287 [label="TASK_D <= 1.5\ngini = 0.08\nsamples = 12\nvalue = [40, 960]\nclass = 3", fillcolor="#41a1e6"] ;
286 -> 287 ;
288 [label="gini = 0.0\nsamples = 1\nvalue = [40, 0]\nclass = 1", fillcolor="#e58139"] ;
287 -> 288 ;
289 [label="gini = 0.0\nsamples = 11\nvalue = [0, 960]\nclass = 3", fillcolor="#399de5"] ;
287 -> 289 ;
290 [label="TASK_E <= 1.5\ngini = 0.48\nsamples = 5\nvalue = [160, 240]\nclass = 3", fillcolor="#bddef6"] ;
286 -> 290 ;
291 [label="gini = 0.0\nsamples = 2\nvalue = [160, 0]\nclass = 1", fillcolor="#e58139"] ;
290 -> 291 ;
292 [label="gini = 0.0\nsamples = 3\nvalue = [0, 240]\nclass = 3", fillcolor="#399de5"] ;
290 -> 292 ;
293 [label="TASK_RN <= 0.2\ngini = 0.34\nsamples = 50\nvalue = [920, 3360]\nclass = 3", fillcolor="#6fb8ec"] ;
261 -> 293 ;
294 [label="gini = 0.0\nsamples = 1\nvalue = [80, 0]\nclass = 1", fillcolor="#e58139"] ;
293 -> 294 ;
295 [label="TASK_R <= 4.0\ngini = 0.32\nsamples = 49\nvalue = [840, 3360]\nclass = 3", fillcolor="#6ab6ec"] ;
293 -> 295 ;
296 [label="TASK_RN <= 0.9\ngini = 0.16\nsamples = 40\nvalue = [320, 3240]\nclass = 3", fillcolor="#4da7e8"] ;
295 -> 296 ;
297 [label="TASK_R <= -0.5\ngini = 0.05\nsamples = 17\nvalue = [40, 1500]\nclass = 3", fillcolor="#3ea0e6"] ;
296 -> 297 ;
298 [label="gini = 0.0\nsamples = 9\nvalue = [0, 780]\nclass = 3", fillcolor="#399de5"] ;
297 -> 298 ;
299 [label="TASK_F <= 0.1\ngini = 0.1\nsamples = 8\nvalue = [40, 720]\nclass = 3", fillcolor="#44a2e6"] ;
297 -> 299 ;
300 [label="gini = 0.0\nsamples = 4\nvalue = [0, 420]\nclass = 3", fillcolor="#399de5"] ;
299 -> 300 ;
301 [label="gini = 0.21\nsamples = 4\nvalue = [40, 300]\nclass = 3", fillcolor="#53aae8"] ;
299 -> 301 ;
302 [label="TASK_R <= -0.5\ngini = 0.24\nsamples = 23\nvalue = [280, 1740]\nclass = 3", fillcolor="#59ade9"] ;
296 -> 302 ;
303 [label="TASK_D <= 1.5\ngini = 0.4\nsamples = 7\nvalue = [160, 420]\nclass = 3", fillcolor="#84c2ef"] ;
302 -> 303 ;
304 [label="gini = 0.0\nsamples = 1\nvalue = [40, 0]\nclass = 1", fillcolor="#e58139"] ;
303 -> 304 ;
305 [label="gini = 0.35\nsamples = 6\nvalue = [120, 420]\nclass = 3", fillcolor="#72b9ec"] ;
303 -> 305 ;
306 [label="TASK_I <= 1.5\ngini = 0.15\nsamples = 16\nvalue = [120, 1320]\nclass = 3", fillcolor="#4ba6e7"] ;
302 -> 306 ;
307 [label="gini = 0.0\nsamples = 3\nvalue = [0, 360]\nclass = 3", fillcolor="#399de5"] ;
306 -> 307 ;
308 [label="gini = 0.2\nsamples = 13\nvalue = [120, 960]\nclass = 3", fillcolor="#52a9e8"] ;
306 -> 308 ;
309 [label="TASK_F <= 0.1\ngini = 0.3\nsamples = 9\nvalue = [520, 120]\nclass = 1", fillcolor="#eb9e67"] ;
295 -> 309 ;
310 [label="gini = 0.0\nsamples = 4\nvalue = [360, 0]\nclass = 1", fillcolor="#e58139"] ;
309 -> 310 ;
311 [label="TASK_I <= 2.5\ngini = 0.49\nsamples = 5\nvalue = [160, 120]\nclass = 1", fillcolor="#f8e0ce"] ;
309 -> 311 ;
312 [label="TASK_R <= 48.5\ngini = 0.4\nsamples = 4\nvalue = [160, 60]\nclass = 1", fillcolor="#efb083"] ;
311 -> 312 ;
313 [label="gini = 0.0\nsamples = 2\nvalue = [80, 0]\nclass = 1", fillcolor="#e58139"] ;
312 -> 313 ;
314 [label="gini = 0.49\nsamples = 2\nvalue = [80, 60]\nclass = 1", fillcolor="#f8e0ce"] ;
312 -> 314 ;
315 [label="gini = 0.0\nsamples = 1\nvalue = [0, 60]\nclass = 3", fillcolor="#399de5"] ;
311 -> 315 ;
316 [label="TASK_E <= 1.5\ngini = 0.11\nsamples = 890\nvalue = [5040, 77460]\nclass = 3", fillcolor="#46a3e7"] ;
260 -> 316 ;
317 [label="TASK_I <= 1.5\ngini = 0.49\nsamples = 64\nvalue = [2120, 2880]\nclass = 3", fillcolor="#cbe5f8"] ;
316 -> 317 ;
318 [label="TASK_M <= 1.5\ngini = 0.41\nsamples = 15\nvalue = [880, 360]\nclass = 1", fillcolor="#f0b58a"] ;
317 -> 318 ;
319 [label="gini = 0.0\nsamples = 1\nvalue = [0, 120]\nclass = 3", fillcolor="#399de5"] ;
318 -> 319 ;
320 [label="TASK_RN <= 0.9\ngini = 0.34\nsamples = 14\nvalue = [880, 240]\nclass = 1", fillcolor="#eca36f"] ;
318 -> 320 ;
321 [label="gini = 0.0\nsamples = 5\nvalue = [400, 0]\nclass = 1", fillcolor="#e58139"] ;
320 -> 321 ;
322 [label="TASK_D <= 1.5\ngini = 0.44\nsamples = 9\nvalue = [480, 240]\nclass = 1", fillcolor="#f2c09c"] ;
320 -> 322 ;
323 [label="gini = 0.0\nsamples = 1\nvalue = [80, 0]\nclass = 1", fillcolor="#e58139"] ;
322 -> 323 ;
324 [label="TASK_F <= 0.7\ngini = 0.47\nsamples = 8\nvalue = [400, 240]\nclass = 1", fillcolor="#f5cdb0"] ;
322 -> 324 ;
325 [label="gini = 0.0\nsamples = 1\nvalue = [40, 0]\nclass = 1", fillcolor="#e58139"] ;
324 -> 325 ;
326 [label="gini = 0.48\nsamples = 7\nvalue = [360, 240]\nclass = 1", fillcolor="#f6d5bd"] ;
324 -> 326 ;
327 [label="TASK_I <= 2.5\ngini = 0.44\nsamples = 49\nvalue = [1240, 2520]\nclass = 3", fillcolor="#9acdf2"] ;
317 -> 327 ;
328 [label="TASK_RN <= 0.3\ngini = 0.47\nsamples = 43\nvalue = [1160, 1920]\nclass = 3", fillcolor="#b1d8f5"] ;
327 -> 328 ;
329 [label="gini = 0.0\nsamples = 4\nvalue = [200, 0]\nclass = 1", fillcolor="#e58139"] ;
328 -> 329 ;
330 [label="TASK_RN <= 0.7\ngini = 0.44\nsamples = 39\nvalue = [960, 1920]\nclass = 3", fillcolor="#9ccef2"] ;
328 -> 330 ;
331 [label="TASK_RN <= 0.5\ngini = 0.49\nsamples = 8\nvalue = [240, 300]\nclass = 3", fillcolor="#d7ebfa"] ;
330 -> 331 ;
332 [label="gini = 0.48\nsamples = 4\nvalue = [80, 120]\nclass = 3", fillcolor="#bddef6"] ;
331 -> 332 ;
333 [label="gini = 0.5\nsamples = 4\nvalue = [160, 180]\nclass = 3", fillcolor="#e9f4fc"] ;
331 -> 333 ;
334 [label="TASK_M <= 1.5\ngini = 0.43\nsamples = 31\nvalue = [720, 1620]\nclass = 3", fillcolor="#91c9f1"] ;
330 -> 334 ;
335 [label="gini = 0.0\nsamples = 1\nvalue = [80, 0]\nclass = 1", fillcolor="#e58139"] ;
334 -> 335 ;
336 [label="gini = 0.41\nsamples = 30\nvalue = [640, 1620]\nclass = 3", fillcolor="#87c4ef"] ;
334 -> 336 ;
337 [label="TASK_RN <= 0.7\ngini = 0.21\nsamples = 6\nvalue = [80, 600]\nclass = 3", fillcolor="#53aae8"] ;
327 -> 337 ;
338 [label="gini = 0.0\nsamples = 1\nvalue = [80, 0]\nclass = 1", fillcolor="#e58139"] ;
337 -> 338 ;
339 [label="gini = 0.0\nsamples = 5\nvalue = [0, 600]\nclass = 3", fillcolor="#399de5"] ;
337 -> 339 ;
340 [label="TASK_RN <= 0.1\ngini = 0.07\nsamples = 826\nvalue = [2920, 74580]\nclass = 3", fillcolor="#41a1e6"] ;
316 -> 340 ;
341 [label="gini = 0.0\nsamples = 4\nvalue = [280, 0]\nclass = 1", fillcolor="#e58139"] ;
340 -> 341 ;
342 [label="TASK_F <= 0.9\ngini = 0.07\nsamples = 822\nvalue = [2640, 74580]\nclass = 3", fillcolor="#40a0e6"] ;
340 -> 342 ;
343 [label="TASK_RN <= 0.3\ngini = 0.34\nsamples = 77\nvalue = [1440, 5280]\nclass = 3", fillcolor="#6fb8ec"] ;
342 -> 343 ;
344 [label="gini = 0.0\nsamples = 1\nvalue = [80, 0]\nclass = 1", fillcolor="#e58139"] ;
343 -> 344 ;
345 [label="TASK_R <= 61.0\ngini = 0.33\nsamples = 76\nvalue = [1360, 5280]\nclass = 3", fillcolor="#6cb6ec"] ;
343 -> 345 ;
346 [label="TASK_I <= 2.5\ngini = 0.3\nsamples = 75\nvalue = [1200, 5280]\nclass = 3", fillcolor="#66b3eb"] ;
345 -> 346 ;
347 [label="gini = 0.39\nsamples = 55\nvalue = [1160, 3180]\nclass = 3", fillcolor="#81c1ee"] ;
346 -> 347 ;
348 [label="gini = 0.04\nsamples = 20\nvalue = [40, 2100]\nclass = 3", fillcolor="#3d9fe5"] ;
346 -> 348 ;
349 [label="gini = 0.0\nsamples = 1\nvalue = [160, 0]\nclass = 1", fillcolor="#e58139"] ;
345 -> 349 ;
350 [label="TASK_I <= 1.5\ngini = 0.03\nsamples = 745\nvalue = [1200, 69300]\nclass = 3", fillcolor="#3c9fe5"] ;
342 -> 350 ;
351 [label="TASK_R <= 8.5\ngini = 0.07\nsamples = 134\nvalue = [480, 12480]\nclass = 3", fillcolor="#41a1e6"] ;
350 -> 351 ;
352 [label="TASK_D <= 1.5\ngini = 0.04\nsamples = 131\nvalue = [240, 12480]\nclass = 3", fillcolor="#3d9fe6"] ;
351 -> 352 ;
353 [label="gini = 0.0\nsamples = 1\nvalue = [0, 60]\nclass = 3", fillcolor="#399de5"] ;
352 -> 353 ;
354 [label="gini = 0.04\nsamples = 130\nvalue = [240, 12420]\nclass = 3", fillcolor="#3d9fe6"] ;
352 -> 354 ;
355 [label="gini = 0.0\nsamples = 3\nvalue = [240, 0]\nclass = 1", fillcolor="#e58139"] ;
351 -> 355 ;
356 [label="TASK_R <= 30.5\ngini = 0.02\nsamples = 611\nvalue = [720, 56820]\nclass = 3", fillcolor="#3c9ee5"] ;
350 -> 356 ;
357 [label="TASK_E <= 2.5\ngini = 0.02\nsamples = 608\nvalue = [600, 56640]\nclass = 3", fillcolor="#3b9ee5"] ;
356 -> 357 ;
358 [label="gini = 0.04\nsamples = 304\nvalue = [560, 26340]\nclass = 3", fillcolor="#3d9fe6"] ;
357 -> 358 ;
359 [label="gini = 0.0\nsamples = 304\nvalue = [40, 30300]\nclass = 3", fillcolor="#399de5"] ;
357 -> 359 ;
360 [label="TASK_I <= 2.5\ngini = 0.48\nsamples = 3\nvalue = [120, 180]\nclass = 3", fillcolor="#bddef6"] ;
356 -> 360 ;
361 [label="gini = 0.0\nsamples = 1\nvalue = [120, 0]\nclass = 1", fillcolor="#e58139"] ;
360 -> 361 ;
362 [label="gini = 0.0\nsamples = 2\nvalue = [0, 180]\nclass = 3", fillcolor="#399de5"] ;
360 -> 362 ;
}