digraph Tree {
node [shape=box, style="filled, rounded", color="black", fontname=helvetica] ;
edge [fontname=helvetica] ;
0 [label="TASK_N_L <= 0.7\ngini = 0.5\nsamples = 4264\nvalue = [172600, 146520]\nclass = 1", fillcolor="#fbece1"] ;
1 [label="TASK_E <= 2.5\ngini = 0.36\nsamples = 2764\nvalue = [145080, 45120]\nclass = 1", fillcolor="#eda877"] ;
0 -> 1 [labeldistance=2.5, labelangle=45, headlabel="True"] ;
2 [label="TASK_F <= 0.9\ngini = 0.23\nsamples = 2428\nvalue = [140360, 21240]\nclass = 1", fillcolor="#e99457"] ;
1 -> 2 ;
3 [label="TASK_I <= 2.5\ngini = 0.07\nsamples = 2098\nvalue = [131160, 4800]\nclass = 1", fillcolor="#e68640"] ;
2 -> 3 ;
4 [label="TASK_E <= 1.5\ngini = 0.05\nsamples = 1861\nvalue = [116920, 3060]\nclass = 1", fillcolor="#e6843e"] ;
3 -> 4 ;
5 [label="TASK_N_S <= 0.9\ngini = 0.0\nsamples = 590\nvalue = [38880, 60]\nclass = 1", fillcolor="#e58139"] ;
4 -> 5 ;
6 [label="gini = 0.0\nsamples = 499\nvalue = [33120, 0]\nclass = 1", fillcolor="#e58139"] ;
5 -> 6 ;
7 [label="TASK_N_L <= 0.3\ngini = 0.02\nsamples = 91\nvalue = [5760, 60]\nclass = 1", fillcolor="#e5823b"] ;
5 -> 7 ;
8 [label="gini = 0.0\nsamples = 52\nvalue = [3200, 0]\nclass = 1", fillcolor="#e58139"] ;
7 -> 8 ;
9 [label="TASK_F <= 0.3\ngini = 0.04\nsamples = 39\nvalue = [2560, 60]\nclass = 1", fillcolor="#e6843e"] ;
7 -> 9 ;
10 [label="gini = 0.0\nsamples = 33\nvalue = [2240, 0]\nclass = 1", fillcolor="#e58139"] ;
9 -> 10 ;
11 [label="TASK_RN <= 0.7\ngini = 0.27\nsamples = 6\nvalue = [320, 60]\nclass = 1", fillcolor="#ea995e"] ;
9 -> 11 ;
12 [label="gini = 0.0\nsamples = 2\nvalue = [160, 0]\nclass = 1", fillcolor="#e58139"] ;
11 -> 12 ;
13 [label="gini = 0.4\nsamples = 4\nvalue = [160, 60]\nclass = 1", fillcolor="#efb083"] ;
11 -> 13 ;
14 [label="TASK_F <= 0.6\ngini = 0.07\nsamples = 1271\nvalue = [78040, 3000]\nclass = 1", fillcolor="#e68641"] ;
4 -> 14 ;
15 [label="TASK_F <= 0.1\ngini = 0.07\nsamples = 1256\nvalue = [77240, 2700]\nclass = 1", fillcolor="#e68540"] ;
14 -> 15 ;
16 [label="TASK_N_S <= 0.9\ngini = 0.04\nsamples = 783\nvalue = [47520, 900]\nclass = 1", fillcolor="#e5833d"] ;
15 -> 16 ;
17 [label="TASK_R <= 91.0\ngini = 0.0\nsamples = 650\nvalue = [39760, 60]\nclass = 1", fillcolor="#e58139"] ;
16 -> 17 ;
18 [label="gini = 0.0\nsamples = 646\nvalue = [39560, 0]\nclass = 1", fillcolor="#e58139"] ;
17 -> 18 ;
19 [label="gini = 0.36\nsamples = 4\nvalue = [200, 60]\nclass = 1", fillcolor="#eda774"] ;
17 -> 19 ;
20 [label="TASK_N_L <= 0.3\ngini = 0.18\nsamples = 133\nvalue = [7760, 840]\nclass = 1", fillcolor="#e88f4e"] ;
16 -> 20 ;
21 [label="gini = 0.26\nsamples = 81\nvalue = [4600, 840]\nclass = 1", fillcolor="#ea985d"] ;
20 -> 21 ;
22 [label="gini = 0.0\nsamples = 52\nvalue = [3160, 0]\nclass = 1", fillcolor="#e58139"] ;
20 -> 22 ;
23 [label="TASK_N_L <= 0.3\ngini = 0.11\nsamples = 473\nvalue = [29720, 1800]\nclass = 1", fillcolor="#e78945"] ;
15 -> 23 ;
24 [label="TASK_N_L <= 0.1\ngini = 0.06\nsamples = 395\nvalue = [24960, 840]\nclass = 1", fillcolor="#e68540"] ;
23 -> 24 ;
25 [label="gini = 0.07\nsamples = 352\nvalue = [22240, 840]\nclass = 1", fillcolor="#e68640"] ;
24 -> 25 ;
26 [label="gini = 0.0\nsamples = 43\nvalue = [2720, 0]\nclass = 1", fillcolor="#e58139"] ;
24 -> 26 ;
27 [label="TASK_RN <= 0.3\ngini = 0.28\nsamples = 78\nvalue = [4760, 960]\nclass = 1", fillcolor="#ea9a61"] ;
23 -> 27 ;
28 [label="gini = 0.0\nsamples = 5\nvalue = [440, 0]\nclass = 1", fillcolor="#e58139"] ;
27 -> 28 ;
29 [label="gini = 0.3\nsamples = 73\nvalue = [4320, 960]\nclass = 1", fillcolor="#eb9d65"] ;
27 -> 29 ;
30 [label="TASK_R <= 1.0\ngini = 0.4\nsamples = 15\nvalue = [800, 300]\nclass = 1", fillcolor="#efb083"] ;
14 -> 30 ;
31 [label="TASK_RN <= 0.9\ngini = 0.47\nsamples = 11\nvalue = [480, 300]\nclass = 1", fillcolor="#f5d0b5"] ;
30 -> 31 ;
32 [label="TASK_RN <= 0.7\ngini = 0.32\nsamples = 9\nvalue = [480, 120]\nclass = 1", fillcolor="#eca06a"] ;
31 -> 32 ;
33 [label="gini = 0.44\nsamples = 4\nvalue = [120, 60]\nclass = 1", fillcolor="#f2c09c"] ;
32 -> 33 ;
34 [label="gini = 0.24\nsamples = 5\nvalue = [360, 60]\nclass = 1", fillcolor="#e9965a"] ;
32 -> 34 ;
35 [label="gini = 0.0\nsamples = 2\nvalue = [0, 180]\nclass = 3", fillcolor="#399de5"] ;
31 -> 35 ;
36 [label="gini = 0.0\nsamples = 4\nvalue = [320, 0]\nclass = 1", fillcolor="#e58139"] ;
30 -> 36 ;
37 [label="TASK_R <= -0.5\ngini = 0.19\nsamples = 237\nvalue = [14240, 1740]\nclass = 1", fillcolor="#e89051"] ;
3 -> 37 ;
38 [label="TASK_D <= 1.5\ngini = 0.39\nsamples = 75\nvalue = [3880, 1440]\nclass = 1", fillcolor="#efb082"] ;
37 -> 38 ;
39 [label="gini = 0.0\nsamples = 21\nvalue = [1480, 0]\nclass = 1", fillcolor="#e58139"] ;
38 -> 39 ;
40 [label="TASK_N_S <= 0.1\ngini = 0.47\nsamples = 54\nvalue = [2400, 1440]\nclass = 1", fillcolor="#f5cdb0"] ;
38 -> 40 ;
41 [label="TASK_F <= 0.3\ngini = 0.06\nsamples = 27\nvalue = [1840, 60]\nclass = 1", fillcolor="#e6853f"] ;
40 -> 41 ;
42 [label="gini = 0.0\nsamples = 23\nvalue = [1600, 0]\nclass = 1", fillcolor="#e58139"] ;
41 -> 42 ;
43 [label="TASK_F <= 0.6\ngini = 0.32\nsamples = 4\nvalue = [240, 60]\nclass = 1", fillcolor="#eca06a"] ;
41 -> 43 ;
44 [label="gini = 0.4\nsamples = 3\nvalue = [160, 60]\nclass = 1", fillcolor="#efb083"] ;
43 -> 44 ;
45 [label="gini = 0.0\nsamples = 1\nvalue = [80, 0]\nclass = 1", fillcolor="#e58139"] ;
43 -> 45 ;
46 [label="TASK_RN <= 0.7\ngini = 0.41\nsamples = 27\nvalue = [560, 1380]\nclass = 3", fillcolor="#89c5f0"] ;
40 -> 46 ;
47 [label="gini = 0.0\nsamples = 3\nvalue = [160, 0]\nclass = 1", fillcolor="#e58139"] ;
46 -> 47 ;
48 [label="TASK_F <= 0.1\ngini = 0.35\nsamples = 24\nvalue = [400, 1380]\nclass = 3", fillcolor="#72b9ed"] ;
46 -> 48 ;
49 [label="gini = 0.42\nsamples = 11\nvalue = [280, 660]\nclass = 3", fillcolor="#8dc7f0"] ;
48 -> 49 ;
50 [label="gini = 0.24\nsamples = 13\nvalue = [120, 720]\nclass = 3", fillcolor="#5aade9"] ;
48 -> 50 ;
51 [label="TASK_R <= 1.5\ngini = 0.05\nsamples = 162\nvalue = [10360, 300]\nclass = 1", fillcolor="#e6853f"] ;
37 -> 51 ;
52 [label="TASK_RN <= 0.9\ngini = 0.11\nsamples = 70\nvalue = [4640, 300]\nclass = 1", fillcolor="#e78946"] ;
51 -> 52 ;
53 [label="TASK_RN <= 0.7\ngini = 0.03\nsamples = 58\nvalue = [4040, 60]\nclass = 1", fillcolor="#e5833c"] ;
52 -> 53 ;
54 [label="TASK_RN <= 0.5\ngini = 0.04\nsamples = 37\nvalue = [2640, 60]\nclass = 1", fillcolor="#e6843d"] ;
53 -> 54 ;
55 [label="gini = 0.0\nsamples = 16\nvalue = [1360, 0]\nclass = 1", fillcolor="#e58139"] ;
54 -> 55 ;
56 [label="gini = 0.09\nsamples = 21\nvalue = [1280, 60]\nclass = 1", fillcolor="#e68742"] ;
54 -> 56 ;
57 [label="gini = 0.0\nsamples = 21\nvalue = [1400, 0]\nclass = 1", fillcolor="#e58139"] ;
53 -> 57 ;
58 [label="TASK_N_S <= 0.5\ngini = 0.41\nsamples = 12\nvalue = [600, 240]\nclass = 1", fillcolor="#efb388"] ;
52 -> 58 ;
59 [label="gini = 0.0\nsamples = 8\nvalue = [480, 0]\nclass = 1", fillcolor="#e58139"] ;
58 -> 59 ;
60 [label="TASK_N_S <= 0.9\ngini = 0.44\nsamples = 4\nvalue = [120, 240]\nclass = 3", fillcolor="#9ccef2"] ;
58 -> 60 ;
61 [label="gini = 0.0\nsamples = 1\nvalue = [0, 120]\nclass = 3", fillcolor="#399de5"] ;
60 -> 61 ;
62 [label="gini = 0.5\nsamples = 3\nvalue = [120, 120]\nclass = 1", fillcolor="#ffffff"] ;
60 -> 62 ;
63 [label="gini = 0.0\nsamples = 92\nvalue = [5720, 0]\nclass = 1", fillcolor="#e58139"] ;
51 -> 63 ;
64 [label="TASK_R <= -0.5\ngini = 0.46\nsamples = 330\nvalue = [9200, 16440]\nclass = 3", fillcolor="#a8d4f4"] ;
2 -> 64 ;
65 [label="TASK_RN <= 0.7\ngini = 0.32\nsamples = 159\nvalue = [2640, 10680]\nclass = 3", fillcolor="#6ab5eb"] ;
64 -> 65 ;
66 [label="TASK_N_S <= 0.5\ngini = 0.5\nsamples = 32\nvalue = [1400, 1260]\nclass = 1", fillcolor="#fcf2eb"] ;
65 -> 66 ;
67 [label="TASK_RN <= 0.5\ngini = 0.36\nsamples = 12\nvalue = [800, 240]\nclass = 1", fillcolor="#eda774"] ;
66 -> 67 ;
68 [label="gini = 0.0\nsamples = 5\nvalue = [440, 0]\nclass = 1", fillcolor="#e58139"] ;
67 -> 68 ;
69 [label="TASK_N_S <= 0.3\ngini = 0.48\nsamples = 7\nvalue = [360, 240]\nclass = 1", fillcolor="#f6d5bd"] ;
67 -> 69 ;
70 [label="TASK_N_S <= 0.1\ngini = 0.48\nsamples = 5\nvalue = [160, 240]\nclass = 3", fillcolor="#bddef6"] ;
69 -> 70 ;
71 [label="gini = 0.49\nsamples = 4\nvalue = [160, 120]\nclass = 1", fillcolor="#f8e0ce"] ;
70 -> 71 ;
72 [label="gini = 0.0\nsamples = 1\nvalue = [0, 120]\nclass = 3", fillcolor="#399de5"] ;
70 -> 72 ;
73 [label="gini = 0.0\nsamples = 2\nvalue = [200, 0]\nclass = 1", fillcolor="#e58139"] ;
69 -> 73 ;
74 [label="TASK_N_L <= 0.5\ngini = 0.47\nsamples = 20\nvalue = [600, 1020]\nclass = 3", fillcolor="#add7f4"] ;
66 -> 74 ;
75 [label="TASK_I <= 1.5\ngini = 0.44\nsamples = 17\nvalue = [480, 1020]\nclass = 3", fillcolor="#96cbf1"] ;
74 -> 75 ;
76 [label="TASK_N_L <= 0.1\ngini = 0.5\nsamples = 4\nvalue = [120, 120]\nclass = 1", fillcolor="#ffffff"] ;
75 -> 76 ;
77 [label="gini = 0.0\nsamples = 1\nvalue = [40, 0]\nclass = 1", fillcolor="#e58139"] ;
76 -> 77 ;
78 [label="gini = 0.48\nsamples = 3\nvalue = [80, 120]\nclass = 3", fillcolor="#bddef6"] ;
76 -> 78 ;
79 [label="TASK_N_L <= 0.3\ngini = 0.41\nsamples = 13\nvalue = [360, 900]\nclass = 3", fillcolor="#88c4ef"] ;
75 -> 79 ;
80 [label="gini = 0.46\nsamples = 10\nvalue = [360, 660]\nclass = 3", fillcolor="#a5d2f3"] ;
79 -> 80 ;
81 [label="gini = 0.0\nsamples = 3\nvalue = [0, 240]\nclass = 3", fillcolor="#399de5"] ;
79 -> 81 ;
82 [label="gini = 0.0\nsamples = 3\nvalue = [120, 0]\nclass = 1", fillcolor="#e58139"] ;
74 -> 82 ;
83 [label="TASK_N_S <= 0.5\ngini = 0.21\nsamples = 127\nvalue = [1240, 9420]\nclass = 3", fillcolor="#53aae8"] ;
65 -> 83 ;
84 [label="TASK_E <= 1.5\ngini = 0.42\nsamples = 36\nvalue = [760, 1740]\nclass = 3", fillcolor="#8fc8f0"] ;
83 -> 84 ;
85 [label="gini = 0.0\nsamples = 2\nvalue = [120, 0]\nclass = 1", fillcolor="#e58139"] ;
84 -> 85 ;
86 [label="TASK_N_L <= 0.1\ngini = 0.39\nsamples = 34\nvalue = [640, 1740]\nclass = 3", fillcolor="#82c1ef"] ;
84 -> 86 ;
87 [label="TASK_N_S <= 0.3\ngini = 0.43\nsamples = 30\nvalue = [640, 1440]\nclass = 3", fillcolor="#91c9f1"] ;
86 -> 87 ;
88 [label="gini = 0.4\nsamples = 26\nvalue = [480, 1260]\nclass = 3", fillcolor="#84c2ef"] ;
87 -> 88 ;
89 [label="gini = 0.5\nsamples = 4\nvalue = [160, 180]\nclass = 3", fillcolor="#e9f4fc"] ;
87 -> 89 ;
90 [label="gini = 0.0\nsamples = 4\nvalue = [0, 300]\nclass = 3", fillcolor="#399de5"] ;
86 -> 90 ;
91 [label="TASK_I <= 1.5\ngini = 0.11\nsamples = 91\nvalue = [480, 7680]\nclass = 3", fillcolor="#45a3e7"] ;
83 -> 91 ;
92 [label="gini = 0.0\nsamples = 11\nvalue = [0, 960]\nclass = 3", fillcolor="#399de5"] ;
91 -> 92 ;
93 [label="TASK_D <= 1.5\ngini = 0.12\nsamples = 80\nvalue = [480, 6720]\nclass = 3", fillcolor="#47a4e7"] ;
91 -> 93 ;
94 [label="gini = 0.0\nsamples = 2\nvalue = [0, 120]\nclass = 3", fillcolor="#399de5"] ;
93 -> 94 ;
95 [label="TASK_N_L <= 0.1\ngini = 0.13\nsamples = 78\nvalue = [480, 6600]\nclass = 3", fillcolor="#47a4e7"] ;
93 -> 95 ;
96 [label="gini = 0.03\nsamples = 27\nvalue = [40, 2460]\nclass = 3", fillcolor="#3c9fe5"] ;
95 -> 96 ;
97 [label="gini = 0.17\nsamples = 51\nvalue = [440, 4140]\nclass = 3", fillcolor="#4ea7e8"] ;
95 -> 97 ;
98 [label="TASK_RN <= 0.5\ngini = 0.5\nsamples = 171\nvalue = [6560, 5760]\nclass = 1", fillcolor="#fcf0e7"] ;
64 -> 98 ;
99 [label="TASK_N_L <= 0.3\ngini = 0.31\nsamples = 22\nvalue = [1240, 300]\nclass = 1", fillcolor="#eb9f69"] ;
98 -> 99 ;
100 [label="gini = 0.0\nsamples = 17\nvalue = [1040, 0]\nclass = 1", fillcolor="#e58139"] ;
99 -> 100 ;
101 [label="TASK_R <= 7.0\ngini = 0.48\nsamples = 5\nvalue = [200, 300]\nclass = 3", fillcolor="#bddef6"] ;
99 -> 101 ;
102 [label="TASK_R <= 1.5\ngini = 0.24\nsamples = 2\nvalue = [40, 240]\nclass = 3", fillcolor="#5aade9"] ;
101 -> 102 ;
103 [label="gini = 0.0\nsamples = 1\nvalue = [40, 0]\nclass = 1", fillcolor="#e58139"] ;
102 -> 103 ;
104 [label="gini = 0.0\nsamples = 1\nvalue = [0, 240]\nclass = 3", fillcolor="#399de5"] ;
102 -> 104 ;
105 [label="TASK_R <= 13.5\ngini = 0.4\nsamples = 3\nvalue = [160, 60]\nclass = 1", fillcolor="#efb083"] ;
101 -> 105 ;
106 [label="gini = 0.0\nsamples = 2\nvalue = [160, 0]\nclass = 1", fillcolor="#e58139"] ;
105 -> 106 ;
107 [label="gini = 0.0\nsamples = 1\nvalue = [0, 60]\nclass = 3", fillcolor="#399de5"] ;
105 -> 107 ;
108 [label="TASK_N_S <= 0.1\ngini = 0.5\nsamples = 149\nvalue = [5320, 5460]\nclass = 3", fillcolor="#fafcfe"] ;
98 -> 108 ;
109 [label="TASK_E <= 1.5\ngini = 0.14\nsamples = 46\nvalue = [2840, 240]\nclass = 1", fillcolor="#e78c4a"] ;
108 -> 109 ;
110 [label="gini = 0.0\nsamples = 19\nvalue = [1440, 0]\nclass = 1", fillcolor="#e58139"] ;
109 -> 110 ;
111 [label="TASK_D <= 1.5\ngini = 0.25\nsamples = 27\nvalue = [1400, 240]\nclass = 1", fillcolor="#e9975b"] ;
109 -> 111 ;
112 [label="gini = 0.0\nsamples = 7\nvalue = [440, 0]\nclass = 1", fillcolor="#e58139"] ;
111 -> 112 ;
113 [label="TASK_R <= 1.5\ngini = 0.32\nsamples = 20\nvalue = [960, 240]\nclass = 1", fillcolor="#eca06a"] ;
111 -> 113 ;
114 [label="gini = 0.48\nsamples = 9\nvalue = [360, 240]\nclass = 1", fillcolor="#f6d5bd"] ;
113 -> 114 ;
115 [label="gini = 0.0\nsamples = 11\nvalue = [600, 0]\nclass = 1", fillcolor="#e58139"] ;
113 -> 115 ;
116 [label="TASK_R <= 41.5\ngini = 0.44\nsamples = 103\nvalue = [2480, 5220]\nclass = 3", fillcolor="#97ccf1"] ;
108 -> 116 ;
117 [label="TASK_R <= 0.5\ngini = 0.42\nsamples = 96\nvalue = [2200, 5160]\nclass = 3", fillcolor="#8dc7f0"] ;
116 -> 117 ;
118 [label="TASK_I <= 1.5\ngini = 0.48\nsamples = 51\nvalue = [1560, 2220]\nclass = 3", fillcolor="#c4e2f7"] ;
117 -> 118 ;
119 [label="gini = 0.48\nsamples = 11\nvalue = [520, 360]\nclass = 1", fillcolor="#f7d8c2"] ;
118 -> 119 ;
120 [label="gini = 0.46\nsamples = 40\nvalue = [1040, 1860]\nclass = 3", fillcolor="#a8d4f4"] ;
118 -> 120 ;
121 [label="TASK_D <= 1.5\ngini = 0.29\nsamples = 45\nvalue = [640, 2940]\nclass = 3", fillcolor="#64b2eb"] ;
117 -> 121 ;
122 [label="gini = 0.0\nsamples = 1\nvalue = [80, 0]\nclass = 1", fillcolor="#e58139"] ;
121 -> 122 ;
123 [label="gini = 0.27\nsamples = 44\nvalue = [560, 2940]\nclass = 3", fillcolor="#5fb0ea"] ;
121 -> 123 ;
124 [label="TASK_N_L <= 0.3\ngini = 0.29\nsamples = 7\nvalue = [280, 60]\nclass = 1", fillcolor="#eb9c63"] ;
116 -> 124 ;
125 [label="gini = 0.0\nsamples = 1\nvalue = [0, 60]\nclass = 3", fillcolor="#399de5"] ;
124 -> 125 ;
126 [label="gini = 0.0\nsamples = 6\nvalue = [280, 0]\nclass = 1", fillcolor="#e58139"] ;
124 -> 126 ;
127 [label="TASK_N_L <= 0.1\ngini = 0.28\nsamples = 336\nvalue = [4720, 23880]\nclass = 3", fillcolor="#60b0ea"] ;
1 -> 127 ;
128 [label="TASK_N_S <= 0.1\ngini = 0.39\nsamples = 170\nvalue = [3720, 10440]\nclass = 3", fillcolor="#80c0ee"] ;
127 -> 128 ;
129 [label="TASK_R <= 2.5\ngini = 0.49\nsamples = 65\nvalue = [2680, 1980]\nclass = 1", fillcolor="#f8decb"] ;
128 -> 129 ;
130 [label="TASK_D <= 1.5\ngini = 0.5\nsamples = 51\nvalue = [2000, 1980]\nclass = 1", fillcolor="#fffefd"] ;
129 -> 130 ;
131 [label="gini = 0.0\nsamples = 4\nvalue = [200, 0]\nclass = 1", fillcolor="#e58139"] ;
130 -> 131 ;
132 [label="TASK_I <= 1.5\ngini = 0.5\nsamples = 47\nvalue = [1800, 1980]\nclass = 3", fillcolor="#edf6fd"] ;
130 -> 132 ;
133 [label="TASK_R <= -0.5\ngini = 0.45\nsamples = 12\nvalue = [280, 540]\nclass = 3", fillcolor="#a0d0f2"] ;
132 -> 133 ;
134 [label="TASK_RN <= 0.7\ngini = 0.36\nsamples = 4\nvalue = [200, 60]\nclass = 1", fillcolor="#eda774"] ;
133 -> 134 ;
135 [label="gini = 0.0\nsamples = 2\nvalue = [120, 0]\nclass = 1", fillcolor="#e58139"] ;
134 -> 135 ;
136 [label="gini = 0.49\nsamples = 2\nvalue = [80, 60]\nclass = 1", fillcolor="#f8e0ce"] ;
134 -> 136 ;
137 [label="TASK_RN <= 0.9\ngini = 0.24\nsamples = 8\nvalue = [80, 480]\nclass = 3", fillcolor="#5aade9"] ;
133 -> 137 ;
138 [label="gini = 0.0\nsamples = 1\nvalue = [0, 60]\nclass = 3", fillcolor="#399de5"] ;
137 -> 138 ;
139 [label="gini = 0.27\nsamples = 7\nvalue = [80, 420]\nclass = 3", fillcolor="#5fb0ea"] ;
137 -> 139 ;
140 [label="TASK_RN <= 0.5\ngini = 0.5\nsamples = 35\nvalue = [1520, 1440]\nclass = 1", fillcolor="#fef8f5"] ;
132 -> 140 ;
141 [label="gini = 0.0\nsamples = 3\nvalue = [360, 0]\nclass = 1", fillcolor="#e58139"] ;
140 -> 141 ;
142 [label="TASK_R <= -0.5\ngini = 0.49\nsamples = 32\nvalue = [1160, 1440]\nclass = 3", fillcolor="#d9ecfa"] ;
140 -> 142 ;
143 [label="gini = 0.27\nsamples = 10\nvalue = [640, 120]\nclass = 1", fillcolor="#ea995e"] ;
142 -> 143 ;
144 [label="gini = 0.41\nsamples = 22\nvalue = [520, 1320]\nclass = 3", fillcolor="#87c4ef"] ;
142 -> 144 ;
145 [label="gini = 0.0\nsamples = 14\nvalue = [680, 0]\nclass = 1", fillcolor="#e58139"] ;
129 -> 145 ;
146 [label="TASK_F <= 0.6\ngini = 0.19\nsamples = 105\nvalue = [1040, 8460]\nclass = 3", fillcolor="#51a9e8"] ;
128 -> 146 ;
147 [label="TASK_R <= 1.0\ngini = 0.38\nsamples = 19\nvalue = [1040, 360]\nclass = 1", fillcolor="#eead7e"] ;
146 -> 147 ;
148 [label="TASK_RN <= 0.9\ngini = 0.5\nsamples = 9\nvalue = [400, 360]\nclass = 1", fillcolor="#fcf2eb"] ;
147 -> 148 ;
149 [label="TASK_N_S <= 0.8\ngini = 0.32\nsamples = 4\nvalue = [240, 60]\nclass = 1", fillcolor="#eca06a"] ;
148 -> 149 ;
150 [label="TASK_RN <= 0.7\ngini = 0.49\nsamples = 2\nvalue = [80, 60]\nclass = 1", fillcolor="#f8e0ce"] ;
149 -> 150 ;
151 [label="gini = 0.0\nsamples = 1\nvalue = [0, 60]\nclass = 3", fillcolor="#399de5"] ;
150 -> 151 ;
152 [label="gini = 0.0\nsamples = 1\nvalue = [80, 0]\nclass = 1", fillcolor="#e58139"] ;
150 -> 152 ;
153 [label="gini = 0.0\nsamples = 2\nvalue = [160, 0]\nclass = 1", fillcolor="#e58139"] ;
149 -> 153 ;
154 [label="TASK_F <= 0.1\ngini = 0.45\nsamples = 5\nvalue = [160, 300]\nclass = 3", fillcolor="#a3d1f3"] ;
148 -> 154 ;
155 [label="gini = 0.0\nsamples = 3\nvalue = [160, 0]\nclass = 1", fillcolor="#e58139"] ;
154 -> 155 ;
156 [label="gini = 0.0\nsamples = 2\nvalue = [0, 300]\nclass = 3", fillcolor="#399de5"] ;
154 -> 156 ;
157 [label="gini = 0.0\nsamples = 10\nvalue = [640, 0]\nclass = 1", fillcolor="#e58139"] ;
147 -> 157 ;
158 [label="gini = 0.0\nsamples = 86\nvalue = [0, 8100]\nclass = 3", fillcolor="#399de5"] ;
146 -> 158 ;
159 [label="TASK_R <= 29.0\ngini = 0.13\nsamples = 166\nvalue = [1000, 13440]\nclass = 3", fillcolor="#48a4e7"] ;
127 -> 159 ;
160 [label="TASK_N_S <= 0.1\ngini = 0.08\nsamples = 156\nvalue = [560, 13380]\nclass = 3", fillcolor="#41a1e6"] ;
159 -> 160 ;
161 [label="gini = 0.0\nsamples = 1\nvalue = [40, 0]\nclass = 1", fillcolor="#e58139"] ;
160 -> 161 ;
162 [label="TASK_F <= 0.1\ngini = 0.07\nsamples = 155\nvalue = [520, 13380]\nclass = 3", fillcolor="#41a1e6"] ;
160 -> 162 ;
163 [label="TASK_D <= 1.5\ngini = 0.5\nsamples = 11\nvalue = [320, 300]\nclass = 1", fillcolor="#fdf7f3"] ;
162 -> 163 ;
164 [label="gini = 0.0\nsamples = 2\nvalue = [120, 0]\nclass = 1", fillcolor="#e58139"] ;
163 -> 164 ;
165 [label="TASK_N_L <= 0.5\ngini = 0.48\nsamples = 9\nvalue = [200, 300]\nclass = 3", fillcolor="#bddef6"] ;
163 -> 165 ;
166 [label="TASK_N_S <= 0.5\ngini = 0.33\nsamples = 6\nvalue = [80, 300]\nclass = 3", fillcolor="#6eb7ec"] ;
165 -> 166 ;
167 [label="gini = 0.0\nsamples = 1\nvalue = [40, 0]\nclass = 1", fillcolor="#e58139"] ;
166 -> 167 ;
168 [label="gini = 0.21\nsamples = 5\nvalue = [40, 300]\nclass = 3", fillcolor="#53aae8"] ;
166 -> 168 ;
169 [label="gini = 0.0\nsamples = 3\nvalue = [120, 0]\nclass = 1", fillcolor="#e58139"] ;
165 -> 169 ;
170 [label="TASK_F <= 0.6\ngini = 0.03\nsamples = 144\nvalue = [200, 13080]\nclass = 3", fillcolor="#3c9ee5"] ;
162 -> 170 ;
171 [label="TASK_R <= 1.5\ngini = 0.17\nsamples = 20\nvalue = [160, 1500]\nclass = 3", fillcolor="#4ea7e8"] ;
170 -> 171 ;
172 [label="TASK_N_S <= 0.5\ngini = 0.05\nsamples = 17\nvalue = [40, 1440]\nclass = 3", fillcolor="#3ea0e6"] ;
171 -> 172 ;
173 [label="gini = 0.48\nsamples = 2\nvalue = [40, 60]\nclass = 3", fillcolor="#bddef6"] ;
172 -> 173 ;
174 [label="gini = 0.0\nsamples = 15\nvalue = [0, 1380]\nclass = 3", fillcolor="#399de5"] ;
172 -> 174 ;
175 [label="TASK_R <= 3.5\ngini = 0.44\nsamples = 3\nvalue = [120, 60]\nclass = 1", fillcolor="#f2c09c"] ;
171 -> 175 ;
176 [label="gini = 0.0\nsamples = 1\nvalue = [80, 0]\nclass = 1", fillcolor="#e58139"] ;
175 -> 176 ;
177 [label="gini = 0.48\nsamples = 2\nvalue = [40, 60]\nclass = 3", fillcolor="#bddef6"] ;
175 -> 177 ;
178 [label="TASK_R <= 2.5\ngini = 0.01\nsamples = 124\nvalue = [40, 11580]\nclass = 3", fillcolor="#3a9de5"] ;
170 -> 178 ;
179 [label="gini = 0.0\nsamples = 113\nvalue = [0, 10620]\nclass = 3", fillcolor="#399de5"] ;
178 -> 179 ;
180 [label="TASK_R <= 3.5\ngini = 0.08\nsamples = 11\nvalue = [40, 960]\nclass = 3", fillcolor="#41a1e6"] ;
178 -> 180 ;
181 [label="gini = 0.38\nsamples = 2\nvalue = [40, 120]\nclass = 3", fillcolor="#7bbeee"] ;
180 -> 181 ;
182 [label="gini = 0.0\nsamples = 9\nvalue = [0, 840]\nclass = 3", fillcolor="#399de5"] ;
180 -> 182 ;
183 [label="TASK_F <= 0.3\ngini = 0.21\nsamples = 10\nvalue = [440, 60]\nclass = 1", fillcolor="#e99254"] ;
159 -> 183 ;
184 [label="gini = 0.0\nsamples = 8\nvalue = [400, 0]\nclass = 1", fillcolor="#e58139"] ;
183 -> 184 ;
185 [label="TASK_R <= 36.5\ngini = 0.48\nsamples = 2\nvalue = [40, 60]\nclass = 3", fillcolor="#bddef6"] ;
183 -> 185 ;
186 [label="gini = 0.0\nsamples = 1\nvalue = [0, 60]\nclass = 3", fillcolor="#399de5"] ;
185 -> 186 ;
187 [label="gini = 0.0\nsamples = 1\nvalue = [40, 0]\nclass = 1", fillcolor="#e58139"] ;
185 -> 187 ;
188 [label="TASK_F <= 0.6\ngini = 0.34\nsamples = 1500\nvalue = [27520, 101400]\nclass = 3", fillcolor="#6fb8ec"] ;
0 -> 188 [labeldistance=2.5, labelangle=-45, headlabel="False"] ;
189 [label="TASK_E <= 2.5\ngini = 0.49\nsamples = 548\nvalue = [23320, 17700]\nclass = 1", fillcolor="#f9e1cf"] ;
188 -> 189 ;
190 [label="TASK_N_L <= 0.9\ngini = 0.44\nsamples = 465\nvalue = [22400, 10980]\nclass = 1", fillcolor="#f2bf9a"] ;
189 -> 190 ;
191 [label="TASK_R <= 5.5\ngini = 0.24\nsamples = 145\nvalue = [8000, 1320]\nclass = 1", fillcolor="#e9965a"] ;
190 -> 191 ;
192 [label="TASK_E <= 1.5\ngini = 0.28\nsamples = 121\nvalue = [6360, 1320]\nclass = 1", fillcolor="#ea9b62"] ;
191 -> 192 ;
193 [label="gini = 0.0\nsamples = 38\nvalue = [2240, 0]\nclass = 1", fillcolor="#e58139"] ;
192 -> 193 ;
194 [label="TASK_N_S <= 0.9\ngini = 0.37\nsamples = 83\nvalue = [4120, 1320]\nclass = 1", fillcolor="#eda978"] ;
192 -> 194 ;
195 [label="gini = 0.0\nsamples = 17\nvalue = [1200, 0]\nclass = 1", fillcolor="#e58139"] ;
194 -> 195 ;
196 [label="TASK_D <= 1.5\ngini = 0.43\nsamples = 66\nvalue = [2920, 1320]\nclass = 1", fillcolor="#f1ba93"] ;
194 -> 196 ;
197 [label="TASK_F <= 0.3\ngini = 0.14\nsamples = 13\nvalue = [720, 60]\nclass = 1", fillcolor="#e78c49"] ;
196 -> 197 ;
198 [label="gini = 0.0\nsamples = 12\nvalue = [720, 0]\nclass = 1", fillcolor="#e58139"] ;
197 -> 198 ;
199 [label="gini = 0.0\nsamples = 1\nvalue = [0, 60]\nclass = 3", fillcolor="#399de5"] ;
197 -> 199 ;
200 [label="TASK_RN <= 0.7\ngini = 0.46\nsamples = 53\nvalue = [2200, 1260]\nclass = 1", fillcolor="#f4c9aa"] ;
196 -> 200 ;
201 [label="gini = 0.1\nsamples = 20\nvalue = [1040, 60]\nclass = 1", fillcolor="#e68844"] ;
200 -> 201 ;
202 [label="gini = 0.5\nsamples = 33\nvalue = [1160, 1200]\nclass = 3", fillcolor="#f8fcfe"] ;
200 -> 202 ;
203 [label="gini = 0.0\nsamples = 24\nvalue = [1640, 0]\nclass = 1", fillcolor="#e58139"] ;
191 -> 203 ;
204 [label="TASK_I <= 2.5\ngini = 0.48\nsamples = 320\nvalue = [14400, 9660]\nclass = 1", fillcolor="#f6d6be"] ;
190 -> 204 ;
205 [label="TASK_RN <= 0.7\ngini = 0.44\nsamples = 274\nvalue = [13520, 6660]\nclass = 1", fillcolor="#f2bf9b"] ;
204 -> 205 ;
206 [label="TASK_R <= -0.5\ngini = 0.11\nsamples = 97\nvalue = [6520, 420]\nclass = 1", fillcolor="#e78946"] ;
205 -> 206 ;
207 [label="TASK_F <= 0.3\ngini = 0.19\nsamples = 42\nvalue = [2960, 360]\nclass = 1", fillcolor="#e89051"] ;
206 -> 207 ;
208 [label="TASK_M <= 1.5\ngini = 0.21\nsamples = 38\nvalue = [2680, 360]\nclass = 1", fillcolor="#e89254"] ;
207 -> 208 ;
209 [label="gini = 0.0\nsamples = 1\nvalue = [40, 0]\nclass = 1", fillcolor="#e58139"] ;
208 -> 209 ;
210 [label="gini = 0.21\nsamples = 37\nvalue = [2640, 360]\nclass = 1", fillcolor="#e99254"] ;
208 -> 210 ;
211 [label="gini = 0.0\nsamples = 4\nvalue = [280, 0]\nclass = 1", fillcolor="#e58139"] ;
207 -> 211 ;
212 [label="TASK_I <= 1.5\ngini = 0.03\nsamples = 55\nvalue = [3560, 60]\nclass = 1", fillcolor="#e5833c"] ;
206 -> 212 ;
213 [label="gini = 0.0\nsamples = 19\nvalue = [1400, 0]\nclass = 1", fillcolor="#e58139"] ;
212 -> 213 ;
214 [label="TASK_R <= 0.5\ngini = 0.05\nsamples = 36\nvalue = [2160, 60]\nclass = 1", fillcolor="#e6843e"] ;
212 -> 214 ;
215 [label="gini = 0.17\nsamples = 10\nvalue = [600, 60]\nclass = 1", fillcolor="#e88e4d"] ;
214 -> 215 ;
216 [label="gini = 0.0\nsamples = 26\nvalue = [1560, 0]\nclass = 1", fillcolor="#e58139"] ;
214 -> 216 ;
217 [label="TASK_D <= 1.5\ngini = 0.5\nsamples = 177\nvalue = [7000, 6240]\nclass = 1", fillcolor="#fcf1ea"] ;
205 -> 217 ;
218 [label="TASK_F <= 0.1\ngini = 0.07\nsamples = 30\nvalue = [1600, 60]\nclass = 1", fillcolor="#e68640"] ;
217 -> 218 ;
219 [label="gini = 0.0\nsamples = 21\nvalue = [1120, 0]\nclass = 1", fillcolor="#e58139"] ;
218 -> 219 ;
220 [label="TASK_I <= 1.5\ngini = 0.2\nsamples = 9\nvalue = [480, 60]\nclass = 1", fillcolor="#e89152"] ;
218 -> 220 ;
221 [label="gini = 0.0\nsamples = 2\nvalue = [80, 0]\nclass = 1", fillcolor="#e58139"] ;
220 -> 221 ;
222 [label="gini = 0.23\nsamples = 7\nvalue = [400, 60]\nclass = 1", fillcolor="#e99457"] ;
220 -> 222 ;
223 [label="TASK_D <= 2.5\ngini = 0.5\nsamples = 147\nvalue = [5400, 6180]\nclass = 3", fillcolor="#e6f3fc"] ;
217 -> 223 ;
224 [label="TASK_I <= 1.5\ngini = 0.5\nsamples = 145\nvalue = [5400, 5880]\nclass = 3", fillcolor="#eff7fd"] ;
223 -> 224 ;
225 [label="gini = 0.48\nsamples = 40\nvalue = [1720, 1200]\nclass = 1", fillcolor="#f7d9c3"] ;
224 -> 225 ;
226 [label="gini = 0.49\nsamples = 105\nvalue = [3680, 4680]\nclass = 3", fillcolor="#d5eaf9"] ;
224 -> 226 ;
227 [label="gini = 0.0\nsamples = 2\nvalue = [0, 300]\nclass = 3", fillcolor="#399de5"] ;
223 -> 227 ;
228 [label="TASK_R <= 4.0\ngini = 0.35\nsamples = 46\nvalue = [880, 3000]\nclass = 3", fillcolor="#73baed"] ;
204 -> 228 ;
229 [label="TASK_E <= 1.5\ngini = 0.22\nsamples = 39\nvalue = [440, 3000]\nclass = 3", fillcolor="#56abe9"] ;
228 -> 229 ;
230 [label="TASK_RN <= 0.9\ngini = 0.48\nsamples = 3\nvalue = [80, 120]\nclass = 3", fillcolor="#bddef6"] ;
229 -> 230 ;
231 [label="gini = 0.0\nsamples = 1\nvalue = [0, 120]\nclass = 3", fillcolor="#399de5"] ;
230 -> 231 ;
232 [label="gini = 0.0\nsamples = 2\nvalue = [80, 0]\nclass = 1", fillcolor="#e58139"] ;
230 -> 232 ;
233 [label="TASK_RN <= 0.7\ngini = 0.2\nsamples = 36\nvalue = [360, 2880]\nclass = 3", fillcolor="#52a9e8"] ;
229 -> 233 ;
234 [label="TASK_R <= -0.5\ngini = 0.5\nsamples = 5\nvalue = [200, 180]\nclass = 1", fillcolor="#fcf2eb"] ;
233 -> 234 ;
235 [label="gini = 0.48\nsamples = 4\nvalue = [120, 180]\nclass = 3", fillcolor="#bddef6"] ;
234 -> 235 ;
236 [label="gini = 0.0\nsamples = 1\nvalue = [80, 0]\nclass = 1", fillcolor="#e58139"] ;
234 -> 236 ;
237 [label="TASK_RN <= 0.9\ngini = 0.11\nsamples = 31\nvalue = [160, 2700]\nclass = 3", fillcolor="#45a3e7"] ;
233 -> 237 ;
238 [label="gini = 0.32\nsamples = 8\nvalue = [120, 480]\nclass = 3", fillcolor="#6ab6ec"] ;
237 -> 238 ;
239 [label="gini = 0.03\nsamples = 23\nvalue = [40, 2220]\nclass = 3", fillcolor="#3d9fe5"] ;
237 -> 239 ;
240 [label="gini = 0.0\nsamples = 7\nvalue = [440, 0]\nclass = 1", fillcolor="#e58139"] ;
228 -> 240 ;
241 [label="TASK_I <= 2.5\ngini = 0.21\nsamples = 83\nvalue = [920, 6720]\nclass = 3", fillcolor="#54aae9"] ;
189 -> 241 ;
242 [label="TASK_R <= 10.5\ngini = 0.26\nsamples = 61\nvalue = [880, 4740]\nclass = 3", fillcolor="#5eafea"] ;
241 -> 242 ;
243 [label="TASK_D <= 1.5\ngini = 0.19\nsamples = 52\nvalue = [520, 4500]\nclass = 3", fillcolor="#50a8e8"] ;
242 -> 243 ;
244 [label="gini = 0.0\nsamples = 1\nvalue = [80, 0]\nclass = 1", fillcolor="#e58139"] ;
243 -> 244 ;
245 [label="TASK_RN <= 0.2\ngini = 0.16\nsamples = 51\nvalue = [440, 4500]\nclass = 3", fillcolor="#4ca7e8"] ;
243 -> 245 ;
246 [label="gini = 0.0\nsamples = 1\nvalue = [40, 0]\nclass = 1", fillcolor="#e58139"] ;
245 -> 246 ;
247 [label="TASK_N_L <= 0.9\ngini = 0.15\nsamples = 50\nvalue = [400, 4500]\nclass = 3", fillcolor="#4ba6e7"] ;
245 -> 247 ;
248 [label="gini = 0.0\nsamples = 9\nvalue = [0, 1260]\nclass = 3", fillcolor="#399de5"] ;
247 -> 248 ;
249 [label="TASK_I <= 1.5\ngini = 0.2\nsamples = 41\nvalue = [400, 3240]\nclass = 3", fillcolor="#51a9e8"] ;
247 -> 249 ;
250 [label="gini = 0.16\nsamples = 10\nvalue = [80, 840]\nclass = 3", fillcolor="#4ca6e7"] ;
249 -> 250 ;
251 [label="gini = 0.21\nsamples = 31\nvalue = [320, 2400]\nclass = 3", fillcolor="#53aae8"] ;
249 -> 251 ;
252 [label="TASK_R <= 30.5\ngini = 0.48\nsamples = 9\nvalue = [360, 240]\nclass = 1", fillcolor="#f6d5bd"] ;
242 -> 252 ;
253 [label="TASK_D <= 1.5\ngini = 0.32\nsamples = 5\nvalue = [240, 60]\nclass = 1", fillcolor="#eca06a"] ;
252 -> 253 ;
254 [label="gini = 0.0\nsamples = 1\nvalue = [80, 0]\nclass = 1", fillcolor="#e58139"] ;
253 -> 254 ;
255 [label="TASK_F <= 0.3\ngini = 0.4\nsamples = 4\nvalue = [160, 60]\nclass = 1", fillcolor="#efb083"] ;
253 -> 255 ;
256 [label="gini = 0.0\nsamples = 3\nvalue = [160, 0]\nclass = 1", fillcolor="#e58139"] ;
255 -> 256 ;
257 [label="gini = 0.0\nsamples = 1\nvalue = [0, 60]\nclass = 3", fillcolor="#399de5"] ;
255 -> 257 ;
258 [label="TASK_N_L <= 0.9\ngini = 0.48\nsamples = 4\nvalue = [120, 180]\nclass = 3", fillcolor="#bddef6"] ;
252 -> 258 ;
259 [label="gini = 0.0\nsamples = 1\nvalue = [0, 120]\nclass = 3", fillcolor="#399de5"] ;
258 -> 259 ;
260 [label="TASK_RN <= 0.9\ngini = 0.44\nsamples = 3\nvalue = [120, 60]\nclass = 1", fillcolor="#f2c09c"] ;
258 -> 260 ;
261 [label="gini = 0.0\nsamples = 1\nvalue = [80, 0]\nclass = 1", fillcolor="#e58139"] ;
260 -> 261 ;
262 [label="TASK_R <= 80.5\ngini = 0.48\nsamples = 2\nvalue = [40, 60]\nclass = 3", fillcolor="#bddef6"] ;
260 -> 262 ;
263 [label="gini = 0.0\nsamples = 1\nvalue = [0, 60]\nclass = 3", fillcolor="#399de5"] ;
262 -> 263 ;
264 [label="gini = 0.0\nsamples = 1\nvalue = [40, 0]\nclass = 1", fillcolor="#e58139"] ;
262 -> 264 ;
265 [label="TASK_N_L <= 0.9\ngini = 0.04\nsamples = 22\nvalue = [40, 1980]\nclass = 3", fillcolor="#3d9fe6"] ;
241 -> 265 ;
266 [label="gini = 0.0\nsamples = 1\nvalue = [40, 0]\nclass = 1", fillcolor="#e58139"] ;
265 -> 266 ;
267 [label="gini = 0.0\nsamples = 21\nvalue = [0, 1980]\nclass = 3", fillcolor="#399de5"] ;
265 -> 267 ;
268 [label="TASK_N_S <= 0.9\ngini = 0.09\nsamples = 952\nvalue = [4200, 83700]\nclass = 3", fillcolor="#43a2e6"] ;
188 -> 268 ;
269 [label="TASK_N_L <= 0.9\ngini = 0.46\nsamples = 6\nvalue = [320, 180]\nclass = 1", fillcolor="#f4c8a8"] ;
268 -> 269 ;
270 [label="TASK_RN <= 0.6\ngini = 0.5\nsamples = 5\nvalue = [200, 180]\nclass = 1", fillcolor="#fcf2eb"] ;
269 -> 270 ;
271 [label="gini = 0.0\nsamples = 2\nvalue = [120, 0]\nclass = 1", fillcolor="#e58139"] ;
270 -> 271 ;
272 [label="TASK_RN <= 0.9\ngini = 0.43\nsamples = 3\nvalue = [80, 180]\nclass = 3", fillcolor="#91c9f1"] ;
270 -> 272 ;
273 [label="gini = 0.0\nsamples = 1\nvalue = [0, 120]\nclass = 3", fillcolor="#399de5"] ;
272 -> 273 ;
274 [label="TASK_D <= 1.5\ngini = 0.49\nsamples = 2\nvalue = [80, 60]\nclass = 1", fillcolor="#f8e0ce"] ;
272 -> 274 ;
275 [label="gini = 0.0\nsamples = 1\nvalue = [80, 0]\nclass = 1", fillcolor="#e58139"] ;
274 -> 275 ;
276 [label="gini = 0.0\nsamples = 1\nvalue = [0, 60]\nclass = 3", fillcolor="#399de5"] ;
274 -> 276 ;
277 [label="gini = 0.0\nsamples = 1\nvalue = [120, 0]\nclass = 1", fillcolor="#e58139"] ;
269 -> 277 ;
278 [label="TASK_RN <= 0.7\ngini = 0.08\nsamples = 946\nvalue = [3880, 83520]\nclass = 3", fillcolor="#42a2e6"] ;
268 -> 278 ;
279 [label="TASK_E <= 1.5\ngini = 0.43\nsamples = 91\nvalue = [2240, 4980]\nclass = 3", fillcolor="#92c9f1"] ;
278 -> 279 ;
280 [label="TASK_RN <= 0.3\ngini = 0.46\nsamples = 20\nvalue = [960, 540]\nclass = 1", fillcolor="#f4c8a8"] ;
279 -> 280 ;
281 [label="gini = 0.0\nsamples = 4\nvalue = [160, 0]\nclass = 1", fillcolor="#e58139"] ;
280 -> 281 ;
282 [label="TASK_R <= 5.0\ngini = 0.48\nsamples = 16\nvalue = [800, 540]\nclass = 1", fillcolor="#f7d6bf"] ;
280 -> 282 ;
283 [label="TASK_N_L <= 0.9\ngini = 0.38\nsamples = 14\nvalue = [720, 240]\nclass = 1", fillcolor="#eeab7b"] ;
282 -> 283 ;
284 [label="gini = 0.0\nsamples = 1\nvalue = [40, 0]\nclass = 1", fillcolor="#e58139"] ;
283 -> 284 ;
285 [label="TASK_R <= 0.5\ngini = 0.39\nsamples = 13\nvalue = [680, 240]\nclass = 1", fillcolor="#eead7f"] ;
283 -> 285 ;
286 [label="gini = 0.47\nsamples = 9\nvalue = [400, 240]\nclass = 1", fillcolor="#f5cdb0"] ;
285 -> 286 ;
287 [label="gini = 0.0\nsamples = 4\nvalue = [280, 0]\nclass = 1", fillcolor="#e58139"] ;
285 -> 287 ;
288 [label="TASK_I <= 1.5\ngini = 0.33\nsamples = 2\nvalue = [80, 300]\nclass = 3", fillcolor="#6eb7ec"] ;
282 -> 288 ;
289 [label="gini = 0.0\nsamples = 1\nvalue = [80, 0]\nclass = 1", fillcolor="#e58139"] ;
288 -> 289 ;
290 [label="gini = 0.0\nsamples = 1\nvalue = [0, 300]\nclass = 3", fillcolor="#399de5"] ;
288 -> 290 ;
291 [label="TASK_RN <= 0.1\ngini = 0.35\nsamples = 71\nvalue = [1280, 4440]\nclass = 3", fillcolor="#72b9ec"] ;
279 -> 291 ;
292 [label="gini = 0.0\nsamples = 6\nvalue = [280, 0]\nclass = 1", fillcolor="#e58139"] ;
291 -> 292 ;
293 [label="TASK_R <= 3.0\ngini = 0.3\nsamples = 65\nvalue = [1000, 4440]\nclass = 3", fillcolor="#66b3eb"] ;
291 -> 293 ;
294 [label="TASK_N_L <= 0.9\ngini = 0.23\nsamples = 60\nvalue = [680, 4440]\nclass = 3", fillcolor="#57ace9"] ;
293 -> 294 ;
295 [label="TASK_F <= 0.9\ngini = 0.38\nsamples = 8\nvalue = [200, 600]\nclass = 3", fillcolor="#7bbeee"] ;
294 -> 295 ;
296 [label="gini = 0.0\nsamples = 1\nvalue = [0, 120]\nclass = 3", fillcolor="#399de5"] ;
295 -> 296 ;
297 [label="gini = 0.42\nsamples = 7\nvalue = [200, 480]\nclass = 3", fillcolor="#8bc6f0"] ;
295 -> 297 ;
298 [label="TASK_R <= -0.5\ngini = 0.2\nsamples = 52\nvalue = [480, 3840]\nclass = 3", fillcolor="#52a9e8"] ;
294 -> 298 ;
299 [label="gini = 0.26\nsamples = 35\nvalue = [440, 2460]\nclass = 3", fillcolor="#5cafea"] ;
298 -> 299 ;
300 [label="gini = 0.05\nsamples = 17\nvalue = [40, 1380]\nclass = 3", fillcolor="#3fa0e6"] ;
298 -> 300 ;
301 [label="gini = 0.0\nsamples = 5\nvalue = [320, 0]\nclass = 1", fillcolor="#e58139"] ;
293 -> 301 ;
302 [label="TASK_F <= 0.9\ngini = 0.04\nsamples = 855\nvalue = [1640, 78540]\nclass = 3", fillcolor="#3d9fe6"] ;
278 -> 302 ;
303 [label="TASK_E <= 1.5\ngini = 0.33\nsamples = 9\nvalue = [160, 600]\nclass = 3", fillcolor="#6eb7ec"] ;
302 -> 303 ;
304 [label="gini = 0.0\nsamples = 1\nvalue = [40, 0]\nclass = 1", fillcolor="#e58139"] ;
303 -> 304 ;
305 [label="TASK_R <= 3.5\ngini = 0.28\nsamples = 8\nvalue = [120, 600]\nclass = 3", fillcolor="#61b1ea"] ;
303 -> 305 ;
306 [label="TASK_RN <= 0.9\ngini = 0.12\nsamples = 6\nvalue = [40, 600]\nclass = 3", fillcolor="#46a4e7"] ;
305 -> 306 ;
307 [label="gini = 0.0\nsamples = 3\nvalue = [0, 300]\nclass = 3", fillcolor="#399de5"] ;
306 -> 307 ;
308 [label="TASK_E <= 2.5\ngini = 0.21\nsamples = 3\nvalue = [40, 300]\nclass = 3", fillcolor="#53aae8"] ;
306 -> 308 ;
309 [label="gini = 0.3\nsamples = 2\nvalue = [40, 180]\nclass = 3", fillcolor="#65b3eb"] ;
308 -> 309 ;
310 [label="gini = 0.0\nsamples = 1\nvalue = [0, 120]\nclass = 3", fillcolor="#399de5"] ;
308 -> 310 ;
311 [label="gini = 0.0\nsamples = 2\nvalue = [80, 0]\nclass = 1", fillcolor="#e58139"] ;
305 -> 311 ;
312 [label="TASK_E <= 1.5\ngini = 0.04\nsamples = 846\nvalue = [1480, 77940]\nclass = 3", fillcolor="#3d9fe5"] ;
302 -> 312 ;
313 [label="TASK_I <= 1.5\ngini = 0.35\nsamples = 42\nvalue = [720, 2520]\nclass = 3", fillcolor="#72b9ec"] ;
312 -> 313 ;
314 [label="TASK_D <= 1.5\ngini = 0.48\nsamples = 12\nvalue = [280, 420]\nclass = 3", fillcolor="#bddef6"] ;
313 -> 314 ;
315 [label="gini = 0.0\nsamples = 2\nvalue = [80, 0]\nclass = 1", fillcolor="#e58139"] ;
314 -> 315 ;
316 [label="TASK_R <= -0.5\ngini = 0.44\nsamples = 10\nvalue = [200, 420]\nclass = 3", fillcolor="#97ccf1"] ;
314 -> 316 ;
317 [label="gini = 0.0\nsamples = 1\nvalue = [0, 60]\nclass = 3", fillcolor="#399de5"] ;
316 -> 317 ;
318 [label="gini = 0.46\nsamples = 9\nvalue = [200, 360]\nclass = 3", fillcolor="#a7d3f3"] ;
316 -> 318 ;
319 [label="TASK_D <= 1.5\ngini = 0.29\nsamples = 30\nvalue = [440, 2100]\nclass = 3", fillcolor="#62b2ea"] ;
313 -> 319 ;
320 [label="gini = 0.0\nsamples = 1\nvalue = [80, 0]\nclass = 1", fillcolor="#e58139"] ;
319 -> 320 ;
321 [label="TASK_RN <= 0.9\ngini = 0.25\nsamples = 29\nvalue = [360, 2100]\nclass = 3", fillcolor="#5baee9"] ;
319 -> 321 ;
322 [label="gini = 0.44\nsamples = 8\nvalue = [200, 420]\nclass = 3", fillcolor="#97ccf1"] ;
321 -> 322 ;
323 [label="gini = 0.16\nsamples = 21\nvalue = [160, 1680]\nclass = 3", fillcolor="#4ca6e7"] ;
321 -> 323 ;
324 [label="TASK_E <= 2.5\ngini = 0.02\nsamples = 804\nvalue = [760, 75420]\nclass = 3", fillcolor="#3b9ee5"] ;
312 -> 324 ;
325 [label="TASK_D <= 2.5\ngini = 0.04\nsamples = 391\nvalue = [760, 36360]\nclass = 3", fillcolor="#3d9fe6"] ;
324 -> 325 ;
326 [label="TASK_R <= 11.5\ngini = 0.04\nsamples = 379\nvalue = [760, 34980]\nclass = 3", fillcolor="#3d9fe6"] ;
325 -> 326 ;
327 [label="gini = 0.04\nsamples = 375\nvalue = [720, 34680]\nclass = 3", fillcolor="#3d9fe6"] ;
326 -> 327 ;
328 [label="gini = 0.21\nsamples = 4\nvalue = [40, 300]\nclass = 3", fillcolor="#53aae8"] ;
326 -> 328 ;
329 [label="gini = 0.0\nsamples = 12\nvalue = [0, 1380]\nclass = 3", fillcolor="#399de5"] ;
325 -> 329 ;
330 [label="gini = 0.0\nsamples = 413\nvalue = [0, 39060]\nclass = 3", fillcolor="#399de5"] ;
324 -> 330 ;
}