digraph Tree {
node [shape=box, style="filled, rounded", color="black", fontname=helvetica] ;
edge [fontname=helvetica] ;
0 [label="TASK_F <= 0.3\ngini = 0.28\nsamples = 4344\nvalue = [44610, 218520]\nclass = 3", fillcolor="#61b1ea"] ;
1 [label="TASK_E <= 2.5\ngini = 0.49\nsamples = 2538\nvalue = [37610, 28620]\nclass = 1", fillcolor="#f9e1d0"] ;
0 -> 1 [labeldistance=2.5, labelangle=45, headlabel="True"] ;
2 [label="TASK_N_L <= 0.1\ngini = 0.46\nsamples = 2390\nvalue = [36270, 19710]\nclass = 1", fillcolor="#f3c5a5"] ;
1 -> 2 ;
3 [label="TASK_F <= 0.1\ngini = 0.35\nsamples = 2143\nvalue = [33610, 10080]\nclass = 1", fillcolor="#eda774"] ;
2 -> 3 ;
4 [label="gini = 0.27\nsamples = 1468\nvalue = [23400, 4410]\nclass = 1", fillcolor="#ea995e"] ;
3 -> 4 ;
5 [label="gini = 0.46\nsamples = 675\nvalue = [10210, 5670]\nclass = 1", fillcolor="#f3c7a7"] ;
3 -> 5 ;
6 [label="TASK_N_S <= 0.55\ngini = 0.34\nsamples = 247\nvalue = [2660, 9630]\nclass = 3", fillcolor="#70b8ec"] ;
2 -> 6 ;
7 [label="gini = 0.49\nsamples = 173\nvalue = [2290, 3150]\nclass = 3", fillcolor="#c9e4f8"] ;
6 -> 7 ;
8 [label="gini = 0.1\nsamples = 74\nvalue = [370, 6480]\nclass = 3", fillcolor="#44a3e6"] ;
6 -> 8 ;
9 [label="TASK_N_S <= 0.1\ngini = 0.23\nsamples = 148\nvalue = [1340, 8910]\nclass = 3", fillcolor="#57ace9"] ;
1 -> 9 ;
10 [label="TASK_F <= 0.1\ngini = 0.36\nsamples = 104\nvalue = [1220, 4050]\nclass = 3", fillcolor="#75bbed"] ;
9 -> 10 ;
11 [label="gini = 0.44\nsamples = 56\nvalue = [700, 1440]\nclass = 3", fillcolor="#99cdf2"] ;
10 -> 11 ;
12 [label="gini = 0.28\nsamples = 48\nvalue = [520, 2610]\nclass = 3", fillcolor="#60b1ea"] ;
10 -> 12 ;
13 [label="TASK_F <= 0.1\ngini = 0.05\nsamples = 44\nvalue = [120, 4860]\nclass = 3", fillcolor="#3e9fe6"] ;
9 -> 13 ;
14 [label="gini = 0.09\nsamples = 19\nvalue = [90, 1890]\nclass = 3", fillcolor="#42a2e6"] ;
13 -> 14 ;
15 [label="gini = 0.02\nsamples = 25\nvalue = [30, 2970]\nclass = 3", fillcolor="#3b9ee5"] ;
13 -> 15 ;
16 [label="TASK_E <= 1.5\ngini = 0.07\nsamples = 1806\nvalue = [7000, 189900]\nclass = 3", fillcolor="#40a1e6"] ;
0 -> 16 [labeldistance=2.5, labelangle=-45, headlabel="False"] ;
17 [label="TASK_N_L <= 0.1\ngini = 0.35\nsamples = 175\nvalue = [2030, 7020]\nclass = 3", fillcolor="#72b9ed"] ;
16 -> 17 ;
18 [label="TASK_N_S <= 0.1\ngini = 0.38\nsamples = 127\nvalue = [1500, 4320]\nclass = 3", fillcolor="#7ebfee"] ;
17 -> 18 ;
19 [label="gini = 0.45\nsamples = 104\nvalue = [1310, 2610]\nclass = 3", fillcolor="#9ccef2"] ;
18 -> 19 ;
20 [label="gini = 0.18\nsamples = 23\nvalue = [190, 1710]\nclass = 3", fillcolor="#4fa8e8"] ;
18 -> 20 ;
21 [label="TASK_F <= 0.9\ngini = 0.27\nsamples = 48\nvalue = [530, 2700]\nclass = 3", fillcolor="#60b0ea"] ;
17 -> 21 ;
22 [label="gini = 0.5\nsamples = 13\nvalue = [190, 180]\nclass = 1", fillcolor="#fef8f5"] ;
21 -> 22 ;
23 [label="gini = 0.21\nsamples = 35\nvalue = [340, 2520]\nclass = 3", fillcolor="#54aae9"] ;
21 -> 23 ;
24 [label="TASK_E <= 2.5\ngini = 0.05\nsamples = 1631\nvalue = [4970, 182880]\nclass = 3", fillcolor="#3ea0e6"] ;
16 -> 24 ;
25 [label="TASK_F <= 0.9\ngini = 0.1\nsamples = 897\nvalue = [4710, 82260]\nclass = 3", fillcolor="#44a3e6"] ;
24 -> 25 ;
26 [label="gini = 0.44\nsamples = 217\nvalue = [2660, 5310]\nclass = 3", fillcolor="#9ccef2"] ;
25 -> 26 ;
27 [label="gini = 0.05\nsamples = 680\nvalue = [2050, 76950]\nclass = 3", fillcolor="#3ea0e6"] ;
25 -> 27 ;
28 [label="TASK_N_S <= 0.1\ngini = 0.01\nsamples = 734\nvalue = [260, 100620]\nclass = 3", fillcolor="#3a9de5"] ;
24 -> 28 ;
29 [label="gini = 0.01\nsamples = 291\nvalue = [240, 40140]\nclass = 3", fillcolor="#3a9ee5"] ;
28 -> 29 ;
30 [label="gini = 0.0\nsamples = 443\nvalue = [20, 60480]\nclass = 3", fillcolor="#399de5"] ;
28 -> 30 ;
}