svm_type epsilon_svr
kernel_type rbf
gamma 0.10000000000000001
nr_class 2
total_sv 3327
rho -5.7185279477755069
SV
40 1:0.28147965 2:-0.52753874 3:0.25403666 4:0.79561808 5:0.12447934 6:-0.38070164 7:-0.24119923 8:-0.34949303 9:-0.52203526 10:0.62111929 
-40 1:-0.94493556 2:1.4720155 3:-0.97804596 4:-2.4364044 5:0.14980955 6:1.4644502 7:0.79838544 8:1.4012029 9:0.77851724 10:-2.5094148 
40 1:-0.36861246 2:0.29912664 3:-0.39669802 4:-0.68724509 5:0.22759123 6:0.61308133 7:0.26425482 8:0.1562584 9:0.036638604 10:-0.61722882 
-40 1:-1.1790954 2:1.3700625 3:-1.1543792 4:-0.54276997 5:0.29032706 6:-1.3863711 7:0.79600686 8:1.4725455 9:0.90983284 10:-0.47957762 
40 1:-0.36388952 2:0.65056456 3:-0.3342264 4:0.20773496 5:0.25188755 6:-1.3133579 7:0.43425409 8:0.84049921 9:-0.25096849 10:0.048022539 
40 1:-1.5989001 2:0.24608415 3:-1.6008797 4:0.21515432 5:1.3414287 6:-0.66260651 7:0.61368647 8:0.2395042 9:-0.1047895 10:0.18398257 
-40 1:0.079293406 2:-0.53699981 3:0.12184065 4:-0.25425381 5:0.17785699 6:1.2080189 7:-0.21396361 8:-0.56589729 9:-0.32563499 10:-0.25694579 
40 1:0.43174214 2:-0.26783204 3:0.40598926 4:0.38729031 5:-0.17379002 6:-0.14919293 7:-0.15111244 8:-0.30854718 9:-0.3287918 10:0.40507148 
-40 1:-1.146168 2:1.6680598 3:-1.1814893 4:-2.5456813 5:-0.72934391 6:1.3027375 7:1.7495326 8:1.2690473 9:1.9182412 10:-2.2424879 
-40 1:-2.2705797 2:0.13364102 3:-2.2745693 4:0.32510369 5:1.7583624 6:-0.65418532 7:0.72060041 8:0.15857629 9:0.29317 10:0.26081 
-40 1:0.11336478 2:-1.1189471 3:0.082950252 4:0.086254189 5:0.15353606 6:1.6812938 7:-0.62830929 8:-1.0606913 9:0.15107473 10:-0.14520747 
40 1:-1.2976774 2:0.4950364 3:-1.300958 4:1.0435753 5:0.80657409 6:-2.4718571 7:0.55970834 8:0.77463757 9:0.40436506 10:1.0282179 
40 1:-0.76286691 2:0.023981109 3:-0.77870393 4:0.6976244 5:0.71053077 6:-1.2149953 7:-0.093511211 8:0.31226697 9:0.22277316 10:0.62140192 
-40 1:-0.98387618 2:0.13237863 3:-0.95109974 4:-0.20292033 5:2.4460336 6:0.13374862 7:-0.70593477 8:-0.025400061 9:-2.1521735 10:-0.091423327 
40 1:-2.1896828 2:-0.072758174 3:-2.0861961 4:0.33024442 5:2.1293647 6:-0.47141143 7:-0.028066333 8:0.23945016 9:0.071293132 10:0.14733416 
-40 1:0.75261442 2:-0.013327218 3:0.76119578 4:-0.11909252 5:-2.2212432 6:0.28478595 7:1.4189927 8:0.13445464 9:1.3963939 10:-0.40111306 
-40 1:-0.10549052 2:-0.5043406 3:-0.10055558 4:-0.25537356 5:-0.83898513 6:1.1024319 7:0.77557054 8:-0.34808038 9:1.0460588 10:-0.36418511 
40 1:0.04906308 2:-0.64663269 3:0.063285873 4:0.1227422 5:-0.6457337 6:0.88312887 7:0.53673507 8:-0.63503761 9:0.600633 10:-0.015792849 
-40 1:0.060732882 2:-0.48000762 3:0.0511594 4:-0.083142795 5:0.46679225 6:0.97466058 7:-0.51250293 8:-0.70590283 9:-0.49632536 10:-0.035685446 
-40 1:1.5422519 2:-2.010652 3:1.5123016 4:2.207201 5:-0.43659923 6:-0.20243874 7:-1.05806 8:-1.9550357 9:-1.0641061 10:2.1346725 
40 1:0.70342222 2:-1.563902 3:0.68724316 4:0.73600014 5:0.39741938 6:1.4255805 7:-1.0645655 8:-1.8614976 9:-1.051458 10:0.82845945 
-40 1:0.41108946 2:-1.074773 3:0.40347757 4:0.18701486 5:0.13200083 6:1.3765137 7:-0.43282903 8:-0.97028167 9:-0.61449144 10:0.038573555 
-40 1:-2.1613863 2:0.6582497 3:-2.1368051 4:-0.12247538 5:1.488967 6:-0.8203003 7:0.71464324 8:0.74636504 9:0.58272563 10:-0.20416246 
40 1:-0.525907 2:1.0209253 3:-0.54506999 4:-1.4464399 5:-0.028411186 6:0.6426512 7:0.76894864 8:0.67159664 9:0.31971279 10:-1.16689 
40 1:0.01133805 2:-0.31909762 3:-0.010202145 4:-0.24583544 5:-0.11826702 6:0.97249178 7:0.20059652 8:-0.3154393 9:0.024279497 10:-0.43646875 
40 1:1.3781056 2:-0.27239612 3:1.4080753 4:0.4577017 5:-1.1798034 6:-0.35558814 7:-0.012130941 8:-0.21910884 9:-0.42082874 10:0.53837813 
-40 1:-0.50336692 2:1.0388922 3:-0.52124689 4:-1.2313621 5:-0.62803109 6:0.22491126 7:0.74490043 8:1.2456387 9:1.4696857 10:-1.4163799 
-40 1:0.18384057 2:-0.3645288 3:0.14705969 4:-0.35424819 5:0.26697726 6:1.1606235 7:-0.53642692 8:-0.37292712 9:-0.29679406 10:-0.47397587 
-40 1:1.8140776 2:0.10704627 3:1.8623939 4:0.50831441 5:-1.2448185 6:-0.90571855 7:-0.35897805 8:0.099341041 9:-0.81308468 10:0.50947827 
-40 1:-2.5682732 2:0.73895685 3:-2.5817983 4:-0.66364938 5:2.1414861 6:-0.18130968 7:0.68347866 8:0.72645132 9:0.17733897 10:-0.58922011 
40 1:0.048126109 2:0.11090928 3:0.10242879 4:0.23542518 5:-0.13881846 6:-0.58668855 7:0.10001221 8:0.12342816 9:0.020722258 10:0.3279089 
40 1:-0.19976855 2:-0.23049438 3:-0.23686846 4:-0.78506742 5:-0.11287715 6:1.5822768 7:0.17066286 8:-0.067617447 9:0.47448682 10:-1.0659412 
40 1:-0.46246221 2:-0.0059327927 3:-0.41689439 4:-0.82628267 5:-0.57314307 6:1.27787 7:0.92941216 8:-0.0049218812 9:1.0307978 10:-0.90299184 
40 1:-0.075287643 2:-0.45689122 3:-0.024187737 4:-0.44978381 5:-0.064181976 6:1.3187633 7:0.23722311 8:-0.33914661 9:-0.019982641 10:-0.52146481 
-40 1:-0.13301762 2:-0.21719371 3:-0.15942601 4:-0.60387562 5:-0.028112858 6:1.3187198 7:0.48102611 8:-0.32788293 9:-0.15068402 10:-0.63736236 
40 1:-1.1413108 2:1.6673551 3:-1.1657736 4:-2.3427208 5:-0.33669084 6:1.0308764 7:1.6206741 8:1.4351696 9:1.2633408 10:-2.248987 
-40 1:-0.35844181 2:-0.40890689 3:-0.37035898 4:-0.71620143 5:0.043180858 6:1.8433109 7:-0.48522551 8:-0.69303435 9:1.1287869 10:-0.67250491 
-40 1:0.12813597 2:1.5732098 3:0.11535466 4:-1.3117427 5:-1.3555392 6:-0.4978909 7:1.2650539 8:1.3175668 9:1.1115926 10:-0.97162902 
40 1:1.9212625 2:-1.597168 3:1.9162934 4:2.1776707 5:0.0022771559 6:-0.8262112 7:-1.6026819 8:-1.534812 9:-2.132241 10:2.1601514 
-40 1:-0.052111875 2:0.79583598 3:-0.068165355 4:0.39670633 5:-0.06106282 6:-1.8419733 7:0.29117031 8:0.76903501 9:-0.060947298 10:0.50484953 
40 1:-0.11230844 2:0.046945556 3:-0.080892619 4:0.13692694 5:0.0044884897 6:-0.44068663 7:0.07245204 8:-0.0023607952 9:0.10681538 10:0.4324516 
-40 1:-1.7057882 2:1.0031403 3:-1.7209194 4:-0.23263588 5:0.71350513 6:-1.353714 7:0.9947442 8:1.2573467 9:0.9538387 10:-0.23092479 
40 1:-0.15063657 2:-0.31865792 3:-0.12710104 4:0.19989873 5:3.2189212 6:0.12273919 7:-2.9924448 8:-0.31331206 9:-2.9466955 10:0.2880295 
-40 1:0.77301488 2:0.78436694 3:0.78995359 4:0.1729829 5:-0.65230315 6:-1.5698784 7:-0.17637219 8:0.60670629 9:-0.08095642 10:0.54515057 
40 1:-1.9015887 2:3.6833482 3:-1.9297443 4:-4.1129662 5:-0.69557796 6:0.56648561 7:2.2277955 8:3.5242922 9:2.8394658 10:-4.0569954 
-40 1:1.7444796 2:0.2189673 3:1.7239765 4:0.58281626 5:-0.9171443 6:-1.3111727 7:-0.59405873 8:0.11662162 9:-1.0077767 10:0.86576424 
40 1:1.0048395 2:-0.56305367 3:0.98325012 4:0.54431641 5:-1.3927437 6:0.057837548 7:0.52643093 8:-0.55259796 9:0.22716956 10:0.52072654 
-40 1:0.12791103 2:0.25286155 3:0.12091925 4:-0.30764667 5:-0.71551706 6:0.073211082 7:0.58856027 8:0.26152114 9:0.54970278 10:-0.31969551 
40 1:-0.054103071 2:0.50270374 3:-0.055234517 4:-0.4236599 5:-0.45656989 6:-0.1544097 7:0.46690108 8:0.2358217 9:0.52056866 10:-0.12162517 
-40 1:1.1734935 2:-0.1934827 3:1.1887008 4:1.296964 5:-0.3588698 6:-1.7241742 7:-0.74664461 8:-0.15248607 9:-0.85478405 10:1.4096708 
-40 1:1.1891238 2:-0.79521404 3:1.1912529 4:1.3189995 5:-0.41173461 6:-0.74195796 7:-0.65085027 8:-0.81662551 9:-0.86757493 10:1.3421904 
-40 1:0.0056216429 2:-0.20490889 3:-0.027684667 4:0.01854774 5:0.124413 6:0.3024354 7:-0.29027405 8:-0.35200608 9:0.07612549 10:0.1405123 
-40 1:0.036637501 2:-0.39918511 3:0.036675868 4:-0.16470312 5:-0.1956473 6:0.92824727 7:-0.068813902 8:-0.51831604 9:0.3805264 10:-0.16238646 
-40 1:0.21912345 2:0.65721209 3:0.21365244 4:-0.64135522 5:-0.9040416 6:0.022771445 7:0.87512035 8:0.32898459 9:0.44352533 10:-0.40727853 
-40 1:-2.5112591 2:1.252403 3:-2.4259232 4:-1.9300756 5:-2.926233 6:1.0162781 7:5.0095277 8:0.86029133 9:5.4315454 10:-1.6226096 
-40 1:0.48145083 2:-1.1769762 3:0.46353469 4:0.53314994 5:-0.11716447 6:0.94079235 7:-0.30026009 8:-1.0362094 9:-0.39190981 10:0.46441103 
40 1:1.7421703 2:-0.281786 3:1.8035214 4:0.8942782 5:-1.0844243 6:-0.88514308 7:-0.6904162 8:-0.44007681 9:-0.65819784 10:1.0480703 
-40 1:0.20045241 2:-0.45530713 3:0.16832712 4:-0.093222234 5:-0.057265874 6:0.91592384 7:-0.24427824 8:-0.58400504 9:-0.00018940489 10:-0.092947706 
-40 1:-0.22205269 2:-0.84334372 3:-0.20414557 4:0.84084115 5:1.67199 6:0.084738051 7:-1.4789041 8:-0.84983256 9:-1.3309165 10:0.77622594 
40 1:0.41952857 2:-0.15621953 3:0.40914147 4:0.023935021 5:-0.56040842 6:0.22050473 7:0.0077741952 8:-0.2545512 9:0.27226878 10:0.096364019 
-40 1:0.017541009 2:0.11403528 3:0.0055900758 4:-0.75556773 5:-0.92303543 6:1.0340803 7:0.78675964 8:-0.043138509 9:0.97357066 10:-0.73015174 
-40 1:0.80623926 2:-0.58852017 3:0.8495915 4:-0.23811591 5:1.2510524 6:1.3315841 7:-1.9181802 8:-0.82911569 9:-2.1042009 10:-0.1241797 
40 1:-1.3245715 2:-0.42905385 3:-1.3349399 4:0.46114527 5:1.7292379 6:-0.20229027 7:-0.14528101 8:-0.16232659 9:-0.61524425 10:0.43628185 
-34.190100530085587 1:1.3300718 2:-4.0297417 3:1.2949805 4:3.2591795 5:-0.15723275 6:1.3656252 7:-1.5953145 8:-4.6481183 9:-0.63723673 10:3.7826583 
40 1:0.45121235 2:0.43701023 3:0.54216738 4:-0.41462095 5:-1.9042678 6:-0.01524507 7:0.87902383 8:0.48770736 9:1.8420635 10:-0.51684535 
-40 1:0.15344623 2:-0.24044854 3:0.18429809 4:-0.01205787 5:2.2943472 6:0.3662659 7:-2.2501658 8:-0.18028421 9:-2.5064447 10:-0.052441252 
40 1:0.654484 2:-1.44387 3:0.63357557 4:0.83409432 5:0.47029158 6:1.0405676 7:-1.1045009 8:-1.2117083 9:-1.0520479 10:0.46774706 
40 1:-0.31460061 2:-0.32332781 3:-0.31493725 4:0.4103403 5:0.59954967 6:-0.10276954 7:-0.092304757 8:-0.12861813 9:-0.4577257 10:0.19098204 
40 1:-0.54427499 2:-0.61742283 3:-0.55362506 4:1.5611671 5:0.94748283 6:-1.4295667 7:-0.50358638 8:-0.24621041 9:-0.25564555 10:1.2712535 
29.355233555260071 1:0.36588142 2:-1.0630673 3:0.37143988 4:0.83279581 5:1.0970404 6:0.3725676 7:-1.0834809 8:-0.62113178 9:-1.7563895 10:0.38838054 
40 1:-1.0331371 2:1.5750958 3:-1.0639775 4:-2.1632262 5:-0.67155394 6:0.91917332 7:1.885868 8:1.1833199 9:1.4392375 10:-1.9246141 
40 1:-0.0200007 2:-0.36620684 3:-0.03016089 4:-0.66864644 5:-0.073588838 6:1.618018 7:-0.37253758 8:-0.73134555 9:0.57466474 10:-0.40946085 
-40 1:-0.11719875 2:1.1487842 3:-0.12674496 4:-0.95813732 5:-0.3896794 6:-0.35529437 7:0.43692018 8:1.0653629 9:0.55290555 10:-0.82746948 
-40 1:0.25993322 2:-0.543471 3:0.28677871 4:0.30171237 5:2.7199294 6:0.42746096 7:-3.2072009 8:-0.51110417 9:-2.562193 10:0.19455128 
40 1:-0.51183118 2:0.3588114 3:-0.52260594 4:-1.0044282 5:0.40872802 6:1.0618929 7:-0.17035283 8:0.44424697 9:0.39262227 10:-1.2739208 
-40 1:0.9156112 2:0.60983951 3:0.93135511 4:-0.52553661 5:-1.4832183 6:-0.084651869 7:0.7315421 8:0.38328832 9:0.33232957 10:-0.38379198 
-40 1:0.10748188 2:-0.59120911 3:0.12928918 4:-0.21311512 5:-0.29603304 6:1.2943932 7:0.33335679 8:-0.84353493 9:0.0039319225 10:-0.080624489 
-40 1:0.67673963 2:-1.5724718 3:0.65864919 4:0.92764879 5:0.89229738 6:1.0634667 7:-1.8028444 8:-1.6903026 9:-1.2070747 10:0.97032702 
40 1:1.1888769 2:0.60081683 3:1.169528 4:-0.12119879 5:-1.4913417 6:-0.92144259 7:0.46272267 8:0.5779924 9:0.1211878 10:0.18220953 
-40 1:-0.19499177 2:-0.18687736 3:-0.21416183 4:-0.65821488 5:-0.53807629 6:1.3250936 7:-0.035916782 8:-0.098931452 9:1.4894379 10:-0.85549827 
-40 1:0.26125561 2:-0.2421859 3:0.24097886 4:-0.017393886 5:-0.53156818 6:0.41700938 7:0.34005074 8:-0.2760277 9:0.19618649 10:-0.01969569 
-40 1:0.88679289 2:-0.11130583 3:0.90097509 4:0.031267363 5:-1.1826877 6:0.11182733 7:0.26246111 8:-0.18409282 9:0.28426576 10:0.12113401 
40 1:-1.1577907 2:0.89897427 3:-1.1150497 4:-0.70600596 5:0.70104955 6:-0.42414651 7:0.2927438 8:0.9695158 9:0.56389344 10:-0.62463758 
40 1:-0.65647096 2:0.81907466 3:-0.67143755 4:-1.4105536 5:-0.3724372 6:0.97735434 7:1.0121593 8:0.46527609 9:0.99469542 10:-1.2466843 
-40 1:-0.34781666 2:0.054564115 3:-0.36236853 4:-1.1281758 5:0.3193203 6:1.7162894 7:0.25080337 8:-0.14899573 9:-0.18284263 10:-1.1185176 
40 1:0.087666276 2:0.085651421 3:0.10687266 4:0.31171728 5:-0.19447877 6:-0.5996202 7:0.33530241 8:0.018157917 9:-0.15490841 10:0.39735229 
-40 1:0.97655575 2:-0.3884412 3:0.99723074 4:1.6297964 5:-0.39591682 6:-2.1681168 7:-0.70872456 8:-0.2551652 9:-0.43972919 10:2.009082 
40 1:0.032301753 2:-0.094171486 3:0.018350678 4:0.30459674 5:0.10407358 6:-0.30848442 7:0.042594165 8:-0.11676448 9:-0.29662762 10:0.33098391 
-40 1:0.26312318 2:-0.98300983 3:0.23178541 4:0.14874233 5:0.14394607 6:1.3888414 7:-0.52604733 8:-1.173277 9:-0.22830188 10:0.16574872 
17.368346694157221 1:-0.1072883 2:-0.65095253 3:-0.084720091 4:0.61858487 5:1.2283638 6:0.14777209 7:-1.1732363 8:-0.63115845 9:-1.0079027 10:0.48853544 
-40 1:0.093202728 2:-0.16879078 3:0.073911433 4:-0.06637487 5:-0.020339933 6:0.42852998 7:-0.29764022 8:-0.30550871 9:0.18049717 10:-0.036048393 
-40 1:0.25945393 2:-0.36732091 3:0.27269381 4:0.030316249 5:-1.40517 6:0.50629805 7:1.2965311 8:-0.41949505 9:0.89269918 10:0.089844869 
-40 1:-1.0215985 2:1.2389234 3:-1.0342231 4:-1.699576 5:0.038210394 6:0.74076778 7:0.87584728 8:0.83474503 9:1.0475832 10:-1.4432025 
40 1:-0.76913647 2:0.18439538 3:-0.80582677 4:0.44388897 5:0.75152702 6:-0.97877889 7:-0.10377083 8:0.35977466 9:0.18600713 10:0.33108276 
40 1:0.075871425 2:-0.58356418 3:0.05737514 4:-0.39923281 5:0.0083515923 6:1.6290338 7:-0.053769587 8:-0.65146849 9:-0.092128156 10:-0.56148785 
40 1:-0.012368727 2:0.065239458 3:-0.018416738 4:-0.2810381 5:0.018592095 6:0.3980279 7:0.45707782 8:-0.24834815 9:-0.47438023 10:-0.078862265 
-40 1:0.19043691 2:0.092033291 3:0.18250991 4:-0.27729975 5:-0.80943714 6:0.26440881 7:0.73656842 8:0.07819782 9:0.45952872 10:-0.25586931 
40 1:0.13153528 2:-0.80165853 3:0.10920418 4:-0.4647544 5:0.17949431 6:2.0242384 7:-0.48487513 8:-0.91711886 9:-0.090210255 10:-0.53322122 
40 1:0.12403597 2:1.3627683 3:0.18969528 4:-0.57429364 5:-0.66757065 6:-1.2309553 7:-0.25636895 8:1.355893 9:1.2580843 10:-0.5412493 
40 1:0.77745212 2:-0.30614468 3:0.88095676 4:0.095664477 5:-2.0348895 6:0.30329762 7:1.3002973 8:-0.17623091 9:1.0121299 10:-0.01127377 
40 1:1.012878 2:-0.80557922 3:1.0078967 4:0.65944833 5:-0.99405293 6:0.26221456 7:0.1592464 8:-0.90764765 9:-0.20723423 10:0.74066329 
-40 1:-1.7050063 2:0.58187162 3:-1.6990718 4:0.43842445 5:1.1541478 6:-1.6183046 7:0.78434265 8:0.78700164 9:0.28674218 10:0.36351325 
40 1:-1.3140307 2:-0.059981909 3:-1.3078923 4:0.73331004 5:1.7529693 6:-0.9958986 7:-0.7841791 8:0.17730554 9:-0.043841491 10:0.49867788 
-40 1:0.81063505 2:0.90615841 3:0.78219793 4:0.0306515 5:-0.61524668 6:-1.549498 7:-0.27779591 8:0.67725325 9:-0.078758564 10:0.46315693 
-40 1:-0.13868018 2:-0.50415767 3:-0.10164793 4:-0.46225385 5:-0.27433126 6:1.5512657 7:0.1946696 8:-0.75136886 9:0.57233805 10:-0.36629638 
-40 1:3.129162 2:0.38274357 3:3.1060363 4:0.16087274 5:-1.9026558 6:-0.89106671 7:-0.5445054 8:0.29755799 9:-1.8521174 10:0.35898027 
40 1:-0.27417271 2:0.096378183 3:-0.2802765 4:-0.75378524 5:0.19066386 6:1.0515325 7:-0.25773683 8:-0.10045369 9:0.43644079 10:-0.67797074 
-40 1:-0.1230085 2:-0.18212968 3:-0.14660724 4:0.048740528 5:0.22296991 6:0.26319343 7:-0.08971105 8:-0.24621792 9:-0.078625551 10:0.027589382 
-40 1:-0.0079587655 2:0.23777671 3:-0.03189375 4:-0.67345799 5:-1.1653478 6:0.65039312 7:1.0263037 8:0.3125492 9:1.2631618 10:-0.77628311 
40 1:-0.18319196 2:-0.011035124 3:-0.19147008 4:-0.17255722 5:0.046935186 6:0.36463161 7:0.53748953 8:-0.088561005 9:-0.27429738 10:-0.22943748 
-40 1:-1.3899907 2:1.4319266 3:-1.3850496 4:-1.2593839 5:1.2118161 6:-0.27036821 7:0.019963122 8:1.4946825 9:0.33935979 10:-1.3796481 
40 1:0.49439059 2:-0.49113222 3:0.48173291 4:0.17975807 5:-0.6468992 6:0.46143737 7:-0.027773386 8:-0.48898965 9:0.33272513 10:0.2006179 
40 1:-1.8587811 2:0.36351358 3:-1.8857702 4:0.1146321 5:1.4002561 6:-0.740312 7:0.59676314 8:0.47869252 9:0.33282402 10:0.028574745 
40 1:-2.3299272 2:2.1167617 3:-2.3279957 4:-0.90491815 5:0.85692531 6:-2.0570362 7:1.5268293 8:2.1013462 9:1.3381438 10:-0.60989883 
-40 1:0.76900875 2:-0.18836718 3:0.7558525 4:0.032971272 5:-1.0626248 6:0.252797 7:0.21228723 8:-0.41868739 9:0.35948799 10:0.24551216 
40 1:-0.57866129 2:0.50355479 3:-0.57715025 4:-1.5578395 5:-0.37937007 6:1.6784007 7:0.15080122 8:0.67075446 9:1.7217267 10:-1.9407676 
40 1:0.93269914 2:-1.3265493 3:0.94132384 4:1.7468022 5:-0.30994121 6:-0.59128968 7:-0.82794315 8:-1.3778366 9:-0.38747649 10:1.8328363 
-40 1:0.72449928 2:0.31354765 3:0.69719699 4:-0.097298868 5:-0.57062361 6:-0.33343142 7:-0.29294388 8:0.17012369 9:0.017744428 10:0.054634356 
40 1:0.30106323 2:-0.2069251 3:0.3188845 4:0.056860742 5:-1.2142621 6:0.22525381 7:1.077872 8:-0.27950903 9:0.65770064 10:0.13682723 
40 1:0.99172334 2:0.25355702 3:0.9886622 4:-0.09139522 5:-1.3670381 6:-0.33920338 7:0.5413128 8:0.41051899 9:0.16929549 10:-0.12070622 
40 1:0.18323659 2:0.46964406 3:0.3057664 4:-0.60975229 5:-1.5294304 6:0.030029225 7:1.4148958 8:0.49444635 9:1.0565014 10:-0.40448615 
40 1:-0.1535387 2:0.73141278 3:-0.1477613 4:0.47173163 5:0.14670038 6:-1.8785628 7:0.080347688 8:0.70752841 9:-0.072819618 10:0.61099846 
-40 1:1.3598168 2:-2.2607645 3:1.3266259 4:2.261177 5:-0.56853977 6:0.070392176 7:-0.62392952 8:-2.1493105 9:-0.88965237 10:2.1683895 
-40 1:-0.12930853 2:0.50652983 3:-0.11793029 4:0.56341288 5:-0.024557178 6:-1.8391612 7:0.19227946 8:0.55827834 9:0.093821849 10:0.86567467 
40 1:-0.51293288 2:0.73923108 3:-0.51892104 4:-0.96236742 5:0.36180195 6:0.32232682 7:0.10926385 8:0.80834903 9:0.19522823 10:-1.0652694 
-40 1:-0.83550659 2:-0.034189426 3:-0.87058097 4:0.18438345 5:1.4040194 6:-0.16368569 7:-0.39731645 8:0.017177619 9:-0.65853212 10:0.049672018 
-40 1:0.2736463 2:-0.55642855 3:0.23921762 4:0.64056705 5:0.090756365 6:-0.093370007 7:-0.14676308 8:-0.35917742 9:-0.5306867 10:0.42400342 
-40 1:-0.87654768 2:-0.1521548 3:-0.88334512 4:0.18506879 5:1.0746025 6:-0.010427584 7:-0.13150331 8:0.14982116 9:-0.23476662 10:-0.17259377 
40 1:0.0028009889 2:-0.33058973 3:-0.02945583 4:0.17203381 5:0.48803895 6:0.31393055 7:-0.41510944 8:-0.43263675 9:-0.5015101 10:0.17824028 
40 1:0.87227073 2:0.97721793 3:0.86294296 4:0.56872225 5:-0.38732345 6:-2.4396046 7:-0.36922612 8:0.88766763 9:-0.57000436 10:0.84373103 
-40 1:-1.8618359 2:0.68359457 3:-1.8086158 4:0.0019926359 5:1.3407786 6:-1.1186037 7:0.48932584 8:0.97833548 9:0.48630482 10:-0.18056162 
-40 1:-0.42937315 2:0.48359504 3:-0.46606775 4:-0.26964936 5:0.051285813 6:-0.33712844 7:0.44675941 8:0.51152877 9:0.321747 10:-0.29310924 
-40 1:-0.98789842 2:1.8389292 3:-0.99557742 4:-2.5653373 5:-0.53933433 6:1.1407098 7:0.81153409 8:2.1034209 9:2.1701756 10:-3.0425734 
-40 1:0.008881203 2:-0.60005711 3:-0.016652668 4:-0.56626854 5:0.018468342 6:1.8373963 7:-0.80966673 8:-0.65924032 9:0.80113579 10:-0.64636345 
17.621933040662356 1:-2.0430677 2:1.0447408 3:-2.0069222 4:-0.5257474 5:1.0161645 6:-0.7996225 7:1.2922324 8:1.2012896 9:0.67036687 10:-0.69334581 
40 1:0.51171481 2:0.81769888 3:0.55155873 4:-0.80163737 5:-1.2730155 6:-0.21394927 7:0.94322351 8:0.91188686 9:0.47488586 10:-0.66674718 
40 1:0.9789561 2:0.37676844 3:1.0102034 4:-0.1727923 5:-1.2424586 6:-0.34131968 7:0.42404273 8:0.38799915 9:0.03760034 10:-0.14569089 
40 1:-1.3302241 2:0.26144454 3:-1.35797 4:0.59119146 5:0.96497343 6:-1.3976276 7:0.08600375 8:0.61147567 9:0.66837863 10:0.42320957 
-6.2093031251915338 1:-0.64057699 2:2.2452146 3:-0.65412881 4:-2.1107126 5:-0.99531864 6:-0.33138246 7:1.4084547 8:2.3524707 9:1.772354 10:-2.151382 
40 1:0.59599825 2:-1.1081966 3:0.60200176 4:0.61729715 5:1.1217361 6:0.8230707 7:-1.7108753 8:-0.987265 9:-1.6143131 10:0.40855423 
40 1:-0.54365383 2:-0.11277983 3:-0.56894629 4:0.24733163 5:1.2276355 6:-0.16339616 7:-0.47420939 8:-0.081859547 9:-0.81835369 10:0.17114041 
-40 1:0.28973315 2:-0.38573776 3:0.30433216 4:-0.20036582 5:0.98497261 6:1.009303 7:-1.2189439 8:-0.48765357 9:-1.2580209 10:-0.28689898 
40 1:-0.096314755 2:0.040327028 3:-0.13203221 4:-0.12185614 5:0.20665693 6:0.13109834 7:-0.40109078 8:0.042293075 9:0.23171988 10:-0.1421757 
-40 1:0.01751515 2:0.29054958 3:0.010057351 4:0.026268622 5:-0.10638117 6:-0.49797734 7:-0.0073554213 8:0.31634429 9:0.18817922 10:0.029320718 
40 1:-2.6057342 2:1.3772078 3:-2.6390011 4:-0.74336482 5:1.0043324 6:-1.075074 7:1.7592981 8:1.7164567 9:1.3885663 10:-0.96256306 
-40 1:0.54429766 2:-0.43930037 3:0.57212748 4:-0.087036963 5:1.5046958 6:0.83961295 7:-1.912036 8:-0.47356609 9:-2.075892 10:-0.12126686 
40 1:-0.31255716 2:-0.26001934 3:-0.22642165 4:-0.053378683 5:2.1996113 6:0.44496512 7:-1.9353145 8:-0.20924881 9:-1.7827408 10:-0.067027096 
-40 1:-1.9144103 2:3.1494077 3:-1.9016533 4:-3.737976 5:-0.61227874 6:0.84440657 7:2.3366599 8:2.851315 9:2.5502813 10:-3.5732084 
-40 1:-0.47343965 2:-0.044802802 3:-0.49057109 4:0.40535539 5:0.70446079 6:-0.52499662 7:-0.31092923 8:0.015419687 9:-0.11001115 10:0.33712467 
-40 1:0.02411486 2:-0.020137578 3:0.12515458 4:-0.14265281 5:-1.9954225 6:0.14269848 7:2.0481932 8:0.09317702 9:1.6513041 10:-0.11676322 
-40 1:0.76131886 2:-0.23898574 3:0.75431612 4:0.41722812 5:-0.60682932 6:-0.20834116 7:-0.059202709 8:-0.25623858 9:-0.2433136 10:0.36935902 
-40 1:-0.18827056 2:-0.068375706 3:-0.21586844 4:0.12875546 5:0.4156985 6:-0.13256637 7:-0.16535471 8:-0.068828933 9:-0.2453095 10:0.1965668 
40 1:-0.54027206 2:1.4137692 3:-0.55436842 4:-1.7034 5:-0.56297479 6:0.43582435 7:0.89594205 8:1.3686954 9:1.2566859 10:-1.7488766 
40 1:-1.5555423 2:0.32680119 3:-1.5787745 4:-0.065807912 5:1.2565303 6:-0.35805442 7:0.32148188 8:0.51547098 9:0.29605938 10:-0.31640118 
40 1:-0.72019701 2:1.2335013 3:-0.73161879 4:0.18293789 5:0.19366283 6:-2.2119716 7:0.25597345 8:1.761073 9:0.78578841 10:-0.24489903 
-40 1:0.053520864 2:-0.51814524 3:0.075940788 4:-0.18481276 5:-0.29753342 6:1.1303409 7:0.077897397 8:-0.50380972 9:0.37401292 10:-0.30925807 
-10.211848478602004 1:1.3322901 2:-1.9545017 3:1.3273253 4:1.7786955 5:-0.62308844 6:0.39776701 7:-1.0669667 8:-2.2221513 9:-0.3028305 10:1.9601937 
-40 1:-0.89451998 2:0.26672552 3:-0.92770719 4:0.59528394 5:0.69906201 6:-1.4154818 7:0.14592001 8:0.60077646 9:0.27552726 10:0.44934641 
-40 1:0.90163953 2:-0.23122149 3:0.89992104 4:0.47476979 5:-0.5480511 6:-0.37929802 7:-0.35410058 8:-0.47918217 9:-0.33682344 10:0.77269377 
-40 1:0.64098631 2:-1.7300254 3:0.61578307 4:1.3714423 5:0.038978236 6:0.63058124 7:-1.037428 8:-1.851585 9:-0.24781029 10:1.4431608 
40 1:0.0959435 2:-0.19847989 3:0.06325821 4:0.067351993 5:-0.48363782 6:0.23068482 7:0.18073896 8:0.043548098 9:0.60280022 10:-0.22536321 
40 1:-0.0027060613 2:-0.55442915 3:-0.037319312 4:0.42072565 5:0.74394026 6:0.17981937 7:-0.55606324 8:-0.45137502 9:-0.84364922 10:0.37033511 
-40 1:0.67912651 2:-2.0185039 3:0.66102044 4:1.4644915 5:0.37827113 6:0.96842463 7:-1.0019067 8:-1.9677316 9:-1.0286431 10:1.3020685 
-40 1:0.41116172 2:-0.39581783 3:0.48146904 4:0.12374053 5:-1.5327635 6:0.4331518 7:1.252989 8:-0.37643698 9:0.8323647 10:0.078496205 
-40 1:0.58071163 2:0.014213506 3:0.57757574 4:0.079454066 5:-0.5636829 6:-0.15810037 7:0.0053602671 8:0.10155534 9:-0.042670834 10:0.018168199 
-40 1:0.82078268 2:-1.2558194 3:0.81623944 4:1.0560862 5:-0.42109796 6:0.36312565 7:-0.18544847 8:-1.2038884 9:-0.59589463 10:0.97181588 
40 1:-0.36233209 2:0.27370859 3:-0.38610864 4:-0.70818138 5:0.19203335 6:0.71851667 7:0.22840342 8:0.066479275 9:0.12623395 10:-0.62466384 
40 1:-2.8994541 2:0.44870143 3:-2.8113735 4:0.16484313 5:2.0242499 6:-0.97235629 7:1.3317116 8:0.47640916 9:0.29302166 10:0.21156656 
-40 1:0.55252741 2:-1.3778607 3:0.54901725 4:2.5774087 5:0.27603871 6:-1.8097542 7:-1.4423069 8:-1.2115612 9:-0.14339056 10:2.5454006 
40 1:-0.47022915 2:0.22100757 3:-0.50334375 4:0.60569829 5:0.47308976 6:-1.3237199 7:0.0011770992 8:0.41280686 9:0.031389797 10:0.55073224 
-40 1:0.97927952 2:-0.92548533 3:0.94671039 4:0.87572407 5:-0.49861162 6:0.09025284 7:-0.49483432 8:-0.94819868 9:-0.41142588 10:0.92568142 
-40 1:-1.0861116 2:0.58304107 3:-1.0708948 4:-0.32633706 5:1.1937143 6:-0.34918833 7:0.10604924 8:0.63005481 9:-0.32062087 10:-0.44907924 
-40 1:-1.2963979 2:2.4796891 3:-1.3112225 4:-3.272103 5:0.40113591 6:1.2198523 7:0.3976659 8:2.6340596 9:1.3709104 10:-3.6452681 
40 1:-0.16221887 2:-0.47080035 3:-0.14766625 4:-0.75087962 5:0.0096872016 6:1.9459803 7:0.26421744 8:-0.54360264 9:0.014816043 10:-0.86353253 
-40 1:1.4319306 2:-0.047674347 3:1.4298606 4:0.70238537 5:-0.77407042 6:-1.1183677 7:-0.53494808 8:-0.077896319 9:-0.75170908 10:0.96057687 
-40 1:0.24769309 2:-0.74819117 3:0.22346654 4:0.10047974 5:0.31515477 6:1.0608429 7:-0.34659711 8:-0.7689737 9:-0.72315436 10:0.0076473632 
40 1:-1.1761628 2:0.82033113 3:-1.2122523 4:-0.22071964 5:0.66873101 6:-0.95714554 7:1.0041576 8:0.81117283 9:0.011614667 10:-0.14892807 
40 1:0.21667812 2:-0.28509592 3:0.19386251 4:-0.19631381 5:-1.5188208 6:0.73145945 7:1.5352717 8:-0.28054187 9:0.98945357 10:-0.21788495 
-40 1:0.053862354 2:-0.20748148 3:0.039761394 4:-0.15232785 5:0.34805569 6:0.61274514 7:-0.055738656 8:-0.27583254 9:-0.71451894 10:-0.19110562 
-40 1:0.053521219 2:0.91147301 3:0.025577194 4:0.64589194 5:-0.061312645 6:-2.4415353 7:-0.060319784 8:0.97935781 9:0.1038083 10:0.74087642 
-40 1:1.6539885 2:-0.018069618 3:1.6666793 4:0.20356153 5:-1.5151826 6:-0.31932522 7:0.067739052 8:0.064715338 9:-0.37284432 10:0.18658189 
-40 1:-2.5051467 2:0.87443232 3:-2.5071946 4:-0.31596858 5:1.5313317 6:-0.9271032 7:0.81364318 8:0.94649304 9:1.1001166 10:-0.28622559 
-40 1:-2.4180322 2:0.89445139 3:-2.4308948 4:-0.8485711 5:2.4206356 6:-0.03286429 7:0.21971491 8:0.79251863 9:-0.18844451 10:-0.84382372 
40 1:-0.78612132 2:0.68755778 3:-0.78730155 4:-1.7104784 5:-0.62365246 6:1.6306617 7:1.2779221 8:0.57765463 9:1.4541496 10:-1.8162597 
-40 1:-1.4610119 2:3.7819439 3:-1.4968698 4:-2.9055777 5:-0.31284763 6:-1.44342 7:1.4321485 8:3.4420432 9:2.0492552 10:-2.543104 
-40 1:-0.015764494 2:0.17792649 3:-0.05282355 4:-0.69177805 5:-0.89899179 6:0.86680298 7:0.94400753 8:0.25641548 9:0.85558704 10:-0.94261178 
40 1:0.0741909 2:-0.55241425 3:0.14118584 4:0.0065282995 5:-0.65801792 6:0.78556696 7:0.54153268 8:-0.44843262 9:0.51850521 10:-0.043064858 
-40 1:0.8957917 2:0.92161175 3:0.8913064 4:1.0952316 5:-0.40122805 6:-3.1531785 7:-0.52033639 8:0.70172618 9:-0.43899866 10:1.5365865 
40 1:3.1740168 2:-0.47212669 3:3.1797725 4:1.1076743 5:-1.4040199 6:-0.92053636 7:-1.8220095 8:-0.47755034 9:-1.6333626 10:1.1168666 
-40 1:-1.2007438 2:0.25482272 3:-1.217436 4:0.48138779 5:1.0685571 6:-1.1590971 7:-0.0017877197 8:0.5393179 9:0.29081963 10:0.28353049 
-40 1:0.74804859 2:0.43837151 3:0.77449404 4:0.38232293 5:-0.47829984 6:-1.3791186 7:-0.4554842 8:0.36436841 9:-0.095022417 10:0.68233999 
-40 1:-0.30343241 2:0.0455968 3:-0.33100681 4:-0.039294449 5:0.28051559 6:-0.010096696 7:0.24229192 8:0.062434981 9:-0.17276912 10:-0.057962683 
40 1:-0.37135695 2:0.9038228 3:-0.3865094 4:-1.291345 5:-1.0659397 6:0.58602811 7:1.1656954 8:0.68093875 9:1.6315937 10:-1.134407 
-40 1:-0.35946574 2:0.12694405 3:-0.38410127 4:-1.1789733 5:0.76540701 6:1.6827542 7:-0.74035406 8:-0.083000476 9:-0.0056032609 10:-1.1642104 
40 1:0.066216907 2:-0.66611121 3:0.046470109 4:0.8876022 5:0.31660343 6:-0.45327838 7:-0.9226199 8:-0.53551405 9:0.21636344 10:0.97527391 
40 1:-0.4188371 2:1.0323969 3:-0.4133244 4:-1.3226552 5:-0.9838891 6:0.46060166 7:1.2864985 8:0.97877084 9:1.4206031 10:-1.3729405 
40 1:0.47148883 2:-0.86295045 3:0.48301748 4:0.4245672 5:1.755173 6:0.75590376 7:-2.1084357 8:-0.69949861 9:-2.2046776 10:0.14365527 
-40 1:-0.24697239 2:0.24560094 3:-0.25574834 4:-0.34063378 5:0.018479398 6:0.14195398 7:-0.45045652 8:0.25469508 9:0.91930535 10:-0.36649562 
-40 1:-0.65502937 2:-0.42695458 3:-0.68318667 4:0.21409663 5:0.90752868 6:0.38400443 7:-0.40081449 8:-0.2874475 9:-0.046854838 10:-0.0084628599 
40 1:-0.86278023 2:0.32266527 3:-0.87901191 4:-0.4021219 5:0.63656583 6:0.15914316 7:0.35599021 8:0.22781268 9:0.10331525 10:-0.3837611 
-40 1:-1.8524678 2:1.7807158 3:-1.8703575 4:-1.2360236 5:0.55709655 6:-0.89690284 7:1.5003189 8:1.9294697 9:1.0321502 10:-1.3498478 
40 1:0.82835992 2:0.34974915 3:0.83866164 4:0.20650459 5:-0.96576547 6:-0.90428417 7:0.20505292 8:0.33706266 9:0.038117073 10:0.32405548 
-40 1:-0.69037283 2:-0.83317795 3:-0.71841771 4:1.1479529 5:1.1822608 6:-0.58698019 7:-0.62998575 8:-0.55747844 9:-0.27920216 10:1.0902247 
-40 1:0.30312846 2:-0.33131816 3:0.30478754 4:0.0816821 5:-0.68923462 6:0.44755919 7:0.3411481 8:-0.35623352 9:0.39912809 10:0.0093169204 
40 1:0.58710323 2:0.83780299 3:0.6292388 4:-0.35436118 5:-0.9797571 6:-0.89352821 7:0.4432522 8:0.92945567 9:0.26416819 10:-0.23075954 
-40 1:-0.45904289 2:1.0184361 3:-0.47854959 4:-0.30655795 5:-0.057087911 6:-1.0868974 7:0.36051662 8:1.0917363 9:0.66314932 10:-0.38242669 
40 1:1.235233 2:-0.85476167 3:1.2033851 4:1.7385268 5:-0.37846831 6:-1.4366013 7:-0.74657749 8:-0.89288613 9:-0.89167891 10:2.0217372 
40 1:-0.00324079 2:0.0062106244 3:-0.023042191 4:0.58933375 5:0.19482796 6:-0.92510886 7:-0.22055187 8:0.04357512 9:-0.12865601 10:0.6204598 
40 1:0.10978906 2:-0.43130408 3:0.1101419 4:0.38185008 5:0.14925997 6:0.12839821 7:-0.28902274 8:-0.48766558 9:-0.21138132 10:0.38282204 
-40 1:-0.013804825 2:0.12652874 3:-0.035758106 4:0.062385968 5:-0.12374195 6:-0.27805392 7:0.18320522 8:-0.022769918 9:0.10259934 10:0.20871086 
-40 1:-0.16662476 2:-0.10022441 3:-0.14165976 4:0.20544352 5:0.15545014 6:-0.13573578 7:0.056432026 8:-0.046199502 9:-0.058502915 10:0.12741995 
40 1:-0.2114759 2:-0.17699142 3:-0.2398788 4:0.57575104 5:0.34104704 6:-0.56753314 7:-0.050882933 8:-0.24109875 9:-0.17044452 10:0.62275178 
40 1:1.3681642 2:-0.064990632 3:1.3638615 4:1.4701577 5:-0.15611576 6:-2.2895344 7:-1.231713 8:0.092720649 9:-1.1170288 10:1.6319366 
-40 1:0.18898736 2:0.81393014 3:0.19903272 4:0.27322485 5:-0.1784659 6:-1.8933775 7:0.0063917006 8:0.93963396 9:-0.039228502 10:0.52437764 
-40 1:0.051326333 2:0.1775804 3:0.017395229 4:0.21512059 5:-0.14381692 6:-0.55159328 7:0.46315394 8:0.14212589 9:-0.26124047 10:0.20276161 
40 1:0.31415957 2:1.0122922 3:0.28351869 4:-0.35359961 5:-0.64312757 6:-1.1002575 7:0.30220036 8:0.91202197 9:0.35906597 10:-0.11701033 
-40 1:1.8716158 2:0.38227026 3:1.8650617 4:-0.097385884 5:-1.9318955 6:-0.40931279 7:-0.15794029 8:0.28223801 9:0.26341468 10:-0.030613451 
40 1:-0.40980516 2:0.14337237 3:-0.36696064 4:-0.42671358 5:1.3030634 6:0.50359581 7:-0.93637824 8:0.13181249 9:-0.82198683 10:-0.54844029 
40 1:-0.34816116 2:0.34337783 3:-0.24203087 4:0.39971414 5:-0.47611846 6:-1.1458314 7:0.76409767 8:0.51615554 9:0.72670607 10:0.27780519 
40 1:-0.78347106 2:0.89018956 3:-0.79313497 4:-0.30486248 5:0.21159316 6:-0.92977947 7:0.71179669 8:0.78828368 9:0.40633658 10:-0.15074126 
-40 1:1.4549907 2:0.64621241 3:1.4530609 4:-0.19017676 5:-0.94481656 6:-0.72137984 7:-0.21961899 8:0.3515945 9:-0.78683437 10:0.14953501 
40 1:-0.33253164 2:-0.027843813 3:-0.34588472 4:-0.65364718 5:-0.1003695 6:1.0979596 7:0.57215963 8:-0.16254577 9:0.27621461 10:-0.65081611 
40 1:0.7195831 2:-1.6549286 3:0.70459233 4:1.5806103 5:0.035659006 6:0.2543931 7:-0.70465185 8:-1.6516386 9:-0.74673813 10:1.4578686 
40 1:-0.16249376 2:0.028717576 3:-0.18147369 4:-0.37769246 5:-0.083326838 6:0.54568955 7:0.11966756 8:-0.0069049964 9:0.37800263 10:-0.38883618 
40 1:-1.6579431 2:0.11474526 3:-1.6428762 4:-0.0034330943 5:1.745818 6:-0.27828406 7:-0.087298141 8:0.41073517 9:-0.076947213 10:-0.14782841 
-18.345060216303054 1:-1.3520379 2:1.4719153 3:-1.387811 4:0.17927307 5:0.46504401 6:-2.6622323 7:0.95371388 8:1.7698402 9:0.80628084 10:0.1267095 
40 1:-0.090890067 2:-0.66273602 3:-0.10336376 4:1.6864483 5:0.45507526 6:-1.7420941 7:-0.24586056 8:-0.35827218 9:-0.44589446 10:1.7512751 
-40 1:-0.58121201 2:0.93900186 3:-0.60586054 4:-0.58963253 5:-0.0064294472 6:-0.58639054 7:0.80453224 8:0.81651568 9:0.35436872 10:-0.4110331 
-40 1:0.18477329 2:-0.94303036 3:0.16998338 4:-0.44539654 5:0.018166626 6:2.2143575 7:-0.38788096 8:-0.99068929 9:0.013431589 10:-0.59095453 
-40 1:1.0397951 2:-1.3483849 3:1.0051432 4:2.2584471 5:-0.063504899 6:-1.5303675 7:-1.0472699 8:-1.2903379 9:-0.81190845 10:2.550176 
40 1:-0.37093558 2:-0.23560429 3:-0.38948782 4:-0.29275568 5:-1.1868086 6:0.79866564 7:1.4875492 8:-0.1883683 9:1.5403535 10:-0.35815247 
40 1:0.36176158 2:-1.1569377 3:0.36381047 4:0.54045799 5:0.77892966 6:1.037736 7:-0.84892407 8:-0.89577898 9:-1.3640013 10:0.14688782 
40 1:2.4259213 2:-0.2612768 3:2.4835849 4:0.61739361 5:-1.7329951 6:-0.48170341 7:-0.56520357 8:-0.10817748 9:-0.85982881 10:0.41206787 
40 1:-0.097483932 2:-0.42568691 3:-0.11880629 4:0.20247146 5:1.0743004 6:0.35375369 7:-0.9175251 8:-0.096973857 9:-0.94523249 10:-0.14852033 
40 1:0.22435986 2:0.37282105 3:0.26334928 4:0.20600947 5:-0.97321493 6:-0.88466054 7:1.0594581 8:0.42035651 9:0.33575798 10:0.18329837 
40 1:0.63128751 2:0.17631273 3:0.72167408 4:-0.29867687 5:-1.6814424 6:0.17634824 7:1.1009703 8:0.2663821 9:0.82623146 10:-0.39552059 
-40 1:0.6563374 2:0.97881192 3:0.62580146 4:-0.23534318 5:-0.73878662 6:-1.2342372 7:-0.040156365 8:0.70325893 9:0.22419939 10:0.19671815 
40 1:-0.19310826 2:0.0035407998 3:-0.22377023 4:-0.51531619 5:-0.092151666 6:0.83433572 7:0.48754266 8:-0.10985885 9:0.089927549 10:-0.51623529 
-40 1:-0.12040996 2:0.22706445 3:-0.15195974 4:-0.3370128 5:0.11330088 6:0.22320697 7:-0.23577834 8:-0.11181945 9:0.28787941 10:-0.090186218 
40 1:-2.7339093 2:0.043834716 3:-2.7626967 4:0.1639109 5:2.7475346 6:-0.3052132 7:0.57039617 8:0.14438523 9:-0.5498093 10:0.056927873 
40 1:0.10182534 2:-0.022702587 3:0.095907336 4:-0.10967616 5:-0.39003925 6:0.21279039 7:0.12418208 8:-0.14402818 9:0.4401401 10:-0.0095594239 
40 1:-1.333457 2:0.37421002 3:-1.3052877 4:0.38766671 5:0.80716789 6:-1.2825144 7:0.57003797 8:0.58239699 9:0.43206319 10:0.38637584 
-40 1:-0.63153779 2:0.61317581 3:-0.63097885 4:-0.37577741 5:0.95896622 6:-0.36668665 7:-0.065271344 8:0.57250093 9:-0.56543455 10:-0.34308475 
-40 1:-0.0030670341 2:-0.67682314 3:-0.029017472 4:-0.50798992 5:-0.13870541 6:1.8119285 7:0.072951614 8:-0.81031888 9:0.22760621 10:-0.4306477 
40 1:-0.9520654 2:-0.4170225 3:-0.8490823 4:0.59308694 5:1.7441518 6:-0.46072229 7:-0.97465326 8:-0.066098209 9:-0.6377284 10:0.54849432 
-40 1:-0.25447879 2:0.24361209 3:-0.29150923 4:-0.68381163 5:-0.057723619 6:0.70300314 7:0.46754373 8:0.131212 9:0.17002253 10:-0.66131378 
40 1:-0.3317346 2:0.31309609 3:-0.35051372 4:-1.1465046 5:-0.28011861 6:1.3343022 7:0.24648766 8:0.35243368 9:0.9646504 10:-1.3599702 
-40 1:-2.330172 2:-0.16896283 3:-2.2728591 4:0.19770982 5:3.0021317 6:-0.011769693 7:-0.44971259 8:-0.068277985 9:-0.8795524 10:0.058980456 
40 1:-1.5574162 2:0.49493224 3:-1.5936617 4:0.13365538 5:1.2304027 6:-0.94936386 7:0.14553734 8:0.60515402 9:0.54379935 10:0.027186279 
40 1:1.2310703 2:-2.7498655 3:1.2114776 4:2.0304437 5:0.10316344 6:1.2759409 7:-1.7634971 8:-3.1711733 9:-0.79409579 10:2.3011649 
40 1:-0.3698454 2:-0.18158978 3:-0.38208681 4:-0.84900618 5:0.11500632 6:1.6834096 7:0.043127384 8:-0.023718691 9:0.46991004 10:-1.2424834 
40 1:0.70620195 2:-1.8756736 3:0.68080824 4:1.5146219 5:0.066851277 6:0.66789621 7:-1.0760177 8:-2.0319194 9:-0.39064723 10:1.5810714 
-40 1:-0.31058315 2:0.074706459 3:-0.34044781 4:0.66003047 5:0.27618886 6:-1.1192581 7:0.24517041 8:0.085010369 9:-0.15097859 10:0.69939542 
32.664630925480509 1:0.59751193 2:-1.8908461 3:0.60672368 4:2.6951869 5:1.1763435 6:-1.1736996 7:-2.0093464 8:-1.5524273 9:-1.421289 10:2.4359372 
40 1:-0.30418836 2:0.51379768 3:-0.32316177 4:-0.34978639 5:-0.096841456 6:-0.21137588 7:0.94551271 8:0.41889282 9:-0.1633767 10:-0.32457135 
-40 1:0.84392072 2:-2.459556 3:0.81822482 4:1.4591491 5:0.084046221 6:1.6999751 7:-0.92423146 8:-2.4160958 9:-0.85002621 10:1.2207776 
40 1:-0.3341213 2:0.48288375 3:-0.32699775 4:0.72356484 5:0.14994507 6:-1.8958374 7:0.23408803 8:0.52161248 9:0.1168283 10:0.83025874 
40 1:-0.97750052 2:0.23178971 3:-0.91775335 4:-0.37790561 5:1.8092193 6:0.17691987 7:-0.71048633 8:0.28641441 9:-0.94301792 10:-0.39120537 
-40 1:-0.10658654 2:-0.26037763 3:-0.13410696 4:0.0038054848 5:0.41903735 6:0.43684777 7:-0.20551265 8:-0.35461521 9:-0.37125164 10:0.029306818 
-40 1:0.105626 2:-0.56914581 3:0.11292029 4:0.22933198 5:2.2761565 6:0.59899529 7:-2.2861026 8:-0.53285989 9:-2.3170147 10:0.080070006 
40 1:-0.29161648 2:-0.12306954 3:-0.29468768 4:-0.032498037 5:0.38322947 6:0.23759421 7:-0.095660059 8:-0.075336734 9:-0.074345443 10:-0.087129739 
-40 1:0.011457253 2:-0.65096737 3:-0.0047262222 4:-0.4923957 5:-0.14639506 6:1.8199621 7:-0.57668664 8:-0.82544219 9:0.8701057 10:-0.47492571 
40 1:-1.7996278 2:1.6600299 3:-1.8145393 4:-1.3755077 5:0.68393734 6:-0.59870866 7:1.443795 8:1.4938449 9:0.73563816 10:-1.0348961 
40 1:-0.94040941 2:1.7273826 3:-0.9673523 4:-2.2925489 5:-0.17186471 6:0.88320947 7:1.2520755 8:1.2585522 9:0.92685787 10:-1.9799906 
40 1:-0.015108437 2:-0.72569411 3:-0.013416767 4:-0.25244905 5:-0.51276694 6:1.6370217 7:0.58171611 8:-0.92332192 9:0.43329026 10:-0.29499502 
40 1:-0.9324843 2:1.7238294 3:-0.96809779 4:-2.2680028 5:-0.4369441 6:0.8047966 7:0.59592678 8:1.8575431 9:2.1097018 10:-2.5059923 
-32.029762797548443 1:0.77897713 2:-2.0550367 3:0.75148949 4:1.0813075 5:-0.3246848 6:1.6543668 7:-0.90860193 8:-2.6128971 9:0.061446656 10:1.4483501 
40 1:-0.16805182 2:-0.07659481 3:-0.17253417 4:-0.53491249 5:0.42205665 6:0.975176 7:-0.27176024 8:-0.24796684 9:-0.21112365 10:-0.46295309 
-40 1:0.22926789 2:-0.12857135 3:0.21948302 4:-0.61321373 5:1.004832 6:1.221967 7:-1.1412916 8:-0.24972177 9:-1.2336244 10:-0.67001062 
-40 1:-0.42357066 2:1.1004241 3:-0.4515445 4:-0.94075758 5:-0.14866149 6:-0.24145481 7:-0.032186969 8:1.349777 9:1.1829422 10:-1.2490937 
-40 1:-0.02945082 2:-0.42636359 3:-0.048840029 4:-0.6186398 5:0.04306816 6:1.6625456 7:-0.083822873 8:-0.58571794 9:0.07868478 10:-0.6108981 
40 1:0.16413655 2:-0.65361544 3:0.15454511 4:0.46356285 5:0.20825004 6:0.35402201 7:-0.080952531 8:-0.76396562 9:-0.63677989 10:0.50537001 
-40 1:1.1035162 2:-0.84890223 3:1.0811152 4:0.84292416 5:-0.52910256 6:0.064715125 7:-0.43435664 8:-0.87940064 9:-0.66792732 10:0.83992858 
-40 1:-0.82010272 2:1.0864764 3:-0.83115646 4:-0.88484258 5:0.17130484 6:-0.30694929 7:0.44241448 8:1.1788343 9:0.83434946 10:-1.025529 
-40 1:0.4752027 2:-1.1511877 3:0.46356235 4:-0.314607 5:0.21752619 6:2.3303314 7:-0.79928 8:-1.1625087 9:-0.52805429 10:-0.48896019 
-40 1:0.084538671 2:-0.78150037 3:0.063437667 4:1.0744386 5:0.34318437 6:-0.43549743 7:-0.0716924 8:-0.5417156 9:-0.74205968 10:0.87698472 
40 1:-0.045212298 2:-0.63458816 3:-0.051663818 4:-0.33987457 5:-0.16061689 6:1.3945863 7:0.39900251 8:-0.51566338 9:-1.878556e-05 10:-0.36793814 
-40 1:-1.5490151 2:0.7689815 3:-1.583849 4:0.19250771 5:0.9880208 6:-1.563153 7:0.41353842 8:1.0720989 9:0.72460362 10:0.052260526 
-40 1:-0.17369083 2:-0.21095192 3:-0.13635478 4:-0.67106065 5:0.033978171 6:1.4249569 7:0.35954602 8:-0.35937558 9:-0.13013379 10:-0.69006384 
40 1:-0.22442045 2:0.057287995 3:-0.25712512 4:-0.88589319 5:-0.19127652 6:1.3705927 7:0.27573653 8:-0.136438 9:0.56403272 10:-0.9085627 
40 1:-0.4122489 2:-0.15952747 3:-0.34610106 4:-0.24351533 5:-1.1978213 6:0.71149486 7:1.4649705 8:-0.12905048 9:1.5829965 10:-0.43772594 
-40 1:-0.74015077 2:0.93006355 3:-0.74199751 4:-1.570515 5:-0.42163666 6:1.0345597 7:0.87023234 8:0.78446307 9:1.3877244 10:-1.6052576 
40 1:0.51321573 2:0.042560452 3:0.51410327 4:0.37935222 5:-0.46620303 6:-0.64596987 7:0.0094425006 8:-0.006652791 9:-0.10852084 10:0.46342567 
40 1:1.2094406 2:-1.8958265 3:1.2097079 4:1.8269041 5:-0.53702314 6:0.20545784 7:-0.97242761 8:-1.908094 9:-0.33153076 10:1.7932195 
-40 1:-0.78185359 2:0.083880767 3:-0.78879892 4:0.78328531 5:0.58340859 6:-1.3639323 7:0.17595596 8:0.22107219 9:0.2234619 10:0.76388882 
16.055915214191788 1:1.5671601 2:-0.14526303 3:1.5445336 4:0.92807712 5:-0.63041735 6:-1.2278983 7:-0.51627234 8:-0.017131326 9:-1.2968657 10:0.91348794 
-40 1:-0.34466975 2:-0.40089478 3:-0.35204655 4:1.1991424 5:0.44021023 6:-1.1681202 7:-0.13773575 8:-0.47649197 9:-0.034038888 10:1.2881684 
40 1:0.80039143 2:0.14628742 3:0.77631273 4:0.36029758 5:-0.71315059 6:-0.75659336 7:-0.043204106 8:0.18943993 9:-0.1120941 10:0.32308711 
40 1:0.92100206 2:0.062899242 3:0.99879195 4:-0.011049758 5:-1.4081317 6:-0.071827864 7:0.54882205 8:0.1442216 9:0.30141405 10:-0.10479832 
-40 1:0.40873021 2:1.0936777 3:0.3994139 4:-0.29130405 5:-0.59519008 6:-1.3070244 7:0.049681999 8:1.0074472 9:0.31743276 10:-0.080717157 
-40 1:-0.12177698 2:0.246864 3:-0.1288034 4:0.080200117 5:-0.11246505 6:-0.48811435 7:0.2962748 8:0.22814745 9:0.16220956 10:0.095120732 
40 1:-0.23249664 2:0.52702287 3:-0.22429441 4:-0.78194865 5:-0.89745682 6:0.4260197 7:1.2403868 8:0.34922857 9:0.93031134 10:-0.70188665 
40 1:0.34788733 2:-0.86290101 3:0.31165018 4:0.28170392 5:-0.092979423 6:0.98232083 7:0.09822972 8:-1.0248946 9:-0.56701817 10:0.31218325 
-40 1:0.33394364 2:-0.9712359 3:0.37077454 4:0.25974804 5:-0.1213325 6:1.2286102 7:-0.47932408 8:-0.84837637 9:0.035741634 10:-0.07602201 
40 1:0.54138437 2:0.74139397 3:0.65516999 4:-0.59956863 5:-1.5746026 6:-0.17783059 7:1.0408766 8:0.77260491 9:0.83283965 10:-0.71798452 
-40 1:1.4893579 2:-2.2819741 3:1.4949134 4:1.1251923 5:0.9850657 6:1.8473886 7:-2.6957089 8:-2.5119804 9:-2.0932102 10:1.2790314 
40 1:-0.043654872 2:-0.54107739 3:-0.074124322 4:-0.41879944 5:0.0608915 6:1.5705759 7:0.098397264 8:-0.73465875 9:-0.1040353 10:-0.4181376 
40 1:0.56227403 2:-1.2641272 3:0.55318093 4:0.25377964 5:0.1164261 6:1.679177 7:-0.46559293 8:-1.1455344 9:-0.84610475 10:-0.076550214 
40 1:-0.27077535 2:-0.27347592 3:-0.28373867 4:-0.89015094 5:-0.46846804 6:1.8185442 7:0.27018174 8:-0.11234638 9:1.1826831 10:-1.1933404 
-40 1:0.13028941 2:-0.52207614 3:0.11980421 4:0.071797267 5:0.13932261 6:0.77257963 7:-0.58566062 8:-0.95233305 9:0.082316534 10:0.38404988 
-40 1:-2.6771554 2:0.50651796 3:-2.6214498 4:-0.0092706363 5:2.0491119 6:-0.77070644 7:0.80267328 8:0.4281989 9:0.38153897 10:0.099103885 
-40 1:0.32468977 2:-0.78091564 3:0.30997265 4:-0.017193207 5:0.41550128 6:1.3562723 7:-0.5983758 8:-0.72995992 9:-0.82174727 10:-0.28966973 
-40 1:0.025528641 2:-0.30387336 3:0.0047254191 4:0.15235993 5:-0.0073155143 6:0.30279492 7:0.16400867 8:-0.45480231 9:-0.18348471 10:0.20848691 
-40 1:0.48458693 2:-1.0666393 3:0.47710817 4:0.28004318 5:-0.49408731 6:1.257022 7:-0.28196855 8:-1.1115587 9:0.3089408 10:0.24192902 
-40 1:-1.3838176 2:-0.63482218 3:-1.2923036 4:1.099264 5:1.5876723 6:-0.80189151 7:-0.30848743 8:-0.37959405 9:-0.15517026 10:1.0435358 
-40 1:-0.29887544 2:0.19843998 3:-0.31629701 4:-1.1994513 5:-0.0900138 6:1.5327116 7:0.36451525 8:0.25144193 9:0.4066228 10:-1.3500455 
-40 1:-0.14930975 2:0.32274569 3:-0.13059655 4:0.93239828 5:0.047200525 6:-1.9133871 7:-0.045975892 8:0.185849 9:0.2299329 10:1.1497558 
-40 1:0.66173853 2:0.1706527 3:0.65918473 4:0.35021983 5:-0.7582471 6:-0.79507704 7:0.17871314 8:0.23589076 9:-0.00010444343 10:0.31430687 
-40 1:-0.2080874 2:0.5770132 3:-0.20628629 4:-0.86252413 5:-0.64268195 6:0.49565239 7:0.78287554 8:0.37114042 9:0.85990197 10:-0.79218019 
40 1:0.010840163 2:0.023124128 3:0.021682337 4:-0.57041735 5:-1.2629842 6:0.84486366 7:1.1494834 8:-0.0058331234 9:1.2565244 10:-0.59843279 
9.7091909207162121 1:-0.91741094 2:1.818417 3:-0.93303557 4:-2.178388 5:-1.157404 6:0.48421556 7:1.9061909 8:1.6688199 9:2.124818 10:-2.058381 
-40 1:0.48306263 2:-0.48944594 3:0.48373034 4:0.18435646 5:-1.1281376 6:0.49664929 7:0.74064386 8:-0.38875451 9:0.49430025 10:0.038978203 
-40 1:0.17481483 2:1.1047854 3:0.19896179 4:-0.001249581 5:-0.51293812 6:-1.8544452 7:0.20980329 8:1.0138454 9:0.41945268 10:0.36485229 
-40 1:-0.025250216 2:0.67434116 3:-0.041954694 4:-0.13613903 5:-0.30637216 6:-0.80328612 7:0.39720439 8:0.57649568 9:0.25729049 10:-0.057368067 
1.8920812045655349 1:-1.2130123 2:0.89060552 3:-1.2386729 4:-1.928969 5:-0.50549491 6:1.6237756 7:1.6200556 8:0.68918347 9:1.7356367 10:-1.9087325 
40 1:-0.049782732 2:0.27034857 3:-0.068428511 4:-0.3851334 5:-0.23636733 6:0.19575817 7:0.35263083 8:0.11771 9:0.21637528 10:-0.28199842 
-40 1:2.4974209 2:-0.47763279 3:2.5527936 4:1.1021707 5:-1.5733122 6:-0.89841676 7:-1.1697165 8:-0.55135345 9:-0.69049504 10:1.1733365 
-40 1:0.33651757 2:-0.76146877 3:0.32688772 4:0.46241544 5:-0.16244038 6:0.51535185 7:-0.70543451 8:-0.99732169 9:0.38826834 10:0.63816699 
-40 1:-0.1473345 2:-0.20945286 3:-0.18459894 4:-0.91214864 5:-0.23221927 6:1.7851309 7:0.33414455 8:-0.38648466 9:0.43715461 10:-0.91246708 
-40 1:0.56377319 2:0.067885551 3:0.55712544 4:-0.02138991 5:-1.4267718 6:-0.05746396 7:1.1473219 8:-0.027261577 9:0.50937325 10:0.056691571 
-40 1:0.64341606 2:-0.17774029 3:0.61522555 4:0.1613665 5:-1.0561156 6:0.064092591 7:0.75602904 8:-0.045321286 9:0.05117955 10:-0.023230951 
-40 1:-1.7198315 2:-0.17229879 3:-1.7465435 4:0.2875644 5:2.0875585 6:-0.17648636 7:0.076309635 8:-0.18516319 9:-0.74928698 10:0.32014029 
-40 1:1.7685589 2:0.032333375 3:1.8346639 4:0.039373748 5:-2.2452099 6:-0.12588923 7:0.7152169 8:-0.065973608 9:0.11174872 10:0.1682322 
-40 1:-0.20302156 2:-0.15366441 3:-0.23047539 4:-0.62036732 5:0.2692387 6:1.2780588 7:-0.097677386 8:-0.11233887 9:0.00017620797 10:-0.85543803 
-40 1:-0.43019039 2:0.091004914 3:-0.32533015 4:-0.42677058 5:2.5961953 6:0.44813824 7:-2.3057884 8:0.055724515 9:-1.9648307 10:-0.32798769 
40 1:-0.73160344 2:1.5000349 3:-0.76212507 4:-1.1497084 5:-0.14849102 6:-0.61146745 7:0.86087808 8:1.4192791 9:0.87529462 10:-1.0106837 
-40 1:-0.12008884 2:-0.083927929 3:-0.14682145 4:0.41878767 5:0.24264385 6:-0.58803967 7:-0.19458285 8:-0.037286742 9:-0.012251147 10:0.51360351 
-40 1:-1.3303752 2:1.3026267 3:-1.3124844 4:-0.50073481 5:0.57365525 6:-1.3850078 7:0.90674713 8:1.3452358 9:0.54706967 10:-0.31969396 
-40 1:0.20410429 2:-1.1842988 3:0.19629192 4:-0.17609118 5:-0.25592179 6:2.2288179 7:-0.22357344 8:-1.2823709 9:0.33547036 10:-0.33760965 
-40 1:-1.0737747 2:-0.12988912 3:-1.1021983 4:0.34683629 5:1.5420693 6:-0.34972815 7:-0.064277974 8:0.030245763 9:-0.80773698 10:0.23330169 
40 1:0.88213354 2:-0.17514529 3:0.91388536 4:0.63926247 5:-0.59284946 6:-0.75344568 7:-0.2187619 8:-0.146873 9:-0.38255082 10:0.72167883 
-40 1:0.39657297 2:-0.13031959 3:0.38080002 4:0.090967933 5:-0.5305942 6:0.019227663 7:0.10493183 8:-0.31678589 9:0.1648956 10:0.34642847 
-40 1:0.33347108 2:0.10003419 3:0.41740146 4:-0.16673958 5:-1.9666413 6:0.17632597 7:1.5901185 8:0.087290726 9:1.4734456 10:-0.27288613 
-40 1:-1.1084889 2:0.085880169 3:-1.0969948 4:0.6437806 5:0.9468095 6:-1.2051848 7:0.3553513 8:0.26341418 9:-0.046310249 10:0.64654876 
-40 1:1.0362803 2:-2.2687351 3:1.0163731 4:1.5416949 5:-0.26375338 6:1.2996778 7:-0.66870087 8:-2.4416481 9:-0.8163167 10:1.5119817 
-40 1:-1.4375626 2:2.3402926 3:-1.4437484 4:-2.8223741 5:-0.6300748 6:0.73251257 7:1.6798247 8:2.4588444 9:2.3397266 10:-3.1068444 
40 1:0.71631061 2:-0.26361438 3:0.7107194 4:0.30469793 5:-1.8577192 6:-0.015341049 7:1.3812629 8:-0.24223067 9:0.81044743 10:0.23153329 
40 1:-2.1351352 2:1.3793634 3:-2.0994639 4:-0.26616498 5:1.0200451 6:-1.7619303 7:1.0405766 8:1.4707486 9:1.1019809 10:-0.25832808 
40 1:-1.4988635 2:-0.14272505 3:-1.4051672 4:1.0637801 5:1.3263422 6:-1.6284899 7:0.26383613 8:0.15143647 9:-0.0073568098 10:1.1650984 
-40 1:-0.21383161 2:0.23979523 3:-0.22518602 4:-0.6343045 5:0.0044859932 6:0.6668887 7:0.35441842 8:0.21394589 9:0.059381117 10:-0.74604574 
-40 1:0.79512385 2:0.1821046 3:0.79046643 4:0.86056022 5:-0.26989879 6:-1.6614896 7:-0.36537702 8:0.10274581 9:-0.65623468 10:1.1154241 
40 1:-0.33962499 2:1.1584957 3:-0.36327361 4:0.15572121 5:0.054493058 6:-2.1346627 7:0.095588435 8:1.2408693 9:0.48614882 10:0.29672478 
40 1:0.084468177 2:-0.48718088 3:0.05802842 4:-0.50786883 5:-0.087350071 6:1.5834286 7:-0.26364981 8:-0.67439667 9:0.30069675 10:-0.46000627 
-40 1:-0.028980033 2:-0.0061740658 3:-0.034035886 4:-0.54340573 5:-1.1320517 6:0.83614924 7:1.3035472 8:-0.13175719 9:0.93685477 10:-0.45279983 
18.007336569924 1:-0.81642356 2:-0.058144015 3:-0.74359631 4:-0.2948117 5:3.4582545 6:0.62694678 7:-3.346441 8:-0.056910726 9:-1.7916304 10:-0.44884757 
-40 1:0.79121833 2:0.95371425 3:0.81743889 4:0.049930768 5:-0.53645198 6:-1.583291 7:-0.18460395 8:0.75179346 9:-0.34364055 10:0.35791769 
-40 1:-0.39184845 2:0.33333929 3:-0.41520125 4:-1.2532472 5:-1.0555264 6:1.3831633 7:1.2382526 8:0.11250676 9:1.5852368 10:-1.085803 
40 1:-0.57188995 2:0.28685336 3:-0.60794025 4:0.42787654 5:0.38555618 6:-1.1359923 7:0.22148245 8:0.41072766 9:0.17921091 10:0.40591784 
40 1:0.17157245 2:-1.171421 3:0.16375345 4:0.54956844 5:0.45514552 6:1.0445828 7:-1.1412818 8:-1.1709831 9:-0.048843075 10:0.42657649 
40 1:-1.8619173 2:0.38421231 3:-1.8976513 4:0.030935485 5:1.5185487 6:-0.67759719 7:0.56864188 8:0.44669246 9:0.14539694 10:0.041728879 
-40 1:0.5337593 2:-0.41013205 3:0.51290737 4:0.4407341 5:-0.62099943 6:-0.061810038 7:0.31481817 8:-0.38143605 9:-0.13816822 10:0.45831197 
40 1:-0.20887576 2:-0.02594593 3:-0.24276146 4:-0.26647898 5:0.57367166 6:0.51528292 7:-0.15856798 8:-0.069642596 9:-0.51408579 10:-0.34329943 
40 1:0.54926307 2:-0.58371745 3:0.53386057 4:0.25202716 5:-0.67025702 6:0.53055358 7:-0.13450891 8:-0.50684219 9:0.38258567 10:0.14406455 
-40 1:-0.1808862 2:0.033966912 3:-0.18517987 4:-0.8614199 5:-0.29003903 6:1.3707253 7:0.089281567 8:0.0108935 9:0.83448735 10:-1.0609974 
37.871187335179187 1:1.6786494 2:1.0465088 3:1.6826248 4:0.69122024 5:-0.74250225 6:-2.7103955 7:-0.95975831 8:0.75754765 9:-0.86878667 10:1.1505465 
-40 1:0.5188078 2:-0.24925138 3:0.50048014 4:0.20135036 5:-0.60710767 6:0.038098315 7:0.15806645 8:-0.19241409 9:0.022211173 10:0.20394775 
-40 1:0.21675393 2:0.24959513 3:0.22705639 4:0.74085958 5:-0.08239316 6:-1.504001 7:-0.086589562 8:0.33949615 9:-0.18636087 10:0.70045646 
40 1:-0.033155486 2:-0.46970177 3:-0.066423274 4:-0.095608449 5:0.0090488196 6:0.9143447 7:-0.094985124 8:-0.39345484 9:0.17745875 10:-0.26708824 
6.8585916482115739 1:-1.8687258 2:1.0565183 3:-1.8609122 4:-0.45668309 5:1.2101442 6:-1.0084845 7:0.029931153 8:1.4426832 9:1.270199 10:-0.73040658 
40 1:0.18232406 2:0.058130473 3:0.17776387 4:-0.20402524 5:-0.22277764 6:0.29722392 7:-0.059008657 8:0.20473588 9:0.14173315 10:-0.47801308 
-40 1:-0.10064643 2:-0.30866091 3:-0.13291105 4:0.10796925 5:0.27412143 6:0.39373697 7:0.08003367 8:-0.35922396 9:-0.38785394 10:0.03414251 
40 1:0.13079067 2:-0.51760139 3:0.11062494 4:0.16224814 5:-0.033118272 6:0.58272666 7:-0.12868088 8:-0.80766171 9:-0.040654043 10:0.40291233 
40 1:-1.9185394 2:4.186945 3:-1.8792601 4:-3.3734278 5:-0.12942729 6:-1.7224561 7:1.6236185 8:4.5562537 9:2.320049 10:-3.2218832 
40 1:0.521505 2:0.13940785 3:0.55469178 4:0.28971958 5:-0.50818753 6:-0.67931685 7:-0.017071626 8:0.14229853 9:-0.047379231 10:0.34790961 
-40 1:-1.4134937 2:0.57374349 3:-1.3971647 4:-0.70887752 5:1.2734581 6:0.25459355 7:0.36075893 8:0.66337595 9:-0.09518259 10:-0.91382929 
40 1:-1.1213718 2:0.36948872 3:-1.1117159 4:-0.34863156 5:1.2185188 6:-0.09319714 7:-0.20379167 8:0.53975175 9:0.023140874 10:-0.45329097 
40 1:0.23159739 2:-0.85073881 3:0.20802402 4:0.21296743 5:0.15704823 6:1.0452425 7:-0.4042884 8:-1.0301354 9:-0.32432087 10:0.2904095 
40 1:-2.0595133 2:0.63855892 3:-2.0370674 4:-0.011947244 5:1.533117 6:-1.0585933 7:0.55446078 8:0.71747101 9:0.46258316 10:0.069138344 
40 1:0.0022926513 2:1.0472089 3:0.007217957 4:-0.6226881 5:-0.53739404 6:-0.67562777 7:0.4688885 8:0.9442232 9:0.55960915 10:-0.50138225 
40 1:0.064010332 2:0.11444795 3:0.067385722 4:0.59925973 5:0.029070119 6:-1.2353216 7:0.061582057 8:0.26927045 9:-0.24892593 10:0.70185419 
-40 1:0.28617407 2:-1.0256018 3:0.25459915 4:0.11024417 5:0.025258729 6:1.4096597 7:-0.55482331 8:-0.86398909 9:-0.012134151 10:-0.088810107 
40 1:0.37967384 2:-1.1219986 3:0.35519299 4:0.01034422 5:0.28693329 6:1.7849421 7:-0.77262586 8:-1.2433631 9:-0.490603 10:-0.017698708 
40 1:0.12752384 2:-0.42326824 3:0.10081439 4:0.20420977 5:-0.32234116 6:0.43399705 7:0.13599276 8:-0.32633968 9:0.26576435 10:-0.034233657 
-40 1:2.8181507 2:-0.20998782 3:2.8387701 4:0.68900165 5:-2.3200342 6:-0.7016247 7:-0.23075167 8:0.0054275484 9:-0.79045708 10:0.4734044 
-40 1:2.2150505 2:-1.2566408 3:2.2034077 4:1.7767319 5:-0.80024479 6:-0.72243931 7:-1.12469 8:-1.1701379 9:-1.6256143 10:1.6939882 
40 1:1.2233631 2:-2.6553771 3:1.2103895 4:2.7096964 5:0.15767913 6:0.0078756821 7:-1.2721768 8:-2.6253227 9:-1.3953012 10:2.6979928 
40 1:-0.98324297 2:1.5145515 3:-0.99310333 4:-2.0610277 5:-0.096822019 6:0.78932974 7:0.81540222 8:1.6571974 9:1.2951261 10:-2.2691252 
40 1:-0.48927392 2:0.66989409 3:-0.51855646 4:0.63166841 5:0.21125685 6:-2.1522104 7:0.24349123 8:1.2107743 9:0.32805155 10:0.38074012 
40 1:-0.11993864 2:-0.37661883 3:-0.074930815 4:-0.17645139 5:-0.87808032 6:0.85916287 7:0.97214035 8:-0.42125148 9:0.91005639 10:-0.17460929 
-40 1:0.26577255 2:-0.41256225 3:0.24068591 4:0.50986183 5:-0.14184632 6:-0.099359386 7:-0.058086654 8:-0.52885162 9:-0.16104653 10:0.58837681 
-40 1:0.44356958 2:-1.6299179 3:0.42323984 4:0.4373843 5:0.069612012 6:1.8400996 7:-0.68247314 8:-1.7347238 9:-0.28823593 10:0.51355717 
-40 1:1.3118131 2:-1.2689062 3:1.3553547 4:0.29746002 5:1.3315399 6:1.5433827 7:-2.526966 8:-1.3529869 9:-2.6311207 10:0.2902288 
37.049128719289719 1:1.2372299 2:-3.1407502 3:1.2060805 4:3.5295858 5:0.43139557 6:-0.43191335 7:-1.5808937 8:-2.9221279 9:-1.6228789 10:3.2737677 
-40 1:-0.16542884 2:-0.12758978 3:-0.18380166 4:0.14736962 5:0.45314157 6:0.042229635 7:-0.13530721 8:0.07336088 9:-0.40315258 10:-0.15621944 
40 1:-0.32366212 2:0.14936332 3:-0.35612158 4:0.10641071 5:0.053427067 6:-0.4952613 7:0.41629729 8:0.11793218 9:0.13691124 10:0.30315436 
-40 1:0.03293071 2:-0.18843113 3:0.10958225 4:0.055247896 5:-3.517032 6:0.27322081 7:3.6389331 8:0.057637073 9:2.999318 10:-0.29971179 
40 1:0.49740413 2:0.37945145 3:0.53156877 4:0.13241624 5:-0.59339405 6:-0.87292305 7:0.072509134 8:0.39319188 9:0.073610073 10:0.27062347 
-40 1:1.7842664 2:0.22161339 3:1.8179638 4:-0.19218591 5:-3.1129787 6:0.016003102 7:1.952154 8:0.11182221 9:0.53980338 10:-0.17794531 
-40 1:-0.24062969 2:0.24439062 3:-0.27539073 4:-0.50331529 5:-0.11680676 6:0.45554927 7:0.66459238 8:0.16987599 9:0.05406058 10:-0.54826422 
-19.499362305725668 1:1.8974903 2:-0.074866346 3:1.9099919 4:0.69017874 5:-1.175791 6:-0.94238712 7:-0.66054558 8:-0.056777117 9:-0.76761637 10:0.72838332 
-2.3473787262976993 1:2.4741822 2:0.011837033 3:2.4991068 4:0.88598463 5:-1.8482692 6:-1.3675042 7:-0.97071257 8:-0.035932639 9:-0.28193694 10:1.0003111 
-40 1:1.9295454 2:0.12410085 3:1.9569983 4:0.79272966 5:-0.88194984 6:-1.3873028 7:-0.8915899 8:0.037684322 9:-1.182339 10:0.92864524 
40 1:-0.19431145 2:0.3455249 3:-0.20033512 4:-0.33203227 5:0.011978244 6:-0.014031286 7:0.60602327 8:0.091213421 9:-0.25663305 10:-0.098052134 
40 1:1.0793689 2:0.60517293 3:1.075252 4:0.28378355 5:-0.60421034 6:-1.418035 7:-0.24777321 8:0.34317564 9:-0.68295157 10:0.67823482 
40 1:-0.29447416 2:-0.1612922 3:-0.29181211 4:-0.54121716 5:-0.92753816 6:1.0427364 7:1.3002456 8:-0.12512479 9:1.0549254 10:-0.58129087 
40 1:-0.17770174 2:0.3734394 3:-0.171661 4:-0.95442596 5:-0.43885978 6:0.91268814 7:0.22987971 8:0.46581203 9:0.96464135 10:-1.1532061 
40 1:-1.1739613 2:1.4041453 3:-1.2036121 4:-2.3818379 5:0.10153325 6:1.5039244 7:1.1675713 8:1.0685184 9:0.94110006 10:-2.2075879 
-40 1:0.75204374 2:-0.34597616 3:0.75495379 4:0.37607392 5:-0.88617779 6:-0.031812238 7:-0.033089261 8:-0.37861225 9:0.28390641 10:0.41060527 
-40 1:1.8212014 2:0.11153158 3:1.8056174 4:0.67388974 5:-1.0465748 6:-1.2278755 7:-0.54783335 8:0.075932475 9:-0.95796835 10:0.80790274 
-40 1:0.0011872383 2:0.023540094 3:-0.032622928 4:-0.5741422 5:0.67954927 6:0.93995559 7:-0.45043443 8:-0.10048972 9:-0.83458272 10:-0.63575303 
40 1:-0.68314239 2:0.15429756 3:-0.69089978 4:0.25929137 5:0.57161065 6:-0.5837551 7:0.2727136 8:0.22389299 9:-0.045781677 10:0.1421973 
-40 1:-0.15829174 2:-0.14714905 3:-0.15367841 4:-0.39204651 5:-0.48236658 6:0.85204668 7:0.87058273 8:-0.22772736 9:0.35639595 10:-0.38533799 
40 1:0.054339872 2:0.11575913 3:0.028114419 4:0.29436587 5:0.018434461 6:-0.61484525 7:-0.13610109 8:0.35178666 9:0.022436112 10:0.060889404 
-40 1:-0.08154923 2:-0.022489661 3:-0.07871289 4:-0.40528317 5:-0.25967273 6:0.69085152 7:0.26662933 8:-0.34877245 9:0.39131511 10:-0.15695615 
-40 1:-1.0446753 2:0.64734693 3:-1.0680717 4:-0.12962289 5:0.71428688 6:-0.88074769 7:0.57785953 8:0.69678115 9:0.088639199 10:-0.04415061 
40 1:0.16547382 2:-0.95116047 3:0.13578014 4:0.155361 5:0.38472771 6:1.3432606 7:-1.0915874 8:-1.2871958 9:0.071208171 10:0.30443625 
-40 1:-0.62248531 2:0.14009079 3:-0.65888478 4:0.30249687 5:0.72878814 6:-0.71154602 7:-0.15873111 8:0.24029535 9:-0.0017082652 10:0.27859596 
-40 1:1.0215778 2:-3.0269382 3:1.0091494 4:3.72137 5:0.88333008 6:-0.95076801 7:-1.8467953 8:-2.5183516 9:-1.8276172 10:3.2610877 
-40 1:0.45409057 2:-0.89536377 3:0.44784106 4:0.64868254 5:-0.045347032 6:0.44581142 7:-0.80371228 8:-1.0618367 9:0.025989172 10:0.74941881 
-40 1:-0.42815615 2:1.9769222 3:-0.43738867 4:-1.1092632 5:-0.47625559 6:-1.4015108 7:0.59622618 8:1.6231722 9:1.169356 10:-0.6748494 
-40 1:-0.07765965 2:0.7536811 3:-0.092170041 4:-0.66212423 5:-0.49717794 6:-0.13835743 7:0.6552218 8:0.83403195 9:0.46632843 10:-0.78144159 
-40 1:0.52445017 2:-1.0896143 3:0.48933607 4:0.50437775 5:0.0083405366 6:0.96178779 7:-0.38953193 8:-1.0700109 9:-0.61311882 10:0.39916548 
-40 1:0.22863663 2:-0.33248596 3:0.24887426 4:0.0077900423 5:-0.78669023 6:0.50700437 7:0.48184854 8:-0.23352057 9:0.57338684 10:-0.11754163 
40 1:-1.6261168 2:-0.051332996 3:-1.6527321 4:0.15479236 5:2.497653 6:-0.0907648 7:-0.58045282 8:-0.24056581 9:-1.061386 10:0.26258767 
-5.0125600648371664 1:-0.54280701 2:0.15093951 3:-0.56219857 4:-0.59963946 5:-4.3722188 6:0.71107064 7:4.356872 8:0.011447452 9:5.1591157 10:-0.53765535 
40 1:0.011620381 2:-0.55155529 3:0.010486487 4:0.42359383 5:1.0878074 6:0.29301572 7:-0.91272307 8:-0.35219824 9:-1.2107113 10:0.096799556 
-40 1:0.48556287 2:0.59695975 3:0.48807703 4:-0.57496347 5:-1.0091478 6:-0.084887308 7:0.44910197 8:0.44156428 9:0.55394389 10:-0.37173287 
-40 1:-0.71936277 2:0.26624297 3:-0.70116713 4:-0.68400557 5:-2.0054596 6:0.66468809 7:2.3836735 8:0.045369081 9:2.8692629 10:-0.54349031 
40 1:0.66689594 2:-0.002761964 3:0.64222284 4:0.42428861 5:-0.51236697 6:-0.73457768 7:-0.0030492291 8:0.057011063 9:-0.28245019 10:0.52861717 
-40 1:0.7813587 2:0.0094308944 3:0.79534298 4:0.089393875 5:-0.98681122 6:-0.10952781 7:0.092795918 8:-0.080425879 9:0.28296626 10:0.12885011 
40 1:-1.934134 2:0.83281404 3:-1.905136 4:0.039072563 5:0.96331435 6:-1.4146005 7:1.0068852 8:0.8839446 9:0.85891586 10:0.13035905 
-40 1:-2.2668522 2:0.55215021 3:-2.1852153 4:-0.041553849 5:1.6020105 6:-0.82454139 7:0.92802898 8:0.4918042 9:0.29455654 10:0.095610324 
-40 1:0.063147752 2:-0.0065597071 3:0.081574179 4:0.13045768 5:-0.11143294 6:-0.22674995 7:0.13375351 8:-0.026143166 9:-0.061607491 10:0.21544314 
40 1:-1.2473915 2:1.2349681 3:-1.2713639 4:-2.0493988 5:-1.3975909 6:1.0329434 7:2.3795084 8:1.0531699 9:2.7653641 10:-1.6882073 
-40 1:0.3332217 2:0.1782027 3:0.35265931 4:-0.20449642 5:-1.1824018 6:0.035756651 7:0.91435731 8:0.031798027 9:0.69824885 10:-0.059420649 
40 1:0.71150106 2:0.36040077 3:0.82388871 4:-0.33714434 5:-1.3384764 6:-0.16150628 7:0.83449105 8:0.3984897 9:0.25034385 10:-0.2110044 
40 1:-0.24481878 2:0.27207176 3:-0.28223847 4:0.21752064 5:0.16318027 6:-0.80023708 7:0.095959207 8:0.28149941 9:0.10078451 10:0.30804256 
-40 1:-0.11322451 2:0.3767658 3:-0.12796144 4:0.32230904 5:0.04813349 6:-1.1210079 7:-0.019522598 8:0.37514418 9:0.1629387 10:0.43623552 
-40 1:-1.4980518 2:0.36954805 3:-1.4547201 4:-0.26544119 5:1.5934505 6:-0.16003214 7:-0.18981651 8:0.41215833 9:-0.016286817 10:-0.31999513 
-40 1:-0.69870496 2:0.2265997 3:-0.69008122 4:-0.70186862 5:1.6009396 6:0.80651255 7:-0.97219311 8:0.03258767 9:-0.76573538 10:-0.66999054 
40 1:-0.0091956023 2:-0.11659933 3:-0.035002684 4:-0.28772321 5:0.028037652 6:0.71108973 7:0.12991325 8:-0.39355692 9:-0.1444491 10:-0.16468461 
-40 1:-0.74829445 2:0.76858135 3:-0.78079499 4:-1.7223261 5:-0.11368868 6:1.4845537 7:0.9797614 8:0.47905282 9:0.72026501 10:-1.5834144 
-40 1:-1.6960159 2:-0.051696224 3:-1.7227977 4:0.20683916 5:2.587871 6:-0.20966736 7:-0.63107717 8:0.15805536 9:-1.0482065 10:-0.033501585 
40 1:0.58266563 2:0.11335102 3:0.5635561 4:0.18022958 5:-0.68570801 6:-0.58961669 7:0.26409272 8:0.3156252 9:-0.057637283 10:0.19480766 
40 1:0.57230051 2:-0.19354203 3:0.56040106 4:0.14794367 5:-2.428704 6:0.045131262 7:2.2481306 8:-0.16978616 9:1.3263676 10:0.16630472 
40 1:-0.015418222 2:0.11159355 3:-0.025872363 4:-0.18765395 5:-0.046738099 6:0.1838282 7:0.17077806 8:-0.01400578 9:-0.043149264 10:-0.16919133 
40 1:-1.8509384 2:0.073653691 3:-1.8406003 4:0.29756862 5:1.4376197 6:-0.70660975 7:0.44922262 8:0.39187531 9:0.35895803 10:0.1988912 
-40 1:0.87988729 2:-1.7734473 3:0.86907004 4:1.3267798 5:0.023402429 6:0.83067687 7:-0.58038943 8:-1.6310163 9:-1.1691749 10:1.0268371 
40 1:0.22742441 2:0.4222583 3:0.26310315 4:-0.47836206 5:-1.2400923 6:0.068360189 7:0.71444035 8:0.38692278 9:1.2076611 10:-0.44465592 
-40 1:-0.23774899 2:0.27635601 3:-0.25229539 4:-0.11512246 5:0.038148696 6:-0.32425884 7:0.41585413 8:0.21233808 9:-0.019174114 10:0.061826888 
40 1:-0.033950583 2:-0.50083324 3:-0.056586474 4:-0.20511936 5:-0.16329613 6:1.1557864 7:0.25192894 8:-0.48959765 9:0.14967426 10:-0.35794551 
40 1:0.085455095 2:-0.22507991 3:0.064725786 4:0.059336334 5:-0.070827568 6:0.32414564 7:0.11705381 8:-0.15619559 9:-0.12917623 10:-0.11561415 
2.9276138300261447 1:-0.98526799 2:-0.79728595 3:-0.91591126 4:0.71592895 5:2.0114745 6:-0.024927766 7:-1.2276503 8:-0.4448417 9:-0.80230154 10:0.60830802 
-40 1:1.2092561 2:0.17982899 3:1.2683109 4:0.11237473 5:-1.1159486 6:-0.47783351 7:-0.029412804 8:0.26199552 9:-0.22462208 10:0.087021603 
-40 1:-1.7477559 2:0.61972578 3:-1.7820136 4:0.062757644 5:1.2110044 6:-1.1211002 7:0.77255678 8:0.8151916 9:0.31129116 10:-0.0038310356 
40 1:-0.50849174 2:0.060332255 3:-0.48939575 4:-0.87434964 5:-0.58691465 6:1.2827633 7:1.0304814 8:-0.011641354 9:1.0705563 10:-0.92584825 
-40 1:0.36021212 2:-0.12848565 3:0.35053491 4:-0.044169073 5:-0.80377266 6:0.21302583 7:0.3225473 8:-0.067734542 9:0.54081665 10:-0.039469364 
40 1:-0.10806887 2:-0.38321197 3:-0.11214439 4:-0.084370473 5:1.6643059 6:0.72676764 7:-1.3531834 8:-0.22747515 9:-1.6470992 10:-0.27887398 
40 1:1.0937905 2:-0.78276705 3:1.0901824 4:0.14586909 5:1.4696044 6:0.93138964 7:-2.1141958 8:-0.73519168 9:-2.8489755 10:0.14997055 
40 1:0.13812348 2:0.47309242 3:0.16573457 4:-0.74242618 5:-2.1874309 6:0.48290686 7:2.288904 8:0.12975131 9:1.6277071 10:-0.54100373 
-40 1:0.080475512 2:-0.40366316 3:0.070321583 4:-0.14014382 5:-0.33282364 6:0.92297004 7:0.17982647 8:-0.50514731 9:0.31751006 10:-0.19111798 
-40 1:2.1873795 2:-0.31050672 3:2.1634838 4:0.80338145 5:-1.4784122 6:-0.69988489 7:-0.58834473 8:-0.19557116 9:-0.78449167 10:0.66446754 
-40 1:-1.3626325 2:1.9645685 3:-1.3929741 4:-1.6756605 5:0.35551977 6:-0.47064997 7:0.99506468 8:1.834738 9:0.99326988 10:-1.5852183 
40 1:0.21322744 2:-1.0538297 3:0.20223883 4:-0.022702582 5:0.17716333 6:1.7510633 7:-0.91501652 8:-1.0761809 9:0.18342068 10:-0.18240261 
30.504484258479771 1:-2.1421238 2:3.6351292 3:-2.1803188 4:-3.6195192 5:-0.012219108 6:-0.14178137 7:2.495432 8:2.9707688 9:1.7133044 10:-2.9645181 
-40 1:-0.013224754 2:0.38837723 3:0.0087600109 4:0.58153395 5:-0.078152199 6:-1.6735855 7:0.093878328 8:0.45132373 9:0.060819194 10:0.85225025 
-40 1:0.45814523 2:0.4275195 3:0.43365473 4:-0.67001375 5:-1.8737553 6:0.39116835 7:1.3560005 8:0.49256382 9:1.3934384 10:-0.8101901 
40 1:0.46813982 2:-0.50231845 3:0.46611873 4:0.46540571 5:-0.27659699 6:0.14695866 7:-0.14502953 8:-0.68133982 9:-0.2290937 10:0.54258677 
40 1:-0.90162343 2:0.2111635 3:-0.8927386 4:-0.090718311 5:0.98211487 6:-0.16770088 7:0.014538496 8:0.29032059 9:-0.16991943 10:-0.19795838 
-40 1:2.9690965 2:-0.12985682 3:2.9506655 4:0.86736844 5:-1.2618827 6:-1.1602759 7:-1.2229387 8:-0.063625695 9:-2.0983476 10:0.91430805 
40 1:-0.26954631 2:0.13706697 3:-0.272701 4:-0.75010828 5:-0.6917211 6:0.99377993 7:0.90286065 8:0.22453251 9:0.9583535 10:-0.98008801 
40 1:1.4658954 2:-3.5290108 3:1.4317119 4:2.8100342 5:-0.36774135 6:1.271685 7:-1.7716008 8:-3.7624344 9:-0.31330792 10:2.935887 
40 1:0.39159196 2:0.82439453 3:0.44652528 4:-0.48424885 5:-1.1351129 6:-0.73207694 7:-0.16007826 8:0.87708551 9:1.5572469 10:-0.24758948 
-40 1:0.15249084 2:0.23989345 3:0.11596468 4:-0.20194865 5:-0.67870917 6:-0.11831382 7:0.54522783 8:0.079226157 9:0.50293289 10:0.040967462 
40 1:-0.080201869 2:-0.39286553 3:-0.10461783 4:-0.67798354 5:-0.13115395 6:1.7167963 7:-0.42821969 8:-0.39006958 9:0.87639494 10:-0.86247767 
40 1:0.28246976 2:-0.45127437 3:0.2682925 4:0.43438728 5:-0.17320496 6:-0.15138612 7:-0.51359893 8:-0.32419893 9:0.32338842 10:0.58531879 
40 1:-0.21345541 2:-0.05725671 3:-0.20474494 4:-0.67777746 5:0.8672457 6:1.1810494 7:-0.97091631 8:-0.075171599 9:-0.28783898 10:-0.79961212 
-40 1:0.24178646 2:-0.75958704 3:0.22151451 4:0.20736868 5:0.022924177 6:0.89949931 7:-0.076737078 8:-0.75581248 9:-0.42129046 10:0.12004671 
40 1:-0.63552319 2:0.74660244 3:-0.65658021 4:-1.1390593 5:-0.038325544 6:0.66302623 7:1.0129841 8:0.4791549 9:0.30626451 10:-1.0291121 
-40 1:-0.79984431 2:-0.63314843 3:-0.80785967 4:1.2430251 5:1.04128 6:-0.8745303 7:-0.17956029 8:-0.37904761 9:-0.26993231 10:0.98220698 
-40 1:-0.33212214 2:0.72939954 3:-0.35933336 4:-1.0871056 5:-0.44078045 6:0.59177091 7:0.5747948 8:0.66728813 9:0.95103706 10:-1.1581962 
-40 1:0.31621098 2:-0.79236194 3:0.29883993 4:0.97312279 5:0.17319537 6:-0.17924269 7:-0.4333721 8:-0.92702693 9:-0.49838881 10:1.0289268 
-40 1:-0.42714479 2:-0.070069232 3:-0.42307821 4:0.15104929 5:0.52387287 6:-0.072545847 7:-0.2285233 8:0.00077826158 9:0.046416833 10:0.014010523 
-40 1:-0.14499083 2:1.7641708 3:-0.18123749 4:-0.77800962 5:-0.2933308 6:-1.5945873 7:-0.14272367 8:2.0409955 9:1.0394715 10:-0.95350328 
40 1:1.2436654 2:-0.1395384 3:1.2248929 4:0.24476295 5:-1.3025596 6:-0.15842277 7:0.21529963 8:-0.20967215 9:-0.10214804 10:0.32967421 
40 1:0.7586794 2:0.11753572 3:0.87725484 4:-0.10664204 5:-1.4233218 6:-0.10100746 7:0.69232757 8:0.28617121 9:0.4629035 10:-0.1629054 
-40 1:-0.21139053 2:0.13641237 3:-0.23475257 4:-0.57803232 5:-0.43096774 6:0.73056966 7:0.89592336 8:0.046723184 9:0.36185786 10:-0.61006564 
40 1:0.15451144 2:-0.59316896 3:0.1181593 4:0.19512023 5:0.4876438 6:0.64143371 7:-0.54373667 8:-0.61744178 9:-0.66299677 10:0.17259838 
40 1:-0.49021302 2:-0.26172177 3:-0.50750034 4:1.3148969 5:0.6563218 6:-1.5715789 7:-0.025506611 8:-0.091342771 9:-0.27533223 10:1.1839948 
40 1:-0.34216845 2:1.8910903 3:-0.35385886 4:-1.9256269 5:-1.3531802 6:0.00038776545 7:1.6153392 8:1.8679105 9:1.6710521 10:-1.9330855 
-40 1:-2.6118282 2:1.5678754 3:-2.5693626 4:-1.3581911 5:2.3318185 6:-0.32056552 7:-0.40088314 8:1.5048323 9:0.94730224 10:-1.3631379 
40 1:-0.099664825 2:-0.26043795 3:-0.12440422 4:-0.26469851 5:-0.2267283 6:0.83090807 7:0.44691472 8:-0.19872073 9:0.20493195 10:-0.39749903 
-35.965617964323613 1:1.3234925 2:-3.3642066 3:1.3005011 4:2.4977149 5:-0.16611161 6:1.4952089 7:-1.6174812 8:-3.6679204 9:-0.59613349 10:2.6776385 
-40 1:0.092754966 2:-0.31839654 3:0.09464759 4:0.05499258 5:-0.14456978 6:0.41971587 7:-0.023667703 8:-0.40572884 9:0.12245038 10:0.11620565 
40 1:-0.53954816 2:-0.015672708 3:-0.55339028 4:-0.88533601 5:0.18274329 6:1.4320137 7:0.21797592 8:0.14498572 9:0.49349033 10:-1.2026781 
40 1:0.13344996 2:-0.461512 3:0.10838776 4:0.13169784 5:0.050739087 6:0.56798096 7:0.14772017 8:-0.49548995 9:-0.48802003 10:0.072472825 
-40 1:2.3198017 2:-0.37745076 3:2.2864382 4:0.87137526 5:-1.22939 6:-0.85199496 7:-1.0998912 8:-0.17890759 9:-0.99753184 10:0.86941534 
-40 1:-1.4680996 2:-0.42688569 3:-1.4396975 4:1.0293619 5:1.6877588 6:-0.93256178 7:-0.30727112 8:-0.10946853 9:-0.1242993 10:0.79228983 
-40 1:0.53263706 2:-1.5369826 3:0.5138465 4:0.17559003 5:0.47388471 6:2.1981695 7:-1.2462971 8:-1.6850333 9:-0.67646386 10:0.131834 
-40 1:-1.136773 2:-0.21228881 3:-1.1308604 4:1.0514439 5:1.9544445 6:-1.3434183 7:-0.97233585 8:0.27826728 9:-0.59252751 10:0.71513497 
40 1:-0.45200179 2:0.14873048 3:-0.47541228 4:0.59913561 5:0.41903485 6:-1.1160754 7:0.35929725 8:0.15536667 9:-0.27531273 10:0.6053751 
40 1:0.53681287 2:-1.5189155 3:0.52664753 4:0.95665032 5:0.072795363 6:0.929136 7:-0.90775571 8:-1.6832244 9:-0.25678905 10:1.0627118 
40 1:-0.082649152 2:-0.0051516218 3:-0.094668963 4:0.33775215 5:0.060780229 6:-0.53020332 7:0.18700538 8:0.060717582 9:-0.13610407 10:0.32903944 
-40 1:0.25517788 2:-0.16319601 3:0.25137176 4:-0.62850811 5:0.44622101 6:1.2325098 7:-0.69553683 8:-0.53749866 9:-0.65631964 10:-0.33122487 
-40 1:-0.22737412 2:0.14081132 3:-0.26168886 4:-0.010295613 5:0.22556873 6:-0.26852235 7:0.19311582 8:0.16191351 9:-0.15790853 10:0.071306761 
-40 1:0.57238836 2:-1.1351549 3:0.60923395 4:-0.23657086 5:0.5935314 6:2.0479477 7:-1.2131847 8:-1.4467247 9:-1.0767675 10:0.10656824 
-40 1:-0.072350975 2:-0.16176848 3:-0.040707007 4:-0.27949945 5:-0.48021053 6:0.73245848 7:0.39416072 8:-0.38669634 9:0.64493553 10:-0.15936705 
40 1:1.1252798 2:-0.68203687 3:1.1711509 4:-0.063071606 5:1.1667991 6:1.1758422 7:-2.069364 8:-0.67175902 9:-2.4140846 10:-0.15009413 
40 1:0.81531991 2:1.1536175 3:0.81473994 4:-0.35356116 5:-0.85853638 6:-1.3188452 7:-0.026637619 8:0.81829913 9:0.10242315 10:0.1321259 
-40 1:-0.098480593 2:-0.43045864 3:-0.054755019 4:0.027564429 5:-0.76576075 6:0.57975398 7:0.77028627 8:-0.43856358 9:0.85663095 10:0.079564968 
40 1:-1.3126729 2:-1.0538221 3:-1.3308635 4:1.5337299 5:1.8146007 6:-0.70813957 7:-0.58973436 8:-0.6842552 9:-0.34220317 10:1.2138754 
40 1:0.94647987 2:-2.5158781 3:0.99274077 4:2.7674385 5:0.79062417 6:-0.45134661 7:-1.8863225 8:-2.3747026 9:-1.5161882 10:2.8794062 
-40 1:-0.12096541 2:-0.12500104 3:-0.15071702 4:0.67216155 5:0.36808341 6:-0.80373419 7:-0.13453066 8:-0.11599585 9:-0.31404054 10:0.66674561 
32.633127731227972 1:0.303499 2:-0.85302794 3:0.30063592 4:-0.068214363 5:-0.59207306 6:1.450695 7:-0.10866802 8:-0.39310656 9:0.67399305 10:-0.6308602 
-40 1:0.19040893 2:-0.16860883 3:0.15350808 4:0.52948039 5:-0.036804839 6:-0.56221137 7:-0.30373298 8:-0.18155425 9:0.045194642 10:0.59688986 
-40 1:-0.1579917 2:-0.1777749 3:-0.15985656 4:-0.23154783 5:-2.0831462 6:0.60893039 7:2.4313981 8:-0.3865327 9:1.8888104 10:-0.015794394 
40 1:-0.18600996 2:0.0026455845 3:-0.21953986 4:-1.0661605 5:-0.056428666 6:1.7453311 7:0.0022931544 8:-0.19517334 9:0.5062248 10:-1.12348 
-40 1:-1.3555879 2:2.8792313 3:-1.392413 4:-2.4281311 5:0.0075776879 6:-0.80729654 7:1.418107 8:2.4783272 9:1.2317651 10:-1.9671392 
40 1:0.71887851 2:-0.29944738 3:0.72327856 4:0.37481116 5:-0.7156779 6:-0.071809304 7:0.081685323 8:-0.36593443 9:-0.10292801 10:0.40274244 
-40 1:0.11869683 2:-0.47831409 3:0.10793592 4:0.12780098 5:0.16400053 6:0.61884429 7:-0.28820371 8:-0.54174562 9:-0.2475944 10:0.070136063 
-40 1:0.42938784 2:-1.226392 3:0.4251401 4:0.41121519 5:-0.42195781 6:1.1991422 7:-0.21174815 8:-1.1159123 9:0.20145061 10:0.36760606 
40 1:-0.67784399 2:1.3083316 3:-0.69315966 4:-1.7756256 5:0.81200034 6:0.70139431 7:-0.19279934 8:1.051379 9:-0.041223703 10:-1.6029827 
40 1:0.32888081 2:-0.98357115 3:0.2993861 4:0.64459276 5:0.91083079 6:0.60470309 7:-0.78601495 8:-0.79835713 9:-1.5904361 10:0.35496932 
-40 1:-1.9963167 2:1.066131 3:-1.983414 4:-0.61860439 5:1.2069716 6:-0.82025099 7:0.78543764 8:1.1562949 9:0.74799657 10:-0.53578656 
-40 1:0.17799699 2:-0.29732437 3:0.14895427 4:0.84561425 5:-0.051782208 6:-0.85400627 7:-0.55519561 8:-0.29845296 9:0.34875081 10:0.93096347 
-40 1:0.14546232 2:-0.5773636 3:0.18344762 4:-0.062643605 5:-0.40410166 6:0.90547119 7:0.11581473 8:-0.62338662 9:0.34732945 10:0.070752301 
-40 1:-0.21576896 2:-0.13546214 3:-0.21071029 4:-1.0549037 5:-0.09550763 6:1.7610896 7:0.31155191 8:-0.058647641 9:0.28623728 10:-1.1379469 
40 1:0.026394409 2:0.028765039 3:0.013259205 4:0.070420177 5:-0.083159575 6:-0.16498007 7:-0.008980906 8:0.082621923 9:0.13262069 10:0.040925762 
-40 1:-0.37321637 2:0.38387083 3:-0.37232733 4:-0.80505733 5:-1.3933063 6:0.56613139 7:1.9400694 8:0.19970529 9:1.465336 10:-0.55795568 
-40 1:-0.039187523 2:-0.64305711 3:-0.0082167683 4:-0.33029261 5:0.048634566 6:1.4308588 7:-0.20257672 8:-0.510292 9:0.15919343 10:-0.42730704 
-40 1:-1.285576 2:1.7425459 3:-1.3200464 4:-2.1815945 5:-0.13137311 6:0.67255939 7:1.4211463 8:1.7250362 9:1.3601182 10:-2.2979571 
40 1:0.42224171 2:0.90208247 3:0.39997355 4:-0.84078175 5:-1.3023433 6:-0.11570967 7:1.0166283 8:0.79814371 9:0.69372013 10:-0.74682724 
40 1:-0.41433167 2:0.016229389 3:-0.45009536 4:-0.33856291 5:0.58390467 6:0.48294186 7:0.11137667 8:0.12823958 9:-0.40513316 10:-0.46664434 
40 1:-1.1201181 2:0.40920186 3:-1.0804918 4:-0.35538109 5:1.0266575 6:-0.17193295 7:-0.092087595 8:0.52238861 9:0.25142676 10:-0.35957645 
-40 1:0.26337114 2:-0.39759837 3:0.26080709 4:-0.056454961 5:-0.56439118 6:0.69612026 7:0.089353615 8:-0.47029643 9:0.49559278 10:0.00047181949 
40 1:0.403006 2:-1.2665304 3:0.39347905 4:0.7494938 5:0.31804247 6:0.92266991 7:-0.4519131 8:-1.3343717 9:-0.9404642 10:0.65474364 
-37.453683281311939 1:-0.22955182 2:-1.0061622 3:-0.19095157 4:1.1819785 5:3.2184633 6:-0.26454799 7:-2.7866327 8:-0.88399889 9:-3.0164238 10:1.1202165 
40 1:-0.86934186 2:1.0539995 3:-0.88941332 4:0.70607717 5:0.35804227 6:-2.7531261 7:0.54385009 8:1.3653312 9:0.47137458 10:0.56170405 
-40 1:1.3566899 2:-3.1684129 3:1.3246221 4:2.7081483 5:-0.21338558 6:0.84042956 7:-1.4734263 8:-3.413945 9:-0.70773664 10:2.8996494 
40 1:0.0062431609 2:-0.4240504 3:-0.020022631 4:-0.085834917 5:0.10627154 6:0.80101367 7:-0.24713294 8:-0.38239533 9:0.059215373 10:-0.17808122 
-40 1:-0.060393351 2:-0.16134658 3:-0.0064739779 4:-0.32234036 5:0.096810295 6:0.81489503 7:-0.046261703 8:-0.25282029 9:-0.075946479 10:-0.3686038 
-40 1:-0.37953357 2:0.44732169 3:-0.37550223 4:0.51125477 5:0.13013954 6:-1.6563513 7:-0.089839852 8:0.53389098 9:0.57963011 10:0.75357031 
40 1:-1.4360073 2:1.5284728 3:-1.462441 4:-0.53318227 5:0.74637931 6:-1.5865341 7:0.60629821 8:1.6634275 9:0.76868748 10:-0.58097735 
-40 1:-0.005665224 2:-0.31143324 3:0.014865097 4:-0.4304074 5:0.35007854 6:1.1248887 7:-0.15063529 8:-0.45046828 9:-0.53829702 10:-0.31719503 
40 1:-2.7745628 2:1.6709043 3:-2.7477316 4:-0.67966148 5:1.2459082 6:-1.6222042 7:1.5681876 8:1.7323877 9:1.3853496 10:-0.59913861 
40 1:0.24576247 2:1.1084408 3:0.28659783 4:-0.35450789 5:-0.69941414 6:-1.2267174 7:0.37363333 8:0.9487674 9:0.45996258 10:-0.08227088 
-40 1:0.65126748 2:0.34397113 3:0.62720378 4:0.12408421 5:-0.58569941 6:-0.75769897 7:0.089884795 8:0.38586892 9:-0.20434972 10:0.16145976 
6.0185478455031882 1:-0.42975556 2:-0.2055035 3:-0.45290355 4:-0.32049581 5:0.74887898 6:0.90638643 7:-1.0870532 8:0.036157578 9:0.51853725 10:-0.74954085 
40 1:0.50501325 2:-1.0769194 3:0.48573133 4:0.59301611 5:0.40152928 6:0.78488291 7:-1.4635148 8:-1.0774119 9:-0.25785246 10:0.5480526 
-26.048509036111803 1:-1.4896279 2:3.7018544 3:-1.4505081 4:-2.5822395 5:-0.11714503 6:-2.1285917 7:1.0886692 8:4.1319991 9:2.0016615 10:-2.5313368 
40 1:0.49586176 2:-1.0628821 3:0.48725068 4:0.57950423 5:-0.31007584 6:0.87432218 7:-0.50424365 8:-1.2879854 9:0.15633608 10:0.63349656 
-40 1:0.87678165 2:0.45776103 3:0.90957839 4:0.44445289 5:-0.53177218 6:-1.4514976 7:-0.49113544 8:0.3457022 9:-0.21324838 10:0.71310864 
-40 1:0.93036469 2:-0.13130051 3:0.90430391 4:-0.08101763 5:-1.6976943 6:0.38419108 7:0.90024553 8:-0.20717412 9:0.59034292 10:-0.099769569 
-40 1:0.18592139 2:-0.39263382 3:0.19084792 4:-0.089838025 5:1.0223055 6:0.80368198 7:-1.2254549 8:-0.32387917 9:-1.1107883 10:-0.27440433 
40 1:-0.511317 2:-0.22914068 3:-0.53436144 4:0.21123992 5:1.4310308 6:0.041233791 7:-0.96213417 8:-0.086867626 9:-0.78134113 10:0.055917799 
40 1:0.42962518 2:-0.39639333 3:0.46283459 4:1.212491 5:-0.10539577 6:-1.2868127 7:-1.0734488 8:-0.50152787 9:0.42895235 10:1.4662318 
40 1:0.86325243 2:-0.60443265 3:0.88514173 4:0.78251969 5:-0.59032286 6:-0.25245151 7:-0.24986259 8:-0.60188911 9:-0.30883839 10:0.7990808 
40 1:-0.13633527 2:0.072516543 3:-0.09150683 4:0.33667624 5:0.059224931 6:-0.5689988 7:0.14335587 8:-0.10358824 9:-0.038694359 10:0.46477861 
40 1:-1.2820805 2:-0.041170523 3:-1.2271047 4:-0.029639638 5:1.6651519 6:-0.033984216 7:-0.26836076 8:0.12071395 9:-0.51160241 10:0.0074728397 
-40 1:0.29826507 2:-0.89106503 3:0.32876315 4:0.056737636 5:0.91602807 6:1.1950018 7:-1.214818 8:-0.81310815 9:-1.1599809 10:0.075070601 
-40 1:0.62931119 2:-0.88017577 3:0.60821041 4:0.63960582 5:-0.51404549 6:0.4107257 7:-0.011521597 8:-0.7068471 9:-0.20014343 10:0.42791399 
40 1:0.83824576 2:-0.21757506 3:0.80463573 4:0.41489148 5:-0.75369943 6:-0.24843897 7:0.045950487 8:-0.13699796 9:-0.18927602 10:0.28264552 
-40 1:1.8209981 2:0.40361369 3:1.7885796 4:0.32003176 5:-1.2114924 6:-1.1794515 7:-0.36127168 8:0.56185276 9:-0.81014376 10:0.30041603 
40 1:-1.2890139 2:-0.058925845 3:-1.2676067 4:0.40853386 5:2.1075049 6:-0.68345718 7:-0.7107006 8:0.21084736 9:-0.87554389 10:0.37968371 
40 1:1.610151 2:-0.078869765 3:1.6541507 4:0.33691908 5:-1.2742416 6:-0.39771794 7:-0.49284384 8:-0.0031879689 9:-0.21357639 10:0.28915695 
40 1:-0.96333101 2:0.36119908 3:-0.99677049 4:0.75163549 5:0.80843075 6:-1.7938323 7:0.24024332 8:0.62350347 9:0.10076501 10:0.68729615 
40 1:1.46128 2:-0.43988048 3:1.4883033 4:0.58497617 5:-1.5033312 6:-0.13614038 7:0.34448539 8:-0.34879196 9:-0.31498695 10:0.40270074 
40 1:-0.015194872 2:0.16275991 3:-0.02023117 4:-0.29321235 5:-0.64695697 6:0.19192752 7:0.78394299 8:0.11423767 9:0.49489707 10:-0.25201743 
-40 1:-0.34790204 2:0.1744933 3:-0.34979802 4:0.61653289 5:0.32280644 6:-1.3351817 7:0.075733935 8:0.35099401 9:-0.022534967 10:0.67310259 
-40 1:0.47436492 2:-0.13974968 3:0.49227335 4:0.21167433 5:-0.64939834 6:-0.089142179 7:0.18489596 8:-0.12450778 9:0.12904395 10:0.1792936 
40 1:-1.3968557 2:1.0282979 3:-1.3830167 4:-0.51297179 5:0.65277039 6:-0.90882115 7:0.87184389 8:1.0646648 9:0.56294424 10:-0.38914507 
40 1:-3.4220444 2:1.3156436 3:-3.4192453 4:-0.431999 5:1.6102253 6:-1.5286908 7:1.99459 8:1.4800756 9:1.5327947 10:-0.34310174 
-40 1:0.35446596 2:-0.11597242 3:0.37215203 4:-0.096028356 5:-1.1802818 6:0.31103741 7:0.9706576 8:-0.21596678 9:0.59640721 10:0.01501442 
-40 1:0.62632706 2:0.18138144 3:0.60076401 4:0.23810178 5:-1.0185855 6:-0.73841099 7:0.35413635 8:0.42481364 9:0.42065885 10:0.15326024 
-40 1:1.1854475 2:-2.0654754 3:1.181065 4:2.8248115 5:-0.25773084 6:-1.0511547 7:-1.0941142 8:-1.9802608 9:-0.70051144 10:2.7537786 
40 1:0.10674718 2:-0.46183996 3:0.070671985 4:-0.32012953 5:-0.014492854 6:1.3028966 7:-0.19821751 8:-0.64395037 9:0.057079497 10:-0.32739771 
-40 1:-0.32946833 2:0.29870409 3:-0.33675369 4:0.34094883 5:0.14170816 6:-1.0841304 7:0.36801091 8:0.39066082 9:0.0007040833 10:0.43666796 
40 1:0.62402838 2:1.0402265 3:0.60768693 4:-0.2061784 5:-0.49190914 6:-1.3536361 7:-0.085506472 8:0.79951133 9:-0.16185714 10:0.16623213 
-40 1:0.58170776 2:-1.7309002 3:0.5541988 4:1.7472575 5:0.53330487 6:0.069564958 7:-1.002921 8:-1.6646017 9:-1.1297047 10:1.6385916 
40 1:0.41278592 2:-1.0447698 3:0.37812661 4:0.34260687 5:0.39918331 6:1.1555552 7:-0.9153912 8:-1.3366686 9:-0.61857585 10:0.52400079 
40 1:-0.24584768 2:0.098476468 3:-0.27176896 4:-1.0287241 5:0.16689608 6:1.4132613 7:-0.43617957 8:0.069963613 9:0.62948717 10:-1.0677961 
40 1:0.034990275 2:-0.33512744 3:0.038893191 4:0.12378876 5:1.9695805 6:0.35236757 7:-2.410038 8:0.013010224 9:-1.4492824 10:-0.27567696 
40 1:0.22425678 2:-0.75758434 3:0.21048676 4:-0.16377831 5:-0.0038636153 6:1.345738 7:-0.17521603 8:-0.61331342 9:-0.24004537 10:-0.25386306 
-40 1:-0.3497317 2:0.081533958 3:-0.37166979 4:-0.57508489 5:0.080769788 6:0.82459469 7:0.28050015 8:0.24804466 9:0.26355814 10:-0.89320308 
-40 1:0.02419297 2:-0.46596269 3:-0.0049844134 4:0.66403392 5:0.25024951 6:-0.30199341 7:-0.36296853 8:-0.35646621 9:-0.13564932 10:0.59217154 
40 1:0.81273288 2:-0.19161547 3:0.86100794 4:-0.049419758 5:-1.4943411 6:0.35190412 7:0.64278784 8:-0.2835233 9:0.61518509 10:0.060251543 
-40 1:0.2406628 2:-0.67029129 3:0.27308394 4:0.076635466 5:-0.56683611 6:0.92936507 7:0.15106936 8:-0.6691604 9:0.44740082 10:0.032469864 
40 1:0.1263428 2:-0.19058545 3:0.10329628 4:0.20794407 5:-0.28702241 6:0.0064450186 7:0.0044236507 8:-0.10307483 9:0.33033158 10:0.081863119 
-40 1:-0.19436636 2:0.085357411 3:-0.20649553 4:-1.4166761 5:0.34673684 6:2.1587685 7:-0.51845143 8:0.027821288 9:0.24792036 10:-1.6505982 
40 1:-0.18558752 2:0.35103265 3:-0.1430486 4:0.25944382 5:-0.088382359 6:-0.94224819 7:0.34616151 8:0.33773671 9:0.14078534 10:0.31649382 
-40 1:-0.5918345 2:1.1722087 3:-0.62837282 4:0.3485375 5:0.13200583 6:-2.4317343 7:0.27941129 8:1.4112146 9:0.65463089 10:0.3172954 
-40 1:-3.0278684 2:1.0358249 3:-3.0247902 4:-0.46474091 5:1.6192233 6:-0.87708725 7:1.5570032 8:1.0712311 9:1.1888435 10:-0.50613763 
40 1:-0.13234509 2:0.15560017 3:-0.12781745 4:0.21380387 5:0.090510998 6:-0.61915527 7:0.19292958 8:0.0053479836 9:-0.11883461 10:0.46912008 
-40 1:0.097384912 2:1.0712076 3:0.062309854 4:-0.30020135 5:-0.40328282 6:-1.3768936 7:0.20723202 8:1.0038383 9:0.41827645 10:0.061243084 
-40 1:1.0173808 2:-1.6572417 3:0.99521629 4:0.76635347 5:1.0745019 6:1.5316903 7:-2.4512769 8:-1.933864 9:-1.563761 10:0.82297972 
40 1:-0.79001391 2:0.56701948 3:-0.81436339 4:-0.82716666 5:0.67331346 6:0.42154741 7:0.2634171 8:0.6255091 9:-0.008585269 10:-0.9747133 
-40 1:0.28074035 2:0.12039474 3:0.25353943 4:0.56549858 5:-0.14684192 6:-1.0802123 7:-0.019690142 8:0.12811348 9:-0.21797071 10:0.65288566 
-40 1:0.62426537 2:-0.30641628 3:0.61710382 4:0.38856993 5:-0.56640886 6:-0.05740404 7:0.038606069 8:-0.39861154 9:-0.15302254 10:0.40779744 
40 1:1.7722901 2:0.086389743 3:1.7483805 4:1.2764355 5:-0.67788569 6:-2.1851946 7:-0.91340871 8:0.17353147 9:-1.199057 10:1.441292 
40 1:0.54282826 2:-0.0054476098 3:0.5652996 4:-0.12156069 5:-1.5696255 6:0.25101954 7:0.92563272 8:-0.079735317 9:1.0280275 10:-0.13797633 
40 1:0.8832161 2:-0.8153544 3:0.94412919 4:0.63552615 5:-1.4800173 6:0.37140314 7:0.64266924 8:-0.75699394 9:0.43645054 10:0.46549524 
-40 1:-0.062007455 2:-0.018632588 3:-0.075494012 4:-0.93790627 5:0.069001091 6:1.5108296 7:-0.39585002 8:-0.15158834 9:0.40591038 10:-0.94871238 
-40 1:-0.30878395 2:0.019308586 3:-0.32259432 4:-0.66529326 5:-0.41246019 6:1.0725385 7:0.87010932 8:0.0053930203 9:0.53414787 10:-0.82846874 
40 1:0.7807324 2:0.15511498 3:0.76574108 4:0.10922054 5:-0.98559847 6:-0.43928885 7:0.53704909 8:0.20689314 9:-0.14490106 10:0.12012548 
40 1:0.70759129 2:-0.059416302 3:0.70798286 4:-0.087033927 5:-1.4701634 6:0.30673693 7:0.71411478 8:-0.29300653 9:0.74848684 10:0.02398771 
40 1:-2.086907 2:0.42159315 3:-2.0245976 4:-0.004927219 5:1.8735066 6:-0.64563793 7:0.28545749 8:0.48909299 9:0.088212999 10:-0.051163986 
40 1:0.32862292 2:-1.1201614 3:0.29316681 4:0.92230974 5:0.82490136 6:0.40750485 7:-1.1963608 8:-1.0158723 9:-0.9958556 10:0.70799804 
40 1:-0.36605961 2:1.0396259 3:-0.35489304 4:0.15210091 5:0.058302308 6:-1.9388867 7:0.61690651 8:0.99758116 9:-0.037669946 10:0.40530933 
-40 1:0.091609346 2:0.11807957 3:0.10159322 4:-0.15842982 5:-1.2618938 6:0.066772566 7:1.2565023 8:0.050263067 9:0.98690264 10:-0.10589797 
40 1:0.15997491 2:-0.29112181 3:0.15374854 4:0.096670566 5:-0.21509138 6:0.25437826 7:0.0021993569 8:-0.19476501 9:0.10955922 10:0.060283977 
-40 1:-0.38162271 2:0.090685194 3:-0.41737814 4:-0.69061513 5:0.64639906 6:0.93704972 7:-0.021136868 8:0.16405275 9:-0.45566642 10:-0.84901155 
40 1:0.12884304 2:-0.55106813 3:0.097901224 4:0.09545368 5:0.11273917 6:0.78175115 7:-0.17532784 8:-0.75676726 9:-0.26326979 10:0.17636531 
40 1:-1.3917289 2:0.79002301 3:-1.3447618 4:-0.62497921 5:0.89405882 6:-0.31151331 7:0.73409672 8:0.82310304 9:0.19031509 10:-0.60313257 
40 1:-0.32694932 2:0.14191748 3:-0.32963641 4:0.50193588 5:0.64793403 6:-1.0483252 7:-0.083407581 8:0.26052883 9:-0.53474048 10:0.51783995 
-40 1:-1.2456446 2:0.44163331 3:-1.2306647 4:0.21242645 5:1.0187544 6:-1.0006869 7:0.031144064 8:0.58316862 9:0.4114273 10:0.096808823 
40 1:-0.27774064 2:1.0205198 3:-0.27768466 4:-1.2427826 5:-1.2352053 6:0.3688324 7:1.5153068 8:0.68945819 9:1.4050482 10:-1.0191705 
-40 1:-1.9960142 2:0.36598367 3:-1.9126562 4:0.12595001 5:1.5171146 6:-0.88348971 7:0.67923874 8:0.57440448 9:0.18136558 10:0.1227387 
-8.0580134478017094 1:2.4203218 2:-1.6713124 3:2.3964184 4:0.93765774 5:2.5349666 6:1.2710094 7:-4.9307229 8:-1.6697239 9:-4.6299113 10:0.75123664 
40 1:-0.82554742 2:0.29369404 3:-0.81541744 4:0.4008919 5:0.83326987 6:-1.1614711 7:-0.18966528 8:0.49638743 9:0.17925199 10:0.3777763 
40 1:0.060736425 2:-0.37141464 3:0.046436062 4:-0.079051658 5:0.036479274 6:0.79870488 7:-0.20180187 8:-0.54105206 9:0.030242817 10:-0.08091948 
-40 1:-0.054786581 2:-0.26946327 3:-0.081601226 4:0.071117997 5:0.072298566 6:0.3731159 7:0.097202025 8:-0.35343675 9:-0.10680281 10:0.054482999 
-40 1:-1.6659275 2:0.7049947 3:-1.6830504 4:-0.62617788 5:1.3205936 6:-0.13404847 7:0.67083807 8:0.66607965 9:0.023894385 10:-0.5990583 
-40 1:0.1016429 2:-0.41116537 3:0.085309439 4:-0.099837193 5:-0.55172072 6:0.81453763 7:0.51622263 8:-0.5036566 9:0.36476187 10:-0.07210218 
23.443108050888782 1:-0.8029016 2:0.21806615 3:-0.75979781 4:0.072144322 5:1.677259 6:-0.47991216 7:-0.54078902 8:0.20657789 9:-1.1859067 10:0.14832879 
-40 1:0.2482907 2:-0.90719472 3:0.22137193 4:0.40190575 5:0.039745364 6:0.84483821 7:-0.51310497 8:-0.75589505 9:-0.013288791 10:0.1499443 
-40 1:0.039400236 2:0.272257 3:0.050045064 4:-0.25124903 5:-0.47569692 6:-0.016524077 7:0.48351175 8:0.18003627 9:0.34563092 10:-0.19245548 
40 1:-0.68526483 2:0.063961238 3:-0.71641176 4:0.68690583 5:0.69040497 6:-1.3390791 7:-0.13546829 8:0.36940651 9:0.16759068 10:0.70874556 
-40 1:-0.10895288 2:-0.4660151 3:-0.066487112 4:-0.040172037 5:-0.72112466 6:0.71366047 7:0.71216984 8:-0.34246431 9:0.85083268 10:-0.095088322 
40 1:-1.2665688 2:1.0555948 3:-1.2804595 4:0.20842503 5:0.78158732 6:-1.963227 7:0.31660372 8:1.4200237 9:0.65153467 10:-0.077039806 
-40 1:-0.18686315 2:0.44644559 3:-0.19932931 4:-0.82650999 5:-0.28874247 6:0.55428838 7:0.12373892 8:0.60914578 9:0.8164212 10:-1.010693 
40 1:1.4009312 2:0.22356665 3:1.3897452 4:-0.024838877 5:-1.2860417 6:-0.42227625 7:-0.043104191 8:0.37011659 9:-0.18606768 10:0.00073128814 
-40 1:-2.3262305 2:0.92973592 3:-2.2860325 4:-0.11213657 5:1.1710738 6:-1.2420682 7:1.5926708 8:0.95614741 9:0.6124134 10:-0.13561177 
40 1:0.40260536 2:-0.18859989 3:0.4053828 4:-0.081472275 5:-0.66248749 6:0.44152049 7:0.38977467 8:-0.3828472 9:0.10053172 10:0.065096502 
-40 1:-2.0253424 2:0.46499988 3:-2.002013 4:-0.39647256 5:2.3878623 6:-0.085678998 7:-0.23492702 8:0.41436813 9:-0.46567586 10:-0.39235445 
40 1:-0.27199394 2:0.50596488 3:-0.29404717 4:-1.0882408 5:-0.46760623 6:0.96544876 7:0.71026738 8:0.18006479 9:0.74141136 10:-0.93811895 
40 1:0.23398144 2:-1.0601371 3:0.21994834 4:0.036378079 5:-0.0035624345 6:1.6584106 7:-0.3170835 8:-1.1221829 9:-0.11409975 10:-0.060399835 
40 1:0.15194814 2:0.067832814 3:0.12673565 4:-0.30334002 5:-0.57002659 6:0.37193128 7:0.76083889 8:-0.092961089 9:0.059752301 10:-0.17820324 
-40 1:-0.60637526 2:0.17055448 3:-0.58832411 4:-0.036496085 5:0.72525564 6:-0.21944815 7:-0.031558254 8:0.23081363 9:-0.21021763 10:-0.07589382 
-40 1:0.051247337 2:-0.12748826 3:0.037188704 4:0.31737067 5:0.040727902 6:-0.26783671 7:-0.045476998 8:-0.19297855 9:-0.1198235 10:0.37459627 
-40 1:0.31045065 2:0.015136409 3:0.27546724 4:0.32360956 5:-0.13945256 6:-0.48334989 7:0.13992002 8:-0.070047926 9:-0.44666608 10:0.38774886 
40 1:-0.41873951 2:-0.1921468 3:-0.40151357 4:-0.38794222 5:-1.1341721 6:0.84296848 7:1.4522368 8:-0.096762185 9:1.5325523 10:-0.45887264 
40 1:-2.1557551 2:0.50386264 3:-2.1757806 4:-0.10728724 5:1.6933872 6:-0.64029176 7:0.83793607 8:0.56353713 9:0.089963066 10:-0.11472763 
-40 1:0.34903401 2:-0.7048675 3:0.3907113 4:1.7279236 5:0.1754611 6:-1.600215 7:-0.68509981 8:-0.83839174 9:-0.36737127 10:2.0404653 
40 1:0.29707021 2:-0.49166948 3:0.27526863 4:0.1389462 5:-0.23330595 6:0.59472557 7:-0.32913887 8:-0.49964683 9:0.23054713 10:0.064838578 
40 1:2.8826551 2:-0.067941942 3:2.8813638 4:0.74517872 5:-1.3312058 6:-0.99706996 7:-1.2651202 8:-0.19323376 9:-1.7667583 10:0.87733222 
-40 1:-0.44371323 2:0.45786123 3:-0.45187717 4:-0.6771417 5:0.055238075 6:0.32891487 7:0.3810899 8:0.31007668 9:0.3814756 10:-0.55915727 
-40 1:-0.27124082 2:-0.096476764 3:-0.28733065 4:-0.72041499 5:0.31980854 6:1.3438375 7:0.018307731 8:-0.20402155 9:-0.094528665 10:-0.80937617 
40 1:0.26311822 2:-0.21583243 3:0.22764158 4:-0.090772274 5:-0.24036328 6:0.51305473 7:0.21747192 8:-0.22944626 9:-0.23559255 10:-0.15434756 
-40 1:-1.2205608 2:0.58557773 3:-1.1739521 4:-0.56269073 5:1.5849864 6:0.0020273546 7:-0.31065701 8:0.44046989 9:-0.42436161 10:-0.49790105 
-40 1:-0.77766024 2:-0.011470207 3:-0.77048224 4:0.36906941 5:0.9925476 6:-0.51190801 7:-0.20904297 8:0.095326771 9:-0.20309897 10:0.23833044 
-40 1:0.99699482 2:-0.151046 3:0.9750029 4:0.1344618 5:-1.4635948 6:0.10167482 7:0.70530223 8:-0.12190767 9:0.19804728 10:0.00035598527 
40 1:0.93799329 2:0.59295502 3:1.0080613 4:0.061854761 5:-0.94191798 6:-1.0393286 7:0.22132 8:0.68408381 9:-0.29920014 10:0.044365266 
-40 1:-2.341486 2:3.6785439 3:-2.3623145 4:-3.8506934 5:0.88038567 6:0.12668226 7:0.93807144 8:3.8295943 9:1.9406167 10:-4.0252492 
40 1:-1.3137443 2:-0.1737939 3:-1.2923512 4:0.28153258 5:1.7276869 6:-0.17873523 7:-0.35978485 8:-0.021022495 9:-0.44485055 10:0.16316639 
40 1:0.97363219 2:-0.048370479 3:0.99945161 4:0.06488146 5:-1.6670667 6:-0.051110817 7:0.83330805 8:0.031268096 9:0.46318764 10:0.024631749 
-40 1:1.0426758 2:-0.65562802 3:1.0211248 4:0.79840733 5:-0.7333634 6:-0.21754555 7:-0.15275695 8:-0.55500893 9:-0.43889071 10:0.741817 
-19.331262728017283 1:-0.013635852 2:1.0753917 3:0.063990934 4:-0.61374831 5:-0.83873281 6:-0.85098586 7:0.090500936 8:1.2399596 9:1.4956268 10:-0.59352142 
40 1:0.12014675 2:-0.28710059 3:0.11738686 4:0.28672728 5:-0.13756791 6:0.045042177 7:-0.30174216 8:0.046561052 9:0.34444424 10:-0.10544545 
32.094227305432298 1:-1.2008818 2:1.3707013 3:-1.174472 4:-1.6579759 5:-2.6577314 6:0.46773801 7:4.554706 8:1.2323859 9:2.8565423 10:-1.6566587 
40 1:-1.6549376 2:0.40784256 3:-1.6878057 4:-0.19682916 5:1.8289371 6:-0.39901551 7:-0.21906164 8:0.48306709 9:-0.063082477 10:-0.16832798 
-40 1:1.3178264 2:-2.3520923 3:1.2940229 4:2.1518112 5:-0.28775137 6:0.40647931 7:-1.4717146 8:-2.9771688 9:-0.49603148 10:2.7628646 
-40 1:-1.4364251 2:1.2175991 3:-1.3909504 4:-0.35600809 5:0.52133824 6:-1.3323914 7:0.86284409 8:1.3538048 9:0.87547568 10:-0.47119894 
40 1:1.1935585 2:0.34573519 3:1.1670602 4:0.15666423 5:-0.96267467 6:-0.84613815 7:-0.29346725 8:0.15730475 9:-0.1385199 10:0.48605504 
40 1:0.74580659 2:-0.15879443 3:0.73619947 4:0.94655705 5:-0.23652479 6:-1.2435338 7:-0.26299629 8:-0.17926789 9:-0.7245416 10:1.0977555 
-31.7264966660323 1:0.51403686 2:-0.91187779 3:0.54613671 4:0.5318973 5:2.433854 6:0.63787455 7:-2.7865415 8:-0.72115375 9:-2.9389769 10:0.27226832 
40 1:0.97107562 2:0.14566974 3:1.0208496 4:0.051477171 5:-1.2260151 6:-0.30436371 7:0.33269171 8:0.16754759 9:0.096398549 10:0.041297976 
40 1:0.41440375 2:-0.34607175 3:0.40156029 4:-0.27184603 5:-1.4400539 6:0.96005063 7:1.0319139 8:-0.48092809 9:0.95310817 10:-0.18672863 
-40 1:-0.92079856 2:0.39352109 3:-0.89900186 4:-0.061313059 5:1.0049779 6:-0.60831765 7:-0.012622359 8:0.46474766 9:-0.16174363 10:0.016963523 
-40 1:0.44921372 2:-1.3208972 3:0.44836666 4:0.40388757 5:0.11588472 6:1.5207148 7:-0.66622696 8:-1.285603 9:-0.42543895 10:0.19298057 
-40 1:0.45109581 2:0.50449944 3:0.42192619 4:0.0029835476 5:-0.69589216 6:-1.0174901 7:0.36217337 8:0.5254481 9:0.13011502 10:0.3467976 
40 1:-0.49649621 2:0.0473457 3:-0.5191083 4:0.22751879 5:0.57025078 6:-0.42053432 7:-0.0058291716 8:0.16935657 9:-0.10987466 10:0.12226455 
40 1:0.12485888 2:-0.62796007 3:0.096393217 4:-0.21041524 5:-0.28973892 6:1.40052 7:0.29344354 8:-0.76868547 9:0.047745575 10:-0.27223591 
-40 1:0.040919404 2:-0.30278796 3:0.080996086 4:-0.33291897 5:1.0328752 6:0.93384372 7:-1.1200313 8:-0.22024526 9:-0.98906146 10:-0.39754228 
-40 1:-0.16230903 2:-0.23473512 3:-0.13954387 4:-0.2997983 5:-0.91352639 6:0.78667522 7:1.1403238 8:-0.2961681 9:0.91202234 10:-0.22274535 
-40 1:0.58269256 2:-1.1991938 3:0.56568051 4:0.61117158 5:0.10316451 6:0.96983408 7:-0.68485767 8:-1.1663774 9:-0.62789097 10:0.49271319 
-40 1:-0.68113436 2:-0.12436753 3:-0.6898202 4:0.75620961 5:0.59476037 6:-1.0203737 7:0.23312966 8:0.088668848 9:-0.05347835 10:0.67468875 
40 1:0.63428936 2:-0.13548949 3:0.6099071 4:0.030023158 5:-1.1600421 6:0.15749933 7:0.4239265 8:-0.21669937 9:0.60857481 10:0.11791999 
40 1:-0.2807083 2:0.50570647 3:-0.27540137 4:0.2257589 5:0.098372369 6:-1.1438127 7:0.098933542 8:0.50995248 9:0.25284882 10:0.29022571 
40 1:-0.14324123 2:-0.30684906 3:-0.13058662 4:-0.25928189 5:-0.87661382 6:0.95148574 7:1.039867 8:-0.40824188 9:0.91531634 10:-0.30935846 
-40 1:-0.014968688 2:-0.2080784 3:-0.018198269 4:0.14238775 5:0.39417291 6:0.16654358 7:-0.92383061 8:-0.43314567 9:0.20942097 10:0.28383166 
-40 1:-0.96280124 2:0.77410954 3:-0.96818149 4:-1.2532732 5:-1.803378 6:0.69459627 7:2.7393362 8:0.48399334 9:2.6117008 10:-0.98152899 
-40 1:0.60448448 2:0.56083604 3:0.58506967 4:-0.54741457 5:-0.93193765 6:0.035345163 7:0.4315394 8:0.32288512 9:0.20903795 10:-0.41395676 
40 1:1.4346994 2:-0.50777676 3:1.4093627 4:1.0757189 5:-0.64700227 6:-0.81540858 7:-0.62457047 8:-0.35228531 9:-0.89062246 10:0.91324701 
-40 1:-0.031672805 2:0.033339339 3:-0.027066852 4:-0.37274464 5:-1.5060303 6:0.47880895 7:1.8295487 8:-0.055886892 9:1.1239921 10:-0.25212091 
-40 1:-0.88663048 2:0.26126589 3:-0.84000589 4:0.71490431 5:0.60207003 6:-1.660928 7:0.056220642 8:0.716851 9:0.46297872 10:0.55681431 
40 1:-0.048955045 2:0.40668036 3:-0.024833924 4:0.32017814 5:0.013694386 6:-1.0916094 7:0.048461951 8:0.25216251 9:-0.0038866214 10:0.48731686 
40 1:0.61121898 2:0.34308778 3:0.62334509 4:-0.055873163 5:-1.0488291 6:-0.44720787 7:0.2659493 8:0.45572832 9:0.5627583 10:-0.15549355 
-40 1:-0.97753418 2:0.90281816 3:-0.96781832 4:-1.4908977 5:-1.3267894 6:0.8575201 7:2.3489487 8:0.64464069 9:2.0951776 10:-1.2628084 
40 1:0.010553227 2:0.19234289 3:0.01578579 4:0.31535916 5:-0.12750751 6:-0.94569387 7:0.65020805 8:0.15461606 9:-0.44308447 10:0.63180075 
-40 1:-0.055742504 2:-0.37863141 3:-0.071506235 4:-0.0020543173 5:0.57754938 6:0.58326435 7:-0.35592555 8:-0.34059979 9:-0.63810446 10:-0.053102279 
40 1:0.8360948 2:0.28580257 3:0.86018017 4:-0.22331126 5:-1.6974012 6:-0.075678671 7:1.1705022 8:0.16765869 9:0.44886397 10:-0.14142047 
40 1:0.54279425 2:-1.237487 3:0.50670865 4:0.8405747 5:0.10426724 6:0.68191332 7:-0.39534704 8:-1.1614564 9:-0.82955955 10:0.68917266 
-40 1:-2.0101501 2:2.4263842 3:-2.0240855 4:-3.0252071 5:-1.8413562 6:0.91518252 7:3.5294754 8:2.1921116 9:3.9424745 10:-2.9670866 
-40 1:-0.54608393 2:0.21878074 3:-0.50123282 4:0.55450951 5:0.41097769 6:-1.3120185 7:0.16523517 8:0.31892039 9:0.057081586 10:0.69149552 
40 1:-1.0537829 2:0.40267233 3:-1.0436216 4:-0.21056938 5:1.2728854 6:-0.32976408 7:-0.25697047 8:0.56392745 9:-0.1618279 10:-0.33057157 
-40 1:-1.7854166 2:-0.1767808 3:-1.7163216 4:0.42462994 5:1.6907578 6:-0.40943422 7:-0.010102739 8:0.10554559 9:0.14888384 10:0.20860429 
40 1:0.044543657 2:0.032720994 3:0.012707357 4:0.25077452 5:-0.050354943 6:-0.46624026 7:0.15686272 8:-0.012485041 9:-0.11863544 10:0.36642146 
40 1:0.15523515 2:-0.64124558 3:0.12412111 4:-0.052336168 5:-0.20646912 6:1.1611379 7:0.35282896 8:-0.61251627 9:-0.23278186 10:-0.2497131 
40 1:-0.018481709 2:-1.5916837 3:-0.022504529 4:2.1140284 5:1.5214221 6:-0.77773037 7:-1.0833079 8:-1.0116133 9:-1.8206629 10:1.6177538 
-40 1:0.0071183164 2:-0.22869175 3:0.025949585 4:-0.30184185 5:-0.74884773 6:0.82817612 7:0.62009019 8:-0.32616403 9:0.79446005 10:-0.25706935 
40 1:-0.024717258 2:0.3619018 3:-0.039527414 4:0.39004112 5:-0.087501464 6:-1.3069931 7:-0.022991409 8:0.36146054 9:0.25751265 10:0.66103421 
-40 1:-0.41250715 2:-0.14637249 3:-0.42522389 4:-0.015645456 5:0.55970322 6:0.24891543 7:-0.1341796 8:-0.043168533 9:-0.13249669 10:-0.12870187 
-40 1:0.0065621561 2:0.028283812 3:-0.030369429 4:-0.32164962 5:-0.75427754 6:0.43494941 7:0.83512011 8:0.025707566 9:0.64058439 10:-0.32477368 
40 1:0.22798057 2:-0.394918 3:0.19554643 4:-0.047186666 5:-0.27410694 6:0.77862787 7:0.039231046 8:-0.31071945 9:0.078972395 10:-0.29760515 
40 1:1.6822942 2:-0.24111369 3:1.6873219 4:0.53349868 5:-1.2368041 6:-0.43205228 7:-0.2880749 8:-0.21219721 9:-0.59996094 10:0.51920371 
-40 1:-0.83328142 2:0.45692976 3:-0.83944198 4:-1.0705741 5:0.0034604807 6:0.9678933 7:0.76473386 8:0.28175612 9:0.85293791 10:-1.0090651 
40 1:-0.76180595 2:-0.13615959 3:-0.72832757 4:-0.13918934 5:1.4760289 6:0.44582415 7:-0.6736351 8:0.039292131 9:-0.72815664 10:-0.37081855 
-40 1:0.2005771 2:-0.92238767 3:0.18595931 4:0.28290327 5:0.42927179 6:1.1141858 7:-0.63537027 8:-1.0832817 9:-0.56697987 10:0.24853775 
40 1:-2.5743069 2:1.0324978 3:-2.597033 4:-0.98666903 5:2.2258153 6:-0.13553057 7:-0.66644599 8:0.94461952 9:1.4166593 10:-0.85442178 
40 1:-0.8684644 2:-0.15358761 3:-0.83484065 4:0.79788186 5:1.0900817 6:-0.96303152 7:-0.016052088 8:0.0054215435 9:-0.43885102 10:0.66338333 
-40 1:0.04722102 2:-0.22001449 3:0.06361074 4:0.049414739 5:-0.084058659 6:0.26325707 7:-0.019637466 8:-0.29721445 9:0.075391478 10:0.1235588 
-40 1:4.2933296 2:-0.2502646 3:4.2915863 4:1.0435018 5:-2.5547694 6:-1.3030532 7:-1.9567302 8:-0.029959274 9:-1.4400738 10:1.0270178 
-40 1:0.36825944 2:-1.1764867 3:0.35004122 4:0.63292644 5:0.16856942 6:0.88482467 7:-0.47636877 8:-1.2739025 9:-0.54673328 10:0.67561234 
-40 1:1.3849103 2:0.039566293 3:1.4156714 4:0.48133855 5:-0.89443948 6:-0.81537782 7:-0.68548452 8:-0.11934358 9:-0.30227059 10:0.7128291 
-40 1:1.2319921 2:0.5472318 3:1.2330224 4:0.39696603 5:-0.55564107 6:-1.4770215 7:-0.52634402 8:0.3746788 9:-0.79728394 10:0.67001832 
40 1:-1.9831497 2:2.2309544 3:-2.0078542 4:-1.9192754 5:0.21896558 6:-0.54214761 7:1.7900433 8:2.2222727 9:1.6590168 10:-1.9129535 
40 1:-0.31572993 2:-0.01860622 3:-0.30634246 4:0.31667521 5:0.43645305 6:-0.44790464 7:-0.19441395 8:-0.058860814 9:-0.041952143 10:0.37210197 
-40 1:-0.48689271 2:-0.37741087 3:-0.52236407 4:0.045874709 5:1.4220457 6:0.5472093 7:-0.34762175 8:-0.17719019 9:-1.4292148 10:-0.22501416 
-40 1:-0.15753402 2:-0.24732515 3:-0.19364698 4:-0.60519774 5:0.27051938 6:1.366112 7:-0.34890263 8:-0.23697789 9:0.17421141 10:-0.76311662 
-40 1:0.078939163 2:-0.068335494 3:0.054790391 4:-0.23317147 5:-0.70030538 6:0.53710769 7:0.73610997 8:-0.33300811 9:0.48188404 10:-0.092597114 
40 1:-1.1683386 2:0.27818863 3:-1.1997258 4:0.529133 5:0.67243399 6:-1.3023077 7:0.44263062 8:0.56186477 9:0.55973729 10:0.38686852 
-40 1:-0.54071716 2:0.32037185 3:-0.54841797 4:-0.02670063 5:0.7946335 6:-0.54512401 7:-0.16598309 8:0.34511222 9:-0.31167694 10:0.094089035 
40 1:-0.11485774 2:-0.1516416 3:-0.13806069 4:-0.10079134 5:0.9020903 6:0.42326654 7:-0.44755797 8:-0.1683585 9:-1.0544985 10:-0.15017444 
-40 1:-0.72361173 2:0.9459645 3:-0.74801322 4:-1.5927181 5:-1.8748125 6:0.95693902 7:2.4918214 8:0.82031077 9:2.5535182 10:-1.5223049 
-40 1:-0.39551804 2:-0.069518786 3:-0.38722368 4:-0.94848825 5:0.16697454 6:1.5125657 7:0.021173314 8:-0.033715333 9:0.42123548 10:-1.0007745 
-40 1:-1.1830135 2:1.1231908 3:-1.1899691 4:-1.3829672 5:0.71472697 6:0.36563064 7:0.69800845 8:0.97608665 9:0.22034061 10:-1.2691901 
40 1:-1.6299381 2:-0.2513111 3:-1.5981098 4:0.52485232 5:1.7499197 6:-0.40789803 7:-0.03280481 8:0.057500462 9:-0.2122372 10:0.22839804 
