svm_type epsilon_svr
kernel_type rbf
gamma 0.031622776601683791
nr_class 2
total_sv 1565
rho -3.1644584671770875
SV
-105 1:0.074302941 2:-0.083730222 3:0.054460778 4:0.28792613 5:-0.045914609 6:-0.4775496 7:0.15010293 8:-0.11351897 9:-0.1879254 10:0.32206513 
105 1:0.089747879 2:0.69587645 3:0.10396042 4:-0.33430338 5:-0.55462087 6:-0.84552313 7:0.34145793 8:0.78333335 9:0.46854325 10:-0.39664998 
5.5206403583240258 1:2.6557867 2:-3.6096821 3:2.6628089 4:3.9413676 5:-0.16737095 6:-0.88936953 7:-2.2467401 8:-3.5377066 9:-2.2995487 10:3.917351 
-105 1:1.1732481 2:0.13678616 3:1.2028532 4:-0.043423964 5:-1.9571169 6:-0.25196446 7:1.0060062 8:0.19927596 9:0.30362089 10:-0.068327166 
-105 1:0.077540522 2:0.10130752 3:0.086445103 4:0.097001655 5:-0.096235969 6:-0.50345139 7:0.11621961 8:0.13459108 9:-0.095888914 10:0.10926034 
-105 1:0.16081693 2:-0.57862583 3:0.15429696 4:0.013593266 5:0.40571128 6:1.3418808 7:-0.41354515 8:-0.57266999 9:-0.59554159 10:-0.03985665 
105 1:-0.041143262 2:-0.076616817 3:-0.029672402 4:0.18459873 5:0.42497138 6:-0.23330642 7:-0.87471062 8:-0.2435398 9:0.19079875 10:0.33380927 
-105 1:0.30738297 2:-0.69391913 3:0.30630926 4:0.67428144 5:0.15031413 6:-0.019796656 7:-0.73876445 8:-1.0432961 9:-0.083027295 10:1.0683105 
105 1:1.8323805 2:-2.6336769 3:1.8342355 4:2.4926178 5:-0.48118165 6:0.30221969 7:-1.5730715 8:-3.0190882 9:-0.90659366 10:2.8456136 
-105 1:0.5359116 2:-0.020813032 3:0.54672913 4:0.16002384 5:-1.0656476 6:-0.30031967 7:0.56840324 8:-0.079570465 9:0.3379361 10:0.19840133 
105 1:-0.90057193 2:1.9030406 3:-0.92108658 4:-1.9293513 5:-0.46911086 6:0.091820054 7:0.9288251 8:2.0975283 9:1.5677902 10:-2.1147156 
105 1:-0.064062092 2:-0.11997051 3:-0.057606288 4:-0.26617951 5:-0.84374037 6:0.88782721 7:0.26986059 8:-0.051360796 9:1.3471855 10:-0.33395284 
-105 1:-0.77840236 2:1.3252786 3:-0.79850222 4:-1.3238014 5:-1.3258137 6:-0.046348797 7:1.6166317 8:1.5010802 9:2.1790136 10:-1.4322085 
105 1:-0.83305778 2:0.0089025391 3:-0.83575919 4:0.061003807 5:2.618142 6:-0.14010345 7:-1.9270798 8:0.18461543 9:-1.2011453 10:-0.13280396 
-105 1:0.55586335 2:0.3804833 3:0.56117236 4:0.032522768 5:-0.69987327 6:-0.97035013 7:-0.15202373 8:0.079770168 9:0.38191778 10:0.35467723 
-105 1:0.39253301 2:-0.88309245 3:0.36877207 4:0.80034691 5:0.61956578 6:0.1791303 7:-1.3196862 8:-1.0530177 9:-0.46916153 10:0.96275447 
105 1:-0.1099952 2:0.17893955 3:-0.12201697 4:0.056305496 5:0.10704764 6:-0.57553319 7:0.14243383 8:0.12146666 9:-0.12307634 10:0.14770417 
-105 1:-0.26438433 2:-0.73713888 3:-0.20909773 4:1.0179367 5:3.4154172 6:-0.7789327 7:-2.7021539 8:-0.6254385 9:-2.9375759 10:1.0163505 
-105 1:0.53872757 2:-1.0939707 3:0.53510751 4:1.1348121 5:0.2673342 6:-0.067218959 7:-0.45645182 8:-1.0196783 9:-0.99997614 10:1.0147838 
105 1:-0.51811246 2:0.058515785 3:-0.52028905 4:0.3953941 5:0.75351377 6:-1.1085787 7:-0.27344303 8:0.13642094 9:-0.11898161 10:0.37729962 
21.683989159040028 1:0.38962011 2:-0.80030622 3:0.398547 4:0.20725351 5:0.73752914 6:1.4071826 7:-1.4498403 8:-0.72254721 9:-0.57293042 10:0.077730905 
105 1:1.7439059 2:0.19221158 3:1.7335815 4:0.63287315 5:-1.0162916 6:-2.0359747 7:-0.71667933 8:0.10883945 9:-0.6436234 10:0.84421533 
105 1:0.10750132 2:0.30487323 3:0.11481807 4:-0.17614974 5:-0.75000261 6:-0.35143599 7:0.60897281 8:0.34488307 9:0.52079881 10:-0.15870584 
-105 1:0.37646046 2:-0.52912061 3:0.38609068 4:0.95552524 5:0.12477158 6:-1.0461038 7:-0.3962686 8:-0.52116547 9:-0.52066946 10:0.99634713 
105 1:1.2079088 2:-2.3573237 3:1.2285474 4:2.3625413 5:0.73757634 6:-0.11530302 7:-1.8608935 8:-2.4099213 9:-1.6673445 10:2.466247 
105 1:-0.50749386 2:0.3148608 3:-0.49581844 4:-0.6444078 5:-0.0665077 6:0.87706193 7:0.53969823 8:0.42022415 9:0.49185409 10:-0.85268743 
-105 1:-0.057514329 2:0.29755195 3:-0.076313601 4:-0.22649611 5:-0.88165033 6:-0.19730847 7:1.1794642 8:0.055550849 9:0.50484201 10:0.050491771 
-105 1:-0.056209715 2:-0.25727729 3:-0.061497598 4:-0.42544243 5:0.053210836 6:1.6601615 7:-0.050647497 8:-0.37277732 9:0.0640128 10:-0.39634497 
-105 1:-0.14369848 2:0.66648987 3:-0.14942263 4:-0.17131679 5:-0.097246478 6:-1.2259029 7:0.39900233 8:0.58285193 9:0.038437468 10:0.0032140016 
-105 1:0.12131365 2:-0.38106789 3:0.1070465 4:0.31778411 5:0.10344818 6:0.17714503 7:-0.17117463 8:-0.57269669 9:-0.22092905 10:0.47108255 
105 1:0.25557983 2:0.45394484 3:0.36403207 4:-0.0047138676 5:-0.54836598 6:-1.6088478 7:0.1885531 8:0.36223563 9:0.22183372 10:0.63283854 
-105 1:-0.33833477 2:0.84638733 3:-0.35878054 4:-0.91893154 5:-0.72138548 6:0.15306139 7:1.0043435 8:0.63282541 9:0.91184497 10:-0.67759924 
-105 1:0.20610031 2:-0.79934135 3:0.20317997 4:0.270117 5:0.14404678 6:1.3003243 7:-0.58557605 8:-0.93667696 9:-0.039635204 10:0.31591578 
-105 1:-0.2906408 2:-0.24581907 3:-0.24190643 4:0.30313116 5:1.7943428 6:-0.17518057 7:-1.0752483 8:-0.096869615 9:-1.6320128 10:0.19114159 
105 1:-0.072226251 2:0.11550923 3:-0.082721517 4:0.088873832 5:0.11767687 6:-0.52487459 7:0.023464319 8:-0.037327172 9:-0.092215613 10:0.29283839 
105 1:1.3287526 2:0.048708801 3:1.3463638 4:0.33363422 5:-1.7225754 6:-0.95135987 7:0.92272296 8:0.25314315 9:-0.30555815 10:0.1972922 
105 1:2.3254326 2:-0.091828418 3:2.3562817 4:0.54883618 5:-2.1927537 6:-1.0998732 7:0.23171514 8:0.11997886 9:-0.60381884 10:0.38024133 
87.273290253423625 1:3.0954801 2:-0.59467518 3:3.1119236 4:1.6080269 5:-0.79888618 6:-2.517018 7:-1.8246692 8:-0.7321772 9:-2.4122 10:1.9018694 
105 1:0.073639578 2:-0.18697499 3:0.06662904 4:-0.12187342 5:-0.18874024 6:0.81657228 7:-0.039884491 8:-0.21364778 9:0.249398 10:-0.19696061 
105 1:-0.36238537 2:0.18393606 3:-0.38188971 4:0.14247723 5:0.43991151 6:-0.83611088 7:0.0092676727 8:0.13273705 9:-0.11402715 10:0.2749991 
105 1:0.53764224 2:-0.8340919 3:0.53061431 4:0.81301163 5:-0.035683581 6:0.006895084 7:-0.41031421 8:-0.865901 9:-0.49965013 10:0.86764815 
-105 1:-0.24763846 2:0.048208495 3:-0.22342382 4:-0.4728473 5:0.92587546 6:1.0507388 7:-0.92090257 8:0.059684893 9:-0.2914363 10:-0.55034716 
105 1:0.18082838 2:-0.56278325 3:0.16541541 4:0.093418848 5:0.057864239 6:1.2138396 7:-0.051117251 8:-0.63879308 9:-0.369045 10:0.034561944 
105 1:0.20489004 2:-0.36915956 3:0.18697895 4:0.57902346 5:1.059217 6:-0.59383216 7:-0.79704631 8:-0.2620915 9:-1.4462326 10:0.5689201 
105 1:0.11049714 2:-0.33278888 3:0.10412618 4:0.20051885 5:-0.02745771 6:0.29345041 7:-0.094654034 8:-0.5607765 9:-0.051720155 10:0.43098638 
-105 1:-0.73296474 2:0.87207699 3:-0.75320036 4:-0.6601887 5:0.20424157 6:-0.450031 7:0.6098563 8:0.70726745 9:0.37910489 10:-0.51632093 
105 1:-0.23206914 2:0.072851168 3:-0.24091629 4:-0.53237157 5:0.011792795 6:1.1785504 7:0.27872791 8:0.086025278 9:0.13008832 10:-0.65556166 
105 1:1.2705687 2:-2.434486 3:1.2495039 4:2.168881 5:0.056014659 6:0.58407427 7:-1.3005969 8:-2.4952434 9:-1.0925205 10:2.2089524 
105 1:-0.1697071 2:-0.39445531 3:-0.16188484 4:0.7204513 5:0.81581529 6:-0.78065488 7:-0.5062721 8:-0.16271167 9:-0.64238816 10:0.51023471 
105 1:0.64319954 2:-1.0588131 3:0.63466079 4:0.78402746 5:0.075004001 6:0.60335917 7:-0.92941199 8:-1.1943445 9:-0.36394601 10:0.92649108 
105 1:0.19626005 2:-0.77659024 3:0.19927835 4:0.052261997 5:0.19519494 6:1.772197 7:-0.86606385 8:-0.78822777 9:0.16558406 10:-0.046666434 
105 1:-0.06917865 2:0.0540043 3:-0.06718722 4:-0.065624817 5:0.027660736 6:0.080868185 7:0.6502305 8:-0.040373979 9:-0.58308519 10:-0.021814442 
-105 1:-0.033850505 2:0.29238849 3:-0.043896826 4:-0.4693848 5:-1.2262972 6:0.37909486 7:1.0384072 8:0.38810679 9:1.2127004 10:-0.53130926 
40.256909696986845 1:0.038653803 2:-0.29439815 3:0.030364421 4:-0.27123388 5:0.030122436 6:1.3796089 7:0.081978561 8:-0.56804891 9:-0.20015555 10:-0.076205744 
105 1:0.57910833 2:-0.091884886 3:0.56840318 4:0.38893737 5:-0.54850721 6:-0.76829896 7:-0.41019753 8:-0.14819865 9:0.34476605 10:0.5211281 
105 1:1.1572555 2:-0.69902013 3:1.1445719 4:0.88424654 5:-0.85798398 6:-0.44133823 7:-0.15913439 8:-0.59718305 9:-0.41397219 10:0.78313524 
-105 1:1.9275053 2:-0.66525055 3:1.9105101 4:1.1313185 5:-0.97410022 6:-1.1990394 7:-0.46450165 8:-0.38578983 9:-1.304925 10:0.95812008 
-105 1:-0.39482125 2:0.37562755 3:-0.39408744 4:-0.25124484 5:0.18280752 6:-0.33114571 7:0.072378438 8:0.3457961 9:0.32278567 10:-0.17285854 
105 1:1.0114634 2:0.095451151 3:1.0035963 4:0.31094888 5:-0.64870585 6:-1.0316868 7:-0.12896376 8:0.11039719 9:-0.55599569 10:0.38664401 
-105 1:0.11137868 2:-0.25077958 3:0.10323476 4:0.92604198 5:0.25764373 6:-1.666177 7:-0.20857427 8:0.0052136806 9:-0.44622281 10:0.76970347 
-105 1:-0.27922653 2:-0.044489737 3:-0.26223893 4:0.34215703 5:0.77874062 6:-0.73845683 7:-0.13765738 8:0.13893494 9:-0.75708106 10:0.20827885 
105 1:-0.26100781 2:0.37064249 3:-0.25818923 4:-0.070094674 5:-0.039383872 6:-0.68308003 7:0.38184046 8:0.26297915 9:0.15953078 10:0.034302308 
105 1:0.71088433 2:0.31815235 3:0.75370894 4:-0.020775665 5:-1.585565 6:-0.71207315 7:0.99794465 8:0.13038455 9:0.48266848 10:0.19609233 
105 1:-0.064110923 2:0.081146321 3:-0.064919623 4:-0.098986118 5:-0.17322801 6:0.010038763 7:0.12910335 8:0.0045511653 9:0.29731232 10:0.0076958802 
105 1:-0.26080161 2:1.4019575 3:-0.2771927 4:-0.36452932 5:-0.11250607 6:-2.5006634 7:0.58679234 8:1.3539154 9:0.099959012 10:-0.18841404 
-105 1:-0.56143155 2:0.47776531 3:-0.55072554 4:-0.51894551 5:-0.42129312 6:0.092161 7:1.0400918 8:0.44814516 9:0.71930362 10:-0.47774098 
105 1:0.010831429 2:-0.18176705 3:0.029624026 4:0.16968974 5:2.0930616 6:0.0018882853 7:-2.3327076 8:0.13437999 9:-1.4177863 10:-0.12278401 
105 1:-0.63568603 2:0.24197868 3:-0.62066892 4:-0.030571606 5:0.80272851 6:-0.46033722 7:0.16596388 8:0.18736595 9:-0.45230446 10:0.0026518762 
-105 1:-0.19767413 2:-0.010001616 3:-0.20167168 4:0.18859221 5:0.48740922 6:-0.39064876 7:-0.10115458 8:0.18550048 9:-0.40326566 10:-0.025299367 
105 1:0.83916808 2:-0.53508909 3:0.85916255 4:0.6172734 5:-0.85143795 6:-0.20193674 7:0.021518957 8:-0.62751887 9:-0.055548789 10:0.71022027 
-105 1:1.3667677 2:0.47338858 3:1.3749799 4:-0.053424567 5:-1.2902108 6:-0.97529385 7:0.19146364 8:0.29421401 9:-0.39923239 10:0.1396315 
50.912836185712784 1:-0.70429769 2:0.78939553 3:-0.72196232 4:-1.6521018 5:-0.13855425 6:2.146276 7:0.43774489 8:0.74112058 9:1.111612 10:-1.7361557 
105 1:0.024066077 2:-0.28979037 3:0.022598746 4:-0.25033994 5:-0.19793357 6:1.3032143 7:0.27167593 8:-0.40368283 9:0.036066267 10:-0.19707152 
-105 1:-0.83460765 2:0.086103009 3:-0.81101084 4:0.36630718 5:1.058549 6:-1.0920127 7:-0.17349073 8:0.20410685 9:-0.20925675 10:0.29667748 
105 1:2.9871606 2:-0.55456121 3:2.982689 4:0.87644017 5:-1.8127523 6:-0.76854997 7:-0.58067381 8:-0.27819914 9:-1.6411877 10:0.61647389 
-105 1:0.68451232 2:-1.1538795 3:0.68497671 4:1.0512958 5:-0.060161997 6:0.23870986 7:-0.75695017 8:-1.2581087 9:-0.38085845 10:1.1304002 
-105 1:-0.73561433 2:0.33915048 3:-0.74512969 4:-0.75678604 5:-0.5806158 6:1.0155771 7:1.0137659 8:0.51891984 9:1.3687363 10:-0.97765446 
105 1:-0.059650543 2:-0.095265909 3:-0.0695889 4:-0.15532826 5:-0.046074153 6:0.63996786 7:0.16222719 8:-0.11381907 9:0.036542399 10:-0.19703371 
-105 1:-0.64595932 2:0.58377621 3:-0.66027453 4:-1.0346847 5:-0.14923087 6:1.1547057 7:0.8170486 8:0.62749604 9:0.63651691 10:-1.1745735 
105 1:0.090706439 2:0.52141362 3:0.10787088 4:-0.15150186 5:-0.44550664 6:-0.91026184 7:0.31426887 8:0.41121216 9:0.29646677 10:0.021421318 
-105 1:-2.279787 2:2.808333 3:-2.2683402 4:-1.7980157 5:0.13346627 6:-2.4866866 7:2.3570337 8:2.8564973 9:1.5423344 10:-1.6445734 
-105 1:0.13269954 2:-0.26779054 3:0.12579802 4:0.023771226 5:-0.020349971 6:0.57612648 7:-0.015076532 8:-0.18552585 9:-0.1852442 10:-0.075472209 
105 1:0.20446254 2:-0.073224064 3:0.21013085 4:0.37575301 5:-0.12461802 6:-0.79158192 7:-0.1774258 8:-0.13796845 9:0.022605602 10:0.52667247 
105 1:0.31274221 2:-0.92050766 3:0.28895455 4:0.6498923 5:-0.094916378 6:0.65682722 7:0.062127194 8:-0.84605988 9:-0.44461613 10:0.52765682 
-105 1:-0.10360941 2:-0.20064802 3:-0.093978467 4:0.15790882 5:0.6229164 6:0.10840155 7:-0.3342597 8:-0.21114904 9:-0.59442656 10:0.1552122 
105 1:3.3256089 2:-0.026571191 3:3.3644816 4:0.39442188 5:-2.5848632 6:-0.85229573 7:-0.34902779 8:0.014865294 9:-1.1550146 10:0.3565514 
-105 1:-1.465305 2:2.2344228 3:-1.4699859 4:-2.6656807 5:-0.065167152 6:1.1492251 7:0.61514929 8:2.1037338 9:2.1836986 10:-2.6383266 
-105 1:-1.6277732 2:1.8087468 3:-1.6494606 4:-1.8338613 5:0.93161149 6:0.07103043 7:1.0510272 8:1.6515195 9:0.27289659 10:-1.6555285 
105 1:-1.6649247 2:2.7278317 3:-1.6799553 4:-2.8307647 5:0.49749392 6:0.2650177 7:0.50401857 8:2.897174 9:1.6653404 10:-2.972011 
-105 1:-0.024335482 2:0.11507876 3:-0.044654165 4:-0.38977307 5:0.72713668 6:0.74558984 7:-0.41030021 8:0.038238983 9:-0.82165997 10:-0.41662812 
105 1:1.1350388 2:-1.1631968 3:1.1281418 4:1.0445011 5:-0.10570628 6:0.26976141 7:-1.1964381 8:-1.012252 9:-0.67334276 10:0.87623757 
105 1:-0.42431806 2:-0.35461849 3:-0.38290047 4:0.66800639 5:1.2956218 6:-0.72451364 7:-0.5643561 8:-0.28206487 9:-1.0057532 10:0.59093752 
105 1:-0.080823069 2:-0.30789224 3:-0.10395501 4:-0.49953909 5:0.11752469 6:1.9988318 7:-0.43422267 8:-0.59278197 9:0.39896935 10:-0.35147199 
-105 1:-1.4413344 2:-0.38452666 3:-1.400668 4:1.0716988 5:2.0870597 6:-1.7804434 7:-0.52483106 8:-0.09375414 9:-0.59638647 10:0.95982284 
105 1:0.21535681 2:-0.32610076 3:0.21016621 4:0.54582762 5:0.32180729 6:-0.54579441 7:-0.60268174 8:-0.38975093 9:-0.35511361 10:0.63928534 
105 1:-0.018218536 2:0.011029795 3:-0.0021031877 4:-0.065058414 5:1.6210703 6:0.18659352 7:-1.1396714 8:-0.14058036 9:-1.7262969 10:0.027225326 
-105 1:0.49600956 2:0.28344844 3:0.50916348 4:-0.20533831 5:-1.5940405 6:-0.13134894 7:0.88704365 8:0.25698218 9:1.03121 10:-0.21945067 
-105 1:-0.18944474 2:0.26048401 3:-0.20357755 4:-0.30193673 5:-0.19845846 6:0.11988363 7:0.30779899 8:0.28003033 9:0.40339163 10:-0.33910397 
105 1:0.62332554 2:-0.77509532 3:0.63059194 4:0.70572859 5:-0.69450069 6:0.13467986 7:-0.15461521 8:-0.86220185 9:0.24948174 10:0.8008863 
105 1:-0.27669064 2:0.37477424 3:-0.29515594 4:-0.93356476 5:0.035948347 6:1.3349639 7:-0.14689011 8:0.31311795 9:0.60858794 10:-0.90868193 
105 1:0.83642581 2:-0.74283784 3:0.82818899 4:0.85376294 5:-0.40952499 6:-0.33135913 7:-0.53941445 8:-0.66721511 9:-0.24684612 10:0.83544063 
-105 1:-1.1935903 2:0.66108908 3:-1.1812717 4:-0.090748259 5:0.98399598 6:-1.3452083 7:0.19592147 8:0.8378389 9:0.21828063 10:-0.22515259 
105 1:-0.54594792 2:0.69817393 3:-0.51967021 4:-0.95250345 5:0.98746252 6:0.64376659 7:-0.63893534 8:0.84810979 9:-0.14227354 10:-1.1414157 
-105 1:3.5944567 2:-0.13114474 3:3.6387401 4:0.69705275 5:-2.4071161 6:-1.4197298 7:-0.11281742 8:0.08554079 9:-2.2099361 10:0.58738579 
105 1:1.3619377 2:-2.3785903 3:1.3542223 4:2.4842853 5:-0.26662346 6:-0.29977872 7:-1.2831781 8:-2.677608 9:-0.71284679 10:2.7874551 
-105 1:0.26973564 2:-0.3261676 3:0.2608549 4:0.15808185 5:0.53590196 6:0.4593419 7:-0.57236543 8:-0.2729626 9:-0.86500816 10:0.031737453 
-105 1:0.61413244 2:-0.77577049 3:0.59750402 4:0.90247364 5:-0.1104067 6:-0.31787702 7:-0.26032392 8:-0.73594375 9:-0.64933832 10:0.87216405 
105 1:0.11580368 2:-0.34167982 3:0.13140292 4:0.11875506 5:-1.3022501 6:0.59903158 7:1.092977 8:-0.27201778 9:0.99545156 10:-0.036589769 
-105 1:-0.47410808 2:1.8508566 3:-0.47615782 4:-1.421116 5:-0.92723256 6:-0.97166559 7:1.4039187 8:1.6015091 9:1.107289 10:-1.1565717 
-105 1:0.029779109 2:-0.33747577 3:0.0168023 4:-0.017986905 5:0.068952652 6:0.87864048 7:-0.51022201 8:-0.55527292 9:0.3507734 10:0.13611632 
105 1:0.12950655 2:-0.11542356 3:0.13395931 4:0.2964987 5:-0.084557714 6:-0.39515085 7:0.23240861 8:-0.039082011 9:-0.325634 10:0.19753419 
105 1:-0.0036083298 2:-0.204229 3:-0.020341952 4:-0.042280883 5:0.074152092 6:0.62319844 7:0.31220415 8:-0.091235056 9:-0.42688244 10:-0.20955172 
-105 1:1.6663617 2:-0.087754769 3:1.6918822 4:0.21815495 5:-1.6899774 6:-0.26948691 7:0.12811383 8:0.065864978 9:-0.18512331 10:0.034856871 
105 1:0.55567466 2:-1.1545893 3:0.5409209 4:0.71443472 5:-0.081065113 6:1.0596933 7:-0.74753775 8:-1.1101822 9:-0.10289648 10:0.606309 
105 1:-0.38393675 2:0.0044068757 3:-0.37670399 4:0.023901539 5:0.39553709 6:-0.11166806 7:0.43963824 8:0.11749411 9:-0.45556444 10:-0.044557833 
105 1:-0.473193 2:0.60861312 3:-0.45308034 4:-0.64228575 5:-0.66417031 6:0.10175848 7:1.42179 8:0.41397285 9:0.59670154 10:-0.46027224 
105 1:-1.962987 2:2.9782336 3:-1.9665898 4:-3.1936313 5:-0.056681668 6:0.58447562 7:1.6645849 8:3.0817983 9:2.0168629 10:-3.3213127 
-105 1:0.50738513 2:0.045658952 3:0.49622241 4:-0.12706243 5:-1.7891424 6:0.20564486 7:1.112707 8:0.022824378 9:1.1530179 10:-0.12035275 
105 1:0.64805572 2:-1.0906039 3:0.67928561 4:1.0702605 5:1.7441047 6:0.013450903 7:-1.9839378 8:-0.96455346 9:-2.3263633 10:0.95576067 
-105 1:0.40009572 2:-0.57436095 3:0.40056264 4:1.2820175 5:0.36498126 6:-1.7370581 7:-0.58167699 8:-0.38188214 9:-0.7974124 10:1.178811 
-105 1:-0.10187398 2:-0.020711279 3:-0.10380841 4:-0.011520172 5:0.17295127 6:0.13970008 7:-0.16968869 8:-0.13553202 9:0.051063385 10:0.040499551 
-105 1:1.1182218 2:0.042335216 3:1.1271922 4:0.91733531 5:-0.46914013 6:-2.3359357 7:-0.40539963 8:0.035962779 9:-0.80826954 10:1.0396976 
24.374885124894199 1:1.6498587 2:-2.3735636 3:1.6762632 4:2.413909 5:2.4446422 6:-0.16374547 7:-4.3759271 8:-2.2566438 9:-2.9884155 10:2.318703 
105 1:-0.38941318 2:0.16307651 3:-0.39679559 4:-0.39052873 5:0.093130483 6:0.59957924 7:0.30676013 8:0.33346772 9:0.24330014 10:-0.62672311 
105 1:-0.5876414 2:1.2656811 3:-0.58655035 4:-1.2949883 5:-0.58848615 6:0.10751831 7:0.91052002 8:1.2827236 9:1.2064202 10:-1.3250051 
-105 1:-0.24890733 2:0.14824628 3:-0.25615959 4:-0.39456439 5:-0.22069589 6:0.66561529 7:0.07516029 8:-0.018554212 9:0.78148094 10:-0.3179789 
-105 1:0.490127 2:-1.0574006 3:0.4736864 4:0.93962647 5:0.38664113 6:0.22193507 7:-0.99123068 8:-1.0446148 9:-0.57086111 10:0.95323363 
-105 1:-0.080529163 2:-0.29105259 3:-0.089550095 4:0.14146095 5:0.48222111 6:0.38585605 7:-0.38443972 8:-0.31287755 9:-0.31718115 10:0.11913157 
105 1:-1.3742752 2:2.1478737 3:-1.3726354 4:-2.5524637 5:0.43234402 6:1.099851 7:0.42170189 8:2.35456 9:1.3171933 10:-2.8725766 
-105 1:1.2598564 2:-0.020649082 3:1.2950622 4:-0.064084308 5:-3.4282482 6:0.22823183 7:2.1420396 8:-0.11456424 9:1.6201572 10:-0.0022282796 
105 1:-1.3950845 2:0.21654272 3:-1.3520222 4:-0.074410966 5:2.0967136 6:-0.29545784 7:-0.64975102 8:0.086411851 9:-0.57408529 10:0.028378565 
-105 1:1.2615786 2:-2.5037987 3:1.24189 4:2.8997832 5:0.46438388 6:-0.99076458 7:-1.5193016 8:-2.3518514 9:-1.5861374 10:2.77378 
-105 1:0.48527082 2:-0.6820801 3:0.49519322 4:0.98660362 5:0.10938209 6:-0.70845698 7:-0.611186 8:-0.73795291 9:-0.47518239 10:1.0346296 
105 1:-2.2541241 2:3.1041564 3:-2.2752977 4:-2.8309532 5:-0.0053290303 6:-0.62354879 7:2.4796492 8:2.6397722 9:1.6492417 10:-2.317043 
-105 1:0.37621649 2:-0.37471667 3:0.38882167 4:-0.080138535 5:1.4463006 6:1.0328432 7:-2.3047905 8:-0.38141545 9:-0.95341322 10:-0.06555309 
-105 1:-0.60744961 2:0.52168423 3:-0.6222838 4:-0.97049048 5:0.088273921 6:1.1644656 7:0.48294598 8:0.47474241 9:0.48003118 10:-1.0354349 
-105 1:-0.15572617 2:0.14542121 3:-0.16531939 4:-0.24412113 5:0.03741351 6:0.22731638 7:0.23797898 8:0.085093179 9:-0.013709358 10:-0.18124127 
105 1:-1.2211201 2:1.165473 3:-1.2212258 4:-1.6390853 5:0.30824887 6:1.2262989 7:0.91358126 8:1.2139657 9:0.76178937 10:-1.7905798 
-105 1:0.055305693 2:0.10402837 3:0.05867845 4:-0.16981656 5:-0.34669575 6:0.19886621 7:0.41237916 8:-0.0146338 9:0.097909959 10:-0.094455914 
105 1:-0.1754732 2:0.69251889 3:-0.19646976 4:-0.50230541 5:-1.1882368 6:-0.44522756 7:1.2605443 8:0.49343653 9:1.1892707 10:-0.28549788 
-105 1:-0.08729989 2:0.21045557 3:-0.08397982 4:-0.37246816 5:-0.77023715 6:0.44892963 7:0.54213468 8:0.06016048 9:0.9854285 10:-0.29015873 
-105 1:-0.50533185 2:0.49669129 3:-0.49961324 4:-0.42787026 5:-0.10417881 6:-0.10217527 7:0.72846642 8:0.31919503 9:0.36952959 10:-0.29547119 
-105 1:-0.0073487769 2:0.33606516 3:-0.00032550305 4:0.091517409 5:-0.10503072 6:-1.0743808 7:0.024368488 8:0.39132145 9:0.17019882 10:0.12611276 
-105 1:0.093429176 2:0.07430462 3:0.090779913 4:0.23743755 5:-0.0098595179 6:-0.76971778 7:-0.086741559 8:0.18295596 9:-0.063339105 10:0.17884667 
-105 1:0.38366311 2:0.27964895 3:0.3676007 4:0.073362758 5:-0.53973209 6:-0.89522399 7:0.073312946 8:0.34051886 9:0.20251833 10:0.094566938 
105 1:-1.2417376 2:1.7887548 3:-1.2329984 4:-1.7783441 5:-0.49233294 6:0.0032440137 7:1.5158425 8:1.6445586 9:1.6133002 10:-1.6265728 
105 1:0.48929522 2:-0.047842117 3:0.53759317 4:-0.022966389 5:-1.5339746 6:0.12665422 7:1.0225226 8:-0.055178206 9:0.76666482 10:0.017802794 
105 1:-0.57269675 2:0.94054966 3:-0.5768928 4:-1.0890086 5:-0.022473702 6:0.36929603 7:0.78593713 8:0.69224069 9:0.29775806 10:-0.85006838 
105 1:-0.28133768 2:0.17709873 3:-0.29303642 4:-0.7541668 5:0.18432366 6:1.3446459 7:-0.39631594 8:0.18262279 9:0.59817248 10:-0.76920173 
-105 1:0.84160778 2:-1.3189426 3:0.82757015 4:1.414006 5:0.14755524 6:-0.27409102 7:-0.69636154 8:-1.2878736 9:-1.0883879 10:1.4093253 
-105 1:-0.051303407 2:0.51193508 3:-0.035798894 4:-0.15362283 5:-0.28123601 6:-0.88294861 7:0.48574283 8:0.46193972 9:0.090825398 10:-0.041064085 
-105 1:0.031742664 2:0.029501843 3:0.016635804 4:0.19803371 5:0.076231642 6:-0.54203999 7:0.050148294 8:0.06504351 9:-0.23146607 10:0.17961676 
-105 1:-0.26922946 2:0.12739873 3:-0.26469071 4:-0.023972938 5:0.1829461 6:-0.20821068 7:-0.10821723 8:0.24359327 9:0.27175455 10:-0.16514633 
-105 1:0.23273803 2:-0.65522997 3:0.2191504 4:0.39262886 5:0.049692557 6:0.62520116 7:-0.47178117 8:-0.51692715 9:-0.025181754 10:0.22454898 
105 1:-0.040106757 2:0.51361986 3:-0.019508731 4:-0.32092247 5:-0.79513963 6:-0.40934506 7:0.36076587 8:0.55447567 9:1.1113169 10:-0.38443825 
105 1:0.98005132 2:-0.37552523 3:0.96624723 4:0.64927101 5:-0.95280664 6:-0.70685427 7:-0.25518229 8:-0.53063778 9:0.17874352 10:0.86671295 
-105 1:1.8991045 2:-0.89198148 3:1.9017411 4:1.1862794 5:-0.95512107 6:-0.79368196 7:-0.62818917 8:-0.93926089 9:-1.1390166 10:1.3239188 
105 1:1.2077069 2:-1.6138636 3:1.2159084 4:2.3348348 5:-0.26528443 6:-1.7745293 7:-1.0417619 8:-1.5540356 9:-0.6916397 10:2.3494371 
-105 1:1.1818482 2:-1.0202999 3:1.20613 4:0.62603197 5:2.1454665 6:0.97614956 7:-2.675738 8:-0.80776243 9:-3.3155784 10:0.33293709 
105 1:-0.19016836 2:0.0089249083 3:-0.20282021 4:-0.54899599 5:-0.17628258 6:1.3697591 7:0.53692237 8:-0.2013283 9:0.13163085 10:-0.45706334 
105 1:-1.4108691 2:1.8594752 3:-1.4234066 4:-2.4215315 5:-0.60066116 6:1.3960683 7:1.403762 8:2.1130701 9:2.2500848 10:-2.7308214 
-105 1:2.5901079 2:-0.57670126 3:2.6421839 4:0.72815709 5:-2.4487857 6:-0.4507592 7:-0.081360889 8:-0.28444662 9:-0.33343309 10:0.52264054 
-105 1:-0.567142 2:0.015838627 3:-0.5783699 4:0.086275676 5:0.79226997 6:-0.2777327 7:-0.91126677 8:0.15986711 9:0.55589744 10:-0.016512062 
-77.331041415532994 1:-1.545531 2:3.2256653 3:-1.5654527 4:-2.2586563 5:-0.32364379 6:-2.2710137 7:1.4365484 8:3.0389688 9:1.9750417 10:-1.9731432 
-105 1:-0.32185074 2:-0.10204296 3:-0.31816638 4:-0.041606606 5:0.24291356 6:0.36591745 7:0.3035172 8:-0.091756421 9:-0.15528712 10:-0.08628493 
-105 1:-0.29143923 2:0.039083498 3:-0.27190827 4:-0.22485206 5:0.61318817 6:0.48309264 7:-0.20899068 8:0.14267096 9:-0.368683 10:-0.3780948 
105 1:0.13623121 2:-0.3896983 3:0.1219988 4:-0.28457126 5:0.22424066 6:1.7148926 7:-0.4284616 8:-0.52216115 9:-0.20374713 10:-0.31090191 
-105 1:-0.57184396 2:-0.34820726 3:-0.54874379 4:0.539472 5:2.0139681 6:-0.52507258 7:-1.3387731 8:-0.36552144 9:-1.2189195 10:0.62879149 
-105 1:-0.83595372 2:0.56609691 3:-0.83311808 4:-0.65091671 5:1.4009368 6:0.21732157 7:-0.84288836 8:0.69710083 9:-0.12211462 10:-0.79026127 
-105 1:0.24994272 2:-0.24512208 3:0.26025743 4:0.14168508 5:-0.24155785 6:0.23860516 7:-0.069462338 8:-0.36031288 9:0.034767544 10:0.25108609 
105 1:0.7636615 2:-1.4871361 3:0.7500578 4:0.5663025 5:0.084921417 6:2.2189846 7:-0.5757929 8:-1.3791964 9:-0.95601404 10:0.34116983 
105 1:-0.10373047 2:0.49295727 3:-0.099307838 4:0.078291955 5:-0.24020522 6:-1.356971 7:0.24692464 8:0.3541532 9:0.36558345 10:0.2624685 
-105 1:-0.19716868 2:0.73361002 3:-0.19026886 4:-0.12336769 5:-0.21499686 6:-1.4665816 7:0.4787832 8:0.67125765 9:0.25466718 10:0.0081521344 
105 1:-1.010827 2:-0.087203722 3:-1.0234541 4:0.24223589 5:2.3598859 6:-0.32529862 7:-0.73238026 8:-0.18704925 9:-1.6143757 10:0.30925598 
16.461222503851666 1:-0.45921005 2:0.51745209 3:-0.4811763 4:-0.65743184 5:0.047215374 6:0.38749232 7:0.45067596 8:0.38700047 9:0.32096084 10:-0.57887944 
105 1:-0.2004328 2:0.26626999 3:-0.20107789 4:-0.53286146 5:-0.11584517 6:0.71734102 7:-0.069770729 8:0.039321134 9:0.6458376 10:-0.39905729 
105 1:-2.1326309 2:0.48044634 3:-2.0901054 4:-0.24735274 5:2.5359513 6:-0.55254084 7:-0.19888347 8:0.4743533 9:-0.46389977 10:-0.21799998 
-105 1:0.54495176 2:-0.13770219 3:0.54306694 4:-0.022556253 5:-0.56937634 6:0.43721265 7:0.17557034 8:-0.37620561 9:-0.15668444 10:0.14769661 
-105 1:-0.77729933 2:-0.23577585 3:-0.76737248 4:0.78175589 5:1.2325458 6:-1.3258369 7:-0.42817121 8:-0.12765813 9:-0.3550096 10:0.73266747 
105 1:0.27180459 2:-0.94376726 3:0.26742857 4:0.47044972 5:0.26321739 6:1.0921892 7:-0.72465415 8:-1.1842936 9:-0.23100007 10:0.69009089 
105 1:1.0410608 2:0.2255455 3:1.0419289 4:-0.032049392 5:-1.766403 6:-0.44701887 7:0.67460638 8:0.25228989 9:0.5668255 10:-0.053488821 
105 1:-1.1820264 2:1.4336977 3:-1.1975537 4:-1.6256995 5:0.34972695 6:0.53695533 7:0.24191238 8:1.6625546 9:1.3103971 10:-1.9133411 
-105 1:-1.6507639 2:1.4776701 3:-1.6495476 4:-0.59687046 5:0.63424988 6:-2.1782249 7:1.0797782 8:1.8406822 9:0.7967455 10:-0.79029151 
-105 1:-0.89478796 2:0.067299787 3:-0.91497555 4:0.21826256 5:1.494228 6:-0.65127276 7:-0.3581905 8:0.13791001 9:-0.65092881 10:0.14272067 
105 1:-0.1219971 2:0.40489192 3:-0.13522399 4:0.094937999 5:-0.077490947 6:-1.191003 7:0.23443232 8:0.40096416 9:0.13689058 10:0.14257194 
105 1:0.56718622 2:-0.55113081 3:0.54958241 4:0.65539682 5:0.10000467 6:-0.2665674 7:-0.44783754 8:-0.77285258 9:-0.74878287 10:0.8890568 
105 1:0.43176578 2:-0.12520135 3:0.40777578 4:0.026485637 5:-0.67711868 6:0.22780229 7:0.31592618 8:-0.024888163 9:0.12158279 10:-0.075469688 
-105 1:0.05766137 2:-0.81309977 3:0.043427788 4:-0.16814655 5:-0.11450444 6:2.4508531 7:-0.67908599 8:-1.0084435 9:0.79995955 10:-0.16659324 
105 1:0.22404797 2:-1.0092127 3:0.21373631 4:0.84316647 5:1.1708866 6:0.44355504 7:-1.9105548 8:-0.91909169 9:-0.56021063 10:0.67750861 
62.535898769922888 1:-0.39847472 2:-0.24282951 3:-0.39543415 4:-0.50364802 5:0.053330164 6:1.8889534 7:-0.44443091 8:-0.46368051 9:1.0823857 10:-0.4466199 
-105 1:0.020966697 2:-0.36962031 3:0.0095250652 4:0.55216269 5:0.075581381 6:-0.40035228 7:-0.33258872 8:-0.24696047 9:0.1737438 10:0.40408754 
105 1:-0.48673225 2:0.5636052 3:-0.47839448 4:-0.68966195 5:-0.48780642 6:0.29762364 7:1.13906 8:0.31749741 9:0.6032708 10:-0.44135407 
-105 1:0.059898378 2:-0.79780797 3:0.082659143 4:0.6632632 5:1.6528462 6:0.32426706 7:-1.6492083 8:-0.66203579 9:-1.4163241 10:0.50020594 
-105 1:0.22517716 2:-0.50506827 3:0.20599347 4:0.18118138 5:0.17827117 6:0.83901294 7:-0.27727308 8:-0.54204296 9:-0.43316129 10:0.12167751 
105 1:0.38984713 2:-0.77460756 3:0.38054693 4:0.92355467 5:0.17432165 6:-0.42511513 7:-0.28949069 8:-0.76635968 9:-0.72462445 10:0.97709749 
-105 1:-0.041485631 2:-0.026794337 3:-0.064739128 4:0.14955011 5:-0.072941012 6:-0.34021701 7:-0.11119112 8:0.16130405 9:0.34044035 10:0.01622607 
-105 1:-0.20579296 2:0.24828516 3:-0.21054242 4:-0.23103897 5:-0.18842398 6:-0.082965542 7:0.19756144 8:0.30059501 9:0.51846206 10:-0.23755211 
-105 1:-0.18946077 2:-0.1090988 3:-0.21189723 4:-0.41466725 5:0.29404321 6:1.2849697 7:-0.31069564 8:-0.077374373 9:0.15665306 10:-0.5205646 
-105 1:2.6826179 2:-4.066964 3:2.6793075 4:3.6789441 5:-0.072737664 6:0.89223535 7:-2.6629272 8:-4.2302754 9:-2.086974 10:3.7649961 
-105 1:0.25181672 2:0.77605803 3:0.24168567 4:-0.52932705 5:-1.0283854 6:-0.61722183 7:0.72131575 8:0.58537101 9:0.65636381 10:-0.28012114 
-105 1:0.55636751 2:-0.27872116 3:0.55908304 4:0.64073792 5:-0.3160627 6:-0.93314345 7:-0.35378201 8:-0.26108946 9:-0.098708556 10:0.71014339 
105 1:-0.78591919 2:0.60408199 3:-0.77131094 4:-0.34752478 5:0.81684317 6:-0.55984634 7:-0.055205347 8:0.60101069 9:0.022214566 10:-0.36275357 
-105 1:-0.18247077 2:-0.23496265 3:-0.20474008 4:0.14871362 5:0.53738751 6:0.21598598 7:-0.41426862 8:-0.37224578 9:-0.18662195 10:0.26422797 
105 1:-0.56741417 2:0.51245994 3:-0.5899569 4:-0.68793246 5:-0.12190823 6:0.41006587 7:0.64135751 8:0.60321823 9:0.62917031 10:-0.77307107 
-13.042531519487889 1:-0.98141748 2:1.4469392 3:-1.0014493 4:-1.4747237 5:0.19860409 6:0.062312157 7:0.46335933 8:1.5822847 9:0.99279604 10:-1.5793492 
105 1:1.0591747 2:-0.44702456 3:1.049791 4:0.7104653 5:-0.76889887 6:-0.71944241 7:-0.1182731 8:-0.34676501 9:-0.43792395 10:0.70755332 
-105 1:-0.39953997 2:0.20065949 3:-0.40970719 4:-0.87460689 5:0.81804551 6:1.6857391 7:-0.69471673 8:0.053053383 9:-0.017728445 10:-0.84788164 
105 1:0.25098531 2:-1.1304901 3:0.26894546 4:0.65509996 5:0.59849424 6:1.1176769 7:-0.94350728 8:-1.2721449 9:-0.59127869 10:0.75370684 
-105 1:1.0667304 2:-0.64621845 3:1.0833269 4:0.79214419 5:-1.2440098 6:-0.37461761 7:0.14966718 8:-0.38921049 9:0.10275231 10:0.56073399 
105 1:0.33845896 2:-0.79616465 3:0.33850649 4:0.41618638 5:0.41888453 6:0.87324307 7:-1.1096541 8:-0.968746 9:-0.24568854 10:0.57478586 
105 1:0.28803783 2:-0.33207088 3:0.30762502 4:0.36527495 5:1.081225 6:-0.055484527 7:-1.0478744 8:-0.32909964 9:-1.4183225 10:0.33613591 
105 1:0.83843838 2:-1.4294077 3:0.81713169 4:1.1684567 5:-0.48837058 6:0.57755604 7:-0.32941247 8:-1.4539767 9:-0.31023774 10:1.1880684 
-105 1:-1.0145842 2:0.73097373 3:-1.0245768 4:-1.3386787 5:-0.16679697 6:1.4989721 7:1.1723572 8:0.74081666 9:0.97978786 10:-1.4258852 
105 1:0.16260543 2:-0.81334883 3:0.15362213 4:0.8734965 5:0.74681291 6:-0.10946131 7:-0.68942908 8:-0.58330329 9:-0.92719089 10:0.60236782 
105 1:-1.0680195 2:1.0581265 3:-1.0613564 4:-1.5001616 5:-0.54124238 6:1.1163695 7:1.4391772 8:1.0164891 9:1.4619014 10:-1.529533 
-105 1:-1.3966305 2:-0.13592002 3:-1.3607773 4:0.35355215 5:2.6274832 6:-0.56201483 7:-0.92489865 8:-0.094592139 9:-1.2352248 10:0.36641128 
-105 1:0.40739198 2:-1.2006006 3:0.40498733 4:0.92061586 5:1.2451518 6:0.7299748 7:-1.6448404 8:-0.87459127 9:-1.3054848 10:0.49525016 
-105 1:-1.4491333 2:1.2886946 3:-1.4621282 4:-1.0921199 5:0.64339394 6:-0.51612544 7:1.1128461 8:1.2749196 9:0.39034159 10:-0.99471358 
105 1:0.0046706272 2:-0.26281121 3:0.0092775302 4:0.14196193 5:0.16073076 6:0.30457544 7:-0.07047286 8:-0.32174839 9:-0.22887065 10:0.17101347 
-105 1:-0.27590916 2:0.29786239 3:-0.29679807 4:-0.33299808 5:-0.11606967 6:0.13248385 7:0.68356171 8:0.26725434 9:0.04013263 10:-0.34523189 
105 1:1.6592232 2:-2.5551772 3:1.640747 4:2.3462883 5:-0.2275004 6:0.4124149 7:-1.4529246 8:-2.7010554 9:-1.1459492 10:2.506778 
105 1:-0.22647036 2:0.098526643 3:-0.24318389 4:-0.34261802 5:-0.08996409 6:0.61190831 7:0.50987267 8:0.030302789 9:0.074915865 10:-0.31909432 
-105 1:-0.49508546 2:0.70281527 3:-0.47851014 4:-0.89704674 5:-0.37685016 6:0.51183006 7:0.94844209 8:0.66976858 9:0.60565889 10:-0.91074767 
-93.001675215454654 1:-0.041971176 2:0.24285435 3:-0.065634969 4:-0.4840702 5:-0.94427131 6:0.65300165 7:0.95767315 8:0.34055828 9:0.81744066 10:-0.66704363 
28.285070055851865 1:0.99120651 2:-1.5038612 3:0.99426658 4:1.2385561 5:0.27897696 6:0.57349422 7:-1.4084091 8:-1.6735032 9:-0.89212197 10:1.413758 
-105 1:-2.847617 2:2.5427621 3:-2.8167865 4:-2.677389 5:0.82163063 6:0.43667976 7:1.2817586 8:2.6176256 9:2.4237348 10:-2.8211358 
-105 1:-0.041610933 2:0.18795488 3:-0.037642883 4:-0.079963342 5:-0.041878803 6:-0.21142953 7:0.19912073 8:0.11149587 9:-0.054139981 10:-0.035885222 
105 1:-0.0016665183 2:-0.14944493 3:0.004866839 4:-0.024118662 5:-0.015275334 6:0.46733801 7:0.28456066 8:-0.22857281 9:-0.2638315 10:-0.011524775 
105 1:-0.21908565 2:0.097785732 3:-0.23879015 4:-0.78417591 5:-0.052139475 6:1.7649418 7:0.033833919 8:-0.041963507 9:0.47863453 10:-0.81464314 
-0.0048891931231830246 1:2.5484391 2:0.1053929 3:2.5848552 4:0.78066743 5:-1.9493955 6:-2.1749282 7:-0.9207027 8:0.092922557 9:-0.2857126 10:0.91850033 
105 1:0.46145755 2:-0.32014019 3:0.47334973 4:0.44353055 5:-0.28526049 6:-0.25809477 7:-0.11069236 8:-0.45377457 9:-0.23446603 10:0.54496927 
-105 1:-0.89274756 2:0.77743401 3:-0.90410096 4:-1.6323958 5:-0.28052552 6:2.194599 7:0.62741091 8:0.65584686 9:1.5130642 10:-1.7061601 
-105 1:-0.33374006 2:-0.46703381 3:-0.34489353 4:0.23962692 5:1.1902834 6:0.51024882 7:-0.69328814 8:-0.41896137 9:-0.80461853 10:0.19632802 
105 1:1.1321299 2:0.30300349 3:1.1418976 4:-0.23302746 5:-1.1259124 6:-0.1332483 7:0.28353547 8:0.29879058 9:-0.35767053 10:-0.24942229 
105 1:-0.32813851 2:0.29032124 3:-0.34448024 4:-0.25074494 5:0.27397086 6:-0.037717774 7:-0.12659399 8:0.30986005 9:0.25469622 10:-0.31480528 
-105 1:-0.38154477 2:1.6607287 3:-0.37829676 4:-1.4731259 5:-1.4251801 6:-0.4436074 7:1.6162619 8:1.7055876 9:1.6082661 10:-1.4753308 
-105 1:0.085860202 2:-0.51929562 3:0.062697211 4:0.19916057 5:0.3749153 6:0.76131092 7:-0.38121712 8:-0.64843452 9:-0.42055766 10:0.29557214 
-105 1:0.23969044 2:0.94440534 3:0.24870653 4:-0.30727363 5:-0.39234105 6:-1.5200362 7:0.32112514 8:0.92705846 9:-0.071181423 10:-0.22432074 
105 1:-0.27865198 2:2.1954863 3:-0.27749549 4:-1.7468772 5:-1.5961828 6:-1.0631202 7:1.4271477 8:2.1090912 9:1.9189562 10:-1.5921848 
105 1:-2.5411648 2:0.83587545 3:-2.5355513 4:-0.60975581 5:2.5706526 6:-0.48569404 7:0.24712868 8:0.7946686 9:-0.19504508 10:-0.58642654 
-105 1:-0.15130062 2:1.9941591 3:-0.14533609 4:-1.1135672 5:-0.54422652 6:-2.1466498 7:0.6409501 8:1.772859 9:0.59601267 10:-0.74709104 
105 1:2.278852 2:-0.94444379 3:2.2777357 4:1.4946922 5:-0.83971495 6:-1.358479 7:-1.0717574 8:-0.8678148 9:-1.5887903 10:1.4845833 
105 1:-0.081856626 2:0.51165137 3:-0.068139051 4:-0.26914616 5:-0.47582135 6:-0.63953229 7:0.48962289 8:0.32311417 9:0.49254499 10:0.0029316785 
-105 1:-0.33150581 2:0.26636929 3:-0.33845173 4:0.58301018 5:0.74949854 6:-2.0400829 7:-0.10103322 8:0.61459035 9:-0.62411013 10:0.31926333 
-105 1:-0.095429774 2:-0.27143372 3:-0.11109301 4:-0.17775757 5:-0.04343535 6:1.1130593 7:0.16344675 8:-0.30741593 9:0.10141847 10:-0.21972417 
105 1:-1.1426697 2:-0.011904635 3:-1.1555384 4:0.34848507 5:1.6403995 6:-0.88674398 7:-0.031473589 8:0.14897948 9:-0.79562539 10:0.29257371 
105 1:1.360004 2:-1.6917281 3:1.3642637 4:1.1682864 5:0.48120758 6:1.3154306 7:-1.4661554 8:-1.6464902 9:-1.8724307 10:0.98924242 
105 1:-0.40905573 2:0.34316384 3:-0.42279045 4:-0.48043656 5:0.24858955 6:0.33186987 7:0.29082316 8:0.25571946 9:0.023237066 10:-0.40151123 
-105 1:1.5246618 2:-0.34810987 3:1.5540376 4:0.63749036 5:-1.3108598 6:-0.77729576 7:-0.23545728 8:-0.25126364 9:-0.2387242 10:0.63800984 
105 1:1.8330332 2:-3.2005974 3:1.8287123 4:2.7899155 5:0.62395258 6:0.91648543 7:-2.1752293 8:-2.7157338 9:-2.2687332 10:2.2764982 
-105 1:-0.12643906 2:-0.21879599 3:-0.11643638 4:-0.30920941 5:-0.21330683 6:1.3108064 7:0.38977161 8:-0.11315528 9:0.20930033 10:-0.50555232 
-105 1:-0.38742088 2:0.14075533 3:-0.38713509 4:-0.83388748 5:0.34571513 6:1.7281841 7:0.27762704 8:-0.0028484048 9:-0.18961245 10:-0.81059357 
105 1:0.3628593 2:-0.83019393 3:0.35419108 4:0.51257284 5:0.15686922 6:0.78852884 7:-0.27718273 8:-0.86509734 9:-0.65698546 10:0.47857672 
-105 1:-0.84570848 2:0.89055723 3:-0.84124695 4:-1.5230124 5:0.63087435 6:1.5511113 7:-0.11711522 8:0.92438551 9:0.53641524 10:-1.6262816 
105 1:-0.35700936 2:1.1177421 3:-0.37737809 4:-0.89182123 5:-0.56013675 6:-0.61506206 7:0.59790508 8:1.2671462 9:1.0692688 10:-0.93009941 
-105 1:0.04118785 2:0.17735461 3:0.039614569 4:0.60606051 5:0.012625824 6:-1.9914626 7:-0.30393505 8:0.43471937 9:0.2112008 10:0.52783201 
105 1:-0.077978347 2:-0.053788504 3:-0.077876903 4:-0.022971526 5:0.03752453 6:0.23499839 7:0.12809016 8:-0.10199552 9:-0.05400761 10:-0.030659724 
105 1:0.069734948 2:0.19332294 3:0.094745631 4:-0.056537218 5:-1.3285231 6:-0.35958513 7:1.2642363 8:0.16593529 9:0.94478851 10:0.015766034 
-105 1:-0.91445852 2:-0.37056118 3:-0.91262913 4:0.67428739 5:1.4663733 6:-0.7280486 7:-0.22202911 8:-0.14353052 9:-0.72316094 10:0.46802489 
105 1:0.47167077 2:-1.028561 3:0.46514792 4:1.0845441 5:0.53714923 6:-0.19325874 7:-0.63561272 8:-0.89038355 9:-1.1754882 10:0.98802238 
-105 1:0.52693961 2:-0.082555839 3:0.51406924 4:0.309191 5:-0.75211539 6:-0.55886645 7:0.12227207 8:-0.049087135 9:0.26721341 10:0.30841784 
-105 1:0.29740599 2:0.10812358 3:0.27533496 4:0.32986648 5:-0.14004774 6:-1.0558671 7:0.16884842 8:0.06402494 9:-0.44546438 10:0.41861206 
105 1:-0.013651096 2:-0.44316724 3:-0.015680042 4:-0.32424492 5:-0.14739866 6:1.8594012 7:-0.53415597 8:-0.5758376 9:0.83152063 10:-0.28538319 
-105 1:-0.10856086 2:-0.15724441 3:-0.11560316 4:-0.19219153 5:0.36915094 6:0.92325736 7:-0.77973508 8:-0.11275345 9:0.33499287 10:-0.34953732 
-105 1:-2.0800652 2:2.0471572 3:-2.0970018 4:-2.7635076 5:-0.23951531 6:1.8419928 7:2.1753932 8:1.7388062 9:2.053315 10:-2.5968176 
105 1:-0.24555642 2:1.5291155 3:-0.2672633 4:-0.98015989 5:-0.44786657 6:-1.4105746 7:0.7636193 8:1.2123825 9:0.49756226 10:-0.50106036 
105 1:-3.116592 2:0.79331286 3:-3.0583681 4:-0.25394195 5:2.0666868 6:-1.3811211 7:1.1783503 8:0.8257178 9:0.7696425 10:-0.14194038 
105 1:-1.3866703 2:1.5689059 3:-1.3971988 4:-1.9031451 5:-0.86664392 6:0.8550602 7:2.2213597 8:1.2766173 9:1.8514914 10:-1.6623106 
-105 1:2.54752 2:-1.3509827 3:2.5639282 4:1.7338637 5:-1.0363037 6:-0.99425525 7:-1.4870611 8:-1.2940995 9:-1.3250751 10:1.7559285 
-105 1:-0.22172547 2:-0.7063043 3:-0.22078271 4:1.0118298 5:0.92595891 6:-0.78613015 7:-0.92796539 8:-0.66140125 9:-0.31059501 10:1.0302751 
105 1:-0.21044221 2:0.40466768 3:-0.18906213 4:-0.69460927 5:-0.45706934 6:0.71107783 7:0.25710054 8:0.51792925 9:0.92319985 10:-0.8389015 
105 1:-0.70692571 2:1.0274229 3:-0.71033628 4:-1.1041806 5:-0.40431366 6:0.14611093 7:0.75263192 8:1.0569839 9:1.2597232 10:-1.0846851 
105 1:0.37938699 2:0.16466909 3:0.39968669 4:-0.091132711 5:-0.93405614 6:-0.19192852 7:0.46915674 8:0.16018629 9:0.4813137 10:-0.062542064 
105 1:-0.28107436 2:0.3807621 3:-0.29323165 4:-0.58805214 5:-0.28667958 6:0.49560696 7:0.39292186 8:0.36788799 9:0.64109722 10:-0.58444145 
-105 1:0.3435171 2:-0.6812879 3:0.32751402 4:0.26418747 5:0.09800366 6:1.0281089 7:-0.72929485 8:-0.67516656 9:-0.05159994 10:0.18286978 
-105 1:-0.13142312 2:0.33147348 3:-0.12591859 4:-0.26087045 5:-0.51824253 6:-0.13976922 7:0.63489897 8:0.33689093 9:0.51965542 10:-0.28151889 
105 1:-0.0047467347 2:0.12653452 3:0.0056764848 4:-0.64784191 5:1.7348334 6:1.230099 7:-1.456111 8:0.17068608 9:-1.6287218 10:-0.71531206 
-105 1:-0.75855158 2:0.28481406 3:-0.75912278 4:-0.60595455 5:0.64807604 6:0.7702104 7:0.34848558 8:0.3721085 9:-0.12107591 10:-0.7147764 
-105 1:-0.13718775 2:-0.44315496 3:-0.098763408 4:0.56631926 5:1.3082384 6:-0.25706522 7:-1.1193822 8:-0.41126806 9:-0.98974303 10:0.50086007 
-105 1:-0.18443174 2:0.42898954 3:-0.19626937 4:-0.63102554 5:-0.4922712 6:0.5129039 7:0.74565329 8:0.2886532 9:0.47408799 10:-0.52777266 
105 1:0.13293909 2:-0.62524951 3:0.13806279 4:0.36200035 5:0.34800123 6:0.65327011 7:-0.74003952 8:-0.64337727 9:-0.12121504 10:0.324601 
-105 1:0.36514975 2:-0.59358646 3:0.35748491 4:0.47005662 5:-0.20199467 6:0.24670329 7:-0.50285863 8:-0.7100319 9:0.20829336 10:0.60990231 
-105 1:0.42024832 2:-0.2046502 3:0.39785744 4:-0.35429323 5:0.63837613 6:1.3535655 7:-1.2316877 8:-0.063801077 9:-0.64398945 10:-0.55841227 
105 1:0.28989119 2:-0.74858618 3:0.27566796 4:0.49305017 5:1.8077521 6:0.65048348 7:-2.1635503 8:-0.68026958 9:-1.5600853 10:0.35349122 
105 1:-1.7587144 2:0.67907446 3:-1.758824 4:-0.43148497 5:1.4058942 6:-0.61376137 7:0.68968885 8:0.68756748 9:0.010877918 10:-0.38668297 
105 1:-0.2887281 2:0.35167395 3:-0.2877402 4:0.24297343 5:0.036423392 6:-1.5063857 7:0.61211773 8:0.34538663 9:-0.15679385 10:0.38272552 
105 1:0.43741506 2:-0.88930099 3:0.42138652 4:0.47382922 5:-0.19699292 6:1.027027 7:-0.29526243 8:-0.86838448 9:-0.13571644 10:0.37133933 
-85.559627850192612 1:-0.13726828 2:-0.45787389 3:-0.11904728 4:0.74464579 5:1.128549 6:-0.69114057 7:-1.3337254 8:-0.3367192 9:-0.43260141 10:0.6436979 
-105 1:-0.40275434 2:0.71259006 3:-0.40495688 4:-1.1050663 5:-0.53484702 6:1.0417158 7:0.25452106 8:0.81708094 9:1.4390322 10:-1.3231536 
105 1:-0.02231075 2:-0.19579118 3:-0.043555728 4:-0.30621788 5:0.084617811 6:1.2429824 7:-0.49178774 8:-0.21309462 9:0.407148 10:-0.37287309 
-105 1:-0.058973728 2:-0.12523763 3:-0.051440751 4:0.34170067 5:0.12431504 6:-0.55677044 7:0.19371006 8:-0.050165471 9:-0.31733919 10:0.31893563 
105 1:0.29296588 2:-0.79933344 3:0.29818186 4:0.3443875 5:0.46246671 6:1.1593058 7:-1.0255814 8:-1.0390527 9:-0.33013597 10:0.4632191 
-105 1:-0.30727113 2:-0.13074209 3:-0.30546842 4:-0.64308628 5:-0.48841948 6:1.8576065 7:0.29663758 8:0.02819571 9:1.1346534 10:-0.87165349 
-105 1:-0.20405071 2:-0.35440926 3:-0.20548121 4:0.17046324 5:0.65863541 6:0.47279448 7:-0.34703809 8:-0.1799625 9:-0.45111582 10:-0.054871448 
105 1:-0.45159666 2:-0.52298217 3:-0.46470638 4:0.46166303 5:1.6496108 6:0.089143497 7:-1.0994357 8:-0.2541464 9:-0.99691202 10:0.23421981 
105 1:-1.4937021 2:1.4456331 3:-1.496355 4:-1.6954591 5:-0.1058596 6:0.68070146 7:1.274971 8:1.4632278 9:1.638363 10:-1.7832343 
105 1:-0.74417743 2:0.26895429 3:-0.72277786 4:0.035366682 5:1.0356864 6:-0.69533192 7:-0.19076962 8:0.29271349 9:-0.31461004 10:0.010899743 
-105 1:0.099962567 2:-0.30463888 3:0.10460357 4:-0.12681045 5:0.10530002 6:1.0085179 7:-0.66723144 8:-0.10598587 9:0.29999351 10:-0.34223473 
105 1:-0.41033842 2:-0.054693911 3:-0.40761493 4:-0.61010457 5:0.12938118 6:1.6865687 7:0.073893054 8:0.10326848 9:0.44341704 10:-0.91175723 
-105 1:-0.37551296 2:1.3707099 3:-0.37135842 4:-0.7043049 5:-0.26464077 6:-1.6415612 7:0.46312028 8:1.2958188 9:0.68874546 10:-0.50539604 
36.303320186416627 1:-2.2231671 2:2.5143144 3:-2.2304732 4:-2.8838845 5:-1.3607152 6:1.0233719 7:3.0814001 8:2.3769152 9:3.394367 10:-2.8599023 
105 1:0.67766347 2:1.0517753 3:0.67254028 4:-0.67158814 5:-1.4097613 6:-0.96746216 7:0.86833949 8:0.87050942 9:0.40435065 10:-0.38654937 
81.204264360403144 1:0.01716452 2:-0.21434561 3:0.00065874339 4:0.25689912 5:-0.17150909 6:-0.046921961 7:-0.10770313 8:-0.22080701 9:0.39950019 10:0.21108066 
-105 1:-0.90934933 2:0.36977609 3:-0.85844621 4:-0.59222514 5:-2.468422 6:0.53042233 7:3.2408725 8:0.29922293 9:2.7523545 10:-0.53152478 
105 1:0.039197761 2:0.17420328 3:0.05329088 4:-0.33806949 5:-0.81478773 6:0.46667222 7:0.60726716 8:0.23193885 9:0.75738398 10:-0.47527569 
-105 1:-0.48058637 2:0.25508703 3:-0.48549269 4:-0.54637133 5:0.42894204 6:0.72154915 7:-0.24083462 8:0.41964556 9:0.36219717 10:-0.75130446 
105 1:0.0036212235 2:0.54926109 3:-0.0069087562 4:0.62660622 5:-0.087583955 6:-2.92874 7:-0.13727198 8:0.61281898 9:0.29869006 10:0.77787445 
-105 1:-2.1873603 2:3.4557582 3:-2.1758306 4:-3.1998718 5:-0.56523424 6:-0.58886899 7:2.3899858 8:3.4751645 9:2.5890712 10:-3.153759 
-105 1:1.4389855 2:-2.5525484 3:1.4423912 4:2.2579299 5:-0.14951144 6:0.69957427 7:-1.3616354 8:-2.7847956 9:-0.99425919 10:2.4200986 
105 1:-0.48493914 2:0.13211263 3:-0.49245093 4:0.037689341 5:0.54655573 6:-0.36197309 7:0.029191387 8:0.032754476 9:-0.11128247 10:0.11090765 
105 1:-0.97999696 2:1.6005818 3:-0.97984226 4:-1.6757396 5:-1.2178861 6:0.16876636 7:1.9015928 8:1.5369463 9:2.0483213 10:-1.5775796 
-105 1:-0.025945243 2:-0.25895689 3:-0.034039627 4:-0.3173402 5:-0.12155194 6:1.4196902 7:-0.23005361 8:-0.46049764 9:0.50538297 10:-0.20764856 
105 1:-0.1526747 2:-0.025146655 3:-0.16868321 4:-0.083251997 5:2.2414607 6:0.32073277 7:-2.3706748 8:0.079884614 9:-1.3131272 10:-0.25425581 
-105 1:-0.29026378 2:0.29973377 3:-0.30374673 4:-0.39545819 5:0.087784904 6:0.22852311 7:0.40354651 8:0.31180182 9:-0.021324079 10:-0.40892725 
105 1:0.66459189 2:-1.1653132 3:0.6450941 4:0.98455105 5:0.35390947 6:0.45674722 7:-0.96482126 8:-1.2644758 9:-0.8560596 10:1.0229636 
105 1:-1.0484852 2:1.349092 3:-1.0422299 4:-1.5816634 5:-0.094909203 6:0.5549449 7:0.83150896 8:1.5271014 9:1.2436989 10:-1.7495597 
105 1:0.54087982 2:0.39860781 3:0.52634506 4:-0.26131817 5:-1.8239615 6:-0.3698994 7:1.3465336 8:0.331676 9:0.92015869 10:-0.13728079 
-105 1:1.22047 2:0.34489063 3:1.212465 4:0.510457 5:-1.378751 6:-2.068425 7:-0.48042645 8:0.25189823 9:0.72267908 10:0.69920841 
-105 1:0.01099598 2:-0.73089624 3:0.030894853 4:0.48948196 5:1.17232 6:0.5959483 7:-1.3168986 8:-0.75597307 9:-0.80122955 10:0.46345983 
-105 1:-0.069969895 2:0.10394053 3:-0.084189783 4:-0.1833286 5:-0.066829054 6:0.19539099 7:0.22490687 8:0.048414505 9:0.033019704 10:-0.13785174 
105 1:-0.15064979 2:-0.16868653 3:-0.14405422 4:0.0091069182 5:0.61484138 6:0.34573052 7:-0.40741367 8:-0.1367248 9:-0.41688436 10:-0.0048901828 
105 1:0.24038071 2:0.49434634 3:0.23054364 4:-0.13688297 5:-0.45834135 6:-0.90880275 7:0.64095377 8:0.40964934 9:-0.26106522 10:0.035829877 
-105 1:0.2865788 2:0.58430053 3:0.26683773 4:0.33197042 5:-0.54049149 6:-2.2449093 7:0.15842281 8:0.4833017 9:0.29899735 10:0.56706105 
-105 1:0.55837602 2:0.03135685 3:0.58441413 4:-0.10065937 5:-1.1306147 6:0.15821584 7:0.93266482 8:0.056299835 9:0.03004878 10:-0.12326799 
105 1:0.047431203 2:-0.46043298 3:0.056445478 4:0.37880699 5:1.5828628 6:0.12659247 7:-1.1646512 8:-0.38713266 9:-1.7465038 10:0.35518515 
105 1:-0.058176402 2:0.0095719783 3:-0.056413553 4:-0.026833884 5:0.02690663 6:0.076982211 7:0.17477853 8:-0.15241408 9:-0.1201196 10:0.098999663 
105 1:-0.22772209 2:0.38156466 3:-0.21884368 4:-0.19569728 5:0.020291873 6:-0.46185738 7:0.62610433 8:0.20062261 9:-0.26117327 10:0.022168718 
105 1:0.17719684 2:-0.59399183 3:0.19869635 4:0.23019353 5:-0.59767759 6:0.87703105 7:0.1687404 8:-0.2890003 9:0.55350396 10:-0.11925371 
-105 1:0.092274187 2:0.61764482 3:0.073564441 4:-0.40429896 5:-0.39534199 6:-0.60382965 7:0.30316246 8:0.55253009 9:0.24801013 10:-0.2228877 
-57.868360099368154 1:0.52374846 2:-0.39678225 3:0.5136029 4:0.5217575 5:-0.23816362 6:-0.31067689 7:-0.5285831 8:-0.57845078 9:0.010588187 10:0.71528066 
-105 1:1.7228891 2:0.14074714 3:1.7173046 4:0.37196311 5:-1.4649813 6:-1.2220223 7:0.3677355 8:0.17910676 9:-0.9053341 10:0.3738336 
-105 1:1.6404614 2:-0.017035911 3:1.6483219 4:0.33870508 5:-1.5130273 6:-0.77758637 7:0.098610662 8:-0.06550505 9:-0.40804723 10:0.41996947 
-105 1:-0.19024907 2:-0.026189551 3:-0.17038502 4:-0.24380481 5:-0.50313569 6:0.63432481 7:0.88564205 8:-0.069538636 9:0.33333282 10:-0.21227412 
105 1:0.35808124 2:-0.11845049 3:0.33668681 4:-0.078304415 5:-0.4391413 6:0.5464857 7:0.049651201 8:0.10232875 9:0.098348945 10:-0.38647123 
-105 1:-0.75595433 2:0.93722265 3:-0.767122 4:-0.57706959 5:-0.0025818499 6:-0.80965069 7:0.92793927 8:0.93353357 9:0.46065771 10:-0.57502396 
-105 1:0.21725329 2:-0.042635004 3:0.20831927 4:0.29369182 5:-0.13199199 6:-0.61742385 7:0.10462112 8:-0.040892801 9:-0.25994074 10:0.32723391 
-105 1:1.5207314 2:0.45435622 3:1.5115956 4:-0.154392 5:-2.145228 6:-0.69476077 7:0.87580955 8:0.48646296 9:0.17048855 10:-0.17467852 
105 1:-0.32895315 2:-0.0062605041 3:-0.3168403 4:0.044409942 5:0.41338413 6:-0.14337868 7:-0.062259995 8:0.059545015 9:-0.084393555 10:0.031082061 
105 1:-0.39658322 2:0.37813399 3:-0.41954966 4:-0.55639195 5:0.084287017 6:0.4760791 7:0.34683727 8:0.34553669 9:0.24595297 10:-0.57782072 
105 1:0.71057034 2:0.046421141 3:0.72455506 4:0.0006938663 5:-1.5490454 6:-0.055865741 7:0.7321441 8:-0.12483386 9:0.71357654 10:0.1217607 
105 1:0.490298 2:-0.78408228 3:0.49529783 4:0.53499214 5:-0.32070893 6:0.66251859 7:-0.46308805 8:-0.96763842 9:0.13931783 10:0.61915722 
-105 1:0.0045034966 2:0.93732085 3:0.041488026 4:-0.58481594 5:-1.5643749 6:-0.91276121 7:2.1085037 8:0.8345721 9:0.62008465 10:-0.37121822 
105 1:-2.5629756 2:0.85745954 3:-2.5382175 4:-0.31448602 5:1.6888851 6:-1.3224992 7:1.1278222 8:0.89309216 9:0.5124054 10:-0.26729687 
105 1:-0.50313482 2:0.93848951 3:-0.50780326 4:-0.17527702 5:-0.052837504 6:-1.8197683 7:0.38525777 8:1.0481233 9:0.63081752 10:-0.20989832 
9.3448840525816177 1:-3.1418698 2:5.3213237 3:-3.1426369 4:-4.3703337 5:-0.20286056 6:-2.3176944 7:3.1573496 8:5.645474 9:2.9246457 10:-4.4722758 
105 1:0.35754723 2:-0.87810548 3:0.35278912 4:0.57781549 5:0.18609545 6:0.67581144 7:-0.43574229 8:-0.95570933 9:-0.54250801 10:0.65352627 
94.723297138550322 1:-1.2749052 2:1.2300366 3:-1.2306034 4:-1.2585763 5:-2.8064791 6:0.14791096 7:4.4998352 8:1.1672616 9:2.7579363 10:-1.2497496 
-105 1:0.067003366 2:-0.41953527 3:0.06515046 4:0.0095881584 5:0.022791335 6:0.97584754 7:-0.084235759 8:-0.52103831 9:-0.076558666 10:0.073556557 
-105 1:0.083768028 2:-0.4709135 3:0.093808534 4:-0.1613316 5:0.49988991 6:1.5628336 7:-0.2999313 8:-0.55136268 9:-0.75300591 10:-0.18899885 
105 1:-0.26744796 2:0.53177874 3:-0.24372832 4:-0.55635112 5:-0.94264604 6:0.095108702 7:1.2484267 8:0.41917633 9:0.88990714 10:-0.4705972 
-105 1:-0.013775108 2:-0.16850021 3:-0.021367454 4:-0.12660174 5:-0.11761583 6:0.78677042 7:0.22837319 8:-0.14383571 9:0.011251394 10:-0.25399995 
105 1:0.9373779 2:0.13681671 3:0.91518355 4:0.15938606 5:-1.6101331 6:-0.69475943 7:0.69178158 8:0.17336666 9:0.48112933 10:0.13673643 
-105 1:0.33635315 2:-0.61857094 3:0.31291535 4:0.29627484 5:-0.090840544 6:0.79921091 7:0.12794946 8:-0.74478534 9:-0.56217999 10:0.35694589 
105 1:-0.048114473 2:0.094138461 3:-0.044085424 4:-0.064413877 5:-1.1386442 6:-0.02551085 7:1.1208096 8:0.019823349 9:0.9857189 10:-0.029362803 
-105 1:-0.44141957 2:0.61258829 3:-0.46422163 4:-0.62763009 5:-1.4811004 6:0.055185858 7:2.0653773 8:0.30618125 9:1.3870171 10:-0.33139176 
105 1:-0.015938962 2:-0.53240179 3:-0.020830392 4:-0.18659346 5:-0.013331539 6:1.7413508 7:-0.28545727 8:-0.61605393 9:0.34667125 10:-0.1920376 
-105 1:-0.02265662 2:-0.17801148 3:-0.041364749 4:0.20836307 5:0.52435965 6:-0.046760885 7:-0.37564575 8:-0.24310872 9:-0.49865127 10:0.24764023 
105 1:0.3486777 2:-0.60458201 3:0.35331292 4:0.6175097 5:0.044314125 6:-0.012430085 7:-0.37597615 8:-0.58755433 9:-0.34182313 10:0.57267474 
47.812382376583628 1:0.90636419 2:0.85835431 3:0.91495886 4:0.94840018 5:-0.41722371 6:-4.43503 7:-0.47887533 8:0.71776215 9:-0.43802863 10:1.3561338 
105 1:1.3832785 2:-0.22351125 3:1.3859996 4:0.43666828 5:-1.201658 6:-0.51360526 7:-0.0069850239 8:-0.14203764 9:-0.38184313 10:0.37229595 
-105 1:0.51048452 2:0.18624064 3:0.55260882 4:-0.47809633 5:-2.0959755 6:0.71451681 7:1.8606812 8:0.15171601 9:0.88966468 10:-0.47918789 
105 1:0.033451561 2:-0.18851819 3:0.037054497 4:0.047384439 5:-0.047150368 6:0.35747301 7:0.0026967811 8:-0.17183429 9:0.016977124 10:-0.0028156124 
-105 1:2.0408432 2:-2.5474183 3:2.0262099 4:2.4558499 5:-0.91253166 6:0.14256725 7:-1.7249438 8:-2.8285928 9:-0.34829987 10:2.7499086 
105 1:0.1224948 2:0.14095556 3:0.13617902 4:0.14190407 5:-0.18244438 6:-0.64196387 7:0.014487646 8:0.0078243211 9:0.07454374 10:0.26681552 
105 1:-1.8473244 2:1.6362181 3:-1.8448225 4:-1.5350512 5:1.6585709 6:-0.21606853 7:0.12863226 8:1.7512795 9:0.28727034 10:-1.6337796 
105 1:0.436884 2:0.021731547 3:0.42530141 4:0.27831376 5:-0.6094106 6:-0.70264547 7:0.17629948 8:-0.018893735 9:0.12116137 10:0.32901986 
105 1:-0.052489537 2:0.20711819 3:-0.046316923 4:0.082746401 5:-0.19167491 6:-0.67835243 7:0.35524317 8:0.3531537 9:0.073552307 10:-0.048748566 
-105 1:-0.47979476 2:-0.086913468 3:-0.44445124 4:0.34821471 5:1.6723888 6:-0.67679938 7:-1.0760365 8:-0.029084516 9:-1.0540856 10:0.35888308 
-105 1:-0.042091135 2:-0.15341273 3:-0.046066441 4:-0.13504317 5:0.051257411 6:0.70709252 7:0.052206344 8:-0.18880536 9:-0.063755128 10:-0.1422101 
24.043536119345855 1:-0.81402238 2:1.5358431 3:-0.80989399 4:-0.80232299 5:-0.10418882 6:-1.8133125 7:1.2915784 8:1.3922815 9:0.3664783 10:-0.5162264 
105 1:0.21925517 2:0.47289974 3:0.22627367 4:-0.57961476 5:-1.1284043 6:0.28879798 7:0.9178884 8:0.16906603 9:0.68010553 10:-0.30943862 
-105 1:0.52003989 2:-0.80620678 3:0.49746377 4:0.47477061 5:0.016440156 6:0.77322253 7:-0.35055374 8:-0.7830014 9:-0.60688769 10:0.42792872 
-105 1:0.62424909 2:-0.86046928 3:0.64397135 4:0.62594708 5:0.79656539 6:0.56587395 7:-1.0738733 8:-0.81095802 9:-1.4992945 10:0.53683232 
105 1:0.34894894 2:-0.66687123 3:0.35671726 4:0.11875128 5:0.031276441 6:1.3514071 7:-0.43296077 8:-0.5573711 9:-0.26416378 10:-0.084611157 
105 1:-1.0789558 2:0.60118927 3:-1.0546789 4:-0.44964016 5:1.37699 6:-0.41530355 7:-0.7292025 8:0.72945853 9:0.23133406 10:-0.50342734 
-105 1:-1.391954 2:0.61446785 3:-1.3795797 4:-0.12386002 5:0.93476688 6:-1.1704939 7:0.58029846 8:0.76782719 9:0.28055048 10:-0.22738092 
105 1:-1.0434851 2:0.35741902 3:-1.029862 4:-0.16494171 5:1.1989678 6:-0.44014492 7:0.41154267 8:0.50560977 9:-0.66093094 10:-0.30845049 
-23.22988108515106 1:0.025067019 2:0.49780538 3:0.023135072 4:0.58418895 5:-0.10187458 6:-2.6840357 7:-0.5380857 8:0.67697359 9:0.68302715 10:0.59337759 
-105 1:0.28184017 2:-0.32883281 3:0.30935482 4:0.34645359 5:1.2351774 6:-0.079694344 7:-1.1433214 8:-0.13297479 9:-1.592914 10:0.18269459 
-105 1:-0.10900845 2:-0.22955312 3:-0.11942964 4:-0.47301249 5:-0.13126091 6:1.7288258 7:-0.38850715 8:-0.20705187 9:0.83761984 10:-0.60164929 
-105 1:0.26360174 2:-0.84580136 3:0.25898439 4:0.18829076 5:-0.24919482 6:1.5994933 7:-0.20889933 8:-0.81888277 9:0.17830723 10:0.067292514 
105 1:-0.060891032 2:-0.31891098 3:-0.069543223 4:-0.093963647 5:-0.16529404 6:1.0187637 7:0.27873124 8:-0.29135789 9:0.13285731 10:-0.18992018 
105 1:1.3537422 2:-2.5229075 3:1.3621036 4:2.7076992 5:0.59548122 6:-0.57899231 7:-1.6307052 8:-2.1306553 9:-1.9024128 10:2.4138421 
105 1:-0.12955889 2:-0.37452353 3:-0.15075387 4:-0.12098258 5:0.13345229 6:1.2264694 7:-0.081234199 8:-0.29836961 9:0.10051754 10:-0.28227133 
-105 1:-0.3804434 2:0.81450304 3:-0.37914104 4:0.016802976 5:-0.0063531339 6:-2.0321532 7:0.58350406 8:0.74599852 9:0.11651824 10:0.20832549 
105 1:-1.884489 2:2.7805079 3:-1.8891475 4:-1.6445379 5:0.16521046 6:-2.7961786 7:1.9327759 8:2.6506001 9:1.2054571 10:-1.2966266 
105 1:-0.41709312 2:0.2313293 3:-0.41686066 4:-0.56168207 5:0.71453326 6:0.83323969 7:-0.087081956 8:0.27440213 9:-0.42540677 10:-0.66693524 
-105 1:-0.29134562 2:-0.050479772 3:-0.31243329 4:-0.34554926 5:0.48422513 6:0.98469736 7:0.11369881 8:-0.069897234 9:-0.42781309 10:-0.39430317 
105 1:0.17092916 2:-0.2720505 3:0.16759239 4:0.54622234 5:0.010491708 6:-0.62338704 7:-0.24524711 8:-0.29492224 9:-0.080619625 10:0.55528036 
105 1:-0.18835332 2:-1.0910338 3:-0.18367308 4:1.2733882 5:1.4201266 6:-0.57107069 7:-1.278293 8:-0.63426101 9:-0.90418599 10:0.94098408 
-105 1:-0.20040295 2:0.032203606 3:-0.18996902 4:-0.35832646 5:0.45449554 6:0.79016779 7:-0.23501754 8:-0.086682648 9:-0.21703896 10:-0.27561279 
-105 1:0.36558793 2:-1.0023699 3:0.34629132 4:0.88651053 5:0.3601719 6:0.26989833 7:-0.51952541 8:-0.95402697 9:-0.77038639 10:0.81677328 
-105 1:0.79086013 2:-1.6531319 3:0.78855686 4:1.7378396 5:1.1796201 6:-0.21487522 7:-1.7703083 8:-1.369719 9:-1.7641977 10:1.443441 
-105 1:0.24104555 2:-0.17690175 3:0.23960814 4:0.16989711 5:-0.13515662 6:0.0049970644 7:0.19168101 8:-0.043734877 9:-0.3929407 10:0.044978909 
-105 1:-0.96357246 2:0.27036246 3:-0.93798895 4:-0.0022595426 5:1.0475025 6:-0.65635473 7:0.045846825 8:0.36927787 9:-0.17707974 10:-0.059360889 
105 1:-0.36106454 2:0.014443553 3:-0.36282361 4:-0.2118364 5:0.3120228 6:0.4777892 7:0.28711147 8:0.2929551 9:-0.18539886 10:-0.50879148 
-105 1:0.1867688 2:-0.884571 3:0.19310176 4:-0.070694602 5:-0.26336895 6:2.376884 7:-0.18774539 8:-0.96288255 9:0.31303951 10:-0.17332488 
105 1:0.46126776 2:-0.64320843 3:0.46780671 4:0.39048761 5:1.4621557 6:0.62448706 7:-1.3271888 8:-0.43930733 9:-2.1222935 10:0.13689145 
-105 1:1.2540454 2:-2.1311762 3:1.2609075 4:1.8201614 5:1.0575181 6:0.70360924 7:-2.1309368 8:-1.9449806 9:-2.0379825 10:1.607414 
105 1:0.55804287 2:1.1112021 3:0.56227816 4:-0.41863721 5:-0.8190333 6:-1.7451113 7:-0.035335976 8:1.0734209 9:0.47382595 10:-0.22092404 
-105 1:-0.30541832 2:0.17218241 3:-0.32453304 4:-0.37707887 5:0.12212296 6:0.49251697 7:0.13146345 8:0.10157213 9:0.22579067 10:-0.32254648 
-105 1:-0.011220054 2:0.48471013 3:-0.024471956 4:-0.38715166 5:-0.72387399 6:-0.19936757 7:0.6944094 8:0.32794888 9:0.62400378 10:-0.24651209 
-105 1:0.13250827 2:0.15173697 3:0.1208591 4:-0.17269752 5:-0.59595281 6:0.026649791 7:0.77798131 8:0.044616169 9:0.045652374 10:-0.043239485 
-105 1:-1.1393016 2:1.544763 3:-1.1472032 4:-1.892398 5:-0.62989928 6:0.89894016 7:1.1987624 8:1.6085387 9:2.0079798 10:-2.0171491 
-105 1:-3.4326456 2:0.7165565 3:-3.3886871 4:0.0072898309 5:2.0767043 6:-1.8051197 7:2.1095532 8:0.70298336 9:0.400961 10:0.16201694 
-105 1:0.91947078 2:-1.7257385 3:0.89601064 4:1.1992885 5:0.03488044 6:1.2437059 7:-1.0241313 8:-2.144521 9:-0.68897202 10:1.5533491 
-105 1:-0.36063556 2:0.31064666 3:-0.35372744 4:0.71860637 5:0.31400757 6:-2.5784976 7:0.12635183 8:0.69579742 9:-0.03484958 10:0.53514594 
105 1:1.7173515 2:-0.60443115 3:1.7076427 4:0.7294586 5:-1.1827675 6:-0.33719816 7:-0.42278321 8:-0.40628711 9:-0.59544501 10:0.56730682 
-105 1:0.084503624 2:-0.37698251 3:0.070764938 4:-0.13091857 5:0.24976244 6:1.224076 7:-0.017852717 8:-0.407986 9:-0.57091176 10:-0.15697157 
-105 1:-1.0086321 2:1.3138878 3:-1.026591 4:-1.8825661 5:0.16623192 6:1.409435 7:0.81481518 8:1.3102593 9:0.74269955 10:-1.9456508 
105 1:-0.10636366 2:0.71936902 3:-0.10650109 4:-0.46029963 5:-0.5188184 6:-0.61921516 7:0.674369 8:0.82983277 9:0.43994365 10:-0.5355189 
105 1:0.037612691 2:-0.30167496 3:0.042363976 4:0.0038130057 5:0.50186298 6:0.78951543 7:-0.47119056 8:-0.47458086 9:-0.49362319 10:0.073063752 
105 1:0.10032557 2:-0.10043047 3:0.089544448 4:-0.22312067 5:-0.70571598 6:0.85476624 7:0.58655829 8:-0.21450231 9:0.4940524 10:-0.21394033 
105 1:-0.68509038 2:0.54278384 3:-0.70362484 4:-0.63869943 5:0.19273173 6:0.23580914 7:0.64701957 8:0.57663369 9:0.27273247 10:-0.67551585 
-105 1:1.4928447 2:-7.4602282e-05 3:1.5059104 4:0.47066277 5:-1.194014 6:-1.1336469 7:-0.10367672 8:-0.021190285 9:-0.50790374 10:0.53700247 
105 1:0.29596133 2:-0.52452238 3:0.29949983 4:0.92112414 5:0.85173972 6:-0.95384985 7:-0.26240931 8:-0.23123813 9:-1.8032803 10:0.65713849 
-105 1:-0.27010602 2:1.4057777 3:-0.24460943 4:-0.85434289 5:-0.8132376 6:-1.3372726 7:0.90868968 8:1.4044535 9:1.0058191 10:-0.76442619 
-105 1:-1.5677525 2:0.61717343 3:-1.5558946 4:-0.43901746 5:1.9688328 6:-0.44371881 7:-0.14933723 8:0.72582805 9:-0.50712167 10:-0.50398568 
105 1:0.46090254 2:-1.0162497 3:0.47343519 4:0.99721416 5:1.010469 6:0.075923133 7:-1.1774252 8:-0.77447263 9:-1.4709569 10:0.70792765 
-105 1:-0.63023319 2:0.87274698 3:-0.64003117 4:-0.40219015 5:0.00080124149 6:-1.1862841 7:0.82084531 8:0.81499548 9:0.33136684 10:-0.23324291 
105 1:0.92439551 2:0.13589848 3:0.92313488 4:0.082808313 5:-1.2505057 6:-0.57461975 7:0.6545413 8:0.23727712 9:-0.11972856 10:0.050887528 
105 1:0.15010988 2:0.67020043 3:0.16604972 4:-0.5038124 5:-1.1331754 6:-0.35863343 7:0.77097934 8:0.44862965 9:0.95600157 10:-0.29485235 
105 1:0.016310256 2:-0.41346394 3:0.00011357695 4:0.55175931 5:1.3130066 6:-0.29647799 7:-0.9886527 8:-0.29690852 9:-1.3619722 10:0.40717797 
-105 1:-2.8008382 2:4.0041304 3:-2.7918886 4:-2.6468915 5:0.016255312 6:-3.4203747 7:2.8399751 8:4.1711857 9:2.2201851 10:-2.462854 
105 1:-0.084198482 2:-0.33097561 3:-0.10791999 4:-0.43543303 5:0.03608429 6:1.9049013 7:0.12107485 8:-0.38471912 9:-0.011087598 10:-0.51753341 
105 1:-2.6496 2:1.4492438 3:-2.6414492 4:-0.99135522 5:1.1638983 6:-1.0841219 7:1.5577137 8:1.4442845 9:1.1899184 10:-0.93212356 
-105 1:-1.9798575 2:0.49299491 3:-1.9820431 4:-0.18279166 5:2.0762632 6:-0.69784002 7:0.04362141 8:0.3465934 9:-0.12642614 10:-0.044670006 
105 1:-0.12345484 2:0.38559221 3:-0.14057399 4:-0.076627374 5:-0.11674712 6:-0.81943475 7:-0.22875003 8:0.53599392 9:0.68247538 10:-0.1179152 
105 1:-1.2498728 2:0.17542431 3:-1.2012727 4:0.14723772 5:2.1201384 6:-0.77639038 7:-0.70202843 8:0.22857541 9:-0.83429061 10:0.12822514 
-105 1:-0.23466437 2:0.31862646 3:-0.25630472 4:-0.50793646 5:-0.18070034 6:0.43376158 7:0.50874712 8:0.27704075 9:0.25787718 10:-0.45793173 
105 1:0.088352605 2:-0.57571265 3:0.080437959 4:0.41011464 5:0.4927835 6:0.38843193 7:-0.43101541 8:-0.66070821 9:-0.59946545 10:0.47716132 
-105 1:-2.7952778 2:2.6858415 3:-2.7695493 4:-2.4355008 5:1.5264608 6:-0.56774916 7:1.0941316 8:2.7826199 9:1.2619418 10:-2.4887206 
-105 1:0.15292438 2:-0.87391289 3:0.1593066 4:0.51099556 5:0.48953106 6:0.87801496 7:-1.0880342 8:-0.86853072 9:-0.059661751 10:0.45029778 
-105 1:-0.57791152 2:0.32899977 3:-0.59793622 4:-0.74210578 5:0.41946455 6:1.0596933 7:0.057495997 8:0.41115748 9:0.26923409 10:-0.91765325 
-105 1:0.72304599 2:-1.2740807 3:0.72103358 4:1.3374807 5:0.045365795 6:-0.12211656 7:-0.65969221 8:-1.2756737 9:-0.73646964 10:1.2918953 
-105 1:0.92317271 2:-0.71358521 3:0.96762488 4:0.54758279 5:1.9479893 6:0.30983459 7:-3.5191818 8:-0.59394296 9:-1.6524487 10:0.48379465 
105 1:2.2401934 2:0.15187936 3:2.286468 4:0.14650126 5:-2.087099 6:-0.73040367 7:0.0091069761 8:0.24086437 9:-0.42521159 10:0.10092929 
105 1:-0.12658315 2:0.35329927 3:-0.13329234 4:-0.051401466 5:0.00010170173 6:-0.69701651 7:0.15087074 8:0.36537018 9:0.085189492 10:-0.05583059 
-105 1:-1.6368226 2:1.9728009 3:-1.6481625 4:-2.5508518 5:-0.20285338 6:1.5060595 7:1.3744158 8:2.0846773 9:1.9814232 10:-2.7861341 
105 1:0.6531334 2:-0.90179091 3:0.65365395 4:0.68843152 5:0.27358984 6:0.49251026 7:-0.74376921 8:-0.85644776 9:-0.93365479 10:0.6256998 
-105 1:0.10092887 2:-0.4512878 3:0.086122424 4:0.40639503 5:0.36066168 6:0.11855475 7:-0.27428752 8:-0.42490875 9:-0.53865033 10:0.35745256 
105 1:0.15660494 2:-0.3304082 3:0.14908325 4:-0.0076645729 5:-0.042753558 6:0.7863986 7:-0.24330808 8:-0.2894441 9:0.042737506 10:-0.060947695 
105 1:0.19463297 2:0.22888888 3:0.1960044 4:-0.15288962 5:-0.97741515 6:-0.23917498 7:0.4832167 8:0.16313391 9:0.90062988 10:-0.023320585 
-105 1:-1.6190165 2:1.7151694 3:-1.6191663 4:-2.3281787 5:-1.2168568 6:1.4980016 7:2.7364964 8:1.4698911 9:2.3724579 10:-2.1311559 
105 1:0.51656719 2:-0.87214518 3:0.51844899 4:1.3807091 5:1.155943 6:-1.3301222 7:-1.3053621 8:-0.62002902 9:-1.6938437 10:1.2616943 
-105 1:0.36761414 2:0.11152042 3:0.39800478 4:0.18838025 5:-1.4309331 6:-0.72258072 7:1.0574407 8:0.2778139 9:0.78644283 10:0.054751824 
-105 1:-1.2137398 2:1.4723244 3:-1.190958 4:-1.5487014 5:0.77386443 6:0.25971157 7:0.69611672 8:1.2013779 9:0.11480485 10:-1.3302734 
-105 1:-0.46623138 2:1.0063457 3:-0.47975519 4:-0.68365267 5:-0.14979844 6:-0.74970401 7:8.279847e-06 8:1.2666986 9:1.1349046 10:-0.91715162 
-105 1:0.030110053 2:0.84996313 3:0.015793743 4:0.58820866 5:-0.057310782 6:-3.5343136 7:-0.027590532 8:0.95293216 9:0.088377206 10:0.70678576 
105 1:0.096278321 2:-0.90653455 3:0.094317601 4:1.216923 5:0.77568304 6:-0.73738433 7:-0.86360572 8:-0.57777428 9:-0.68726673 10:0.89386512 
105 1:-0.15106955 2:0.52840481 3:-0.16720611 4:-0.31390474 5:-0.40084598 6:-0.5205933 7:0.49651651 8:0.62823613 9:0.50570512 10:-0.3783557 
-105 1:0.21160844 2:-0.23125181 3:0.19232748 4:0.032635508 5:-0.28262395 6:0.5413997 7:0.070070675 8:-0.13983773 9:0.064291725 10:-0.14067875 
-105 1:0.70623305 2:-1.1987439 3:0.70301435 4:0.66043957 5:0.42840885 6:1.3602381 7:-1.0127742 8:-1.4534363 9:-1.0319823 10:0.77825887 
105 1:-2.8697869 2:0.1318753 3:-2.880168 4:0.20185173 5:2.9167834 6:-0.83040206 7:0.59115348 8:0.2456622 9:-0.54549109 10:0.14864189 
105 1:-0.041378572 2:0.23030196 3:-0.031783817 4:-0.16457916 5:-0.67740907 6:-0.20117834 7:0.80064687 8:0.22012548 9:0.46764907 10:-0.10347639 
105 1:0.098431303 2:-0.23536584 3:0.080747377 4:-0.017961491 5:2.196427 6:0.61536609 7:-1.7612827 8:-0.31981552 9:-2.3085459 10:0.031973143 
105 1:0.26484665 2:-0.45331221 3:0.26697697 4:0.15042689 5:-0.45078387 6:0.78815568 7:0.085222166 8:-0.62463229 9:0.23248825 10:0.22734322 
105 1:0.6362685 2:-0.60348537 3:0.63306876 4:0.50898192 5:-0.34599659 6:0.24222536 7:-0.13144056 8:-0.56492454 9:-0.41141392 10:0.43634043 
-105 1:0.11326374 2:-0.28636734 3:0.10180259 4:0.17602968 5:0.06133305 6:0.274787 7:0.17650052 8:-0.296349 9:-0.4855688 10:0.16132752 
-105 1:1.3738993 2:-2.2891935 3:1.374333 4:1.9387866 5:-0.12200358 6:0.80899765 7:-1.4538134 8:-2.5042388 9:-0.82805836 10:2.1070174 
105 1:-0.62453379 2:0.91111561 3:-0.6448139 4:-1.3165703 5:-0.35968585 6:1.0671136 7:0.09169904 8:1.264678 9:1.7137794 10:-1.7734564 
105 1:-0.21652157 2:0.37064849 3:-0.20319299 4:-0.42699484 5:-0.8647749 6:0.095530186 7:1.0985067 8:0.34261068 9:0.81866577 10:-0.35975011 
105 1:-0.21375626 2:0.25402913 3:-0.20051946 4:-0.70602331 5:-0.47470813 6:1.0912442 7:0.24338732 8:0.27745276 9:0.98216987 10:-0.77021885 
105 1:0.7914778 2:-1.1265533 3:0.77354563 4:1.2098061 5:0.21926817 6:-0.1782719 7:-0.63391757 8:-0.94544734 9:-1.1844314 10:0.99572703 
105 1:-0.13451642 2:0.039415763 3:-0.14731932 4:-0.50309324 5:-0.22531078 6:1.2138557 7:0.42582866 8:-0.078616748 9:0.2299678 10:-0.52103598 
-105 1:0.080363132 2:0.076806697 3:0.088840152 4:-0.017456189 5:-0.40537666 6:-0.17477251 7:0.15340921 8:0.0013593934 9:0.41454661 10:0.094384185 
-105 1:-0.31080556 2:0.17536211 3:-0.30187253 4:-0.53377528 5:0.20948972 6:0.88681109 7:-0.2212603 8:0.038269502 9:0.41095908 10:-0.45108036 
-105 1:0.3070277 2:-0.48364321 3:0.31260224 4:0.99382655 5:0.41519897 6:-1.2460543 7:-0.74118723 8:-0.36003439 9:-0.55975341 10:0.92720949 
105 1:0.20855512 2:-0.81672385 3:0.22545813 4:0.50450747 5:0.76249544 6:0.74496164 7:-1.1309769 8:-0.87677592 9:-0.6159639 10:0.52490669 
105 1:-1.7822716 2:2.0438864 3:-1.7911103 4:-2.332343 5:-0.67825041 6:0.7833207 7:2.5758318 8:1.8391703 9:1.8791118 10:-2.2009565 
-105 1:0.040510851 2:-0.18318477 3:0.047502538 4:0.29736547 5:0.1715488 6:-0.2537806 7:-0.10936744 8:-0.22055777 9:-0.27670663 10:0.32191641 
105 1:0.39938703 2:0.12543242 3:0.40332383 4:0.18955739 5:-0.97287446 6:-0.78777313 7:0.45082499 8:0.072425277 9:0.5476445 10:0.30208951 
105 1:0.1921461 2:-0.17124344 3:0.18020415 4:-0.12222975 5:-0.16019656 6:0.74335087 7:0.15803874 8:-0.17182666 9:-0.21481701 10:-0.18742465 
105 1:-0.48579322 2:0.32319578 3:-0.49157425 4:-0.29166874 5:0.11847063 6:-0.036388892 7:0.22767106 8:0.43689003 9:0.45328342 10:-0.43222899 
105 1:-0.056860364 2:-0.11142847 3:-0.060871393 4:0.15647429 5:0.062066386 6:-0.067925012 7:0.18124973 8:-0.17130275 9:-0.1866834 10:0.17990791 
-105 1:0.10709851 2:-0.25471547 3:0.093936722 4:0.23415538 5:-0.33369583 6:0.10520552 7:0.1649957 8:-0.15306896 9:0.24543969 10:0.074248501 
-105 1:-1.864004 2:-0.013838752 3:-1.8371482 4:0.50696882 5:1.4507591 6:-1.259684 7:0.48427289 8:0.22885135 9:0.30697542 10:0.38111602 
105 1:0.16643598 2:0.017429023 3:0.14275417 4:0.052040302 5:-0.33441632 6:-0.11959168 7:0.2851161 8:-0.087191297 9:0.025951351 10:0.11791405 
-105 1:-1.3828748 2:1.7237444 3:-1.3792975 4:-1.9227342 5:-0.6606694 6:0.53974464 7:2.1326342 8:1.6959207 9:1.5530774 10:-1.9378692 
-105 1:2.3473033 2:-2.6265601 3:2.3352545 4:3.0422595 5:-0.25538193 6:-1.0381077 7:-1.7688046 8:-2.5359327 9:-2.0432875 10:2.9764224 
-105 1:-0.094781889 2:0.15922192 3:-0.08600504 4:-0.20934342 5:-1.4020154 6:0.12161252 7:1.4901674 8:-0.047380618 9:1.1638372 10:-0.0071437258 
105 1:-1.0605718 2:1.0161499 3:-1.0646142 4:-0.5248964 5:0.57565168 6:-1.1406048 7:0.79498648 8:0.99696972 9:0.11299758 10:-0.47911857 
-105 1:0.64943478 2:-1.1770515 3:0.64551918 4:0.34551112 5:0.54273234 6:2.0035822 7:-1.6226812 8:-1.4541217 9:-0.51395095 10:0.51685544 
105 1:-0.17052875 2:-0.35501213 3:-0.19392589 4:0.71656137 5:0.93673201 6:-0.86882555 7:-0.62608627 8:-0.25107162 9:-0.7071582 10:0.63958783 
105 1:0.44777421 2:0.053011871 3:0.43490223 4:0.14497833 5:-0.657494 6:-0.43212129 7:0.32013996 8:0.023996814 9:0.042682126 10:0.15177265 
105 1:0.16527915 2:0.57301008 3:0.15113279 4:0.54031066 5:-0.078803362 6:-2.7681868 7:-0.070239816 8:0.52814673 9:-0.077911418 10:0.78418135 
105 1:-0.19731186 2:-0.037579292 3:-0.20428627 4:-0.12323441 5:0.045627863 6:0.38476744 7:0.34571706 8:-0.020962665 9:-0.063695021 10:-0.15346521 
-41.363373517514944 1:-2.7037448 2:0.95012749 3:-2.7081061 4:-0.72045538 5:2.3643709 6:-0.61563724 7:-0.62221155 8:0.92350682 9:1.3615599 10:-0.5950752 
105 1:-0.24628631 2:-0.18493393 3:-0.26365858 4:-0.43581127 5:-0.16572207 6:1.5830903 7:0.18265833 8:-0.028503385 9:0.57875241 10:-0.73668416 
-52.098541712405812 1:-0.87493497 2:0.04747413 3:-0.78308653 4:-0.1658612 5:3.6693156 6:0.34941917 7:-3.2513363 8:0.075152907 9:-1.7497901 10:-0.26410183 
105 1:-0.14467546 2:0.012186447 3:-0.1560103 4:-0.51618946 5:0.93406186 6:1.2682392 7:-1.0603169 8:0.012076626 9:-0.32101316 10:-0.61528147 
105 1:-0.61072128 2:0.67536062 3:-0.62013923 4:-0.742434 5:0.52840017 6:0.18483107 7:0.36356339 8:0.76018347 9:-0.18517329 10:-0.84180665 
105 1:0.85240034 2:-1.9400185 3:0.83905474 4:1.2401172 5:0.096599672 6:1.7075355 7:-0.87510386 8:-1.923213 9:-0.83663683 10:1.0984145 
105 1:-0.2336778 2:0.090013799 3:-0.2281093 4:-0.49028522 5:0.098260441 6:1.0286713 7:-0.43299011 8:-0.010644721 9:0.68604805 10:-0.48790335 
-105 1:0.47958358 2:0.58966095 3:0.4961561 4:-0.3904314 5:-1.0609079 6:-0.55153881 7:0.47216163 8:0.49739001 9:0.52491178 10:-0.20117151 
-105 1:0.4510597 2:0.44942626 3:0.43963192 4:-0.46662389 5:-1.976381 6:0.050997866 7:1.3618458 8:0.54058956 9:1.3390406 10:-0.55897944 
-105 1:0.57857138 2:0.10735975 3:0.5891114 4:0.13415096 5:-0.58923591 6:-0.64420351 7:0.036842813 8:0.20938281 9:-0.053676007 10:0.11701162 
47.386161276345739 1:8.2738222 2:-0.55495294 3:8.3008237 4:1.3434389 5:-4.8259708 6:-1.9103779 7:-2.8828198 8:-0.36324142 9:-3.6397369 10:1.2290771 
-105 1:-0.87876258 2:0.99480206 3:-0.8740284 4:-0.63883109 5:0.18899179 6:-0.83259941 7:0.46560108 8:1.1219002 9:0.79684478 10:-0.73470916 
105 1:0.31108049 2:0.031640557 3:0.28920871 4:0.10370414 5:-0.54304042 6:-0.39262933 7:0.49819782 8:0.062467203 9:-0.083547325 10:0.14933761 
-105 1:-1.9226007 2:0.06652123 3:-1.8615105 4:0.080249359 5:3.1253142 6:-0.31413736 7:-1.36461 8:0.094065746 9:-0.73927038 10:0.031369425 
105 1:-0.56993402 2:0.19913566 3:-0.58600886 4:-0.18558124 5:1.0015481 6:0.030138442 7:-1.0569873 8:0.1538498 9:0.33876342 10:-0.19450541 
-105 1:0.19176135 2:-0.417363 3:0.1918302 4:0.032717968 5:0.024625432 6:0.90718594 7:-0.14136974 8:-0.6303228 9:-0.25241719 10:0.21689097 
105 1:-0.28961295 2:-0.17980675 3:-0.29275794 4:0.010139962 5:0.43978765 6:0.42587688 7:-0.036978282 8:0.013832737 9:-0.21534717 10:-0.21772522 
-105 1:-0.29395724 2:0.421324 3:-0.29864721 4:-0.47320417 5:0.0017634155 6:0.19711451 7:0.77881514 8:0.14866412 9:-0.24886005 10:-0.26758801 
-105 1:0.1153677 2:-0.35407208 3:0.092441198 4:0.017484283 5:0.031320623 6:0.81968106 7:9.9468244e-06 8:-0.51490782 9:-0.24647534 10:0.12930528 
-105 1:-0.58924545 2:0.011309683 3:-0.57585035 4:-0.06492729 5:1.2657404 6:0.13105698 7:-0.8130923 8:0.17801189 9:-0.37239413 10:-0.2368879 
-105 1:-0.46653229 2:0.33547102 3:-0.46498781 4:-0.55106748 5:-1.7363287 6:0.50220036 7:1.7965289 8:0.28488666 9:2.1395014 10:-0.49916602 
-105 1:-0.32610327 2:0.23437861 3:-0.3415938 4:-0.26330207 5:-0.17123286 6:0.1394437 7:0.58773385 8:0.16263671 9:0.32290386 10:-0.2559926 
-105 1:3.4946471 2:-0.22070174 3:3.5269441 4:0.95858193 5:-1.5726213 6:-1.908694 7:-1.8649612 8:-0.13657475 9:-1.7337874 10:1.0652932 
105 1:0.93698393 2:-1.4232276 3:0.91911612 4:1.739877 5:0.080523285 6:-0.85319977 7:-0.54299662 8:-1.1517235 9:-1.2951538 10:1.5587901 
-105 1:0.13289671 2:0.049191648 3:0.11380951 4:0.31369681 5:-0.074902366 6:-0.9490048 7:0.2145266 8:-0.093741424 9:-0.30942325 10:0.56157718 
-105 1:-0.36216112 2:0.21752314 3:-0.36659705 4:-0.34690944 5:-0.13584106 6:0.29413633 7:0.47206862 8:0.2012368 9:0.43272131 10:-0.32257547 
105 1:-2.046157 2:1.2113746 3:-2.0358223 4:-0.7708661 5:1.1547324 6:-1.0414614 7:0.99142444 8:1.3732593 9:0.67175872 10:-0.88402655 
105 1:1.5190616 2:-3.06802 3:1.5144231 4:2.6295214 5:-0.21194702 6:0.9883793 7:-1.6731978 8:-3.4993672 9:-0.70642746 10:3.0194755 
-105 1:0.0006355363 2:-0.39647481 3:-0.0041689265 4:0.16172711 5:0.36288963 6:0.5705237 7:-0.10228279 8:-0.29723024 9:-0.54218518 10:0.028365961 
105 1:2.0541838 2:-3.1514022 3:2.048564 4:2.730072 5:-0.11502649 6:0.911833 7:-1.5685251 8:-3.0064928 9:-1.9657706 10:2.5819806 
105 1:1.9546022 2:-1.0472794 3:1.9473995 4:1.580109 5:-0.56222555 6:-1.3069332 7:-1.1286821 8:-1.0732543 9:-1.4274811 10:1.6590199 
105 1:-0.35779619 2:0.20279275 3:-0.35469842 4:-0.20359827 5:-0.011842775 6:0.0075125444 7:0.65864573 8:0.11877082 9:0.0070627909 10:-0.12172404 
-105 1:-0.073336831 2:-0.36131425 3:-0.059012671 4:0.4146821 5:0.45148592 6:-0.081570887 7:-0.58334831 8:-0.35027088 9:-0.095332414 10:0.35781177 
105 1:-0.21577049 2:0.014942768 3:-0.21235105 4:0.34402306 5:0.34418879 6:-0.894128 7:0.0033472356 8:0.024349053 9:-0.22659197 10:0.39720844 
105 1:0.033013741 2:1.4488433 3:0.054379003 4:-0.96497947 5:-1.0988324 6:-1.1320066 7:1.0530176 8:1.1867225 9:0.81857932 10:-0.66215718 
105 1:0.0072074387 2:-0.34508294 3:0.0064470849 4:0.013277486 5:0.10425364 6:0.81785821 7:-0.61107131 8:-0.5382726 9:0.41995897 10:0.1486671 
105 1:-2.0166777 2:2.2646425 3:-2.025263 4:-2.3285613 5:0.27375373 6:0.19920582 7:1.6568268 8:2.1901507 9:1.5367262 10:-2.2597604 
-105 1:0.0093493647 2:-0.078458184 3:-0.01075218 4:-0.017467544 5:-0.1717519 6:0.29151615 7:0.33097465 8:-0.25722373 9:-0.026760078 10:0.092220128 
-105 1:0.13592791 2:-0.43512114 3:0.11814359 4:0.028507657 5:-0.21100694 6:1.025537 7:0.37771603 8:-0.39547705 9:-0.23804276 10:-0.10159591 
105 1:-0.15446984 2:0.022642683 3:-0.15302515 4:-0.3689543 5:0.057213601 6:0.88234256 7:-0.53415647 8:-0.012596661 9:0.72051792 10:-0.41215254 
105 1:-0.81446426 2:0.3872508 3:-0.80752914 4:-0.61501187 5:0.62588184 6:0.57337878 7:0.34338796 8:0.45133312 9:0.019382768 10:-0.71623969 
-105 1:1.4403388 2:-2.6036925 3:1.4270794 4:2.3150656 5:-0.055993457 6:0.60372965 7:-1.3893792 8:-2.5062454 9:-1.1206082 10:2.2264741 
105 1:-0.1269878 2:-0.25671724 3:-0.13416607 4:0.23276195 5:1.1451114 6:0.0036426783 7:-0.8685248 8:0.041217123 9:-0.92896642 10:-0.019016419 
-105 1:-0.24549027 2:0.20849581 3:-0.2545904 4:-0.3928914 5:-0.448713 6:0.48057314 7:0.91050169 8:0.16293681 9:0.3386297 10:-0.39566563 
-105 1:1.0281746 2:-0.57112942 3:1.0360521 4:0.59907549 5:-1.044925 6:-0.11221706 7:0.18780796 8:-0.64547036 9:-0.21326705 10:0.70661183 
-105 1:-0.35163631 2:0.61213218 3:-0.35250008 4:-0.80323167 5:-0.59593034 6:0.54499708 7:0.5890831 8:0.56797649 9:1.1144951 10:-0.84558902 
-105 1:-0.24205386 2:0.57315248 3:-0.22502469 4:-0.62094058 5:-0.67288255 6:0.18324178 7:0.79959968 8:0.43773693 9:0.82162521 10:-0.54428226 
105 1:-1.5760747 2:1.5167137 3:-1.5555351 4:-1.0302602 5:0.71000334 6:-1.1743309 7:0.94111473 8:1.5316042 9:0.64709648 10:-0.96657706 
105 1:-0.17904468 2:0.46863104 3:-0.1725539 4:-0.65308013 5:-0.92121652 6:0.50077617 7:0.85780319 8:0.49593145 9:1.1009805 10:-0.74190714 
105 1:-0.37385271 2:0.60320577 3:-0.38956035 4:-0.72092121 5:-0.31687138 6:0.27549708 7:0.98212837 8:0.35138742 9:0.27164176 10:-0.46349627 
-105 1:0.0080344315 2:0.017656534 3:0.0082881267 4:0.31462577 5:0.11780526 6:-0.8345424 7:0.073369956 8:0.024453326 9:-0.29995939 10:0.37228839 
-33.744118607861004 1:0.60753971 2:-1.1469134 3:0.58356175 4:0.98181015 5:-0.70361642 6:0.39361592 7:0.20264306 8:-1.0050139 9:-0.038493165 10:0.80701927 
105 1:0.98783699 2:0.2957144 3:0.98086432 4:0.47838099 5:-0.78954615 6:-1.9874625 7:-0.14473504 8:0.3661891 9:-0.24564194 10:0.60409957 
105 1:-0.66911161 2:1.1907513 3:-0.66978621 4:-1.0276278 5:-0.45548428 6:-0.33187458 7:1.0994389 8:1.0582187 9:0.92815364 10:-0.91496614 
105 1:-1.2875251 2:0.83269247 3:-1.2972838 4:-1.4758049 5:-0.52762468 6:1.6110908 7:1.6208888 8:0.70713775 9:1.6708993 10:-1.4554573 
105 1:0.766441 2:-0.98109082 3:0.74426282 4:0.70864145 5:-0.24483256 6:0.699534 7:-0.55044134 8:-1.3259651 9:-0.38916812 10:0.96472065 
105 1:0.91244797 2:-0.095770853 3:0.92390622 4:0.45103682 5:-0.57268448 6:-0.92417014 7:-0.31579493 8:-0.28253537 9:-0.33894068 10:0.73275066 
105 1:-0.13824102 2:-0.3171048 3:-0.14254469 4:-0.55203158 5:-0.33114218 6:2.0838628 7:0.32891493 8:-0.32900554 9:0.51644137 10:-0.62093045 
105 1:-0.26068166 2:-0.016155055 3:-0.26995672 4:-0.44336809 5:-0.17468487 6:1.1017611 7:0.47516453 8:0.010971586 9:0.3174807 10:-0.50999639 
-105 1:-0.55805301 2:0.39256103 3:-0.55356115 4:-0.73469117 5:0.44038278 6:0.89992407 7:-0.13553499 8:0.49966239 9:0.36846455 10:-0.93741208 
-105 1:0.16342984 2:-0.026568736 3:0.14400363 4:-0.080531097 5:-0.42025561 6:0.271046 7:0.17920502 8:-0.29360484 9:0.2883516 10:0.16105276 
-105 1:0.22098434 2:-0.068910355 3:0.20642371 4:0.39676212 5:0.018748543 6:-0.82848793 7:0.26076756 8:-0.066729623 9:-0.68936778 10:0.46124914 
-105 1:-0.16094555 2:0.52785595 3:-0.15194587 4:-0.75316025 5:-0.69315523 6:0.51598449 7:0.7947051 8:0.39861674 9:0.72153299 10:-0.61149783 
-105 1:1.8306867 2:0.27901116 3:1.8774053 4:-0.083596165 5:-3.288509 6:-0.4238433 7:1.9466835 8:0.21807944 9:0.51119852 10:-0.043029004 
105 1:-0.027190707 2:-0.48011079 3:-0.040343667 4:0.057280684 5:0.04861974 6:1.038152 7:0.097887527 8:-0.25812277 9:-0.12419744 10:-0.23115573 
-105 1:1.7160546 2:-2.3263282 3:1.7102602 4:2.5511025 5:0.045514577 6:-0.60799885 7:-1.493481 8:-2.3607121 9:-1.7089469 10:2.6245408 
105 1:1.2105553 2:-0.98263374 3:1.2023021 4:1.0563905 5:-0.80603999 6:-0.20797175 7:-0.46805948 8:-0.97815346 9:-0.29573094 10:1.0685916 
105 1:1.0732096 2:0.051306902 3:1.0806968 4:0.70765626 5:-0.80157483 6:-1.8938803 7:-0.043980254 8:0.26262055 9:-0.49593023 10:0.63396531 
105 1:0.2292082 2:0.37512451 3:0.2305127 4:0.14387742 5:-0.50876278 6:-1.2234364 7:-0.15929675 8:0.32004574 9:0.6499249 10:0.23056221 
105 1:-2.1168256 2:2.1037567 3:-2.1130304 4:-2.3545515 5:-1.9420759 6:0.71423493 7:3.494065 8:1.9802046 9:3.8110567 10:-2.319139 
-105 1:0.29921107 2:0.79475704 3:0.31798245 4:-0.63920527 5:-1.2784961 6:-0.33633774 7:0.91045701 8:0.72097554 9:0.79873377 10:-0.57180119 
105 1:-1.7323125 2:0.50782951 3:-1.7371064 4:-0.30104752 5:1.6664254 6:-0.48743434 7:-0.0069626864 8:0.44358004 9:0.20642598 10:-0.21768111 
-105 1:1.0051869 2:-0.6079273 3:1.0232392 4:0.514766 5:-1.0609275 6:0.15382919 7:-0.02602424 8:-0.53501979 9:0.064750297 10:0.4880963 
105 1:-1.4205739 2:0.85959171 3:-1.3814001 4:-1.2386194 5:-2.1948899 6:0.93538778 7:3.0699893 8:0.71170541 9:3.3840717 10:-1.1330166 
105 1:-0.264189 2:0.31397149 3:-0.2868834 4:-0.41341386 5:0.052248284 6:0.2289258 7:0.097220403 8:0.31381225 9:0.31314756 10:-0.40683 
105 1:0.21471592 2:0.21215944 3:0.22014054 4:0.16194989 5:-0.34542638 6:-0.90125296 7:-0.00015341696 8:0.32287256 9:0.21939498 10:0.092433131 
-105 1:-0.046378304 2:-0.20748945 3:-0.04209704 4:-0.46552785 5:-0.070309194 6:1.6038035 7:-0.33388197 8:-0.49613231 9:0.54500654 10:-0.23195985 
-105 1:0.23807663 2:-0.97774989 3:0.2361758 4:0.20039287 5:0.014430655 6:1.9154773 7:-0.54010191 8:-1.2231735 9:0.086577363 10:0.3095988 
105 1:-0.49762154 2:-0.28156342 3:-0.49849197 4:0.4890921 5:1.2460407 6:-0.5899482 7:-0.86797804 8:-0.093026772 9:-0.43643072 10:0.40132733 
105 1:1.746192 2:-3.0052087 3:1.7461756 4:3.0147872 5:0.19395295 6:-0.13360669 7:-1.7658711 8:-3.0526234 9:-1.7590777 10:3.1086265 
-105 1:0.11361016 2:0.55810456 3:0.097240136 4:0.4223695 5:-0.05588999 6:-2.4536129 7:0.064991061 8:0.49536177 9:-0.15910765 10:0.67596843 
-105 1:1.0354178 2:-1.4860076 3:1.035616 4:1.466644 5:0.27173913 6:0.01262807 7:-0.99390918 8:-1.4179987 9:-1.3774205 10:1.4006993 
-105 1:-0.21713039 2:-0.024325269 3:-0.21422008 4:-0.46730168 5:0.011503728 6:1.282328 7:-0.13134354 8:0.0043566071 9:0.50778659 10:-0.63565032 
105 1:-0.38481902 2:0.20690159 3:-0.39858506 4:-0.46130402 5:0.45083868 6:0.59043277 7:-0.038277858 8:0.30846635 9:-0.049552238 10:-0.5614838 
105 1:-0.090079934 2:0.080175171 3:-0.089181003 4:-0.68136705 5:0.080669424 6:1.4681367 7:-0.3567519 8:-0.0050444965 9:0.38135115 10:-0.6720221 
-105 1:-0.2772814 2:1.6778914 3:-0.24431106 4:-1.4949496 5:-1.2867431 6:-0.46353392 7:1.4010508 8:1.6491746 9:1.3602734 10:-1.395088 
-105 1:0.8294992 2:-1.0577741 3:0.84944901 4:1.4032316 5:0.6382062 6:-0.84212307 7:-1.1179448 8:-0.9152781 9:-1.5478646 10:1.2842851 
71.742223794163337 1:-0.43013152 2:0.60754813 3:-0.42711495 4:-0.34141357 5:-0.10179094 6:-0.60032758 7:0.30375591 8:0.76188999 9:0.66005872 10:-0.49531307 
-105 1:0.25294149 2:-0.34704052 3:0.24845973 4:0.29518637 5:0.22818414 6:0.18483376 7:0.067908271 8:-0.3595232 9:-0.93642175 10:0.23962554 
105 1:-0.48718665 2:0.47453814 3:-0.4801007 4:-0.47233767 5:0.066096717 6:-0.027795453 7:0.40544053 8:0.38601242 9:0.35765468 10:-0.35412129 
105 1:3.5194252 2:-2.6770885 3:3.5169808 4:3.6099996 5:-0.57919822 6:-2.3500097 7:-2.616612 8:-2.5649652 9:-2.7627577 10:3.6337273 
105 1:0.43097896 2:-0.10201077 3:0.42840591 4:0.40453117 5:-0.32715433 6:-0.72594856 7:-0.081514251 8:-0.20848626 9:-0.11995819 10:0.53465188 
-104.50350917843846 1:1.1170045 2:-1.9173351 3:1.1153584 4:1.6005012 5:-0.41839772 6:0.80064986 7:-0.69140795 8:-1.9814749 9:-0.59737655 10:1.5614684 
56.170278670710857 1:0.75741004 2:0.084566081 3:0.77982315 4:-0.02500436 5:-2.3443119 6:-0.083648776 7:1.4236423 8:0.23725042 9:1.3419069 10:-0.22514754 
105 1:0.41088495 2:-0.033696599 3:0.41417191 4:0.08964679 5:-0.5857688 6:-0.16500858 7:0.039210922 8:-0.092259984 9:0.25174759 10:0.1808242 
-105 1:0.96699375 2:-1.5791005 3:0.94293032 4:1.3036133 5:-0.50366907 6:0.69792458 7:-0.61505905 8:-1.828116 9:-0.22667437 10:1.4612538 
-105 1:-0.3444519 2:0.048270146 3:-0.35938686 4:-0.3056385 5:0.0040310194 6:0.62110982 7:0.40318077 8:-0.13392215 9:0.22950382 10:-0.15001054 
-105 1:0.40201173 2:-1.1762602 3:0.40110707 4:0.58562132 5:-0.1665704 6:1.4848484 7:-0.75421416 8:-1.6508709 9:0.3257593 10:0.91818019 
98.691910135729998 1:-0.070342852 2:2.4173571 3:-0.083668191 4:-1.0972156 5:-0.60201587 6:-3.262825 7:0.50062027 8:2.2473864 9:0.71079539 10:-0.67723877 
105 1:2.3921242 2:0.10545837 3:2.3782976 4:0.44060742 5:-1.1852353 6:-1.3569468 7:-0.71356575 8:-0.099609961 9:-1.5296102 10:0.7375325 
-105 1:-0.6951816 2:1.2266473 3:-0.69501563 4:-1.4684784 5:-0.88867367 6:0.65050496 7:1.3893576 8:0.97566114 9:1.4562695 10:-1.2832188 
-105 1:0.74220134 2:-1.1607875 3:0.72921476 4:0.91707253 5:0.056482152 6:0.61602919 7:-0.65926629 8:-1.0379744 9:-0.78182907 10:0.72232739 
-105 1:0.64216174 2:-0.42873419 3:0.62833907 4:0.60071712 5:-0.40917116 6:-0.41409682 7:-0.43655511 8:-0.43151991 9:0.0095427249 10:0.61161642 
-105 1:-0.5420993 2:0.13478111 3:-0.54992842 4:0.25283994 5:0.61140807 6:-0.97636232 7:0.025865767 8:0.26681436 9:-0.11884924 10:0.20196061 
105 1:0.0032742477 2:0.099083691 3:-0.0037946771 4:-0.038332821 5:1.3320662 6:-0.091584485 7:-0.92280276 8:0.21560359 9:-1.4472314 10:-0.19747988 
-105 1:-2.2831989 2:1.9616081 3:-2.2602843 4:-1.9220254 5:-2.236407 6:-0.10958748 7:4.7530857 8:1.5621588 9:3.3496998 10:-1.4711779 
-105 1:0.4751888 2:0.020418857 3:0.55172993 4:-0.12569035 5:-0.048335149 6:-0.017938906 7:-0.028325002 8:0.21026913 9:-0.82605321 10:-0.068632176 
-105 1:0.20239395 2:0.6395279 3:0.21113277 4:-0.44365116 5:-0.94961821 6:-0.4152767 7:0.89009355 8:0.40202851 9:0.41782955 10:-0.23017894 
105 1:0.67710256 2:0.17586951 3:0.68123274 4:-0.16700239 5:-1.3258707 6:0.030459253 7:0.89615468 8:0.080929887 9:0.21869666 10:-0.11732786 
105 1:0.51977455 2:0.18942525 3:0.52459316 4:-0.046099443 5:-1.5763681 6:-0.38068684 7:1.0281563 8:0.32893057 9:0.82075669 10:-0.13363454 
105 1:0.92095782 2:-0.84876009 3:0.89787231 4:0.57324425 5:1.575318 6:0.61347478 7:-1.9109091 8:-0.7203473 9:-2.5488942 10:0.45021459 
-105 1:0.55349256 2:-0.28726511 3:0.54313324 4:0.17758262 5:-0.57816222 6:0.23437019 7:0.1088079 8:-0.28282657 9:-0.081234881 10:0.18510694 
-91.750690987864175 1:-1.5594308 2:1.8229196 3:-1.5550651 4:-2.0124069 5:-0.55156404 6:0.57225796 7:2.0186073 8:1.5854549 9:1.7963494 10:-1.8689471 
-105 1:0.068259334 2:-0.26548023 3:0.073258706 4:0.011944343 5:-0.14125064 6:0.65838832 7:0.084380342 8:-0.17711915 9:0.037451438 10:-0.14992105 
105 1:0.6593388 2:-0.84620809 3:0.64149085 4:1.0035833 5:-0.25554279 6:-0.44627322 7:-0.61477216 8:-0.88142751 9:-0.11250285 10:1.1004437 
-105 1:-0.506246 2:-0.28694375 3:-0.48263646 4:0.70874202 5:0.94563741 6:-1.0343546 7:-0.44608455 8:-0.13287687 9:-0.33312378 10:0.60833063 
-102.86353185637434 1:2.6666257 2:-2.5524884 3:2.673461 4:3.3726925 5:0.10744377 6:-2.1174795 7:-2.3157894 8:-2.3869139 9:-2.7408121 10:3.3715613 
-105 1:0.26562794 2:0.10088087 3:0.24403504 4:0.58088624 5:-0.060094025 6:-1.7357031 7:-0.06227033 8:0.0024835075 9:-0.29656028 10:0.83377064 
105 1:1.0823327 2:-1.8401403 3:1.0625892 4:1.7570281 5:0.42116875 6:0.21177919 7:-1.5346123 8:-1.8910982 9:-1.1647324 10:1.7532376 
-105 1:0.3210958 2:0.24308295 3:0.35550832 4:-0.093464292 5:-1.2443546 6:-0.39884152 7:0.92858572 8:0.15029434 9:0.66485651 10:0.053694373 
-105 1:-0.98889377 2:1.259122 3:-0.9870554 4:-1.4849287 5:0.20815068 6:0.60137927 7:0.34291887 8:1.274102 9:1.0913633 10:-1.5512391 
105 1:-1.0616771 2:0.78930605 3:-1.0673149 4:-0.84894813 5:1.7509748 6:0.13931753 7:-0.77898694 8:0.96885033 9:-0.39133334 10:-1.0133734 
-105 1:-0.044798025 2:-1.221737 3:-0.034144977 4:1.7650697 5:1.6185376 6:-1.4284601 7:-1.0311608 8:-0.7335353 9:-1.7779453 10:1.4223714 
105 1:-0.57698005 2:-0.048110547 3:-0.59435065 4:0.27263946 5:1.0882812 6:-0.63279392 7:-0.91621603 8:0.063281041 9:0.055164191 10:0.26925433 
105 1:-0.10358269 2:0.081176875 3:-0.096910579 4:0.039248506 5:0.053927935 6:-0.24611604 7:0.28738485 8:0.081055778 9:-0.20377617 10:0.011247605 
105 1:-1.5824669 2:-0.071474902 3:-1.6024813 4:0.38446994 5:3.6295893 6:-0.75572156 7:-2.1160221 8:0.069742154 9:-1.4291871 10:0.27494491 
105 1:-3.3620616 2:1.8412853 3:-3.3483094 4:-1.2171926 5:1.377541 6:-1.5503609 7:2.1487635 8:1.8464617 9:1.509996 10:-1.0825791 
-105 1:-0.20151316 2:-0.19495315 3:-0.20172693 4:0.40401316 5:0.64622419 6:-0.51064682 7:-0.25972647 8:-0.065803882 9:-0.52312373 10:0.29901673 
105 1:3.6869428 2:0.2004609 3:3.7115596 4:0.31735802 5:-2.9305248 6:-1.26337 7:-0.19294102 8:0.26564956 9:-1.3441737 10:0.3215446 
105 1:0.042160783 2:-0.075857901 3:0.046557338 4:0.071397243 5:-0.016093446 6:0.048536078 7:-0.051783042 8:-0.13780186 9:-7.9851273e-05 10:0.095418949 
105 1:0.4870748 2:-0.60573539 3:0.47464781 4:0.47257908 5:-0.25885414 6:0.36349861 7:-0.62448931 8:-0.66576418 9:0.21404948 10:0.46745268 
-105 1:0.19920649 2:-1.6140598 3:0.17860844 4:2.334194 5:0.71855 6:-1.8644093 7:-0.95359033 8:-1.2237444 9:-0.66552138 10:2.1074459 
-105 1:-0.62700979 2:0.64335357 3:-0.63578845 4:-0.68457487 5:0.51931201 6:0.17922829 7:0.21784622 8:0.6110972 9:0.0079427893 10:-0.71924693 
-105 1:0.32452465 2:-0.53462207 3:0.32874138 4:0.44113354 5:-0.16438795 6:0.2081751 7:-0.66046002 8:-0.72142945 9:0.36424217 10:0.62296858 
-105 1:0.91912988 2:-0.19120167 3:0.94015954 4:0.49546232 5:-0.85986188 6:-0.69891655 7:0.022073727 8:-0.17817079 9:-0.18856969 10:0.47625511 
105 1:-0.94380239 2:0.7625634 3:-0.95551899 4:-0.77782759 5:1.0468821 6:0.068968649 7:0.11151007 8:0.81198936 9:-0.244533 10:-0.84384089 
-105 1:-0.057254512 2:0.25021654 3:-0.043064342 4:-0.63370345 5:-0.96916775 6:0.99561836 7:0.45473605 8:0.25105388 9:1.3646869 10:-0.73413569 
105 1:-0.20507523 2:-0.038209176 3:-0.1987462 4:-0.201719 5:0.27231726 6:0.58491321 7:-0.26911756 8:-0.022024469 9:0.15564542 10:-0.24815183 
105 1:-0.34593451 2:0.35345585 3:-0.36884181 4:0.45673167 5:0.3633643 6:-1.943406 7:-0.068755873 8:0.82371626 9:0.074876019 10:0.06778784 
-105 1:-0.11431388 2:0.08574892 3:-0.12167587 4:0.14103 5:3.0809182 6:-0.59709665 7:-3.1998888 8:0.14066307 9:-2.0528391 10:0.15781739 
-105 1:0.22378742 2:-0.70211799 3:0.22344101 4:0.56607107 5:0.60652168 6:0.32864163 7:-1.0232408 8:-0.71161888 9:-0.4582409 10:0.54798408 
105 1:-0.80899114 2:1.339189 3:-0.82843922 4:-1.1291797 5:-0.34546509 6:-0.50232252 7:1.0229783 8:1.3911472 9:1.0824471 10:-1.1380026 
-105 1:1.2715818 2:-0.058290442 3:1.2650397 4:0.29117315 5:-2.5605606 6:-0.51672008 7:1.6298841 8:-0.10964052 9:0.60383743 10:0.321837 
105 1:0.56739371 2:0.031051865 3:0.5543401 4:0.19624014 5:-0.73922592 6:-0.62791195 7:-0.15801418 8:0.14465215 9:0.45406414 10:0.18163966 
105 1:1.8784762 2:0.21658745 3:1.8730786 4:0.037226756 5:-2.7101513 6:-0.59915373 7:1.5449866 8:0.22081216 9:-0.15610903 10:0.050169116 
105 1:-0.158305 2:0.1948135 3:-0.16422611 4:-0.35144608 5:0.2268923 6:0.38137141 7:-0.43289609 8:0.1650566 9:0.328273 10:-0.33712897 
-105 1:-0.44035782 2:0.38970377 3:-0.4380389 4:-0.51340746 5:0.42611405 6:0.37650689 7:0.080306249 8:0.32009279 9:-0.03838308 10:-0.52256985 
105 1:-0.1483352 2:0.11452226 3:-0.1431849 4:-0.23102815 5:-0.076533682 6:0.29079936 7:0.17959843 8:0.25827033 9:0.22214979 10:-0.39205719 
105 1:0.41760998 2:-1.1023976 3:0.44588955 4:0.9822849 5:1.9110189 6:0.30424121 7:-1.8490864 8:-0.93057317 9:-2.3363594 10:0.76519134 
-105 1:-0.36377069 2:1.0103868 3:-0.37270955 4:-1.0525871 5:-0.86941206 6:0.071505606 7:0.92992864 8:1.0551553 9:1.2880257 10:-1.0532666 
105 1:0.15607241 2:0.2281687 3:0.13338099 4:-0.061595377 5:-0.870682 6:-0.34533387 7:0.21299132 8:0.14881799 9:1.0761831 10:-0.015016002 
105 1:2.5259938 2:-0.025829188 3:2.5095891 4:0.4940332 5:-2.2936619 6:-1.1659301 7:0.29865862 8:0.087810635 9:-0.81546013 10:0.46177976 
-105 1:0.29017386 2:-0.61039964 3:0.30147569 4:0.015779665 5:-0.61929629 6:1.3920253 7:-0.075021041 8:-0.20962436 9:0.6413336 10:-0.41263527 
105 1:-0.15143513 2:0.34532274 3:-0.17495116 4:-0.063818815 5:-0.042368575 6:-0.638092 7:0.20835012 8:0.24582242 9:0.1638862 10:0.031006438 
105 1:-0.31832976 2:-0.14576628 3:-0.31444599 4:-0.79157673 5:-0.041060124 6:2.2729668 7:0.23917753 8:0.028180451 9:0.41112454 10:-1.0712383 
105 1:-0.167853 2:-0.20265934 3:-0.16912598 4:-0.11843011 5:0.0098810977 6:0.75993774 7:0.14337567 8:-0.078044518 9:0.1459499 10:-0.2640804 
105 1:-0.26151989 2:-0.023440867 3:-0.27627108 4:0.51378675 5:0.561949 6:-1.1888801 7:-0.19932055 8:0.13674266 9:-0.31026138 10:0.40905971 
105 1:0.15463733 2:-0.39596141 3:0.13728703 4:0.065337131 5:-0.19101634 6:0.83022755 7:0.048744699 8:-0.53526903 9:0.024714761 10:0.13219531 
-105 1:-0.90389594 2:-0.04042018 3:-0.92200968 4:-0.18708957 5:2.3870684 6:0.53269888 7:-1.6650718 8:0.13845299 9:-0.90928701 10:-0.37269033 
105 1:0.6033034 2:0.5597637 3:0.59689476 4:-0.36834815 5:-0.97915541 6:-0.39936233 7:0.45493242 8:0.3968619 9:0.1904273 10:-0.23562879 
105 1:2.6888532 2:-3.823014 3:2.678934 4:2.9152072 5:0.94722492 6:2.2045629 7:-3.410958 8:-3.5957015 9:-3.1588826 10:2.5121371 
-105 1:0.077285496 2:-0.15518945 3:0.057916691 4:0.40975344 5:0.07330547 6:-0.57189755 7:-0.19357514 8:-0.22769666 9:-0.05895262 10:0.46437108 
105 1:-0.086909242 2:-0.0086387318 3:-0.077200602 4:0.54859015 5:0.11980589 6:-1.3156273 7:0.17571904 8:0.06618034 9:-0.24184235 10:0.54034623 
105 1:-0.25904591 2:0.1430097 3:-0.27782701 4:-0.63967326 5:-0.19492054 6:1.2906409 7:0.30208693 8:0.0077887157 9:0.53469576 10:-0.6392575 
-105 1:0.15884895 2:0.22569554 3:0.16614475 4:0.24746573 5:-0.19993023 6:-1.2080845 7:0.16398552 8:0.22658786 9:-0.10637595 10:0.36066147 
-105 1:0.44788182 2:-0.9922525 3:0.44085412 4:0.99607054 5:1.9217886 6:0.014595889 7:-1.8482048 8:-0.67391783 9:-2.3796306 10:0.63947061 
-105 1:-2.176572 2:0.98256501 3:-2.1372896 4:-0.644344 5:2.0491222 6:-0.836527 7:0.0091923253 8:0.99125504 9:0.27953338 10:-0.58097795 
-105 1:0.64127799 2:-1.3362335 3:0.62879436 4:1.1698112 5:0.048880298 6:0.35401925 7:-0.98615173 8:-1.4450398 9:-0.2526171 10:1.2798928 
105 1:-0.19283803 2:-0.16393553 3:-0.21459949 4:-0.60592886 5:0.033542912 6:1.8604039 7:-0.21190756 8:0.023354644 9:0.52805964 10:-0.87444143 
-105 1:0.58063223 2:-0.89689861 3:0.57675675 4:0.56037675 5:0.11684271 6:0.7834066 7:-0.64027375 8:-0.86462938 9:-0.6212135 10:0.50426938 
-105 1:0.08154613 2:-0.020601343 3:0.090987666 4:0.05321123 5:3.0192088 6:-0.12722672 7:-3.2552521 8:-0.10632794 9:-2.2608267 10:0.1866156 
-105 1:-0.39760553 2:-0.1342426 3:-0.39989346 4:0.14916458 5:0.48044328 6:-0.035888212 7:-0.26623002 8:0.05099717 9:0.14130745 10:-0.03564197 
105 1:-0.055621348 2:0.48611502 3:-0.052670322 4:-0.28215154 5:-0.38119486 6:-0.5116455 7:0.17697794 8:0.35253442 9:0.60175191 10:-0.10164381 
-105 1:-1.7172974 2:0.053111168 3:-1.7273347 4:0.19454228 5:2.652201 6:-0.55897786 7:-0.53785066 8:-0.08041355 9:-1.0416103 10:0.31647287 
-105 1:-0.89247301 2:0.47376722 3:-0.88263392 4:-0.78771383 5:0.011273002 6:0.78095018 7:0.78180236 8:0.36202327 9:0.81487158 10:-0.72127361 
105 1:1.3891117 2:-1.7754917 3:1.3670912 4:1.8830243 5:-0.59437852 6:-0.35500384 7:-0.58050211 8:-1.6972304 9:-0.87506567 10:1.8717238 
-105 1:0.22303745 2:-0.12246631 3:0.20338331 4:0.86284162 5:-0.1105113 6:-1.8031479 7:-0.22442456 8:-0.053119449 9:0.034139456 10:0.8815765 
105 1:-0.27520857 2:0.37581523 3:-0.28723334 4:0.47007014 5:0.14013993 6:-2.0552348 7:-0.082332071 8:0.46429604 9:0.34823471 10:0.48766273 
-105 1:-0.29443929 2:0.23163265 3:-0.2832993 4:-0.37542508 5:0.17810276 6:0.32190057 7:-0.49288961 8:0.20675946 9:0.71018689 10:-0.33719325 
-105 1:-0.22405737 2:0.35278914 3:-0.21961797 4:0.025649685 5:-0.088175685 6:-0.9231869 7:0.47539657 8:0.21558197 9:0.082818967 10:0.21578058 
-105 1:0.86768865 2:-1.414371 3:0.84360025 4:0.77815957 5:0.013629913 6:1.5960154 7:-0.52243778 8:-1.4873085 9:-1.063619 10:0.70231774 
-105 1:0.99739605 2:0.094783894 3:1.010693 4:-0.052256343 5:-2.4553364 6:-0.039167464 7:1.2997079 8:0.024913653 9:1.2344674 10:-0.036492721 
105 1:1.0507028 2:0.14169047 3:1.0472987 4:0.058189092 5:-1.3179485 6:-0.43728178 7:-0.069576359 8:0.032951578 9:0.50476164 10:0.14645514 
-105 1:0.21785142 2:-0.78181044 3:0.21767182 4:0.099621169 5:0.0038369231 6:1.6549278 7:-0.27948049 8:-0.82719409 9:-0.12294667 10:0.052895298 
105 1:-1.0940079 2:1.0478438 3:-1.1125711 4:-1.7161635 5:-0.27646101 6:1.6797726 7:1.3107506 8:0.75635207 9:1.1891788 10:-1.5371016 
105 1:-1.0927486 2:0.69590428 3:-1.0542987 4:-0.90560876 5:1.6115181 6:0.44510809 7:-1.0022907 8:0.90665147 9:0.10078701 10:-1.0649263 
105 1:-0.038438399 2:0.14959061 3:-0.029899309 4:-0.15482025 5:0.027294823 6:0.059679897 7:0.47998609 8:-0.08700564 9:-0.47234114 10:0.037828826 
-105 1:-0.6446805 2:0.34416554 3:-0.64888129 4:-0.83791827 5:0.61236269 6:1.1735731 7:0.011956841 8:0.4326746 9:0.078256212 10:-0.9517551 
105 1:0.10133647 2:-0.42661867 3:0.084768348 4:-0.27776334 5:-0.077558918 6:1.7589726 7:0.17882695 8:-0.61794991 9:-0.2129753 10:-0.22262932 
105 1:-0.054458436 2:-0.46559509 3:-0.058795341 4:-0.2730361 5:0.15912512 6:1.8874406 7:-0.29030051 8:-0.65990964 9:0.113238 10:-0.26216337 
-105 1:1.1385137 2:-1.5272594 3:1.1703612 4:1.2895784 5:1.2309261 6:0.49546601 7:-1.77953 8:-1.2565459 9:-2.5151652 10:1.0413083 
105 1:0.046024505 2:-0.34464265 3:0.023728124 4:-0.092066803 5:0.2060481 6:1.0432004 7:-0.63028339 8:-0.38805205 9:0.2059458 10:-0.089516521 
105 1:1.7405685 2:0.074721997 3:1.7583092 4:0.31116354 5:-1.745114 6:-0.97518982 7:0.38523543 8:0.29307336 9:-0.47582534 10:0.17624023 
-105 1:-0.095944065 2:-0.080145422 3:-0.11051469 4:-0.090979417 5:0.12913271 6:0.4046094 7:0.051865614 8:-0.025877485 9:-0.094261288 10:-0.1556507 
105 1:0.75521431 2:-1.0865883 3:0.73283127 4:1.306498 5:2.2431966 6:-0.55124887 7:-2.1581254 8:-1.1159439 9:-3.1898264 10:1.356057 
105 1:1.2910769 2:0.53642171 3:1.3004593 4:0.034893552 5:-1.1863649 6:-1.3713222 7:-0.16750895 8:0.47519765 9:-0.083709412 10:0.15636922 
-105 1:0.94233212 2:-0.013072744 3:0.92845836 4:0.0055165419 5:-1.7899622 6:0.04216684 7:0.91474181 8:-0.052128855 9:0.56021099 10:0.020767186 
105 1:-0.16906677 2:-0.20231944 3:-0.19261455 4:-0.033116231 5:0.17391534 6:0.54134467 7:0.23097701 8:-0.085020638 9:-0.21349938 10:-0.15175111 
-105 1:0.10586982 2:-0.062139035 3:0.096514475 4:0.2371488 5:-0.29629924 6:-0.43594082 7:0.035923975 8:0.03604925 9:0.308056 10:0.16899057 
105 1:-0.9723716 2:1.5190668 3:-0.99128339 4:-1.119812 5:-0.093040743 6:-0.90116168 7:1.1167741 8:1.2799273 9:0.83496431 10:-0.87195598 
-105 1:0.68747903 2:-0.93023935 3:0.69560746 4:0.54004625 5:0.13522711 6:0.91494715 7:-0.71131883 8:-1.0407096 9:-0.7889913 10:0.61748849 
105 1:-1.6171302 2:0.68399132 3:-1.6145781 4:-0.62966833 5:1.6038301 6:-0.06743507 7:-0.20478123 8:0.86127871 9:0.30088769 10:-0.84652422 
105 1:-0.069746194 2:0.79906775 3:-0.056787065 4:-0.74827539 5:-0.80792884 6:-0.1156037 7:0.49871025 8:0.76146145 9:1.0558142 10:-0.69706441 
-105 1:-0.84682367 2:0.94600774 3:-0.8652608 4:-1.1612527 5:0.59195728 6:0.53999968 7:-0.033488965 8:1.1115467 9:0.54434941 10:-1.3480358 
-105 1:0.10874808 2:-0.13625419 3:0.11143435 4:0.3472744 5:0.060532119 6:-0.52373967 7:0.09287726 8:-0.18112731 9:-0.4041281 10:0.42393586 
105 1:-1.4358533 2:2.4785488 3:-1.4569616 4:-1.8759342 5:0.015632428 6:-1.4658816 7:1.4227735 8:2.2226458 9:1.1822523 10:-1.5031207 
105 1:0.56943945 2:0.3131842 3:0.59943052 4:-0.24073028 5:-3.3059603 6:-0.15223252 7:1.8795683 8:0.23583001 9:2.9376269 10:-0.1719788 
58.301733650039772 1:-2.4042168 2:4.2542676 3:-2.4251514 4:-4.0256622 5:-0.33156549 6:-0.51893019 7:2.1162861 8:4.3722241 9:2.8756474 10:-4.0684379 
105 1:-0.17632857 2:0.24238623 3:-0.19710849 4:-0.17946732 5:0.087249818 6:-0.097349686 7:0.13463638 8:0.21388436 9:0.049851108 10:-0.19137843 
105 1:-0.83897018 2:0.16501881 3:-0.83003494 4:0.69834345 5:0.62533996 6:-2.1704073 7:0.20420035 8:0.31062048 9:0.20441543 10:0.72556528 
105 1:0.45263556 2:-0.72096322 3:0.43614948 4:0.63009872 5:-0.45466258 6:0.24773015 7:-0.48319047 8:-0.7392665 9:0.48798359 10:0.59851612 
105 1:-0.44694446 2:-0.011979926 3:-0.45510703 4:-0.15878913 5:0.32485279 6:0.39732202 7:-0.062339343 8:0.16820641 9:0.30888602 10:-0.34089118 
-105 1:-0.67317177 2:0.2115402 3:-0.6951033 4:0.31294251 5:0.77927231 6:-1.3446916 7:-0.12413386 8:0.3269036 9:-0.013951138 10:0.32953661 
-105 1:-0.056294662 2:-0.077837302 3:-0.051841522 4:0.099033678 5:0.060634076 6:-0.023983306 7:0.12073879 8:0.0018998328 9:-0.13163117 10:-0.0048662357 
105 1:-0.46842121 2:-0.16931287 3:-0.41211771 4:0.21123429 5:2.1438929 6:-0.069457924 7:-1.171827 8:-0.20843158 9:-1.8403975 10:0.22118253 
72.183163881177151 1:0.96167652 2:-1.4672131 3:0.96657875 4:2.6174142 5:0.39808677 6:-2.941655 7:-1.4522061 8:-1.3158315 9:-1.0083432 10:2.7105094 
-105 1:-0.12577145 2:0.12897221 3:-0.1479028 4:-0.027219687 5:0.22642368 6:-0.27816894 7:-0.36189319 8:0.15918425 9:0.21242388 10:-0.013838816 
62.28958008886223 1:-0.93261717 2:0.77625499 3:-0.9232665 4:-1.1840776 5:0.72761324 6:1.0249464 7:-0.33085207 8:1.2256545 9:0.73470663 10:-1.6938236 
-105 1:-1.9395687 2:1.2613382 3:-1.893883 4:-0.34116051 5:-0.60864554 6:-2.2825629 7:2.9596674 8:1.2763846 9:1.6042139 10:-0.18116438 
-105 1:-0.091250033 2:-0.23654377 3:-0.093279328 4:-0.18817263 5:0.2573794 6:1.1052391 7:0.039676675 8:-0.34238936 9:-0.33138337 10:-0.20589538 
-105 1:-1.4509753 2:2.0419872 3:-1.4580792 4:-1.7114655 5:0.18155344 6:-0.73793333 7:1.3657649 8:1.8229075 9:0.95813031 10:-1.4778414 
-105 1:0.022812321 2:-0.40142468 3:0.0099250995 4:-0.00069686379 5:0.13192143 6:1.0150952 7:0.27445144 8:-0.40664189 9:-0.54392019 10:-0.085618194 
80.587975582145759 1:-0.62209722 2:0.98181592 3:-0.6208531 4:-0.86273053 5:-0.11627264 6:-0.31927704 7:0.36950416 8:1.0431589 9:0.97286877 10:-0.86269856 
105 1:0.05432797 2:-0.24035526 3:0.061293039 4:-0.00095235366 5:-0.48623968 6:0.6064505 7:0.46052947 8:-0.32841042 9:0.29720832 10:0.034811498 
105 1:-0.041309656 2:0.38426642 3:-0.037824114 4:0.49195251 5:0.41840949 6:-2.2103603 7:-0.45972943 8:0.45579778 9:-0.2101489 10:0.60647789 
