svm_type epsilon_svr
kernel_type rbf
gamma 0.10000000000000001
nr_class 2
total_sv 7821
rho -6.7953874200417959
SV
-1000 1:-0.26765735 2:-0.017784692 3:-0.28513882 4:-0.79284393 5:-0.1789792 6:2.078634 7:0.2961973 8:0.11148447 9:0.79304026 10:-1.0774976 
-1000 1:0.4188608 2:1.2189165 3:0.42240686 4:-1.1360019 5:-1.3468986 6:-0.087331692 7:1.4255266 8:1.072164 9:1.3963397 10:-1.0447448 
1000 1:-0.14890223 2:-0.11383041 3:-0.16673295 4:0.09855041 5:0.043878345 6:0.044206825 7:0.52533814 8:-0.056070507 9:-0.35410864 10:0.029903063 
1000 1:-0.76276788 2:-0.22421066 3:-0.73793338 4:0.36118891 5:1.1775236 6:-0.33602561 7:-0.57706388 8:-0.32882522 9:-1.1159474 10:0.46742308 
-1000 1:0.81034237 2:-2.4397266 3:0.83088165 4:1.8557181 5:-1.0031948 6:1.467814 7:-0.41506218 8:-2.5247108 9:1.5428941 10:1.7580944 
-1000 1:1.0444298 2:-0.024707313 3:1.0246786 4:0.61599435 5:-0.56053127 6:-1.4314894 7:-0.009697871 8:-0.21578845 9:-0.63447473 10:0.8384801 
-1000 1:1.1755464 2:-0.13773924 3:1.2046569 4:0.43233145 5:-1.4784159 6:-0.7562572 7:1.3093403 8:-0.16825128 9:0.2242597 10:0.51480738 
-1000 1:0.93627798 2:-0.49482781 3:0.94836516 4:0.58467625 5:-1.0409036 6:-0.23397419 7:0.61793102 8:-0.32128319 9:0.26138293 10:0.4161228 
-1000 1:-0.98011295 2:0.22617294 3:-1.00198 4:0.084601163 5:0.80900946 6:-0.72598616 7:0.040793093 8:0.2280902 9:-0.2070689 10:0.086110004 
-1000 1:-0.75208775 2:0.67296142 3:-0.71794363 4:-0.62033166 5:0.97196725 6:-0.17683281 7:-0.81003776 8:0.85926988 9:-0.30593283 10:-0.72760926 
-1000 1:0.0044621589 2:-0.46543554 3:0.0033549036 4:0.14971754 5:-0.10639167 6:0.80704336 7:0.34451773 8:-0.34310104 9:-0.078337591 10:-0.047195205 
1000 1:0.075471229 2:-0.18024244 3:0.051392049 4:0.36406272 5:-0.076144614 6:-0.42753435 7:0.26384251 8:-0.27845403 9:-0.2069443 10:0.44831265 
-1000 1:-0.0075096385 2:-0.020569811 3:-0.0023130058 4:-0.10886622 5:-2.0060203 6:0.29281785 7:2.4548245 8:0.12945372 9:3.0936963 10:-0.24555338 
1000 1:0.38016092 2:-0.15537904 3:0.36626149 4:0.074554499 5:-0.67783039 6:0.16871688 7:0.24562949 8:-0.0033751475 9:0.86451869 10:-0.060403268 
-1000 1:-0.42978281 2:2.3621526 3:-0.43457744 4:-1.5081955 5:-0.36816557 6:-2.1034588 7:1.0948619 8:2.0771853 9:0.80563151 10:-1.0512035 
1000 1:-1.3380334 2:0.7456493 3:-1.3017416 4:-0.66657307 5:1.8586294 6:-0.26172939 7:-1.8041779 8:0.72670702 9:-0.49370128 10:-0.5489312 
-1000 1:0.0067228298 2:0.95405254 3:0.0070662962 4:-1.0201142 5:-1.3963212 6:0.18222053 7:2.1768046 8:0.4372159 9:1.6213372 10:-0.50127625 
1000 1:0.65332856 2:0.17530757 3:0.66865779 4:-0.12640666 5:-1.7780413 6:-0.10398914 7:1.337887 8:0.23539692 9:2.2052648 10:-0.18880348 
1000 1:0.20305991 2:0.91477892 3:0.2078342 4:-0.69422903 5:-0.73123047 6:-0.62635325 7:0.64366807 8:0.48534477 9:0.94978224 10:-0.13868268 
-1000 1:-0.46505802 2:1.0293641 3:-0.47350215 4:-1.2618692 5:-0.45544904 6:0.56406772 7:0.91518031 8:1.0819484 9:1.3324859 10:-1.2886161 
-1000 1:-0.79311795 2:1.9033305 3:-0.79925088 4:-2.0266951 5:-0.48652362 6:0.36905861 7:1.6005604 8:1.5056649 9:1.3874713 10:-1.6357196 
-1000 1:0.88336608 2:-0.095030852 3:0.90640853 4:-0.0071402639 5:-1.1783331 6:0.30516271 7:0.74982615 8:-0.021112491 9:0.61539205 10:-0.1431082 
1000 1:-1.4706095 2:-0.073555948 3:-1.4864082 4:0.35223493 5:1.4031461 6:-0.69621974 7:-0.39484281 8:0.16008738 9:-0.37576248 10:0.15751641 
-1000 1:-0.5941957 2:0.95288957 3:-0.58300253 4:-0.45081324 5:0.5523261 6:-1.1804391 7:0.1667402 8:1.0453687 9:-0.48425404 10:-0.50601919 
-1000 1:-0.10559373 2:-0.98926536 3:-0.083193015 4:0.93739862 5:0.75313816 6:0.18548246 7:-1.0904556 8:-0.57100596 9:-0.76807347 10:0.4303132 
-1000 1:-1.7713557 2:1.0132352 3:-1.7418874 4:-0.43876444 5:0.91450805 6:-1.4564647 7:1.2267487 8:1.014718 9:-0.13347224 10:-0.30464551 
-1000 1:1.6055938 2:-0.28205389 3:1.5887211 4:0.72966072 5:-1.2845893 6:-1.186116 7:0.052839181 8:-0.061774354 9:0.14952062 10:0.62528332 
1000 1:-0.58258082 2:0.32540267 3:-0.57705645 4:-1.5596281 5:-0.68047091 6:3.0567054 7:1.4363284 8:0.086682541 9:1.6514827 10:-1.4522869 
-1000 1:0.30063764 2:-1.4345196 3:0.3020345 4:0.96298959 5:0.73279823 6:1.1009843 7:-1.2105397 8:-1.3864429 9:-1.4408976 10:0.86870695 
-1000 1:-0.48984028 2:-0.044734055 3:-0.50961519 4:0.088481151 5:1.221076 6:-0.027187904 7:-1.5390783 8:0.091561078 9:-0.73945065 10:-0.11707465 
-1000 1:-0.87261647 2:-0.39839718 3:-0.84065983 4:0.51601916 5:1.2570123 6:-0.29103537 7:-0.50392167 8:-0.54853331 9:-1.1921332 10:0.66062399 
1000 1:-1.5000973 2:-0.40484306 3:-1.4768006 4:0.80054694 5:1.3416887 6:-1.0820506 7:-0.20886604 8:0.044728147 9:-0.3802416 10:0.48354306 
1000 1:-0.70058305 2:0.72422211 3:-0.6945393 4:-0.46573619 5:0.50072209 6:-0.53802534 7:0.058962201 8:0.67969675 9:0.018461725 10:-0.45942343 
1000 1:0.28215131 2:-0.80678159 3:0.27283914 4:1.0987186 5:0.082259555 6:-0.68720979 7:-0.27868891 8:-1.0137882 9:-0.53699663 10:1.2698488 
-1000 1:0.46773312 2:-0.18625426 3:0.45851391 4:0.088275678 5:-0.75359674 6:0.21855767 7:0.63270226 8:-0.20161324 9:0.46466208 10:0.10734882 
-1000 1:-0.18854584 2:-1.0198697 3:-0.21483598 4:0.45900134 5:1.0506958 6:1.4561017 7:-1.6522099 8:-0.86618557 9:-0.7765536 10:0.14322577 
830.80566738679124 1:-1.9346973 2:3.6377293 3:-1.9552209 4:-3.8505926 5:0.74680904 6:0.69824101 7:0.53461083 8:3.6998487 9:1.5113939 10:-3.9522661 
-1000 1:-0.12538304 2:0.080457118 3:-0.1271441 4:-0.31360993 5:-0.096617479 6:0.60404523 7:0.29327653 8:0.22009799 9:0.23292167 10:-0.49826576 
1000 1:-0.84931638 2:0.80025184 3:-0.87674425 4:-0.38017273 5:0.63093673 6:-1.0481572 7:0.13630043 8:0.899589 9:-0.078969291 10:-0.39167906 
1000 1:-0.38899282 2:0.90932347 3:-0.36479834 4:-1.0687496 5:1.0240199 6:0.41731889 7:-1.5404917 8:0.95568791 9:-0.44002635 10:-1.1175612 
-1000 1:0.26914518 2:-0.997215 3:0.25743456 4:0.4023648 5:-0.47697591 6:1.4115918 7:-0.1591536 8:-1.182825 9:0.96832756 10:0.53536291 
-105.08122108597819 1:-0.93576281 2:1.701301 3:-0.95294792 4:-2.675146 5:-0.079028027 6:2.592627 7:0.79288957 8:1.7445717 9:1.4203335 10:-2.9287214 
-1000 1:-0.89520921 2:2.7970739 3:-0.89451395 4:-2.514817 5:-0.64990483 6:-0.63423774 7:1.7468092 8:2.6397721 9:1.9119343 10:-2.2799192 
-1000 1:-0.59219387 2:-0.019943483 3:-0.57610881 4:0.39112661 5:0.64614409 6:-0.92346695 7:-0.068769847 8:0.028438506 9:-0.50673009 10:0.38871264 
1000 1:-0.73097352 2:-0.055844399 3:-0.74473394 4:-0.24940441 5:1.0947683 6:0.71902903 7:-1.0565223 8:0.16060064 9:-0.3837558 10:-0.4638406 
-14.288605212587855 1:-1.3757048 2:0.30270488 3:-1.3686891 4:0.14547391 5:0.71333569 6:-1.1513584 7:0.92564307 8:0.4548731 9:-0.065759374 10:0.09712619 
-1000 1:-0.31133639 2:-0.39973235 3:-0.32911586 4:0.35266847 5:0.68383322 6:0.10369282 7:-0.28788209 8:-0.39955463 9:-0.95114835 10:0.34353525 
1000 1:0.43225094 2:0.8133165 3:0.43817745 4:-0.43111003 5:-0.57756777 6:-0.90242212 7:0.58974729 8:0.44289247 9:0.067169988 10:-0.034306233 
1000 1:1.9599275 2:-1.693286 3:1.958944 4:1.8752543 5:-0.8431319 6:-0.4938758 7:-0.48028263 8:-1.4148445 9:-1.3257283 10:1.5970399 
-16.72305548315331 1:-1.2790827 2:0.4660971 3:-1.3031278 4:-0.58780648 5:3.4144084 6:0.33691152 7:-3.9445171 8:0.6186852 9:-2.689986 10:-0.76576329 
1000 1:-2.4255782 2:0.93744299 3:-2.3703738 4:-0.70879505 5:1.9304529 6:-0.52135527 7:-0.088212866 8:0.97473824 9:-0.21987097 10:-0.72463719 
1000 1:-0.17235625 2:-0.027790889 3:-0.16940486 4:-0.47984148 5:0.25844519 6:1.2744936 7:-0.12047517 8:-0.24246779 9:-0.23817288 10:-0.3439172 
-1000 1:1.5801102 2:-1.5564776 3:1.5809017 4:1.9599863 5:-0.79718438 6:-1.0997182 7:-0.68301054 8:-1.328516 9:-0.41151582 10:1.8145887 
-1000 1:0.080938465 2:0.030861623 3:0.082447428 4:-0.034718544 5:-0.31649213 6:-0.021028091 7:0.2671419 8:-0.12440754 9:0.43929556 10:0.1465186 
-1000 1:-0.59960875 2:0.32207086 3:-0.62556742 4:-0.73930291 5:1.2539345 6:1.0783437 7:-0.82940226 8:0.39751576 9:-1.360529 10:-0.88947569 
1000 1:-1.8151428 2:1.6153325 3:-1.7885995 4:-1.2036814 5:0.88371613 6:-1.0233882 7:0.62766517 8:1.6683976 9:0.70567297 10:-1.1426442 
72.737447095969401 1:4.6650809 2:-0.47109116 3:4.6576968 4:1.1379266 5:-2.8123456 6:-1.7686338 7:-0.88294259 8:-0.088214967 9:-1.1222615 10:0.92830529 
1000 1:0.37757559 2:-0.21552922 3:0.3645665 4:0.15783692 5:-1.1997419 6:0.068786608 7:0.69042147 8:-0.25606153 9:1.8823676 10:0.2513244 
-1000 1:0.56395767 2:-0.75357053 3:0.54001815 4:0.12131419 5:0.81215547 6:1.589237 7:-1.4461879 8:-0.69685038 9:-1.9579751 10:-0.056666051 
1000 1:-0.032962841 2:0.66412538 3:-0.012955392 4:-0.66833725 5:-0.77501252 6:0.011656047 7:0.7797662 8:0.68700858 9:1.4247039 10:-0.66650234 
1000 1:0.26966683 2:0.023606826 3:0.26411467 4:-0.24659275 5:-0.51589013 6:0.50538549 7:0.42528145 8:0.11220747 9:0.43586975 10:-0.3142049 
1000 1:-0.04344847 2:0.3211389 3:-0.066738309 4:-0.3076918 5:-0.63494353 6:-0.051284707 7:1.291058 8:-0.051739335 9:0.53615066 10:0.088338634 
-1000 1:1.500927 2:-0.49659667 3:1.503244 4:0.92649723 5:-1.382221 6:-1.1155998 7:0.79234228 8:-0.288177 9:-0.16838235 10:0.79862369 
-1000 1:-0.26761446 2:0.20474359 3:-0.26338156 4:-0.70510111 5:-0.53007301 6:1.3061072 7:1.0294476 8:0.29422754 9:0.97836014 10:-0.90330189 
-1000 1:-1.8234676 2:0.46926534 3:-1.8358368 4:-0.52299656 5:1.8919796 6:0.10965259 7:-0.51947259 8:0.44687066 9:-0.87781756 10:-0.46713008 
1000 1:-0.15617863 2:-0.3791112 3:-0.18274778 4:0.18227308 5:0.31386934 6:0.50360134 7:-0.2993526 8:-0.62539457 9:-0.20554616 10:0.37164875 
-1000 1:0.13079325 2:0.10591204 3:0.14144373 4:-0.097444789 5:-1.0796381 6:0.066432975 7:1.0678765 8:0.16540245 9:1.6385793 10:-0.23166537 
1000 1:0.86974254 2:-0.92291861 3:0.84760455 4:1.0271594 5:-1.0281611 6:-0.2251742 7:0.36775653 8:-1.0833239 9:0.67934659 10:1.1295069 
-1000 1:-0.33080735 2:0.33628989 3:-0.35345387 4:-0.84110195 5:0.46455798 6:1.3257563 7:-0.32498651 8:0.22686246 9:-0.23392194 10:-0.8477749 
1000 1:-0.058290367 2:-0.89432415 3:-0.052120334 4:0.94993673 5:0.72297821 6:-0.16291286 7:-0.72290299 8:-0.96091377 9:-1.16706 10:1.0099343 
1000 1:1.3196348 2:-0.73465511 3:1.3463952 4:1.0175121 5:-0.95479826 6:-0.66204971 7:0.21190064 8:-0.76342425 9:-0.39455048 10:1.0132906 
-1000 1:0.76315238 2:-1.2620043 3:0.76364868 4:1.1049442 5:-0.22301576 6:0.4430791 7:-0.69528685 8:-1.508865 9:-0.26586553 10:1.2297452 
1000 1:0.6465783 2:-1.48792 3:0.62278613 4:1.0430099 5:-0.74084812 6:1.1383649 7:-0.21413635 8:-1.4932643 9:0.97638101 10:0.9062228 
-1000 1:1.1277838 2:0.73987029 3:1.1127053 4:0.33497445 5:-0.5305006 6:-2.758959 7:-0.10503986 8:0.55840687 9:-0.80347981 10:0.75280311 
-1000 1:1.5114034 2:-0.3996441 3:1.5370598 4:0.7066957 5:-1.2892222 6:-0.86547134 7:-0.28611079 8:-0.11501026 9:0.69068024 10:0.5442507 
-1000 1:-1.3554643 2:1.7850856 3:-1.3657763 4:-2.0431227 5:0.55010395 6:0.73617306 7:1.0706406 8:1.3620883 9:0.21951253 10:-1.6782824 
-1000 1:-1.3863713 2:0.48556639 3:-1.3766649 4:-0.13297934 5:1.4073786 6:-0.82922071 7:-0.28649839 8:0.37972726 9:-0.71707529 10:-0.011375058 
-1000 1:0.060678372 2:-0.031401069 3:0.04749166 4:-0.31702142 5:-0.40808506 6:0.86910285 7:0.54893459 8:-0.28723062 9:0.45542057 10:-0.11264578 
-1000 1:1.0662445 2:-0.5652091 3:1.0832271 4:0.81238956 5:-0.78649795 6:-0.68924624 7:0.067320304 8:-0.39488583 9:-0.15749133 10:0.72284189 
1000 1:-1.0734865 2:0.47021738 3:-1.0400169 4:-0.16874372 5:1.1132447 6:-0.78024497 7:-0.25875715 8:0.58869609 9:-0.61072731 10:-0.20129317 
1000 1:-1.7011045 2:1.1977935 3:-1.7174775 4:-1.1845018 5:1.5173825 6:0.085244016 7:-0.77221686 8:1.3166877 9:0.20996097 10:-1.3623397 
1000 1:0.58925145 2:-0.13787053 3:0.56967268 4:0.2489997 5:-0.78805239 6:-0.27371021 7:0.88570337 8:-0.012289859 9:0.034684531 10:0.13173011 
1000 1:-0.78983325 2:0.17026896 3:-0.81313483 4:0.3129669 5:1.0385458 6:-1.2786105 7:-0.20434897 8:-0.00049508853 9:-1.0116358 10:0.61728765 
-1000 1:-0.62503452 2:-0.55998539 3:-0.64654075 4:0.70762351 5:1.1124059 6:-0.40486937 7:-0.49887727 8:-0.44239743 9:-1.2637869 10:0.62363106 
1000 1:0.083716303 2:1.1867556 3:0.099088469 4:-1.2848805 5:-0.81477888 6:0.22896159 7:1.3197488 8:0.79839133 9:0.70183424 10:-0.85616651 
1000 1:0.0076524328 2:0.80905991 3:-0.0040845186 4:-0.57962003 5:-0.8181621 6:-0.50235861 7:1.2167993 8:0.83539727 9:1.0187998 10:-0.60904576 
1000 1:-0.71165567 2:0.54991398 3:-0.72039327 4:-0.75899977 5:0.54527209 6:0.62539012 7:0.2176161 8:0.51207527 9:-0.24188122 10:-0.82380626 
-1000 1:0.045683703 2:0.6850109 3:0.036486586 4:-0.3309862 5:-0.2937802 6:-0.85149102 7:0.61405206 8:0.55921854 9:0.084886562 10:-0.16453246 
-1000 1:-1.7218121 2:0.77925296 3:-1.6824938 4:-0.87728257 5:1.0637517 6:0.37072201 7:0.10648714 8:0.85752888 9:0.53935986 10:-1.0532684 
1000 1:2.0172221 2:-0.37270012 3:2.0352602 4:0.77497573 5:-1.4554075 6:-1.0946334 7:0.49541206 8:-0.2300421 9:-0.77675282 10:0.75725202 
1000 1:-0.39222831 2:-0.61055696 3:-0.36212909 4:1.0352471 5:1.3978426 6:-1.0805647 7:-1.4337985 8:-0.3034009 9:-1.628114 10:0.78510656 
1000 1:1.4768504 2:0.26172016 3:1.4784222 4:0.064862648 5:-2.0681544 6:-0.80349295 7:1.4809029 8:0.33981739 9:1.1032571 10:0.030482774 
-1000 1:-1.540986 2:1.2816721 3:-1.5255924 4:-0.87035014 5:1.1086984 6:-1.0617654 7:0.20541165 8:1.2614601 9:-0.065121879 10:-0.71422912 
-1000 1:1.2742216 2:-0.059098727 3:1.2649875 4:0.28891874 5:-0.98694504 6:-0.59761856 7:0.28829533 8:0.040148017 9:-0.24738903 10:0.24166811 
1000 1:0.25979196 2:-0.28817979 3:0.29392826 4:0.11372049 5:-1.4930618 6:0.45593037 7:0.97179063 8:-0.054019169 9:2.6228307 10:-0.16873077 
-1000 1:-1.6384284 2:0.94904837 3:-1.6486227 4:-0.50688313 5:1.2041201 6:-1.0232044 7:-0.18545258 8:0.79490081 9:0.32671534 10:-0.33559575 
1000 1:0.58696601 2:-1.4741265 3:0.5766456 4:0.88024734 5:-0.25576459 6:1.4089138 7:-0.0094227277 8:-1.4808028 9:-0.52309923 10:0.81968041 
-1000 1:-0.29866606 2:0.078633375 3:-0.29528609 4:-0.18782734 5:0.42493655 6:0.22946259 7:-0.32797084 8:0.075898945 9:-0.21532374 10:-0.15642652 
1000 1:1.3867292 2:-0.89523925 3:1.3791988 4:0.89488538 5:-1.0731741 6:0.027414213 7:0.4272863 8:-0.75333978 9:-0.39821318 10:0.69634223 
1000 1:-1.3438841 2:-0.14807331 3:-1.3558932 4:0.28784054 5:1.9123526 6:-0.3006986 7:-1.4282249 8:-0.022287364 9:-0.99183794 10:0.13246853 
-1000 1:-0.1134922 2:-0.026880452 3:-0.11850016 4:-0.31106834 5:-0.45254429 6:0.91969875 7:0.80224079 8:-0.077518336 9:0.67764926 10:-0.37734666 
1000 1:1.1118632 2:-0.35484042 3:1.1335202 4:0.4774191 5:-0.81843024 6:-0.313494 7:-0.021416914 8:-0.59895566 9:-0.073713577 10:0.72576049 
1000 1:-1.4843152 2:0.80671243 3:-1.4952345 4:-0.69825376 5:1.4924382 6:-0.16566477 7:-0.32541636 8:0.80575944 9:-0.68300551 10:-0.74907863 
1000 1:-0.62883821 2:-0.25496032 3:-0.6425452 4:0.51572119 5:0.98773614 6:-0.69846884 7:-0.4185216 8:-0.17458093 9:-0.99376129 10:0.50528808 
1000 1:-0.67981577 2:0.75495814 3:-0.6056775 4:-0.96599697 5:-0.23248722 6:0.23677399 7:0.99817578 8:0.82178307 9:0.98026104 10:-0.76084994 
-1000 1:-1.3156124 2:0.94229363 3:-1.2877133 4:-0.65136416 5:1.0975003 6:-0.80044458 7:0.014011034 8:1.0333165 9:-0.32909058 10:-0.59689187 
-1000 1:-1.4239558 2:1.1732418 3:-1.4420339 4:-1.0693378 5:1.1712273 6:-0.31389678 7:-0.10855018 8:1.1910343 9:-0.1211722 10:-0.97691354 
-1000 1:-0.45392489 2:0.74838348 3:-0.48064809 4:-0.30208329 5:0.088404356 6:-1.1710102 7:1.102704 8:0.58440584 9:-0.43642595 10:-0.000998726 
1000 1:-0.53634072 2:-0.19022639 3:-0.53081345 4:0.51910762 5:0.6794167 6:-0.75532547 7:-0.14635794 8:-0.064717505 9:-0.62786289 10:0.37096546 
-1000 1:1.5745951 2:-0.43124358 3:1.6048597 4:0.59654499 5:-1.1738105 6:-0.50730827 7:0.35044346 8:-0.45161396 9:-0.47613466 10:0.70910256 
755.94868960748272 1:0.83808583 2:-1.5830177 3:0.83550875 4:2.6859714 5:0.29847086 6:-2.8893928 7:-1.2674953 8:-1.4545873 9:-1.2989868 10:2.7691945 
-98.989719030167876 1:-0.88981861 2:1.9316645 3:-0.91580405 4:-2.2939815 5:-0.34969923 6:0.9849679 7:0.72896749 8:2.1491066 9:2.1760349 10:-2.5538721 
1000 1:1.0031416 2:-0.22175377 3:1.0077674 4:0.25202249 5:-0.93366047 6:-0.069191059 7:0.55637011 8:-0.44241789 9:-0.11680898 10:0.45764316 
1000 1:-0.97275559 2:0.3044698 3:-0.96027554 4:-0.48418043 5:1.1492361 6:0.45489051 7:-0.62855511 8:0.46563965 9:-0.50793554 10:-0.65960093 
1000 1:0.77311669 2:-1.572915 3:0.75588517 4:1.8382084 5:0.55332595 6:-0.65561777 7:-1.5270437 8:-1.4583932 9:-1.5901693 10:1.6933472 
1000 1:1.2586986 2:-3.3927087 3:1.2352298 4:2.9148843 5:-0.19142711 6:1.045519 7:-1.2968744 8:-3.8385906 9:-0.75476792 10:3.293409 
1000 1:-1.1422624 2:0.50674678 3:-1.1440643 4:-0.80762107 5:1.0022658 6:0.79089052 7:-0.19201177 8:0.58852216 9:-0.17678643 10:-0.94436784 
1000 1:0.12521796 2:0.28750296 3:0.097913228 4:-0.50097524 5:-0.68812344 6:0.49755146 7:0.46902824 8:0.34762884 9:1.2206975 10:-0.54393599 
1000 1:-1.0944681 2:0.80474161 3:-1.0825751 4:-1.3001109 5:0.87196331 6:1.1828767 7:-0.076436265 8:1.1151023 9:-0.047750132 10:-1.5879644 
-1000 1:-0.10095286 2:-0.6380028 3:-0.11422843 4:0.12093925 5:0.78981356 6:1.2567224 7:-1.3380182 8:-0.50348912 9:-0.57507611 10:-0.07195907 
-1000 1:0.61716182 2:-0.52839344 3:0.59121899 4:0.43506191 5:-0.51800055 6:0.3096483 7:0.33251889 8:-0.61841013 9:-0.19173786 10:0.41936049 
-1000 1:1.9783743 2:-0.98612726 3:2.0080586 4:1.3241088 5:-1.0659062 6:-0.98236453 7:-0.23236535 8:-0.76464175 9:-1.0300246 10:1.2415315 
-1000 1:0.9867761 2:0.07134414 3:0.98930694 4:0.16231497 5:-0.7528134 6:-0.55167767 7:0.20122228 8:0.085857231 9:-0.21110903 10:0.15220879 
-1000 1:-0.19380993 2:-0.51033931 3:-0.18679857 4:0.76259437 5:0.76000659 6:-0.7439664 7:-0.69159454 8:-0.40210729 9:-1.0131455 10:0.7756708 
1000 1:-1.4331173 2:0.54023924 3:-1.4409864 4:-0.10642137 5:0.97284414 6:-1.0331893 7:0.33485311 8:0.74288241 9:-0.025876074 10:-0.27315065 
1000 1:-0.17238318 2:0.28000351 3:-0.17943967 4:-0.70775673 5:-0.12290237 6:1.1767169 7:0.044427181 8:-0.073502623 9:0.68738917 10:-0.50754448 
-1000 1:0.62985775 2:0.730979 3:0.6421024 4:-0.49801176 5:-0.69445622 6:-0.61399127 7:0.50197557 8:0.63899396 9:0.060830532 10:-0.31879247 
1000 1:0.6737662 2:-0.15077413 3:0.68805593 4:-0.18809106 5:-1.1022824 6:0.83130235 7:0.31095357 8:-0.26071328 9:1.3410559 10:-0.11712142 
1000 1:0.78121215 2:-0.014631524 3:0.79821714 4:0.26724235 5:-0.97566438 6:-0.72001197 7:0.61300539 8:0.039839379 9:0.41193687 10:0.32931812 
1000 1:0.79545575 2:-1.1823426 3:0.80697887 4:0.84822455 5:-0.65683803 6:0.71658709 7:-0.46114819 8:-1.1891734 9:0.64156413 10:0.87393104 
1000 1:-0.16553151 2:-0.28571142 3:-0.19165392 4:-0.80317126 5:-0.023016841 6:2.7113846 7:-0.097413366 8:-0.094912937 9:0.56105499 10:-1.1376723 
-1000 1:0.62209742 2:-0.061141291 3:0.61597093 4:0.076845069 5:-0.81823835 6:-0.044429256 7:0.51765009 8:-0.11937383 9:0.43582411 10:0.13842436 
-838.68065549302651 1:1.3473746 2:-2.0292677 3:1.3317373 4:1.20259 5:1.0007062 6:1.9426135 7:-3.2500482 8:-1.9758575 9:-2.2504225 10:1.0749973 
-1000 1:0.90351479 2:-0.6976174 3:0.88798 4:0.62118203 5:-1.3986461 6:0.095734442 7:0.48811194 8:-0.46061563 9:1.5305571 10:0.43988261 
-1000 1:-0.050372284 2:-0.56178115 3:-0.055190202 4:-0.24831385 5:0.060337787 6:2.0520484 7:-0.39613718 8:-0.88561617 9:0.37311413 10:-0.086762592 
1000 1:0.26182006 2:-0.56087681 3:0.28998195 4:0.38252496 5:1.437815 6:0.49086541 7:-1.7944641 8:-0.91789022 9:-2.7725554 10:0.64475293 
-1000 1:0.95047936 2:-0.049617699 3:0.92599699 4:0.15155621 5:-1.2710207 6:-0.26919218 7:0.64744222 8:0.15066623 9:0.89837259 10:-0.019591255 
-1000 1:0.37482568 2:-1.2981729 3:0.3648327 4:0.69410181 5:0.54837542 6:1.4819412 7:-1.0319528 8:-1.5211526 9:-1.2553778 10:0.80687664 
-1000 1:-1.3793972 2:2.4024888 3:-1.4053691 4:-2.5603651 5:0.50680251 6:0.4334411 7:0.67431112 8:2.2398617 9:0.84441296 10:-2.3645637 
1000 1:-1.1393826 2:1.3427689 3:-1.1417505 4:-0.98446593 5:0.89455796 6:-0.93053505 7:-0.21883242 8:1.4948216 9:0.15581081 10:-1.0006667 
-1000 1:-0.51573934 2:0.23591584 3:-0.52010318 4:-0.48879052 5:-0.83748248 6:0.63875501 7:1.640337 8:0.41679289 9:1.7450598 10:-0.69691964 
-1000 1:-0.6417717 2:0.74057769 3:-0.64748906 4:-1.3406273 5:0.55666435 6:1.5388231 7:0.048224625 8:0.46595169 9:-0.24564244 10:-1.1592787 
-624.0494756520236 1:-0.973695 2:-0.16099448 3:-0.9778995 4:0.59113772 5:1.9496329 6:-1.0379479 7:-1.2738366 8:-0.12217715 9:-2.0816825 10:0.57003198 
-1000 1:-1.8981865 2:1.5991168 3:-1.902544 4:-1.4205113 5:1.1300525 6:-0.44333937 7:0.10556423 8:1.5442635 9:0.78179281 10:-1.2833369 
1000 1:-0.32598163 2:0.39632133 3:-0.33638559 4:-1.1200353 5:-0.23867191 6:1.8847567 7:0.38687583 8:0.43950597 9:0.98491041 10:-1.3142203 
1000 1:-0.080579229 2:-0.6389405 3:-0.10369119 4:0.61603884 5:0.19841288 6:0.034774272 7:-0.22448267 8:-0.53090339 9:-0.12421987 10:0.5030394 
-1000 1:1.7473483 2:-0.94493447 3:1.7279879 4:1.4654004 5:-0.69675841 6:-1.3962011 7:-0.34948092 8:-0.6435565 9:-1.4050907 10:1.2914117 
1000 1:0.11021464 2:-0.18244176 3:0.093991543 4:-0.091347664 5:-1.0184823 6:0.673645 7:0.66909271 8:0.058836855 9:1.9713438 10:-0.36163264 
-1000 1:-1.0896188 2:0.60388373 3:-1.0181631 4:-0.71792908 5:0.45527804 6:-0.56284391 7:0.33970688 8:1.085664 9:0.61929888 10:-0.39566521 
-1000 1:-0.039832461 2:0.16125068 3:-0.047241686 4:-0.29630108 5:-0.69766219 6:0.40987233 7:0.8707904 8:0.16936189 9:1.1484852 10:-0.383097 
1000 1:-0.083205623 2:-0.01810252 3:-0.076154878 4:-0.27665083 5:-0.63074958 6:0.76485098 7:0.87660634 8:-0.21755673 9:1.028894 10:-0.14752202 
1000 1:0.069171473 2:1.544114 3:0.048718809 4:-1.008961 5:-0.53659881 6:-1.3079074 7:0.27736546 8:1.3894395 9:1.1092227 10:-0.75303637 
-1000 1:0.33825564 2:-1.3882423 3:0.31500673 4:1.1457198 5:0.19537747 6:0.57598366 7:-0.40438998 8:-1.4055359 9:-0.8317194 10:1.1040547 
1000 1:1.3656053 2:-1.2778979 3:1.3684346 4:1.4400418 5:-0.36496617 6:-0.47762114 7:-0.7445924 8:-0.93005672 9:-1.1195971 10:1.1382376 
208.42581469435652 1:-1.4521665 2:2.1852883 3:-1.4604191 4:-3.0521586 5:-0.85907298 6:2.224826 7:2.8448447 8:1.8448247 9:2.5394434 10:-2.8034637 
-1000 1:-1.4352472 2:0.60580074 3:-1.4241484 4:-0.43159794 5:1.1394456 6:-0.36820064 7:0.19438562 8:0.48062652 9:-0.36695707 10:-0.32428887 
-1000 1:-2.2195496 2:0.47370345 3:-2.2024221 4:-0.14379953 5:1.7870266 6:-0.85966836 7:-0.18464977 8:0.42189651 9:-0.1106347 10:0.0021621209 
1000 1:0.59308556 2:-1.5042688 3:0.61580522 4:1.3856683 5:1.120718 6:0.23167926 7:-1.8657498 8:-1.4196514 9:-2.5007336 10:1.2882843 
1000 1:-0.49820704 2:0.18937091 3:-0.4880396 4:-0.72628183 5:0.71862481 6:1.3478418 7:-0.85060726 8:0.25522653 9:-0.061756193 10:-0.86082425 
1000 1:-0.57238893 2:0.29821942 3:-0.54995803 4:-0.45627876 5:0.77349197 6:0.40113722 7:-0.35213521 8:0.36047742 9:-0.61365037 10:-0.53246205 
1000 1:2.1843445 2:-1.0129651 3:2.1979113 4:1.4502003 5:-1.2906563 6:-1.078831 7:-0.16043317 8:-0.9507304 9:-0.89454964 10:1.3953471 
1000 1:0.81093251 2:-1.4060729 3:0.82550057 4:1.1471058 5:-0.73694187 6:0.53471399 7:-0.089403933 8:-1.3658528 9:0.42964837 10:1.1225086 
-1000 1:1.7892203 2:-0.15039819 3:1.7665685 4:0.80893746 5:-1.2533576 6:-1.6245873 7:-0.20843387 8:0.25087489 9:-0.049300404 10:0.478329 
-1000 1:-0.1671397 2:0.08682372 3:-0.17779193 4:-0.31526889 5:-0.099349778 6:0.54466737 7:0.26272231 8:0.031345848 9:0.37465788 10:-0.26374496 
-1000 1:-0.17657138 2:-0.12038283 3:-0.17733342 4:-0.27533679 5:0.13663512 6:0.9989203 7:-0.15450411 8:-0.1557642 9:0.16158594 10:-0.30751734 
1000 1:-0.22759332 2:-0.42090592 3:-0.20732802 4:0.26514878 5:0.9359506 6:0.41907421 7:-1.2638629 8:-0.44018409 9:-0.83576677 10:0.21916127 
-1000 1:1.5551462 2:-0.43491905 3:1.5840295 4:0.67567062 5:-1.3525675 6:-0.69316506 7:0.23722048 8:-0.4299274 9:0.20388593 10:0.77084433 
1000 1:0.72570627 2:0.2714487 3:0.70713662 4:0.22601456 5:-0.72936875 6:-1.3055466 7:0.69437229 8:0.23329272 9:-0.22367783 10:0.39827036 
1000 1:0.37248205 2:-1.3757914 3:0.37636084 4:1.0576938 5:-0.4034413 6:0.84256411 7:-0.041944204 8:-1.0486388 9:0.38770698 10:0.59690586 
1000 1:1.5300649 2:-1.2455727 3:1.5159001 4:1.3650786 5:-0.63091357 6:-0.29740423 7:-0.52514364 8:-1.413789 9:-0.93517185 10:1.4961635 
1000 1:-0.078118075 2:-0.17552847 3:-0.097632641 4:-0.13072831 5:0.040897472 6:0.75684574 7:0.16580997 8:-0.16093091 9:-0.10647576 10:-0.18490588 
1000 1:-0.19727101 2:0.051361162 3:-0.18260803 4:-0.46804759 5:-0.81660854 6:1.0101046 7:1.0123112 8:0.034573765 9:1.6545601 10:-0.476352 
-1000 1:1.5590638 2:0.26508425 3:1.5906557 4:0.16117745 5:-1.6514716 6:-0.98868654 7:0.63663411 8:0.21318687 9:0.61515226 10:0.20833888 
-1000 1:0.44191735 2:1.8224429 3:0.42439732 4:-0.98185303 5:-0.81589905 6:-1.9797281 7:0.53746041 8:1.5503681 9:0.81237375 10:-0.64406567 
-1000 1:2.1323639 2:-0.19052234 3:2.1359908 4:0.57138967 5:-2.8158358 6:-0.95402993 7:2.072367 8:-0.048987165 9:1.1745884 10:0.47824046 
1000 1:0.074872772 2:-0.31600802 3:0.062383814 4:-0.17107101 5:-0.17164227 6:1.309944 7:0.074251121 8:-0.41272208 9:0.26214938 10:-0.23966271 
1000 1:-0.45447049 2:2.1688961 3:-0.46668961 4:-1.6863385 5:-0.56447627 6:-1.1547744 7:1.527307 8:1.8612644 9:0.95992421 10:-1.2833336 
1000 1:0.13089598 2:-0.77019623 3:0.11509597 4:0.2647343 5:0.61640302 6:1.3145215 7:-0.9543689 8:-0.88012376 9:-0.99742617 10:0.22726387 
1000 1:0.40487121 2:-0.87357889 3:0.38455758 4:0.6974035 5:-1.0462078 6:0.33950484 7:0.69139995 8:-0.7047147 9:1.3892838 10:0.56778665 
1000 1:0.97897588 2:-0.23823777 3:0.99887125 4:0.44159823 5:-0.59275329 6:-0.62137566 7:-0.061842689 8:-0.17851309 9:-0.38585301 10:0.50590622 
710.11073566203493 1:-0.031976384 2:-1.6767073 3:-0.02864679 4:2.2929797 5:1.03676 6:-1.7042197 7:-0.91495886 8:-1.1098669 9:-1.9124746 10:1.9067829 
-1000 1:-2.4255614 2:0.73907464 3:-2.3823292 4:-0.2917669 5:1.4746421 6:-1.163824 7:0.8804497 8:0.68993809 9:0.046326065 10:-0.11242359 
1000 1:0.25898039 2:-0.16497199 3:0.25836824 4:0.0079553272 5:-0.46548342 6:0.46140355 7:0.049634277 8:-0.41092822 9:0.71811138 10:0.15751808 
1000 1:-0.66825458 2:-0.57296683 3:-0.69482412 4:1.1597922 5:0.98148151 6:-1.5855793 7:-0.76813296 8:-0.35467073 9:-0.49536456 10:1.1124079 
1000 1:0.049932747 2:0.79359539 3:0.039531165 4:-0.81796994 5:-1.0143224 6:0.1428954 7:1.2298315 8:0.94929687 9:1.4738823 10:-1.0188349 
1000 1:1.6113157 2:-0.6364255 3:1.6343798 4:0.63980456 5:-1.194003 6:-0.083959834 7:0.50924641 8:-0.64242085 9:-0.66323374 10:0.69134034 
1000 1:-0.43418047 2:0.13157646 3:-0.42411141 4:-0.35234944 5:1.0557127 6:0.63280425 7:-0.98166831 8:0.2737636 9:-1.02556 10:-0.59120836 
1000 1:-0.067633942 2:-0.41097327 3:-0.080994928 4:0.27327169 5:0.12172722 6:0.31660107 7:-0.053910111 8:-0.6168891 9:-0.12870696 10:0.46611162 
-1000 1:-0.82423688 2:0.012612708 3:-0.77751757 4:-0.24157594 5:1.3048851 6:0.63619953 7:-1.1129113 8:0.16498468 9:-0.78792493 10:-0.48028636 
-1000 1:-0.62698067 2:0.35426761 3:-0.6546563 4:-0.49988785 5:0.50526233 6:0.44182299 7:0.17626143 8:0.49302834 9:-0.24586629 10:-0.71373294 
1000 1:0.099491958 2:-0.6635761 3:0.079992465 4:0.51876446 5:0.19570495 6:0.3727909 7:-0.1596633 8:-0.69601314 9:-0.58314839 10:0.49521915 
1000 1:-0.53890693 2:-0.22463538 3:-0.51872963 4:0.041929057 5:0.85499385 6:0.3342407 7:-1.1800498 8:-0.35096877 9:-0.016596171 10:0.24595162 
1000 1:0.22471441 2:-1.3328351 3:0.20589099 4:0.63225783 5:-1.0252609 6:1.7641105 7:0.34758556 8:-1.2610657 9:2.094271 10:0.40402404 
1000 1:0.46803168 2:0.49811449 3:0.46559331 4:-0.35398864 5:-0.74890147 6:-0.27568539 7:0.42735218 8:0.49964958 9:0.66672056 10:-0.39515566 
-1000 1:0.30121016 2:-0.77315963 3:0.29915362 4:0.56412749 5:-0.15535957 6:0.49311452 7:-0.54503081 8:-1.0936335 9:0.38533665 10:0.84716408 
1000 1:0.43849517 2:0.10618109 3:0.45340701 4:-0.12775354 5:-1.1287034 6:0.06814864 7:1.3240529 8:0.10954226 9:0.82563438 10:-0.14298791 
-1000 1:-0.74613759 2:-0.76433005 3:-0.77125339 4:0.81659294 5:1.3242494 6:-0.079921173 7:-0.66752366 8:-0.60832907 9:-1.4202848 10:0.59393547 
-1000 1:0.64096378 2:-1.7595639 3:0.62518386 4:1.1577643 5:-0.67707936 6:1.4109448 7:-0.20990374 8:-1.5434189 9:0.79231583 10:0.88318804 
1000 1:0.9182734 2:0.069467305 3:0.94425182 4:0.18818132 5:-1.1843559 6:-0.58204332 7:0.70622907 8:-0.28768591 9:0.60092742 10:0.51792145 
-1000 1:-0.51304961 2:-0.26507306 3:-0.492871 4:0.075472069 5:0.84981052 6:0.46371934 7:-1.1729813 8:-0.049084361 9:-0.065736917 10:-0.16244583 
-1000 1:-1.6430718 2:0.33964107 3:-1.5829856 4:-0.28562811 5:2.4224147 6:-0.19835612 7:-1.3914155 8:0.2476214 9:-1.9222261 10:-0.11624935 
-1000 1:-0.41845535 2:0.73018048 3:-0.40707707 4:-0.85064764 5:-0.48952962 6:0.35024036 7:1.5328788 8:0.42888777 9:0.63468352 10:-0.58868569 
-1000 1:0.39283458 2:0.21786565 3:0.40139627 4:-0.036115552 5:-0.62463419 6:-0.38854803 7:0.53892829 8:-0.22417114 9:0.34051421 10:0.36887716 
1000 1:-0.62345227 2:0.91303625 3:-0.64648951 4:-1.6068719 5:-0.48328079 6:1.856814 7:1.0912834 8:0.64949791 9:1.5814887 10:-1.5197339 
1000 1:0.35294144 2:-0.33940604 3:0.35442789 4:-0.00556179 5:-0.86090996 6:0.94912817 7:0.82679941 8:-0.23671961 9:0.79960791 10:-0.24619324 
1000 1:-0.30231083 2:-0.0066635872 3:-0.32244241 4:-0.41103929 5:-0.042749411 6:1.0475176 7:0.51639282 8:-0.30581374 9:0.24080995 10:-0.17742978 
-1000 1:-0.55853998 2:0.32298345 3:-0.56150348 4:0.31264069 5:0.73345722 6:-1.6964407 7:-0.35914454 8:0.63289963 9:-0.49364767 10:0.20668161 
-1000 1:-0.21705267 2:-0.084235825 3:-0.200972 4:0.11792634 5:0.53535815 6:-0.13193177 7:-0.19107854 8:-0.14410926 9:-0.87275961 10:0.22205983 
-1000 1:-1.6260414 2:0.58865741 3:-1.6406057 4:-0.54823343 5:1.7108505 6:-0.14997148 7:-1.1378506 8:0.70494714 9:-0.11249502 10:-0.58844345 
-1000 1:-0.48960905 2:0.425903 3:-0.50269684 4:-0.6200411 5:0.64638647 6:0.55936946 7:-0.2164952 8:0.57444244 9:-0.53825351 10:-0.8437069 
-1000 1:0.52398973 2:-0.40278364 3:0.53007784 4:0.40786598 5:-0.96217066 6:-0.067626776 7:0.73200771 8:-0.2459583 9:0.81579087 10:0.29012496 
-1000 1:-0.19700237 2:0.43161457 3:-0.19548776 4:-0.26747337 5:-0.031876899 6:-0.4064661 7:0.73885169 8:0.14279509 9:-0.28551342 10:0.05079606 
-1000 1:0.30249153 2:-0.088634477 3:0.31205532 4:0.083418808 5:-1.0228416 6:0.083157104 7:1.1472858 8:-0.27644191 9:1.016394 10:0.19826661 
1000 1:0.66833719 2:0.52351704 3:0.66501228 4:0.020947463 5:-0.68532158 6:-1.4325157 7:0.45150091 8:0.41957916 9:0.022708313 10:0.28257702 
-1000 1:1.0818639 2:0.26511008 3:1.105894 4:0.061548947 5:-0.99524255 6:-0.86895403 7:0.3680147 8:0.20162401 9:0.072372819 10:0.22651542 
1000 1:-1.6287877 2:-0.13194839 3:-1.6461432 4:0.38109936 5:1.437566 6:-0.68252595 7:0.22027604 8:-0.17113134 9:-0.79799011 10:0.50315468 
-1000 1:-1.190735 2:0.65995631 3:-1.206764 4:-0.65801698 5:1.0609349 6:-0.018768171 7:-0.075114779 8:0.88368643 9:-0.35133626 10:-0.83832076 
-1000 1:-0.90943553 2:0.043653657 3:-0.89042523 4:0.076518854 5:0.78971357 6:-0.31393553 7:-0.026162887 8:0.25249311 9:-0.27725496 10:-0.097720306 
1000 1:1.5129514 2:-1.3749448 3:1.5106415 4:1.2841545 5:-1.0080811 6:0.093984536 7:-0.028586943 8:-1.3965598 9:-0.36925713 10:1.3628198 
1000 1:0.5030587 2:-0.19292219 3:0.50286363 4:0.14231837 5:-0.61840632 6:0.14037417 7:0.84233652 8:-0.34724464 9:-0.23821417 10:0.26632839 
-1000 1:-0.020996529 2:-0.34453648 3:0.0068872816 4:-0.0070241114 5:0.89063733 6:0.8889213 7:-1.643163 8:-0.39429925 9:-0.75108422 10:-0.028288596 
1000 1:0.21168899 2:-0.48718702 3:0.22103736 4:-0.076287731 5:-0.64813262 6:1.4067133 7:0.33960175 8:-0.66255398 9:1.018623 10:0.002563074 
1000 1:0.84382237 2:-0.73942863 3:0.85958722 4:0.65171355 5:-0.41082506 6:0.1823539 7:-0.31648967 8:-0.84038782 9:-0.33172749 10:0.74425111 
1000 1:0.59759161 2:0.52319061 3:0.60467104 4:-0.24991916 5:-0.74274455 6:-0.70471516 7:0.92217068 8:0.2511733 9:-0.18219499 10:0.093716418 
1000 1:0.16213842 2:0.55903198 3:0.14803999 4:-0.37270084 5:-0.8409634 6:-0.47854475 7:1.0501542 8:0.56711355 9:0.93175054 10:-0.32195332 
435.11364749849093 1:0.12362872 2:-0.34562879 3:0.14362784 4:-0.55389171 5:0.79768361 6:2.2214055 7:-0.86044638 8:-0.40149854 9:-1.6429286 10:-0.60824385 
-1000 1:0.84085037 2:0.13505177 3:0.84140226 4:-0.13764556 5:-1.1383936 6:0.067660253 7:0.8358665 8:-0.12182077 9:0.52422804 10:0.062231576 
1000 1:0.47885777 2:-0.14796031 3:0.45176194 4:0.13833494 5:-1.2588758 6:-0.019779188 7:1.3213883 8:0.033832009 9:1.1598326 10:-0.0061960804 
1000 1:1.379805 2:-2.7521464 3:1.386782 4:2.1917117 5:-0.77630728 6:1.2153284 7:-0.74176195 8:-2.8863074 9:0.022070817 10:2.3127044 
1000 1:0.85346119 2:-0.6102664 3:0.85819702 4:0.40167495 5:-0.8874058 6:0.56980763 7:0.35670854 8:-0.63489586 9:0.29373872 10:0.32914605 
-1000 1:1.303131 2:0.17848154 3:1.2863195 4:-0.060553477 5:-1.2037555 6:-0.26460566 7:0.3584855 8:0.24299182 9:0.24353017 10:-0.12895121 
1000 1:0.18506232 2:-0.77827681 3:0.16018969 4:0.080840151 5:-0.0028513804 6:1.7757164 7:-0.031438852 8:-0.86994892 9:-0.33358057 10:0.016713377 
1000 1:-0.92448422 2:2.0894276 3:-0.91393803 4:-2.4915933 5:0.9967338 6:1.0849126 7:-0.76170003 8:2.1621513 9:-0.028465174 10:-2.6092103 
-1000 1:0.01139229 2:0.060155595 3:-0.0012309322 4:-0.061980141 5:0.84521625 6:0.090659534 7:-0.8068267 8:0.16288389 9:-1.5577353 10:-0.24035101 
1000 1:-0.68121267 2:0.49550156 3:-0.69952442 4:-0.74711408 5:0.53150897 6:0.62092976 7:0.31247667 8:0.28662752 9:-0.3615485 10:-0.54948251 
-1000 1:1.6691001 2:-1.6476153 3:1.6767963 4:1.6534736 5:-0.89993249 6:-0.13020169 7:-0.1975692 8:-1.5827797 9:-0.84657956 10:1.6336469 
1000 1:-0.1749853 2:-0.41873888 3:-0.15279311 4:0.044804979 5:1.3106857 6:1.0254699 7:-1.7564623 8:-0.48690448 9:-1.4913133 10:-0.039054186 
-1000 1:-1.6516283 2:0.11360305 3:-1.6467055 4:0.089712933 5:1.5368989 6:-0.5673268 7:0.11640927 8:0.12010418 9:-0.94444451 10:0.1698808 
1000 1:-0.23884564 2:0.038386897 3:-0.24043508 4:-0.0081245594 5:0.26208632 6:-0.0048085692 7:0.236945 8:-0.22523518 9:-0.48798773 10:0.19005375 
-1000 1:0.24549948 2:-0.87175084 3:0.241276 4:0.24383109 5:-0.13989607 6:1.5189488 7:-0.41024701 8:-1.0689049 9:0.317915 10:0.36567455 
1000 1:-0.35338646 2:0.79040635 3:-0.35606655 4:-1.3602444 5:0.77341648 6:1.5016065 7:-0.96168482 8:0.85100143 9:-0.39945847 10:-1.5368495 
1000 1:-0.78124556 2:0.60709573 3:-0.75996282 4:-0.53050022 5:0.89066864 6:-0.10034696 7:-0.36071822 8:0.67747489 9:-0.48434314 10:-0.6499814 
-1000 1:0.92158087 2:0.52493543 3:0.90149993 4:-0.34680836 5:-1.0785362 6:-0.37480018 7:0.82246632 8:0.39941193 9:0.21369684 10:-0.24478823 
1000 1:0.90372624 2:-0.41835613 3:0.88008739 4:0.45021682 5:-0.9310558 6:-0.15595469 7:0.50517582 8:-0.51754838 9:0.17875412 10:0.60611108 
1000 1:-0.78975745 2:0.22967479 3:-0.76165182 4:-0.32120009 5:0.90266106 6:0.3157901 7:-0.58033001 8:0.28762847 9:-0.26857054 10:-0.46198118 
-24.915549681847445 1:5.41422 2:-1.2564574 3:5.4978038 4:2.4300828 5:-1.4910172 6:-3.0264838 7:-3.6501277 8:-1.3635099 9:-3.6313764 10:2.7295436 
1000 1:-1.0750949 2:0.54630451 3:-1.0936361 4:-0.35273567 5:0.69360805 6:-0.49636279 7:0.46691958 8:0.69747502 9:-0.13663364 10:-0.44198865 
1000 1:0.79833832 2:-0.3329207 3:0.77995831 4:0.37521548 5:-1.2002629 6:-0.1074457 7:0.85556736 8:-0.26932788 9:0.79349447 10:0.30724064 
-1000 1:-0.36713052 2:-0.20358664 3:-0.39240386 4:-0.38139357 5:0.75461294 6:1.4639556 7:-1.166193 8:-0.21203704 9:-0.068311529 10:-0.46111746 
1000 1:1.9862177 2:0.50226347 3:2.0026429 4:0.71961299 5:-0.90605873 6:-3.1194433 7:-0.47988156 8:0.59927677 9:-1.2218274 10:0.86853488 
-1000 1:-0.98712504 2:1.050391 3:-0.96775423 4:-0.78172718 5:1.406003 6:-0.65967896 7:-1.1112201 8:1.0704827 9:-0.69535843 10:-0.73541782 
-1000 1:-1.2107986 2:0.23124527 3:-1.1719507 4:0.10023692 5:1.0366628 6:-0.86515596 7:0.30586924 8:0.1611105 9:-0.71250416 10:0.25636471 
-1000 1:0.14243689 2:-0.64812343 3:0.12932264 4:0.65595082 5:0.49911173 6:0.04624688 7:-1.2345568 8:-0.92646901 9:-0.38390213 10:0.84343688 
-47.358180876872005 1:-0.72290067 2:0.99708701 3:-0.75038654 4:-1.4806056 5:-0.0080793974 6:1.2188318 7:0.30950233 8:1.2693091 9:1.2906343 10:-1.7828075 
-1000 1:-0.53722028 2:0.40030602 3:-0.51319548 4:-0.50763547 5:1.0895161 6:0.22489049 7:-1.4077259 8:0.3034884 9:-0.44946563 10:-0.37134907 
319.66763837835538 1:1.4417593 2:-2.5515894 3:1.444076 4:2.2433999 5:-0.094087296 6:0.76537901 7:-0.88241959 8:-2.2923553 9:-1.9120544 10:1.8532272 
-1000 1:-0.76476589 2:0.57955806 3:-0.77068906 4:-0.71229763 5:0.63910876 6:0.40970473 7:0.35700864 8:0.43012744 9:-0.55025653 10:-0.63334686 
1000 1:1.5768017 2:-0.15521152 3:1.5979174 4:0.75745612 5:-1.2644154 6:-1.5266475 7:0.31589151 8:0.0087453139 9:-0.17339611 10:0.69130526 
-1000 1:-0.52633485 2:0.86054228 3:-0.5339472 4:-1.1998745 5:0.98210137 6:0.85977843 7:-1.0821778 8:0.77139482 9:-0.48497122 10:-1.1352683 
1000 1:-0.70198461 2:0.1955725 3:-0.72947643 4:-0.24693414 5:0.52315515 6:0.096049822 7:0.41927088 8:0.27551994 9:-0.39861958 10:-0.29455653 
-960.07087365064717 1:0.6649486 2:-1.7952686 3:0.64030627 4:1.6720481 5:0.80916828 6:0.28821331 7:-1.8527628 8:-1.8256988 9:-1.7259507 10:1.6337021 
1000 1:0.47615839 2:-0.80683719 3:0.46864588 4:0.77502799 5:-0.21236708 6:0.11773172 7:-0.36601897 8:-1.1756274 9:-0.021100655 10:1.0652141 
1000 1:-0.34523132 2:-0.83561245 3:-0.34341041 4:1.1605216 5:0.84273126 6:-0.80568258 7:-1.0970607 8:-0.59623418 9:-0.47361293 10:0.93099836 
-1000 1:-0.028801072 2:-0.48275071 3:-0.036042956 4:0.042594551 5:0.7063794 6:1.0628901 7:-1.1394672 8:-0.76853128 9:-0.71554675 10:0.2793009 
1000 1:-1.3274302 2:1.3411755 3:-1.3339277 4:-0.96060524 5:1.3267485 6:-0.98356388 7:-0.55596684 8:1.0992356 9:-0.30312061 10:-0.59029953 
1000 1:0.25364847 2:-1.3111805 3:0.24376889 4:0.60240981 5:0.13055067 6:1.6799852 7:-0.60909113 8:-1.7143126 9:-0.25314822 10:0.93613557 
1000 1:-1.5001771 2:2.163681 3:-1.5098305 4:-2.2964274 5:0.42085533 6:0.34098081 7:1.0049702 8:2.2229582 9:0.97630494 10:-2.2964552 
-131.772125840006 1:-0.79829577 2:2.1925251 3:-0.79846162 4:-1.9127706 5:-0.70910128 6:-0.66603431 7:1.8345533 8:1.6350681 9:1.7761145 10:-1.2744458 
1000 1:-0.44618319 2:0.52176505 3:-0.46859887 4:-1.5551543 5:-0.020703041 6:2.6644813 7:0.46585228 8:0.3932187 9:0.54841954 10:-1.6229943 
1000 1:0.85096895 2:-0.60980185 3:0.83371394 4:0.62555417 5:-0.53876983 6:-0.071222103 7:-0.23694431 8:-0.91360338 9:-0.030867373 10:0.93106518 
1000 1:-0.84900518 2:-0.057791543 3:-0.85427625 4:0.33051405 5:1.337755 6:-0.76145645 7:-0.57570879 8:-0.030700752 9:-1.3565773 10:0.41225861 
-1000 1:-1.174004 2:0.14214299 3:-1.1589745 4:-0.38430444 5:0.87461595 6:0.54061789 7:0.18054428 8:0.17406309 9:-0.16533542 10:-0.38256406 
-1000 1:-1.0624164 2:0.49366131 3:-1.0716845 4:-0.1183067 5:1.0580508 6:-0.9466068 7:-0.43090805 8:0.57665407 9:-0.24253972 10:-0.12226365 
-1000 1:-0.093988819 2:-0.18374213 3:-0.085017766 4:-0.020117219 5:1.128149 6:0.49757128 7:-1.6498923 8:-0.068306922 9:-1.2456379 10:-0.1565869 
-1000 1:-0.22520431 2:0.26716628 3:-0.23133661 4:-0.64700544 5:1.0699576 6:1.034032 7:-1.3227239 8:0.36553841 9:-1.1326223 10:-0.86234286 
1000 1:-0.097612475 2:-0.45714978 3:-0.063006952 4:0.35756241 5:1.3208575 6:0.11259914 7:-2.3048181 8:-0.23799509 9:-1.1055417 10:0.23804617 
-1000 1:2.1459548 2:-1.5793605 3:2.1597465 4:1.6842311 5:-0.74512703 6:-0.26545628 7:-0.98395646 8:-1.6269696 9:-1.4798131 10:1.6864859 
1000 1:-0.42441116 2:-0.18442837 3:-0.39928228 4:0.44279012 5:1.0727665 6:-0.69504562 7:-0.95974102 8:-0.16523139 9:-1.1360285 10:0.49711532 
-1000 1:1.4486229 2:0.28718871 3:1.4280711 4:0.2693564 5:-0.89115941 6:-1.3752951 7:0.062305176 8:0.25888927 9:-0.64371769 10:0.36824399 
-1000 1:0.23392566 2:-0.39247073 3:0.23729109 4:0.17309491 5:-0.20695777 6:0.53396969 7:0.044734929 8:-0.6093931 9:0.03192664 10:0.35422901 
1000 1:-0.0031078219 2:-0.4109851 3:-0.030225979 4:-0.20305108 5:-0.72146259 6:1.4899771 7:1.0713905 8:-0.33889605 9:0.93983442 10:-0.33048527 
1000 1:-0.19949245 2:-0.051348893 3:-0.21960083 4:0.20133197 5:0.44611297 6:-0.3373439 7:0.2987205 8:-0.015086364 9:-1.1488002 10:0.14910809 
-1000 1:-0.48471783 2:-0.31847962 3:-0.47511128 4:0.45970319 5:0.64781278 6:-0.33175537 7:-0.26750551 8:-0.24772999 9:-0.52215603 10:0.37722868 
1000 1:-0.098564853 2:-0.80399898 3:-0.12555626 4:0.65011919 5:0.91129261 6:0.3109747 7:-1.6662841 8:-0.52436742 9:-0.55648153 10:0.3924933 
1000 1:1.510896 2:-0.1189874 3:1.5068376 4:0.37139974 5:-1.7305177 6:-0.65266041 7:1.2604729 8:0.025851739 9:0.30649804 10:0.27887823 
-1000 1:-0.0039888834 2:-0.29171392 3:-0.017104672 4:-0.17724545 5:-0.12408628 6:1.2699323 7:0.34194961 8:-0.31910737 9:0.0067021095 10:-0.3152691 
1000 1:-0.61632132 2:0.76084119 3:-0.63104101 4:-1.5491515 5:-0.036034619 6:2.1067497 7:0.06414867 8:0.3465614 9:1.3919381 10:-1.3457269 
209.79702022634308 1:0.18620504 2:-1.4654386 3:0.18665857 4:0.54194765 5:-0.67030524 6:2.2723167 7:0.042779315 8:-1.3128931 9:1.4705862 10:0.24489578 
-1000 1:-0.64607444 2:-0.23018159 3:-0.6583058 4:0.27985037 5:1.0000588 6:-0.09894487 7:-0.56029977 8:-0.13398727 9:-0.8388666 10:0.15994217 
1000 1:-1.0640306 2:0.5654036 3:-1.0656659 4:-0.34908516 5:0.93346334 6:-0.46211708 7:-0.20740549 8:0.65318963 9:-0.13320493 10:-0.45688406 
-1000 1:-0.97482991 2:0.073489298 3:-0.95563713 4:-0.11816795 5:0.97687739 6:0.062752946 7:0.12550264 8:0.011142805 9:-0.83713015 10:-0.014856667 
1000 1:1.5837754 2:-4.0219504 3:1.5795421 4:3.9249142 5:0.084238303 6:0.03424083 7:-1.6481377 8:-4.2196553 9:-1.8922363 10:4.141936 
-1000 1:1.5565868 2:-3.129231 3:1.5470992 4:3.319415 5:-0.015012214 6:-0.60267455 7:-1.3763153 8:-3.2918347 9:-1.8384636 10:3.500274 
-1000 1:-0.77434004 2:1.2470188 3:-0.76083327 4:-1.5214888 5:0.52490035 6:0.73596221 7:0.11526578 8:1.3834474 9:0.04030101 10:-1.6896277 
-852.05552503327146 1:0.46995173 2:-0.16801826 3:0.48064252 4:0.034873056 5:-0.77996444 6:0.34299204 7:0.30422171 8:-0.42536603 9:0.87142538 10:0.25315876 
-1000 1:2.4823907 2:-1.1185298 3:2.4853961 4:1.3245417 5:-1.2317052 6:-0.55701479 7:-1.0040341 8:-1.2730532 9:-0.78290393 10:1.4989701 
-1000 1:-1.7200099 2:0.6495713 3:-1.6901235 4:-0.33503283 5:1.0255248 6:-0.79529218 7:0.65413083 8:0.79070094 9:0.05912161 10:-0.39739432 
1000 1:-0.31450289 2:0.074335883 3:-0.30916937 4:-0.76377755 5:0.89884016 6:1.8556156 7:-1.2991152 8:0.12893193 9:-0.48536241 10:-1.0294935 
-1000 1:-0.75896585 2:0.32952152 3:-0.76943995 4:-0.52345799 5:1.1927403 6:0.49817861 7:-1.347506 8:0.30419435 9:-0.29068945 10:-0.52425922 
-1000 1:-0.51670186 2:0.45471987 3:-0.5370743 4:-0.46494077 5:0.61050237 6:0.04092147 7:0.023352599 8:0.34432078 9:-0.62948416 10:-0.35467276 
-1000 1:-0.45070852 2:0.19692273 3:-0.466657 4:-0.37757254 5:0.92225665 6:0.5554966 7:-1.3757664 8:0.19907816 9:-0.14927561 10:-0.49260564 
-1000 1:-0.64418182 2:-0.19720246 3:-0.63726726 4:0.13842885 5:1.5012637 6:0.09411249 7:-1.6569234 8:-0.088395717 9:-1.1079273 10:0.0652003 
-1000 1:-0.12787544 2:-0.31381659 3:-0.14795439 4:-0.12986546 5:-0.71291322 6:1.0222836 7:0.56090748 8:-0.083846281 9:1.7351699 10:-0.3465117 
1000 1:-0.13298793 2:0.32682106 3:-0.14615293 4:-0.59172601 5:-1.172244 6:0.76709648 7:1.2596398 8:0.047316619 9:2.2959456 10:-0.43794905 
-1000 1:-0.11912783 2:-1.232569 3:-0.1295984 4:1.2565815 5:0.77793955 6:-0.20940522 7:-0.74106046 8:-0.95856231 9:-1.1543746 10:1.0817868 
1000 1:0.29461749 2:0.63934126 3:0.28776656 4:-0.37578612 5:-0.75533032 6:-0.57990234 7:0.85679136 8:0.49622557 9:0.60013707 10:-0.24841685 
-1000 1:-0.35237374 2:-0.7546284 3:-0.37273421 4:0.95104318 5:0.59531345 6:-0.58505384 7:-0.23789417 8:-0.65869344 9:-0.65941601 10:0.94122767 
1000 1:-0.26709646 2:0.15627951 3:-0.29095846 4:-0.50432919 5:0.036210537 6:0.87486979 7:0.24524189 8:0.0099730477 9:0.23682705 10:-0.40612841 
1000 1:0.66806024 2:-0.62793311 3:0.65255114 4:0.66611999 5:-0.49437688 6:-0.10108765 7:0.063411405 8:-0.73060965 9:-0.088757017 10:0.75259094 
-1000 1:-0.21910853 2:1.0003098 3:-0.21837768 4:-1.0152728 5:-0.80015465 6:0.049393467 7:1.0160135 8:1.1753704 9:1.6660495 10:-1.1609226 
1000 1:-0.12208138 2:-0.054113206 3:-0.13872948 4:-0.68598573 5:0.57909816 6:1.9163487 7:-0.94405419 8:-0.11003623 9:-0.34970051 10:-0.79415244 
-1000 1:0.63415932 2:0.17151229 3:0.66080045 4:-0.17132238 5:-1.179667 6:-0.074878704 7:0.89779271 8:0.58368967 9:0.99700978 10:-0.49948199 
-1000 1:-2.4061166 2:2.1615358 3:-2.368925 4:-1.4885449 5:0.95308241 6:-1.5606896 7:1.460026 8:2.2642714 9:0.87602114 10:-1.5273453 
1000 1:0.77337968 2:0.060818513 3:0.76004976 4:0.30184521 5:-0.8072887 6:-0.94986602 7:0.36727478 8:0.053312053 9:0.24645323 10:0.40038706 
1000 1:0.47262052 2:-0.63913385 3:0.46748461 4:0.56560676 5:-1.1806831 6:0.2548894 7:0.84981131 8:-0.69470014 9:1.4385702 10:0.51936488 
1000 1:0.53766846 2:-1.1176409 3:0.55466806 4:0.10521418 5:0.67652723 6:2.5494993 7:-1.8754733 8:-1.0987627 9:-1.0887734 10:-0.11013315 
739.98015949545743 1:-0.011674566 2:1.1597209 3:-0.015590701 4:-0.81704531 5:-1.9502272 6:-0.75226719 7:2.6817589 8:1.1816063 9:2.7055399 10:-0.84399425 
-1000 1:1.9194482 2:-1.1475203 3:1.9392464 4:1.0908146 5:-1.0288048 6:-0.016338847 7:-0.52538019 8:-1.1965057 9:-0.67836049 10:1.2330397 
1000 1:-0.21303203 2:0.20403117 3:-0.22777828 4:-0.52497786 5:-0.34546816 6:0.85883409 7:1.0226562 8:0.092260204 9:0.3578635 10:-0.5030488 
1000 1:1.0515115 2:0.037839487 3:1.0527527 4:0.1810593 5:-0.96915839 6:-0.55854123 7:0.59754446 8:0.096807935 9:-0.16144307 10:0.16467008 
366.9966136883001 1:-0.35104783 2:-0.38945603 3:-0.35500444 4:-0.66960857 5:-0.0097864689 6:2.7497149 7:-0.32945202 8:-0.74800425 9:1.1556512 10:-0.57058935 
-1000 1:-0.41421844 2:-0.090894427 3:-0.40375898 4:0.31284404 5:0.68866282 6:-0.64827573 7:-0.62197962 8:0.19871155 9:-0.40794585 10:0.14200119 
1000 1:0.01376567 2:0.82425681 3:-0.0078751036 4:-0.78337097 5:-1.2503169 6:-0.0010186077 7:1.4772898 8:0.73222329 9:1.972592 10:-0.74939772 
-139.41091278253282 1:0.12476114 2:-0.76500516 3:0.11983686 4:-0.30014223 5:-0.34275871 6:2.731313 7:-0.31361647 8:-0.64817756 9:1.0584875 10:-0.65115419 
-1000 1:1.0804466 2:-0.38007652 3:1.0789993 4:0.77801829 5:-1.0173825 6:-1.0436112 7:0.27282542 8:-0.31116291 9:0.27034192 10:0.79440032 
1000 1:1.3839207 2:-0.5278984 3:1.4059811 4:0.82053859 5:-0.92192634 6:-0.82997132 7:-0.120914 8:-0.46316318 9:-0.26143349 10:0.86710147 
-44.932147195655489 1:-1.5971156 2:3.471882 3:-1.622444 4:-4.3687362 5:0.42791061 6:2.3354521 7:0.43953966 8:3.8622148 9:1.7998489 10:-4.8229909 
1000 1:1.2515231 2:0.097290516 3:1.2687987 4:0.53739899 5:-0.98133816 6:-1.6159558 7:0.55655543 8:0.025657348 9:-0.53495737 10:0.72383926 
-1000 1:0.57519137 2:-0.32355159 3:0.56589874 4:0.38624749 5:-0.65792853 6:-0.20648931 7:0.44779995 8:-0.42408884 9:0.15751684 10:0.52667726 
-1000 1:-0.29113598 2:-0.47604045 3:-0.30770531 4:0.16743203 5:0.6289648 6:0.7482512 7:-0.30442362 8:-0.33478655 9:-0.82101673 10:-0.0094237528 
-118.39335527867523 1:1.4230262 2:-0.10910819 3:1.4112398 4:0.74447458 5:-1.187489 6:-1.5339508 7:0.38356147 8:-0.054378963 9:-0.097039385 10:0.72157554 
-1000 1:0.51970311 2:-0.078485509 3:0.49949163 4:-0.076593822 5:-0.73001689 6:0.45696661 7:0.1822344 8:-0.026746426 9:0.78620964 10:-0.21540505 
-1000 1:0.54930612 2:0.19815602 3:0.56607043 4:-0.070512585 5:-0.70933092 6:-0.24342296 7:0.62829264 8:-0.12265972 9:0.13651282 10:0.19852556 
1000 1:2.0043988 2:-0.60681621 3:2.0289627 4:1.2526076 5:-1.1374198 6:-1.7535947 7:-0.67142507 8:-0.82330015 9:-0.39794659 10:1.6569055 
-1000 1:-0.68377456 2:-0.02848681 3:-0.70101377 4:0.093094772 5:1.0807547 6:-0.11910573 7:-0.33435935 8:-0.12403922 9:-1.2287797 10:0.15498706 
711.84640334023925 1:0.32251855 2:-0.12265282 3:0.31417422 4:0.4545134 5:-0.48510641 6:-0.92420223 7:-0.2049089 8:0.14048798 9:0.921568 10:0.32421098 
1000 1:0.13614345 2:-0.19768459 3:0.12095887 4:0.10111953 5:-0.72692997 6:0.18406956 7:0.90539758 8:-0.19278038 9:0.81996864 10:0.12876974 
1000 1:-0.67474667 2:0.22574463 3:-0.65361016 4:-0.9892296 5:1.2832459 6:1.8764415 7:-1.7422392 8:0.22332079 9:-0.3384422 10:-1.0508443 
-1000 1:0.085557887 2:-0.44706466 3:0.058771578 4:-0.25501398 5:-0.050617569 6:1.831389 7:-0.048478775 8:-0.6922515 9:0.040821873 10:-0.19728698 
-1000 1:0.5929426 2:-0.044583392 3:0.58263295 4:0.25140677 5:-0.67234913 6:-0.44430354 7:0.18553246 8:-0.19242399 9:0.44686799 10:0.35488724 
1000 1:-1.3005672 2:2.6150496 3:-1.3149069 4:-2.2468281 5:0.075947607 6:-0.77712361 7:1.4769704 8:2.3182031 9:1.0223691 10:-1.9374869 
1000 1:-0.60410416 2:-0.26575499 3:-0.61052953 4:0.48486699 5:0.61291767 6:-0.48198329 7:-0.37424149 8:-0.31755736 9:-0.028367377 10:0.49372894 
-1000 1:0.034713323 2:-0.25377511 3:0.038478373 4:-0.27295372 5:0.92661536 6:1.3489466 7:-1.3196175 8:-0.39287201 9:-1.3016411 10:-0.24718726 
-1000 1:0.4716846 2:-1.0685989 3:0.47771506 4:1.229017 5:1.0308245 6:-0.38033284 7:-1.565073 8:-0.98998036 9:-2.2875906 10:1.112717 
-1000 1:-0.32333877 2:1.247191 3:-0.31090295 4:-1.3584393 5:-0.95014718 6:0.23240373 7:1.444243 8:1.1264555 9:1.8444598 10:-1.1641018 
1000 1:-0.030287572 2:0.64244565 3:-0.056068638 4:-0.77354743 5:-1.7334147 6:0.36064608 7:2.5047808 8:0.59314322 9:2.3405014 10:-0.74834354 
-1000 1:0.6519438 2:-0.39231397 3:0.65012745 4:0.61802085 5:-0.55529025 6:-0.65770378 7:0.087469978 8:-0.54293348 9:0.080008999 10:0.86727856 
-1000 1:0.73579958 2:-0.11433046 3:0.73473882 4:0.15523002 5:-0.70057678 6:-0.15651696 7:0.22038983 8:-0.1163727 9:0.16869401 10:0.20859115 
1000 1:-0.21231106 2:1.8902529 3:-0.20676103 4:-1.8408846 5:-1.1142606 6:-0.0046427697 7:1.6558775 8:1.8963452 9:1.8505914 10:-1.8766539 
-1000 1:-0.20373999 2:-0.028714957 3:-0.23028248 4:-1.0131983 5:0.7391334 6:2.6244281 7:-1.581614 8:-0.14176121 9:0.073871658 10:-1.0619356 
1000 1:0.70712717 2:-0.14943609 3:0.70160913 4:0.11459993 5:-0.79266068 6:0.046955132 7:0.35339451 8:-0.43638324 9:0.35539828 10:0.42242946 
1000 1:-1.0097637 2:0.52903276 3:-1.0307235 4:-0.50335089 5:0.81480507 6:-0.02366106 7:0.28791306 8:0.36721973 9:-0.42915633 10:-0.35832645 
1000 1:-0.92395775 2:0.87471754 3:-0.9085463 4:-0.48064466 5:0.64632032 6:-0.95679896 7:0.23527385 8:1.0990309 9:-0.11492185 10:-0.6396318 
1000 1:-1.0716993 2:-0.67838918 3:-1.0431041 4:0.81734846 5:1.7228724 6:-0.38126456 7:-1.6256897 8:-0.30987208 9:-0.87023861 10:0.47993114 
1000 1:1.4747848 2:-1.5471393 3:1.4853039 4:1.6486912 5:-0.57159757 6:-0.34518784 7:-0.83224469 8:-1.7767548 9:-0.67748538 10:1.9116762 
-1000 1:0.76235211 2:-0.26791845 3:0.77739421 4:0.38352832 5:-1.4333479 6:-0.22297915 7:1.1830515 8:-0.48556421 9:1.1477108 10:0.54064045 
1000 1:-0.069774921 2:0.33266464 3:-0.067073712 4:-0.30315902 5:-1.0483225 6:-0.12515922 7:0.88717158 8:0.65470895 9:2.1909552 10:-0.5540801 
1000 1:-1.0596577 2:0.54644513 3:-1.065244 4:-0.43029872 5:1.0300403 6:-0.25511183 7:-0.20219507 8:0.51195249 9:-0.42117677 10:-0.39228384 
1000 1:-0.36528329 2:1.9784756 3:-0.39029761 4:-1.2156282 5:-0.27547532 6:-1.9075215 7:0.863466 8:2.0923597 9:0.67314622 10:-1.1470864 
1000 1:0.69129167 2:0.1420777 3:0.68082946 4:-0.00041683352 5:-1.1427121 6:-0.28759593 7:0.7740361 8:0.27414897 9:0.9416607 10:-0.16691311 
-1000 1:-1.1810066 2:1.3425487 3:-1.1895261 4:-1.0705078 5:0.4093843 6:-0.63118937 7:0.89687812 8:1.4673545 9:0.43050899 10:-1.1491981 
-1000 1:-0.97517651 2:0.27071978 3:-0.97333429 4:-0.24042889 5:1.1202212 6:-0.050495357 7:-0.53171597 8:0.30973279 9:-0.51326732 10:-0.28741121 
-1000 1:-1.4354927 2:0.83299098 3:-1.4055122 4:-1.2042304 5:0.88771478 6:1.0242984 7:0.31176835 8:1.0843612 9:0.20747329 10:-1.5571545 
1000 1:-1.1855391 2:1.3020999 3:-1.1902415 4:-1.0627947 5:0.82383405 6:-0.46512129 7:0.13780224 8:1.1756143 9:0.073504373 10:-0.97936937 
1000 1:-1.4504648 2:0.82930188 3:-1.4562745 4:-0.83417128 5:1.0269261 6:0.12308236 7:-0.090301892 8:1.028704 9:0.31737965 10:-1.1006677 
-776.82687730941029 1:0.25063224 2:-0.75689302 3:0.24050404 4:0.00063171659 5:-0.76342635 6:1.9140563 7:-0.099370643 8:-0.76044358 9:1.7637218 10:-0.1488318 
-1000 1:0.067677991 2:0.29529081 3:0.075212309 4:-0.59004304 5:-0.81616239 6:0.66198677 7:0.31612806 8:0.25125003 9:1.8419127 10:-0.50560654 
1000 1:-0.44607646 2:0.13389883 3:-0.46450616 4:-0.42871142 5:0.80221804 6:0.80670996 7:-0.54858139 8:0.13487109 9:-0.71281421 10:-0.52870478 
-1000 1:0.49696541 2:-1.2573973 3:0.48078959 4:1.0493245 5:0.78122291 6:0.49756047 7:-1.1729174 8:-1.0675015 9:-2.0292565 10:0.80725922 
-1000 1:1.1145227 2:-1.0802255 3:1.1342808 4:0.99746889 5:-0.84014837 6:0.11845799 7:-0.098715223 8:-1.1672583 9:0.06903104 10:1.1114874 
-1000 1:-1.2140007 2:0.22454362 3:-1.1958728 4:0.15856278 5:0.83112237 6:-0.96855361 7:0.27691165 8:0.42007196 9:-0.061706932 10:0.037285612 
1000 1:1.3049474 2:-1.7408769 3:1.2874814 4:1.5920187 5:-0.5417877 6:0.3983817 7:-0.3589589 8:-1.7996043 9:-0.87790449 10:1.5373614 
1000 1:1.0172243 2:-0.010225698 3:1.0346915 4:0.38839896 5:-0.85275144 6:-0.89495122 7:0.42269537 8:0.36160966 9:-0.24806782 10:0.027752952 
-1000 1:0.20837953 2:0.62674294 3:0.19166499 4:-0.65257228 5:-1.5405757 6:0.095246054 7:1.6166218 8:0.78242738 9:2.2244556 10:-0.81257122 
-1000 1:-1.1566291 2:0.6255649 3:-1.1379625 4:-0.65842651 5:1.2408713 6:0.04131975 7:-0.82310757 8:0.57682459 9:-0.16530427 10:-0.55285051 
-1000 1:0.075418033 2:-0.16044205 3:0.051815961 4:0.1505885 5:-0.38275685 6:0.0093799077 7:0.32250959 8:0.088653736 9:0.60850058 10:-0.086916291 
1000 1:-0.78780083 2:-0.078658413 3:-0.75225189 4:-0.22834762 5:1.8082609 6:0.76014371 7:-2.0726607 8:-0.11203812 9:-1.2545106 10:-0.23318565 
1000 1:-0.26920486 2:-0.049429011 3:-0.27710712 4:-0.67401919 5:0.18605688 6:1.90096 7:0.16349371 8:-0.19255188 9:-0.1168865 10:-0.71864294 
-1000 1:-1.9519074 2:1.6732554 3:-1.940376 4:-1.4845735 5:1.0253788 6:-0.40843857 7:0.43361094 8:1.6912198 9:0.82470276 10:-1.4702445 
1000 1:-1.5340628 2:-0.12669167 3:-1.5032881 4:0.64177457 5:1.431751 6:-1.3055799 7:-0.55970523 8:0.11647043 9:-0.19083378 10:0.48447026 
1000 1:-1.3910756 2:0.38561491 3:-1.3717051 4:-0.20372117 5:1.5745175 6:-0.43094766 7:-1.0178716 8:0.39874691 9:-0.40066753 10:-0.19914473 
1000 1:0.21025602 2:-0.62038057 3:0.19938258 4:0.17519024 5:0.055086541 6:1.1446563 7:-0.045070591 8:-0.74653438 9:-0.55509208 10:0.18533253 
1000 1:-0.92596773 2:0.37074874 3:-0.89467233 4:-0.25414584 5:1.3335672 6:-0.22603203 7:-1.0086352 8:0.40893198 9:-0.74538081 10:-0.32212039 
1000 1:0.52236026 2:0.054793415 3:0.5307593 4:0.26072793 5:-0.72944008 6:-0.72062381 7:0.10016749 8:0.21493128 9:0.83697093 10:0.085212871 
1000 1:0.57834058 2:0.026862588 3:0.59144991 4:0.0035252912 5:-1.0779479 6:-0.10574626 7:0.88325836 8:-0.022009419 9:0.85727588 10:0.084131968 
-1000 1:1.218863 2:-0.23773628 3:1.2559243 4:0.42999639 5:-1.324196 6:-0.55001517 7:0.62364049 8:-0.055434473 9:0.42531413 10:0.33228351 
1000 1:1.8819386 2:-0.76992288 3:1.9013226 4:0.99071015 5:-1.3351886 6:-0.63317265 7:0.069647877 8:-0.76081191 9:-0.36495693 10:1.0567673 
1000 1:0.48483402 2:-0.17133106 3:0.46778674 4:0.34671821 5:-1.4044022 6:-0.37379457 7:1.6068943 8:-0.056952089 9:1.2425882 10:0.19161079 
-1000 1:0.59766642 2:-1.2559821 3:0.59265178 4:0.88705974 5:0.13748601 6:0.87486078 7:-0.62816635 8:-1.2746867 9:-1.0068488 10:0.85078435 
-1000 1:-0.18689775 2:0.41725995 3:-0.18135026 4:-0.56951158 5:-0.62366009 6:0.3418783 7:1.2102694 8:0.33319445 9:0.87277281 10:-0.4554423 
1000 1:-2.0073638 2:1.6771418 3:-1.9814762 4:-1.6941218 5:1.6505553 6:0.10539947 7:-0.40710282 8:1.4655641 9:0.051411539 10:-1.4821044 
-1000 1:-0.42295558 2:-0.37143562 3:-0.40651008 4:0.31269506 5:1.5334915 6:0.073221746 7:-1.7717897 8:-0.37619529 9:-1.5675592 10:0.36322539 
1000 1:-0.41306674 2:0.66580276 3:-0.41312031 4:-1.1001747 5:0.74158431 6:1.0816453 7:-0.96131386 8:0.75101103 9:-0.18140247 10:-1.2121611 
1000 1:0.70236146 2:0.53748066 3:0.71936752 4:-0.13421571 5:-1.0194786 6:-1.0753907 7:0.6694457 8:0.5630501 9:0.64794415 10:-0.021746378 
1000 1:-1.3641441 2:3.0229074 3:-1.380343 4:-3.2148086 5:-0.72449106 6:0.61461495 7:2.0476586 8:3.1553521 9:2.8381368 10:-3.3775751 
-1000 1:-0.44347118 2:0.024826481 3:-0.4673105 4:-0.066915387 5:0.58339702 6:0.15168819 7:-0.40889126 8:0.15920921 9:-0.23684138 10:-0.24635863 
-1000 1:0.19328112 2:-0.55557848 3:0.1710976 4:0.74419002 5:0.66278077 6:-0.58365445 7:-0.68133239 8:-0.47768284 9:-1.5566639 10:0.77552211 
-1000 1:2.0629954 2:-2.3242392 3:2.0463171 4:2.2275509 5:-0.93478896 6:0.15082855 7:-0.98602685 8:-2.4363753 9:-0.71952965 10:2.3180672 
-1000 1:0.084994673 2:-0.065368473 3:0.077009775 4:0.77118824 5:0.085065707 6:-1.7971738 7:0.27817691 8:-0.057240265 9:-0.72334303 10:0.88586941 
1000 1:-0.45897969 2:0.0068093008 3:-0.46778765 4:0.50439897 5:0.45837808 6:-1.2747493 7:-0.15882057 8:0.056703667 9:-0.13299195 10:0.52152668 
1000 1:1.3066107 2:-0.33608319 3:1.3363491 4:0.50552448 5:-1.2352955 6:-0.44817009 7:0.91520027 8:-0.28362075 9:-0.33032934 10:0.4865903 
-1000 1:-0.2699117 2:0.60622618 3:-0.28340857 4:-1.0590468 5:-0.37140701 6:1.2579641 7:0.84090392 8:0.24371823 9:0.75268898 10:-0.85790398 
-1000 1:0.12527348 2:-0.22191878 3:0.1232042 4:0.37525713 5:-0.1019826 6:-0.3169064 7:0.34597662 8:-0.17863757 9:-0.35465703 10:0.28324527 
-1000 1:-0.65675972 2:0.21739573 3:-0.64897109 4:-0.4456997 5:0.78033793 6:0.6035154 7:0.027510025 8:0.23437722 9:-0.84690701 10:-0.51491868 
1000 1:1.0743087 2:-0.85184857 3:1.1001529 4:0.51134835 5:-0.9585472 6:0.81236516 7:0.38974171 8:-0.99853358 9:-0.042077872 10:0.61208528 
-1000 1:-0.84324287 2:0.68916491 3:-0.85148455 4:-1.0496307 5:1.5603366 6:0.87439762 7:-1.6038 8:0.52831375 9:-0.88521178 10:-0.88884419 
1000 1:0.07462142 2:0.6250634 3:0.048785357 4:-0.31854235 5:-1.136218 6:-0.73574671 7:1.2794381 8:0.38070093 9:1.732654 10:-0.041862528 
1000 1:0.38209128 2:-0.18218851 3:0.37183556 4:0.25437025 5:-0.81403846 6:-0.12155668 7:0.504206 8:0.012176148 9:0.96563487 10:0.011962083 
1000 1:0.45375749 2:-1.0711814 3:0.43662755 4:0.7681358 5:-0.016294853 6:0.8199613 7:-0.73065076 8:-1.29822 9:-0.12742763 10:0.85025977 
1000 1:0.35801901 2:-0.32404663 3:0.33692837 4:0.27446923 5:-0.43002703 6:0.1129776 7:0.30617666 8:-0.3793226 9:0.14366435 10:0.31949811 
1000 1:0.27211219 2:-0.16113008 3:0.26293544 4:0.036453648 5:-0.47410513 6:0.29861182 7:0.31335733 8:-0.4859905 9:0.43644784 10:0.34380924 
-1000 1:1.5294352 2:-0.75979723 3:1.5234207 4:1.143927 5:-0.84749199 6:-0.92896897 7:-0.13792065 8:-0.86788223 9:-0.74284894 10:1.2428196 
1000 1:0.27657635 2:-0.30620953 3:0.275354 4:0.038476609 5:-0.35537718 6:0.65305522 7:0.23653379 8:-0.38183263 9:0.16105928 10:0.07968473 
1000 1:-0.33565651 2:0.64565334 3:-0.31567712 4:-0.97628971 5:-0.79079189 6:0.85622635 7:1.025915 8:0.35165479 9:1.8612962 10:-0.73502856 
-1000 1:-0.94315475 2:-0.093949663 3:-0.933802 4:0.33847739 5:1.1525255 6:-0.67800251 7:-0.053749084 8:-0.050283107 9:-1.2042238 10:0.38674129 
1000 1:1.1535045 2:-1.4315185 3:1.1511122 4:1.7724216 5:-0.48557048 6:-1.0676594 7:-0.53700458 8:-1.330153 9:-0.53193651 10:1.8628701 
1000 1:-0.12678675 2:-0.4829254 3:-0.10953811 4:0.30840412 5:1.4530079 6:0.40911001 7:-1.87747 8:-0.47398258 9:-1.8675406 10:0.28256365 
1000 1:0.39836764 2:-1.564353 3:0.38426876 4:1.4803301 5:0.79343727 6:0.050247695 7:-1.5259454 8:-1.4891326 9:-1.4674855 10:1.482531 
1000 1:-0.3478898 2:-0.050624274 3:-0.33781305 4:-0.31178291 5:0.42964116 6:0.96628482 7:-0.0090906926 8:-0.061204822 9:-0.47606946 10:-0.40801289 
-1000 1:1.2075389 2:0.013990201 3:1.1875181 4:0.21633966 5:-1.2138984 6:-0.61824979 7:0.88925329 8:0.072413545 9:-0.093517948 10:0.22998033 
-1000 1:-1.3079124 2:1.1355753 3:-1.3223702 4:-0.93261107 5:0.46825112 6:-0.47246693 7:1.1768679 8:1.1098452 9:0.23964362 10:-0.86826026 
-1000 1:-0.99149062 2:0.31539791 3:-1.0198202 4:-0.24612213 5:0.82715426 6:-0.094796276 7:0.072065611 8:0.25593077 9:-0.26135525 10:-0.23892429 
531.68093941841335 1:-1.9972044 2:3.2361541 3:-2.0126214 4:-3.7778228 5:-0.9552612 6:1.5875916 7:3.1890294 8:3.0611014 9:3.6355913 10:-3.7694265 
1000 1:-0.44090629 2:0.60604037 3:-0.44420564 4:-0.58266682 5:0.015884998 6:0.047647165 7:0.61986833 8:0.45718022 9:0.24346135 10:-0.50838481 
-1000 1:-0.17659798 2:0.37812981 3:-0.20175394 4:-0.58470885 5:-1.1398797 6:0.56792796 7:1.9698496 8:0.18489443 9:1.5379159 10:-0.45615232 
-1000 1:-0.74455584 2:-0.54046588 3:-0.7646039 4:0.81199626 5:1.1145505 6:-0.63913873 7:-1.0637362 8:-0.37793117 9:-0.3962239 10:0.63143294 
1000 1:0.65820698 2:-0.51258061 3:0.64797595 4:0.44325755 5:-0.81156534 6:0.079772631 7:0.0030309183 8:-0.48162182 9:0.90275682 10:0.47029657 
1000 1:-0.43672424 2:0.32144166 3:-0.42259078 4:-0.23543186 5:0.62155529 6:-0.22570043 7:-0.17711078 8:0.3103586 9:-0.65471231 10:-0.19060443 
-1000 1:0.1866602 2:-0.68464099 3:0.18579943 4:0.46998746 5:-0.037183818 6:0.49013193 7:-0.097680857 8:-0.53207145 9:-0.19257965 10:0.30804756 
-1000 1:-0.53243163 2:0.24083894 3:-0.55761174 4:-0.26545076 5:0.89862731 6:0.098639539 7:-0.61012417 8:0.35239995 9:-0.72700066 10:-0.40308284 
-1000 1:-0.47890299 2:-0.11634325 3:-0.43806124 4:-0.20682375 5:1.3346731 6:0.90430822 7:-1.3552807 8:-0.083448972 9:-1.3552682 10:-0.37642614 
-1000 1:-0.071954135 2:0.22120249 3:-0.092376665 4:-0.53914352 5:-0.35995024 6:0.74896666 7:0.62407068 8:0.15208665 9:0.53226483 10:-0.46304203 
-1000 1:-0.36656515 2:0.92526294 3:-0.38325881 4:-1.104526 5:1.0841666 6:0.41754957 7:-1.5875541 8:0.83458049 9:-0.56570565 10:-0.97534982 
-671.66005795708918 1:2.022054 2:-0.19082259 3:2.0209064 4:0.53981313 5:-1.2391771 6:-0.86017297 7:0.19660207 8:-0.012216536 9:-1.0614684 10:0.39293434 
-1000 1:1.48839 2:-0.092540244 3:1.4911495 4:0.43037204 5:-1.0571019 6:-0.83036149 7:0.21245758 8:-0.21406962 9:-0.44305735 10:0.57808613 
1000 1:0.22792912 2:-0.71397514 3:0.21432332 4:-0.097078326 5:1.2108583 6:1.9327214 7:-2.8677884 8:-0.61706814 9:-0.8335819 10:-0.24095244 
-1000 1:1.4102149 2:-1.6111372 3:1.4211728 4:1.9380148 5:-0.47114685 6:-0.89516028 7:-0.65676629 8:-1.7763251 9:-1.0165843 10:2.1533039 
-1000 1:-0.43403551 2:0.22297744 3:-0.45148135 4:-0.039213188 5:0.45502252 6:-0.37275472 7:-0.0042921529 8:0.29009246 9:-0.33653406 10:-0.15190243 
-1000 1:-0.47502066 2:-0.72801732 3:-0.43892903 4:0.97153969 5:1.1136908 6:-0.63289602 7:-0.64113136 8:-0.51987084 9:-1.5020341 10:0.7942934 
-1000 1:0.62162797 2:-0.88728208 3:0.62717365 4:0.47957763 5:0.98955784 6:1.0377084 7:-2.6347348 8:-0.79733528 9:-1.3307022 10:0.28494097 
1000 1:-0.42089971 2:0.073347962 3:-0.42405884 4:-0.18934791 5:0.53743562 6:0.34543217 7:-0.15794124 8:0.040934108 9:-0.44986189 10:-0.22170837 
1000 1:-0.3888329 2:0.44231741 3:-0.39348992 4:-0.68235287 5:0.23946844 6:0.71911553 7:0.19419132 8:0.30299901 9:-0.046538166 10:-0.67126198 
-1000 1:-0.19165283 2:-0.79016952 3:-0.21174948 4:0.66807376 5:0.76273699 6:0.35020251 7:-1.1544755 8:-0.85823941 9:-0.49221186 10:0.64588061 
-1000 1:0.66907064 2:-0.12045313 3:0.66036522 4:0.30367047 5:-0.89961259 6:-0.42886075 7:0.56483268 8:0.047956064 9:0.51841162 10:0.13158811 
-1000 1:-0.028726597 2:-0.5993408 3:-0.040917611 4:0.2324665 5:0.0048931847 6:0.94435242 7:0.14859771 8:-0.40273821 9:-0.099975486 10:-0.058045998 
-1000 1:-0.24793786 2:-0.47501522 3:-0.26367104 4:0.4771289 5:0.61587027 6:0.059791983 7:-0.59783454 8:-0.28107831 9:-0.55900905 10:0.20857277 
-1000 1:0.95797636 2:-2.4135625 3:0.94602999 4:1.6938806 5:-0.22708587 6:1.8259195 7:-0.50906955 8:-2.7341929 9:-0.86771688 10:1.7923692 
1000 1:0.35904271 2:0.16148313 3:0.3792284 4:0.11448519 5:-1.2933154 6:-0.69096822 7:1.5094902 8:0.40077437 9:1.2633568 10:-0.075570989 
1000 1:0.92110477 2:-0.10881834 3:0.90721642 4:0.22083677 5:-1.0765344 6:-0.20984675 7:0.83604316 8:-0.099281623 9:0.18746173 10:0.15724409 
1000 1:-0.87232089 2:0.35877531 3:-0.88986223 4:-0.13950859 5:0.77367831 6:-0.48798811 7:-0.069822844 8:0.53739216 9:-0.22475867 10:-0.32681655 
-1000 1:-0.54009271 2:-0.24134897 3:-0.53370097 4:0.22261401 5:0.68741754 6:0.1311777 7:-0.58099058 8:-0.1656611 9:-0.17041292 10:0.058352355 
1000 1:-1.6766452 2:1.4190275 3:-1.690801 4:-1.4190193 5:1.119825 6:0.028360352 7:0.15025456 8:1.161526 9:0.29064904 10:-1.1377425 
-1000 1:-0.64124755 2:0.85274366 3:-0.64295913 4:-1.743827 5:0.48843224 6:2.2150961 7:0.23615551 8:0.78544385 9:-0.25997956 10:-1.7528597 
-1000 1:0.39807872 2:0.70280281 3:0.39938784 4:-0.097338168 5:-0.82919368 6:-1.5115102 7:0.17689855 8:0.54707762 9:1.3180415 10:0.1620856 
1000 1:0.78936645 2:-0.16762403 3:0.78631233 4:0.60824214 5:-0.9853276 6:-1.1950872 7:0.75623862 8:0.32483221 9:0.28780422 10:0.26519069 
1000 1:0.68710613 2:0.27348266 3:0.66746658 4:-0.079263212 5:-1.5009745 6:-0.48145255 7:1.654371 8:0.33737556 9:1.0302501 10:-0.10887014 
1000 1:-1.036118 2:0.68578574 3:-1.0399197 4:-0.68441008 5:0.80455053 6:0.087963489 7:0.29583699 8:0.66319907 9:-0.36962876 10:-0.72010475 
1000 1:0.64283063 2:0.41535298 3:0.63184067 4:0.26676644 5:-0.49572782 6:-1.6602928 7:0.22999389 8:0.25635706 9:-0.21621189 10:0.48878218 
-1000 1:-0.55884403 2:0.62248491 3:-0.56943935 4:-0.50308434 5:0.054779768 6:-0.19738655 7:0.57518699 8:0.70232968 9:0.44531917 10:-0.6347268 
-1000 1:-1.9077176 2:0.14334829 3:-1.8408019 4:0.27895081 5:1.5310487 6:-1.1556981 7:0.46573118 8:0.33682479 9:-0.81767205 10:0.24442633 
1000 1:-1.7625098 2:0.60240579 3:-1.7815747 4:-0.45989855 5:1.7019076 6:-0.27377149 7:-0.10379523 8:0.29318396 9:-0.91051165 10:-0.19075646 
-1000 1:0.73450957 2:0.42439349 3:0.71018852 4:-0.32576287 5:-1.2796415 6:-0.22510932 7:1.192599 8:0.20968783 9:0.79980205 10:-0.10550381 
-1000 1:-0.59073879 2:-0.0014083071 3:-0.55144605 4:0.2248841 5:1.2462983 6:-0.53781989 7:-1.0616645 8:0.076328652 9:-1.1761241 10:0.15939755 
1000 1:0.87885604 2:-0.77050294 3:0.85417685 4:0.99309181 5:-0.52810083 6:-0.70509542 7:-0.35598006 8:-0.79376292 9:0.015458977 10:1.1535641 
-1000 1:1.0241218 2:0.37611953 3:1.0005236 4:0.098965946 5:-1.0299232 6:-1.1755138 7:0.73843482 8:0.14550975 9:-0.053803439 10:0.3921859 
-1000 1:0.64948347 2:-0.0090950062 3:0.65669775 4:-0.011017428 5:-1.0811847 6:0.13861525 7:0.84467042 8:-0.29362678 9:0.76004915 10:0.18280652 
-1000 1:-0.94833639 2:2.0112463 3:-0.94604487 4:-3.0277776 5:0.53588206 6:2.5996375 7:-0.22035619 8:2.1756205 9:0.76538093 10:-3.3012302 
1000 1:0.46679454 2:0.69885758 3:0.45058803 4:-0.83748286 5:-1.072791 6:0.35892681 7:1.1084247 8:0.12028152 9:0.87220486 10:-0.27347809 
-1000 1:0.5349621 2:-0.61135046 3:0.52550731 4:0.39432804 5:-1.4930762 6:0.61383822 7:1.2472231 8:-0.55733378 9:1.7711428 10:0.22230207 
1000 1:-0.25190945 2:1.39492 3:-0.27979301 4:-1.1234892 5:-0.50871795 6:-0.55456294 7:0.950569 8:1.2818934 9:1.0037151 10:-1.0368326 
-736.21892546161962 1:-0.22392677 2:0.92400454 3:-0.20303233 4:-1.0339271 5:1.8032374 6:0.40271952 7:-2.6914571 8:0.73114562 9:-1.7785723 10:-0.9423163 
-1000 1:1.8274501 2:-0.45767029 3:1.839902 4:0.93310133 5:-1.2830506 6:-1.2887927 7:0.10936467 8:-0.28266584 9:-0.43157302 10:0.90065623 
-1000 1:-0.029426127 2:0.24921223 3:-0.057092149 4:-0.64404302 5:-0.67681387 6:1.0903353 7:1.0697293 8:0.33044228 9:0.8714587 10:-0.86276386 
1000 1:-0.79357411 2:-0.031650022 3:-0.78332789 4:0.014421739 5:0.83521848 6:0.0054133336 7:0.037365612 8:-0.063380639 9:-0.71978682 10:0.076873047 
1000 1:0.21739628 2:0.055143528 3:0.2132093 4:-0.45640374 5:-0.79581716 6:0.93424225 7:0.5765647 8:0.19519034 9:1.1866777 10:-0.58158715 
1000 1:-0.53778483 2:0.24119838 3:-0.56160197 4:-0.4442222 5:0.76365984 6:0.58256338 7:-0.28818085 8:0.32636006 9:-0.68008173 10:-0.61511352 
-1000 1:0.90765212 2:0.9086584 3:0.93391023 4:-0.17820751 5:-1.1600554 6:-1.8188179 7:0.73891989 8:0.80326134 9:0.51844567 10:0.051952142 
1000 1:1.6168515 2:-2.7124268 3:1.5970783 4:2.7260394 5:-0.31585813 6:-0.20617933 7:-1.4064048 8:-3.2945238 9:-1.0625948 10:3.3520183 
1000 1:-0.29081081 2:-0.10045509 3:-0.30880735 4:-0.36795201 5:1.1472861 6:1.13411 7:-1.7999042 8:0.084363488 9:-0.67919141 10:-0.58174419 
-1000 1:-1.727 2:1.3454041 3:-1.7369275 4:-1.4647368 5:1.0716215 6:0.39762479 7:0.63427393 8:1.0556118 9:0.0070440388 10:-1.2364688 
-1000 1:0.40490844 2:-0.94668719 3:0.40370749 4:0.73087379 5:-0.82178921 6:0.51372953 7:0.0068875828 8:-1.1095702 9:1.4697451 10:0.84843209 
-1000 1:-0.24586238 2:-0.32531184 3:-0.25229596 4:-0.1339481 5:0.80061601 6:1.229852 7:-1.0384871 8:-0.33060885 9:-0.62398214 10:-0.27897616 
-1000 1:-0.40947883 2:0.60680731 3:-0.40087611 4:-1.0102546 5:0.57242061 6:1.0204923 7:-0.18819303 8:0.53941792 9:-0.55498921 10:-0.9858715 
1000 1:-0.59487412 2:0.76749477 3:-0.57611746 4:-0.58128535 5:0.58490993 6:-0.47854565 7:0.071129392 8:0.70985467 9:-0.4804153 10:-0.45777618 
1000 1:-0.048897587 2:-1.0618657 3:-0.03884397 4:1.0828759 5:0.66454617 6:-0.023650247 7:-1.1997503 8:-0.86658629 9:-0.50495452 10:0.82622096 
-1000 1:-0.45153306 2:0.090501339 3:-0.44642169 4:-0.024182557 5:1.4170193 6:-0.076525887 7:-1.1297986 8:-0.093627227 9:-1.8577522 10:0.085907856 
1000 1:-1.1689058 2:0.80872773 3:-1.1642857 4:-0.94301431 5:1.5071969 6:0.28672471 7:-1.0719641 8:0.8609205 9:-0.6164568 10:-0.93526453 
-1000 1:0.4245355 2:0.61937622 3:0.41028444 4:-0.50707166 5:-1.1730182 6:-0.17368262 7:1.2866561 8:0.46189165 9:1.0556427 10:-0.41279426 
1000 1:1.2157401 2:-0.5134028 3:1.2017008 4:0.70269992 5:-0.98015323 6:-0.48181749 7:0.29599402 8:-0.61062425 9:-0.14266232 10:0.81135897 
-1000 1:0.69656042 2:-0.13039656 3:0.67253556 4:0.32577969 5:-1.3814916 6:-0.45383791 7:1.6384317 8:-0.024976443 9:0.68896625 10:0.21162002 
-7.721286971753587 1:-2.7538283 2:4.2249962 3:-2.7664087 4:-3.1769803 5:0.50052389 6:-2.4501123 7:1.786325 8:4.5617895 9:2.6307161 10:-3.3588121 
-745.55213160354458 1:-1.4378713 2:1.3071909 3:-1.4059428 4:-1.729488 5:-1.6357472 6:1.0244228 7:3.6421102 8:1.0110536 9:3.8249708 10:-1.4161777 
1000 1:0.04724368 2:0.02248833 3:0.075861154 4:-0.16439101 5:-1.0268496 6:0.42306781 7:1.5074428 8:-0.1065747 9:1.170967 10:-0.11948705 
-229.58793901213556 1:-0.33478077 2:1.0009232 3:-0.34028664 4:0.010018535 5:-0.04969258 6:-2.5147336 7:0.69634022 8:0.87411863 9:0.11961629 10:0.29754927 
-1000 1:-0.060397601 2:-0.10667462 3:-0.065354772 4:-0.047027534 5:-0.081170135 6:0.40213922 7:0.23960594 8:-0.29866049 9:0.10897302 10:0.099647182 
1000 1:-0.82891482 2:0.45692027 3:-0.8341421 4:-0.60355627 5:0.95963372 6:0.41277382 7:-0.3830554 8:0.36557763 9:-0.52521238 10:-0.55881636 
-1000 1:0.66184094 2:-0.6922911 3:0.6727565 4:0.67599119 5:-0.51880119 6:0.068988451 7:0.18547856 8:-0.78689613 9:-0.16679079 10:0.71332928 
-704.7126113356718 1:0.31834432 2:-0.96602339 3:0.29804493 4:0.33306376 5:0.020083622 6:1.5939515 7:-0.61372216 8:-1.0315971 9:-0.060715193 10:0.2638074 
-1000 1:-0.88238145 2:0.51013097 3:-0.8980064 4:0.081287815 5:1.0349635 6:-1.5532466 7:-0.13652764 8:0.4152821 9:-0.88198301 10:0.34288705 
1000 1:0.19077392 2:-0.83857478 3:0.17763197 4:0.6339228 5:0.27729065 6:0.53055819 7:-0.36369289 8:-0.6903451 9:-0.80084217 10:0.41094883 
-1000 1:0.81585316 2:0.57352722 3:0.83930266 4:-0.35989264 5:-1.1060965 6:-0.47460971 7:0.73374374 8:0.28970027 9:0.57224593 10:-0.085860448 
1000 1:0.94555406 2:0.81600477 3:0.93495038 4:-0.50531207 5:-1.0697054 6:-0.81143421 7:0.8222321 8:0.69606312 9:0.12609339 10:-0.28201004 
1000 1:-1.4408656 2:1.696601 3:-1.4535028 4:-1.4671259 5:0.91796613 6:-0.47041516 7:-0.023231796 8:1.5694269 9:0.54347968 10:-1.3412713 
1000 1:1.3209857 2:-0.28096661 3:1.3136475 4:0.69806723 5:-1.190379 6:-1.0193757 7:0.53803199 8:-0.31720609 9:-0.0395163 10:0.75704653 
1000 1:-0.45213052 2:0.18914635 3:-0.46778366 4:-0.19226408 5:0.617873 6:0.026022939 7:-0.40966944 8:0.51861636 9:-0.32497656 10:-0.52502437 
-1000 1:-0.95923213 2:0.10022271 3:-0.96689642 4:0.64904875 5:0.73922001 6:-1.850773 7:0.38400363 8:0.28879993 9:-0.44143536 10:0.54820844 
1000 1:0.48433099 2:-0.48939998 3:0.47448082 4:0.41822862 5:-0.39891874 6:0.079208552 7:0.36360077 8:-0.56078166 9:-0.29544966 10:0.5510385 
1000 1:1.8171789 2:0.15212264 3:1.7997321 4:0.12774494 5:-2.2672889 6:-0.74466114 7:1.128444 8:0.45057262 9:1.3378032 10:-0.079386726 
-1000 1:-0.92178502 2:0.36445747 3:-0.94562762 4:-0.12088571 5:1.3266511 6:-0.52193467 7:-1.2235752 8:0.44755274 9:-0.44063704 10:-0.23596559 
1000 1:1.6969399 2:-1.4300725 3:1.729195 4:1.5538529 5:-1.0644946 6:-0.30764235 7:-0.33602319 8:-1.3080027 9:-0.31104439 10:1.3934894 
1000 1:-0.18344183 2:-0.15100514 3:-0.20984154 4:-0.26841141 5:-0.43908617 6:1.1566605 7:0.8382137 8:-0.27474696 9:0.77550769 10:-0.30972425 
-1000 1:0.99892943 2:-1.25793 3:1.0264828 4:1.5914044 5:-0.98605426 6:-0.8373548 7:0.25164904 8:-0.95244922 9:0.3494942 10:1.2913433 
1000 1:0.56293265 2:-0.2585784 3:0.55041963 4:0.3265917 5:-0.74328879 6:-0.14606799 7:0.44473079 8:-0.32052949 9:0.43597189 10:0.36414424 
1000 1:-0.70838128 2:-0.21316704 3:-0.67745372 4:0.16535011 5:1.0799948 6:0.039823949 7:-0.45922801 8:0.075090687 9:-1.0894964 10:-0.057907335 
1000 1:0.28954591 2:-0.38397906 3:0.27572933 4:0.17412934 5:-0.70332499 6:0.59301055 7:0.33938516 8:-0.48712275 9:1.0328645 10:0.16857937 
1000 1:-1.1510645 2:2.0865851 3:-1.130215 4:-2.4677107 5:-0.53858072 6:1.0846315 7:1.5577544 8:1.7650527 9:2.333673 10:-2.2448458 
1000 1:0.63980078 2:-0.56879238 3:0.67420658 4:0.54791203 5:-1.2697623 6:0.067103382 7:0.91182369 8:-0.23867034 9:1.2194891 10:0.18566331 
1000 1:-0.56924703 2:0.16648587 3:-0.56789543 4:-0.12845116 5:0.75682903 6:-0.060621745 7:-0.35294933 8:0.27138146 9:-0.54885766 10:-0.25155598 
-1000 1:-0.24513442 2:0.43055921 3:-0.26268347 4:-0.77982708 5:-0.23712757 6:0.87901838 7:0.50615529 8:0.36709013 9:0.68230442 10:-0.7532736 
-1000 1:-0.17413466 2:-0.18539907 3:-0.19335955 4:-0.39555465 5:1.4795088 6:1.4385558 7:-2.848993 8:-0.090600522 9:-0.74300614 10:-0.56098819 
-1000 1:-0.98775043 2:-0.010651143 3:-1.0127881 4:-0.021455621 5:0.99713072 6:0.01296262 7:-0.10199299 8:0.05163756 9:-0.5713004 10:-0.024845411 
-1000 1:1.3229599 2:0.29806158 3:1.3102675 4:-0.32141968 5:-1.3420138 6:0.096628318 7:0.45080889 8:0.10511219 9:0.49202874 10:-0.1593351 
1000 1:0.14556782 2:-0.46793584 3:0.12120443 4:-0.078239375 5:-0.21340821 6:1.4364905 7:-0.10013785 8:-0.53536416 9:0.43080021 10:-0.16974652 
-1000 1:0.090463571 2:0.41035885 3:0.072817905 4:-0.72919694 5:-0.95191207 6:0.86933713 7:1.0432993 8:0.06782489 9:1.4175024 10:-0.48747344 
1000 1:-0.10189028 2:-0.35005578 3:-0.11320292 4:-0.11877307 5:0.82169093 6:1.2738664 7:-1.3463701 8:-0.58651121 9:-0.65752526 10:-0.05818299 
-1000 1:0.57495897 2:-0.56326985 3:0.58967175 4:0.55514597 5:-0.76742172 6:-0.012801189 7:0.044468103 8:-0.45562967 9:0.88515615 10:0.45731572 
-1000 1:-0.3244805 2:-0.46261706 3:-0.32762385 4:0.70113874 5:0.68937635 6:-0.60797022 7:-0.52258767 8:-0.30187476 9:-0.69883496 10:0.56852841 
-1000 1:-1.5794869 2:0.52456954 3:-1.546247 4:-0.20095681 5:1.5027753 6:-0.74333204 7:-0.34160723 8:0.4795011 9:-0.53582741 10:-0.15374348 
1000 1:-0.61066507 2:1.3290772 3:-0.61351688 4:-1.9359115 5:0.68752813 6:1.5072924 7:-0.73808146 8:1.1994545 9:0.16406565 10:-1.8296723 
-1000 1:-0.10440612 2:-0.17028252 3:-0.12202655 4:0.40483401 5:0.34427749 6:-0.67989299 7:0.32769939 8:-0.049756204 9:-1.0979758 10:0.39835723 
-1000 1:1.6870671 2:-1.2614473 3:1.6739108 4:1.0575046 5:-0.73516916 6:0.39493055 7:-0.69130659 8:-1.4272122 9:-0.79820309 10:1.2498429 
1000 1:0.59317566 2:-1.071883 3:0.59317684 4:0.45218894 5:0.59352811 6:1.4766465 7:-1.3179154 8:-1.014061 9:-1.5600556 10:0.33767633 
-181.49025622739907 1:-0.1026967 2:-0.21921868 3:-0.10512197 4:-0.19826271 5:-0.82143699 6:1.0166897 7:0.94263908 8:-0.15940136 9:1.5568842 10:-0.29656464 
96.012372552087072 1:1.0584047 2:-0.9858331 3:1.0711546 4:0.18271191 5:0.90190057 6:2.0572999 7:-2.4291091 8:-1.2077377 9:-2.2622111 10:0.2077859 
1000 1:1.4994977 2:-0.55417516 3:1.5308176 4:1.1190301 5:-1.3595618 6:-1.4860789 7:-0.2950927 8:-0.54819569 9:0.92203453 10:1.2360969 
1000 1:-0.56826507 2:0.028830538 3:-0.58902248 4:0.25501139 5:0.59844784 6:-0.75208698 7:-0.028582951 8:0.043527696 9:-0.42563634 10:0.3192826 
1000 1:1.1708003 2:-0.40307456 3:1.1550425 4:0.66678796 5:-1.2033286 6:-0.6463384 7:0.54640773 8:-0.25304165 9:0.32478691 10:0.52755769 
-1000 1:-1.4061602 2:1.6148081 3:-1.3915171 4:-1.7010306 5:1.5075065 6:0.37579151 7:-1.2629234 8:1.6203131 9:0.096357856 10:-1.803632 
-1000 1:2.6548626 2:-0.85469611 3:2.6855245 4:1.2378206 5:-2.0170616 6:-0.94184727 7:0.47984799 8:-0.74921153 9:-0.55087374 10:1.1379002 
1000 1:-0.93627399 2:0.29725589 3:-0.94521036 4:-0.38725839 5:0.77629156 6:0.17947223 7:-0.1023177 8:0.3227246 9:-0.066953229 10:-0.37053714 
1000 1:-1.8697144 2:0.47621881 3:-1.8933424 4:-0.2325217 5:1.4644148 6:-0.61486081 7:0.48471906 8:0.36060531 9:-0.6313568 10:-0.06268703 
-1000 1:-0.056602553 2:-0.74844941 3:-0.060682424 4:1.1752564 5:0.71814584 6:-1.0497161 7:-0.92364983 8:-0.58401312 9:-0.92715462 10:1.0263383 
-1000 1:0.25436495 2:-1.4882063 3:0.24483566 4:1.0948732 5:0.89246181 6:0.87768298 7:-1.7269213 8:-1.1180091 9:-1.2241456 10:0.71919823 
-1000 1:0.46968242 2:0.52048082 3:0.46494447 4:-0.42878486 5:-1.5087087 6:-0.19756136 7:1.3192887 8:0.37196355 9:1.8745815 10:-0.28001363 
-1000 1:0.73741341 2:-0.52710957 3:0.71702302 4:0.41176716 5:-0.61617925 6:0.22753968 7:-0.16813019 8:-0.45448378 9:0.36705647 10:0.36092492 
1000 1:-1.3858659 2:-0.11633357 3:-1.4036176 4:-0.040001895 5:1.470447 6:0.47781951 7:-0.61227192 8:0.051738166 9:-0.5146133 10:-0.31086697 
-1000 1:-1.3451372 2:0.88823061 3:-1.3677435 4:-0.81994948 5:0.75327198 6:-0.0860089 7:0.51915456 8:1.1574864 9:0.22788183 10:-1.1184667 
1000 1:0.45223142 2:-0.52594696 3:0.43301198 4:0.49846989 5:-0.51909256 6:0.027709769 7:0.55100498 8:-0.65879745 9:-0.074577093 10:0.64241404 
1000 1:-0.61447508 2:0.20067353 3:-0.61126156 4:-0.029287619 5:0.6419447 6:-0.38988434 7:-0.36561357 8:0.43394536 9:-0.10896055 10:-0.26274592 
1000 1:-0.28775237 2:-0.86665053 3:-0.29287239 4:1.0748893 5:0.93002596 6:-0.48096957 7:-1.0276033 8:-0.85745332 9:-0.91732271 10:1.0233763 
-1000 1:1.1474422 2:-0.19908037 3:1.1347893 4:0.46993309 5:-1.1741463 6:-0.76642323 7:0.91857319 8:-0.17009117 9:-0.11662426 10:0.55300317 
1000 1:1.3013979 2:-0.37808741 3:1.2875646 4:0.36115431 5:-1.1621501 6:-0.05472685 7:0.5142276 8:-0.16325338 9:-0.044861843 10:0.22361854 
-1000 1:-0.38196328 2:1.8932073 3:-0.36029169 4:-1.5200685 5:-1.1928069 6:-0.82736989 7:1.8725756 8:1.3588808 9:2.1919846 10:-0.97035628 
1000 1:1.1125378 2:-1.1587609 3:1.1359206 4:1.0018241 5:-1.0740438 6:0.28391693 7:0.30660285 8:-1.1704334 9:0.29921321 10:1.047502 
1000 1:0.59420069 2:-1.7834838 3:0.58426737 4:1.2912409 5:-0.5168521 6:1.1757509 7:-0.13042824 8:-1.7269327 9:0.34156463 10:1.1509512 
-1000 1:1.2902393 2:-0.42841864 3:1.3344964 4:0.46466704 5:-1.5255881 6:-0.18086066 7:0.40687379 8:-0.22703245 9:1.0758411 10:0.3391799 
-1000 1:1.5966951 2:0.0585765 3:1.6334635 4:0.3463687 5:-1.2124584 6:-1.1036541 7:0.16672124 8:0.078015081 9:-0.22044037 10:0.4686961 
1000 1:-0.84049861 2:1.8053957 3:-0.86264668 4:-2.1895787 5:0.55022969 6:1.0688228 7:0.13242015 8:1.5939816 9:0.13186852 10:-2.0642248 
1000 1:-1.501536 2:0.34570922 3:-1.4568668 4:-0.38283824 5:1.7739631 6:0.036488135 7:-1.0622307 8:0.54736409 9:-0.71155226 10:-0.51971842 
1000 1:1.8326706 2:-0.26724799 3:1.8824495 4:0.59052553 5:-1.0438111 6:-0.74656603 7:-0.52563437 8:-0.33320926 9:-0.47865494 10:0.63108711 
-1000 1:-0.099492794 2:0.0069176349 3:-0.126826 4:-0.24869655 5:-0.58409232 6:0.65583056 7:0.77157146 8:0.067066082 9:1.0822813 10:-0.38750748 
-1000 1:0.6770474 2:0.40710165 3:0.65373569 4:-0.19359648 5:-1.7315905 6:-0.46408144 7:1.6055113 8:0.41290677 9:1.7710117 10:-0.21930599 
1000 1:0.23600463 2:-0.67055827 3:0.22939914 4:0.20233533 5:-0.51105511 6:1.145105 7:0.43198636 8:-0.77190243 9:0.48915856 10:0.23611658 
1000 1:-0.56080613 2:0.37589282 3:-0.56013192 4:0.126767 5:1.0024504 6:-1.2041971 7:-1.1382061 8:0.40560517 9:-0.41629124 10:0.13130911 
1000 1:0.6354879 2:-0.29273198 3:0.62730675 4:0.56170205 5:-0.39688318 6:-0.6552258 7:0.10904028 8:-0.4242389 9:-0.35519601 10:0.69935105 
-1000 1:-1.5408312 2:-0.00029770323 3:-1.5581292 4:0.2421181 5:1.7278995 6:-0.53685933 7:-0.42267703 8:-0.23406122 9:-1.1226469 10:0.44090003 
1000 1:1.442901 2:-0.62432616 3:1.5083076 4:0.74443786 5:-1.8221622 6:-0.28836996 7:0.64494397 8:-0.15990098 9:1.312044 10:0.27019091 
-1000 1:1.5679369 2:-0.65082425 3:1.5640331 4:0.92172332 5:-0.79709475 6:-0.73861666 7:-0.418752 8:-0.59080487 9:-0.66785268 10:0.93089645 
1000 1:0.48243321 2:-0.077789588 3:0.48430932 4:0.0586296 5:-0.79357027 6:0.036062823 7:1.0293575 8:-0.017403712 9:0.10341594 10:0.0048384827 
-1000 1:-2.1824653 2:3.4310077 3:-2.1738856 4:-3.3371723 5:0.48585939 6:-0.093749216 7:1.7326142 8:3.64066 9:1.463802 10:-3.5267881 
-388.78724962702944 1:-1.0815549 2:-0.17547072 3:-1.0685082 4:1.1807025 5:1.3433256 6:-2.6654931 7:-0.80632016 8:0.35526296 9:-0.63492315 10:0.93042032 
1000 1:0.44487339 2:0.30436146 3:0.43696295 4:-0.27929656 5:-0.86182005 6:-0.06532901 7:0.92354007 8:0.19060169 9:0.50690411 10:-0.15013156 
-1000 1:0.2850372 2:-0.077649686 3:0.30261679 4:-0.17743716 5:-0.92264808 6:0.73268406 7:0.90984445 8:-0.29827 9:1.01672 10:-0.086659012 
-1000 1:0.50088364 2:-0.57970757 3:0.49333592 4:0.34390019 5:-0.51487714 6:0.51894681 7:0.013890263 8:-0.53651516 9:0.37942533 10:0.31269361 
1000 1:-1.0039576 2:0.60042708 3:-0.99002325 4:-0.2885637 5:1.0052982 6:-0.77859328 7:-0.1064036 8:0.61414599 9:-0.59703927 10:-0.23764792 
-1000 1:-2.6653507 2:0.8643555 3:-2.6781745 4:-0.41828065 5:1.6617686 6:-1.1884642 7:0.91886363 8:0.94766842 9:0.050890676 10:-0.33826042 
1000 1:0.22205227 2:0.24284348 3:0.19706937 4:0.28165586 5:-0.30554904 6:-1.2868833 7:0.7044824 8:0.18632508 9:-0.34674847 10:0.39446632 
1000 1:-1.6250433 2:3.0002792 3:-1.6161399 4:-3.3646584 5:0.69260542 6:1.0704718 7:0.7604922 8:2.8678817 9:0.71452691 10:-3.3149211 
-1000 1:0.92869287 2:-0.77407617 3:0.93731617 4:1.3056353 5:-0.70420213 6:-1.4174928 7:-0.39996241 8:-0.90159205 9:0.42380804 10:1.5540277 
1000 1:-0.66088525 2:0.48452609 3:-0.66373813 4:-0.56655093 5:0.83950042 6:0.25939122 7:-0.49653239 8:0.75525865 9:-0.42556535 10:-0.87432802 
-1000 1:0.84799894 2:-0.14754491 3:0.84805974 4:0.097549168 5:-1.6326337 6:0.085478298 7:1.3726003 8:-0.049935249 9:1.3428887 10:0.02607062 
-1000 1:0.45743733 2:-0.71507211 3:0.45450505 4:-0.060177835 5:1.4747191 6:2.0424158 7:-2.9292385 8:-0.99512321 9:-2.0352439 10:-0.014656191 
-273.43137955589509 1:-4.8825738 2:1.6750131 3:-4.7784001 4:-1.1950794 5:2.4178038 6:-1.1162053 7:1.6654579 8:1.5148184 9:1.7706451 10:-0.98580801 
-1000 1:0.35624625 2:-0.18419089 3:0.33343925 4:0.23306138 5:-0.74915321 6:-0.11584741 7:0.83482015 8:-0.30312978 9:0.48948238 10:0.34309922 
1000 1:0.9530627 2:-0.84438787 3:0.97557139 4:0.93667063 5:-0.88183086 6:-0.30746664 7:0.024613534 8:-0.79277732 9:0.40302352 10:0.93676874 
1000 1:-0.1931114 2:-0.378675 3:-0.19687263 4:0.52352565 5:0.57485535 6:-0.3287034 7:-0.6006946 8:-0.2267204 9:-0.57067522 10:0.34840182 
1000 1:-0.83390761 2:0.87932139 3:-0.82354762 4:-0.60888552 5:1.0732968 6:-0.66597393 7:-0.5882882 8:0.85334094 9:-0.63400023 10:-0.52216256 
1000 1:1.075356 2:-0.46011749 3:1.091513 4:0.55237384 5:-1.372848 6:-0.32842046 7:0.79618331 8:-0.018813901 9:0.71236667 10:0.2051346 
-1000 1:0.35676924 2:0.031743363 3:0.36766233 4:0.013812027 5:-0.80511389 6:-0.16935742 7:0.78599303 8:-0.06558374 9:0.66537313 10:0.16796625 
-1000 1:-1.5136757 2:0.87183844 3:-1.4672057 4:-0.9784147 5:1.1848177 6:0.21205544 7:-0.20598619 8:0.87229579 9:0.071065229 10:-0.90880998 
-1000 1:0.23965887 2:0.25440294 3:0.24496343 4:-0.20545428 5:-0.88733094 6:-0.15822362 7:1.1060958 8:0.4174852 9:0.8139204 10:-0.31551468 
-1000 1:0.17424521 2:-1.1661509 3:0.15219326 4:1.0368365 5:1.0477513 6:0.35714627 7:-1.2783863 8:-1.0485279 9:-1.9698557 10:0.82734864 
-1000 1:-1.8114107 2:3.4831638 3:-1.7916674 4:-3.8326994 5:-0.47383042 6:1.0522771 7:2.4330992 8:3.277897 9:2.6343419 10:-3.7082795 
-42.179419958009234 1:-1.708566 2:3.3047547 3:-1.7127126 4:-4.1411079 5:0.45607918 6:2.1406827 7:0.98517484 8:3.2660784 9:1.3446867 10:-4.1330776 
1000 1:0.61633894 2:-1.0151622 3:0.63828853 4:0.8471294 5:-0.81083275 6:0.37720622 7:0.37213121 8:-1.0006923 9:0.55497488 10:0.81054202 
-1000 1:-0.18287596 2:0.4636542 3:-0.19689592 4:-0.56159273 5:-0.75983862 6:0.2484142 7:0.92498566 8:0.53568357 9:1.5866277 10:-0.63055856 
1000 1:-0.030002474 2:1.7530467 3:-0.011511962 4:-1.5873642 5:-0.67408965 6:-0.40975055 7:0.94239621 8:1.3151752 9:0.95329209 10:-1.0718709 
-1000 1:0.72801265 2:-1.3984397 3:0.70111867 4:0.64103882 5:0.6339224 6:1.7873855 7:-1.7270027 8:-1.5048323 9:-1.4949673 10:0.68725396 
-1000 1:-0.80775837 2:-0.033858316 3:-0.78397008 4:0.10007275 5:0.95958852 6:-0.18326476 7:-0.4370981 8:0.013821652 9:-0.54391273 10:0.077395956 
1000 1:0.85816007 2:-0.05651521 3:0.84478956 4:0.29290041 5:-0.73545093 6:-0.58899068 7:0.22123855 8:-0.17396706 9:0.014722235 10:0.43573609 
1000 1:-0.82316481 2:0.34652495 3:-0.82684575 4:-0.55023838 5:0.63094027 6:0.54694531 7:0.45634703 8:0.28447046 9:-0.51020951 10:-0.53826083 
-1000 1:0.93810427 2:-0.046079981 3:0.92480378 4:0.20059446 5:-0.57884625 6:-0.40873142 7:0.069847497 8:-0.24505115 9:-0.44396795 10:0.43533847 
1000 1:0.14056705 2:-0.62986411 3:0.13883171 4:-0.16382896 5:-0.27479739 6:1.9475767 7:-0.076094582 8:-0.34670921 9:0.56701195 10:-0.53858494 
1000 1:-1.3728951 2:0.71237136 3:-1.3893064 4:-0.58299657 5:1.0292065 6:-0.26963551 7:0.28199598 8:0.62033752 9:-0.25191452 10:-0.49753068 
-1000 1:1.4109208 2:-0.92517282 3:1.3954918 4:1.1425706 5:-0.5923238 6:-0.55066575 7:-0.61701822 8:-0.8659315 9:-0.68499696 10:1.0843696 
1000 1:0.81035367 2:-0.061048741 3:0.7837855 4:0.12596629 5:-1.1537629 6:-0.079625617 7:1.0327893 8:-0.2018639 9:0.44988523 10:0.19364562 
1000 1:-0.4887471 2:-0.1658731 3:-0.46816165 4:-0.033745899 5:1.1304202 6:0.47643725 7:-1.1279948 8:-0.023162125 9:-0.97320279 10:-0.1859233 
-1000 1:-1.4248466 2:1.5361503 3:-1.4024124 4:-1.8726204 5:0.54246468 6:0.83144292 7:1.1283535 8:1.544845 9:0.29406109 10:-1.8575084 
1000 1:2.2834746 2:-0.85900975 3:2.3039298 4:1.4385978 5:-1.1781874 6:-1.6530751 7:-0.61844917 8:-0.69739775 9:-0.94200971 10:1.5139407 
-1000 1:0.60791134 2:0.12273468 3:0.59148718 4:0.14430709 5:-0.78195531 6:-0.67789618 7:0.30798788 8:-0.02078339 9:0.60207854 10:0.33516035 
1000 1:-0.24381466 2:-0.14806362 3:-0.25869723 4:0.0049035874 5:0.75634753 6:0.35337974 7:-0.68892445 8:-0.20099596 9:-0.87280525 10:0.035929054 
-1000 1:0.58608096 2:-0.2773141 3:0.60251156 4:0.2861332 5:-1.0147764 6:-0.020921763 7:0.69687919 8:-0.12203392 9:0.85846828 10:0.1233101 
1000 1:0.66610362 2:0.40659657 3:0.64418137 4:-0.31453173 5:-1.1269394 6:-0.15997172 7:0.67934887 8:0.1593371 9:1.0668343 10:-0.10912408 
-1000 1:-1.2626677 2:0.68695948 3:-1.233764 4:-0.38435705 5:1.262129 6:-0.68523371 7:-0.29132321 8:0.27992273 9:-0.58542816 10:0.015836292 
-1000 1:-0.17351094 2:-0.14639198 3:-0.16136385 4:-0.40731182 5:0.52750047 6:1.4218804 7:-0.96750874 8:-0.28908757 9:-0.095461585 10:-0.38258411 
-1000 1:-0.5907722 2:0.03893933 3:-0.60313869 4:-0.53931546 5:1.0094862 6:1.175459 7:-1.0602612 8:0.22241193 9:-0.44188088 10:-0.71491241 
1000 1:-0.34328917 2:0.42988266 3:-0.33185099 4:-0.80951446 5:1.0651694 6:1.018445 7:-1.3978537 8:0.51067361 9:-0.79904994 10:-0.98728151 
1000 1:-0.0099102818 2:-0.42017736 3:-0.022996849 4:-0.108546 5:0.51215248 6:1.3857883 7:-0.39918372 8:-0.32525115 9:-0.99900904 10:-0.34835775 
1000 1:-0.64673257 2:0.56639726 3:-0.65526123 4:-0.67952602 5:0.54430986 6:0.25179327 7:0.068660422 8:0.47830236 9:-0.21858076 10:-0.55760014 
-1000 1:1.146483 2:-0.64232181 3:1.1596597 4:0.54760488 5:-1.6067398 6:0.24864668 7:1.1754736 8:-0.44534058 9:0.81883491 10:0.30586237 
-1000 1:0.15587757 2:-0.10507579 3:0.13227738 4:-0.11708445 5:-0.32644066 6:0.57752451 7:0.29288394 8:-0.51994075 9:0.30393285 10:0.23488866 
1000 1:0.204833 2:0.076681208 3:0.22030666 4:-0.18640385 5:-0.60141198 6:0.25720518 7:0.8036022 8:0.011369595 9:0.38768524 10:-0.11831092 
-1000 1:-1.2755816 2:1.3564226 3:-1.2895839 4:-1.1905533 5:0.73730489 6:-0.42327943 7:0.40621172 8:1.4859786 9:0.23580923 10:-1.2343371 
-1000 1:0.82140584 2:-0.30829621 3:0.82352475 4:0.45568199 5:-0.76942181 6:-0.38351097 7:0.32604952 8:-0.38909502 9:0.061276054 10:0.55660674 
-1000 1:0.046914862 2:-0.23991408 3:0.046563978 4:-0.32030052 5:-0.61783141 6:1.4689422 7:0.4910254 8:-0.27065963 9:1.1362728 10:-0.43828819 
502.59499081962895 1:-1.5832515 2:2.0034154 3:-1.5800442 4:-2.5538743 5:0.95738405 6:1.5286589 7:-0.13330144 8:2.1983029 9:0.84309958 10:-2.8821457 
-1000 1:0.63618576 2:-1.5793426 3:0.6558293 4:0.64554864 5:0.60698496 6:2.2388018 7:-1.7462968 8:-1.5115916 9:-1.2473403 10:0.480713 
1000 1:-0.0087707202 2:-0.40593717 3:-0.026318269 4:-0.0097623453 5:0.034879672 6:0.97853957 7:-0.096365692 8:-0.39516037 9:0.043043689 10:-0.035771383 
-1000 1:-1.0116983 2:0.11480692 3:-1.0188572 4:0.17284566 5:1.3209262 6:-0.67647427 7:-0.64545247 8:0.23962407 9:-0.87591956 10:0.054179102 
1000 1:1.2592941 2:-0.26056177 3:1.2580631 4:0.39583555 5:-1.0687097 6:-0.3163207 7:0.90218536 8:-0.33135913 9:-0.65734922 10:0.45298375 
-1000 1:-0.34822727 2:0.34336461 3:-0.35292281 4:-0.90174274 5:0.57685784 6:1.4956918 7:-0.16754198 8:0.054471579 9:-0.70912399 10:-0.77288856 
1000 1:-0.7529708 2:1.1714303 3:-0.75079714 4:-1.5259658 5:0.20275618 6:0.9410923 7:0.17186579 8:1.0569896 9:0.86877253 10:-1.466646 
1000 1:0.15858958 2:-0.047219283 3:0.13114872 4:0.056032938 5:-0.26904584 6:0.053057277 7:0.39857425 8:-0.24314986 9:0.022469976 10:0.17770774 
1000 1:-0.62291997 2:0.88640328 3:-0.62990636 4:-1.5119678 5:0.096709444 6:1.600569 7:0.37086794 8:1.0822741 9:0.6830868 10:-1.7874519 
-1000 1:-1.6226798 2:1.6368142 3:-1.5975796 4:-1.4420656 5:1.1979746 6:-0.35771742 7:-0.12265136 8:1.6911585 9:0.20324843 10:-1.5250682 
1000 1:1.2299767 2:-0.19918799 3:1.2284445 4:0.83667849 5:-1.0634324 6:-1.6969579 7:0.18656383 8:-0.3443032 9:0.17079195 10:1.15257 
-1000 1:0.023652344 2:-1.1100905 3:0.014747954 4:1.1781252 5:0.87788592 6:-0.22566619 7:-1.2806164 8:-1.0208306 9:-1.1663986 10:1.1080759 
1000 1:-1.1360687 2:1.6237323 3:-1.1464301 4:-2.1656763 5:0.050995478 6:1.4252702 7:1.3659057 8:1.252791 9:0.85227226 10:-1.8771485 
-1000 1:1.9575134 2:-0.27548712 3:1.9980817 4:0.79269517 5:-1.3156079 6:-1.3219509 7:-0.035511772 8:-0.11221887 9:-0.49431125 10:0.71839131 
801.89079800001718 1:-0.30336661 2:0.14564196 3:-0.21724503 4:-0.30222627 5:2.3643506 6:0.30479686 7:-2.7642089 8:0.14737863 9:-3.2073091 10:-0.23898777 
1000 1:-0.9300645 2:1.1065948 3:-0.91854184 4:-1.3650289 5:1.0192391 6:0.70135155 7:-1.054392 8:1.2079105 9:0.23672201 10:-1.5071656 
-1000 1:0.47371569 2:-0.61012578 3:0.49879154 4:0.66601902 5:-0.9368557 6:-0.082141445 7:0.63900494 8:-0.53170995 9:0.93323489 10:0.51953695 
-34.782286843042129 1:0.57840242 2:-0.69090141 3:0.59041576 4:0.64753276 5:-0.84662823 6:0.13785654 7:0.088087471 8:-0.66945316 9:1.0603573 10:0.56646684 
48.899127862747612 1:1.4723597 2:-0.51805794 3:1.484685 4:0.86722696 5:-1.435921 6:-0.89311842 7:0.97274681 8:-0.0303222 9:-0.1593915 10:0.43486234 
-1000 1:-0.68220228 2:0.33133809 3:-0.68841154 4:-0.14274498 5:0.91612726 6:-0.40716894 7:-0.52633554 8:0.42359658 9:-0.56287677 10:-0.25445788 
1000 1:0.81012892 2:0.28009893 3:0.80175018 4:0.28779111 5:-1.0864015 6:-1.4527541 7:0.59587431 8:0.39717984 9:0.71296577 10:0.29101875 
-596.89907944040169 1:-1.071038 2:2.2891649 3:-1.0781484 4:-2.0740069 5:0.85867765 6:-0.47407807 7:-0.168056 8:2.148075 9:0.059756932 10:-1.8767559 
-1000 1:0.31548835 2:0.58541025 3:0.34476842 4:-0.55987763 5:-1.1750374 6:0.026376164 7:1.2216654 8:0.39578159 9:1.3223062 10:-0.43147533 
-1000 1:0.89020644 2:-0.44732833 3:0.91322173 4:0.49437455 5:-1.044635 6:-0.089314078 7:0.80725592 8:-0.090670435 9:0.15441991 10:0.10761111 
-1000 1:0.3003168 2:0.2843584 3:0.30659837 4:-0.36246601 5:-1.1414088 6:0.24153713 7:0.98060087 8:0.18752212 9:1.5463605 10:-0.30989299 
281.13828343851668 1:-0.97095573 2:0.3517788 3:-0.99420181 4:-0.63837167 5:1.0159688 6:0.71586081 7:-0.57913944 8:0.54412253 9:-0.1443879 10:-0.85110615 
1000 1:0.33205031 2:0.22893223 3:0.32773674 4:-0.11365354 5:-0.74663401 6:-0.21880353 7:0.66626775 8:0.109457 9:0.69831642 10:-0.03649811 
1000 1:0.47789226 2:-0.6435056 3:0.4675851 4:0.36631092 5:-0.83800399 6:0.76632335 7:0.87961861 8:-0.53954357 9:0.41708102 10:0.13410242 
312.86600239843835 1:-0.55470354 2:-0.012867329 3:-0.55867651 4:0.13573228 5:0.80298889 6:-0.32955222 7:-0.26357532 8:-0.025024188 9:-0.804473 10:0.1844354 
1000 1:-2.612115 2:2.0336535 3:-2.6307669 4:-1.7553024 5:1.9341044 6:-0.54557282 7:0.053150921 8:1.9874004 9:0.10242058 10:-1.7325932 
1000 1:-0.67929228 2:-0.20683882 3:-0.69268127 4:0.20726387 5:0.91552734 6:0.0025641044 7:-0.57440993 8:-0.096582314 9:-0.50734368 10:0.087862503 
1000 1:-0.016692294 2:0.14965678 3:0.00023046606 4:-0.54060125 5:-0.75335246 6:1.0911968 7:0.8965697 8:0.073146775 9:1.2033163 10:-0.61791016 
1000 1:-0.031089006 2:-0.50772638 3:-0.030064267 4:0.56482017 5:0.58471198 6:-0.15534735 7:-1.2463289 8:-0.575361 9:-0.25414721 10:0.6306611 
1000 1:0.73310652 2:-0.43708071 3:0.73871241 4:0.28399444 5:-0.71533269 6:0.36189318 7:0.3348235 8:-0.2144567 9:0.085050283 10:0.047538316 
422.0670288871836 1:1.2899128 2:0.23181349 3:1.3205359 4:-0.12950818 5:-1.1794542 6:-0.16698036 7:0.63006527 8:0.19497208 9:-0.14471099 10:-0.15292653 
-1000 1:0.9319395 2:-0.60599438 3:0.94542906 4:0.60466295 5:-1.0969555 6:0.0089239589 7:0.92802055 8:-0.47247179 9:0.092526364 10:0.44485276 
1000 1:0.41242307 2:-2.0062259 3:0.38825966 4:1.7136187 5:0.91154637 6:0.562972 7:-1.6447434 8:-1.9521059 9:-1.6966709 10:1.6992763 
1000 1:0.84383733 2:-0.7859696 3:0.87559605 4:0.70566481 5:-1.3235123 6:0.22947881 7:0.9999504 8:-0.431769 9:0.83623708 10:0.29057102 
-1000 1:-1.1005664 2:0.47326222 3:-1.090143 4:-0.32342852 5:0.75697522 6:-0.32077025 7:0.46755537 8:0.60852399 9:-0.29520987 10:-0.46722364 
1000 1:-1.0164305 2:0.2739863 3:-1.0282445 4:0.28747407 5:1.1866366 6:-1.3461134 7:-0.34155666 8:0.32901845 9:-0.80612542 10:0.26641861 
1000 1:0.1892033 2:0.59423051 3:0.18095139 4:-0.51434972 5:-0.86694745 6:-0.14090657 7:0.62171083 8:0.7242993 9:1.4074343 10:-0.66238087 
-1000 1:-0.010733991 2:-0.82593843 3:0.0036517085 4:0.47312958 5:0.85139665 6:0.92465832 7:-1.4132178 8:-0.91866437 9:-0.89649907 10:0.44478426 
-1000 1:1.1005477 2:-1.3622894 3:1.0882535 4:1.3675562 5:-0.58438811 6:-0.065601138 7:-0.35303134 8:-1.4378884 9:-0.3225816 10:1.4378432 
-1000 1:1.1429441 2:-0.33543965 3:1.1233869 4:0.61607203 5:-1.6380504 6:-0.79876135 7:1.2560603 8:-0.20546014 9:0.86427384 10:0.60348651 
-1000 1:1.3548484 2:-0.26687169 3:1.3863867 4:0.60478016 5:-1.4832737 6:-0.89396634 7:0.76338469 8:-0.14039195 9:0.43942016 10:0.56152844 
-1000 1:-1.1344957 2:0.21038414 3:-1.1032936 4:-0.032724887 5:1.1056036 6:-0.4020679 7:-0.0065591743 8:0.13900788 9:-0.72803007 10:0.030280627 
1000 1:1.2839083 2:-1.8102301 3:1.285835 4:1.7439462 5:-0.79724561 6:-0.0223653 7:-0.42913675 8:-1.9985228 9:-0.043844749 10:2.0233082 
1000 1:-0.00584011 2:-1.3877243 3:-0.0031987622 4:1.6824503 5:1.024685 6:-0.75599768 7:-1.406624 8:-1.0562541 9:-1.398715 10:1.3610389 
-1000 1:-1.0514076 2:0.26349511 3:-1.022534 4:-0.26466982 5:1.9022765 6:0.0066334021 7:-1.5751588 8:0.15890057 9:-1.4845117 10:-0.15549096 
1000 1:-0.02867922 2:-0.1708884 3:-0.02460665 4:0.22913338 5:0.23870442 6:-0.099615276 7:-0.75883482 8:-0.45280588 9:0.19929306 10:0.46387965 
-1000 1:-0.19290693 2:0.058506908 3:-0.19202593 4:0.18584026 5:-0.10370494 6:-0.65249191 7:0.39261026 8:0.15314216 9:0.2893045 10:0.16687866 
-1000 1:-0.47123725 2:0.19192573 3:-0.49150875 4:-0.50431295 5:0.42576774 6:0.88656226 7:0.045450568 8:0.4285996 9:-0.22265639 10:-0.86861277 
1000 1:0.1403782 2:0.09743257 3:0.12827917 4:-0.25609995 5:-0.52943194 6:0.37989685 7:0.36290409 8:0.16289753 9:0.83135372 10:-0.32224735 
1000 1:-0.38806488 2:-0.48402022 3:-0.40996326 4:0.88652311 5:0.49652877 6:-1.1271175 7:0.14130492 8:-0.25893647 9:-0.70939637 10:0.81331194 
-1000 1:-0.47251496 2:0.084398758 3:-0.45972933 4:-0.48398237 5:0.54068262 6:1.1005662 7:-0.095461745 8:0.048897326 9:-0.43215111 10:-0.59386801 
1000 1:0.62965128 2:-0.042346401 3:0.62628257 4:0.01002842 5:-0.70694945 6:0.16221466 7:0.52055922 8:-0.11535641 9:0.093890459 10:7.382352e-05 
-1000 1:0.38166704 2:1.0373328 3:0.36772288 4:-0.80001502 5:-0.96237353 6:-0.57924815 7:1.1408231 8:0.94577225 9:0.7030788 10:-0.65098378 
1000 1:-0.65100256 2:-0.14850593 3:-0.63470183 4:0.90492816 5:0.61121666 6:-2.012624 7:0.095600181 8:0.10567661 9:-0.45759514 10:0.86455709 
-1000 1:0.4971373 2:0.069003836 3:0.47749213 4:0.06198955 5:-0.94497749 6:-0.27321101 7:1.0081239 8:0.12760359 9:0.55234376 10:-0.025438487 
-1000 1:-2.3382626 2:0.90115824 3:-2.2951737 4:-0.76520845 5:2.0992488 6:-0.35870411 7:-0.95770772 8:0.89706021 9:0.065473381 10:-0.69032229 
-1000 1:-1.4038843 2:0.85363831 3:-1.4058416 4:-0.91709147 5:1.4209003 6:0.18379743 7:-0.14733408 8:0.76135981 9:-0.8565781 10:-0.82526974 
1000 1:-0.21571162 2:-0.27878593 3:-0.20381228 4:0.047241005 5:0.99876103 6:0.47393043 7:-1.3383802 8:-0.11317548 9:-0.95161851 10:-0.059761743 
1000 1:-0.79671119 2:0.5528598 3:-0.79509894 4:-1.0405538 5:-0.037907196 6:1.2621181 7:0.89422516 8:0.35922581 9:0.86870298 10:-0.9346464 
1000 1:0.43778733 2:-0.28048986 3:0.41189025 4:0.17073902 5:-0.54445081 6:0.19339218 7:0.38473157 8:-0.14114735 9:0.21793546 10:0.083605717 
-1000 1:0.3596681 2:0.021768733 3:0.33626023 4:0.051180305 5:-0.66431193 6:-0.19010399 7:0.098183933 8:-0.098081173 9:1.0412353 10:0.18642345 
-1000 1:1.0639125 2:-0.31872857 3:1.0469197 4:0.47600338 5:-1.2217109 6:-0.33405855 7:1.0083577 8:-0.23389241 9:0.10875207 10:0.34680302 
1000 1:0.5181059 2:0.99994603 3:0.4983104 4:0.0028693296 5:-0.63297375 6:-2.4696289 7:0.50272548 8:1.1488156 9:0.16188223 10:-0.0037736555 
1000 1:0.29771185 2:-1.2705376 3:0.27497068 4:0.62905286 5:-0.70759204 6:1.6629637 7:1.8647771e-05 8:-1.1540141 9:1.4064969 10:0.32413748 
156.44423209212675 1:-2.2424248 2:1.787545 3:-2.2088547 4:-2.4676263 5:-1.149999 6:1.7564404 7:3.8591181 8:1.4669896 9:3.9455748 10:-2.227523 
-1000 1:0.13478728 2:0.96895028 3:0.16034209 4:-1.0258635 5:-1.1454922 6:0.15658288 7:1.3114003 8:0.65206592 9:1.5374812 10:-0.6985435 
531.65084954893302 1:-2.9344212 2:0.77412539 3:-2.8447925 4:-0.79320298 5:2.7048802 6:0.014103393 7:-0.89706922 8:0.82354111 9:-0.49041818 10:-0.78288231 
1000 1:1.0878851 2:-0.64599728 3:1.0747901 4:0.59974501 5:-0.92020298 6:0.074029118 7:0.47883658 8:-0.47136853 9:-0.23628502 10:0.43582296 
-1000 1:-0.39642649 2:-0.013256901 3:-0.39677142 4:0.078678796 5:0.84736366 6:-0.11538786 7:-0.71518501 8:-0.019831897 9:-0.78878989 10:0.048771247 
-1000 1:2.8924118 2:-0.47913479 3:2.9231754 4:0.87535199 5:-2.6060923 6:-1.0284109 7:0.7323993 8:-0.19326635 9:0.34670516 10:0.66501443 
1000 1:0.27718145 2:0.88185396 3:0.2578811 4:-1.0375642 5:-1.1837423 6:0.41554556 7:0.32405997 8:0.73336236 9:2.4608366 10:-0.9030112 
1000 1:0.36589171 2:-0.45280817 3:0.34517569 4:0.061677457 5:-0.21972067 6:1.0317774 7:-0.10284437 8:-0.84561762 9:-0.031988785 10:0.32626086 
-1000 1:0.65152421 2:0.26413794 3:0.66677847 4:0.015826867 5:-1.0433722 6:-0.7826851 7:0.82606481 8:0.41984517 9:0.65861713 10:-0.01203663 
1000 1:0.56632689 2:0.055147833 3:0.57827005 4:0.31441722 5:-1.0225643 6:-0.95532839 7:0.75423842 8:0.24723944 9:0.86627833 10:0.20719617 
1000 1:1.269014 2:-0.485463 3:1.2802563 4:1.0105034 5:-0.7807517 6:-1.3672844 7:-0.19254143 8:-0.69723575 9:-0.32645801 10:1.3203789 
-1000 1:-0.19764089 2:-0.14781467 3:-0.20846 4:-0.60891023 5:-0.42129751 6:1.8691084 7:0.11040935 8:-0.073183753 9:1.5308136 10:-0.7685332 
-1000 1:1.3525862 2:0.31934457 3:1.3473003 4:0.36479564 5:-1.41216 6:-1.6855934 7:0.83708684 8:0.43145919 9:0.20015441 10:0.33646678 
1000 1:-0.57073221 2:-0.27993636 3:-0.57749168 4:0.34947269 5:0.72904575 6:-0.13329782 7:-0.22423914 8:-0.039337518 9:-0.59719357 10:0.074600979 
-663.83007990510112 1:-0.23007742 2:-1.0394667 3:-0.1866841 4:1.3173416 5:2.2382096 6:-0.83216906 7:-2.5824688 8:-0.96491413 9:-3.1563489 10:1.3685969 
1000 1:-0.28396397 2:-0.57467757 3:-0.26980146 4:0.90726816 5:0.71778024 6:-0.81087734 7:-0.6666272 8:-0.40032367 9:-0.73059019 10:0.73969862 
