svm_type c_svc
kernel_type rbf
gamma 0.030303030303030304
nr_class 2
total_sv 387
rho 1.3597081255539196
label 1 -1
probA -3.3071366125870889
probB -1.9463349645638433
nr_sv 345 42
SV
0.10000000000000001 1:2 2:-0.066711111 3:-0.25144444 4:0.040688889 5:-0.32502222 6:-0.14075556 7:0.0236 8:0.043 9:0.07 10:0.21 11:0.12 12:0.43 13:-0.066711111 14:-0.25144444 15:0.040688889 16:-0.40211111 17:-0.050666667 18:0.047 19:0.063 20:0.09 21:0.27 22:0.18 23:0.55 24:-0.066711111 25:-0.25144444 26:0.040688889 27:-0.45288889 28:-0.097 29:0.046266667 30:0.09 31:0.16 32:0.48 33:0.24 34:0.65 35:-0.066711111 36:-0.25144444 37:0.040688889 38:-0.45384444 39:-0.13622222 40:0.022888889 41:0.078 42:0.14 43:0.42 44:0.21 45:0.63 46:-0.066711111 47:-0.25144444 48:0.040688889 49:-0.51197778 50:-0.086266667 51:0.020533333 52:0.087 53:0.19 54:0.58 55:0.22 56:0.65 
0.10000000000000001 1:1 2:-0.018955556 3:0.30068889 4:-0.015444444 5:0.026244444 6:0.27024444 7:-0.021933333 8:-0.014 9:0.03 10:0.08 11:-0.06 12:0.05 13:-0.018955556 14:0.30068889 15:-0.015444444 16:0.34146667 17:0.25046667 18:0.017555556 19:0.031 20:0.12 21:0.34 22:0.07 23:0.5 24:-0.018955556 25:0.30068889 26:-0.015444444 27:0.45744444 28:0.26617778 29:0.026711111 30:0.073 31:0.21 32:0.62 33:0.18 34:0.78 35:-0.018955556 36:0.30068889 37:-0.015444444 38:0.48777778 39:0.19604444 40:0.087355556 41:0.07 42:0.16 43:0.46 44:0.19 45:0.91 46:-0.018955556 47:0.30068889 48:-0.015444444 49:0.5162 50:0.25682222 51:0.080355556 52:0.078 53:0.13 54:0.37 55:0.23 56:0.9 
0.10000000000000001 1:1 2:0.058422222 3:-0.0029777778 4:-0.12744444 5:0.29551111 6:0.058911111 7:-0.18548889 8:0.064 9:0.1 10:0.28 11:0.19 12:0.46 13:0.058422222 14:-0.0029777778 15:-0.12744444 16:0.5428 17:0.22862222 18:-0.18862222 19:0.123 20:0.13 21:0.36 22:0.39 23:0.74 24:0.058422222 25:-0.0029777778 26:-0.12744444 27:0.6806 28:0.18955556 29:-0.16311111 30:0.143 31:0.11 32:0.31 33:0.47 34:0.85 35:0.058422222 36:-0.0029777778 37:-0.12744444 38:0.7066 39:0.19582222 40:-0.13893333 41:0.143 42:0.17 43:0.48 44:0.44 45:0.84 46:0.058422222 47:-0.0029777778 48:-0.12744444 49:0.7066 50:0.19582222 51:-0.13893333 52:0.143 53:0.17 54:0.48 55:0.44 56:0.84 
0.10000000000000001 1:2 2:0.0030222222 3:-0.27595556 4:-0.093733333 5:-0.32742222 6:-0.37248889 7:-0.025244444 8:0.143 9:0.06 10:0.18 11:0.47 12:0.62 13:0.0030222222 14:-0.27595556 15:-0.093733333 16:-0.33708889 17:-0.35835556 18:-0.02 19:0.134 20:0.03 21:0.09 22:0.45 23:0.57 24:0.0030222222 25:-0.27595556 26:-0.093733333 27:-0.33708889 28:-0.35835556 29:-0.02 30:0.134 31:0.03 32:0.09 33:0.45 34:0.57 35:0.0030222222 36:-0.27595556 37:-0.093733333 38:-0.33708889 39:-0.35835556 40:-0.02 41:0.134 42:0.03 43:0.09 44:0.45 45:0.57 46:0.0030222222 47:-0.27595556 48:-0.093733333 49:-0.33708889 50:-0.35835556 51:-0.02 52:0.134 53:0.03 54:0.09 55:0.45 56:0.57 
0.10000000000000001 1:2 2:-0.097622222 3:0.44291111 4:-0.023688889 5:-0.20413333 6:0.45126667 7:-0.031288889 8:0.028 9:0.04 10:0.12 11:0.08 12:0.12 13:-0.097622222 14:0.44291111 15:-0.023688889 16:-0.4226 17:0.43217778 18:0.041311111 19:0.117 20:0.09 21:0.28 22:0.35 23:0.45 24:-0.097622222 25:0.44291111 26:-0.023688889 27:-0.6612 28:0.45397778 29:0.10208889 30:0.155 33:0.52 34:0.76 35:-0.097622222 36:0.44291111 37:-0.023688889 38:-0.66564444 39:0.4556 40:0.11442222 41:0.202 42:0.05 43:0.15 44:0.65 45:0.93 46:-0.097622222 47:0.44291111 48:-0.023688889 49:-0.7056 50:0.45208889 51:0.10886667 52:0.191 53:0.04 54:0.12 55:0.62 56:0.93 
0.10000000000000001 1:2 2:0.0236 3:-0.054444444 4:-0.18173333 5:-0.18051111 6:-0.0011333333 7:-0.12375556 8:0.066 9:0.05 10:0.16 11:0.19 12:0.39 13:0.0236 14:-0.054444444 15:-0.18173333 16:-0.34324444 17:-0.082777778 18:-0.1322 19:0.09 20:0.09 21:0.29 22:0.25 23:0.5 24:0.0236 25:-0.054444444 26:-0.18173333 27:-0.34324444 28:-0.082777778 29:-0.1322 30:0.09 31:0.09 32:0.29 33:0.25 34:0.5 35:0.0236 36:-0.054444444 37:-0.18173333 38:-0.34324444 39:-0.082777778 40:-0.1322 41:0.09 42:0.09 43:0.29 44:0.25 45:0.5 46:0.0236 47:-0.054444444 48:-0.18173333 49:-0.36924444 50:-0.029155556 51:-0.090866667 52:0.131 53:0.08 54:0.26 55:0.38 56:0.56 
0.10000000000000001 1:2 2:0.014044444 3:-0.16482222 4:-0.21666667 5:-0.31233333 6:-0.33917778 7:-0.18168889 8:0.096 9:-0.03 10:-0.1 11:0.31 12:0.31 13:0.014044444 14:-0.16482222 15:-0.21666667 16:-0.35473333 17:-0.38928889 18:-0.14542222 19:0.133 20:-0.04 21:-0.13 22:0.43 23:0.36 24:0.014044444 25:-0.16482222 26:-0.21666667 27:-0.35473333 28:-0.38928889 29:-0.14542222 30:0.133 31:-0.04 32:-0.13 33:0.43 34:0.36 35:0.014044444 36:-0.16482222 37:-0.21666667 38:-0.41771111 39:-0.43262222 40:-0.12651111 41:0.143 42:0.01 43:0.03 44:0.44 45:0.43 46:0.014044444 47:-0.16482222 48:-0.21666667 49:-0.47737778 50:-0.41515556 51:-0.081622222 52:0.152 53:0.03 54:0.1 55:0.46 56:0.52 
0.10000000000000001 1:2 2:0.002 3:0.12073333 4:-0.043688889 5:-0.30002222 6:0.11395556 7:-0.0059333333 8:0.072 9:0.08 10:0.25 11:0.2 12:0.48 13:0.002 14:0.12073333 15:-0.043688889 16:-0.3694 17:0.087755556 18:-0.0158 19:0.09 20:0.05 21:0.16 22:0.27 23:0.54 24:0.002 25:0.12073333 26:-0.043688889 27:-0.3694 28:0.087755556 29:-0.0158 30:0.09 31:0.05 32:0.16 33:0.27 34:0.54 35:0.002 36:0.12073333 37:-0.043688889 38:-0.3694 39:0.087755556 40:-0.0158 41:0.09 42:0.05 43:0.16 44:0.27 45:0.54 46:0.002 47:0.12073333 48:-0.043688889 49:-0.3694 50:0.087755556 51:-0.0158 52:0.09 53:0.05 54:0.16 55:0.27 56:0.54 
0.10000000000000001 1:2 2:0.00097777778 3:-0.19355556 4:-0.20244444 5:-0.11708889 6:-0.2598 7:-0.1704 8:0.082 9:0.07 10:0.21 11:0.26 12:0.39 13:0.00097777778 14:-0.19355556 15:-0.20244444 16:-0.36591111 17:-0.34515556 18:-0.13357778 19:0.162 20:0.1 21:0.3 22:0.52 23:0.79 24:0.00097777778 25:-0.19355556 26:-0.20244444 27:-0.47406667 28:-0.3422 29:-0.13555556 30:0.215 31:0.12 32:0.36 33:0.69 34:1.08 35:0.00097777778 36:-0.19355556 37:-0.20244444 38:-0.48755556 39:-0.31597778 40:-0.14377778 41:0.212 42:0.12 43:0.36 44:0.68 45:1.16 46:0.00097777778 47:-0.19355556 48:-0.20244444 49:-0.49671111 50:-0.28891111 51:-0.12324444 52:0.221 53:0.12 54:0.36 55:0.71 56:1.24 
0.10000000000000001 1:2 2:0.014533333 3:-0.17995556 4:0.12926667 5:-0.13584444 6:-0.20093333 7:0.14926667 8:0.03 9:0.1 10:0.31 11:0.06 12:0.24 13:0.014533333 14:-0.17995556 15:0.12926667 16:-0.67713333 17:-0.053511111 18:0.11742222 19:0.107 20:0.2 21:0.64 22:0.26 23:0.87 24:0.014533333 25:-0.17995556 26:0.12926667 27:-0.822 28:-0.062533333 29:0.060111111 30:0.165 31:0.24 32:0.78 33:0.42 34:1.16 35:0.014533333 36:-0.17995556 37:0.12926667 38:-0.86451111 39:-0.018955556 40:0.047888889 41:0.182 42:0.28 43:0.92 44:0.45 45:1.38 46:0.014533333 47:-0.17995556 48:0.12926667 49:-0.89044444 50:-0.033666667 51:0.0408 52:0.152 53:0.28 54:0.92 55:0.36 56:1.31 
0.10000000000000001 1:2 2:0.021244444 3:-0.53713333 4:0.18104444 5:-0.17708889 6:-0.4794 7:0.11082222 8:-0.004 9:0.22 10:0.66 11:-0.1 12:0.35 13:0.021244444 14:-0.53713333 15:0.18104444 16:-0.34213333 17:-0.4196 18:0.12497778 19:0.023 20:0.29 21:0.9 22:-0.04 23:0.47 24:0.021244444 25:-0.53713333 26:0.18104444 27:-0.384 28:-0.47342222 29:0.069488889 30:0.049 31:0.34 32:1.07 33:0.02 34:0.6 35:0.021244444 36:-0.53713333 37:0.18104444 38:-0.48766667 39:-0.4658 40:0.046733333 41:0.082 42:0.35 43:1.1 44:0.12 45:0.86 46:0.021244444 47:-0.53713333 48:0.18104444 49:-0.59355556 50:-0.46604444 51:-0.0083333333 52:0.06 53:0.44 54:1.42 55:0.01 56:0.88 
0.10000000000000001 1:1 2:-8.8888889e-05 3:-0.0090666667 4:0.22753333 5:0.11337778 6:-0.018377778 7:0.24582222 8:-0.009 9:0.09 10:0.24 11:-0.06 12:0.13 13:-8.8888889e-05 14:-0.0090666667 15:0.22753333 16:0.54211111 17:-0.051844444 18:0.20666667 19:0.106 20:0.13 21:0.35 22:0.36 23:0.78 24:-8.8888889e-05 25:-0.0090666667 26:0.22753333 27:0.98924444 28:0.0712 29:0.14533333 30:0.185 31:0.29 32:0.81 33:0.58 34:1.31 35:-8.8888889e-05 36:-0.0090666667 37:0.22753333 38:1.1311111 39:0.095666667 40:0.17308889 41:0.223 42:0.53 43:1.58 44:0.59 45:1.57 46:-8.8888889e-05 47:-0.0090666667 48:0.22753333 49:1.1311111 50:0.095666667 51:0.17308889 52:0.223 53:0.53 54:1.58 55:0.59 56:1.57 
0.10000000000000001 1:2 2:-0.16228889 3:-0.27404444 4:0.043622222 5:-0.25702222 6:-0.32388889 7:0.028777778 8:0.002 9:-0.03 10:-0.07 11:0.02 12:-0.17 13:-0.16228889 14:-0.27404444 15:0.043622222 16:-0.37486667 17:-0.34288889 18:0.037777778 19:0.039 20:-0.03 21:-0.07 22:0.17 23:0.45 24:-0.16228889 25:-0.27404444 26:0.043622222 27:-0.60922222 28:-0.32828889 29:0.0024888889 30:0.084 31:0.26 32:0.69 33:0.22 34:0.8 35:-0.16228889 36:-0.27404444 37:0.043622222 38:-0.78684444 39:-0.30768889 40:-0.013533333 41:0.136 42:0.43 43:1.19 44:0.33 45:1.29 46:-0.16228889 47:-0.27404444 48:0.043622222 49:-0.89753333 50:-0.36457778 51:-0.029666667 52:0.184 53:0.65 54:1.91 55:0.38 56:1.6 
0.10000000000000001 1:1 2:-0.01 3:0.23864444 4:-0.12171111 5:0.22611111 6:0.2228 7:-0.13155556 8:0.077 9:0.09 10:0.25 11:0.25 12:0.4 13:-0.01 14:0.23864444 15:-0.12171111 16:0.40175556 17:0.27177778 18:-0.11215556 19:0.116 20:0.12 21:0.33 22:0.38 23:0.61 24:-0.01 25:0.23864444 26:-0.12171111 27:0.57828889 28:0.36386667 29:-0.053666667 30:0.134 31:0.13 32:0.36 33:0.44 34:0.69 35:-0.01 36:0.23864444 37:-0.12171111 38:0.6434 39:0.39357778 40:-0.095977778 41:0.151 42:0.13 43:0.36 44:0.5 45:0.73 46:-0.01 47:0.23864444 48:-0.12171111 49:0.6434 50:0.39357778 51:-0.095977778 52:0.151 53:0.13 54:0.36 55:0.5 56:0.73 
0.10000000000000001 1:2 2:0.0031777778 3:-0.2382 4:0.0036666667 5:-0.20306667 6:-0.19331111 7:0.0238 8:0.088 9:0.09 10:0.27 11:0.27 12:0.59 13:0.0031777778 14:-0.2382 15:0.0036666667 16:-0.35564444 17:-0.18475556 18:0.011355556 19:0.127 20:0.03 21:0.09 22:0.43 23:0.73 24:0.0031777778 25:-0.2382 26:0.0036666667 27:-0.38608889 28:-0.136 29:0.027755556 30:0.13 31:0.05 32:0.15 33:0.43 34:0.74 35:0.0031777778 36:-0.2382 37:0.0036666667 38:-0.43135556 39:-0.14795556 40:0.021711111 41:0.148 42:0.03 43:0.09 44:0.5 45:0.8 46:0.0031777778 47:-0.2382 48:0.0036666667 49:-0.43135556 50:-0.14795556 51:0.021711111 52:0.148 53:0.03 54:0.09 55:0.5 56:0.8 
0.10000000000000001 1:2 2:-0.015533333 3:-0.44468889 4:-0.0284 5:-0.25308889 6:-0.42988889 7:0.018822222 8:0.059 9:0.01 10:0.03 11:0.18 12:0.38 13:-0.015533333 14:-0.44468889 15:-0.0284 16:-0.37668889 17:-0.4402 18:0.023555556 19:0.11 20:0.03 21:0.1 22:0.33 23:0.65 24:-0.015533333 25:-0.44468889 26:-0.0284 27:-0.40926667 28:-0.40024444 29:0.044444444 30:0.113 31:0.05 32:0.16 33:0.33 34:0.68 35:-0.015533333 36:-0.44468889 37:-0.0284 38:-0.4638 39:-0.35637778 40:0.066222222 41:0.135 42:0.05 43:0.16 44:0.4 45:0.74 46:-0.015533333 47:-0.44468889 48:-0.0284 49:-0.4638 50:-0.35637778 51:0.066222222 52:0.135 53:0.05 54:0.16 55:0.4 56:0.74 
0.10000000000000001 1:2 2:0.0256 3:0.18553333 4:-0.030022222 5:-0.3228 6:0.20748889 7:0.021066667 8:0.112 9:0.18 10:0.55 11:0.31 12:0.54 13:0.0256 14:0.18553333 15:-0.030022222 16:-0.43655556 17:0.24233333 18:-0.016088889 19:0.16 20:0.15 21:0.45 22:0.48 23:0.69 24:0.0256 25:0.18553333 26:-0.030022222 27:-0.54933333 28:0.12575556 29:-0.016977778 30:0.178 31:0.23 32:0.71 33:0.5 34:0.8 35:0.0256 36:0.18553333 37:-0.030022222 38:-0.54933333 39:0.12575556 40:-0.016977778 41:0.178 42:0.23 43:0.71 44:0.5 45:0.8 46:0.0256 47:0.18553333 48:-0.030022222 49:-0.62777778 50:0.21402222 51:0.0080666667 52:0.19 53:0.23 54:0.71 55:0.54 56:0.88 
0.10000000000000001 1:2 2:-0.040822222 3:-0.079066667 4:0.036555556 5:-0.33111111 6:0.13015556 7:0.13446667 8:0.122 9:0.06 10:0.17 11:0.4 12:0.59 13:-0.040822222 14:-0.079066667 15:0.036555556 16:-0.36653333 17:0.10293333 18:0.12273333 19:0.115 20:0.03 21:0.09 22:0.39 23:0.57 24:-0.040822222 25:-0.079066667 26:0.036555556 27:-0.40844444 28:0.040533333 29:0.1138 30:0.13 31:0.02 32:0.06 33:0.45 34:0.61 35:-0.040822222 36:-0.079066667 37:0.036555556 38:-0.45868889 39:0.047844444 40:0.117 41:0.141 42:0.03 43:0.09 44:0.48 45:0.67 46:-0.040822222 47:-0.079066667 48:0.036555556 49:-0.45868889 50:0.047844444 51:0.117 52:0.141 53:0.03 54:0.09 55:0.48 56:0.67 
0.10000000000000001 1:2 2:0.017822222 3:-0.15764444 4:-0.025311111 5:-0.28611111 6:-0.12435556 7:-0.0077777778 8:0.116 9:0.04 10:0.12 11:0.39 12:0.66 13:0.017822222 14:-0.15764444 15:-0.025311111 16:-0.52217778 17:-0.16062222 18:-0.035977778 19:0.167 20:0.03 21:0.09 22:0.57 23:0.91 24:0.017822222 25:-0.15764444 26:-0.025311111 27:-0.52217778 28:-0.16062222 29:-0.035977778 30:0.167 31:0.03 32:0.09 33:0.57 34:0.91 35:0.017822222 36:-0.15764444 37:-0.025311111 38:-0.52217778 39:-0.16062222 40:-0.035977778 41:0.167 42:0.03 43:0.09 44:0.57 45:0.91 46:0.017822222 47:-0.15764444 48:-0.025311111 49:-0.52217778 50:-0.16062222 51:-0.035977778 52:0.167 53:0.03 54:0.09 55:0.57 56:0.91 
0.10000000000000001 1:1 2:-0.035266667 3:-0.251 4:-0.12686667 5:0.26633333 6:-0.078066667 7:-0.13482222 8:0.114 9:0.16 10:0.47 11:0.33 12:0.66 13:-0.035266667 14:-0.251 15:-0.12686667 16:0.63351111 17:-0.080288889 18:-0.16557778 19:0.148 20:0.27 21:0.82 22:0.39 23:0.92 24:-0.035266667 25:-0.251 26:-0.12686667 27:0.65602222 28:-0.22222222 29:-0.0488 30:0.144 31:0.25 32:0.75 33:0.39 34:0.97 35:-0.035266667 36:-0.251 37:-0.12686667 38:0.71884444 39:-0.1066 40:-0.060911111 41:0.15 42:0.25 43:0.75 44:0.41 45:0.99 46:-0.035266667 47:-0.251 48:-0.12686667 49:0.74486667 50:-0.20508889 51:-0.034733333 52:0.148 53:0.31 54:0.95 55:0.37 56:0.99 
0.10000000000000001 1:2 2:0.0055777778 3:-0.38353333 4:-0.098511111 5:-0.25848889 6:-0.37471111 7:-0.059711111 8:0.066 9:0.02 10:0.06 11:0.2 12:0.23 13:0.0055777778 14:-0.38353333 15:-0.098511111 16:-0.48417778 17:-0.44384444 18:-0.077333333 19:0.248 20:0.12 21:0.4 22:0.71 23:1.01 24:0.0055777778 25:-0.38353333 26:-0.098511111 27:-0.621 28:-0.3678 29:-0.051222222 30:0.26 31:0.17 32:0.57 33:0.72 34:1.1 35:0.0055777778 36:-0.38353333 37:-0.098511111 38:-0.621 39:-0.3678 40:-0.051222222 41:0.26 42:0.17 43:0.57 44:0.72 45:1.1 46:0.0055777778 47:-0.38353333 48:-0.098511111 49:-0.62751111 50:-0.41517778 51:-0.101 52:0.25 53:0.17 54:0.57 55:0.69 56:1.04 
0.10000000000000001 1:2 2:-0.016422222 3:-0.11011111 4:-0.067244444 5:-0.16437778 6:-0.15804444 7:-0.067022222 8:0.033 9:-0.03 10:-0.09 11:0.12 12:0.07 13:-0.016422222 14:-0.11011111 15:-0.067244444 16:-0.33824444 17:-0.10786667 18:0.018666667 19:0.081 20:0.11 21:0.34 22:0.22 23:0.62 24:-0.016422222 25:-0.11011111 26:-0.067244444 27:-0.49006667 28:0.072777778 29:0.045933333 30:0.161 31:0.2 32:0.65 33:0.43 34:0.96 35:-0.016422222 36:-0.11011111 37:-0.067244444 38:-0.51406667 39:-0.078755556 40:-0.015333333 41:0.199 42:0.14 43:0.44 44:0.58 45:1.14 46:-0.016422222 47:-0.11011111 48:-0.067244444 49:-0.54148889 50:0.053577778 51:0.033844444 52:0.179 53:0.17 54:0.54 55:0.5 56:1.12 
0.10000000000000001 1:1 2:0.068111111 3:-0.036133333 4:0.021177778 5:0.20511111 6:-0.094755556 7:0.029044444 8:0.069 9:0.14 10:0.48 11:0.15 12:0.31 13:0.068111111 14:-0.036133333 15:0.021177778 16:0.46084444 17:-0.092888889 18:0.0080444444 19:0.107 20:0.12 21:0.41 22:0.27 23:0.65 24:0.068111111 25:-0.036133333 26:0.021177778 27:0.63524444 28:0.034066667 29:0.085111111 30:0.16 31:0.07 32:0.24 33:0.45 34:0.88 35:0.068111111 36:-0.036133333 37:0.021177778 38:0.63524444 39:0.034066667 40:0.085111111 41:0.16 42:0.07 43:0.24 44:0.45 45:0.88 46:0.068111111 47:-0.036133333 48:0.021177778 49:0.6616 50:-0.00046666667 51:0.046422222 52:0.174 53:0.05 54:0.17 55:0.5 56:0.95 
0.10000000000000001 1:1 2:-0.018511111 3:-0.36295556 4:-0.087977778 5:0.081266667 6:-0.42497778 7:-0.066044444 8:0.015 9:0.01 10:0.03 11:0.04 12:0.08 13:-0.018511111 14:-0.36295556 15:-0.087977778 16:0.46211111 17:-0.24173333 18:-0.1192 19:0.134 20:0.05 21:0.17 22:0.37 23:0.63 24:-0.018511111 25:-0.36295556 26:-0.087977778 27:0.62706667 28:-0.21828889 29:-0.13308889 30:0.175 31:0.08 32:0.28 33:0.47 34:0.81 35:-0.018511111 36:-0.36295556 37:-0.087977778 38:0.62706667 39:-0.21828889 40:-0.13308889 41:0.175 42:0.08 43:0.28 44:0.47 45:0.81 46:-0.018511111 47:-0.36295556 48:-0.087977778 49:0.62706667 50:-0.21828889 51:-0.13308889 52:0.175 53:0.08 54:0.28 55:0.47 56:0.81 
0.10000000000000001 1:1 2:0.058266667 3:0.23188889 4:-0.0444 5:0.29655556 6:0.21464444 7:-0.039733333 8:0.091 9:0.05 10:0.16 11:0.26 12:0.52 13:0.058266667 14:0.23188889 15:-0.0444 16:0.53702222 17:0.28386667 18:0.0038666667 19:0.132 20:0.02 21:0.06 22:0.4 23:0.72 24:0.058266667 25:0.23188889 26:-0.0444 27:0.58277778 28:0.29275556 29:0.022422222 30:0.166 31:0.07 32:0.23 33:0.48 34:0.8 35:0.058266667 36:0.23188889 37:-0.0444 38:0.62 39:0.29726667 40:-0.0036666667 41:0.181 42:0.08 43:0.26 44:0.52 45:0.83 46:0.058266667 47:0.23188889 48:-0.0444 49:0.62 50:0.29726667 51:-0.0036666667 52:0.181 53:0.08 54:0.26 55:0.52 56:0.83 
0.10000000000000001 1:2 2:0.0011555556 3:-0.36526667 4:0.084533333 5:-0.23535556 6:-0.23066667 7:0.11195556 8:0.096 11:0.3 12:0.53 13:0.0011555556 14:-0.36526667 15:0.084533333 16:-0.34926667 17:-0.27268889 18:0.13128889 19:0.135 20:-0.03 21:-0.09 22:0.44 23:0.75 24:0.0011555556 25:-0.36526667 26:0.084533333 27:-0.41633333 28:-0.31373333 29:0.13115556 30:0.154 31:-0.05 32:-0.16 33:0.51 34:0.84 35:0.0011555556 36:-0.36526667 37:0.084533333 38:-0.41633333 39:-0.31373333 40:0.13115556 41:0.154 42:-0.05 43:-0.16 44:0.51 45:0.84 46:0.0011555556 47:-0.36526667 48:0.084533333 49:-0.41633333 50:-0.31373333 51:0.13115556 52:0.154 53:-0.05 54:-0.16 55:0.51 56:0.84 
0.10000000000000001 1:1 2:-0.0024444444 3:-0.020911111 4:0.13395556 5:0.3194 6:0.079044444 7:0.089577778 8:0.132 11:0.41 12:-0.04 13:-0.0024444444 14:-0.020911111 15:0.13395556 16:0.39817778 17:0.033711111 18:0.086177778 19:0.134 20:0.04 21:0.13 22:0.4 23:-0.02 24:-0.0024444444 25:-0.020911111 26:0.13395556 27:0.39817778 28:0.033711111 29:0.086177778 30:0.134 31:0.04 32:0.13 33:0.4 34:-0.02 35:-0.0024444444 36:-0.020911111 37:0.13395556 38:0.39817778 39:0.033711111 40:0.086177778 41:0.134 42:0.04 43:0.13 44:0.4 45:-0.02 46:-0.0024444444 47:-0.020911111 48:0.13395556 49:0.39817778 50:0.033711111 51:0.086177778 52:0.134 53:0.04 54:0.13 55:0.4 56:-0.02 
0.10000000000000001 1:1 2:-0.0064666667 3:-0.21331111 4:0.118 5:0.32717778 6:-0.13126667 7:-0.027022222 8:0.107 9:-0.02 10:-0.06 11:0.37 12:0.27 13:-0.0064666667 14:-0.21331111 15:0.118 16:0.35695556 17:-0.22975556 18:-0.015155556 19:0.103 20:-0.03 21:-0.09 22:0.36 23:0.28 24:-0.0064666667 25:-0.21331111 26:0.118 27:0.35695556 28:-0.22975556 29:-0.015155556 30:0.103 31:-0.03 32:-0.09 33:0.36 34:0.28 35:-0.0064666667 36:-0.21331111 37:0.118 38:0.37335556 39:-0.22637778 40:-0.015155556 41:0.119 42:-0.02 43:-0.06 44:0.41 45:0.33 46:-0.0064666667 47:-0.21331111 48:0.118 49:0.42168889 50:-0.24251111 51:-0.0017777778 52:0.106 53:-0.03 54:-0.09 55:0.37 56:0.31 
0.10000000000000001 1:1 2:0.065355556 3:0.17108889 4:0.0226 5:0.24311111 6:0.2358 7:-0.041088889 8:0.023 9:0.05 10:0.17 11:0.05 12:0.1 13:0.065355556 14:0.17108889 15:0.0226 16:0.35055556 17:0.2706 18:0.045888889 19:0.092 20:0.07 21:0.23 22:0.25 23:0.3 24:0.065355556 25:0.17108889 26:0.0226 27:0.4188 28:0.3054 29:0.025022222 30:0.115 31:0.13 32:0.44 33:0.29 34:0.43 35:0.065355556 36:0.17108889 37:0.0226 38:0.4188 39:0.3054 40:0.025022222 41:0.115 42:0.13 43:0.44 44:0.29 45:0.43 46:0.065355556 47:0.17108889 48:0.0226 49:0.44353333 50:0.33108889 51:0.0082444444 52:0.164 53:0.12 54:0.41 55:0.44 56:0.57 
0.10000000000000001 1:1 2:-0.0057333333 3:-0.33268889 4:-0.12742222 5:0.20846667 6:-0.37655556 7:-0.045555556 8:0.054 9:0.07 10:0.21 11:0.15 12:0.36 13:-0.0057333333 14:-0.33268889 15:-0.12742222 16:0.43411111 17:-0.11948889 18:-0.14564444 19:0.14 20:0.06 21:0.18 22:0.44 23:0.82 24:-0.0057333333 25:-0.33268889 26:-0.12742222 27:0.57606667 28:-0.14264444 29:-0.10882222 30:0.167 31:0.15 32:0.47 33:0.48 34:0.88 35:-0.0057333333 36:-0.33268889 37:-0.12742222 38:0.57606667 39:-0.14264444 40:-0.10882222 41:0.167 42:0.15 43:0.47 44:0.48 45:0.88 46:-0.0057333333 47:-0.33268889 48:-0.12742222 49:0.65837778 50:-0.16102222 51:-0.10582222 52:0.176 53:0.13 54:0.4 55:0.52 56:0.86 
0.10000000000000001 1:2 2:0.089511111 3:0.44922222 4:-0.075311111 5:-0.090666667 6:0.45573333 7:0.0051111111 8:0.106 9:-0.11 10:-0.31 11:0.41 12:0.46 13:0.089511111 14:0.44922222 15:-0.075311111 16:-0.41017778 17:0.43593333 18:0.026155556 19:0.193 20:-0.04 21:-0.12 22:0.68 23:0.97 24:0.089511111 25:0.44922222 26:-0.075311111 27:-0.54942222 28:0.45793333 29:0.060822222 30:0.206 31:-0.05 32:-0.14 33:0.73 34:1.01 35:0.089511111 36:0.44922222 37:-0.075311111 38:-0.54942222 39:0.45793333 40:0.060822222 41:0.206 42:-0.05 43:-0.14 44:0.73 45:1.01 46:0.089511111 47:0.44922222 48:-0.075311111 49:-0.54942222 50:0.45793333 51:0.060822222 52:0.206 53:-0.05 54:-0.14 55:0.73 56:1.01 
0.10000000000000001 1:2 2:0.0128 3:0.079266667 4:0.015022222 5:-0.27795556 6:0.027488889 7:-0.025866667 8:0.081 9:0.04 10:0.13 11:0.24 12:0.44 13:0.0128 14:0.079266667 15:0.015022222 16:-0.50613333 17:0.0060666667 18:-0.051511111 19:0.139 20:0.08 21:0.26 22:0.4 23:0.6 24:0.0128 25:0.079266667 26:0.015022222 27:-0.52773333 28:0.0094666667 29:-0.059911111 30:0.162 31:0.1 32:0.33 33:0.46 34:0.63 35:0.0128 36:0.079266667 37:0.015022222 38:-0.53506667 39:0.028622222 40:-0.052 41:0.167 42:0.11 43:0.36 44:0.47 45:0.6 46:0.0128 47:0.079266667 48:0.015022222 49:-0.53506667 50:0.028622222 51:-0.052 52:0.167 53:0.11 54:0.36 55:0.47 56:0.6 
0.10000000000000001 1:2 2:0.010355556 3:-0.43591111 4:-0.030311111 5:-0.28902222 6:-0.41886667 7:-0.037466667 8:0.095 9:0.01 10:0.03 11:0.28 12:0.62 13:0.010355556 14:-0.43591111 15:-0.030311111 16:-0.35991111 17:-0.38586667 18:-0.036066667 19:0.097 22:0.29 23:0.67 24:0.010355556 25:-0.43591111 26:-0.030311111 27:-0.39311111 28:-0.42422222 29:-0.056244444 30:0.098 31:0.03 32:0.1 33:0.28 34:0.71 35:0.010355556 36:-0.43591111 37:-0.030311111 38:-0.49897778 39:-0.4022 40:-0.052377778 41:0.123 42:0.08 43:0.27 44:0.33 45:0.81 46:0.010355556 47:-0.43591111 48:-0.030311111 49:-0.49897778 50:-0.4022 51:-0.052377778 52:0.123 53:0.08 54:0.27 55:0.33 56:0.81 
0.10000000000000001 1:1 2:-0.0050444444 3:0.46008889 4:-0.0828 5:0.14182222 6:0.51126667 7:-0.10057778 8:0.018 9:0.04 10:0.13 11:0.04 12:0.12 13:-0.0050444444 14:0.46008889 15:-0.0828 16:0.33984444 17:0.55148889 18:-0.093355556 19:0.07 20:0.14 21:0.46 22:0.16 23:0.34 24:-0.0050444444 25:0.46008889 26:-0.0828 27:0.40531111 28:0.55028889 29:-0.077533333 30:0.095 31:0.17 32:0.56 33:0.22 34:0.44 35:-0.0050444444 36:0.46008889 37:-0.0828 38:0.59208889 39:0.60142222 40:-0.13328889 41:0.141 42:0.17 43:0.56 44:0.36 45:0.65 46:-0.0050444444 47:0.46008889 48:-0.0828 49:0.60175556 50:0.54715556 51:-0.12504444 52:0.168 53:0.19 54:0.63 55:0.43 56:0.74 
0.10000000000000001 1:2 2:0.082733333 3:0.55733333 4:0.014533333 5:-0.27506667 6:0.45295556 7:-0.0042 8:0.095 9:-0.06 10:-0.18 11:0.34 12:0.55 13:0.082733333 14:0.55733333 15:0.014533333 16:-0.34937778 17:0.4988 18:0.0085777778 19:0.135 20:-0.03 21:-0.09 22:0.46 23:0.73 24:0.082733333 25:0.55733333 26:0.014533333 27:-0.42028889 28:0.48651111 29:0.0072888889 30:0.13 31:0.04 32:0.12 33:0.41 34:0.82 35:0.082733333 36:0.55733333 37:0.014533333 38:-0.4632 39:0.48002222 40:-0.0058444444 41:0.14 42:0.06 43:0.19 44:0.43 45:0.89 46:0.082733333 47:0.55733333 48:0.014533333 49:-0.55788889 50:0.4696 51:0.0024666667 52:0.158 53:0.08 54:0.25 55:0.48 56:1.01 
0.10000000000000001 1:1 2:0.010244444 3:-0.0238 4:-0.021688889 5:0.32117778 6:0.060222222 7:-0.059644444 8:0.076 9:0.02 10:0.06 11:0.23 12:0.45 13:0.010244444 14:-0.0238 15:-0.021688889 16:0.4298 17:0.11955556 18:-0.1136 19:0.162 20:-0.02 21:-0.06 22:0.52 23:0.76 24:0.010244444 25:-0.0238 26:-0.021688889 27:0.47706667 28:0.16935556 29:-0.10844444 30:0.18 31:0.05 32:0.16 33:0.54 34:0.83 35:0.010244444 36:-0.0238 37:-0.021688889 38:0.48166667 39:0.00055555556 40:-0.080844444 41:0.171 42:0.13 43:0.43 44:0.47 45:0.82 46:0.010244444 47:-0.0238 48:-0.021688889 49:0.56373333 50:0.097777778 51:-0.11404444 52:0.18 53:0.14 54:0.47 55:0.49 56:0.84 
0.10000000000000001 1:1 2:0.024844444 3:-0.1836 4:-0.15451111 5:0.29155556 6:-0.10237778 7:-0.29962222 8:0.097 9:0.11 10:0.35 11:0.26 12:0.57 13:0.024844444 14:-0.1836 15:-0.15451111 16:0.36228889 17:-0.20611111 18:-0.29302222 19:0.147 20:0.1 21:0.32 22:0.42 23:0.72 24:0.024844444 25:-0.1836 26:-0.15451111 27:0.5238 28:-0.26277778 29:-0.28402222 30:0.164 31:0.18 32:0.59 33:0.43 34:0.82 35:0.024844444 36:-0.1836 37:-0.15451111 38:0.58306667 39:-0.29362222 40:-0.28008889 41:0.173 42:0.21 43:0.69 44:0.44 45:0.95 46:0.024844444 47:-0.1836 48:-0.15451111 49:0.58306667 50:-0.29362222 51:-0.28008889 52:0.173 53:0.21 54:0.69 55:0.44 56:0.95 
0.10000000000000001 1:2 2:0.020311111 3:0.10411111 4:-0.097044444 5:-0.31224444 6:0.13226667 7:0.018044444 8:0.166 9:0.17 10:0.57 11:0.44 12:0.45 13:0.020311111 14:0.10411111 15:-0.097044444 16:-0.43222222 17:0.11037778 18:-0.019 19:0.188 20:0.18 21:0.61 22:0.5 23:0.55 24:0.020311111 25:0.10411111 26:-0.097044444 27:-0.50591111 28:0.097355556 29:-0.011955556 30:0.189 31:0.17 32:0.57 33:0.51 34:0.54 35:0.020311111 36:0.10411111 37:-0.097044444 38:-0.54488889 39:0.099133333 40:-0.0054444444 41:0.199 42:0.19 43:0.64 44:0.53 45:0.56 46:0.020311111 47:0.10411111 48:-0.097044444 49:-0.54488889 50:0.099133333 51:-0.0054444444 52:0.199 53:0.19 54:0.64 55:0.53 56:0.56 
0.10000000000000001 1:1 2:-0.039066667 3:-0.15306667 4:-0.025111111 5:0.18857778 6:-0.15077778 7:-0.054333333 8:0.096 9:0.14 10:0.44 11:0.26 12:0.46 13:-0.039066667 14:-0.15306667 15:-0.025111111 16:0.37473333 17:-0.049511111 18:-0.055866667 19:0.138 20:0.19 21:0.61 22:0.37 23:0.65 24:-0.039066667 25:-0.15306667 26:-0.025111111 27:0.39111111 28:0.017688889 29:-0.076955556 30:0.163 31:0.25 32:0.82 33:0.42 34:0.76 35:-0.039066667 36:-0.15306667 37:-0.025111111 38:0.42753333 39:0.020777778 40:-0.0612 41:0.168 42:0.24 43:0.78 44:0.44 45:0.79 46:-0.039066667 47:-0.15306667 48:-0.025111111 49:0.42753333 50:0.020777778 51:-0.0612 52:0.168 53:0.24 54:0.78 55:0.44 56:0.79 
0.10000000000000001 1:1 2:-0.0014 3:-0.45328889 4:-0.016866667 5:0.10102222 6:-0.37204444 7:-0.032111111 8:0.056 9:0.06 10:0.18 11:0.17 12:0.26 13:-0.0014 14:-0.45328889 15:-0.016866667 16:0.36533333 17:-0.32826667 18:-0.10564444 19:0.124 20:0.02 21:0.06 22:0.42 23:0.62 24:-0.0014 25:-0.45328889 26:-0.016866667 27:0.4904 28:-0.39593333 29:-0.094777778 30:0.148 31:0.13 32:0.39 33:0.45 34:0.83 35:-0.0014 36:-0.45328889 37:-0.016866667 38:0.4904 39:-0.39593333 40:-0.094777778 41:0.148 42:0.13 43:0.39 44:0.45 45:0.83 46:-0.0014 47:-0.45328889 48:-0.016866667 49:0.4904 50:-0.39593333 51:-0.094777778 52:0.148 53:0.13 54:0.39 55:0.45 56:0.83 
0.10000000000000001 1:2 2:0.12142222 3:0.28355556 4:0.039 5:-0.16035556 6:0.27528889 7:0.072333333 8:0.069 9:0.09 10:0.28 11:0.19 12:0.34 13:0.12142222 14:0.28355556 15:0.039 16:-0.47346667 17:0.30888889 18:0.1054 19:0.167 20:0.07 21:0.21 22:0.52 23:0.84 24:0.12142222 25:0.28355556 26:0.039 27:-0.56017778 28:0.37744444 29:0.10675556 30:0.172 31:0.08 32:0.25 33:0.53 34:0.97 35:0.12142222 36:0.28355556 37:0.039 38:-0.56017778 39:0.37744444 40:0.10675556 41:0.172 42:0.08 43:0.25 44:0.53 45:0.97 46:0.12142222 47:0.28355556 48:0.039 49:-0.56017778 50:0.37744444 51:0.10675556 52:0.172 53:0.08 54:0.25 55:0.53 56:0.97 
0.10000000000000001 1:1 2:0.039977778 3:-0.082 4:-0.10975556 5:0.25975556 6:-0.081911111 7:-0.1368 8:0.042 9:0.15 10:0.45 11:0.08 12:0.39 13:0.039977778 14:-0.082 15:-0.10975556 16:0.50304444 17:-0.088844444 18:-0.16602222 19:0.137 20:0.16 21:0.48 22:0.39 23:0.79 24:0.039977778 25:-0.082 26:-0.10975556 27:0.60037778 28:-0.088422222 29:-0.20697778 30:0.156 31:0.15 32:0.45 33:0.46 34:0.94 35:0.039977778 36:-0.082 37:-0.10975556 38:0.60037778 39:-0.088422222 40:-0.20697778 41:0.156 42:0.15 43:0.45 44:0.46 45:0.94 46:0.039977778 47:-0.082 48:-0.10975556 49:0.60037778 50:-0.088422222 51:-0.20697778 52:0.156 53:0.15 54:0.45 55:0.46 56:0.94 
0.10000000000000001 1:1 2:-0.0042888889 3:-0.15242222 4:-0.029933333 5:0.28171111 6:-0.042044444 7:-0.015022222 8:0.114 9:0.02 10:0.06 11:0.38 12:0.42 13:-0.0042888889 14:-0.15242222 15:-0.029933333 16:0.57088889 17:0.031844444 18:-0.010711111 19:0.166 20:0.03 21:0.09 22:0.55 23:0.67 24:-0.0042888889 25:-0.15242222 26:-0.029933333 27:0.57088889 28:0.031844444 29:-0.010711111 30:0.166 31:0.03 32:0.09 33:0.55 34:0.67 35:-0.0042888889 36:-0.15242222 37:-0.029933333 38:0.57088889 39:0.031844444 40:-0.010711111 41:0.166 42:0.03 43:0.09 44:0.55 45:0.67 46:-0.0042888889 47:-0.15242222 48:-0.029933333 49:0.57088889 50:0.031844444 51:-0.010711111 52:0.166 53:0.03 54:0.09 55:0.55 56:0.67 
0.10000000000000001 1:1 2:0.036422222 3:-0.29971111 4:0.12548889 5:0.25613333 6:-0.39268889 7:0.031622222 8:0.058 9:0.11 10:0.35 11:0.15 12:0.24 13:0.036422222 14:-0.29971111 15:0.12548889 16:0.61213333 17:-0.34495556 18:-0.011533333 19:0.143 20:0.26 21:0.86 22:0.35 23:0.59 24:0.036422222 25:-0.29971111 26:0.12548889 27:0.81931111 28:-0.0816 29:-0.0576 30:0.181 31:0.27 32:0.9 33:0.46 34:0.72 35:0.036422222 36:-0.29971111 37:0.12548889 38:0.83137778 39:-0.17102222 40:-0.080533333 41:0.223 42:0.32 43:1.08 44:0.56 45:0.82 46:0.036422222 47:-0.29971111 48:0.12548889 49:0.92637778 50:-0.13975556 51:-0.10295556 52:0.216 53:0.3 54:1.01 55:0.55 56:0.78 
0.10000000000000001 1:2 2:0.00026666667 3:-0.28993333 4:0.16364444 5:-0.042933333 6:-0.27282222 7:0.15126667 8:0.043 9:0.01 10:0.03 11:0.14 12:0.22 13:0.00026666667 14:-0.28993333 15:0.16364444 16:-0.34462222 17:-0.25833333 18:0.189 19:0.098 20:0.15 21:0.47 22:0.26 23:0.54 24:0.00026666667 25:-0.28993333 26:0.16364444 27:-0.37473333 28:-0.191 29:0.20924444 30:0.114 31:0.19 32:0.61 33:0.29 34:0.73 35:0.00026666667 36:-0.28993333 37:0.16364444 38:-0.46082222 39:-0.16266667 40:0.19853333 41:0.128 42:0.2 43:0.64 44:0.33 45:0.77 46:0.00026666667 47:-0.28993333 48:0.16364444 49:-0.47564444 50:-0.19044444 51:0.19162222 52:0.146 53:0.21 54:0.67 55:0.38 56:0.76 
0.10000000000000001 1:2 2:0.050333333 3:-0.1538 4:0.019533333 5:-0.24155556 6:-0.048622222 7:0.043711111 8:0.094 9:0.11 10:0.31 11:0.29 12:0.58 13:0.050333333 14:-0.1538 15:0.019533333 16:-0.34084444 17:0.0039555556 18:0.089133333 19:0.131 20:0.21 21:0.61 22:0.37 23:0.72 24:0.050333333 25:-0.1538 26:0.019533333 27:-0.3412 28:0.020488889 29:0.10624444 30:0.16 31:0.23 32:0.68 33:0.46 34:0.86 35:0.050333333 36:-0.1538 37:0.019533333 38:-0.50057778 39:-0.0015777778 40:0.016355556 41:0.172 42:0.23 43:0.68 44:0.5 45:0.93 46:0.050333333 47:-0.1538 48:0.019533333 49:-0.50057778 50:-0.0015777778 51:0.016355556 52:0.172 53:0.23 54:0.68 55:0.5 56:0.93 
0.10000000000000001 1:1 2:-0.020933333 3:-0.43686667 4:-0.038977778 5:0.26626667 6:-0.27413333 7:-0.087844444 8:0.121 9:0.02 10:0.05 11:0.44 12:0.6 13:-0.020933333 14:-0.43686667 15:-0.038977778 16:0.34913333 17:-0.1714 18:-0.069288889 19:0.144 20:0.03 21:0.08 22:0.52 23:0.69 24:-0.020933333 25:-0.43686667 26:-0.038977778 27:0.34913333 28:-0.1714 29:-0.069288889 30:0.144 31:0.03 32:0.08 33:0.52 34:0.69 35:-0.020933333 36:-0.43686667 37:-0.038977778 38:0.37166667 39:-0.26093333 40:-0.13533333 41:0.206 42:0.03 43:0.08 44:0.75 45:0.97 46:-0.020933333 47:-0.43686667 48:-0.038977778 49:0.432 50:-0.21257778 51:-0.086888889 52:0.194 53:0.04 54:0.11 55:0.7 56:0.96 
0.10000000000000001 1:1 2:0.0028 3:-0.0574 4:-0.091177778 5:0.32486667 6:0.031777778 7:-0.052622222 8:0.131 9:-0.03 10:-0.09 11:0.46 12:0.64 13:0.0028 14:-0.0574 15:-0.091177778 16:0.43477778 17:-0.031088889 18:-0.038022222 19:0.166 20:-0.09 21:-0.26 22:0.61 23:0.83 24:0.0028 25:-0.0574 26:-0.091177778 27:0.6062 28:-0.010911111 29:-0.018733333 30:0.176 31:-0.08 32:-0.23 33:0.64 34:0.89 35:0.0028 36:-0.0574 37:-0.091177778 38:0.62353333 39:-0.14628889 40:0.0082222222 41:0.179 42:-0.06 43:-0.17 44:0.64 45:0.95 46:0.0028 47:-0.0574 48:-0.091177778 49:0.63586667 50:-0.082288889 51:0.010022222 52:0.197 53:-0.08 54:-0.23 55:0.71 56:0.96 
0.10000000000000001 1:2 2:0.017644444 3:-0.18506667 4:-0.069088889 5:-0.29537778 6:-0.18142222 7:-0.073933333 8:0.083 9:0.02 10:0.06 11:0.29 12:0.31 13:0.017644444 14:-0.18506667 15:-0.069088889 16:-0.34828889 17:-0.17635556 18:-0.064844444 19:0.105 20:0.04 21:0.11 22:0.36 23:0.49 24:0.017644444 25:-0.18506667 26:-0.069088889 27:-0.34828889 28:-0.17635556 29:-0.064844444 30:0.105 31:0.04 32:0.11 33:0.36 34:0.49 35:0.017644444 36:-0.18506667 37:-0.069088889 38:-0.34828889 39:-0.17635556 40:-0.064844444 41:0.105 42:0.04 43:0.11 44:0.36 45:0.49 46:0.017644444 47:-0.18506667 48:-0.069088889 49:-0.34828889 50:-0.17635556 51:-0.064844444 52:0.105 53:0.04 54:0.11 55:0.36 56:0.49 
0.10000000000000001 1:2 2:0.025422222 3:-0.20435556 4:0.030644444 5:-0.27631111 6:-0.26095556 7:0.024222222 8:0.079 9:0.04 10:0.12 11:0.24 12:0.55 13:0.025422222 14:-0.20435556 15:0.030644444 16:-0.38493333 17:-0.27222222 18:0.011422222 19:0.143 20:0.1 21:0.32 22:0.42 23:0.83 24:0.025422222 25:-0.20435556 26:0.030644444 27:-0.45302222 28:-0.18073333 29:0.0027555556 30:0.199 31:0.04 32:0.12 33:0.63 34:1.12 35:0.025422222 36:-0.20435556 37:0.030644444 38:-0.50284444 39:-0.099244444 40:0.021822222 41:0.232 42:0.21 43:0.69 44:0.64 45:1.44 46:0.025422222 47:-0.20435556 48:0.030644444 49:-0.50284444 50:-0.099244444 51:0.021822222 52:0.232 53:0.21 54:0.69 55:0.64 56:1.44 
0.10000000000000001 1:1 2:-0.0048222222 3:-0.45555556 4:0.12937778 5:0.32015556 6:-0.37582222 7:-0.0073333333 8:0.108 9:0.18 10:0.59 11:0.27 12:0.51 13:-0.0048222222 14:-0.45555556 15:0.12937778 16:0.50404444 17:-0.40313333 18:0.024044444 19:0.143 20:0.11 21:0.35 22:0.41 23:0.67 24:-0.0048222222 25:-0.45555556 26:0.12937778 27:0.6852 28:-0.40682222 29:0.017711111 30:0.215 31:0.23 32:0.77 33:0.57 34:0.97 35:-0.0048222222 36:-0.45555556 37:0.12937778 38:0.79373333 39:-0.18782222 40:-0.047755556 41:0.224 42:0.24 43:0.81 44:0.59 45:0.99 46:-0.0048222222 47:-0.45555556 48:0.12937778 49:0.89344444 50:-0.14044444 51:0.032266667 52:0.238 53:0.21 54:0.7 55:0.65 56:1.01 
0.10000000000000001 1:2 2:0.10322222 3:0.201 4:0.098355556 5:-0.28457778 6:0.13382222 7:0.18564444 8:0.11 9:0.12 10:0.35 11:0.33 12:0.54 13:0.10322222 14:0.201 15:0.098355556 16:-0.34457778 17:0.19371111 18:0.18588889 19:0.148 20:0.16 21:0.47 22:0.44 23:0.68 24:0.10322222 25:0.201 26:0.098355556 27:-0.34457778 28:0.19371111 29:0.18588889 30:0.148 31:0.16 32:0.47 33:0.44 34:0.68 35:0.10322222 36:0.201 37:0.098355556 38:-0.41697778 39:0.21373333 40:0.17657778 41:0.167 42:0.19 43:0.56 44:0.49 45:0.73 46:0.10322222 47:0.201 48:0.098355556 49:-0.41697778 50:0.21373333 51:0.17657778 52:0.167 53:0.19 54:0.56 55:0.49 56:0.73 
0.10000000000000001 1:1 2:0.085333333 3:-0.022022222 4:-0.035666667 5:0.30182222 6:0.0028666667 7:-0.13371111 8:0.099 9:0.05 10:0.15 11:0.32 12:0.34 13:0.085333333 14:-0.022022222 15:-0.035666667 16:0.36906667 17:-0.0018 18:-0.26013333 19:0.174 20:0.15 21:0.45 22:0.52 23:0.78 24:0.085333333 25:-0.022022222 26:-0.035666667 27:0.601 28:0.38491111 29:-0.41273333 30:0.242 31:0.35 32:1.12 33:0.62 34:1.14 35:0.085333333 36:-0.022022222 37:-0.035666667 38:0.66295556 39:0.36804444 40:-0.34411111 41:0.267 42:0.33 43:1.05 44:0.71 45:1.06 46:0.085333333 47:-0.022022222 48:-0.035666667 49:0.79026667 50:0.34793333 51:-0.451 52:0.261 53:0.33 54:1.05 55:0.69 56:1.16 
0.10000000000000001 1:2 2:0.055177778 3:-0.3854 4:-0.097777778 5:-0.26351111 6:-0.30337778 7:-0.10557778 8:0.149 9:-0.04 10:-0.13 11:0.48 12:0.68 13:0.055177778 14:-0.3854 15:-0.097777778 16:-0.64097778 17:-0.36524444 18:-0.17991111 19:0.288 20:0.04 21:0.13 22:0.87 23:1.35 24:0.055177778 25:-0.3854 26:-0.097777778 27:-0.78264444 28:-0.26304444 29:-0.11037778 30:0.356 31:0.04 32:0.13 33:1.08 34:1.62 35:0.055177778 36:-0.3854 37:-0.097777778 38:-0.90502222 39:-0.23824444 40:-0.12113333 41:0.367 42:0.03 43:0.1 44:1.12 45:1.67 46:0.055177778 47:-0.3854 48:-0.097777778 49:-0.90682222 50:-0.24586667 51:-0.12031111 52:0.026 53:0.07 54:0.23 55:0.06 56:0.63 
0.10000000000000001 1:2 2:0.11524444 3:-0.47268889 4:-0.17271111 5:0.11524444 6:-0.47268889 7:-0.17271111 13:0.11524444 14:-0.47268889 15:-0.17271111 16:-0.54515556 17:-0.55126667 18:-0.18535556 19:0.166 20:0.05 21:0.14 22:0.56 23:0.96 24:0.11524444 25:-0.47268889 26:-0.17271111 27:-0.54515556 28:-0.55126667 29:-0.18535556 30:0.166 31:0.05 32:0.14 33:0.56 34:0.96 35:0.11524444 36:-0.47268889 37:-0.17271111 38:-0.98931111 39:-0.50733333 40:-0.25404444 41:0.261 42:0.24 43:0.73 44:0.78 45:1.33 46:0.11524444 47:-0.47268889 48:-0.17271111 49:-1.0126 50:-0.36677778 51:-0.2408 52:0.263 53:0.22 54:0.67 55:0.8 56:1.3 
0.10000000000000001 1:2 2:-0.016177778 3:-0.30457778 4:-0.025333333 5:-0.1152 6:-0.30924444 7:0.011288889 8:-0.013 9:0.01 10:0.03 11:-0.05 12:-0.08 13:-0.016177778 14:-0.30457778 15:-0.025333333 16:-0.4136 17:-0.15793333 18:0.069533333 19:0.162 20:0.07 21:0.2 22:0.55 23:0.87 24:-0.016177778 25:-0.30457778 26:-0.025333333 27:-0.57806667 28:-0.16202222 29:-0.023533333 30:0.235 31:0.17 32:0.49 33:0.75 34:1.25 35:-0.016177778 36:-0.30457778 37:-0.025333333 38:-0.6146 39:-0.18531111 40:-0.033266667 41:0.216 42:0.18 43:0.52 44:0.68 45:1.2 46:-0.016177778 47:-0.30457778 48:-0.025333333 49:-0.63735556 50:-0.22095556 51:-0.0526 52:0.202 53:0.11 54:0.31 55:0.67 56:1.1 
0.10000000000000001 1:1 2:-0.0042444444 3:-0.15944444 4:-0.043511111 5:0.3146 6:-0.078022222 7:-0.079355556 8:0.089 9:0.06 10:0.18 11:0.27 12:0.46 13:-0.0042444444 14:-0.15944444 15:-0.043511111 16:0.43168889 17:-0.025622222 18:-0.068066667 19:0.137 20:-0.09 21:-0.26 22:0.5 23:0.64 24:-0.0042444444 25:-0.15944444 26:-0.043511111 27:0.49131111 28:-0.0073111111 29:-0.054444444 30:0.138 31:0.02 32:0.06 33:0.45 34:0.69 35:-0.0042444444 36:-0.15944444 37:-0.043511111 38:0.49131111 39:-0.0073111111 40:-0.054444444 41:0.138 42:0.02 43:0.06 44:0.45 45:0.69 46:-0.0042444444 47:-0.15944444 48:-0.043511111 49:0.49131111 50:-0.0073111111 51:-0.054444444 52:0.138 53:0.02 54:0.06 55:0.45 56:0.69 
0.10000000000000001 1:1 2:0.029066667 3:-0.31397778 4:0.055244444 5:0.15926667 6:-0.37635556 7:0.060377778 8:0.019 9:0.04 10:0.12 11:0.05 12:0.24 13:0.029066667 14:-0.31397778 15:0.055244444 16:0.424 17:-0.34095556 18:0.032355556 19:0.099 20:-0.09 21:-0.26 22:0.37 23:0.51 24:0.029066667 25:-0.31397778 26:0.055244444 27:0.4872 28:-0.28655556 29:0.023244444 30:0.143 31:0.03 32:0.09 33:0.46 34:0.72 35:0.029066667 36:-0.31397778 37:0.055244444 38:0.60235556 39:-0.24208889 40:-0.010777778 41:0.146 42:0.05 43:0.15 44:0.46 45:0.79 46:0.029066667 47:-0.31397778 48:0.055244444 49:0.62453333 50:-0.23842222 51:0.031333333 52:0.173 53:0.09 54:0.28 55:0.53 56:0.91 
0.10000000000000001 1:2 2:0.014444444 3:-0.0272 4:0.065977778 5:-0.33117778 6:-0.11306667 7:0.097222222 8:0.139 9:0.24 10:0.77 11:0.35 12:0.59 13:0.014444444 14:-0.0272 15:0.065977778 16:-0.33782222 17:-0.079444444 18:0.11864444 19:0.127 20:0.24 21:0.77 22:0.31 23:0.55 24:0.014444444 25:-0.0272 26:0.065977778 27:-0.34866667 28:-0.046733333 29:0.13655556 30:0.141 31:0.23 32:0.73 33:0.36 34:0.63 35:0.014444444 36:-0.0272 37:0.065977778 38:-0.34866667 39:-0.046733333 40:0.13655556 41:0.141 42:0.23 43:0.73 44:0.36 45:0.63 46:0.014444444 47:-0.0272 48:0.065977778 49:-0.34866667 50:-0.046733333 51:0.13655556 52:0.141 53:0.23 54:0.73 55:0.36 56:0.63 
0.10000000000000001 1:2 2:0.0038 3:0.30015556 4:0.12642222 5:-0.31211111 6:0.37293333 7:0.11931111 8:0.107 9:0.03 10:0.09 11:0.33 12:0.55 13:0.0038 14:0.30015556 15:0.12642222 16:-0.35344444 17:0.34084444 18:0.12164444 19:0.1 20:0.07 21:0.22 22:0.29 23:0.54 24:0.0038 25:0.30015556 26:0.12642222 27:-0.35344444 28:0.34084444 29:0.12164444 30:0.1 31:0.07 32:0.22 33:0.29 34:0.54 35:0.0038 36:0.30015556 37:0.12642222 38:-0.35344444 39:0.34084444 40:0.12164444 41:0.1 42:0.07 43:0.22 44:0.29 45:0.54 46:0.0038 47:0.30015556 48:0.12642222 49:-0.35344444 50:0.34084444 51:0.12164444 52:0.1 53:0.07 54:0.22 55:0.29 56:0.54 
0.10000000000000001 1:2 2:0.0083777778 3:-0.22151111 4:-0.045088889 5:-0.22422222 6:-0.13644444 7:-0.033733333 8:0.104 9:0.03 10:0.1 11:0.3 12:0.53 13:0.0083777778 14:-0.22151111 15:-0.045088889 16:-0.37737778 17:-0.12804444 18:-0.032333333 19:0.149 20:0.04 21:0.13 22:0.43 23:0.73 24:0.0083777778 25:-0.22151111 26:-0.045088889 27:-0.37737778 28:-0.12804444 29:-0.032333333 30:0.149 31:0.04 32:0.13 33:0.43 34:0.73 35:0.0083777778 36:-0.22151111 37:-0.045088889 38:-0.38948889 39:-0.11124444 40:-0.015866667 41:0.156 42:0.04 43:0.13 44:0.45 45:0.77 46:0.0083777778 47:-0.22151111 48:-0.045088889 49:-0.38971111 50:-0.10017778 51:-0.034888889 52:0.159 53:0.04 54:0.13 55:0.46 56:0.77 
0.10000000000000001 1:2 2:-0.018488889 3:-0.43684444 4:-0.049777778 5:-0.2366 6:-0.47386667 7:-0.034022222 8:0.036 9:0.11 10:0.37 11:0.07 12:0.32 13:-0.018488889 14:-0.43684444 15:-0.049777778 16:-0.34057778 17:-0.42855556 18:-0.023577778 19:0.074 20:0.07 21:0.23 22:0.2 23:0.56 24:-0.018488889 25:-0.43684444 26:-0.049777778 27:-0.35771111 28:-0.45048889 29:-0.029977778 30:0.075 31:0.03 32:0.1 33:0.22 34:0.61 35:-0.018488889 36:-0.43684444 37:-0.049777778 38:-0.40846667 39:-0.39855556 40:-0.0186 41:0.112 42:0.03 43:0.1 44:0.33 45:0.76 46:-0.018488889 47:-0.43684444 48:-0.049777778 49:-0.40846667 50:-0.39855556 51:-0.0186 52:0.112 53:0.03 54:0.1 55:0.33 56:0.76 
0.10000000000000001 1:1 2:-0.0071555556 3:0.086222222 4:0.061755556 5:0.3072 6:0.043622222 7:0.051688889 8:0.13 9:0.02 10:0.07 11:0.38 12:0.36 13:-0.0071555556 14:0.086222222 15:0.061755556 16:0.38264444 17:0.074066667 18:0.055288889 19:0.144 20:0.07 21:0.24 22:0.4 23:0.41 24:-0.0071555556 25:0.086222222 26:0.061755556 27:0.38473333 28:0.091133333 29:0.055711111 30:0.141 31:0.07 32:0.24 33:0.39 34:0.4 35:-0.0071555556 36:0.086222222 37:0.061755556 38:0.44893333 39:0.0936 40:0.067844444 41:0.151 42:0.07 43:0.24 44:0.42 45:0.4 46:-0.0071555556 47:0.086222222 48:0.061755556 49:0.45466667 50:0.10586667 51:0.079666667 52:0.15 53:0.04 54:0.14 55:0.43 56:0.37 
0.10000000000000001 1:1 2:0.099333333 3:0.16517778 4:-0.051822222 5:0.18895556 6:0.20346667 7:-0.067 8:0.013 9:0.01 10:0.03 11:0.04 12:0.05 13:0.099333333 14:0.16517778 15:-0.051822222 16:0.45264444 17:0.19622222 18:-0.044777778 19:0.07 20:0.11 21:0.33 22:0.19 23:0.27 24:0.099333333 25:0.16517778 26:-0.051822222 27:0.68653333 28:0.38066667 29:-0.079133333 30:0.136 31:0.11 32:0.33 33:0.41 34:0.62 35:0.099333333 36:0.16517778 37:-0.051822222 38:0.70075556 39:0.34193333 40:-0.09 41:0.138 42:0.14 43:0.43 44:0.4 45:0.66 46:0.099333333 47:0.16517778 48:-0.051822222 49:0.871 50:0.36635556 51:-0.11684444 52:0.199 53:0.23 54:0.72 55:0.55 56:1.03 
0.10000000000000001 1:1 2:0.18144444 3:-0.12504444 4:-0.10362222 5:0.32597778 6:-0.2022 7:-0.098755556 8:-0.006 9:-0.07 10:-0.22 11:0.01 12:-0.15 13:0.18144444 14:-0.12504444 15:-0.10362222 16:0.51991111 17:-0.14382222 18:-0.10853333 19:0.011 20:0.13 21:0.43 22:-0.02 23:0.21 24:0.18144444 25:-0.12504444 26:-0.10362222 27:0.55444444 28:-0.24757778 29:-0.10782222 30:0.015 31:0.14 32:0.46 33:-0.01 34:0.25 35:0.18144444 36:-0.12504444 37:-0.10362222 38:0.65748889 39:-0.22411111 40:-0.089155556 41:0.04 42:0.17 43:0.57 44:0.05 45:0.36 46:0.18144444 47:-0.12504444 48:-0.10362222 49:0.69944444 50:-0.22275556 51:-0.090577778 52:0.068 53:0.16 54:0.53 55:0.14 56:0.45 
0.10000000000000001 1:1 2:-0.0016666667 3:0.63737778 4:-0.10624444 5:0.15197778 6:0.54831111 7:-0.12948889 8:0.069 9:-0.02 10:-0.05 11:0.26 12:0.36 13:-0.0016666667 14:0.63737778 15:-0.10624444 16:0.43673333 17:0.56484444 18:-0.10755556 19:0.11 20:0.12 21:0.34 22:0.34 23:0.77 24:-0.0016666667 25:0.63737778 26:-0.10624444 27:0.47691111 28:0.58697778 29:-0.10431111 30:0.122 31:0.1 32:0.28 33:0.39 34:0.83 35:-0.0016666667 36:0.63737778 37:-0.10624444 38:0.47691111 39:0.58697778 40:-0.10431111 41:0.122 42:0.1 43:0.28 44:0.39 45:0.83 46:-0.0016666667 47:0.63737778 48:-0.10624444 49:0.47691111 50:0.58697778 51:-0.10431111 52:0.122 53:0.1 54:0.28 55:0.39 56:0.83 
0.10000000000000001 1:1 2:0.043688889 3:0.028866667 4:0.014133333 5:0.13148889 6:0.057022222 7:-0.0054888889 8:0.045 9:0.19 10:0.6 11:0.07 12:0.32 13:0.043688889 14:0.028866667 15:0.014133333 16:0.38384444 17:0.12064444 18:-0.051644444 19:0.116 20:0.22 21:0.7 22:0.28 23:0.66 24:0.043688889 25:0.028866667 26:0.014133333 27:0.49835556 28:0.1472 29:-0.11666667 30:0.197 31:0.21 32:0.67 33:0.54 34:0.99 35:0.043688889 36:0.028866667 37:0.014133333 38:0.53697778 39:0.117 40:-0.13175556 41:0.201 42:0.18 43:0.57 44:0.57 45:1.03 46:0.043688889 47:0.028866667 48:0.014133333 49:0.66537778 50:0.22333333 51:-0.17304444 52:0.225 53:0.22 54:0.7 55:0.62 56:1.13 
0.10000000000000001 1:2 2:0.10433333 3:-0.39986667 4:-0.092466667 5:-0.30131111 6:-0.38786667 7:0.21544444 8:0.175 9:0.06 10:0.18 11:0.55 12:0.69 13:0.10433333 14:-0.39986667 15:-0.092466667 16:-0.58291111 17:-0.33808889 18:0.35293333 19:0.225 20:0.14 21:0.44 22:0.67 23:0.78 24:0.10433333 25:-0.39986667 26:-0.092466667 27:-0.58291111 28:-0.33808889 29:0.35293333 30:0.225 31:0.14 32:0.44 33:0.67 34:0.78 35:0.10433333 36:-0.39986667 37:-0.092466667 38:-0.58291111 39:-0.33808889 40:0.35293333 41:0.225 42:0.14 43:0.44 44:0.67 45:0.78 46:0.10433333 47:-0.39986667 48:-0.092466667 49:-0.59533333 50:-0.35691111 51:0.25182222 52:0.237 53:0.15 54:0.47 55:0.7 56:0.79 
0.10000000000000001 1:1 2:-0.0029111111 3:0.30517778 4:0.13837778 5:0.27537778 6:0.41786667 7:0.10537778 8:0.094 9:-0.13 10:-0.37 11:0.37 12:0.29 13:-0.0029111111 14:0.30517778 15:0.13837778 16:0.33922222 17:0.40871111 18:0.10602222 19:0.119 20:-0.09 21:-0.26 22:0.44 23:0.4 24:-0.0029111111 25:0.30517778 26:0.13837778 27:0.43202222 28:0.46364444 29:0.065711111 30:0.126 31:-0.08 32:-0.23 33:0.46 34:0.47 35:-0.0029111111 36:0.30517778 37:0.13837778 38:0.61591111 39:0.46462222 40:0.024844444 41:0.149 42:-0.02 43:-0.06 44:0.51 45:0.7 46:-0.0029111111 47:0.30517778 48:0.13837778 49:0.69557778 50:0.46897778 51:0.0010444444 52:0.161 53:0.04 54:0.12 55:0.52 56:0.77 
0.10000000000000001 1:2 2:0.0018888889 3:-0.043866667 4:0.0023333333 5:-0.22791111 6:-0.18306667 7:0.018422222 8:0.08 9:0.07 10:0.21 11:0.24 12:0.47 13:0.0018888889 14:-0.043866667 15:0.0023333333 16:-0.36231111 17:-0.074777778 18:0.0069111111 19:0.116 20:0.04 21:0.12 22:0.37 23:0.64 24:0.0018888889 25:-0.043866667 26:0.0023333333 27:-0.48055556 28:-0.1296 29:-0.0054666667 30:0.161 31:0.1 32:0.31 33:0.49 34:0.74 35:0.0018888889 36:-0.043866667 37:0.0023333333 38:-0.52835556 39:-0.092777778 40:-0.020933333 41:0.188 42:0.1 43:0.31 44:0.58 45:0.82 46:0.0018888889 47:-0.043866667 48:0.0023333333 49:-0.62662222 50:-0.083111111 51:-0.022911111 52:0.223 53:0.16 54:0.5 55:0.66 56:0.9 
0.10000000000000001 1:2 2:-0.095155556 3:-0.35004444 4:-0.0148 5:-0.27126667 6:-0.3156 7:0.064266667 8:0.042 9:0.08 10:0.26 11:0.1 12:0.25 13:-0.095155556 14:-0.35004444 15:-0.0148 16:-0.35631111 17:-0.38651111 18:0.084933333 19:0.1 20:0.12 21:0.39 22:0.26 23:0.47 24:-0.095155556 25:-0.35004444 26:-0.0148 27:-0.53064444 28:-0.42322222 29:0.013933333 30:0.126 31:0.24 32:0.82 33:0.28 34:0.56 35:-0.095155556 36:-0.35004444 37:-0.0148 38:-0.55768889 39:-0.42093333 40:0.038 41:0.165 42:0.21 43:0.71 44:0.41 45:0.74 46:-0.095155556 47:-0.35004444 48:-0.0148 49:-0.70686667 50:-0.31913333 51:0.020422222 52:0.197 53:0.22 54:0.74 55:0.5 56:0.95 
0.10000000000000001 1:2 2:-0.095355556 3:-0.26448889 4:0.037088889 5:-0.28428889 6:-0.30146667 7:0.054555556 8:0.087 9:0.08 10:0.25 11:0.25 12:0.34 13:-0.095355556 14:-0.26448889 15:0.037088889 16:-0.40688889 17:-0.28264444 18:0.051555556 19:0.118 20:0.16 21:0.52 22:0.31 23:0.52 24:-0.095355556 25:-0.26448889 26:0.037088889 27:-0.48248889 28:-0.30173333 29:0.028666667 30:0.137 31:0.2 32:0.65 33:0.35 34:0.65 35:-0.095355556 36:-0.26448889 37:0.037088889 38:-0.48248889 39:-0.30173333 40:0.028666667 41:0.137 42:0.2 43:0.65 44:0.35 45:0.65 46:-0.095355556 47:-0.26448889 48:0.037088889 49:-0.49206667 50:-0.32471111 51:0.034488889 52:0.146 53:0.2 54:0.65 55:0.38 56:0.69 
0.10000000000000001 1:2 2:0.0058 3:0.3728 4:0.090755556 5:-0.22226667 6:0.30202222 7:0.097444444 8:0.059 9:-0.11 10:-0.31 11:0.25 12:0.4 13:0.0058 14:0.3728 15:0.090755556 16:-0.38837778 17:0.29015556 18:0.15048889 19:0.072 20:-0.12 21:-0.34 22:0.3 23:0.46 24:0.0058 25:0.3728 26:0.090755556 27:-0.39302222 28:0.29268889 29:0.19302222 30:0.095 31:-0.12 32:-0.34 33:0.38 34:0.59 35:0.0058 36:0.3728 37:0.090755556 38:-0.56266667 39:0.35442222 40:0.18842222 41:0.105 42:-0.11 43:-0.31 44:0.41 45:0.66 46:0.0058 47:0.3728 48:0.090755556 49:-0.69013333 50:0.33595556 51:0.16571111 52:0.109 53:-0.12 54:-0.34 55:0.43 56:0.71 
0.10000000000000001 1:1 2:0.13868889 3:-0.072022222 4:0.1216 5:0.33053333 6:-0.10242222 7:0.068466667 8:0.071 9:-0.05 10:-0.12 11:0.31 12:0.17 13:0.13868889 14:-0.072022222 15:0.1216 16:0.47308889 17:-0.059244444 18:0.077355556 19:0.084 20:-0.02 21:-0.05 22:0.35 23:0.22 24:0.13868889 25:-0.072022222 26:0.1216 27:0.47308889 28:-0.059244444 29:0.077355556 30:0.084 31:-0.02 32:-0.05 33:0.35 34:0.22 35:0.13868889 36:-0.072022222 37:0.1216 38:0.48964444 39:0.0038888889 40:0.026311111 41:0.136 42:0.1 43:0.25 44:0.5 45:0.55 46:0.13868889 47:-0.072022222 48:0.1216 49:0.48964444 50:0.0038888889 51:0.026311111 52:0.136 53:0.1 54:0.25 55:0.5 56:0.55 
0.10000000000000001 1:2 2:0.0051333333 3:-0.48293333 4:0.055488889 5:-0.29551111 6:-0.46511111 7:0.030977778 8:0.105 9:0.21 10:0.65 11:0.26 12:0.56 13:0.0051333333 14:-0.48293333 15:0.055488889 16:-0.43668889 17:-0.42788889 18:0.13075556 19:0.12 20:0.19 21:0.59 22:0.32 23:0.7 24:0.0051333333 25:-0.48293333 26:0.055488889 27:-0.55964444 28:-0.48071111 29:0.047622222 30:0.167 31:0.21 32:0.65 33:0.46 34:0.94 35:0.0051333333 36:-0.48293333 37:0.055488889 38:-0.64193333 39:-0.48655556 40:0.022488889 41:0.217 42:0.23 43:0.72 44:0.61 45:1.18 46:0.0051333333 47:-0.48293333 48:0.055488889 49:-0.7738 50:-0.44935556 51:-0.036177778 52:0.215 53:0.22 54:0.69 55:0.61 56:1.22 
0.10000000000000001 1:2 2:-0.028 3:-0.45764444 4:0.046244444 5:-0.18197778 6:-0.43084444 7:0.051933333 8:0.024 9:0.04 10:0.11 11:0.07 12:0.39 13:-0.028 14:-0.45764444 15:0.046244444 16:-0.33633333 17:-0.41191111 18:0.074755556 19:0.099 20:0.2 21:0.59 22:0.26 23:0.68 24:-0.028 25:-0.45764444 26:0.046244444 27:-0.44104444 28:-0.36324444 29:0.12355556 30:0.132 31:0.19 32:0.56 33:0.38 34:0.93 35:-0.028 36:-0.45764444 37:0.046244444 38:-0.57271111 39:-0.34164444 40:0.13084444 41:0.175 42:0.29 43:0.88 44:0.47 45:1.14 46:-0.028 47:-0.45764444 48:0.046244444 49:-0.72824444 50:-0.3034 51:0.15113333 52:0.21 53:0.3 54:0.91 55:0.58 56:1.24 
0.10000000000000001 1:2 2:0.061688889 3:-0.1248 4:0.051466667 5:-0.32804444 6:-0.068955556 7:0.0014 8:0.124 9:-0.03 10:-0.1 11:0.37 12:0.46 13:0.061688889 14:-0.1248 15:0.051466667 16:-0.33708889 17:-0.046533333 18:0.0032888889 19:0.108 20:-0.05 21:-0.17 22:0.33 23:0.52 24:0.061688889 25:-0.1248 26:0.051466667 27:-0.34162222 28:-0.057977778 29:-0.0050888889 30:0.118 31:-0.05 32:-0.17 33:0.36 34:0.54 35:0.061688889 36:-0.1248 37:0.051466667 38:-0.34162222 39:-0.057977778 40:-0.0050888889 41:0.118 42:-0.05 43:-0.17 44:0.36 45:0.54 46:0.061688889 47:-0.1248 48:0.051466667 49:-0.34162222 50:-0.057977778 51:-0.0050888889 52:0.118 53:-0.05 54:-0.17 55:0.36 56:0.54 
0.10000000000000001 1:2 2:0.0070222222 3:-0.28653333 4:0.084955556 5:-0.3164 6:-0.1662 7:0.21171111 8:0.141 9:0.07 10:0.23 11:0.41 12:0.57 13:0.0070222222 14:-0.28653333 15:0.084955556 16:-0.42137778 17:-0.19111111 18:0.27024444 19:0.172 20:0.1 21:0.33 22:0.49 23:0.68 24:0.0070222222 25:-0.28653333 26:0.084955556 27:-0.4776 28:-0.17708889 29:0.3368 30:0.19 31:0.11 32:0.36 33:0.54 34:0.74 35:0.0070222222 36:-0.28653333 37:0.084955556 38:-0.48075556 39:-0.17435556 40:0.31017778 41:0.182 42:0.12 43:0.4 44:0.51 45:0.72 46:0.0070222222 47:-0.28653333 48:0.084955556 49:-0.48311111 50:-0.16257778 51:0.30364444 52:0.179 53:0.1 54:0.33 55:0.51 56:0.73 
0.10000000000000001 1:2 2:0.023377778 3:0.22993333 4:-0.0031555556 5:-0.29795556 6:0.19302222 7:0.065066667 8:0.161 9:-0.05 10:-0.17 11:0.49 12:0.52 13:0.023377778 14:0.22993333 15:-0.0031555556 16:-0.33651111 17:0.19524444 18:0.049822222 19:0.17 20:-0.06 21:-0.2 22:0.52 23:0.54 24:0.023377778 25:0.22993333 26:-0.0031555556 27:-0.33651111 28:0.19524444 29:0.049822222 30:0.17 31:-0.06 32:-0.2 33:0.52 34:0.54 35:0.023377778 36:0.22993333 37:-0.0031555556 38:-0.33651111 39:0.19524444 40:0.049822222 41:0.17 42:-0.06 43:-0.2 44:0.52 45:0.54 46:0.023377778 47:0.22993333 48:-0.0031555556 49:-0.33651111 50:0.19524444 51:0.049822222 52:0.17 53:-0.06 54:-0.2 55:0.52 56:0.54 
0.10000000000000001 1:2 2:0.001 3:-0.31391111 4:-0.027888889 5:-0.31953333 6:-0.40144444 7:0.0080888889 8:0.071 9:0.06 10:0.19 11:0.2 12:0.37 13:0.001 14:-0.31391111 15:-0.027888889 16:-0.34646667 17:-0.38451111 18:-0.014866667 19:0.097 20:0.13 21:0.43 22:0.25 23:0.49 24:0.001 25:-0.31391111 26:-0.027888889 27:-0.53224444 28:-0.34497778 29:-0.043 30:0.146 31:-0.04 32:-0.13 33:0.48 34:0.8 35:0.001 36:-0.31391111 37:-0.027888889 38:-0.57933333 39:-0.37055556 40:-0.059688889 41:0.148 42:-0.05 43:-0.16 44:0.49 45:0.86 46:0.001 47:-0.31391111 48:-0.027888889 49:-0.61904444 50:-0.36044444 51:-0.071266667 52:0.159 53:0.02 54:0.06 55:0.49 56:1.02 
0.10000000000000001 1:2 2:0.0033111111 3:-0.078288889 4:0.065422222 5:-0.26671111 6:-0.00037777778 7:0.073622222 8:0.053 9:-0.02 10:-0.06 11:0.18 12:0.35 13:0.0033111111 14:-0.078288889 15:0.065422222 16:-0.36886667 17:-0.0426 18:0.042333333 19:0.086 22:0.28 23:0.47 24:0.0033111111 25:-0.078288889 26:0.065422222 27:-0.43353333 28:-0.0164 29:0.055577778 30:0.086 33:0.28 34:0.48 35:0.0033111111 36:-0.078288889 37:0.065422222 38:-0.50615556 39:0.010377778 40:0.053911111 41:0.111 44:0.36 45:0.59 46:0.0033111111 47:-0.078288889 48:0.065422222 49:-0.50615556 50:0.010377778 51:0.053911111 52:0.111 55:0.36 56:0.59 
0.10000000000000001 1:2 2:-0.0042444444 3:-0.4548 4:0.0045555556 5:-0.3134 6:-0.43822222 7:-0.023466667 8:0.066 11:0.22 12:0.42 13:-0.0042444444 14:-0.4548 15:0.0045555556 16:-0.3736 17:-0.43822222 18:0.0035555556 19:0.092 20:-0.01 21:-0.03 22:0.31 23:0.57 24:-0.0042444444 25:-0.4548 26:0.0045555556 27:-0.42655556 28:-0.40664444 29:-0.0035111111 30:0.099 31:0.04 32:0.12 33:0.31 34:0.57 35:-0.0042444444 36:-0.4548 37:0.0045555556 38:-0.45993333 39:-0.39526667 40:0.0062444444 41:0.099 42:0.06 43:0.18 44:0.3 45:0.62 46:-0.0042444444 47:-0.4548 48:0.0045555556 49:-0.50395556 50:-0.35546667 51:0.015 52:0.125 53:0.07 54:0.21 55:0.38 56:0.75 
0.10000000000000001 1:2 2:-0.39037778 3:-0.14597778 4:0.19577778 5:-0.39037778 6:-0.14597778 7:0.19577778 13:-0.39037778 14:-0.14597778 15:0.19577778 16:-0.39504444 17:-0.14882222 18:0.1928 19:-0.008 20:0.01 21:0.03 22:-0.03 23:-0.04 24:-0.38591111 25:-0.13833333 26:0.19806667 27:-0.39504444 28:-0.14882222 29:0.1928 30:-0.009 31:0.02 32:0.06 33:-0.04 34:-0.03 35:-0.374 36:-0.14202222 37:0.19086667 38:-0.39504444 39:-0.14882222 40:0.1928 41:0.003 44:0.01 
0.10000000000000001 1:1 2:0.45871111 3:-0.50406667 4:0.087333333 5:0.45871111 6:-0.50406667 7:0.087333333 13:0.45871111 14:-0.50406667 15:0.087333333 16:0.47871111 17:-0.41504444 18:0.057311111 19:0.012 20:-0.01 21:-0.03 22:0.04 23:0.01 24:0.45871111 25:-0.50406667 26:0.087333333 27:0.48204444 28:-0.46675556 29:0.086688889 30:0.005 31:-0.01 32:-0.03 33:0.02 34:-0.01 35:0.44086667 36:-0.53317778 37:0.082755556 38:0.48204444 39:-0.46675556 40:0.086688889 41:0.005 42:-0.01 43:-0.03 44:0.02 
0.10000000000000001 1:2 2:-0.016066667 3:0.33753333 4:0.0072888889 5:-0.24637778 6:0.3666 7:0.077955556 8:0.117 9:0.04 10:0.12 11:0.37 12:0.47 13:-0.016066667 14:0.33753333 15:0.0072888889 16:-0.44177778 17:0.39424444 18:0.076222222 19:0.171 20:0.13 21:0.41 22:0.5 23:0.69 24:-0.016066667 25:0.33753333 26:0.0072888889 27:-0.48677778 28:0.42326667 29:0.097288889 30:0.171 31:0.15 32:0.47 33:0.49 34:0.94 35:-0.016066667 36:0.33753333 37:0.0072888889 38:-0.56375556 39:0.42464444 40:0.092444444 41:0.177 42:0.11 43:0.34 44:0.53 45:1.01 46:-0.016066667 47:0.33753333 48:0.0072888889 49:-0.56375556 50:0.42464444 51:0.092444444 52:0.177 53:0.11 54:0.34 55:0.53 56:1.01 
0.10000000000000001 1:2 2:0.019555556 3:-0.30411111 4:-0.0019111111 5:-0.12386667 6:-0.2134 7:-0.060733333 8:0.056 9:0.11 10:0.34 11:0.14 12:0.33 13:0.019555556 14:-0.30411111 15:-0.0019111111 16:-0.4002 17:-0.257 18:-0.10453333 19:0.099 20:0.08 21:0.25 22:0.29 23:0.61 24:0.019555556 25:-0.30411111 26:-0.0019111111 27:-0.40088889 28:-0.28813333 29:-0.085355556 30:0.118 31:0.13 32:0.41 33:0.33 34:0.63 35:0.019555556 36:-0.30411111 37:-0.0019111111 38:-0.50122222 39:-0.30268889 40:-0.15526667 41:0.117 42:0.1 43:0.31 44:0.34 45:0.62 46:0.019555556 47:-0.30411111 48:-0.0019111111 49:-0.52488889 50:-0.31064444 51:-0.10984444 52:0.12 53:0.1 54:0.31 55:0.35 56:0.61 
0.10000000000000001 1:2 2:0.014155556 3:-0.50657778 4:-0.087644444 5:-0.32282222 6:-0.49457778 7:-0.23266667 8:0.071 9:0.06 10:0.19 11:0.2 12:0.55 13:0.014155556 14:-0.50657778 15:-0.087644444 16:-0.40855556 17:-0.52355556 18:-0.29355556 19:0.06 20:0.05 21:0.16 22:0.17 23:0.59 24:0.014155556 25:-0.50657778 26:-0.087644444 27:-0.40855556 28:-0.52355556 29:-0.29355556 30:0.06 31:0.05 32:0.16 33:0.17 34:0.59 35:0.014155556 36:-0.50657778 37:-0.087644444 38:-0.46597778 39:-0.53635556 40:-0.29431111 41:0.079 42:0.1 43:0.32 44:0.21 45:0.65 46:0.014155556 47:-0.50657778 48:-0.087644444 49:-0.50322222 50:-0.54313333 51:-0.29131111 52:0.049 53:0.12 54:0.39 55:0.11 56:0.57 
0.10000000000000001 1:1 2:-0.0056 3:-0.33502222 4:-0.012733333 5:0.11777778 6:-0.38202222 7:-0.040111111 8:0.05 9:-0.05 10:-0.14 11:0.19 12:0.28 13:-0.0056 14:-0.33502222 15:-0.012733333 16:0.334 17:-0.29111111 18:-0.026444444 19:0.119 20:0.01 21:0.03 22:0.4 23:0.74 24:-0.0056 25:-0.33502222 26:-0.012733333 27:0.51364444 28:-0.33466667 29:-0.0071777778 30:0.182 31:0.07 32:0.21 33:0.58 34:1.08 35:-0.0056 36:-0.33502222 37:-0.012733333 38:0.58391111 39:-0.27691111 40:0.0055111111 41:0.192 42:0.08 43:0.24 44:0.61 45:1.22 46:-0.0056 47:-0.33502222 48:-0.012733333 49:0.58944444 50:-0.27353333 51:-0.010911111 52:0.183 53:0.06 54:0.18 55:0.59 56:1.17 
0.10000000000000001 1:1 2:-0.027777778 3:0.069577778 4:0.023555556 5:0.3014 6:0.096355556 7:-0.014933333 8:0.126 9:0.09 10:0.28 11:0.38 12:0.63 13:-0.027777778 14:0.069577778 15:0.023555556 16:0.33477778 17:0.034577778 18:0.040133333 19:0.119 20:0.13 21:0.4 22:0.34 23:0.64 24:-0.027777778 25:0.069577778 26:0.023555556 27:0.33477778 28:0.034577778 29:0.040133333 30:0.119 31:0.13 32:0.4 33:0.34 34:0.64 35:-0.027777778 36:0.069577778 37:0.023555556 38:0.33477778 39:0.034577778 40:0.040133333 41:0.119 42:0.13 43:0.4 44:0.34 45:0.64 46:-0.027777778 47:0.069577778 48:0.023555556 49:0.40342222 50:0.050977778 51:0.040133333 52:0.128 53:0.13 54:0.4 55:0.37 56:0.7 
0.10000000000000001 1:2 2:0.0024666667 3:-0.28513333 4:-0.23046667 5:-0.24802222 6:-0.51864444 7:-0.15071111 8:0.105 9:-0.1 10:-0.33 11:0.35 12:0.5 13:0.0024666667 14:-0.28513333 15:-0.23046667 16:-0.3742 17:-0.49331111 18:-0.1338 19:0.116 20:-0.14 21:-0.45 22:0.4 23:0.59 24:0.0024666667 25:-0.28513333 26:-0.23046667 27:-0.3742 28:-0.49331111 29:-0.1338 30:0.116 31:-0.14 32:-0.45 33:0.4 34:0.59 35:0.0024666667 36:-0.28513333 37:-0.23046667 38:-0.48402222 39:-0.57222222 40:-0.13951111 41:0.15 42:-0.04 43:-0.13 44:0.46 45:0.72 46:0.0024666667 47:-0.28513333 48:-0.23046667 49:-0.5592 50:-0.57577778 51:-0.18455556 52:0.148 53:-0.03 54:-0.1 55:0.45 56:0.74 
0.10000000000000001 1:1 2:0.014288889 3:0.54964444 4:-0.017688889 5:0.13211111 6:0.31735556 7:-0.015533333 8:0.016 9:-0.1 10:-0.29 11:0.09 12:0.1 13:0.014288889 14:0.54964444 15:-0.017688889 16:0.56991111 17:0.49053333 18:-0.054977778 19:0.132 20:0.05 21:0.15 22:0.42 23:0.47 24:0.014288889 25:0.54964444 26:-0.017688889 27:0.56991111 28:0.49053333 29:-0.054977778 30:0.132 31:0.05 32:0.15 33:0.42 34:0.47 35:0.014288889 36:0.54964444 37:-0.017688889 38:0.56991111 39:0.49053333 40:-0.054977778 41:0.132 42:0.05 43:0.15 44:0.42 45:0.47 46:0.014288889 47:0.54964444 48:-0.017688889 49:0.56991111 50:0.49053333 51:-0.054977778 52:0.132 53:0.05 54:0.15 55:0.42 56:0.47 
0.10000000000000001 1:2 2:0.029288889 3:0.123 4:0.086355556 5:-0.24137778 6:0.22893333 7:0.032755556 8:0.105 9:0.04 10:0.12 11:0.34 12:0.54 13:0.029288889 14:0.123 15:0.086355556 16:-0.39182222 17:0.081955556 18:0.036044444 19:0.117 22:0.4 23:0.62 24:0.029288889 25:0.123 26:0.086355556 27:-0.39182222 28:0.081955556 29:0.036044444 30:0.117 33:0.4 34:0.62 35:0.029288889 36:0.123 37:0.086355556 38:-0.48108889 39:0.20997778 40:0.035088889 41:0.143 44:0.49 45:0.73 46:0.029288889 47:0.123 48:0.086355556 49:-0.53744444 50:0.19857778 51:0.0034222222 52:0.158 53:-0.02 54:-0.06 55:0.55 56:0.8 
0.10000000000000001 1:2 2:0.0041555556 3:-0.30553333 4:-0.0035777778 5:-0.084755556 6:-0.24268889 7:0.055555556 8:0.039 11:0.12 12:0.21 13:0.0041555556 14:-0.30553333 15:-0.0035777778 16:-0.50891111 17:-0.034755556 18:0.059422222 19:0.178 20:0.03 21:0.1 22:0.53 23:0.84 24:0.0041555556 25:-0.30553333 26:-0.0035777778 27:-0.61088889 28:-0.035577778 29:0.0312 30:0.207 31:0.12 32:0.41 33:0.57 34:1 35:0.0041555556 36:-0.30553333 37:-0.0035777778 38:-0.78135556 39:-0.0087111111 40:0.016533333 41:0.247 42:0.15 43:0.51 44:0.67 45:1.14 46:0.0041555556 47:-0.30553333 48:-0.0035777778 49:-0.78135556 50:-0.0087111111 51:0.016533333 52:0.247 53:0.15 54:0.51 55:0.67 56:1.14 
0.10000000000000001 1:2 2:0.0061111111 3:-0.22537778 4:0.0154 5:-0.32426667 6:-0.28282222 7:0.014755556 8:0.12 9:-0.07 10:-0.22 11:0.4 12:0.54 13:0.0061111111 14:-0.22537778 15:0.0154 16:-0.46968889 17:-0.2532 18:0.014088889 19:0.15 20:-0.06 21:-0.19 22:0.49 23:0.72 24:0.0061111111 25:-0.22537778 26:0.0154 27:-0.54166667 28:-0.30602222 29:-0.035844444 30:0.149 31:-0.07 32:-0.22 33:0.49 34:0.71 35:0.0061111111 36:-0.22537778 37:0.0154 38:-0.54837778 39:-0.29288889 40:-0.037311111 41:0.171 42:-0.09 43:-0.28 44:0.57 45:0.8 46:0.0061111111 47:-0.22537778 48:0.0154 49:-0.5736 50:-0.28186667 51:-0.041222222 52:0.187 53:-0.03 54:-0.1 55:0.59 56:0.84 
0.10000000000000001 1:2 2:0.00062222222 3:0.073577778 4:-0.029066667 5:-0.31453333 6:-0.031488889 7:0.0308 8:0.109 9:0.15 10:0.39 11:0.37 12:0.37 13:0.00062222222 14:0.073577778 15:-0.029066667 16:-0.36077778 17:-0.0051333333 18:0.016377778 19:0.128 20:-0.03 21:-0.07 22:0.53 23:0.43 24:0.00062222222 25:0.073577778 26:-0.029066667 27:-0.36077778 28:-0.0051333333 29:0.016377778 30:0.128 31:-0.03 32:-0.07 33:0.53 34:0.43 35:0.00062222222 36:0.073577778 37:-0.029066667 38:-0.36077778 39:-0.0051333333 40:0.016377778 41:0.128 42:-0.03 43:-0.07 44:0.53 45:0.43 46:0.00062222222 47:0.073577778 48:-0.029066667 49:-0.36077778 50:-0.0051333333 51:0.016377778 52:0.128 53:-0.03 54:-0.07 55:0.53 56:0.43 
0.10000000000000001 1:2 2:0.012088889 3:0.10033333 4:0.0015555556 5:-0.2466 6:0.033244444 7:0.0075555556 8:0.113 9:-0.11 10:-0.3 11:0.46 12:0.4 13:0.012088889 14:0.10033333 15:0.0015555556 16:-0.38257778 17:0.13515556 18:0.036488889 19:0.119 20:-0.02 21:-0.06 22:0.44 23:0.34 24:0.012088889 25:0.10033333 26:0.0015555556 27:-0.46977778 28:0.22991111 29:0.064577778 30:0.127 33:0.46 34:0.45 35:0.012088889 36:0.10033333 37:0.0015555556 38:-0.46977778 39:0.22991111 40:0.064577778 41:0.127 44:0.46 45:0.45 46:0.012088889 47:0.10033333 48:0.0015555556 49:-0.46977778 50:0.22991111 51:0.064577778 52:0.127 55:0.46 56:0.45 
0.10000000000000001 1:2 2:-0.17906667 3:-0.17948889 4:-0.12328889 5:-0.2952 6:-0.18277778 7:-0.12346667 8:0.021 9:-0.06 10:-0.18 11:0.09 12:0.2 13:-0.17906667 14:-0.17948889 15:-0.12328889 16:-0.33495556 17:-0.12682222 18:-0.070911111 19:0.041 20:-0.01 21:-0.03 22:0.14 23:0.38 24:-0.17906667 25:-0.17948889 26:-0.12328889 27:-0.59893333 28:-0.20128889 29:-0.11864444 30:0.127 31:-0.01 32:-0.03 33:0.43 34:0.83 35:-0.17906667 36:-0.17948889 37:-0.12328889 38:-0.6118 39:-0.27802222 40:-0.12722222 41:0.126 42:-0.04 43:-0.12 44:0.44 45:0.88 46:-0.17906667 47:-0.17948889 48:-0.12328889 49:-0.67713333 50:-0.35224444 51:-0.15037778 52:0.157 53:-0.05 54:-0.15 55:0.55 56:0.97 
0.10000000000000001 1:1 2:-0.046577778 3:-0.122 4:-0.16168889 5:0.21142222 6:0.012955556 7:-0.24531111 8:0.108 9:0.15 10:0.45 11:0.3 12:0.48 13:-0.046577778 14:-0.122 15:-0.16168889 16:0.4744 17:-0.020533333 18:-0.2536 19:0.128 20:0.16 21:0.48 22:0.36 23:0.54 24:-0.046577778 25:-0.122 26:-0.16168889 27:0.4744 28:-0.020533333 29:-0.2536 30:0.128 31:0.16 32:0.48 33:0.36 34:0.54 35:-0.046577778 36:-0.122 37:-0.16168889 38:0.58895556 39:0.23504444 40:-0.18202222 41:0.144 42:0.17 43:0.52 44:0.41 45:0.68 46:-0.046577778 47:-0.122 48:-0.16168889 49:0.58895556 50:0.23504444 51:-0.18202222 52:0.144 53:0.17 54:0.52 55:0.41 56:0.68 
0.10000000000000001 1:2 2:-0.11784444 3:0.319 4:0.028822222 5:-0.29635556 6:0.22377778 7:-0.041644444 8:0.032 11:0.1 12:0.15 13:-0.11784444 14:0.319 15:0.028822222 16:-0.43157778 17:0.18 18:-0.063755556 19:0.078 20:-0.01 21:-0.03 22:0.25 23:0.28 24:-0.11784444 25:0.319 26:0.028822222 27:-0.46922222 28:0.19306667 29:-0.049422222 30:0.085 31:-0.05 32:-0.16 33:0.29 34:0.33 35:-0.11784444 36:0.319 37:0.028822222 38:-0.46922222 39:0.19306667 40:-0.049422222 41:0.085 42:-0.05 43:-0.16 44:0.29 45:0.33 46:-0.11784444 47:0.319 48:0.028822222 49:-0.4998 50:0.19375556 51:-0.013511111 52:0.137 53:0.06 54:0.2 55:0.4 56:0.65 
0.10000000000000001 1:2 2:-0.041177778 3:0.35433333 4:-0.048866667 5:-0.083311111 6:0.38255556 7:-0.040844444 8:0.001 9:-0.08 10:-0.23 11:0.03 12:-0.15 13:-0.041177778 14:0.35433333 15:-0.048866667 16:-0.39857778 17:0.21031111 18:-0.090377778 19:0.093 20:0.01 21:0.03 22:0.31 23:0.38 24:-0.041177778 25:0.35433333 26:-0.048866667 27:-0.45157778 28:0.25624444 29:-0.0136 30:0.132 31:0.03 32:0.09 33:0.43 34:0.57 35:-0.041177778 36:0.35433333 37:-0.048866667 38:-0.56833333 39:0.26642222 40:0.015844444 41:0.17 42:0.21 43:0.66 44:0.47 45:0.72 46:-0.041177778 47:0.35433333 48:-0.048866667 49:-0.60377778 50:0.24442222 51:0.018244444 52:0.171 53:0.26 54:0.84 55:0.45 56:0.77 
0.10000000000000001 1:1 2:0.10855556 3:-0.058377778 4:-0.037244444 5:0.28268889 6:0.040688889 7:-0.050311111 8:0.067 9:0.09 10:0.25 11:0.21 12:0.4 13:0.10855556 14:-0.058377778 15:-0.037244444 16:0.44188889 17:0.059911111 18:-0.035177778 19:0.079 20:0.1 21:0.28 22:0.25 23:0.46 24:0.10855556 25:-0.058377778 26:-0.037244444 27:0.45397778 28:0.27262222 29:-0.23686667 30:0.085 31:0.08 32:0.22 33:0.28 34:0.49 35:0.10855556 36:-0.058377778 37:-0.037244444 38:0.50246667 39:0.14682222 40:-0.1308 41:0.079 42:0.08 43:0.22 44:0.26 45:0.47 46:0.10855556 47:-0.058377778 48:-0.037244444 49:0.51484444 50:0.019 51:-0.11344444 52:0.094 53:0.09 54:0.25 55:0.31 56:0.55 
0.10000000000000001 1:2 2:0.031666667 3:-0.050066667 4:-0.051488889 5:-0.17511111 6:0.042133333 7:-0.0084222222 8:0.028 11:0.1 12:0.18 13:0.031666667 14:-0.050066667 15:-0.051488889 16:-0.3484 17:-0.14433333 18:-0.0568 19:0.065 20:0.01 21:0.03 22:0.23 23:0.36 24:0.031666667 25:-0.050066667 26:-0.051488889 27:-0.41273333 28:-0.21655556 29:-0.10695556 30:0.047 33:0.17 34:0.31 35:0.031666667 36:-0.050066667 37:-0.051488889 38:-0.74837778 39:-0.17448889 40:-0.12477778 41:0.077 42:-0.01 43:-0.03 44:0.28 45:0.49 46:0.031666667 47:-0.050066667 48:-0.051488889 49:-0.74837778 50:-0.17448889 51:-0.12477778 52:0.077 53:-0.01 54:-0.03 55:0.28 56:0.49 
0.10000000000000001 1:1 2:-0.0099333333 3:0.085533333 4:-0.19733333 5:0.32062222 6:0.13515556 7:-0.16155556 8:0.038 9:0.1 10:0.29 11:0.09 12:0.29 13:-0.0099333333 14:0.085533333 15:-0.19733333 16:0.78802222 17:0.33857778 18:-0.34755556 19:0.231 20:0.32 21:0.99 22:0.61 23:1.21 24:-0.0099333333 25:0.085533333 26:-0.19733333 27:0.93946667 28:0.50408889 29:-0.3794 30:0.264 31:0.4 32:1.27 33:0.66 34:1.37 35:-0.0099333333 36:0.085533333 37:-0.19733333 38:0.93946667 39:0.50408889 40:-0.3794 41:0.264 42:0.4 43:1.27 44:0.66 45:1.37 46:-0.0099333333 47:0.085533333 48:-0.19733333 49:0.93946667 50:0.50408889 51:-0.3794 52:0.264 53:0.4 54:1.27 55:0.66 56:1.37 
0.10000000000000001 1:1 2:-0.023866667 3:-0.25475556 4:-0.059 5:0.097044444 6:-0.25291111 7:-0.056488889 8:-0.001 9:-0.03 10:-0.08 11:0.01 13:-0.023866667 14:-0.25475556 15:-0.059 16:0.65424444 17:-0.066177778 18:-0.17368889 19:0.18 20:0.25 21:0.76 22:0.49 23:0.94 24:-0.023866667 25:-0.25475556 26:-0.059 27:1.0701778 28:0.11884444 29:-0.23464444 30:0.283 31:0.52 32:1.73 33:0.64 34:1.58 35:-0.023866667 36:-0.25475556 37:-0.059 38:1.1036222 39:0.049977778 40:-0.13444444 41:0.292 42:0.49 43:1.61 44:0.69 45:1.61 46:-0.023866667 47:-0.25475556 48:-0.059 49:1.1036222 50:0.049977778 51:-0.13444444 52:0.292 53:0.49 54:1.61 55:0.69 56:1.61 
0.10000000000000001 1:2 2:0.054377778 3:-0.15071111 4:-0.24422222 5:-0.0090444444 6:-0.10428889 7:-0.23804444 8:0.012 9:0.08 10:0.23 11:0.02 12:0.1 13:0.054377778 14:-0.15071111 15:-0.24422222 16:-0.3556 17:-0.5092 18:-0.061911111 19:0.215 20:0.27 21:0.82 22:0.64 23:0.99 24:0.054377778 25:-0.15071111 26:-0.24422222 27:-0.55655556 28:-0.53351111 29:-0.0074666667 30:0.264 31:0.35 32:1.08 33:0.76 34:1.26 35:0.054377778 36:-0.15071111 37:-0.24422222 38:-0.91364444 39:-0.31548889 40:0.15486667 41:0.387 42:0.42 43:1.33 44:1.11 45:1.85 46:0.054377778 47:-0.15071111 48:-0.24422222 49:-0.91364444 50:-0.31548889 51:0.15486667 52:0.387 53:0.42 54:1.33 55:1.11 56:1.85 
0.10000000000000001 1:1 2:0.0442 3:-0.094177778 4:-0.0126 5:0.26793333 6:-0.13151111 7:-0.074711111 8:0.047 9:0.06 10:0.17 11:0.14 12:0.25 13:0.0442 14:-0.094177778 15:-0.0126 16:0.81537778 17:0.13002222 18:-0.24617778 19:0.219 20:0.27 21:0.83 22:0.61 23:1.23 24:0.0442 25:-0.094177778 26:-0.0126 27:0.92208889 28:0.19586667 29:-0.33242222 30:0.271 31:0.48 32:1.57 33:0.64 34:1.44 35:0.0442 36:-0.094177778 37:-0.0126 38:1.1438444 39:0.29266667 40:-0.25706667 41:0.292 42:0.5 43:1.64 44:0.69 45:1.71 46:0.0442 47:-0.094177778 48:-0.0126 49:1.1438444 50:0.29266667 51:-0.25706667 52:0.292 53:0.5 54:1.64 55:0.69 56:1.71 
0.10000000000000001 1:2 2:0.0089555556 3:0.0053111111 4:-0.148 5:-0.11624444 6:-0.088911111 7:-0.0624 8:0.072 9:0.13 10:0.38 11:0.2 12:0.3 13:0.0089555556 14:0.0053111111 15:-0.148 16:-0.84911111 17:-0.34975556 18:-0.15091111 19:0.286 20:0.36 21:1.13 22:0.79 23:1.54 24:0.0089555556 25:0.0053111111 26:-0.148 27:-0.9486 28:-0.38933333 29:-0.24515556 30:0.296 31:0.39 32:1.23 33:0.8 34:1.65 35:0.0089555556 36:0.0053111111 37:-0.148 38:-1.0580667 39:-0.26208889 40:-0.22757778 41:0.292 42:0.39 43:1.23 44:0.79 45:1.5 46:0.0089555556 47:0.0053111111 48:-0.148 49:-1.0580667 50:-0.26208889 51:-0.22757778 52:0.292 53:0.39 54:1.23 55:0.79 56:1.5 
0.10000000000000001 1:2 2:0.0244 3:-0.10253333 4:0.048888889 5:-0.10424444 6:-0.025888889 7:0.047244444 8:0.049 9:0.04 10:0.11 11:0.16 12:0.64 13:0.0244 14:-0.10253333 15:0.048888889 16:-0.65097778 17:-0.15268889 18:0.056955556 19:0.241 20:0.25 21:0.74 22:0.72 23:1.73 24:0.0244 25:-0.10253333 26:0.048888889 27:-0.85715556 28:0.022711111 29:0.0442 30:-0.042 31:0.51 32:1.64 33:-0.32 34:0.95 35:0.0244 36:-0.10253333 37:0.048888889 38:-1.133 39:-0.056155556 40:-0.039888889 41:0.287 42:0.59 43:1.95 44:0.65 45:1.99 46:0.0244 47:-0.10253333 48:0.048888889 49:-1.133 50:-0.056155556 51:-0.039888889 52:0.287 53:0.59 54:1.95 55:0.65 56:1.99 
0.10000000000000001 1:1 2:-0.0038 3:0.11455556 4:0.10182222 5:0.30948889 6:0.21502222 7:0.024533333 8:0.078 9:-0.17 10:-0.4 11:0.38 12:-0.16 13:-0.0038 14:0.11455556 15:0.10182222 16:0.4222 17:0.097266667 18:0.028022222 19:0.152 20:-0.06 21:-0.15 22:0.64 23:0.22 24:-0.0038 25:0.11455556 26:0.10182222 27:0.56831111 28:0.17971111 29:0.0032666667 30:0.164 31:-0.08 32:-0.19 33:0.7 34:0.33 35:-0.0038 36:0.11455556 37:0.10182222 38:0.56831111 39:0.17971111 40:0.0032666667 41:0.164 42:-0.08 43:-0.19 44:0.7 45:0.33 46:-0.0038 47:0.11455556 48:0.10182222 49:0.56831111 50:0.17971111 51:0.0032666667 52:0.164 53:-0.08 54:-0.19 55:0.7 56:0.33 
0.10000000000000001 1:2 2:-0.075266667 3:-0.11444444 4:-0.0081555556 5:-0.28028889 6:-0.11557778 7:-0.032088889 8:0.097 9:-0.03 10:-0.09 11:0.33 12:0.4 13:-0.075266667 14:-0.11444444 15:-0.0081555556 16:-0.42073333 17:-0.14446667 18:-0.012711111 19:0.124 20:-0.07 21:-0.21 22:0.44 23:0.69 24:-0.075266667 25:-0.11444444 26:-0.0081555556 27:-0.56635556 28:-0.0094 29:0.0076888889 30:0.172 31:-0.03 32:-0.09 33:0.58 34:0.92 35:-0.075266667 36:-0.11444444 37:-0.0081555556 38:-0.70531111 39:0.070488889 40:0.0046222222 41:0.224 42:0.04 43:0.12 44:0.71 45:1.09 46:-0.075266667 47:-0.11444444 48:-0.0081555556 49:-0.73286667 50:0.14704444 51:0.011755556 52:0.215 53:0.04 54:0.12 55:0.68 56:1.06 
0.10000000000000001 1:1 2:-0.055911111 3:-0.10024444 4:0.0046666667 5:0.32908889 6:-0.12977778 7:0.053711111 8:0.122 9:0.05 10:0.15 11:0.4 12:0.73 13:-0.055911111 14:-0.10024444 15:0.0046666667 16:0.33433333 17:-0.12306667 18:0.058466667 19:0.122 20:0.05 21:0.15 22:0.4 23:0.72 24:-0.055911111 25:-0.10024444 26:0.0046666667 27:0.33433333 28:-0.12306667 29:0.058466667 30:0.122 31:0.05 32:0.15 33:0.4 34:0.72 35:-0.055911111 36:-0.10024444 37:0.0046666667 38:0.33433333 39:-0.12306667 40:0.058466667 41:0.122 42:0.05 43:0.15 44:0.4 45:0.72 46:-0.055911111 47:-0.10024444 48:0.0046666667 49:0.34093333 50:-0.1206 51:0.061088889 52:0.141 53:0.06 54:0.18 55:0.46 56:0.79 
0.10000000000000001 1:1 2:-0.0074222222 3:-0.13304444 4:-0.0070222222 5:0.30675556 6:0.012444444 7:-0.031777778 8:0.087 9:-0.01 10:-0.03 11:0.3 12:0.45 13:-0.0074222222 14:-0.13304444 15:-0.0070222222 16:0.334 17:0.010266667 18:-0.028177778 19:0.104 20:-0.06 21:-0.17 22:0.38 23:0.56 24:-0.0074222222 25:-0.13304444 26:-0.0070222222 27:0.33593333 28:-0.0098666667 29:-0.018955556 30:0.097 31:-0.05 32:-0.14 33:0.35 34:0.53 35:-0.0074222222 36:-0.13304444 37:-0.0070222222 38:0.33593333 39:-0.0098666667 40:-0.018955556 41:0.097 42:-0.05 43:-0.14 44:0.35 45:0.53 46:-0.0074222222 47:-0.13304444 48:-0.0070222222 49:0.33593333 50:-0.0098666667 51:-0.018955556 52:0.097 53:-0.05 54:-0.14 55:0.35 56:0.53 
0.10000000000000001 1:2 2:-0.029666667 3:-0.0226 4:-0.00051111111 5:-0.22464444 6:-0.036711111 7:0.0059111111 8:0.078 9:0.01 10:0.03 11:0.26 12:0.55 13:-0.029666667 14:-0.0226 15:-0.00051111111 16:-0.38595556 17:-0.035822222 18:-0.00062222222 19:0.118 20:0.13 21:0.4 22:0.34 23:0.73 24:-0.029666667 25:-0.0226 26:-0.00051111111 27:-0.474 28:-0.012333333 29:-0.012111111 30:0.143 31:0.11 32:0.33 33:0.43 34:0.83 35:-0.029666667 36:-0.0226 37:-0.00051111111 38:-0.49073333 39:-0.039111111 40:-0.010444444 41:0.147 42:0.06 43:0.18 44:0.47 45:0.87 46:-0.029666667 47:-0.0226 48:-0.00051111111 49:-0.5024 50:-0.038111111 51:-0.028822222 52:0.141 53:0.08 54:0.24 55:0.44 56:0.85 
0.10000000000000001 1:1 2:-0.019311111 3:-0.053822222 4:-0.018844444 5:0.22077778 6:0.048977778 7:0.0082 8:0.125 9:-0.05 10:-0.15 11:0.44 12:0.59 13:-0.019311111 14:-0.053822222 15:-0.018844444 16:0.33482222 17:0.039044444 18:-0.030244444 19:0.15 20:0.01 21:0.03 22:0.5 23:0.73 24:-0.019311111 25:-0.053822222 26:-0.018844444 27:0.33482222 28:0.039044444 29:-0.030244444 30:0.15 31:0.01 32:0.03 33:0.5 34:0.73 35:-0.019311111 36:-0.053822222 37:-0.018844444 38:0.33482222 39:0.039044444 40:-0.030244444 41:0.15 42:0.01 43:0.03 44:0.5 45:0.73 46:-0.019311111 47:-0.053822222 48:-0.018844444 49:0.35733333 50:0.081977778 51:-0.011577778 52:0.17 55:0.57 56:0.78 
0.10000000000000001 1:2 2:-0.026666667 3:-0.062066667 4:0.0014 5:-0.31337778 6:-0.12168889 7:-0.011644444 8:0.12 9:-0.01 10:-0.03 11:0.38 12:0.57 13:-0.026666667 14:-0.062066667 15:0.0014 16:-0.40891111 17:-0.13011111 18:-0.031066667 19:0.139 20:-0.07 21:-0.22 22:0.47 23:0.8 24:-0.026666667 25:-0.062066667 26:0.0014 27:-0.46111111 28:-0.18833333 29:-0.040955556 30:0.146 31:-0.07 32:-0.22 33:0.49 34:0.84 35:-0.026666667 36:-0.062066667 37:0.0014 38:-0.46111111 39:-0.18833333 40:-0.040955556 41:0.146 42:-0.07 43:-0.22 44:0.49 45:0.84 46:-0.026666667 47:-0.062066667 48:0.0014 49:-0.46111111 50:-0.18833333 51:-0.040955556 52:0.146 53:-0.07 54:-0.22 55:0.49 56:0.84 
0.10000000000000001 1:2 2:0.0027555556 3:0.16475556 4:-0.028911111 5:-0.30393333 6:0.27406667 7:0.056488889 8:0.145 9:-0.09 10:-0.3 11:0.47 12:0.52 13:0.0027555556 14:0.16475556 15:-0.028911111 16:-0.41806667 17:0.27122222 18:0.092111111 19:0.156 20:-0.02 21:-0.07 22:0.47 23:0.6 24:0.0027555556 25:0.16475556 26:-0.028911111 27:-0.46791111 28:0.23702222 29:0.11306667 30:0.163 31:-0.06 32:-0.2 33:0.51 34:0.61 35:0.0027555556 36:0.16475556 37:-0.028911111 38:-0.46791111 39:0.23702222 40:0.11306667 41:0.163 42:-0.06 43:-0.2 44:0.51 45:0.61 46:0.0027555556 47:0.16475556 48:-0.028911111 49:-0.47028889 50:0.26413333 51:0.10426667 52:0.087 53:-0.08 54:-0.26 55:0.29 56:0.4 
0.10000000000000001 1:2 2:0.046377778 3:0.027311111 4:-0.10042222 5:-0.22897778 6:0.0012222222 7:0.020377778 8:0.132 9:0.34 10:0.97 11:0.35 12:0.81 13:0.046377778 14:0.027311111 15:-0.10042222 16:-0.45404444 17:0.070577778 18:0.070311111 19:0.199 20:0.29 21:0.82 22:0.61 23:1.18 24:0.046377778 25:0.027311111 26:-0.10042222 27:-0.68104444 28:0.20266667 29:0.10657778 30:0.227 31:0.36 32:1.03 33:0.67 34:1.38 35:0.046377778 36:0.027311111 37:-0.10042222 38:-0.68104444 39:0.20266667 40:0.10657778 41:0.227 42:0.36 43:1.03 44:0.67 45:1.38 46:0.046377778 47:0.027311111 48:-0.10042222 49:-0.68104444 50:0.20266667 51:0.10657778 52:0.227 53:0.36 54:1.03 55:0.67 56:1.38 
0.10000000000000001 1:2 2:0.040377778 3:-0.0080222222 4:-0.14008889 5:-0.011933333 6:-0.020688889 7:-0.10786667 8:0.027 9:0.04 10:0.13 11:0.07 12:0.06 13:0.040377778 14:-0.0080222222 15:-0.14008889 16:-0.39097778 17:0.0024444444 18:0.068866667 19:0.221 20:0.12 21:0.4 22:0.62 23:0.72 24:0.040377778 25:-0.0080222222 26:-0.14008889 27:-0.48748889 28:0.075422222 29:0.085266667 30:0.25 31:0.19 32:0.66 33:0.67 34:0.88 35:0.040377778 36:-0.0080222222 37:-0.14008889 38:-0.57926667 39:0.15235556 40:0.079711111 41:0.277 42:0.24 43:0.84 44:0.72 45:0.95 46:0.040377778 47:-0.0080222222 48:-0.14008889 49:-0.57926667 50:0.15235556 51:0.079711111 52:0.277 53:0.24 54:0.84 55:0.72 56:0.95 
0.10000000000000001 1:1 2:0.46844444 3:0.22171111 4:-0.13315556 5:0.46844444 6:0.22171111 7:-0.13315556 13:0.46844444 14:0.22171111 15:-0.13315556 16:0.4882 17:0.27748889 18:-0.10197778 19:0.013 22:0.05 23:0.03 24:0.46844444 25:0.22171111 26:-0.13315556 27:0.51326667 28:0.29628889 29:-0.10211111 31:0.02 32:0.05 33:-0.01 34:-0.03 35:0.46844444 36:0.22171111 37:-0.13315556 38:0.51428889 39:0.20131111 40:-0.10335556 41:0.017 42:0.01 43:0.03 44:0.06 45:0.04 
0.10000000000000001 1:2 2:0.132 3:-0.46311111 4:-0.17426667 5:-0.21573333 6:-0.537 7:-0.059844444 8:0.103 11:0.36 12:0.38 13:0.132 14:-0.46311111 15:-0.17426667 16:-0.50148889 17:-0.47744444 18:-0.074022222 19:0.256 20:0.09 21:0.26 22:0.85 23:0.98 24:0.132 25:-0.46311111 26:-0.17426667 27:-0.6546 28:-0.48942222 29:-0.11868889 30:0.288 31:0.16 32:0.48 33:0.92 34:1.15 35:0.132 36:-0.46311111 37:-0.17426667 38:-0.84657778 39:-0.3244 40:-0.065711111 41:0.34 42:0.2 43:0.61 44:1.07 45:1.31 46:0.132 47:-0.46311111 48:-0.17426667 49:-0.85433333 50:-0.50448889 51:-0.14113333 52:0.243 53:0.02 54:0.06 55:0.84 56:1.03 
0.10000000000000001 1:2 2:-0.131 3:-0.295 4:-0.16942222 5:-0.2534 6:-0.31353333 7:-0.12926667 8:0.008 9:0.01 10:0.03 11:0.02 12:0.04 13:-0.131 14:-0.295 15:-0.16942222 16:-0.56933333 17:-0.17955556 18:-0.22217778 19:0.173 20:-0.03 21:-0.1 22:0.55 23:0.84 24:-0.131 25:-0.295 26:-0.16942222 27:-1.0970444 28:-0.34146667 29:-0.33333333 30:0.269 31:0.08 32:0.27 33:0.78 34:1.22 35:-0.131 36:-0.295 37:-0.16942222 38:-1.1905556 39:-0.17737778 40:-0.17813333 41:0.266 42:0.1 43:0.33 44:0.76 45:1.28 46:-0.131 47:-0.295 48:-0.16942222 49:-1.1905556 50:-0.17737778 51:-0.17813333 52:0.266 53:0.1 54:0.33 55:0.76 56:1.28 
0.10000000000000001 1:1 2:-0.0042 3:-0.0094 4:0.0764 5:0.31988889 6:-0.14844444 7:-0.061133333 8:0.154 9:0.04 10:0.13 11:0.46 12:0.72 13:-0.0042 14:-0.0094 15:0.0764 16:0.40595556 17:-0.18082222 18:0.0043333333 19:0.163 20:0.08 21:0.26 22:0.47 23:0.79 24:-0.0042 25:-0.0094 26:0.0764 27:0.40595556 28:-0.18082222 29:0.0043333333 30:0.163 31:0.08 32:0.26 33:0.47 34:0.79 35:-0.0042 36:-0.0094 37:0.0764 38:0.40595556 39:-0.18082222 40:0.0043333333 41:0.163 42:0.08 43:0.26 44:0.47 45:0.79 46:-0.0042 47:-0.0094 48:0.0764 49:0.40595556 50:-0.18082222 51:0.0043333333 52:0.163 53:0.08 54:0.26 55:0.47 56:0.79 
0.10000000000000001 1:2 2:8.8888889e-05 3:-0.36964444 4:0.089177778 5:-0.10326667 6:-0.33035556 7:0.14115556 8:0.013 9:-0.03 10:-0.1 11:0.05 12:0.14 13:8.8888889e-05 14:-0.36964444 15:0.089177778 16:-0.4158 17:-0.34637778 18:0.1328 19:0.105 20:0.12 21:0.41 22:0.26 23:0.52 24:8.8888889e-05 25:-0.36964444 26:0.089177778 27:-0.51926667 28:-0.38222222 29:0.099111111 30:0.12 31:0.11 32:0.38 33:0.31 34:0.57 35:8.8888889e-05 36:-0.36964444 37:0.089177778 38:-0.65622222 39:-0.32413333 40:0.054022222 41:0.162 42:0.08 43:0.27 44:0.45 45:0.76 46:8.8888889e-05 47:-0.36964444 48:0.089177778 49:-0.65622222 50:-0.32413333 51:0.054022222 52:0.162 53:0.08 54:0.27 55:0.45 56:0.76 
0.10000000000000001 1:1 2:0.016777778 3:0.18713333 4:-0.12455556 5:0.33304444 6:0.22142222 7:-0.25251111 8:0.089 9:-0.14 10:-0.43 11:0.34 12:-0.23 13:0.016777778 14:0.18713333 15:-0.12455556 16:0.68002222 17:0.22642222 18:-0.27708889 19:0.209 20:-0.21 21:-0.63 22:0.77 23:0.46 24:0.016777778 25:0.18713333 26:-0.12455556 27:0.685 28:0.26966667 29:-0.31155556 30:0.202 31:-0.06 32:-0.19 33:0.66 34:0.49 35:0.016777778 36:0.18713333 37:-0.12455556 38:0.74593333 39:0.3264 40:-0.2864 41:0.203 42:-0.02 43:-0.06 44:0.64 45:0.49 46:0.016777778 47:0.18713333 48:-0.12455556 49:0.74593333 50:0.3264 51:-0.2864 52:0.203 53:-0.02 54:-0.06 55:0.64 56:0.49 
0.10000000000000001 1:2 2:-0.055044444 3:-0.0043333333 4:0.00011111111 5:-0.19391111 6:0.0066222222 7:0.044533333 8:0.051 9:0.03 10:0.08 11:0.17 12:0.4 13:-0.055044444 14:-0.0043333333 15:0.00011111111 16:-0.364 17:0.11055556 18:0.084022222 19:0.103 20:0.09 21:0.26 22:0.33 23:0.73 24:-0.055044444 25:-0.0043333333 26:0.00011111111 27:-0.6476 28:0.10886667 29:0.084933333 30:0.182 31:0.14 32:0.41 33:0.58 34:1.06 35:-0.055044444 36:-0.0043333333 37:0.00011111111 38:-0.67702222 39:0.10704444 40:0.087466667 41:0.192 42:0.13 43:0.38 44:0.62 45:1.09 46:-0.055044444 47:-0.0043333333 48:0.00011111111 49:-0.71753333 50:0.10246667 51:0.096577778 52:0.212 53:0.11 54:0.32 55:0.7 56:1.17 
0.10000000000000001 1:2 2:0.048288889 3:-0.36437778 4:0.010066667 5:-0.25413333 6:-0.3394 7:0.028511111 8:0.082 9:0.08 10:0.23 11:0.26 12:0.58 13:0.048288889 14:-0.36437778 15:0.010066667 16:-0.33606667 17:-0.29768889 18:0.075444444 19:0.123 20:0.07 21:0.2 22:0.41 23:0.81 24:0.048288889 25:-0.36437778 26:0.010066667 27:-0.62064444 28:-0.34602222 29:0.019622222 30:0.179 31:0.14 32:0.41 33:0.57 34:1.09 35:0.048288889 36:-0.36437778 37:0.010066667 38:-0.68404444 39:-0.30075556 40:0.026955556 41:0.188 42:0.14 43:0.41 44:0.6 45:1.17 46:0.048288889 47:-0.36437778 48:0.010066667 49:-0.72953333 50:-0.30831111 51:0.015622222 52:0.204 53:0.15 54:0.44 55:0.65 56:1.2 
0.10000000000000001 1:2 2:0.0059111111 3:-0.20102222 4:-0.13313333 5:-0.27028889 6:-0.27011111 7:-0.18402222 8:0.105 9:-0.11 10:-0.35 11:0.36 12:0.42 13:0.0059111111 14:-0.20102222 15:-0.13313333 16:-0.4014 17:-0.28033333 18:-0.15384444 19:0.079 20:-0.08 21:-0.26 22:0.27 23:0.39 24:0.0059111111 25:-0.20102222 26:-0.13313333 27:-0.4014 28:-0.28033333 29:-0.15384444 30:0.079 31:-0.08 32:-0.26 33:0.27 34:0.39 35:0.0059111111 36:-0.20102222 37:-0.13313333 38:-0.4014 39:-0.28033333 40:-0.15384444 41:0.079 42:-0.08 43:-0.26 44:0.27 45:0.39 46:0.0059111111 47:-0.20102222 48:-0.13313333 49:-0.4014 50:-0.28033333 51:-0.15384444 52:0.079 53:-0.08 54:-0.26 55:0.27 56:0.39 
0.10000000000000001 1:1 2:-0.0062666667 3:-0.35 4:-0.36402222 5:0.20946667 6:-0.122 7:-0.41682222 8:0.084 9:-0.06 10:-0.18 11:0.31 12:0.56 13:-0.0062666667 14:-0.35 15:-0.36402222 16:0.35662222 17:-0.17706667 18:-0.4426 19:0.092 20:-0.03 21:-0.09 22:0.32 23:0.61 24:-0.0062666667 25:-0.35 26:-0.36402222 27:0.4444 28:-0.16037778 29:-0.44517778 30:0.116 31:-0.03 32:-0.09 33:0.4 34:0.69 35:-0.0062666667 36:-0.35 37:-0.36402222 38:0.48637778 39:-0.14324444 40:-0.44793333 41:0.127 42:0.02 43:0.06 44:0.41 45:0.74 46:-0.0062666667 47:-0.35 48:-0.36402222 49:0.48637778 50:-0.14324444 51:-0.44793333 52:0.127 53:0.02 54:0.06 55:0.41 56:0.74 
0.10000000000000001 1:1 2:0.16031111 3:0.090511111 4:-0.27757778 5:0.30462222 6:0.085977778 7:-0.27117778 8:0.005 9:0.08 10:0.26 11:-0.02 12:0.05 13:0.16031111 14:0.090511111 15:-0.27757778 16:0.36133333 17:0.1524 18:-0.27346667 19:0.003 20:-0.05 21:-0.16 22:0.03 23:0.01 24:0.16031111 25:0.090511111 26:-0.27757778 27:0.36133333 28:0.1524 29:-0.27346667 30:0.003 31:-0.05 32:-0.16 33:0.03 34:0.01 35:0.16031111 36:0.090511111 37:-0.27757778 38:0.36133333 39:0.1524 40:-0.27346667 41:0.003 42:-0.05 43:-0.16 44:0.03 45:0.01 46:0.16031111 47:0.090511111 48:-0.27757778 49:0.36133333 50:0.1524 51:-0.27346667 52:0.003 53:-0.05 54:-0.16 55:0.03 56:0.01 
0.10000000000000001 1:2 2:0.00064444444 3:-0.15224444 4:-0.30451111 5:-0.26208889 6:-0.29675556 7:-0.19375556 8:0.136 9:0.06 10:0.18 11:0.43 12:0.47 13:0.00064444444 14:-0.15224444 15:-0.30451111 16:-0.38897778 17:-0.31664444 18:-0.17008889 19:0.194 20:0.08 21:0.25 22:0.61 23:0.7 24:0.00064444444 25:-0.15224444 26:-0.30451111 27:-0.43453333 28:-0.30991111 29:-0.1614 30:0.205 31:0.07 32:0.22 33:0.65 34:0.75 35:0.00064444444 36:-0.15224444 37:-0.30451111 38:-0.46184444 39:-0.31108889 40:-0.177 41:0.212 42:0.08 43:0.25 44:0.67 45:0.77 46:0.00064444444 47:-0.15224444 48:-0.30451111 49:-0.46255556 50:-0.30055556 51:-0.16537778 52:0.203 53:0.08 54:0.25 55:0.64 56:0.73 
0.10000000000000001 1:2 2:-0.14837778 3:0.37524444 4:-0.0992 5:-0.19962222 6:0.36333333 7:-0.053822222 8:0.04 9:0.01 10:0.03 11:0.13 12:0.16 13:-0.14837778 14:0.37524444 15:-0.0992 16:-0.3608 17:0.321 18:-0.026622222 19:0.09 20:-0.05 21:-0.15 22:0.32 23:0.39 24:-0.14837778 25:0.37524444 26:-0.0992 27:-0.42588889 28:0.31815556 29:-0.020488889 30:0.094 31:-0.04 32:-0.12 33:0.33 34:0.42 35:-0.14837778 36:0.37524444 37:-0.0992 38:-0.51791111 39:0.25924444 40:-0.051311111 41:0.148 42:0.09 43:0.28 44:0.45 45:0.66 46:-0.14837778 47:0.37524444 48:-0.0992 49:-0.60695556 50:0.29311111 51:-0.065488889 52:0.148 53:0.05 54:0.15 55:0.47 56:0.82 
0.10000000000000001 1:2 2:0.012044444 3:-0.3318 4:0.075244444 5:-0.23704444 6:-0.29342222 7:0.051 8:0.052 9:0.15 10:0.48 11:0.11 12:0.43 13:0.012044444 14:-0.3318 15:0.075244444 16:-0.46793333 17:-0.23348889 18:0.050711111 19:0.107 20:0.16 21:0.51 22:0.28 23:0.71 24:0.012044444 25:-0.3318 26:0.075244444 27:-0.5844 28:-0.22528889 29:0.046333333 30:0.115 31:0.19 32:0.61 33:0.29 34:0.89 35:0.012044444 36:-0.3318 37:0.075244444 38:-0.75931111 39:-0.046688889 40:0.0792 41:0.152 42:0.4 43:1.38 44:0.3 45:1.15 46:0.012044444 47:-0.3318 48:0.075244444 49:-0.77866667 50:-0.039222222 51:0.076266667 52:0.151 53:0.39 54:1.34 55:0.3 56:1.16 
0.10000000000000001 1:1 2:0.071066667 3:-0.51831111 4:-0.067777778 5:0.21982222 6:-0.54355556 7:-0.0864 8:0.04 9:0.14 10:0.43 11:0.08 12:0.19 13:0.071066667 14:-0.51831111 15:-0.067777778 16:0.556 17:-0.2912 18:-0.1328 19:0.122 20:0.1 21:0.3 22:0.37 23:0.68 24:0.071066667 25:-0.51831111 26:-0.067777778 27:0.58684444 28:-0.2406 29:-0.1486 30:0.133 31:0.09 32:0.27 33:0.41 34:0.69 35:0.071066667 36:-0.51831111 37:-0.067777778 38:0.65817778 39:-0.20224444 40:-0.16908889 41:0.132 42:0.08 43:0.24 44:0.41 45:0.67 46:0.071066667 47:-0.51831111 48:-0.067777778 49:0.65817778 50:-0.20224444 51:-0.16908889 52:0.132 53:0.08 54:0.24 55:0.41 56:0.67 
0.10000000000000001 1:2 2:-0.034311111 3:-0.011888889 4:0.057333333 5:-0.095266667 6:0.0046444444 7:0.049066667 8:0.017 9:0.02 10:0.06 11:0.05 13:-0.034311111 14:-0.011888889 15:0.057333333 16:-0.51466667 17:0.074844444 18:0.065444444 19:0.1 20:0.2 21:0.65 22:0.24 23:0.55 24:-0.034311111 25:-0.011888889 26:0.057333333 27:-0.94464444 28:0.29471111 29:0.15191111 30:0.178 31:0.2 32:0.65 33:0.48 34:0.99 35:-0.034311111 36:-0.011888889 37:0.057333333 38:-0.94464444 39:0.29471111 40:0.15191111 41:0.178 42:0.2 43:0.65 44:0.48 45:0.99 46:-0.034311111 47:-0.011888889 48:0.057333333 49:-0.94464444 50:0.29471111 51:0.15191111 52:0.178 53:0.2 54:0.65 55:0.48 56:0.99 
0.10000000000000001 1:2 2:0.024777778 3:0.11771111 4:-0.10413333 5:-0.30971111 6:0.21013333 7:-0.023088889 8:0.095 9:0.15 10:0.48 11:0.25 12:0.66 13:0.024777778 14:0.11771111 15:-0.10413333 16:-0.38424444 17:0.17564444 18:-0.038133333 19:0.142 20:0.19 21:0.61 22:0.38 23:0.82 24:0.024777778 25:0.11771111 26:-0.10413333 27:-0.47453333 28:0.11982222 29:-0.027377778 30:0.167 31:0.1 32:0.31 33:0.5 34:0.92 35:0.024777778 36:0.11771111 37:-0.10413333 38:-0.486 39:0.13393333 40:-0.0067777778 41:0.138 42:0.14 43:0.45 44:0.39 45:0.83 46:0.024777778 47:0.11771111 48:-0.10413333 49:-0.486 50:0.13393333 51:-0.0067777778 52:0.138 53:0.14 54:0.45 55:0.39 56:0.83 
0.10000000000000001 1:2 2:-0.055 3:0.34411111 4:-0.1154 5:-0.27097778 6:0.33931111 7:-0.053577778 8:0.043 9:0.02 10:0.06 11:0.14 12:0.18 13:-0.055 14:0.34411111 15:-0.1154 16:-0.41357778 17:0.34726667 18:0.0018222222 19:0.115 20:0.06 21:0.18 22:0.37 23:0.47 24:-0.055 25:0.34411111 26:-0.1154 27:-0.44595556 28:0.33546667 29:-0.017711111 30:0.138 31:0.06 32:0.18 33:0.45 34:0.57 35:-0.055 36:0.34411111 37:-0.1154 38:-0.51746667 39:0.36237778 40:-0.017977778 41:0.126 42:0.1 43:0.3 44:0.39 45:0.56 46:-0.055 47:0.34411111 48:-0.1154 49:-0.51746667 50:0.36237778 51:-0.017977778 52:0.126 53:0.1 54:0.3 55:0.39 56:0.56 
0.10000000000000001 1:1 2:-0.0053777778 3:-0.19506667 4:-0.091333333 5:0.29153333 6:-0.19973333 7:-0.095111111 8:0.121 9:-0.01 10:-0.03 11:0.43 12:0.34 13:-0.0053777778 14:-0.19506667 15:-0.091333333 16:0.3388 17:-0.19806667 18:-0.13842222 19:0.121 20:0.04 21:0.11 22:0.41 23:0.31 24:-0.0053777778 25:-0.19506667 26:-0.091333333 27:0.3388 28:-0.19806667 29:-0.13842222 30:0.121 31:0.04 32:0.11 33:0.41 34:0.31 35:-0.0053777778 36:-0.19506667 37:-0.091333333 38:0.39706667 39:-0.16104444 40:-0.13071111 41:0.127 42:0.04 43:0.11 44:0.43 45:0.31 46:-0.0053777778 47:-0.19506667 48:-0.091333333 49:0.39706667 50:-0.16104444 51:-0.13071111 52:0.127 53:0.04 54:0.11 55:0.43 56:0.31 
0.10000000000000001 1:2 2:0.0036 3:-0.35748889 4:-0.12204444 5:-0.31584444 6:-0.43864444 7:-0.11548889 8:0.035 9:0.04 10:0.11 11:0.11 12:0.32 13:0.0036 14:-0.35748889 15:-0.12204444 16:-0.3538 17:-0.44846667 18:-0.10611111 19:0.034 20:0.06 21:0.17 22:0.1 23:0.35 24:0.0036 25:-0.35748889 26:-0.12204444 27:-0.38766667 28:-0.44788889 29:-0.059066667 30:0.051 31:0.08 32:0.23 33:0.15 34:0.41 35:0.0036 36:-0.35748889 37:-0.12204444 38:-0.38766667 39:-0.44788889 40:-0.059066667 41:0.051 42:0.08 43:0.23 44:0.15 45:0.41 46:0.0036 47:-0.35748889 48:-0.12204444 49:-0.49235556 50:-0.44471111 51:-0.12064444 52:0.07 53:0.12 54:0.35 55:0.2 56:0.6 
0.10000000000000001 1:1 2:-0.0047777778 3:0.29633333 4:-0.183 5:0.32768889 6:0.36306667 7:-0.16051111 8:0.088 9:0.09 10:0.26 11:0.27 12:0.36 13:-0.0047777778 14:0.29633333 15:-0.183 16:0.482 17:0.4412 18:-0.1916 19:0.13 20:0.12 21:0.35 22:0.4 23:0.51 24:-0.0047777778 25:0.29633333 26:-0.183 27:0.48442222 28:0.38304444 29:-0.19533333 30:0.123 31:0.13 32:0.38 33:0.37 34:0.49 35:-0.0047777778 36:0.29633333 37:-0.183 38:0.50393333 39:0.39768889 40:-0.18262222 41:0.117 42:0.11 43:0.32 44:0.36 45:0.47 46:-0.0047777778 47:0.29633333 48:-0.183 49:0.58533333 50:0.42117778 51:-0.1672 52:0.121 53:0.12 54:0.35 55:0.37 56:0.48 
0.10000000000000001 1:1 2:-0.037288889 3:-0.31271111 4:-0.036622222 5:0.32206667 6:-0.18837778 7:0.036288889 8:0.104 9:0.12 10:0.38 11:0.29 12:0.49 13:-0.037288889 14:-0.31271111 15:-0.036622222 16:0.33415556 17:-0.19857778 18:0.048 19:0.093 20:0.18 21:0.58 22:0.23 23:0.39 24:-0.037288889 25:-0.31271111 26:-0.036622222 27:0.33415556 28:-0.19857778 29:0.048 30:0.093 31:0.18 32:0.58 33:0.23 34:0.39 35:-0.037288889 36:-0.31271111 37:-0.036622222 38:0.33415556 39:-0.19857778 40:0.048 41:0.093 42:0.18 43:0.58 44:0.23 45:0.39 46:-0.037288889 47:-0.31271111 48:-0.036622222 49:0.33415556 50:-0.19857778 51:0.048 52:0.093 53:0.18 54:0.58 55:0.23 56:0.39 
0.10000000000000001 1:1 2:-0.0011555556 3:-0.50613333 4:0.054244444 5:0.31917778 6:-0.46742222 7:-0.00068888889 8:0.081 9:0.2 10:0.61 11:0.2 12:0.43 13:-0.0011555556 14:-0.50613333 15:0.054244444 16:0.35148889 17:-0.34371111 18:-0.0088888889 19:0.085 20:0.23 21:0.71 22:0.2 23:0.51 24:-0.0011555556 25:-0.50613333 26:0.054244444 27:0.35148889 28:-0.34371111 29:-0.0088888889 30:0.085 31:0.23 32:0.71 33:0.2 34:0.51 35:-0.0011555556 36:-0.50613333 37:0.054244444 38:0.35148889 39:-0.34371111 40:-0.0088888889 41:0.085 42:0.23 43:0.71 44:0.2 45:0.51 46:-0.0011555556 47:-0.50613333 48:0.054244444 49:0.3648 50:-0.38102222 51:0.015133333 52:0.09 53:0.27 54:0.84 55:0.2 56:0.56 
0.10000000000000001 1:1 2:-0.0044444444 3:0.18517778 4:0.0033555556 5:0.19737778 6:0.13228889 7:0.021666667 8:0.085 9:-0.12 10:-0.35 11:0.33 12:0.36 13:-0.0044444444 14:0.18517778 15:0.0033555556 16:0.35837778 17:0.14462222 18:0.052733333 19:0.098 20:-0.06 21:-0.18 22:0.35 23:0.6 24:-0.0044444444 25:0.18517778 26:0.0033555556 27:0.49351111 28:0.090888889 29:0.10913333 30:0.118 31:-0.09 32:-0.27 33:0.43 34:0.7 35:-0.0044444444 36:0.18517778 37:0.0033555556 38:0.52377778 39:0.11751111 40:0.119 41:0.122 42:-0.06 43:-0.18 44:0.43 45:0.67 46:-0.0044444444 47:0.18517778 48:0.0033555556 49:0.52377778 50:0.11751111 51:0.119 52:0.122 53:-0.06 54:-0.18 55:0.43 56:0.67 
0.10000000000000001 1:1 2:0.055022222 3:-0.00051111111 4:0.099022222 5:0.2868 6:0.0596 7:0.063866667 8:0.09 9:0.01 10:0.03 11:0.29 12:0.23 13:0.055022222 14:-0.00051111111 15:0.099022222 16:0.36351111 17:-0.062622222 18:0.050911111 19:0.122 20:0.02 21:0.06 22:0.39 23:0.52 24:0.055022222 25:-0.00051111111 26:0.099022222 27:0.53122222 28:0.093488889 29:0.029111111 30:0.16 31:0.05 32:0.15 33:0.5 34:0.8 35:0.055022222 36:-0.00051111111 37:0.099022222 38:0.53122222 39:0.093488889 40:0.029111111 41:0.16 42:0.05 43:0.15 44:0.5 45:0.8 46:0.055022222 47:-0.00051111111 48:0.099022222 49:0.55011111 50:0.058911111 51:0.049377778 52:0.176 53:0.1 54:0.31 55:0.53 56:0.64 
0.032691597369769315 1:1 2:0.034288889 3:-0.1712 4:-0.10188889 5:0.32377778 6:-0.0073777778 7:-0.082888889 8:0.128 11:0.42 12:0.59 13:0.034288889 14:-0.1712 15:-0.10188889 16:0.50444444 17:0.099444444 18:-0.10026667 19:0.188 20:0.05 21:0.15 22:0.59 23:0.93 24:0.034288889 25:-0.1712 26:-0.10188889 27:0.52117778 28:0.14942222 29:-0.15308889 30:0.185 31:0.05 32:0.15 33:0.58 34:0.91 35:0.034288889 36:-0.1712 37:-0.10188889 38:0.52117778 39:0.14942222 40:-0.15308889 41:0.185 42:0.05 43:0.15 44:0.58 45:0.91 46:0.034288889 47:-0.1712 48:-0.10188889 49:0.52117778 50:0.14942222 51:-0.15308889 52:0.185 53:0.05 54:0.15 55:0.58 56:0.91 
0.10000000000000001 1:1 2:0.1396 3:0.057755556 4:-0.028155556 5:0.3038 6:0.092177778 7:-0.034955556 8:0.078 9:-0.04 10:-0.12 11:0.27 12:0.46 13:0.1396 14:0.057755556 15:-0.028155556 16:0.49266667 17:0.14031111 18:-0.029888889 19:0.117 20:-0.04 21:-0.12 22:0.4 23:0.64 24:0.1396 25:0.057755556 26:-0.028155556 27:0.78215556 28:0.20515556 29:-0.028022222 30:0.175 31:-0.21 32:-0.61 33:0.68 34:0.93 35:0.1396 36:0.057755556 37:-0.028155556 38:0.78215556 39:0.20515556 40:-0.028022222 41:0.175 42:-0.21 43:-0.61 44:0.68 45:0.93 46:0.1396 47:0.057755556 48:-0.028155556 49:0.78215556 50:0.20515556 51:-0.028022222 52:0.175 53:-0.21 54:-0.61 55:0.68 56:0.93 
0.10000000000000001 1:1 2:-0.00066666667 3:-0.19488889 4:0.041555556 5:0.3286 6:-0.11795556 7:0.015666667 8:0.116 9:0.1 10:0.31 11:0.34 12:0.68 13:-0.00066666667 14:-0.19488889 15:0.041555556 16:0.65133333 17:-0.13813333 18:0.13157778 19:0.173 20:0.21 21:0.68 22:0.47 23:0.98 24:-0.00066666667 25:-0.19488889 26:0.041555556 27:0.65133333 28:-0.13813333 29:0.13157778 30:0.173 31:0.21 32:0.68 33:0.47 34:0.98 35:-0.00066666667 36:-0.19488889 37:0.041555556 38:0.65133333 39:-0.13813333 40:0.13157778 41:0.173 42:0.21 43:0.68 44:0.47 45:0.98 46:-0.00066666667 47:-0.19488889 48:0.041555556 49:0.65133333 50:-0.13813333 51:0.13157778 52:0.173 53:0.21 54:0.68 55:0.47 56:0.98 
0.10000000000000001 1:1 2:-0.014288889 3:-0.24913333 4:-0.013866667 5:0.19668889 6:-0.30304444 7:0.041177778 8:0.037 9:-0.08 10:-0.22 11:0.16 12:0.09 13:-0.014288889 14:-0.24913333 15:-0.013866667 16:0.36982222 17:-0.27933333 18:0.031177778 19:0.091 20:-0.02 21:-0.06 22:0.33 23:0.41 24:-0.014288889 25:-0.24913333 26:-0.013866667 27:0.47391111 28:-0.34473333 29:0.056288889 30:0.103 31:0.01 32:0.03 33:0.36 34:0.58 35:-0.014288889 36:-0.24913333 37:-0.013866667 38:0.58568889 39:-0.35886667 40:0.093333333 41:0.167 42:0.02 43:0.06 44:0.58 45:0.8 46:-0.014288889 47:-0.24913333 48:-0.013866667 49:0.65782222 50:-0.29095556 51:0.13262222 52:0.16 53:0.08 54:0.23 55:0.53 56:0.8 
0.10000000000000001 1:1 2:0.16384444 3:0.20635556 4:0.074288889 5:0.32826667 6:0.2342 7:0.097444444 8:0.02 9:0.01 10:0.03 11:0.07 12:0.31 13:0.16384444 14:0.20635556 15:0.074288889 16:0.43964444 17:0.35893333 18:0.070444444 19:0.056 20:0.08 21:0.23 22:0.17 23:0.56 24:0.16384444 25:0.20635556 26:0.074288889 27:0.50304444 28:0.31215556 29:0.043844444 30:0.075 31:0.03 32:0.08 33:0.26 34:0.59 35:0.16384444 36:0.20635556 37:0.074288889 38:0.53504444 39:0.22877778 40:0.082555556 41:0.101 42:0.04 43:0.11 44:0.35 45:0.71 46:0.16384444 47:0.20635556 48:0.074288889 49:0.53504444 50:0.22877778 51:0.082555556 52:0.101 53:0.04 54:0.11 55:0.35 56:0.71 
0.10000000000000001 1:2 2:0.0064444444 3:-0.10424444 4:-0.060666667 5:-0.29806667 6:-0.10328889 7:-0.015444444 8:0.016 11:0.05 12:0.19 13:0.0064444444 14:-0.10424444 15:-0.060666667 16:-0.41633333 17:-0.20655556 18:-0.088955556 19:0.071 22:0.22 23:0.5 24:0.0064444444 25:-0.10424444 26:-0.060666667 27:-0.41633333 28:-0.20655556 29:-0.088955556 30:0.071 33:0.22 34:0.5 35:0.0064444444 36:-0.10424444 37:-0.060666667 38:-0.63815556 39:-0.15613333 40:-0.00051111111 41:0.139 42:0.06 43:0.2 44:0.4 45:0.84 46:0.0064444444 47:-0.10424444 48:-0.060666667 49:-0.63815556 50:-0.15613333 51:-0.00051111111 52:0.139 53:0.06 54:0.2 55:0.4 56:0.84 
0.10000000000000001 1:2 2:0.00044444444 3:-0.17977778 4:-0.095422222 5:-0.19437778 6:-0.21388889 7:-0.035533333 8:0.044 9:0.06 10:0.18 11:0.13 12:0.27 13:0.00044444444 14:-0.17977778 15:-0.095422222 16:-0.52675556 17:-0.33782222 18:-0.080266667 19:0.109 20:0.11 21:0.33 22:0.33 23:0.71 24:0.00044444444 25:-0.17977778 26:-0.095422222 27:-0.52675556 28:-0.33782222 29:-0.080266667 30:0.109 31:0.11 32:0.33 33:0.33 34:0.71 35:0.00044444444 36:-0.17977778 37:-0.095422222 38:-0.6058 39:-0.40822222 40:-0.13233333 41:0.134 42:0.07 43:0.21 44:0.43 45:0.88 46:0.00044444444 47:-0.17977778 48:-0.095422222 49:-0.66895556 50:-0.41502222 51:-0.068266667 52:0.113 53:0.07 54:0.21 55:0.36 56:0.74 
0.10000000000000001 1:2 2:0.0043555556 3:0.28728889 4:0.0021555556 5:-0.29455556 6:0.22886667 7:0.063266667 8:0.089 9:0.02 10:0.06 11:0.28 12:0.28 13:0.0043555556 14:0.28728889 15:0.0021555556 16:-0.37648889 17:0.23471111 18:0.077488889 19:0.093 20:0.03 21:0.09 22:0.29 23:0.38 24:0.0043555556 25:0.28728889 26:0.0021555556 27:-0.45324444 28:0.26517778 29:0.041333333 30:0.126 31:-0.02 32:-0.06 33:0.42 34:0.55 35:0.0043555556 36:0.28728889 37:0.0021555556 38:-0.48442222 39:0.15468889 40:0.0035777778 41:0.164 42:0.01 43:0.03 44:0.53 45:0.68 46:0.0043555556 47:0.28728889 48:0.0021555556 49:-0.48442222 50:0.15468889 51:0.0035777778 52:0.164 53:0.01 54:0.03 55:0.53 56:0.68 
0.10000000000000001 1:1 2:0.00051111111 3:-0.12366667 4:0.012444444 5:0.23957778 6:0.022977778 7:-0.016577778 8:0.093 9:0.02 10:0.06 11:0.28 12:0.26 13:0.00051111111 14:-0.12366667 15:0.012444444 16:0.35128889 17:0.036911111 18:-0.052177778 19:0.152 20:0.03 21:0.1 22:0.46 23:0.46 24:0.00051111111 25:-0.12366667 26:0.012444444 27:0.52031111 28:0.082644444 29:-0.019977778 30:0.212 31:0.02 32:0.06 33:0.65 34:0.63 35:0.00051111111 36:-0.12366667 37:0.012444444 38:0.59755556 39:0.074377778 40:-0.058355556 41:0.213 42:-0.01 43:-0.03 44:0.67 45:0.64 46:0.00051111111 47:-0.12366667 48:0.012444444 49:0.60586667 50:0.0095333333 51:-0.054311111 52:0.245 53:0.01 54:0.03 55:0.76 56:0.76 
