digraph Tree {
node [shape=box, style="filled, rounded", color="black", fontname=helvetica] ;
edge [fontname=helvetica] ;
0 [label="TASK_F <= 0.7\ngini = 0.5\nsamples = 4289\nvalue = [169960, 150480]\nclass = 1", fillcolor="#fcf1e8"] ;
1 [label="TASK_N_S <= 0.9\ngini = 0.24\nsamples = 2739\nvalue = [154440, 25560]\nclass = 1", fillcolor="#e9965a"] ;
0 -> 1 [labeldistance=2.5, labelangle=45, headlabel="True"] ;
2 [label="TASK_R <= 91.0\ngini = 0.02\nsamples = 1822\nvalue = [111200, 1380]\nclass = 1", fillcolor="#e5833b"] ;
1 -> 2 ;
3 [label="TASK_E <= 2.5\ngini = 0.02\nsamples = 1813\nvalue = [110800, 1260]\nclass = 1", fillcolor="#e5823b"] ;
2 -> 3 ;
4 [label="TASK_I <= 2.5\ngini = 0.02\nsamples = 1759\nvalue = [107760, 960]\nclass = 1", fillcolor="#e5823b"] ;
3 -> 4 ;
5 [label="TASK_F <= 0.3\ngini = 0.01\nsamples = 1587\nvalue = [96960, 480]\nclass = 1", fillcolor="#e5823a"] ;
4 -> 5 ;
6 [label="TASK_N_S <= 0.3\ngini = 0.01\nsamples = 1483\nvalue = [90240, 300]\nclass = 1", fillcolor="#e5813a"] ;
5 -> 6 ;
7 [label="gini = 0.0\nsamples = 1163\nvalue = [71440, 0]\nclass = 1", fillcolor="#e58139"] ;
6 -> 7 ;
8 [label="TASK_RN <= 0.9\ngini = 0.03\nsamples = 320\nvalue = [18800, 300]\nclass = 1", fillcolor="#e5833c"] ;
6 -> 8 ;
9 [label="TASK_D <= 1.5\ngini = 0.01\nsamples = 201\nvalue = [12160, 60]\nclass = 1", fillcolor="#e5823a"] ;
8 -> 9 ;
10 [label="gini = 0.03\nsamples = 58\nvalue = [3640, 60]\nclass = 1", fillcolor="#e5833c"] ;
9 -> 10 ;
11 [label="gini = 0.0\nsamples = 143\nvalue = [8520, 0]\nclass = 1", fillcolor="#e58139"] ;
9 -> 11 ;
12 [label="TASK_N_L <= 0.3\ngini = 0.07\nsamples = 119\nvalue = [6640, 240]\nclass = 1", fillcolor="#e68640"] ;
8 -> 12 ;
13 [label="gini = 0.03\nsamples = 70\nvalue = [3960, 60]\nclass = 1", fillcolor="#e5833c"] ;
12 -> 13 ;
14 [label="gini = 0.12\nsamples = 49\nvalue = [2680, 180]\nclass = 1", fillcolor="#e78946"] ;
12 -> 14 ;
15 [label="TASK_D <= 1.5\ngini = 0.05\nsamples = 104\nvalue = [6720, 180]\nclass = 1", fillcolor="#e6843e"] ;
5 -> 15 ;
16 [label="TASK_R <= -0.5\ngini = 0.19\nsamples = 26\nvalue = [1520, 180]\nclass = 1", fillcolor="#e89050"] ;
15 -> 16 ;
17 [label="TASK_RN <= 0.9\ngini = 0.44\nsamples = 9\nvalue = [360, 180]\nclass = 1", fillcolor="#f2c09c"] ;
16 -> 17 ;
18 [label="gini = 0.0\nsamples = 2\nvalue = [120, 0]\nclass = 1", fillcolor="#e58139"] ;
17 -> 18 ;
19 [label="gini = 0.49\nsamples = 7\nvalue = [240, 180]\nclass = 1", fillcolor="#f8e0ce"] ;
17 -> 19 ;
20 [label="gini = 0.0\nsamples = 17\nvalue = [1160, 0]\nclass = 1", fillcolor="#e58139"] ;
16 -> 20 ;
21 [label="gini = 0.0\nsamples = 78\nvalue = [5200, 0]\nclass = 1", fillcolor="#e58139"] ;
15 -> 21 ;
22 [label="TASK_N_S <= 0.3\ngini = 0.08\nsamples = 172\nvalue = [10800, 480]\nclass = 1", fillcolor="#e68742"] ;
4 -> 22 ;
23 [label="TASK_R <= -0.5\ngini = 0.01\nsamples = 143\nvalue = [9520, 60]\nclass = 1", fillcolor="#e5823a"] ;
22 -> 23 ;
24 [label="TASK_F <= 0.1\ngini = 0.04\nsamples = 44\nvalue = [3080, 60]\nclass = 1", fillcolor="#e6833d"] ;
23 -> 24 ;
25 [label="gini = 0.0\nsamples = 27\nvalue = [1960, 0]\nclass = 1", fillcolor="#e58139"] ;
24 -> 25 ;
26 [label="TASK_N_L <= 0.1\ngini = 0.1\nsamples = 17\nvalue = [1120, 60]\nclass = 1", fillcolor="#e68844"] ;
24 -> 26 ;
27 [label="gini = 0.11\nsamples = 16\nvalue = [1000, 60]\nclass = 1", fillcolor="#e78945"] ;
26 -> 27 ;
28 [label="gini = 0.0\nsamples = 1\nvalue = [120, 0]\nclass = 1", fillcolor="#e58139"] ;
26 -> 28 ;
29 [label="gini = 0.0\nsamples = 99\nvalue = [6440, 0]\nclass = 1", fillcolor="#e58139"] ;
23 -> 29 ;
30 [label="TASK_E <= 1.5\ngini = 0.37\nsamples = 29\nvalue = [1280, 420]\nclass = 1", fillcolor="#eeaa7a"] ;
22 -> 30 ;
31 [label="gini = 0.0\nsamples = 6\nvalue = [280, 0]\nclass = 1", fillcolor="#e58139"] ;
30 -> 31 ;
32 [label="TASK_R <= 0.0\ngini = 0.42\nsamples = 23\nvalue = [1000, 420]\nclass = 1", fillcolor="#f0b68c"] ;
30 -> 32 ;
33 [label="TASK_M <= 1.5\ngini = 0.5\nsamples = 11\nvalue = [360, 420]\nclass = 3", fillcolor="#e3f1fb"] ;
32 -> 33 ;
34 [label="gini = 0.0\nsamples = 1\nvalue = [40, 0]\nclass = 1", fillcolor="#e58139"] ;
33 -> 34 ;
35 [label="gini = 0.49\nsamples = 10\nvalue = [320, 420]\nclass = 3", fillcolor="#d0e8f9"] ;
33 -> 35 ;
36 [label="gini = 0.0\nsamples = 12\nvalue = [640, 0]\nclass = 1", fillcolor="#e58139"] ;
32 -> 36 ;
37 [label="TASK_M <= 1.5\ngini = 0.16\nsamples = 54\nvalue = [3040, 300]\nclass = 1", fillcolor="#e88d4d"] ;
3 -> 37 ;
38 [label="TASK_F <= 0.2\ngini = 0.49\nsamples = 3\nvalue = [160, 120]\nclass = 1", fillcolor="#f8e0ce"] ;
37 -> 38 ;
39 [label="gini = 0.0\nsamples = 2\nvalue = [160, 0]\nclass = 1", fillcolor="#e58139"] ;
38 -> 39 ;
40 [label="gini = 0.0\nsamples = 1\nvalue = [0, 120]\nclass = 3", fillcolor="#399de5"] ;
38 -> 40 ;
41 [label="TASK_F <= 0.3\ngini = 0.11\nsamples = 51\nvalue = [2880, 180]\nclass = 1", fillcolor="#e78945"] ;
37 -> 41 ;
42 [label="TASK_R <= 0.5\ngini = 0.08\nsamples = 47\nvalue = [2680, 120]\nclass = 1", fillcolor="#e68742"] ;
41 -> 42 ;
43 [label="TASK_N_S <= 0.5\ngini = 0.17\nsamples = 20\nvalue = [1120, 120]\nclass = 1", fillcolor="#e88e4e"] ;
42 -> 43 ;
44 [label="TASK_R <= -0.5\ngini = 0.11\nsamples = 16\nvalue = [920, 60]\nclass = 1", fillcolor="#e78946"] ;
43 -> 44 ;
45 [label="gini = 0.0\nsamples = 9\nvalue = [480, 0]\nclass = 1", fillcolor="#e58139"] ;
44 -> 45 ;
46 [label="gini = 0.21\nsamples = 7\nvalue = [440, 60]\nclass = 1", fillcolor="#e99254"] ;
44 -> 46 ;
47 [label="TASK_N_L <= 0.1\ngini = 0.36\nsamples = 4\nvalue = [200, 60]\nclass = 1", fillcolor="#eda774"] ;
43 -> 47 ;
48 [label="gini = 0.0\nsamples = 3\nvalue = [200, 0]\nclass = 1", fillcolor="#e58139"] ;
47 -> 48 ;
49 [label="gini = 0.0\nsamples = 1\nvalue = [0, 60]\nclass = 3", fillcolor="#399de5"] ;
47 -> 49 ;
50 [label="gini = 0.0\nsamples = 27\nvalue = [1560, 0]\nclass = 1", fillcolor="#e58139"] ;
42 -> 50 ;
51 [label="TASK_I <= 2.5\ngini = 0.36\nsamples = 4\nvalue = [200, 60]\nclass = 1", fillcolor="#eda774"] ;
41 -> 51 ;
52 [label="gini = 0.0\nsamples = 3\nvalue = [200, 0]\nclass = 1", fillcolor="#e58139"] ;
51 -> 52 ;
53 [label="gini = 0.0\nsamples = 1\nvalue = [0, 60]\nclass = 3", fillcolor="#399de5"] ;
51 -> 53 ;
54 [label="TASK_I <= 2.5\ngini = 0.36\nsamples = 9\nvalue = [400, 120]\nclass = 1", fillcolor="#eda774"] ;
2 -> 54 ;
55 [label="TASK_N_S <= 0.5\ngini = 0.42\nsamples = 7\nvalue = [280, 120]\nclass = 1", fillcolor="#f0b78e"] ;
54 -> 55 ;
56 [label="gini = 0.0\nsamples = 6\nvalue = [280, 0]\nclass = 1", fillcolor="#e58139"] ;
55 -> 56 ;
57 [label="gini = 0.0\nsamples = 1\nvalue = [0, 120]\nclass = 3", fillcolor="#399de5"] ;
55 -> 57 ;
58 [label="gini = 0.0\nsamples = 2\nvalue = [120, 0]\nclass = 1", fillcolor="#e58139"] ;
54 -> 58 ;
59 [label="TASK_RN <= 0.7\ngini = 0.46\nsamples = 917\nvalue = [43240, 24180]\nclass = 1", fillcolor="#f4c7a8"] ;
1 -> 59 ;
60 [label="TASK_F <= 0.1\ngini = 0.19\nsamples = 285\nvalue = [16920, 1980]\nclass = 1", fillcolor="#e89050"] ;
59 -> 60 ;
61 [label="TASK_R <= -0.5\ngini = 0.06\nsamples = 152\nvalue = [9840, 300]\nclass = 1", fillcolor="#e6853f"] ;
60 -> 61 ;
62 [label="TASK_I <= 1.5\ngini = 0.11\nsamples = 59\nvalue = [4040, 240]\nclass = 1", fillcolor="#e78845"] ;
61 -> 62 ;
63 [label="TASK_D <= 1.5\ngini = 0.29\nsamples = 11\nvalue = [560, 120]\nclass = 1", fillcolor="#eb9c63"] ;
62 -> 63 ;
64 [label="gini = 0.0\nsamples = 2\nvalue = [120, 0]\nclass = 1", fillcolor="#e58139"] ;
63 -> 64 ;
65 [label="TASK_N_L <= 0.9\ngini = 0.34\nsamples = 9\nvalue = [440, 120]\nclass = 1", fillcolor="#eca36f"] ;
63 -> 65 ;
66 [label="gini = 0.0\nsamples = 4\nvalue = [200, 0]\nclass = 1", fillcolor="#e58139"] ;
65 -> 66 ;
67 [label="TASK_RN <= 0.3\ngini = 0.44\nsamples = 5\nvalue = [240, 120]\nclass = 1", fillcolor="#f2c09c"] ;
65 -> 67 ;
68 [label="gini = 0.0\nsamples = 1\nvalue = [120, 0]\nclass = 1", fillcolor="#e58139"] ;
67 -> 68 ;
69 [label="gini = 0.5\nsamples = 4\nvalue = [120, 120]\nclass = 1", fillcolor="#ffffff"] ;
67 -> 69 ;
70 [label="TASK_RN <= 0.5\ngini = 0.06\nsamples = 48\nvalue = [3480, 120]\nclass = 1", fillcolor="#e68540"] ;
62 -> 70 ;
71 [label="gini = 0.0\nsamples = 23\nvalue = [1880, 0]\nclass = 1", fillcolor="#e58139"] ;
70 -> 71 ;
72 [label="TASK_D <= 1.5\ngini = 0.13\nsamples = 25\nvalue = [1600, 120]\nclass = 1", fillcolor="#e78a48"] ;
70 -> 72 ;
73 [label="gini = 0.0\nsamples = 7\nvalue = [440, 0]\nclass = 1", fillcolor="#e58139"] ;
72 -> 73 ;
74 [label="TASK_E <= 1.5\ngini = 0.17\nsamples = 18\nvalue = [1160, 120]\nclass = 1", fillcolor="#e88e4d"] ;
72 -> 74 ;
75 [label="gini = 0.0\nsamples = 3\nvalue = [360, 0]\nclass = 1", fillcolor="#e58139"] ;
74 -> 75 ;
76 [label="gini = 0.23\nsamples = 15\nvalue = [800, 120]\nclass = 1", fillcolor="#e99457"] ;
74 -> 76 ;
77 [label="TASK_N_L <= 0.1\ngini = 0.02\nsamples = 93\nvalue = [5800, 60]\nclass = 1", fillcolor="#e5823b"] ;
61 -> 77 ;
78 [label="TASK_D <= 1.5\ngini = 0.08\nsamples = 24\nvalue = [1320, 60]\nclass = 1", fillcolor="#e68742"] ;
77 -> 78 ;
79 [label="gini = 0.0\nsamples = 7\nvalue = [560, 0]\nclass = 1", fillcolor="#e58139"] ;
78 -> 79 ;
80 [label="TASK_M <= 1.5\ngini = 0.14\nsamples = 17\nvalue = [760, 60]\nclass = 1", fillcolor="#e78b49"] ;
78 -> 80 ;
81 [label="gini = 0.0\nsamples = 1\nvalue = [80, 0]\nclass = 1", fillcolor="#e58139"] ;
80 -> 81 ;
82 [label="TASK_R <= 0.5\ngini = 0.15\nsamples = 16\nvalue = [680, 60]\nclass = 1", fillcolor="#e78c4a"] ;
80 -> 82 ;
83 [label="gini = 0.4\nsamples = 5\nvalue = [160, 60]\nclass = 1", fillcolor="#efb083"] ;
82 -> 83 ;
84 [label="gini = 0.0\nsamples = 11\nvalue = [520, 0]\nclass = 1", fillcolor="#e58139"] ;
82 -> 84 ;
85 [label="gini = 0.0\nsamples = 69\nvalue = [4480, 0]\nclass = 1", fillcolor="#e58139"] ;
77 -> 85 ;
86 [label="TASK_R <= 3.5\ngini = 0.31\nsamples = 133\nvalue = [7080, 1680]\nclass = 1", fillcolor="#eb9f68"] ;
60 -> 86 ;
87 [label="TASK_E <= 2.5\ngini = 0.39\nsamples = 93\nvalue = [4600, 1620]\nclass = 1", fillcolor="#eead7f"] ;
86 -> 87 ;
88 [label="TASK_I <= 1.5\ngini = 0.32\nsamples = 87\nvalue = [4600, 1140]\nclass = 1", fillcolor="#eba06a"] ;
87 -> 88 ;
89 [label="TASK_N_L <= 0.9\ngini = 0.08\nsamples = 25\nvalue = [1360, 60]\nclass = 1", fillcolor="#e68742"] ;
88 -> 89 ;
90 [label="gini = 0.0\nsamples = 8\nvalue = [440, 0]\nclass = 1", fillcolor="#e58139"] ;
89 -> 90 ;
91 [label="TASK_R <= -0.5\ngini = 0.11\nsamples = 17\nvalue = [920, 60]\nclass = 1", fillcolor="#e78946"] ;
89 -> 91 ;
92 [label="gini = 0.36\nsamples = 5\nvalue = [200, 60]\nclass = 1", fillcolor="#eda774"] ;
91 -> 92 ;
93 [label="gini = 0.0\nsamples = 12\nvalue = [720, 0]\nclass = 1", fillcolor="#e58139"] ;
91 -> 93 ;
94 [label="TASK_F <= 0.3\ngini = 0.38\nsamples = 62\nvalue = [3240, 1080]\nclass = 1", fillcolor="#eeab7b"] ;
88 -> 94 ;
95 [label="TASK_N_L <= 0.5\ngini = 0.3\nsamples = 48\nvalue = [2640, 600]\nclass = 1", fillcolor="#eb9e66"] ;
94 -> 95 ;
96 [label="gini = 0.0\nsamples = 10\nvalue = [560, 0]\nclass = 1", fillcolor="#e58139"] ;
95 -> 96 ;
97 [label="gini = 0.35\nsamples = 38\nvalue = [2080, 600]\nclass = 1", fillcolor="#eca572"] ;
95 -> 97 ;
98 [label="TASK_D <= 2.5\ngini = 0.49\nsamples = 14\nvalue = [600, 480]\nclass = 1", fillcolor="#fae6d7"] ;
94 -> 98 ;
99 [label="gini = 0.5\nsamples = 13\nvalue = [560, 480]\nclass = 1", fillcolor="#fbede3"] ;
98 -> 99 ;
100 [label="gini = 0.0\nsamples = 1\nvalue = [40, 0]\nclass = 1", fillcolor="#e58139"] ;
98 -> 100 ;
101 [label="gini = 0.0\nsamples = 6\nvalue = [0, 480]\nclass = 3", fillcolor="#399de5"] ;
87 -> 101 ;
102 [label="TASK_E <= 2.5\ngini = 0.05\nsamples = 40\nvalue = [2480, 60]\nclass = 1", fillcolor="#e6843e"] ;
86 -> 102 ;
103 [label="gini = 0.0\nsamples = 35\nvalue = [2200, 0]\nclass = 1", fillcolor="#e58139"] ;
102 -> 103 ;
104 [label="TASK_R <= 18.0\ngini = 0.29\nsamples = 5\nvalue = [280, 60]\nclass = 1", fillcolor="#eb9c63"] ;
102 -> 104 ;
105 [label="TASK_R <= 11.5\ngini = 0.44\nsamples = 3\nvalue = [120, 60]\nclass = 1", fillcolor="#f2c09c"] ;
104 -> 105 ;
106 [label="gini = 0.0\nsamples = 2\nvalue = [120, 0]\nclass = 1", fillcolor="#e58139"] ;
105 -> 106 ;
107 [label="gini = 0.0\nsamples = 1\nvalue = [0, 60]\nclass = 3", fillcolor="#399de5"] ;
105 -> 107 ;
108 [label="gini = 0.0\nsamples = 2\nvalue = [160, 0]\nclass = 1", fillcolor="#e58139"] ;
104 -> 108 ;
109 [label="TASK_E <= 2.5\ngini = 0.5\nsamples = 632\nvalue = [26320, 22200]\nclass = 1", fillcolor="#fbebe0"] ;
59 -> 109 ;
110 [label="TASK_N_L <= 0.9\ngini = 0.46\nsamples = 533\nvalue = [25080, 14460]\nclass = 1", fillcolor="#f4caab"] ;
109 -> 110 ;
111 [label="TASK_E <= 1.5\ngini = 0.32\nsamples = 310\nvalue = [17080, 4320]\nclass = 1", fillcolor="#eca16b"] ;
110 -> 111 ;
112 [label="TASK_R <= -0.5\ngini = 0.07\nsamples = 74\nvalue = [4760, 180]\nclass = 1", fillcolor="#e68640"] ;
111 -> 112 ;
113 [label="TASK_RN <= 0.9\ngini = 0.31\nsamples = 12\nvalue = [760, 180]\nclass = 1", fillcolor="#eb9f68"] ;
112 -> 113 ;
114 [label="TASK_N_L <= 0.3\ngini = 0.49\nsamples = 3\nvalue = [240, 180]\nclass = 1", fillcolor="#f8e0ce"] ;
113 -> 114 ;
115 [label="gini = 0.0\nsamples = 1\nvalue = [80, 0]\nclass = 1", fillcolor="#e58139"] ;
114 -> 115 ;
116 [label="gini = 0.5\nsamples = 2\nvalue = [160, 180]\nclass = 3", fillcolor="#e9f4fc"] ;
114 -> 116 ;
117 [label="gini = 0.0\nsamples = 9\nvalue = [520, 0]\nclass = 1", fillcolor="#e58139"] ;
113 -> 117 ;
118 [label="gini = 0.0\nsamples = 62\nvalue = [4000, 0]\nclass = 1", fillcolor="#e58139"] ;
112 -> 118 ;
119 [label="TASK_F <= 0.1\ngini = 0.38\nsamples = 236\nvalue = [12320, 4140]\nclass = 1", fillcolor="#eeab7c"] ;
111 -> 119 ;
120 [label="TASK_R <= -0.5\ngini = 0.18\nsamples = 122\nvalue = [7320, 840]\nclass = 1", fillcolor="#e88f50"] ;
119 -> 120 ;
121 [label="TASK_D <= 1.5\ngini = 0.22\nsamples = 74\nvalue = [4560, 660]\nclass = 1", fillcolor="#e99356"] ;
120 -> 121 ;
122 [label="gini = 0.0\nsamples = 19\nvalue = [1240, 0]\nclass = 1", fillcolor="#e58139"] ;
121 -> 122 ;
123 [label="gini = 0.28\nsamples = 55\nvalue = [3320, 660]\nclass = 1", fillcolor="#ea9a60"] ;
121 -> 123 ;
124 [label="TASK_I <= 1.5\ngini = 0.11\nsamples = 48\nvalue = [2760, 180]\nclass = 1", fillcolor="#e78946"] ;
120 -> 124 ;
125 [label="gini = 0.0\nsamples = 11\nvalue = [640, 0]\nclass = 1", fillcolor="#e58139"] ;
124 -> 125 ;
126 [label="gini = 0.14\nsamples = 37\nvalue = [2120, 180]\nclass = 1", fillcolor="#e78c4a"] ;
124 -> 126 ;
127 [label="TASK_M <= 1.5\ngini = 0.48\nsamples = 114\nvalue = [5000, 3300]\nclass = 1", fillcolor="#f6d4bc"] ;
119 -> 127 ;
128 [label="gini = 0.0\nsamples = 4\nvalue = [320, 0]\nclass = 1", fillcolor="#e58139"] ;
127 -> 128 ;
129 [label="TASK_R <= 5.5\ngini = 0.49\nsamples = 110\nvalue = [4680, 3300]\nclass = 1", fillcolor="#f7dac5"] ;
127 -> 129 ;
130 [label="gini = 0.5\nsamples = 94\nvalue = [3760, 3240]\nclass = 1", fillcolor="#fbeee4"] ;
129 -> 130 ;
131 [label="gini = 0.11\nsamples = 16\nvalue = [920, 60]\nclass = 1", fillcolor="#e78946"] ;
129 -> 131 ;
132 [label="TASK_D <= 1.5\ngini = 0.49\nsamples = 223\nvalue = [8000, 10140]\nclass = 3", fillcolor="#d5eafa"] ;
110 -> 132 ;
133 [label="TASK_F <= 0.1\ngini = 0.1\nsamples = 33\nvalue = [2080, 120]\nclass = 1", fillcolor="#e68844"] ;
132 -> 133 ;
134 [label="gini = 0.0\nsamples = 22\nvalue = [1480, 0]\nclass = 1", fillcolor="#e58139"] ;
133 -> 134 ;
135 [label="TASK_R <= -0.5\ngini = 0.28\nsamples = 11\nvalue = [600, 120]\nclass = 1", fillcolor="#ea9a61"] ;
133 -> 135 ;
136 [label="TASK_F <= 0.3\ngini = 0.4\nsamples = 6\nvalue = [320, 120]\nclass = 1", fillcolor="#efb083"] ;
135 -> 136 ;
137 [label="gini = 0.44\nsamples = 4\nvalue = [240, 120]\nclass = 1", fillcolor="#f2c09c"] ;
136 -> 137 ;
138 [label="gini = 0.0\nsamples = 2\nvalue = [80, 0]\nclass = 1", fillcolor="#e58139"] ;
136 -> 138 ;
139 [label="gini = 0.0\nsamples = 5\nvalue = [280, 0]\nclass = 1", fillcolor="#e58139"] ;
135 -> 139 ;
140 [label="TASK_R <= -0.5\ngini = 0.47\nsamples = 190\nvalue = [5920, 10020]\nclass = 3", fillcolor="#aed7f4"] ;
132 -> 140 ;
141 [label="TASK_D <= 2.5\ngini = 0.41\nsamples = 108\nvalue = [2560, 6420]\nclass = 3", fillcolor="#88c4ef"] ;
140 -> 141 ;
142 [label="TASK_F <= 0.3\ngini = 0.43\nsamples = 100\nvalue = [2560, 5520]\nclass = 3", fillcolor="#95caf1"] ;
141 -> 142 ;
143 [label="gini = 0.44\nsamples = 84\nvalue = [2200, 4500]\nclass = 3", fillcolor="#9acdf2"] ;
142 -> 143 ;
144 [label="gini = 0.39\nsamples = 16\nvalue = [360, 1020]\nclass = 3", fillcolor="#7fc0ee"] ;
142 -> 144 ;
145 [label="gini = 0.0\nsamples = 8\nvalue = [0, 900]\nclass = 3", fillcolor="#399de5"] ;
141 -> 145 ;
146 [label="TASK_I <= 2.5\ngini = 0.5\nsamples = 82\nvalue = [3360, 3600]\nclass = 3", fillcolor="#f2f8fd"] ;
140 -> 146 ;
147 [label="TASK_F <= 0.1\ngini = 0.5\nsamples = 65\nvalue = [2880, 2520]\nclass = 1", fillcolor="#fcefe6"] ;
146 -> 147 ;
148 [label="gini = 0.5\nsamples = 23\nvalue = [920, 1080]\nclass = 3", fillcolor="#e2f0fb"] ;
147 -> 148 ;
149 [label="gini = 0.49\nsamples = 42\nvalue = [1960, 1440]\nclass = 1", fillcolor="#f8deca"] ;
147 -> 149 ;
150 [label="TASK_R <= 4.0\ngini = 0.43\nsamples = 17\nvalue = [480, 1080]\nclass = 3", fillcolor="#91c9f1"] ;
146 -> 150 ;
151 [label="gini = 0.15\nsamples = 11\nvalue = [80, 900]\nclass = 3", fillcolor="#4ba6e7"] ;
150 -> 151 ;
152 [label="gini = 0.43\nsamples = 6\nvalue = [400, 180]\nclass = 1", fillcolor="#f1ba92"] ;
150 -> 152 ;
153 [label="TASK_RN <= 0.9\ngini = 0.24\nsamples = 99\nvalue = [1240, 7740]\nclass = 3", fillcolor="#59ade9"] ;
109 -> 153 ;
154 [label="TASK_M <= 1.5\ngini = 0.19\nsamples = 33\nvalue = [360, 3000]\nclass = 3", fillcolor="#51a9e8"] ;
153 -> 154 ;
155 [label="gini = 0.0\nsamples = 1\nvalue = [0, 60]\nclass = 3", fillcolor="#399de5"] ;
154 -> 155 ;
156 [label="TASK_N_L <= 0.1\ngini = 0.19\nsamples = 32\nvalue = [360, 2940]\nclass = 3", fillcolor="#51a9e8"] ;
154 -> 156 ;
157 [label="gini = 0.0\nsamples = 1\nvalue = [80, 0]\nclass = 1", fillcolor="#e58139"] ;
156 -> 157 ;
158 [label="TASK_R <= 18.0\ngini = 0.16\nsamples = 31\nvalue = [280, 2940]\nclass = 3", fillcolor="#4ca6e7"] ;
156 -> 158 ;
159 [label="TASK_F <= 0.1\ngini = 0.1\nsamples = 29\nvalue = [160, 2940]\nclass = 3", fillcolor="#44a2e6"] ;
158 -> 159 ;
160 [label="gini = 0.33\nsamples = 8\nvalue = [160, 600]\nclass = 3", fillcolor="#6eb7ec"] ;
159 -> 160 ;
161 [label="gini = 0.0\nsamples = 21\nvalue = [0, 2340]\nclass = 3", fillcolor="#399de5"] ;
159 -> 161 ;
162 [label="gini = 0.0\nsamples = 2\nvalue = [120, 0]\nclass = 1", fillcolor="#e58139"] ;
158 -> 162 ;
163 [label="TASK_F <= 0.3\ngini = 0.26\nsamples = 66\nvalue = [880, 4740]\nclass = 3", fillcolor="#5eafea"] ;
153 -> 163 ;
164 [label="TASK_R <= 1.5\ngini = 0.33\nsamples = 53\nvalue = [880, 3360]\nclass = 3", fillcolor="#6db7ec"] ;
163 -> 164 ;
165 [label="TASK_R <= 0.5\ngini = 0.22\nsamples = 40\nvalue = [400, 2700]\nclass = 3", fillcolor="#56ace9"] ;
164 -> 165 ;
166 [label="TASK_I <= 1.5\ngini = 0.24\nsamples = 37\nvalue = [400, 2400]\nclass = 3", fillcolor="#5aade9"] ;
165 -> 166 ;
167 [label="gini = 0.0\nsamples = 4\nvalue = [0, 300]\nclass = 3", fillcolor="#399de5"] ;
166 -> 167 ;
168 [label="gini = 0.27\nsamples = 33\nvalue = [400, 2100]\nclass = 3", fillcolor="#5fb0ea"] ;
166 -> 168 ;
169 [label="gini = 0.0\nsamples = 3\nvalue = [0, 300]\nclass = 3", fillcolor="#399de5"] ;
165 -> 169 ;
170 [label="TASK_D <= 1.5\ngini = 0.49\nsamples = 13\nvalue = [480, 660]\nclass = 3", fillcolor="#c9e4f8"] ;
164 -> 170 ;
171 [label="gini = 0.0\nsamples = 3\nvalue = [200, 0]\nclass = 1", fillcolor="#e58139"] ;
170 -> 171 ;
172 [label="TASK_N_L <= 0.5\ngini = 0.42\nsamples = 10\nvalue = [280, 660]\nclass = 3", fillcolor="#8dc7f0"] ;
170 -> 172 ;
173 [label="gini = 0.0\nsamples = 1\nvalue = [80, 0]\nclass = 1", fillcolor="#e58139"] ;
172 -> 173 ;
174 [label="gini = 0.36\nsamples = 9\nvalue = [200, 660]\nclass = 3", fillcolor="#75bbed"] ;
172 -> 174 ;
175 [label="gini = 0.0\nsamples = 13\nvalue = [0, 1380]\nclass = 3", fillcolor="#399de5"] ;
163 -> 175 ;
176 [label="TASK_R <= 9.0\ngini = 0.2\nsamples = 1550\nvalue = [15520, 124920]\nclass = 3", fillcolor="#52a9e8"] ;
0 -> 176 [labeldistance=2.5, labelangle=-45, headlabel="False"] ;
177 [label="TASK_E <= 1.5\ngini = 0.18\nsamples = 1497\nvalue = [13400, 123240]\nclass = 3", fillcolor="#4fa8e8"] ;
176 -> 177 ;
178 [label="TASK_N_S <= 0.5\ngini = 0.5\nsamples = 137\nvalue = [5880, 4980]\nclass = 1", fillcolor="#fbece1"] ;
177 -> 178 ;
179 [label="gini = 0.0\nsamples = 38\nvalue = [2440, 0]\nclass = 1", fillcolor="#e58139"] ;
178 -> 179 ;
180 [label="TASK_RN <= 0.7\ngini = 0.48\nsamples = 99\nvalue = [3440, 4980]\nclass = 3", fillcolor="#c2e1f7"] ;
178 -> 180 ;
181 [label="TASK_R <= 0.5\ngini = 0.38\nsamples = 22\nvalue = [1240, 420]\nclass = 1", fillcolor="#eeac7c"] ;
180 -> 181 ;
182 [label="TASK_I <= 1.5\ngini = 0.21\nsamples = 14\nvalue = [880, 120]\nclass = 1", fillcolor="#e99254"] ;
181 -> 182 ;
183 [label="gini = 0.0\nsamples = 4\nvalue = [280, 0]\nclass = 1", fillcolor="#e58139"] ;
182 -> 183 ;
184 [label="TASK_N_S <= 0.9\ngini = 0.28\nsamples = 10\nvalue = [600, 120]\nclass = 1", fillcolor="#ea9a61"] ;
182 -> 184 ;
185 [label="TASK_N_L <= 0.2\ngini = 0.48\nsamples = 2\nvalue = [40, 60]\nclass = 3", fillcolor="#bddef6"] ;
184 -> 185 ;
186 [label="gini = 0.0\nsamples = 1\nvalue = [40, 0]\nclass = 1", fillcolor="#e58139"] ;
185 -> 186 ;
187 [label="gini = 0.0\nsamples = 1\nvalue = [0, 60]\nclass = 3", fillcolor="#399de5"] ;
185 -> 187 ;
188 [label="TASK_R <= -0.5\ngini = 0.17\nsamples = 8\nvalue = [560, 60]\nclass = 1", fillcolor="#e88e4e"] ;
184 -> 188 ;
189 [label="gini = 0.0\nsamples = 4\nvalue = [320, 0]\nclass = 1", fillcolor="#e58139"] ;
188 -> 189 ;
190 [label="gini = 0.32\nsamples = 4\nvalue = [240, 60]\nclass = 1", fillcolor="#eca06a"] ;
188 -> 190 ;
191 [label="TASK_R <= 2.0\ngini = 0.5\nsamples = 8\nvalue = [360, 300]\nclass = 1", fillcolor="#fbeade"] ;
181 -> 191 ;
192 [label="TASK_N_L <= 0.9\ngini = 0.24\nsamples = 2\nvalue = [40, 240]\nclass = 3", fillcolor="#5aade9"] ;
191 -> 192 ;
193 [label="gini = 0.0\nsamples = 1\nvalue = [40, 0]\nclass = 1", fillcolor="#e58139"] ;
192 -> 193 ;
194 [label="gini = 0.0\nsamples = 1\nvalue = [0, 240]\nclass = 3", fillcolor="#399de5"] ;
192 -> 194 ;
195 [label="TASK_I <= 1.5\ngini = 0.27\nsamples = 6\nvalue = [320, 60]\nclass = 1", fillcolor="#ea995e"] ;
191 -> 195 ;
196 [label="gini = 0.0\nsamples = 3\nvalue = [200, 0]\nclass = 1", fillcolor="#e58139"] ;
195 -> 196 ;
197 [label="TASK_D <= 1.5\ngini = 0.44\nsamples = 3\nvalue = [120, 60]\nclass = 1", fillcolor="#f2c09c"] ;
195 -> 197 ;
198 [label="gini = 0.0\nsamples = 1\nvalue = [40, 0]\nclass = 1", fillcolor="#e58139"] ;
197 -> 198 ;
199 [label="gini = 0.49\nsamples = 2\nvalue = [80, 60]\nclass = 1", fillcolor="#f8e0ce"] ;
197 -> 199 ;
200 [label="TASK_I <= 1.5\ngini = 0.44\nsamples = 77\nvalue = [2200, 4560]\nclass = 3", fillcolor="#99ccf2"] ;
180 -> 200 ;
201 [label="TASK_N_S <= 0.7\ngini = 0.48\nsamples = 22\nvalue = [880, 600]\nclass = 1", fillcolor="#f7d7c0"] ;
200 -> 201 ;
202 [label="gini = 0.0\nsamples = 1\nvalue = [0, 120]\nclass = 3", fillcolor="#399de5"] ;
201 -> 202 ;
203 [label="TASK_N_L <= 0.2\ngini = 0.46\nsamples = 21\nvalue = [880, 480]\nclass = 1", fillcolor="#f3c6a5"] ;
201 -> 203 ;
204 [label="TASK_N_S <= 0.9\ngini = 0.48\nsamples = 3\nvalue = [80, 120]\nclass = 3", fillcolor="#bddef6"] ;
203 -> 204 ;
205 [label="gini = 0.0\nsamples = 1\nvalue = [40, 0]\nclass = 1", fillcolor="#e58139"] ;
204 -> 205 ;
206 [label="gini = 0.38\nsamples = 2\nvalue = [40, 120]\nclass = 3", fillcolor="#7bbeee"] ;
204 -> 206 ;
207 [label="TASK_F <= 0.9\ngini = 0.43\nsamples = 18\nvalue = [800, 360]\nclass = 1", fillcolor="#f1ba92"] ;
203 -> 207 ;
208 [label="gini = 0.0\nsamples = 1\nvalue = [80, 0]\nclass = 1", fillcolor="#e58139"] ;
207 -> 208 ;
209 [label="gini = 0.44\nsamples = 17\nvalue = [720, 360]\nclass = 1", fillcolor="#f2c09c"] ;
207 -> 209 ;
210 [label="TASK_N_L <= 0.5\ngini = 0.38\nsamples = 55\nvalue = [1320, 3960]\nclass = 3", fillcolor="#7bbeee"] ;
200 -> 210 ;
211 [label="TASK_N_L <= 0.3\ngini = 0.5\nsamples = 14\nvalue = [560, 600]\nclass = 3", fillcolor="#f2f8fd"] ;
210 -> 211 ;
212 [label="TASK_RN <= 0.9\ngini = 0.5\nsamples = 10\nvalue = [400, 480]\nclass = 3", fillcolor="#deeffb"] ;
211 -> 212 ;
213 [label="gini = 0.38\nsamples = 3\nvalue = [80, 240]\nclass = 3", fillcolor="#7bbeee"] ;
212 -> 213 ;
214 [label="gini = 0.49\nsamples = 7\nvalue = [320, 240]\nclass = 1", fillcolor="#f8e0ce"] ;
212 -> 214 ;
215 [label="TASK_RN <= 0.9\ngini = 0.49\nsamples = 4\nvalue = [160, 120]\nclass = 1", fillcolor="#f8e0ce"] ;
211 -> 215 ;
216 [label="gini = 0.0\nsamples = 1\nvalue = [0, 60]\nclass = 3", fillcolor="#399de5"] ;
215 -> 216 ;
217 [label="gini = 0.4\nsamples = 3\nvalue = [160, 60]\nclass = 1", fillcolor="#efb083"] ;
215 -> 217 ;
218 [label="TASK_D <= 1.5\ngini = 0.3\nsamples = 41\nvalue = [760, 3360]\nclass = 3", fillcolor="#66b3eb"] ;
210 -> 218 ;
219 [label="TASK_R <= 0.5\ngini = 0.49\nsamples = 2\nvalue = [80, 60]\nclass = 1", fillcolor="#f8e0ce"] ;
218 -> 219 ;
220 [label="gini = 0.0\nsamples = 1\nvalue = [0, 60]\nclass = 3", fillcolor="#399de5"] ;
219 -> 220 ;
221 [label="gini = 0.0\nsamples = 1\nvalue = [80, 0]\nclass = 1", fillcolor="#e58139"] ;
219 -> 221 ;
222 [label="TASK_M <= 1.5\ngini = 0.28\nsamples = 39\nvalue = [680, 3300]\nclass = 3", fillcolor="#62b1ea"] ;
218 -> 222 ;
223 [label="gini = 0.0\nsamples = 1\nvalue = [40, 0]\nclass = 1", fillcolor="#e58139"] ;
222 -> 223 ;
224 [label="gini = 0.27\nsamples = 38\nvalue = [640, 3300]\nclass = 3", fillcolor="#5fb0ea"] ;
222 -> 224 ;
225 [label="TASK_N_L <= 0.5\ngini = 0.11\nsamples = 1360\nvalue = [7520, 118260]\nclass = 3", fillcolor="#46a3e7"] ;
177 -> 225 ;
226 [label="TASK_I <= 2.5\ngini = 0.23\nsamples = 425\nvalue = [4920, 32880]\nclass = 3", fillcolor="#57ace9"] ;
225 -> 226 ;
227 [label="TASK_E <= 2.5\ngini = 0.26\nsamples = 314\nvalue = [4360, 23460]\nclass = 3", fillcolor="#5eafea"] ;
226 -> 227 ;
228 [label="TASK_I <= 1.5\ngini = 0.42\nsamples = 160\nvalue = [4120, 9540]\nclass = 3", fillcolor="#8fc7f0"] ;
227 -> 228 ;
229 [label="TASK_N_S <= 0.1\ngini = 0.49\nsamples = 28\nvalue = [840, 1140]\nclass = 3", fillcolor="#cbe5f8"] ;
228 -> 229 ;
230 [label="TASK_R <= -0.5\ngini = 0.23\nsamples = 7\nvalue = [400, 60]\nclass = 1", fillcolor="#e99457"] ;
229 -> 230 ;
231 [label="gini = 0.27\nsamples = 5\nvalue = [320, 60]\nclass = 1", fillcolor="#ea995e"] ;
230 -> 231 ;
232 [label="gini = 0.0\nsamples = 2\nvalue = [80, 0]\nclass = 1", fillcolor="#e58139"] ;
230 -> 232 ;
233 [label="TASK_N_L <= 0.1\ngini = 0.41\nsamples = 21\nvalue = [440, 1080]\nclass = 3", fillcolor="#8ac5f0"] ;
229 -> 233 ;
234 [label="gini = 0.08\nsamples = 11\nvalue = [40, 900]\nclass = 3", fillcolor="#42a1e6"] ;
233 -> 234 ;
235 [label="gini = 0.43\nsamples = 10\nvalue = [400, 180]\nclass = 1", fillcolor="#f1ba92"] ;
233 -> 235 ;
236 [label="TASK_N_S <= 0.3\ngini = 0.4\nsamples = 132\nvalue = [3280, 8400]\nclass = 3", fillcolor="#86c3ef"] ;
228 -> 236 ;
237 [label="TASK_RN <= 0.5\ngini = 0.5\nsamples = 45\nvalue = [1840, 1560]\nclass = 1", fillcolor="#fbece1"] ;
236 -> 237 ;
238 [label="gini = 0.0\nsamples = 6\nvalue = [360, 0]\nclass = 1", fillcolor="#e58139"] ;
237 -> 238 ;
239 [label="gini = 0.5\nsamples = 39\nvalue = [1480, 1560]\nclass = 3", fillcolor="#f5fafe"] ;
237 -> 239 ;
240 [label="TASK_R <= 2.5\ngini = 0.29\nsamples = 87\nvalue = [1440, 6840]\nclass = 3", fillcolor="#63b2ea"] ;
236 -> 240 ;
241 [label="gini = 0.32\nsamples = 77\nvalue = [1440, 5820]\nclass = 3", fillcolor="#6ab5eb"] ;
240 -> 241 ;
242 [label="gini = 0.0\nsamples = 10\nvalue = [0, 1020]\nclass = 3", fillcolor="#399de5"] ;
240 -> 242 ;
243 [label="TASK_D <= 1.5\ngini = 0.03\nsamples = 154\nvalue = [240, 13920]\nclass = 3", fillcolor="#3c9fe5"] ;
227 -> 243 ;
244 [label="gini = 0.0\nsamples = 2\nvalue = [120, 0]\nclass = 1", fillcolor="#e58139"] ;
243 -> 244 ;
245 [label="TASK_RN <= 0.9\ngini = 0.02\nsamples = 152\nvalue = [120, 13920]\nclass = 3", fillcolor="#3b9ee5"] ;
243 -> 245 ;
246 [label="gini = 0.0\nsamples = 44\nvalue = [0, 4200]\nclass = 3", fillcolor="#399de5"] ;
245 -> 246 ;
247 [label="TASK_F <= 0.9\ngini = 0.02\nsamples = 108\nvalue = [120, 9720]\nclass = 3", fillcolor="#3b9ee5"] ;
245 -> 247 ;
248 [label="gini = 0.0\nsamples = 2\nvalue = [0, 240]\nclass = 3", fillcolor="#399de5"] ;
247 -> 248 ;
249 [label="gini = 0.02\nsamples = 106\nvalue = [120, 9480]\nclass = 3", fillcolor="#3c9ee5"] ;
247 -> 249 ;
250 [label="TASK_N_L <= 0.3\ngini = 0.11\nsamples = 111\nvalue = [560, 9420]\nclass = 3", fillcolor="#45a3e7"] ;
226 -> 250 ;
251 [label="TASK_E <= 2.5\ngini = 0.12\nsamples = 87\nvalue = [520, 7500]\nclass = 3", fillcolor="#47a4e7"] ;
250 -> 251 ;
252 [label="TASK_D <= 1.5\ngini = 0.24\nsamples = 41\nvalue = [520, 3240]\nclass = 3", fillcolor="#59ade9"] ;
251 -> 252 ;
253 [label="gini = 0.0\nsamples = 1\nvalue = [40, 0]\nclass = 1", fillcolor="#e58139"] ;
252 -> 253 ;
254 [label="TASK_M <= 1.5\ngini = 0.22\nsamples = 40\nvalue = [480, 3240]\nclass = 3", fillcolor="#56ace9"] ;
252 -> 254 ;
255 [label="gini = 0.0\nsamples = 1\nvalue = [0, 180]\nclass = 3", fillcolor="#399de5"] ;
254 -> 255 ;
256 [label="gini = 0.23\nsamples = 39\nvalue = [480, 3060]\nclass = 3", fillcolor="#58ace9"] ;
254 -> 256 ;
257 [label="gini = 0.0\nsamples = 46\nvalue = [0, 4260]\nclass = 3", fillcolor="#399de5"] ;
251 -> 257 ;
258 [label="TASK_R <= -0.5\ngini = 0.04\nsamples = 24\nvalue = [40, 1920]\nclass = 3", fillcolor="#3d9fe6"] ;
250 -> 258 ;
259 [label="gini = 0.0\nsamples = 12\nvalue = [0, 900]\nclass = 3", fillcolor="#399de5"] ;
258 -> 259 ;
260 [label="TASK_E <= 2.5\ngini = 0.07\nsamples = 12\nvalue = [40, 1020]\nclass = 3", fillcolor="#41a1e6"] ;
258 -> 260 ;
261 [label="TASK_R <= 0.5\ngini = 0.16\nsamples = 5\nvalue = [40, 420]\nclass = 3", fillcolor="#4ca6e7"] ;
260 -> 261 ;
262 [label="gini = 0.24\nsamples = 3\nvalue = [40, 240]\nclass = 3", fillcolor="#5aade9"] ;
261 -> 262 ;
263 [label="gini = 0.0\nsamples = 2\nvalue = [0, 180]\nclass = 3", fillcolor="#399de5"] ;
261 -> 263 ;
264 [label="gini = 0.0\nsamples = 7\nvalue = [0, 600]\nclass = 3", fillcolor="#399de5"] ;
260 -> 264 ;
265 [label="TASK_F <= 0.9\ngini = 0.06\nsamples = 935\nvalue = [2600, 85380]\nclass = 3", fillcolor="#3fa0e6"] ;
225 -> 265 ;
266 [label="TASK_E <= 2.5\ngini = 0.39\nsamples = 19\nvalue = [440, 1200]\nclass = 3", fillcolor="#82c1ef"] ;
265 -> 266 ;
267 [label="TASK_R <= 0.5\ngini = 0.21\nsamples = 10\nvalue = [440, 60]\nclass = 1", fillcolor="#e99254"] ;
266 -> 267 ;
268 [label="TASK_I <= 1.5\ngini = 0.36\nsamples = 6\nvalue = [200, 60]\nclass = 1", fillcolor="#eda774"] ;
267 -> 268 ;
269 [label="gini = 0.0\nsamples = 1\nvalue = [40, 0]\nclass = 1", fillcolor="#e58139"] ;
268 -> 269 ;
270 [label="TASK_RN <= 0.7\ngini = 0.4\nsamples = 5\nvalue = [160, 60]\nclass = 1", fillcolor="#efb083"] ;
268 -> 270 ;
271 [label="gini = 0.0\nsamples = 2\nvalue = [80, 0]\nclass = 1", fillcolor="#e58139"] ;
270 -> 271 ;
272 [label="gini = 0.49\nsamples = 3\nvalue = [80, 60]\nclass = 1", fillcolor="#f8e0ce"] ;
270 -> 272 ;
273 [label="gini = 0.0\nsamples = 4\nvalue = [240, 0]\nclass = 1", fillcolor="#e58139"] ;
267 -> 273 ;
274 [label="gini = 0.0\nsamples = 9\nvalue = [0, 1140]\nclass = 3", fillcolor="#399de5"] ;
266 -> 274 ;
275 [label="TASK_RN <= 0.7\ngini = 0.05\nsamples = 916\nvalue = [2160, 84180]\nclass = 3", fillcolor="#3ea0e6"] ;
265 -> 275 ;
276 [label="TASK_RN <= 0.1\ngini = 0.3\nsamples = 57\nvalue = [880, 3960]\nclass = 3", fillcolor="#65b3eb"] ;
275 -> 276 ;
277 [label="gini = 0.0\nsamples = 2\nvalue = [80, 0]\nclass = 1", fillcolor="#e58139"] ;
276 -> 277 ;
278 [label="TASK_N_L <= 0.9\ngini = 0.28\nsamples = 55\nvalue = [800, 3960]\nclass = 3", fillcolor="#61b1ea"] ;
276 -> 278 ;
279 [label="TASK_E <= 2.5\ngini = 0.49\nsamples = 13\nvalue = [560, 420]\nclass = 1", fillcolor="#f8e0ce"] ;
278 -> 279 ;
280 [label="gini = 0.0\nsamples = 8\nvalue = [560, 0]\nclass = 1", fillcolor="#e58139"] ;
279 -> 280 ;
281 [label="gini = 0.0\nsamples = 5\nvalue = [0, 420]\nclass = 3", fillcolor="#399de5"] ;
279 -> 281 ;
282 [label="TASK_R <= 0.5\ngini = 0.12\nsamples = 42\nvalue = [240, 3540]\nclass = 3", fillcolor="#46a4e7"] ;
278 -> 282 ;
283 [label="gini = 0.13\nsamples = 37\nvalue = [240, 3120]\nclass = 3", fillcolor="#48a5e7"] ;
282 -> 283 ;
284 [label="gini = 0.0\nsamples = 5\nvalue = [0, 420]\nclass = 3", fillcolor="#399de5"] ;
282 -> 284 ;
285 [label="TASK_I <= 2.5\ngini = 0.03\nsamples = 859\nvalue = [1280, 80220]\nclass = 3", fillcolor="#3c9fe5"] ;
275 -> 285 ;
286 [label="TASK_E <= 2.5\ngini = 0.04\nsamples = 656\nvalue = [1240, 60900]\nclass = 3", fillcolor="#3d9fe6"] ;
285 -> 286 ;
287 [label="TASK_N_L <= 0.9\ngini = 0.08\nsamples = 295\nvalue = [1120, 26280]\nclass = 3", fillcolor="#41a1e6"] ;
286 -> 287 ;
288 [label="gini = 0.21\nsamples = 49\nvalue = [480, 3600]\nclass = 3", fillcolor="#53aae8"] ;
287 -> 288 ;
289 [label="gini = 0.05\nsamples = 246\nvalue = [640, 22680]\nclass = 3", fillcolor="#3fa0e6"] ;
287 -> 289 ;
290 [label="TASK_D <= 2.5\ngini = 0.01\nsamples = 361\nvalue = [120, 34620]\nclass = 3", fillcolor="#3a9de5"] ;
286 -> 290 ;
291 [label="gini = 0.01\nsamples = 357\nvalue = [120, 34140]\nclass = 3", fillcolor="#3a9de5"] ;
290 -> 291 ;
292 [label="gini = 0.0\nsamples = 4\nvalue = [0, 480]\nclass = 3", fillcolor="#399de5"] ;
290 -> 292 ;
293 [label="TASK_RN <= 0.9\ngini = 0.0\nsamples = 203\nvalue = [40, 19320]\nclass = 3", fillcolor="#399de5"] ;
285 -> 293 ;
294 [label="gini = 0.0\nsamples = 50\nvalue = [0, 4620]\nclass = 3", fillcolor="#399de5"] ;
293 -> 294 ;
295 [label="TASK_E <= 2.5\ngini = 0.01\nsamples = 153\nvalue = [40, 14700]\nclass = 3", fillcolor="#3a9de5"] ;
293 -> 295 ;
296 [label="gini = 0.0\nsamples = 84\nvalue = [0, 7740]\nclass = 3", fillcolor="#399de5"] ;
295 -> 296 ;
297 [label="gini = 0.01\nsamples = 69\nvalue = [40, 6960]\nclass = 3", fillcolor="#3a9ee5"] ;
295 -> 297 ;
298 [label="TASK_RN <= 0.9\ngini = 0.49\nsamples = 53\nvalue = [2120, 1680]\nclass = 1", fillcolor="#fae5d6"] ;
176 -> 298 ;
299 [label="TASK_I <= 2.5\ngini = 0.42\nsamples = 35\nvalue = [1840, 780]\nclass = 1", fillcolor="#f0b68d"] ;
298 -> 299 ;
300 [label="TASK_R <= 17.5\ngini = 0.32\nsamples = 29\nvalue = [1720, 420]\nclass = 1", fillcolor="#eba069"] ;
299 -> 300 ;
301 [label="TASK_R <= 15.5\ngini = 0.43\nsamples = 16\nvalue = [800, 360]\nclass = 1", fillcolor="#f1ba92"] ;
300 -> 301 ;
302 [label="TASK_N_S <= 0.7\ngini = 0.3\nsamples = 14\nvalue = [800, 180]\nclass = 1", fillcolor="#eb9d66"] ;
301 -> 302 ;
303 [label="gini = 0.0\nsamples = 6\nvalue = [440, 0]\nclass = 1", fillcolor="#e58139"] ;
302 -> 303 ;
304 [label="TASK_N_L <= 0.9\ngini = 0.44\nsamples = 8\nvalue = [360, 180]\nclass = 1", fillcolor="#f2c09c"] ;
302 -> 304 ;
305 [label="TASK_D <= 1.5\ngini = 0.3\nsamples = 4\nvalue = [40, 180]\nclass = 3", fillcolor="#65b3eb"] ;
304 -> 305 ;
306 [label="gini = 0.0\nsamples = 1\nvalue = [40, 0]\nclass = 1", fillcolor="#e58139"] ;
305 -> 306 ;
307 [label="gini = 0.0\nsamples = 3\nvalue = [0, 180]\nclass = 3", fillcolor="#399de5"] ;
305 -> 307 ;
308 [label="gini = 0.0\nsamples = 4\nvalue = [320, 0]\nclass = 1", fillcolor="#e58139"] ;
304 -> 308 ;
309 [label="gini = 0.0\nsamples = 2\nvalue = [0, 180]\nclass = 3", fillcolor="#399de5"] ;
301 -> 309 ;
310 [label="TASK_E <= 1.5\ngini = 0.11\nsamples = 13\nvalue = [920, 60]\nclass = 1", fillcolor="#e78946"] ;
300 -> 310 ;
311 [label="gini = 0.0\nsamples = 3\nvalue = [280, 0]\nclass = 1", fillcolor="#e58139"] ;
310 -> 311 ;
312 [label="TASK_N_S <= 0.9\ngini = 0.16\nsamples = 10\nvalue = [640, 60]\nclass = 1", fillcolor="#e78d4c"] ;
310 -> 312 ;
313 [label="gini = 0.0\nsamples = 6\nvalue = [520, 0]\nclass = 1", fillcolor="#e58139"] ;
312 -> 313 ;
314 [label="TASK_N_L <= 0.3\ngini = 0.44\nsamples = 4\nvalue = [120, 60]\nclass = 1", fillcolor="#f2c09c"] ;
312 -> 314 ;
315 [label="gini = 0.0\nsamples = 2\nvalue = [80, 0]\nclass = 1", fillcolor="#e58139"] ;
314 -> 315 ;
316 [label="TASK_R <= 38.5\ngini = 0.48\nsamples = 2\nvalue = [40, 60]\nclass = 3", fillcolor="#bddef6"] ;
314 -> 316 ;
317 [label="gini = 0.0\nsamples = 1\nvalue = [0, 60]\nclass = 3", fillcolor="#399de5"] ;
316 -> 317 ;
318 [label="gini = 0.0\nsamples = 1\nvalue = [40, 0]\nclass = 1", fillcolor="#e58139"] ;
316 -> 318 ;
319 [label="TASK_E <= 2.5\ngini = 0.38\nsamples = 6\nvalue = [120, 360]\nclass = 3", fillcolor="#7bbeee"] ;
299 -> 319 ;
320 [label="TASK_R <= 19.5\ngini = 0.44\nsamples = 5\nvalue = [120, 240]\nclass = 3", fillcolor="#9ccef2"] ;
319 -> 320 ;
321 [label="TASK_RN <= 0.5\ngini = 0.44\nsamples = 2\nvalue = [120, 60]\nclass = 1", fillcolor="#f2c09c"] ;
320 -> 321 ;
322 [label="gini = 0.0\nsamples = 1\nvalue = [120, 0]\nclass = 1", fillcolor="#e58139"] ;
321 -> 322 ;
323 [label="gini = 0.0\nsamples = 1\nvalue = [0, 60]\nclass = 3", fillcolor="#399de5"] ;
321 -> 323 ;
324 [label="gini = 0.0\nsamples = 3\nvalue = [0, 180]\nclass = 3", fillcolor="#399de5"] ;
320 -> 324 ;
325 [label="gini = 0.0\nsamples = 1\nvalue = [0, 120]\nclass = 3", fillcolor="#399de5"] ;
319 -> 325 ;
326 [label="TASK_E <= 2.5\ngini = 0.36\nsamples = 18\nvalue = [280, 900]\nclass = 3", fillcolor="#77bbed"] ;
298 -> 326 ;
327 [label="TASK_I <= 1.5\ngini = 0.5\nsamples = 9\nvalue = [280, 300]\nclass = 3", fillcolor="#f2f8fd"] ;
326 -> 327 ;
328 [label="gini = 0.0\nsamples = 2\nvalue = [80, 0]\nclass = 1", fillcolor="#e58139"] ;
327 -> 328 ;
329 [label="TASK_D <= 1.5\ngini = 0.48\nsamples = 7\nvalue = [200, 300]\nclass = 3", fillcolor="#bddef6"] ;
327 -> 329 ;
330 [label="gini = 0.0\nsamples = 2\nvalue = [120, 0]\nclass = 1", fillcolor="#e58139"] ;
329 -> 330 ;
331 [label="TASK_R <= 15.5\ngini = 0.33\nsamples = 5\nvalue = [80, 300]\nclass = 3", fillcolor="#6eb7ec"] ;
329 -> 331 ;
332 [label="gini = 0.0\nsamples = 3\nvalue = [0, 300]\nclass = 3", fillcolor="#399de5"] ;
331 -> 332 ;
333 [label="gini = 0.0\nsamples = 2\nvalue = [80, 0]\nclass = 1", fillcolor="#e58139"] ;
331 -> 333 ;
334 [label="gini = 0.0\nsamples = 9\nvalue = [0, 600]\nclass = 3", fillcolor="#399de5"] ;
326 -> 334 ;
}