digraph Tree {
node [shape=box, style="filled, rounded", color="black", fontname=helvetica] ;
edge [fontname=helvetica] ;
0 [label="TASK_N_L <= 0.9\ngini = 0.33\nsamples = 4229\nvalue = [295330, 76140]\nclass = 1", fillcolor="#eca16c"] ;
1 [label="TASK_D <= 1.5\ngini = 0.19\nsamples = 2977\nvalue = [260190, 30150]\nclass = 1", fillcolor="#e89050"] ;
0 -> 1 [labeldistance=2.5, labelangle=45, headlabel="True"] ;
2 [label="TASK_RN <= 0.9\ngini = 0.01\nsamples = 764\nvalue = [84140, 630]\nclass = 1", fillcolor="#e5823a"] ;
1 -> 2 ;
3 [label="TASK_R <= -0.5\ngini = 0.0\nsamples = 385\nvalue = [41650, 60]\nclass = 1", fillcolor="#e58139"] ;
2 -> 3 ;
4 [label="TASK_N_S <= 0.5\ngini = 0.01\nsamples = 110\nvalue = [12530, 60]\nclass = 1", fillcolor="#e5823a"] ;
3 -> 4 ;
5 [label="gini = 0.0\nsamples = 82\nvalue = [9520, 0]\nclass = 1", fillcolor="#e58139"] ;
4 -> 5 ;
6 [label="TASK_RN <= 0.7\ngini = 0.04\nsamples = 28\nvalue = [3010, 60]\nclass = 1", fillcolor="#e6843d"] ;
4 -> 6 ;
7 [label="gini = 0.0\nsamples = 15\nvalue = [1540, 0]\nclass = 1", fillcolor="#e58139"] ;
6 -> 7 ;
8 [label="TASK_I <= 1.5\ngini = 0.08\nsamples = 13\nvalue = [1470, 60]\nclass = 1", fillcolor="#e68641"] ;
6 -> 8 ;
9 [label="gini = 0.0\nsamples = 3\nvalue = [420, 0]\nclass = 1", fillcolor="#e58139"] ;
8 -> 9 ;
10 [label="TASK_N_S <= 0.7\ngini = 0.1\nsamples = 10\nvalue = [1050, 60]\nclass = 1", fillcolor="#e68844"] ;
8 -> 10 ;
11 [label="gini = 0.0\nsamples = 1\nvalue = [0, 60]\nclass = 3", fillcolor="#399de5"] ;
10 -> 11 ;
12 [label="gini = 0.0\nsamples = 9\nvalue = [1050, 0]\nclass = 1", fillcolor="#e58139"] ;
10 -> 12 ;
13 [label="gini = 0.0\nsamples = 275\nvalue = [29120, 0]\nclass = 1", fillcolor="#e58139"] ;
3 -> 13 ;
14 [label="TASK_E <= 1.5\ngini = 0.03\nsamples = 379\nvalue = [42490, 570]\nclass = 1", fillcolor="#e5833c"] ;
2 -> 14 ;
15 [label="TASK_I <= 1.5\ngini = 0.01\nsamples = 156\nvalue = [17500, 60]\nclass = 1", fillcolor="#e5813a"] ;
14 -> 15 ;
16 [label="gini = 0.0\nsamples = 34\nvalue = [3850, 0]\nclass = 1", fillcolor="#e58139"] ;
15 -> 16 ;
17 [label="TASK_N_L <= 0.5\ngini = 0.01\nsamples = 122\nvalue = [13650, 60]\nclass = 1", fillcolor="#e5823a"] ;
15 -> 17 ;
18 [label="gini = 0.0\nsamples = 117\nvalue = [13160, 0]\nclass = 1", fillcolor="#e58139"] ;
17 -> 18 ;
19 [label="TASK_N_L <= 0.7\ngini = 0.19\nsamples = 5\nvalue = [490, 60]\nclass = 1", fillcolor="#e89051"] ;
17 -> 19 ;
20 [label="TASK_F <= 0.6\ngini = 0.29\nsamples = 4\nvalue = [280, 60]\nclass = 1", fillcolor="#eb9c63"] ;
19 -> 20 ;
21 [label="gini = 0.0\nsamples = 3\nvalue = [280, 0]\nclass = 1", fillcolor="#e58139"] ;
20 -> 21 ;
22 [label="gini = 0.0\nsamples = 1\nvalue = [0, 60]\nclass = 3", fillcolor="#399de5"] ;
20 -> 22 ;
23 [label="gini = 0.0\nsamples = 1\nvalue = [210, 0]\nclass = 1", fillcolor="#e58139"] ;
19 -> 23 ;
24 [label="TASK_R <= -0.5\ngini = 0.04\nsamples = 223\nvalue = [24990, 510]\nclass = 1", fillcolor="#e6843d"] ;
14 -> 24 ;
25 [label="TASK_N_L <= 0.5\ngini = 0.07\nsamples = 120\nvalue = [13440, 480]\nclass = 1", fillcolor="#e68640"] ;
24 -> 25 ;
26 [label="TASK_N_S <= 0.7\ngini = 0.06\nsamples = 106\nvalue = [12180, 390]\nclass = 1", fillcolor="#e6853f"] ;
25 -> 26 ;
27 [label="TASK_N_L <= 0.1\ngini = 0.07\nsamples = 91\nvalue = [10500, 390]\nclass = 1", fillcolor="#e68640"] ;
26 -> 27 ;
28 [label="TASK_F <= 0.6\ngini = 0.06\nsamples = 83\nvalue = [9660, 330]\nclass = 1", fillcolor="#e68540"] ;
27 -> 28 ;
29 [label="gini = 0.0\nsamples = 75\nvalue = [9170, 0]\nclass = 1", fillcolor="#e58139"] ;
28 -> 29 ;
30 [label="gini = 0.48\nsamples = 8\nvalue = [490, 330]\nclass = 1", fillcolor="#f7d6be"] ;
28 -> 30 ;
31 [label="TASK_N_L <= 0.3\ngini = 0.12\nsamples = 8\nvalue = [840, 60]\nclass = 1", fillcolor="#e78a47"] ;
27 -> 31 ;
32 [label="gini = 0.29\nsamples = 4\nvalue = [280, 60]\nclass = 1", fillcolor="#eb9c63"] ;
31 -> 32 ;
33 [label="gini = 0.0\nsamples = 4\nvalue = [560, 0]\nclass = 1", fillcolor="#e58139"] ;
31 -> 33 ;
34 [label="gini = 0.0\nsamples = 15\nvalue = [1680, 0]\nclass = 1", fillcolor="#e58139"] ;
26 -> 34 ;
35 [label="TASK_N_L <= 0.7\ngini = 0.12\nsamples = 14\nvalue = [1260, 90]\nclass = 1", fillcolor="#e78a47"] ;
25 -> 35 ;
36 [label="TASK_I <= 2.5\ngini = 0.15\nsamples = 11\nvalue = [980, 90]\nclass = 1", fillcolor="#e78d4b"] ;
35 -> 36 ;
37 [label="gini = 0.0\nsamples = 9\nvalue = [910, 0]\nclass = 1", fillcolor="#e58139"] ;
36 -> 37 ;
38 [label="TASK_F <= 0.5\ngini = 0.49\nsamples = 2\nvalue = [70, 90]\nclass = 3", fillcolor="#d3e9f9"] ;
36 -> 38 ;
39 [label="gini = 0.0\nsamples = 1\nvalue = [70, 0]\nclass = 1", fillcolor="#e58139"] ;
38 -> 39 ;
40 [label="gini = 0.0\nsamples = 1\nvalue = [0, 90]\nclass = 3", fillcolor="#399de5"] ;
38 -> 40 ;
41 [label="gini = 0.0\nsamples = 3\nvalue = [280, 0]\nclass = 1", fillcolor="#e58139"] ;
35 -> 41 ;
42 [label="TASK_F <= 0.3\ngini = 0.01\nsamples = 103\nvalue = [11550, 30]\nclass = 1", fillcolor="#e5813a"] ;
24 -> 42 ;
43 [label="gini = 0.0\nsamples = 86\nvalue = [9800, 0]\nclass = 1", fillcolor="#e58139"] ;
42 -> 43 ;
44 [label="TASK_N_L <= 0.7\ngini = 0.03\nsamples = 17\nvalue = [1750, 30]\nclass = 1", fillcolor="#e5833c"] ;
42 -> 44 ;
45 [label="gini = 0.0\nsamples = 13\nvalue = [1470, 0]\nclass = 1", fillcolor="#e58139"] ;
44 -> 45 ;
46 [label="TASK_R <= 2.5\ngini = 0.17\nsamples = 4\nvalue = [280, 30]\nclass = 1", fillcolor="#e88e4e"] ;
44 -> 46 ;
47 [label="TASK_R <= 0.5\ngini = 0.42\nsamples = 2\nvalue = [70, 30]\nclass = 1", fillcolor="#f0b78e"] ;
46 -> 47 ;
48 [label="gini = 0.0\nsamples = 1\nvalue = [70, 0]\nclass = 1", fillcolor="#e58139"] ;
47 -> 48 ;
49 [label="gini = 0.0\nsamples = 1\nvalue = [0, 30]\nclass = 3", fillcolor="#399de5"] ;
47 -> 49 ;
50 [label="gini = 0.0\nsamples = 2\nvalue = [210, 0]\nclass = 1", fillcolor="#e58139"] ;
46 -> 50 ;
51 [label="TASK_N_L <= 0.1\ngini = 0.25\nsamples = 2213\nvalue = [176050, 29520]\nclass = 1", fillcolor="#e9965a"] ;
1 -> 51 ;
52 [label="TASK_F <= 0.9\ngini = 0.13\nsamples = 1309\nvalue = [122990, 9300]\nclass = 1", fillcolor="#e78b48"] ;
51 -> 52 ;
53 [label="TASK_E <= 2.5\ngini = 0.03\nsamples = 1076\nvalue = [115920, 1590]\nclass = 1", fillcolor="#e5833c"] ;
52 -> 53 ;
54 [label="TASK_RN <= 0.9\ngini = 0.02\nsamples = 1039\nvalue = [112560, 1290]\nclass = 1", fillcolor="#e5823b"] ;
53 -> 54 ;
55 [label="TASK_E <= 1.5\ngini = 0.01\nsamples = 720\nvalue = [79450, 330]\nclass = 1", fillcolor="#e5823a"] ;
54 -> 55 ;
56 [label="gini = 0.0\nsamples = 162\nvalue = [18970, 0]\nclass = 1", fillcolor="#e58139"] ;
55 -> 56 ;
57 [label="TASK_R <= 4.5\ngini = 0.01\nsamples = 558\nvalue = [60480, 330]\nclass = 1", fillcolor="#e5823a"] ;
55 -> 57 ;
58 [label="TASK_I <= 2.5\ngini = 0.01\nsamples = 414\nvalue = [45080, 330]\nclass = 1", fillcolor="#e5823a"] ;
57 -> 58 ;
59 [label="gini = 0.01\nsamples = 343\nvalue = [37380, 180]\nclass = 1", fillcolor="#e5823a"] ;
58 -> 59 ;
60 [label="gini = 0.04\nsamples = 71\nvalue = [7700, 150]\nclass = 1", fillcolor="#e6833d"] ;
58 -> 60 ;
61 [label="gini = 0.0\nsamples = 144\nvalue = [15400, 0]\nclass = 1", fillcolor="#e58139"] ;
57 -> 61 ;
62 [label="TASK_D <= 2.5\ngini = 0.05\nsamples = 319\nvalue = [33110, 960]\nclass = 1", fillcolor="#e6853f"] ;
54 -> 62 ;
63 [label="TASK_N_S <= 0.9\ngini = 0.05\nsamples = 317\nvalue = [32970, 930]\nclass = 1", fillcolor="#e6853f"] ;
62 -> 63 ;
64 [label="TASK_R <= 71.5\ngini = 0.02\nsamples = 263\nvalue = [28490, 270]\nclass = 1", fillcolor="#e5823b"] ;
63 -> 64 ;
65 [label="gini = 0.01\nsamples = 261\nvalue = [28350, 210]\nclass = 1", fillcolor="#e5823a"] ;
64 -> 65 ;
66 [label="gini = 0.42\nsamples = 2\nvalue = [140, 60]\nclass = 1", fillcolor="#f0b78e"] ;
64 -> 66 ;
67 [label="TASK_R <= -0.5\ngini = 0.22\nsamples = 54\nvalue = [4480, 660]\nclass = 1", fillcolor="#e99456"] ;
63 -> 67 ;
68 [label="gini = 0.35\nsamples = 31\nvalue = [2030, 600]\nclass = 1", fillcolor="#eda674"] ;
67 -> 68 ;
69 [label="gini = 0.05\nsamples = 23\nvalue = [2450, 60]\nclass = 1", fillcolor="#e6843e"] ;
67 -> 69 ;
70 [label="TASK_I <= 2.5\ngini = 0.29\nsamples = 2\nvalue = [140, 30]\nclass = 1", fillcolor="#eb9c63"] ;
62 -> 70 ;
71 [label="gini = 0.0\nsamples = 1\nvalue = [140, 0]\nclass = 1", fillcolor="#e58139"] ;
70 -> 71 ;
72 [label="gini = 0.0\nsamples = 1\nvalue = [0, 30]\nclass = 3", fillcolor="#399de5"] ;
70 -> 72 ;
73 [label="TASK_F <= 0.3\ngini = 0.15\nsamples = 37\nvalue = [3360, 300]\nclass = 1", fillcolor="#e78c4b"] ;
53 -> 73 ;
74 [label="TASK_N_S <= 0.1\ngini = 0.1\nsamples = 31\nvalue = [3220, 180]\nclass = 1", fillcolor="#e68844"] ;
73 -> 74 ;
75 [label="gini = 0.0\nsamples = 17\nvalue = [1960, 0]\nclass = 1", fillcolor="#e58139"] ;
74 -> 75 ;
76 [label="TASK_I <= 2.5\ngini = 0.22\nsamples = 14\nvalue = [1260, 180]\nclass = 1", fillcolor="#e99355"] ;
74 -> 76 ;
77 [label="TASK_F <= 0.1\ngini = 0.11\nsamples = 9\nvalue = [980, 60]\nclass = 1", fillcolor="#e78945"] ;
76 -> 77 ;
78 [label="gini = 0.19\nsamples = 7\nvalue = [490, 60]\nclass = 1", fillcolor="#e89051"] ;
77 -> 78 ;
79 [label="gini = 0.0\nsamples = 2\nvalue = [490, 0]\nclass = 1", fillcolor="#e58139"] ;
77 -> 79 ;
80 [label="TASK_R <= -0.5\ngini = 0.42\nsamples = 5\nvalue = [280, 120]\nclass = 1", fillcolor="#f0b78e"] ;
76 -> 80 ;
81 [label="gini = 0.0\nsamples = 1\nvalue = [140, 0]\nclass = 1", fillcolor="#e58139"] ;
80 -> 81 ;
82 [label="gini = 0.5\nsamples = 4\nvalue = [140, 120]\nclass = 1", fillcolor="#fbede3"] ;
80 -> 82 ;
83 [label="TASK_F <= 0.6\ngini = 0.5\nsamples = 6\nvalue = [140, 120]\nclass = 1", fillcolor="#fbede3"] ;
73 -> 83 ;
84 [label="TASK_RN <= 0.9\ngini = 0.48\nsamples = 5\nvalue = [140, 90]\nclass = 1", fillcolor="#f6d2b8"] ;
83 -> 84 ;
85 [label="gini = 0.0\nsamples = 2\nvalue = [0, 60]\nclass = 3", fillcolor="#399de5"] ;
84 -> 85 ;
86 [label="TASK_R <= -0.5\ngini = 0.29\nsamples = 3\nvalue = [140, 30]\nclass = 1", fillcolor="#eb9c63"] ;
84 -> 86 ;
87 [label="gini = 0.0\nsamples = 1\nvalue = [0, 30]\nclass = 3", fillcolor="#399de5"] ;
86 -> 87 ;
88 [label="gini = 0.0\nsamples = 2\nvalue = [140, 0]\nclass = 1", fillcolor="#e58139"] ;
86 -> 88 ;
89 [label="gini = 0.0\nsamples = 1\nvalue = [0, 30]\nclass = 3", fillcolor="#399de5"] ;
83 -> 89 ;
90 [label="TASK_R <= 6.5\ngini = 0.5\nsamples = 233\nvalue = [7070, 7710]\nclass = 3", fillcolor="#eff7fd"] ;
52 -> 90 ;
91 [label="TASK_I <= 2.5\ngini = 0.49\nsamples = 215\nvalue = [5530, 7560]\nclass = 3", fillcolor="#cae5f8"] ;
90 -> 91 ;
92 [label="TASK_RN <= 0.5\ngini = 0.5\nsamples = 163\nvalue = [5250, 5010]\nclass = 1", fillcolor="#fef9f6"] ;
91 -> 92 ;
93 [label="TASK_I <= 1.5\ngini = 0.19\nsamples = 9\nvalue = [980, 120]\nclass = 1", fillcolor="#e89051"] ;
92 -> 93 ;
94 [label="TASK_E <= 2.0\ngini = 0.48\nsamples = 2\nvalue = [140, 90]\nclass = 1", fillcolor="#f6d2b8"] ;
93 -> 94 ;
95 [label="gini = 0.0\nsamples = 1\nvalue = [140, 0]\nclass = 1", fillcolor="#e58139"] ;
94 -> 95 ;
96 [label="gini = 0.0\nsamples = 1\nvalue = [0, 90]\nclass = 3", fillcolor="#399de5"] ;
94 -> 96 ;
97 [label="TASK_E <= 1.5\ngini = 0.07\nsamples = 7\nvalue = [840, 30]\nclass = 1", fillcolor="#e68640"] ;
93 -> 97 ;
98 [label="gini = 0.0\nsamples = 1\nvalue = [210, 0]\nclass = 1", fillcolor="#e58139"] ;
97 -> 98 ;
99 [label="gini = 0.09\nsamples = 6\nvalue = [630, 30]\nclass = 1", fillcolor="#e68742"] ;
97 -> 99 ;
100 [label="TASK_I <= 1.5\ngini = 0.5\nsamples = 154\nvalue = [4270, 4890]\nclass = 3", fillcolor="#e6f3fc"] ;
92 -> 100 ;
101 [label="TASK_E <= 2.5\ngini = 0.5\nsamples = 45\nvalue = [1610, 1410]\nclass = 1", fillcolor="#fcefe6"] ;
100 -> 101 ;
102 [label="gini = 0.38\nsamples = 24\nvalue = [1540, 540]\nclass = 1", fillcolor="#eead7e"] ;
101 -> 102 ;
103 [label="gini = 0.14\nsamples = 21\nvalue = [70, 870]\nclass = 3", fillcolor="#49a5e7"] ;
101 -> 103 ;
104 [label="TASK_E <= 2.5\ngini = 0.49\nsamples = 109\nvalue = [2660, 3480]\nclass = 3", fillcolor="#d0e8f9"] ;
100 -> 104 ;
105 [label="gini = 0.48\nsamples = 63\nvalue = [2520, 1650]\nclass = 1", fillcolor="#f6d4bb"] ;
104 -> 105 ;
106 [label="gini = 0.13\nsamples = 46\nvalue = [140, 1830]\nclass = 3", fillcolor="#48a4e7"] ;
104 -> 106 ;
107 [label="TASK_N_S <= 0.1\ngini = 0.18\nsamples = 52\nvalue = [280, 2550]\nclass = 3", fillcolor="#4fa8e8"] ;
91 -> 107 ;
108 [label="TASK_RN <= 0.9\ngini = 0.5\nsamples = 11\nvalue = [280, 300]\nclass = 3", fillcolor="#f2f8fd"] ;
107 -> 108 ;
109 [label="TASK_E <= 2.5\ngini = 0.48\nsamples = 8\nvalue = [280, 180]\nclass = 1", fillcolor="#f6d2b8"] ;
108 -> 109 ;
110 [label="gini = 0.29\nsamples = 5\nvalue = [280, 60]\nclass = 1", fillcolor="#eb9c63"] ;
109 -> 110 ;
111 [label="gini = 0.0\nsamples = 3\nvalue = [0, 120]\nclass = 3", fillcolor="#399de5"] ;
109 -> 111 ;
112 [label="gini = 0.0\nsamples = 3\nvalue = [0, 120]\nclass = 3", fillcolor="#399de5"] ;
108 -> 112 ;
113 [label="gini = 0.0\nsamples = 41\nvalue = [0, 2250]\nclass = 3", fillcolor="#399de5"] ;
107 -> 113 ;
114 [label="TASK_E <= 2.5\ngini = 0.16\nsamples = 18\nvalue = [1540, 150]\nclass = 1", fillcolor="#e88d4c"] ;
90 -> 114 ;
115 [label="TASK_N_S <= 0.1\ngini = 0.1\nsamples = 16\nvalue = [1540, 90]\nclass = 1", fillcolor="#e78845"] ;
114 -> 115 ;
116 [label="gini = 0.0\nsamples = 11\nvalue = [1260, 0]\nclass = 1", fillcolor="#e58139"] ;
115 -> 116 ;
117 [label="TASK_RN <= 0.9\ngini = 0.37\nsamples = 5\nvalue = [280, 90]\nclass = 1", fillcolor="#edaa79"] ;
115 -> 117 ;
118 [label="TASK_RN <= 0.5\ngini = 0.17\nsamples = 4\nvalue = [280, 30]\nclass = 1", fillcolor="#e88e4e"] ;
117 -> 118 ;
119 [label="gini = 0.0\nsamples = 2\nvalue = [140, 0]\nclass = 1", fillcolor="#e58139"] ;
118 -> 119 ;
120 [label="gini = 0.29\nsamples = 2\nvalue = [140, 30]\nclass = 1", fillcolor="#eb9c63"] ;
118 -> 120 ;
121 [label="gini = 0.0\nsamples = 1\nvalue = [0, 60]\nclass = 3", fillcolor="#399de5"] ;
117 -> 121 ;
122 [label="gini = 0.0\nsamples = 2\nvalue = [0, 60]\nclass = 3", fillcolor="#399de5"] ;
114 -> 122 ;
123 [label="TASK_E <= 2.5\ngini = 0.4\nsamples = 904\nvalue = [53060, 20220]\nclass = 1", fillcolor="#efb184"] ;
51 -> 123 ;
124 [label="TASK_I <= 2.5\ngini = 0.25\nsamples = 658\nvalue = [50960, 8970]\nclass = 1", fillcolor="#ea975c"] ;
123 -> 124 ;
125 [label="TASK_R <= -0.5\ngini = 0.2\nsamples = 552\nvalue = [46340, 5880]\nclass = 1", fillcolor="#e89152"] ;
124 -> 125 ;
126 [label="TASK_RN <= 0.7\ngini = 0.28\nsamples = 242\nvalue = [17780, 3600]\nclass = 1", fillcolor="#ea9b61"] ;
125 -> 126 ;
127 [label="TASK_E <= 1.5\ngini = 0.1\nsamples = 67\nvalue = [6650, 390]\nclass = 1", fillcolor="#e78845"] ;
126 -> 127 ;
128 [label="TASK_I <= 1.5\ngini = 0.05\nsamples = 10\nvalue = [1050, 30]\nclass = 1", fillcolor="#e6853f"] ;
127 -> 128 ;
129 [label="gini = 0.0\nsamples = 2\nvalue = [140, 0]\nclass = 1", fillcolor="#e58139"] ;
128 -> 129 ;
130 [label="gini = 0.06\nsamples = 8\nvalue = [910, 30]\nclass = 1", fillcolor="#e68540"] ;
128 -> 130 ;
131 [label="TASK_RN <= 0.5\ngini = 0.11\nsamples = 57\nvalue = [5600, 360]\nclass = 1", fillcolor="#e78946"] ;
127 -> 131 ;
132 [label="gini = 0.05\nsamples = 27\nvalue = [3150, 90]\nclass = 1", fillcolor="#e6853f"] ;
131 -> 132 ;
133 [label="gini = 0.18\nsamples = 30\nvalue = [2450, 270]\nclass = 1", fillcolor="#e88f4f"] ;
131 -> 133 ;
134 [label="TASK_D <= 2.5\ngini = 0.35\nsamples = 175\nvalue = [11130, 3210]\nclass = 1", fillcolor="#eca572"] ;
126 -> 134 ;
135 [label="TASK_N_L <= 0.7\ngini = 0.34\nsamples = 173\nvalue = [11130, 3120]\nclass = 1", fillcolor="#eca471"] ;
134 -> 135 ;
136 [label="gini = 0.31\nsamples = 128\nvalue = [8750, 2070]\nclass = 1", fillcolor="#eb9f68"] ;
135 -> 136 ;
137 [label="gini = 0.42\nsamples = 45\nvalue = [2380, 1050]\nclass = 1", fillcolor="#f0b990"] ;
135 -> 137 ;
138 [label="gini = 0.0\nsamples = 2\nvalue = [0, 90]\nclass = 3", fillcolor="#399de5"] ;
134 -> 138 ;
139 [label="TASK_F <= 0.9\ngini = 0.14\nsamples = 310\nvalue = [28560, 2280]\nclass = 1", fillcolor="#e78b49"] ;
125 -> 139 ;
140 [label="TASK_F <= 0.1\ngini = 0.04\nsamples = 239\nvalue = [25340, 480]\nclass = 1", fillcolor="#e5833d"] ;
139 -> 140 ;
141 [label="TASK_N_L <= 0.5\ngini = 0.0\nsamples = 117\nvalue = [12950, 30]\nclass = 1", fillcolor="#e58139"] ;
140 -> 141 ;
142 [label="gini = 0.01\nsamples = 71\nvalue = [7770, 30]\nclass = 1", fillcolor="#e5813a"] ;
141 -> 142 ;
143 [label="gini = 0.0\nsamples = 46\nvalue = [5180, 0]\nclass = 1", fillcolor="#e58139"] ;
141 -> 143 ;
144 [label="TASK_N_L <= 0.5\ngini = 0.07\nsamples = 122\nvalue = [12390, 450]\nclass = 1", fillcolor="#e68640"] ;
140 -> 144 ;
145 [label="gini = 0.01\nsamples = 64\nvalue = [7070, 30]\nclass = 1", fillcolor="#e5823a"] ;
144 -> 145 ;
146 [label="gini = 0.14\nsamples = 58\nvalue = [5320, 420]\nclass = 1", fillcolor="#e78b49"] ;
144 -> 146 ;
147 [label="TASK_N_S <= 0.5\ngini = 0.46\nsamples = 71\nvalue = [3220, 1800]\nclass = 1", fillcolor="#f4c7a8"] ;
139 -> 147 ;
148 [label="gini = 0.0\nsamples = 7\nvalue = [630, 0]\nclass = 1", fillcolor="#e58139"] ;
147 -> 148 ;
149 [label="TASK_E <= 1.5\ngini = 0.48\nsamples = 64\nvalue = [2590, 1800]\nclass = 1", fillcolor="#f7d9c3"] ;
147 -> 149 ;
150 [label="gini = 0.31\nsamples = 13\nvalue = [630, 150]\nclass = 1", fillcolor="#eb9f68"] ;
149 -> 150 ;
151 [label="gini = 0.5\nsamples = 51\nvalue = [1960, 1650]\nclass = 1", fillcolor="#fbebe0"] ;
149 -> 151 ;
152 [label="TASK_M <= 1.5\ngini = 0.48\nsamples = 106\nvalue = [4620, 3090]\nclass = 1", fillcolor="#f6d5bd"] ;
124 -> 152 ;
153 [label="gini = 0.0\nsamples = 1\nvalue = [70, 0]\nclass = 1", fillcolor="#e58139"] ;
152 -> 153 ;
154 [label="TASK_N_S <= 0.9\ngini = 0.48\nsamples = 105\nvalue = [4550, 3090]\nclass = 1", fillcolor="#f7d7bf"] ;
152 -> 154 ;
155 [label="TASK_F <= 0.6\ngini = 0.2\nsamples = 21\nvalue = [1890, 240]\nclass = 1", fillcolor="#e89152"] ;
154 -> 155 ;
156 [label="TASK_RN <= 0.9\ngini = 0.06\nsamples = 15\nvalue = [1750, 60]\nclass = 1", fillcolor="#e68540"] ;
155 -> 156 ;
157 [label="gini = 0.0\nsamples = 9\nvalue = [1050, 0]\nclass = 1", fillcolor="#e58139"] ;
156 -> 157 ;
158 [label="gini = 0.15\nsamples = 6\nvalue = [700, 60]\nclass = 1", fillcolor="#e78c4a"] ;
156 -> 158 ;
159 [label="TASK_RN <= 0.7\ngini = 0.49\nsamples = 6\nvalue = [140, 180]\nclass = 3", fillcolor="#d3e9f9"] ;
155 -> 159 ;
160 [label="gini = 0.0\nsamples = 1\nvalue = [70, 0]\nclass = 1", fillcolor="#e58139"] ;
159 -> 160 ;
161 [label="gini = 0.4\nsamples = 5\nvalue = [70, 180]\nclass = 3", fillcolor="#86c3ef"] ;
159 -> 161 ;
162 [label="TASK_R <= 1.5\ngini = 0.5\nsamples = 84\nvalue = [2660, 2850]\nclass = 3", fillcolor="#f2f8fd"] ;
154 -> 162 ;
163 [label="TASK_R <= 0.5\ngini = 0.49\nsamples = 65\nvalue = [1680, 2340]\nclass = 3", fillcolor="#c7e3f8"] ;
162 -> 163 ;
164 [label="gini = 0.49\nsamples = 57\nvalue = [1540, 2010]\nclass = 3", fillcolor="#d1e8f9"] ;
163 -> 164 ;
165 [label="gini = 0.42\nsamples = 8\nvalue = [140, 330]\nclass = 3", fillcolor="#8dc7f0"] ;
163 -> 165 ;
166 [label="TASK_E <= 1.5\ngini = 0.45\nsamples = 19\nvalue = [980, 510]\nclass = 1", fillcolor="#f3c3a0"] ;
162 -> 166 ;
167 [label="gini = 0.0\nsamples = 2\nvalue = [140, 0]\nclass = 1", fillcolor="#e58139"] ;
166 -> 167 ;
168 [label="gini = 0.47\nsamples = 17\nvalue = [840, 510]\nclass = 1", fillcolor="#f5ceb1"] ;
166 -> 168 ;
169 [label="TASK_F <= 0.3\ngini = 0.27\nsamples = 246\nvalue = [2100, 11250]\nclass = 3", fillcolor="#5eafea"] ;
123 -> 169 ;
170 [label="TASK_RN <= 0.7\ngini = 0.44\nsamples = 41\nvalue = [1960, 960]\nclass = 1", fillcolor="#f2bf9a"] ;
169 -> 170 ;
171 [label="gini = 0.0\nsamples = 4\nvalue = [560, 0]\nclass = 1", fillcolor="#e58139"] ;
170 -> 171 ;
172 [label="TASK_N_S <= 0.9\ngini = 0.48\nsamples = 37\nvalue = [1400, 960]\nclass = 1", fillcolor="#f7d7c1"] ;
170 -> 172 ;
173 [label="TASK_I <= 2.5\ngini = 0.2\nsamples = 9\nvalue = [700, 90]\nclass = 1", fillcolor="#e89152"] ;
172 -> 173 ;
174 [label="gini = 0.0\nsamples = 5\nvalue = [490, 0]\nclass = 1", fillcolor="#e58139"] ;
173 -> 174 ;
175 [label="TASK_N_S <= 0.5\ngini = 0.42\nsamples = 4\nvalue = [210, 90]\nclass = 1", fillcolor="#f0b78e"] ;
173 -> 175 ;
176 [label="gini = 0.0\nsamples = 1\nvalue = [140, 0]\nclass = 1", fillcolor="#e58139"] ;
175 -> 176 ;
177 [label="gini = 0.49\nsamples = 3\nvalue = [70, 90]\nclass = 3", fillcolor="#d3e9f9"] ;
175 -> 177 ;
178 [label="TASK_R <= 1.0\ngini = 0.49\nsamples = 28\nvalue = [700, 870]\nclass = 3", fillcolor="#d8ecfa"] ;
172 -> 178 ;
179 [label="TASK_RN <= 0.9\ngini = 0.33\nsamples = 22\nvalue = [210, 810]\nclass = 3", fillcolor="#6cb6ec"] ;
178 -> 179 ;
180 [label="gini = 0.5\nsamples = 5\nvalue = [140, 120]\nclass = 1", fillcolor="#fbede3"] ;
179 -> 180 ;
181 [label="gini = 0.17\nsamples = 17\nvalue = [70, 690]\nclass = 3", fillcolor="#4da7e8"] ;
179 -> 181 ;
182 [label="TASK_RN <= 0.9\ngini = 0.19\nsamples = 6\nvalue = [490, 60]\nclass = 1", fillcolor="#e89051"] ;
178 -> 182 ;
183 [label="gini = 0.0\nsamples = 1\nvalue = [0, 30]\nclass = 3", fillcolor="#399de5"] ;
182 -> 183 ;
184 [label="gini = 0.11\nsamples = 5\nvalue = [490, 30]\nclass = 1", fillcolor="#e78945"] ;
182 -> 184 ;
185 [label="TASK_D <= 2.5\ngini = 0.03\nsamples = 205\nvalue = [140, 10290]\nclass = 3", fillcolor="#3c9ee5"] ;
169 -> 185 ;
186 [label="TASK_N_L <= 0.5\ngini = 0.03\nsamples = 197\nvalue = [140, 9930]\nclass = 3", fillcolor="#3c9ee5"] ;
185 -> 186 ;
187 [label="gini = 0.0\nsamples = 92\nvalue = [0, 4620]\nclass = 3", fillcolor="#399de5"] ;
186 -> 187 ;
188 [label="TASK_R <= 36.5\ngini = 0.05\nsamples = 105\nvalue = [140, 5310]\nclass = 3", fillcolor="#3ea0e6"] ;
186 -> 188 ;
189 [label="TASK_N_L <= 0.7\ngini = 0.03\nsamples = 104\nvalue = [70, 5310]\nclass = 3", fillcolor="#3c9ee5"] ;
188 -> 189 ;
190 [label="gini = 0.06\nsamples = 41\nvalue = [70, 2100]\nclass = 3", fillcolor="#40a0e6"] ;
189 -> 190 ;
191 [label="gini = 0.0\nsamples = 63\nvalue = [0, 3210]\nclass = 3", fillcolor="#399de5"] ;
189 -> 191 ;
192 [label="gini = 0.0\nsamples = 1\nvalue = [70, 0]\nclass = 1", fillcolor="#e58139"] ;
188 -> 192 ;
193 [label="gini = 0.0\nsamples = 8\nvalue = [0, 360]\nclass = 3", fillcolor="#399de5"] ;
185 -> 193 ;
194 [label="TASK_RN <= 0.7\ngini = 0.49\nsamples = 1252\nvalue = [35140, 45990]\nclass = 3", fillcolor="#d0e8f9"] ;
0 -> 194 [labeldistance=2.5, labelangle=-45, headlabel="False"] ;
195 [label="TASK_RN <= 0.5\ngini = 0.24\nsamples = 187\nvalue = [15260, 2520]\nclass = 1", fillcolor="#e9965a"] ;
194 -> 195 ;
196 [label="TASK_I <= 2.5\ngini = 0.09\nsamples = 90\nvalue = [9450, 480]\nclass = 1", fillcolor="#e68743"] ;
195 -> 196 ;
197 [label="TASK_I <= 1.5\ngini = 0.07\nsamples = 79\nvalue = [8610, 300]\nclass = 1", fillcolor="#e68540"] ;
196 -> 197 ;
198 [label="TASK_R <= -0.5\ngini = 0.02\nsamples = 22\nvalue = [2590, 30]\nclass = 1", fillcolor="#e5823b"] ;
197 -> 198 ;
199 [label="TASK_F <= 0.1\ngini = 0.07\nsamples = 8\nvalue = [770, 30]\nclass = 1", fillcolor="#e68641"] ;
198 -> 199 ;
200 [label="TASK_RN <= 0.3\ngini = 0.42\nsamples = 2\nvalue = [70, 30]\nclass = 1", fillcolor="#f0b78e"] ;
199 -> 200 ;
201 [label="gini = 0.0\nsamples = 1\nvalue = [70, 0]\nclass = 1", fillcolor="#e58139"] ;
200 -> 201 ;
202 [label="gini = 0.0\nsamples = 1\nvalue = [0, 30]\nclass = 3", fillcolor="#399de5"] ;
200 -> 202 ;
203 [label="gini = 0.0\nsamples = 6\nvalue = [700, 0]\nclass = 1", fillcolor="#e58139"] ;
199 -> 203 ;
204 [label="gini = 0.0\nsamples = 14\nvalue = [1820, 0]\nclass = 1", fillcolor="#e58139"] ;
198 -> 204 ;
205 [label="TASK_R <= 15.5\ngini = 0.08\nsamples = 57\nvalue = [6020, 270]\nclass = 1", fillcolor="#e68742"] ;
197 -> 205 ;
206 [label="TASK_E <= 2.5\ngini = 0.07\nsamples = 50\nvalue = [5460, 210]\nclass = 1", fillcolor="#e68641"] ;
205 -> 206 ;
207 [label="TASK_F <= 0.9\ngini = 0.03\nsamples = 45\nvalue = [5180, 90]\nclass = 1", fillcolor="#e5833c"] ;
206 -> 207 ;
208 [label="TASK_D <= 1.5\ngini = 0.01\nsamples = 35\nvalue = [4270, 30]\nclass = 1", fillcolor="#e5823a"] ;
207 -> 208 ;
209 [label="gini = 0.0\nsamples = 2\nvalue = [140, 0]\nclass = 1", fillcolor="#e58139"] ;
208 -> 209 ;
210 [label="gini = 0.01\nsamples = 33\nvalue = [4130, 30]\nclass = 1", fillcolor="#e5823a"] ;
208 -> 210 ;
211 [label="TASK_E <= 1.5\ngini = 0.12\nsamples = 10\nvalue = [910, 60]\nclass = 1", fillcolor="#e78946"] ;
207 -> 211 ;
212 [label="gini = 0.11\nsamples = 6\nvalue = [490, 30]\nclass = 1", fillcolor="#e78945"] ;
211 -> 212 ;
213 [label="gini = 0.12\nsamples = 4\nvalue = [420, 30]\nclass = 1", fillcolor="#e78a47"] ;
211 -> 213 ;
214 [label="TASK_RN <= 0.2\ngini = 0.42\nsamples = 5\nvalue = [280, 120]\nclass = 1", fillcolor="#f0b78e"] ;
206 -> 214 ;
215 [label="gini = 0.0\nsamples = 1\nvalue = [210, 0]\nclass = 1", fillcolor="#e58139"] ;
214 -> 215 ;
216 [label="TASK_F <= 0.7\ngini = 0.47\nsamples = 4\nvalue = [70, 120]\nclass = 3", fillcolor="#acd6f4"] ;
214 -> 216 ;
217 [label="gini = 0.42\nsamples = 2\nvalue = [70, 30]\nclass = 1", fillcolor="#f0b78e"] ;
216 -> 217 ;
218 [label="gini = 0.0\nsamples = 2\nvalue = [0, 90]\nclass = 3", fillcolor="#399de5"] ;
216 -> 218 ;
219 [label="TASK_E <= 1.5\ngini = 0.17\nsamples = 7\nvalue = [560, 60]\nclass = 1", fillcolor="#e88e4e"] ;
205 -> 219 ;
220 [label="gini = 0.0\nsamples = 2\nvalue = [140, 0]\nclass = 1", fillcolor="#e58139"] ;
219 -> 220 ;
221 [label="TASK_RN <= 0.3\ngini = 0.22\nsamples = 5\nvalue = [420, 60]\nclass = 1", fillcolor="#e99355"] ;
219 -> 221 ;
222 [label="gini = 0.0\nsamples = 3\nvalue = [350, 0]\nclass = 1", fillcolor="#e58139"] ;
221 -> 222 ;
223 [label="TASK_F <= 0.5\ngini = 0.5\nsamples = 2\nvalue = [70, 60]\nclass = 1", fillcolor="#fbede3"] ;
221 -> 223 ;
224 [label="gini = 0.0\nsamples = 1\nvalue = [70, 0]\nclass = 1", fillcolor="#e58139"] ;
223 -> 224 ;
225 [label="gini = 0.0\nsamples = 1\nvalue = [0, 60]\nclass = 3", fillcolor="#399de5"] ;
223 -> 225 ;
226 [label="TASK_F <= 0.3\ngini = 0.29\nsamples = 11\nvalue = [840, 180]\nclass = 1", fillcolor="#eb9c63"] ;
196 -> 226 ;
227 [label="TASK_E <= 2.5\ngini = 0.07\nsamples = 6\nvalue = [770, 30]\nclass = 1", fillcolor="#e68641"] ;
226 -> 227 ;
228 [label="gini = 0.0\nsamples = 5\nvalue = [770, 0]\nclass = 1", fillcolor="#e58139"] ;
227 -> 228 ;
229 [label="gini = 0.0\nsamples = 1\nvalue = [0, 30]\nclass = 3", fillcolor="#399de5"] ;
227 -> 229 ;
230 [label="TASK_F <= 0.6\ngini = 0.43\nsamples = 5\nvalue = [70, 150]\nclass = 3", fillcolor="#95cbf1"] ;
226 -> 230 ;
231 [label="gini = 0.0\nsamples = 3\nvalue = [0, 120]\nclass = 3", fillcolor="#399de5"] ;
230 -> 231 ;
232 [label="TASK_F <= 0.9\ngini = 0.42\nsamples = 2\nvalue = [70, 30]\nclass = 1", fillcolor="#f0b78e"] ;
230 -> 232 ;
233 [label="gini = 0.0\nsamples = 1\nvalue = [70, 0]\nclass = 1", fillcolor="#e58139"] ;
232 -> 233 ;
234 [label="gini = 0.0\nsamples = 1\nvalue = [0, 30]\nclass = 3", fillcolor="#399de5"] ;
232 -> 234 ;
235 [label="TASK_D <= 2.5\ngini = 0.38\nsamples = 97\nvalue = [5810, 2040]\nclass = 1", fillcolor="#eead7f"] ;
195 -> 235 ;
236 [label="TASK_M <= 1.5\ngini = 0.39\nsamples = 96\nvalue = [5740, 2040]\nclass = 1", fillcolor="#eeae7f"] ;
235 -> 236 ;
237 [label="gini = 0.0\nsamples = 1\nvalue = [70, 0]\nclass = 1", fillcolor="#e58139"] ;
236 -> 237 ;
238 [label="TASK_F <= 0.7\ngini = 0.39\nsamples = 95\nvalue = [5670, 2040]\nclass = 1", fillcolor="#eeae80"] ;
236 -> 238 ;
239 [label="TASK_E <= 2.5\ngini = 0.17\nsamples = 49\nvalue = [4200, 420]\nclass = 1", fillcolor="#e88e4d"] ;
238 -> 239 ;
240 [label="TASK_I <= 2.5\ngini = 0.1\nsamples = 44\nvalue = [4200, 240]\nclass = 1", fillcolor="#e68844"] ;
239 -> 240 ;
241 [label="TASK_R <= 3.5\ngini = 0.08\nsamples = 41\nvalue = [3990, 180]\nclass = 1", fillcolor="#e68742"] ;
240 -> 241 ;
242 [label="gini = 0.11\nsamples = 30\nvalue = [2800, 180]\nclass = 1", fillcolor="#e78946"] ;
241 -> 242 ;
243 [label="gini = 0.0\nsamples = 11\nvalue = [1190, 0]\nclass = 1", fillcolor="#e58139"] ;
241 -> 243 ;
244 [label="TASK_R <= -0.5\ngini = 0.35\nsamples = 3\nvalue = [210, 60]\nclass = 1", fillcolor="#eca572"] ;
240 -> 244 ;
245 [label="gini = 0.0\nsamples = 1\nvalue = [0, 60]\nclass = 3", fillcolor="#399de5"] ;
244 -> 245 ;
246 [label="gini = 0.0\nsamples = 2\nvalue = [210, 0]\nclass = 1", fillcolor="#e58139"] ;
244 -> 246 ;
247 [label="gini = 0.0\nsamples = 5\nvalue = [0, 180]\nclass = 3", fillcolor="#399de5"] ;
239 -> 247 ;
248 [label="TASK_E <= 2.5\ngini = 0.5\nsamples = 46\nvalue = [1470, 1620]\nclass = 3", fillcolor="#edf6fd"] ;
238 -> 248 ;
249 [label="TASK_E <= 1.5\ngini = 0.49\nsamples = 33\nvalue = [1470, 1050]\nclass = 1", fillcolor="#f8dbc6"] ;
248 -> 249 ;
250 [label="TASK_I <= 1.5\ngini = 0.29\nsamples = 6\nvalue = [560, 120]\nclass = 1", fillcolor="#eb9c63"] ;
249 -> 250 ;
251 [label="gini = 0.0\nsamples = 1\nvalue = [70, 0]\nclass = 1", fillcolor="#e58139"] ;
250 -> 251 ;
252 [label="gini = 0.32\nsamples = 5\nvalue = [490, 120]\nclass = 1", fillcolor="#eba069"] ;
250 -> 252 ;
253 [label="TASK_R <= 7.0\ngini = 0.5\nsamples = 27\nvalue = [910, 930]\nclass = 3", fillcolor="#fbfdfe"] ;
249 -> 253 ;
254 [label="gini = 0.47\nsamples = 25\nvalue = [560, 930]\nclass = 3", fillcolor="#b0d8f5"] ;
253 -> 254 ;
255 [label="gini = 0.0\nsamples = 2\nvalue = [350, 0]\nclass = 1", fillcolor="#e58139"] ;
253 -> 255 ;
256 [label="gini = 0.0\nsamples = 13\nvalue = [0, 570]\nclass = 3", fillcolor="#399de5"] ;
248 -> 256 ;
257 [label="gini = 0.0\nsamples = 1\nvalue = [70, 0]\nclass = 1", fillcolor="#e58139"] ;
235 -> 257 ;
258 [label="TASK_F <= 0.9\ngini = 0.43\nsamples = 1065\nvalue = [19880, 43470]\nclass = 3", fillcolor="#94caf1"] ;
194 -> 258 ;
259 [label="TASK_I <= 2.5\ngini = 0.43\nsamples = 311\nvalue = [17500, 7890]\nclass = 1", fillcolor="#f1ba92"] ;
258 -> 259 ;
260 [label="TASK_F <= 0.3\ngini = 0.38\nsamples = 256\nvalue = [16450, 5520]\nclass = 1", fillcolor="#eeab7b"] ;
259 -> 260 ;
261 [label="TASK_D <= 1.5\ngini = 0.34\nsamples = 208\nvalue = [14280, 3960]\nclass = 1", fillcolor="#eca470"] ;
260 -> 261 ;
262 [label="TASK_R <= -0.5\ngini = 0.01\nsamples = 33\nvalue = [4130, 30]\nclass = 1", fillcolor="#e5823a"] ;
261 -> 262 ;
263 [label="TASK_E <= 1.5\ngini = 0.02\nsamples = 19\nvalue = [2450, 30]\nclass = 1", fillcolor="#e5833b"] ;
262 -> 263 ;
264 [label="gini = 0.0\nsamples = 2\nvalue = [280, 0]\nclass = 1", fillcolor="#e58139"] ;
263 -> 264 ;
265 [label="TASK_I <= 1.5\ngini = 0.03\nsamples = 17\nvalue = [2170, 30]\nclass = 1", fillcolor="#e5833c"] ;
263 -> 265 ;
266 [label="gini = 0.0\nsamples = 5\nvalue = [490, 0]\nclass = 1", fillcolor="#e58139"] ;
265 -> 266 ;
267 [label="gini = 0.03\nsamples = 12\nvalue = [1680, 30]\nclass = 1", fillcolor="#e5833d"] ;
265 -> 267 ;
268 [label="gini = 0.0\nsamples = 14\nvalue = [1680, 0]\nclass = 1", fillcolor="#e58139"] ;
262 -> 268 ;
269 [label="TASK_R <= -0.5\ngini = 0.4\nsamples = 175\nvalue = [10150, 3930]\nclass = 1", fillcolor="#efb286"] ;
261 -> 269 ;
270 [label="TASK_RN <= 0.9\ngini = 0.47\nsamples = 99\nvalue = [4620, 2760]\nclass = 1", fillcolor="#f5ccaf"] ;
269 -> 270 ;
271 [label="TASK_N_S <= 0.9\ngini = 0.34\nsamples = 36\nvalue = [2450, 690]\nclass = 1", fillcolor="#eca471"] ;
270 -> 271 ;
272 [label="gini = 0.0\nsamples = 2\nvalue = [210, 0]\nclass = 1", fillcolor="#e58139"] ;
271 -> 272 ;
273 [label="gini = 0.36\nsamples = 34\nvalue = [2240, 690]\nclass = 1", fillcolor="#eda876"] ;
271 -> 273 ;
274 [label="TASK_E <= 2.5\ngini = 0.5\nsamples = 63\nvalue = [2170, 2070]\nclass = 1", fillcolor="#fef9f6"] ;
270 -> 274 ;
275 [label="gini = 0.5\nsamples = 59\nvalue = [2170, 1860]\nclass = 1", fillcolor="#fbede3"] ;
274 -> 275 ;
276 [label="gini = 0.0\nsamples = 4\nvalue = [0, 210]\nclass = 3", fillcolor="#399de5"] ;
274 -> 276 ;
277 [label="TASK_R <= 3.5\ngini = 0.29\nsamples = 76\nvalue = [5530, 1170]\nclass = 1", fillcolor="#eb9c63"] ;
269 -> 277 ;
278 [label="TASK_F <= 0.1\ngini = 0.25\nsamples = 57\nvalue = [4480, 750]\nclass = 1", fillcolor="#e9965a"] ;
277 -> 278 ;
279 [label="gini = 0.28\nsamples = 26\nvalue = [1890, 390]\nclass = 1", fillcolor="#ea9b62"] ;
278 -> 279 ;
280 [label="gini = 0.21\nsamples = 31\nvalue = [2590, 360]\nclass = 1", fillcolor="#e99355"] ;
278 -> 280 ;
281 [label="TASK_R <= 13.5\ngini = 0.41\nsamples = 19\nvalue = [1050, 420]\nclass = 1", fillcolor="#efb388"] ;
277 -> 281 ;
282 [label="gini = 0.49\nsamples = 11\nvalue = [490, 360]\nclass = 1", fillcolor="#f8deca"] ;
281 -> 282 ;
283 [label="gini = 0.17\nsamples = 8\nvalue = [560, 60]\nclass = 1", fillcolor="#e88e4e"] ;
281 -> 283 ;
284 [label="TASK_RN <= 0.9\ngini = 0.49\nsamples = 48\nvalue = [2170, 1560]\nclass = 1", fillcolor="#f8dcc7"] ;
260 -> 284 ;
285 [label="TASK_I <= 1.5\ngini = 0.31\nsamples = 20\nvalue = [210, 870]\nclass = 3", fillcolor="#69b5eb"] ;
284 -> 285 ;
286 [label="gini = 0.0\nsamples = 4\nvalue = [0, 180]\nclass = 3", fillcolor="#399de5"] ;
285 -> 286 ;
287 [label="TASK_E <= 2.5\ngini = 0.36\nsamples = 16\nvalue = [210, 690]\nclass = 3", fillcolor="#75bbed"] ;
285 -> 287 ;
288 [label="TASK_R <= -0.5\ngini = 0.43\nsamples = 11\nvalue = [210, 450]\nclass = 3", fillcolor="#95cbf1"] ;
287 -> 288 ;
289 [label="gini = 0.49\nsamples = 8\nvalue = [210, 150]\nclass = 1", fillcolor="#f8dbc6"] ;
288 -> 289 ;
290 [label="gini = 0.0\nsamples = 3\nvalue = [0, 300]\nclass = 3", fillcolor="#399de5"] ;
288 -> 290 ;
291 [label="gini = 0.0\nsamples = 5\nvalue = [0, 240]\nclass = 3", fillcolor="#399de5"] ;
287 -> 291 ;
292 [label="TASK_F <= 0.6\ngini = 0.39\nsamples = 28\nvalue = [1960, 690]\nclass = 1", fillcolor="#eead7f"] ;
284 -> 292 ;
293 [label="TASK_D <= 1.5\ngini = 0.42\nsamples = 24\nvalue = [1400, 600]\nclass = 1", fillcolor="#f0b78e"] ;
292 -> 293 ;
294 [label="gini = 0.0\nsamples = 1\nvalue = [70, 0]\nclass = 1", fillcolor="#e58139"] ;
293 -> 294 ;
295 [label="TASK_E <= 2.5\ngini = 0.43\nsamples = 23\nvalue = [1330, 600]\nclass = 1", fillcolor="#f1ba92"] ;
293 -> 295 ;
296 [label="gini = 0.38\nsamples = 20\nvalue = [1330, 450]\nclass = 1", fillcolor="#eeac7c"] ;
295 -> 296 ;
297 [label="gini = 0.0\nsamples = 3\nvalue = [0, 150]\nclass = 3", fillcolor="#399de5"] ;
295 -> 297 ;
298 [label="TASK_I <= 1.5\ngini = 0.24\nsamples = 4\nvalue = [560, 90]\nclass = 1", fillcolor="#e99559"] ;
292 -> 298 ;
299 [label="gini = 0.0\nsamples = 1\nvalue = [140, 0]\nclass = 1", fillcolor="#e58139"] ;
298 -> 299 ;
300 [label="TASK_R <= 1.0\ngini = 0.29\nsamples = 3\nvalue = [420, 90]\nclass = 1", fillcolor="#eb9c63"] ;
298 -> 300 ;
301 [label="gini = 0.0\nsamples = 2\nvalue = [420, 0]\nclass = 1", fillcolor="#e58139"] ;
300 -> 301 ;
302 [label="gini = 0.0\nsamples = 1\nvalue = [0, 90]\nclass = 3", fillcolor="#399de5"] ;
300 -> 302 ;
303 [label="TASK_RN <= 0.9\ngini = 0.43\nsamples = 55\nvalue = [1050, 2370]\nclass = 3", fillcolor="#91c8f1"] ;
259 -> 303 ;
304 [label="TASK_E <= 2.5\ngini = 0.49\nsamples = 16\nvalue = [700, 540]\nclass = 1", fillcolor="#f9e2d2"] ;
303 -> 304 ;
305 [label="TASK_R <= 2.0\ngini = 0.42\nsamples = 10\nvalue = [700, 300]\nclass = 1", fillcolor="#f0b78e"] ;
304 -> 305 ;
306 [label="TASK_F <= 0.3\ngini = 0.31\nsamples = 6\nvalue = [70, 300]\nclass = 3", fillcolor="#67b4eb"] ;
305 -> 306 ;
307 [label="TASK_F <= 0.1\ngini = 0.38\nsamples = 5\nvalue = [70, 210]\nclass = 3", fillcolor="#7bbeee"] ;
306 -> 307 ;
308 [label="gini = 0.0\nsamples = 2\nvalue = [0, 60]\nclass = 3", fillcolor="#399de5"] ;
307 -> 308 ;
309 [label="gini = 0.43\nsamples = 3\nvalue = [70, 150]\nclass = 3", fillcolor="#95cbf1"] ;
307 -> 309 ;
310 [label="gini = 0.0\nsamples = 1\nvalue = [0, 90]\nclass = 3", fillcolor="#399de5"] ;
306 -> 310 ;
311 [label="gini = 0.0\nsamples = 4\nvalue = [630, 0]\nclass = 1", fillcolor="#e58139"] ;
305 -> 311 ;
312 [label="gini = 0.0\nsamples = 6\nvalue = [0, 240]\nclass = 3", fillcolor="#399de5"] ;
304 -> 312 ;
313 [label="TASK_E <= 1.5\ngini = 0.27\nsamples = 39\nvalue = [350, 1830]\nclass = 3", fillcolor="#5fb0ea"] ;
303 -> 313 ;
314 [label="gini = 0.0\nsamples = 1\nvalue = [70, 0]\nclass = 1", fillcolor="#e58139"] ;
313 -> 314 ;
315 [label="TASK_E <= 2.5\ngini = 0.23\nsamples = 38\nvalue = [280, 1830]\nclass = 3", fillcolor="#57ace9"] ;
313 -> 315 ;
316 [label="TASK_F <= 0.6\ngini = 0.28\nsamples = 27\nvalue = [280, 1350]\nclass = 3", fillcolor="#62b1ea"] ;
315 -> 316 ;
317 [label="gini = 0.0\nsamples = 26\nvalue = [0, 1350]\nclass = 3", fillcolor="#399de5"] ;
316 -> 317 ;
318 [label="gini = 0.0\nsamples = 1\nvalue = [280, 0]\nclass = 1", fillcolor="#e58139"] ;
316 -> 318 ;
319 [label="gini = 0.0\nsamples = 11\nvalue = [0, 480]\nclass = 3", fillcolor="#399de5"] ;
315 -> 319 ;
320 [label="TASK_E <= 1.5\ngini = 0.12\nsamples = 754\nvalue = [2380, 35580]\nclass = 3", fillcolor="#46a4e7"] ;
258 -> 320 ;
321 [label="TASK_I <= 2.5\ngini = 0.5\nsamples = 32\nvalue = [980, 1080]\nclass = 3", fillcolor="#edf6fd"] ;
320 -> 321 ;
322 [label="TASK_R <= 4.0\ngini = 0.48\nsamples = 27\nvalue = [980, 690]\nclass = 1", fillcolor="#f7dac4"] ;
321 -> 322 ;
323 [label="TASK_I <= 1.5\ngini = 0.48\nsamples = 26\nvalue = [980, 630]\nclass = 1", fillcolor="#f6d2b8"] ;
322 -> 323 ;
324 [label="TASK_RN <= 0.9\ngini = 0.37\nsamples = 6\nvalue = [280, 90]\nclass = 1", fillcolor="#edaa79"] ;
323 -> 324 ;
325 [label="gini = 0.0\nsamples = 1\nvalue = [70, 0]\nclass = 1", fillcolor="#e58139"] ;
324 -> 325 ;
326 [label="TASK_D <= 1.5\ngini = 0.42\nsamples = 5\nvalue = [210, 90]\nclass = 1", fillcolor="#f0b78e"] ;
324 -> 326 ;
327 [label="gini = 0.0\nsamples = 1\nvalue = [70, 0]\nclass = 1", fillcolor="#e58139"] ;
326 -> 327 ;
328 [label="gini = 0.48\nsamples = 4\nvalue = [140, 90]\nclass = 1", fillcolor="#f6d2b8"] ;
326 -> 328 ;
329 [label="TASK_RN <= 0.9\ngini = 0.49\nsamples = 20\nvalue = [700, 540]\nclass = 1", fillcolor="#f9e2d2"] ;
323 -> 329 ;
330 [label="TASK_R <= -0.5\ngini = 0.38\nsamples = 7\nvalue = [70, 210]\nclass = 3", fillcolor="#7bbeee"] ;
329 -> 330 ;
331 [label="gini = 0.0\nsamples = 2\nvalue = [0, 60]\nclass = 3", fillcolor="#399de5"] ;
330 -> 331 ;
332 [label="gini = 0.43\nsamples = 5\nvalue = [70, 150]\nclass = 3", fillcolor="#95cbf1"] ;
330 -> 332 ;
333 [label="TASK_D <= 1.5\ngini = 0.45\nsamples = 13\nvalue = [630, 330]\nclass = 1", fillcolor="#f3c3a1"] ;
329 -> 333 ;
334 [label="gini = 0.0\nsamples = 1\nvalue = [70, 0]\nclass = 1", fillcolor="#e58139"] ;
333 -> 334 ;
335 [label="gini = 0.47\nsamples = 12\nvalue = [560, 330]\nclass = 1", fillcolor="#f4cbae"] ;
333 -> 335 ;
336 [label="gini = 0.0\nsamples = 1\nvalue = [0, 60]\nclass = 3", fillcolor="#399de5"] ;
322 -> 336 ;
337 [label="gini = 0.0\nsamples = 5\nvalue = [0, 390]\nclass = 3", fillcolor="#399de5"] ;
321 -> 337 ;
338 [label="TASK_E <= 2.5\ngini = 0.07\nsamples = 722\nvalue = [1400, 34500]\nclass = 3", fillcolor="#41a1e6"] ;
320 -> 338 ;
339 [label="TASK_N_S <= 0.9\ngini = 0.14\nsamples = 373\nvalue = [1400, 17400]\nclass = 3", fillcolor="#49a5e7"] ;
338 -> 339 ;
340 [label="gini = 0.0\nsamples = 1\nvalue = [140, 0]\nclass = 1", fillcolor="#e58139"] ;
339 -> 340 ;
341 [label="TASK_RN <= 0.9\ngini = 0.13\nsamples = 372\nvalue = [1260, 17400]\nclass = 3", fillcolor="#47a4e7"] ;
339 -> 341 ;
342 [label="TASK_D <= 1.5\ngini = 0.12\nsamples = 127\nvalue = [420, 6300]\nclass = 3", fillcolor="#46a4e7"] ;
341 -> 342 ;
343 [label="gini = 0.0\nsamples = 1\nvalue = [0, 90]\nclass = 3", fillcolor="#399de5"] ;
342 -> 343 ;
344 [label="TASK_M <= 1.5\ngini = 0.12\nsamples = 126\nvalue = [420, 6210]\nclass = 3", fillcolor="#46a4e7"] ;
342 -> 344 ;
345 [label="gini = 0.0\nsamples = 2\nvalue = [0, 90]\nclass = 3", fillcolor="#399de5"] ;
344 -> 345 ;
346 [label="gini = 0.12\nsamples = 124\nvalue = [420, 6120]\nclass = 3", fillcolor="#47a4e7"] ;
344 -> 346 ;
347 [label="TASK_I <= 2.5\ngini = 0.13\nsamples = 245\nvalue = [840, 11100]\nclass = 3", fillcolor="#48a4e7"] ;
341 -> 347 ;
348 [label="TASK_D <= 1.5\ngini = 0.18\nsamples = 176\nvalue = [840, 7680]\nclass = 3", fillcolor="#4fa8e8"] ;
347 -> 348 ;
349 [label="gini = 0.0\nsamples = 3\nvalue = [0, 180]\nclass = 3", fillcolor="#399de5"] ;
348 -> 349 ;
350 [label="gini = 0.18\nsamples = 173\nvalue = [840, 7500]\nclass = 3", fillcolor="#4fa8e8"] ;
348 -> 350 ;
351 [label="gini = 0.0\nsamples = 69\nvalue = [0, 3420]\nclass = 3", fillcolor="#399de5"] ;
347 -> 351 ;
352 [label="gini = 0.0\nsamples = 349\nvalue = [0, 17100]\nclass = 3", fillcolor="#399de5"] ;
338 -> 352 ;
}