digraph Tree {
node [shape=box, style="filled, rounded", color="black", fontname=helvetica] ;
edge [fontname=helvetica] ;
0 [label="TASK_N_S <= 0.9\ngini = 0.32\nsamples = 4310\nvalue = [297710, 75120]\nclass = 1", fillcolor="#eca16b"] ;
1 [label="TASK_R <= 2.5\ngini = 0.06\nsamples = 2031\nvalue = [208040, 7200]\nclass = 1", fillcolor="#e68540"] ;
0 -> 1 [labeldistance=2.5, labelangle=45, headlabel="True"] ;
2 [label="TASK_N_S <= 0.5\ngini = 0.08\nsamples = 1418\nvalue = [141330, 6420]\nclass = 1", fillcolor="#e68742"] ;
1 -> 2 ;
3 [label="TASK_E <= 2.5\ngini = 0.06\nsamples = 1215\nvalue = [124180, 3810]\nclass = 1", fillcolor="#e6853f"] ;
2 -> 3 ;
4 [label="TASK_F <= 0.9\ngini = 0.03\nsamples = 1135\nvalue = [120540, 1560]\nclass = 1", fillcolor="#e5833c"] ;
3 -> 4 ;
5 [label="TASK_RN <= 0.9\ngini = 0.0\nsamples = 1034\nvalue = [113190, 210]\nclass = 1", fillcolor="#e58139"] ;
4 -> 5 ;
6 [label="gini = 0.0\nsamples = 617\nvalue = [67480, 0]\nclass = 1", fillcolor="#e58139"] ;
5 -> 6 ;
7 [label="TASK_I <= 2.5\ngini = 0.01\nsamples = 417\nvalue = [45710, 210]\nclass = 1", fillcolor="#e5823a"] ;
5 -> 7 ;
8 [label="TASK_R <= -0.5\ngini = 0.0\nsamples = 387\nvalue = [43050, 60]\nclass = 1", fillcolor="#e58139"] ;
7 -> 8 ;
9 [label="TASK_D <= 1.5\ngini = 0.01\nsamples = 170\nvalue = [18340, 60]\nclass = 1", fillcolor="#e5813a"] ;
8 -> 9 ;
10 [label="gini = 0.01\nsamples = 89\nvalue = [9940, 60]\nclass = 1", fillcolor="#e5823a"] ;
9 -> 10 ;
11 [label="gini = 0.0\nsamples = 81\nvalue = [8400, 0]\nclass = 1", fillcolor="#e58139"] ;
9 -> 11 ;
12 [label="gini = 0.0\nsamples = 217\nvalue = [24710, 0]\nclass = 1", fillcolor="#e58139"] ;
8 -> 12 ;
13 [label="TASK_N_S <= 0.3\ngini = 0.1\nsamples = 30\nvalue = [2660, 150]\nclass = 1", fillcolor="#e68844"] ;
7 -> 13 ;
14 [label="TASK_D <= 1.5\ngini = 0.02\nsamples = 26\nvalue = [2590, 30]\nclass = 1", fillcolor="#e5823b"] ;
13 -> 14 ;
15 [label="gini = 0.0\nsamples = 14\nvalue = [1540, 0]\nclass = 1", fillcolor="#e58139"] ;
14 -> 15 ;
16 [label="gini = 0.05\nsamples = 12\nvalue = [1050, 30]\nclass = 1", fillcolor="#e6853f"] ;
14 -> 16 ;
17 [label="TASK_R <= -0.5\ngini = 0.47\nsamples = 4\nvalue = [70, 120]\nclass = 3", fillcolor="#acd6f4"] ;
13 -> 17 ;
18 [label="gini = 0.0\nsamples = 3\nvalue = [0, 120]\nclass = 3", fillcolor="#399de5"] ;
17 -> 18 ;
19 [label="gini = 0.0\nsamples = 1\nvalue = [70, 0]\nclass = 1", fillcolor="#e58139"] ;
17 -> 19 ;
20 [label="TASK_E <= 1.5\ngini = 0.26\nsamples = 101\nvalue = [7350, 1350]\nclass = 1", fillcolor="#ea985d"] ;
4 -> 20 ;
21 [label="gini = 0.0\nsamples = 25\nvalue = [2870, 0]\nclass = 1", fillcolor="#e58139"] ;
20 -> 21 ;
22 [label="TASK_N_S <= 0.1\ngini = 0.36\nsamples = 76\nvalue = [4480, 1350]\nclass = 1", fillcolor="#eda775"] ;
20 -> 22 ;
23 [label="TASK_RN <= 0.4\ngini = 0.33\nsamples = 46\nvalue = [2940, 780]\nclass = 1", fillcolor="#eca26e"] ;
22 -> 23 ;
24 [label="gini = 0.0\nsamples = 3\nvalue = [490, 0]\nclass = 1", fillcolor="#e58139"] ;
23 -> 24 ;
25 [label="TASK_R <= -0.5\ngini = 0.37\nsamples = 43\nvalue = [2450, 780]\nclass = 1", fillcolor="#eda978"] ;
23 -> 25 ;
26 [label="gini = 0.45\nsamples = 26\nvalue = [1120, 600]\nclass = 1", fillcolor="#f3c4a3"] ;
25 -> 26 ;
27 [label="gini = 0.21\nsamples = 17\nvalue = [1330, 180]\nclass = 1", fillcolor="#e99254"] ;
25 -> 27 ;
28 [label="TASK_RN <= 0.9\ngini = 0.39\nsamples = 30\nvalue = [1540, 570]\nclass = 1", fillcolor="#efb082"] ;
22 -> 28 ;
29 [label="TASK_I <= 2.5\ngini = 0.17\nsamples = 13\nvalue = [840, 90]\nclass = 1", fillcolor="#e88e4e"] ;
28 -> 29 ;
30 [label="gini = 0.13\nsamples = 11\nvalue = [770, 60]\nclass = 1", fillcolor="#e78b48"] ;
29 -> 30 ;
31 [label="gini = 0.42\nsamples = 2\nvalue = [70, 30]\nclass = 1", fillcolor="#f0b78e"] ;
29 -> 31 ;
32 [label="TASK_N_S <= 0.3\ngini = 0.48\nsamples = 17\nvalue = [700, 480]\nclass = 1", fillcolor="#f7d7c1"] ;
28 -> 32 ;
33 [label="gini = 0.48\nsamples = 5\nvalue = [280, 180]\nclass = 1", fillcolor="#f6d2b8"] ;
32 -> 33 ;
34 [label="gini = 0.49\nsamples = 12\nvalue = [420, 300]\nclass = 1", fillcolor="#f8dbc6"] ;
32 -> 34 ;
35 [label="TASK_R <= -0.5\ngini = 0.47\nsamples = 80\nvalue = [3640, 2250]\nclass = 1", fillcolor="#f5cfb3"] ;
3 -> 35 ;
36 [label="TASK_RN <= 0.7\ngini = 0.32\nsamples = 24\nvalue = [1820, 450]\nclass = 1", fillcolor="#eba06a"] ;
35 -> 36 ;
37 [label="TASK_RN <= 0.5\ngini = 0.09\nsamples = 6\nvalue = [630, 30]\nclass = 1", fillcolor="#e68742"] ;
36 -> 37 ;
38 [label="gini = 0.0\nsamples = 3\nvalue = [350, 0]\nclass = 1", fillcolor="#e58139"] ;
37 -> 38 ;
39 [label="TASK_I <= 2.5\ngini = 0.17\nsamples = 3\nvalue = [280, 30]\nclass = 1", fillcolor="#e88e4e"] ;
37 -> 39 ;
40 [label="gini = 0.0\nsamples = 2\nvalue = [280, 0]\nclass = 1", fillcolor="#e58139"] ;
39 -> 40 ;
41 [label="gini = 0.0\nsamples = 1\nvalue = [0, 30]\nclass = 3", fillcolor="#399de5"] ;
39 -> 41 ;
42 [label="TASK_I <= 1.5\ngini = 0.39\nsamples = 18\nvalue = [1190, 420]\nclass = 1", fillcolor="#eead7f"] ;
36 -> 42 ;
43 [label="TASK_F <= 0.6\ngini = 0.43\nsamples = 3\nvalue = [70, 150]\nclass = 3", fillcolor="#95cbf1"] ;
42 -> 43 ;
44 [label="gini = 0.0\nsamples = 1\nvalue = [70, 0]\nclass = 1", fillcolor="#e58139"] ;
43 -> 44 ;
45 [label="gini = 0.0\nsamples = 2\nvalue = [0, 150]\nclass = 3", fillcolor="#399de5"] ;
43 -> 45 ;
46 [label="TASK_M <= 1.5\ngini = 0.31\nsamples = 15\nvalue = [1120, 270]\nclass = 1", fillcolor="#eb9f69"] ;
42 -> 46 ;
47 [label="gini = 0.0\nsamples = 1\nvalue = [0, 60]\nclass = 3", fillcolor="#399de5"] ;
46 -> 47 ;
48 [label="TASK_RN <= 0.9\ngini = 0.27\nsamples = 14\nvalue = [1120, 210]\nclass = 1", fillcolor="#ea995e"] ;
46 -> 48 ;
49 [label="gini = 0.46\nsamples = 5\nvalue = [210, 120]\nclass = 1", fillcolor="#f4c9aa"] ;
48 -> 49 ;
50 [label="gini = 0.16\nsamples = 9\nvalue = [910, 90]\nclass = 1", fillcolor="#e88d4d"] ;
48 -> 50 ;
51 [label="TASK_RN <= 0.5\ngini = 0.5\nsamples = 56\nvalue = [1820, 1800]\nclass = 1", fillcolor="#fffefd"] ;
35 -> 51 ;
52 [label="TASK_R <= 1.5\ngini = 0.11\nsamples = 6\nvalue = [490, 30]\nclass = 1", fillcolor="#e78945"] ;
51 -> 52 ;
53 [label="gini = 0.0\nsamples = 3\nvalue = [280, 0]\nclass = 1", fillcolor="#e58139"] ;
52 -> 53 ;
54 [label="TASK_N_S <= 0.2\ngini = 0.22\nsamples = 3\nvalue = [210, 30]\nclass = 1", fillcolor="#e99355"] ;
52 -> 54 ;
55 [label="gini = 0.0\nsamples = 2\nvalue = [210, 0]\nclass = 1", fillcolor="#e58139"] ;
54 -> 55 ;
56 [label="gini = 0.0\nsamples = 1\nvalue = [0, 30]\nclass = 3", fillcolor="#399de5"] ;
54 -> 56 ;
57 [label="TASK_F <= 0.3\ngini = 0.49\nsamples = 50\nvalue = [1330, 1770]\nclass = 3", fillcolor="#cee7f9"] ;
51 -> 57 ;
58 [label="gini = 0.0\nsamples = 12\nvalue = [980, 0]\nclass = 1", fillcolor="#e58139"] ;
57 -> 58 ;
59 [label="TASK_I <= 2.5\ngini = 0.28\nsamples = 38\nvalue = [350, 1770]\nclass = 3", fillcolor="#60b0ea"] ;
57 -> 59 ;
60 [label="TASK_D <= 1.5\ngini = 0.32\nsamples = 28\nvalue = [350, 1380]\nclass = 3", fillcolor="#6bb6ec"] ;
59 -> 60 ;
61 [label="gini = 0.0\nsamples = 1\nvalue = [70, 0]\nclass = 1", fillcolor="#e58139"] ;
60 -> 61 ;
62 [label="gini = 0.28\nsamples = 27\nvalue = [280, 1380]\nclass = 3", fillcolor="#61b1ea"] ;
60 -> 62 ;
63 [label="gini = 0.0\nsamples = 10\nvalue = [0, 390]\nclass = 3", fillcolor="#399de5"] ;
59 -> 63 ;
64 [label="TASK_I <= 2.5\ngini = 0.23\nsamples = 203\nvalue = [17150, 2610]\nclass = 1", fillcolor="#e99457"] ;
2 -> 64 ;
65 [label="TASK_E <= 2.5\ngini = 0.19\nsamples = 179\nvalue = [16030, 1950]\nclass = 1", fillcolor="#e89051"] ;
64 -> 65 ;
66 [label="TASK_F <= 0.6\ngini = 0.11\nsamples = 155\nvalue = [15680, 960]\nclass = 1", fillcolor="#e78945"] ;
65 -> 66 ;
67 [label="TASK_D <= 1.5\ngini = 0.03\nsamples = 129\nvalue = [14560, 210]\nclass = 1", fillcolor="#e5833c"] ;
66 -> 67 ;
68 [label="TASK_RN <= 0.7\ngini = 0.06\nsamples = 52\nvalue = [5460, 180]\nclass = 1", fillcolor="#e68540"] ;
67 -> 68 ;
69 [label="gini = 0.0\nsamples = 15\nvalue = [1470, 0]\nclass = 1", fillcolor="#e58139"] ;
68 -> 69 ;
70 [label="TASK_F <= 0.1\ngini = 0.08\nsamples = 37\nvalue = [3990, 180]\nclass = 1", fillcolor="#e68742"] ;
68 -> 70 ;
71 [label="gini = 0.05\nsamples = 29\nvalue = [3220, 90]\nclass = 1", fillcolor="#e6853f"] ;
70 -> 71 ;
72 [label="gini = 0.19\nsamples = 8\nvalue = [770, 90]\nclass = 1", fillcolor="#e89050"] ;
70 -> 72 ;
73 [label="TASK_N_L <= 0.5\ngini = 0.01\nsamples = 77\nvalue = [9100, 30]\nclass = 1", fillcolor="#e5813a"] ;
67 -> 73 ;
74 [label="gini = 0.0\nsamples = 58\nvalue = [7000, 0]\nclass = 1", fillcolor="#e58139"] ;
73 -> 74 ;
75 [label="TASK_N_L <= 0.7\ngini = 0.03\nsamples = 19\nvalue = [2100, 30]\nclass = 1", fillcolor="#e5833c"] ;
73 -> 75 ;
76 [label="gini = 0.08\nsamples = 6\nvalue = [700, 30]\nclass = 1", fillcolor="#e68641"] ;
75 -> 76 ;
77 [label="gini = 0.0\nsamples = 13\nvalue = [1400, 0]\nclass = 1", fillcolor="#e58139"] ;
75 -> 77 ;
78 [label="TASK_RN <= 0.7\ngini = 0.48\nsamples = 26\nvalue = [1120, 750]\nclass = 1", fillcolor="#f6d5be"] ;
66 -> 78 ;
79 [label="gini = 0.0\nsamples = 5\nvalue = [770, 0]\nclass = 1", fillcolor="#e58139"] ;
78 -> 79 ;
80 [label="TASK_N_L <= 0.1\ngini = 0.43\nsamples = 21\nvalue = [350, 750]\nclass = 3", fillcolor="#95cbf1"] ;
78 -> 80 ;
81 [label="TASK_E <= 1.5\ngini = 0.48\nsamples = 15\nvalue = [350, 510]\nclass = 3", fillcolor="#c1e0f7"] ;
80 -> 81 ;
82 [label="gini = 0.0\nsamples = 2\nvalue = [140, 0]\nclass = 1", fillcolor="#e58139"] ;
81 -> 82 ;
83 [label="gini = 0.41\nsamples = 13\nvalue = [210, 510]\nclass = 3", fillcolor="#8bc5f0"] ;
81 -> 83 ;
84 [label="gini = 0.0\nsamples = 6\nvalue = [0, 240]\nclass = 3", fillcolor="#399de5"] ;
80 -> 84 ;
85 [label="TASK_R <= -0.5\ngini = 0.39\nsamples = 24\nvalue = [350, 990]\nclass = 3", fillcolor="#7fc0ee"] ;
65 -> 85 ;
86 [label="TASK_RN <= 0.9\ngini = 0.49\nsamples = 10\nvalue = [350, 270]\nclass = 1", fillcolor="#f9e2d2"] ;
85 -> 86 ;
87 [label="TASK_N_L <= 0.1\ngini = 0.42\nsamples = 4\nvalue = [210, 90]\nclass = 1", fillcolor="#f0b78e"] ;
86 -> 87 ;
88 [label="gini = 0.0\nsamples = 2\nvalue = [0, 90]\nclass = 3", fillcolor="#399de5"] ;
87 -> 88 ;
89 [label="gini = 0.0\nsamples = 2\nvalue = [210, 0]\nclass = 1", fillcolor="#e58139"] ;
87 -> 89 ;
90 [label="TASK_F <= 0.5\ngini = 0.49\nsamples = 6\nvalue = [140, 180]\nclass = 3", fillcolor="#d3e9f9"] ;
86 -> 90 ;
91 [label="gini = 0.0\nsamples = 2\nvalue = [140, 0]\nclass = 1", fillcolor="#e58139"] ;
90 -> 91 ;
92 [label="gini = 0.0\nsamples = 4\nvalue = [0, 180]\nclass = 3", fillcolor="#399de5"] ;
90 -> 92 ;
93 [label="gini = 0.0\nsamples = 14\nvalue = [0, 720]\nclass = 3", fillcolor="#399de5"] ;
85 -> 93 ;
94 [label="TASK_D <= 1.5\ngini = 0.47\nsamples = 24\nvalue = [1120, 660]\nclass = 1", fillcolor="#f4cbae"] ;
64 -> 94 ;
95 [label="gini = 0.0\nsamples = 2\nvalue = [210, 0]\nclass = 1", fillcolor="#e58139"] ;
94 -> 95 ;
96 [label="TASK_F <= 0.6\ngini = 0.49\nsamples = 22\nvalue = [910, 660]\nclass = 1", fillcolor="#f8dcc9"] ;
94 -> 96 ;
97 [label="TASK_N_L <= 0.5\ngini = 0.21\nsamples = 10\nvalue = [910, 120]\nclass = 1", fillcolor="#e89253"] ;
96 -> 97 ;
98 [label="TASK_F <= 0.1\ngini = 0.38\nsamples = 6\nvalue = [350, 120]\nclass = 1", fillcolor="#eeac7d"] ;
97 -> 98 ;
99 [label="TASK_RN <= 0.9\ngini = 0.15\nsamples = 4\nvalue = [350, 30]\nclass = 1", fillcolor="#e78c4a"] ;
98 -> 99 ;
100 [label="gini = 0.29\nsamples = 3\nvalue = [140, 30]\nclass = 1", fillcolor="#eb9c63"] ;
99 -> 100 ;
101 [label="gini = 0.0\nsamples = 1\nvalue = [210, 0]\nclass = 1", fillcolor="#e58139"] ;
99 -> 101 ;
102 [label="gini = 0.0\nsamples = 2\nvalue = [0, 90]\nclass = 3", fillcolor="#399de5"] ;
98 -> 102 ;
103 [label="gini = 0.0\nsamples = 4\nvalue = [560, 0]\nclass = 1", fillcolor="#e58139"] ;
97 -> 103 ;
104 [label="gini = 0.0\nsamples = 12\nvalue = [0, 540]\nclass = 3", fillcolor="#399de5"] ;
96 -> 104 ;
105 [label="TASK_N_S <= 0.1\ngini = 0.02\nsamples = 613\nvalue = [66710, 780]\nclass = 1", fillcolor="#e5823b"] ;
1 -> 105 ;
106 [label="gini = 0.0\nsamples = 434\nvalue = [48300, 0]\nclass = 1", fillcolor="#e58139"] ;
105 -> 106 ;
107 [label="TASK_F <= 0.7\ngini = 0.08\nsamples = 179\nvalue = [18410, 780]\nclass = 1", fillcolor="#e68641"] ;
105 -> 107 ;
108 [label="TASK_N_L <= 0.3\ngini = 0.0\nsamples = 155\nvalue = [17220, 30]\nclass = 1", fillcolor="#e58139"] ;
107 -> 108 ;
109 [label="gini = 0.0\nsamples = 110\nvalue = [12390, 0]\nclass = 1", fillcolor="#e58139"] ;
108 -> 109 ;
110 [label="TASK_R <= 3.5\ngini = 0.01\nsamples = 45\nvalue = [4830, 30]\nclass = 1", fillcolor="#e5823a"] ;
108 -> 110 ;
111 [label="TASK_N_L <= 0.6\ngini = 0.12\nsamples = 7\nvalue = [420, 30]\nclass = 1", fillcolor="#e78a47"] ;
110 -> 111 ;
112 [label="TASK_F <= 0.1\ngini = 0.29\nsamples = 3\nvalue = [140, 30]\nclass = 1", fillcolor="#eb9c63"] ;
111 -> 112 ;
113 [label="gini = 0.0\nsamples = 1\nvalue = [70, 0]\nclass = 1", fillcolor="#e58139"] ;
112 -> 113 ;
114 [label="TASK_F <= 0.3\ngini = 0.42\nsamples = 2\nvalue = [70, 30]\nclass = 1", fillcolor="#f0b78e"] ;
112 -> 114 ;
115 [label="gini = 0.0\nsamples = 1\nvalue = [0, 30]\nclass = 3", fillcolor="#399de5"] ;
114 -> 115 ;
116 [label="gini = 0.0\nsamples = 1\nvalue = [70, 0]\nclass = 1", fillcolor="#e58139"] ;
114 -> 116 ;
117 [label="gini = 0.0\nsamples = 4\nvalue = [280, 0]\nclass = 1", fillcolor="#e58139"] ;
111 -> 117 ;
118 [label="gini = 0.0\nsamples = 38\nvalue = [4410, 0]\nclass = 1", fillcolor="#e58139"] ;
110 -> 118 ;
119 [label="TASK_N_L <= 0.3\ngini = 0.47\nsamples = 24\nvalue = [1190, 750]\nclass = 1", fillcolor="#f5d0b6"] ;
107 -> 119 ;
120 [label="TASK_RN <= 0.4\ngini = 0.27\nsamples = 16\nvalue = [140, 750]\nclass = 3", fillcolor="#5eafea"] ;
119 -> 120 ;
121 [label="gini = 0.0\nsamples = 2\nvalue = [140, 0]\nclass = 1", fillcolor="#e58139"] ;
120 -> 121 ;
122 [label="gini = 0.0\nsamples = 14\nvalue = [0, 750]\nclass = 3", fillcolor="#399de5"] ;
120 -> 122 ;
123 [label="gini = 0.0\nsamples = 8\nvalue = [1050, 0]\nclass = 1", fillcolor="#e58139"] ;
119 -> 123 ;
124 [label="TASK_RN <= 0.7\ngini = 0.49\nsamples = 2279\nvalue = [89670, 67920]\nclass = 1", fillcolor="#f9e0cf"] ;
0 -> 124 [labeldistance=2.5, labelangle=-45, headlabel="False"] ;
125 [label="TASK_F <= 0.9\ngini = 0.18\nsamples = 408\nvalue = [34160, 3840]\nclass = 1", fillcolor="#e88f4f"] ;
124 -> 125 ;
126 [label="TASK_I <= 2.5\ngini = 0.08\nsamples = 304\nvalue = [28770, 1170]\nclass = 1", fillcolor="#e68641"] ;
125 -> 126 ;
127 [label="TASK_F <= 0.3\ngini = 0.05\nsamples = 274\nvalue = [26810, 660]\nclass = 1", fillcolor="#e6843e"] ;
126 -> 127 ;
128 [label="TASK_N_L <= 0.9\ngini = 0.03\nsamples = 238\nvalue = [23730, 360]\nclass = 1", fillcolor="#e5833c"] ;
127 -> 128 ;
129 [label="TASK_R <= 4.5\ngini = 0.01\nsamples = 138\nvalue = [14350, 90]\nclass = 1", fillcolor="#e5823a"] ;
128 -> 129 ;
130 [label="TASK_R <= 1.5\ngini = 0.02\nsamples = 100\nvalue = [10010, 90]\nclass = 1", fillcolor="#e5823b"] ;
129 -> 130 ;
131 [label="TASK_F <= 0.1\ngini = 0.01\nsamples = 85\nvalue = [8540, 30]\nclass = 1", fillcolor="#e5813a"] ;
130 -> 131 ;
132 [label="gini = 0.0\nsamples = 57\nvalue = [5530, 0]\nclass = 1", fillcolor="#e58139"] ;
131 -> 132 ;
133 [label="gini = 0.02\nsamples = 28\nvalue = [3010, 30]\nclass = 1", fillcolor="#e5823b"] ;
131 -> 133 ;
134 [label="TASK_N_L <= 0.1\ngini = 0.08\nsamples = 15\nvalue = [1470, 60]\nclass = 1", fillcolor="#e68641"] ;
130 -> 134 ;
135 [label="gini = 0.15\nsamples = 5\nvalue = [350, 30]\nclass = 1", fillcolor="#e78c4a"] ;
134 -> 135 ;
136 [label="gini = 0.05\nsamples = 10\nvalue = [1120, 30]\nclass = 1", fillcolor="#e6843e"] ;
134 -> 136 ;
137 [label="gini = 0.0\nsamples = 38\nvalue = [4340, 0]\nclass = 1", fillcolor="#e58139"] ;
129 -> 137 ;
138 [label="TASK_E <= 2.5\ngini = 0.05\nsamples = 100\nvalue = [9380, 270]\nclass = 1", fillcolor="#e6853f"] ;
128 -> 138 ;
139 [label="TASK_E <= 1.5\ngini = 0.03\nsamples = 97\nvalue = [9240, 150]\nclass = 1", fillcolor="#e5833c"] ;
138 -> 139 ;
140 [label="gini = 0.0\nsamples = 24\nvalue = [2240, 0]\nclass = 1", fillcolor="#e58139"] ;
139 -> 140 ;
141 [label="TASK_R <= -0.5\ngini = 0.04\nsamples = 73\nvalue = [7000, 150]\nclass = 1", fillcolor="#e6843d"] ;
139 -> 141 ;
142 [label="gini = 0.07\nsamples = 45\nvalue = [4060, 150]\nclass = 1", fillcolor="#e68640"] ;
141 -> 142 ;
143 [label="gini = 0.0\nsamples = 28\nvalue = [2940, 0]\nclass = 1", fillcolor="#e58139"] ;
141 -> 143 ;
144 [label="TASK_I <= 1.5\ngini = 0.5\nsamples = 3\nvalue = [140, 120]\nclass = 1", fillcolor="#fbede3"] ;
138 -> 144 ;
145 [label="gini = 0.0\nsamples = 1\nvalue = [0, 90]\nclass = 3", fillcolor="#399de5"] ;
144 -> 145 ;
146 [label="TASK_RN <= 0.2\ngini = 0.29\nsamples = 2\nvalue = [140, 30]\nclass = 1", fillcolor="#eb9c63"] ;
144 -> 146 ;
147 [label="gini = 0.0\nsamples = 1\nvalue = [140, 0]\nclass = 1", fillcolor="#e58139"] ;
146 -> 147 ;
148 [label="gini = 0.0\nsamples = 1\nvalue = [0, 30]\nclass = 3", fillcolor="#399de5"] ;
146 -> 148 ;
149 [label="TASK_I <= 1.5\ngini = 0.16\nsamples = 36\nvalue = [3080, 300]\nclass = 1", fillcolor="#e88d4c"] ;
127 -> 149 ;
150 [label="TASK_RN <= 0.5\ngini = 0.26\nsamples = 7\nvalue = [490, 90]\nclass = 1", fillcolor="#ea985d"] ;
149 -> 150 ;
151 [label="gini = 0.0\nsamples = 3\nvalue = [210, 0]\nclass = 1", fillcolor="#e58139"] ;
150 -> 151 ;
152 [label="TASK_E <= 2.5\ngini = 0.37\nsamples = 4\nvalue = [280, 90]\nclass = 1", fillcolor="#edaa79"] ;
150 -> 152 ;
153 [label="gini = 0.0\nsamples = 3\nvalue = [280, 0]\nclass = 1", fillcolor="#e58139"] ;
152 -> 153 ;
154 [label="gini = 0.0\nsamples = 1\nvalue = [0, 90]\nclass = 3", fillcolor="#399de5"] ;
152 -> 154 ;
155 [label="TASK_R <= 2.5\ngini = 0.14\nsamples = 29\nvalue = [2590, 210]\nclass = 1", fillcolor="#e78b49"] ;
149 -> 155 ;
156 [label="TASK_R <= 1.5\ngini = 0.21\nsamples = 15\nvalue = [1330, 180]\nclass = 1", fillcolor="#e99254"] ;
155 -> 156 ;
157 [label="TASK_RN <= 0.5\ngini = 0.18\nsamples = 14\nvalue = [1330, 150]\nclass = 1", fillcolor="#e88f4f"] ;
156 -> 157 ;
158 [label="gini = 0.0\nsamples = 4\nvalue = [420, 0]\nclass = 1", fillcolor="#e58139"] ;
157 -> 158 ;
159 [label="gini = 0.24\nsamples = 10\nvalue = [910, 150]\nclass = 1", fillcolor="#e9965a"] ;
157 -> 159 ;
160 [label="gini = 0.0\nsamples = 1\nvalue = [0, 30]\nclass = 3", fillcolor="#399de5"] ;
156 -> 160 ;
161 [label="TASK_E <= 2.5\ngini = 0.05\nsamples = 14\nvalue = [1260, 30]\nclass = 1", fillcolor="#e6843e"] ;
155 -> 161 ;
162 [label="gini = 0.0\nsamples = 11\nvalue = [1050, 0]\nclass = 1", fillcolor="#e58139"] ;
161 -> 162 ;
163 [label="TASK_N_L <= 0.4\ngini = 0.22\nsamples = 3\nvalue = [210, 30]\nclass = 1", fillcolor="#e99355"] ;
161 -> 163 ;
164 [label="gini = 0.0\nsamples = 1\nvalue = [140, 0]\nclass = 1", fillcolor="#e58139"] ;
163 -> 164 ;
165 [label="gini = 0.42\nsamples = 2\nvalue = [70, 30]\nclass = 1", fillcolor="#f0b78e"] ;
163 -> 165 ;
166 [label="TASK_F <= 0.3\ngini = 0.33\nsamples = 30\nvalue = [1960, 510]\nclass = 1", fillcolor="#eca26d"] ;
126 -> 166 ;
167 [label="TASK_E <= 2.5\ngini = 0.25\nsamples = 23\nvalue = [1540, 270]\nclass = 1", fillcolor="#ea975c"] ;
166 -> 167 ;
168 [label="TASK_R <= 0.5\ngini = 0.14\nsamples = 19\nvalue = [1470, 120]\nclass = 1", fillcolor="#e78b49"] ;
167 -> 168 ;
169 [label="TASK_F <= 0.1\ngini = 0.27\nsamples = 10\nvalue = [630, 120]\nclass = 1", fillcolor="#ea995f"] ;
168 -> 169 ;
170 [label="TASK_N_L <= 0.9\ngini = 0.33\nsamples = 7\nvalue = [350, 90]\nclass = 1", fillcolor="#eca16c"] ;
169 -> 170 ;
171 [label="gini = 0.42\nsamples = 5\nvalue = [210, 90]\nclass = 1", fillcolor="#f0b78e"] ;
170 -> 171 ;
172 [label="gini = 0.0\nsamples = 2\nvalue = [140, 0]\nclass = 1", fillcolor="#e58139"] ;
170 -> 172 ;
173 [label="TASK_RN <= 0.5\ngini = 0.17\nsamples = 3\nvalue = [280, 30]\nclass = 1", fillcolor="#e88e4e"] ;
169 -> 173 ;
174 [label="gini = 0.0\nsamples = 2\nvalue = [280, 0]\nclass = 1", fillcolor="#e58139"] ;
173 -> 174 ;
175 [label="gini = 0.0\nsamples = 1\nvalue = [0, 30]\nclass = 3", fillcolor="#399de5"] ;
173 -> 175 ;
176 [label="gini = 0.0\nsamples = 9\nvalue = [840, 0]\nclass = 1", fillcolor="#e58139"] ;
168 -> 176 ;
177 [label="TASK_F <= 0.1\ngini = 0.43\nsamples = 4\nvalue = [70, 150]\nclass = 3", fillcolor="#95cbf1"] ;
167 -> 177 ;
178 [label="TASK_R <= 1.5\ngini = 0.42\nsamples = 2\nvalue = [70, 30]\nclass = 1", fillcolor="#f0b78e"] ;
177 -> 178 ;
179 [label="gini = 0.0\nsamples = 1\nvalue = [0, 30]\nclass = 3", fillcolor="#399de5"] ;
178 -> 179 ;
180 [label="gini = 0.0\nsamples = 1\nvalue = [70, 0]\nclass = 1", fillcolor="#e58139"] ;
178 -> 180 ;
181 [label="gini = 0.0\nsamples = 2\nvalue = [0, 120]\nclass = 3", fillcolor="#399de5"] ;
177 -> 181 ;
182 [label="TASK_R <= 1.0\ngini = 0.46\nsamples = 7\nvalue = [420, 240]\nclass = 1", fillcolor="#f4c9aa"] ;
166 -> 182 ;
183 [label="gini = 0.0\nsamples = 4\nvalue = [0, 210]\nclass = 3", fillcolor="#399de5"] ;
182 -> 183 ;
184 [label="TASK_E <= 2.5\ngini = 0.12\nsamples = 3\nvalue = [420, 30]\nclass = 1", fillcolor="#e78a47"] ;
182 -> 184 ;
185 [label="gini = 0.0\nsamples = 2\nvalue = [420, 0]\nclass = 1", fillcolor="#e58139"] ;
184 -> 185 ;
186 [label="gini = 0.0\nsamples = 1\nvalue = [0, 30]\nclass = 3", fillcolor="#399de5"] ;
184 -> 186 ;
187 [label="TASK_E <= 1.5\ngini = 0.44\nsamples = 104\nvalue = [5390, 2670]\nclass = 1", fillcolor="#f2bf9b"] ;
125 -> 187 ;
188 [label="gini = 0.0\nsamples = 21\nvalue = [2450, 0]\nclass = 1", fillcolor="#e58139"] ;
187 -> 188 ;
189 [label="TASK_D <= 2.5\ngini = 0.5\nsamples = 83\nvalue = [2940, 2670]\nclass = 1", fillcolor="#fdf3ed"] ;
187 -> 189 ;
190 [label="TASK_I <= 1.5\ngini = 0.5\nsamples = 81\nvalue = [2800, 2670]\nclass = 1", fillcolor="#fef9f6"] ;
189 -> 190 ;
191 [label="TASK_N_L <= 0.5\ngini = 0.21\nsamples = 13\nvalue = [910, 120]\nclass = 1", fillcolor="#e89253"] ;
190 -> 191 ;
192 [label="gini = 0.0\nsamples = 3\nvalue = [280, 0]\nclass = 1", fillcolor="#e58139"] ;
191 -> 192 ;
193 [label="TASK_E <= 2.5\ngini = 0.27\nsamples = 10\nvalue = [630, 120]\nclass = 1", fillcolor="#ea995f"] ;
191 -> 193 ;
194 [label="TASK_RN <= 0.5\ngini = 0.09\nsamples = 7\nvalue = [630, 30]\nclass = 1", fillcolor="#e68742"] ;
193 -> 194 ;
195 [label="gini = 0.0\nsamples = 4\nvalue = [420, 0]\nclass = 1", fillcolor="#e58139"] ;
194 -> 195 ;
196 [label="gini = 0.22\nsamples = 3\nvalue = [210, 30]\nclass = 1", fillcolor="#e99355"] ;
194 -> 196 ;
197 [label="gini = 0.0\nsamples = 3\nvalue = [0, 90]\nclass = 3", fillcolor="#399de5"] ;
193 -> 197 ;
198 [label="TASK_E <= 2.5\ngini = 0.49\nsamples = 68\nvalue = [1890, 2550]\nclass = 3", fillcolor="#cce6f8"] ;
190 -> 198 ;
199 [label="TASK_RN <= 0.3\ngini = 0.5\nsamples = 52\nvalue = [1820, 1830]\nclass = 3", fillcolor="#fefeff"] ;
198 -> 199 ;
200 [label="TASK_I <= 2.5\ngini = 0.35\nsamples = 10\nvalue = [840, 240]\nclass = 1", fillcolor="#eca572"] ;
199 -> 200 ;
201 [label="gini = 0.44\nsamples = 7\nvalue = [490, 240]\nclass = 1", fillcolor="#f2bf9a"] ;
200 -> 201 ;
202 [label="gini = 0.0\nsamples = 3\nvalue = [350, 0]\nclass = 1", fillcolor="#e58139"] ;
200 -> 202 ;
203 [label="TASK_N_L <= 0.5\ngini = 0.47\nsamples = 42\nvalue = [980, 1590]\nclass = 3", fillcolor="#b3d9f5"] ;
199 -> 203 ;
204 [label="gini = 0.0\nsamples = 11\nvalue = [0, 630]\nclass = 3", fillcolor="#399de5"] ;
203 -> 204 ;
205 [label="gini = 0.5\nsamples = 31\nvalue = [980, 960]\nclass = 1", fillcolor="#fefcfb"] ;
203 -> 205 ;
206 [label="TASK_RN <= 0.5\ngini = 0.16\nsamples = 16\nvalue = [70, 720]\nclass = 3", fillcolor="#4ca7e8"] ;
198 -> 206 ;
207 [label="TASK_R <= 10.0\ngini = 0.42\nsamples = 2\nvalue = [70, 30]\nclass = 1", fillcolor="#f0b78e"] ;
206 -> 207 ;
208 [label="gini = 0.0\nsamples = 1\nvalue = [0, 30]\nclass = 3", fillcolor="#399de5"] ;
207 -> 208 ;
209 [label="gini = 0.0\nsamples = 1\nvalue = [70, 0]\nclass = 1", fillcolor="#e58139"] ;
207 -> 209 ;
210 [label="gini = 0.0\nsamples = 14\nvalue = [0, 690]\nclass = 3", fillcolor="#399de5"] ;
206 -> 210 ;
211 [label="gini = 0.0\nsamples = 2\nvalue = [140, 0]\nclass = 1", fillcolor="#e58139"] ;
189 -> 211 ;
212 [label="TASK_E <= 2.5\ngini = 0.5\nsamples = 1871\nvalue = [55510, 64080]\nclass = 3", fillcolor="#e5f2fc"] ;
124 -> 212 ;
213 [label="TASK_N_L <= 0.9\ngini = 0.47\nsamples = 1171\nvalue = [53480, 32280]\nclass = 1", fillcolor="#f5cdb1"] ;
212 -> 213 ;
214 [label="TASK_N_L <= 0.7\ngini = 0.33\nsamples = 550\nvalue = [37030, 9750]\nclass = 1", fillcolor="#eca26d"] ;
213 -> 214 ;
215 [label="TASK_D <= 1.5\ngini = 0.29\nsamples = 414\nvalue = [29960, 6480]\nclass = 1", fillcolor="#eb9c64"] ;
214 -> 215 ;
216 [label="gini = 0.0\nsamples = 65\nvalue = [6930, 0]\nclass = 1", fillcolor="#e58139"] ;
215 -> 216 ;
217 [label="TASK_I <= 2.5\ngini = 0.34\nsamples = 349\nvalue = [23030, 6480]\nclass = 1", fillcolor="#eca471"] ;
215 -> 217 ;
218 [label="TASK_F <= 0.9\ngini = 0.27\nsamples = 291\nvalue = [22260, 4290]\nclass = 1", fillcolor="#ea995f"] ;
217 -> 218 ;
219 [label="TASK_RN <= 0.9\ngini = 0.08\nsamples = 192\nvalue = [19740, 900]\nclass = 1", fillcolor="#e68742"] ;
218 -> 219 ;
220 [label="gini = 0.09\nsamples = 75\nvalue = [7840, 390]\nclass = 1", fillcolor="#e68743"] ;
219 -> 220 ;
221 [label="gini = 0.08\nsamples = 117\nvalue = [11900, 510]\nclass = 1", fillcolor="#e68641"] ;
219 -> 221 ;
222 [label="TASK_RN <= 0.9\ngini = 0.49\nsamples = 99\nvalue = [2520, 3390]\nclass = 3", fillcolor="#cce6f8"] ;
218 -> 222 ;
223 [label="gini = 0.38\nsamples = 28\nvalue = [350, 1050]\nclass = 3", fillcolor="#7bbeee"] ;
222 -> 223 ;
224 [label="gini = 0.5\nsamples = 71\nvalue = [2170, 2340]\nclass = 3", fillcolor="#f1f8fd"] ;
222 -> 224 ;
225 [label="TASK_F <= 0.1\ngini = 0.38\nsamples = 58\nvalue = [770, 2190]\nclass = 3", fillcolor="#7fbfee"] ;
217 -> 225 ;
226 [label="TASK_R <= 13.5\ngini = 0.33\nsamples = 6\nvalue = [350, 90]\nclass = 1", fillcolor="#eca16c"] ;
225 -> 226 ;
227 [label="gini = 0.42\nsamples = 4\nvalue = [210, 90]\nclass = 1", fillcolor="#f0b78e"] ;
226 -> 227 ;
228 [label="gini = 0.0\nsamples = 2\nvalue = [140, 0]\nclass = 1", fillcolor="#e58139"] ;
226 -> 228 ;
229 [label="TASK_RN <= 0.9\ngini = 0.28\nsamples = 52\nvalue = [420, 2100]\nclass = 3", fillcolor="#61b1ea"] ;
225 -> 229 ;
230 [label="gini = 0.49\nsamples = 11\nvalue = [280, 360]\nclass = 3", fillcolor="#d3e9f9"] ;
229 -> 230 ;
231 [label="gini = 0.14\nsamples = 41\nvalue = [140, 1740]\nclass = 3", fillcolor="#49a5e7"] ;
229 -> 231 ;
232 [label="TASK_E <= 1.5\ngini = 0.43\nsamples = 136\nvalue = [7070, 3270]\nclass = 1", fillcolor="#f1bb95"] ;
214 -> 232 ;
233 [label="TASK_F <= 0.9\ngini = 0.18\nsamples = 28\nvalue = [1890, 210]\nclass = 1", fillcolor="#e88f4f"] ;
232 -> 233 ;
234 [label="gini = 0.0\nsamples = 21\nvalue = [1680, 0]\nclass = 1", fillcolor="#e58139"] ;
233 -> 234 ;
235 [label="TASK_D <= 1.5\ngini = 0.5\nsamples = 7\nvalue = [210, 210]\nclass = 1", fillcolor="#ffffff"] ;
233 -> 235 ;
236 [label="gini = 0.0\nsamples = 3\nvalue = [210, 0]\nclass = 1", fillcolor="#e58139"] ;
235 -> 236 ;
237 [label="gini = 0.0\nsamples = 4\nvalue = [0, 210]\nclass = 3", fillcolor="#399de5"] ;
235 -> 237 ;
238 [label="TASK_I <= 2.5\ngini = 0.47\nsamples = 108\nvalue = [5180, 3060]\nclass = 1", fillcolor="#f4cbae"] ;
232 -> 238 ;
239 [label="TASK_D <= 1.5\ngini = 0.4\nsamples = 81\nvalue = [4830, 1830]\nclass = 1", fillcolor="#efb184"] ;
238 -> 239 ;
240 [label="TASK_F <= 0.3\ngini = 0.04\nsamples = 15\nvalue = [1400, 30]\nclass = 1", fillcolor="#e6843d"] ;
239 -> 240 ;
241 [label="gini = 0.0\nsamples = 14\nvalue = [1400, 0]\nclass = 1", fillcolor="#e58139"] ;
240 -> 241 ;
242 [label="gini = 0.0\nsamples = 1\nvalue = [0, 30]\nclass = 3", fillcolor="#399de5"] ;
240 -> 242 ;
243 [label="TASK_F <= 0.7\ngini = 0.45\nsamples = 66\nvalue = [3430, 1800]\nclass = 1", fillcolor="#f3c3a1"] ;
239 -> 243 ;
244 [label="gini = 0.21\nsamples = 33\nvalue = [2800, 390]\nclass = 1", fillcolor="#e99355"] ;
243 -> 244 ;
245 [label="gini = 0.43\nsamples = 33\nvalue = [630, 1410]\nclass = 3", fillcolor="#91c9f1"] ;
243 -> 245 ;
246 [label="TASK_RN <= 0.9\ngini = 0.34\nsamples = 27\nvalue = [350, 1230]\nclass = 3", fillcolor="#71b9ec"] ;
238 -> 246 ;
247 [label="TASK_F <= 0.6\ngini = 0.49\nsamples = 11\nvalue = [280, 360]\nclass = 3", fillcolor="#d3e9f9"] ;
246 -> 247 ;
248 [label="gini = 0.29\nsamples = 5\nvalue = [280, 60]\nclass = 1", fillcolor="#eb9c63"] ;
247 -> 248 ;
249 [label="gini = 0.0\nsamples = 6\nvalue = [0, 300]\nclass = 3", fillcolor="#399de5"] ;
247 -> 249 ;
250 [label="TASK_R <= -0.5\ngini = 0.14\nsamples = 16\nvalue = [70, 870]\nclass = 3", fillcolor="#49a5e7"] ;
246 -> 250 ;
251 [label="gini = 0.0\nsamples = 10\nvalue = [0, 570]\nclass = 3", fillcolor="#399de5"] ;
250 -> 251 ;
252 [label="gini = 0.31\nsamples = 6\nvalue = [70, 300]\nclass = 3", fillcolor="#67b4eb"] ;
250 -> 252 ;
253 [label="TASK_E <= 1.5\ngini = 0.49\nsamples = 621\nvalue = [16450, 22530]\nclass = 3", fillcolor="#cae5f8"] ;
213 -> 253 ;
254 [label="TASK_I <= 1.5\ngini = 0.31\nsamples = 82\nvalue = [5880, 1410]\nclass = 1", fillcolor="#eb9f68"] ;
253 -> 254 ;
255 [label="TASK_D <= 1.5\ngini = 0.13\nsamples = 17\nvalue = [1190, 90]\nclass = 1", fillcolor="#e78b48"] ;
254 -> 255 ;
256 [label="gini = 0.0\nsamples = 6\nvalue = [490, 0]\nclass = 1", fillcolor="#e58139"] ;
255 -> 256 ;
257 [label="TASK_RN <= 0.9\ngini = 0.2\nsamples = 11\nvalue = [700, 90]\nclass = 1", fillcolor="#e89152"] ;
255 -> 257 ;
258 [label="gini = 0.0\nsamples = 2\nvalue = [210, 0]\nclass = 1", fillcolor="#e58139"] ;
257 -> 258 ;
259 [label="TASK_R <= -0.5\ngini = 0.26\nsamples = 9\nvalue = [490, 90]\nclass = 1", fillcolor="#ea985d"] ;
257 -> 259 ;
260 [label="gini = 0.0\nsamples = 1\nvalue = [140, 0]\nclass = 1", fillcolor="#e58139"] ;
259 -> 260 ;
261 [label="gini = 0.33\nsamples = 8\nvalue = [350, 90]\nclass = 1", fillcolor="#eca16c"] ;
259 -> 261 ;
262 [label="TASK_F <= 0.7\ngini = 0.34\nsamples = 65\nvalue = [4690, 1320]\nclass = 1", fillcolor="#eca471"] ;
254 -> 262 ;
263 [label="TASK_D <= 1.5\ngini = 0.1\nsamples = 39\nvalue = [3850, 210]\nclass = 1", fillcolor="#e68844"] ;
262 -> 263 ;
264 [label="gini = 0.0\nsamples = 10\nvalue = [1260, 0]\nclass = 1", fillcolor="#e58139"] ;
263 -> 264 ;
265 [label="TASK_R <= -0.5\ngini = 0.14\nsamples = 29\nvalue = [2590, 210]\nclass = 1", fillcolor="#e78b49"] ;
263 -> 265 ;
266 [label="gini = 0.35\nsamples = 4\nvalue = [210, 60]\nclass = 1", fillcolor="#eca572"] ;
265 -> 266 ;
267 [label="gini = 0.11\nsamples = 25\nvalue = [2380, 150]\nclass = 1", fillcolor="#e78945"] ;
265 -> 267 ;
268 [label="TASK_I <= 2.5\ngini = 0.49\nsamples = 26\nvalue = [840, 1110]\nclass = 3", fillcolor="#cfe7f9"] ;
262 -> 268 ;
269 [label="TASK_R <= -0.5\ngini = 0.5\nsamples = 22\nvalue = [840, 960]\nclass = 3", fillcolor="#e6f3fc"] ;
268 -> 269 ;
270 [label="gini = 0.0\nsamples = 6\nvalue = [0, 390]\nclass = 3", fillcolor="#399de5"] ;
269 -> 270 ;
271 [label="gini = 0.48\nsamples = 16\nvalue = [840, 570]\nclass = 1", fillcolor="#f7d7bf"] ;
269 -> 271 ;
272 [label="gini = 0.0\nsamples = 4\nvalue = [0, 150]\nclass = 3", fillcolor="#399de5"] ;
268 -> 272 ;
273 [label="TASK_F <= 0.9\ngini = 0.44\nsamples = 539\nvalue = [10570, 21120]\nclass = 3", fillcolor="#9ccef2"] ;
253 -> 273 ;
274 [label="TASK_D <= 2.5\ngini = 0.45\nsamples = 183\nvalue = [9240, 4800]\nclass = 1", fillcolor="#f3c2a0"] ;
273 -> 274 ;
275 [label="TASK_I <= 2.5\ngini = 0.43\nsamples = 173\nvalue = [9240, 4230]\nclass = 1", fillcolor="#f1bb94"] ;
274 -> 275 ;
276 [label="TASK_D <= 1.5\ngini = 0.4\nsamples = 148\nvalue = [8820, 3300]\nclass = 1", fillcolor="#efb083"] ;
275 -> 276 ;
277 [label="gini = 0.0\nsamples = 18\nvalue = [1750, 0]\nclass = 1", fillcolor="#e58139"] ;
276 -> 277 ;
278 [label="gini = 0.43\nsamples = 130\nvalue = [7070, 3300]\nclass = 1", fillcolor="#f1bc95"] ;
276 -> 278 ;
279 [label="TASK_F <= 0.6\ngini = 0.43\nsamples = 25\nvalue = [420, 930]\nclass = 3", fillcolor="#92c9f1"] ;
275 -> 279 ;
280 [label="gini = 0.4\nsamples = 24\nvalue = [350, 930]\nclass = 3", fillcolor="#84c2ef"] ;
279 -> 280 ;
281 [label="gini = 0.0\nsamples = 1\nvalue = [70, 0]\nclass = 1", fillcolor="#e58139"] ;
279 -> 281 ;
282 [label="gini = 0.0\nsamples = 10\nvalue = [0, 570]\nclass = 3", fillcolor="#399de5"] ;
274 -> 282 ;
283 [label="TASK_I <= 2.5\ngini = 0.14\nsamples = 356\nvalue = [1330, 16320]\nclass = 3", fillcolor="#49a5e7"] ;
273 -> 283 ;
284 [label="TASK_D <= 2.5\ngini = 0.19\nsamples = 251\nvalue = [1330, 11160]\nclass = 3", fillcolor="#51a9e8"] ;
283 -> 284 ;
285 [label="TASK_R <= 9.0\ngini = 0.2\nsamples = 244\nvalue = [1330, 10800]\nclass = 3", fillcolor="#51a9e8"] ;
284 -> 285 ;
286 [label="gini = 0.19\nsamples = 242\nvalue = [1260, 10770]\nclass = 3", fillcolor="#50a8e8"] ;
285 -> 286 ;
287 [label="gini = 0.42\nsamples = 2\nvalue = [70, 30]\nclass = 1", fillcolor="#f0b78e"] ;
285 -> 287 ;
288 [label="gini = 0.0\nsamples = 7\nvalue = [0, 360]\nclass = 3", fillcolor="#399de5"] ;
284 -> 288 ;
289 [label="gini = 0.0\nsamples = 105\nvalue = [0, 5160]\nclass = 3", fillcolor="#399de5"] ;
283 -> 289 ;
290 [label="TASK_R <= 4.5\ngini = 0.11\nsamples = 700\nvalue = [2030, 31800]\nclass = 3", fillcolor="#46a3e7"] ;
212 -> 290 ;
291 [label="TASK_D <= 1.5\ngini = 0.07\nsamples = 661\nvalue = [1190, 30600]\nclass = 3", fillcolor="#41a1e6"] ;
290 -> 291 ;
292 [label="TASK_N_L <= 0.7\ngini = 0.37\nsamples = 6\nvalue = [280, 90]\nclass = 1", fillcolor="#edaa79"] ;
291 -> 292 ;
293 [label="gini = 0.0\nsamples = 3\nvalue = [280, 0]\nclass = 1", fillcolor="#e58139"] ;
292 -> 293 ;
294 [label="gini = 0.0\nsamples = 3\nvalue = [0, 90]\nclass = 3", fillcolor="#399de5"] ;
292 -> 294 ;
295 [label="TASK_R <= 2.5\ngini = 0.06\nsamples = 655\nvalue = [910, 30510]\nclass = 3", fillcolor="#3fa0e6"] ;
291 -> 295 ;
296 [label="TASK_RN <= 0.9\ngini = 0.05\nsamples = 620\nvalue = [770, 28980]\nclass = 3", fillcolor="#3ea0e6"] ;
295 -> 296 ;
297 [label="TASK_F <= 0.1\ngini = 0.07\nsamples = 200\nvalue = [350, 9840]\nclass = 3", fillcolor="#40a0e6"] ;
296 -> 297 ;
298 [label="TASK_N_L <= 0.8\ngini = 0.47\nsamples = 11\nvalue = [280, 480]\nclass = 3", fillcolor="#acd6f4"] ;
297 -> 298 ;
299 [label="gini = 0.17\nsamples = 3\nvalue = [280, 30]\nclass = 1", fillcolor="#e88e4e"] ;
298 -> 299 ;
300 [label="gini = 0.0\nsamples = 8\nvalue = [0, 450]\nclass = 3", fillcolor="#399de5"] ;
298 -> 300 ;
301 [label="TASK_F <= 0.3\ngini = 0.01\nsamples = 189\nvalue = [70, 9360]\nclass = 3", fillcolor="#3a9ee5"] ;
297 -> 301 ;
302 [label="gini = 0.2\nsamples = 12\nvalue = [70, 540]\nclass = 3", fillcolor="#53aae8"] ;
301 -> 302 ;
303 [label="gini = 0.0\nsamples = 177\nvalue = [0, 8820]\nclass = 3", fillcolor="#399de5"] ;
301 -> 303 ;
304 [label="TASK_D <= 2.5\ngini = 0.04\nsamples = 420\nvalue = [420, 19140]\nclass = 3", fillcolor="#3d9fe6"] ;
296 -> 304 ;
305 [label="TASK_I <= 1.5\ngini = 0.04\nsamples = 413\nvalue = [420, 18720]\nclass = 3", fillcolor="#3d9fe6"] ;
304 -> 305 ;
306 [label="gini = 0.0\nsamples = 85\nvalue = [0, 3690]\nclass = 3", fillcolor="#399de5"] ;
305 -> 306 ;
307 [label="gini = 0.05\nsamples = 328\nvalue = [420, 15030]\nclass = 3", fillcolor="#3fa0e6"] ;
305 -> 307 ;
308 [label="gini = 0.0\nsamples = 7\nvalue = [0, 420]\nclass = 3", fillcolor="#399de5"] ;
304 -> 308 ;
309 [label="TASK_F <= 0.1\ngini = 0.15\nsamples = 35\nvalue = [140, 1530]\nclass = 3", fillcolor="#4ba6e7"] ;
295 -> 309 ;
310 [label="gini = 0.0\nsamples = 1\nvalue = [70, 0]\nclass = 1", fillcolor="#e58139"] ;
309 -> 310 ;
311 [label="TASK_N_L <= 0.7\ngini = 0.08\nsamples = 34\nvalue = [70, 1530]\nclass = 3", fillcolor="#42a1e6"] ;
309 -> 311 ;
312 [label="TASK_R <= 3.5\ngini = 0.21\nsamples = 12\nvalue = [70, 510]\nclass = 3", fillcolor="#54aae9"] ;
311 -> 312 ;
313 [label="gini = 0.27\nsamples = 9\nvalue = [70, 360]\nclass = 3", fillcolor="#5fb0ea"] ;
312 -> 313 ;
314 [label="gini = 0.0\nsamples = 3\nvalue = [0, 150]\nclass = 3", fillcolor="#399de5"] ;
312 -> 314 ;
315 [label="gini = 0.0\nsamples = 22\nvalue = [0, 1020]\nclass = 3", fillcolor="#399de5"] ;
311 -> 315 ;
316 [label="TASK_F <= 0.7\ngini = 0.48\nsamples = 39\nvalue = [840, 1200]\nclass = 3", fillcolor="#c4e2f7"] ;
290 -> 316 ;
317 [label="TASK_D <= 1.5\ngini = 0.4\nsamples = 15\nvalue = [700, 270]\nclass = 1", fillcolor="#efb285"] ;
316 -> 317 ;
318 [label="gini = 0.0\nsamples = 2\nvalue = [210, 0]\nclass = 1", fillcolor="#e58139"] ;
317 -> 318 ;
319 [label="TASK_F <= 0.1\ngini = 0.46\nsamples = 13\nvalue = [490, 270]\nclass = 1", fillcolor="#f3c6a6"] ;
317 -> 319 ;
320 [label="TASK_R <= 6.0\ngini = 0.5\nsamples = 5\nvalue = [140, 120]\nclass = 1", fillcolor="#fbede3"] ;
319 -> 320 ;
321 [label="gini = 0.0\nsamples = 2\nvalue = [0, 60]\nclass = 3", fillcolor="#399de5"] ;
320 -> 321 ;
322 [label="TASK_I <= 1.5\ngini = 0.42\nsamples = 3\nvalue = [140, 60]\nclass = 1", fillcolor="#f0b78e"] ;
320 -> 322 ;
323 [label="gini = 0.0\nsamples = 1\nvalue = [70, 0]\nclass = 1", fillcolor="#e58139"] ;
322 -> 323 ;
324 [label="gini = 0.5\nsamples = 2\nvalue = [70, 60]\nclass = 1", fillcolor="#fbede3"] ;
322 -> 324 ;
325 [label="TASK_N_L <= 0.3\ngini = 0.42\nsamples = 8\nvalue = [350, 150]\nclass = 1", fillcolor="#f0b78e"] ;
319 -> 325 ;
326 [label="gini = 0.0\nsamples = 1\nvalue = [0, 60]\nclass = 3", fillcolor="#399de5"] ;
325 -> 326 ;
327 [label="TASK_R <= 7.5\ngini = 0.33\nsamples = 7\nvalue = [350, 90]\nclass = 1", fillcolor="#eca16c"] ;
325 -> 327 ;
328 [label="gini = 0.0\nsamples = 2\nvalue = [210, 0]\nclass = 1", fillcolor="#e58139"] ;
327 -> 328 ;
329 [label="gini = 0.48\nsamples = 5\nvalue = [140, 90]\nclass = 1", fillcolor="#f6d2b8"] ;
327 -> 329 ;
330 [label="TASK_N_L <= 0.7\ngini = 0.23\nsamples = 24\nvalue = [140, 930]\nclass = 3", fillcolor="#57ace9"] ;
316 -> 330 ;
331 [label="TASK_I <= 1.5\ngini = 0.48\nsamples = 7\nvalue = [140, 210]\nclass = 3", fillcolor="#bddef6"] ;
330 -> 331 ;
332 [label="TASK_R <= 25.5\ngini = 0.29\nsamples = 2\nvalue = [140, 30]\nclass = 1", fillcolor="#eb9c63"] ;
331 -> 332 ;
333 [label="gini = 0.0\nsamples = 1\nvalue = [0, 30]\nclass = 3", fillcolor="#399de5"] ;
332 -> 333 ;
334 [label="gini = 0.0\nsamples = 1\nvalue = [140, 0]\nclass = 1", fillcolor="#e58139"] ;
332 -> 334 ;
335 [label="gini = 0.0\nsamples = 5\nvalue = [0, 180]\nclass = 3", fillcolor="#399de5"] ;
331 -> 335 ;
336 [label="gini = 0.0\nsamples = 17\nvalue = [0, 720]\nclass = 3", fillcolor="#399de5"] ;
330 -> 336 ;
}