digraph Tree {
node [shape=box, style="filled, rounded", color="black", fontname=helvetica] ;
edge [fontname=helvetica] ;
0 [label="TASK_F <= 0.9\ngini = 0.32\nsamples = 4247\nvalue = [295890, 75900]\nclass = 1", fillcolor="#eca16c"] ;
1 [label="TASK_E <= 2.5\ngini = 0.09\nsamples = 2734\nvalue = [271530, 14070]\nclass = 1", fillcolor="#e68843"] ;
0 -> 1 [labeldistance=2.5, labelangle=45, headlabel="True"] ;
2 [label="TASK_R <= -0.5\ngini = 0.06\nsamples = 2545\nvalue = [263060, 8970]\nclass = 1", fillcolor="#e68540"] ;
1 -> 2 ;
3 [label="TASK_N_L <= 0.9\ngini = 0.11\nsamples = 978\nvalue = [96950, 6240]\nclass = 1", fillcolor="#e78946"] ;
2 -> 3 ;
4 [label="TASK_F <= 0.3\ngini = 0.05\nsamples = 785\nvalue = [84910, 2430]\nclass = 1", fillcolor="#e6853f"] ;
3 -> 4 ;
5 [label="TASK_N_S <= 0.9\ngini = 0.04\nsamples = 701\nvalue = [76930, 1560]\nclass = 1", fillcolor="#e6843d"] ;
4 -> 5 ;
6 [label="TASK_N_L <= 0.5\ngini = 0.01\nsamples = 491\nvalue = [55790, 150]\nclass = 1", fillcolor="#e5813a"] ;
5 -> 6 ;
7 [label="TASK_F <= 0.1\ngini = 0.0\nsamples = 470\nvalue = [53410, 120]\nclass = 1", fillcolor="#e58139"] ;
6 -> 7 ;
8 [label="TASK_N_S <= 0.7\ngini = 0.0\nsamples = 320\nvalue = [36890, 60]\nclass = 1", fillcolor="#e58139"] ;
7 -> 8 ;
9 [label="gini = 0.0\nsamples = 298\nvalue = [34650, 0]\nclass = 1", fillcolor="#e58139"] ;
8 -> 9 ;
10 [label="gini = 0.05\nsamples = 22\nvalue = [2240, 60]\nclass = 1", fillcolor="#e6843e"] ;
8 -> 10 ;
11 [label="TASK_N_L <= 0.1\ngini = 0.01\nsamples = 150\nvalue = [16520, 60]\nclass = 1", fillcolor="#e5813a"] ;
7 -> 11 ;
12 [label="gini = 0.0\nsamples = 133\nvalue = [14700, 30]\nclass = 1", fillcolor="#e58139"] ;
11 -> 12 ;
13 [label="gini = 0.03\nsamples = 17\nvalue = [1820, 30]\nclass = 1", fillcolor="#e5833c"] ;
11 -> 13 ;
14 [label="TASK_N_L <= 0.7\ngini = 0.02\nsamples = 21\nvalue = [2380, 30]\nclass = 1", fillcolor="#e5833b"] ;
6 -> 14 ;
15 [label="TASK_N_S <= 0.7\ngini = 0.05\nsamples = 10\nvalue = [1190, 30]\nclass = 1", fillcolor="#e6843e"] ;
14 -> 15 ;
16 [label="gini = 0.11\nsamples = 5\nvalue = [490, 30]\nclass = 1", fillcolor="#e78945"] ;
15 -> 16 ;
17 [label="gini = 0.0\nsamples = 5\nvalue = [700, 0]\nclass = 1", fillcolor="#e58139"] ;
15 -> 17 ;
18 [label="gini = 0.0\nsamples = 11\nvalue = [1190, 0]\nclass = 1", fillcolor="#e58139"] ;
14 -> 18 ;
19 [label="TASK_N_L <= 0.1\ngini = 0.12\nsamples = 210\nvalue = [21140, 1410]\nclass = 1", fillcolor="#e78946"] ;
5 -> 19 ;
20 [label="TASK_D <= 1.5\ngini = 0.16\nsamples = 63\nvalue = [6090, 600]\nclass = 1", fillcolor="#e88d4d"] ;
19 -> 20 ;
21 [label="gini = 0.0\nsamples = 8\nvalue = [910, 0]\nclass = 1", fillcolor="#e58139"] ;
20 -> 21 ;
22 [label="TASK_M <= 1.5\ngini = 0.19\nsamples = 55\nvalue = [5180, 600]\nclass = 1", fillcolor="#e89050"] ;
20 -> 22 ;
23 [label="gini = 0.0\nsamples = 1\nvalue = [0, 30]\nclass = 3", fillcolor="#399de5"] ;
22 -> 23 ;
24 [label="gini = 0.18\nsamples = 54\nvalue = [5180, 570]\nclass = 1", fillcolor="#e88f4f"] ;
22 -> 24 ;
25 [label="TASK_F <= 0.1\ngini = 0.1\nsamples = 147\nvalue = [15050, 810]\nclass = 1", fillcolor="#e68844"] ;
19 -> 25 ;
26 [label="TASK_N_L <= 0.7\ngini = 0.05\nsamples = 85\nvalue = [9800, 240]\nclass = 1", fillcolor="#e6843e"] ;
25 -> 26 ;
27 [label="gini = 0.03\nsamples = 61\nvalue = [7070, 120]\nclass = 1", fillcolor="#e5833c"] ;
26 -> 27 ;
28 [label="gini = 0.08\nsamples = 24\nvalue = [2730, 120]\nclass = 1", fillcolor="#e68742"] ;
26 -> 28 ;
29 [label="TASK_D <= 1.5\ngini = 0.18\nsamples = 62\nvalue = [5250, 570]\nclass = 1", fillcolor="#e88f4e"] ;
25 -> 29 ;
30 [label="gini = 0.0\nsamples = 8\nvalue = [980, 0]\nclass = 1", fillcolor="#e58139"] ;
29 -> 30 ;
31 [label="gini = 0.21\nsamples = 54\nvalue = [4270, 570]\nclass = 1", fillcolor="#e89253"] ;
29 -> 31 ;
32 [label="TASK_N_S <= 0.5\ngini = 0.18\nsamples = 84\nvalue = [7980, 870]\nclass = 1", fillcolor="#e88f4f"] ;
4 -> 32 ;
33 [label="TASK_F <= 0.6\ngini = 0.07\nsamples = 58\nvalue = [6020, 210]\nclass = 1", fillcolor="#e68540"] ;
32 -> 33 ;
34 [label="TASK_RN <= 0.9\ngini = 0.03\nsamples = 47\nvalue = [5250, 90]\nclass = 1", fillcolor="#e5833c"] ;
33 -> 34 ;
35 [label="gini = 0.0\nsamples = 24\nvalue = [2870, 0]\nclass = 1", fillcolor="#e58139"] ;
34 -> 35 ;
36 [label="TASK_N_S <= 0.2\ngini = 0.07\nsamples = 23\nvalue = [2380, 90]\nclass = 1", fillcolor="#e68640"] ;
34 -> 36 ;
37 [label="gini = 0.05\nsamples = 19\nvalue = [2170, 60]\nclass = 1", fillcolor="#e6843e"] ;
36 -> 37 ;
38 [label="gini = 0.22\nsamples = 4\nvalue = [210, 30]\nclass = 1", fillcolor="#e99355"] ;
36 -> 38 ;
39 [label="TASK_D <= 1.5\ngini = 0.23\nsamples = 11\nvalue = [770, 120]\nclass = 1", fillcolor="#e99558"] ;
33 -> 39 ;
40 [label="gini = 0.0\nsamples = 2\nvalue = [0, 90]\nclass = 3", fillcolor="#399de5"] ;
39 -> 40 ;
41 [label="TASK_N_S <= 0.3\ngini = 0.07\nsamples = 9\nvalue = [770, 30]\nclass = 1", fillcolor="#e68641"] ;
39 -> 41 ;
42 [label="gini = 0.0\nsamples = 6\nvalue = [560, 0]\nclass = 1", fillcolor="#e58139"] ;
41 -> 42 ;
43 [label="gini = 0.22\nsamples = 3\nvalue = [210, 30]\nclass = 1", fillcolor="#e99355"] ;
41 -> 43 ;
44 [label="TASK_N_S <= 0.9\ngini = 0.38\nsamples = 26\nvalue = [1960, 660]\nclass = 1", fillcolor="#eeab7c"] ;
32 -> 44 ;
45 [label="TASK_D <= 1.5\ngini = 0.45\nsamples = 5\nvalue = [140, 270]\nclass = 3", fillcolor="#a0d0f2"] ;
44 -> 45 ;
46 [label="gini = 0.0\nsamples = 1\nvalue = [70, 0]\nclass = 1", fillcolor="#e58139"] ;
45 -> 46 ;
47 [label="TASK_RN <= 0.9\ngini = 0.33\nsamples = 4\nvalue = [70, 270]\nclass = 3", fillcolor="#6cb6ec"] ;
45 -> 47 ;
48 [label="gini = 0.0\nsamples = 1\nvalue = [0, 120]\nclass = 3", fillcolor="#399de5"] ;
47 -> 48 ;
49 [label="gini = 0.43\nsamples = 3\nvalue = [70, 150]\nclass = 3", fillcolor="#95cbf1"] ;
47 -> 49 ;
50 [label="TASK_D <= 2.5\ngini = 0.29\nsamples = 21\nvalue = [1820, 390]\nclass = 1", fillcolor="#eb9c63"] ;
44 -> 50 ;
51 [label="TASK_N_L <= 0.1\ngini = 0.3\nsamples = 18\nvalue = [1610, 360]\nclass = 1", fillcolor="#eb9d65"] ;
50 -> 51 ;
52 [label="gini = 0.0\nsamples = 8\nvalue = [1050, 0]\nclass = 1", fillcolor="#e58139"] ;
51 -> 52 ;
53 [label="gini = 0.48\nsamples = 10\nvalue = [560, 360]\nclass = 1", fillcolor="#f6d2b8"] ;
51 -> 53 ;
54 [label="TASK_N_L <= 0.3\ngini = 0.22\nsamples = 3\nvalue = [210, 30]\nclass = 1", fillcolor="#e99355"] ;
50 -> 54 ;
55 [label="gini = 0.0\nsamples = 1\nvalue = [0, 30]\nclass = 3", fillcolor="#399de5"] ;
54 -> 55 ;
56 [label="gini = 0.0\nsamples = 2\nvalue = [210, 0]\nclass = 1", fillcolor="#e58139"] ;
54 -> 56 ;
57 [label="TASK_I <= 2.5\ngini = 0.37\nsamples = 193\nvalue = [12040, 3810]\nclass = 1", fillcolor="#eda978"] ;
3 -> 57 ;
58 [label="TASK_D <= 2.5\ngini = 0.31\nsamples = 167\nvalue = [11620, 2730]\nclass = 1", fillcolor="#eb9f68"] ;
57 -> 58 ;
59 [label="TASK_RN <= 0.7\ngini = 0.3\nsamples = 163\nvalue = [11620, 2550]\nclass = 1", fillcolor="#eb9d64"] ;
58 -> 59 ;
60 [label="TASK_D <= 1.5\ngini = 0.13\nsamples = 52\nvalue = [4410, 330]\nclass = 1", fillcolor="#e78a48"] ;
59 -> 60 ;
61 [label="gini = 0.0\nsamples = 2\nvalue = [210, 0]\nclass = 1", fillcolor="#e58139"] ;
60 -> 61 ;
62 [label="TASK_N_S <= 0.9\ngini = 0.14\nsamples = 50\nvalue = [4200, 330]\nclass = 1", fillcolor="#e78b49"] ;
60 -> 62 ;
63 [label="gini = 0.0\nsamples = 1\nvalue = [210, 0]\nclass = 1", fillcolor="#e58139"] ;
62 -> 63 ;
64 [label="gini = 0.14\nsamples = 49\nvalue = [3990, 330]\nclass = 1", fillcolor="#e78b49"] ;
62 -> 64 ;
65 [label="TASK_D <= 1.5\ngini = 0.36\nsamples = 111\nvalue = [7210, 2220]\nclass = 1", fillcolor="#eda876"] ;
59 -> 65 ;
66 [label="TASK_I <= 1.5\ngini = 0.02\nsamples = 26\nvalue = [2590, 30]\nclass = 1", fillcolor="#e5823b"] ;
65 -> 66 ;
67 [label="gini = 0.0\nsamples = 9\nvalue = [840, 0]\nclass = 1", fillcolor="#e58139"] ;
66 -> 67 ;
68 [label="gini = 0.03\nsamples = 17\nvalue = [1750, 30]\nclass = 1", fillcolor="#e5833c"] ;
66 -> 68 ;
69 [label="TASK_I <= 1.5\ngini = 0.44\nsamples = 85\nvalue = [4620, 2190]\nclass = 1", fillcolor="#f1bd97"] ;
65 -> 69 ;
70 [label="gini = 0.33\nsamples = 23\nvalue = [1820, 480]\nclass = 1", fillcolor="#eca26d"] ;
69 -> 70 ;
71 [label="gini = 0.47\nsamples = 62\nvalue = [2800, 1710]\nclass = 1", fillcolor="#f5ceb2"] ;
69 -> 71 ;
72 [label="gini = 0.0\nsamples = 4\nvalue = [0, 180]\nclass = 3", fillcolor="#399de5"] ;
58 -> 72 ;
73 [label="TASK_F <= 0.3\ngini = 0.4\nsamples = 26\nvalue = [420, 1080]\nclass = 3", fillcolor="#86c3ef"] ;
57 -> 73 ;
74 [label="TASK_RN <= 0.5\ngini = 0.45\nsamples = 22\nvalue = [420, 780]\nclass = 3", fillcolor="#a4d2f3"] ;
73 -> 74 ;
75 [label="gini = 0.0\nsamples = 2\nvalue = [140, 0]\nclass = 1", fillcolor="#e58139"] ;
74 -> 75 ;
76 [label="TASK_D <= 1.5\ngini = 0.39\nsamples = 20\nvalue = [280, 780]\nclass = 3", fillcolor="#80c0ee"] ;
74 -> 76 ;
77 [label="gini = 0.0\nsamples = 1\nvalue = [140, 0]\nclass = 1", fillcolor="#e58139"] ;
76 -> 77 ;
78 [label="TASK_D <= 2.5\ngini = 0.26\nsamples = 19\nvalue = [140, 780]\nclass = 3", fillcolor="#5dafea"] ;
76 -> 78 ;
79 [label="gini = 0.32\nsamples = 14\nvalue = [140, 570]\nclass = 3", fillcolor="#6ab5eb"] ;
78 -> 79 ;
80 [label="gini = 0.0\nsamples = 5\nvalue = [0, 210]\nclass = 3", fillcolor="#399de5"] ;
78 -> 80 ;
81 [label="gini = 0.0\nsamples = 4\nvalue = [0, 300]\nclass = 3", fillcolor="#399de5"] ;
73 -> 81 ;
82 [label="TASK_N_S <= 0.9\ngini = 0.03\nsamples = 1567\nvalue = [166110, 2730]\nclass = 1", fillcolor="#e5833c"] ;
2 -> 82 ;
83 [label="TASK_RN <= 0.9\ngini = 0.0\nsamples = 1162\nvalue = [128310, 60]\nclass = 1", fillcolor="#e58139"] ;
82 -> 83 ;
84 [label="gini = 0.0\nsamples = 780\nvalue = [85400, 0]\nclass = 1", fillcolor="#e58139"] ;
83 -> 84 ;
85 [label="TASK_F <= 0.1\ngini = 0.0\nsamples = 382\nvalue = [42910, 60]\nclass = 1", fillcolor="#e58139"] ;
83 -> 85 ;
86 [label="gini = 0.0\nsamples = 238\nvalue = [26740, 0]\nclass = 1", fillcolor="#e58139"] ;
85 -> 86 ;
87 [label="TASK_E <= 1.5\ngini = 0.01\nsamples = 144\nvalue = [16170, 60]\nclass = 1", fillcolor="#e5813a"] ;
85 -> 87 ;
88 [label="gini = 0.0\nsamples = 69\nvalue = [7770, 0]\nclass = 1", fillcolor="#e58139"] ;
87 -> 88 ;
89 [label="TASK_N_S <= 0.5\ngini = 0.01\nsamples = 75\nvalue = [8400, 60]\nclass = 1", fillcolor="#e5823a"] ;
87 -> 89 ;
90 [label="gini = 0.0\nsamples = 64\nvalue = [7350, 0]\nclass = 1", fillcolor="#e58139"] ;
89 -> 90 ;
91 [label="TASK_N_L <= 0.5\ngini = 0.1\nsamples = 11\nvalue = [1050, 60]\nclass = 1", fillcolor="#e68844"] ;
89 -> 91 ;
92 [label="gini = 0.25\nsamples = 5\nvalue = [350, 60]\nclass = 1", fillcolor="#e9975b"] ;
91 -> 92 ;
93 [label="gini = 0.0\nsamples = 6\nvalue = [700, 0]\nclass = 1", fillcolor="#e58139"] ;
91 -> 93 ;
94 [label="TASK_E <= 1.5\ngini = 0.12\nsamples = 405\nvalue = [37800, 2670]\nclass = 1", fillcolor="#e78a47"] ;
82 -> 94 ;
95 [label="TASK_RN <= 0.7\ngini = 0.03\nsamples = 168\nvalue = [17360, 270]\nclass = 1", fillcolor="#e5833c"] ;
94 -> 95 ;
96 [label="gini = 0.0\nsamples = 63\nvalue = [6580, 0]\nclass = 1", fillcolor="#e58139"] ;
95 -> 96 ;
97 [label="TASK_N_L <= 0.9\ngini = 0.05\nsamples = 105\nvalue = [10780, 270]\nclass = 1", fillcolor="#e6843e"] ;
95 -> 97 ;
98 [label="TASK_F <= 0.3\ngini = 0.01\nsamples = 68\nvalue = [7840, 30]\nclass = 1", fillcolor="#e5813a"] ;
97 -> 98 ;
99 [label="gini = 0.0\nsamples = 56\nvalue = [6860, 0]\nclass = 1", fillcolor="#e58139"] ;
98 -> 99 ;
100 [label="TASK_RN <= 0.9\ngini = 0.06\nsamples = 12\nvalue = [980, 30]\nclass = 1", fillcolor="#e6853f"] ;
98 -> 100 ;
101 [label="gini = 0.22\nsamples = 3\nvalue = [210, 30]\nclass = 1", fillcolor="#e99355"] ;
100 -> 101 ;
102 [label="gini = 0.0\nsamples = 9\nvalue = [770, 0]\nclass = 1", fillcolor="#e58139"] ;
100 -> 102 ;
103 [label="TASK_M <= 1.5\ngini = 0.14\nsamples = 37\nvalue = [2940, 240]\nclass = 1", fillcolor="#e78b49"] ;
97 -> 103 ;
104 [label="gini = 0.0\nsamples = 2\nvalue = [210, 0]\nclass = 1", fillcolor="#e58139"] ;
103 -> 104 ;
105 [label="TASK_D <= 1.5\ngini = 0.15\nsamples = 35\nvalue = [2730, 240]\nclass = 1", fillcolor="#e78c4a"] ;
103 -> 105 ;
106 [label="gini = 0.0\nsamples = 6\nvalue = [700, 0]\nclass = 1", fillcolor="#e58139"] ;
105 -> 106 ;
107 [label="gini = 0.19\nsamples = 29\nvalue = [2030, 240]\nclass = 1", fillcolor="#e89050"] ;
105 -> 107 ;
108 [label="TASK_I <= 2.5\ngini = 0.19\nsamples = 237\nvalue = [20440, 2400]\nclass = 1", fillcolor="#e89050"] ;
94 -> 108 ;
109 [label="TASK_N_L <= 0.9\ngini = 0.16\nsamples = 202\nvalue = [18270, 1710]\nclass = 1", fillcolor="#e78d4c"] ;
108 -> 109 ;
110 [label="TASK_F <= 0.1\ngini = 0.1\nsamples = 121\nvalue = [11690, 660]\nclass = 1", fillcolor="#e68844"] ;
109 -> 110 ;
111 [label="TASK_N_L <= 0.5\ngini = 0.02\nsamples = 59\nvalue = [5740, 60]\nclass = 1", fillcolor="#e5823b"] ;
110 -> 111 ;
112 [label="gini = 0.04\nsamples = 37\nvalue = [3220, 60]\nclass = 1", fillcolor="#e5833d"] ;
111 -> 112 ;
113 [label="gini = 0.0\nsamples = 22\nvalue = [2520, 0]\nclass = 1", fillcolor="#e58139"] ;
111 -> 113 ;
114 [label="TASK_R <= 5.5\ngini = 0.17\nsamples = 62\nvalue = [5950, 600]\nclass = 1", fillcolor="#e88e4d"] ;
110 -> 114 ;
115 [label="gini = 0.3\nsamples = 36\nvalue = [2730, 600]\nclass = 1", fillcolor="#eb9d65"] ;
114 -> 115 ;
116 [label="gini = 0.0\nsamples = 26\nvalue = [3220, 0]\nclass = 1", fillcolor="#e58139"] ;
114 -> 116 ;
117 [label="TASK_RN <= 0.9\ngini = 0.24\nsamples = 81\nvalue = [6580, 1050]\nclass = 1", fillcolor="#e99559"] ;
109 -> 117 ;
118 [label="TASK_R <= 5.5\ngini = 0.12\nsamples = 54\nvalue = [5460, 360]\nclass = 1", fillcolor="#e78946"] ;
117 -> 118 ;
119 [label="gini = 0.2\nsamples = 33\nvalue = [2590, 330]\nclass = 1", fillcolor="#e89152"] ;
118 -> 119 ;
120 [label="gini = 0.02\nsamples = 21\nvalue = [2870, 30]\nclass = 1", fillcolor="#e5823b"] ;
118 -> 120 ;
121 [label="TASK_R <= 3.5\ngini = 0.47\nsamples = 27\nvalue = [1120, 690]\nclass = 1", fillcolor="#f5cfb3"] ;
117 -> 121 ;
122 [label="gini = 0.44\nsamples = 19\nvalue = [910, 450]\nclass = 1", fillcolor="#f2bf9b"] ;
121 -> 122 ;
123 [label="gini = 0.5\nsamples = 8\nvalue = [210, 240]\nclass = 3", fillcolor="#e6f3fc"] ;
121 -> 123 ;
124 [label="TASK_F <= 0.1\ngini = 0.37\nsamples = 35\nvalue = [2170, 690]\nclass = 1", fillcolor="#eda978"] ;
108 -> 124 ;
125 [label="TASK_N_L <= 0.5\ngini = 0.14\nsamples = 13\nvalue = [1120, 90]\nclass = 1", fillcolor="#e78b49"] ;
124 -> 125 ;
126 [label="gini = 0.0\nsamples = 5\nvalue = [560, 0]\nclass = 1", fillcolor="#e58139"] ;
125 -> 126 ;
127 [label="TASK_R <= 11.5\ngini = 0.24\nsamples = 8\nvalue = [560, 90]\nclass = 1", fillcolor="#e99559"] ;
125 -> 127 ;
128 [label="gini = 0.37\nsamples = 5\nvalue = [280, 90]\nclass = 1", fillcolor="#edaa79"] ;
127 -> 128 ;
129 [label="gini = 0.0\nsamples = 3\nvalue = [280, 0]\nclass = 1", fillcolor="#e58139"] ;
127 -> 129 ;
130 [label="TASK_R <= 6.0\ngini = 0.46\nsamples = 22\nvalue = [1050, 600]\nclass = 1", fillcolor="#f4c9aa"] ;
124 -> 130 ;
131 [label="TASK_F <= 0.3\ngini = 0.49\nsamples = 14\nvalue = [350, 480]\nclass = 3", fillcolor="#c9e4f8"] ;
130 -> 131 ;
132 [label="gini = 0.47\nsamples = 9\nvalue = [210, 360]\nclass = 3", fillcolor="#acd6f4"] ;
131 -> 132 ;
133 [label="gini = 0.5\nsamples = 5\nvalue = [140, 120]\nclass = 1", fillcolor="#fbede3"] ;
131 -> 133 ;
134 [label="TASK_M <= 2.5\ngini = 0.25\nsamples = 8\nvalue = [700, 120]\nclass = 1", fillcolor="#e9975b"] ;
130 -> 134 ;
135 [label="gini = 0.27\nsamples = 7\nvalue = [630, 120]\nclass = 1", fillcolor="#ea995f"] ;
134 -> 135 ;
136 [label="gini = 0.0\nsamples = 1\nvalue = [70, 0]\nclass = 1", fillcolor="#e58139"] ;
134 -> 136 ;
137 [label="TASK_RN <= 0.7\ngini = 0.47\nsamples = 189\nvalue = [8470, 5100]\nclass = 1", fillcolor="#f5cdb0"] ;
1 -> 137 ;
138 [label="TASK_N_S <= 0.5\ngini = 0.26\nsamples = 30\nvalue = [2170, 390]\nclass = 1", fillcolor="#ea985d"] ;
137 -> 138 ;
139 [label="TASK_N_L <= 0.1\ngini = 0.07\nsamples = 15\nvalue = [1680, 60]\nclass = 1", fillcolor="#e68640"] ;
138 -> 139 ;
140 [label="TASK_N_S <= 0.2\ngini = 0.03\nsamples = 14\nvalue = [1680, 30]\nclass = 1", fillcolor="#e5833d"] ;
139 -> 140 ;
141 [label="TASK_R <= 0.5\ngini = 0.04\nsamples = 13\nvalue = [1540, 30]\nclass = 1", fillcolor="#e6833d"] ;
140 -> 141 ;
142 [label="TASK_F <= 0.3\ngini = 0.11\nsamples = 5\nvalue = [490, 30]\nclass = 1", fillcolor="#e78945"] ;
141 -> 142 ;
143 [label="gini = 0.0\nsamples = 4\nvalue = [490, 0]\nclass = 1", fillcolor="#e58139"] ;
142 -> 143 ;
144 [label="gini = 0.0\nsamples = 1\nvalue = [0, 30]\nclass = 3", fillcolor="#399de5"] ;
142 -> 144 ;
145 [label="gini = 0.0\nsamples = 8\nvalue = [1050, 0]\nclass = 1", fillcolor="#e58139"] ;
141 -> 145 ;
146 [label="gini = 0.0\nsamples = 1\nvalue = [140, 0]\nclass = 1", fillcolor="#e58139"] ;
140 -> 146 ;
147 [label="gini = 0.0\nsamples = 1\nvalue = [0, 30]\nclass = 3", fillcolor="#399de5"] ;
139 -> 147 ;
148 [label="TASK_N_L <= 0.7\ngini = 0.48\nsamples = 15\nvalue = [490, 330]\nclass = 1", fillcolor="#f7d6be"] ;
138 -> 148 ;
149 [label="TASK_N_L <= 0.5\ngini = 0.37\nsamples = 6\nvalue = [280, 90]\nclass = 1", fillcolor="#edaa79"] ;
148 -> 149 ;
150 [label="TASK_N_L <= 0.2\ngini = 0.49\nsamples = 4\nvalue = [70, 90]\nclass = 3", fillcolor="#d3e9f9"] ;
149 -> 150 ;
151 [label="TASK_R <= 1.5\ngini = 0.5\nsamples = 3\nvalue = [70, 60]\nclass = 1", fillcolor="#fbede3"] ;
150 -> 151 ;
152 [label="gini = 0.0\nsamples = 2\nvalue = [0, 60]\nclass = 3", fillcolor="#399de5"] ;
151 -> 152 ;
153 [label="gini = 0.0\nsamples = 1\nvalue = [70, 0]\nclass = 1", fillcolor="#e58139"] ;
151 -> 153 ;
154 [label="gini = 0.0\nsamples = 1\nvalue = [0, 30]\nclass = 3", fillcolor="#399de5"] ;
150 -> 154 ;
155 [label="gini = 0.0\nsamples = 2\nvalue = [210, 0]\nclass = 1", fillcolor="#e58139"] ;
149 -> 155 ;
156 [label="TASK_N_L <= 0.9\ngini = 0.5\nsamples = 9\nvalue = [210, 240]\nclass = 3", fillcolor="#e6f3fc"] ;
148 -> 156 ;
157 [label="gini = 0.0\nsamples = 1\nvalue = [0, 30]\nclass = 3", fillcolor="#399de5"] ;
156 -> 157 ;
158 [label="TASK_R <= 5.0\ngini = 0.5\nsamples = 8\nvalue = [210, 210]\nclass = 1", fillcolor="#ffffff"] ;
156 -> 158 ;
159 [label="TASK_R <= 1.0\ngini = 0.48\nsamples = 7\nvalue = [140, 210]\nclass = 3", fillcolor="#bddef6"] ;
158 -> 159 ;
160 [label="TASK_I <= 2.5\ngini = 0.5\nsamples = 6\nvalue = [140, 150]\nclass = 3", fillcolor="#f2f8fd"] ;
159 -> 160 ;
161 [label="gini = 0.29\nsamples = 3\nvalue = [140, 30]\nclass = 1", fillcolor="#eb9c63"] ;
160 -> 161 ;
162 [label="gini = 0.0\nsamples = 3\nvalue = [0, 120]\nclass = 3", fillcolor="#399de5"] ;
160 -> 162 ;
163 [label="gini = 0.0\nsamples = 1\nvalue = [0, 60]\nclass = 3", fillcolor="#399de5"] ;
159 -> 163 ;
164 [label="gini = 0.0\nsamples = 1\nvalue = [70, 0]\nclass = 1", fillcolor="#e58139"] ;
158 -> 164 ;
165 [label="TASK_N_S <= 0.9\ngini = 0.49\nsamples = 159\nvalue = [6300, 4710]\nclass = 1", fillcolor="#f8dfcd"] ;
137 -> 165 ;
166 [label="TASK_N_L <= 0.1\ngini = 0.07\nsamples = 46\nvalue = [4270, 150]\nclass = 1", fillcolor="#e68540"] ;
165 -> 166 ;
167 [label="TASK_F <= 0.1\ngini = 0.05\nsamples = 34\nvalue = [3360, 90]\nclass = 1", fillcolor="#e6843e"] ;
166 -> 167 ;
168 [label="gini = 0.0\nsamples = 21\nvalue = [2170, 0]\nclass = 1", fillcolor="#e58139"] ;
167 -> 168 ;
169 [label="TASK_R <= 1.0\ngini = 0.13\nsamples = 13\nvalue = [1190, 90]\nclass = 1", fillcolor="#e78b48"] ;
167 -> 169 ;
170 [label="TASK_RN <= 0.9\ngini = 0.37\nsamples = 5\nvalue = [280, 90]\nclass = 1", fillcolor="#edaa79"] ;
169 -> 170 ;
171 [label="gini = 0.0\nsamples = 1\nvalue = [0, 60]\nclass = 3", fillcolor="#399de5"] ;
170 -> 171 ;
172 [label="TASK_N_S <= 0.1\ngini = 0.17\nsamples = 4\nvalue = [280, 30]\nclass = 1", fillcolor="#e88e4e"] ;
170 -> 172 ;
173 [label="gini = 0.0\nsamples = 3\nvalue = [280, 0]\nclass = 1", fillcolor="#e58139"] ;
172 -> 173 ;
174 [label="gini = 0.0\nsamples = 1\nvalue = [0, 30]\nclass = 3", fillcolor="#399de5"] ;
172 -> 174 ;
175 [label="gini = 0.0\nsamples = 8\nvalue = [910, 0]\nclass = 1", fillcolor="#e58139"] ;
169 -> 175 ;
176 [label="TASK_I <= 2.5\ngini = 0.12\nsamples = 12\nvalue = [910, 60]\nclass = 1", fillcolor="#e78946"] ;
166 -> 176 ;
177 [label="gini = 0.0\nsamples = 8\nvalue = [700, 0]\nclass = 1", fillcolor="#e58139"] ;
176 -> 177 ;
178 [label="TASK_N_S <= 0.5\ngini = 0.35\nsamples = 4\nvalue = [210, 60]\nclass = 1", fillcolor="#eca572"] ;
176 -> 178 ;
179 [label="gini = 0.0\nsamples = 1\nvalue = [70, 0]\nclass = 1", fillcolor="#e58139"] ;
178 -> 179 ;
180 [label="TASK_N_L <= 0.5\ngini = 0.42\nsamples = 3\nvalue = [140, 60]\nclass = 1", fillcolor="#f0b78e"] ;
178 -> 180 ;
181 [label="gini = 0.0\nsamples = 2\nvalue = [0, 60]\nclass = 3", fillcolor="#399de5"] ;
180 -> 181 ;
182 [label="gini = 0.0\nsamples = 1\nvalue = [140, 0]\nclass = 1", fillcolor="#e58139"] ;
180 -> 182 ;
183 [label="TASK_D <= 1.5\ngini = 0.43\nsamples = 113\nvalue = [2030, 4560]\nclass = 3", fillcolor="#91c9f1"] ;
165 -> 183 ;
184 [label="gini = 0.0\nsamples = 5\nvalue = [350, 0]\nclass = 1", fillcolor="#e58139"] ;
183 -> 184 ;
185 [label="TASK_R <= 6.0\ngini = 0.39\nsamples = 108\nvalue = [1680, 4560]\nclass = 3", fillcolor="#82c1ef"] ;
183 -> 185 ;
186 [label="TASK_D <= 2.5\ngini = 0.3\nsamples = 99\nvalue = [980, 4320]\nclass = 3", fillcolor="#66b3eb"] ;
185 -> 186 ;
187 [label="TASK_I <= 2.5\ngini = 0.31\nsamples = 95\nvalue = [980, 4170]\nclass = 3", fillcolor="#68b4eb"] ;
186 -> 187 ;
188 [label="TASK_N_L <= 0.1\ngini = 0.38\nsamples = 70\nvalue = [980, 2940]\nclass = 3", fillcolor="#7bbeee"] ;
187 -> 188 ;
189 [label="gini = 0.29\nsamples = 3\nvalue = [140, 30]\nclass = 1", fillcolor="#eb9c63"] ;
188 -> 189 ;
190 [label="gini = 0.35\nsamples = 67\nvalue = [840, 2910]\nclass = 3", fillcolor="#72b9ed"] ;
188 -> 190 ;
191 [label="gini = 0.0\nsamples = 25\nvalue = [0, 1230]\nclass = 3", fillcolor="#399de5"] ;
187 -> 191 ;
192 [label="gini = 0.0\nsamples = 4\nvalue = [0, 150]\nclass = 3", fillcolor="#399de5"] ;
186 -> 192 ;
193 [label="TASK_F <= 0.3\ngini = 0.38\nsamples = 9\nvalue = [700, 240]\nclass = 1", fillcolor="#eeac7d"] ;
185 -> 193 ;
194 [label="TASK_N_L <= 0.9\ngini = 0.29\nsamples = 6\nvalue = [560, 120]\nclass = 1", fillcolor="#eb9c63"] ;
193 -> 194 ;
195 [label="gini = 0.0\nsamples = 1\nvalue = [0, 60]\nclass = 3", fillcolor="#399de5"] ;
194 -> 195 ;
196 [label="TASK_RN <= 0.9\ngini = 0.17\nsamples = 5\nvalue = [560, 60]\nclass = 1", fillcolor="#e88e4e"] ;
194 -> 196 ;
197 [label="gini = 0.0\nsamples = 2\nvalue = [280, 0]\nclass = 1", fillcolor="#e58139"] ;
196 -> 197 ;
198 [label="gini = 0.29\nsamples = 3\nvalue = [280, 60]\nclass = 1", fillcolor="#eb9c63"] ;
196 -> 198 ;
199 [label="TASK_RN <= 0.9\ngini = 0.5\nsamples = 3\nvalue = [140, 120]\nclass = 1", fillcolor="#fbede3"] ;
193 -> 199 ;
200 [label="gini = 0.0\nsamples = 1\nvalue = [0, 60]\nclass = 3", fillcolor="#399de5"] ;
199 -> 200 ;
201 [label="TASK_N_L <= 0.7\ngini = 0.42\nsamples = 2\nvalue = [140, 60]\nclass = 1", fillcolor="#f0b78e"] ;
199 -> 201 ;
202 [label="gini = 0.0\nsamples = 1\nvalue = [140, 0]\nclass = 1", fillcolor="#e58139"] ;
201 -> 202 ;
203 [label="gini = 0.0\nsamples = 1\nvalue = [0, 60]\nclass = 3", fillcolor="#399de5"] ;
201 -> 203 ;
204 [label="TASK_E <= 2.5\ngini = 0.41\nsamples = 1513\nvalue = [24360, 61830]\nclass = 3", fillcolor="#87c4ef"] ;
0 -> 204 [labeldistance=2.5, labelangle=-45, headlabel="False"] ;
205 [label="TASK_N_L <= 0.9\ngini = 0.49\nsamples = 841\nvalue = [23450, 30060]\nclass = 3", fillcolor="#d3e9f9"] ;
204 -> 205 ;
206 [label="TASK_R <= -0.5\ngini = 0.47\nsamples = 400\nvalue = [18270, 11280]\nclass = 1", fillcolor="#f5cfb3"] ;
205 -> 206 ;
207 [label="TASK_N_S <= 0.5\ngini = 0.5\nsamples = 187\nvalue = [6230, 6270]\nclass = 3", fillcolor="#fefeff"] ;
206 -> 207 ;
208 [label="TASK_I <= 2.5\ngini = 0.35\nsamples = 47\nvalue = [3010, 870]\nclass = 1", fillcolor="#eda572"] ;
207 -> 208 ;
209 [label="TASK_N_L <= 0.3\ngini = 0.28\nsamples = 39\nvalue = [2800, 570]\nclass = 1", fillcolor="#ea9b61"] ;
208 -> 209 ;
210 [label="TASK_E <= 1.5\ngini = 0.32\nsamples = 35\nvalue = [2240, 570]\nclass = 1", fillcolor="#eca16b"] ;
209 -> 210 ;
211 [label="gini = 0.0\nsamples = 6\nvalue = [490, 0]\nclass = 1", fillcolor="#e58139"] ;
210 -> 211 ;
212 [label="TASK_N_S <= 0.1\ngini = 0.37\nsamples = 29\nvalue = [1750, 570]\nclass = 1", fillcolor="#edaa79"] ;
210 -> 212 ;
213 [label="gini = 0.34\nsamples = 20\nvalue = [1330, 360]\nclass = 1", fillcolor="#eca36f"] ;
212 -> 213 ;
214 [label="gini = 0.44\nsamples = 9\nvalue = [420, 210]\nclass = 1", fillcolor="#f2c09c"] ;
212 -> 214 ;
215 [label="gini = 0.0\nsamples = 4\nvalue = [560, 0]\nclass = 1", fillcolor="#e58139"] ;
209 -> 215 ;
216 [label="TASK_N_S <= 0.1\ngini = 0.48\nsamples = 8\nvalue = [210, 300]\nclass = 3", fillcolor="#c4e2f7"] ;
208 -> 216 ;
217 [label="TASK_RN <= 0.9\ngini = 0.46\nsamples = 5\nvalue = [210, 120]\nclass = 1", fillcolor="#f4c9aa"] ;
216 -> 217 ;
218 [label="gini = 0.0\nsamples = 2\nvalue = [210, 0]\nclass = 1", fillcolor="#e58139"] ;
217 -> 218 ;
219 [label="gini = 0.0\nsamples = 3\nvalue = [0, 120]\nclass = 3", fillcolor="#399de5"] ;
217 -> 219 ;
220 [label="gini = 0.0\nsamples = 3\nvalue = [0, 180]\nclass = 3", fillcolor="#399de5"] ;
216 -> 220 ;
221 [label="TASK_D <= 1.5\ngini = 0.47\nsamples = 140\nvalue = [3220, 5400]\nclass = 3", fillcolor="#afd7f5"] ;
207 -> 221 ;
222 [label="TASK_E <= 1.5\ngini = 0.42\nsamples = 3\nvalue = [210, 90]\nclass = 1", fillcolor="#f0b78e"] ;
221 -> 222 ;
223 [label="TASK_I <= 1.5\ngini = 0.49\nsamples = 2\nvalue = [70, 90]\nclass = 3", fillcolor="#d3e9f9"] ;
222 -> 223 ;
224 [label="gini = 0.0\nsamples = 1\nvalue = [70, 0]\nclass = 1", fillcolor="#e58139"] ;
223 -> 224 ;
225 [label="gini = 0.0\nsamples = 1\nvalue = [0, 90]\nclass = 3", fillcolor="#399de5"] ;
223 -> 225 ;
226 [label="gini = 0.0\nsamples = 1\nvalue = [140, 0]\nclass = 1", fillcolor="#e58139"] ;
222 -> 226 ;
227 [label="TASK_N_S <= 0.7\ngini = 0.46\nsamples = 137\nvalue = [3010, 5310]\nclass = 3", fillcolor="#a9d5f4"] ;
221 -> 227 ;
228 [label="TASK_RN <= 0.9\ngini = 0.42\nsamples = 12\nvalue = [210, 480]\nclass = 3", fillcolor="#90c8f0"] ;
227 -> 228 ;
229 [label="TASK_D <= 2.5\ngini = 0.46\nsamples = 5\nvalue = [210, 120]\nclass = 1", fillcolor="#f4c9aa"] ;
228 -> 229 ;
230 [label="gini = 0.42\nsamples = 4\nvalue = [210, 90]\nclass = 1", fillcolor="#f0b78e"] ;
229 -> 230 ;
231 [label="gini = 0.0\nsamples = 1\nvalue = [0, 30]\nclass = 3", fillcolor="#399de5"] ;
229 -> 231 ;
232 [label="gini = 0.0\nsamples = 7\nvalue = [0, 360]\nclass = 3", fillcolor="#399de5"] ;
228 -> 232 ;
233 [label="TASK_I <= 1.5\ngini = 0.46\nsamples = 125\nvalue = [2800, 4830]\nclass = 3", fillcolor="#acd6f4"] ;
227 -> 233 ;
234 [label="TASK_N_S <= 0.9\ngini = 0.42\nsamples = 16\nvalue = [910, 390]\nclass = 1", fillcolor="#f0b78e"] ;
233 -> 234 ;
235 [label="gini = 0.0\nsamples = 1\nvalue = [70, 0]\nclass = 1", fillcolor="#e58139"] ;
234 -> 235 ;
236 [label="gini = 0.43\nsamples = 15\nvalue = [840, 390]\nclass = 1", fillcolor="#f1bc95"] ;
234 -> 236 ;
237 [label="TASK_N_S <= 0.9\ngini = 0.42\nsamples = 109\nvalue = [1890, 4440]\nclass = 3", fillcolor="#8dc7f0"] ;
233 -> 237 ;
238 [label="gini = 0.42\nsamples = 9\nvalue = [140, 330]\nclass = 3", fillcolor="#8dc7f0"] ;
237 -> 238 ;
239 [label="gini = 0.42\nsamples = 100\nvalue = [1750, 4110]\nclass = 3", fillcolor="#8dc7f0"] ;
237 -> 239 ;
240 [label="TASK_E <= 1.5\ngini = 0.41\nsamples = 213\nvalue = [12040, 5010]\nclass = 1", fillcolor="#f0b58b"] ;
206 -> 240 ;
241 [label="TASK_N_S <= 0.5\ngini = 0.19\nsamples = 60\nvalue = [4970, 600]\nclass = 1", fillcolor="#e89051"] ;
240 -> 241 ;
242 [label="gini = 0.0\nsamples = 30\nvalue = [3150, 0]\nclass = 1", fillcolor="#e58139"] ;
241 -> 242 ;
243 [label="TASK_RN <= 0.7\ngini = 0.37\nsamples = 30\nvalue = [1820, 600]\nclass = 1", fillcolor="#eeab7a"] ;
241 -> 243 ;
244 [label="gini = 0.0\nsamples = 5\nvalue = [490, 0]\nclass = 1", fillcolor="#e58139"] ;
243 -> 244 ;
245 [label="TASK_RN <= 0.9\ngini = 0.43\nsamples = 25\nvalue = [1330, 600]\nclass = 1", fillcolor="#f1ba92"] ;
243 -> 245 ;
246 [label="TASK_N_L <= 0.2\ngini = 0.5\nsamples = 6\nvalue = [140, 150]\nclass = 3", fillcolor="#f2f8fd"] ;
245 -> 246 ;
247 [label="gini = 0.0\nsamples = 1\nvalue = [70, 0]\nclass = 1", fillcolor="#e58139"] ;
246 -> 247 ;
248 [label="gini = 0.43\nsamples = 5\nvalue = [70, 150]\nclass = 3", fillcolor="#95cbf1"] ;
246 -> 248 ;
249 [label="TASK_D <= 1.5\ngini = 0.4\nsamples = 19\nvalue = [1190, 450]\nclass = 1", fillcolor="#efb184"] ;
245 -> 249 ;
250 [label="gini = 0.19\nsamples = 5\nvalue = [490, 60]\nclass = 1", fillcolor="#e89051"] ;
249 -> 250 ;
251 [label="gini = 0.46\nsamples = 14\nvalue = [700, 390]\nclass = 1", fillcolor="#f3c7a7"] ;
249 -> 251 ;
252 [label="TASK_N_S <= 0.9\ngini = 0.47\nsamples = 153\nvalue = [7070, 4410]\nclass = 1", fillcolor="#f5d0b5"] ;
240 -> 252 ;
253 [label="TASK_R <= 4.5\ngini = 0.29\nsamples = 61\nvalue = [4760, 990]\nclass = 1", fillcolor="#ea9b62"] ;
252 -> 253 ;
254 [label="TASK_RN <= 0.5\ngini = 0.36\nsamples = 37\nvalue = [2590, 810]\nclass = 1", fillcolor="#eda877"] ;
253 -> 254 ;
255 [label="gini = 0.0\nsamples = 2\nvalue = [280, 0]\nclass = 1", fillcolor="#e58139"] ;
254 -> 255 ;
256 [label="TASK_N_S <= 0.3\ngini = 0.38\nsamples = 35\nvalue = [2310, 810]\nclass = 1", fillcolor="#eead7e"] ;
254 -> 256 ;
257 [label="gini = 0.11\nsamples = 14\nvalue = [1400, 90]\nclass = 1", fillcolor="#e78946"] ;
256 -> 257 ;
258 [label="gini = 0.49\nsamples = 21\nvalue = [910, 720]\nclass = 1", fillcolor="#fae5d6"] ;
256 -> 258 ;
259 [label="TASK_N_S <= 0.1\ngini = 0.14\nsamples = 24\nvalue = [2170, 180]\nclass = 1", fillcolor="#e78b49"] ;
253 -> 259 ;
260 [label="gini = 0.0\nsamples = 12\nvalue = [1260, 0]\nclass = 1", fillcolor="#e58139"] ;
259 -> 260 ;
261 [label="TASK_R <= 111.5\ngini = 0.28\nsamples = 12\nvalue = [910, 180]\nclass = 1", fillcolor="#ea9a60"] ;
259 -> 261 ;
262 [label="gini = 0.24\nsamples = 11\nvalue = [910, 150]\nclass = 1", fillcolor="#e9965a"] ;
261 -> 262 ;
263 [label="gini = 0.0\nsamples = 1\nvalue = [0, 30]\nclass = 3", fillcolor="#399de5"] ;
261 -> 263 ;
264 [label="TASK_RN <= 0.3\ngini = 0.48\nsamples = 92\nvalue = [2310, 3420]\nclass = 3", fillcolor="#bfdff7"] ;
252 -> 264 ;
265 [label="TASK_N_L <= 0.5\ngini = 0.19\nsamples = 5\nvalue = [490, 60]\nclass = 1", fillcolor="#e89051"] ;
264 -> 265 ;
266 [label="gini = 0.0\nsamples = 2\nvalue = [350, 0]\nclass = 1", fillcolor="#e58139"] ;
265 -> 266 ;
267 [label="TASK_N_L <= 0.7\ngini = 0.42\nsamples = 3\nvalue = [140, 60]\nclass = 1", fillcolor="#f0b78e"] ;
265 -> 267 ;
268 [label="gini = 0.0\nsamples = 1\nvalue = [0, 60]\nclass = 3", fillcolor="#399de5"] ;
267 -> 268 ;
269 [label="gini = 0.0\nsamples = 2\nvalue = [140, 0]\nclass = 1", fillcolor="#e58139"] ;
267 -> 269 ;
270 [label="TASK_R <= 49.0\ngini = 0.46\nsamples = 87\nvalue = [1820, 3360]\nclass = 3", fillcolor="#a4d2f3"] ;
264 -> 270 ;
271 [label="TASK_I <= 1.5\ngini = 0.44\nsamples = 85\nvalue = [1680, 3360]\nclass = 3", fillcolor="#9ccef2"] ;
270 -> 271 ;
272 [label="gini = 0.34\nsamples = 11\nvalue = [770, 210]\nclass = 1", fillcolor="#eca36f"] ;
271 -> 272 ;
273 [label="gini = 0.35\nsamples = 74\nvalue = [910, 3150]\nclass = 3", fillcolor="#72b9ed"] ;
271 -> 273 ;
274 [label="gini = 0.0\nsamples = 2\nvalue = [140, 0]\nclass = 1", fillcolor="#e58139"] ;
270 -> 274 ;
275 [label="TASK_E <= 1.5\ngini = 0.34\nsamples = 441\nvalue = [5180, 18780]\nclass = 3", fillcolor="#70b8ec"] ;
205 -> 275 ;
276 [label="TASK_RN <= 0.7\ngini = 0.46\nsamples = 57\nvalue = [2800, 1560]\nclass = 1", fillcolor="#f3c7a7"] ;
275 -> 276 ;
277 [label="TASK_I <= 1.5\ngini = 0.23\nsamples = 16\nvalue = [1750, 270]\nclass = 1", fillcolor="#e99458"] ;
276 -> 277 ;
278 [label="gini = 0.0\nsamples = 4\nvalue = [490, 0]\nclass = 1", fillcolor="#e58139"] ;
277 -> 278 ;
279 [label="TASK_I <= 2.5\ngini = 0.29\nsamples = 12\nvalue = [1260, 270]\nclass = 1", fillcolor="#eb9c63"] ;
277 -> 279 ;
280 [label="TASK_R <= 5.0\ngini = 0.3\nsamples = 11\nvalue = [1190, 270]\nclass = 1", fillcolor="#eb9e66"] ;
279 -> 280 ;
281 [label="TASK_R <= 1.5\ngini = 0.25\nsamples = 8\nvalue = [1050, 180]\nclass = 1", fillcolor="#e9975b"] ;
280 -> 281 ;
282 [label="gini = 0.29\nsamples = 6\nvalue = [840, 180]\nclass = 1", fillcolor="#eb9c63"] ;
281 -> 282 ;
283 [label="gini = 0.0\nsamples = 2\nvalue = [210, 0]\nclass = 1", fillcolor="#e58139"] ;
281 -> 283 ;
284 [label="TASK_RN <= 0.4\ngini = 0.48\nsamples = 3\nvalue = [140, 90]\nclass = 1", fillcolor="#f6d2b8"] ;
280 -> 284 ;
285 [label="gini = 0.0\nsamples = 2\nvalue = [140, 0]\nclass = 1", fillcolor="#e58139"] ;
284 -> 285 ;
286 [label="gini = 0.0\nsamples = 1\nvalue = [0, 90]\nclass = 3", fillcolor="#399de5"] ;
284 -> 286 ;
287 [label="gini = 0.0\nsamples = 1\nvalue = [70, 0]\nclass = 1", fillcolor="#e58139"] ;
279 -> 287 ;
288 [label="TASK_I <= 2.5\ngini = 0.49\nsamples = 41\nvalue = [1050, 1290]\nclass = 3", fillcolor="#daedfa"] ;
276 -> 288 ;
289 [label="TASK_I <= 1.5\ngini = 0.5\nsamples = 37\nvalue = [1050, 1080]\nclass = 3", fillcolor="#fafcfe"] ;
288 -> 289 ;
290 [label="TASK_D <= 1.5\ngini = 0.45\nsamples = 9\nvalue = [350, 180]\nclass = 1", fillcolor="#f2c29f"] ;
289 -> 290 ;
291 [label="gini = 0.0\nsamples = 1\nvalue = [70, 0]\nclass = 1", fillcolor="#e58139"] ;
290 -> 291 ;
292 [label="TASK_R <= -0.5\ngini = 0.48\nsamples = 8\nvalue = [280, 180]\nclass = 1", fillcolor="#f6d2b8"] ;
290 -> 292 ;
293 [label="gini = 0.42\nsamples = 2\nvalue = [70, 30]\nclass = 1", fillcolor="#f0b78e"] ;
292 -> 293 ;
294 [label="gini = 0.49\nsamples = 6\nvalue = [210, 150]\nclass = 1", fillcolor="#f8dbc6"] ;
292 -> 294 ;
295 [label="TASK_M <= 1.5\ngini = 0.49\nsamples = 28\nvalue = [700, 900]\nclass = 3", fillcolor="#d3e9f9"] ;
289 -> 295 ;
296 [label="gini = 0.0\nsamples = 1\nvalue = [70, 0]\nclass = 1", fillcolor="#e58139"] ;
295 -> 296 ;
297 [label="TASK_D <= 1.5\ngini = 0.48\nsamples = 27\nvalue = [630, 900]\nclass = 3", fillcolor="#c4e2f7"] ;
295 -> 297 ;
298 [label="gini = 0.0\nsamples = 1\nvalue = [70, 0]\nclass = 1", fillcolor="#e58139"] ;
297 -> 298 ;
299 [label="gini = 0.47\nsamples = 26\nvalue = [560, 900]\nclass = 3", fillcolor="#b4daf5"] ;
297 -> 299 ;
300 [label="gini = 0.0\nsamples = 4\nvalue = [0, 210]\nclass = 3", fillcolor="#399de5"] ;
288 -> 300 ;
301 [label="TASK_I <= 2.5\ngini = 0.21\nsamples = 384\nvalue = [2380, 17220]\nclass = 3", fillcolor="#54abe9"] ;
275 -> 301 ;
302 [label="TASK_RN <= 0.5\ngini = 0.27\nsamples = 273\nvalue = [2240, 11940]\nclass = 3", fillcolor="#5eafea"] ;
301 -> 302 ;
303 [label="TASK_RN <= 0.1\ngini = 0.38\nsamples = 13\nvalue = [770, 270]\nclass = 1", fillcolor="#eead7e"] ;
302 -> 303 ;
304 [label="gini = 0.0\nsamples = 3\nvalue = [210, 0]\nclass = 1", fillcolor="#e58139"] ;
303 -> 304 ;
305 [label="TASK_I <= 1.5\ngini = 0.44\nsamples = 10\nvalue = [560, 270]\nclass = 1", fillcolor="#f2be98"] ;
303 -> 305 ;
306 [label="TASK_R <= -0.5\ngini = 0.29\nsamples = 3\nvalue = [280, 60]\nclass = 1", fillcolor="#eb9c63"] ;
305 -> 306 ;
307 [label="gini = 0.0\nsamples = 1\nvalue = [0, 60]\nclass = 3", fillcolor="#399de5"] ;
306 -> 307 ;
308 [label="gini = 0.0\nsamples = 2\nvalue = [280, 0]\nclass = 1", fillcolor="#e58139"] ;
306 -> 308 ;
309 [label="TASK_RN <= 0.3\ngini = 0.49\nsamples = 7\nvalue = [280, 210]\nclass = 1", fillcolor="#f8e0ce"] ;
305 -> 309 ;
310 [label="gini = 0.35\nsamples = 3\nvalue = [210, 60]\nclass = 1", fillcolor="#eca572"] ;
309 -> 310 ;
311 [label="gini = 0.43\nsamples = 4\nvalue = [70, 150]\nclass = 3", fillcolor="#95cbf1"] ;
309 -> 311 ;
312 [label="TASK_RN <= 0.9\ngini = 0.2\nsamples = 260\nvalue = [1470, 11670]\nclass = 3", fillcolor="#52a9e8"] ;
302 -> 312 ;
313 [label="TASK_RN <= 0.7\ngini = 0.27\nsamples = 90\nvalue = [700, 3660]\nclass = 3", fillcolor="#5fb0ea"] ;
312 -> 313 ;
314 [label="TASK_I <= 1.5\ngini = 0.3\nsamples = 17\nvalue = [140, 630]\nclass = 3", fillcolor="#65b3eb"] ;
313 -> 314 ;
315 [label="gini = 0.47\nsamples = 2\nvalue = [70, 120]\nclass = 3", fillcolor="#acd6f4"] ;
314 -> 315 ;
316 [label="gini = 0.21\nsamples = 15\nvalue = [70, 510]\nclass = 3", fillcolor="#54aae9"] ;
314 -> 316 ;
317 [label="TASK_I <= 1.5\ngini = 0.26\nsamples = 73\nvalue = [560, 3030]\nclass = 3", fillcolor="#5eafea"] ;
313 -> 317 ;
318 [label="gini = 0.29\nsamples = 15\nvalue = [140, 660]\nclass = 3", fillcolor="#63b2eb"] ;
317 -> 318 ;
319 [label="gini = 0.26\nsamples = 58\nvalue = [420, 2370]\nclass = 3", fillcolor="#5caeea"] ;
317 -> 319 ;
320 [label="TASK_R <= 0.5\ngini = 0.16\nsamples = 170\nvalue = [770, 8010]\nclass = 3", fillcolor="#4ca6e7"] ;
312 -> 320 ;
321 [label="TASK_M <= 1.5\ngini = 0.19\nsamples = 136\nvalue = [770, 6270]\nclass = 3", fillcolor="#51a9e8"] ;
320 -> 321 ;
322 [label="gini = 0.0\nsamples = 1\nvalue = [0, 60]\nclass = 3", fillcolor="#399de5"] ;
321 -> 322 ;
323 [label="gini = 0.2\nsamples = 135\nvalue = [770, 6210]\nclass = 3", fillcolor="#52a9e8"] ;
321 -> 323 ;
324 [label="gini = 0.0\nsamples = 34\nvalue = [0, 1740]\nclass = 3", fillcolor="#399de5"] ;
320 -> 324 ;
325 [label="TASK_RN <= 0.3\ngini = 0.05\nsamples = 111\nvalue = [140, 5280]\nclass = 3", fillcolor="#3ea0e6"] ;
301 -> 325 ;
326 [label="gini = 0.0\nsamples = 1\nvalue = [140, 0]\nclass = 1", fillcolor="#e58139"] ;
325 -> 326 ;
327 [label="gini = 0.0\nsamples = 110\nvalue = [0, 5280]\nclass = 3", fillcolor="#399de5"] ;
325 -> 327 ;
328 [label="TASK_RN <= 0.5\ngini = 0.05\nsamples = 672\nvalue = [910, 31770]\nclass = 3", fillcolor="#3fa0e6"] ;
204 -> 328 ;
329 [label="TASK_R <= 11.0\ngini = 0.5\nsamples = 7\nvalue = [210, 240]\nclass = 3", fillcolor="#e6f3fc"] ;
328 -> 329 ;
330 [label="gini = 0.0\nsamples = 6\nvalue = [0, 240]\nclass = 3", fillcolor="#399de5"] ;
329 -> 330 ;
331 [label="gini = 0.0\nsamples = 1\nvalue = [210, 0]\nclass = 1", fillcolor="#e58139"] ;
329 -> 331 ;
332 [label="TASK_N_S <= 0.1\ngini = 0.04\nsamples = 665\nvalue = [700, 31530]\nclass = 3", fillcolor="#3d9fe6"] ;
328 -> 332 ;
333 [label="TASK_D <= 1.5\ngini = 0.42\nsamples = 27\nvalue = [490, 1140]\nclass = 3", fillcolor="#8ec7f0"] ;
332 -> 333 ;
334 [label="gini = 0.0\nsamples = 1\nvalue = [140, 0]\nclass = 1", fillcolor="#e58139"] ;
333 -> 334 ;
335 [label="TASK_I <= 1.5\ngini = 0.36\nsamples = 26\nvalue = [350, 1140]\nclass = 3", fillcolor="#76bbed"] ;
333 -> 335 ;
336 [label="gini = 0.0\nsamples = 6\nvalue = [0, 330]\nclass = 3", fillcolor="#399de5"] ;
335 -> 336 ;
337 [label="TASK_I <= 2.5\ngini = 0.42\nsamples = 20\nvalue = [350, 810]\nclass = 3", fillcolor="#8fc7f0"] ;
335 -> 337 ;
338 [label="TASK_R <= 3.0\ngini = 0.45\nsamples = 16\nvalue = [350, 660]\nclass = 3", fillcolor="#a2d1f3"] ;
337 -> 338 ;
339 [label="TASK_RN <= 0.9\ngini = 0.29\nsamples = 14\nvalue = [140, 660]\nclass = 3", fillcolor="#63b2eb"] ;
338 -> 339 ;
340 [label="gini = 0.0\nsamples = 3\nvalue = [0, 120]\nclass = 3", fillcolor="#399de5"] ;
339 -> 340 ;
341 [label="gini = 0.33\nsamples = 11\nvalue = [140, 540]\nclass = 3", fillcolor="#6cb6ec"] ;
339 -> 341 ;
342 [label="gini = 0.0\nsamples = 2\nvalue = [210, 0]\nclass = 1", fillcolor="#e58139"] ;
338 -> 342 ;
343 [label="gini = 0.0\nsamples = 4\nvalue = [0, 150]\nclass = 3", fillcolor="#399de5"] ;
337 -> 343 ;
344 [label="TASK_R <= -0.5\ngini = 0.01\nsamples = 638\nvalue = [210, 30390]\nclass = 3", fillcolor="#3a9ee5"] ;
332 -> 344 ;
345 [label="TASK_N_L <= 0.9\ngini = 0.03\nsamples = 183\nvalue = [140, 8640]\nclass = 3", fillcolor="#3c9fe5"] ;
344 -> 345 ;
346 [label="TASK_N_L <= 0.7\ngini = 0.09\nsamples = 64\nvalue = [140, 2790]\nclass = 3", fillcolor="#43a2e6"] ;
345 -> 346 ;
347 [label="gini = 0.0\nsamples = 46\nvalue = [0, 2070]\nclass = 3", fillcolor="#399de5"] ;
346 -> 347 ;
348 [label="TASK_I <= 2.5\ngini = 0.27\nsamples = 18\nvalue = [140, 720]\nclass = 3", fillcolor="#5fb0ea"] ;
346 -> 348 ;
349 [label="gini = 0.0\nsamples = 14\nvalue = [0, 600]\nclass = 3", fillcolor="#399de5"] ;
348 -> 349 ;
350 [label="TASK_RN <= 0.9\ngini = 0.5\nsamples = 4\nvalue = [140, 120]\nclass = 1", fillcolor="#fbede3"] ;
348 -> 350 ;
351 [label="gini = 0.0\nsamples = 1\nvalue = [0, 60]\nclass = 3", fillcolor="#399de5"] ;
350 -> 351 ;
352 [label="gini = 0.42\nsamples = 3\nvalue = [140, 60]\nclass = 1", fillcolor="#f0b78e"] ;
350 -> 352 ;
353 [label="gini = 0.0\nsamples = 119\nvalue = [0, 5850]\nclass = 3", fillcolor="#399de5"] ;
345 -> 353 ;
354 [label="TASK_N_S <= 0.9\ngini = 0.01\nsamples = 455\nvalue = [70, 21750]\nclass = 3", fillcolor="#3a9de5"] ;
344 -> 354 ;
355 [label="gini = 0.0\nsamples = 40\nvalue = [0, 1860]\nclass = 3", fillcolor="#399de5"] ;
354 -> 355 ;
356 [label="TASK_R <= 0.5\ngini = 0.01\nsamples = 415\nvalue = [70, 19890]\nclass = 3", fillcolor="#3a9de5"] ;
354 -> 356 ;
357 [label="gini = 0.0\nsamples = 257\nvalue = [0, 12720]\nclass = 3", fillcolor="#399de5"] ;
356 -> 357 ;
358 [label="TASK_R <= 1.5\ngini = 0.02\nsamples = 158\nvalue = [70, 7170]\nclass = 3", fillcolor="#3b9ee5"] ;
356 -> 358 ;
359 [label="TASK_D <= 2.5\ngini = 0.05\nsamples = 66\nvalue = [70, 2850]\nclass = 3", fillcolor="#3e9fe6"] ;
358 -> 359 ;
360 [label="gini = 0.05\nsamples = 62\nvalue = [70, 2670]\nclass = 3", fillcolor="#3ea0e6"] ;
359 -> 360 ;
361 [label="gini = 0.0\nsamples = 4\nvalue = [0, 180]\nclass = 3", fillcolor="#399de5"] ;
359 -> 361 ;
362 [label="gini = 0.0\nsamples = 92\nvalue = [0, 4320]\nclass = 3", fillcolor="#399de5"] ;
358 -> 362 ;
}