digraph Tree {
node [shape=box, style="filled, rounded", color="black", fontname=helvetica] ;
edge [fontname=helvetica] ;
0 [label="TASK_F <= 0.9\ngini = 0.47\nsamples = 4368\nvalue = [110125, 186300]\nclass = 3", fillcolor="#aed7f4"] ;
1 [label="TASK_E <= 2.5\ngini = 0.37\nsamples = 2822\nvalue = [101350, 32250]\nclass = 1", fillcolor="#eda978"] ;
0 -> 1 [labeldistance=2.5, labelangle=45, headlabel="True"] ;
2 [label="TASK_N_S <= 0.1\ngini = 0.28\nsamples = 2652\nvalue = [98225, 20175]\nclass = 1", fillcolor="#ea9b62"] ;
1 -> 2 ;
3 [label="TASK_E <= 1.5\ngini = 0.14\nsamples = 2285\nvalue = [88375, 7125]\nclass = 1", fillcolor="#e78b49"] ;
2 -> 3 ;
4 [label="gini = 0.01\nsamples = 602\nvalue = [23775, 150]\nclass = 1", fillcolor="#e5823a"] ;
3 -> 4 ;
5 [label="gini = 0.18\nsamples = 1683\nvalue = [64600, 6975]\nclass = 1", fillcolor="#e88f4e"] ;
3 -> 5 ;
6 [label="TASK_N_S <= 0.7\ngini = 0.49\nsamples = 367\nvalue = [9850, 13050]\nclass = 3", fillcolor="#cee7f9"] ;
2 -> 6 ;
7 [label="gini = 0.5\nsamples = 288\nvalue = [8750, 7650]\nclass = 1", fillcolor="#fcefe6"] ;
6 -> 7 ;
8 [label="gini = 0.28\nsamples = 79\nvalue = [1100, 5400]\nclass = 3", fillcolor="#61b1ea"] ;
6 -> 8 ;
9 [label="TASK_N_S <= 0.1\ngini = 0.33\nsamples = 170\nvalue = [3125, 12075]\nclass = 3", fillcolor="#6cb6ec"] ;
1 -> 9 ;
10 [label="TASK_F <= 0.1\ngini = 0.47\nsamples = 111\nvalue = [2900, 4575]\nclass = 3", fillcolor="#b7dbf5"] ;
9 -> 10 ;
11 [label="gini = 0.46\nsamples = 52\nvalue = [1825, 1050]\nclass = 1", fillcolor="#f4c9ab"] ;
10 -> 11 ;
12 [label="gini = 0.36\nsamples = 59\nvalue = [1075, 3525]\nclass = 3", fillcolor="#75bbed"] ;
10 -> 12 ;
13 [label="TASK_F <= 0.1\ngini = 0.06\nsamples = 59\nvalue = [225, 7500]\nclass = 3", fillcolor="#3fa0e6"] ;
9 -> 13 ;
14 [label="gini = 0.26\nsamples = 13\nvalue = [200, 1125]\nclass = 3", fillcolor="#5caeea"] ;
13 -> 14 ;
15 [label="gini = 0.01\nsamples = 46\nvalue = [25, 6375]\nclass = 3", fillcolor="#3a9de5"] ;
13 -> 15 ;
16 [label="TASK_N_S <= 0.1\ngini = 0.1\nsamples = 1546\nvalue = [8775, 154050]\nclass = 3", fillcolor="#44a3e6"] ;
0 -> 16 [labeldistance=2.5, labelangle=-45, headlabel="False"] ;
17 [label="TASK_N_L <= 0.1\ngini = 0.19\nsamples = 701\nvalue = [7025, 60600]\nclass = 3", fillcolor="#50a8e8"] ;
16 -> 17 ;
18 [label="TASK_E <= 2.5\ngini = 0.2\nsamples = 634\nvalue = [6625, 53325]\nclass = 3", fillcolor="#52a9e8"] ;
17 -> 18 ;
19 [label="gini = 0.34\nsamples = 373\nvalue = [6400, 23550]\nclass = 3", fillcolor="#6fb8ec"] ;
18 -> 19 ;
20 [label="gini = 0.01\nsamples = 261\nvalue = [225, 29775]\nclass = 3", fillcolor="#3a9ee5"] ;
18 -> 20 ;
21 [label="TASK_N_L <= 0.5\ngini = 0.1\nsamples = 67\nvalue = [400, 7275]\nclass = 3", fillcolor="#44a2e6"] ;
17 -> 21 ;
22 [label="gini = 0.1\nsamples = 64\nvalue = [400, 6900]\nclass = 3", fillcolor="#44a3e7"] ;
21 -> 22 ;
23 [label="gini = 0.0\nsamples = 3\nvalue = [0, 375]\nclass = 3", fillcolor="#399de5"] ;
21 -> 23 ;
24 [label="TASK_N_L <= 0.55\ngini = 0.04\nsamples = 845\nvalue = [1750, 93450]\nclass = 3", fillcolor="#3d9fe5"] ;
16 -> 24 ;
25 [label="TASK_N_L <= 0.45\ngini = 0.04\nsamples = 699\nvalue = [1625, 78225]\nclass = 3", fillcolor="#3d9fe6"] ;
24 -> 25 ;
26 [label="gini = 0.04\nsamples = 697\nvalue = [1575, 78225]\nclass = 3", fillcolor="#3d9fe6"] ;
25 -> 26 ;
27 [label="gini = 0.0\nsamples = 2\nvalue = [50, 0]\nclass = 1", fillcolor="#e58139"] ;
25 -> 27 ;
28 [label="TASK_N_L <= 0.9\ngini = 0.02\nsamples = 146\nvalue = [125, 15225]\nclass = 3", fillcolor="#3b9ee5"] ;
24 -> 28 ;
29 [label="gini = 0.01\nsamples = 121\nvalue = [75, 12450]\nclass = 3", fillcolor="#3a9ee5"] ;
28 -> 29 ;
30 [label="gini = 0.03\nsamples = 25\nvalue = [50, 2775]\nclass = 3", fillcolor="#3d9fe5"] ;
28 -> 30 ;
}