digraph Tree {
node [shape=box, style="filled, rounded", color="black", fontname=helvetica] ;
edge [fontname=helvetica] ;
0 [label="TASK_N_S <= 0.1\ngini = 0.47\nsamples = 4379\nvalue = [110700, 184575]\nclass = 3", fillcolor="#b0d8f5"] ;
1 [label="TASK_F <= 0.9\ngini = 0.49\nsamples = 3126\nvalue = [99050, 71700]\nclass = 1", fillcolor="#f8dcc8"] ;
0 -> 1 [labeldistance=2.5, labelangle=45, headlabel="True"] ;
2 [label="TASK_E <= 2.5\ngini = 0.22\nsamples = 2451\nvalue = [92350, 12975]\nclass = 1", fillcolor="#e99355"] ;
1 -> 2 ;
3 [label="TASK_E <= 1.5\ngini = 0.14\nsamples = 2321\nvalue = [89250, 7125]\nclass = 1", fillcolor="#e78b49"] ;
2 -> 3 ;
4 [label="gini = 0.02\nsamples = 599\nvalue = [23475, 225]\nclass = 1", fillcolor="#e5823b"] ;
3 -> 4 ;
5 [label="gini = 0.17\nsamples = 1722\nvalue = [65775, 6900]\nclass = 1", fillcolor="#e88e4e"] ;
3 -> 5 ;
6 [label="TASK_N_L <= 0.1\ngini = 0.45\nsamples = 130\nvalue = [3100, 5850]\nclass = 3", fillcolor="#a2d1f3"] ;
2 -> 6 ;
7 [label="gini = 0.47\nsamples = 120\nvalue = [3000, 5025]\nclass = 3", fillcolor="#afd8f5"] ;
6 -> 7 ;
8 [label="gini = 0.19\nsamples = 10\nvalue = [100, 825]\nclass = 3", fillcolor="#51a9e8"] ;
6 -> 8 ;
9 [label="TASK_N_L <= 0.1\ngini = 0.18\nsamples = 675\nvalue = [6700, 58725]\nclass = 3", fillcolor="#50a8e8"] ;
1 -> 9 ;
10 [label="TASK_E <= 2.5\ngini = 0.19\nsamples = 603\nvalue = [6175, 51900]\nclass = 3", fillcolor="#51a9e8"] ;
9 -> 10 ;
11 [label="gini = 0.33\nsamples = 354\nvalue = [6000, 23250]\nclass = 3", fillcolor="#6cb6ec"] ;
10 -> 11 ;
12 [label="gini = 0.01\nsamples = 249\nvalue = [175, 28650]\nclass = 3", fillcolor="#3a9ee5"] ;
10 -> 12 ;
13 [label="TASK_E <= 1.5\ngini = 0.13\nsamples = 72\nvalue = [525, 6825]\nclass = 3", fillcolor="#48a5e7"] ;
9 -> 13 ;
14 [label="gini = 0.0\nsamples = 9\nvalue = [300, 0]\nclass = 1", fillcolor="#e58139"] ;
13 -> 14 ;
15 [label="gini = 0.06\nsamples = 63\nvalue = [225, 6825]\nclass = 3", fillcolor="#40a0e6"] ;
13 -> 15 ;
16 [label="TASK_E <= 2.5\ngini = 0.17\nsamples = 1253\nvalue = [11650, 112875]\nclass = 3", fillcolor="#4da7e8"] ;
0 -> 16 [labeldistance=2.5, labelangle=-45, headlabel="False"] ;
17 [label="TASK_N_S <= 0.55\ngini = 0.27\nsamples = 793\nvalue = [11475, 60225]\nclass = 3", fillcolor="#5fb0ea"] ;
16 -> 17 ;
18 [label="TASK_F <= 0.9\ngini = 0.4\nsamples = 442\nvalue = [9325, 23850]\nclass = 3", fillcolor="#86c3ef"] ;
17 -> 18 ;
19 [label="gini = 0.49\nsamples = 247\nvalue = [7500, 5400]\nclass = 1", fillcolor="#f8dcc8"] ;
18 -> 19 ;
20 [label="gini = 0.16\nsamples = 195\nvalue = [1825, 18450]\nclass = 3", fillcolor="#4da7e8"] ;
18 -> 20 ;
21 [label="TASK_E <= 1.5\ngini = 0.11\nsamples = 351\nvalue = [2150, 36375]\nclass = 3", fillcolor="#45a3e7"] ;
17 -> 21 ;
22 [label="gini = 0.37\nsamples = 29\nvalue = [675, 2100]\nclass = 3", fillcolor="#79bced"] ;
21 -> 22 ;
23 [label="gini = 0.08\nsamples = 322\nvalue = [1475, 34275]\nclass = 3", fillcolor="#42a1e6"] ;
21 -> 23 ;
24 [label="TASK_N_L <= 0.1\ngini = 0.01\nsamples = 460\nvalue = [175, 52650]\nclass = 3", fillcolor="#3a9de5"] ;
16 -> 24 ;
25 [label="TASK_N_S <= 0.3\ngini = 0.0\nsamples = 198\nvalue = [25, 22650]\nclass = 3", fillcolor="#399de5"] ;
24 -> 25 ;
26 [label="gini = 0.01\nsamples = 93\nvalue = [25, 9900]\nclass = 3", fillcolor="#399de5"] ;
25 -> 26 ;
27 [label="gini = 0.0\nsamples = 105\nvalue = [0, 12750]\nclass = 3", fillcolor="#399de5"] ;
25 -> 27 ;
28 [label="TASK_F <= 0.3\ngini = 0.01\nsamples = 262\nvalue = [150, 30000]\nclass = 3", fillcolor="#3a9de5"] ;
24 -> 28 ;
29 [label="gini = 0.09\nsamples = 27\nvalue = [150, 3075]\nclass = 3", fillcolor="#43a2e6"] ;
28 -> 29 ;
30 [label="gini = 0.0\nsamples = 235\nvalue = [0, 26925]\nclass = 3", fillcolor="#399de5"] ;
28 -> 30 ;
}