svm_type one_class
kernel_type rbf
gamma 101
nr_class 2
total_sv 345
rho 19.832468313846967
SV
1 1:0.0062611807 2:0.0067084079 4:0.0040250447 6:0.0067084079 8:0.0062611807 13:0.00089445438 14:0.0017889088 16:0.00089445438 18:0.021466905 19:0.00089445438 20:0.029516995 21:0.0017889088 22:0.025044723 23:0.00089445438 24:0.025939177 25:0.0080500894 26:0.020125224 27:0.0040250447 28:0.0058139535 29:0.0044722719 30:0.0040250447 31:0.011627907 32:0.0067084079 33:0.026386404 34:0.12388193 35:0.0026833631 36:0.04293381 37:0.002236136 38:0.039355993 39:0.0031305903 40:0.043828265 41:0.0084973166 42:0.014758497 43:0.009391771 44:0.0044722719 45:0.0035778175 46:0.0026833631 47:0.0053667263 48:0.011627907 49:0.0035778175 50:0.02236136 51:0.00044722719 52:0.018336315 53:0.00044722719 54:0.02236136 55:0.0026833631 56:0.023255814 57:0.002236136 58:0.31708408 59:0.038461538 
1 1:0.0044722719 2:0.009391771 4:0.0017889088 6:0.0035778175 8:0.0035778175 10:0.002236136 11:0.002236136 12:0.00089445438 13:0.00044722719 14:0.0017889088 15:0.00089445438 16:0.00089445438 17:0.00044722719 18:0.026833631 19:0.013864043 20:0.051431127 21:0.0013416816 22:0.01431127 23:0.0017889088 24:0.013416816 25:0.0017889088 26:0.0084973166 27:0.03667263 28:0.11896243 29:0.022808587 30:0.010286225 31:0.0058139535 32:0.01118068 33:0.010733453 34:0.035330948 35:0.013864043 36:0.14892665 37:0.044275492 38:0.046958855 39:0.0049194991 40:0.029069767 41:0.0089445438 42:0.0040250447 43:0.012075134 44:0.014758497 45:0.028175313 46:0.021019678 47:0.0089445438 48:0.0062611807 49:0.0067084079 50:0.010286225 51:0.0026833631 52:0.012075134 53:0.0017889088 54:0.02236136 55:0.0013416816 56:0.012075134 57:0.0013416816 58:0.092576029 59:0.026833631 
1 1:0.0080500894 2:0.0098389982 4:0.0084973166 6:0.011627907 8:0.0058139535 10:0.00089445438 11:0.00044722719 12:0.002236136 13:0.00044722719 14:0.0017889088 15:0.0013416816 16:0.00089445438 17:0.0013416816 18:0.022808587 19:0.00089445438 20:0.02549195 21:0.0031305903 22:0.036225403 23:0.0017889088 24:0.025939177 25:0.0031305903 26:0.0067084079 27:0.0035778175 28:0.0040250447 29:0.013864043 30:0.012075134 31:0.012075134 32:0.010733453 33:0.01118068 34:0.043381038 35:0.0031305903 36:0.021466905 37:0.0035778175 38:0.067084079 39:0.012522361 40:0.038014311 41:0.0049194991 42:0.0058139535 43:0.0035778175 44:0.0035778175 45:0.00089445438 46:0.0031305903 47:0.010733453 48:0.0053667263 49:0.0058139535 50:0.014758497 51:0.00089445438 52:0.011627907 53:0.0017889088 54:0.021019678 55:0.0031305903 56:0.019677996 57:0.00089445438 58:0.38372093 59:0.062611807 
1 1:0.017889088 2:0.016547406 4:0.012969589 6:0.01431127 8:0.0067084079 10:0.0013416816 11:0.002236136 12:0.0026833631 13:0.0031305903 14:0.0035778175 15:0.0053667263 16:0.0013416816 17:0.0013416816 18:0.029964222 19:0.0013416816 20:0.026386404 21:0.0040250447 22:0.046511628 23:0.0040250447 24:0.023255814 25:0.0013416816 26:0.016994633 27:0.012969589 28:0.0080500894 29:0.010733453 30:0.019677996 31:0.033094812 32:0.012075134 33:0.011627907 34:0.039355993 35:0.013864043 36:0.025939177 37:0.0053667263 38:0.050536673 39:0.021466905 40:0.035778175 41:0.0040250447 42:0.0040250447 43:0.010286225 44:0.0049194991 45:0.0044722719 46:0.0049194991 47:0.012522361 48:0.0098389982 49:0.0040250447 50:0.013416816 51:0.00089445438 52:0.012969589 53:0.0031305903 54:0.013416816 55:0.00089445438 56:0.017889088 57:0.0035778175 58:0.24463327 59:0.086314848 
1 1:0.014758497 2:0.010286225 3:0.00044722719 4:0.0080500894 6:0.0040250447 8:0.0080500894 9:0.00044722719 10:0.0017889088 11:0.002236136 12:0.00089445438 13:0.00044722719 14:0.00044722719 16:0.002236136 17:0.0031305903 18:0.068872987 19:0.0053667263 20:0.037567084 21:0.002236136 22:0.016100179 23:0.00044722719 24:0.0049194991 25:0.0031305903 26:0.025939177 27:0.061270125 28:0.055456172 29:0.022808587 30:0.0089445438 31:0.0035778175 32:0.0017889088 33:0.0026833631 34:0.041144902 35:0.039355993 36:0.090339893 37:0.025939177 38:0.057245081 39:0.0031305903 40:0.011627907 41:0.0013416816 42:0.0035778175 43:0.012522361 44:0.013864043 45:0.018336315 46:0.019230769 47:0.0058139535 48:0.0017889088 49:0.002236136 50:0.0031305903 51:0.0017889088 52:0.021914132 53:0.0040250447 54:0.023703041 55:0.0026833631 56:0.01431127 57:0.0026833631 58:0.13282648 59:0.067084079 
1 1:0.017889088 2:0.015205725 4:0.0076028623 5:0.00044722719 6:0.013864043 8:0.0080500894 9:0.00089445438 10:0.0035778175 11:0.0035778175 12:0.0035778175 13:0.0035778175 14:0.0049194991 15:0.0040250447 16:0.0035778175 17:0.0035778175 18:0.042039356 19:0.0040250447 20:0.029069767 21:0.0044722719 22:0.03980322 23:0.0026833631 24:0.012969589 25:0.0026833631 26:0.066636852 27:0.016994633 28:0.021914132 29:0.016100179 30:0.021466905 31:0.02236136 32:0.0062611807 33:0.016100179 34:0.029069767 35:0.035330948 36:0.045169946 37:0.0071556351 38:0.043381038 39:0.017889088 40:0.031305903 41:0.0058139535 42:0.0049194991 43:0.01744186 44:0.009391771 45:0.010286225 46:0.0084973166 47:0.010733453 48:0.010286225 49:0.0031305903 50:0.0084973166 51:0.00044722719 52:0.016547406 53:0.0044722719 54:0.018783542 56:0.016100179 57:0.00089445438 58:0.13282648 59:0.091681574 
1 1:0.012522361 2:0.010733453 4:0.0071556351 5:0.00044722719 6:0.013416816 8:0.0089445438 10:0.002236136 11:0.0031305903 12:0.0031305903 13:0.0031305903 14:0.0031305903 15:0.002236136 16:0.0035778175 17:0.0053667263 18:0.046064401 19:0.0035778175 20:0.029516995 21:0.0049194991 22:0.040697674 23:0.0013416816 24:0.020125224 25:0.0026833631 26:0.044722719 27:0.016100179 28:0.01431127 29:0.015652952 30:0.016547406 31:0.020125224 32:0.0062611807 33:0.009391771 34:0.050536673 35:0.024150268 36:0.029516995 37:0.0098389982 38:0.05411449 39:0.01744186 40:0.029964222 41:0.0053667263 42:0.0035778175 43:0.013416816 44:0.0071556351 45:0.010733453 46:0.012522361 47:0.0080500894 48:0.01118068 49:0.0084973166 50:0.012522361 51:0.0035778175 52:0.019230769 53:0.0031305903 54:0.013864043 55:0.0040250447 56:0.027728086 57:0.0049194991 58:0.16100179 59:0.08273703 
1 1:0.010733453 2:0.0071556351 4:0.013864043 6:0.0089445438 8:0.010733453 10:0.00089445438 11:0.0040250447 12:0.0013416816 13:0.0017889088 14:0.0017889088 15:0.002236136 16:0.0017889088 17:0.0049194991 18:0.0509839 19:0.0026833631 20:0.033094812 21:0.0053667263 22:0.038014311 23:0.002236136 24:0.021019678 25:0.0026833631 26:0.049642218 27:0.021466905 28:0.015652952 29:0.020125224 30:0.018336315 31:0.018336315 32:0.009391771 33:0.0098389982 34:0.035330948 35:0.032200358 36:0.028175313 37:0.009391771 38:0.055008945 39:0.0071556351 40:0.043381038 41:0.0013416816 42:0.0035778175 43:0.019230769 44:0.009391771 45:0.0062611807 46:0.010286225 47:0.0067084079 48:0.012075134 49:0.0031305903 50:0.010286225 51:0.00089445438 52:0.019677996 53:0.002236136 54:0.014758497 55:0.00089445438 56:0.023703041 57:0.0026833631 58:0.17754919 59:0.075581395 
1 1:0.0089445438 2:0.0084973166 4:0.009391771 5:0.00044722719 6:0.010286225 8:0.0098389982 10:0.0026833631 11:0.0053667263 12:0.0040250447 13:0.0013416816 14:0.0017889088 15:0.0049194991 16:0.00089445438 17:0.0017889088 18:0.041144902 19:0.0026833631 20:0.029964222 21:0.0044722719 22:0.037567084 23:0.002236136 24:0.021914132 25:0.0053667263 26:0.038461538 27:0.010286225 28:0.012969589 29:0.015652952 30:0.027280859 31:0.014758497 32:0.0058139535 33:0.012522361 34:0.066189624 35:0.012969589 36:0.029516995 37:0.0067084079 38:0.067978533 39:0.0076028623 40:0.026833631 41:0.0031305903 42:0.0044722719 43:0.013864043 44:0.0058139535 45:0.0076028623 46:0.0080500894 47:0.0076028623 48:0.009391771 49:0.0031305903 50:0.011627907 51:0.00089445438 52:0.024597496 53:0.0044722719 54:0.01431127 55:0.002236136 56:0.025939177 57:0.0053667263 58:0.21109123 59:0.06529517 
1 1:0.009391771 2:0.010733453 4:0.0053667263 6:0.0058139535 8:0.0084973166 10:0.0053667263 11:0.0044722719 13:0.0026833631 14:0.00089445438 15:0.0031305903 16:0.0031305903 17:0.0026833631 18:0.051878354 19:0.0067084079 20:0.038461538 21:0.0040250447 22:0.021466905 23:0.0013416816 24:0.0076028623 25:0.0026833631 26:0.045617174 27:0.055456172 28:0.035778175 29:0.018336315 30:0.021466905 31:0.0058139535 32:0.00089445438 33:0.0040250447 34:0.066636852 35:0.032200358 36:0.052325581 37:0.024597496 38:0.076923077 39:0.0031305903 40:0.016100179 41:0.0013416816 42:0.0026833631 43:0.02236136 44:0.016994633 45:0.015652952 46:0.017889088 47:0.0076028623 48:0.0035778175 49:0.002236136 50:0.0053667263 51:0.0013416816 52:0.025044723 53:0.0040250447 54:0.018336315 55:0.0031305903 56:0.015205725 57:0.0013416816 58:0.11896243 59:0.061270125 
0.99867423411990097 1:0.012075134 2:0.002236136 4:0.010286225 5:0.00044722719 6:0.011627907 8:0.0076028623 11:0.00089445438 12:0.0049194991 13:0.002236136 14:0.0053667263 15:0.0053667263 16:0.00089445438 17:0.00044722719 18:0.016100179 19:0.0017889088 20:0.0098389982 21:0.0044722719 22:0.085867621 23:0.01118068 24:0.016100179 25:0.002236136 26:0.0058139535 27:0.012075134 28:0.0031305903 29:0.0076028623 30:0.082289803 31:0.055008945 32:0.015205725 33:0.0062611807 34:0.019677996 35:0.0049194991 36:0.026386404 37:0.0035778175 38:0.073792487 39:0.063059034 40:0.076923077 41:0.0044722719 42:0.0053667263 43:0.0058139535 44:0.0062611807 45:0.0031305903 46:0.0044722719 47:0.030411449 48:0.024597496 49:0.0084973166 50:0.0080500894 51:0.00089445438 52:0.012522361 53:0.0017889088 54:0.0062611807 55:0.0017889088 56:0.032200358 57:0.0026833631 58:0.11135957 59:0.061717352 
1 1:0.0080500894 2:0.0053667263 4:0.0076028623 6:0.0080500894 8:0.0049194991 10:0.00089445438 11:0.00089445438 12:0.0031305903 13:0.0049194991 14:0.002236136 15:0.0031305903 16:0.0013416816 18:0.013416816 19:0.0013416816 20:0.01744186 21:0.0053667263 22:0.081842576 23:0.0049194991 24:0.013864043 25:0.00044722719 26:0.0031305903 27:0.014758497 28:0.0058139535 29:0.012969589 30:0.11896243 31:0.049642218 32:0.013864043 33:0.0017889088 34:0.0098389982 35:0.0098389982 36:0.026833631 37:0.0053667263 38:0.11270125 39:0.03980322 40:0.050089445 41:0.0017889088 42:0.0013416816 43:0.0017889088 44:0.0062611807 45:0.0049194991 46:0.0098389982 47:0.034436494 48:0.02236136 49:0.0040250447 50:0.0067084079 51:0.0013416816 52:0.009391771 53:0.0026833631 54:0.0080500894 55:0.00089445438 56:0.036225403 57:0.0013416816 58:0.12924866 59:0.052772809 
0.90390819359267094 1:0.0044722719 2:0.0080500894 4:0.0067084079 6:0.0026833631 8:0.0017889088 10:0.002236136 11:0.0026833631 12:0.002236136 13:0.00089445438 14:0.0013416816 15:0.00044722719 16:0.00044722719 18:0.01118068 19:0.01118068 20:0.077817531 21:0.0067084079 22:0.016547406 23:0.002236136 24:0.009391771 26:0.0026833631 27:0.025044723 28:0.1265653 29:0.075134168 30:0.020572451 31:0.0080500894 32:0.012522361 33:0.002236136 34:0.0084973166 35:0.0031305903 36:0.088550984 37:0.055008945 38:0.079159213 39:0.002236136 40:0.028175313 41:0.0067084079 42:0.0035778175 43:0.0026833631 44:0.009391771 45:0.025939177 46:0.034883721 47:0.0084973166 48:0.0071556351 49:0.0071556351 50:0.0053667263 51:0.00089445438 52:0.0080500894 53:0.0013416816 54:0.031305903 55:0.0017889088 56:0.01118068 58:0.095259392 59:0.032200358 
1 1:0.002236136 2:0.0040250447 4:0.0062611807 6:0.00089445438 8:0.0026833631 10:0.0031305903 11:0.0058139535 12:0.0035778175 13:0.0035778175 14:0.00089445438 18:0.013416816 19:0.018336315 20:0.076028623 21:0.0058139535 22:0.0089445438 23:0.002236136 24:0.0098389982 25:0.00044722719 26:0.0031305903 27:0.031753131 28:0.1167263 29:0.078711986 30:0.016994633 31:0.0071556351 32:0.01431127 33:0.0031305903 34:0.0089445438 35:0.0058139535 36:0.1216458 37:0.056350626 38:0.083184258 39:0.002236136 40:0.020125224 41:0.0053667263 42:0.0026833631 43:0.0058139535 44:0.010733453 45:0.02862254 46:0.034883721 47:0.0089445438 48:0.0044722719 49:0.0040250447 50:0.0067084079 51:0.0017889088 52:0.0089445438 53:0.0026833631 54:0.029964222 55:0.00044722719 56:0.0058139535 57:0.00044722719 58:0.072450805 59:0.026833631 
1 1:0.0058139535 2:0.0098389982 3:0.00044722719 4:0.010286225 6:0.0049194991 8:0.0058139535 10:0.00089445438 11:0.002236136 12:0.0017889088 13:0.0031305903 14:0.00089445438 15:0.00044722719 16:0.00044722719 17:0.0013416816 18:0.024150268 19:0.0013416816 20:0.036225403 21:0.0089445438 22:0.046064401 23:0.00089445438 24:0.0067084079 25:0.00089445438 26:0.0076028623 27:0.013864043 28:0.010286225 29:0.044722719 30:0.059481216 31:0.015205725 32:0.002236136 33:0.0058139535 34:0.017889088 35:0.0053667263 36:0.044275492 37:0.010286225 38:0.18694097 39:0.01744186 40:0.015652952 41:0.0013416816 42:0.0013416816 43:0.0053667263 44:0.0089445438 45:0.0089445438 46:0.02236136 47:0.018336315 48:0.0080500894 49:0.00044722719 50:0.0044722719 51:0.00044722719 52:0.015652952 53:0.0031305903 54:0.021019678 55:0.00044722719 56:0.023703041 57:0.00089445438 58:0.17799642 59:0.046511628 
1 1:0.0053667263 2:0.0076028623 4:0.0058139535 6:0.0058139535 8:0.0031305903 10:0.0044722719 11:0.0044722719 12:0.0017889088 13:0.002236136 14:0.0013416816 15:0.00044722719 16:0.00089445438 18:0.0089445438 19:0.0080500894 20:0.06216458 21:0.0098389982 22:0.031753131 23:0.00044722719 24:0.0084973166 25:0.0013416816 26:0.0026833631 27:0.019230769 28:0.067084079 29:0.1167263 30:0.030858676 31:0.0080500894 32:0.0098389982 33:0.0035778175 34:0.009391771 35:0.00089445438 36:0.060822898 37:0.053220036 38:0.16368515 39:0.0098389982 40:0.01118068 41:0.0062611807 42:0.0026833631 43:0.0017889088 44:0.0049194991 45:0.024150268 46:0.033094812 47:0.010733453 48:0.0098389982 49:0.0062611807 50:0.0035778175 51:0.0017889088 52:0.0031305903 53:0.0017889088 54:0.022808587 55:0.00089445438 56:0.013864043 57:0.0013416816 58:0.069767442 59:0.03980322 
0.019083927543964738 1:0.0067084079 2:0.0062611807 3:0.00044722719 4:0.0067084079 6:0.0058139535 8:0.0017889088 10:0.0013416816 11:0.0031305903 12:0.0035778175 13:0.0035778175 14:0.0031305903 15:0.00044722719 18:0.0071556351 19:0.0089445438 20:0.052772809 21:0.023703041 22:0.034883721 23:0.0026833631 24:0.0071556351 25:0.0031305903 26:0.0035778175 27:0.01744186 28:0.055456172 29:0.078264758 30:0.077370304 31:0.023703041 32:0.0089445438 33:0.0040250447 34:0.0049194991 35:0.0058139535 36:0.061270125 37:0.033542039 38:0.1627907 39:0.023703041 40:0.024150268 41:0.0026833631 42:0.0031305903 43:0.0049194991 44:0.0062611807 45:0.017889088 46:0.032200358 47:0.021019678 48:0.0089445438 49:0.0031305903 50:0.0035778175 51:0.0017889088 52:0.0031305903 53:0.0031305903 54:0.021914132 55:0.0013416816 56:0.012075134 57:0.0013416816 58:0.053667263 59:0.029516995 
1 1:0.002236136 2:0.002236136 4:0.0040250447 6:0.010733453 8:0.0053667263 12:0.0031305903 14:0.0031305903 15:0.0026833631 16:0.00044722719 17:0.0031305903 18:0.010286225 19:0.00089445438 20:0.0044722719 21:0.0013416816 22:0.049194991 23:0.021019678 24:0.045169946 25:0.00089445438 26:0.016100179 27:0.0076028623 28:0.0035778175 29:0.0040250447 30:0.024597496 31:0.10241503 32:0.067531306 33:0.012075134 34:0.025939177 35:0.010286225 36:0.0084973166 37:0.0026833631 38:0.029069767 39:0.022808587 40:0.19633274 41:0.011627907 42:0.010733453 43:0.010733453 44:0.002236136 45:0.0040250447 46:0.0026833631 47:0.009391771 48:0.022808587 49:0.016547406 50:0.025939177 51:0.00044722719 52:0.0076028623 53:0.00089445438 54:0.0026833631 55:0.00089445438 56:0.024597496 57:0.0026833631 58:0.095259392 59:0.044275492 
1 1:0.010733453 2:0.0049194991 4:0.010286225 6:0.013864043 7:0.00044722719 8:0.0067084079 10:0.00044722719 11:0.00044722719 12:0.0058139535 13:0.0013416816 14:0.0053667263 15:0.0076028623 16:0.00089445438 17:0.0013416816 18:0.0089445438 19:0.00089445438 20:0.0049194991 21:0.0013416816 22:0.091234347 23:0.01431127 24:0.017889088 25:0.0013416816 26:0.0098389982 27:0.0035778175 28:0.0031305903 29:0.0026833631 30:0.066636852 31:0.11270125 32:0.029069767 33:0.010286225 34:0.020125224 35:0.0053667263 36:0.012522361 37:0.0049194991 38:0.033094812 39:0.08273703 40:0.097048301 41:0.0058139535 42:0.0040250447 43:0.0044722719 44:0.0044722719 45:0.0035778175 46:0.0035778175 47:0.021466905 48:0.027280859 49:0.0080500894 50:0.0089445438 51:0.0013416816 52:0.0040250447 53:0.0017889088 54:0.002236136 55:0.00089445438 56:0.025939177 57:0.002236136 58:0.11404293 59:0.0509839 
1 1:0.0071556351 2:0.0035778175 4:0.010733453 5:0.00044722719 6:0.012969589 8:0.0089445438 10:0.0013416816 11:0.00089445438 12:0.0031305903 13:0.00089445438 14:0.0040250447 15:0.0049194991 16:0.0017889088 17:0.00044722719 18:0.011627907 19:0.00044722719 20:0.0062611807 21:0.002236136 22:0.081842576 23:0.009391771 24:0.021019678 25:0.00089445438 26:0.0053667263 27:0.0040250447 28:0.00089445438 29:0.0076028623 30:0.1118068 31:0.084078712 32:0.021019678 33:0.0084973166 34:0.012522361 35:0.0017889088 36:0.021019678 37:0.0040250447 38:0.063953488 39:0.055456172 40:0.066636852 41:0.0062611807 42:0.0031305903 43:0.0017889088 44:0.0040250447 45:0.00089445438 46:0.0031305903 47:0.024150268 48:0.023255814 49:0.0058139535 50:0.0058139535 51:0.002236136 52:0.0062611807 53:0.002236136 54:0.0044722719 55:0.0017889088 56:0.023703041 57:0.0017889088 58:0.16189624 59:0.053667263 
1 1:0.0053667263 2:0.0049194991 4:0.011627907 6:0.0098389982 8:0.0044722719 10:0.00044722719 11:0.002236136 12:0.00044722719 13:0.0026833631 14:0.0035778175 15:0.002236136 16:0.00089445438 18:0.0098389982 19:0.00044722719 20:0.015652952 21:0.0058139535 22:0.078264758 23:0.009391771 24:0.01118068 25:0.00089445438 26:0.0053667263 27:0.002236136 28:0.0031305903 29:0.012522361 30:0.10822898 31:0.069767442 32:0.013416816 33:0.00044722719 34:0.01431127 35:0.0053667263 36:0.021466905 37:0.0040250447 38:0.074686941 39:0.066189624 40:0.075581395 41:0.0031305903 42:0.00044722719 43:0.0026833631 44:0.002236136 45:0.0013416816 46:0.0040250447 47:0.031753131 48:0.020125224 49:0.0035778175 50:0.0035778175 51:0.0013416816 52:0.0062611807 53:0.0013416816 54:0.0080500894 55:0.00089445438 56:0.030411449 57:0.0017889088 58:0.17576029 59:0.044275492 
1 1:0.010286225 2:0.0031305903 4:0.0071556351 6:0.0071556351 8:0.0053667263 10:0.00089445438 11:0.002236136 12:0.0026833631 13:0.0026833631 14:0.0053667263 15:0.0058139535 16:0.002236136 17:0.00044722719 18:0.010286225 19:0.0017889088 20:0.01744186 21:0.013416816 22:0.067084079 23:0.0040250447 24:0.0044722719 25:0.002236136 26:0.0098389982 27:0.0084973166 28:0.0062611807 29:0.032200358 30:0.1234347 31:0.060822898 32:0.010733453 33:0.00089445438 34:0.0098389982 35:0.010286225 36:0.01431127 37:0.0053667263 38:0.13014311 39:0.047853309 40:0.032200358 41:0.0013416816 42:0.00044722719 43:0.0026833631 44:0.0031305903 45:0.0053667263 46:0.0071556351 47:0.032647585 48:0.012969589 49:0.0026833631 50:0.002236136 51:0.00089445438 52:0.0026833631 53:0.0017889088 54:0.0080500894 55:0.0031305903 56:0.019677996 57:0.00044722719 58:0.17218247 59:0.041592129 
1 1:0.0067084079 2:0.002236136 4:0.0098389982 5:0.00044722719 6:0.0058139535 8:0.0031305903 10:0.00089445438 11:0.00089445438 12:0.0031305903 13:0.0035778175 14:0.0049194991 15:0.0040250447 16:0.00044722719 18:0.0080500894 19:0.0017889088 20:0.019230769 21:0.009391771 22:0.076028623 23:0.0062611807 24:0.0098389982 25:0.0013416816 26:0.0049194991 27:0.0058139535 28:0.0067084079 29:0.038461538 30:0.11359571 31:0.063059034 32:0.0084973166 33:0.0031305903 34:0.0058139535 35:0.002236136 36:0.016994633 37:0.0062611807 38:0.13729875 39:0.051878354 40:0.037567084 41:0.0013416816 42:0.0013416816 43:0.00089445438 44:0.002236136 45:0.0031305903 46:0.012522361 47:0.029516995 48:0.01744186 49:0.0013416816 50:0.0035778175 52:0.0031305903 53:0.0017889088 54:0.0071556351 55:0.0013416816 56:0.029069767 57:0.0026833631 58:0.15966011 59:0.041592129 
1 1:0.0089445438 2:0.0044722719 4:0.0058139535 6:0.0080500894 8:0.0035778175 10:0.00044722719 11:0.00089445438 12:0.0031305903 13:0.0026833631 14:0.0031305903 15:0.0067084079 16:0.00044722719 17:0.00089445438 18:0.0035778175 19:0.0026833631 20:0.02549195 21:0.013416816 22:0.075134168 23:0.002236136 24:0.0062611807 25:0.00089445438 26:0.0017889088 27:0.0013416816 28:0.010733453 29:0.051878354 30:0.099731664 31:0.047853309 32:0.01118068 33:0.0026833631 34:0.0040250447 35:0.00089445438 36:0.01744186 37:0.0044722719 38:0.16726297 39:0.044722719 40:0.02862254 41:0.0031305903 42:0.00044722719 43:0.00044722719 44:0.00089445438 45:0.0035778175 46:0.012522361 47:0.031753131 48:0.01431127 49:0.0040250447 50:0.00089445438 52:0.00044722719 53:0.0031305903 54:0.009391771 56:0.024150268 57:0.0013416816 58:0.17844365 59:0.037567084 
0.27816613436344623 1:0.0071556351 2:0.0062611807 4:0.0071556351 5:0.00089445438 6:0.010733453 8:0.0040250447 10:0.00044722719 11:0.00044722719 12:0.0040250447 13:0.0035778175 14:0.0044722719 15:0.002236136 16:0.0013416816 17:0.00044722719 18:0.0053667263 19:0.0017889088 20:0.02549195 21:0.012522361 22:0.071109123 23:0.0067084079 24:0.016100179 25:0.00089445438 26:0.0053667263 27:0.002236136 28:0.0080500894 29:0.052325581 30:0.11493739 31:0.07647585 32:0.01431127 33:0.0017889088 34:0.0076028623 36:0.017889088 37:0.0089445438 38:0.14445438 39:0.048300537 40:0.049642218 41:0.0058139535 42:0.0035778175 43:0.0026833631 44:0.0026833631 45:0.0062611807 46:0.013416816 47:0.032200358 48:0.012522361 49:0.0035778175 50:0.0031305903 51:0.0017889088 52:0.0035778175 53:0.00089445438 54:0.010286225 55:0.0013416816 56:0.018783542 57:0.0026833631 58:0.081395349 59:0.047853309 
1 1:0.0076028623 2:0.0058139535 4:0.0071556351 6:0.0062611807 8:0.002236136 10:0.00089445438 11:0.0017889088 12:0.0013416816 13:0.0062611807 14:0.0031305903 15:0.0026833631 16:0.0013416816 17:0.0017889088 18:0.0031305903 19:0.0013416816 20:0.022808587 21:0.013416816 22:0.073792487 23:0.0080500894 24:0.0089445438 25:0.00089445438 26:0.0017889088 27:0.0062611807 28:0.010286225 29:0.066636852 30:0.13416816 31:0.061717352 32:0.01118068 33:0.0040250447 34:0.0049194991 35:0.0017889088 36:0.013416816 37:0.011627907 38:0.1480322 39:0.066189624 40:0.041144902 41:0.0044722719 43:0.0013416816 44:0.0013416816 45:0.0080500894 46:0.013864043 47:0.02862254 48:0.020572451 49:0.0058139535 50:0.0026833631 52:0.0026833631 53:0.00044722719 54:0.0080500894 55:0.0058139535 56:0.01744186 57:0.00044722719 58:0.080500894 59:0.033989267 
1 1:0.009391771 2:0.012969589 3:0.00044722719 4:0.0076028623 6:0.0089445438 8:0.0084973166 10:0.0017889088 11:0.0026833631 12:0.00044722719 13:0.00089445438 14:0.0013416816 15:0.0017889088 16:0.0017889088 17:0.0017889088 18:0.043381038 19:0.00044722719 20:0.016994633 21:0.0013416816 22:0.032647585 23:0.0017889088 24:0.025044723 25:0.002236136 26:0.015205725 27:0.0053667263 28:0.0080500894 29:0.015205725 30:0.0067084079 31:0.0017889088 32:0.00089445438 33:0.0071556351 34:0.064847943 35:0.0058139535 36:0.033989267 37:0.0053667263 38:0.041144902 39:0.0026833631 40:0.029069767 41:0.0013416816 42:0.002236136 43:0.0076028623 44:0.0049194991 45:0.0049194991 46:0.0053667263 47:0.0031305903 48:0.0013416816 49:0.0026833631 50:0.021466905 51:0.0013416816 52:0.026386404 53:0.002236136 54:0.0053667263 55:0.0013416816 56:0.021019678 57:0.0013416816 58:0.40205725 59:0.056350626 
1 1:0.016100179 2:0.014758497 4:0.0098389982 6:0.01118068 8:0.0062611807 10:0.009391771 11:0.0017889088 12:0.0053667263 13:0.0026833631 15:0.0017889088 16:0.00044722719 17:0.00044722719 18:0.015652952 19:0.0076028623 20:0.054561717 21:0.0080500894 22:0.023703041 23:0.0049194991 24:0.020125224 26:0.0098389982 27:0.0080500894 28:0.038908766 29:0.025044723 30:0.018783542 31:0.0071556351 32:0.010733453 33:0.0071556351 34:0.024150268 35:0.0035778175 36:0.053220036 37:0.020572451 38:0.055456172 39:0.0080500894 40:0.026386404 41:0.010733453 42:0.0080500894 43:0.0040250447 44:0.0053667263 45:0.017889088 46:0.017889088 47:0.0089445438 48:0.0053667263 49:0.0076028623 50:0.0080500894 51:0.00044722719 52:0.0084973166 53:0.0017889088 54:0.023255814 55:0.0017889088 56:0.016100179 57:0.0026833631 58:0.25447227 59:0.06529517 
1 1:0.009391771 2:0.0067084079 4:0.010286225 6:0.01118068 8:0.010733453 10:0.0017889088 11:0.002236136 13:0.00089445438 14:0.0026833631 15:0.0035778175 16:0.0026833631 17:0.0026833631 18:0.012522361 19:0.0017889088 20:0.030858676 21:0.0031305903 22:0.030858676 23:0.0026833631 24:0.068872987 25:0.0017889088 26:0.0044722719 27:0.0044722719 28:0.009391771 29:0.013416816 30:0.013416816 31:0.015652952 32:0.06529517 33:0.016100179 34:0.042039356 35:0.0031305903 36:0.026833631 37:0.0053667263 38:0.059033989 39:0.0089445438 40:0.070214669 41:0.036225403 42:0.011627907 43:0.0062611807 44:0.0040250447 45:0.010733453 46:0.0084973166 47:0.01118068 48:0.009391771 49:0.017889088 50:0.033094812 51:0.0026833631 52:0.0084973166 53:0.0013416816 54:0.018783542 55:0.0031305903 56:0.022808587 57:0.0049194991 58:0.1431127 59:0.070661896 
1 1:0.024597496 2:0.016994633 3:0.00044722719 4:0.013864043 6:0.01744186 7:0.00044722719 8:0.012075134 10:0.0058139535 11:0.0044722719 12:0.0044722719 13:0.0049194991 14:0.0040250447 15:0.0035778175 16:0.0040250447 17:0.0040250447 18:0.020125224 19:0.0017889088 20:0.042039356 21:0.0026833631 22:0.024597496 23:0.0035778175 24:0.027280859 25:0.0040250447 26:0.016547406 27:0.0035778175 28:0.020572451 29:0.026833631 30:0.015652952 31:0.012075134 32:0.014758497 33:0.050089445 34:0.052772809 35:0.0044722719 36:0.022808587 37:0.012969589 38:0.046064401 39:0.0058139535 40:0.026833631 41:0.011627907 42:0.0098389982 43:0.0049194991 44:0.0017889088 45:0.0089445438 46:0.013864043 47:0.0076028623 48:0.0084973166 49:0.0084973166 50:0.013416816 51:0.0031305903 52:0.0080500894 53:0.0053667263 54:0.021019678 55:0.002236136 56:0.01431127 57:0.0062611807 58:0.17173524 59:0.099731664 
1 1:0.020125224 2:0.01744186 3:0.00044722719 4:0.010733453 6:0.012522361 8:0.0080500894 9:0.00044722719 10:0.0049194991 11:0.0071556351 12:0.0026833631 13:0.0031305903 14:0.0035778175 15:0.002236136 16:0.0035778175 17:0.0026833631 18:0.021466905 19:0.0040250447 20:0.039355993 21:0.0053667263 22:0.025044723 23:0.0040250447 24:0.040250447 25:0.0040250447 26:0.018783542 27:0.011627907 28:0.047406082 29:0.027280859 30:0.015652952 31:0.01118068 32:0.012969589 33:0.047853309 34:0.033542039 35:0.0053667263 36:0.038461538 37:0.021019678 38:0.042486583 39:0.0058139535 40:0.028175313 41:0.029069767 42:0.01118068 43:0.0062611807 44:0.0058139535 45:0.010733453 46:0.01431127 47:0.0084973166 48:0.0062611807 49:0.0071556351 50:0.013416816 51:0.0031305903 52:0.0084973166 53:0.0049194991 54:0.016994633 55:0.0031305903 56:0.010286225 57:0.0053667263 58:0.13640429 59:0.08765653 
1 1:0.015205725 2:0.015652952 4:0.0098389982 6:0.009391771 8:0.01118068 10:0.0049194991 11:0.0035778175 12:0.0040250447 13:0.0035778175 14:0.0040250447 15:0.0035778175 16:0.0035778175 17:0.0040250447 18:0.01744186 19:0.0035778175 20:0.032647585 21:0.0035778175 22:0.021019678 23:0.0040250447 24:0.059033989 25:0.0031305903 26:0.010286225 27:0.009391771 28:0.042039356 29:0.024150268 30:0.018336315 31:0.018336315 32:0.030411449 33:0.033542039 34:0.032200358 35:0.0031305903 36:0.040697674 37:0.018783542 38:0.040697674 39:0.016100179 40:0.038014311 41:0.048747764 42:0.012075134 43:0.0044722719 44:0.0049194991 45:0.012522361 46:0.0058139535 47:0.0071556351 48:0.0067084079 49:0.015652952 50:0.01431127 51:0.0013416816 52:0.010286225 53:0.0031305903 54:0.020572451 55:0.0013416816 56:0.013416816 57:0.0031305903 58:0.12075134 59:0.080500894 
1 1:0.019677996 2:0.011627907 3:0.00044722719 4:0.0084973166 6:0.0058139535 8:0.0080500894 9:0.00044722719 10:0.0058139535 11:0.0044722719 12:0.0017889088 13:0.0013416816 14:0.0013416816 15:0.0040250447 16:0.0044722719 17:0.0017889088 18:0.014758497 19:0.0031305903 20:0.040250447 21:0.0049194991 22:0.027728086 23:0.002236136 24:0.048300537 25:0.0089445438 26:0.013864043 27:0.0053667263 28:0.023255814 29:0.02236136 30:0.02236136 31:0.018336315 32:0.030858676 33:0.037567084 34:0.050089445 35:0.0053667263 36:0.032647585 37:0.01744186 38:0.052772809 39:0.012969589 40:0.029964222 41:0.04293381 42:0.009391771 43:0.0013416816 44:0.0035778175 45:0.010733453 46:0.010733453 47:0.0098389982 48:0.0067084079 49:0.0080500894 50:0.01118068 51:0.002236136 52:0.0089445438 53:0.0044722719 54:0.017889088 55:0.00044722719 56:0.012969589 57:0.0026833631 58:0.14892665 59:0.081842576 
1 1:0.0080500894 2:0.0049194991 4:0.0071556351 5:0.00044722719 6:0.010286225 8:0.0058139535 10:0.0013416816 11:0.0013416816 12:0.002236136 13:0.0035778175 14:0.002236136 15:0.0040250447 16:0.0026833631 17:0.0026833631 18:0.0084973166 19:0.002236136 20:0.020125224 21:0.0040250447 22:0.048747764 23:0.0080500894 24:0.033094812 25:0.0017889088 26:0.0058139535 27:0.0040250447 28:0.0053667263 29:0.014758497 30:0.025939177 31:0.092576029 32:0.040250447 33:0.033542039 34:0.058586762 35:0.002236136 36:0.01431127 37:0.0035778175 38:0.057245081 39:0.045169946 40:0.082289803 41:0.012969589 42:0.018783542 43:0.0031305903 44:0.0049194991 45:0.0040250447 46:0.009391771 47:0.019677996 48:0.01744186 49:0.010286225 50:0.018336315 51:0.0026833631 52:0.0076028623 53:0.0017889088 54:0.012969589 55:0.0031305903 56:0.019677996 57:0.002236136 58:0.1019678 59:0.059928444 
1 1:0.0089445438 2:0.012522361 4:0.0076028623 6:0.0053667263 8:0.0058139535 10:0.0040250447 11:0.0031305903 12:0.002236136 13:0.0026833631 14:0.00089445438 15:0.00089445438 16:0.00044722719 18:0.020572451 19:0.0080500894 20:0.078711986 21:0.0044722719 22:0.014758497 23:0.0013416816 24:0.0084973166 25:0.00044722719 26:0.0062611807 27:0.01431127 28:0.0509839 29:0.10644007 30:0.012969589 31:0.0031305903 32:0.010286225 33:0.0076028623 34:0.019677996 35:0.0049194991 36:0.072003578 37:0.062611807 38:0.076028623 39:0.0044722719 40:0.02549195 41:0.0044722719 42:0.0044722719 43:0.0040250447 44:0.0067084079 45:0.016100179 46:0.033542039 47:0.0071556351 48:0.0031305903 49:0.0044722719 50:0.0067084079 51:0.00044722719 52:0.010286225 53:0.00089445438 54:0.02549195 55:0.0017889088 56:0.0084973166 57:0.0026833631 58:0.14400716 59:0.046511628 
1 1:0.0058139535 2:0.0044722719 4:0.0053667263 6:0.0067084079 7:0.00044722719 8:0.002236136 9:0.00044722719 10:0.0017889088 11:0.002236136 12:0.002236136 13:0.0026833631 14:0.002236136 15:0.002236136 16:0.00044722719 18:0.0080500894 19:0.0017889088 20:0.029964222 21:0.01744186 22:0.047406082 23:0.0026833631 24:0.01118068 26:0.00044722719 27:0.016994633 28:0.017889088 29:0.058586762 30:0.092128801 31:0.039355993 32:0.019677996 33:0.00044722719 34:0.010286225 35:0.0031305903 36:0.033542039 37:0.017889088 38:0.21645796 39:0.022808587 40:0.047406082 41:0.0013416816 42:0.002236136 43:0.0026833631 44:0.0062611807 45:0.0089445438 46:0.016100179 47:0.024597496 48:0.013416816 49:0.0044722719 50:0.0053667263 52:0.0040250447 53:0.00044722719 54:0.01431127 55:0.0017889088 56:0.018336315 57:0.0017889088 58:0.084525939 59:0.034436494 
0.6086847438118087 1:0.0044722719 2:0.0049194991 4:0.0049194991 6:0.0026833631 8:0.00089445438 10:0.00044722719 11:0.002236136 12:0.0026833631 13:0.0013416816 17:0.00044722719 18:0.010733453 19:0.0071556351 20:0.080053667 21:0.0080500894 22:0.016547406 23:0.0013416816 24:0.0076028623 26:0.002236136 27:0.032200358 28:0.074686941 29:0.10733453 30:0.02549195 31:0.016547406 32:0.013416816 33:0.0035778175 34:0.01118068 35:0.0049194991 36:0.073345259 37:0.063953488 38:0.10778175 39:0.0098389982 40:0.031305903 41:0.0084973166 42:0.0044722719 43:0.0044722719 44:0.0071556351 45:0.024597496 46:0.039355993 47:0.0084973166 48:0.0062611807 49:0.0031305903 50:0.0067084079 51:0.00044722719 52:0.0071556351 53:0.0035778175 54:0.027280859 55:0.002236136 56:0.012969589 57:0.00089445438 58:0.066189624 59:0.031753131 
0.9923732865725593 1:0.00089445438 2:0.0044722719 4:0.0053667263 6:0.002236136 8:0.00089445438 10:0.00044722719 11:0.0017889088 12:0.00044722719 13:0.00044722719 14:0.00044722719 18:0.009391771 19:0.0058139535 20:0.063506261 21:0.009391771 22:0.024597496 23:0.0013416816 24:0.0089445438 25:0.00089445438 26:0.002236136 27:0.026833631 28:0.069767442 29:0.11985689 30:0.022808587 31:0.016100179 32:0.021019678 34:0.0044722719 35:0.0062611807 36:0.074239714 37:0.052325581 38:0.13908766 39:0.0098389982 40:0.031753131 41:0.0058139535 42:0.00089445438 43:0.0026833631 44:0.0062611807 45:0.019230769 46:0.040250447 47:0.011627907 48:0.009391771 49:0.0062611807 50:0.0089445438 51:0.00089445438 52:0.0084973166 53:0.00089445438 54:0.033989267 55:0.0017889088 56:0.01431127 57:0.0013416816 58:0.067531306 59:0.021466905 
1 1:0.0040250447 2:0.0031305903 4:0.0044722719 6:0.01118068 8:0.0040250447 10:0.00044722719 11:0.00044722719 12:0.00044722719 13:0.0035778175 14:0.002236136 15:0.0017889088 16:0.0017889088 17:0.00044722719 18:0.0053667263 19:0.00089445438 20:0.010286225 21:0.0031305903 22:0.054561717 23:0.0040250447 24:0.027728086 26:0.0035778175 27:0.0013416816 28:0.0031305903 29:0.0071556351 30:0.037119857 31:0.038461538 32:0.045617174 33:0.0076028623 34:0.023703041 35:0.00044722719 36:0.009391771 37:0.002236136 38:0.064847943 39:0.019230769 40:0.10286225 41:0.0089445438 42:0.010286225 43:0.0044722719 44:0.0031305903 45:0.0058139535 46:0.0035778175 47:0.023255814 48:0.021914132 49:0.019230769 50:0.01744186 51:0.0013416816 52:0.0076028623 53:0.0013416816 54:0.0098389982 55:0.00044722719 56:0.03667263 57:0.0026833631 58:0.26878354 59:0.042486583 
1 1:0.0040250447 2:0.0017889088 4:0.0067084079 6:0.010286225 8:0.0067084079 12:0.0013416816 13:0.002236136 14:0.0031305903 15:0.0017889088 16:0.00089445438 18:0.0044722719 19:0.00044722719 20:0.012969589 21:0.0031305903 22:0.059928444 23:0.0053667263 24:0.025939177 25:0.00089445438 26:0.0013416816 27:0.00089445438 28:0.0013416816 29:0.0062611807 30:0.024150268 31:0.02862254 32:0.044722719 33:0.0049194991 34:0.021914132 35:0.0017889088 36:0.0089445438 37:0.0017889088 38:0.055903399 39:0.021466905 40:0.11940966 41:0.0076028623 42:0.010733453 43:0.0049194991 44:0.002236136 45:0.0026833631 46:0.0026833631 47:0.020572451 48:0.01744186 49:0.014758497 50:0.019677996 51:0.0013416816 52:0.0040250447 53:0.00044722719 54:0.01118068 55:0.0026833631 56:0.039355993 57:0.00089445438 58:0.2960644 59:0.045169946 
0.08767628071198233 1:0.0049194991 2:0.0026833631 4:0.0071556351 6:0.010733453 8:0.0053667263 12:0.0013416816 13:0.0013416816 14:0.002236136 15:0.00044722719 16:0.0031305903 18:0.0053667263 19:0.00044722719 20:0.0076028623 21:0.0035778175 22:0.059928444 23:0.0076028623 24:0.030858676 26:0.0031305903 27:0.0035778175 28:0.0035778175 29:0.0076028623 30:0.02862254 31:0.035330948 32:0.037567084 33:0.0058139535 34:0.025044723 35:0.00089445438 36:0.012075134 37:0.002236136 38:0.061717352 39:0.02549195 40:0.1118068 41:0.014758497 42:0.0067084079 43:0.0040250447 44:0.0026833631 45:0.0035778175 46:0.0053667263 47:0.022808587 48:0.02549195 49:0.012969589 50:0.02236136 51:0.00044722719 52:0.0040250447 53:0.00044722719 54:0.0080500894 55:0.00089445438 56:0.037567084 57:0.0026833631 58:0.26654741 59:0.039355993 
1 1:0.0067084079 2:0.0058139535 4:0.012522361 6:0.0098389982 8:0.0058139535 10:0.00089445438 11:0.00089445438 12:0.0031305903 13:0.0031305903 14:0.0013416816 15:0.0013416816 16:0.0013416816 17:0.0013416816 18:0.0071556351 19:0.00089445438 20:0.04293381 21:0.012969589 22:0.04293381 23:0.0017889088 24:0.023255814 25:0.0013416816 26:0.0049194991 27:0.0017889088 28:0.011627907 29:0.055008945 30:0.035330948 31:0.013416816 32:0.012522361 33:0.0044722719 34:0.019230769 35:0.00089445438 36:0.013416816 37:0.016547406 38:0.16010733 39:0.010286225 40:0.054561717 41:0.0044722719 42:0.0040250447 43:0.0017889088 44:0.0013416816 45:0.0084973166 46:0.021019678 47:0.016994633 48:0.009391771 49:0.0049194991 50:0.015205725 51:0.0013416816 52:0.0031305903 53:0.0013416816 54:0.027728086 55:0.002236136 56:0.024150268 57:0.0031305903 58:0.19946333 59:0.048300537 
1 1:0.0040250447 2:0.0049194991 4:0.0049194991 6:0.0035778175 8:0.0040250447 10:0.00044722719 12:0.0031305903 13:0.002236136 14:0.0013416816 15:0.0040250447 17:0.00044722719 18:0.0089445438 19:0.0026833631 20:0.01744186 21:0.0089445438 22:0.072898032 23:0.0071556351 24:0.009391771 25:0.00044722719 26:0.0031305903 27:0.011627907 28:0.0040250447 29:0.024597496 30:0.10152057 31:0.088550984 32:0.019677996 33:0.00089445438 34:0.012969589 35:0.0084973166 36:0.021914132 37:0.0067084079 38:0.15831843 39:0.036225403 40:0.073792487 41:0.0026833631 42:0.0026833631 43:0.0049194991 44:0.0049194991 45:0.0058139535 46:0.01118068 47:0.029069767 48:0.023255814 49:0.0058139535 50:0.0084973166 51:0.0013416816 52:0.0058139535 53:0.0026833631 54:0.0084973166 55:0.002236136 56:0.035330948 57:0.0026833631 58:0.076923077 59:0.032200358 
1 1:0.011627907 2:0.013864043 4:0.009391771 6:0.0040250447 8:0.0076028623 10:0.0098389982 11:0.0058139535 12:0.0013416816 13:0.0031305903 14:0.0013416816 15:0.0013416816 16:0.00044722719 17:0.00089445438 18:0.016547406 19:0.0098389982 20:0.094812165 21:0.0062611807 22:0.012522361 24:0.0084973166 25:0.0017889088 26:0.0067084079 27:0.020125224 28:0.094364937 29:0.10286225 30:0.0067084079 31:0.0031305903 32:0.0062611807 33:0.0098389982 34:0.017889088 35:0.0067084079 36:0.085867621 37:0.061270125 38:0.044275492 39:0.0053667263 40:0.020125224 41:0.0044722719 42:0.0035778175 43:0.0049194991 44:0.0067084079 45:0.02549195 46:0.026386404 47:0.002236136 48:0.0026833631 49:0.0035778175 50:0.0084973166 51:0.0013416816 52:0.0044722719 53:0.002236136 54:0.025044723 55:0.0017889088 56:0.0031305903 57:0.0013416816 58:0.11270125 59:0.046958855 
1 1:0.0058139535 2:0.0084973166 3:0.00089445438 4:0.0084973166 6:0.0031305903 8:0.0062611807 10:0.0058139535 11:0.0058139535 12:0.002236136 13:0.0035778175 15:0.00044722719 16:0.00044722719 17:0.0013416816 18:0.022808587 19:0.0080500894 20:0.072450805 21:0.0049194991 22:0.010286225 23:0.0017889088 24:0.011627907 25:0.0013416816 26:0.0067084079 27:0.019677996 28:0.076028623 29:0.11896243 30:0.0084973166 31:0.0017889088 32:0.002236136 33:0.0089445438 34:0.019677996 35:0.0049194991 36:0.064400716 37:0.037119857 38:0.084525939 39:0.0031305903 40:0.018783542 41:0.0017889088 42:0.0035778175 43:0.0058139535 44:0.0076028623 45:0.023703041 46:0.02862254 47:0.0017889088 48:0.0044722719 49:0.0017889088 50:0.0084973166 51:0.0026833631 52:0.0084973166 53:0.0013416816 54:0.02236136 55:0.0013416816 56:0.0031305903 57:0.00089445438 58:0.16815742 59:0.042486583 
1 1:0.010733453 2:0.0067084079 4:0.0080500894 5:0.00044722719 6:0.0053667263 8:0.0040250447 10:0.0031305903 11:0.0026833631 12:0.0035778175 13:0.002236136 14:0.00089445438 15:0.0013416816 17:0.0013416816 18:0.009391771 19:0.0071556351 20:0.06216458 21:0.01431127 22:0.020572451 23:0.00044722719 24:0.012522361 25:0.0013416816 26:0.0013416816 27:0.014758497 28:0.057245081 29:0.11493739 30:0.033542039 31:0.0040250447 32:0.0044722719 33:0.011627907 34:0.012522361 35:0.00089445438 36:0.044275492 37:0.044275492 38:0.13595707 39:0.0080500894 40:0.021914132 41:0.0026833631 42:0.0026833631 43:0.0013416816 44:0.0017889088 45:0.016547406 46:0.030858676 47:0.0080500894 48:0.0040250447 49:0.0017889088 50:0.0049194991 52:0.0013416816 53:0.0031305903 54:0.016547406 55:0.00089445438 56:0.010286225 57:0.00089445438 58:0.15474061 59:0.049194991 
1 1:0.01118068 2:0.0071556351 3:0.00044722719 4:0.0098389982 6:0.0049194991 8:0.0035778175 10:0.0040250447 11:0.0026833631 12:0.0013416816 13:0.0040250447 15:0.00044722719 16:0.00089445438 17:0.00044722719 18:0.0089445438 19:0.0053667263 20:0.057692308 21:0.012522361 22:0.029516995 23:0.0026833631 24:0.0080500894 25:0.0013416816 26:0.0031305903 27:0.0062611807 28:0.050536673 29:0.11493739 30:0.045169946 31:0.0098389982 32:0.0026833631 33:0.0044722719 34:0.012522361 35:0.0013416816 36:0.032647585 37:0.047406082 38:0.15205725 39:0.009391771 40:0.015205725 41:0.002236136 42:0.00044722719 43:0.0013416816 44:0.0026833631 45:0.013864043 46:0.029964222 47:0.016100179 48:0.0062611807 49:0.0013416816 50:0.0035778175 52:0.0040250447 53:0.0026833631 54:0.019230769 55:0.0013416816 56:0.010286225 57:0.0026833631 58:0.1529517 59:0.044275492 
1 1:0.010286225 2:0.0076028623 3:0.00044722719 4:0.0089445438 6:0.0035778175 8:0.0044722719 10:0.0058139535 11:0.0026833631 12:0.0035778175 13:0.0031305903 14:0.0017889088 17:0.00044722719 18:0.0089445438 19:0.0044722719 20:0.063953488 21:0.018783542 22:0.032200358 23:0.002236136 24:0.0062611807 26:0.0013416816 27:0.0062611807 28:0.030858676 29:0.11046512 30:0.058586762 31:0.018783542 32:0.0062611807 33:0.002236136 34:0.0062611807 35:0.002236136 36:0.029069767 37:0.040250447 38:0.16636852 39:0.01744186 40:0.018783542 41:0.00044722719 43:0.0017889088 44:0.0013416816 45:0.016100179 46:0.027728086 47:0.013864043 48:0.0058139535 49:0.0017889088 50:0.00089445438 52:0.0017889088 53:0.0026833631 54:0.023255814 55:0.00089445438 56:0.009391771 57:0.0013416816 58:0.13550984 59:0.050536673 
1 1:0.0040250447 2:0.0071556351 4:0.009391771 6:0.0080500894 8:0.0031305903 10:0.0017889088 11:0.0013416816 12:0.0053667263 13:0.0026833631 14:0.0017889088 15:0.0013416816 16:0.00044722719 17:0.002236136 18:0.0058139535 19:0.002236136 20:0.052325581 21:0.015205725 22:0.041592129 23:0.0035778175 24:0.0076028623 25:0.00089445438 26:0.0031305903 27:0.0040250447 28:0.021019678 29:0.099284436 30:0.059481216 31:0.016994633 32:0.012522361 33:0.0017889088 34:0.0089445438 36:0.031753131 37:0.032200358 38:0.15742397 39:0.01431127 40:0.02549195 41:0.0026833631 42:0.002236136 43:0.0013416816 44:0.002236136 45:0.012969589 46:0.023255814 47:0.015652952 48:0.0071556351 49:0.0031305903 50:0.0053667263 52:0.002236136 53:0.0026833631 54:0.019230769 55:0.00089445438 56:0.015205725 57:0.0026833631 58:0.17218247 59:0.042486583 
1 1:0.011627907 2:0.01118068 4:0.009391771 6:0.0089445438 8:0.0031305903 10:0.0044722719 11:0.0017889088 12:0.0035778175 13:0.0031305903 14:0.002236136 15:0.0013416816 16:0.0013416816 18:0.0089445438 19:0.002236136 20:0.050536673 21:0.010733453 22:0.045617174 23:0.0044722719 24:0.0071556351 25:0.0013416816 26:0.0053667263 27:0.0049194991 28:0.01744186 29:0.041144902 30:0.060375671 31:0.023703041 32:0.010733453 33:0.0017889088 34:0.0062611807 35:0.00089445438 36:0.046511628 37:0.012522361 38:0.13148479 39:0.015652952 40:0.02862254 41:0.0017889088 42:0.0013416816 43:0.0017889088 44:0.0026833631 45:0.012969589 46:0.019677996 47:0.023703041 48:0.0071556351 49:0.0017889088 50:0.0035778175 51:0.00089445438 52:0.0062611807 53:0.0044722719 54:0.029516995 55:0.0017889088 56:0.019677996 57:0.0013416816 58:0.21064401 59:0.048300537 
1 1:0.00089445438 2:0.01118068 4:0.0031305903 6:0.00089445438 8:0.0062611807 10:0.0062611807 11:0.002236136 12:0.00044722719 13:0.00044722719 14:0.00044722719 17:0.00089445438 18:0.048747764 19:0.026386404 20:0.03667263 21:0.002236136 22:0.0013416816 23:0.00044722719 24:0.0084973166 26:0.017889088 27:0.1068873 28:0.069320215 29:0.021466905 30:0.0049194991 31:0.0017889088 32:0.0017889088 33:0.017889088 34:0.04293381 35:0.026833631 36:0.18559928 37:0.015205725 38:0.017889088 39:0.0017889088 40:0.0071556351 41:0.0098389982 42:0.0067084079 43:0.013864043 44:0.025939177 45:0.019677996 46:0.0098389982 47:0.0017889088 48:0.0026833631 49:0.0062611807 50:0.0062611807 51:0.0017889088 52:0.032647585 53:0.0031305903 54:0.027728086 55:0.0017889088 56:0.0035778175 57:0.00089445438 58:0.096601073 59:0.032200358 
1 1:0.0035778175 2:0.010733453 4:0.0044722719 6:0.0026833631 8:0.0049194991 10:0.002236136 11:0.0044722719 12:0.0013416816 13:0.00089445438 17:0.0017889088 18:0.040250447 19:0.02862254 20:0.033542039 21:0.0017889088 22:0.0026833631 23:0.00044722719 24:0.01118068 25:0.0017889088 26:0.015205725 27:0.10644007 28:0.087209302 29:0.014758497 30:0.0017889088 31:0.0013416816 32:0.0031305903 33:0.0062611807 34:0.035778175 35:0.019230769 36:0.22227191 37:0.01431127 38:0.021019678 40:0.0076028623 41:0.0071556351 42:0.0067084079 43:0.012522361 44:0.019677996 45:0.018336315 46:0.0076028623 47:0.00044722719 48:0.0013416816 49:0.0062611807 50:0.0062611807 51:0.00089445438 52:0.027280859 53:0.0026833631 54:0.02236136 56:0.0044722719 58:0.10957066 59:0.032647585 
1 1:0.0084973166 2:0.0053667263 4:0.0067084079 6:0.0049194991 8:0.0026833631 10:0.0053667263 11:0.0049194991 12:0.0017889088 13:0.0026833631 14:0.00044722719 16:0.00089445438 17:0.0017889088 18:0.018336315 19:0.010733453 20:0.085420394 21:0.0062611807 22:0.020572451 23:0.00044722719 24:0.0076028623 25:0.00089445438 26:0.0040250447 27:0.029516995 28:0.1068873 29:0.099731664 30:0.02236136 31:0.0062611807 32:0.0035778175 33:0.0013416816 34:0.0089445438 35:0.0049194991 36:0.070661896 37:0.066636852 38:0.066189624 39:0.0049194991 40:0.013416816 41:0.00044722719 42:0.0013416816 43:0.0031305903 44:0.0062611807 45:0.027280859 46:0.02862254 47:0.0026833631 48:0.0044722719 49:0.0013416816 50:0.0053667263 51:0.0035778175 52:0.0049194991 53:0.0013416816 54:0.02236136 55:0.0017889088 56:0.012522361 57:0.00044722719 58:0.12701252 59:0.039355993 
1 1:0.0040250447 2:0.0062611807 4:0.0067084079 6:0.0031305903 8:0.0053667263 10:0.0017889088 11:0.0017889088 12:0.002236136 13:0.0031305903 14:0.00089445438 15:0.00044722719 16:0.00044722719 17:0.0013416816 18:0.01431127 19:0.0071556351 20:0.06842576 21:0.012075134 22:0.021019678 23:0.002236136 24:0.010286225 25:0.0013416816 26:0.0062611807 27:0.009391771 28:0.082289803 29:0.10912343 30:0.027728086 31:0.0089445438 32:0.0089445438 33:0.0013416816 34:0.013416816 35:0.0026833631 36:0.063059034 37:0.062611807 38:0.098389982 39:0.0080500894 40:0.029964222 41:0.0040250447 42:0.0013416816 43:0.0044722719 44:0.0017889088 45:0.015652952 46:0.025939177 47:0.010733453 48:0.0067084079 49:0.0040250447 50:0.0049194991 52:0.0040250447 53:0.0017889088 54:0.014758497 55:0.00044722719 56:0.015205725 57:0.0013416816 58:0.14669052 59:0.029516995 
1 1:0.0080500894 2:0.0044722719 4:0.0098389982 6:0.0053667263 8:0.0026833631 10:0.0035778175 11:0.0049194991 12:0.0058139535 13:0.0017889088 14:0.0017889088 15:0.00089445438 16:0.00089445438 17:0.00089445438 18:0.012075134 19:0.0031305903 20:0.084525939 21:0.012969589 22:0.030411449 23:0.0017889088 24:0.0035778175 25:0.0013416816 26:0.0062611807 27:0.0098389982 28:0.053667263 29:0.11135957 30:0.070214669 31:0.016547406 32:0.0080500894 33:0.0040250447 34:0.01431127 35:0.0044722719 36:0.032647585 37:0.067531306 38:0.14266547 39:0.026833631 40:0.012075134 41:0.002236136 42:0.00089445438 43:0.002236136 44:0.0040250447 45:0.021914132 46:0.029069767 47:0.016100179 48:0.0058139535 49:0.0026833631 50:0.002236136 51:0.002236136 52:0.0044722719 53:0.0035778175 54:0.019230769 55:0.0031305903 56:0.0071556351 57:0.0026833631 58:0.059928444 59:0.029069767 
1 1:0.0062611807 2:0.012522361 4:0.0049194991 6:0.0044722719 8:0.0058139535 10:0.002236136 11:0.0013416816 12:0.00089445438 13:0.00089445438 15:0.002236136 16:0.00044722719 17:0.0017889088 18:0.048300537 19:0.0053667263 20:0.043381038 21:0.0013416816 22:0.0098389982 23:0.00089445438 24:0.022808587 25:0.0026833631 26:0.029964222 27:0.027728086 28:0.021914132 29:0.010733453 30:0.0076028623 31:0.0035778175 32:0.0053667263 33:0.011627907 34:0.057245081 35:0.020572451 36:0.11985689 37:0.010733453 38:0.02862254 39:0.0026833631 40:0.015652952 41:0.0035778175 42:0.0062611807 43:0.01744186 44:0.01744186 45:0.016100179 46:0.0098389982 47:0.0058139535 48:0.0058139535 49:0.0076028623 50:0.01431127 51:0.002236136 52:0.033989267 53:0.00044722719 54:0.031753131 55:0.00044722719 56:0.0062611807 57:0.0026833631 58:0.22048301 59:0.045169946 
1 1:0.0035778175 2:0.0026833631 4:0.012969589 5:0.00044722719 6:0.0076028623 8:0.0044722719 10:0.00089445438 11:0.00089445438 12:0.0013416816 13:0.0062611807 14:0.0053667263 15:0.002236136 16:0.00044722719 18:0.0084973166 19:0.0053667263 20:0.031305903 21:0.0062611807 22:0.070214669 23:0.0044722719 24:0.01118068 25:0.00044722719 26:0.0013416816 27:0.016994633 28:0.028175313 29:0.021466905 30:0.077370304 31:0.040697674 32:0.013864043 33:0.00044722719 34:0.012075134 35:0.0017889088 36:0.096153846 37:0.010286225 38:0.073792487 39:0.040697674 40:0.056797853 41:0.0071556351 42:0.0053667263 43:0.002236136 44:0.0031305903 45:0.012075134 46:0.012522361 47:0.033989267 48:0.01431127 49:0.0044722719 50:0.0044722719 51:0.0017889088 52:0.01118068 53:0.0017889088 54:0.025939177 55:0.00044722719 56:0.024150268 57:0.0031305903 58:0.11270125 59:0.040250447 
0.34788116659046636 1:0.0031305903 2:0.0031305903 4:0.012969589 5:0.00044722719 6:0.0062611807 8:0.0013416816 10:0.00089445438 11:0.00044722719 12:0.002236136 13:0.0071556351 14:0.0035778175 15:0.0017889088 16:0.00089445438 17:0.00044722719 18:0.011627907 19:0.0031305903 20:0.043381038 21:0.0013416816 22:0.072003578 23:0.0026833631 24:0.009391771 25:0.0017889088 26:0.0035778175 27:0.021019678 28:0.019677996 29:0.03667263 30:0.075581395 31:0.03667263 32:0.021914132 33:0.0017889088 34:0.0089445438 35:0.0031305903 36:0.071109123 37:0.020572451 38:0.10733453 39:0.046064401 40:0.045169946 41:0.0040250447 42:0.002236136 43:0.0017889088 44:0.0084973166 45:0.010286225 46:0.015205725 47:0.032200358 48:0.01744186 49:0.0067084079 50:0.0053667263 51:0.00044722719 52:0.0080500894 53:0.00089445438 54:0.026386404 55:0.0013416816 56:0.023703041 57:0.0040250447 58:0.078264758 59:0.043828265 
1 1:0.0035778175 2:0.00089445438 4:0.0084973166 5:0.00089445438 6:0.0044722719 8:0.0067084079 12:0.0013416816 13:0.0013416816 14:0.0053667263 15:0.0044722719 17:0.0017889088 18:0.0067084079 19:0.00044722719 20:0.012522361 21:0.0049194991 22:0.10420394 23:0.0098389982 24:0.016100179 25:0.0013416816 26:0.0017889088 27:0.002236136 28:0.0035778175 29:0.010733453 30:0.080053667 31:0.089445438 32:0.028175313 33:0.0013416816 34:0.010286225 35:0.00089445438 36:0.02236136 37:0.0031305903 38:0.076923077 39:0.076028623 40:0.07960644 41:0.0035778175 42:0.0031305903 43:0.0017889088 44:0.00044722719 45:0.0062611807 46:0.0044722719 47:0.036225403 48:0.030858676 49:0.0089445438 50:0.0080500894 51:0.0017889088 52:0.0076028623 54:0.009391771 55:0.0035778175 56:0.049194991 57:0.00044722719 58:0.10330948 59:0.038908766 
1 1:0.0058139535 2:0.0017889088 4:0.009391771 6:0.010286225 8:0.0031305903 12:0.00089445438 13:0.0017889088 14:0.0040250447 15:0.0031305903 16:0.0013416816 18:0.0080500894 20:0.015205725 21:0.0044722719 22:0.10152057 23:0.0053667263 24:0.016100179 25:0.00044722719 26:0.00044722719 27:0.0035778175 28:0.0040250447 29:0.013416816 30:0.11046512 31:0.071109123 32:0.023703041 33:0.0053667263 34:0.0071556351 35:0.00089445438 36:0.023255814 37:0.0031305903 38:0.099284436 39:0.084973166 40:0.057692308 41:0.0040250447 42:0.0040250447 43:0.0026833631 44:0.002236136 45:0.0017889088 46:0.0062611807 47:0.038908766 48:0.023703041 49:0.0062611807 50:0.0080500894 51:0.0013416816 52:0.0084973166 53:0.0013416816 54:0.012075134 56:0.040250447 57:0.002236136 58:0.094364937 59:0.040697674 
1 1:0.0035778175 2:0.0031305903 4:0.0067084079 6:0.0035778175 8:0.0017889088 11:0.00089445438 12:0.0017889088 13:0.0031305903 14:0.002236136 15:0.0031305903 16:0.00089445438 17:0.00044722719 18:0.0049194991 19:0.00089445438 20:0.025939177 21:0.012075134 22:0.073345259 23:0.0040250447 24:0.01118068 25:0.00044722719 26:0.00089445438 27:0.0089445438 28:0.0049194991 29:0.034883721 30:0.1118068 31:0.050536673 32:0.02236136 33:0.0044722719 34:0.009391771 35:0.00089445438 36:0.027280859 37:0.009391771 38:0.18381038 39:0.059033989 40:0.055008945 41:0.0035778175 42:0.002236136 43:0.00089445438 44:0.0031305903 45:0.0071556351 46:0.012969589 47:0.03980322 48:0.018336315 49:0.0044722719 50:0.0040250447 51:0.0013416816 52:0.0058139535 53:0.00089445438 54:0.010733453 55:0.00089445438 56:0.025044723 57:0.0013416816 58:0.078264758 59:0.031305903 
0.89430344619516211 1:0.0026833631 2:0.0035778175 4:0.0035778175 6:0.0040250447 8:0.0017889088 11:0.0013416816 12:0.00089445438 13:0.0035778175 14:0.00089445438 15:0.00044722719 16:0.00044722719 18:0.0062611807 19:0.0040250447 20:0.055903399 21:0.015205725 22:0.038014311 23:0.0026833631 24:0.0076028623 25:0.00089445438 26:0.0031305903 27:0.012522361 28:0.043828265 29:0.12030411 30:0.07647585 31:0.017889088 32:0.0076028623 33:0.0026833631 34:0.010733453 35:0.002236136 36:0.03980322 37:0.038908766 38:0.18470483 39:0.031753131 40:0.030858676 41:0.0013416816 42:0.0031305903 43:0.0035778175 44:0.0058139535 45:0.010733453 46:0.027280859 47:0.018783542 48:0.012522361 49:0.0058139535 50:0.0080500894 51:0.0017889088 52:0.0053667263 53:0.00089445438 54:0.014758497 55:0.0026833631 56:0.010286225 57:0.00044722719 58:0.060375671 59:0.029069767 
1 1:0.0026833631 2:0.0017889088 4:0.0040250447 6:0.010286225 8:0.0026833631 14:0.00044722719 15:0.00044722719 16:0.00044722719 17:0.00089445438 18:0.011627907 20:0.0035778175 21:0.00089445438 22:0.04293381 23:0.018336315 24:0.043381038 25:0.002236136 26:0.0049194991 27:0.0053667263 28:0.00044722719 29:0.0031305903 30:0.014758497 31:0.082289803 32:0.067978533 33:0.010286225 34:0.034436494 35:0.0071556351 36:0.0080500894 38:0.030858676 39:0.024597496 40:0.20348837 41:0.016994633 42:0.011627907 43:0.0026833631 44:0.0017889088 45:0.0013416816 46:0.002236136 47:0.016994633 48:0.023255814 49:0.019230769 50:0.029964222 51:0.00044722719 52:0.0084973166 53:0.00044722719 54:0.0035778175 55:0.00089445438 56:0.029516995 57:0.002236136 58:0.15384615 59:0.029964222 
0.95923277979974175 1:0.002236136 2:0.0040250447 4:0.0067084079 6:0.0058139535 8:0.0040250447 11:0.00044722719 12:0.00044722719 13:0.0026833631 14:0.0044722719 15:0.0031305903 16:0.00044722719 18:0.0058139535 19:0.00044722719 20:0.0080500894 21:0.0026833631 22:0.059033989 23:0.01118068 24:0.025044723 25:0.0013416816 26:0.0035778175 27:0.0013416816 28:0.0026833631 29:0.010733453 30:0.02862254 31:0.1019678 32:0.052772809 33:0.0040250447 34:0.025044723 36:0.012522361 37:0.00044722719 38:0.0509839 39:0.033989267 40:0.15876565 41:0.011627907 42:0.0089445438 43:0.0040250447 44:0.0017889088 45:0.00089445438 46:0.0035778175 47:0.019230769 48:0.027280859 49:0.01744186 50:0.012969589 51:0.00044722719 52:0.0071556351 54:0.0089445438 55:0.00044722719 56:0.034883721 57:0.0017889088 58:0.16905188 59:0.033989267 
1 1:0.0031305903 2:0.0031305903 4:0.0084973166 6:0.0062611807 8:0.002236136 12:0.0013416816 13:0.00044722719 14:0.002236136 15:0.0013416816 16:0.00044722719 18:0.0049194991 19:0.0013416816 20:0.026386404 21:0.0040250447 22:0.085420394 23:0.0084973166 24:0.0058139535 26:0.0017889088 27:0.0035778175 28:0.0067084079 29:0.019677996 30:0.075581395 31:0.10375671 32:0.023255814 33:0.0035778175 34:0.0084973166 36:0.027280859 37:0.0080500894 38:0.10062612 39:0.068872987 40:0.067531306 41:0.0040250447 42:0.0058139535 43:0.002236136 44:0.0040250447 45:0.0076028623 46:0.012969589 47:0.042486583 48:0.037567084 49:0.0062611807 50:0.0049194991 51:0.00044722719 52:0.0076028623 53:0.00089445438 54:0.01744186 55:0.0013416816 56:0.037119857 57:0.0013416816 58:0.089445438 59:0.032200358 
1 1:0.0031305903 2:0.0084973166 4:0.0031305903 6:0.0026833631 8:0.0031305903 10:0.0017889088 11:0.0017889088 12:0.00089445438 13:0.00044722719 18:0.021019678 19:0.0089445438 20:0.083184258 21:0.0026833631 22:0.010286225 23:0.00044722719 24:0.0044722719 25:0.00044722719 26:0.0076028623 27:0.029964222 28:0.12432916 29:0.035330948 30:0.0076028623 31:0.0026833631 32:0.0035778175 33:0.0040250447 34:0.022808587 35:0.0089445438 36:0.1265653 37:0.05411449 38:0.063059034 39:0.0076028623 40:0.012075134 41:0.00044722719 42:0.0035778175 43:0.0098389982 44:0.010286225 45:0.038014311 46:0.026833631 47:0.0076028623 48:0.0049194991 49:0.0035778175 50:0.0058139535 51:0.0026833631 52:0.016994633 53:0.00089445438 54:0.041592129 55:0.0013416816 56:0.0058139535 57:0.00089445438 58:0.1234347 59:0.028175313 
0.35032507464588231 1:0.0017889088 2:0.011627907 4:0.0049194991 6:0.0017889088 8:0.0053667263 10:0.0013416816 11:0.0017889088 18:0.026386404 19:0.0076028623 20:0.063506261 21:0.0026833631 22:0.0044722719 23:0.00044722719 24:0.0080500894 26:0.0035778175 27:0.047406082 28:0.11583184 29:0.024150268 30:0.0058139535 31:0.0013416816 32:0.0026833631 33:0.0062611807 34:0.027280859 35:0.0067084079 36:0.17620751 37:0.030411449 38:0.053667263 39:0.00089445438 40:0.015652952 41:0.0049194991 42:0.0053667263 43:0.010733453 44:0.016994633 45:0.028175313 46:0.021466905 47:0.0049194991 48:0.0049194991 49:0.0035778175 50:0.0080500894 52:0.02236136 53:0.0013416816 54:0.043381038 55:0.00089445438 56:0.0058139535 58:0.12119857 59:0.036225403 
0.26123709078716811 1:0.0076028623 2:0.0076028623 4:0.0049194991 6:0.010286225 8:0.012075134 10:0.0013416816 11:0.00089445438 12:0.0013416816 13:0.002236136 14:0.0026833631 15:0.0026833631 16:0.0017889088 17:0.0017889088 18:0.029069767 19:0.00044722719 20:0.011627907 21:0.0013416816 22:0.035330948 23:0.0031305903 24:0.047853309 25:0.0035778175 26:0.018783542 27:0.0098389982 28:0.0031305903 29:0.0058139535 30:0.010733453 31:0.016994633 32:0.029069767 33:0.024150268 34:0.055008945 35:0.01118068 36:0.02549195 37:0.0026833631 38:0.027280859 39:0.0071556351 40:0.11717352 41:0.012075134 42:0.016100179 43:0.009391771 44:0.0098389982 45:0.002236136 46:0.0031305903 47:0.009391771 48:0.012075134 49:0.01744186 50:0.037567084 51:0.0035778175 52:0.013864043 53:0.0035778175 54:0.0062611807 55:0.002236136 56:0.01744186 57:0.0026833631 58:0.19633274 59:0.070661896 
1 1:0.0035778175 2:0.0031305903 4:0.0080500894 6:0.0089445438 8:0.0026833631 10:0.00089445438 11:0.002236136 12:0.002236136 15:0.0017889088 18:0.0053667263 19:0.0013416816 20:0.038014311 21:0.0017889088 22:0.055456172 23:0.002236136 24:0.035330948 25:0.00044722719 27:0.0031305903 28:0.018336315 29:0.018336315 30:0.020125224 31:0.010733453 32:0.014758497 33:0.0031305903 34:0.017889088 35:0.00089445438 36:0.028175313 37:0.0084973166 38:0.085867621 39:0.0080500894 40:0.097048301 41:0.0035778175 42:0.0031305903 43:0.0026833631 44:0.00089445438 45:0.0053667263 46:0.0035778175 47:0.012969589 48:0.01118068 49:0.0062611807 50:0.033989267 51:0.00089445438 52:0.0080500894 53:0.00089445438 54:0.020572451 55:0.00044722719 56:0.049194991 57:0.0013416816 58:0.28085868 59:0.045617174 
1 1:0.0058139535 2:0.0049194991 4:0.012969589 6:0.0049194991 8:0.0026833631 10:0.0044722719 11:0.0049194991 12:0.0035778175 13:0.0017889088 14:0.0013416816 15:0.00044722719 17:0.00044722719 18:0.0071556351 19:0.0076028623 20:0.076028623 21:0.0049194991 22:0.029069767 23:0.002236136 24:0.009391771 26:0.0017889088 27:0.016547406 28:0.047406082 29:0.077370304 30:0.021914132 31:0.029069767 32:0.019230769 33:0.002236136 34:0.0098389982 35:0.0013416816 36:0.049642218 37:0.040697674 38:0.069320215 39:0.010286225 40:0.087209302 41:0.0035778175 42:0.0031305903 43:0.0013416816 44:0.0044722719 45:0.017889088 46:0.024597496 47:0.010733453 48:0.010733453 49:0.0062611807 50:0.0062611807 51:0.0013416816 52:0.0058139535 53:0.0013416816 54:0.020572451 55:0.0026833631 56:0.025939177 57:0.0013416816 58:0.12924866 59:0.05411449 
1 1:0.0053667263 2:0.0058139535 3:0.00044722719 4:0.0067084079 6:0.0031305903 8:0.002236136 10:0.0017889088 11:0.002236136 12:0.0040250447 13:0.0031305903 14:0.00044722719 15:0.00044722719 16:0.00044722719 18:0.010286225 19:0.0062611807 20:0.070214669 21:0.0076028623 22:0.032647585 24:0.0067084079 25:0.00044722719 26:0.002236136 27:0.015652952 28:0.044275492 29:0.1283542 30:0.046064401 31:0.0089445438 32:0.0089445438 33:0.0013416816 34:0.0067084079 35:0.0026833631 36:0.051431127 37:0.051431127 38:0.18470483 39:0.0058139535 40:0.021914132 41:0.00044722719 42:0.00089445438 43:0.0026833631 44:0.0049194991 45:0.012522361 46:0.041592129 47:0.016100179 48:0.0053667263 49:0.0035778175 50:0.0044722719 52:0.0062611807 53:0.00089445438 54:0.024597496 55:0.00044722719 56:0.015652952 57:0.0017889088 58:0.072898032 59:0.033989267 
0.31612650066640385 1:0.0067084079 2:0.010286225 4:0.0071556351 6:0.0062611807 8:0.0017889088 9:0.00044722719 11:0.0013416816 12:0.0049194991 13:0.0026833631 14:0.00089445438 16:0.00044722719 17:0.00089445438 18:0.010286225 19:0.0031305903 20:0.047406082 21:0.012075134 22:0.034883721 23:0.0017889088 24:0.0040250447 25:0.0013416816 26:0.0017889088 27:0.017889088 28:0.029516995 29:0.10286225 30:0.055456172 31:0.01431127 32:0.010733453 33:0.00089445438 34:0.0089445438 35:0.0026833631 36:0.045169946 37:0.033989267 38:0.20661896 39:0.016994633 40:0.038461538 41:0.0017889088 42:0.00089445438 43:0.0026833631 44:0.0035778175 45:0.01744186 46:0.033989267 47:0.020572451 48:0.0062611807 49:0.0058139535 50:0.0058139535 51:0.00044722719 52:0.0058139535 53:0.002236136 54:0.019230769 55:0.0013416816 56:0.011627907 58:0.071556351 59:0.043828265 
0.025825555587594036 1:0.0035778175 2:0.0026833631 4:0.0044722719 6:0.0076028623 8:0.0062611807 12:0.0017889088 14:0.0044722719 15:0.0031305903 16:0.00089445438 17:0.00044722719 18:0.013416816 20:0.0071556351 21:0.0017889088 22:0.047853309 23:0.013416816 24:0.032647585 25:0.00044722719 26:0.01118068 27:0.0031305903 28:0.0026833631 29:0.0067084079 30:0.026386404 31:0.083184258 32:0.042486583 33:0.0098389982 34:0.031753131 35:0.0076028623 36:0.010733453 37:0.00044722719 38:0.0509839 39:0.016100179 40:0.19499106 41:0.010733453 42:0.011627907 43:0.0035778175 44:0.002236136 45:0.0017889088 46:0.0017889088 47:0.018783542 48:0.021914132 49:0.016547406 50:0.02236136 51:0.00089445438 52:0.010286225 53:0.0013416816 54:0.0089445438 55:0.0013416816 56:0.032200358 57:0.0031305903 58:0.14669052 59:0.033542039 
1 1:0.0044722719 2:0.0058139535 3:0.00044722719 4:0.0026833631 5:0.00044722719 6:0.0026833631 8:0.0013416816 11:0.00044722719 12:0.00044722719 13:0.0017889088 14:0.0035778175 15:0.00089445438 17:0.00044722719 18:0.0053667263 19:0.0013416816 20:0.041144902 21:0.015652952 22:0.053220036 23:0.0031305903 24:0.0035778175 26:0.0017889088 27:0.0084973166 28:0.019230769 29:0.094364937 30:0.10957066 31:0.032647585 32:0.0098389982 33:0.0013416816 34:0.0089445438 35:0.0031305903 36:0.034883721 37:0.031305903 38:0.18381038 39:0.052325581 40:0.032200358 41:0.0026833631 42:0.0031305903 43:0.0040250447 44:0.0058139535 45:0.009391771 46:0.024597496 47:0.024597496 48:0.012075134 49:0.0044722719 50:0.0044722719 51:0.0017889088 52:0.0062611807 53:0.00089445438 54:0.016547406 55:0.00089445438 56:0.012522361 57:0.002236136 58:0.067531306 59:0.023255814 
1 1:0.0035778175 2:0.0031305903 4:0.012075134 6:0.0040250447 8:0.0035778175 10:0.00044722719 11:0.00089445438 12:0.0026833631 13:0.0017889088 14:0.0017889088 18:0.0062611807 19:0.0031305903 20:0.022808587 21:0.014758497 22:0.064847943 23:0.0049194991 24:0.0089445438 26:0.0013416816 27:0.011627907 28:0.015652952 29:0.044722719 30:0.1234347 31:0.053220036 32:0.018783542 33:0.0026833631 34:0.0058139535 35:0.00089445438 36:0.035778175 37:0.016100179 38:0.15250447 39:0.063506261 40:0.041144902 41:0.0035778175 42:0.0044722719 43:0.002236136 44:0.0044722719 45:0.0049194991 46:0.012075134 47:0.043828265 48:0.016994633 49:0.0040250447 50:0.0071556351 51:0.0017889088 52:0.0053667263 53:0.0013416816 54:0.009391771 55:0.00089445438 56:0.018783542 57:0.0017889088 58:0.072450805 59:0.037567084 
1 1:0.0013416816 2:0.0080500894 4:0.0017889088 6:0.0013416816 8:0.0035778175 10:0.0017889088 11:0.00044722719 15:0.00044722719 17:0.00044722719 18:0.056797853 19:0.0098389982 20:0.018336315 21:0.00044722719 22:0.0017889088 23:0.00044722719 24:0.012522361 25:0.0026833631 26:0.036225403 27:0.11762075 28:0.058139535 29:0.0053667263 30:0.002236136 31:0.0013416816 32:0.0076028623 33:0.015205725 34:0.057692308 35:0.032647585 36:0.16994633 37:0.010733453 38:0.012969589 39:0.0013416816 40:0.011627907 41:0.0067084079 42:0.0084973166 43:0.018783542 44:0.025044723 45:0.0084973166 46:0.0076028623 47:0.0017889088 48:0.00089445438 49:0.0049194991 50:0.01431127 52:0.038014311 53:0.0026833631 54:0.017889088 55:0.0013416816 56:0.0035778175 58:0.15384615 59:0.022808587 
1 1:0.0031305903 2:0.01118068 4:0.0026833631 6:0.0017889088 8:0.0044722719 10:0.00044722719 11:0.0017889088 12:0.00089445438 15:0.00044722719 17:0.00044722719 18:0.031753131 19:0.015652952 20:0.047406082 21:0.00089445438 22:0.0058139535 24:0.010286225 25:0.00089445438 26:0.011627907 27:0.066189624 28:0.11091234 29:0.016994633 30:0.0017889088 31:0.0026833631 32:0.0035778175 33:0.0062611807 34:0.023255814 35:0.021914132 36:0.21466905 37:0.021019678 38:0.025939177 39:0.00089445438 40:0.01431127 41:0.0058139535 42:0.0058139535 43:0.009391771 44:0.018783542 45:0.025939177 46:0.011627907 47:0.0017889088 48:0.00044722719 49:0.0040250447 50:0.009391771 51:0.00089445438 52:0.024150268 53:0.002236136 54:0.031305903 56:0.0049194991 57:0.00044722719 58:0.1283542 59:0.032647585 
1 1:0.0040250447 2:0.0067084079 4:0.00089445438 6:0.00089445438 8:0.0013416816 10:0.0017889088 11:0.0017889088 12:0.00089445438 13:0.00044722719 18:0.038461538 19:0.01744186 20:0.067531306 21:0.00089445438 22:0.0062611807 23:0.00044722719 24:0.0058139535 25:0.0013416816 26:0.0098389982 27:0.035778175 28:0.11091234 29:0.026386404 30:0.0049194991 31:0.00089445438 32:0.0013416816 33:0.0044722719 34:0.018336315 35:0.01118068 36:0.17889088 37:0.027280859 38:0.039355993 39:0.0017889088 40:0.01431127 41:0.0058139535 42:0.0040250447 43:0.010733453 44:0.018783542 45:0.03667263 46:0.021466905 47:0.002236136 48:0.0017889088 49:0.0013416816 50:0.0071556351 51:0.00044722719 52:0.02236136 53:0.002236136 54:0.039355993 55:0.0013416816 56:0.0053667263 58:0.1480322 59:0.028175313 
1 1:0.0026833631 2:0.0031305903 4:0.00089445438 6:0.0076028623 8:0.0080500894 10:0.00089445438 13:0.00089445438 14:0.0017889088 15:0.0017889088 16:0.0017889088 17:0.00089445438 18:0.019677996 20:0.002236136 22:0.011627907 23:0.0098389982 24:0.082289803 25:0.002236136 26:0.017889088 27:0.0026833631 29:0.00044722719 30:0.002236136 31:0.025044723 32:0.11135957 33:0.053220036 34:0.085420394 35:0.0049194991 36:0.013416816 38:0.010733453 39:0.0044722719 40:0.13461538 41:0.048300537 42:0.029516995 43:0.01118068 44:0.0071556351 46:0.00044722719 47:0.0040250447 48:0.01118068 49:0.037119857 50:0.039355993 51:0.00044722719 52:0.013864043 53:0.00044722719 54:0.0035778175 56:0.0062611807 57:0.0031305903 58:0.13237925 59:0.026833631 
0.77732576799068798 1:0.0026833631 2:0.0044722719 4:0.0026833631 6:0.01118068 8:0.0067084079 12:0.00044722719 13:0.00044722719 14:0.0013416816 15:0.0017889088 16:0.0031305903 17:0.00089445438 18:0.015205725 20:0.0067084079 21:0.0013416816 22:0.015205725 23:0.01118068 24:0.066636852 25:0.0026833631 26:0.01118068 27:0.0040250447 28:0.0013416816 29:0.0017889088 30:0.0058139535 31:0.016547406 32:0.073345259 33:0.041144902 34:0.093470483 35:0.0044722719 36:0.019230769 37:0.0017889088 38:0.021466905 39:0.0049194991 40:0.13953488 41:0.031305903 42:0.021914132 43:0.0080500894 44:0.0049194991 45:0.002236136 46:0.0026833631 47:0.009391771 48:0.009391771 49:0.033094812 50:0.03980322 51:0.002236136 52:0.012969589 53:0.00044722719 54:0.0071556351 55:0.0013416816 56:0.015205725 57:0.0017889088 58:0.16457961 59:0.03667263 
0.68600879579075635 1:0.0053667263 2:0.011627907 4:0.0026833631 6:0.0044722719 8:0.0071556351 10:0.00089445438 11:0.0017889088 14:0.00089445438 15:0.00089445438 16:0.0013416816 17:0.0040250447 18:0.077817531 19:0.0049194991 20:0.025939177 21:0.0013416816 22:0.01118068 24:0.012522361 25:0.0031305903 26:0.040697674 27:0.051878354 28:0.016547406 29:0.0080500894 30:0.0040250447 31:0.002236136 32:0.002236136 33:0.013864043 34:0.086762075 35:0.025939177 36:0.1283542 37:0.011627907 38:0.025939177 39:0.002236136 40:0.018336315 41:0.00044722719 42:0.009391771 43:0.031305903 44:0.032647585 45:0.0098389982 46:0.01118068 47:0.0044722719 48:0.0031305903 49:0.0026833631 50:0.0098389982 51:0.00044722719 52:0.045169946 53:0.00089445438 54:0.014758497 55:0.00044722719 56:0.0084973166 57:0.0013416816 58:0.1578712 59:0.038908766 
1 1:0.0026833631 2:0.012075134 4:0.0053667263 6:0.0031305903 8:0.010286225 10:0.002236136 11:0.00089445438 12:0.00044722719 16:0.0013416816 17:0.0017889088 18:0.06529517 19:0.0044722719 20:0.020125224 22:0.0084973166 23:0.00044722719 24:0.017889088 25:0.0035778175 26:0.029516995 27:0.054561717 28:0.016994633 29:0.0049194991 30:0.0044722719 31:0.0013416816 32:0.0044722719 33:0.012075134 34:0.070214669 35:0.029069767 36:0.11717352 37:0.0040250447 38:0.021466905 39:0.0044722719 40:0.014758497 41:0.010286225 42:0.0098389982 43:0.026833631 44:0.032200358 45:0.0098389982 46:0.0071556351 47:0.0049194991 48:0.0044722719 49:0.0040250447 50:0.01431127 51:0.0013416816 52:0.04293381 54:0.012969589 55:0.00044722719 56:0.0058139535 57:0.00089445438 58:0.21645796 59:0.045169946 
1 1:0.0017889088 2:0.0080500894 4:0.0031305903 6:0.0017889088 8:0.0067084079 10:0.0035778175 11:0.00089445438 17:0.0013416816 18:0.084525939 19:0.0049194991 20:0.0067084079 21:0.00044722719 22:0.002236136 24:0.012522361 25:0.0062611807 26:0.070661896 27:0.11449016 28:0.019677996 29:0.0031305903 30:0.00044722719 31:0.00089445438 32:0.00044722719 33:0.024150268 34:0.11404293 35:0.062611807 36:0.10599284 37:0.0031305903 38:0.0089445438 40:0.0089445438 41:0.002236136 42:0.0053667263 43:0.025939177 44:0.034883721 45:0.0062611807 46:0.0031305903 47:0.00089445438 48:0.0013416816 49:0.0017889088 50:0.015205725 51:0.002236136 52:0.037567084 53:0.0013416816 54:0.0076028623 56:0.0031305903 57:0.00089445438 58:0.13640429 59:0.031305903 
0.16788383476360239 1:0.002236136 2:0.009391771 4:0.0026833631 6:0.0040250447 8:0.0062611807 10:0.0017889088 11:0.0013416816 15:0.00044722719 17:0.00089445438 18:0.06216458 19:0.0058139535 20:0.026386404 21:0.00089445438 22:0.0080500894 24:0.016994633 25:0.0017889088 26:0.048300537 27:0.059481216 28:0.027728086 29:0.0053667263 30:0.002236136 31:0.0017889088 32:0.0067084079 33:0.015652952 34:0.07960644 35:0.033989267 36:0.1480322 37:0.0049194991 38:0.021466905 39:0.0017889088 40:0.01744186 41:0.0031305903 42:0.0067084079 43:0.025939177 44:0.026833631 45:0.010286225 46:0.0067084079 47:0.0035778175 48:0.0031305903 49:0.0080500894 50:0.014758497 52:0.029964222 53:0.0026833631 54:0.024150268 55:0.00089445438 56:0.0071556351 58:0.1744186 59:0.025939177 
0.3546365359934196 1:0.0049194991 2:0.01118068 4:0.0049194991 6:0.0062611807 8:0.0071556351 10:0.0017889088 11:0.002236136 12:0.00089445438 13:0.00089445438 14:0.00044722719 15:0.00044722719 16:0.00044722719 18:0.049194991 19:0.0084973166 20:0.03980322 21:0.0013416816 22:0.016100179 23:0.0013416816 24:0.018783542 26:0.0089445438 27:0.040250447 28:0.046064401 29:0.01118068 30:0.0076028623 31:0.0067084079 32:0.0035778175 33:0.0026833631 34:0.037119857 35:0.019230769 36:0.11985689 37:0.0084973166 38:0.038461538 39:0.0044722719 40:0.026386404 41:0.0017889088 42:0.0031305903 43:0.014758497 44:0.018783542 45:0.014758497 46:0.0076028623 47:0.0058139535 48:0.0053667263 49:0.0044722719 50:0.012075134 51:0.00044722719 52:0.033094812 53:0.0013416816 54:0.025939177 55:0.00089445438 56:0.013864043 57:0.00044722719 58:0.23345259 59:0.044275492 
1 1:0.0013416816 2:0.0013416816 4:0.0017889088 6:0.0071556351 7:0.00044722719 8:0.0058139535 12:0.00044722719 13:0.00044722719 14:0.00089445438 15:0.0013416816 16:0.0017889088 17:0.00089445438 18:0.02549195 19:0.00089445438 20:0.0035778175 21:0.00044722719 22:0.015205725 23:0.0044722719 24:0.085420394 25:0.0084973166 26:0.042039356 27:0.0040250447 28:0.00044722719 29:0.0026833631 30:0.002236136 31:0.0080500894 32:0.061270125 33:0.076028623 34:0.12611807 35:0.0076028623 36:0.013416816 38:0.011627907 39:0.0044722719 40:0.08765653 41:0.045617174 42:0.038908766 43:0.016994633 44:0.0080500894 45:0.002236136 46:0.0017889088 47:0.0049194991 48:0.0062611807 49:0.031753131 50:0.046511628 51:0.0017889088 52:0.018783542 54:0.0049194991 55:0.00044722719 56:0.012522361 57:0.0017889088 58:0.1118068 59:0.029516995 
1 1:0.0017889088 2:0.0062611807 4:0.00044722719 6:0.002236136 8:0.010286225 10:0.0049194991 11:0.0013416816 12:0.0017889088 15:0.00044722719 16:0.00089445438 17:0.00089445438 18:0.089445438 19:0.0071556351 20:0.0098389982 21:0.00044722719 22:0.0026833631 24:0.014758497 25:0.0062611807 26:0.08273703 27:0.092576029 28:0.017889088 29:0.002236136 32:0.002236136 33:0.021466905 34:0.13237925 35:0.051431127 36:0.10957066 37:0.002236136 38:0.0080500894 40:0.0067084079 41:0.0026833631 42:0.0084973166 43:0.035330948 44:0.034883721 45:0.0084973166 46:0.0049194991 47:0.00044722719 49:0.0035778175 50:0.015205725 51:0.0013416816 52:0.048300537 53:0.00089445438 54:0.0067084079 56:0.002236136 57:0.00044722719 58:0.10420394 59:0.030411449 
1 1:0.002236136 2:0.0040250447 4:0.002236136 6:0.00044722719 7:0.00044722719 8:0.0058139535 10:0.0017889088 11:0.00089445438 13:0.00044722719 15:0.00044722719 16:0.00044722719 17:0.0040250447 18:0.091234347 19:0.0071556351 20:0.0089445438 22:0.0035778175 24:0.016100179 25:0.0049194991 26:0.063953488 27:0.11985689 28:0.021914132 29:0.00089445438 30:0.00044722719 31:0.00044722719 33:0.013416816 34:0.11717352 35:0.0509839 36:0.13550984 37:0.0031305903 38:0.012969589 39:0.00044722719 40:0.0044722719 41:0.00044722719 42:0.0053667263 43:0.029516995 44:0.037567084 45:0.010733453 46:0.0013416816 47:0.00089445438 48:0.00089445438 49:0.0031305903 50:0.014758497 51:0.00044722719 52:0.044275492 53:0.0013416816 54:0.0071556351 55:0.00044722719 56:0.0026833631 58:0.11449016 59:0.023703041 
1 1:0.0013416816 2:0.0084973166 4:0.0013416816 6:0.00089445438 8:0.0049194991 10:0.0044722719 11:0.002236136 12:0.00044722719 16:0.00044722719 17:0.002236136 18:0.083184258 19:0.01431127 20:0.016547406 21:0.00044722719 22:0.0017889088 24:0.0080500894 25:0.0044722719 26:0.063059034 27:0.11762075 28:0.024150268 29:0.0040250447 30:0.00044722719 31:0.00044722719 32:0.002236136 33:0.014758497 34:0.10375671 35:0.055008945 36:0.13148479 37:0.0098389982 38:0.013416816 39:0.00044722719 40:0.0053667263 41:0.00089445438 42:0.0076028623 43:0.029964222 44:0.037119857 45:0.011627907 46:0.0058139535 47:0.00044722719 48:0.00044722719 49:0.0040250447 50:0.0080500894 51:0.00089445438 52:0.048747764 53:0.00044722719 54:0.01118068 55:0.00044722719 56:0.0026833631 57:0.00044722719 58:0.10599284 59:0.021466905 
1 1:0.0013416816 2:0.009391771 4:0.0017889088 6:0.0017889088 8:0.0058139535 10:0.0031305903 11:0.0017889088 15:0.00044722719 17:0.00044722719 18:0.082289803 19:0.015205725 20:0.01431127 21:0.00044722719 24:0.010733453 25:0.002236136 26:0.0509839 27:0.12075134 28:0.035778175 29:0.0013416816 30:0.002236136 32:0.0035778175 33:0.01118068 34:0.072003578 35:0.040697674 36:0.17844365 37:0.0035778175 38:0.0035778175 39:0.00044722719 40:0.0076028623 41:0.0031305903 42:0.0049194991 43:0.026386404 44:0.041144902 45:0.01431127 46:0.0044722719 47:0.0013416816 49:0.0040250447 50:0.0080500894 52:0.045169946 53:0.0026833631 54:0.0084973166 56:0.00044722719 58:0.12119857 59:0.030858676 
1 1:0.0017889088 2:0.0089445438 4:0.0013416816 6:0.0013416816 8:0.0058139535 10:0.0026833631 11:0.0013416816 16:0.0013416816 17:0.00089445438 18:0.07960644 19:0.020572451 20:0.021466905 22:0.0035778175 24:0.01118068 25:0.00044722719 26:0.039355993 27:0.098837209 28:0.047853309 29:0.0089445438 30:0.0017889088 31:0.00044722719 32:0.0017889088 33:0.0067084079 34:0.051431127 35:0.035330948 36:0.18023256 37:0.0098389982 38:0.013864043 40:0.010733453 41:0.002236136 42:0.0067084079 43:0.025939177 44:0.029516995 45:0.018336315 46:0.0080500894 47:0.0013416816 48:0.00089445438 49:0.0035778175 50:0.0084973166 51:0.00044722719 52:0.053220036 53:0.0017889088 54:0.01744186 55:0.00089445438 56:0.0053667263 58:0.12432916 59:0.021914132 
1 1:0.0049194991 2:0.0084973166 4:0.0026833631 6:0.0031305903 8:0.0062611807 10:0.0026833631 11:0.0013416816 12:0.00044722719 13:0.00089445438 14:0.00089445438 15:0.00044722719 17:0.00044722719 18:0.059928444 19:0.0058139535 20:0.021914132 22:0.0076028623 23:0.00089445438 24:0.015205725 25:0.002236136 26:0.033542039 27:0.05411449 28:0.019677996 29:0.0058139535 30:0.0040250447 31:0.0053667263 32:0.0049194991 33:0.021019678 34:0.080500894 35:0.026386404 36:0.14534884 37:0.0058139535 38:0.015652952 39:0.0031305903 40:0.039355993 41:0.0031305903 42:0.009391771 43:0.021019678 44:0.024597496 45:0.014758497 46:0.0076028623 47:0.0049194991 48:0.0044722719 49:0.0071556351 50:0.012075134 52:0.03980322 53:0.0031305903 54:0.019230769 55:0.00089445438 56:0.0089445438 57:0.00044722719 58:0.1793381 59:0.028175313 
0.026731899852848556 1:0.002236136 2:0.0031305903 4:0.00089445438 6:0.010733453 8:0.0044722719 12:0.00044722719 13:0.00044722719 14:0.0013416816 15:0.0017889088 16:0.0035778175 17:0.0013416816 18:0.01744186 20:0.0053667263 21:0.00089445438 22:0.022808587 23:0.0053667263 24:0.059928444 25:0.0031305903 26:0.016100179 27:0.0049194991 28:0.0017889088 29:0.0031305903 30:0.009391771 31:0.019230769 32:0.060822898 33:0.034436494 34:0.075134168 35:0.0058139535 36:0.014758497 37:0.00044722719 38:0.031305903 39:0.0071556351 40:0.1068873 41:0.028175313 42:0.020125224 43:0.0089445438 44:0.0080500894 45:0.0013416816 46:0.00089445438 47:0.0089445438 48:0.0089445438 49:0.031753131 50:0.042039356 51:0.0013416816 52:0.012075134 53:0.00089445438 54:0.0067084079 55:0.00089445438 56:0.013416816 57:0.0044722719 58:0.23434705 59:0.029964222 
1 1:0.0040250447 2:0.00044722719 4:0.0031305903 6:0.011627907 8:0.0053667263 13:0.00044722719 14:0.00089445438 15:0.0013416816 16:0.0031305903 18:0.013416816 19:0.00044722719 20:0.0040250447 21:0.00089445438 22:0.021466905 23:0.0062611807 24:0.071109123 25:0.002236136 26:0.010733453 27:0.00089445438 28:0.00044722719 29:0.0017889088 30:0.0035778175 31:0.021914132 32:0.055008945 33:0.027280859 34:0.069767442 35:0.0035778175 36:0.0067084079 37:0.00044722719 38:0.023255814 39:0.0044722719 40:0.13372093 41:0.02236136 42:0.022808587 43:0.0058139535 44:0.002236136 45:0.002236136 46:0.00044722719 47:0.0076028623 48:0.012969589 49:0.026386404 50:0.042486583 51:0.00089445438 52:0.013416816 53:0.00044722719 54:0.0044722719 55:0.00044722719 56:0.015652952 57:0.00089445438 58:0.2745975 59:0.029964222 
1 1:0.0026833631 2:0.0017889088 4:0.0031305903 6:0.011627907 8:0.0062611807 12:0.00044722719 13:0.00044722719 14:0.00044722719 15:0.0040250447 16:0.0013416816 18:0.0089445438 19:0.00044722719 20:0.0062611807 21:0.00044722719 22:0.021019678 23:0.0040250447 24:0.070661896 25:0.0013416816 26:0.016994633 27:0.0017889088 28:0.002236136 29:0.0044722719 30:0.0058139535 31:0.027280859 32:0.069320215 33:0.033989267 34:0.077817531 35:0.00089445438 36:0.0084973166 37:0.0026833631 38:0.021466905 39:0.0076028623 40:0.10912343 41:0.029964222 42:0.024150268 43:0.0076028623 44:0.0035778175 45:0.0031305903 46:0.0040250447 47:0.0080500894 48:0.012522361 49:0.030411449 50:0.040250447 51:0.00044722719 52:0.0080500894 54:0.0089445438 55:0.00044722719 56:0.012522361 57:0.0013416816 58:0.23613596 59:0.033094812 
1 1:0.0044722719 2:0.002236136 4:0.0040250447 6:0.012075134 8:0.0076028623 10:0.00044722719 11:0.00044722719 13:0.00089445438 14:0.0031305903 15:0.0026833631 16:0.0031305903 17:0.00044722719 18:0.01118068 20:0.0035778175 21:0.00044722719 22:0.020125224 23:0.0076028623 24:0.072450805 25:0.00089445438 26:0.015652952 27:0.0013416816 29:0.0049194991 30:0.0049194991 31:0.021466905 32:0.067531306 33:0.029069767 34:0.063506261 35:0.0031305903 36:0.0080500894 37:0.0013416816 38:0.020572451 39:0.0071556351 40:0.10599284 41:0.02862254 42:0.023255814 43:0.0062611807 44:0.0040250447 46:0.002236136 47:0.0076028623 48:0.015652952 49:0.034883721 50:0.041144902 51:0.00044722719 52:0.012075134 53:0.00044722719 54:0.0067084079 55:0.00044722719 56:0.014758497 57:0.0031305903 58:0.24776386 59:0.038014311 
1 1:0.0035778175 2:0.0026833631 4:0.002236136 6:0.0098389982 8:0.0062611807 14:0.00089445438 15:0.0013416816 16:0.0026833631 17:0.00089445438 18:0.0084973166 19:0.00044722719 20:0.0044722719 21:0.00044722719 22:0.021466905 23:0.0080500894 24:0.072003578 25:0.0017889088 26:0.012522361 27:0.00089445438 29:0.0040250447 30:0.0044722719 31:0.018336315 32:0.071556351 33:0.032647585 34:0.074239714 35:0.00089445438 36:0.0053667263 37:0.00044722719 38:0.02236136 39:0.0035778175 40:0.11449016 41:0.030858676 42:0.024597496 43:0.0040250447 44:0.0026833631 45:0.00089445438 46:0.0017889088 47:0.0080500894 48:0.011627907 49:0.025044723 50:0.04293381 52:0.009391771 53:0.00044722719 54:0.0053667263 55:0.00044722719 56:0.015652952 57:0.00044722719 58:0.26699463 59:0.035330948 
1 1:0.0013416816 2:0.0017889088 4:0.00089445438 6:0.0084973166 8:0.0040250447 13:0.00044722719 15:0.0013416816 16:0.0035778175 17:0.00044722719 18:0.011627907 20:0.0058139535 21:0.00044722719 22:0.015205725 23:0.0053667263 24:0.059033989 25:0.0026833631 26:0.010733453 27:0.0013416816 28:0.0035778175 29:0.0013416816 30:0.0067084079 31:0.026386404 32:0.070214669 33:0.033094812 34:0.075134168 35:0.00089445438 36:0.0076028623 37:0.00044722719 38:0.015652952 39:0.0040250447 40:0.10017889 41:0.027280859 42:0.016547406 43:0.0044722719 44:0.0017889088 45:0.0013416816 46:0.0017889088 47:0.0076028623 48:0.010733453 49:0.021019678 50:0.035330948 51:0.00044722719 52:0.0076028623 53:0.00044722719 54:0.0044722719 56:0.01118068 57:0.0035778175 58:0.3322898 59:0.032200358 
1 1:0.00089445438 2:0.002236136 4:0.002236136 6:0.013416816 8:0.0071556351 12:0.00044722719 14:0.0013416816 15:0.00089445438 16:0.002236136 18:0.012969589 20:0.0044722719 21:0.00044722719 22:0.018336315 23:0.0040250447 24:0.064847943 25:0.0031305903 26:0.012522361 27:0.0026833631 28:0.00089445438 29:0.0044722719 30:0.0067084079 31:0.016994633 32:0.067531306 33:0.031753131 34:0.073345259 35:0.002236136 36:0.009391771 37:0.00044722719 38:0.015652952 39:0.0031305903 40:0.13461538 41:0.027728086 42:0.027728086 43:0.0062611807 44:0.0053667263 45:0.0017889088 46:0.0017889088 47:0.0098389982 48:0.009391771 49:0.027280859 50:0.034883721 51:0.00044722719 52:0.010733453 53:0.00089445438 54:0.0062611807 56:0.012075134 57:0.0031305903 58:0.25805009 59:0.034883721 
1 1:0.0035778175 2:0.0017889088 4:0.0017889088 6:0.0071556351 8:0.0067084079 11:0.00044722719 13:0.00044722719 14:0.00044722719 15:0.0031305903 16:0.0026833631 18:0.01118068 19:0.00044722719 20:0.0040250447 21:0.0013416816 22:0.026386404 23:0.0071556351 24:0.072450805 25:0.0026833631 26:0.015205725 27:0.00044722719 28:0.00044722719 29:0.002236136 30:0.0031305903 31:0.020125224 32:0.058139535 33:0.030858676 34:0.071109123 35:0.0031305903 36:0.0062611807 37:0.0017889088 38:0.019677996 39:0.009391771 40:0.10330948 41:0.032647585 42:0.029516995 43:0.0062611807 44:0.0031305903 45:0.00089445438 46:0.00089445438 47:0.0071556351 48:0.01431127 49:0.023703041 50:0.033542039 51:0.00044722719 52:0.0089445438 54:0.0035778175 55:0.00044722719 56:0.016547406 57:0.0031305903 58:0.27951699 59:0.036225403 
1 1:0.0040250447 2:0.0013416816 4:0.0031305903 6:0.0067084079 7:0.00044722719 8:0.0053667263 12:0.00044722719 13:0.00044722719 14:0.0035778175 15:0.0053667263 16:0.0031305903 17:0.0013416816 18:0.0035778175 19:0.00044722719 20:0.002236136 21:0.00044722719 22:0.018783542 23:0.013864043 24:0.092128801 25:0.002236136 26:0.0031305903 27:0.00044722719 29:0.00089445438 30:0.0098389982 31:0.034436494 32:0.15474061 33:0.056797853 34:0.055008945 36:0.0026833631 37:0.0013416816 38:0.01118068 39:0.012075134 40:0.15250447 41:0.068872987 42:0.027280859 43:0.0013416816 44:0.00089445438 45:0.00089445438 46:0.00044722719 47:0.002236136 48:0.012075134 49:0.050089445 50:0.045169946 51:0.00044722719 52:0.0044722719 53:0.00089445438 54:0.002236136 55:0.00089445438 56:0.016994633 57:0.00089445438 58:0.074686941 59:0.025044723 
1 1:0.002236136 2:0.0013416816 4:0.0044722719 6:0.0071556351 8:0.0044722719 10:0.00044722719 12:0.00044722719 13:0.0040250447 14:0.0017889088 15:0.0017889088 16:0.002236136 18:0.0044722719 19:0.00089445438 20:0.0067084079 21:0.0035778175 22:0.045169946 23:0.0080500894 24:0.020572451 26:0.0053667263 27:0.0035778175 28:0.0053667263 29:0.010286225 30:0.031305903 31:0.047406082 32:0.04293381 33:0.0049194991 34:0.013416816 35:0.002236136 36:0.0076028623 37:0.0026833631 38:0.03980322 39:0.024597496 40:0.14579606 41:0.012075134 42:0.0098389982 43:0.0067084079 44:0.002236136 45:0.0026833631 46:0.0040250447 47:0.01744186 48:0.024597496 49:0.015652952 50:0.01744186 52:0.0053667263 53:0.00044722719 54:0.0040250447 55:0.00089445438 56:0.019230769 57:0.0013416816 58:0.31932021 59:0.029516995 
1 1:0.0013416816 2:0.0013416816 4:0.0080500894 6:0.0084973166 8:0.0049194991 13:0.0013416816 14:0.0026833631 15:0.00044722719 16:0.00089445438 18:0.0076028623 20:0.0089445438 21:0.0035778175 22:0.037119857 23:0.009391771 24:0.022808587 26:0.0053667263 27:0.002236136 28:0.0031305903 29:0.0058139535 30:0.033542039 31:0.063953488 32:0.045617174 33:0.0058139535 34:0.014758497 35:0.0013416816 36:0.0058139535 37:0.0031305903 38:0.026833631 39:0.038014311 40:0.12790698 41:0.01118068 42:0.011627907 43:0.0067084079 44:0.0013416816 45:0.0017889088 46:0.0053667263 47:0.013864043 48:0.024597496 49:0.01431127 50:0.017889088 51:0.00044722719 52:0.0067084079 54:0.0062611807 55:0.0017889088 56:0.017889088 57:0.0035778175 58:0.32289803 59:0.029516995 
1 1:0.0040250447 2:0.0017889088 4:0.0035778175 5:0.00044722719 6:0.0084973166 8:0.0049194991 10:0.00089445438 13:0.0031305903 14:0.00089445438 15:0.0013416816 16:0.00089445438 18:0.0067084079 20:0.0098389982 21:0.002236136 22:0.03980322 23:0.0080500894 24:0.024150268 25:0.00089445438 26:0.0035778175 27:0.0080500894 28:0.0053667263 29:0.0098389982 30:0.029069767 31:0.059928444 32:0.049642218 33:0.0053667263 34:0.014758497 35:0.0089445438 36:0.012522361 37:0.0067084079 38:0.033094812 39:0.022808587 40:0.14132379 41:0.012075134 42:0.0067084079 43:0.0026833631 44:0.0013416816 45:0.002236136 46:0.0058139535 47:0.016100179 48:0.02549195 49:0.016547406 50:0.021019678 51:0.0017889088 52:0.0035778175 54:0.0040250447 55:0.0017889088 56:0.021914132 57:0.00089445438 58:0.29964222 59:0.023255814 
1 1:0.0013416816 2:0.0017889088 4:0.0040250447 6:0.010286225 8:0.0080500894 10:0.00089445438 11:0.00044722719 12:0.00089445438 13:0.0031305903 14:0.0013416816 15:0.0017889088 16:0.00089445438 17:0.00044722719 18:0.0080500894 19:0.00089445438 20:0.010733453 21:0.0013416816 22:0.040697674 23:0.01118068 24:0.029069767 25:0.00089445438 26:0.0084973166 27:0.0071556351 28:0.0076028623 29:0.0098389982 30:0.027728086 31:0.056797853 32:0.055903399 33:0.0035778175 34:0.017889088 35:0.010733453 36:0.020572451 37:0.0062611807 38:0.033094812 39:0.027280859 40:0.1283542 41:0.012969589 42:0.0080500894 43:0.0067084079 44:0.0067084079 45:0.0049194991 46:0.0076028623 47:0.019230769 48:0.020125224 49:0.018336315 50:0.020572451 51:0.0013416816 52:0.0089445438 53:0.00044722719 54:0.0040250447 55:0.0013416816 56:0.016100179 57:0.0026833631 58:0.24105546 59:0.039355993 
1 1:0.002236136 2:0.0026833631 4:0.0067084079 6:0.0080500894 8:0.00044722719 12:0.0013416816 13:0.0013416816 14:0.0062611807 15:0.0013416816 18:0.0053667263 19:0.0013416816 20:0.012075134 21:0.0080500894 22:0.083631485 23:0.010733453 24:0.010733453 26:0.00044722719 27:0.0049194991 28:0.0044722719 29:0.025044723 30:0.073792487 31:0.11493739 32:0.034883721 33:0.0031305903 34:0.0076028623 35:0.0044722719 36:0.019677996 37:0.0071556351 38:0.096601073 39:0.064847943 40:0.093470483 41:0.0044722719 42:0.0049194991 43:0.002236136 44:0.0053667263 45:0.0080500894 46:0.0080500894 47:0.031305903 48:0.037119857 49:0.0076028623 50:0.0084973166 51:0.00044722719 52:0.0062611807 53:0.00044722719 54:0.0062611807 55:0.002236136 56:0.035330948 57:0.0031305903 58:0.07647585 59:0.033989267 
1 1:0.0026833631 2:0.009391771 4:0.0017889088 6:0.00044722719 8:0.0031305903 10:0.0035778175 11:0.0031305903 12:0.00089445438 14:0.00044722719 16:0.0013416816 17:0.0040250447 18:0.10912343 19:0.010733453 20:0.016547406 21:0.00089445438 22:0.0026833631 24:0.0035778175 25:0.0040250447 26:0.042486583 27:0.15205725 28:0.033989267 29:0.009391771 30:0.0017889088 31:0.00089445438 32:0.0040250447 33:0.0062611807 34:0.046064401 35:0.06529517 36:0.14982111 37:0.0098389982 38:0.0076028623 39:0.00044722719 40:0.0044722719 41:0.002236136 42:0.0053667263 43:0.024597496 44:0.044275492 45:0.011627907 46:0.0040250447 48:0.00044722719 49:0.0035778175 50:0.0044722719 51:0.00089445438 52:0.056350626 53:0.0013416816 54:0.0098389982 55:0.00044722719 56:0.002236136 57:0.00044722719 58:0.084973166 59:0.029964222 
1 1:0.002236136 2:0.0058139535 4:0.00089445438 6:0.00089445438 8:0.0035778175 9:0.00044722719 10:0.0040250447 11:0.0017889088 12:0.00044722719 16:0.0017889088 17:0.0040250447 18:0.11851521 19:0.012969589 20:0.016100179 22:0.002236136 24:0.002236136 25:0.0035778175 26:0.06842576 27:0.14758497 28:0.02862254 29:0.0044722719 30:0.00044722719 33:0.0031305903 34:0.050536673 35:0.076028623 36:0.14132379 37:0.0062611807 38:0.0062611807 39:0.00089445438 40:0.0013416816 41:0.00044722719 42:0.0013416816 43:0.035778175 44:0.049194991 45:0.0071556351 46:0.0035778175 47:0.00044722719 49:0.00044722719 50:0.002236136 51:0.002236136 52:0.071109123 53:0.0017889088 54:0.012969589 55:0.00044722719 56:0.00089445438 58:0.071556351 59:0.021466905 
1 1:0.0062611807 2:0.0080500894 4:0.0035778175 6:0.0017889088 8:0.0058139535 10:0.0044722719 11:0.0049194991 12:0.0017889088 13:0.0013416816 16:0.00044722719 17:0.00089445438 18:0.034436494 19:0.012075134 20:0.045617174 21:0.0017889088 22:0.0067084079 23:0.0013416816 24:0.010733453 25:0.00044722719 26:0.0098389982 27:0.055008945 28:0.064847943 29:0.032647585 30:0.0076028623 31:0.0026833631 32:0.0084973166 33:0.0071556351 34:0.021019678 35:0.0098389982 36:0.2186941 37:0.025939177 38:0.048300537 39:0.0017889088 40:0.015652952 41:0.0067084079 42:0.0053667263 43:0.009391771 44:0.015652952 45:0.02236136 46:0.015205725 47:0.0044722719 48:0.0035778175 49:0.0058139535 50:0.0058139535 51:0.0017889088 52:0.025939177 53:0.002236136 54:0.029516995 56:0.0062611807 57:0.00044722719 58:0.12701252 59:0.030411449 
1 1:0.0017889088 2:0.0084973166 4:0.0049194991 6:0.00044722719 8:0.0040250447 10:0.0044722719 11:0.0049194991 12:0.0026833631 14:0.00044722719 15:0.00044722719 16:0.0013416816 17:0.00044722719 18:0.029069767 19:0.025044723 20:0.048747764 21:0.002236136 22:0.0044722719 23:0.00089445438 24:0.0089445438 25:0.0031305903 26:0.011627907 27:0.07960644 28:0.10062612 29:0.025939177 30:0.0058139535 31:0.0013416816 32:0.0044722719 33:0.0031305903 34:0.029516995 35:0.016100179 36:0.20617174 37:0.027728086 38:0.03667263 39:0.002236136 40:0.0098389982 41:0.0058139535 42:0.0049194991 43:0.010733453 44:0.015205725 45:0.024150268 46:0.01744186 47:0.002236136 48:0.002236136 49:0.0026833631 50:0.0098389982 51:0.00089445438 52:0.021914132 53:0.0049194991 54:0.023703041 55:0.00044722719 56:0.0040250447 58:0.10107335 59:0.029964222 
1 1:0.01118068 2:0.0089445438 3:0.00089445438 4:0.011627907 5:0.00044722719 6:0.0040250447 7:0.00044722719 8:0.0049194991 10:0.0049194991 11:0.0076028623 12:0.0049194991 13:0.0035778175 14:0.0013416816 15:0.0013416816 16:0.0013416816 17:0.00089445438 18:0.013864043 19:0.022808587 20:0.070661896 21:0.0071556351 22:0.0058139535 23:0.00044722719 24:0.0098389982 25:0.00089445438 26:0.0026833631 27:0.041144902 28:0.12522361 29:0.048747764 30:0.012522361 31:0.0017889088 32:0.0049194991 33:0.0035778175 34:0.0067084079 35:0.0084973166 36:0.1167263 37:0.063059034 38:0.05411449 39:0.0040250447 40:0.0080500894 41:0.002236136 42:0.0049194991 43:0.0049194991 44:0.015652952 45:0.034883721 46:0.023255814 47:0.0058139535 48:0.0044722719 49:0.0035778175 50:0.0049194991 51:0.0013416816 52:0.0076028623 53:0.0035778175 54:0.027728086 55:0.0013416816 56:0.0026833631 57:0.0026833631 58:0.10778175 59:0.038908766 
1 1:0.0017889088 2:0.0044722719 4:0.0058139535 6:0.0049194991 8:0.0017889088 11:0.0049194991 12:0.0035778175 13:0.00089445438 16:0.00044722719 18:0.010286225 19:0.010286225 20:0.087209302 21:0.0076028623 22:0.015652952 23:0.00044722719 24:0.009391771 26:0.00089445438 27:0.034883721 28:0.097495528 29:0.06529517 30:0.023703041 31:0.0058139535 32:0.0040250447 33:0.0035778175 34:0.0089445438 35:0.0035778175 36:0.099731664 37:0.069320215 38:0.10554562 39:0.0084973166 40:0.018336315 41:0.0017889088 42:0.0067084079 43:0.0031305903 44:0.0067084079 45:0.033542039 46:0.039355993 47:0.010733453 48:0.0067084079 49:0.0040250447 50:0.0080500894 51:0.00089445438 52:0.0071556351 53:0.0013416816 54:0.03667263 55:0.00089445438 56:0.0071556351 57:0.0017889088 58:0.078711986 59:0.02549195 
1 1:0.0089445438 2:0.0031305903 4:0.0044722719 6:0.0089445438 8:0.0058139535 11:0.00044722719 12:0.0017889088 13:0.0049194991 14:0.0044722719 15:0.0013416816 16:0.00089445438 17:0.0017889088 18:0.0035778175 19:0.00044722719 20:0.01431127 21:0.0049194991 22:0.02862254 23:0.013864043 24:0.06842576 25:0.00089445438 26:0.00089445438 27:0.002236136 28:0.010286225 29:0.021914132 30:0.012522361 31:0.032647585 32:0.19364937 33:0.027280859 34:0.0089445438 35:0.0013416816 36:0.011627907 37:0.01431127 38:0.029069767 39:0.0062611807 40:0.17039356 41:0.058586762 42:0.011627907 43:0.00089445438 45:0.0044722719 46:0.0076028623 47:0.0044722719 48:0.0071556351 49:0.038461538 50:0.015205725 51:0.0017889088 52:0.00089445438 54:0.002236136 55:0.0035778175 56:0.0084973166 57:0.0017889088 58:0.079159213 59:0.028175313 
0.24677451192960784 1:0.0017889088 2:0.0076028623 4:0.0035778175 6:0.00089445438 8:0.0058139535 10:0.0017889088 11:0.0013416816 12:0.0013416816 17:0.00044722719 18:0.042486583 19:0.021019678 20:0.042039356 21:0.0017889088 22:0.0044722719 23:0.00044722719 24:0.0071556351 25:0.00089445438 26:0.013864043 27:0.07960644 28:0.093470483 29:0.016994633 30:0.0071556351 32:0.0049194991 33:0.0084973166 34:0.03667263 35:0.013864043 36:0.20930233 37:0.023255814 38:0.035778175 40:0.0071556351 41:0.0035778175 42:0.0044722719 43:0.013416816 44:0.025044723 45:0.021019678 46:0.012075134 47:0.002236136 48:0.0013416816 49:0.0044722719 50:0.0062611807 52:0.028175313 53:0.00089445438 54:0.023255814 56:0.0058139535 58:0.12432916 59:0.028175313 
1 1:0.0062611807 2:0.0040250447 4:0.0062611807 6:0.010286225 8:0.0031305903 10:0.0017889088 11:0.0049194991 12:0.0035778175 13:0.0026833631 14:0.0017889088 15:0.002236136 16:0.00044722719 17:0.0013416816 18:0.016994633 19:0.0031305903 20:0.032647585 21:0.015652952 22:0.037567084 23:0.0058139535 24:0.012075134 25:0.0031305903 26:0.019677996 27:0.02549195 28:0.017889088 29:0.082289803 30:0.078264758 31:0.020125224 32:0.0089445438 33:0.0035778175 34:0.025939177 35:0.0098389982 36:0.031753131 37:0.013864043 38:0.17978533 39:0.02236136 40:0.044722719 41:0.0026833631 42:0.0031305903 43:0.0067084079 44:0.0062611807 45:0.0067084079 46:0.023703041 47:0.020572451 48:0.010733453 49:0.0058139535 50:0.0049194991 52:0.0040250447 53:0.0040250447 54:0.009391771 55:0.00044722719 56:0.018783542 57:0.0026833631 58:0.065742397 59:0.043381038 
1 1:0.0040250447 2:0.0035778175 4:0.0071556351 5:0.00044722719 6:0.0053667263 8:0.002236136 10:0.00044722719 11:0.0040250447 12:0.0035778175 13:0.0040250447 14:0.002236136 15:0.0013416816 16:0.00044722719 17:0.00044722719 18:0.01118068 19:0.0044722719 20:0.059481216 21:0.013416816 22:0.032200358 23:0.0013416816 24:0.0049194991 25:0.0013416816 26:0.0084973166 27:0.013864043 28:0.035778175 29:0.1068873 30:0.053220036 31:0.01431127 32:0.0062611807 33:0.0076028623 34:0.014758497 35:0.0013416816 36:0.022808587 37:0.033989267 38:0.19722719 39:0.014758497 40:0.052325581 41:0.00089445438 42:0.0035778175 43:0.0049194991 44:0.002236136 45:0.013864043 46:0.027280859 47:0.021914132 48:0.012075134 49:0.002236136 50:0.0031305903 51:0.00089445438 52:0.0058139535 53:0.00089445438 54:0.027728086 55:0.0017889088 56:0.019230769 57:0.0017889088 58:0.069320215 59:0.029069767 
1 1:0.0026833631 2:0.0013416816 4:0.0031305903 6:0.0067084079 8:0.0013416816 10:0.00089445438 11:0.00044722719 12:0.0013416816 13:0.00089445438 14:0.0013416816 18:0.01431127 19:0.00089445438 20:0.01118068 21:0.0044722719 22:0.08765653 23:0.0089445438 24:0.01118068 26:0.0026833631 27:0.0089445438 28:0.0035778175 29:0.010286225 30:0.070214669 31:0.076028623 32:0.032647585 33:0.00044722719 34:0.011627907 35:0.0053667263 36:0.024150268 37:0.0031305903 38:0.086762075 39:0.077817531 40:0.12611807 41:0.0040250447 42:0.0026833631 43:0.0035778175 44:0.0062611807 45:0.0031305903 46:0.0026833631 47:0.036225403 48:0.035330948 49:0.0076028623 50:0.009391771 52:0.016547406 54:0.0062611807 55:0.00089445438 56:0.050089445 57:0.00089445438 58:0.097495528 59:0.018336315 
1 1:0.0013416816 2:0.0013416816 4:0.0053667263 6:0.0058139535 10:0.00044722719 12:0.0017889088 13:0.00089445438 14:0.0017889088 15:0.00089445438 18:0.009391771 19:0.00044722719 20:0.014758497 21:0.0089445438 22:0.098389982 23:0.0071556351 24:0.0071556351 26:0.0013416816 27:0.0098389982 28:0.002236136 29:0.016994633 30:0.11314848 31:0.064400716 32:0.028175313 33:0.00044722719 34:0.0071556351 35:0.0031305903 36:0.027280859 37:0.0017889088 38:0.11806798 39:0.059033989 40:0.1068873 41:0.0013416816 42:0.00089445438 43:0.00044722719 44:0.0044722719 45:0.0026833631 46:0.0049194991 47:0.043381038 48:0.024597496 49:0.0044722719 50:0.0044722719 52:0.009391771 53:0.00089445438 54:0.0098389982 55:0.00044722719 56:0.044275492 57:0.00044722719 58:0.094812165 59:0.02236136 
1 1:0.0040250447 2:0.00089445438 4:0.0058139535 5:0.00044722719 6:0.0035778175 8:0.0013416816 10:0.00089445438 12:0.0017889088 13:0.002236136 14:0.0013416816 15:0.00089445438 18:0.0089445438 19:0.00044722719 20:0.015205725 21:0.0089445438 22:0.090339893 23:0.0067084079 24:0.0026833631 26:0.0017889088 27:0.0080500894 28:0.0049194991 29:0.025939177 30:0.1332737 31:0.070661896 32:0.024597496 33:0.00044722719 34:0.0053667263 35:0.0017889088 36:0.028175313 37:0.0035778175 38:0.11762075 39:0.075581395 40:0.078711986 41:0.0026833631 42:0.00089445438 43:0.0031305903 44:0.0040250447 45:0.0044722719 46:0.0053667263 47:0.043828265 48:0.031305903 49:0.0031305903 50:0.0031305903 52:0.0080500894 53:0.00044722719 54:0.01118068 55:0.0013416816 56:0.031753131 57:0.0017889088 58:0.081395349 59:0.025044723 
1 1:0.0035778175 2:0.002236136 4:0.0035778175 6:0.0026833631 12:0.0013416816 13:0.002236136 14:0.00089445438 15:0.0017889088 16:0.00044722719 18:0.0071556351 20:0.015205725 21:0.013864043 22:0.077370304 23:0.0071556351 24:0.002236136 26:0.0013416816 27:0.010733453 28:0.0013416816 29:0.033542039 30:0.16055456 31:0.045169946 32:0.019677996 34:0.0067084079 35:0.002236136 36:0.02549195 37:0.0071556351 38:0.16636852 39:0.055456172 40:0.067978533 41:0.00089445438 42:0.0017889088 43:0.00089445438 44:0.0040250447 45:0.0031305903 46:0.0084973166 47:0.045617174 48:0.022808587 49:0.0035778175 50:0.0031305903 52:0.0062611807 53:0.00089445438 54:0.009391771 55:0.0013416816 56:0.033542039 57:0.0017889088 58:0.087209302 59:0.019677996 
1 1:0.00044722719 2:0.0017889088 4:0.0080500894 5:0.00044722719 6:0.0026833631 10:0.00044722719 11:0.00044722719 12:0.0013416816 13:0.0035778175 15:0.00044722719 17:0.00044722719 18:0.0058139535 20:0.021019678 21:0.01118068 22:0.066189624 23:0.0049194991 24:0.002236136 26:0.00044722719 27:0.013864043 28:0.0084973166 29:0.040697674 30:0.15474061 31:0.049642218 32:0.018783542 34:0.0017889088 35:0.002236136 36:0.023255814 37:0.0076028623 38:0.18872987 39:0.061270125 40:0.06529517 41:0.0013416816 42:0.00044722719 43:0.0013416816 44:0.0035778175 45:0.0062611807 46:0.012075134 47:0.040250447 48:0.016100179 49:0.0026833631 50:0.0049194991 51:0.00044722719 52:0.0026833631 53:0.00044722719 54:0.011627907 55:0.002236136 56:0.025939177 58:0.074239714 59:0.025044723 
1 1:0.00089445438 2:0.002236136 4:0.0049194991 6:0.0031305903 8:0.00089445438 10:0.00089445438 12:0.00044722719 13:0.0031305903 14:0.0017889088 15:0.00089445438 18:0.0026833631 19:0.00089445438 20:0.02549195 21:0.0062611807 22:0.074239714 23:0.0076028623 24:0.0017889088 26:0.00044722719 27:0.016100179 28:0.009391771 29:0.044722719 30:0.12880143 31:0.056350626 32:0.018783542 33:0.00044722719 34:0.002236136 35:0.00089445438 36:0.045617174 37:0.0049194991 38:0.18246869 39:0.035330948 40:0.079159213 41:0.00044722719 42:0.00089445438 43:0.0013416816 44:0.0040250447 45:0.0067084079 46:0.01118068 47:0.037119857 48:0.021914132 49:0.0035778175 50:0.0044722719 52:0.0035778175 53:0.00044722719 54:0.016994633 55:0.00089445438 56:0.035330948 57:0.0013416816 58:0.063953488 59:0.021914132 
