svm_type one_class
kernel_type rbf
gamma 101
nr_class 2
total_sv 327
rho 35.212831801673573
SV
0.32844458830758105 1:0.0080516582 2:0.0085299745 3:0.00023915816 4:0.010204082 5:7.9719388e-05 6:0.0055803571 8:0.0050223214 9:0.00023915816 10:0.00390625 11:0.0023915816 12:0.0020727041 13:0.0017538265 14:0.002471301 15:0.0027104592 16:0.0013552296 17:0.0015146684 18:0.014668367 19:0.0064572704 20:0.040816327 21:0.0046237245 22:0.02216199 23:0.0048628827 24:0.010762117 25:0.001434949 26:0.0081313776 27:0.015545281 28:0.079639668 29:0.029257015 30:0.017059949 31:0.016262755 32:0.010283801 33:0.0083705357 34:0.017458546 35:0.0058195153 36:0.071906888 37:0.031409439 38:0.042410714 39:0.011160714 40:0.030054209 41:0.0056600765 42:0.0035076531 43:0.0045440051 44:0.0066167092 45:0.017936862 46:0.013233418 47:0.0073341837 48:0.0074139031 49:0.004942602 50:0.0051817602 51:0.00031887755 52:0.0081313776 53:0.0031090561 54:0.014110332 55:0.0019132653 56:0.0090880102 57:0.0018335459 58:0.29009885 59:0.038345026 
0.96870183198318849 1:0.033322704 2:0.013313138 3:0.00055803571 4:0.0089285714 5:0.001434949 6:0.012436224 7:0.00079719388 8:0.008848852 9:0.0012755102 10:0.0059789541 11:0.0048628827 12:0.0058195153 13:0.005341199 14:0.0058195153 15:0.0046237245 16:0.0070950255 17:0.0058992347 18:0.027742347 19:0.0082110969 20:0.017697704 21:0.0058992347 22:0.019132653 23:0.0089285714 24:0.026945153 25:0.0098054847 26:0.045360332 27:0.034677934 28:0.019052934 29:0.014429209 30:0.017697704 31:0.021524235 32:0.028300383 33:0.030851403 34:0.041374362 35:0.023756378 36:0.036352041 37:0.0079719388 38:0.027742347 39:0.011240434 40:0.027184311 41:0.020567602 42:0.0089285714 43:0.011240434 44:0.0083705357 45:0.0072544643 46:0.0077327806 47:0.0082110969 48:0.0074936224 49:0.0079719388 50:0.0057397959 51:0.0050223214 52:0.008848852 53:0.0058992347 54:0.0086096939 55:0.0043845663 56:0.0060586735 57:0.0039859694 58:0.14787946 59:0.077566964 
1 1:0.0038265306 2:0.0073341837 3:0.00015943878 4:0.0046237245 6:0.0020727041 8:0.0055803571 9:7.9719388e-05 10:0.002869898 11:0.0019132653 12:0.001434949 13:0.0006377551 14:0.00015943878 15:0.00031887755 16:0.001036352 17:0.0013552296 18:0.030452806 19:0.0086096939 20:0.026785714 21:0.001036352 22:0.0046237245 23:0.00071747449 24:0.0065369898 25:0.00079719388 26:0.01307398 27:0.06513074 28:0.052774235 29:0.011798469 30:0.0047831633 31:0.0023118622 32:0.0026307398 33:0.0060586735 34:0.027662628 35:0.018335459 36:0.11447704 37:0.013313138 38:0.023596939 39:0.00087691327 40:0.0068558673 41:0.0023915816 42:0.0041454082 43:0.0081313776 44:0.016023597 45:0.012595663 46:0.0079719388 47:0.0027104592 48:0.0016741071 49:0.0016741071 50:0.0050223214 51:0.00015943878 52:0.016103316 53:0.00087691327 54:0.015465561 56:0.0035873724 57:0.00031887755 58:0.40035077 59:0.024154974 
1 1:0.0058992347 2:0.0057397959 3:7.9719388e-05 4:0.0041454082 5:0.00015943878 6:0.0033482143 8:0.0045440051 10:0.0025510204 11:0.0012755102 12:0.0006377551 13:0.00047831633 14:0.0015146684 15:0.001036352 16:0.001036352 17:0.0011160714 18:0.026307398 19:0.0043048469 20:0.015943878 21:0.00095663265 22:0.0099649235 23:0.0029496173 24:0.011001276 25:0.0012755102 26:0.01171875 27:0.038424745 28:0.029097577 29:0.0055803571 30:0.0047831633 31:0.0082110969 32:0.012037628 33:0.0093271684 34:0.024473852 35:0.017219388 36:0.073501276 37:0.0090082908 38:0.013871173 39:0.0046237245 40:0.022879464 41:0.0051817602 42:0.0037468112 43:0.0068558673 44:0.0095663265 45:0.006776148 46:0.0027104592 47:0.0039859694 48:0.0038265306 49:0.0043845663 50:0.0059789541 51:0.0006377551 52:0.014508929 53:0.00079719388 54:0.0099649235 55:0.00055803571 56:0.0064572704 57:0.00071747449 58:0.49952168 59:0.022799745 
0.2028164997412592 1:0.0042251276 2:0.0055006378 4:0.0047034439 5:7.9719388e-05 6:0.0034279337 8:0.0050223214 9:7.9719388e-05 10:0.0025510204 11:0.0011160714 12:0.00031887755 13:0.00071747449 14:0.001036352 15:0.0011957908 16:0.00031887755 17:0.001036352 18:0.02479273 19:0.0033482143 20:0.017219388 21:0.00087691327 22:0.012197066 23:0.0018335459 24:0.010044643 25:0.0013552296 26:0.013153699 27:0.044005102 28:0.025829082 29:0.0056600765 30:0.0047034439 31:0.0071747449 32:0.0090880102 33:0.0098054847 34:0.02479273 35:0.016581633 36:0.072704082 37:0.012436224 38:0.014508929 39:0.0037468112 40:0.021444515 41:0.0054209184 42:0.0039859694 43:0.0070950255 44:0.012755102 45:0.0068558673 46:0.0035873724 47:0.0040656888 48:0.0042251276 49:0.0046237245 50:0.0051817602 51:0.00055803571 52:0.015864158 53:0.00055803571 54:0.01044324 55:0.00031887755 56:0.0077327806 57:0.00087691327 58:0.49473852 59:0.022480867 
1 1:0.0044642857 2:0.0068558673 3:0.00031887755 4:0.0083705357 6:0.0031090561 8:0.0027104592 10:0.0012755102 11:0.0015146684 12:0.001434949 13:0.0015146684 14:0.0011160714 15:0.0011957908 16:0.00055803571 17:0.00047831633 18:0.015465561 19:0.0021524235 20:0.049346301 21:0.0029496173 22:0.017059949 23:0.00071747449 24:0.0057397959 25:0.00047831633 26:0.0023118622 27:0.013472577 28:0.044483418 29:0.033003827 30:0.019052934 31:0.006377551 32:0.0023118622 33:0.0027901786 34:0.0096460459 35:0.0016741071 36:0.10634566 37:0.028300383 38:0.07286352 39:0.0057397959 40:0.01426977 41:0.00087691327 42:0.0019132653 43:0.0023118622 44:0.004942602 45:0.019371811 46:0.017936862 47:0.006776148 48:0.0031887755 49:0.001036352 50:0.0035873724 51:0.00031887755 52:0.011080995 53:0.0016741071 54:0.03380102 55:0.00047831633 56:0.010124362 57:0.00047831633 58:0.35706314 59:0.031568878 
1 1:0.0042251276 2:0.0054209184 4:0.010841837 5:7.9719388e-05 6:0.0032684949 8:0.0031090561 10:0.002471301 11:0.0006377551 12:0.0023915816 13:0.0021524235 14:0.0006377551 15:0.00047831633 16:0.00079719388 17:0.00031887755 18:0.014030612 19:0.0023915816 20:0.048309949 21:0.0047034439 22:0.025111607 23:0.00095663265 24:0.0070153061 25:0.00031887755 26:0.0034279337 27:0.0076530612 28:0.038185587 29:0.033402423 30:0.024553571 31:0.009247449 32:0.0033482143 33:0.0017538265 34:0.011479592 35:0.0017538265 36:0.081313776 37:0.025510204 38:0.075334821 39:0.0061383929 40:0.015864158 41:0.001036352 42:0.0012755102 43:0.0019929847 44:0.0047034439 45:0.017219388 46:0.01690051 47:0.0096460459 48:0.0042251276 49:0.0011957908 50:0.0034279337 51:0.00039859694 52:0.0095663265 53:0.0013552296 54:0.029496173 55:0.00079719388 56:0.015545281 57:0.00087691327 58:0.3696588 59:0.032047194 
1 1:0.0051020408 2:0.0056600765 4:0.0098852041 6:0.0040656888 8:0.0033482143 10:0.0012755102 11:0.0018335459 12:0.0026307398 13:0.001036352 14:0.00095663265 15:0.00055803571 16:0.00087691327 17:0.0006377551 18:0.014508929 19:0.0050223214 20:0.043686224 21:0.0048628827 22:0.024314413 23:0.0016741071 24:0.0074936224 25:0.0006377551 26:0.0040656888 27:0.010682398 28:0.045998087 29:0.036272321 30:0.026546556 31:0.0091677296 32:0.0036670918 33:0.0023915816 34:0.01044324 35:0.0036670918 36:0.086336097 37:0.022879464 38:0.077407526 39:0.0084502551 40:0.018016582 41:0.0011160714 42:0.0011160714 43:0.0026307398 44:0.0058992347 45:0.015943878 46:0.014987245 47:0.009247449 48:0.00390625 49:0.0017538265 50:0.0030293367 51:0.00039859694 52:0.0070950255 53:0.0015146684 54:0.024952168 55:0.00055803571 56:0.015146684 57:0.00071747449 58:0.35004783 59:0.03388074 
1 1:0.0043048469 2:0.0077327806 3:7.9719388e-05 4:0.0097257653 5:7.9719388e-05 6:0.004942602 8:0.002471301 9:7.9719388e-05 10:0.0019132653 11:0.0020727041 12:0.0027104592 13:0.0033482143 14:0.0015943878 15:0.0016741071 16:0.001036352 17:0.001434949 18:0.013950893 19:0.0027104592 20:0.045360332 21:0.006377551 22:0.025271046 23:0.0023915816 24:0.0080516582 25:0.0018335459 26:0.010921556 27:0.0081313776 28:0.031568878 29:0.034917092 30:0.027503189 31:0.013233418 32:0.0078922194 33:0.0052614796 34:0.015306122 35:0.0050223214 36:0.058115434 37:0.021922832 38:0.067362883 39:0.010044643 40:0.023517219 41:0.0045440051 42:0.0015943878 43:0.002869898 44:0.0047034439 45:0.017219388 46:0.018096301 47:0.01036352 48:0.0066964286 49:0.0030293367 50:0.0027901786 51:0.00079719388 52:0.0059789541 53:0.0012755102 54:0.02479273 55:0.0013552296 56:0.012595663 57:0.00055803571 58:0.35180166 59:0.037069515 
1 1:0.0068558673 2:0.0086894133 3:7.9719388e-05 4:0.0073341837 6:0.0050223214 7:0.00015943878 8:0.0066167092 9:0.00015943878 10:0.0022321429 11:0.002869898 12:0.0015146684 13:0.0022321429 14:0.00079719388 15:0.00079719388 16:0.0020727041 17:0.0016741071 18:0.036830357 19:0.0082110969 20:0.022640306 21:0.0019132653 22:0.017139668 23:0.0015146684 24:0.023596939 25:0.0027104592 26:0.020966199 27:0.05205676 28:0.031489158 29:0.01426977 30:0.010522959 31:0.008848852 32:0.012436224 33:0.012675383 34:0.053730867 35:0.014827806 36:0.11583227 37:0.0098852041 38:0.029097577 39:0.0070153061 40:0.031329719 41:0.010204082 42:0.0084502551 43:0.011320153 44:0.013711735 45:0.0084502551 46:0.0056600765 47:0.0064572704 48:0.0047831633 49:0.0068558673 50:0.014588648 51:0.001036352 52:0.020328444 53:0.0016741071 54:0.012436224 55:0.0013552296 56:0.0086096939 57:0.0015146684 58:0.23541135 59:0.038504464 
0.61661569709774922 1:0.011399872 2:0.0075733418 4:0.011001276 5:0.00039859694 6:0.0093271684 7:7.9719388e-05 8:0.0047831633 9:0.00015943878 10:0.0019132653 11:0.0023915816 12:0.0029496173 13:0.0055803571 14:0.0042251276 15:0.0027104592 16:0.0027901786 17:0.0022321429 18:0.01171875 19:0.0042251276 20:0.032366071 21:0.0076530612 22:0.040258291 23:0.0090082908 24:0.017299107 25:0.005341199 26:0.014429209 27:0.0066964286 28:0.01434949 29:0.040816327 30:0.039461097 31:0.051100128 32:0.026466837 33:0.018096301 34:0.035953444 35:0.0050223214 36:0.030771684 37:0.018415179 38:0.074617347 39:0.031409439 40:0.077168367 41:0.006377551 42:0.0055803571 43:0.0035076531 44:0.0041454082 45:0.0096460459 46:0.013950893 47:0.016741071 48:0.017617985 49:0.0068558673 50:0.0062978316 51:0.0021524235 52:0.0043845663 53:0.0019132653 54:0.019212372 55:0.0030293367 56:0.019371811 57:0.0032684949 58:0.12858737 59:0.045200893 
0.0025830184020977378 1:0.0046237245 2:0.0058195153 3:7.9719388e-05 4:0.0080516582 6:0.0086096939 8:0.0034279337 10:0.0015146684 11:0.0021524235 12:0.0030293367 13:0.0020727041 14:0.0015943878 15:0.0017538265 16:0.0013552296 17:0.00087691327 18:0.013233418 19:0.0034279337 20:0.028539541 21:0.0040656888 22:0.045200893 23:0.0032684949 24:0.014748087 25:0.0021524235 26:0.012037628 27:0.0099649235 28:0.019690689 29:0.030452806 30:0.040975765 31:0.036830357 32:0.0090880102 33:0.013950893 34:0.024394133 35:0.0042251276 36:0.031967474 37:0.011479592 38:0.068797832 39:0.024553571 40:0.061702806 41:0.0044642857 42:0.0037468112 43:0.0038265306 44:0.0037468112 45:0.0083705357 46:0.012197066 47:0.016820791 48:0.01825574 49:0.004942602 50:0.0070153061 51:0.0006377551 52:0.0058992347 53:0.0011957908 54:0.014907526 55:0.0013552296 56:0.023995536 57:0.0018335459 58:0.27614796 59:0.030931122 
1 1:0.03388074 2:0.012037628 3:0.0013552296 4:0.010044643 5:0.001434949 6:0.012675383 7:0.00079719388 8:0.0099649235 9:0.00087691327 10:0.0056600765 11:0.0055803571 12:0.0042251276 13:0.0051020408 14:0.0062181122 15:0.0057397959 16:0.0064572704 17:0.006377551 18:0.025908801 19:0.0086894133 20:0.020328444 21:0.0069355867 22:0.016581633 23:0.0090082908 24:0.029416454 25:0.010602679 26:0.028140944 27:0.030532526 28:0.020089286 29:0.016183036 30:0.013871173 31:0.016422194 32:0.03260523 33:0.045121173 34:0.041135204 35:0.018574617 36:0.026147959 37:0.011320153 38:0.023357781 39:0.0085299745 40:0.032047194 41:0.026546556 42:0.0098852041 43:0.0097257653 44:0.0072544643 45:0.0080516582 46:0.0081313776 47:0.0071747449 48:0.0066167092 49:0.008848852 50:0.0078922194 51:0.0051020408 52:0.0057397959 53:0.006377551 54:0.0062978316 55:0.0043845663 56:0.0076530612 57:0.0059789541 58:0.16493941 59:0.073421556 
1 1:0.0035076531 2:0.0019929847 4:0.0027901786 5:0.00015943878 6:0.0078922194 7:7.9719388e-05 8:0.0035076531 10:0.00031887755 11:0.00031887755 12:0.0011160714 13:0.0012755102 14:0.0035873724 15:0.0040656888 16:0.0015146684 17:0.0012755102 18:0.0048628827 19:0.00039859694 20:0.0048628827 21:0.00079719388 22:0.025271046 23:0.013472577 24:0.030691964 25:0.00087691327 26:0.0031090561 27:0.00071747449 28:0.001434949 29:0.0022321429 30:0.010124362 31:0.061862245 32:0.068638393 33:0.015226403 34:0.022241709 35:0.00047831633 36:0.0034279337 37:0.0012755102 38:0.016661352 39:0.013950893 40:0.12659439 41:0.019132653 42:0.0090880102 43:0.0017538265 44:0.0016741071 45:0.0013552296 46:0.0012755102 47:0.0066167092 48:0.014907526 49:0.016183036 50:0.01434949 51:0.00055803571 52:0.0040656888 53:0.00047831633 54:0.0038265306 55:0.00087691327 56:0.014110332 57:0.0012755102 58:0.39923469 59:0.026626276 
1 1:0.0034279337 2:0.001434949 4:0.0039859694 6:0.0084502551 7:7.9719388e-05 8:0.004942602 11:0.00015943878 12:0.00087691327 13:0.00087691327 14:0.0029496173 15:0.0043048469 16:0.001434949 17:0.0006377551 18:0.0044642857 19:7.9719388e-05 20:0.00390625 21:0.00079719388 22:0.028778699 23:0.012436224 24:0.031170281 25:0.0011957908 26:0.002471301 27:0.00079719388 28:0.00079719388 29:0.0022321429 30:0.0081313776 31:0.061383929 32:0.067442602 33:0.011639031 34:0.02088648 35:0.00095663265 36:0.00390625 37:0.00095663265 38:0.016501913 39:0.015784439 40:0.13058036 41:0.01698023 42:0.010044643 43:0.0027104592 44:0.0015146684 45:0.001036352 46:0.0011160714 47:0.0074139031 48:0.013472577 49:0.016422194 50:0.014668367 51:0.00047831633 52:0.0023915816 53:0.00015943878 54:0.0031887755 55:0.00071747449 56:0.014907526 57:0.00079719388 58:0.40768495 59:0.0234375 
1 1:0.0031887755 2:0.0019132653 4:0.0036670918 6:0.0089285714 7:0.00031887755 8:0.0042251276 10:0.00023915816 11:0.00031887755 12:0.00079719388 13:0.00055803571 14:0.0021524235 15:0.0032684949 16:0.0015146684 17:0.0015146684 18:0.0046237245 19:0.00015943878 20:0.0027104592 21:0.00095663265 22:0.029416454 23:0.013791454 24:0.030691964 25:0.0016741071 26:0.0026307398 27:0.00095663265 28:0.0011957908 29:0.0023118622 30:0.0097257653 31:0.064094388 32:0.067602041 33:0.012675383 34:0.023915816 35:0.0006377551 36:0.0044642857 37:0.00047831633 38:0.017299107 39:0.016342474 40:0.12316645 41:0.017617985 42:0.0086096939 43:0.0019132653 44:0.0015943878 45:0.0012755102 46:0.0019929847 47:0.0095663265 48:0.015625 49:0.017299107 50:0.015146684 51:0.00055803571 52:0.0027901786 53:0.00031887755 54:0.002471301 55:0.00031887755 56:0.014748087 57:0.0013552296 58:0.39819834 59:0.024473852 
1 1:0.0036670918 2:0.002471301 4:0.0086894133 6:0.0074936224 8:0.0025510204 9:7.9719388e-05 10:0.00095663265 11:0.00023915816 12:0.0017538265 13:0.0015943878 14:0.00055803571 15:0.00079719388 16:0.00047831633 17:0.00047831633 18:0.0059789541 19:0.00047831633 20:0.016661352 21:0.0035076531 22:0.053810587 23:0.0033482143 24:0.016342474 25:0.00047831633 26:0.0019132653 27:0.0015943878 28:0.0044642857 29:0.015784439 30:0.029575893 31:0.035235969 32:0.013950893 33:0.0018335459 34:0.010124362 35:0.00047831633 36:0.012037628 37:0.0040656888 38:0.073022959 39:0.021843112 40:0.10180166 41:0.0019929847 42:0.0020727041 43:0.00087691327 44:0.0006377551 45:0.0025510204 46:0.006776148 47:0.018016582 48:0.020248724 49:0.0039859694 50:0.013791454 51:0.00023915816 52:0.0032684949 53:0.00039859694 54:0.011160714 55:0.00095663265 56:0.036352041 57:0.0012755102 58:0.38384885 59:0.031409439 
1 1:0.0031887755 2:0.0041454082 3:0.00015943878 4:0.008848852 6:0.0071747449 8:0.0035076531 10:0.0011160714 11:0.00079719388 12:0.0021524235 13:0.0021524235 14:0.001434949 15:0.0019929847 16:0.00071747449 17:0.00079719388 18:0.0069355867 19:0.0013552296 20:0.025829082 21:0.0044642857 22:0.048788265 23:0.0031887755 24:0.01299426 25:0.00087691327 26:0.0019929847 27:0.0040656888 28:0.0086096939 29:0.023278061 30:0.034598214 31:0.045758929 32:0.010921556 33:0.0031887755 34:0.010841837 35:0.0011957908 36:0.017378827 37:0.0091677296 38:0.074776786 39:0.02734375 40:0.088249362 41:0.0031887755 42:0.0027901786 43:0.0012755102 44:0.001434949 45:0.0046237245 46:0.0090880102 47:0.017777423 48:0.018574617 49:0.0050223214 50:0.0090082908 51:0.00055803571 52:0.0029496173 53:0.00023915816 54:0.01434949 55:0.00079719388 56:0.029416454 57:0.00087691327 58:0.34215561 59:0.031887755 
1 1:0.0058195153 2:0.0047034439 3:0.00023915816 4:0.0082908163 5:7.9719388e-05 6:0.0070950255 8:0.0047831633 10:0.001036352 11:0.00087691327 12:0.0015146684 13:0.0023118622 14:0.0015146684 15:0.0019132653 16:0.00015943878 17:0.00095663265 18:0.0094068878 19:0.0016741071 20:0.02216199 21:0.0044642857 22:0.042490434 23:0.0047831633 24:0.014110332 25:0.001036352 26:0.0032684949 27:0.00390625 28:0.011001276 29:0.024394133 30:0.034119898 31:0.052375638 32:0.014907526 33:0.0066964286 34:0.015066964 35:0.0023118622 36:0.016741071 37:0.0068558673 38:0.075813138 39:0.026227679 40:0.085538903 41:0.0042251276 42:0.0035873724 43:0.0027104592 44:0.0017538265 45:0.0055006378 46:0.0090082908 47:0.01434949 48:0.015864158 49:0.0055006378 50:0.0080516582 51:0.00095663265 52:0.0042251276 53:0.0015943878 54:0.013791454 55:0.00055803571 56:0.022799745 57:0.0013552296 58:0.32724809 59:0.036272321 
1 1:0.0075733418 2:0.0062978316 3:0.00023915816 4:0.0074139031 5:7.9719388e-05 6:0.0045440051 7:0.00015943878 8:0.006776148 10:0.0026307398 11:0.0022321429 12:0.002471301 13:0.0015943878 14:0.0012755102 15:0.0012755102 16:0.0011957908 17:0.0018335459 18:0.021843112 19:0.0056600765 20:0.050382653 21:0.0046237245 22:0.025031888 23:0.0019929847 24:0.01307398 25:0.0020727041 26:0.011320153 27:0.016262755 28:0.070392219 29:0.034837372 30:0.02208227 31:0.012117347 32:0.011878189 33:0.015625 34:0.025589923 35:0.0070950255 36:0.077407526 37:0.027822066 38:0.071986607 39:0.0080516582 40:0.028380102 41:0.0070153061 42:0.0052614796 43:0.0058992347 44:0.0075733418 45:0.018654337 46:0.011479592 47:0.0071747449 48:0.0050223214 49:0.0036670918 50:0.0051020408 51:0.0011957908 52:0.0091677296 53:0.0019132653 54:0.025271046 55:0.00055803571 56:0.015704719 57:0.0015943878 58:0.21771365 59:0.036910077 
1 1:0.0078125 2:0.0084502551 3:0.00015943878 4:0.010522959 6:0.0051817602 8:0.0037468112 9:7.9719388e-05 10:0.002869898 11:0.0023118622 12:0.002471301 13:0.0020727041 14:0.001036352 15:0.00087691327 16:0.0012755102 17:0.00079719388 18:0.014748087 19:0.0031090561 20:0.057477679 21:0.0042251276 22:0.029575893 23:0.0011160714 24:0.011878189 25:0.0011160714 26:0.006377551 27:0.0077327806 28:0.057477679 29:0.03770727 30:0.024633291 31:0.0090880102 32:0.0081313776 33:0.0047831633 34:0.015385842 35:0.0029496173 36:0.073182398 37:0.029496173 38:0.08203125 39:0.0074936224 40:0.01698023 41:0.0043845663 42:0.0031090561 43:0.0034279337 44:0.0043048469 45:0.021444515 46:0.016501913 47:0.010124362 48:0.0037468112 49:0.0025510204 50:0.0039859694 51:0.00087691327 52:0.0069355867 53:0.0018335459 54:0.030931122 55:0.0016741071 56:0.019451531 57:0.00087691327 58:0.26801658 59:0.039461097 
1 1:0.004942602 2:0.0076530612 3:7.9719388e-05 4:0.0094866071 5:7.9719388e-05 6:0.0050223214 8:0.002869898 9:7.9719388e-05 10:0.0021524235 11:0.0017538265 12:0.002471301 13:0.0026307398 14:0.001036352 15:0.00079719388 16:0.00079719388 17:0.00079719388 18:0.013233418 19:0.0027104592 20:0.057716837 21:0.005341199 22:0.031967474 23:0.001036352 24:0.0070950255 25:0.00071747449 26:0.0044642857 27:0.0066167092 28:0.036750638 29:0.038982781 30:0.023676658 31:0.0084502551 32:0.0051817602 33:0.0019132653 34:0.012037628 35:0.0019929847 36:0.064732143 37:0.03388074 38:0.087611607 39:0.0082110969 40:0.016661352 41:0.0027104592 42:0.0021524235 43:0.002471301 44:0.0043048469 45:0.016023597 46:0.017777423 47:0.010124362 48:0.0047034439 49:0.0015943878 50:0.0030293367 51:0.0006377551 52:0.0061383929 53:0.0015146684 54:0.036591199 55:0.001434949 56:0.02088648 57:0.00095663265 58:0.3149713 59:0.038345026 
1 1:0.015146684 2:0.011001276 3:0.00015943878 4:0.0087691327 5:0.00039859694 6:0.0090880102 7:0.0006377551 8:0.0094866071 9:0.00039859694 10:0.0037468112 11:0.0043048469 12:0.0031090561 13:0.0023915816 14:0.00390625 15:0.0030293367 16:0.0035076531 17:0.0038265306 18:0.038345026 19:0.0078125 20:0.025271046 21:0.0043048469 22:0.030851403 23:0.0054209184 24:0.017538265 25:0.005341199 26:0.011080995 27:0.031887755 28:0.023995536 29:0.016820791 30:0.017777423 31:0.026147959 32:0.0076530612 33:0.0070950255 34:0.027901786 35:0.0081313776 36:0.12571747 37:0.0082908163 38:0.04041773 39:0.015625 40:0.034040179 41:0.0032684949 42:0.0045440051 43:0.0066964286 44:0.015066964 45:0.010124362 46:0.0077327806 47:0.0083705357 48:0.010283801 49:0.0036670918 50:0.0086894133 51:0.0023915816 52:0.029097577 53:0.0047034439 54:0.015066964 55:0.0027901786 56:0.012515944 57:0.0030293367 58:0.17251276 59:0.059072066 
1 1:0.010522959 2:0.0072544643 3:0.00015943878 4:0.011080995 5:0.00031887755 6:0.0099649235 7:0.00023915816 8:0.0089285714 9:7.9719388e-05 10:0.0027901786 11:0.0031887755 12:0.0022321429 13:0.0037468112 14:0.0035873724 15:0.0039859694 16:0.0018335459 17:0.0023915816 18:0.026785714 19:0.011320153 20:0.025829082 21:0.0035076531 22:0.038743622 23:0.0056600765 24:0.015545281 25:0.0015146684 26:0.0040656888 27:0.05078125 28:0.034677934 29:0.011240434 30:0.023836097 31:0.037468112 32:0.012515944 33:0.0042251276 34:0.015943878 35:0.0071747449 36:0.13966837 37:0.0076530612 38:0.034199617 39:0.018654337 40:0.052375638 41:0.0046237245 42:0.0045440051 43:0.0050223214 44:0.013153699 45:0.0096460459 46:0.0072544643 47:0.013472577 48:0.012117347 49:0.0042251276 50:0.0070950255 51:0.0023118622 52:0.021763393 53:0.0035873724 54:0.018415179 55:0.002471301 56:0.015864158 57:0.0029496173 58:0.14078444 59:0.055006378 
1 1:0.012117347 2:0.0082908163 3:0.00015943878 4:0.010522959 5:0.00039859694 6:0.0070153061 7:0.00015943878 8:0.0071747449 10:0.0027104592 11:0.0029496173 12:0.0031090561 13:0.004942602 14:0.0034279337 15:0.0031090561 16:0.001036352 17:0.0017538265 18:0.028300383 19:0.010283801 20:0.029655612 21:0.002869898 22:0.03778699 23:0.0059789541 24:0.01299426 25:0.00071747449 26:0.0032684949 27:0.054846939 28:0.03380102 29:0.014508929 30:0.025271046 31:0.035315689 32:0.016342474 33:0.0027104592 34:0.012037628 35:0.0073341837 36:0.12802934 37:0.0090880102 38:0.047592474 39:0.020169005 40:0.054767219 41:0.0034279337 42:0.0033482143 43:0.005341199 44:0.016183036 45:0.011559311 46:0.0094068878 47:0.014429209 48:0.011798469 49:0.0044642857 50:0.0057397959 51:0.0016741071 52:0.020408163 53:0.0023118622 54:0.01953125 55:0.0019132653 56:0.014588648 57:0.002471301 58:0.1324139 59:0.056441327 
1 1:0.0060586735 2:0.0046237245 3:7.9719388e-05 4:0.0098054847 5:7.9719388e-05 6:0.0084502551 7:7.9719388e-05 8:0.0048628827 10:0.00087691327 11:0.0016741071 12:0.0027104592 13:0.0023118622 14:0.0036670918 15:0.0040656888 16:0.00087691327 17:0.00079719388 18:0.0071747449 19:0.002869898 20:0.02734375 21:0.0043845663 22:0.050462372 23:0.0082110969 24:0.014190051 25:0.00079719388 26:0.0019929847 27:0.0085299745 28:0.014987245 29:0.022560587 30:0.027742347 31:0.058354592 32:0.016422194 33:0.0023915816 34:0.0084502551 35:0.0025510204 36:0.025908801 37:0.0090082908 38:0.075095663 39:0.027582908 40:0.086017219 41:0.0019132653 42:0.0023118622 43:0.0017538265 44:0.0025510204 45:0.0062978316 46:0.01036352 47:0.014588648 48:0.02216199 49:0.006776148 50:0.0090880102 51:0.0011957908 52:0.0038265306 53:0.0015146684 54:0.01817602 55:0.001434949 56:0.027024872 57:0.0021524235 58:0.26937181 59:0.043447066 
1 1:0.0060586735 2:0.0047831633 4:0.010682398 6:0.0062181122 8:0.0051020408 10:0.00087691327 11:0.0015943878 12:0.0026307398 13:0.0015146684 14:0.0027104592 15:0.00390625 16:0.00047831633 17:0.00047831633 18:0.0061383929 19:0.0018335459 20:0.027264031 21:0.0025510204 22:0.047672194 23:0.006377551 24:0.015465561 25:0.00039859694 26:0.0019132653 27:0.0071747449 28:0.013950893 29:0.018734056 30:0.024154974 31:0.05731824 32:0.016501913 33:0.0025510204 34:0.008848852 35:0.0011957908 36:0.02734375 37:0.0086096939 38:0.068478954 39:0.026387117 40:0.087133291 41:0.0011957908 42:0.0027901786 43:0.0019132653 44:0.0019929847 45:0.0064572704 46:0.010044643 47:0.012675383 48:0.017139668 49:0.0048628827 50:0.0094866071 51:0.0011160714 52:0.0036670918 53:0.00071747449 54:0.018973214 55:0.0015146684 56:0.027024872 57:0.0016741071 58:0.30931122 59:0.042410714 
1 1:0.005341199 2:0.0056600765 4:0.0071747449 6:0.0035873724 8:0.0033482143 10:0.0015943878 11:0.0031090561 12:0.0027104592 13:0.0027104592 14:0.0012755102 15:0.0013552296 16:0.0006377551 17:0.00039859694 18:0.010124362 19:0.0042251276 20:0.047273597 21:0.0043845663 22:0.02598852 23:0.0020727041 24:0.0064572704 25:0.0006377551 26:0.0017538265 27:0.011160714 28:0.049266582 29:0.025031888 30:0.016820791 31:0.010283801 32:0.0076530612 33:0.0019929847 34:0.0074139031 35:0.0013552296 36:0.077726403 37:0.02216199 38:0.062420281 39:0.0066964286 40:0.017697704 41:0.0027901786 42:0.0019929847 43:0.0023915816 44:0.0051020408 45:0.016661352 46:0.014190051 47:0.010044643 48:0.0057397959 49:0.0017538265 50:0.0027104592 51:0.0006377551 52:0.0073341837 53:0.0018335459 54:0.028061224 55:0.001036352 56:0.015385842 57:0.0015146684 58:0.38592156 59:0.035395408 
0.98338156971652935 1:0.0046237245 2:0.0054209184 3:7.9719388e-05 4:0.011080995 6:0.0040656888 8:0.0048628827 10:0.0020727041 11:0.0027104592 12:0.0020727041 13:0.0021524235 14:0.001036352 15:0.0013552296 16:0.00023915816 17:0.0011160714 18:0.011320153 19:0.0052614796 20:0.041533801 21:0.0039859694 22:0.022720026 23:0.0015943878 24:0.0080516582 25:0.0006377551 26:0.0019132653 27:0.017857143 28:0.054209184 29:0.027662628 30:0.018973214 31:0.010762117 32:0.0083705357 33:0.001434949 34:0.0066964286 35:0.0021524235 36:0.084821429 37:0.022241709 38:0.067123724 39:0.0094866071 40:0.021922832 41:0.002869898 42:0.0027901786 43:0.0027104592 44:0.0055803571 45:0.018335459 46:0.018016582 47:0.0098852041 48:0.0051817602 49:0.0040656888 50:0.0038265306 51:0.00079719388 52:0.0084502551 53:0.0011957908 54:0.022401148 55:0.0017538265 56:0.013632015 57:0.0011160714 58:0.34669962 59:0.037069515 
1 1:0.0085299745 2:0.0075733418 4:0.0098852041 6:0.0061383929 7:7.9719388e-05 8:0.0074936224 10:0.0035076531 11:0.0039859694 12:0.002869898 13:0.0025510204 14:0.0023118622 15:0.0013552296 16:0.0015943878 17:0.0013552296 18:0.014748087 19:0.010283801 20:0.049186862 21:0.0038265306 22:0.032047194 23:0.00390625 24:0.013871173 25:0.00039859694 26:0.0031887755 27:0.033242985 28:0.066725128 29:0.030771684 30:0.020487883 31:0.023198342 32:0.020647321 33:0.0037468112 34:0.0098054847 35:0.0040656888 36:0.11312181 37:0.025510204 38:0.073899872 39:0.014748087 40:0.047592474 41:0.0061383929 42:0.0031090561 43:0.0032684949 44:0.0082908163 45:0.018574617 46:0.016023597 47:0.011160714 48:0.0090082908 49:0.0046237245 50:0.0074139031 51:0.0015146684 52:0.0082908163 53:0.0027104592 54:0.026546556 55:0.0022321429 56:0.017299107 57:0.0015943878 58:0.12364477 59:0.050302934 
1 1:0.0044642857 2:0.0056600765 3:7.9719388e-05 4:0.009247449 5:0.00023915816 6:0.0059789541 8:0.0058992347 10:0.0015146684 11:0.0019929847 12:0.0030293367 13:0.0018335459 14:0.0023915816 15:0.0019929847 16:0.00071747449 17:0.0011160714 18:0.011399872 19:0.0085299745 20:0.040816327 21:0.006377551 22:0.038345026 23:0.0056600765 24:0.013711735 25:0.0006377551 26:0.0023118622 27:0.02598852 28:0.057876276 29:0.038424745 30:0.042012117 31:0.04823023 32:0.019212372 33:0.0033482143 34:0.0086096939 35:0.0029496173 36:0.097815689 37:0.021763393 38:0.091358418 39:0.025271046 40:0.064253827 41:0.0037468112 42:0.0040656888 43:0.0027901786 44:0.0061383929 45:0.016741071 46:0.01698023 47:0.017299107 48:0.013153699 49:0.006377551 50:0.0052614796 51:0.0013552296 52:0.0069355867 53:0.0015146684 54:0.020169005 55:0.001434949 56:0.016342474 57:0.0015943878 58:0.10012755 59:0.036910077 
1 1:0.0047831633 2:0.0054209184 4:0.0090880102 6:0.0042251276 8:0.0059789541 10:0.0022321429 11:0.0025510204 12:0.0022321429 13:0.0030293367 14:0.0016741071 15:0.0018335459 16:0.00055803571 17:0.00087691327 18:0.013233418 19:0.0072544643 20:0.048708546 21:0.0051817602 22:0.042570153 23:0.0042251276 24:0.011479592 25:0.00039859694 26:0.0029496173 27:0.031489158 28:0.054448342 29:0.035953444 30:0.039700255 31:0.04942602 32:0.020647321 33:0.0035076531 34:0.009247449 35:0.0052614796 36:0.081632653 37:0.024234694 38:0.093431122 39:0.027901786 40:0.059390944 41:0.0037468112 42:0.0032684949 43:0.0037468112 44:0.0066167092 45:0.01698023 46:0.014110332 47:0.017059949 48:0.015784439 49:0.0052614796 50:0.0066167092 51:0.0013552296 52:0.006377551 53:0.0011160714 54:0.020966199 55:0.001434949 56:0.019371811 57:0.001434949 58:0.098294005 59:0.039700255 
1 1:0.0060586735 2:0.0051020408 4:0.0082908163 6:0.005341199 8:0.0066964286 9:7.9719388e-05 10:0.0016741071 11:0.002869898 12:0.0023118622 13:0.0027901786 14:0.0027901786 15:0.0025510204 16:0.001434949 17:0.00079719388 18:0.016741071 19:0.010602679 20:0.042410714 21:0.0070153061 22:0.039540816 23:0.00390625 24:0.015226403 25:0.0011957908 26:0.0058195153 27:0.030452806 28:0.047991071 29:0.044005102 30:0.038265306 31:0.043128189 32:0.022879464 33:0.0040656888 34:0.013153699 35:0.0074936224 36:0.077646684 37:0.021125638 38:0.086814413 39:0.023995536 40:0.060108418 41:0.0034279337 42:0.0039859694 43:0.0057397959 44:0.009247449 45:0.014748087 46:0.016501913 47:0.016342474 48:0.015146684 49:0.0055803571 50:0.0081313776 51:0.0019929847 52:0.0066964286 53:0.0023915816 54:0.020089286 55:0.0015146684 56:0.01690051 57:0.0021524235 58:0.093829719 59:0.043207908 
1 1:0.0065369898 2:0.004942602 3:7.9719388e-05 4:0.0094068878 5:7.9719388e-05 6:0.006776148 8:0.0065369898 10:0.0013552296 11:0.0019132653 12:0.0027104592 13:0.0023118622 14:0.0039859694 15:0.0026307398 16:0.0012755102 17:0.001036352 18:0.011160714 19:0.006776148 20:0.027582908 21:0.0050223214 22:0.054846939 23:0.010921556 24:0.016262755 25:0.00071747449 26:0.0027104592 27:0.023596939 28:0.033402423 29:0.024154974 30:0.03643176 31:0.067123724 32:0.033163265 33:0.0045440051 34:0.010921556 35:0.0029496173 36:0.058832908 37:0.014508929 38:0.068718112 39:0.028778699 40:0.10435268 41:0.0061383929 42:0.0042251276 43:0.0031887755 44:0.0070153061 45:0.010283801 46:0.013153699 47:0.020328444 48:0.021843112 49:0.0094866071 50:0.0078922194 51:0.0020727041 52:0.006776148 53:0.0023118622 54:0.013632015 55:0.0016741071 56:0.027264031 57:0.0021524235 58:0.10084503 59:0.040656888 
1 1:0.0052614796 2:0.0048628827 3:7.9719388e-05 4:0.0093271684 5:7.9719388e-05 6:0.0062181122 8:0.0046237245 9:7.9719388e-05 10:0.0020727041 11:0.0022321429 12:0.0015943878 13:0.0030293367 14:0.0029496173 15:0.002471301 16:0.00071747449 17:0.00039859694 18:0.011399872 19:0.0082908163 20:0.03388074 21:0.0043048469 22:0.058195153 23:0.0083705357 24:0.015545281 25:0.00079719388 26:0.002471301 27:0.024872449 28:0.031489158 29:0.026147959 30:0.04424426 31:0.066326531 32:0.026945153 33:0.0043845663 34:0.01036352 35:0.0020727041 36:0.066645408 37:0.014668367 38:0.079639668 39:0.032445791 40:0.088727679 41:0.0047034439 42:0.0038265306 43:0.0040656888 44:0.0056600765 45:0.013392857 46:0.011798469 47:0.018973214 48:0.020647321 49:0.0071747449 50:0.0080516582 51:0.001036352 52:0.0055803571 53:0.0022321429 54:0.015864158 55:0.0013552296 56:0.027264031 57:0.0019132653 58:0.097098214 59:0.041135204 
1 1:0.0048628827 2:0.0047831633 3:0.00015943878 4:0.0089285714 5:0.00015943878 6:0.0064572704 8:0.0045440051 10:0.0020727041 11:0.0019929847 12:0.0036670918 13:0.0032684949 14:0.0039859694 15:0.0011957908 16:0.00071747449 17:0.00071747449 18:0.010522959 19:0.0078125 20:0.031808036 21:0.0074936224 22:0.054448342 23:0.0098852041 24:0.015545281 25:0.00039859694 26:0.0021524235 27:0.022640306 28:0.029815051 29:0.026865434 30:0.048947704 31:0.064014668 32:0.026227679 33:0.0023118622 34:0.009247449 35:0.0023915816 36:0.063058036 37:0.013950893 38:0.084980867 39:0.03388074 40:0.092235332 41:0.0043048469 42:0.0027901786 43:0.0032684949 44:0.0051020408 45:0.012276786 46:0.013313138 47:0.021683673 48:0.022720026 49:0.0087691327 50:0.0082110969 51:0.0006377551 52:0.0054209184 53:0.0018335459 54:0.015226403 55:0.0021524235 56:0.02479273 57:0.0015146684 58:0.096779337 59:0.041055485 
1 1:0.0051020408 2:0.0050223214 3:0.00015943878 4:0.0078125 6:0.006776148 8:0.0051817602 9:7.9719388e-05 10:0.0011160714 11:0.0020727041 12:0.0021524235 13:0.0027901786 14:0.0016741071 15:0.0022321429 16:0.0011160714 17:0.00095663265 18:0.0079719388 19:0.0034279337 20:0.028300383 21:0.0050223214 22:0.049585459 23:0.0084502551 24:0.015864158 25:0.00047831633 26:0.0021524235 27:0.010602679 28:0.014827806 29:0.03252551 30:0.034279337 31:0.063456633 32:0.026466837 33:0.0046237245 34:0.012675383 35:0.0025510204 36:0.02861926 37:0.014827806 38:0.074457908 39:0.027901786 40:0.089365434 41:0.0051020408 42:0.0031090561 43:0.0030293367 44:0.00390625 45:0.0082908163 46:0.013392857 47:0.015784439 48:0.02080676 49:0.0090082908 50:0.0099649235 51:0.0011957908 52:0.005341199 53:0.00079719388 54:0.014748087 55:0.0011957908 56:0.025669643 57:0.0023915816 58:0.21787309 59:0.035714286 
1 1:0.0036670918 2:0.0062978316 3:7.9719388e-05 4:0.01036352 5:7.9719388e-05 6:0.0043845663 8:0.0023915816 10:0.0023915816 11:0.00079719388 12:0.0019929847 13:0.0018335459 14:0.0019132653 15:0.0011160714 16:0.00039859694 17:0.00095663265 18:0.0076530612 19:0.0042251276 20:0.044403699 21:0.0043845663 22:0.034917092 23:0.0032684949 24:0.0082908163 25:0.00015943878 26:0.0023915816 27:0.0099649235 28:0.042490434 29:0.033641582 30:0.029017857 31:0.017299107 32:0.0083705357 33:0.0025510204 34:0.0083705357 35:0.0013552296 36:0.065449617 37:0.01825574 38:0.078284439 39:0.014110332 40:0.034917092 41:0.0032684949 42:0.0029496173 43:0.0027104592 44:0.0029496173 45:0.014827806 46:0.018813776 47:0.014429209 48:0.0098054847 49:0.0031887755 50:0.0051020408 51:0.0006377551 52:0.0050223214 53:0.0020727041 54:0.028380102 55:0.0015146684 56:0.019929847 57:0.0012755102 58:0.31592793 59:0.034757653 
1 1:0.0052614796 2:0.0068558673 3:7.9719388e-05 4:0.0070153061 6:0.0052614796 7:7.9719388e-05 8:0.002471301 10:0.0016741071 11:0.002471301 12:0.002471301 13:0.0027901786 14:0.0015146684 15:0.0011160714 16:0.00039859694 17:0.00031887755 18:0.011957908 19:0.0070950255 20:0.043606505 21:0.0057397959 22:0.032366071 23:0.00390625 24:0.0087691327 25:0.0006377551 26:0.0037468112 27:0.017777423 28:0.047193878 29:0.029575893 30:0.033083546 31:0.017936862 32:0.010124362 33:0.0027901786 34:0.009247449 35:0.002471301 36:0.079161352 37:0.018654337 38:0.07940051 39:0.016741071 40:0.029017857 41:0.0035076531 42:0.0023118622 43:0.0032684949 44:0.0055006378 45:0.016741071 46:0.017059949 47:0.014110332 48:0.010204082 49:0.0047034439 50:0.0047034439 51:0.00087691327 52:0.0066964286 53:0.0011957908 54:0.026945153 55:0.0016741071 56:0.016661352 57:0.0012755102 58:0.27431441 59:0.037468112 
1 1:0.0050223214 2:0.0062181122 4:0.0094866071 5:7.9719388e-05 6:0.0061383929 7:7.9719388e-05 8:0.0054209184 10:0.0027901786 11:0.0017538265 12:0.0031090561 13:0.0023118622 14:0.0025510204 15:0.0015943878 16:0.0006377551 17:0.00087691327 18:0.015465561 19:0.011957908 20:0.043207908 21:0.006776148 22:0.030213648 23:0.0044642857 24:0.0073341837 25:0.00055803571 26:0.0030293367 27:0.029177296 28:0.065609056 29:0.034040179 30:0.027662628 31:0.020328444 32:0.010682398 33:0.0019132653 34:0.0070153061 35:0.0043048469 36:0.10905612 37:0.020966199 38:0.075095663 39:0.01426977 40:0.028061224 41:0.0030293367 42:0.0025510204 43:0.0030293367 44:0.0096460459 45:0.020727041 46:0.017059949 47:0.013552296 48:0.0094866071 49:0.0035873724 50:0.0030293367 51:0.00087691327 52:0.0094068878 53:0.0025510204 54:0.024234694 55:0.0019929847 56:0.012197066 57:0.0023915816 58:0.19945791 59:0.041932398 
1 1:0.0058195153 2:0.0059789541 4:0.0083705357 6:0.0054209184 7:7.9719388e-05 8:0.0039859694 10:0.002471301 11:0.0041454082 12:0.0034279337 13:0.0027901786 14:0.0020727041 15:0.0019132653 16:0.00087691327 17:0.00079719388 18:0.016103316 19:0.013552296 20:0.04424426 21:0.0060586735 22:0.030532526 23:0.0043845663 24:0.0089285714 25:0.00079719388 26:0.0027104592 27:0.037308673 28:0.074936224 29:0.037547832 30:0.028380102 31:0.019132653 32:0.012197066 33:0.0034279337 34:0.010522959 35:0.0058195153 36:0.12308673 37:0.027024872 38:0.073022959 39:0.013392857 40:0.030213648 41:0.0025510204 42:0.0023118622 43:0.0034279337 44:0.01036352 45:0.020089286 46:0.017139668 47:0.010204082 48:0.0094068878 49:0.0044642857 50:0.0052614796 51:0.00095663265 52:0.0072544643 53:0.0026307398 54:0.019132653 55:0.0011957908 56:0.012914541 57:0.001434949 58:0.15776467 59:0.040019133 
1 1:0.0055803571 2:0.006377551 4:0.009247449 5:0.00015943878 6:0.0051020408 8:0.0051817602 10:0.0033482143 11:0.0040656888 12:0.002869898 13:0.0033482143 14:0.0021524235 15:0.0022321429 16:0.00055803571 17:0.0006377551 18:0.016103316 19:0.014827806 20:0.046715561 21:0.0043048469 22:0.028140944 23:0.0034279337 24:0.011320153 25:0.00095663265 26:0.00390625 27:0.048309949 28:0.077726403 29:0.0390625 30:0.026785714 31:0.023596939 32:0.01307398 33:0.0041454082 34:0.010602679 35:0.0064572704 36:0.14118304 37:0.028858418 38:0.072544643 39:0.010522959 40:0.03388074 41:0.005341199 42:0.00390625 43:0.0039859694 44:0.010522959 45:0.018415179 46:0.017139668 47:0.012276786 48:0.0098852041 49:0.0047034439 50:0.0062181122 51:0.0012755102 52:0.0082110969 53:0.0019929847 54:0.02216199 55:0.0011160714 56:0.012595663 57:0.0011957908 58:0.10275829 59:0.038982781 
1 1:0.0058195153 2:0.006377551 4:0.0087691327 5:0.00015943878 6:0.0070950255 7:7.9719388e-05 8:0.0066167092 9:7.9719388e-05 10:0.0035873724 11:0.0031887755 12:0.0027901786 13:0.0029496173 14:0.0027104592 15:0.0020727041 16:0.00079719388 17:0.001036352 18:0.016581633 19:0.012914541 20:0.049984056 21:0.0047034439 22:0.026387117 23:0.0044642857 24:0.010762117 25:0.0016741071 26:0.0045440051 27:0.051658163 28:0.074617347 29:0.035873724 30:0.025589923 31:0.021125638 32:0.015704719 33:0.0052614796 34:0.012755102 35:0.0070950255 36:0.13456633 37:0.027742347 38:0.065609056 39:0.014110332 40:0.03778699 41:0.0047831633 42:0.0041454082 43:0.004942602 44:0.011399872 45:0.02216199 46:0.019770408 47:0.011240434 48:0.010283801 49:0.0056600765 50:0.0055006378 51:0.001036352 52:0.0082110969 53:0.0021524235 54:0.021364796 55:0.0019132653 56:0.014827806 57:0.0019929847 58:0.093112245 59:0.039859694 
1 1:0.0068558673 2:0.0074139031 3:0.00015943878 4:0.0094866071 6:0.0056600765 8:0.0056600765 9:7.9719388e-05 10:0.0027104592 11:0.0035873724 12:0.002869898 13:0.0018335459 14:0.0036670918 15:0.0020727041 16:0.00095663265 17:0.001036352 18:0.018335459 19:0.015465561 20:0.047034439 21:0.0031090561 22:0.027503189 23:0.0051020408 24:0.015385842 25:0.00095663265 26:0.0037468112 27:0.057557398 28:0.072464923 29:0.033322704 30:0.022640306 31:0.023836097 32:0.019850128 33:0.0044642857 34:0.013950893 35:0.0065369898 36:0.12771046 37:0.028938138 38:0.060825893 39:0.013392857 40:0.043128189 41:0.0051817602 42:0.0041454082 43:0.0048628827 44:0.0099649235 45:0.01825574 46:0.018096301 47:0.011639031 48:0.011479592 49:0.0059789541 50:0.006377551 51:0.0011160714 52:0.0086096939 53:0.001434949 54:0.019850128 55:0.0022321429 56:0.012037628 57:0.0015943878 58:0.09510523 59:0.042729592 
1 1:0.0070950255 2:0.0077327806 3:7.9719388e-05 4:0.0084502551 5:0.00023915816 6:0.0045440051 8:0.0059789541 9:0.00015943878 10:0.0029496173 11:0.0033482143 12:0.0027901786 13:0.0020727041 14:0.0027901786 15:0.0026307398 16:0.00087691327 17:0.0015943878 18:0.016501913 19:0.013950893 20:0.047433036 21:0.0035873724 22:0.028938138 23:0.0058992347 24:0.015545281 25:0.0011160714 26:0.0047831633 27:0.060905612 28:0.066326531 29:0.029257015 30:0.022401148 31:0.023278061 32:0.023676658 33:0.0042251276 34:0.017857143 35:0.0078125 36:0.12109375 37:0.024473852 38:0.053491709 39:0.016581633 40:0.048708546 41:0.0069355867 42:0.004942602 43:0.0052614796 44:0.011878189 45:0.020408163 46:0.018734056 47:0.010522959 48:0.0098852041 49:0.0075733418 50:0.0080516582 51:0.0006377551 52:0.0083705357 53:0.0016741071 54:0.021524235 55:0.0018335459 56:0.011399872 57:0.001036352 58:0.10140306 59:0.036750638 
1 1:0.015306122 2:0.0074936224 3:0.00015943878 4:0.010044643 5:0.00039859694 6:0.0096460459 7:0.00047831633 8:0.0074139031 9:0.00039859694 10:0.0035076531 11:0.0036670918 12:0.0033482143 13:0.0039859694 14:0.0042251276 15:0.0036670918 16:0.0033482143 17:0.0035873724 18:0.015385842 19:0.0046237245 20:0.030054209 21:0.0047034439 22:0.028938138 23:0.0085299745 24:0.03515625 25:0.0034279337 26:0.0051020408 27:0.0089285714 28:0.024633291 29:0.01434949 30:0.011399872 31:0.03260523 32:0.028459821 33:0.0084502551 34:0.022879464 35:0.0041454082 36:0.036033163 37:0.014987245 38:0.03770727 39:0.0077327806 40:0.12794962 41:0.0064572704 42:0.0050223214 43:0.004942602 44:0.0043048469 45:0.0083705357 46:0.0084502551 47:0.0076530612 48:0.0091677296 49:0.013472577 50:0.027981505 51:0.0029496173 52:0.0089285714 53:0.0023915816 54:0.011320153 55:0.0029496173 56:0.022241709 57:0.0036670918 58:0.19595026 59:0.056919643 
1 1:0.0065369898 2:0.0058195153 4:0.0080516582 6:0.0085299745 7:7.9719388e-05 8:0.0079719388 10:0.0012755102 11:0.0015146684 12:0.0020727041 13:0.0015943878 14:0.0022321429 15:0.0015146684 16:0.00087691327 17:0.00055803571 18:0.013313138 19:0.0022321429 20:0.032924107 21:0.0015943878 22:0.027503189 23:0.0069355867 24:0.039620536 25:0.0006377551 26:0.001434949 27:0.0048628827 28:0.019610969 29:0.015226403 30:0.0085299745 31:0.020966199 32:0.051817602 33:0.0043048469 34:0.022401148 35:0.0017538265 36:0.03770727 37:0.011399872 38:0.044164541 39:0.0031887755 40:0.14676339 41:0.0065369898 42:0.005341199 43:0.0023915816 44:0.0022321429 45:0.0070950255 46:0.0062181122 47:0.005341199 48:0.0086096939 49:0.018096301 50:0.033163265 51:0.0012755102 52:0.009247449 53:0.0011160714 54:0.014110332 55:0.001036352 56:0.022401148 57:0.0015146684 58:0.23668686 59:0.050063776 
1 1:0.014429209 2:0.0077327806 3:0.00039859694 4:0.011798469 5:0.00015943878 6:0.0082110969 7:0.00015943878 8:0.010841837 9:0.00023915816 10:0.0046237245 11:0.0051817602 12:0.0034279337 13:0.002471301 14:0.0036670918 15:0.0023118622 16:0.0037468112 17:0.0022321429 18:0.016023597 19:0.0060586735 20:0.032684949 21:0.0042251276 22:0.020647321 23:0.012356505 24:0.029575893 25:0.0026307398 26:0.0082110969 27:0.013791454 28:0.030532526 29:0.021364796 30:0.0085299745 31:0.037069515 32:0.069196429 33:0.0059789541 34:0.018335459 35:0.0046237245 36:0.043207908 37:0.015704719 38:0.027184311 39:0.0066167092 40:0.15098852 41:0.0078922194 42:0.0074936224 43:0.0047831633 44:0.004942602 45:0.010283801 46:0.011559311 47:0.0058992347 48:0.01044324 49:0.016422194 50:0.018893495 51:0.0032684949 52:0.0074139031 53:0.0027901786 54:0.010682398 55:0.0031887755 56:0.014110332 57:0.0034279337 58:0.13177615 59:0.057557398 
1 1:0.010841837 2:0.0080516582 3:0.00015943878 4:0.011798469 6:0.0078922194 7:7.9719388e-05 8:0.0068558673 9:0.00015943878 10:0.0035076531 11:0.0034279337 12:0.0031090561 13:0.0027901786 14:0.0031887755 15:0.0029496173 16:0.0013552296 17:0.0018335459 18:0.01299426 19:0.0060586735 20:0.039221939 21:0.0037468112 22:0.028220663 23:0.010204082 24:0.027981505 25:0.0011160714 26:0.0029496173 27:0.012675383 28:0.039142219 29:0.026705995 30:0.012037628 31:0.034040179 32:0.051817602 33:0.0041454082 34:0.013871173 35:0.0032684949 36:0.055803571 37:0.019052934 38:0.043048469 39:0.0076530612 40:0.12986288 41:0.0062181122 42:0.0041454082 43:0.0039859694 44:0.0035873724 45:0.012117347 46:0.013632015 47:0.0091677296 48:0.012276786 49:0.015146684 50:0.020248724 51:0.0020727041 52:0.0062978316 53:0.002471301 54:0.016103316 55:0.0015943878 56:0.017378827 57:0.0029496173 58:0.14198023 59:0.055006378 
1 1:0.0094866071 2:0.0082110969 3:0.00023915816 4:0.011160714 6:0.0050223214 8:0.0074936224 9:7.9719388e-05 10:0.0036670918 11:0.0035873724 12:0.0043845663 13:0.0029496173 14:0.0021524235 15:0.0018335459 16:0.0021524235 17:0.001434949 18:0.016422194 19:0.0091677296 20:0.055006378 21:0.0044642857 22:0.036272321 23:0.0058195153 24:0.015226403 25:0.00095663265 26:0.0057397959 27:0.024394133 28:0.057477679 29:0.043207908 30:0.022959184 31:0.02869898 32:0.014827806 33:0.0030293367 34:0.011080995 35:0.0039859694 36:0.080835459 37:0.02861926 38:0.088169643 39:0.0087691327 40:0.05078125 41:0.0025510204 42:0.0023118622 43:0.0039859694 44:0.0066964286 45:0.016422194 46:0.02088648 47:0.011479592 48:0.0086894133 49:0.0036670918 50:0.0069355867 51:0.0015146684 52:0.0065369898 53:0.0020727041 54:0.029257015 55:0.0016741071 56:0.02080676 57:0.0022321429 58:0.12340561 59:0.049107143 
0.21036340766171607 1:0.0084502551 2:0.0078922194 3:7.9719388e-05 4:0.01044324 5:7.9719388e-05 6:0.0054209184 8:0.0061383929 10:0.0036670918 11:0.0046237245 12:0.0031090561 13:0.0031887755 14:0.0017538265 15:0.0021524235 16:0.00095663265 17:0.0011160714 18:0.016581633 19:0.0090880102 20:0.051259566 21:0.0058195153 22:0.027822066 23:0.0030293367 24:0.011240434 25:0.0011160714 26:0.0030293367 27:0.021045918 28:0.057716837 29:0.035953444 30:0.026147959 31:0.01426977 32:0.011080995 33:0.0022321429 34:0.010522959 35:0.0054209184 36:0.090561224 37:0.027822066 38:0.081154337 39:0.0099649235 40:0.036591199 41:0.0035873724 42:0.0034279337 43:0.0030293367 44:0.0070153061 45:0.018813776 46:0.016262755 47:0.011399872 48:0.0066964286 49:0.0035873724 50:0.0054209184 51:0.0015146684 52:0.0080516582 53:0.0022321429 54:0.02606824 55:0.0025510204 56:0.014508929 57:0.0019132653 58:0.19483418 59:0.050542092 
1 1:0.0086894133 2:0.0084502551 4:0.011559311 5:7.9719388e-05 6:0.0043845663 8:0.0047831633 10:0.0039859694 11:0.0035076531 12:0.0027901786 13:0.0023118622 14:0.0018335459 15:0.0011160714 16:0.00095663265 17:0.0012755102 18:0.014748087 19:0.0068558673 20:0.047672194 21:0.0041454082 22:0.030851403 23:0.0023915816 24:0.0094866071 25:0.00079719388 26:0.0026307398 27:0.022720026 28:0.060108418 29:0.038424745 30:0.021364796 31:0.016023597 32:0.0099649235 33:0.0020727041 34:0.0082908163 35:0.0038265306 36:0.084502551 37:0.025191327 38:0.085698342 39:0.0096460459 40:0.027503189 41:0.002471301 42:0.0021524235 43:0.0031887755 44:0.0084502551 45:0.020328444 46:0.015704719 47:0.010283801 48:0.0075733418 49:0.0035873724 50:0.0043845663 51:0.0011160714 52:0.0074936224 53:0.0023118622 54:0.026865434 55:0.0015146684 56:0.017857143 57:0.001036352 58:0.22672194 59:0.046316964 
1 1:0.0068558673 2:0.0075733418 3:0.00023915816 4:0.010044643 5:0.00015943878 6:0.0052614796 8:0.0042251276 10:0.0043845663 11:0.0030293367 12:0.0018335459 13:0.0031090561 14:0.0020727041 15:0.00055803571 16:0.00071747449 17:0.00039859694 18:0.014987245 19:0.0064572704 20:0.047831633 21:0.0029496173 22:0.029735332 23:0.0016741071 24:0.0075733418 25:0.00055803571 26:0.0019132653 27:0.015784439 28:0.0546875 29:0.027662628 30:0.023517219 31:0.013392857 32:0.0065369898 33:0.001036352 34:0.0083705357 35:0.00390625 36:0.085618622 37:0.026705995 38:0.071029974 39:0.0086096939 40:0.027742347 41:0.0013552296 42:0.0027104592 43:0.002471301 44:0.0052614796 45:0.015864158 46:0.014668367 47:0.012515944 48:0.0047831633 49:0.0026307398 50:0.0033482143 51:0.00071747449 52:0.009247449 53:0.0022321429 54:0.026307398 55:0.0015146684 56:0.018654337 57:0.0017538265 58:0.29551977 59:0.039700255 
1 1:0.0037468112 2:0.0040656888 4:0.0086894133 6:0.0072544643 8:0.0032684949 9:7.9719388e-05 10:0.0011160714 11:0.0013552296 12:0.002471301 13:0.0020727041 14:0.0019929847 15:0.0016741071 16:0.00047831633 17:0.00055803571 18:0.0046237245 19:0.0029496173 20:0.023278061 21:0.0023118622 22:0.045121173 23:0.0027901786 24:0.0098054847 25:0.00015943878 26:0.0011957908 27:0.0075733418 28:0.0077327806 29:0.015943878 30:0.023596939 31:0.050302934 32:0.012356505 33:0.0012755102 34:0.0070950255 35:0.0023915816 36:0.022640306 37:0.0055006378 38:0.057477679 39:0.025669643 40:0.090401786 41:0.0016741071 42:0.0023915816 43:0.002471301 44:0.0017538265 45:0.0050223214 46:0.0085299745 47:0.016820791 48:0.016183036 49:0.0044642857 50:0.0086096939 51:0.00079719388 52:0.0031090561 53:0.0006377551 54:0.015864158 55:0.0015146684 56:0.025829082 57:0.00071747449 58:0.39006696 59:0.03252551 
1 1:0.0035873724 2:0.0041454082 3:7.9719388e-05 4:0.0086894133 5:7.9719388e-05 6:0.0055006378 8:0.0042251276 10:0.0011957908 11:0.0013552296 12:0.0027901786 13:0.002471301 14:0.0013552296 15:0.0017538265 16:0.00055803571 17:0.00047831633 18:0.0072544643 19:0.0016741071 20:0.025669643 21:0.0035076531 22:0.050860969 23:0.0047034439 24:0.010841837 25:0.0006377551 26:0.0015943878 27:0.0089285714 28:0.0097257653 29:0.019850128 30:0.023118622 31:0.049984056 32:0.013791454 33:0.0019132653 34:0.0066964286 35:0.002869898 36:0.020328444 37:0.0089285714 38:0.068797832 39:0.023596939 40:0.086734694 41:0.001434949 42:0.0018335459 43:0.002869898 44:0.0021524235 45:0.0062978316 46:0.011001276 47:0.014827806 48:0.018654337 49:0.0043048469 50:0.0079719388 51:0.0012755102 52:0.0037468112 53:0.0011957908 54:0.014748087 55:0.00079719388 56:0.028539541 57:0.00095663265 58:0.35419324 59:0.032924107 
1 1:0.005341199 2:0.0050223214 3:0.00015943878 4:0.0099649235 6:0.0062978316 7:7.9719388e-05 8:0.0044642857 9:0.00023915816 10:0.0018335459 11:0.00079719388 12:0.0019132653 13:0.0027104592 14:0.002869898 15:0.0019132653 16:0.00047831633 17:0.0006377551 18:0.0090880102 19:0.0023915816 20:0.024234694 21:0.0035873724 22:0.048788265 23:0.0058195153 24:0.012037628 25:0.0006377551 26:0.0016741071 27:0.009247449 28:0.01299426 29:0.022560587 30:0.032844388 31:0.05333227 32:0.014827806 33:0.0023118622 34:0.0089285714 35:0.00390625 36:0.026626276 37:0.0080516582 38:0.070711097 39:0.025111607 40:0.086734694 41:0.0022321429 42:0.0029496173 43:0.0025510204 44:0.0036670918 45:0.0061383929 46:0.010204082 47:0.016103316 48:0.01825574 49:0.0051817602 50:0.0070153061 51:0.00079719388 52:0.004942602 53:0.0011160714 54:0.015385842 55:0.0011957908 56:0.028220663 57:0.001036352 58:0.30644133 59:0.035395408 
1 1:0.006377551 2:0.0051817602 3:0.00015943878 4:0.012037628 6:0.0078125 8:0.0069355867 10:0.0019929847 11:0.0019929847 12:0.0022321429 13:0.0027901786 14:0.0035076531 15:0.0026307398 16:0.00087691327 17:0.00071747449 18:0.011798469 19:0.0047034439 20:0.030133929 21:0.0039859694 22:0.047831633 23:0.0090082908 24:0.013153699 25:0.00095663265 26:0.0031090561 27:0.015066964 28:0.020647321 29:0.023517219 30:0.026626276 31:0.060666454 32:0.025908801 33:0.0031887755 34:0.011001276 35:0.002471301 36:0.039620536 37:0.010204082 38:0.074856505 39:0.0234375 40:0.12165179 41:0.0035076531 42:0.0040656888 43:0.0041454082 44:0.004942602 45:0.0087691327 46:0.011320153 47:0.014748087 48:0.018335459 49:0.0075733418 50:0.0090880102 51:0.0019929847 52:0.0061383929 53:0.00087691327 54:0.015385842 55:0.0019929847 56:0.027024872 57:0.002869898 58:0.17163584 59:0.046795281 
1 1:0.0055006378 2:0.005341199 3:0.00015943878 4:0.0093271684 6:0.0055006378 8:0.0047034439 10:0.0020727041 11:0.0015943878 12:0.0031090561 13:0.0020727041 14:0.0015943878 15:0.0011160714 16:0.0015146684 17:0.00055803571 18:0.010283801 19:0.0061383929 20:0.043447066 21:0.0051817602 22:0.043845663 23:0.0062978316 24:0.010204082 25:0.00023915816 26:0.0016741071 27:0.018893495 28:0.051020408 29:0.042809311 30:0.037866709 31:0.056202168 32:0.024872449 33:0.0015943878 34:0.0098852041 35:0.0030293367 36:0.064891582 37:0.027901786 38:0.086176658 39:0.023517219 40:0.093271684 41:0.0031887755 42:0.0026307398 43:0.0031887755 44:0.0052614796 45:0.015864158 46:0.018494898 47:0.015864158 48:0.016501913 49:0.0062181122 50:0.0061383929 51:0.00095663265 52:0.0043845663 53:0.00095663265 54:0.017777423 55:0.0016741071 56:0.022321429 57:0.0015146684 58:0.1044324 59:0.039221939 
1 1:0.0047831633 2:0.0047034439 3:7.9719388e-05 4:0.0076530612 6:0.0058992347 7:7.9719388e-05 8:0.0051020408 10:0.0022321429 11:0.0022321429 12:0.0022321429 13:0.0023118622 14:0.0032684949 15:0.0025510204 16:0.00079719388 17:0.0011957908 18:0.011080995 19:0.0039859694 20:0.042809311 21:0.0058195153 22:0.045121173 23:0.0077327806 24:0.012675383 25:0.00055803571 26:0.0030293367 27:0.018335459 28:0.04424426 29:0.039221939 30:0.039381378 31:0.058035714 32:0.034119898 33:0.0035076531 34:0.009247449 35:0.0036670918 36:0.057796556 37:0.023596939 38:0.086495536 39:0.024633291 40:0.097496811 41:0.0037468112 42:0.0033482143 43:0.0035076531 44:0.0043048469 45:0.015306122 46:0.018734056 47:0.012914541 48:0.017857143 49:0.0068558673 50:0.0066167092 51:0.00023915816 52:0.0056600765 53:0.0013552296 54:0.018335459 55:0.001036352 56:0.023676658 57:0.0015146684 58:0.10092474 59:0.036352041 
1 1:0.0059789541 2:0.0060586735 3:0.00015943878 4:0.0083705357 5:7.9719388e-05 6:0.0058195153 8:0.006776148 9:7.9719388e-05 10:0.0020727041 11:0.0027901786 12:0.0027901786 13:0.002471301 14:0.0034279337 15:0.0017538265 16:0.00055803571 17:0.0015943878 18:0.013153699 19:0.0044642857 20:0.040098852 21:0.0062978316 22:0.039381378 23:0.010044643 24:0.016661352 25:0.00095663265 26:0.0045440051 27:0.023118622 28:0.035953444 29:0.038982781 30:0.041055485 31:0.049266582 32:0.03380102 33:0.0051817602 34:0.011320153 35:0.0051817602 36:0.057477679 37:0.026466837 38:0.087850765 39:0.021125638 40:0.094148597 41:0.0068558673 42:0.0039859694 43:0.0035873724 44:0.0055803571 45:0.014907526 46:0.016342474 47:0.016103316 48:0.014907526 49:0.0083705357 50:0.0080516582 51:0.0016741071 52:0.0073341837 53:0.001434949 54:0.017059949 55:0.0016741071 56:0.017139668 57:0.0018335459 58:0.094786352 59:0.041055485 
1 1:0.0057397959 2:0.0055803571 3:0.00015943878 4:0.01044324 5:7.9719388e-05 6:0.0065369898 8:0.0069355867 10:0.002869898 11:0.0040656888 12:0.0023118622 13:0.0021524235 14:0.0016741071 15:0.0017538265 16:0.0006377551 17:0.00095663265 18:0.014827806 19:0.010044643 20:0.050302934 21:0.0045440051 22:0.030532526 23:0.0079719388 24:0.012276786 25:0.0006377551 26:0.0029496173 27:0.033003827 28:0.072385204 29:0.034677934 30:0.02208227 31:0.030691964 32:0.024473852 33:0.0031090561 34:0.012755102 35:0.0062978316 36:0.10132334 37:0.031728316 38:0.070073342 39:0.012914541 40:0.065688776 41:0.0031887755 42:0.0027901786 43:0.0044642857 44:0.0074139031 45:0.019052934 46:0.019690689 47:0.012436224 48:0.011001276 49:0.0058195153 50:0.0076530612 51:0.00095663265 52:0.0070950255 53:0.0020727041 54:0.023756378 55:0.0017538265 56:0.015704719 57:0.0012755102 58:0.10570791 59:0.040975765 
1 1:0.0056600765 2:0.0084502551 3:0.00015943878 4:0.0085299745 5:0.00015943878 6:0.0056600765 8:0.0033482143 10:0.0027104592 11:0.0036670918 12:0.0023915816 13:0.0033482143 14:0.0025510204 15:0.0019132653 16:0.00055803571 17:0.0011957908 18:0.014030612 19:0.0086096939 20:0.056441327 21:0.004942602 22:0.032366071 23:0.0079719388 24:0.011479592 25:0.00071747449 26:0.0035076531 27:0.027822066 28:0.064492985 29:0.041055485 30:0.025191327 31:0.031887755 32:0.024075255 33:0.0041454082 34:0.010841837 35:0.0044642857 36:0.090561224 37:0.030771684 38:0.077248087 39:0.01426977 40:0.067203444 41:0.0041454082 42:0.0021524235 43:0.0032684949 44:0.0087691327 45:0.019610969 46:0.020089286 47:0.01171875 48:0.012276786 49:0.0050223214 50:0.0061383929 51:0.0011160714 52:0.006776148 53:0.0020727041 54:0.026865434 55:0.002471301 56:0.015385842 57:0.0023915816 58:0.10594707 59:0.039381378 
1 1:0.0058195153 2:0.0074139031 3:0.00015943878 4:0.0085299745 5:0.00039859694 6:0.0062181122 8:0.006776148 10:0.0027901786 11:0.002869898 12:0.002471301 13:0.0031887755 14:0.0022321429 15:0.0019132653 16:0.00095663265 17:0.00087691327 18:0.014110332 19:0.0079719388 20:0.050223214 21:0.0055006378 22:0.033163265 23:0.0075733418 24:0.012356505 25:0.0006377551 26:0.0036670918 27:0.026466837 28:0.063695791 29:0.047512755 30:0.030133929 31:0.033242985 32:0.027822066 33:0.0035076531 34:0.011798469 35:0.0050223214 36:0.085220026 37:0.03252551 38:0.077248087 39:0.015784439 40:0.065848214 41:0.0048628827 42:0.0032684949 43:0.0036670918 44:0.0077327806 45:0.021285077 46:0.018654337 47:0.01299426 48:0.011878189 49:0.0070950255 50:0.0071747449 51:0.001434949 52:0.0066964286 53:0.0023915816 54:0.022002551 55:0.0019929847 56:0.016023597 57:0.0018335459 58:0.093271684 59:0.042091837 
1 1:0.0047831633 2:0.0059789541 3:0.00015943878 4:0.0064572704 6:0.0050223214 7:7.9719388e-05 8:0.004942602 10:0.0031090561 11:0.0036670918 12:0.0022321429 13:0.0038265306 14:0.0018335459 15:0.0019132653 16:0.00047831633 17:0.0011160714 18:0.016262755 19:0.0081313776 20:0.061862245 21:0.0065369898 22:0.032047194 23:0.0058992347 24:0.012834821 25:0.0011957908 26:0.0036670918 27:0.026705995 28:0.062260842 29:0.050701531 30:0.029257015 31:0.029735332 32:0.023836097 33:0.0023915816 34:0.0099649235 35:0.0066167092 36:0.082350128 37:0.035794005 38:0.086654974 39:0.013472577 40:0.0546875 41:0.0035873724 42:0.0036670918 43:0.0035076531 44:0.010204082 45:0.021524235 46:0.021285077 47:0.012037628 48:0.011798469 49:0.0056600765 50:0.006377551 51:0.00071747449 52:0.006776148 53:0.0019929847 54:0.026945153 55:0.0011957908 56:0.015625 57:0.0019132653 58:0.097895408 59:0.038823342 
1 1:0.0055006378 2:0.0097257653 3:0.00015943878 4:0.0089285714 6:0.0043845663 7:0.00015943878 8:0.0048628827 10:0.0022321429 11:0.0032684949 12:0.0023915816 13:0.0029496173 14:0.0027104592 15:0.00071747449 16:0.0006377551 17:0.00079719388 18:0.017059949 19:0.0069355867 20:0.052216199 21:0.0046237245 22:0.031728316 23:0.0032684949 24:0.0086096939 25:0.00095663265 26:0.0047831633 27:0.024473852 28:0.060746173 29:0.039779974 30:0.029336735 31:0.016820791 32:0.014110332 33:0.00390625 34:0.012834821 35:0.0060586735 36:0.085857781 37:0.030133929 38:0.078364158 39:0.013472577 40:0.028778699 41:0.0035873724 42:0.0035873724 43:0.0047831633 44:0.0099649235 45:0.022480867 46:0.019850128 47:0.012276786 48:0.0072544643 49:0.0035076531 50:0.0035076531 51:0.0006377551 52:0.0099649235 53:0.002471301 54:0.026945153 55:0.001036352 56:0.015465561 57:0.0011957908 58:0.18574617 59:0.041454082 
1 1:0.0043845663 2:0.0066964286 3:7.9719388e-05 4:0.009247449 6:0.0043845663 8:0.0043845663 10:0.0019929847 11:0.0023915816 12:0.0017538265 13:0.0027901786 14:0.0019929847 15:0.00087691327 16:0.00095663265 17:0.00047831633 18:0.01434949 19:0.0080516582 20:0.053013393 21:0.0047831633 22:0.030612245 23:0.002471301 24:0.006776148 25:0.00047831633 26:0.0043048469 27:0.022879464 28:0.058195153 29:0.031568878 30:0.026785714 31:0.016581633 32:0.0097257653 33:0.0025510204 34:0.0093271684 35:0.0040656888 36:0.092873087 37:0.029496173 38:0.072066327 39:0.013153699 40:0.032366071 41:0.0018335459 42:0.0032684949 43:0.00390625 44:0.0077327806 45:0.020727041 46:0.017936862 47:0.012197066 48:0.006377551 49:0.0030293367 50:0.0034279337 51:0.00087691327 52:0.0094068878 53:0.0015943878 54:0.027503189 55:0.00079719388 56:0.01690051 57:0.0011160714 58:0.23612883 59:0.036352041 
1 1:0.0037468112 2:0.0055006378 3:0.00015943878 4:0.0097257653 5:7.9719388e-05 6:0.0061383929 7:7.9719388e-05 8:0.0023118622 10:0.001036352 11:0.00055803571 12:0.0022321429 13:0.0025510204 14:0.00087691327 15:0.0018335459 16:0.00047831633 17:0.00023915816 18:0.0051817602 19:0.0020727041 20:0.030691964 21:0.0038265306 22:0.046875 23:0.0040656888 24:0.011001276 25:0.0006377551 26:0.001434949 27:0.0074936224 28:0.016342474 29:0.027264031 30:0.02989477 31:0.043048469 32:0.011001276 33:0.0020727041 34:0.0070153061 35:0.0013552296 36:0.027822066 37:0.012037628 38:0.070631378 39:0.019850128 40:0.073820153 41:0.002471301 42:0.0020727041 43:0.0019929847 44:0.002471301 45:0.010124362 46:0.01307398 47:0.01698023 48:0.018415179 49:0.0043845663 50:0.0076530612 51:0.00015943878 52:0.0040656888 53:0.00095663265 54:0.017777423 55:0.0011957908 56:0.027981505 57:0.0011160714 58:0.33808992 59:0.036033163 
1 1:0.0043048469 2:0.0039859694 4:0.012037628 6:0.0064572704 8:0.0026307398 10:0.0011160714 11:0.0012755102 12:0.0029496173 13:0.0019132653 14:0.0023118622 15:0.00095663265 16:0.00047831633 17:0.00039859694 18:0.0079719388 19:0.0032684949 20:0.038026148 21:0.0066167092 22:0.045280612 23:0.0048628827 24:0.011320153 25:0.00047831633 26:0.0023915816 27:0.010602679 28:0.020647321 29:0.034199617 30:0.027582908 31:0.044005102 32:0.013632015 33:0.0029496173 34:0.009247449 35:0.0019132653 36:0.027423469 37:0.016183036 38:0.089923469 39:0.016103316 40:0.067362883 41:0.0026307398 42:0.0027104592 43:0.0031090561 44:0.0031090561 45:0.01307398 46:0.016183036 47:0.018415179 48:0.017378827 49:0.0041454082 50:0.0059789541 51:0.00047831633 52:0.0052614796 53:0.00079719388 54:0.021364796 55:0.00095663265 56:0.030133929 57:0.0011957908 58:0.27240115 59:0.037866709 
1 1:0.005341199 2:0.0038265306 3:7.9719388e-05 4:0.010204082 6:0.0055006378 8:0.0042251276 10:0.0015943878 11:0.0021524235 12:0.0027104592 13:0.0023118622 14:0.0020727041 15:0.0019132653 16:0.00047831633 17:0.0006377551 18:0.010522959 19:0.0029496173 20:0.036272321 21:0.0074139031 22:0.049346301 23:0.0058195153 24:0.012914541 25:0.0006377551 26:0.002869898 27:0.010044643 28:0.022401148 29:0.033721301 30:0.032366071 31:0.049346301 32:0.018016582 33:0.0043048469 34:0.011798469 35:0.0033482143 36:0.031489158 37:0.01426977 38:0.091358418 39:0.020328444 40:0.072305485 41:0.0035873724 42:0.0035873724 43:0.0035076531 44:0.0040656888 45:0.011080995 46:0.013950893 47:0.01825574 48:0.019371811 49:0.0066964286 50:0.0078922194 51:0.0015943878 52:0.0055803571 53:0.001036352 54:0.019371811 55:0.0016741071 56:0.029655612 57:0.0019929847 58:0.22257653 59:0.037627551 
1 1:0.004942602 2:0.0052614796 3:7.9719388e-05 4:0.0090082908 6:0.006377551 8:0.0044642857 10:0.0017538265 11:0.0023118622 12:0.0031887755 13:0.0025510204 14:0.0032684949 15:0.0027901786 16:0.00095663265 17:0.00047831633 18:0.0084502551 19:0.0040656888 20:0.031409439 21:0.0055803571 22:0.044882015 23:0.0078922194 24:0.012914541 25:0.00079719388 26:0.0017538265 27:0.010841837 28:0.019451531 29:0.030213648 30:0.032924107 31:0.063616071 32:0.027024872 33:0.0033482143 34:0.0085299745 35:0.0023915816 36:0.028539541 37:0.010841837 38:0.073820153 39:0.020966199 40:0.10929528 41:0.0027901786 42:0.0037468112 43:0.0025510204 44:0.004942602 45:0.0093271684 46:0.011957908 47:0.017777423 48:0.021524235 49:0.0082908163 50:0.0078922194 51:0.0006377551 52:0.0031887755 53:0.0015146684 54:0.013950893 55:0.0019929847 56:0.024314413 57:0.0031887755 58:0.21683673 59:0.036591199 
1 1:0.0052614796 2:0.0051020408 4:0.01036352 5:0.00023915816 6:0.0060586735 8:0.0047831633 9:7.9719388e-05 10:0.0020727041 11:0.0021524235 12:0.0026307398 13:0.0027104592 14:0.0032684949 15:0.0034279337 16:0.00039859694 17:0.00039859694 18:0.0072544643 19:0.0038265306 20:0.032445791 21:0.0051817602 22:0.047592474 23:0.01044324 24:0.015465561 25:0.00047831633 26:0.0019132653 27:0.011559311 28:0.019850128 29:0.029416454 30:0.035235969 31:0.068638393 32:0.03252551 33:0.0038265306 34:0.010522959 35:0.0017538265 36:0.031967474 37:0.014588648 38:0.075175383 39:0.023756378 40:0.12045599 41:0.0047831633 42:0.0029496173 43:0.0018335459 44:0.0031887755 45:0.010682398 46:0.013153699 47:0.019371811 48:0.021843112 49:0.0093271684 50:0.0089285714 51:0.0013552296 52:0.0044642857 53:0.00079719388 54:0.014190051 55:0.0015943878 56:0.023915816 57:0.0033482143 58:0.15800383 59:0.043447066 
1 1:0.005341199 2:0.0046237245 3:7.9719388e-05 4:0.0078922194 6:0.0055006378 7:7.9719388e-05 8:0.0046237245 9:0.00015943878 10:0.0013552296 11:0.0023118622 12:0.0025510204 13:0.0020727041 14:0.0042251276 15:0.0036670918 16:0.00047831633 17:0.0011957908 18:0.0078922194 19:0.0048628827 20:0.029655612 21:0.0044642857 22:0.047751913 23:0.017936862 24:0.015545281 25:0.00071747449 26:0.0026307398 27:0.014907526 28:0.025031888 29:0.028539541 30:0.0390625 31:0.077327806 32:0.045918367 33:0.0038265306 34:0.010044643 35:0.0031887755 36:0.035634566 37:0.014110332 38:0.068877551 39:0.027901786 40:0.13632015 41:0.0068558673 42:0.0039859694 43:0.0023118622 44:0.0037468112 45:0.010124362 46:0.010841837 47:0.017857143 48:0.019292092 49:0.0097257653 50:0.0078125 51:0.0012755102 52:0.0046237245 53:0.0015146684 54:0.012914541 55:0.0015943878 56:0.020647321 57:0.0027104592 58:0.11766582 59:0.036192602 
1 1:0.0058992347 2:0.006377551 4:0.0094068878 5:0.00023915816 6:0.006377551 8:0.0050223214 10:0.0019929847 11:0.0023118622 12:0.001434949 13:0.0036670918 14:0.0043845663 15:0.0023118622 16:0.00087691327 17:0.0011160714 18:0.010522959 19:0.0062181122 20:0.025589923 21:0.0047034439 22:0.046556122 23:0.014110332 24:0.017299107 25:0.00071747449 26:0.0051020408 27:0.015545281 28:0.024314413 29:0.028061224 30:0.03651148 31:0.078045281 32:0.062260842 33:0.0042251276 34:0.012755102 35:0.0047831633 36:0.036272321 37:0.01299426 38:0.067841199 39:0.027582908 40:0.13584184 41:0.0069355867 42:0.005341199 43:0.0038265306 44:0.006377551 45:0.010602679 46:0.01171875 47:0.018335459 48:0.021364796 49:0.011798469 50:0.0078125 51:0.0012755102 52:0.0051020408 53:0.0015943878 54:0.011639031 55:0.0015146684 56:0.020009566 57:0.0030293367 58:0.085778061 59:0.036670918 
1 1:0.0069355867 2:0.0062181122 3:7.9719388e-05 4:0.0094068878 5:0.00023915816 6:0.0066964286 8:0.0070153061 9:7.9719388e-05 10:0.0019929847 11:0.0025510204 12:0.0020727041 13:0.0023118622 14:0.0038265306 15:0.0035076531 16:0.00087691327 17:0.0011957908 18:0.014508929 19:0.0046237245 20:0.024314413 21:0.0043845663 22:0.044563138 23:0.01426977 24:0.017538265 25:0.00079719388 26:0.0052614796 27:0.017458546 28:0.024952168 29:0.021444515 30:0.031329719 31:0.073102679 32:0.062818878 33:0.0048628827 34:0.013632015 35:0.0062978316 36:0.042251276 37:0.013632015 38:0.058195153 39:0.027822066 40:0.12970344 41:0.0078125 42:0.0048628827 43:0.0051020408 44:0.0066167092 45:0.0099649235 46:0.010841837 47:0.016661352 48:0.018973214 49:0.01171875 50:0.0078125 51:0.00087691327 52:0.006377551 53:0.0023915816 54:0.011798469 55:0.0017538265 56:0.020567602 57:0.0018335459 58:0.095344388 59:0.045918367 
1 1:0.0066964286 2:0.006377551 4:0.0082110969 5:7.9719388e-05 6:0.0073341837 8:0.0056600765 10:0.0016741071 11:0.0017538265 12:0.0030293367 13:0.0027104592 14:0.0034279337 15:0.0023915816 16:0.0012755102 17:0.0017538265 18:0.016023597 19:0.0047034439 20:0.028140944 21:0.0047831633 22:0.043287628 23:0.015784439 24:0.019610969 25:0.001036352 26:0.005341199 27:0.019292092 28:0.027503189 29:0.021843112 30:0.026865434 31:0.07166773 32:0.062978316 33:0.0060586735 34:0.017857143 35:0.004942602 36:0.041055485 37:0.017219388 38:0.058992347 39:0.026626276 40:0.12723214 41:0.0078922194 42:0.005341199 43:0.0043048469 44:0.0043845663 45:0.0098054847 46:0.011399872 47:0.017219388 48:0.019690689 49:0.010522959 50:0.0085299745 51:0.0018335459 52:0.0079719388 53:0.0015146684 54:0.011240434 55:0.0016741071 56:0.020408163 57:0.002471301 58:0.094945791 59:0.037627551 
0.92467617861725748 1:0.0085299745 2:0.0073341837 3:7.9719388e-05 4:0.0043845663 6:0.00390625 7:7.9719388e-05 8:0.0074936224 9:0.00023915816 10:0.0026307398 11:0.0023118622 12:0.00095663265 13:0.0012755102 14:0.0019132653 15:0.002471301 16:0.0031090561 17:0.0031887755 18:0.038424745 19:0.0038265306 20:0.010921556 21:0.0015943878 22:0.006377551 23:0.0018335459 24:0.019610969 25:0.0051020408 26:0.02869898 27:0.032764668 28:0.01690051 29:0.0055803571 30:0.0020727041 31:0.0055803571 32:0.013392857 33:0.021603954 34:0.0546875 35:0.018096301 36:0.076132015 37:0.00390625 38:0.0082908163 39:0.0022321429 40:0.022560587 41:0.0083705357 42:0.0071747449 43:0.013472577 44:0.011639031 45:0.0059789541 46:0.0023915816 47:0.0018335459 48:0.002471301 49:0.0062978316 50:0.0090082908 51:0.0015146684 52:0.019610969 53:0.0006377551 54:0.0061383929 55:0.0011957908 56:0.00390625 57:0.0018335459 58:0.41661352 59:0.029815051 
1 1:0.0078922194 2:0.0070153061 3:0.00015943878 4:0.0035076531 5:0.00015943878 6:0.0042251276 7:0.00031887755 8:0.0073341837 9:0.00031887755 10:0.0027901786 11:0.0019929847 12:0.001036352 13:0.0011957908 14:0.001036352 15:0.0021524235 16:0.0020727041 17:0.0023915816 18:0.038424745 19:0.0025510204 20:0.014907526 21:0.00095663265 22:0.0087691327 23:0.0023915816 24:0.022002551 25:0.0032684949 26:0.029655612 27:0.022799745 28:0.013552296 29:0.005341199 30:0.0023118622 31:0.0055803571 32:0.012356505 33:0.020009566 34:0.058354592 35:0.018973214 36:0.072783801 37:0.0037468112 38:0.010841837 39:0.0023915816 40:0.022401148 41:0.01036352 42:0.0076530612 43:0.010762117 44:0.010204082 45:0.006776148 46:0.0021524235 47:0.0021524235 48:0.0020727041 49:0.0061383929 50:0.010682398 51:0.0016741071 52:0.019850128 53:0.0011160714 54:0.010283801 55:0.001036352 56:0.0052614796 57:0.00095663265 58:0.42275191 59:0.028140944 
1 1:0.0043048469 2:0.0041454082 4:0.0035076531 5:7.9719388e-05 6:0.0061383929 8:0.0068558673 9:0.00015943878 10:0.001036352 11:0.0011957908 12:0.00055803571 13:0.0011957908 14:0.00079719388 15:0.0026307398 16:0.0013552296 17:0.002471301 18:0.022002551 19:0.0032684949 20:0.0073341837 21:0.001434949 22:0.012117347 23:0.0034279337 24:0.036989796 25:0.0045440051 26:0.020487883 27:0.01690051 28:0.0079719388 29:0.0035873724 30:0.0021524235 31:0.01698023 32:0.024872449 33:0.03388074 34:0.060188138 35:0.0090082908 36:0.027423469 37:0.0025510204 38:0.0082908163 39:0.0036670918 40:0.055723852 41:0.017139668 42:0.014588648 43:0.0084502551 44:0.0072544643 45:0.0027104592 46:0.0023118622 47:0.0031887755 48:0.0066167092 49:0.013632015 50:0.020009566 51:0.0012755102 52:0.010921556 53:0.0006377551 54:0.0025510204 55:0.00079719388 56:0.0083705357 57:0.0011160714 58:0.42865115 59:0.028539541 
1 1:0.0065369898 2:0.0047034439 3:7.9719388e-05 4:0.0030293367 5:7.9719388e-05 6:0.0061383929 7:7.9719388e-05 8:0.0083705357 9:0.00015943878 10:0.0015146684 11:0.0021524235 12:0.0011160714 13:0.001036352 14:0.0023915816 15:0.00390625 16:0.0021524235 17:0.0025510204 18:0.020169005 19:0.0032684949 20:0.0055006378 21:0.001434949 22:0.0069355867 23:0.0037468112 24:0.036192602 25:0.0047034439 26:0.023517219 27:0.015306122 28:0.0059789541 29:0.0031090561 30:0.0032684949 31:0.015943878 32:0.028061224 33:0.038424745 34:0.061782526 35:0.0096460459 36:0.02479273 37:0.0023915816 38:0.006776148 39:0.0046237245 40:0.053970026 41:0.020089286 42:0.013233418 43:0.0086894133 44:0.0073341837 45:0.002869898 46:0.0023118622 47:0.0023915816 48:0.0078125 49:0.016023597 50:0.019770408 51:0.001036352 52:0.010124362 53:0.0015943878 54:0.0022321429 55:0.00047831633 56:0.0042251276 57:0.0019929847 58:0.42386798 59:0.028380102 
1 1:0.0074139031 2:0.0043845663 3:0.00015943878 4:0.0038265306 6:0.0062978316 8:0.0075733418 9:7.9719388e-05 10:0.0022321429 11:0.0011957908 12:0.0015943878 13:0.0016741071 14:0.0022321429 15:0.0036670918 16:0.002471301 17:0.0022321429 18:0.021843112 19:0.0025510204 20:0.0072544643 21:0.0015146684 22:0.0096460459 23:0.00390625 24:0.034518495 25:0.0061383929 26:0.024872449 27:0.020248724 28:0.0078125 29:0.0036670918 30:0.0042251276 31:0.015465561 32:0.029496173 33:0.036830357 34:0.067920918 35:0.011639031 36:0.027822066 37:0.0030293367 38:0.006776148 39:0.0039859694 40:0.061702806 41:0.020089286 42:0.014030612 43:0.008848852 44:0.0091677296 45:0.0023118622 46:0.0006377551 47:0.0023915816 48:0.006377551 49:0.016820791 50:0.015784439 51:0.001434949 52:0.0086894133 53:0.0018335459 54:0.0022321429 55:0.001434949 56:0.0044642857 57:0.0018335459 58:0.39301658 59:0.02869898 
0.9324113830227071 1:0.0054209184 2:0.0070153061 3:0.00015943878 4:0.0030293367 6:0.0040656888 7:7.9719388e-05 8:0.0051020408 9:7.9719388e-05 10:0.0027901786 11:0.0017538265 12:0.00031887755 13:0.001036352 14:0.0006377551 15:0.0012755102 16:0.0016741071 17:0.0023118622 18:0.045758929 19:0.006776148 20:0.014110332 21:0.0011957908 22:0.0048628827 23:0.001434949 24:0.0082908163 25:0.0030293367 26:0.030133929 27:0.053093112 28:0.034598214 29:0.0047831633 30:0.0027901786 31:0.0046237245 32:0.0090082908 33:0.012117347 34:0.040258291 35:0.028459821 36:0.092315051 37:0.0051817602 38:0.0099649235 39:0.0019132653 40:0.014429209 41:0.0027104592 42:0.0038265306 43:0.01426977 44:0.017617985 45:0.0094866071 46:0.0051817602 47:0.0020727041 48:0.0022321429 49:0.0039859694 50:0.0047831633 51:0.00087691327 52:0.016103316 53:0.0015943878 54:0.0072544643 55:0.00039859694 56:0.0030293367 57:0.001036352 58:0.41222895 59:0.025430485 
1 1:0.0043048469 2:0.0078125 4:0.0027901786 6:0.002869898 8:0.0047034439 9:7.9719388e-05 10:0.0031090561 11:0.0023915816 12:0.00015943878 13:0.00047831633 14:0.00095663265 15:0.00079719388 16:0.0012755102 17:0.0023118622 18:0.05333227 19:0.0061383929 20:0.017458546 21:0.001036352 22:0.0068558673 23:0.0011160714 24:0.0098852041 25:0.0042251276 26:0.032366071 27:0.055325255 28:0.029177296 29:0.0044642857 30:0.0023118622 31:0.0036670918 32:0.0055803571 33:0.0090082908 34:0.046396684 35:0.029336735 36:0.09630102 37:0.0070950255 38:0.011639031 39:0.0015146684 40:0.014429209 41:0.0015943878 42:0.0033482143 43:0.017458546 44:0.018415179 45:0.0089285714 46:0.004942602 47:0.0015943878 48:0.0019132653 49:0.0031887755 50:0.0043845663 51:0.00071747449 52:0.020169005 53:0.0013552296 54:0.0090880102 55:0.00071747449 56:0.0033482143 57:0.0006377551 58:0.38998724 59:0.025510204 
1 1:0.0043048469 2:0.0066167092 3:7.9719388e-05 4:0.0029496173 6:0.0030293367 7:7.9719388e-05 8:0.006377551 9:7.9719388e-05 10:0.0035873724 11:0.0017538265 12:0.001036352 13:0.00047831633 14:0.00079719388 15:0.00055803571 16:0.0012755102 17:0.0020727041 18:0.048309949 19:0.0075733418 20:0.016820791 21:0.00087691327 22:0.0047034439 23:0.00087691327 24:0.0083705357 25:0.002869898 26:0.031568878 27:0.053491709 28:0.030293367 29:0.0044642857 30:0.0029496173 31:0.002869898 32:0.0031090561 33:0.0070153061 34:0.038663903 35:0.031808036 36:0.096938776 37:0.005341199 38:0.011320153 39:0.0023118622 40:0.011399872 41:0.0027104592 42:0.0035076531 43:0.015704719 44:0.018973214 45:0.010283801 46:0.0048628827 47:0.0013552296 48:0.0015943878 49:0.0023118622 50:0.0048628827 51:0.0015943878 52:0.018893495 53:0.0016741071 54:0.0095663265 55:0.00047831633 56:0.0023118622 57:0.00055803571 58:0.41326531 59:0.026466837 
1 1:0.0086096939 2:0.0069355867 3:7.9719388e-05 4:0.0036670918 5:7.9719388e-05 6:0.0070950255 7:7.9719388e-05 8:0.0071747449 9:0.00015943878 10:0.0012755102 11:0.0015146684 12:0.0011160714 13:0.0011160714 14:0.0018335459 15:0.002471301 16:0.0020727041 17:0.0032684949 18:0.021444515 19:0.0026307398 20:0.0082908163 21:0.00071747449 22:0.014668367 23:0.0032684949 24:0.041135204 25:0.005341199 26:0.019451531 27:0.01299426 28:0.0047831633 29:0.0029496173 30:0.0043048469 31:0.015465561 32:0.030133929 33:0.033322704 34:0.058354592 35:0.011320153 36:0.021125638 37:0.0019132653 38:0.0087691327 39:0.0047831633 40:0.07158801 41:0.019371811 42:0.012436224 43:0.0082110969 44:0.0062181122 45:0.0032684949 46:0.0029496173 47:0.0017538265 48:0.0058992347 49:0.011479592 50:0.021922832 51:0.00087691327 52:0.0091677296 53:0.0015146684 54:0.0042251276 55:0.0011957908 56:0.0078125 57:0.00095663265 58:0.40322066 59:0.030213648 
1 1:0.0055803571 2:0.0066964286 4:0.0036670918 5:7.9719388e-05 6:0.0030293367 7:0.00015943878 8:0.0074139031 10:0.0019132653 11:0.0017538265 12:0.001036352 13:0.00031887755 14:0.0016741071 15:0.00095663265 16:0.0015943878 17:0.0023118622 18:0.035554847 19:0.0031090561 20:0.011798469 21:0.0013552296 22:0.0074936224 23:0.0029496173 24:0.019690689 25:0.0043048469 26:0.033003827 27:0.025908801 28:0.018415179 29:0.0022321429 30:0.0037468112 31:0.0082110969 32:0.014190051 33:0.017139668 34:0.054846939 35:0.01825574 36:0.05986926 37:0.0032684949 38:0.006776148 39:0.0033482143 40:0.028938138 41:0.010204082 42:0.0081313776 43:0.012675383 44:0.013871173 45:0.0077327806 46:0.0023915816 47:0.0026307398 48:0.0023118622 49:0.0064572704 50:0.010044643 51:0.00023915816 52:0.019132653 53:0.00095663265 54:0.0078922194 55:0.0006377551 56:0.0035873724 57:0.0016741071 58:0.43845663 59:0.028380102 
1 1:0.0062978316 2:0.0066167092 3:0.00015943878 4:0.0041454082 5:0.00015943878 6:0.0027901786 7:7.9719388e-05 8:0.0076530612 9:0.00015943878 10:0.0027901786 11:0.0017538265 12:0.0011160714 13:0.001434949 14:0.0011160714 15:0.001434949 16:0.0027901786 17:0.002471301 18:0.033482143 19:0.0031887755 20:0.011479592 21:0.00079719388 22:0.0057397959 23:0.0027901786 24:0.02088648 25:0.0056600765 26:0.03388074 27:0.025589923 28:0.015146684 29:0.0032684949 30:0.0033482143 31:0.0060586735 32:0.018813776 33:0.023278061 34:0.055245536 35:0.018973214 36:0.053571429 37:0.0055803571 38:0.0083705357 39:0.0020727041 40:0.02479273 41:0.0098054847 42:0.0098852041 43:0.011240434 44:0.013871173 45:0.0060586735 46:0.0027901786 47:0.0026307398 48:0.0027104592 49:0.0076530612 50:0.008848852 51:0.0023118622 52:0.017538265 53:0.0018335459 54:0.006776148 55:0.0011160714 56:0.0025510204 57:0.00087691327 58:0.4325574 59:0.033960459 
1 1:0.0038265306 2:0.0019132653 4:0.0026307398 5:0.00015943878 6:0.0076530612 7:7.9719388e-05 8:0.0036670918 10:0.00047831633 11:0.00071747449 12:0.00031887755 13:0.00039859694 14:0.0013552296 15:0.0025510204 16:0.0015146684 17:0.00055803571 18:0.0070950255 19:0.00095663265 20:0.0038265306 21:0.001036352 22:0.01690051 23:0.0058195153 24:0.054129464 25:0.0031887755 26:0.006377551 27:0.002869898 28:0.0020727041 29:0.0031887755 30:0.0047831633 31:0.028858418 32:0.058354592 33:0.03260523 34:0.038345026 35:0.001434949 36:0.0091677296 37:0.0019929847 38:0.011160714 39:0.0048628827 40:0.094626913 41:0.032445791 42:0.016422194 43:0.0021524235 44:0.0019929847 45:0.0011957908 46:0.00047831633 47:0.0043845663 48:0.0096460459 49:0.017617985 50:0.02088648 51:0.00071747449 52:0.0043845663 53:0.00079719388 54:0.0015943878 55:0.00039859694 56:0.0099649235 57:0.00087691327 58:0.42857143 59:0.023995536 
1 1:0.0050223214 2:0.0027901786 3:7.9719388e-05 4:0.002869898 6:0.0062181122 8:0.0040656888 9:0.00015943878 10:0.001036352 11:0.00087691327 12:0.0006377551 13:0.00087691327 14:0.0011160714 15:0.0032684949 16:0.0023915816 17:0.0015146684 18:0.0070153061 19:0.0018335459 20:0.0068558673 21:0.0015943878 22:0.016581633 23:0.0059789541 24:0.053730867 25:0.0036670918 26:0.0077327806 27:0.0065369898 28:0.005341199 29:0.0032684949 30:0.0050223214 31:0.028938138 32:0.061862245 33:0.034917092 34:0.041374362 35:0.0013552296 36:0.016023597 37:0.0034279337 38:0.010921556 39:0.0070153061 40:0.084024235 41:0.033641582 42:0.015784439 43:0.0034279337 44:0.0023915816 45:0.0022321429 46:0.0015943878 47:0.0043048469 48:0.008848852 49:0.018096301 50:0.018016582 51:0.00087691327 52:0.0043048469 53:0.0006377551 54:0.0027901786 55:0.00087691327 56:0.0082908163 57:0.0015943878 58:0.40098852 59:0.023357781 
1 1:0.0043048469 2:0.0031090561 4:0.002869898 6:0.0079719388 8:0.0055803571 10:0.00055803571 11:0.00071747449 12:0.001036352 13:0.0006377551 14:0.0019929847 15:0.0039859694 16:0.0018335459 17:0.00095663265 18:0.0071747449 19:0.0015146684 20:0.0042251276 21:0.0012755102 22:0.016103316 23:0.0066964286 24:0.054368622 25:0.0034279337 26:0.0081313776 27:0.0047831633 28:0.0033482143 29:0.0033482143 30:0.005341199 31:0.026227679 32:0.063217474 33:0.038345026 34:0.037069515 35:0.0016741071 36:0.010762117 37:0.0015943878 38:0.0099649235 39:0.0066964286 40:0.08984375 41:0.032445791 42:0.016103316 43:0.0025510204 44:0.0026307398 45:0.0011160714 46:0.0011957908 47:0.0038265306 48:0.0097257653 49:0.019212372 50:0.02080676 51:0.0011957908 52:0.0047831633 53:0.00047831633 54:0.0022321429 55:0.0006377551 56:0.0094866071 57:0.0016741071 58:0.40553253 59:0.023676658 
1 1:0.0035873724 2:0.0025510204 3:7.9719388e-05 4:0.0026307398 5:7.9719388e-05 6:0.0085299745 7:7.9719388e-05 8:0.005341199 10:0.00079719388 11:0.00047831633 12:0.00039859694 13:0.00079719388 14:0.0017538265 15:0.0018335459 16:0.0022321429 17:0.00087691327 18:0.0060586735 19:0.0011957908 20:0.004942602 21:0.001434949 22:0.015066964 23:0.0064572704 24:0.051658163 25:0.0019929847 26:0.0074936224 27:0.0034279337 28:0.0020727041 29:0.0031887755 30:0.0051817602 31:0.028061224 32:0.061463648 33:0.034837372 34:0.042649872 35:0.001036352 36:0.0094866071 37:0.001036352 38:0.010602679 39:0.0061383929 40:0.09510523 41:0.034757653 42:0.014508929 43:0.0022321429 44:0.0016741071 45:0.001036352 46:0.0013552296 47:0.0051817602 48:0.0082908163 49:0.015545281 50:0.020009566 51:0.00047831633 52:0.0043845663 53:0.00031887755 54:0.002471301 55:0.00031887755 56:0.0090082908 57:0.001036352 58:0.4214764 59:0.023278061 
1 1:0.0043845663 2:0.0026307398 4:0.0023118622 6:0.006776148 8:0.0037468112 10:0.00047831633 11:0.00047831633 12:0.00095663265 13:0.00087691327 14:0.0016741071 15:0.002869898 16:0.002471301 17:0.0006377551 18:0.0073341837 19:0.0011160714 20:0.0058195153 21:0.0011957908 22:0.016661352 23:0.0061383929 24:0.046954719 25:0.0031090561 26:0.0073341837 27:0.005341199 28:0.00390625 29:0.002869898 30:0.0055006378 31:0.028539541 32:0.055803571 33:0.034757653 34:0.039540816 35:0.0013552296 36:0.0086096939 37:0.0015943878 38:0.011080995 39:0.006776148 40:0.08330676 41:0.027901786 42:0.014190051 43:0.0018335459 44:0.0017538265 45:0.0012755102 46:0.001434949 47:0.0039859694 48:0.0090880102 49:0.016661352 50:0.017458546 51:0.001036352 52:0.0035076531 53:0.0011957908 54:0.0019929847 55:0.00039859694 56:0.0082908163 57:0.0016741071 58:0.44866071 59:0.022720026 
1 1:0.0032684949 2:0.0015146684 4:0.0022321429 5:0.00015943878 6:0.0080516582 8:0.0045440051 9:7.9719388e-05 10:0.00031887755 11:0.0006377551 12:0.0006377551 13:0.00039859694 14:0.0015943878 15:0.0029496173 16:0.0015943878 17:0.00087691327 18:0.0073341837 19:0.00071747449 20:0.004942602 21:0.0011160714 22:0.014748087 23:0.0055006378 24:0.051498724 25:0.0023118622 26:0.006776148 27:0.0035873724 28:0.0026307398 29:0.0020727041 30:0.0060586735 31:0.027901786 32:0.065688776 33:0.034119898 34:0.042570153 35:0.00095663265 36:0.0097257653 37:0.00095663265 38:0.010522959 39:0.0051817602 40:0.09375 41:0.035554847 42:0.01698023 43:0.0027104592 44:0.0030293367 45:0.001434949 46:0.0012755102 47:0.0045440051 48:0.0078125 49:0.018096301 50:0.019132653 51:0.00023915816 52:0.0046237245 53:0.00023915816 54:0.0027901786 55:0.00031887755 56:0.0082110969 57:0.0019929847 58:0.4190051 59:0.022480867 
1 1:0.0036670918 2:0.0015943878 4:0.0025510204 5:7.9719388e-05 6:0.006776148 7:0.00015943878 8:0.0047831633 9:7.9719388e-05 10:0.00039859694 11:0.00055803571 12:0.00055803571 13:0.00047831633 14:0.0016741071 15:0.0021524235 16:0.0020727041 17:0.0011957908 18:0.0051817602 19:0.0012755102 20:0.0045440051 21:0.0013552296 22:0.015864158 23:0.0064572704 24:0.054288903 25:0.0035076531 26:0.0075733418 27:0.0026307398 28:0.0026307398 29:0.0022321429 30:0.0040656888 31:0.02598852 32:0.062181122 33:0.039540816 34:0.045200893 35:0.0016741071 36:0.0083705357 37:0.0019132653 38:0.012436224 39:0.0070950255 40:0.08984375 41:0.032126913 42:0.018574617 43:0.0023915816 44:0.0020727041 45:0.001434949 46:0.0013552296 47:0.0044642857 48:0.008848852 49:0.014588648 50:0.019052934 51:0.00071747449 52:0.0034279337 53:0.00031887755 54:0.0016741071 55:0.00031887755 56:0.0084502551 57:0.0016741071 58:0.42123724 59:0.022640306 
1 1:0.017936862 2:0.0038265306 3:0.001036352 4:0.0045440051 5:0.001036352 6:0.008848852 7:0.001434949 8:0.0083705357 9:0.00087691327 10:0.0029496173 11:0.0023915816 12:0.0027104592 13:0.0036670918 14:0.0062978316 15:0.0087691327 16:0.0058992347 17:0.0045440051 18:0.010283801 19:0.002869898 20:0.0083705357 21:0.0043845663 22:0.021205357 23:0.013472577 24:0.062420281 25:0.0073341837 26:0.015226403 27:0.004942602 28:0.0062181122 29:0.0080516582 30:0.013552296 31:0.03515625 32:0.084103954 33:0.050382653 34:0.045918367 35:0.0055006378 36:0.0068558673 37:0.0048628827 38:0.011559311 39:0.011559311 40:0.082669005 41:0.042410714 42:0.01825574 43:0.0056600765 44:0.004942602 45:0.0031090561 46:0.002471301 47:0.0060586735 48:0.0091677296 49:0.021683673 50:0.02216199 51:0.0027901786 52:0.0061383929 53:0.0019929847 54:0.0035873724 55:0.0017538265 56:0.0085299745 57:0.002869898 58:0.18821747 59:0.046157526 
0.16657801334744701 1:0.0065369898 2:0.0021524235 4:0.0046237245 5:0.00031887755 6:0.0072544643 7:0.00015943878 8:0.0043048469 9:0.00023915816 10:0.00055803571 11:0.0006377551 12:0.0019132653 13:0.0025510204 14:0.0029496173 15:0.0042251276 16:0.0013552296 17:0.001434949 18:0.0026307398 19:0.00071747449 20:0.0061383929 21:0.0027901786 22:0.028858418 23:0.013153699 24:0.021444515 25:0.001036352 26:0.0017538265 27:0.0016741071 28:0.0036670918 29:0.010124362 30:0.017617985 31:0.065609056 32:0.046237245 33:0.0057397959 34:0.0074139031 35:0.00095663265 36:0.0027104592 37:0.0040656888 38:0.02080676 39:0.020248724 40:0.099330357 41:0.012595663 42:0.0055803571 43:0.0017538265 44:0.00071747449 45:0.0016741071 46:0.002869898 47:0.0077327806 48:0.014508929 49:0.011559311 50:0.010124362 51:0.00055803571 52:0.0013552296 53:0.00071747449 54:0.0012755102 55:0.0006377551 56:0.0074139031 57:0.0015146684 58:0.46811224 59:0.023357781 
1 1:0.0076530612 2:0.0019132653 4:0.0058992347 5:0.00031887755 6:0.0064572704 8:0.0031887755 9:7.9719388e-05 10:0.00031887755 11:0.00055803571 12:0.0015146684 13:0.0027901786 14:0.002869898 15:0.0037468112 16:0.0015146684 17:0.0013552296 18:0.0029496173 19:0.00087691327 20:0.0060586735 21:0.0029496173 22:0.027582908 23:0.014588648 24:0.023198342 25:0.00055803571 26:0.0019929847 27:0.0012755102 28:0.0021524235 29:0.011240434 30:0.017538265 31:0.066645408 32:0.047592474 33:0.0073341837 34:0.0058195153 35:0.00087691327 36:0.0036670918 37:0.0023915816 38:0.018893495 39:0.021444515 40:0.092075893 41:0.010522959 42:0.0066964286 43:0.0017538265 44:0.00071747449 45:0.0011957908 46:0.0031887755 47:0.0074139031 48:0.011957908 49:0.012276786 50:0.01044324 51:0.0011160714 52:0.0018335459 53:0.00071747449 54:0.0017538265 55:0.0011160714 56:0.0072544643 57:0.0011957908 58:0.47472895 59:0.024234694 
1 1:0.0076530612 2:0.002471301 3:7.9719388e-05 4:0.0043048469 5:0.00039859694 6:0.006377551 7:0.00023915816 8:0.0040656888 9:0.00015943878 10:0.00047831633 11:0.00055803571 12:0.0022321429 13:0.0022321429 14:0.0029496173 15:0.0044642857 16:0.00079719388 17:0.0013552296 18:0.0033482143 19:0.001434949 20:0.005341199 21:0.0026307398 22:0.02734375 23:0.012595663 24:0.024952168 25:0.00095663265 26:0.001036352 27:0.0027104592 28:0.0023915816 29:0.010682398 30:0.015943878 31:0.067362883 32:0.04942602 33:0.0086096939 34:0.0078125 35:0.0025510204 36:0.0041454082 37:0.00390625 38:0.019052934 39:0.017299107 40:0.086415816 41:0.013472577 42:0.0057397959 43:0.00095663265 44:0.0006377551 45:0.0013552296 46:0.0029496173 47:0.0078922194 48:0.012356505 49:0.012356505 50:0.010841837 51:0.0013552296 52:0.00095663265 53:0.00055803571 54:0.0019132653 55:0.0013552296 56:0.0089285714 57:0.001434949 58:0.47257653 59:0.023596939 
1 1:0.0077327806 2:0.0054209184 3:7.9719388e-05 4:0.0068558673 5:0.00015943878 6:0.0086096939 7:7.9719388e-05 8:0.0050223214 10:0.0015943878 11:0.0029496173 12:0.0022321429 13:0.0029496173 14:0.0026307398 15:0.0019929847 16:0.00079719388 17:0.0021524235 18:0.013871173 19:0.0035873724 20:0.020647321 21:0.005341199 22:0.040178571 23:0.010921556 24:0.016342474 25:0.0021524235 26:0.0075733418 27:0.012675383 28:0.015385842 29:0.02088648 30:0.033242985 31:0.085618622 32:0.028061224 33:0.0071747449 34:0.021125638 35:0.00390625 36:0.029177296 37:0.0085299745 38:0.046556122 39:0.031329719 40:0.085857781 41:0.0055006378 42:0.0035076531 43:0.005341199 44:0.0056600765 45:0.0061383929 46:0.009247449 47:0.013950893 48:0.01690051 49:0.006776148 50:0.0089285714 51:0.0006377551 52:0.0073341837 53:0.0018335459 54:0.0084502551 55:0.0011957908 56:0.010762117 57:0.0025510204 58:0.25239158 59:0.031489158 
1 1:0.0055006378 2:0.0055006378 3:7.9719388e-05 4:0.0082908163 6:0.0075733418 8:0.0042251276 10:0.0019929847 11:0.0013552296 12:0.0016741071 13:0.0021524235 14:0.0031090561 15:0.0032684949 16:0.00071747449 17:0.0011160714 18:0.015465561 19:0.0031887755 20:0.019132653 21:0.0035873724 22:0.035714286 23:0.008848852 24:0.014588648 25:0.0016741071 26:0.0070153061 27:0.013153699 28:0.01171875 29:0.020727041 30:0.028938138 31:0.079559949 32:0.019371811 33:0.0062978316 34:0.021285077 35:0.006776148 36:0.021763393 37:0.0084502551 38:0.044403699 39:0.029575893 40:0.080516582 41:0.0048628827 42:0.0047034439 43:0.0055006378 44:0.0062181122 45:0.0074139031 46:0.0074139031 47:0.011559311 48:0.017617985 49:0.0070950255 50:0.0091677296 51:0.00047831633 52:0.0064572704 53:0.00079719388 54:0.006776148 55:0.00047831633 56:0.013153699 57:0.0015943878 58:0.31242028 59:0.027981505 
1 1:0.013153699 2:0.006776148 3:0.00031887755 4:0.0078125 5:7.9719388e-05 6:0.005341199 7:0.00031887755 8:0.0047034439 9:0.00039859694 10:0.0034279337 11:0.0036670918 12:0.0031887755 13:0.0034279337 14:0.0035873724 15:0.0022321429 16:0.0019929847 17:0.0017538265 18:0.012675383 19:0.0043048469 20:0.031090561 21:0.0036670918 22:0.016342474 23:0.0029496173 24:0.0069355867 25:0.0022321429 26:0.0073341837 27:0.019690689 28:0.037547832 29:0.018415179 30:0.020408163 31:0.011559311 32:0.0066964286 33:0.0031090561 34:0.0062978316 35:0.0066167092 36:0.044164541 37:0.017697704 38:0.038743622 39:0.011798469 40:0.011240434 41:0.0039859694 42:0.0022321429 43:0.0034279337 44:0.0059789541 45:0.012197066 46:0.010044643 47:0.0056600765 48:0.0052614796 49:0.002869898 50:0.0034279337 51:0.0015146684 52:0.0031887755 53:0.0027104592 54:0.013791454 55:0.0025510204 56:0.0077327806 57:0.0019929847 58:0.47217793 59:0.035554847 
1 1:0.012436224 2:0.0066167092 3:0.00023915816 4:0.0079719388 5:0.00031887755 6:0.0062978316 7:7.9719388e-05 8:0.0039859694 9:7.9719388e-05 10:0.0032684949 11:0.0044642857 12:0.0031887755 13:0.0031090561 14:0.0019132653 15:0.0025510204 16:0.0019132653 17:0.0031887755 18:0.011001276 19:0.0055006378 20:0.028459821 21:0.0050223214 22:0.016262755 23:0.0031090561 24:0.0073341837 25:0.0019132653 26:0.0061383929 27:0.013313138 28:0.036591199 29:0.017219388 30:0.022799745 31:0.012675383 32:0.0074936224 33:0.0039859694 34:0.0064572704 35:0.0051020408 36:0.039540816 37:0.017617985 38:0.034757653 39:0.012515944 40:0.015146684 41:0.0043845663 42:0.0020727041 43:0.0027104592 44:0.0033482143 45:0.010762117 46:0.0094068878 47:0.0070950255 48:0.0043845663 49:0.002869898 50:0.002471301 51:0.0019132653 52:0.002869898 53:0.0020727041 54:0.011798469 55:0.0017538265 56:0.0061383929 57:0.0023118622 58:0.49489796 59:0.03515625 
1 1:0.013472577 2:0.0082110969 3:0.00031887755 4:0.0077327806 5:0.00015943878 6:0.0082110969 7:0.00047831633 8:0.0047831633 9:0.00023915816 10:0.0035076531 11:0.0023915816 12:0.0034279337 13:0.002869898 14:0.002869898 15:0.0031887755 16:0.0021524235 17:0.0019132653 18:0.011001276 19:0.0041454082 20:0.027104592 21:0.0040656888 22:0.020647321 23:0.0036670918 24:0.0079719388 25:0.0020727041 26:0.0058992347 27:0.013392857 28:0.031728316 29:0.017538265 30:0.020727041 31:0.015545281 32:0.0075733418 33:0.0031090561 34:0.0082110969 35:0.0060586735 36:0.031489158 37:0.016501913 38:0.036033163 39:0.011878189 40:0.017458546 41:0.0044642857 42:0.0023118622 43:0.0027901786 44:0.0035076531 45:0.0077327806 46:0.0094866071 47:0.0062181122 48:0.0058195153 49:0.0038265306 50:0.0026307398 51:0.0016741071 52:0.0022321429 53:0.0031090561 54:0.0099649235 55:0.0020727041 56:0.0069355867 57:0.0034279337 58:0.49346301 59:0.038584184 
1 1:0.01434949 2:0.005341199 4:0.0083705357 5:0.00031887755 6:0.0072544643 7:0.00031887755 8:0.0056600765 9:0.00047831633 10:0.0035076531 11:0.0047034439 12:0.0031090561 13:0.0031887755 14:0.0034279337 15:0.0035076531 16:0.0012755102 17:0.0022321429 18:0.011559311 19:0.0035076531 20:0.028380102 21:0.0046237245 22:0.022879464 23:0.0040656888 24:0.010522959 25:0.0023915816 26:0.0070950255 27:0.012197066 28:0.028300383 29:0.017378827 30:0.019929847 31:0.019371811 32:0.011001276 33:0.0061383929 34:0.0078125 35:0.0055803571 36:0.031648597 37:0.016581633 38:0.039461097 39:0.012675383 40:0.020567602 41:0.006377551 42:0.0023915816 43:0.0027901786 44:0.002471301 45:0.0081313776 46:0.009247449 47:0.0069355867 48:0.0066964286 49:0.0040656888 50:0.0029496173 51:0.0027901786 52:0.0035076531 53:0.0037468112 54:0.011798469 55:0.0022321429 56:0.0075733418 57:0.0023118622 58:0.46492347 59:0.038345026 
1 1:0.017378827 2:0.0087691327 3:0.00071747449 4:0.0046237245 5:0.00095663265 6:0.0051817602 7:0.00095663265 8:0.0065369898 9:0.001434949 10:0.0076530612 11:0.0052614796 12:0.0031090561 13:0.0023118622 14:0.0025510204 15:0.0030293367 16:0.00390625 17:0.005341199 18:0.058274872 19:0.014668367 20:0.018096301 21:0.0042251276 22:0.0055006378 23:0.0023915816 24:0.0090880102 25:0.0055006378 26:0.043207908 27:0.079719388 28:0.033083546 29:0.011399872 30:0.0055803571 31:0.0060586735 32:0.0038265306 33:0.012436224 34:0.03778699 35:0.039381378 36:0.077726403 37:0.010124362 38:0.010044643 39:0.0035076531 40:0.0073341837 41:0.0043845663 42:0.0041454082 43:0.015625 44:0.018574617 45:0.0072544643 46:0.0062978316 47:0.0023118622 48:0.0023118622 49:0.0035873724 50:0.0041454082 51:0.0023118622 52:0.020487883 53:0.0039859694 54:0.0062181122 55:0.0025510204 56:0.0023118622 57:0.0015146684 58:0.26586416 59:0.047433036 
1 1:0.017059949 2:0.0084502551 3:0.0011160714 4:0.0036670918 5:0.00095663265 6:0.0043845663 7:0.00055803571 8:0.0062978316 9:0.001036352 10:0.0074139031 11:0.0047831633 12:0.0035873724 13:0.0019929847 14:0.0021524235 15:0.0027104592 16:0.0045440051 17:0.006776148 18:0.070232781 19:0.014030612 20:0.019212372 21:0.0048628827 22:0.0081313776 23:0.0033482143 24:0.010124362 25:0.0074936224 26:0.05596301 27:0.086814413 28:0.029416454 29:0.010762117 30:0.0064572704 31:0.0050223214 32:0.0045440051 33:0.013791454 34:0.053571429 35:0.043367347 36:0.084980867 37:0.0078922194 38:0.0098852041 39:0.0044642857 40:0.0069355867 41:0.0043845663 42:0.0048628827 43:0.020248724 44:0.022959184 45:0.006377551 46:0.004942602 47:0.002471301 48:0.002869898 49:0.0030293367 50:0.0051817602 51:0.0027901786 52:0.027981505 53:0.0023118622 54:0.0078125 55:0.0025510204 56:0.0023118622 57:0.0021524235 58:0.19483418 59:0.041135204 
1 1:0.0069355867 2:0.0082110969 3:0.00015943878 4:0.0084502551 5:7.9719388e-05 6:0.0064572704 7:7.9719388e-05 8:0.0045440051 9:0.00015943878 10:0.0033482143 11:0.0027901786 12:0.0026307398 13:0.0026307398 14:0.0019132653 15:0.0018335459 16:0.00095663265 17:0.0013552296 18:0.016183036 19:0.0093271684 20:0.041294643 21:0.0051020408 22:0.021125638 23:0.0031887755 24:0.012436224 25:0.0015943878 26:0.0062181122 27:0.027742347 28:0.083785077 29:0.033083546 30:0.020328444 31:0.012276786 32:0.014190051 33:0.0077327806 34:0.018096301 35:0.0062978316 36:0.074617347 37:0.029097577 38:0.047034439 39:0.0098054847 40:0.025908801 41:0.0045440051 42:0.0047034439 43:0.0042251276 44:0.01036352 45:0.017299107 46:0.012037628 47:0.0075733418 48:0.0057397959 49:0.0055803571 50:0.0056600765 51:0.001036352 52:0.0075733418 53:0.0027104592 54:0.014030612 55:0.0019929847 56:0.0083705357 57:0.0020727041 58:0.26857462 59:0.036910077 
1 1:0.016820791 2:0.0094866071 3:0.00023915816 4:0.011240434 5:0.00031887755 6:0.010602679 7:0.00039859694 8:0.0069355867 9:0.00031887755 10:0.0038265306 11:0.0058195153 12:0.0045440051 13:0.0040656888 14:0.0045440051 15:0.0039859694 16:0.0026307398 17:0.0035076531 18:0.014907526 19:0.0087691327 20:0.029416454 21:0.0069355867 22:0.041055485 23:0.011639031 24:0.016023597 25:0.0036670918 26:0.0082908163 27:0.021763393 28:0.027024872 29:0.025589923 30:0.042889031 31:0.07940051 32:0.023118622 33:0.0071747449 34:0.015625 35:0.0082110969 36:0.037866709 37:0.01825574 38:0.050462372 39:0.030771684 40:0.082589286 41:0.0084502551 42:0.0047034439 43:0.004942602 44:0.0058992347 45:0.010283801 46:0.011160714 47:0.015306122 48:0.018734056 49:0.0078125 50:0.0076530612 51:0.0036670918 52:0.0073341837 53:0.0048628827 54:0.0098054847 55:0.0020727041 56:0.012436224 57:0.0055803571 58:0.10929528 59:0.049266582 
1 1:0.012755102 2:0.0058992347 3:0.00079719388 4:0.0082908163 5:0.00039859694 6:0.0068558673 7:0.00031887755 8:0.0045440051 9:0.00023915816 10:0.002471301 11:0.0021524235 12:0.0031090561 13:0.0022321429 14:0.0035873724 15:0.0032684949 16:0.0021524235 17:0.0021524235 18:0.0077327806 19:0.0029496173 20:0.016422194 21:0.0051020408 22:0.031329719 23:0.0047034439 24:0.010522959 25:0.0018335459 26:0.0037468112 27:0.0066167092 28:0.012037628 29:0.017617985 30:0.015943878 31:0.036830357 32:0.016581633 33:0.0076530612 34:0.0078125 35:0.0043048469 36:0.01434949 37:0.011878189 38:0.033561862 39:0.018813776 40:0.041772959 41:0.0068558673 42:0.0023118622 43:0.0027104592 44:0.0023915816 45:0.0054209184 46:0.0059789541 47:0.0094866071 48:0.010283801 49:0.0043048469 50:0.0035873724 51:0.0019132653 52:0.0031090561 53:0.002471301 54:0.0061383929 55:0.002471301 56:0.013313138 57:0.0019132653 58:0.48867985 59:0.035315689 
1 1:0.013871173 2:0.0074139031 3:0.00039859694 4:0.0066964286 5:0.00023915816 6:0.0057397959 7:0.00039859694 8:0.005341199 9:0.00015943878 10:0.0022321429 11:0.0031090561 12:0.0026307398 13:0.002869898 14:0.0043845663 15:0.0031887755 16:0.0020727041 17:0.0019132653 18:0.0076530612 19:0.002869898 20:0.018335459 21:0.0039859694 22:0.026945153 23:0.0040656888 24:0.011160714 25:0.0027901786 26:0.004942602 27:0.0079719388 28:0.012356505 29:0.017777423 30:0.018096301 31:0.032924107 32:0.015146684 33:0.0070950255 34:0.0070950255 35:0.0046237245 36:0.015226403 37:0.014668367 38:0.036910077 39:0.014588648 40:0.035395408 41:0.0055006378 42:0.0026307398 43:0.0027104592 44:0.0034279337 45:0.005341199 46:0.0070153061 47:0.0090082908 48:0.011399872 49:0.0043845663 50:0.0025510204 51:0.0022321429 52:0.0022321429 53:0.0029496173 54:0.0070153061 55:0.0020727041 56:0.011878189 57:0.0023915816 58:0.4901148 59:0.039859694 
1 1:0.01426977 2:0.0077327806 3:0.00055803571 4:0.0080516582 5:0.00015943878 6:0.0050223214 7:0.00015943878 8:0.0058195153 9:0.00015943878 10:0.0027104592 11:0.0036670918 12:0.0029496173 13:0.0037468112 14:0.0043845663 15:0.0030293367 16:0.0023118622 17:0.0018335459 18:0.011001276 19:0.0044642857 20:0.018813776 21:0.0035873724 22:0.029735332 23:0.0055006378 24:0.011479592 25:0.0027901786 26:0.0044642857 27:0.010044643 28:0.016581633 29:0.016581633 30:0.016501913 31:0.030293367 32:0.012276786 33:0.0065369898 34:0.0087691327 35:0.0034279337 36:0.023596939 37:0.012436224 38:0.038424745 39:0.01698023 40:0.032844388 41:0.0055803571 42:0.0023118622 43:0.0027104592 44:0.002869898 45:0.0051020408 46:0.0068558673 47:0.011320153 48:0.010602679 49:0.0022321429 50:0.0031887755 51:0.0019929847 52:0.0033482143 53:0.002471301 54:0.006776148 55:0.0035873724 56:0.01044324 57:0.0027104592 58:0.4736926 59:0.038504464 
1 1:0.020487883 2:0.0075733418 3:0.00031887755 4:0.0086894133 5:0.00055803571 6:0.0075733418 7:0.00079719388 8:0.0072544643 9:0.00039859694 10:0.0039859694 11:0.0039859694 12:0.0044642857 13:0.0036670918 14:0.0046237245 15:0.0037468112 16:0.0038265306 17:0.0029496173 18:0.012515944 19:0.0055006378 20:0.025111607 21:0.0042251276 22:0.029177296 23:0.0040656888 24:0.012197066 25:0.0023118622 26:0.0095663265 27:0.014110332 28:0.02208227 29:0.019292092 30:0.018734056 31:0.029575893 32:0.011639031 33:0.006776148 34:0.011080995 35:0.0078125 36:0.026147959 37:0.016103316 38:0.040497449 39:0.016581633 40:0.028858418 41:0.0062181122 42:0.0031887755 43:0.0040656888 44:0.0043845663 45:0.0071747449 46:0.008848852 47:0.010522959 48:0.008848852 49:0.0043048469 50:0.0040656888 51:0.0033482143 52:0.0027901786 53:0.00390625 54:0.0077327806 55:0.0023915816 56:0.012037628 57:0.0040656888 58:0.39317602 59:0.050063776 
0.72149881087585832 1:0.021125638 2:0.0084502551 3:0.0013552296 4:0.0087691327 5:0.00047831633 6:0.0078922194 7:0.00047831633 8:0.0051817602 9:0.00023915816 10:0.0031090561 11:0.0042251276 12:0.0041454082 13:0.0035873724 14:0.0045440051 15:0.0035076531 16:0.0031887755 17:0.0031090561 18:0.012675383 19:0.0055803571 20:0.0234375 21:0.0048628827 22:0.028539541 23:0.0045440051 24:0.01171875 25:0.0025510204 26:0.0087691327 27:0.014190051 28:0.021843112 29:0.018813776 30:0.019929847 31:0.027184311 32:0.013153699 33:0.0074936224 34:0.011957908 35:0.0061383929 36:0.026945153 37:0.016581633 38:0.040098852 39:0.016183036 40:0.030133929 41:0.006776148 42:0.0031887755 43:0.0035076531 44:0.0036670918 45:0.0079719388 46:0.0093271684 47:0.0093271684 48:0.0098852041 49:0.0045440051 50:0.0032684949 51:0.0031887755 52:0.0027104592 53:0.0029496173 54:0.0076530612 55:0.0036670918 56:0.012675383 57:0.00390625 58:0.39229911 59:0.052774235 
