svm_type one_class
kernel_type rbf
gamma 101
nr_class 2
total_sv 810
rho 51.503985710165175
SV
1 1:0.0013416816 2:0.0049194991 4:0.0013416816 6:0.0013416816 8:0.0044722719 10:0.0013416816 11:0.00044722719 12:0.00044722719 14:0.00044722719 16:0.0013416816 17:0.00044722719 18:0.059033989 19:0.0098389982 20:0.021019678 21:0.00044722719 22:0.0053667263 23:0.00044722719 24:0.026386404 25:0.0040250447 26:0.040250447 27:0.10330948 28:0.044275492 29:0.009391771 30:0.0035778175 31:0.0031305903 32:0.0084973166 33:0.020125224 34:0.087209302 35:0.033542039 36:0.17978533 37:0.0071556351 38:0.017889088 39:0.00044722719 40:0.013416816 41:0.015652952 42:0.0089445438 43:0.019230769 44:0.020572451 45:0.009391771 46:0.0062611807 47:0.0013416816 48:0.0035778175 49:0.0076028623 50:0.016994633 51:0.00044722719 52:0.033542039 53:0.002236136 54:0.015205725 55:0.0013416816 56:0.0044722719 57:0.0013416816 58:0.09391771 59:0.021466905 
1 1:0.010286225 2:0.0084973166 4:0.010733453 6:0.009391771 8:0.0053667263 10:0.00089445438 11:0.00089445438 12:0.0035778175 13:0.0044722719 14:0.0062611807 15:0.0026833631 16:0.00089445438 17:0.002236136 18:0.019230769 19:0.0017889088 20:0.023255814 21:0.0067084079 22:0.069767442 23:0.0053667263 24:0.031753131 25:0.00044722719 26:0.0044722719 27:0.0098389982 28:0.009391771 29:0.016994633 30:0.033094812 31:0.02862254 32:0.016994633 33:0.014758497 34:0.02236136 35:0.0062611807 36:0.048747764 37:0.0044722719 38:0.084525939 39:0.022808587 40:0.05411449 41:0.012522361 42:0.0058139535 43:0.0040250447 44:0.0035778175 45:0.0040250447 46:0.0031305903 47:0.015205725 48:0.013864043 49:0.0049194991 50:0.011627907 51:0.002236136 52:0.013416816 53:0.0035778175 54:0.014758497 55:0.0013416816 56:0.033542039 57:0.0035778175 58:0.17754919 59:0.069320215 
1 1:0.0026833631 2:0.0049194991 4:0.0067084079 6:0.0013416816 8:0.0080500894 10:0.0013416816 11:0.0017889088 12:0.00089445438 14:0.00089445438 15:0.00044722719 16:0.0013416816 17:0.002236136 18:0.059928444 19:0.017889088 20:0.023255814 21:0.00089445438 22:0.0031305903 23:0.00044722719 24:0.018336315 25:0.0035778175 26:0.02862254 27:0.10465116 28:0.053667263 29:0.0067084079 30:0.0026833631 31:0.002236136 32:0.0035778175 33:0.023703041 34:0.067978533 35:0.03667263 36:0.17710197 37:0.0071556351 38:0.014758497 39:0.00044722719 40:0.0089445438 41:0.01118068 42:0.012969589 43:0.019677996 44:0.029964222 45:0.011627907 46:0.0017889088 47:0.0013416816 48:0.00089445438 49:0.0076028623 50:0.013416816 51:0.00044722719 52:0.030858676 53:0.00089445438 54:0.013416816 55:0.00044722719 56:0.0053667263 58:0.1068873 59:0.032200358 
1 1:0.011627907 2:0.0098389982 3:0.00089445438 4:0.0098389982 6:0.0071556351 8:0.0098389982 10:0.0031305903 11:0.0053667263 12:0.0031305903 13:0.0026833631 14:0.0013416816 15:0.00089445438 16:0.0017889088 17:0.00044722719 18:0.024597496 19:0.0017889088 20:0.069320215 21:0.0040250447 22:0.025939177 23:0.002236136 24:0.025044723 25:0.0026833631 26:0.021914132 27:0.014758497 28:0.027728086 29:0.02549195 30:0.018336315 31:0.0084973166 32:0.0084973166 33:0.009391771 34:0.030411449 35:0.010286225 36:0.059033989 37:0.018336315 38:0.059481216 39:0.0071556351 40:0.041144902 41:0.0084973166 42:0.0026833631 43:0.0053667263 44:0.0040250447 45:0.016547406 46:0.016994633 47:0.0067084079 48:0.0080500894 49:0.0049194991 50:0.018336315 51:0.0026833631 52:0.009391771 53:0.00089445438 54:0.030411449 55:0.0026833631 56:0.015652952 57:0.0031305903 58:0.19141324 59:0.067531306 
0.1118337598467349 1:0.0031305903 2:0.002236136 4:0.0026833631 6:0.0026833631 8:0.0062611807 12:0.0013416816 13:0.00089445438 14:0.002236136 15:0.0040250447 16:0.002236136 17:0.0013416816 18:0.021019678 19:0.00044722719 20:0.0044722719 22:0.018336315 23:0.012522361 24:0.060822898 25:0.0067084079 26:0.046064401 27:0.0053667263 28:0.0013416816 29:0.0062611807 30:0.0076028623 31:0.037119857 32:0.087209302 33:0.042039356 34:0.10822898 35:0.010733453 36:0.012969589 37:0.0013416816 38:0.017889088 39:0.0076028623 40:0.14132379 41:0.046511628 42:0.016994633 43:0.011627907 44:0.0049194991 45:0.0017889088 46:0.0017889088 47:0.0076028623 48:0.013416816 49:0.025044723 50:0.024597496 51:0.00089445438 52:0.014758497 53:0.00044722719 54:0.0035778175 55:0.00089445438 56:0.0076028623 57:0.00044722719 58:0.10241503 59:0.028175313 
0.53756186547619023 1:0.002236136 2:0.0053667263 4:0.010733453 6:0.0031305903 10:0.00089445438 11:0.0017889088 12:0.00044722719 13:0.0013416816 14:0.002236136 15:0.0013416816 16:0.00044722719 17:0.00089445438 18:0.01118068 19:0.0026833631 20:0.037567084 21:0.0084973166 22:0.05411449 23:0.0084973166 24:0.0067084079 25:0.00044722719 26:0.00089445438 27:0.026386404 28:0.020572451 29:0.038908766 30:0.061270125 31:0.047853309 32:0.020572451 33:0.00089445438 34:0.012522361 35:0.0031305903 36:0.063506261 37:0.028175313 38:0.13372093 39:0.034436494 40:0.055456172 41:0.0035778175 42:0.0031305903 43:0.002236136 44:0.0067084079 45:0.015205725 46:0.018336315 47:0.017889088 48:0.021019678 49:0.0044722719 50:0.009391771 51:0.0026833631 52:0.011627907 53:0.00089445438 54:0.016100179 55:0.0017889088 56:0.026386404 57:0.002236136 58:0.091234347 59:0.036225403 
1 1:0.0013416816 2:0.0035778175 4:0.0013416816 6:0.0053667263 8:0.0071556351 10:0.00089445438 11:0.00089445438 12:0.00089445438 13:0.00044722719 14:0.00044722719 15:0.00089445438 16:0.00044722719 17:0.0013416816 18:0.045617174 19:0.013864043 20:0.022808587 21:0.0013416816 22:0.01118068 23:0.0053667263 24:0.032200358 25:0.0013416816 26:0.017889088 27:0.066636852 28:0.063506261 29:0.010733453 30:0.0044722719 31:0.011627907 32:0.018336315 33:0.012969589 34:0.041144902 35:0.02549195 36:0.17620751 37:0.009391771 38:0.019230769 39:0.0026833631 40:0.057245081 41:0.019230769 42:0.0089445438 43:0.012969589 44:0.022808587 45:0.011627907 46:0.0067084079 47:0.0058139535 48:0.010733453 49:0.012969589 50:0.020125224 51:0.0013416816 52:0.024150268 53:0.00044722719 54:0.016100179 55:0.0017889088 56:0.0071556351 58:0.098389982 59:0.02236136 
0.83705359519499856 1:0.0044722719 2:0.0049194991 4:0.0013416816 6:0.0031305903 8:0.0040250447 10:0.0035778175 11:0.0017889088 12:0.00044722719 13:0.00044722719 14:0.00044722719 15:0.0013416816 16:0.0035778175 17:0.0017889088 18:0.058586762 19:0.0062611807 20:0.0098389982 22:0.0017889088 23:0.00044722719 24:0.033989267 25:0.01118068 26:0.083631485 27:0.10644007 28:0.02236136 29:0.0035778175 30:0.002236136 31:0.0013416816 32:0.0053667263 33:0.06216458 34:0.15205725 35:0.046958855 36:0.080053667 37:0.0071556351 38:0.0071556351 39:0.0035778175 40:0.0076028623 41:0.01744186 42:0.016994633 43:0.023703041 44:0.02236136 45:0.0084973166 46:0.0017889088 47:0.002236136 48:0.0026833631 49:0.0053667263 50:0.019677996 51:0.0017889088 52:0.02549195 53:0.00089445438 54:0.0035778175 55:0.0013416816 56:0.0013416816 58:0.073792487 59:0.025939177 
1 1:0.00089445438 2:0.002236136 4:0.0017889088 6:0.0026833631 8:0.010286225 11:0.00044722719 16:0.0017889088 17:0.0013416816 18:0.053220036 19:0.0013416816 20:0.0058139535 22:0.0031305903 23:0.00044722719 24:0.055456172 25:0.0084973166 26:0.059033989 27:0.016100179 28:0.0040250447 29:0.00044722719 30:0.00089445438 31:0.00089445438 32:0.0071556351 33:0.03667263 34:0.20796064 35:0.023703041 36:0.023703041 38:0.009391771 40:0.026386404 41:0.0080500894 42:0.014758497 43:0.030411449 44:0.013416816 45:0.002236136 46:0.00089445438 47:0.00089445438 48:0.00044722719 49:0.0058139535 50:0.055903399 51:0.00089445438 52:0.044722719 54:0.0076028623 56:0.0049194991 58:0.21645796 59:0.026833631 
1 1:0.0013416816 2:0.0017889088 4:0.00044722719 6:0.0026833631 8:0.0062611807 10:0.00044722719 11:0.0017889088 12:0.00044722719 15:0.00089445438 16:0.002236136 17:0.002236136 18:0.033094812 19:0.00044722719 20:0.013864043 22:0.0026833631 23:0.00044722719 24:0.06529517 25:0.013416816 26:0.075581395 27:0.012522361 28:0.0089445438 29:0.0026833631 30:0.0017889088 31:0.0040250447 32:0.0067084079 33:0.068872987 34:0.22808587 35:0.021019678 36:0.029069767 37:0.0013416816 38:0.011627907 39:0.00089445438 40:0.026386404 41:0.011627907 42:0.030411449 43:0.020125224 44:0.0071556351 45:0.0049194991 46:0.0013416816 47:0.00044722719 48:0.00044722719 49:0.0076028623 50:0.06216458 51:0.0013416816 52:0.020125224 53:0.00044722719 54:0.0098389982 55:0.00044722719 56:0.0040250447 58:0.15205725 59:0.016100179 
1 1:0.00089445438 2:0.002236136 4:0.00044722719 6:0.0026833631 8:0.010733453 15:0.00044722719 16:0.0017889088 17:0.002236136 18:0.056350626 19:0.0017889088 20:0.009391771 22:0.0026833631 23:0.00044722719 24:0.043381038 25:0.0071556351 26:0.084973166 27:0.016100179 28:0.0062611807 29:0.00044722719 30:0.00044722719 31:0.0013416816 32:0.0049194991 33:0.05411449 34:0.21735242 35:0.030411449 36:0.019677996 37:0.0013416816 38:0.0062611807 40:0.017889088 41:0.0053667263 42:0.021019678 43:0.033989267 44:0.010286225 45:0.0026833631 46:0.00044722719 48:0.0013416816 49:0.0049194991 50:0.042486583 51:0.0013416816 52:0.041144902 54:0.009391771 56:0.0040250447 58:0.19320215 59:0.024150268 
1 1:0.0017889088 2:0.0013416816 4:0.00044722719 6:0.0026833631 8:0.0053667263 12:0.00089445438 13:0.00089445438 14:0.0017889088 15:0.002236136 16:0.0013416816 17:0.0026833631 18:0.031305903 19:0.0013416816 20:0.0044722719 21:0.00044722719 22:0.0089445438 23:0.0067084079 24:0.057245081 25:0.0084973166 26:0.068872987 27:0.0080500894 28:0.00089445438 29:0.0035778175 30:0.0062611807 31:0.013416816 32:0.085420394 33:0.082289803 34:0.17307692 35:0.01744186 36:0.0089445438 37:0.0017889088 38:0.010286225 39:0.0040250447 40:0.074686941 41:0.05411449 42:0.032200358 43:0.028175313 44:0.0071556351 45:0.00089445438 46:0.002236136 47:0.0040250447 48:0.0031305903 49:0.024597496 50:0.020125224 51:0.002236136 52:0.016994633 53:0.0013416816 54:0.0035778175 55:0.00044722719 56:0.0053667263 57:0.00089445438 58:0.071109123 59:0.021914132 
1 1:0.0013416816 2:0.0080500894 4:0.0026833631 6:0.0031305903 8:0.002236136 10:0.0017889088 11:0.00044722719 16:0.00044722719 17:0.0017889088 18:0.051878354 19:0.01744186 20:0.02862254 21:0.00089445438 22:0.0076028623 24:0.01744186 25:0.0035778175 26:0.023703041 27:0.091234347 28:0.068872987 29:0.013416816 30:0.0044722719 31:0.00044722719 32:0.00044722719 33:0.012075134 34:0.042486583 35:0.021466905 36:0.19812165 37:0.0098389982 38:0.030858676 39:0.00044722719 40:0.018336315 41:0.0076028623 42:0.010733453 43:0.012522361 44:0.023255814 45:0.012522361 46:0.013864043 47:0.0035778175 48:0.002236136 49:0.0062611807 50:0.010286225 51:0.00089445438 52:0.034436494 53:0.0017889088 54:0.018336315 55:0.00044722719 56:0.010733453 57:0.00044722719 58:0.12209302 59:0.02236136 
1 1:0.0013416816 2:0.0026833631 4:0.0053667263 6:0.0031305903 7:0.00044722719 8:0.0084973166 10:0.0031305903 11:0.0017889088 12:0.00089445438 14:0.00044722719 15:0.00089445438 16:0.0017889088 17:0.0017889088 18:0.09078712 19:0.0076028623 20:0.0089445438 21:0.00044722719 22:0.0049194991 23:0.0013416816 24:0.033094812 25:0.0084973166 26:0.08765653 27:0.092128801 28:0.009391771 29:0.0026833631 30:0.002236136 31:0.0026833631 32:0.0071556351 33:0.041592129 34:0.12388193 35:0.088103757 36:0.049194991 37:0.0058139535 38:0.0040250447 39:0.00044722719 40:0.014758497 41:0.0089445438 42:0.015652952 43:0.030858676 44:0.026833631 45:0.0049194991 46:0.0044722719 47:0.0013416816 48:0.00089445438 49:0.0058139535 50:0.013864043 51:0.0013416816 52:0.026833631 53:0.0013416816 54:0.002236136 55:0.00089445438 56:0.0040250447 57:0.00089445438 58:0.099731664 59:0.029516995 
1 1:0.0026833631 2:0.0089445438 4:0.0031305903 6:0.002236136 8:0.0053667263 10:0.0013416816 11:0.00044722719 12:0.00044722719 16:0.00089445438 17:0.0017889088 18:0.050089445 19:0.01431127 20:0.021914132 22:0.0058139535 24:0.012522361 25:0.0026833631 26:0.021019678 27:0.10107335 28:0.071556351 29:0.0058139535 30:0.0035778175 31:0.002236136 32:0.010286225 33:0.012522361 34:0.041592129 35:0.029516995 36:0.18515206 37:0.0062611807 38:0.019230769 39:0.00089445438 40:0.020572451 41:0.0071556351 42:0.0044722719 43:0.01118068 44:0.023703041 45:0.010733453 46:0.0049194991 47:0.0049194991 48:0.0031305903 49:0.0053667263 50:0.010733453 51:0.0017889088 52:0.031305903 53:0.0026833631 54:0.015205725 55:0.00089445438 56:0.0049194991 57:0.00044722719 58:0.1578712 59:0.032647585 
1 1:0.0026833631 2:0.0071556351 4:0.002236136 6:0.00044722719 8:0.0031305903 10:0.00089445438 11:0.0031305903 13:0.00044722719 16:0.00089445438 17:0.00089445438 18:0.051431127 19:0.014758497 20:0.027280859 21:0.0013416816 22:0.009391771 23:0.00044722719 24:0.017889088 25:0.00044722719 26:0.023703041 27:0.097048301 28:0.058586762 29:0.0058139535 30:0.002236136 31:0.0026833631 32:0.0076028623 33:0.0062611807 34:0.03667263 35:0.024597496 36:0.19633274 37:0.013864043 38:0.025044723 39:0.0026833631 40:0.014758497 41:0.0053667263 42:0.0084973166 43:0.018336315 44:0.021466905 45:0.012075134 46:0.0071556351 47:0.002236136 48:0.0013416816 49:0.0076028623 50:0.010733453 51:0.00044722719 52:0.032200358 53:0.002236136 54:0.018783542 56:0.0080500894 57:0.0017889088 58:0.15474061 59:0.024150268 
1 1:0.0017889088 2:0.0040250447 4:0.00044722719 6:0.0026833631 8:0.0076028623 10:0.0031305903 11:0.0017889088 12:0.00044722719 16:0.0013416816 17:0.002236136 18:0.085867621 19:0.0076028623 20:0.014758497 22:0.0044722719 23:0.00044722719 24:0.019230769 25:0.0035778175 26:0.05411449 27:0.09391771 28:0.01744186 29:0.0040250447 30:0.00044722719 31:0.00089445438 32:0.0049194991 33:0.030411449 34:0.10822898 35:0.05411449 36:0.1118068 37:0.0017889088 38:0.0084973166 40:0.0089445438 41:0.0062611807 42:0.0089445438 43:0.02862254 44:0.034436494 45:0.0044722719 46:0.0031305903 47:0.00089445438 48:0.00089445438 49:0.0035778175 50:0.01118068 51:0.00089445438 52:0.053667263 53:0.00044722719 54:0.010286225 56:0.0040250447 57:0.00089445438 58:0.14445438 59:0.021914132 
1 1:0.0026833631 2:0.0062611807 4:0.0071556351 6:0.002236136 8:0.0053667263 9:0.00044722719 10:0.00089445438 11:0.0026833631 13:0.00044722719 14:0.00089445438 15:0.00089445438 16:0.0013416816 17:0.0013416816 18:0.020572451 19:0.010733453 20:0.05411449 21:0.0013416816 22:0.0098389982 23:0.00044722719 24:0.015652952 25:0.00044722719 26:0.0058139535 27:0.044275492 28:0.098389982 29:0.02549195 30:0.013864043 31:0.0031305903 32:0.014758497 33:0.0044722719 34:0.019677996 35:0.0084973166 36:0.16100179 37:0.026833631 38:0.065742397 39:0.00089445438 40:0.021019678 41:0.0071556351 42:0.0049194991 43:0.0071556351 44:0.014758497 45:0.029516995 46:0.016100179 47:0.0040250447 48:0.002236136 49:0.0044722719 50:0.012522361 51:0.0017889088 52:0.015205725 53:0.00089445438 54:0.035778175 55:0.00089445438 56:0.0098389982 57:0.00089445438 58:0.14266547 59:0.029516995 
1 1:0.0026833631 2:0.0035778175 4:0.0049194991 6:0.00044722719 8:0.0040250447 10:0.0017889088 11:0.0017889088 12:0.00089445438 14:0.00044722719 15:0.00044722719 17:0.00044722719 18:0.046511628 19:0.012969589 20:0.033094812 21:0.0013416816 22:0.01118068 24:0.011627907 25:0.0013416816 26:0.021466905 27:0.07647585 28:0.10062612 29:0.0080500894 30:0.0031305903 31:0.0013416816 32:0.00044722719 33:0.013864043 34:0.038908766 35:0.014758497 36:0.19007156 37:0.010286225 38:0.029069767 39:0.00089445438 40:0.01118068 41:0.0071556351 42:0.0071556351 43:0.014758497 44:0.016100179 45:0.010733453 46:0.0076028623 47:0.0031305903 48:0.0035778175 49:0.0040250447 50:0.0098389982 51:0.0017889088 52:0.030858676 53:0.002236136 54:0.025939177 55:0.0013416816 56:0.0098389982 57:0.00044722719 58:0.15384615 59:0.029516995 
1 1:0.0013416816 2:0.0026833631 4:0.0017889088 6:0.0017889088 8:0.0035778175 10:0.002236136 11:0.00089445438 16:0.0017889088 17:0.0031305903 18:0.096153846 19:0.012522361 20:0.012075134 22:0.0058139535 24:0.024150268 25:0.0049194991 26:0.066636852 27:0.11270125 28:0.020572451 29:0.0049194991 30:0.0026833631 31:0.00089445438 32:0.0049194991 33:0.042486583 34:0.1234347 35:0.06842576 36:0.085420394 37:0.002236136 38:0.0080500894 39:0.00044722719 40:0.0080500894 41:0.0084973166 42:0.01118068 43:0.031753131 44:0.032200358 45:0.0049194991 46:0.0031305903 47:0.0026833631 48:0.00089445438 49:0.0026833631 50:0.015652952 51:0.0013416816 52:0.034436494 53:0.00044722719 54:0.0071556351 55:0.0013416816 56:0.0049194991 57:0.0013416816 58:0.088998211 59:0.019677996 
1 1:0.0040250447 2:0.0026833631 4:0.0026833631 6:0.0071556351 8:0.0071556351 10:0.0035778175 11:0.0026833631 12:0.00044722719 13:0.0017889088 14:0.0026833631 15:0.00044722719 16:0.0044722719 17:0.0040250447 18:0.084525939 19:0.0040250447 20:0.0084973166 21:0.00089445438 22:0.0053667263 23:0.0017889088 24:0.031305903 25:0.0084973166 26:0.11985689 27:0.045617174 28:0.0076028623 29:0.0053667263 30:0.0017889088 31:0.002236136 32:0.01118068 33:0.058139535 34:0.14624329 35:0.06529517 36:0.034436494 37:0.0044722719 38:0.0044722719 39:0.0017889088 40:0.010733453 41:0.0098389982 42:0.016547406 43:0.031753131 44:0.018783542 45:0.0040250447 46:0.0013416816 47:0.0017889088 48:0.002236136 49:0.00089445438 50:0.016100179 51:0.00089445438 52:0.021466905 53:0.00044722719 54:0.0049194991 55:0.00044722719 56:0.0013416816 57:0.00044722719 58:0.13193202 59:0.026833631 
1 1:0.0031305903 2:0.0026833631 4:0.0026833631 6:0.0058139535 8:0.0062611807 10:0.00089445438 12:0.00044722719 13:0.00089445438 14:0.0017889088 15:0.002236136 16:0.0031305903 17:0.0035778175 18:0.015652952 20:0.002236136 21:0.00089445438 22:0.016100179 23:0.015205725 24:0.086314848 25:0.0049194991 26:0.034883721 27:0.0040250447 28:0.002236136 29:0.0013416816 30:0.0076028623 31:0.023255814 32:0.10644007 33:0.058139535 34:0.091234347 35:0.015205725 36:0.012969589 37:0.0017889088 38:0.0071556351 39:0.002236136 40:0.1019678 41:0.066636852 42:0.035778175 43:0.01431127 44:0.0040250447 45:0.0026833631 46:0.0017889088 47:0.0026833631 48:0.0084973166 49:0.033989267 50:0.035330948 51:0.0013416816 52:0.0084973166 53:0.0013416816 54:0.0013416816 55:0.00089445438 56:0.0089445438 57:0.0013416816 58:0.10107335 59:0.024150268 
0.1478565475147012 1:0.0058139535 2:0.0026833631 4:0.0049194991 6:0.0098389982 7:0.00044722719 8:0.0076028623 10:0.00044722719 11:0.00089445438 12:0.00089445438 14:0.0013416816 15:0.0040250447 16:0.0013416816 17:0.0031305903 18:0.026833631 19:0.00089445438 20:0.0089445438 21:0.00044722719 22:0.01744186 23:0.009391771 24:0.084078712 25:0.0071556351 26:0.031753131 27:0.01118068 28:0.0026833631 29:0.0035778175 30:0.0013416816 31:0.028175313 32:0.11046512 33:0.045169946 34:0.092576029 35:0.012969589 36:0.018783542 37:0.0017889088 38:0.011627907 39:0.0044722719 40:0.08765653 41:0.051431127 42:0.019677996 43:0.0080500894 44:0.0026833631 45:0.0017889088 46:0.0013416816 47:0.0040250447 48:0.0076028623 49:0.035330948 50:0.038908766 51:0.0013416816 52:0.01118068 53:0.00089445438 54:0.0040250447 55:0.00044722719 56:0.0089445438 57:0.00089445438 58:0.096601073 59:0.042039356 
1 1:0.0031305903 2:0.0017889088 4:0.00089445438 5:0.00044722719 6:0.002236136 8:0.0058139535 10:0.00044722719 12:0.00044722719 13:0.00044722719 14:0.0017889088 15:0.0026833631 16:0.0026833631 17:0.0026833631 18:0.032200358 19:0.00089445438 20:0.0076028623 21:0.00089445438 22:0.009391771 23:0.0098389982 24:0.093470483 25:0.0084973166 26:0.039355993 27:0.0098389982 28:0.0013416816 29:0.0017889088 30:0.00089445438 31:0.010733453 32:0.10957066 33:0.07647585 34:0.1216458 35:0.012075134 36:0.010286225 37:0.002236136 38:0.0058139535 39:0.00044722719 40:0.075134168 41:0.071109123 42:0.028175313 43:0.01431127 44:0.0067084079 45:0.0026833631 46:0.0040250447 47:0.0035778175 48:0.0044722719 49:0.029069767 50:0.03667263 51:0.0013416816 52:0.018783542 53:0.0017889088 54:0.0035778175 55:0.00044722719 56:0.0040250447 57:0.00044722719 58:0.083631485 59:0.019230769 
1 1:0.0040250447 2:0.0026833631 4:0.0017889088 6:0.0089445438 8:0.0049194991 10:0.00044722719 11:0.0017889088 13:0.00089445438 14:0.0017889088 15:0.0044722719 16:0.0049194991 17:0.002236136 18:0.02549195 19:0.002236136 20:0.0067084079 21:0.00089445438 22:0.013864043 23:0.012075134 24:0.078711986 25:0.0062611807 26:0.032200358 27:0.0058139535 28:0.0049194991 29:0.0017889088 30:0.00044722719 31:0.016994633 32:0.1118068 33:0.061717352 34:0.11985689 35:0.0062611807 36:0.010733453 37:0.00089445438 38:0.0026833631 39:0.0035778175 40:0.089445438 41:0.063506261 42:0.028175313 43:0.0098389982 44:0.002236136 45:0.0017889088 46:0.002236136 47:0.0049194991 48:0.0040250447 49:0.033542039 50:0.042039356 51:0.00089445438 52:0.012522361 53:0.0017889088 54:0.0040250447 55:0.00044722719 56:0.0071556351 57:0.0013416816 58:0.096153846 59:0.029069767 
1 1:0.0049194991 2:0.0040250447 4:0.0031305903 6:0.0089445438 8:0.0062611807 10:0.00044722719 12:0.00044722719 13:0.0013416816 14:0.0031305903 15:0.002236136 16:0.00044722719 17:0.00089445438 18:0.01431127 19:0.00044722719 20:0.0053667263 21:0.00089445438 22:0.050536673 23:0.01431127 24:0.031305903 26:0.0040250447 27:0.011627907 28:0.002236136 29:0.0058139535 30:0.016547406 31:0.084973166 32:0.062611807 33:0.0071556351 34:0.023255814 35:0.0035778175 36:0.021466905 37:0.00044722719 38:0.049194991 39:0.027728086 40:0.19856887 41:0.013864043 42:0.0062611807 43:0.0053667263 44:0.0080500894 45:0.0017889088 46:0.002236136 47:0.014758497 48:0.024150268 49:0.014758497 50:0.021914132 51:0.00089445438 52:0.012075134 53:0.00044722719 54:0.0058139535 56:0.033094812 57:0.00089445438 58:0.12745975 59:0.033542039 
1 1:0.0026833631 2:0.002236136 4:0.00044722719 6:0.0062611807 8:0.0080500894 12:0.00089445438 15:0.0017889088 16:0.0031305903 17:0.0035778175 18:0.030411449 20:0.0035778175 22:0.0089445438 23:0.0076028623 24:0.08273703 25:0.010733453 26:0.049642218 27:0.0089445438 28:0.0017889088 29:0.0031305903 30:0.0013416816 31:0.011627907 32:0.085867621 33:0.10152057 34:0.15429338 35:0.010286225 36:0.0080500894 38:0.0049194991 39:0.0013416816 40:0.054561717 41:0.077817531 42:0.031753131 43:0.013864043 44:0.0053667263 45:0.00044722719 46:0.00089445438 47:0.002236136 48:0.0049194991 49:0.021914132 50:0.037119857 51:0.002236136 52:0.018783542 53:0.00089445438 54:0.0035778175 55:0.00044722719 56:0.0031305903 57:0.00044722719 58:0.078711986 59:0.025044723 
1 1:0.0026833631 2:0.0026833631 4:0.0044722719 5:0.00044722719 6:0.0058139535 8:0.0013416816 11:0.00044722719 12:0.00044722719 13:0.00089445438 14:0.0026833631 15:0.00089445438 16:0.00089445438 17:0.00044722719 18:0.012969589 20:0.012075134 21:0.0017889088 22:0.056797853 23:0.012522361 24:0.02862254 25:0.00044722719 26:0.0031305903 27:0.01431127 28:0.0013416816 29:0.010286225 30:0.032200358 31:0.098389982 32:0.036225403 33:0.0049194991 34:0.018336315 35:0.0084973166 36:0.019230769 37:0.0017889088 38:0.055903399 39:0.038014311 40:0.15697674 41:0.0089445438 42:0.0053667263 43:0.0049194991 44:0.0044722719 45:0.0040250447 46:0.0053667263 47:0.01744186 48:0.032200358 49:0.0089445438 50:0.023703041 52:0.01118068 53:0.00089445438 54:0.009391771 55:0.00089445438 56:0.042039356 57:0.0026833631 58:0.14445438 59:0.024150268 
1 1:0.002236136 2:0.0017889088 4:0.0031305903 6:0.0062611807 8:0.0071556351 10:0.0013416816 11:0.00044722719 13:0.00044722719 14:0.0026833631 15:0.0053667263 16:0.002236136 17:0.0026833631 18:0.016100179 19:0.0013416816 20:0.0031305903 21:0.00044722719 22:0.01744186 23:0.011627907 24:0.079159213 25:0.0080500894 26:0.038461538 27:0.0040250447 28:0.0026833631 29:0.0017889088 30:0.0044722719 31:0.025044723 32:0.12209302 33:0.058139535 34:0.10152057 35:0.0089445438 36:0.01118068 37:0.00044722719 38:0.0071556351 39:0.0089445438 40:0.10107335 41:0.076923077 42:0.024597496 43:0.0067084079 44:0.0044722719 45:0.0026833631 46:0.002236136 47:0.0040250447 48:0.0053667263 49:0.034436494 50:0.032647585 51:0.0026833631 52:0.010733453 54:0.0026833631 55:0.00044722719 56:0.0089445438 57:0.0031305903 58:0.085420394 59:0.022808587 
1 1:0.00089445438 2:0.0031305903 4:0.0049194991 6:0.0053667263 8:0.0013416816 12:0.00044722719 13:0.00089445438 14:0.0026833631 15:0.0013416816 16:0.00089445438 17:0.00089445438 18:0.01431127 19:0.00089445438 20:0.01744186 21:0.0031305903 22:0.049194991 23:0.01118068 24:0.016100179 25:0.00044722719 26:0.0035778175 27:0.0098389982 28:0.0044722719 29:0.015652952 30:0.035330948 31:0.084525939 32:0.039355993 33:0.0040250447 34:0.023255814 35:0.0031305903 36:0.029964222 37:0.0062611807 38:0.064847943 39:0.036225403 40:0.16726297 41:0.0049194991 42:0.0053667263 43:0.0049194991 44:0.0089445438 45:0.0067084079 46:0.0067084079 47:0.017889088 48:0.027728086 49:0.013416816 50:0.014758497 52:0.012969589 53:0.00044722719 54:0.014758497 55:0.00089445438 56:0.029516995 57:0.0013416816 58:0.13774597 59:0.027728086 
1 1:0.0031305903 2:0.0017889088 4:0.00089445438 6:0.002236136 8:0.009391771 10:0.00089445438 11:0.0017889088 12:0.00044722719 13:0.00089445438 15:0.0017889088 16:0.0026833631 17:0.0017889088 18:0.049642218 19:0.0017889088 20:0.0044722719 21:0.00044722719 22:0.0044722719 23:0.0035778175 24:0.067978533 25:0.009391771 26:0.056350626 27:0.0089445438 28:0.0026833631 29:0.0013416816 30:0.0026833631 31:0.0040250447 32:0.022808587 33:0.08765653 34:0.2352415 35:0.030858676 36:0.019230769 37:0.0017889088 38:0.0062611807 39:0.0035778175 40:0.022808587 41:0.029069767 42:0.030858676 43:0.026386404 44:0.0076028623 45:0.0031305903 46:0.00044722719 47:0.0017889088 48:0.0031305903 49:0.019677996 50:0.038908766 51:0.002236136 52:0.026833631 54:0.0031305903 55:0.00089445438 56:0.0031305903 57:0.00089445438 58:0.10330948 59:0.022808587 
1 1:0.0031305903 2:0.002236136 4:0.0026833631 6:0.0067084079 8:0.0062611807 12:0.00044722719 13:0.0013416816 14:0.0026833631 15:0.0013416816 16:0.00089445438 17:0.00044722719 18:0.021914132 19:0.0013416816 20:0.0035778175 21:0.0013416816 22:0.018783542 23:0.01431127 24:0.060822898 25:0.0035778175 26:0.024150268 27:0.0098389982 28:0.002236136 29:0.0026833631 30:0.0067084079 31:0.038461538 32:0.11896243 33:0.03667263 34:0.067084079 35:0.0067084079 36:0.01431127 37:0.0017889088 38:0.018336315 39:0.012969589 40:0.14490161 41:0.037567084 42:0.018336315 43:0.0062611807 44:0.0080500894 45:0.002236136 46:0.0013416816 47:0.0067084079 48:0.0084973166 49:0.024597496 50:0.02862254 51:0.0013416816 52:0.014758497 53:0.0013416816 54:0.0035778175 55:0.00044722719 56:0.010286225 57:0.0017889088 58:0.13685152 59:0.027728086 
0.78086334390708545 1:0.0049194991 2:0.0031305903 4:0.0017889088 6:0.0067084079 8:0.0071556351 10:0.00044722719 11:0.00089445438 13:0.00044722719 14:0.0013416816 15:0.00044722719 16:0.0017889088 17:0.002236136 18:0.033542039 20:0.0049194991 21:0.00044722719 22:0.0044722719 23:0.0040250447 24:0.077370304 25:0.0062611807 26:0.053220036 27:0.0067084079 28:0.0017889088 29:0.002236136 30:0.0013416816 31:0.0049194991 32:0.067978533 33:0.11851521 34:0.14579606 35:0.012075134 36:0.010286225 37:0.0013416816 38:0.0044722719 39:0.0017889088 40:0.047853309 41:0.062611807 42:0.045617174 43:0.016547406 44:0.0049194991 45:0.0013416816 46:0.00089445438 47:0.0017889088 48:0.002236136 49:0.029964222 50:0.038014311 51:0.00089445438 52:0.02236136 53:0.00089445438 54:0.0040250447 55:0.00044722719 56:0.0035778175 57:0.0013416816 58:0.095706619 59:0.024150268 
1 1:0.002236136 2:0.0013416816 4:0.0013416816 6:0.0071556351 8:0.0044722719 11:0.00044722719 13:0.00089445438 14:0.00089445438 15:0.0013416816 16:0.0026833631 17:0.00089445438 18:0.016100179 20:0.0049194991 21:0.00044722719 22:0.029069767 23:0.015652952 24:0.049642218 25:0.002236136 26:0.021914132 27:0.0084973166 28:0.0026833631 29:0.0049194991 30:0.012522361 31:0.055008945 32:0.07647585 33:0.020125224 34:0.072450805 35:0.012969589 36:0.015205725 37:0.0031305903 38:0.030858676 39:0.010286225 40:0.17576029 41:0.031305903 42:0.014758497 43:0.01118068 44:0.0084973166 45:0.0026833631 46:0.0049194991 47:0.011627907 48:0.016547406 49:0.029516995 50:0.035778175 51:0.0013416816 52:0.012969589 53:0.00089445438 54:0.0053667263 55:0.00044722719 56:0.017889088 57:0.002236136 58:0.10420394 59:0.023255814 
1 1:0.00089445438 2:0.0035778175 4:0.0013416816 6:0.0049194991 8:0.0062611807 14:0.00044722719 15:0.0026833631 17:0.0017889088 18:0.029964222 19:0.00089445438 20:0.0044722719 21:0.00089445438 22:0.016100179 23:0.0076028623 24:0.071109123 25:0.0026833631 26:0.019677996 27:0.016994633 28:0.0013416816 29:0.00044722719 30:0.0026833631 31:0.033094812 32:0.085420394 33:0.031753131 34:0.078264758 35:0.0071556351 36:0.023255814 37:0.00044722719 38:0.012522361 39:0.0071556351 40:0.1578712 41:0.04293381 42:0.023703041 43:0.0098389982 44:0.0089445438 45:0.00044722719 46:0.0017889088 47:0.0026833631 48:0.0089445438 49:0.033542039 50:0.043381038 51:0.00044722719 52:0.016994633 53:0.00044722719 54:0.0049194991 56:0.011627907 57:0.0017889088 58:0.13729875 59:0.016547406 
1 1:0.0026833631 2:0.0035778175 4:0.0031305903 6:0.0017889088 8:0.0040250447 10:0.0026833631 11:0.00044722719 14:0.00044722719 15:0.00044722719 16:0.00089445438 17:0.00044722719 18:0.032647585 19:0.012522361 20:0.032647585 22:0.011627907 23:0.00044722719 24:0.01118068 25:0.00089445438 26:0.014758497 27:0.049194991 28:0.1068873 29:0.012075134 30:0.0053667263 31:0.0017889088 32:0.0058139535 33:0.0062611807 34:0.031305903 35:0.014758497 36:0.17978533 37:0.018783542 38:0.048300537 39:0.00089445438 40:0.024150268 41:0.0040250447 42:0.0058139535 43:0.0084973166 44:0.012969589 45:0.021019678 46:0.01118068 47:0.0058139535 48:0.0049194991 49:0.009391771 50:0.01118068 51:0.00044722719 52:0.026833631 53:0.0017889088 54:0.023703041 56:0.015205725 58:0.16994633 59:0.024597496 
0.78433036055114469 1:0.00089445438 2:0.0067084079 4:0.0035778175 6:0.0035778175 8:0.0026833631 10:0.00044722719 11:0.002236136 12:0.00044722719 14:0.00089445438 15:0.0017889088 16:0.00044722719 17:0.002236136 18:0.015205725 19:0.0089445438 20:0.050089445 21:0.0017889088 22:0.015652952 23:0.0013416816 24:0.020125224 25:0.00089445438 26:0.0044722719 27:0.027728086 28:0.094364937 29:0.015205725 30:0.015652952 31:0.0053667263 32:0.012969589 33:0.0089445438 34:0.033094812 35:0.0040250447 36:0.15563506 37:0.026386404 38:0.051878354 39:0.0058139535 40:0.031753131 41:0.010733453 42:0.0067084079 43:0.0058139535 44:0.010733453 45:0.020125224 46:0.01431127 47:0.012075134 48:0.0035778175 49:0.009391771 50:0.017889088 52:0.014758497 53:0.002236136 54:0.035330948 55:0.00044722719 56:0.011627907 58:0.16100179 59:0.029964222 
1 2:0.0058139535 4:0.0049194991 6:0.002236136 8:0.0062611807 10:0.00089445438 11:0.00089445438 12:0.00044722719 13:0.00044722719 14:0.00044722719 15:0.00089445438 16:0.00089445438 18:0.034436494 19:0.01118068 20:0.03980322 21:0.00089445438 22:0.012075134 24:0.014758497 25:0.002236136 26:0.012522361 27:0.052772809 28:0.10822898 29:0.01431127 30:0.0067084079 31:0.0040250447 32:0.015652952 33:0.0035778175 34:0.022808587 35:0.0053667263 36:0.16815742 37:0.023255814 38:0.036225403 39:0.00044722719 40:0.023255814 41:0.0067084079 42:0.0062611807 43:0.011627907 44:0.015205725 45:0.02236136 46:0.016994633 47:0.0089445438 48:0.0071556351 49:0.0089445438 50:0.012522361 51:0.0013416816 52:0.025044723 53:0.00044722719 54:0.025044723 55:0.00044722719 56:0.009391771 57:0.00044722719 58:0.15026834 59:0.033989267 
1 1:0.00089445438 2:0.0035778175 4:0.0031305903 6:0.0013416816 8:0.0071556351 10:0.0026833631 11:0.00089445438 12:0.00044722719 13:0.00044722719 17:0.00089445438 18:0.055456172 19:0.010286225 20:0.018336315 21:0.00044722719 22:0.0044722719 23:0.00044722719 24:0.022808587 25:0.00044722719 26:0.035778175 27:0.12209302 28:0.064400716 29:0.0044722719 30:0.0035778175 31:0.00089445438 32:0.0080500894 33:0.013864043 34:0.059033989 35:0.031753131 36:0.18112701 37:0.0044722719 38:0.012522361 39:0.00044722719 40:0.014758497 41:0.011627907 42:0.0062611807 43:0.01744186 44:0.026833631 45:0.0098389982 46:0.0058139535 47:0.0026833631 48:0.00089445438 49:0.0053667263 50:0.017889088 52:0.02862254 53:0.00044722719 54:0.014758497 55:0.00044722719 56:0.0035778175 58:0.13148479 59:0.024597496 
1 1:0.0026833631 2:0.0067084079 4:0.0013416816 6:0.00089445438 8:0.0044722719 10:0.002236136 11:0.002236136 18:0.050089445 19:0.018783542 20:0.023255814 22:0.0062611807 23:0.00089445438 24:0.021019678 25:0.0031305903 26:0.016100179 27:0.099284436 28:0.070661896 29:0.0084973166 30:0.0017889088 31:0.00089445438 32:0.0098389982 33:0.0067084079 34:0.041592129 35:0.023703041 36:0.20706619 37:0.009391771 38:0.016994633 40:0.015205725 41:0.0049194991 42:0.0049194991 43:0.012969589 44:0.028175313 45:0.016100179 46:0.0049194991 47:0.0017889088 48:0.0017889088 49:0.0044722719 50:0.016994633 51:0.00044722719 52:0.035778175 53:0.0013416816 54:0.013864043 56:0.009391771 57:0.00044722719 58:0.14400716 59:0.025939177 
1 1:0.0017889088 2:0.0084973166 4:0.0044722719 6:0.0026833631 8:0.0035778175 10:0.00044722719 11:0.00089445438 12:0.00089445438 13:0.00044722719 16:0.0013416816 18:0.029516995 19:0.010733453 20:0.048300537 21:0.0026833631 22:0.015652952 23:0.00089445438 24:0.009391771 25:0.00044722719 26:0.0076028623 27:0.03980322 28:0.09078712 29:0.01118068 30:0.0062611807 31:0.0058139535 32:0.0080500894 33:0.009391771 34:0.031753131 35:0.0058139535 36:0.17486583 37:0.019677996 38:0.050089445 39:0.00089445438 40:0.021466905 41:0.0031305903 42:0.0071556351 43:0.0067084079 44:0.012522361 45:0.02236136 46:0.013416816 47:0.0058139535 48:0.0053667263 49:0.0076028623 50:0.012522361 51:0.0013416816 52:0.024150268 53:0.0017889088 54:0.033542039 55:0.00089445438 56:0.016547406 57:0.0026833631 58:0.16949911 59:0.026833631 
1 1:0.0017889088 2:0.002236136 4:0.0017889088 6:0.0013416816 8:0.0040250447 10:0.0017889088 11:0.00044722719 15:0.00044722719 16:0.00089445438 18:0.062611807 19:0.012075134 20:0.012969589 21:0.00044722719 22:0.0035778175 23:0.00044722719 24:0.022808587 25:0.0040250447 26:0.043381038 27:0.11404293 28:0.046958855 29:0.0017889088 30:0.00089445438 31:0.002236136 32:0.0076028623 33:0.02236136 34:0.076028623 35:0.03980322 36:0.16994633 37:0.0049194991 38:0.013864043 39:0.00044722719 40:0.016994633 41:0.009391771 42:0.0084973166 43:0.016994633 44:0.026833631 45:0.0071556351 46:0.0031305903 47:0.0026833631 48:0.0026833631 49:0.009391771 50:0.01744186 51:0.0013416816 52:0.033094812 53:0.00044722719 54:0.011627907 56:0.0049194991 57:0.00044722719 58:0.12298748 59:0.025939177 
1 1:0.0013416816 2:0.0067084079 4:0.0035778175 6:0.00044722719 8:0.0044722719 10:0.0031305903 11:0.00089445438 17:0.0013416816 18:0.054561717 19:0.017889088 20:0.016994633 22:0.0067084079 24:0.012969589 25:0.0044722719 26:0.02236136 27:0.11896243 28:0.078711986 29:0.0049194991 30:0.0044722719 31:0.00089445438 32:0.0076028623 33:0.016100179 34:0.053220036 35:0.025939177 36:0.18828265 37:0.0084973166 38:0.012075134 39:0.002236136 40:0.012522361 41:0.0062611807 42:0.0067084079 43:0.015652952 44:0.027728086 45:0.0089445438 46:0.0044722719 47:0.0013416816 48:0.0026833631 49:0.0053667263 50:0.009391771 51:0.0017889088 52:0.034436494 53:0.0013416816 54:0.012522361 55:0.00089445438 56:0.0053667263 57:0.00089445438 58:0.13953488 59:0.02236136 
1 1:0.0044722719 2:0.0013416816 4:0.0026833631 6:0.0067084079 8:0.0026833631 10:0.00044722719 11:0.00044722719 12:0.00044722719 14:0.0013416816 15:0.00089445438 16:0.002236136 18:0.018783542 19:0.00044722719 20:0.009391771 21:0.0013416816 22:0.044275492 23:0.0098389982 24:0.042039356 25:0.00044722719 26:0.0040250447 27:0.015205725 28:0.0031305903 29:0.0089445438 30:0.020572451 31:0.082289803 32:0.043381038 33:0.009391771 34:0.028175313 35:0.0080500894 36:0.021019678 37:0.0017889088 38:0.049194991 39:0.023255814 40:0.18470483 41:0.010286225 42:0.01118068 43:0.0053667263 44:0.010733453 45:0.0040250447 46:0.0044722719 47:0.012969589 48:0.020125224 49:0.014758497 50:0.030858676 51:0.00044722719 52:0.013864043 54:0.0080500894 55:0.0013416816 56:0.029516995 57:0.00044722719 58:0.14892665 59:0.019230769 
1 1:0.0013416816 2:0.002236136 4:0.0062611807 6:0.0067084079 8:0.0044722719 13:0.00089445438 14:0.002236136 17:0.0013416816 18:0.021914132 19:0.00044722719 20:0.012522361 21:0.0017889088 22:0.053667263 23:0.0084973166 24:0.022808587 25:0.0013416816 26:0.0067084079 27:0.0053667263 28:0.0044722719 29:0.012075134 30:0.016547406 31:0.10241503 32:0.034883721 33:0.0035778175 34:0.035330948 35:0.01118068 36:0.028175313 37:0.002236136 38:0.051431127 39:0.021914132 40:0.14534884 41:0.0062611807 42:0.0044722719 43:0.0049194991 44:0.0076028623 45:0.0071556351 46:0.01118068 47:0.016994633 48:0.029069767 49:0.0089445438 50:0.017889088 51:0.00044722719 52:0.016100179 54:0.0084973166 55:0.00089445438 56:0.035778175 57:0.00044722719 58:0.15876565 59:0.034436494 
1 2:0.00089445438 4:0.0013416816 6:0.0031305903 8:0.0049194991 11:0.00044722719 15:0.0026833631 16:0.0013416816 17:0.00044722719 18:0.023255814 19:0.0017889088 20:0.0044722719 21:0.00089445438 22:0.0053667263 23:0.0026833631 24:0.088550984 25:0.0044722719 26:0.027728086 27:0.0067084079 28:0.002236136 29:0.0044722719 30:0.0017889088 31:0.0084973166 32:0.083631485 33:0.089892665 34:0.11806798 35:0.0058139535 36:0.014758497 37:0.0017889088 38:0.010733453 39:0.00044722719 40:0.10912343 41:0.056350626 42:0.028175313 43:0.0076028623 44:0.0035778175 45:0.00044722719 46:0.0013416816 47:0.00044722719 48:0.0026833631 49:0.040250447 50:0.062611807 52:0.015205725 53:0.00044722719 54:0.0067084079 55:0.00089445438 56:0.0084973166 58:0.11806798 59:0.01431127 
1 1:0.00089445438 2:0.0026833631 6:0.0026833631 7:0.00044722719 8:0.0049194991 16:0.0013416816 17:0.00044722719 18:0.029964222 19:0.0017889088 20:0.018336315 22:0.0049194991 23:0.00044722719 24:0.066636852 25:0.0080500894 26:0.040250447 27:0.0089445438 28:0.021019678 29:0.00089445438 31:0.0026833631 32:0.01118068 33:0.059033989 34:0.19767442 35:0.0089445438 36:0.046511628 37:0.0053667263 38:0.0040250447 40:0.026386404 41:0.012522361 42:0.032200358 43:0.014758497 44:0.0035778175 45:0.0084973166 46:0.0031305903 48:0.00089445438 49:0.009391771 50:0.066636852 52:0.029069767 54:0.01431127 56:0.0040250447 58:0.20974955 59:0.014758497 
1 1:0.00089445438 2:0.0071556351 4:0.002236136 6:0.00089445438 8:0.0049194991 10:0.00089445438 11:0.00044722719 15:0.00044722719 17:0.00089445438 18:0.035778175 19:0.0040250447 20:0.033989267 22:0.0035778175 24:0.021019678 25:0.0040250447 26:0.045169946 27:0.046958855 28:0.033094812 29:0.0062611807 31:0.0013416816 32:0.0040250447 33:0.027728086 34:0.1234347 35:0.023255814 36:0.1283542 37:0.0044722719 38:0.01431127 40:0.020572451 41:0.0044722719 42:0.0098389982 43:0.019230769 44:0.015652952 45:0.020572451 46:0.0058139535 48:0.00044722719 49:0.0062611807 50:0.021019678 52:0.034436494 53:0.00044722719 54:0.032647585 56:0.0071556351 58:0.20169946 59:0.020125224 
0.21027122533370665 2:0.0026833631 4:0.0013416816 6:0.0040250447 8:0.0013416816 10:0.00044722719 11:0.00044722719 12:0.0017889088 13:0.00044722719 14:0.00089445438 15:0.0026833631 18:0.032647585 19:0.0031305903 20:0.028175313 21:0.00089445438 22:0.02236136 23:0.0031305903 24:0.031305903 26:0.0040250447 27:0.045617174 28:0.033094812 29:0.012969589 30:0.0080500894 31:0.012522361 32:0.040697674 33:0.0013416816 34:0.026833631 35:0.01431127 36:0.1167263 37:0.01431127 38:0.04293381 39:0.0080500894 40:0.096601073 41:0.015652952 42:0.0049194991 43:0.0058139535 44:0.016994633 45:0.012522361 46:0.010733453 47:0.009391771 48:0.012075134 49:0.021466905 50:0.029516995 51:0.00044722719 52:0.02862254 53:0.00044722719 54:0.016100179 55:0.00044722719 56:0.01118068 57:0.00089445438 58:0.16994633 59:0.016994633 
1 2:0.002236136 5:0.00044722719 6:0.0049194991 8:0.0017889088 10:0.00044722719 11:0.00044722719 13:0.00044722719 14:0.00044722719 15:0.00089445438 16:0.00089445438 17:0.00044722719 18:0.025044723 19:0.0013416816 20:0.0076028623 21:0.00044722719 22:0.0084973166 23:0.009391771 24:0.074686941 25:0.0058139535 26:0.027728086 27:0.0076028623 28:0.0040250447 29:0.0017889088 30:0.002236136 31:0.01118068 32:0.089445438 33:0.092576029 34:0.096601073 35:0.012522361 36:0.019677996 37:0.002236136 38:0.0062611807 39:0.00089445438 40:0.12432916 41:0.057245081 42:0.029964222 43:0.0062611807 44:0.0067084079 45:0.0026833631 46:0.00089445438 47:0.00089445438 48:0.0040250447 49:0.038014311 50:0.053220036 51:0.00044722719 52:0.016100179 53:0.00044722719 54:0.0062611807 55:0.00044722719 56:0.0089445438 58:0.10957066 59:0.012522361 
1 2:0.0026833631 4:0.00044722719 6:0.0044722719 8:0.0026833631 15:0.0013416816 17:0.00089445438 18:0.031305903 20:0.0076028623 21:0.00089445438 22:0.017889088 23:0.0089445438 24:0.040697674 25:0.0031305903 26:0.034883721 27:0.01118068 28:0.00089445438 29:0.0017889088 30:0.0080500894 31:0.049642218 32:0.10867621 33:0.031753131 34:0.12432916 35:0.021914132 36:0.02236136 37:0.00089445438 38:0.018336315 39:0.0058139535 40:0.10286225 41:0.042039356 42:0.015652952 43:0.01744186 44:0.0089445438 45:0.002236136 46:0.0026833631 47:0.0031305903 48:0.0098389982 49:0.018783542 50:0.023255814 51:0.00089445438 52:0.029069767 54:0.0058139535 56:0.016100179 58:0.12119857 59:0.016547406 
1 1:0.0017889088 2:0.0044722719 4:0.0035778175 6:0.0044722719 8:0.0031305903 10:0.00044722719 11:0.00044722719 13:0.00044722719 15:0.00044722719 17:0.00089445438 18:0.01744186 19:0.0049194991 20:0.033989267 21:0.00044722719 22:0.042039356 23:0.0080500894 24:0.023255814 26:0.0040250447 27:0.035330948 28:0.017889088 29:0.015652952 30:0.021019678 31:0.042486583 32:0.049642218 33:0.0013416816 34:0.01118068 35:0.01118068 36:0.084525939 37:0.01118068 38:0.04293381 39:0.019677996 40:0.15205725 41:0.0044722719 42:0.0049194991 43:0.0076028623 44:0.01118068 45:0.012075134 46:0.0084973166 47:0.010733453 48:0.01744186 49:0.013416816 50:0.021914132 51:0.00044722719 52:0.015652952 54:0.021019678 55:0.00089445438 56:0.024597496 57:0.00089445438 58:0.13282648 59:0.021019678 
1 1:0.0017889088 2:0.00089445438 4:0.0031305903 6:0.0058139535 8:0.0071556351 13:0.0013416816 14:0.00044722719 15:0.0049194991 16:0.00089445438 18:0.037567084 19:0.0013416816 20:0.0058139535 21:0.0013416816 22:0.013416816 23:0.015205725 24:0.043828265 25:0.0013416816 26:0.026833631 27:0.011627907 28:0.0031305903 29:0.0058139535 30:0.0076028623 31:0.058586762 32:0.1068873 33:0.010733453 34:0.083631485 35:0.018783542 36:0.019230769 37:0.0013416816 38:0.021019678 39:0.014758497 40:0.12745975 41:0.027728086 42:0.015205725 43:0.021914132 44:0.0076028623 45:0.0013416816 46:0.002236136 47:0.0062611807 48:0.010733453 49:0.02549195 50:0.031753131 51:0.00089445438 52:0.032200358 54:0.0071556351 55:0.0013416816 56:0.0089445438 57:0.00044722719 58:0.1118068 59:0.023255814 
1 1:0.0017889088 2:0.0026833631 6:0.00089445438 8:0.0049194991 10:0.0017889088 15:0.00044722719 16:0.0013416816 17:0.0017889088 18:0.048747764 19:0.0031305903 20:0.002236136 22:0.002236136 24:0.032647585 25:0.0067084079 26:0.05411449 27:0.032647585 28:0.0026833631 29:0.00044722719 30:0.00044722719 31:0.00089445438 32:0.019677996 33:0.056350626 34:0.10733453 35:0.029964222 36:0.023703041 37:0.00044722719 38:0.002236136 40:0.0062611807 41:0.026833631 42:0.021914132 43:0.020125224 44:0.016994633 45:0.0013416816 46:0.00044722719 47:0.00044722719 49:0.0080500894 50:0.012075134 51:0.00044722719 52:0.02236136 54:0.0017889088 56:0.0013416816 58:0.40652952 59:0.010733453 
1 2:0.0053667263 4:0.0013416816 6:0.002236136 8:0.002236136 10:0.0013416816 11:0.00089445438 15:0.00044722719 16:0.0013416816 17:0.0013416816 18:0.028175313 19:0.0031305903 20:0.028175313 22:0.0026833631 24:0.063059034 25:0.0035778175 26:0.023255814 27:0.016547406 28:0.019230769 29:0.0017889088 30:0.00044722719 31:0.00044722719 32:0.00089445438 33:0.029069767 34:0.12254025 35:0.0080500894 36:0.091681574 37:0.0040250447 38:0.012522361 40:0.018336315 41:0.0031305903 42:0.021914132 43:0.0084973166 44:0.0080500894 45:0.010286225 46:0.002236136 49:0.0049194991 50:0.059928444 51:0.00044722719 52:0.034883721 53:0.00089445438 54:0.026386404 56:0.0053667263 58:0.30500894 59:0.013864043 
1 1:0.00044722719 2:0.002236136 4:0.0013416816 6:0.0040250447 7:0.00044722719 8:0.0026833631 14:0.0017889088 15:0.0031305903 16:0.0017889088 17:0.00044722719 18:0.016100179 19:0.0013416816 20:0.0040250447 21:0.00089445438 22:0.0080500894 23:0.0053667263 24:0.083184258 25:0.0017889088 26:0.021019678 27:0.0013416816 28:0.0031305903 29:0.0013416816 30:0.0040250447 31:0.012969589 32:0.072898032 33:0.097942755 34:0.076923077 35:0.0062611807 36:0.0089445438 37:0.0026833631 38:0.012075134 39:0.0017889088 40:0.15161002 41:0.063953488 42:0.034436494 43:0.0044722719 44:0.0017889088 45:0.00089445438 46:0.0017889088 47:0.0035778175 48:0.0058139535 49:0.033989267 50:0.055903399 51:0.00044722719 52:0.010286225 54:0.0031305903 56:0.0089445438 58:0.14042934 59:0.016100179 
1 1:0.0013416816 2:0.0040250447 4:0.0017889088 6:0.00089445438 8:0.0067084079 10:0.00089445438 11:0.00089445438 13:0.00044722719 14:0.00044722719 15:0.00044722719 16:0.00089445438 17:0.00044722719 18:0.05411449 19:0.010286225 20:0.0049194991 21:0.00044722719 22:0.0017889088 23:0.0031305903 24:0.045617174 25:0.0089445438 26:0.082289803 27:0.080500894 28:0.0067084079 29:0.0013416816 30:0.00089445438 31:0.002236136 32:0.039355993 33:0.080500894 34:0.12522361 35:0.053220036 36:0.074686941 37:0.002236136 38:0.0067084079 39:0.00044722719 40:0.029516995 41:0.040250447 42:0.029516995 43:0.02862254 44:0.027728086 45:0.0058139535 46:0.0026833631 47:0.0013416816 48:0.002236136 49:0.015205725 50:0.018336315 51:0.002236136 52:0.014758497 53:0.0013416816 54:0.0058139535 55:0.0013416816 56:0.0035778175 57:0.00089445438 58:0.045617174 59:0.018336315 
1 1:0.00044722719 2:0.0044722719 4:0.002236136 6:0.0044722719 8:0.00089445438 10:0.00089445438 11:0.00089445438 12:0.00044722719 13:0.00044722719 16:0.00044722719 18:0.026386404 19:0.0040250447 20:0.022808587 21:0.0017889088 22:0.037119857 23:0.002236136 24:0.021914132 25:0.00044722719 26:0.0044722719 27:0.041144902 28:0.021466905 29:0.009391771 30:0.011627907 31:0.027728086 32:0.053220036 33:0.0035778175 34:0.027280859 35:0.010286225 36:0.10733453 37:0.01118068 38:0.037567084 39:0.021019678 40:0.10822898 41:0.010733453 42:0.0044722719 43:0.0062611807 44:0.01744186 45:0.01118068 46:0.0071556351 47:0.0058139535 48:0.009391771 49:0.015205725 50:0.02236136 51:0.00044722719 52:0.025939177 53:0.00044722719 54:0.015205725 55:0.00089445438 56:0.021019678 57:0.00044722719 58:0.17754919 59:0.020125224 
1 1:0.0017889088 2:0.0013416816 4:0.0013416816 6:0.0017889088 8:0.0071556351 10:0.00044722719 15:0.00044722719 16:0.0013416816 17:0.00044722719 18:0.038908766 19:0.0013416816 20:0.002236136 21:0.00044722719 22:0.0035778175 23:0.0013416816 24:0.056797853 25:0.01118068 26:0.060822898 27:0.021019678 28:0.0013416816 29:0.00044722719 30:0.0013416816 31:0.0044722719 32:0.037567084 33:0.088103757 34:0.1265653 35:0.026833631 36:0.016547406 38:0.0076028623 39:0.00089445438 40:0.034436494 41:0.040697674 42:0.032200358 43:0.023703041 44:0.009391771 45:0.00044722719 46:0.00089445438 47:0.0013416816 48:0.0017889088 49:0.016994633 50:0.020572451 51:0.0031305903 52:0.015205725 54:0.002236136 56:0.0031305903 58:0.25626118 59:0.012075134 
1 1:0.0013416816 2:0.0044722719 4:0.0026833631 6:0.00089445438 8:0.0035778175 10:0.00089445438 11:0.00044722719 14:0.00044722719 18:0.038908766 19:0.0035778175 20:0.037119857 22:0.012969589 23:0.00044722719 24:0.02862254 25:0.00044722719 26:0.0062611807 27:0.04293381 28:0.023255814 29:0.013864043 30:0.002236136 31:0.0076028623 32:0.019677996 33:0.015205725 34:0.053220036 35:0.0067084079 36:0.15831843 37:0.010733453 38:0.023255814 39:0.0013416816 40:0.05411449 41:0.012969589 42:0.0089445438 43:0.0067084079 44:0.023255814 45:0.01744186 46:0.0076028623 47:0.0035778175 48:0.0044722719 49:0.0076028623 50:0.020572451 51:0.00089445438 52:0.038014311 53:0.0013416816 54:0.033989267 55:0.00044722719 56:0.012522361 58:0.21109123 59:0.012969589 
1 1:0.0040250447 2:0.0017889088 4:0.0049194991 5:0.00044722719 6:0.0080500894 8:0.0017889088 10:0.00044722719 12:0.00044722719 13:0.00089445438 14:0.0013416816 15:0.0031305903 16:0.00089445438 17:0.00089445438 18:0.0084973166 19:0.00044722719 20:0.0084973166 21:0.0017889088 22:0.066636852 23:0.011627907 24:0.033542039 25:0.0031305903 26:0.022808587 27:0.0013416816 28:0.0098389982 29:0.0062611807 30:0.037567084 31:0.076923077 32:0.033989267 33:0.012522361 34:0.040250447 35:0.0062611807 36:0.014758497 37:0.0053667263 38:0.034436494 39:0.059481216 40:0.16234347 41:0.011627907 42:0.010733453 43:0.0035778175 44:0.002236136 45:0.0044722719 46:0.0058139535 47:0.016100179 48:0.025939177 49:0.019230769 50:0.031305903 52:0.0031305903 53:0.00044722719 54:0.0058139535 55:0.00089445438 56:0.038461538 58:0.11091234 59:0.021914132 
1 2:0.00044722719 4:0.00089445438 6:0.0013416816 8:0.0040250447 15:0.00044722719 16:0.00089445438 17:0.00089445438 18:0.055456172 19:0.0026833631 20:0.0026833631 22:0.0026833631 23:0.0013416816 24:0.041592129 25:0.0062611807 26:0.083631485 27:0.045169946 28:0.0044722719 29:0.0017889088 30:0.00089445438 31:0.0013416816 32:0.027728086 33:0.047406082 34:0.098837209 35:0.03980322 36:0.024150268 38:0.0044722719 39:0.00044722719 40:0.025939177 41:0.02862254 42:0.017889088 43:0.034436494 44:0.020572451 45:0.00089445438 46:0.0013416816 47:0.00089445438 48:0.00089445438 49:0.012522361 50:0.014758497 51:0.00044722719 52:0.016994633 53:0.00044722719 54:0.002236136 55:0.00044722719 56:0.0026833631 58:0.30635063 59:0.0098389982 
1 1:0.0040250447 2:0.0017889088 4:0.002236136 6:0.0035778175 7:0.00044722719 8:0.0098389982 10:0.00044722719 12:0.0013416816 15:0.0017889088 16:0.002236136 17:0.0013416816 18:0.032200358 19:0.00089445438 20:0.0040250447 21:0.00044722719 22:0.011627907 23:0.0017889088 24:0.063953488 25:0.0067084079 26:0.030858676 27:0.0080500894 28:0.0035778175 29:0.0040250447 30:0.0017889088 31:0.015652952 32:0.063506261 33:0.040250447 34:0.088103757 35:0.018336315 36:0.018336315 37:0.0026833631 38:0.014758497 39:0.0031305903 40:0.064847943 41:0.037567084 42:0.021466905 43:0.015205725 44:0.0067084079 45:0.002236136 46:0.0026833631 47:0.0031305903 48:0.0049194991 49:0.021466905 50:0.024597496 51:0.00089445438 52:0.01744186 54:0.0040250447 55:0.00089445438 56:0.0067084079 57:0.0013416816 58:0.27012522 59:0.029964222 
1 1:0.00089445438 2:0.0044722719 4:0.00044722719 6:0.0013416816 8:0.0044722719 10:0.0035778175 11:0.00044722719 14:0.00089445438 15:0.00089445438 16:0.00044722719 17:0.0026833631 18:0.058586762 19:0.002236136 20:0.0071556351 22:0.0035778175 23:0.0031305903 24:0.035330948 25:0.0031305903 26:0.088103757 27:0.032647585 28:0.0026833631 29:0.00044722719 30:0.0017889088 31:0.0049194991 32:0.023255814 33:0.031753131 34:0.10644007 35:0.046511628 36:0.026833631 37:0.0040250447 38:0.0058139535 39:0.0035778175 40:0.02549195 41:0.022808587 42:0.013416816 43:0.038014311 44:0.022808587 45:0.0053667263 46:0.0026833631 47:0.0017889088 48:0.0035778175 49:0.0084973166 50:0.01744186 51:0.00044722719 52:0.019677996 54:0.0058139535 55:0.00044722719 56:0.0035778175 57:0.00044722719 58:0.27728086 59:0.017889088 
1 1:0.0026833631 2:0.0058139535 4:0.00044722719 6:0.0031305903 8:0.0031305903 10:0.00044722719 11:0.0013416816 15:0.00044722719 17:0.0017889088 18:0.047853309 19:0.0084973166 20:0.0084973166 21:0.00089445438 22:0.0084973166 23:0.002236136 24:0.040697674 25:0.0017889088 26:0.03980322 27:0.081395349 28:0.018783542 29:0.0058139535 30:0.0058139535 31:0.0089445438 32:0.024597496 33:0.029964222 34:0.076028623 35:0.073345259 36:0.10778175 37:0.0080500894 38:0.015652952 39:0.0053667263 40:0.031753131 41:0.050536673 42:0.019677996 43:0.020572451 44:0.035330948 45:0.010733453 46:0.0035778175 47:0.0058139535 48:0.0067084079 49:0.014758497 50:0.019230769 51:0.00089445438 52:0.023703041 53:0.00089445438 54:0.0084973166 55:0.0013416816 56:0.0089445438 57:0.00089445438 58:0.073792487 59:0.022808587 
1 1:0.00089445438 2:0.00044722719 6:0.0026833631 8:0.0053667263 10:0.0013416816 15:0.0017889088 16:0.0013416816 18:0.05411449 19:0.0017889088 20:0.00044722719 22:0.0017889088 23:0.00089445438 24:0.03980322 25:0.0053667263 26:0.062611807 27:0.027728086 28:0.0013416816 30:0.00089445438 31:0.00044722719 32:0.030411449 33:0.060375671 34:0.096153846 35:0.038908766 36:0.023255814 38:0.0013416816 39:0.00044722719 40:0.025939177 41:0.028175313 42:0.019230769 43:0.023703041 44:0.015205725 45:0.00044722719 46:0.00044722719 47:0.00044722719 48:0.00089445438 49:0.016994633 50:0.018783542 51:0.00089445438 52:0.025044723 54:0.00044722719 56:0.002236136 58:0.34794275 59:0.01118068 
1 1:0.00089445438 2:0.002236136 4:0.002236136 6:0.0040250447 8:0.0035778175 10:0.00089445438 11:0.00044722719 12:0.00089445438 16:0.00044722719 17:0.00044722719 18:0.057692308 19:0.0040250447 20:0.011627907 21:0.00044722719 22:0.0053667263 23:0.002236136 24:0.042039356 25:0.0031305903 26:0.052772809 27:0.086762075 28:0.012969589 29:0.0049194991 30:0.009391771 31:0.0062611807 32:0.032647585 33:0.04293381 34:0.08765653 35:0.072450805 36:0.087209302 37:0.0067084079 38:0.015652952 39:0.0049194991 40:0.037567084 41:0.038461538 42:0.01431127 43:0.030858676 44:0.03667263 45:0.0062611807 46:0.0058139535 47:0.0044722719 48:0.0053667263 49:0.01431127 50:0.019230769 51:0.0017889088 52:0.020572451 53:0.002236136 54:0.013416816 56:0.0049194991 57:0.0013416816 58:0.055008945 59:0.021466905 
1 1:0.00089445438 2:0.0040250447 4:0.00044722719 6:0.0017889088 8:0.002236136 10:0.00089445438 11:0.0013416816 16:0.00044722719 17:0.00089445438 18:0.059928444 19:0.011627907 20:0.0098389982 22:0.0071556351 23:0.0026833631 24:0.030411449 25:0.0026833631 26:0.050536673 27:0.10107335 28:0.016100179 29:0.0044722719 30:0.0040250447 31:0.0084973166 32:0.033989267 33:0.023703041 34:0.070214669 35:0.063506261 36:0.14534884 37:0.0053667263 38:0.01118068 39:0.0013416816 40:0.038014311 41:0.02549195 42:0.013864043 43:0.027728086 44:0.041144902 45:0.0062611807 46:0.0031305903 47:0.0031305903 48:0.0053667263 49:0.016100179 50:0.016547406 51:0.0017889088 52:0.029516995 53:0.00089445438 54:0.0080500894 56:0.0058139535 57:0.00089445438 58:0.061270125 59:0.018336315 
1 1:0.0035778175 2:0.002236136 4:0.0035778175 6:0.002236136 8:0.0062611807 10:0.0035778175 11:0.0035778175 12:0.00089445438 13:0.0013416816 15:0.00044722719 16:0.0031305903 18:0.066636852 19:0.011627907 20:0.009391771 21:0.0013416816 22:0.0076028623 23:0.002236136 24:0.035778175 25:0.002236136 26:0.055008945 27:0.1283542 28:0.016100179 29:0.0058139535 30:0.0040250447 31:0.0053667263 32:0.021914132 33:0.056797853 34:0.071109123 35:0.063059034 36:0.080948122 37:0.0035778175 38:0.01431127 39:0.0017889088 40:0.024150268 41:0.023703041 42:0.01431127 43:0.020125224 44:0.021914132 45:0.0062611807 46:0.0035778175 47:0.0040250447 48:0.0026833631 49:0.0071556351 50:0.01744186 51:0.0013416816 52:0.022808587 53:0.0017889088 54:0.0049194991 56:0.0053667263 57:0.0013416816 58:0.097048301 59:0.024150268 
1 1:0.0031305903 2:0.0026833631 4:0.0031305903 6:0.0017889088 7:0.00044722719 8:0.0067084079 10:0.0013416816 11:0.0013416816 13:0.00044722719 15:0.00044722719 16:0.00089445438 17:0.002236136 18:0.077370304 19:0.018336315 20:0.0080500894 22:0.0062611807 23:0.00044722719 24:0.016547406 25:0.0035778175 26:0.053667263 27:0.14534884 28:0.032200358 29:0.002236136 30:0.0031305903 31:0.002236136 32:0.018336315 33:0.022808587 34:0.063953488 35:0.059928444 36:0.17978533 37:0.0031305903 38:0.0062611807 39:0.0026833631 40:0.01118068 41:0.01431127 42:0.0080500894 43:0.025939177 44:0.038014311 45:0.0053667263 46:0.002236136 47:0.0017889088 48:0.0013416816 49:0.0076028623 50:0.0071556351 51:0.0035778175 52:0.032200358 53:0.0013416816 54:0.0049194991 55:0.00089445438 56:0.0035778175 58:0.055903399 59:0.023703041 
1 1:0.0017889088 2:0.0040250447 4:0.0017889088 6:0.002236136 8:0.0035778175 10:0.0013416816 11:0.00089445438 12:0.00044722719 13:0.00089445438 16:0.00044722719 17:0.00044722719 18:0.047853309 19:0.016100179 20:0.018336315 22:0.010733453 23:0.0026833631 24:0.02862254 25:0.00044722719 26:0.016100179 27:0.096601073 28:0.067978533 29:0.0071556351 30:0.0062611807 31:0.010733453 32:0.024597496 33:0.01118068 34:0.032200358 35:0.025044723 36:0.1726297 37:0.011627907 38:0.023703041 39:0.0035778175 40:0.046958855 41:0.023255814 42:0.011627907 43:0.012522361 44:0.029964222 45:0.010286225 46:0.0089445438 47:0.0053667263 48:0.0084973166 49:0.012969589 50:0.018336315 51:0.00044722719 52:0.032200358 53:0.00044722719 54:0.012522361 56:0.0080500894 57:0.0013416816 58:0.08273703 59:0.021466905 
0.85562706656400145 1:0.0017889088 2:0.0031305903 4:0.0017889088 6:0.0035778175 8:0.0040250447 10:0.0031305903 11:0.00044722719 12:0.00089445438 14:0.0017889088 15:0.00044722719 16:0.00044722719 17:0.002236136 18:0.07647585 19:0.0071556351 20:0.009391771 22:0.011627907 23:0.0044722719 24:0.029069767 25:0.0031305903 26:0.051431127 27:0.088998211 28:0.015205725 29:0.0067084079 30:0.0053667263 31:0.0053667263 32:0.039355993 33:0.02549195 34:0.071556351 35:0.047406082 36:0.095706619 37:0.0044722719 38:0.01744186 39:0.0035778175 40:0.034883721 41:0.039355993 42:0.013864043 43:0.027280859 44:0.037567084 45:0.0089445438 46:0.0053667263 47:0.0058139535 48:0.0053667263 49:0.01744186 50:0.013864043 51:0.00089445438 52:0.037567084 53:0.0026833631 54:0.009391771 56:0.0084973166 57:0.00089445438 58:0.06529517 59:0.021914132 
1 1:0.0089445438 2:0.0080500894 4:0.0040250447 6:0.0031305903 8:0.009391771 9:0.00044722719 10:0.0017889088 11:0.002236136 12:0.0013416816 13:0.0040250447 14:0.0040250447 15:0.00044722719 16:0.0017889088 17:0.0044722719 18:0.059481216 19:0.0067084079 20:0.016547406 21:0.00044722719 22:0.012969589 23:0.0026833631 24:0.039355993 25:0.0076028623 26:0.045169946 27:0.070661896 28:0.01431127 29:0.0026833631 30:0.0013416816 31:0.00089445438 32:0.0071556351 33:0.043828265 34:0.07647585 35:0.035330948 36:0.059481216 37:0.0035778175 38:0.016994633 39:0.0026833631 40:0.01744186 41:0.017889088 42:0.013416816 43:0.016100179 44:0.020572451 45:0.0049194991 46:0.0040250447 47:0.0026833631 48:0.0013416816 49:0.0080500894 50:0.020572451 51:0.0026833631 52:0.021466905 53:0.0031305903 54:0.0084973166 55:0.0013416816 56:0.0089445438 57:0.0013416816 58:0.20259392 59:0.042486583 
1 1:0.0049194991 2:0.0035778175 4:0.0044722719 5:0.00044722719 6:0.002236136 8:0.0071556351 9:0.00044722719 10:0.0026833631 11:0.0026833631 12:0.00044722719 13:0.0017889088 14:0.002236136 15:0.0013416816 16:0.0035778175 17:0.0080500894 18:0.065742397 19:0.0062611807 20:0.012969589 21:0.00089445438 22:0.010733453 23:0.0013416816 24:0.030411449 25:0.0062611807 26:0.046958855 27:0.053220036 28:0.013416816 29:0.0058139535 30:0.0035778175 31:0.0040250447 32:0.0089445438 33:0.03667263 34:0.078264758 35:0.037119857 36:0.052325581 37:0.0017889088 38:0.012075134 39:0.0035778175 40:0.015652952 41:0.016100179 42:0.012969589 43:0.014758497 44:0.017889088 45:0.0062611807 46:0.0049194991 47:0.002236136 48:0.0049194991 49:0.0062611807 50:0.013864043 51:0.0013416816 52:0.021019678 53:0.0013416816 54:0.0080500894 55:0.002236136 56:0.0067084079 58:0.27191413 59:0.033094812 
1 1:0.00044722719 2:0.00089445438 4:0.00089445438 6:0.0040250447 8:0.0044722719 10:0.00089445438 11:0.00044722719 13:0.00044722719 14:0.00089445438 15:0.0026833631 16:0.0031305903 18:0.033989267 19:0.0013416816 20:0.0053667263 22:0.0080500894 23:0.0080500894 24:0.068872987 25:0.0058139535 26:0.045169946 27:0.023703041 28:0.0053667263 29:0.0013416816 30:0.0017889088 31:0.012075134 32:0.10420394 33:0.073345259 34:0.093470483 35:0.031305903 36:0.024597496 37:0.0013416816 38:0.0089445438 39:0.0035778175 40:0.10107335 41:0.053667263 42:0.033542039 43:0.020572451 44:0.015652952 45:0.0026833631 46:0.0013416816 47:0.0035778175 48:0.0049194991 49:0.03980322 50:0.028175313 51:0.0017889088 52:0.016100179 53:0.00044722719 54:0.0053667263 56:0.0049194991 58:0.066636852 59:0.018783542 
1 1:0.0017889088 2:0.0044722719 4:0.002236136 6:0.002236136 8:0.0053667263 10:0.002236136 11:0.002236136 13:0.00044722719 14:0.00044722719 15:0.00044722719 16:0.00089445438 17:0.0017889088 18:0.070214669 19:0.0080500894 20:0.0084973166 21:0.00089445438 22:0.0049194991 24:0.02862254 25:0.0040250447 26:0.039355993 27:0.10509839 28:0.017889088 29:0.0058139535 30:0.0017889088 31:0.011627907 32:0.036225403 33:0.029069767 34:0.082289803 35:0.051878354 36:0.12790698 37:0.0049194991 38:0.0076028623 39:0.0035778175 40:0.030858676 41:0.02862254 42:0.014758497 43:0.029516995 44:0.038461538 45:0.0084973166 46:0.0071556351 47:0.002236136 48:0.0058139535 49:0.009391771 50:0.016100179 51:0.0017889088 52:0.034883721 53:0.00044722719 54:0.0040250447 55:0.00089445438 56:0.0044722719 57:0.002236136 58:0.06529517 59:0.019677996 
1 1:0.0013416816 2:0.0035778175 4:0.0013416816 6:0.0031305903 8:0.0053667263 10:0.0017889088 11:0.00044722719 14:0.00044722719 15:0.00044722719 16:0.00089445438 17:0.0013416816 18:0.068872987 19:0.0076028623 20:0.0035778175 22:0.0049194991 23:0.0017889088 24:0.037567084 25:0.0067084079 26:0.050089445 27:0.095706619 28:0.01431127 30:0.00044722719 31:0.0058139535 32:0.046511628 33:0.035778175 34:0.078264758 35:0.044275492 36:0.085867621 37:0.0031305903 38:0.0049194991 39:0.00044722719 40:0.050089445 41:0.035330948 42:0.02862254 43:0.038461538 44:0.036225403 45:0.0080500894 46:0.0017889088 47:0.0026833631 48:0.0031305903 49:0.021466905 50:0.01744186 51:0.002236136 52:0.035778175 53:0.0013416816 54:0.0049194991 55:0.00089445438 56:0.0031305903 57:0.0013416816 58:0.067978533 59:0.02236136 
1 1:0.0013416816 2:0.0035778175 4:0.002236136 6:0.002236136 8:0.0044722719 10:0.00044722719 11:0.002236136 15:0.0013416816 16:0.0017889088 17:0.0017889088 18:0.066189624 19:0.013864043 20:0.010286225 21:0.00089445438 22:0.0053667263 23:0.0031305903 24:0.043381038 25:0.0067084079 26:0.047853309 27:0.11135957 28:0.01431127 29:0.002236136 30:0.0049194991 31:0.0053667263 32:0.024150268 33:0.049642218 34:0.11046512 35:0.069320215 36:0.092576029 37:0.0031305903 38:0.0084973166 39:0.00089445438 40:0.021019678 41:0.029516995 42:0.019677996 43:0.018783542 44:0.023703041 45:0.0067084079 46:0.0044722719 47:0.0013416816 48:0.0044722719 49:0.016100179 50:0.024597496 51:0.00044722719 52:0.02236136 53:0.0013416816 54:0.0053667263 56:0.0035778175 57:0.00089445438 58:0.057245081 59:0.02236136 
1 1:0.002236136 2:0.0049194991 4:0.00044722719 6:0.0017889088 8:0.0058139535 10:0.002236136 11:0.0013416816 13:0.00044722719 14:0.00044722719 15:0.00044722719 16:0.0013416816 17:0.00044722719 18:0.0509839 19:0.020125224 20:0.012522361 22:0.0071556351 23:0.0013416816 24:0.046958855 25:0.002236136 26:0.036225403 27:0.12477639 28:0.029964222 29:0.0044722719 30:0.0026833631 31:0.0017889088 32:0.02236136 33:0.03667263 34:0.07647585 35:0.046958855 36:0.10822898 37:0.0049194991 38:0.017889088 39:0.0013416816 40:0.029964222 41:0.020572451 42:0.023703041 43:0.016994633 44:0.025939177 45:0.0080500894 46:0.0053667263 47:0.0013416816 48:0.0017889088 49:0.014758497 50:0.02862254 51:0.00089445438 52:0.023703041 53:0.0013416816 54:0.0089445438 55:0.00044722719 56:0.0071556351 57:0.0013416816 58:0.083631485 59:0.01744186 
1 1:0.00044722719 2:0.0035778175 4:0.0017889088 6:0.0017889088 8:0.0040250447 10:0.00089445438 11:0.00044722719 12:0.00089445438 13:0.0013416816 17:0.00044722719 18:0.027280859 19:0.01118068 20:0.016547406 21:0.00044722719 22:0.013864043 23:0.0044722719 24:0.038461538 25:0.002236136 26:0.011627907 27:0.086762075 28:0.047406082 29:0.013416816 30:0.0067084079 31:0.0098389982 32:0.039355993 33:0.012522361 34:0.046064401 35:0.01744186 36:0.1480322 37:0.012075134 38:0.029516995 39:0.0067084079 40:0.061717352 41:0.019230769 42:0.015652952 43:0.015652952 44:0.02862254 45:0.015205725 46:0.01118068 47:0.0062611807 48:0.0080500894 49:0.020572451 50:0.027280859 51:0.0017889088 52:0.019677996 53:0.002236136 54:0.0084973166 55:0.00044722719 56:0.010733453 57:0.00044722719 58:0.089892665 59:0.019230769 
1 1:0.0017889088 2:0.0058139535 4:0.0031305903 6:0.0035778175 8:0.0053667263 10:0.0026833631 11:0.00089445438 12:0.00044722719 14:0.00089445438 15:0.00044722719 16:0.002236136 17:0.002236136 18:0.076028623 19:0.0071556351 20:0.009391771 21:0.002236136 22:0.0084973166 23:0.0026833631 24:0.035330948 25:0.0049194991 26:0.054561717 27:0.12432916 28:0.014758497 29:0.0035778175 30:0.0031305903 31:0.0044722719 32:0.029516995 33:0.030411449 34:0.063506261 35:0.07647585 36:0.10330948 37:0.002236136 38:0.0076028623 39:0.0017889088 40:0.024597496 41:0.034883721 42:0.016994633 43:0.025939177 44:0.02862254 45:0.0058139535 46:0.0031305903 47:0.0035778175 48:0.0026833631 49:0.0084973166 50:0.012522361 51:0.0013416816 52:0.024597496 53:0.00044722719 54:0.0062611807 55:0.00044722719 56:0.0049194991 57:0.0026833631 58:0.07647585 59:0.020125224 
1 1:0.0049194991 2:0.0058139535 4:0.0049194991 6:0.0026833631 8:0.0071556351 10:0.0017889088 11:0.0017889088 13:0.00044722719 14:0.00044722719 16:0.0017889088 17:0.00044722719 18:0.045169946 19:0.016100179 20:0.012075134 21:0.0013416816 22:0.0062611807 23:0.0013416816 24:0.044275492 25:0.0035778175 26:0.033542039 27:0.12880143 28:0.033094812 29:0.0049194991 30:0.0053667263 31:0.0026833631 32:0.025939177 33:0.045169946 34:0.070661896 35:0.044722719 36:0.10152057 37:0.0080500894 38:0.012075134 39:0.0013416816 40:0.024597496 41:0.021466905 42:0.025044723 43:0.021019678 44:0.027728086 45:0.0080500894 46:0.0031305903 47:0.002236136 48:0.0026833631 49:0.012075134 50:0.02862254 51:0.00044722719 52:0.015652952 53:0.0013416816 54:0.0058139535 55:0.00044722719 56:0.0053667263 57:0.00089445438 58:0.083631485 59:0.029516995 
1 1:0.00089445438 2:0.0053667263 4:0.0017889088 6:0.002236136 8:0.0089445438 10:0.0026833631 11:0.00089445438 14:0.00044722719 15:0.00089445438 16:0.0013416816 17:0.0013416816 18:0.063506261 19:0.0017889088 20:0.0049194991 21:0.00044722719 22:0.0031305903 23:0.0017889088 24:0.046958855 25:0.0053667263 26:0.056350626 27:0.07647585 28:0.0071556351 29:0.0071556351 30:0.002236136 31:0.0049194991 32:0.048300537 33:0.039355993 34:0.079159213 35:0.057245081 36:0.063059034 37:0.0040250447 38:0.0071556351 39:0.0031305903 40:0.033094812 41:0.047853309 42:0.027280859 43:0.034436494 44:0.035330948 45:0.0058139535 46:0.0053667263 47:0.0035778175 48:0.0044722719 49:0.024150268 50:0.017889088 51:0.0031305903 52:0.035778175 53:0.002236136 54:0.0040250447 56:0.002236136 57:0.00044722719 58:0.073345259 59:0.029069767 
1 1:0.0026833631 2:0.0049194991 4:0.0031305903 6:0.0035778175 8:0.0053667263 10:0.00089445438 11:0.0017889088 12:0.00044722719 14:0.0013416816 15:0.0017889088 16:0.00089445438 18:0.026386404 19:0.0080500894 20:0.018336315 21:0.00044722719 22:0.012969589 23:0.0049194991 24:0.02549195 25:0.0017889088 26:0.015652952 27:0.050089445 28:0.045617174 29:0.016100179 30:0.010733453 31:0.02862254 32:0.050089445 33:0.0098389982 34:0.033989267 35:0.016547406 36:0.14490161 37:0.012075134 38:0.036225403 39:0.0098389982 40:0.07960644 41:0.0098389982 42:0.014758497 43:0.016100179 44:0.020125224 45:0.019230769 46:0.0076028623 47:0.0058139535 48:0.011627907 49:0.016994633 50:0.020125224 51:0.0017889088 52:0.021466905 53:0.002236136 54:0.014758497 55:0.00044722719 56:0.010733453 57:0.00089445438 58:0.091234347 59:0.029069767 
0.52340817104556692 1:0.0013416816 2:0.0062611807 4:0.0031305903 6:0.0035778175 8:0.0044722719 10:0.0013416816 11:0.00089445438 12:0.00044722719 14:0.00044722719 15:0.00089445438 17:0.0017889088 18:0.033542039 19:0.0076028623 20:0.021914132 21:0.00044722719 22:0.013416816 23:0.0035778175 24:0.030858676 25:0.0035778175 26:0.013864043 27:0.07647585 28:0.04293381 29:0.014758497 30:0.01118068 31:0.013864043 32:0.036225403 33:0.01431127 34:0.043381038 35:0.023255814 36:0.15608229 37:0.0089445438 38:0.033989267 39:0.0080500894 40:0.057692308 41:0.017889088 42:0.010286225 43:0.016100179 44:0.028175313 45:0.020572451 46:0.0080500894 47:0.0076028623 48:0.0076028623 49:0.016547406 50:0.015205725 51:0.00044722719 52:0.023703041 53:0.002236136 54:0.012075134 55:0.00044722719 56:0.009391771 57:0.0013416816 58:0.077370304 59:0.030411449 
1 1:0.00089445438 2:0.00089445438 4:0.00044722719 6:0.0013416816 8:0.0067084079 15:0.00089445438 16:0.0017889088 17:0.00089445438 18:0.057692308 20:0.002236136 22:0.0017889088 23:0.0017889088 24:0.03667263 25:0.0049194991 26:0.063506261 27:0.031753131 28:0.00044722719 31:0.0017889088 32:0.016994633 33:0.042486583 34:0.10822898 35:0.037119857 36:0.022808587 38:0.0089445438 40:0.019230769 41:0.020572451 42:0.017889088 43:0.035330948 44:0.021019678 48:0.0017889088 49:0.012075134 50:0.016100179 51:0.00044722719 52:0.025044723 54:0.0031305903 55:0.00044722719 56:0.0013416816 57:0.00044722719 58:0.35867621 59:0.013416816 
1 1:0.0017889088 2:0.0013416816 3:0.00044722719 4:0.0017889088 6:0.0044722719 8:0.0084973166 10:0.0017889088 11:0.00089445438 15:0.0017889088 16:0.002236136 17:0.00089445438 18:0.021914132 19:0.0044722719 20:0.0053667263 22:0.0084973166 23:0.0053667263 24:0.071109123 25:0.0044722719 26:0.021466905 27:0.023255814 28:0.011627907 29:0.002236136 30:0.002236136 31:0.014758497 32:0.063506261 33:0.084525939 34:0.077370304 35:0.012075134 36:0.046511628 37:0.0013416816 38:0.016547406 39:0.0067084079 40:0.058139535 41:0.059033989 42:0.036225403 43:0.012075134 44:0.013416816 45:0.0026833631 46:0.002236136 47:0.0044722719 48:0.0089445438 49:0.023703041 50:0.03667263 52:0.020125224 53:0.00089445438 54:0.0076028623 56:0.0089445438 57:0.00089445438 58:0.15161002 59:0.021019678 
1 2:0.0017889088 4:0.00044722719 6:0.0017889088 8:0.0026833631 10:0.00089445438 15:0.00044722719 16:0.00044722719 17:0.0013416816 18:0.034883721 19:0.0035778175 20:0.0017889088 22:0.0026833631 23:0.0017889088 24:0.056797853 25:0.0031305903 26:0.043828265 27:0.021914132 28:0.0049194991 29:0.00044722719 30:0.002236136 31:0.0049194991 32:0.031305903 33:0.057245081 34:0.097048301 35:0.021914132 36:0.030411449 37:0.00089445438 38:0.0031305903 39:0.002236136 40:0.02862254 41:0.041144902 42:0.020572451 43:0.011627907 44:0.01118068 45:0.0026833631 46:0.00044722719 47:0.0017889088 48:0.002236136 49:0.020125224 50:0.018336315 51:0.00089445438 52:0.010286225 53:0.00044722719 54:0.00044722719 55:0.00089445438 56:0.0044722719 58:0.37567084 59:0.01118068 
1 1:0.0017889088 2:0.0017889088 4:0.0031305903 6:0.0017889088 8:0.0076028623 10:0.0013416816 13:0.00089445438 14:0.00089445438 15:0.0071556351 16:0.0017889088 17:0.0031305903 18:0.048300537 19:0.0013416816 20:0.0080500894 21:0.00044722719 22:0.0053667263 23:0.0049194991 24:0.071556351 25:0.0067084079 26:0.068872987 27:0.016100179 28:0.0076028623 29:0.002236136 30:0.0013416816 31:0.013416816 32:0.10644007 33:0.076028623 34:0.11135957 35:0.028175313 36:0.022808587 37:0.002236136 38:0.0035778175 39:0.0017889088 40:0.05411449 41:0.060822898 42:0.017889088 43:0.022808587 44:0.01431127 45:0.0053667263 46:0.0035778175 47:0.002236136 48:0.0031305903 49:0.030411449 50:0.019230769 51:0.0013416816 52:0.027280859 54:0.0044722719 55:0.00044722719 56:0.0044722719 57:0.00044722719 58:0.069320215 59:0.018336315 
1 1:0.0017889088 2:0.0035778175 4:0.002236136 6:0.0049194991 8:0.0071556351 10:0.0013416816 13:0.00044722719 14:0.002236136 15:0.0026833631 16:0.0026833631 17:0.0013416816 18:0.034436494 19:0.002236136 20:0.0067084079 21:0.0013416816 22:0.011627907 23:0.0080500894 24:0.072003578 25:0.0017889088 26:0.03980322 27:0.026833631 28:0.0040250447 29:0.002236136 30:0.0026833631 31:0.019230769 32:0.12254025 33:0.058139535 34:0.078264758 35:0.041144902 36:0.02549195 37:0.0017889088 38:0.01431127 39:0.0044722719 40:0.088103757 41:0.072450805 42:0.021466905 43:0.016994633 44:0.011627907 45:0.0031305903 46:0.0017889088 47:0.0040250447 48:0.0058139535 49:0.029516995 50:0.016994633 51:0.00044722719 52:0.018336315 54:0.0044722719 55:0.00089445438 56:0.0049194991 57:0.00089445438 58:0.069767442 59:0.018783542 
1 1:0.0035778175 2:0.002236136 4:0.002236136 6:0.0049194991 8:0.0035778175 10:0.00044722719 11:0.00044722719 12:0.00044722719 13:0.00089445438 14:0.00044722719 15:0.002236136 16:0.00044722719 18:0.029516995 19:0.0026833631 20:0.009391771 21:0.00089445438 22:0.017889088 23:0.01431127 24:0.040697674 25:0.00089445438 26:0.012075134 27:0.030411449 28:0.0044722719 29:0.0026833631 30:0.010733453 31:0.069320215 32:0.11851521 33:0.015652952 34:0.049642218 35:0.014758497 36:0.044275492 37:0.0053667263 38:0.021914132 39:0.013416816 40:0.15071556 41:0.024597496 42:0.013416816 43:0.0098389982 44:0.010286225 45:0.0044722719 46:0.0040250447 47:0.0071556351 48:0.010286225 49:0.023255814 50:0.020572451 51:0.00044722719 52:0.023255814 53:0.00044722719 54:0.0084973166 55:0.00044722719 56:0.0076028623 58:0.10509839 59:0.024150268 
1 1:0.0026833631 2:0.0031305903 4:0.0017889088 6:0.0035778175 7:0.00044722719 8:0.0058139535 10:0.00044722719 13:0.00044722719 14:0.00044722719 15:0.0026833631 16:0.0013416816 17:0.00044722719 18:0.04293381 19:0.00089445438 20:0.0053667263 21:0.0017889088 22:0.0098389982 23:0.010286225 24:0.048300537 25:0.002236136 26:0.027280859 27:0.029069767 28:0.0067084079 29:0.0062611807 30:0.0031305903 31:0.034883721 32:0.12254025 33:0.031753131 34:0.077817531 35:0.020125224 36:0.041592129 37:0.0017889088 38:0.011627907 39:0.0049194991 40:0.11851521 41:0.041144902 42:0.024150268 43:0.01431127 44:0.015652952 45:0.0035778175 46:0.0031305903 47:0.0035778175 48:0.0084973166 49:0.029516995 50:0.02236136 51:0.0013416816 52:0.026833631 54:0.0044722719 55:0.0017889088 56:0.0067084079 57:0.0013416816 58:0.085867621 59:0.022808587 
1 1:0.0017889088 2:0.0026833631 4:0.00089445438 6:0.0031305903 8:0.0058139535 10:0.0017889088 11:0.00044722719 12:0.00044722719 13:0.00044722719 14:0.00044722719 15:0.002236136 16:0.00089445438 17:0.0013416816 18:0.038461538 19:0.0026833631 20:0.0098389982 21:0.00044722719 22:0.0071556351 23:0.0067084079 24:0.06216458 25:0.0062611807 26:0.033542039 27:0.037567084 28:0.0040250447 29:0.0076028623 30:0.0026833631 31:0.009391771 32:0.089892665 33:0.048747764 34:0.092576029 35:0.054561717 36:0.038908766 37:0.0044722719 38:0.013864043 39:0.0067084079 40:0.082289803 41:0.060822898 42:0.024597496 43:0.019230769 44:0.023255814 45:0.0062611807 46:0.0049194991 47:0.0035778175 48:0.0062611807 49:0.029516995 50:0.029964222 51:0.002236136 52:0.02236136 53:0.00089445438 54:0.0067084079 55:0.00044722719 56:0.0058139535 57:0.0013416816 58:0.046064401 59:0.022808587 
1 1:0.00044722719 2:0.00089445438 6:0.002236136 8:0.0031305903 15:0.00044722719 16:0.00044722719 18:0.037567084 19:0.00089445438 20:0.00089445438 22:0.0026833631 23:0.00089445438 24:0.045617174 25:0.0053667263 26:0.049642218 27:0.018336315 28:0.0013416816 31:0.0017889088 32:0.022808587 33:0.057692308 34:0.11896243 35:0.01744186 36:0.026386404 38:0.0013416816 39:0.0017889088 40:0.01431127 41:0.030858676 42:0.022808587 43:0.015652952 44:0.010733453 47:0.00044722719 48:0.00044722719 49:0.01118068 50:0.024150268 51:0.0017889088 52:0.014758497 54:0.00089445438 56:0.00089445438 58:0.42486583 59:0.0071556351 
1 1:0.00044722719 2:0.002236136 4:0.0013416816 6:0.0035778175 8:0.0040250447 10:0.00089445438 11:0.00044722719 14:0.00044722719 15:0.00089445438 16:0.00089445438 18:0.032647585 19:0.0026833631 20:0.0062611807 21:0.0013416816 22:0.0098389982 23:0.0071556351 24:0.063953488 25:0.0026833631 26:0.033094812 27:0.033094812 28:0.0058139535 29:0.0071556351 30:0.0035778175 31:0.022808587 32:0.1019678 33:0.0509839 34:0.085420394 35:0.031753131 36:0.032647585 37:0.0044722719 38:0.0084973166 39:0.0071556351 40:0.11806798 41:0.055456172 42:0.023703041 43:0.020572451 44:0.019230769 45:0.0058139535 46:0.0058139535 47:0.0049194991 48:0.0080500894 49:0.029964222 50:0.030858676 52:0.015652952 54:0.0053667263 56:0.0089445438 57:0.0013416816 58:0.061270125 59:0.014758497 
1 1:0.0013416816 2:0.0040250447 4:0.0035778175 6:0.0049194991 8:0.0076028623 10:0.0031305903 12:0.00089445438 13:0.00044722719 14:0.002236136 15:0.0013416816 16:0.0017889088 17:0.0013416816 18:0.035778175 19:0.0013416816 20:0.0080500894 22:0.0067084079 23:0.009391771 24:0.062611807 25:0.002236136 26:0.032200358 27:0.029069767 28:0.0062611807 29:0.0084973166 30:0.0044722719 31:0.020572451 32:0.11583184 33:0.050536673 34:0.066636852 35:0.034883721 36:0.021019678 37:0.0035778175 38:0.016994633 39:0.0035778175 40:0.10912343 41:0.081395349 42:0.02236136 43:0.01431127 44:0.014758497 45:0.0026833631 46:0.0035778175 47:0.0049194991 48:0.0071556351 49:0.030411449 50:0.023703041 51:0.0017889088 52:0.014758497 53:0.0013416816 54:0.0089445438 55:0.00044722719 56:0.0058139535 57:0.0017889088 58:0.055903399 59:0.021914132 
1 1:0.0013416816 2:0.00089445438 4:0.00089445438 5:0.00044722719 6:0.0017889088 8:0.0067084079 10:0.00044722719 13:0.00044722719 14:0.0013416816 15:0.0017889088 16:0.0058139535 17:0.002236136 18:0.018783542 20:0.0058139535 21:0.00089445438 22:0.0084973166 23:0.0044722719 24:0.07647585 25:0.010733453 26:0.031305903 27:0.0017889088 28:0.00044722719 29:0.00089445438 30:0.002236136 31:0.012522361 32:0.05411449 33:0.11225403 34:0.21422182 35:0.0013416816 36:0.010733453 37:0.00044722719 38:0.0031305903 39:0.0013416816 40:0.048747764 41:0.047853309 42:0.045169946 43:0.0089445438 44:0.00089445438 47:0.002236136 48:0.0040250447 49:0.018336315 50:0.057245081 51:0.0017889088 52:0.020125224 54:0.0058139535 56:0.0031305903 57:0.00044722719 58:0.11851521 59:0.020125224 
1 1:0.002236136 2:0.0031305903 4:0.0040250447 6:0.0026833631 8:0.0040250447 12:0.00089445438 14:0.00044722719 15:0.0026833631 16:0.00044722719 17:0.00044722719 18:0.029964222 19:0.0013416816 20:0.0098389982 21:0.0013416816 22:0.020572451 23:0.016547406 24:0.036225403 25:0.0017889088 26:0.0084973166 27:0.035330948 28:0.0089445438 29:0.010286225 30:0.0076028623 31:0.069767442 32:0.091681574 33:0.019677996 34:0.05411449 35:0.023255814 36:0.046064401 37:0.0026833631 38:0.025939177 39:0.0080500894 40:0.17039356 41:0.01744186 42:0.01744186 43:0.012075134 44:0.015652952 45:0.0076028623 46:0.0076028623 47:0.0053667263 48:0.010286225 49:0.018783542 50:0.023255814 52:0.021019678 53:0.0017889088 54:0.0071556351 55:0.00089445438 56:0.011627907 57:0.0040250447 58:0.075134168 59:0.021914132 
1 1:0.0017889088 2:0.0040250447 4:0.002236136 6:0.0049194991 8:0.0049194991 11:0.0017889088 12:0.00044722719 14:0.00044722719 15:0.00044722719 16:0.00044722719 18:0.02236136 19:0.002236136 20:0.016994633 21:0.0013416816 22:0.02549195 23:0.0080500894 24:0.030858676 25:0.002236136 26:0.0044722719 27:0.055008945 28:0.021019678 29:0.012075134 30:0.012075134 31:0.058586762 32:0.066636852 33:0.012969589 34:0.029964222 35:0.013864043 36:0.06529517 37:0.012075134 38:0.016994633 39:0.016547406 40:0.13774597 41:0.02862254 42:0.013416816 43:0.009391771 44:0.013416816 45:0.011627907 46:0.0098389982 47:0.009391771 48:0.021914132 49:0.026386404 50:0.018783542 51:0.0017889088 52:0.014758497 53:0.0013416816 54:0.01118068 55:0.00044722719 56:0.013864043 57:0.0017889088 58:0.092128801 59:0.033542039 
1 1:0.00089445438 2:0.0040250447 4:0.00089445438 6:0.0053667263 8:0.0049194991 10:0.0013416816 11:0.00044722719 12:0.00044722719 14:0.0013416816 15:0.00044722719 16:0.00089445438 17:0.00044722719 18:0.032200358 19:0.0026833631 20:0.0071556351 21:0.00089445438 22:0.01118068 23:0.0098389982 24:0.052772809 25:0.0040250447 26:0.029964222 27:0.029964222 28:0.0053667263 29:0.0049194991 30:0.0076028623 31:0.021466905 32:0.11493739 33:0.038014311 34:0.086762075 35:0.025939177 36:0.049642218 37:0.002236136 38:0.01431127 39:0.0071556351 40:0.1167263 41:0.045169946 42:0.022808587 43:0.01744186 44:0.015652952 45:0.0053667263 46:0.0049194991 47:0.0053667263 48:0.010286225 49:0.031305903 50:0.021466905 51:0.00089445438 52:0.019230769 54:0.0071556351 56:0.0053667263 57:0.00044722719 58:0.066189624 59:0.023703041 
1 1:0.0017889088 2:0.002236136 4:0.0017889088 6:0.0031305903 8:0.0044722719 12:0.00044722719 14:0.00089445438 15:0.0017889088 16:0.0013416816 17:0.00089445438 18:0.04293381 19:0.0013416816 20:0.0044722719 21:0.00044722719 22:0.01118068 23:0.0098389982 24:0.066636852 25:0.0067084079 26:0.043381038 27:0.032200358 28:0.0035778175 29:0.0040250447 30:0.002236136 31:0.010733453 32:0.097942755 33:0.058139535 34:0.09078712 35:0.050536673 36:0.025939177 37:0.002236136 38:0.01431127 39:0.0031305903 40:0.090339893 41:0.072003578 42:0.021914132 43:0.018336315 44:0.017889088 45:0.0017889088 46:0.0040250447 47:0.0035778175 48:0.0053667263 49:0.026833631 50:0.01744186 52:0.021914132 53:0.0013416816 54:0.0067084079 55:0.00044722719 56:0.0058139535 57:0.00089445438 58:0.059033989 59:0.022808587 
1 1:0.0044722719 2:0.002236136 4:0.0031305903 6:0.0035778175 8:0.0026833631 10:0.0017889088 11:0.00089445438 13:0.0013416816 14:0.002236136 15:0.0031305903 16:0.00044722719 17:0.00044722719 18:0.030858676 19:0.0013416816 20:0.019677996 21:0.0017889088 22:0.036225403 23:0.011627907 24:0.027280859 26:0.002236136 27:0.030858676 28:0.0084973166 29:0.012969589 30:0.016994633 31:0.063059034 32:0.051878354 33:0.0053667263 34:0.024150268 35:0.012075134 36:0.085867621 37:0.013416816 38:0.02862254 39:0.014758497 40:0.14579606 41:0.015205725 42:0.0076028623 43:0.0058139535 44:0.014758497 45:0.009391771 46:0.0053667263 47:0.009391771 48:0.020572451 49:0.012969589 50:0.019677996 51:0.0013416816 52:0.029069767 53:0.00089445438 54:0.009391771 55:0.002236136 56:0.015652952 58:0.12119857 59:0.027728086 
1 1:0.0013416816 2:0.002236136 4:0.002236136 6:0.0035778175 7:0.00044722719 8:0.0067084079 10:0.00044722719 12:0.002236136 13:0.0013416816 14:0.0026833631 15:0.0026833631 16:0.002236136 17:0.0017889088 18:0.0080500894 20:0.0031305903 21:0.00089445438 22:0.0076028623 23:0.0067084079 24:0.078264758 25:0.012075134 26:0.029516995 27:0.002236136 28:0.00089445438 29:0.0031305903 30:0.0035778175 31:0.010286225 32:0.080948122 33:0.12880143 34:0.19454383 35:0.0026833631 36:0.0044722719 37:0.0013416816 38:0.0080500894 39:0.0044722719 40:0.055903399 41:0.066636852 42:0.048300537 43:0.0098389982 44:0.0026833631 45:0.00044722719 46:0.00089445438 47:0.0053667263 48:0.0049194991 49:0.026386404 50:0.047853309 51:0.00089445438 52:0.009391771 53:0.00089445438 54:0.0026833631 55:0.00044722719 56:0.0040250447 57:0.00044722719 58:0.066189624 59:0.024150268 
1 1:0.00044722719 2:0.0031305903 6:0.0031305903 8:0.002236136 10:0.00044722719 11:0.00044722719 15:0.0026833631 16:0.0017889088 18:0.041592129 19:0.00044722719 20:0.0058139535 21:0.00089445438 22:0.012969589 23:0.01118068 24:0.055456172 25:0.0035778175 26:0.036225403 27:0.029516995 28:0.0058139535 29:0.0035778175 30:0.0044722719 31:0.022808587 32:0.11762075 33:0.034436494 34:0.092128801 35:0.028175313 36:0.040697674 37:0.00089445438 38:0.014758497 39:0.0062611807 40:0.10107335 41:0.046511628 42:0.025044723 43:0.021019678 44:0.02236136 45:0.0058139535 46:0.0044722719 47:0.0044722719 48:0.0089445438 49:0.031753131 50:0.024597496 51:0.00044722719 52:0.022808587 53:0.00044722719 54:0.0049194991 56:0.0062611807 57:0.00044722719 58:0.064400716 59:0.020572451 
1 1:0.0071556351 2:0.0013416816 4:0.00089445438 6:0.0076028623 8:0.0058139535 10:0.00044722719 12:0.00089445438 13:0.0013416816 14:0.0035778175 15:0.0035778175 16:0.0040250447 17:0.002236136 18:0.009391771 20:0.0035778175 21:0.0013416816 22:0.015205725 23:0.016547406 24:0.081842576 25:0.0031305903 26:0.010733453 27:0.00044722719 28:0.002236136 29:0.0044722719 30:0.0017889088 31:0.031753131 32:0.13864043 33:0.057692308 34:0.082289803 35:0.002236136 36:0.0053667263 37:0.0013416816 38:0.0076028623 39:0.0040250447 40:0.14445438 41:0.066636852 42:0.033542039 43:0.0067084079 44:0.0013416816 45:0.00089445438 46:0.0049194991 47:0.0035778175 48:0.0084973166 49:0.042486583 50:0.034436494 51:0.0013416816 52:0.0080500894 54:0.0026833631 55:0.00089445438 56:0.0071556351 57:0.0031305903 58:0.077817531 59:0.030858676 
1 1:0.002236136 2:0.0031305903 4:0.0040250447 6:0.0071556351 8:0.0044722719 10:0.00089445438 11:0.00089445438 14:0.00089445438 15:0.00089445438 16:0.00044722719 17:0.00044722719 18:0.037119857 19:0.002236136 20:0.013416816 22:0.016100179 23:0.012522361 24:0.037567084 25:0.0017889088 26:0.013864043 27:0.030411449 28:0.010733453 29:0.0062611807 30:0.010286225 31:0.064400716 32:0.078711986 33:0.021019678 34:0.0509839 35:0.021019678 36:0.046958855 37:0.009391771 38:0.018783542 39:0.0089445438 40:0.14758497 41:0.019677996 42:0.017889088 43:0.017889088 44:0.018783542 45:0.0098389982 46:0.0058139535 47:0.0044722719 48:0.012969589 49:0.02862254 50:0.027280859 51:0.00089445438 52:0.02236136 53:0.00089445438 54:0.0076028623 55:0.0017889088 56:0.010286225 57:0.0026833631 58:0.078264758 59:0.026386404 
1 1:0.0013416816 2:0.0017889088 4:0.00044722719 6:0.0013416816 8:0.0053667263 10:0.002236136 14:0.00044722719 15:0.0031305903 16:0.00089445438 17:0.0013416816 18:0.032647585 19:0.0017889088 20:0.0044722719 22:0.002236136 23:0.0017889088 24:0.051878354 25:0.0062611807 26:0.051431127 27:0.01744186 28:0.0071556351 29:0.00044722719 30:0.0013416816 31:0.0080500894 32:0.031753131 33:0.075134168 34:0.10420394 35:0.021914132 36:0.022808587 37:0.0013416816 38:0.0017889088 39:0.00089445438 40:0.035778175 41:0.03667263 42:0.02549195 43:0.016547406 44:0.010733453 45:0.0031305903 46:0.002236136 48:0.002236136 49:0.020125224 50:0.020572451 51:0.0013416816 52:0.012969589 53:0.00089445438 54:0.0026833631 56:0.0026833631 57:0.0013416816 58:0.32647585 59:0.012969589 
1 1:0.00044722719 2:0.0040250447 4:0.002236136 6:0.002236136 8:0.0044722719 10:0.0013416816 14:0.0013416816 15:0.00089445438 16:0.0013416816 17:0.00089445438 18:0.04293381 19:0.0035778175 20:0.0067084079 22:0.0026833631 23:0.0053667263 24:0.066189624 25:0.0044722719 26:0.045617174 27:0.042039356 28:0.0076028623 29:0.00089445438 30:0.0026833631 31:0.0076028623 32:0.092576029 33:0.057692308 34:0.074239714 35:0.044722719 36:0.044722719 37:0.0053667263 38:0.0089445438 39:0.002236136 40:0.086762075 41:0.042486583 42:0.037567084 43:0.027280859 44:0.016994633 45:0.0058139535 46:0.002236136 47:0.0026833631 48:0.0031305903 49:0.035778175 50:0.032200358 51:0.0013416816 52:0.018336315 53:0.0013416816 54:0.0053667263 55:0.00044722719 56:0.0040250447 57:0.00044722719 58:0.065742397 59:0.021914132 
1 1:0.0013416816 2:0.0026833631 4:0.00044722719 6:0.0026833631 8:0.0044722719 10:0.00089445438 15:0.002236136 16:0.0017889088 17:0.0017889088 18:0.046958855 19:0.0035778175 20:0.0076028623 22:0.0080500894 23:0.0067084079 24:0.056350626 25:0.0058139535 26:0.029069767 27:0.04293381 28:0.0062611807 29:0.0044722719 30:0.0031305903 31:0.015205725 32:0.072898032 33:0.063506261 34:0.083184258 35:0.030858676 36:0.041592129 37:0.0058139535 38:0.0084973166 39:0.0044722719 40:0.078264758 41:0.081842576 42:0.034436494 43:0.020125224 44:0.018783542 45:0.0062611807 46:0.0040250447 47:0.0026833631 48:0.0080500894 49:0.025939177 50:0.029069767 51:0.0013416816 52:0.021466905 53:0.0013416816 54:0.0058139535 55:0.00089445438 56:0.0058139535 57:0.0017889088 58:0.06529517 59:0.021466905 
1 1:0.0076028623 2:0.00089445438 4:0.0071556351 6:0.0067084079 8:0.0058139535 10:0.00044722719 12:0.00044722719 13:0.00089445438 14:0.0017889088 15:0.0026833631 16:0.0013416816 17:0.00089445438 18:0.03980322 19:0.0017889088 20:0.0067084079 22:0.011627907 23:0.012969589 24:0.047853309 25:0.0031305903 26:0.039355993 27:0.02236136 28:0.0035778175 29:0.0062611807 30:0.0031305903 31:0.03667263 32:0.13014311 33:0.024597496 34:0.060822898 35:0.024597496 36:0.031305903 37:0.0017889088 38:0.009391771 39:0.012969589 40:0.11851521 41:0.042039356 42:0.01431127 43:0.019230769 44:0.01118068 45:0.0013416816 46:0.0031305903 47:0.0044722719 48:0.0062611807 49:0.02862254 50:0.017889088 51:0.0026833631 52:0.023255814 54:0.0062611807 55:0.002236136 56:0.0026833631 57:0.0017889088 58:0.10152057 59:0.025044723 
1 1:0.00089445438 2:0.00089445438 4:0.00044722719 6:0.0013416816 8:0.0062611807 10:0.0013416816 11:0.00044722719 12:0.00044722719 13:0.00044722719 14:0.00044722719 15:0.00089445438 16:0.0017889088 17:0.00044722719 18:0.042486583 19:0.0013416816 20:0.0049194991 21:0.0013416816 22:0.0049194991 23:0.0044722719 24:0.067978533 25:0.0089445438 26:0.0509839 27:0.023255814 28:0.0040250447 29:0.0049194991 30:0.0013416816 31:0.0035778175 32:0.046064401 33:0.067531306 34:0.11717352 35:0.021466905 36:0.018783542 37:0.0040250447 38:0.0071556351 39:0.00089445438 40:0.033989267 41:0.03980322 42:0.03667263 43:0.017889088 44:0.013864043 45:0.0044722719 46:0.0017889088 47:0.002236136 48:0.0017889088 49:0.025939177 50:0.025939177 51:0.00044722719 52:0.020125224 53:0.00089445438 54:0.002236136 56:0.0017889088 57:0.0013416816 58:0.23166369 59:0.013416816 
1 1:0.00089445438 2:0.00089445438 4:0.00044722719 6:0.00044722719 8:0.0089445438 10:0.00044722719 15:0.0013416816 16:0.0017889088 17:0.0017889088 18:0.032200358 20:0.00089445438 22:0.00044722719 23:0.00044722719 24:0.044275492 25:0.0053667263 26:0.050089445 27:0.021019678 31:0.0013416816 32:0.029964222 33:0.042039356 34:0.11270125 35:0.017889088 36:0.016547406 38:0.00089445438 40:0.017889088 41:0.035778175 42:0.023703041 43:0.020125224 44:0.012075134 47:0.00044722719 48:0.00089445438 49:0.013864043 50:0.020125224 51:0.0017889088 52:0.015205725 54:0.0013416816 56:0.00044722719 57:0.00044722719 58:0.43112701 59:0.011627907 
1 1:0.0035778175 2:0.0067084079 4:0.0053667263 6:0.0035778175 8:0.0080500894 10:0.002236136 11:0.0013416816 13:0.00089445438 14:0.00044722719 17:0.0013416816 18:0.026386404 19:0.013864043 20:0.027280859 21:0.0013416816 22:0.013416816 23:0.0017889088 24:0.033989267 25:0.002236136 26:0.0076028623 27:0.070661896 28:0.080053667 29:0.009391771 30:0.011627907 31:0.013416816 32:0.038014311 33:0.0017889088 34:0.023703041 35:0.016994633 36:0.15116279 37:0.015652952 38:0.023255814 39:0.009391771 40:0.067978533 41:0.0089445438 42:0.0089445438 43:0.009391771 44:0.018783542 45:0.021019678 46:0.0058139535 47:0.0098389982 48:0.0076028623 49:0.015205725 50:0.029069767 51:0.0017889088 52:0.018783542 54:0.0076028623 55:0.00044722719 56:0.012075134 57:0.00089445438 58:0.099284436 59:0.029964222 
1 1:0.0017889088 2:0.0026833631 4:0.002236136 6:0.0026833631 8:0.002236136 10:0.0013416816 13:0.00044722719 15:0.0017889088 17:0.00089445438 18:0.040697674 19:0.0071556351 20:0.01118068 21:0.00044722719 22:0.0089445438 23:0.0040250447 24:0.038014311 25:0.0017889088 26:0.032647585 27:0.076923077 28:0.02862254 29:0.0076028623 30:0.0053667263 31:0.012969589 32:0.04293381 33:0.024597496 34:0.058139535 35:0.045617174 36:0.12611807 37:0.0053667263 38:0.018783542 39:0.010286225 40:0.071556351 41:0.033989267 42:0.019230769 43:0.023255814 44:0.035778175 45:0.0084973166 46:0.002236136 47:0.0058139535 48:0.009391771 49:0.019677996 50:0.023255814 51:0.0026833631 52:0.019677996 53:0.0031305903 54:0.0067084079 56:0.0053667263 57:0.0013416816 58:0.067531306 59:0.016547406 
1 1:0.0076028623 2:0.0058139535 4:0.0053667263 6:0.0089445438 8:0.0089445438 10:0.0013416816 12:0.002236136 13:0.0013416816 14:0.0026833631 15:0.0035778175 16:0.00044722719 17:0.0026833631 18:0.027728086 19:0.0026833631 20:0.026386404 21:0.00089445438 22:0.035330948 23:0.0062611807 24:0.023703041 25:0.00044722719 26:0.0049194991 27:0.013864043 28:0.0053667263 29:0.012075134 30:0.015205725 31:0.019677996 32:0.017889088 33:0.0035778175 34:0.02862254 35:0.0080500894 36:0.038461538 37:0.0053667263 38:0.048300537 39:0.010286225 40:0.097495528 41:0.0035778175 42:0.0044722719 43:0.0031305903 44:0.0071556351 45:0.0053667263 46:0.0071556351 47:0.010733453 48:0.0098389982 49:0.0040250447 50:0.015205725 51:0.00044722719 52:0.026386404 53:0.00089445438 54:0.019230769 55:0.00089445438 56:0.020125224 57:0.00089445438 58:0.31171735 59:0.045169946 
1 1:0.0076028623 2:0.0080500894 4:0.0040250447 6:0.0071556351 8:0.0098389982 10:0.0058139535 11:0.0026833631 13:0.002236136 14:0.0031305903 15:0.0013416816 16:0.0017889088 17:0.0035778175 18:0.075134168 19:0.0044722719 20:0.013416816 21:0.00089445438 22:0.012075134 23:0.00044722719 24:0.038461538 25:0.0067084079 26:0.063059034 27:0.059481216 28:0.0089445438 29:0.0026833631 30:0.0026833631 31:0.0044722719 32:0.0071556351 33:0.045169946 34:0.093470483 35:0.049194991 36:0.049194991 37:0.0013416816 38:0.01431127 39:0.0040250447 40:0.013416816 41:0.012522361 42:0.01118068 43:0.029069767 44:0.021914132 45:0.0026833631 46:0.0017889088 47:0.0013416816 48:0.002236136 49:0.0058139535 50:0.022808587 51:0.0013416816 52:0.018783542 53:0.0017889088 54:0.0071556351 55:0.0026833631 56:0.0080500894 57:0.0017889088 58:0.17039356 59:0.049194991 
1 1:0.00044722719 2:0.0053667263 4:0.0013416816 6:0.0053667263 8:0.0017889088 10:0.0013416816 11:0.0013416816 14:0.00044722719 15:0.00044722719 17:0.00044722719 18:0.029964222 19:0.016994633 20:0.030411449 21:0.00044722719 22:0.01744186 23:0.0044722719 24:0.018783542 25:0.00044722719 26:0.013864043 27:0.076923077 28:0.064847943 29:0.010286225 30:0.013416816 31:0.01744186 32:0.035330948 33:0.0071556351 34:0.032647585 35:0.018783542 36:0.1627907 37:0.018336315 38:0.020572451 39:0.016100179 40:0.064400716 41:0.012522361 42:0.0084973166 43:0.016100179 44:0.026386404 45:0.019230769 46:0.0071556351 47:0.0062611807 48:0.013416816 49:0.016994633 50:0.016994633 51:0.00044722719 52:0.020125224 53:0.0035778175 54:0.015652952 55:0.00044722719 56:0.011627907 57:0.00089445438 58:0.073345259 59:0.020125224 
1 1:0.013864043 2:0.0031305903 4:0.0080500894 6:0.0062611807 8:0.012075134 9:0.00044722719 10:0.0035778175 11:0.0049194991 12:0.0013416816 13:0.0026833631 14:0.0017889088 15:0.00089445438 16:0.0031305903 17:0.0031305903 18:0.023255814 19:0.018336315 20:0.02236136 21:0.002236136 22:0.011627907 23:0.0035778175 24:0.030858676 25:0.0026833631 26:0.01431127 27:0.098389982 28:0.043381038 29:0.0089445438 30:0.0071556351 31:0.0084973166 32:0.020572451 33:0.011627907 34:0.040697674 35:0.019677996 36:0.10375671 37:0.01744186 38:0.013416816 39:0.0044722719 40:0.037567084 41:0.016994633 42:0.012522361 43:0.011627907 44:0.011627907 45:0.012969589 46:0.0067084079 47:0.0062611807 48:0.0062611807 49:0.01431127 50:0.02236136 51:0.002236136 52:0.0084973166 53:0.0026833631 54:0.0089445438 55:0.0026833631 56:0.0080500894 57:0.0013416816 58:0.16815742 59:0.045617174 
1 1:0.0026833631 2:0.0058139535 4:0.0026833631 6:0.0035778175 8:0.0040250447 10:0.002236136 11:0.00089445438 13:0.00044722719 14:0.00089445438 15:0.0013416816 16:0.00044722719 17:0.00044722719 18:0.019230769 19:0.0062611807 20:0.033989267 21:0.0017889088 22:0.029964222 23:0.0031305903 24:0.021019678 25:0.00089445438 26:0.0049194991 27:0.039355993 28:0.069767442 29:0.019230769 30:0.016100179 31:0.027728086 32:0.031753131 33:0.0062611807 34:0.027280859 35:0.0084973166 36:0.15384615 37:0.016994633 38:0.038014311 39:0.01431127 40:0.07647585 41:0.0084973166 42:0.0076028623 43:0.0089445438 44:0.012075134 45:0.018783542 46:0.0076028623 47:0.0080500894 48:0.016100179 49:0.013416816 50:0.020572451 52:0.017889088 53:0.00089445438 54:0.01744186 55:0.0013416816 56:0.012969589 57:0.002236136 58:0.10733453 59:0.025939177 
0.95110998742404707 1:0.00089445438 2:0.0058139535 4:0.002236136 6:0.0044722719 8:0.0044722719 10:0.00044722719 14:0.00044722719 16:0.00044722719 17:0.00044722719 18:0.049194991 19:0.0098389982 20:0.016994633 21:0.00089445438 22:0.013864043 23:0.0026833631 24:0.030411449 25:0.002236136 26:0.020572451 27:0.064847943 28:0.037567084 29:0.0040250447 30:0.0040250447 31:0.014758497 32:0.04293381 33:0.013864043 34:0.055903399 35:0.025044723 36:0.15384615 37:0.0080500894 38:0.015652952 39:0.0067084079 40:0.073792487 41:0.019677996 42:0.016100179 43:0.015205725 44:0.02549195 45:0.015205725 46:0.0076028623 47:0.0058139535 48:0.0071556351 49:0.015652952 50:0.016994633 51:0.00044722719 52:0.02862254 54:0.012522361 56:0.0076028623 57:0.00044722719 58:0.098389982 59:0.019677996 
1 1:0.00089445438 2:0.0040250447 4:0.00044722719 6:0.0031305903 8:0.002236136 10:0.0013416816 11:0.00089445438 13:0.00089445438 14:0.00044722719 15:0.00044722719 16:0.00089445438 17:0.00044722719 18:0.066189624 19:0.0089445438 20:0.009391771 22:0.0067084079 23:0.00089445438 24:0.046511628 25:0.0031305903 26:0.052772809 27:0.097495528 28:0.01744186 29:0.0067084079 30:0.0026833631 31:0.0031305903 32:0.034436494 33:0.041592129 34:0.08273703 35:0.077817531 36:0.088103757 37:0.0076028623 38:0.009391771 39:0.0013416816 40:0.03980322 41:0.029964222 42:0.023703041 43:0.027728086 44:0.026386404 45:0.0067084079 46:0.0035778175 47:0.0026833631 48:0.0035778175 49:0.016547406 50:0.019677996 51:0.00089445438 52:0.021914132 53:0.0017889088 54:0.0058139535 55:0.00089445438 56:0.0058139535 57:0.00044722719 58:0.064847943 59:0.016100179 
1 1:0.0031305903 2:0.0031305903 4:0.0013416816 6:0.0026833631 8:0.0071556351 10:0.0017889088 11:0.0013416816 12:0.00089445438 15:0.00089445438 16:0.0035778175 17:0.0017889088 18:0.056797853 19:0.0058139535 20:0.011627907 21:0.00044722719 22:0.0062611807 23:0.00089445438 24:0.04293381 25:0.0053667263 26:0.047853309 27:0.1265653 28:0.015205725 29:0.00089445438 30:0.0035778175 31:0.0026833631 32:0.019677996 33:0.063506261 34:0.10286225 35:0.053667263 36:0.086762075 37:0.0031305903 38:0.0098389982 39:0.0026833631 40:0.020572451 41:0.025939177 42:0.023255814 43:0.015652952 44:0.026386404 45:0.0053667263 46:0.0026833631 47:0.0013416816 48:0.0031305903 49:0.014758497 50:0.023703041 52:0.020572451 53:0.00044722719 54:0.0035778175 56:0.0058139535 57:0.00089445438 58:0.088998211 59:0.020125224 
1 1:0.0017889088 2:0.0035778175 4:0.00089445438 6:0.0035778175 8:0.0049194991 10:0.00089445438 11:0.00089445438 14:0.00044722719 15:0.00044722719 16:0.00044722719 17:0.00044722719 18:0.051431127 19:0.0044722719 20:0.0053667263 21:0.00044722719 22:0.0071556351 23:0.0044722719 24:0.049642218 25:0.0067084079 26:0.061270125 27:0.057245081 28:0.010733453 29:0.0013416816 30:0.0040250447 31:0.0071556351 32:0.072003578 33:0.0509839 34:0.079159213 35:0.042486583 36:0.077370304 37:0.0017889088 38:0.010733453 39:0.0035778175 40:0.054561717 41:0.052772809 42:0.022808587 43:0.029069767 44:0.030411449 45:0.0049194991 46:0.0017889088 47:0.0035778175 48:0.0053667263 49:0.029964222 50:0.016994633 51:0.0013416816 52:0.02862254 53:0.0013416816 54:0.0058139535 55:0.0013416816 56:0.0049194991 57:0.00044722719 58:0.057245081 59:0.018783542 
1 1:0.0044722719 2:0.0058139535 4:0.0040250447 6:0.0098389982 8:0.010286225 10:0.0049194991 11:0.0013416816 13:0.0013416816 14:0.0040250447 15:0.0035778175 16:0.00089445438 17:0.0017889088 18:0.041144902 19:0.002236136 20:0.016994633 21:0.00089445438 22:0.020125224 23:0.0067084079 24:0.030858676 26:0.0084973166 27:0.028175313 28:0.0044722719 29:0.0062611807 30:0.0067084079 31:0.017889088 32:0.023255814 33:0.0049194991 34:0.037567084 35:0.017889088 36:0.050089445 37:0.0031305903 38:0.029516995 39:0.0031305903 40:0.083631485 41:0.0049194991 42:0.0071556351 43:0.009391771 44:0.017889088 45:0.0058139535 46:0.0026833631 47:0.0026833631 48:0.0053667263 49:0.0089445438 50:0.016994633 51:0.00089445438 52:0.03667263 53:0.0026833631 54:0.01431127 55:0.0017889088 56:0.012522361 57:0.0013416816 58:0.30232558 59:0.049194991 
1 1:0.0026833631 2:0.0071556351 4:0.0026833631 6:0.0035778175 8:0.0013416816 10:0.00044722719 11:0.00089445438 12:0.00044722719 13:0.00044722719 14:0.00044722719 15:0.00089445438 16:0.00089445438 17:0.00044722719 18:0.024150268 19:0.0062611807 20:0.025939177 21:0.00044722719 22:0.015652952 23:0.0040250447 24:0.021914132 25:0.00089445438 26:0.016100179 27:0.046064401 28:0.053220036 29:0.012969589 30:0.0058139535 31:0.02549195 32:0.047406082 33:0.009391771 34:0.033542039 35:0.016547406 36:0.15339893 37:0.013416816 38:0.027280859 39:0.0084973166 40:0.080053667 41:0.01118068 42:0.012075134 43:0.013416816 44:0.019230769 45:0.023255814 46:0.012522361 47:0.0084973166 48:0.010286225 49:0.013416816 50:0.014758497 51:0.00044722719 52:0.020125224 53:0.00089445438 54:0.018336315 55:0.00044722719 56:0.012075134 57:0.0013416816 58:0.11314848 59:0.023703041 
