svm_type one_class
kernel_type rbf
gamma 101
nr_class 2
total_sv 794
rho 112.5393885284704
SV
1 1:0.0050223214 2:0.0076530612 4:0.0077327806 6:0.0062978316 7:7.9719388e-05 8:0.0062978316 9:7.9719388e-05 10:0.0016741071 11:0.0029496173 12:0.0015146684 13:0.0011957908 14:0.0018335459 15:0.00071747449 16:0.00071747449 17:0.001036352 18:0.030452806 19:0.0051817602 20:0.027423469 21:0.0022321429 22:0.022959184 23:0.0015943878 24:0.016103316 25:0.0033482143 26:0.013472577 27:0.018893495 28:0.044722577 29:0.011479592 30:0.01307398 31:0.01044324 32:0.0079719388 33:0.0080516582 34:0.029097577 35:0.011160714 36:0.074298469 37:0.012595663 38:0.037308673 39:0.0055006378 40:0.026865434 41:0.0031887755 42:0.0033482143 43:0.0057397959 44:0.0080516582 45:0.01307398 46:0.0068558673 47:0.0055803571 48:0.0055803571 49:0.0032684949 50:0.0097257653 51:0.0006377551 52:0.018574617 53:0.00087691327 54:0.01825574 55:0.0011160714 56:0.013153699 57:0.0006377551 58:0.36623087 59:0.037069515 
1 1:0.0045440051 2:0.0058195153 3:7.9719388e-05 4:0.0070153061 6:0.0032684949 8:0.0045440051 10:0.0015943878 11:0.0031090561 12:0.0012755102 13:0.001036352 14:0.0013552296 15:0.00095663265 16:0.00055803571 17:7.9719388e-05 18:0.019451531 19:0.0051817602 20:0.036192602 21:0.004942602 22:0.029416454 23:0.0027901786 24:0.011878189 25:0.0011160714 26:0.0068558673 27:0.025350765 28:0.061383929 29:0.029177296 30:0.028778699 31:0.027024872 32:0.018654337 33:0.012276786 34:0.016581633 35:0.006776148 36:0.079161352 37:0.025749362 38:0.058673469 39:0.014827806 40:0.050462372 41:0.0045440051 42:0.0027901786 43:0.0031887755 44:0.0069355867 45:0.014030612 46:0.012356505 47:0.010204082 48:0.0095663265 49:0.0041454082 50:0.0055803571 51:0.00055803571 52:0.011320153 53:0.00055803571 54:0.018574617 55:0.0006377551 56:0.013871173 57:0.00031887755 58:0.2471301 59:0.025749362 
1 1:0.0050223214 2:0.0077327806 4:0.0074139031 5:7.9719388e-05 6:0.0048628827 7:0.00015943878 8:0.0058195153 9:7.9719388e-05 10:0.0019929847 11:0.00390625 12:0.0019929847 13:0.0018335459 14:0.0015146684 15:0.0015943878 16:0.0011957908 17:0.0011957908 18:0.02216199 19:0.0078125 20:0.035794005 21:0.0042251276 22:0.029336735 23:0.0025510204 24:0.01434949 25:0.002869898 26:0.013871173 27:0.037388393 28:0.061065051 29:0.035794005 30:0.026945153 31:0.023676658 32:0.015864158 33:0.01817602 34:0.02216199 35:0.012037628 36:0.073820153 37:0.024234694 38:0.058115434 39:0.014508929 40:0.0390625 41:0.0055803571 42:0.0046237245 43:0.0058195153 44:0.0084502551 45:0.013392857 46:0.014110332 47:0.0096460459 48:0.0083705357 49:0.0044642857 50:0.0059789541 51:0.00071747449 52:0.0096460459 53:0.0015943878 54:0.017059949 55:0.0012755102 56:0.012755102 57:0.0006377551 58:0.20711097 59:0.026546556 
1 1:0.0035873724 2:0.0046237245 4:0.0069355867 6:0.0064572704 7:7.9719388e-05 8:0.0058195153 9:7.9719388e-05 10:0.00079719388 11:0.0011160714 12:0.002471301 13:0.002471301 14:0.0036670918 15:0.0019929847 16:0.0006377551 17:0.0011160714 18:0.011240434 19:0.0023118622 20:0.031329719 21:0.004942602 22:0.03770727 23:0.0058992347 24:0.019929847 25:0.0017538265 26:0.017139668 27:0.014748087 28:0.028539541 29:0.02861926 30:0.032126913 31:0.062978316 32:0.032764668 33:0.0079719388 34:0.018415179 35:0.0043048469 36:0.046316964 37:0.014429209 38:0.058035714 39:0.023596939 40:0.078523597 41:0.0066167092 42:0.0048628827 43:0.0042251276 44:0.0040656888 45:0.0090880102 46:0.011798469 47:0.013711735 48:0.016262755 49:0.006377551 50:0.011399872 51:0.0017538265 52:0.0057397959 53:0.00023915816 54:0.015465561 55:0.00071747449 56:0.018096301 57:0.0011160714 58:0.2134088 59:0.029575893 
1 1:0.0039859694 2:0.0042251276 3:7.9719388e-05 4:0.0071747449 6:0.0061383929 8:0.0042251276 10:0.00047831633 11:0.0011160714 12:0.0012755102 13:0.0018335459 14:0.00390625 15:0.001434949 16:0.0006377551 17:0.00047831633 18:0.0098054847 19:0.0029496173 20:0.030133929 21:0.0039859694 22:0.03252551 23:0.0056600765 24:0.019371811 25:0.0011160714 26:0.012356505 27:0.015465561 28:0.025829082 29:0.029496173 30:0.030373087 31:0.060586735 32:0.025111607 33:0.0055803571 34:0.015943878 35:0.0025510204 36:0.052455357 37:0.012834821 38:0.063297194 39:0.019929847 40:0.077646684 41:0.0066167092 42:0.0047034439 43:0.0031090561 44:0.0027901786 45:0.0095663265 46:0.0096460459 47:0.010841837 48:0.01426977 49:0.0089285714 50:0.011957908 51:0.00039859694 52:0.0066964286 53:0.00023915816 54:0.016103316 55:0.0011160714 56:0.017857143 57:0.0006377551 58:0.25438457 59:0.028140944 
1 1:0.0058195153 2:0.0047034439 4:0.0089285714 6:0.0074139031 8:0.0062181122 10:0.00087691327 11:0.001434949 12:0.0013552296 13:0.0011160714 14:0.0020727041 15:0.0019929847 16:0.0012755102 17:0.00079719388 18:0.015226403 19:0.0016741071 20:0.024633291 21:0.0031090561 22:0.031489158 23:0.004942602 24:0.030452806 25:0.0017538265 26:0.0081313776 27:0.0072544643 28:0.0097257653 29:0.010762117 30:0.013233418 31:0.044563138 32:0.020647321 33:0.01171875 34:0.02734375 35:0.0038265306 36:0.028858418 37:0.0083705357 38:0.040019133 39:0.014748087 40:0.074378189 41:0.012356505 42:0.0059789541 43:0.0026307398 44:0.002471301 45:0.0048628827 46:0.0058992347 47:0.0082110969 48:0.013552296 49:0.0094866071 50:0.018016582 51:0.0006377551 52:0.0085299745 53:0.00071747449 54:0.015864158 55:0.00095663265 56:0.020647321 57:0.001036352 58:0.3519611 59:0.035315689 
1 1:0.0035873724 2:0.0037468112 4:0.0074936224 6:0.0052614796 8:0.0041454082 10:0.0016741071 11:0.002869898 12:0.0018335459 13:0.0015943878 14:0.0022321429 15:0.0021524235 16:0.00039859694 17:0.00095663265 18:0.0096460459 19:0.0038265306 20:0.027264031 21:0.0051817602 22:0.025589923 23:0.0043048469 24:0.016741071 25:0.0011957908 26:0.0047831633 27:0.017538265 28:0.025350765 29:0.027822066 30:0.018335459 31:0.051419005 32:0.017219388 33:0.0079719388 34:0.01825574 35:0.0035076531 36:0.046396684 37:0.015146684 38:0.057079082 39:0.016820791 40:0.075095663 41:0.0072544643 42:0.0047831633 43:0.0027104592 44:0.0036670918 45:0.0089285714 46:0.010124362 47:0.011240434 48:0.012755102 49:0.0070153061 50:0.011399872 51:0.0006377551 52:0.0069355867 53:0.00071747449 54:0.013552296 55:0.001036352 56:0.017777423 57:0.00047831633 58:0.31664541 59:0.027901786 
1 1:0.0031887755 2:0.0046237245 4:0.0076530612 6:0.0068558673 8:0.0043845663 10:0.00071747449 11:0.0015943878 12:0.0015146684 13:0.0015943878 14:0.0019929847 15:0.0016741071 16:0.00071747449 17:0.00031887755 18:0.0085299745 19:0.0036670918 20:0.027822066 21:0.0043048469 22:0.031010842 23:0.0031090561 24:0.017857143 25:0.0015146684 26:0.0090880102 27:0.015066964 28:0.02606824 29:0.031090561 30:0.021922832 31:0.058035714 32:0.020567602 33:0.0080516582 34:0.019371811 35:0.001434949 36:0.043606505 37:0.014190051 38:0.058434311 39:0.018574617 40:0.075653699 41:0.0073341837 42:0.0045440051 43:0.0035076531 44:0.0034279337 45:0.010522959 46:0.011399872 47:0.01036352 48:0.013313138 49:0.0076530612 50:0.012276786 51:0.00039859694 52:0.0044642857 53:0.00055803571 54:0.014429209 55:0.0012755102 56:0.017617985 57:0.0006377551 58:0.29376594 59:0.026705995 
1 1:0.0047831633 2:0.0046237245 3:0.00015943878 4:0.0058992347 6:0.0070153061 8:0.0075733418 10:0.0012755102 11:0.0017538265 12:0.0013552296 13:0.00095663265 14:0.0034279337 15:0.0016741071 16:0.0019929847 17:0.0011957908 18:0.014508929 19:0.001036352 20:0.023278061 21:0.0027901786 22:0.029575893 23:0.0078922194 24:0.032764668 25:0.002869898 26:0.0096460459 27:0.0078922194 28:0.0089285714 29:0.010841837 30:0.014668367 31:0.049107143 32:0.026945153 33:0.014508929 34:0.02989477 35:0.005341199 36:0.023915816 37:0.0065369898 38:0.037149235 39:0.017857143 40:0.079639668 41:0.01299426 42:0.0064572704 43:0.0034279337 44:0.0026307398 45:0.0061383929 46:0.0062181122 47:0.0090082908 48:0.012675383 49:0.0093271684 50:0.018574617 51:0.0011160714 52:0.0068558673 53:0.00047831633 54:0.012515944 55:0.001036352 56:0.015625 57:0.0020727041 58:0.33490115 59:0.036670918 
1 1:0.012595663 2:0.0052614796 3:0.00047831633 4:0.012675383 5:7.9719388e-05 6:0.0047831633 8:0.006377551 9:0.00015943878 10:0.0035076531 11:0.0019132653 12:0.0048628827 13:0.0058195153 14:0.0035873724 15:0.0023915816 16:0.0012755102 17:0.0015943878 18:0.01434949 19:0.004942602 20:0.022720026 21:0.0058992347 22:0.023118622 23:0.0036670918 24:0.010204082 25:0.00095663265 26:0.0058992347 27:0.015784439 28:0.027822066 29:0.014030612 30:0.014748087 31:0.022401148 32:0.012436224 33:0.0050223214 34:0.012436224 35:0.0054209184 36:0.042889031 37:0.01299426 38:0.030851403 39:0.010522959 40:0.035634566 41:0.005341199 42:0.0032684949 43:0.0033482143 44:0.0064572704 45:0.0086894133 46:0.0070950255 47:0.0061383929 48:0.0086096939 49:0.0040656888 50:0.0042251276 51:0.0027104592 52:0.0066964286 53:0.0020727041 54:0.010921556 55:0.0035076531 56:0.011399872 57:0.00095663265 58:0.4453125 59:0.037069515 
1 1:0.015864158 2:0.006377551 3:0.00079719388 4:0.011240434 5:0.00031887755 6:0.0064572704 7:0.00015943878 8:0.0058195153 9:0.00031887755 10:0.0031887755 11:0.0030293367 12:0.0055006378 13:0.0059789541 14:0.0031887755 15:0.0016741071 16:0.0015146684 17:0.00095663265 18:0.012914541 19:0.0042251276 20:0.021683673 21:0.0052614796 22:0.021843112 23:0.0031887755 24:0.0098852041 25:0.00095663265 26:0.0046237245 27:0.012197066 28:0.028220663 29:0.012834821 30:0.013233418 31:0.016820791 32:0.008848852 33:0.0035076531 34:0.012276786 35:0.0041454082 36:0.042012117 37:0.011878189 38:0.029575893 39:0.0077327806 40:0.027264031 41:0.0030293367 42:0.0031887755 43:0.0025510204 44:0.0057397959 45:0.008848852 46:0.0062181122 47:0.0066167092 48:0.0094068878 49:0.0034279337 50:0.0051020408 51:0.001434949 52:0.0066167092 53:0.0016741071 54:0.0096460459 55:0.0041454082 56:0.0097257653 57:0.0018335459 58:0.4815051 59:0.041772959 
1 1:0.013552296 2:0.0080516582 3:7.9719388e-05 4:0.011160714 5:0.00039859694 6:0.0055006378 7:0.00015943878 8:0.0073341837 10:0.0025510204 11:0.002869898 12:0.0057397959 13:0.004942602 14:0.002471301 15:0.0026307398 16:0.00087691327 17:0.001434949 18:0.012914541 19:0.00390625 20:0.024952168 21:0.0055803571 22:0.020408163 23:0.0048628827 24:0.0099649235 25:0.0006377551 26:0.004942602 27:0.01690051 28:0.026945153 29:0.013153699 30:0.013313138 31:0.019052934 32:0.011399872 33:0.0051020408 34:0.012595663 35:0.0059789541 36:0.041772959 37:0.013711735 38:0.030452806 39:0.012914541 40:0.032047194 41:0.0046237245 42:0.0027104592 43:0.0038265306 44:0.0058992347 45:0.0097257653 46:0.0082908163 47:0.0080516582 48:0.0089285714 49:0.0052614796 50:0.0052614796 51:0.001434949 52:0.006776148 53:0.0021524235 54:0.010522959 55:0.0033482143 56:0.0094068878 57:0.0015146684 58:0.44618941 59:0.042809311 
1 1:0.012914541 2:0.0054209184 3:0.00039859694 4:0.011957908 5:0.00031887755 6:0.0059789541 7:7.9719388e-05 8:0.0070950255 9:0.00031887755 10:0.0027901786 11:0.0027901786 12:0.0051020408 13:0.006776148 14:0.0023118622 15:0.0026307398 16:0.00087691327 17:0.00087691327 18:0.014429209 19:0.0052614796 20:0.024553571 21:0.0045440051 22:0.023278061 23:0.0040656888 24:0.01036352 25:0.00079719388 26:0.0047034439 27:0.019371811 28:0.028300383 29:0.012834821 30:0.011240434 31:0.022321429 32:0.013233418 33:0.0043845663 34:0.012675383 35:0.006776148 36:0.043925383 37:0.013233418 38:0.031010842 39:0.010204082 40:0.033242985 41:0.0060586735 42:0.002471301 43:0.0037468112 44:0.0062978316 45:0.010682398 46:0.0081313776 47:0.0074936224 48:0.0098852041 49:0.0041454082 50:0.0059789541 51:0.0017538265 52:0.0065369898 53:0.0015146684 54:0.009247449 55:0.0039859694 56:0.011080995 57:0.0018335459 58:0.43670281 59:0.0390625 
1 1:0.013552296 2:0.0054209184 3:0.00039859694 4:0.011320153 5:0.00047831633 6:0.0066167092 7:7.9719388e-05 8:0.0058992347 9:0.00023915816 10:0.0031887755 11:0.0030293367 12:0.0047034439 13:0.0058992347 14:0.0035873724 15:0.0021524235 16:0.0013552296 17:0.00095663265 18:0.014030612 19:0.0047831633 20:0.023517219 21:0.0052614796 22:0.019770408 23:0.0039859694 24:0.012037628 25:0.0012755102 26:0.0039859694 27:0.016342474 28:0.027184311 29:0.017219388 30:0.013313138 31:0.020647321 32:0.01299426 33:0.0046237245 34:0.012595663 35:0.0069355867 36:0.040975765 37:0.013153699 38:0.032047194 39:0.012834821 40:0.031967474 41:0.0042251276 42:0.0033482143 43:0.0044642857 44:0.0072544643 45:0.010044643 46:0.0087691327 47:0.0075733418 48:0.0086894133 49:0.0045440051 50:0.0069355867 51:0.0015146684 52:0.0066167092 53:0.0021524235 54:0.010762117 55:0.0032684949 56:0.010602679 57:0.0017538265 58:0.43821747 59:0.038903061 
1 1:0.014429209 2:0.0051020408 3:0.00039859694 4:0.010841837 5:0.00095663265 6:0.005341199 7:0.00015943878 8:0.004942602 9:0.00023915816 10:0.0027104592 11:0.0035076531 12:0.0051817602 13:0.0070950255 14:0.0036670918 15:0.0020727041 16:0.00095663265 17:0.0011160714 18:0.010602679 19:0.0040656888 20:0.022401148 21:0.0050223214 22:0.021683673 23:0.0035076531 24:0.010044643 25:0.0011957908 26:0.0039859694 27:0.012197066 28:0.025749362 29:0.012276786 30:0.011001276 31:0.019292092 32:0.008848852 33:0.0039859694 34:0.012276786 35:0.0051817602 36:0.040816327 37:0.012834821 38:0.02734375 39:0.01044324 40:0.02606824 41:0.0038265306 42:0.0023118622 43:0.0025510204 44:0.0035873724 45:0.0071747449 46:0.0061383929 47:0.0069355867 48:0.0078125 49:0.0036670918 50:0.0051020408 51:0.0019132653 52:0.006377551 53:0.0021524235 54:0.0085299745 55:0.002471301 56:0.010283801 57:0.0019132653 58:0.50023916 59:0.037468112 
1 1:0.014110332 2:0.0066964286 3:0.0006377551 4:0.011878189 5:0.00095663265 6:0.0054209184 7:0.00039859694 8:0.0051817602 9:7.9719388e-05 10:0.0025510204 11:0.0031090561 12:0.0059789541 13:0.0058992347 14:0.0034279337 15:0.0021524235 16:0.0015146684 17:0.0013552296 18:0.011878189 19:0.0033482143 20:0.024473852 21:0.0058992347 22:0.021922832 23:0.0042251276 24:0.01044324 25:0.001036352 26:0.00390625 27:0.016820791 28:0.026785714 29:0.013950893 30:0.01434949 31:0.018096301 32:0.011399872 33:0.0043845663 34:0.012037628 35:0.0056600765 36:0.044403699 37:0.011160714 38:0.029575893 39:0.010682398 40:0.02997449 41:0.0040656888 42:0.0031887755 43:0.0029496173 44:0.0058195153 45:0.0082908163 46:0.0072544643 47:0.0079719388 48:0.0080516582 49:0.0054209184 50:0.0058992347 51:0.0015146684 52:0.0066167092 53:0.0021524235 54:0.010283801 55:0.0030293367 56:0.0098852041 57:0.0017538265 58:0.45758929 59:0.040497449 
1 1:0.011878189 2:0.0045440051 3:0.00055803571 4:0.011878189 5:0.00031887755 6:0.005341199 7:0.00015943878 8:0.0055803571 9:7.9719388e-05 10:0.0027901786 11:0.0025510204 12:0.0040656888 13:0.0051020408 14:0.0027901786 15:0.0019132653 16:0.00095663265 17:0.0013552296 18:0.012834821 19:0.0042251276 20:0.027104592 21:0.0045440051 22:0.022879464 23:0.0034279337 24:0.011320153 25:0.0006377551 26:0.0040656888 27:0.01825574 28:0.024234694 29:0.01434949 30:0.011479592 31:0.022879464 32:0.011240434 33:0.0034279337 34:0.012755102 35:0.0055006378 36:0.048708546 37:0.0075733418 38:0.032047194 39:0.0087691327 40:0.039620536 41:0.0032684949 42:0.0021524235 43:0.0034279337 44:0.0055006378 45:0.0089285714 46:0.0079719388 47:0.008848852 48:0.0075733418 49:0.0039859694 50:0.0058992347 51:0.00087691327 52:0.006776148 53:0.0019132653 54:0.013791454 55:0.0032684949 56:0.010522959 57:0.0011160714 58:0.45153061 59:0.038903061 
1 1:0.014668367 2:0.0073341837 3:0.0006377551 4:0.01036352 5:0.00031887755 6:0.0065369898 7:0.00023915816 8:0.0044642857 9:0.00031887755 10:0.0023118622 11:0.0029496173 12:0.0055006378 13:0.0062181122 14:0.0043048469 15:0.0023118622 16:0.0011957908 17:0.00047831633 18:0.013552296 19:0.0039859694 20:0.022879464 21:0.0058195153 22:0.022560587 23:0.0035873724 24:0.011479592 25:0.00071747449 26:0.0051817602 27:0.016342474 28:0.025271046 29:0.013153699 30:0.015625 31:0.017378827 32:0.010841837 33:0.0039859694 34:0.013233418 35:0.004942602 36:0.043845663 37:0.0098852041 38:0.032684949 39:0.010602679 40:0.031010842 41:0.0033482143 42:0.0027104592 43:0.0033482143 44:0.0064572704 45:0.0089285714 46:0.0070950255 47:0.0086894133 48:0.0080516582 49:0.0047831633 50:0.0048628827 51:0.0017538265 52:0.0065369898 53:0.0020727041 54:0.0094068878 55:0.0025510204 56:0.0094866071 57:0.0018335459 58:0.45926339 59:0.040098852 
1 1:0.013871173 2:0.0057397959 3:0.00039859694 4:0.01044324 5:0.00055803571 6:0.0056600765 7:7.9719388e-05 8:0.0065369898 9:0.00055803571 10:0.0027104592 11:0.0040656888 12:0.0055803571 13:0.0054209184 14:0.002869898 15:0.002869898 16:0.0011160714 17:0.0011957908 18:0.010762117 19:0.0046237245 20:0.025589923 21:0.0065369898 22:0.021364796 23:0.0023915816 24:0.012117347 25:0.00071747449 26:0.0050223214 27:0.018335459 28:0.026466837 29:0.011479592 30:0.016342474 31:0.01953125 32:0.011878189 33:0.0044642857 34:0.012914541 35:0.0073341837 36:0.04161352 37:0.010204082 38:0.029575893 39:0.011479592 40:0.032445791 41:0.004942602 42:0.0036670918 43:0.0032684949 44:0.0051020408 45:0.0099649235 46:0.0066964286 47:0.0065369898 48:0.008848852 49:0.0045440051 50:0.0055803571 51:0.0018335459 52:0.006377551 53:0.0015146684 54:0.011479592 55:0.0030293367 56:0.0094866071 57:0.0018335459 58:0.45376276 59:0.038663903 
1 1:0.01171875 2:0.0060586735 3:0.00031887755 4:0.0085299745 5:0.00047831633 6:0.0047831633 8:0.011320153 9:0.00055803571 10:0.0032684949 11:0.0021524235 12:0.0032684949 13:0.0029496173 14:0.0019132653 15:0.0019929847 16:0.002471301 17:0.0034279337 18:0.05341199 19:0.0093271684 20:0.01307398 21:0.005341199 22:0.010204082 23:0.0037468112 24:0.024633291 25:0.0081313776 26:0.065688776 27:0.062420281 28:0.01698023 29:0.012037628 30:0.01044324 31:0.0061383929 32:0.02080676 33:0.034518495 34:0.078603316 35:0.039221939 36:0.057876276 37:0.0075733418 38:0.013552296 39:0.0043048469 40:0.017538265 41:0.014668367 42:0.011080995 43:0.019770408 44:0.02088648 45:0.0055803571 46:0.0044642857 47:0.0039859694 48:0.0032684949 49:0.0082908163 50:0.010682398 51:0.0034279337 52:0.017936862 53:0.0022321429 54:0.0035076531 55:0.00390625 56:0.0019929847 57:0.0012755102 58:0.18088329 59:0.041374362 
1 1:0.01307398 2:0.0043048469 3:0.00047831633 4:0.012675383 5:0.00055803571 6:0.0040656888 8:0.0055803571 10:0.0027901786 11:0.0026307398 12:0.0045440051 13:0.0046237245 14:0.0023118622 15:0.002471301 16:0.00071747449 17:0.00039859694 18:0.011399872 19:0.0038265306 20:0.022640306 21:0.0047034439 22:0.018654337 23:0.0031887755 24:0.0093271684 25:0.00071747449 26:0.0031887755 27:0.01307398 28:0.026147959 29:0.013472577 30:0.010283801 31:0.020567602 32:0.010044643 33:0.0030293367 34:0.010124362 35:0.0038265306 36:0.0390625 37:0.012356505 38:0.029416454 39:0.011479592 40:0.028061224 41:0.0030293367 42:0.0026307398 43:0.0022321429 44:0.0042251276 45:0.0078922194 46:0.0082110969 47:0.0070950255 48:0.0084502551 49:0.0035076531 50:0.0047034439 51:0.0018335459 52:0.0061383929 53:0.001434949 54:0.01044324 55:0.0026307398 56:0.0098054847 57:0.0020727041 58:0.50693559 59:0.036910077 
1 1:0.010682398 2:0.0062978316 3:0.00039859694 4:0.0071747449 5:0.00039859694 6:0.0042251276 7:0.00015943878 8:0.0099649235 9:0.00023915816 10:0.0042251276 11:0.00390625 12:0.0038265306 13:0.0035076531 14:0.0021524235 15:0.0020727041 16:0.0027901786 17:0.00390625 18:0.052774235 19:0.009247449 20:0.015545281 21:0.006377551 22:0.01036352 23:0.0045440051 24:0.022560587 25:0.0086894133 26:0.065210459 27:0.059789541 28:0.020966199 29:0.012515944 30:0.01044324 31:0.0098852041 32:0.021364796 33:0.033402423 34:0.073022959 35:0.035953444 36:0.060666454 37:0.0075733418 38:0.015625 39:0.0047034439 40:0.021285077 41:0.013711735 42:0.011479592 43:0.01817602 44:0.021603954 45:0.0055803571 46:0.0051020408 47:0.0042251276 48:0.0027901786 49:0.0062181122 50:0.008848852 51:0.002869898 52:0.019212372 53:0.0027104592 54:0.0047831633 55:0.0035873724 56:0.0026307398 57:0.001036352 58:0.17897003 59:0.038026148 
1 1:0.012037628 2:0.005341199 3:0.00047831633 4:0.01036352 5:0.00023915816 6:0.0058195153 7:0.00015943878 8:0.0051817602 9:0.00015943878 10:0.0026307398 11:0.0027901786 12:0.0044642857 13:0.0039859694 14:0.0027104592 15:0.0027104592 16:0.00079719388 17:0.00055803571 18:0.011957908 19:0.0044642857 20:0.026865434 21:0.0042251276 22:0.021444515 23:0.0044642857 24:0.010841837 25:0.0013552296 26:0.0027901786 27:0.013871173 28:0.0234375 29:0.014429209 30:0.013472577 31:0.020647321 32:0.011639031 33:0.0038265306 34:0.01426977 35:0.0057397959 36:0.044164541 37:0.0086096939 38:0.032126913 39:0.01036352 40:0.036989796 41:0.0044642857 42:0.0027104592 43:0.0027901786 44:0.0056600765 45:0.0091677296 46:0.0074936224 47:0.0074936224 48:0.0093271684 49:0.0051020408 50:0.0061383929 51:0.0018335459 52:0.0069355867 53:0.0012755102 54:0.012595663 55:0.0025510204 56:0.0099649235 57:0.0016741071 58:0.46324936 59:0.037149235 
1 1:0.01044324 2:0.0058992347 3:0.00023915816 4:0.0082110969 5:7.9719388e-05 6:0.0048628827 7:7.9719388e-05 8:0.0087691327 9:7.9719388e-05 10:0.0043048469 11:0.0029496173 12:0.0030293367 13:0.0027104592 14:0.0016741071 15:0.0017538265 16:0.0023118622 17:0.0025510204 18:0.05213648 19:0.0070950255 20:0.016422194 21:0.004942602 22:0.013791454 23:0.0043048469 24:0.02471301 25:0.0072544643 26:0.053890306 27:0.061065051 28:0.023756378 29:0.012197066 30:0.010682398 31:0.0089285714 32:0.014190051 33:0.02989477 34:0.066804847 35:0.033561862 36:0.07421875 37:0.008848852 38:0.017458546 39:0.0064572704 40:0.0234375 41:0.015784439 42:0.010522959 43:0.017139668 44:0.020966199 45:0.0070950255 46:0.0043845663 47:0.0041454082 48:0.0031090561 49:0.0060586735 50:0.0091677296 51:0.0022321429 52:0.018654337 53:0.0023915816 54:0.0051020408 55:0.0040656888 56:0.0031887755 57:0.0015943878 58:0.18965242 59:0.038743622 
1 1:0.015306122 2:0.0066167092 3:0.00047831633 4:0.013392857 5:0.00071747449 6:0.0043048469 7:0.00023915816 8:0.0058992347 9:7.9719388e-05 10:0.002471301 11:0.0032684949 12:0.0057397959 13:0.0051020408 14:0.0037468112 15:0.002471301 16:0.0011160714 17:0.001036352 18:0.01044324 19:0.0047034439 20:0.022321429 21:0.0065369898 22:0.02216199 23:0.0035076531 24:0.010522959 25:0.0011957908 26:0.0059789541 27:0.013233418 28:0.025350765 29:0.012675383 30:0.012755102 31:0.021763393 32:0.0094866071 33:0.0044642857 34:0.010762117 35:0.0054209184 36:0.044961735 37:0.0082908163 38:0.02989477 39:0.011878189 40:0.027742347 41:0.0035076531 42:0.0033482143 43:0.0041454082 44:0.0048628827 45:0.0082908163 46:0.0072544643 47:0.006776148 48:0.0075733418 49:0.0035873724 50:0.0058195153 51:0.0029496173 52:0.0055006378 53:0.0013552296 54:0.0098054847 55:0.0043048469 56:0.0090082908 57:0.0012755102 58:0.47154018 59:0.041055485 
1 1:0.01299426 2:0.0058195153 3:0.00031887755 4:0.011320153 5:0.00047831633 6:0.0054209184 7:0.00023915816 8:0.0055006378 9:7.9719388e-05 10:0.0017538265 11:0.0030293367 12:0.0045440051 13:0.0059789541 14:0.0033482143 15:0.0019929847 16:0.0006377551 17:0.0011160714 18:0.015625 19:0.0040656888 20:0.027742347 21:0.0058195153 22:0.021843112 23:0.0039859694 24:0.011957908 25:0.00079719388 26:0.004942602 27:0.018494898 28:0.026466837 29:0.014508929 30:0.011878189 31:0.02088648 32:0.013313138 33:0.0036670918 34:0.012914541 35:0.0081313776 36:0.043606505 37:0.010921556 38:0.031967474 39:0.0096460459 40:0.032366071 41:0.0044642857 42:0.0021524235 43:0.0031887755 44:0.0062181122 45:0.0099649235 46:0.0091677296 47:0.0069355867 48:0.0081313776 49:0.004942602 50:0.005341199 51:0.0011957908 52:0.0074936224 53:0.0019132653 54:0.011080995 55:0.002869898 56:0.0096460459 57:0.0017538265 58:0.44331952 59:0.040098852 
1 1:0.011399872 2:0.0070153061 3:0.0006377551 4:0.011080995 5:0.00047831633 6:0.0046237245 8:0.0059789541 9:0.00031887755 10:0.0025510204 11:0.0029496173 12:0.0044642857 13:0.0055803571 14:0.002869898 15:0.0029496173 16:0.00087691327 17:0.0011957908 18:0.013632015 19:0.0034279337 20:0.024154974 21:0.0058992347 22:0.024154974 23:0.0044642857 24:0.011878189 25:0.00055803571 26:0.0043048469 27:0.016262755 28:0.029017857 29:0.012834821 30:0.012914541 31:0.020487883 32:0.013711735 33:0.0035873724 34:0.012914541 35:0.0069355867 36:0.045360332 37:0.011320153 38:0.033402423 39:0.0090880102 40:0.035315689 41:0.0043048469 42:0.002869898 43:0.0032684949 44:0.0073341837 45:0.0090082908 46:0.0075733418 47:0.0080516582 48:0.0094866071 49:0.00390625 50:0.0058992347 51:0.0016741071 52:0.0065369898 53:0.00087691327 54:0.010841837 55:0.0029496173 56:0.01044324 57:0.00095663265 58:0.44634885 59:0.037069515 
1 1:0.014508929 2:0.0055006378 3:0.00039859694 4:0.010841837 5:0.00039859694 6:0.0057397959 7:7.9719388e-05 8:0.0058992347 9:0.00015943878 10:0.0023118622 11:0.0035076531 12:0.0059789541 13:0.0043845663 14:0.0030293367 15:0.0015146684 16:0.00071747449 17:0.0015146684 18:0.014429209 19:0.0043048469 20:0.021364796 21:0.0073341837 22:0.024473852 23:0.0038265306 24:0.010841837 25:0.0011957908 26:0.0051020408 27:0.016661352 28:0.026147959 29:0.011878189 30:0.015864158 31:0.020567602 32:0.011479592 33:0.0035076531 34:0.013233418 35:0.0062978316 36:0.041852679 37:0.0096460459 38:0.030452806 39:0.012595663 40:0.030373087 41:0.0045440051 42:0.002471301 43:0.0029496173 44:0.0058992347 45:0.0098852041 46:0.0078922194 47:0.0066964286 48:0.0077327806 49:0.0041454082 50:0.0045440051 51:0.0026307398 52:0.0079719388 53:0.0023915816 54:0.0094866071 55:0.0032684949 56:0.0099649235 57:0.001036352 58:0.45455995 59:0.042012117 
1 1:0.013392857 2:0.0064572704 3:0.00031887755 4:0.011080995 5:0.00055803571 6:0.0059789541 8:0.0058195153 10:0.002471301 11:0.0027901786 12:0.0046237245 13:0.006776148 14:0.0033482143 15:0.002471301 16:0.001434949 17:0.00087691327 18:0.01426977 19:0.0051020408 20:0.024872449 21:0.0047034439 22:0.019451531 23:0.0038265306 24:0.011320153 25:0.001036352 26:0.0055006378 27:0.016023597 28:0.026466837 29:0.014668367 30:0.012755102 31:0.021125638 32:0.01434949 33:0.0045440051 34:0.011479592 35:0.0052614796 36:0.044722577 37:0.010921556 38:0.031967474 39:0.009247449 40:0.038504464 41:0.0061383929 42:0.0026307398 43:0.0043048469 44:0.0066964286 45:0.0090082908 46:0.0072544643 47:0.0072544643 48:0.0094068878 49:0.0048628827 50:0.0055006378 51:0.0019132653 52:0.0072544643 53:0.0017538265 54:0.011320153 55:0.0031887755 56:0.0085299745 57:0.0021524235 58:0.43885523 59:0.041454082 
1 1:0.014429209 2:0.0066167092 3:0.00023915816 4:0.012037628 5:0.00055803571 6:0.0058992347 7:7.9719388e-05 8:0.0069355867 9:7.9719388e-05 10:0.0022321429 11:0.0032684949 12:0.0047831633 13:0.0055803571 14:0.0040656888 15:0.0040656888 16:0.00095663265 17:0.001434949 18:0.0098054847 19:0.0034279337 20:0.021125638 21:0.0070950255 22:0.023995536 23:0.0048628827 24:0.01426977 25:0.0011160714 26:0.0033482143 27:0.011878189 28:0.019292092 29:0.011798469 30:0.012276786 31:0.022959184 32:0.017219388 33:0.0042251276 34:0.012675383 35:0.0052614796 36:0.027423469 37:0.011160714 38:0.030532526 39:0.010044643 40:0.046556122 41:0.006377551 42:0.0031887755 43:0.0027901786 44:0.0046237245 45:0.0094068878 46:0.0082110969 47:0.0072544643 48:0.0084502551 49:0.0055803571 50:0.0061383929 51:0.0020727041 52:0.0050223214 53:0.0015146684 54:0.0094068878 55:0.0027901786 56:0.011399872 57:0.0022321429 58:0.45647321 59:0.041454082 
1 1:0.012834821 2:0.0061383929 3:0.00055803571 4:0.011080995 5:0.00023915816 6:0.0069355867 7:0.00015943878 8:0.0048628827 9:7.9719388e-05 10:0.0022321429 11:0.0025510204 12:0.0062978316 13:0.0058992347 14:0.002869898 15:0.0021524235 16:0.0011957908 17:0.00095663265 18:0.010602679 19:0.00390625 20:0.019451531 21:0.0074139031 22:0.022241709 23:0.0043048469 24:0.013392857 25:0.0018335459 26:0.0043048469 27:0.0075733418 28:0.019610969 29:0.014429209 30:0.013472577 31:0.028539541 32:0.014429209 33:0.0044642857 34:0.012675383 35:0.0042251276 36:0.027184311 37:0.011080995 38:0.030851403 39:0.010522959 40:0.043128189 41:0.0047831633 42:0.0027104592 43:0.0029496173 44:0.0041454082 45:0.0078125 46:0.0060586735 47:0.0069355867 48:0.0096460459 49:0.0043845663 50:0.0064572704 51:0.0025510204 52:0.0047034439 53:0.0011160714 54:0.0084502551 55:0.00390625 56:0.0086096939 57:0.0016741071 58:0.47911352 59:0.037308673 
1 1:0.012675383 2:0.005341199 3:0.00023915816 4:0.011957908 5:0.00047831633 6:0.0074936224 7:7.9719388e-05 8:0.0054209184 9:0.00015943878 10:0.0025510204 11:0.0023118622 12:0.004942602 13:0.0048628827 14:0.0031090561 15:0.0031090561 16:0.00079719388 17:0.001036352 18:0.0096460459 19:0.002869898 20:0.025350765 21:0.0072544643 22:0.024314413 23:0.0051020408 24:0.013552296 25:0.001434949 26:0.004942602 27:0.012356505 28:0.021843112 29:0.011399872 30:0.013950893 31:0.027503189 32:0.017538265 33:0.0048628827 34:0.013711735 35:0.0043048469 36:0.036591199 37:0.0094866071 38:0.032366071 39:0.011639031 40:0.045440051 41:0.0073341837 42:0.0035076531 43:0.0033482143 44:0.0043048469 45:0.0078922194 46:0.0065369898 47:0.0081313776 48:0.0084502551 49:0.0066167092 50:0.0066964286 51:0.0019132653 52:0.005341199 53:0.0021524235 54:0.010841837 55:0.0036670918 56:0.010283801 57:0.0016741071 58:0.43606505 59:0.041214923 
1 1:0.011160714 2:0.0039859694 3:0.00055803571 4:0.010522959 5:0.0006377551 6:0.0052614796 7:7.9719388e-05 8:0.0051020408 9:0.00023915816 10:0.0022321429 11:0.002471301 12:0.0050223214 13:0.0029496173 14:0.0023915816 15:0.0019132653 16:0.0015146684 17:0.00047831633 18:0.0099649235 19:0.0048628827 20:0.021843112 21:0.0050223214 22:0.022720026 23:0.0038265306 24:0.012595663 25:0.00031887755 26:0.0036670918 27:0.012436224 28:0.019690689 29:0.011639031 30:0.013153699 31:0.024952168 32:0.013552296 33:0.002471301 34:0.010124362 35:0.0030293367 36:0.031967474 37:0.010204082 38:0.02869898 39:0.0093271684 40:0.04161352 41:0.0042251276 42:0.0019929847 43:0.0020727041 44:0.0050223214 45:0.0082908163 46:0.0069355867 47:0.0070950255 48:0.0068558673 49:0.0047831633 50:0.0066167092 51:0.0015943878 52:0.006776148 53:0.0011957908 54:0.0084502551 55:0.0031887755 56:0.010841837 57:0.00087691327 58:0.5074139 59:0.031568878 
1 1:0.01307398 2:0.0065369898 3:0.00023915816 4:0.011878189 5:7.9719388e-05 6:0.0072544643 7:0.00031887755 8:0.0054209184 9:7.9719388e-05 10:0.0020727041 11:0.0047831633 12:0.0051817602 13:0.0052614796 14:0.0032684949 15:0.0030293367 16:0.0017538265 17:0.00095663265 18:0.010124362 19:0.0027901786 20:0.019850128 21:0.0061383929 22:0.023038903 23:0.0046237245 24:0.012436224 25:0.00055803571 26:0.0031887755 27:0.012515944 28:0.021125638 29:0.014987245 30:0.014668367 31:0.026626276 32:0.017617985 33:0.0043845663 34:0.012037628 35:0.0051020408 36:0.030851403 37:0.01171875 38:0.032366071 39:0.01171875 40:0.041294643 41:0.0061383929 42:0.0035076531 43:0.0023915816 44:0.0052614796 45:0.0081313776 46:0.0074139031 47:0.0077327806 48:0.0087691327 49:0.0071747449 50:0.0064572704 51:0.0021524235 52:0.0057397959 53:0.0018335459 54:0.0093271684 55:0.0037468112 56:0.0096460459 57:0.0015943878 58:0.45192921 59:0.040098852 
1 1:0.012037628 2:0.0055803571 4:0.01299426 5:0.00031887755 6:0.0062978316 7:0.00015943878 8:0.0047034439 9:7.9719388e-05 10:0.0017538265 11:0.0031090561 12:0.0035076531 13:0.0042251276 14:0.0026307398 15:0.0023118622 16:0.00079719388 17:0.00047831633 18:0.01036352 19:0.0035076531 20:0.022640306 21:0.0040656888 22:0.023915816 23:0.0036670918 24:0.010762117 25:0.00071747449 26:0.0035076531 27:0.0086894133 28:0.022321429 29:0.011878189 30:0.011878189 31:0.027503189 32:0.013153699 33:0.0034279337 34:0.011878189 35:0.0029496173 36:0.032924107 37:0.010204082 38:0.032047194 39:0.0083705357 40:0.046237245 41:0.0057397959 42:0.002471301 43:0.0025510204 44:0.0042251276 45:0.0091677296 46:0.0066167092 47:0.0078922194 48:0.0084502551 49:0.00390625 50:0.0062978316 51:0.001434949 52:0.0055803571 53:0.001434949 54:0.010921556 55:0.0032684949 56:0.01171875 57:0.0016741071 58:0.48270089 59:0.036352041 
1 1:0.014508929 2:0.0046237245 3:0.00015943878 4:0.010762117 5:0.00039859694 6:0.006377551 7:0.00023915816 8:0.0064572704 9:0.00023915816 10:0.0019132653 11:0.002471301 12:0.0055006378 13:0.0043048469 14:0.0033482143 15:0.0026307398 16:0.0011160714 17:0.00071747449 18:0.0099649235 19:0.0037468112 20:0.021205357 21:0.0072544643 22:0.025669643 23:0.0045440051 24:0.011957908 25:0.0012755102 26:0.0045440051 27:0.0078922194 28:0.020169005 29:0.010762117 30:0.015385842 31:0.026307398 32:0.013711735 33:0.0048628827 34:0.014429209 35:0.0047034439 36:0.025908801 37:0.010283801 38:0.031090561 39:0.010602679 40:0.043048469 41:0.0051817602 42:0.0031887755 43:0.0035873724 44:0.0029496173 45:0.0077327806 46:0.0055803571 47:0.0072544643 48:0.0094866071 49:0.0046237245 50:0.0059789541 51:0.0018335459 52:0.0042251276 53:0.0015146684 54:0.0098852041 55:0.0035076531 56:0.011080995 57:0.0019929847 58:0.47568559 59:0.039620536 
1 1:0.012356505 2:0.0051020408 3:0.00047831633 4:0.012037628 5:0.00039859694 6:0.0070153061 7:7.9719388e-05 8:0.0056600765 9:0.00015943878 10:0.002471301 11:0.0032684949 12:0.0054209184 13:0.0054209184 14:0.0040656888 15:0.0026307398 16:0.00095663265 17:0.0011160714 18:0.010522959 19:0.0034279337 20:0.024234694 21:0.0070950255 22:0.021524235 23:0.00390625 24:0.014987245 25:0.00071747449 26:0.0046237245 27:0.012117347 28:0.023118622 29:0.014588648 30:0.016103316 31:0.025669643 32:0.019212372 33:0.0051817602 34:0.012117347 35:0.0037468112 36:0.030771684 37:0.011639031 38:0.033003827 39:0.012356505 40:0.043287628 41:0.0066964286 42:0.0043048469 43:0.0021524235 44:0.0048628827 45:0.0087691327 46:0.0084502551 47:0.0081313776 48:0.0090082908 49:0.0059789541 50:0.0073341837 51:0.0019929847 52:0.0052614796 53:0.0017538265 54:0.0094068878 55:0.0033482143 56:0.009247449 57:0.0012755102 58:0.43893495 59:0.040497449 
1 1:0.01434949 2:0.0046237245 3:0.00039859694 4:0.0096460459 5:0.0006377551 6:0.0055803571 7:0.00015943878 8:0.0040656888 10:0.0023118622 11:0.0031090561 12:0.0051020408 13:0.0040656888 14:0.0031887755 15:0.0030293367 16:0.00079719388 17:0.00087691327 18:0.0093271684 19:0.0029496173 20:0.020328444 21:0.0058992347 22:0.022879464 23:0.0040656888 24:0.0097257653 25:0.00087691327 26:0.00390625 27:0.0072544643 28:0.017059949 29:0.0097257653 30:0.012914541 31:0.025271046 32:0.013472577 33:0.002869898 34:0.0087691327 35:0.0027901786 36:0.026147959 37:0.010283801 38:0.024633291 39:0.0098852041 40:0.035873724 41:0.004942602 42:0.0029496173 43:0.0027901786 44:0.002471301 45:0.0089285714 46:0.006776148 47:0.005341199 48:0.0086096939 49:0.0055803571 50:0.0051817602 51:0.0019132653 52:0.0037468112 53:0.0013552296 54:0.0090082908 55:0.0040656888 56:0.0081313776 57:0.0016741071 58:0.53284439 59:0.034837372 
1 1:0.013313138 2:0.0058195153 3:0.00071747449 4:0.011240434 5:0.00031887755 6:0.0066167092 7:0.00015943878 8:0.006377551 9:0.00047831633 10:0.0018335459 11:0.002869898 12:0.0056600765 13:0.0043845663 14:0.0019929847 15:0.0023915816 16:0.0012755102 17:0.00095663265 18:0.011160714 19:0.0035873724 20:0.020408163 21:0.0065369898 22:0.024154974 23:0.0038265306 24:0.013313138 25:0.00087691327 26:0.0036670918 27:0.012755102 28:0.020248724 29:0.013711735 30:0.016023597 31:0.027662628 32:0.017299107 33:0.004942602 34:0.013871173 35:0.0058992347 36:0.032366071 37:0.011240434 38:0.032764668 39:0.012834821 40:0.046396684 41:0.0055006378 42:0.0043048469 43:0.0035076531 44:0.0046237245 45:0.0099649235 46:0.0082110969 47:0.0074139031 48:0.008848852 49:0.0062978316 50:0.0076530612 51:0.0016741071 52:0.0057397959 53:0.0015943878 54:0.0093271684 55:0.0031887755 56:0.01036352 57:0.0017538265 58:0.43797832 59:0.040098852 
1 1:0.014748087 2:0.0059789541 3:0.00031887755 4:0.012834821 5:0.00071747449 6:0.006377551 7:7.9719388e-05 8:0.0058992347 9:0.00023915816 10:0.0020727041 11:0.0030293367 12:0.005341199 13:0.0054209184 14:0.002471301 15:0.0021524235 16:0.0011160714 17:0.0011160714 18:0.011001276 19:0.0035076531 20:0.020567602 21:0.0048628827 22:0.023915816 23:0.0042251276 24:0.013392857 25:0.0017538265 26:0.0044642857 27:0.0083705357 28:0.022002551 29:0.014508929 30:0.012117347 31:0.025829082 32:0.016661352 33:0.0047831633 34:0.013472577 35:0.0043048469 36:0.033960459 37:0.011878189 38:0.031648597 39:0.013632015 40:0.041932398 41:0.0056600765 42:0.0023118622 43:0.0037468112 44:0.0044642857 45:0.0089285714 46:0.0082110969 47:0.0070950255 48:0.008848852 49:0.0054209184 50:0.0069355867 51:0.0018335459 52:0.0058992347 53:0.001434949 54:0.0090082908 55:0.0034279337 56:0.01044324 57:0.0020727041 58:0.44786352 59:0.043686224 
1 1:0.013153699 2:0.0064572704 3:0.00087691327 4:0.013392857 5:0.00023915816 6:0.0051020408 7:0.00015943878 8:0.0066167092 9:0.00015943878 10:0.0022321429 11:0.0033482143 12:0.0055006378 13:0.0061383929 14:0.0047034439 15:0.002869898 16:0.001036352 17:0.0006377551 18:0.010841837 19:0.0032684949 20:0.02216199 21:0.0055803571 22:0.023596939 23:0.0043048469 24:0.01299426 25:0.001036352 26:0.0039859694 27:0.011160714 28:0.01953125 29:0.01299426 30:0.011080995 31:0.024553571 32:0.016422194 33:0.0058992347 34:0.013791454 35:0.0037468112 36:0.031808036 37:0.010124362 38:0.033641582 39:0.011160714 40:0.041772959 41:0.006776148 42:0.0031887755 43:0.0026307398 44:0.0039859694 45:0.0081313776 46:0.0068558673 47:0.0066167092 48:0.0073341837 49:0.0065369898 50:0.0064572704 51:0.0018335459 52:0.0059789541 53:0.0023118622 54:0.0095663265 55:0.0035076531 56:0.010044643 57:0.001434949 58:0.45671237 59:0.042012117 
1 1:0.013950893 2:0.004942602 3:0.00047831633 4:0.013632015 5:0.00023915816 6:0.0064572704 7:0.00015943878 8:0.0054209184 9:7.9719388e-05 10:0.0034279337 11:0.0031090561 12:0.0051020408 13:0.0062978316 14:0.0034279337 15:0.0022321429 16:0.001434949 17:0.0013552296 18:0.010522959 19:0.0027901786 20:0.02080676 21:0.0051817602 22:0.023676658 23:0.0052614796 24:0.011320153 25:0.001036352 26:0.0039859694 27:0.011878189 28:0.020009566 29:0.013950893 30:0.015146684 31:0.022480867 32:0.018016582 33:0.0033482143 34:0.012834821 35:0.0043048469 36:0.02989477 37:0.012037628 38:0.032366071 39:0.012117347 40:0.048070791 41:0.0072544643 42:0.0031090561 43:0.0027104592 44:0.0041454082 45:0.0095663265 46:0.0075733418 47:0.0077327806 48:0.006377551 49:0.0069355867 50:0.0055006378 51:0.0019132653 52:0.0059789541 53:0.0015146684 54:0.0090880102 55:0.0037468112 56:0.010682398 57:0.0021524235 58:0.45057398 59:0.040656888 
1 1:0.012675383 2:0.0048628827 3:0.00023915816 4:0.010044643 5:0.00047831633 6:0.0056600765 7:0.00015943878 8:0.0048628827 9:0.00031887755 10:0.0022321429 11:0.002869898 12:0.0055803571 13:0.0059789541 14:0.0038265306 15:0.0019929847 16:0.001036352 17:0.00087691327 18:0.0093271684 19:0.0029496173 20:0.02080676 21:0.0054209184 22:0.021364796 23:0.004942602 24:0.0098852041 25:0.00079719388 26:0.0040656888 27:0.0078922194 28:0.018335459 29:0.011639031 30:0.011639031 31:0.026387117 32:0.012834821 33:0.0030293367 34:0.0087691327 35:0.0035873724 36:0.021922832 37:0.0093271684 38:0.025031888 39:0.010522959 40:0.034279337 41:0.0050223214 42:0.0027104592 43:0.0026307398 44:0.0030293367 45:0.0068558673 46:0.0070153061 47:0.0058992347 48:0.0082110969 49:0.0046237245 50:0.0046237245 51:0.0012755102 52:0.0043048469 53:0.0015146684 54:0.0090082908 55:0.0030293367 56:0.009247449 57:0.0013552296 58:0.5361926 59:0.034996811 
1 1:0.012436224 2:0.0056600765 3:0.00079719388 4:0.013472577 5:0.00055803571 6:0.0057397959 7:7.9719388e-05 8:0.0080516582 9:0.00015943878 10:0.0031887755 11:0.0036670918 12:0.0058992347 13:0.0052614796 14:0.0030293367 15:0.0025510204 16:0.00095663265 17:0.001434949 18:0.012037628 19:0.0044642857 20:0.022640306 21:0.0060586735 22:0.023198342 23:0.0046237245 24:0.012834821 25:0.00079719388 26:0.0042251276 27:0.011320153 28:0.021045918 29:0.014668367 30:0.012117347 31:0.02989477 32:0.014668367 33:0.0046237245 34:0.01307398 35:0.005341199 36:0.02997449 37:0.013552296 38:0.029177296 39:0.010921556 40:0.04169324 41:0.0076530612 42:0.0039859694 43:0.0035076531 44:0.004942602 45:0.0096460459 46:0.0086096939 47:0.0078922194 48:0.0096460459 49:0.0057397959 50:0.0064572704 51:0.0015146684 52:0.0058195153 53:0.0025510204 54:0.0094068878 55:0.0030293367 56:0.01036352 57:0.0017538265 58:0.43614477 59:0.045440051 
1 1:0.013950893 2:0.0062978316 3:0.0012755102 4:0.010841837 5:0.00047831633 6:0.0078922194 7:0.00015943878 8:0.005341199 10:0.0027104592 11:0.0035873724 12:0.0046237245 13:0.005341199 14:0.0030293367 15:0.0027901786 16:0.0011957908 17:0.001036352 18:0.010762117 19:0.0037468112 20:0.021285077 21:0.0058195153 22:0.022879464 23:0.0051817602 24:0.013871173 25:0.0011957908 26:0.0052614796 27:0.012037628 28:0.019451531 29:0.016661352 30:0.01426977 31:0.028061224 32:0.016342474 33:0.0047034439 34:0.013472577 35:0.0043048469 36:0.032366071 37:0.011160714 38:0.033482143 39:0.012276786 40:0.045360332 41:0.0072544643 42:0.002869898 43:0.0032684949 44:0.0039859694 45:0.0096460459 46:0.0072544643 47:0.0081313776 48:0.01036352 49:0.0070153061 50:0.0068558673 51:0.0015943878 52:0.0056600765 53:0.0015146684 54:0.008848852 55:0.002869898 56:0.010124362 57:0.0012755102 58:0.43566645 59:0.041294643 
1 1:0.013233418 2:0.0046237245 3:0.00023915816 4:0.012037628 5:0.00023915816 6:0.0073341837 7:0.00015943878 8:0.0048628827 9:7.9719388e-05 10:0.0025510204 11:0.0032684949 12:0.0044642857 13:0.0055006378 14:0.0034279337 15:0.002471301 16:0.00079719388 17:0.00071747449 18:0.011559311 19:0.0034279337 20:0.0234375 21:0.0054209184 22:0.023118622 23:0.0044642857 24:0.013233418 25:0.0006377551 26:0.0050223214 27:0.012755102 28:0.020009566 29:0.013552296 30:0.015226403 31:0.028220663 32:0.017538265 33:0.0051817602 34:0.013153699 35:0.0042251276 36:0.03388074 37:0.010522959 38:0.034040179 39:0.01036352 40:0.044642857 41:0.0069355867 42:0.0037468112 43:0.002869898 44:0.00390625 45:0.0082110969 46:0.0074139031 47:0.0065369898 48:0.010841837 49:0.0064572704 50:0.0070153061 51:0.0012755102 52:0.0061383929 53:0.0013552296 54:0.011160714 55:0.0034279337 56:0.010841837 57:0.0015943878 58:0.44411671 59:0.03651148 
1 1:0.01426977 2:0.0050223214 3:0.00015943878 4:0.011399872 5:0.00095663265 6:0.0055803571 7:0.00023915816 8:0.0054209184 10:0.0018335459 11:0.0023915816 12:0.0052614796 13:0.0052614796 14:0.0029496173 15:0.0022321429 16:0.00071747449 17:0.00071747449 18:0.0090880102 19:0.0023915816 20:0.021603954 21:0.0074936224 22:0.022879464 23:0.0041454082 24:0.011639031 25:0.00095663265 26:0.002869898 27:0.0083705357 28:0.018973214 29:0.013153699 30:0.012755102 31:0.02598852 32:0.010841837 33:0.0033482143 34:0.010044643 35:0.0040656888 36:0.027104592 37:0.0095663265 38:0.029257015 39:0.010124362 40:0.039221939 41:0.0051020408 42:0.0020727041 43:0.0018335459 44:0.0035076531 45:0.0079719388 46:0.0062181122 47:0.0059789541 48:0.0073341837 49:0.0042251276 50:0.0058195153 51:0.0018335459 52:0.0041454082 53:0.001434949 54:0.0097257653 55:0.0034279337 56:0.01036352 57:0.0013552296 58:0.51267538 59:0.034677934 
1 1:0.012595663 2:0.0048628827 3:0.00031887755 4:0.011160714 5:0.00039859694 6:0.0070153061 7:0.00023915816 8:0.0051817602 9:0.00023915816 10:0.0026307398 11:0.0039859694 12:0.0059789541 13:0.0051020408 14:0.002869898 15:0.0025510204 16:0.0011160714 17:0.00087691327 18:0.011559311 19:0.0035873724 20:0.0234375 21:0.0055006378 22:0.023517219 23:0.0051817602 24:0.014030612 25:0.00071747449 26:0.0044642857 27:0.012197066 28:0.021603954 29:0.013552296 30:0.016262755 31:0.027582908 32:0.017857143 33:0.0050223214 34:0.013153699 35:0.0047034439 36:0.033402423 37:0.010602679 38:0.029735332 39:0.011639031 40:0.041294643 41:0.0055006378 42:0.0031887755 43:0.0031887755 44:0.0047034439 45:0.0089285714 46:0.0082908163 47:0.0077327806 48:0.0090880102 49:0.0062181122 50:0.0068558673 51:0.0016741071 52:0.0064572704 53:0.0023915816 54:0.010921556 55:0.0032684949 56:0.01044324 57:0.0012755102 58:0.44483418 59:0.037308673 
1 1:0.0031887755 2:0.0074139031 4:0.0090082908 5:7.9719388e-05 6:0.0051020408 8:0.0035076531 10:0.0013552296 11:0.0017538265 12:0.001036352 13:0.0016741071 14:0.0023118622 15:0.0013552296 16:0.00079719388 17:0.00071747449 18:0.015146684 19:0.0055803571 20:0.034119898 21:0.0054209184 22:0.032445791 23:0.0038265306 24:0.012117347 25:0.0011957908 26:0.006776148 27:0.013950893 28:0.056281888 29:0.030213648 30:0.034598214 31:0.023756378 32:0.011957908 33:0.010841837 34:0.020089286 35:0.0047034439 36:0.071269133 37:0.022799745 38:0.074936224 39:0.016023597 40:0.042012117 41:0.0039859694 42:0.0031090561 43:0.0035873724 44:0.0072544643 45:0.013472577 46:0.011080995 47:0.011320153 48:0.0084502551 49:0.0040656888 50:0.0058992347 51:0.00079719388 52:0.010204082 53:0.0016741071 54:0.019132653 55:0.00079719388 56:0.017139668 57:0.00079719388 58:0.25852997 59:0.029336735 
1 1:0.0026307398 2:0.0062181122 4:0.0086894133 5:7.9719388e-05 6:0.004942602 7:7.9719388e-05 8:0.0043048469 10:0.0016741071 11:0.0026307398 12:0.0015943878 13:0.0013552296 14:0.0017538265 15:0.00055803571 16:0.0011160714 17:0.00047831633 18:0.016103316 19:0.0035076531 20:0.03260523 21:0.0031887755 22:0.030213648 23:0.0033482143 24:0.011399872 25:0.0015943878 26:0.0089285714 27:0.014110332 28:0.054767219 29:0.025111607 30:0.029575893 31:0.024234694 32:0.015943878 33:0.010522959 34:0.018813776 35:0.006776148 36:0.064891582 37:0.020089286 38:0.063217474 39:0.013233418 40:0.040098852 41:0.0042251276 42:0.0045440051 43:0.0037468112 44:0.0075733418 45:0.014110332 46:0.011399872 47:0.011559311 48:0.0079719388 49:0.0045440051 50:0.0056600765 51:0.0006377551 52:0.01171875 53:0.00087691327 54:0.020487883 55:0.00079719388 56:0.016262755 57:0.00071747449 58:0.29559949 59:0.027184311 
1 1:0.00390625 2:0.0074139031 3:7.9719388e-05 4:0.0075733418 6:0.004942602 8:0.0050223214 10:0.0013552296 11:0.0029496173 12:0.0015146684 13:0.0012755102 14:0.0018335459 15:0.0006377551 16:0.001036352 17:0.00087691327 18:0.01690051 19:0.0044642857 20:0.041533801 21:0.0047034439 22:0.033242985 23:0.0030293367 24:0.011080995 25:0.0019929847 26:0.0084502551 27:0.019212372 28:0.05205676 29:0.033561862 30:0.031010842 31:0.024473852 32:0.018494898 33:0.010762117 34:0.021205357 35:0.0056600765 36:0.071269133 37:0.024553571 38:0.072066327 39:0.01307398 40:0.047193878 41:0.0055803571 42:0.002869898 43:0.0038265306 44:0.0093271684 45:0.013871173 46:0.011878189 47:0.011001276 48:0.0090880102 49:0.0046237245 50:0.0048628827 51:0.00087691327 52:0.011320153 53:0.00071747449 54:0.020248724 55:0.00087691327 56:0.018335459 57:0.00095663265 58:0.22911352 59:0.030213648 
1 1:0.0033482143 2:0.0039859694 3:7.9719388e-05 4:0.0086096939 5:7.9719388e-05 6:0.006377551 8:0.00390625 10:0.001036352 11:0.0026307398 12:0.0015146684 13:0.0015943878 14:0.0020727041 15:0.0013552296 16:0.00047831633 17:0.00047831633 18:0.0091677296 19:0.0033482143 20:0.028778699 21:0.0031887755 22:0.028858418 23:0.0043048469 24:0.018574617 25:0.001036352 26:0.0065369898 27:0.014987245 28:0.024154974 29:0.030213648 30:0.020727041 31:0.054767219 32:0.018016582 33:0.0054209184 34:0.017538265 35:0.0033482143 36:0.047433036 37:0.014030612 38:0.059470663 39:0.019451531 40:0.072624362 41:0.0060586735 42:0.0041454082 43:0.0034279337 44:0.0043048469 45:0.0090082908 46:0.010682398 47:0.010044643 48:0.013392857 49:0.0075733418 50:0.012914541 51:0.00055803571 52:0.0062181122 53:0.00039859694 54:0.014588648 55:0.0012755102 56:0.015545281 57:0.0011957908 58:0.30883291 59:0.026307398 
1 1:0.0039859694 2:0.0043845663 4:0.0085299745 6:0.0071747449 8:0.0037468112 10:0.00079719388 11:0.0015146684 12:0.0013552296 13:0.0019132653 14:0.001434949 15:0.0017538265 16:0.001036352 17:0.00039859694 18:0.010283801 19:0.0025510204 20:0.030213648 21:0.0036670918 22:0.035634566 23:0.0035873724 24:0.018096301 25:0.0011957908 26:0.01171875 27:0.014110332 28:0.028140944 29:0.027503189 30:0.02989477 31:0.062579719 32:0.013392857 33:0.006776148 34:0.020009566 35:0.0054209184 36:0.039620536 37:0.012515944 38:0.073740434 39:0.021683673 40:0.070950255 41:0.0042251276 42:0.0034279337 43:0.0031090561 44:0.0046237245 45:0.011320153 46:0.010841837 47:0.012276786 48:0.014987245 49:0.0056600765 50:0.011798469 51:0.00071747449 52:0.0040656888 53:0.00039859694 54:0.014110332 55:0.00095663265 56:0.020567602 57:0.00047831633 58:0.26857462 59:0.026546556 
1 1:0.0044642857 2:0.0058195153 4:0.0061383929 6:0.006377551 8:0.0045440051 10:0.001036352 11:0.0026307398 12:0.00079719388 13:0.00095663265 14:0.0023915816 15:0.0011957908 16:0.00087691327 17:0.00095663265 18:0.013711735 19:0.0031090561 20:0.031568878 21:0.0044642857 22:0.034518495 23:0.0040656888 24:0.018893495 25:0.0019132653 26:0.012914541 27:0.017857143 28:0.021444515 29:0.035554847 30:0.035235969 31:0.060825893 32:0.022879464 33:0.0078125 34:0.021603954 35:0.0081313776 36:0.036591199 37:0.018893495 38:0.065529337 39:0.024154974 40:0.080277423 41:0.006377551 42:0.0031887755 43:0.0033482143 44:0.0055803571 45:0.0085299745 46:0.011399872 47:0.010762117 48:0.013153699 49:0.0076530612 50:0.011399872 51:0.00079719388 52:0.0051817602 53:0.00095663265 54:0.015625 55:0.00079719388 56:0.016023597 57:0.00055803571 58:0.22935268 59:0.029177296 
1 1:0.0059789541 2:0.0051020408 3:7.9719388e-05 4:0.0059789541 5:0.00015943878 6:0.00390625 7:7.9719388e-05 8:0.0078125 9:7.9719388e-05 10:0.0021524235 11:0.0022321429 12:0.0016741071 13:0.0015943878 14:0.001036352 15:0.0025510204 16:0.0012755102 17:0.0016741071 18:0.03125 19:0.0099649235 20:0.023676658 21:0.0026307398 22:0.015625 23:0.0051020408 24:0.018415179 25:0.0019929847 26:0.021683673 27:0.051817602 28:0.058354592 29:0.012037628 30:0.010762117 31:0.021205357 32:0.032206633 33:0.010682398 34:0.028778699 35:0.021444515 36:0.093032526 37:0.013552296 38:0.017697704 39:0.0086894133 40:0.043128189 41:0.01299426 42:0.0075733418 43:0.0085299745 44:0.011320153 45:0.0087691327 46:0.0058992347 47:0.0035873724 48:0.0062181122 49:0.0087691327 50:0.0086096939 51:0.00079719388 52:0.01307398 53:0.0012755102 54:0.0095663265 55:0.001036352 56:0.0066167092 57:0.001036352 58:0.2606824 59:0.026546556 
1 1:0.0059789541 2:0.0035076531 3:7.9719388e-05 4:0.0076530612 5:7.9719388e-05 6:0.0044642857 7:0.00039859694 8:0.0073341837 10:0.0023118622 11:0.0017538265 12:0.0013552296 13:0.001434949 14:0.0020727041 15:0.0029496173 16:0.00079719388 17:0.0013552296 18:0.016342474 19:0.0037468112 20:0.015864158 21:0.0021524235 22:0.023357781 23:0.0098054847 24:0.030612245 25:0.0018335459 26:0.0097257653 27:0.033242985 28:0.024872449 29:0.011798469 30:0.0086096939 31:0.060507015 32:0.057796556 33:0.01817602 34:0.027981505 35:0.013153699 36:0.042251276 37:0.0078922194 38:0.017219388 39:0.014190051 40:0.091996173 41:0.020328444 42:0.0085299745 43:0.0073341837 44:0.0083705357 45:0.0076530612 46:0.0058992347 47:0.0057397959 48:0.010921556 49:0.012914541 50:0.01426977 51:0.00087691327 52:0.0090880102 53:0.0011160714 54:0.0061383929 55:0.00095663265 56:0.010044643 57:0.0011160714 58:0.25558036 59:0.026466837 
1 1:0.0034279337 2:0.0043048469 3:7.9719388e-05 4:0.0027104592 6:0.0044642857 7:7.9719388e-05 8:0.012436224 10:0.0021524235 11:0.0015146684 12:0.0006377551 13:0.00039859694 14:0.0015943878 15:0.00055803571 16:0.0020727041 17:0.0020727041 18:0.041055485 19:0.0062181122 20:0.012515944 21:0.00055803571 22:0.0038265306 23:0.0027901786 24:0.057477679 25:0.0048628827 26:0.041294643 27:0.047831633 28:0.021285077 29:0.0039859694 30:0.0016741071 31:0.0026307398 32:0.060028699 33:0.040975765 34:0.10554847 35:0.026705995 36:0.067044005 37:0.0043845663 38:0.0075733418 39:0.001434949 40:0.04161352 41:0.033083546 42:0.016023597 43:0.018415179 44:0.015943878 45:0.0058992347 46:0.0027104592 47:0.00079719388 48:0.00095663265 49:0.022002551 50:0.039859694 51:0.00079719388 52:0.027423469 53:0.00055803571 54:0.0098852041 55:0.00047831633 56:0.0031887755 57:0.00055803571 58:0.13233418 59:0.027264031 
1 1:0.0047831633 2:0.0064572704 4:0.0023118622 6:0.0045440051 8:0.010204082 10:0.002471301 11:0.0018335459 12:0.00047831633 13:0.00047831633 14:0.001434949 15:0.0011957908 16:0.0029496173 17:0.0031090561 18:0.042012117 19:0.0065369898 20:0.010602679 21:0.00087691327 22:0.0039859694 23:0.002869898 24:0.060267857 25:0.0062978316 26:0.046635842 27:0.043367347 28:0.021444515 29:0.0027104592 30:0.0013552296 31:0.0032684949 32:0.058673469 33:0.052455357 34:0.10722258 35:0.026227679 36:0.060427296 37:0.0031090561 38:0.0062978316 39:0.0013552296 40:0.042570153 41:0.036750638 42:0.021045918 43:0.017299107 44:0.013233418 45:0.004942602 46:0.0016741071 47:0.0006377551 48:0.0012755102 49:0.01817602 50:0.035235969 51:0.001036352 52:0.022799745 53:0.0011160714 54:0.0061383929 55:0.00055803571 56:0.0020727041 57:0.00055803571 58:0.13432717 59:0.028300383 
1 1:0.005341199 2:0.0055803571 3:7.9719388e-05 4:0.0095663265 5:7.9719388e-05 6:0.0075733418 8:0.0054209184 10:0.0018335459 11:0.0032684949 12:0.0025510204 13:0.0019929847 14:0.0027104592 15:0.0030293367 16:0.00079719388 17:0.00095663265 18:0.019850128 19:0.0057397959 20:0.03651148 21:0.0032684949 22:0.037308673 23:0.0064572704 24:0.019292092 25:0.00047831633 26:0.0030293367 27:0.029735332 28:0.045758929 29:0.02080676 30:0.023836097 31:0.037388393 32:0.03388074 33:0.0042251276 34:0.012117347 35:0.0070950255 36:0.078762755 37:0.019929847 38:0.060108418 39:0.025510204 40:0.082748724 41:0.006377551 42:0.0044642857 43:0.0031887755 44:0.0086894133 45:0.015226403 46:0.012117347 47:0.015306122 48:0.014110332 49:0.009247449 50:0.0086894133 51:0.0017538265 52:0.012436224 53:0.0011160714 54:0.02080676 55:0.002471301 56:0.018654337 57:0.001036352 58:0.13592156 59:0.043765944 
1 1:0.006377551 2:0.0055803571 3:0.00015943878 4:0.0098852041 6:0.0058992347 7:7.9719388e-05 8:0.0062181122 9:7.9719388e-05 10:0.0019132653 11:0.0027104592 12:0.0023915816 13:0.0016741071 14:0.0029496173 15:0.002471301 16:0.00031887755 17:0.0011160714 18:0.018813776 19:0.0071747449 20:0.04041773 21:0.0029496173 22:0.035554847 23:0.0055006378 24:0.022799745 25:0.00079719388 26:0.0035076531 27:0.032764668 28:0.042889031 29:0.025271046 30:0.021603954 31:0.03252551 32:0.033482143 33:0.0050223214 34:0.015465561 35:0.0058195153 36:0.082987883 37:0.021843112 38:0.058514031 39:0.017617985 40:0.072544643 41:0.0090082908 42:0.0041454082 43:0.0033482143 44:0.0082908163 45:0.017139668 46:0.013472577 47:0.012436224 48:0.011639031 49:0.0091677296 50:0.014827806 51:0.0015146684 52:0.011001276 53:0.0012755102 54:0.022879464 55:0.0018335459 56:0.021205357 57:0.0012755102 58:0.13799426 59:0.041852679 
1 1:0.0058992347 2:0.0068558673 4:0.01171875 6:0.0061383929 7:7.9719388e-05 8:0.0058195153 10:0.0015943878 11:0.0023915816 12:0.0029496173 13:0.0017538265 14:0.0033482143 15:0.0011957908 16:0.00079719388 17:0.00047831633 18:0.020408163 19:0.0072544643 20:0.038424745 21:0.0038265306 22:0.034917092 23:0.0069355867 24:0.018415179 25:0.0006377551 26:0.0033482143 27:0.033721301 28:0.040098852 29:0.020487883 30:0.027423469 31:0.03515625 32:0.037069515 33:0.0047034439 34:0.012595663 35:0.0062978316 36:0.082748724 37:0.019690689 38:0.063934949 39:0.020567602 40:0.07549426 41:0.0070950255 42:0.0041454082 43:0.0047034439 44:0.0093271684 45:0.014907526 46:0.014588648 47:0.015306122 48:0.012037628 49:0.010921556 50:0.0096460459 51:0.0012755102 52:0.010841837 53:0.0016741071 54:0.020328444 55:0.0032684949 56:0.019929847 57:0.0011957908 58:0.13464605 59:0.038982781 
1 1:0.0061383929 2:0.0054209184 4:0.011798469 6:0.0057397959 7:0.00015943878 8:0.0072544643 10:0.0019132653 11:0.0023915816 12:0.002471301 13:0.0033482143 14:0.0027104592 15:0.0019132653 16:0.00095663265 17:0.00087691327 18:0.020328444 19:0.0060586735 20:0.036352041 21:0.0035076531 22:0.035953444 23:0.0061383929 24:0.017299107 25:0.00023915816 26:0.004942602 27:0.035395408 28:0.034119898 29:0.025510204 30:0.019610969 31:0.042171556 32:0.029097577 33:0.0032684949 34:0.013313138 35:0.0086096939 36:0.078922194 37:0.02208227 38:0.063934949 39:0.020328444 40:0.077168367 41:0.0062181122 42:0.0042251276 43:0.0034279337 44:0.010124362 45:0.013472577 46:0.014827806 47:0.012675383 48:0.015066964 49:0.0098852041 50:0.0094866071 51:0.0016741071 52:0.010204082 53:0.00095663265 54:0.019371811 55:0.0025510204 56:0.020567602 57:0.0012755102 58:0.14492985 59:0.04161352 
1 1:0.0062181122 2:0.0064572704 4:0.0099649235 5:0.00031887755 6:0.0057397959 8:0.0052614796 10:0.0016741071 11:0.002869898 12:0.0015146684 13:0.0020727041 14:0.0019132653 15:0.0011957908 16:0.00095663265 17:0.00047831633 18:0.020089286 19:0.0062181122 20:0.033083546 21:0.0036670918 22:0.039381378 23:0.0064572704 24:0.018494898 25:0.00023915816 26:0.0037468112 27:0.037228954 28:0.033641582 29:0.024473852 30:0.02208227 31:0.042171556 32:0.034040179 33:0.004942602 34:0.012834821 35:0.0071747449 36:0.078284439 37:0.02080676 38:0.061702806 39:0.020089286 40:0.088089923 41:0.0059789541 42:0.0046237245 43:0.0043048469 44:0.011240434 45:0.011399872 46:0.013392857 47:0.011957908 48:0.013871173 49:0.0095663265 50:0.0097257653 51:0.0006377551 52:0.0098852041 53:0.00079719388 54:0.019052934 55:0.002471301 56:0.022879464 57:0.0011160714 58:0.14477041 59:0.036750638 
1 1:0.005341199 2:0.0059789541 4:0.0062978316 5:7.9719388e-05 6:0.0056600765 7:0.00023915816 8:0.0056600765 10:0.001434949 11:0.0020727041 12:0.00095663265 13:0.0011160714 14:0.0032684949 15:0.0019929847 16:0.0013552296 17:0.001036352 18:0.016501913 19:0.0068558673 20:0.037069515 21:0.0035873724 22:0.027822066 23:0.006377551 24:0.028300383 25:0.00071747449 26:0.0038265306 27:0.038185587 28:0.061383929 29:0.016183036 30:0.016741071 31:0.034837372 32:0.055644133 33:0.0086096939 34:0.017777423 35:0.0068558673 36:0.089923469 37:0.01690051 38:0.044483418 39:0.016581633 40:0.076291454 41:0.019850128 42:0.0064572704 43:0.0055803571 44:0.0079719388 45:0.014668367 46:0.0098054847 47:0.010283801 48:0.0096460459 49:0.011160714 50:0.012755102 51:0.00087691327 52:0.0086894133 53:0.00071747449 54:0.019770408 55:0.0012755102 56:0.015625 57:0.00071747449 58:0.14134247 59:0.028858418 
1 1:0.0042251276 2:0.0047034439 3:7.9719388e-05 4:0.0070950255 6:0.0062181122 8:0.0059789541 10:0.0013552296 11:0.0023118622 12:0.0015146684 13:0.001434949 14:0.002471301 15:0.0030293367 16:0.0011160714 17:0.00095663265 18:0.016342474 19:0.0070950255 20:0.036750638 21:0.0023915816 22:0.031967474 23:0.0073341837 24:0.024952168 25:0.001036352 26:0.0050223214 27:0.043207908 28:0.056441327 29:0.021285077 30:0.018415179 31:0.037069515 32:0.051897321 33:0.0066167092 34:0.017059949 35:0.0070153061 36:0.079878827 37:0.02088648 38:0.044563138 39:0.017378827 40:0.085459184 41:0.014668367 42:0.0055803571 43:0.0040656888 44:0.0079719388 45:0.015784439 46:0.011639031 47:0.012595663 48:0.011957908 49:0.010921556 50:0.010602679 51:0.00095663265 52:0.0090880102 53:0.0012755102 54:0.019610969 55:0.0015146684 56:0.016023597 57:0.00055803571 58:0.13002232 59:0.03260523 
1 1:0.011240434 2:0.0059789541 3:7.9719388e-05 4:0.0069355867 5:7.9719388e-05 6:0.0047034439 7:0.00023915816 8:0.0076530612 9:0.00039859694 10:0.0034279337 11:0.0036670918 12:0.0022321429 13:0.0025510204 14:0.0022321429 15:0.0027104592 16:0.0015943878 17:0.0020727041 18:0.025829082 19:0.010841837 20:0.027184311 21:0.0035873724 22:0.018096301 23:0.0058195153 24:0.018654337 25:0.0031090561 26:0.016501913 27:0.064333546 28:0.06768176 29:0.01825574 30:0.016023597 31:0.021683673 32:0.02861926 33:0.017378827 34:0.023357781 35:0.016501913 36:0.097177934 37:0.020727041 38:0.029735332 39:0.0073341837 40:0.042091837 41:0.011160714 42:0.0060586735 43:0.0072544643 44:0.011399872 45:0.012914541 46:0.008848852 47:0.0055803571 48:0.0060586735 49:0.0059789541 50:0.0095663265 51:0.001036352 52:0.013392857 53:0.001434949 54:0.015625 55:0.001434949 56:0.0082110969 57:0.0011160714 58:0.18024554 59:0.034359056 
1 1:0.005341199 2:0.0035873724 4:0.0041454082 5:7.9719388e-05 6:0.0039859694 8:0.0051020408 9:7.9719388e-05 10:0.0017538265 11:0.0015146684 12:0.00095663265 13:0.00087691327 14:0.00095663265 15:0.0020727041 16:0.0015943878 17:0.0015943878 18:0.030054209 19:0.0055006378 20:0.0090082908 21:0.00079719388 22:0.0083705357 23:0.0051020408 24:0.02997449 25:0.0026307398 26:0.030293367 27:0.050621811 28:0.016581633 29:0.0035076531 30:0.0029496173 31:0.012595663 32:0.054209184 33:0.030293367 34:0.045200893 35:0.024314413 36:0.066804847 37:0.0027901786 38:0.0078922194 39:0.0019132653 40:0.069196429 41:0.023596939 42:0.0086096939 43:0.0094866071 44:0.011160714 45:0.0036670918 46:0.0019929847 47:0.0018335459 48:0.0032684949 49:0.010124362 50:0.011878189 51:0.00055803571 52:0.012914541 53:0.0011160714 54:0.0047034439 55:0.00039859694 56:0.0042251276 57:0.00031887755 58:0.32653061 59:0.019371811 
1 1:0.0087691327 2:0.0057397959 3:0.00023915816 4:0.0082908163 6:0.0051817602 7:0.00023915816 8:0.0073341837 9:0.00015943878 10:0.0037468112 11:0.00390625 12:0.0022321429 13:0.0012755102 14:0.0029496173 15:0.0012755102 16:0.0023118622 17:0.0019132653 18:0.025191327 19:0.010522959 20:0.032844388 21:0.0038265306 22:0.018973214 23:0.0058195153 24:0.017777423 25:0.0023118622 26:0.017299107 27:0.047751913 28:0.074378189 29:0.030771684 30:0.017059949 31:0.020248724 32:0.030851403 33:0.01434949 34:0.022002551 35:0.011957908 36:0.097257653 37:0.02861926 38:0.03515625 39:0.0074936224 40:0.045758929 41:0.011399872 42:0.0047831633 43:0.0045440051 44:0.010921556 45:0.013392857 46:0.010921556 47:0.0059789541 48:0.0060586735 49:0.0055803571 50:0.0085299745 51:0.0016741071 52:0.0085299745 53:0.0022321429 54:0.016342474 55:0.001434949 56:0.008848852 57:0.00095663265 58:0.17139668 59:0.032684949 
1 1:0.011798469 2:0.0062181122 3:7.9719388e-05 4:0.0079719388 5:0.00023915816 6:0.0048628827 7:7.9719388e-05 8:0.0082110969 9:0.00039859694 10:0.0037468112 11:0.0043048469 12:0.0020727041 13:0.0023118622 14:0.0034279337 15:0.0025510204 16:0.0025510204 17:0.002869898 18:0.023038903 19:0.010602679 20:0.032126913 21:0.0051020408 22:0.015943878 23:0.0057397959 24:0.018734056 25:0.004942602 26:0.01698023 27:0.047911352 28:0.070870536 29:0.030293367 30:0.01817602 31:0.020169005 32:0.029655612 33:0.016422194 34:0.022879464 35:0.012037628 36:0.096859056 37:0.025589923 38:0.040656888 39:0.0078125 40:0.050462372 41:0.0095663265 42:0.0056600765 43:0.005341199 44:0.0098852041 45:0.014668367 46:0.011479592 47:0.0055803571 48:0.0065369898 49:0.005341199 50:0.0084502551 51:0.002869898 52:0.0090082908 53:0.0017538265 54:0.014030612 55:0.0015146684 56:0.0074936224 57:0.00087691327 58:0.15975765 59:0.033482143 
1 1:0.0086894133 2:0.0060586735 3:7.9719388e-05 4:0.0064572704 5:7.9719388e-05 6:0.0048628827 7:0.00015943878 8:0.0064572704 9:0.00023915816 10:0.0035076531 11:0.0048628827 12:0.0013552296 13:0.0023118622 14:0.0036670918 15:0.00079719388 16:0.0019929847 17:0.0025510204 18:0.022879464 19:0.011080995 20:0.03388074 21:0.0037468112 22:0.017219388 23:0.0060586735 24:0.014508929 25:0.0043845663 26:0.014987245 27:0.046396684 28:0.079559949 29:0.027024872 30:0.017936862 31:0.022321429 32:0.03125 33:0.012834821 34:0.019770408 35:0.011639031 36:0.099489796 37:0.024394133 38:0.038345026 39:0.0091677296 40:0.038982781 41:0.0097257653 42:0.0043845663 43:0.0055006378 44:0.0090082908 45:0.013711735 46:0.0098054847 47:0.0052614796 48:0.0066167092 49:0.0051020408 50:0.0070153061 51:0.0017538265 52:0.011080995 53:0.00095663265 54:0.019610969 55:0.0015943878 56:0.0081313776 57:0.0006377551 58:0.18431122 59:0.03380102 
1 1:0.0074139031 2:0.0062978316 4:0.0070950255 5:0.00015943878 6:0.004942602 7:0.00039859694 8:0.0058195153 9:7.9719388e-05 10:0.0035873724 11:0.0032684949 12:0.0019132653 13:0.0017538265 14:0.0027901786 15:0.0019929847 16:0.0013552296 17:0.0017538265 18:0.026865434 19:0.011001276 20:0.03515625 21:0.0035076531 22:0.01698023 23:0.0057397959 24:0.01825574 25:0.0029496173 26:0.016103316 27:0.053252551 28:0.075175383 29:0.021683673 30:0.015943878 31:0.021603954 32:0.02734375 33:0.011479592 34:0.024872449 35:0.013950893 36:0.099888393 37:0.022879464 38:0.036192602 39:0.0098054847 40:0.041135204 41:0.0082908163 42:0.0041454082 43:0.0056600765 44:0.011479592 45:0.014748087 46:0.0094866071 47:0.0051020408 48:0.0066167092 49:0.0068558673 50:0.0085299745 51:0.001036352 52:0.013392857 53:0.0011160714 54:0.017777423 55:0.00095663265 56:0.0082110969 57:0.00055803571 58:0.18311543 59:0.030532526 
0.42564408843523077 1:0.0052614796 2:0.0040656888 4:0.0052614796 6:0.0036670918 7:7.9719388e-05 8:0.0059789541 10:0.0015146684 11:0.0011160714 12:0.00055803571 13:0.00023915816 14:0.0011957908 15:0.0018335459 16:0.0018335459 17:0.0017538265 18:0.026307398 19:0.0055006378 20:0.0082908163 21:0.0015146684 22:0.0074139031 23:0.0047831633 24:0.031409439 25:0.0034279337 26:0.029336735 27:0.044005102 28:0.017857143 29:0.0023118622 30:0.0034279337 31:0.011240434 32:0.058035714 33:0.033960459 34:0.051498724 35:0.022720026 36:0.068638393 37:0.0025510204 38:0.0080516582 39:0.0025510204 40:0.067123724 41:0.024154974 42:0.01044324 43:0.0074936224 44:0.011160714 45:0.0042251276 46:0.0017538265 47:0.0017538265 48:0.0031090561 49:0.012436224 50:0.014987245 51:0.00039859694 52:0.01044324 53:0.00023915816 54:0.0051020408 55:0.00071747449 56:0.0038265306 57:0.0006377551 58:0.32039222 59:0.020408163 
1 1:0.0084502551 2:0.0043048469 3:0.00015943878 4:0.0073341837 5:0.00023915816 6:0.0055803571 7:0.00015943878 8:0.0058992347 9:0.00015943878 10:0.0030293367 11:0.0045440051 12:0.0019929847 13:0.0017538265 14:0.0019929847 15:0.001434949 16:0.0015943878 17:0.0025510204 18:0.023596939 19:0.010602679 20:0.035475128 21:0.0047034439 22:0.015704719 23:0.005341199 24:0.016183036 25:0.0025510204 26:0.01307398 27:0.045280612 28:0.077248087 29:0.030452806 30:0.017139668 31:0.021524235 32:0.022799745 33:0.012356505 34:0.023915816 35:0.011957908 36:0.10307717 37:0.026147959 38:0.04424426 39:0.009247449 40:0.044164541 41:0.010921556 42:0.0034279337 43:0.0047831633 44:0.01044324 45:0.014429209 46:0.011798469 47:0.0055006378 48:0.0066167092 49:0.0042251276 50:0.0077327806 51:0.0012755102 52:0.010841837 53:0.0006377551 54:0.016581633 55:0.00095663265 56:0.0071747449 57:0.00039859694 58:0.18606505 59:0.028220663 
1 1:0.0023118622 2:0.0055006378 4:0.0047831633 6:0.0043048469 8:0.0081313776 10:0.0030293367 11:0.00095663265 12:0.00039859694 13:0.00055803571 14:0.0017538265 15:0.00055803571 16:0.0022321429 17:0.0012755102 18:0.030851403 19:0.0057397959 20:0.022401148 21:0.00087691327 22:0.01044324 23:0.0019929847 24:0.044802296 25:0.0047831633 26:0.039381378 27:0.043845663 28:0.050302934 29:0.0058195153 30:0.0056600765 31:0.010762117 32:0.024394133 33:0.055564413 34:0.10483099 35:0.020009566 36:0.088966837 37:0.013153699 38:0.01299426 39:0.0066167092 40:0.027423469 41:0.030851403 42:0.019451531 43:0.012515944 44:0.013392857 45:0.015226403 46:0.0030293367 47:0.0023915816 48:0.0037468112 49:0.011160714 50:0.02869898 51:0.00031887755 52:0.024553571 53:0.00039859694 54:0.015864158 56:0.0074936224 57:0.00023915816 58:0.11750638 59:0.025749362 
1 1:0.010204082 2:0.0045440051 3:0.00023915816 4:0.0096460459 5:0.00015943878 6:0.0058195153 7:0.00031887755 8:0.0074139031 9:7.9719388e-05 10:0.0022321429 11:0.0027104592 12:0.001434949 13:0.0025510204 14:0.00390625 15:0.0031090561 16:0.0011957908 17:0.0016741071 18:0.016342474 19:0.0065369898 20:0.015704719 21:0.0035873724 22:0.038105867 23:0.011798469 24:0.025430485 25:0.0035873724 26:0.013153699 27:0.029496173 28:0.022241709 29:0.020169005 30:0.028539541 31:0.078443878 32:0.042809311 33:0.015784439 34:0.019371811 35:0.010124362 36:0.04559949 37:0.0078125 38:0.040178571 39:0.02734375 40:0.10251913 41:0.012515944 42:0.0050223214 43:0.0044642857 44:0.0047034439 45:0.0062978316 46:0.0058992347 47:0.01299426 48:0.015146684 49:0.0094068878 50:0.008848852 51:0.0015146684 52:0.006377551 53:0.00055803571 54:0.0070153061 55:0.0015943878 56:0.016342474 57:0.0013552296 58:0.16597577 59:0.032047194 
1 1:0.0091677296 2:0.0043845663 3:0.00015943878 4:0.0074139031 5:0.00015943878 6:0.0061383929 7:0.00023915816 8:0.0054209184 10:0.0023915816 11:0.0033482143 12:0.0018335459 13:0.0023915816 14:0.0037468112 15:0.0031887755 16:0.002869898 17:0.0019132653 18:0.017139668 19:0.0066167092 20:0.01690051 21:0.0038265306 22:0.034040179 23:0.011878189 24:0.025350765 25:0.0038265306 26:0.013313138 27:0.027024872 28:0.019690689 29:0.014110332 30:0.027981505 31:0.080596301 32:0.043845663 33:0.015465561 34:0.018893495 35:0.010522959 36:0.039540816 37:0.0094866071 38:0.038105867 39:0.024473852 40:0.10658482 41:0.013632015 42:0.005341199 43:0.0052614796 44:0.0058195153 45:0.0055006378 46:0.0048628827 47:0.011320153 48:0.013711735 49:0.0093271684 50:0.011160714 51:0.0011957908 52:0.0073341837 53:0.0013552296 54:0.0074936224 55:0.00071747449 56:0.017777423 57:0.0012755102 58:0.17944834 59:0.033482143 
1 1:0.0094068878 2:0.0043048469 3:0.00015943878 4:0.006776148 6:0.0059789541 7:0.00023915816 8:0.0057397959 9:7.9719388e-05 10:0.0016741071 11:0.0034279337 12:0.0015146684 13:0.0015146684 14:0.0034279337 15:0.0035076531 16:0.0020727041 17:0.0015146684 18:0.018415179 19:0.0066964286 20:0.016581633 21:0.0032684949 22:0.030373087 23:0.010921556 24:0.025350765 25:0.0031887755 26:0.014030612 27:0.031489158 28:0.021603954 29:0.014429209 30:0.017857143 31:0.07549426 32:0.062101403 33:0.020567602 34:0.026147959 35:0.011001276 36:0.038982781 37:0.0085299745 38:0.029655612 39:0.023836097 40:0.099808673 41:0.016741071 42:0.0059789541 43:0.0046237245 44:0.0055006378 45:0.0066964286 46:0.005341199 47:0.009247449 48:0.014827806 49:0.011001276 50:0.012914541 51:0.0013552296 52:0.0084502551 53:0.00095663265 54:0.0084502551 55:0.0012755102 56:0.016023597 57:0.00095663265 58:0.17610013 59:0.031887755 
1 1:0.0094866071 2:0.0045440051 3:0.00055803571 4:0.0055803571 5:0.00047831633 6:0.0057397959 7:0.00047831633 8:0.0073341837 9:0.00015943878 10:0.0029496173 11:0.002869898 12:0.0033482143 13:0.0023915816 14:0.0017538265 15:0.0035873724 16:0.0051020408 17:0.0033482143 18:0.04559949 19:0.0050223214 20:0.014190051 21:0.0057397959 22:0.026705995 23:0.0052614796 24:0.024952168 25:0.0068558673 26:0.075015944 27:0.03770727 28:0.010682398 29:0.0091677296 30:0.022241709 31:0.035235969 32:0.016262755 33:0.04041773 34:0.095822704 35:0.036910077 36:0.034677934 37:0.0057397959 38:0.022799745 39:0.01698023 40:0.038504464 41:0.014668367 42:0.011479592 43:0.019451531 44:0.0087691327 45:0.0032684949 46:0.00390625 47:0.0051817602 48:0.0076530612 49:0.0084502551 50:0.016103316 51:0.001036352 52:0.019451531 53:0.00087691327 54:0.0072544643 55:0.0012755102 56:0.010204082 57:0.0015146684 58:0.13305166 59:0.034199617 
1 1:0.0074139031 2:0.0045440051 4:0.006377551 5:7.9719388e-05 6:0.0082110969 8:0.0068558673 9:7.9719388e-05 10:0.0016741071 11:0.0015943878 12:0.0019929847 13:0.0020727041 14:0.0043048469 15:0.0035873724 16:0.0017538265 17:0.0023915816 18:0.014030612 19:0.0035076531 20:0.016661352 21:0.0029496173 22:0.030054209 23:0.010602679 24:0.033003827 25:0.001036352 26:0.0066964286 27:0.013871173 28:0.023596939 29:0.015545281 30:0.017299107 31:0.057079082 32:0.071348852 33:0.011639031 34:0.024234694 35:0.0051020408 36:0.03643176 37:0.011399872 38:0.03515625 39:0.013552296 40:0.14628508 41:0.014827806 42:0.008848852 43:0.0040656888 44:0.0043048469 45:0.0078125 46:0.0057397959 47:0.0086894133 48:0.012515944 49:0.016501913 50:0.019929847 51:0.0015943878 52:0.010522959 53:0.00095663265 54:0.0070153061 55:0.0020727041 56:0.017777423 57:0.00087691327 58:0.16470026 59:0.037228954 
1 1:0.010124362 2:0.0039859694 4:0.0080516582 5:0.00023915816 6:0.0065369898 7:0.00031887755 8:0.0062181122 10:0.0019132653 11:0.0025510204 12:0.0027901786 13:0.002869898 14:0.0054209184 15:0.0033482143 16:0.0026307398 17:0.0023118622 18:0.017857143 19:0.0064572704 20:0.018734056 21:0.0047831633 22:0.035634566 23:0.010921556 24:0.02471301 25:0.0037468112 26:0.016501913 27:0.025510204 28:0.022480867 29:0.01690051 30:0.031967474 31:0.075175383 32:0.044403699 33:0.014429209 34:0.020966199 35:0.011080995 36:0.043447066 37:0.0083705357 38:0.041055485 39:0.026865434 40:0.096938776 41:0.011320153 42:0.0055803571 43:0.0045440051 44:0.0055803571 45:0.0058195153 46:0.0050223214 47:0.012037628 48:0.015704719 49:0.0089285714 50:0.0082908163 51:0.0019132653 52:0.0086096939 53:0.001036352 54:0.0087691327 55:0.0018335459 56:0.015385842 57:0.0016741071 58:0.16589605 59:0.03380102 
1 1:0.010283801 2:0.0058195153 3:7.9719388e-05 4:0.0091677296 5:0.00023915816 6:0.0059789541 7:0.00039859694 8:0.0074936224 9:7.9719388e-05 10:0.001434949 11:0.0045440051 12:0.0023915816 13:0.0027901786 14:0.0040656888 15:0.0042251276 16:0.0031090561 17:0.0031887755 18:0.01698023 19:0.0065369898 20:0.019929847 21:0.0042251276 22:0.033482143 23:0.010204082 24:0.0234375 25:0.0038265306 26:0.013153699 27:0.028300383 28:0.026546556 29:0.01698023 30:0.030691964 31:0.072066327 32:0.04950574 33:0.017458546 34:0.023756378 35:0.0090880102 36:0.051897321 37:0.010204082 38:0.037308673 39:0.023357781 40:0.10371492 41:0.012595663 42:0.0048628827 43:0.0052614796 44:0.0059789541 45:0.0076530612 46:0.0064572704 47:0.010204082 48:0.01434949 49:0.0082110969 50:0.0081313776 51:0.0022321429 52:0.0068558673 53:0.00095663265 54:0.0075733418 55:0.0019929847 56:0.014030612 57:0.0019929847 58:0.15146684 59:0.03125 
1 1:0.0047831633 2:0.0033482143 4:0.002471301 5:7.9719388e-05 6:0.0038265306 8:0.0061383929 10:0.0027104592 11:0.001036352 12:0.00079719388 13:7.9719388e-05 14:0.00031887755 15:0.00087691327 16:0.0019929847 17:0.0021524235 18:0.034199617 19:0.0051817602 20:0.0050223214 21:0.00031887755 22:0.0035076531 23:0.0030293367 24:0.03125 25:0.0046237245 26:0.035714286 27:0.04432398 28:0.0075733418 29:0.00095663265 30:0.0011160714 31:0.0039859694 32:0.047353316 33:0.039381378 34:0.054049745 35:0.027742347 36:0.033561862 37:0.0019132653 38:0.002869898 39:0.00071747449 40:0.021843112 41:0.027104592 42:0.012914541 43:0.013472577 44:0.014588648 45:0.0013552296 46:0.001036352 47:0.0006377551 48:0.0011957908 49:0.0094068878 50:0.009247449 51:0.0016741071 52:0.012914541 53:0.00039859694 54:0.0019132653 55:0.00031887755 56:0.001434949 57:0.00023915816 58:0.43064413 59:0.018654337 
1 1:0.0061383929 2:0.0031887755 4:0.0023915816 6:0.0026307398 7:0.00015943878 8:0.0054209184 9:7.9719388e-05 10:0.0023118622 11:0.0011160714 12:0.00079719388 13:0.00039859694 14:0.001036352 15:0.0015943878 16:0.0029496173 17:0.0019929847 18:0.032366071 19:0.0046237245 20:0.0050223214 21:0.00071747449 22:0.0056600765 23:0.0044642857 24:0.030851403 25:0.0062978316 26:0.038265306 27:0.054288903 28:0.0095663265 29:0.0011160714 30:0.0017538265 31:0.0074139031 32:0.050462372 33:0.040178571 34:0.054049745 35:0.029496173 36:0.035953444 37:0.0018335459 38:0.0023915816 39:0.0016741071 40:0.02989477 41:0.028300383 42:0.014508929 43:0.011320153 44:0.013632015 45:0.0015146684 46:0.00095663265 47:0.001036352 48:0.0017538265 49:0.011001276 50:0.0087691327 51:0.0015943878 52:0.0078922194 53:0.00079719388 54:0.0019929847 55:7.9719388e-05 56:0.001434949 57:0.00039859694 58:0.3955676 59:0.01690051 
1 1:0.0060586735 2:0.0041454082 3:0.00015943878 4:0.0033482143 5:7.9719388e-05 6:0.0035076531 7:7.9719388e-05 8:0.0065369898 9:0.00015943878 10:0.0026307398 11:0.0023118622 12:0.0011160714 13:0.00079719388 14:0.0018335459 15:0.0019132653 16:0.0029496173 17:0.0022321429 18:0.037946429 19:0.0055803571 20:0.0079719388 21:0.0011160714 22:0.0052614796 23:0.0057397959 24:0.031967474 25:0.0075733418 26:0.041214923 27:0.052774235 28:0.013392857 29:0.0019132653 30:0.0019929847 31:0.0083705357 32:0.050701531 33:0.042091837 34:0.060507015 35:0.029177296 36:0.04551977 37:0.0030293367 38:0.0039859694 39:0.0023915816 40:0.036670918 41:0.026865434 42:0.014508929 43:0.013871173 44:0.01434949 45:0.002869898 46:0.00087691327 47:0.0017538265 48:0.0020727041 49:0.010124362 50:0.010522959 51:0.0013552296 52:0.011957908 53:0.001036352 54:0.0032684949 55:0.00079719388 56:0.0018335459 57:0.00071747449 58:0.32254464 59:0.021922832 
1 1:0.0043845663 2:0.0055803571 4:0.0036670918 6:0.00390625 7:0.00015943878 8:0.0085299745 10:0.0017538265 11:0.001434949 12:0.00023915816 13:0.00055803571 14:0.002869898 15:0.001036352 16:0.0016741071 17:0.002471301 18:0.036989796 19:0.0036670918 20:0.025191327 21:0.00023915816 22:0.0098852041 23:0.0027104592 24:0.057557398 25:0.0043845663 26:0.029735332 27:0.025510204 28:0.021045918 29:0.0022321429 30:0.0019132653 31:0.0047034439 32:0.031568878 33:0.035554847 34:0.095344388 35:0.013313138 36:0.073102679 37:0.0055006378 38:0.013392857 39:0.001434949 40:0.048788265 41:0.021285077 42:0.017299107 43:0.013153699 44:0.013632015 45:0.0089285714 46:0.002869898 47:0.001036352 48:0.0016741071 49:0.012755102 50:0.040816327 51:0.0011957908 52:0.027662628 53:0.00047831633 54:0.020487883 55:0.00023915816 56:0.0066964286 57:0.0006377551 58:0.19826212 59:0.028858418 
1 1:0.005341199 2:0.0034279337 4:0.0031090561 6:0.002869898 8:0.0060586735 9:0.00015943878 10:0.0025510204 11:0.0016741071 12:0.00039859694 13:0.00095663265 14:0.0011957908 15:0.0011957908 16:0.0019929847 17:0.0027104592 18:0.037627551 19:0.0061383929 20:0.006377551 21:0.00039859694 22:0.0047034439 23:0.0043048469 24:0.028380102 25:0.0062978316 26:0.042251276 27:0.052455357 28:0.0083705357 29:0.0018335459 30:0.0015146684 31:0.0042251276 32:0.046795281 33:0.039301658 34:0.061702806 35:0.027582908 36:0.032924107 37:0.0015943878 38:0.0023118622 39:0.00079719388 40:0.02479273 41:0.024075255 42:0.012914541 43:0.014190051 44:0.015146684 45:0.0018335459 46:0.00087691327 47:0.00055803571 48:0.0018335459 49:0.0093271684 50:0.0077327806 51:0.00079719388 52:0.012356505 53:0.00039859694 54:0.0013552296 55:0.00055803571 56:0.0015146684 57:0.00023915816 58:0.39827806 59:0.019690689 
1 1:0.0055006378 2:0.004942602 4:0.0035873724 5:0.00015943878 6:0.0036670918 7:7.9719388e-05 8:0.0073341837 9:7.9719388e-05 10:0.0032684949 11:0.0016741071 12:0.0011957908 13:0.00055803571 14:0.001434949 15:0.00087691327 16:0.0030293367 17:0.0021524235 18:0.034757653 19:0.0059789541 20:0.005341199 21:0.00039859694 22:0.0044642857 23:0.0060586735 24:0.032445791 25:0.0061383929 26:0.044005102 27:0.056521046 28:0.0090082908 29:0.0016741071 30:0.0012755102 31:0.0070950255 32:0.047114158 33:0.036192602 34:0.065369898 35:0.030054209 36:0.038663903 37:0.0017538265 38:0.0040656888 39:0.0015943878 40:0.030133929 41:0.023836097 42:0.011479592 43:0.012755102 44:0.013552296 45:0.0020727041 46:0.0013552296 47:0.0011957908 48:0.0016741071 49:0.011399872 50:0.0094068878 51:0.001434949 52:0.010762117 53:0.00087691327 54:0.002471301 55:0.00071747449 56:0.0017538265 57:0.00087691327 58:0.36001276 59:0.022720026 
1 1:0.0052614796 2:0.0033482143 4:0.002869898 6:0.0032684949 7:7.9719388e-05 8:0.0058195153 10:0.0019132653 11:0.0021524235 12:0.0006377551 13:0.00031887755 14:0.0011160714 15:0.0020727041 16:0.0023118622 17:0.0019929847 18:0.033721301 19:0.0056600765 20:0.0042251276 21:0.00079719388 22:0.0051817602 23:0.005341199 24:0.030532526 25:0.0058195153 26:0.03770727 27:0.049665179 28:0.0079719388 29:0.00095663265 30:0.0030293367 31:0.0075733418 32:0.045998087 33:0.047751913 34:0.06505102 35:0.030133929 36:0.032206633 37:0.0019132653 38:0.0026307398 39:0.0013552296 40:0.023756378 41:0.027742347 42:0.013871173 43:0.01307398 44:0.012037628 45:0.00095663265 46:0.00087691327 47:0.00079719388 48:0.0018335459 49:0.010124362 50:0.0086894133 51:0.0011957908 52:0.0087691327 53:0.0011160714 54:0.0015146684 55:0.00031887755 56:0.0015146684 57:0.00071747449 58:0.39429209 59:0.018415179 
1 1:0.0074139031 2:0.0041454082 3:7.9719388e-05 4:0.0031090561 6:0.0029496173 8:0.0070153061 9:7.9719388e-05 10:0.0021524235 11:0.0017538265 12:0.00079719388 13:0.00079719388 14:0.001036352 15:0.0019132653 16:0.0019929847 17:0.002869898 18:0.035315689 19:0.0056600765 20:0.0058195153 21:0.0006377551 22:0.0047831633 23:0.0066167092 24:0.034438776 25:0.0081313776 26:0.042809311 27:0.057955995 28:0.011479592 29:0.0019929847 30:0.0011160714 31:0.0074139031 32:0.048549107 33:0.043287628 34:0.061463648 35:0.03252551 36:0.039381378 37:0.0021524235 38:0.0019929847 39:0.0013552296 40:0.032764668 41:0.030293367 42:0.015306122 43:0.01434949 44:0.01434949 45:0.002471301 46:0.001036352 47:0.0011160714 48:0.0020727041 49:0.011878189 50:0.010762117 51:0.0021524235 52:0.0098852041 53:0.0006377551 54:0.0019929847 55:0.00055803571 56:0.0015146684 57:0.00079719388 58:0.33083546 59:0.022241709 
1 1:0.0066964286 2:0.0037468112 3:7.9719388e-05 4:0.0035873724 5:7.9719388e-05 6:0.0035076531 7:7.9719388e-05 8:0.0065369898 10:0.0025510204 11:0.0013552296 12:0.0011160714 13:0.00047831633 14:0.0018335459 15:0.0020727041 16:0.0026307398 17:0.0022321429 18:0.033960459 19:0.0058195153 20:0.0051020408 21:0.00047831633 22:0.0037468112 23:0.0046237245 24:0.03260523 25:0.0075733418 26:0.042490434 27:0.052853954 28:0.01036352 29:0.00087691327 30:0.001434949 31:0.0058992347 32:0.049904337 33:0.041135204 34:0.066565689 35:0.030293367 36:0.036112883 37:0.0025510204 38:0.0020727041 39:0.0019929847 40:0.026147959 41:0.028140944 42:0.014429209 43:0.013950893 44:0.012436224 45:0.0022321429 46:0.0011160714 47:0.00079719388 48:0.001434949 49:0.010841837 50:0.0087691327 51:0.0018335459 52:0.011320153 53:0.001036352 54:0.0020727041 55:0.00055803571 56:0.001434949 57:0.00055803571 58:0.36399872 59:0.019850128 
1 1:0.0098852041 2:0.0051020408 4:0.0040656888 5:7.9719388e-05 6:0.00390625 7:0.00015943878 8:0.0064572704 9:0.00031887755 10:0.0023915816 11:0.0015146684 12:0.0013552296 13:0.001036352 14:0.0015146684 15:0.0017538265 16:0.0029496173 17:0.0027104592 18:0.022799745 19:0.0073341837 20:0.0059789541 21:0.00087691327 22:0.0038265306 23:0.0054209184 24:0.025589923 25:0.0051817602 26:0.030133929 27:0.048867985 28:0.011001276 29:0.0011957908 30:0.0018335459 31:0.0084502551 32:0.044403699 33:0.030931122 34:0.042330995 35:0.020966199 36:0.041374362 37:0.0023118622 38:0.00390625 39:0.0015146684 40:0.030612245 41:0.022720026 42:0.0097257653 43:0.0082908163 44:0.010682398 45:0.0026307398 46:0.0012755102 47:0.00047831633 48:0.0019132653 49:0.0075733418 50:0.0062181122 51:0.0019132653 52:0.0065369898 53:0.00079719388 54:0.0020727041 55:0.00079719388 56:0.0020727041 57:0.001036352 58:0.44866071 59:0.022560587 
1 1:0.0065369898 2:0.0041454082 4:0.0027901786 6:0.0032684949 7:0.00015943878 8:0.0057397959 9:7.9719388e-05 10:0.0015943878 11:0.0021524235 12:0.00079719388 13:0.0006377551 14:0.00087691327 15:0.0023915816 16:0.0023915816 17:0.0030293367 18:0.03125 19:0.0052614796 20:0.0047034439 21:0.00047831633 22:0.0051020408 23:0.0062978316 24:0.037228954 25:0.0074139031 26:0.042570153 27:0.047991071 28:0.0058195153 29:0.0017538265 30:0.0013552296 31:0.0072544643 32:0.05213648 33:0.041294643 34:0.067362883 35:0.025111607 36:0.02598852 37:0.0015943878 38:0.002471301 39:0.0017538265 40:0.03515625 41:0.033482143 42:0.01434949 43:0.011957908 44:0.0090082908 45:0.0019132653 46:0.00071747449 47:0.00071747449 48:0.0021524235 49:0.013392857 50:0.010762117 51:0.0023118622 52:0.0098054847 53:0.001036352 54:0.00095663265 55:0.00055803571 56:0.0017538265 57:0.00055803571 58:0.37101403 59:0.019610969 
1 1:0.0079719388 2:0.0033482143 3:7.9719388e-05 4:0.0047034439 5:7.9719388e-05 6:0.0027901786 7:7.9719388e-05 8:0.0068558673 9:7.9719388e-05 10:0.0018335459 11:0.001434949 12:0.00087691327 13:0.00079719388 14:0.0011160714 15:0.0021524235 16:0.0026307398 17:0.002471301 18:0.029575893 19:0.0078125 20:0.0054209184 21:0.00071747449 22:0.004942602 23:0.0056600765 24:0.032924107 25:0.0045440051 26:0.041374362 27:0.050701531 28:0.0091677296 29:0.0017538265 30:0.001036352 31:0.011001276 32:0.059470663 33:0.040656888 34:0.053252551 35:0.029017857 36:0.043447066 37:0.0021524235 38:0.0036670918 39:0.0023118622 40:0.037866709 41:0.027582908 42:0.011399872 43:0.012675383 44:0.010762117 45:0.002471301 46:0.0006377551 47:0.0011957908 48:0.002471301 49:0.013392857 50:0.0090880102 51:0.001434949 52:0.0094866071 53:0.0011957908 54:0.0017538265 55:0.0011160714 56:0.0012755102 57:0.00087691327 58:0.35227997 59:0.021125638 
1 1:0.0068558673 2:0.0027104592 3:0.00023915816 4:0.0029496173 5:7.9719388e-05 6:0.0031887755 8:0.0080516582 10:0.0013552296 11:0.0013552296 12:0.0011957908 13:0.0006377551 14:0.0019929847 15:0.0023915816 16:0.0019132653 17:0.0016741071 18:0.031010842 19:0.0058992347 20:0.0058195153 21:0.00039859694 22:0.0065369898 23:0.0070153061 24:0.035714286 25:0.0064572704 26:0.040656888 27:0.05205676 28:0.006776148 29:0.0015943878 30:0.0020727041 31:0.011399872 32:0.05596301 33:0.039381378 34:0.063217474 35:0.023038903 36:0.035794005 37:0.0015146684 38:0.0042251276 39:0.0016741071 40:0.044802296 41:0.030691964 42:0.01299426 43:0.013392857 44:0.011080995 45:0.0026307398 46:0.0016741071 47:0.0013552296 48:0.0032684949 49:0.016023597 50:0.01171875 51:0.00071747449 52:0.0093271684 53:0.00031887755 54:0.002471301 55:0.00071747449 56:0.0019929847 57:0.0013552296 58:0.33665497 59:0.022002551 
1 1:0.0066964286 2:0.0026307398 3:0.00023915816 4:0.0038265306 5:7.9719388e-05 6:0.0038265306 8:0.0064572704 9:7.9719388e-05 10:0.0019132653 11:0.0019132653 12:0.00047831633 13:0.00095663265 14:0.0011160714 15:0.0023915816 16:0.0026307398 17:0.0015943878 18:0.03260523 19:0.0057397959 20:0.0042251276 21:0.00087691327 22:0.006377551 23:0.0057397959 24:0.034040179 25:0.0052614796 26:0.040975765 27:0.054209184 28:0.0095663265 29:0.0019132653 30:0.0013552296 31:0.01036352 32:0.058753189 33:0.042889031 34:0.061623087 35:0.02861926 36:0.039540816 37:0.0017538265 38:0.0042251276 39:0.0019929847 40:0.043925383 41:0.028778699 42:0.012197066 43:0.013153699 44:0.012276786 45:0.0026307398 46:0.0015146684 47:0.0013552296 48:0.002471301 49:0.012834821 50:0.010522959 51:0.001434949 52:0.011080995 53:0.00071747449 54:0.0015943878 55:0.00071747449 56:0.0021524235 57:0.00095663265 58:0.32971939 59:0.020487883 
1 1:0.0058992347 2:0.0029496173 3:7.9719388e-05 4:0.002869898 5:7.9719388e-05 6:0.0039859694 8:0.0078922194 9:0.00015943878 10:0.0019929847 11:0.0011957908 12:0.00079719388 13:0.00071747449 14:0.0015943878 15:0.0021524235 16:0.0019132653 17:0.0016741071 18:0.034359056 19:0.0048628827 20:0.0043048469 21:0.00055803571 22:0.0048628827 23:0.0051817602 24:0.037228954 25:0.0083705357 26:0.045998087 27:0.045121173 28:0.0068558673 29:0.0019132653 30:0.0019929847 31:0.01044324 32:0.056521046 33:0.042889031 34:0.059151786 35:0.030691964 36:0.029336735 37:0.0019132653 38:0.0030293367 39:0.0027104592 40:0.036591199 41:0.029177296 42:0.013472577 43:0.013871173 44:0.0099649235 45:0.0013552296 46:0.0006377551 47:0.00071747449 48:0.0019929847 49:0.014748087 50:0.011399872 51:0.0012755102 52:0.010204082 53:0.00079719388 54:0.0013552296 55:0.00023915816 56:0.0011957908 57:0.00055803571 58:0.3544324 59:0.021763393 
1 1:0.0043845663 2:0.0034279337 3:7.9719388e-05 4:0.0027901786 6:0.0042251276 7:7.9719388e-05 8:0.0047831633 9:7.9719388e-05 10:0.0015146684 11:0.0011160714 12:0.0006377551 13:0.0006377551 14:0.00087691327 15:0.0012755102 16:0.0013552296 17:0.0020727041 18:0.030452806 19:0.0031887755 20:0.0032684949 21:0.00039859694 22:0.004942602 23:0.00390625 24:0.035873724 25:0.006776148 26:0.04161352 27:0.051100128 28:0.005341199 29:0.0011957908 30:0.00095663265 31:0.0076530612 32:0.05078125 33:0.040019133 34:0.062340561 35:0.025589923 36:0.029575893 37:0.0011957908 38:0.002869898 39:0.001434949 40:0.03380102 41:0.027901786 42:0.014508929 43:0.011240434 44:0.010283801 45:0.0015146684 46:0.00047831633 47:0.00087691327 48:0.0019132653 49:0.013392857 50:0.011320153 51:0.0017538265 52:0.01036352 53:0.00039859694 54:0.0011957908 55:0.00015943878 56:0.0019929847 57:0.00039859694 58:0.39867666 59:0.018016582 
1 1:0.0048628827 2:0.002471301 4:0.0027901786 6:0.0022321429 7:7.9719388e-05 8:0.0046237245 9:7.9719388e-05 10:0.0013552296 11:0.0012755102 12:0.00047831633 13:0.00047831633 14:0.0011160714 15:0.0019132653 16:0.0021524235 17:0.0030293367 18:0.034199617 19:0.0035873724 20:0.0043845663 21:0.00023915816 22:0.0039859694 23:0.0061383929 24:0.035873724 25:0.0066964286 26:0.040098852 27:0.045280612 28:0.0054209184 29:0.0012755102 30:0.00079719388 31:0.0097257653 32:0.043287628 33:0.040098852 34:0.059470663 35:0.028778699 36:0.022241709 37:0.0019929847 38:0.0023915816 39:0.0013552296 40:0.031329719 41:0.030213648 42:0.012117347 43:0.011878189 44:0.0087691327 45:0.0012755102 46:0.0011160714 47:0.00031887755 48:0.0017538265 49:0.011001276 50:0.010762117 51:0.0012755102 52:0.0090880102 53:0.00079719388 54:0.00087691327 55:0.00031887755 56:0.0015146684 57:0.00055803571 58:0.4239477 59:0.014827806 
1 1:0.0062181122 2:0.0037468112 3:0.00015943878 4:0.0035873724 5:0.00015943878 6:0.0040656888 7:0.00023915816 8:0.006776148 9:7.9719388e-05 10:0.0015943878 11:0.0012755102 12:0.001036352 13:0.001036352 14:0.001434949 15:0.0027901786 16:0.0015146684 17:0.0019132653 18:0.027582908 19:0.0043048469 20:0.0040656888 21:0.0013552296 22:0.0057397959 23:0.0055803571 24:0.034996811 25:0.0061383929 26:0.039221939 27:0.045679209 28:0.0050223214 29:0.0019929847 30:0.0017538265 31:0.010044643 32:0.051817602 33:0.042729592 34:0.056441327 35:0.024314413 36:0.025829082 37:0.00079719388 38:0.0043845663 39:0.0017538265 40:0.031728316 41:0.02861926 42:0.012197066 43:0.011399872 44:0.0084502551 45:0.0018335459 46:0.00095663265 47:0.0013552296 48:0.0023915816 49:0.013711735 50:0.010762117 51:0.00095663265 52:0.0078125 53:0.0013552296 54:0.0012755102 55:0.0006377551 56:0.0015943878 57:0.00087691327 58:0.40353954 59:0.019371811 
1 1:0.011320153 2:0.0070950255 3:0.00039859694 4:0.0078125 5:0.00015943878 6:0.0059789541 7:0.00031887755 8:0.0086894133 9:0.00031887755 10:0.0046237245 11:0.0055803571 12:0.0019929847 13:0.0019929847 14:0.0036670918 15:0.001434949 16:0.0019929847 17:0.0042251276 18:0.031409439 19:0.013153699 20:0.028539541 21:0.0039859694 22:0.012515944 23:0.0070950255 24:0.019371811 25:0.0047831633 26:0.018494898 27:0.056999362 28:0.066326531 29:0.019929847 30:0.014748087 31:0.021125638 32:0.03125 33:0.017458546 34:0.030452806 35:0.017458546 36:0.10315689 37:0.019690689 38:0.029097577 39:0.0082908163 40:0.045838648 41:0.010762117 42:0.0074139031 43:0.0083705357 44:0.014190051 45:0.013233418 46:0.010204082 47:0.0043845663 48:0.0051020408 49:0.0059789541 50:0.0087691327 51:0.0017538265 52:0.014508929 53:0.001434949 54:0.015306122 55:0.0015943878 56:0.0069355867 57:0.0011957908 58:0.140625 59:0.039461097 
1 1:0.0086894133 2:0.0055803571 3:7.9719388e-05 4:0.0051817602 5:0.00023915816 6:0.0040656888 7:0.00023915816 8:0.0058195153 9:7.9719388e-05 10:0.0017538265 11:0.0013552296 12:0.00079719388 13:0.001434949 14:0.0017538265 15:0.0020727041 16:0.0022321429 17:0.0025510204 18:0.028778699 19:0.0066964286 20:0.0089285714 21:0.00087691327 22:0.0087691327 23:0.0066167092 24:0.033083546 25:0.0034279337 26:0.026945153 27:0.051339286 28:0.013711735 29:0.00390625 30:0.0038265306 31:0.012117347 32:0.061702806 33:0.031967474 34:0.056999362 35:0.022002551 36:0.063376913 37:0.0027104592 38:0.010204082 39:0.0023915816 40:0.069276148 41:0.025350765 42:0.010921556 43:0.010762117 44:0.010283801 45:0.0034279337 46:0.0015943878 47:0.001434949 48:0.0044642857 49:0.012755102 50:0.013552296 51:0.0016741071 52:0.011080995 53:0.001036352 54:0.0042251276 55:0.00079719388 56:0.0034279337 57:0.00087691327 58:0.2833227 59:0.025430485 
1 1:0.0023118622 2:0.0050223214 4:0.0059789541 6:0.0031090561 8:0.0077327806 10:0.0011160714 11:0.00055803571 12:0.00015943878 13:0.001036352 14:0.00055803571 15:0.00087691327 16:0.00023915816 17:0.00031887755 18:0.021763393 19:0.0021524235 20:0.029257015 21:0.00031887755 22:0.017936862 23:0.0031887755 24:0.039301658 25:0.00079719388 26:0.0068558673 27:0.028220663 28:0.026865434 29:0.01044324 30:0.0043048469 31:0.012914541 32:0.035634566 33:0.019292092 34:0.047353316 35:0.0062978316 36:0.099489796 37:0.011559311 38:0.031728316 39:0.001434949 40:0.09510523 41:0.022879464 42:0.011559311 43:0.0051817602 44:0.011240434 45:0.011798469 46:0.0080516582 47:0.0031887755 48:0.0058195153 49:0.014429209 50:0.028858418 51:0.00031887755 52:0.020328444 53:0.00039859694 54:0.024075255 55:0.00039859694 56:0.014987245 57:0.00015943878 58:0.21205357 59:0.023038903 
0.94302701313881254 1:0.010841837 2:0.0084502551 3:0.00015943878 4:0.0077327806 5:7.9719388e-05 6:0.0056600765 7:0.00023915816 8:0.0083705357 9:0.00047831633 10:0.0040656888 11:0.0031887755 12:0.0011957908 13:0.0018335459 14:0.0023118622 15:0.0027104592 16:0.0022321429 17:0.0034279337 18:0.032445791 19:0.010762117 20:0.028459821 21:0.0038265306 22:0.013791454 23:0.0068558673 24:0.019212372 25:0.0043048469 26:0.023915816 27:0.059311224 28:0.062021684 29:0.022480867 30:0.014827806 31:0.020408163 32:0.030133929 33:0.020408163 34:0.027981505 35:0.020169005 36:0.10028699 37:0.020328444 38:0.027981505 39:0.0082110969 40:0.042410714 41:0.011957908 42:0.006776148 43:0.0071747449 44:0.013153699 45:0.011639031 46:0.01036352 47:0.0033482143 48:0.0041454082 49:0.0062978316 50:0.010124362 51:0.0019132653 52:0.016183036 53:0.0017538265 54:0.015625 55:0.0015146684 56:0.0071747449 57:0.00079719388 58:0.1484375 59:0.038105867 
1 1:0.0076530612 2:0.0040656888 3:0.00023915816 4:0.0059789541 6:0.0037468112 7:0.00023915816 8:0.0066167092 10:0.0019132653 11:0.0017538265 12:0.0013552296 13:0.0012755102 14:0.0020727041 15:0.0017538265 16:0.0018335459 17:0.0019929847 18:0.033163265 19:0.0060586735 20:0.0086096939 21:0.00087691327 22:0.0095663265 23:0.0055006378 24:0.029177296 25:0.004942602 26:0.036112883 27:0.061304209 28:0.013871173 29:0.0027901786 30:0.0031090561 31:0.014190051 32:0.049346301 33:0.029735332 34:0.054528061 35:0.027981505 36:0.065290179 37:0.0021524235 38:0.0077327806 39:0.004942602 40:0.063934949 41:0.025111607 42:0.010841837 43:0.011240434 44:0.012515944 45:0.0040656888 46:0.0015943878 47:0.0023118622 48:0.0032684949 49:0.012037628 50:0.011001276 51:0.0013552296 52:0.012755102 53:0.0011160714 54:0.0045440051 55:0.0011160714 56:0.0036670918 57:0.00071747449 58:0.27806122 59:0.025271046 
1 1:0.0091677296 2:0.0051020408 3:0.00015943878 4:0.0078922194 5:0.00015943878 6:0.0076530612 7:0.00023915816 8:0.0072544643 9:0.00023915816 10:0.0021524235 11:0.0031887755 12:0.0022321429 13:0.0019929847 14:0.0036670918 15:0.0039859694 16:0.0027901786 17:0.0027901786 18:0.018734056 19:0.0070950255 20:0.014588648 21:0.0025510204 22:0.027742347 23:0.011320153 24:0.032445791 25:0.0044642857 26:0.018494898 27:0.031090561 28:0.020009566 29:0.014827806 30:0.018893495 31:0.06776148 32:0.058673469 33:0.020647321 34:0.028380102 35:0.012675383 36:0.042490434 37:0.0087691327 38:0.026466837 39:0.02208227 40:0.10204082 41:0.018335459 42:0.0075733418 43:0.0057397959 44:0.0072544643 45:0.0054209184 46:0.0041454082 47:0.0082110969 48:0.01171875 49:0.012356505 50:0.014748087 51:0.0015943878 52:0.0084502551 53:0.0011957908 54:0.0064572704 55:0.0025510204 56:0.016661352 57:0.0013552296 58:0.15545281 59:0.037866709 
1 1:0.011080995 2:0.0060586735 3:0.00031887755 4:0.006776148 5:0.00031887755 6:0.0070153061 7:0.00039859694 8:0.0072544643 9:7.9719388e-05 10:0.0022321429 11:0.0018335459 12:0.0019929847 13:0.0022321429 14:0.0036670918 15:0.0037468112 16:0.0043845663 17:0.0025510204 18:0.019610969 19:0.0070153061 20:0.013791454 21:0.0043048469 22:0.032445791 23:0.013871173 24:0.031808036 25:0.0037468112 26:0.018813776 27:0.02989477 28:0.0234375 29:0.01299426 30:0.021364796 31:0.065529337 32:0.059630102 33:0.019770408 34:0.030691964 35:0.012755102 36:0.043765944 37:0.0054209184 38:0.030851403 39:0.020647321 40:0.094866071 41:0.019690689 42:0.0072544643 43:0.0056600765 44:0.0068558673 45:0.0058195153 46:0.0045440051 47:0.0095663265 48:0.015465561 49:0.012595663 50:0.015066964 51:0.0023118622 52:0.0082908163 53:0.0012755102 54:0.0072544643 55:0.0018335459 56:0.018494898 57:0.0020727041 58:0.13632015 59:0.040656888 
1 1:0.0082908163 2:0.0043845663 4:0.0050223214 5:0.00015943878 6:0.0043845663 7:7.9719388e-05 8:0.006776148 9:7.9719388e-05 10:0.0019132653 11:0.0011160714 12:0.0012755102 13:0.0012755102 14:0.0015146684 15:0.0023118622 16:0.0027104592 17:0.0022321429 18:0.032366071 19:0.0066167092 20:0.008848852 21:0.0006377551 22:0.0082110969 23:0.0065369898 24:0.035714286 25:0.0032684949 26:0.033402423 27:0.061383929 28:0.010204082 29:0.0029496173 30:0.0019132653 31:0.015784439 32:0.055006378 33:0.028938138 34:0.050621811 35:0.025350765 36:0.064492985 37:0.0031090561 38:0.006377551 39:0.0029496173 40:0.062739158 41:0.02471301 42:0.0094068878 43:0.010204082 44:0.013392857 45:0.0035076531 46:0.0012755102 47:0.0013552296 48:0.0027901786 49:0.013791454 50:0.015704719 51:0.0018335459 52:0.012675383 53:0.00071747449 54:0.0035873724 55:0.00079719388 56:0.0035873724 57:0.0006377551 58:0.28539541 59:0.023676658 
1 1:0.0045440051 2:0.0015943878 4:0.0020727041 6:0.0038265306 7:7.9719388e-05 8:0.0058992347 10:0.00015943878 11:0.00023915816 12:0.00039859694 13:0.00031887755 14:0.0013552296 15:0.0019929847 16:0.0023118622 17:0.0015943878 18:0.0091677296 19:0.00079719388 20:0.0017538265 21:0.0006377551 22:0.0058195153 23:0.0043845663 24:0.038504464 25:0.0044642857 26:0.012117347 27:0.0038265306 28:0.0012755102 29:0.0019132653 30:0.00095663265 31:0.012117347 32:0.053651148 33:0.032445791 34:0.046077806 35:0.00390625 36:0.0051020408 37:0.001036352 38:0.0038265306 39:0.0022321429 40:0.049346301 41:0.028140944 42:0.01307398 43:0.0044642857 44:0.0019132653 45:0.00055803571 46:0.00079719388 47:0.00087691327 48:0.0019929847 49:0.015784439 50:0.014030612 51:0.0006377551 52:0.0043048469 53:0.00023915816 54:0.00095663265 55:0.00031887755 56:0.0021524235 57:0.00087691327 58:0.5707111 59:0.016422194 
1 1:0.0060586735 2:0.005341199 3:7.9719388e-05 4:0.0041454082 6:0.0052614796 7:7.9719388e-05 8:0.0087691327 9:7.9719388e-05 10:0.0021524235 11:0.0013552296 12:0.00095663265 13:0.00087691327 14:0.0015943878 15:0.0019929847 16:0.0020727041 17:0.0023118622 18:0.038823342 19:0.0023915816 20:0.0055803571 21:0.00079719388 22:0.0052614796 23:0.0033482143 24:0.038424745 25:0.0051020408 26:0.041135204 27:0.028061224 28:0.0056600765 29:0.0020727041 30:0.0023118622 31:0.0081313776 32:0.032047194 33:0.042171556 34:0.086654974 35:0.027901786 36:0.023198342 37:0.0018335459 38:0.0062978316 39:0.0021524235 40:0.031967474 41:0.024553571 42:0.016820791 43:0.017697704 44:0.012675383 45:0.0021524235 46:0.0015943878 47:0.0016741071 48:0.0016741071 49:0.014668367 50:0.017378827 51:0.0021524235 52:0.017857143 53:0.00079719388 54:0.0022321429 55:0.0011160714 56:0.0019929847 57:0.0011957908 58:0.34917092 59:0.028140944 
1 1:0.0058195153 2:0.0031090561 3:7.9719388e-05 4:0.0037468112 5:7.9719388e-05 6:0.0030293367 8:0.0056600765 9:7.9719388e-05 10:0.00079719388 11:0.001036352 12:0.00079719388 13:0.00039859694 14:0.0015146684 15:0.001036352 16:0.0015943878 17:0.0015943878 18:0.027423469 19:0.0018335459 20:0.0070950255 21:0.00087691327 22:0.0055803571 23:0.0017538265 24:0.02479273 25:0.0045440051 26:0.029097577 27:0.034040179 28:0.0041454082 29:0.0016741071 30:0.0019132653 31:0.0026307398 32:0.031489158 33:0.023517219 34:0.061304209 35:0.01817602 36:0.021843112 37:0.0019132653 38:0.0062181122 39:0.001036352 40:0.026307398 41:0.019690689 42:0.0081313776 43:0.0064572704 44:0.0096460459 45:0.0019132653 46:0.0011160714 47:0.001036352 48:0.00095663265 49:0.0094866071 50:0.0087691327 51:0.00095663265 52:0.0087691327 53:0.00095663265 54:0.0023915816 55:0.00079719388 56:0.0023118622 57:0.00047831633 58:0.52654656 59:0.020009566 
1 1:0.0058195153 2:0.0064572704 4:0.004942602 6:0.0047831633 7:7.9719388e-05 8:0.0081313776 10:0.0025510204 11:0.0027104592 12:0.00079719388 13:0.00079719388 14:0.0013552296 15:0.001434949 16:0.0019929847 17:0.0019132653 18:0.031170281 19:0.011001276 20:0.015226403 21:0.001036352 22:0.0093271684 23:0.005341199 24:0.022480867 25:0.0020727041 26:0.020408163 27:0.051658163 28:0.035076531 29:0.0038265306 30:0.0041454082 31:0.016262755 32:0.029735332 33:0.013233418 34:0.038663903 35:0.015385842 36:0.10323661 37:0.0077327806 38:0.012276786 39:0.0033482143 40:0.046237245 41:0.013392857 42:0.0083705357 43:0.013472577 44:0.015625 45:0.0091677296 46:0.0043048469 47:0.0025510204 48:0.0037468112 49:0.0078125 50:0.010522959 51:0.001036352 52:0.016183036 53:0.001036352 54:0.0065369898 55:0.00095663265 56:0.004942602 57:0.00039859694 58:0.30851403 59:0.028778699 
