digraph Tree {
node [shape=box, style="filled, rounded", color="black", fontname=helvetica] ;
edge [fontname=helvetica] ;
0 [label="TASK_F <= 0.9\ngini = 0.42\nsamples = 4275\nvalue = [85380, 199040]\nclass = 3", fillcolor="#8ec7f0"] ;
1 [label="TASK_E <= 2.5\ngini = 0.43\nsamples = 2775\nvalue = [78740, 35360]\nclass = 1", fillcolor="#f1ba92"] ;
0 -> 1 [labeldistance=2.5, labelangle=45, headlabel="True"] ;
2 [label="TASK_N_L <= 0.9\ngini = 0.35\nsamples = 2576\nvalue = [75540, 22160]\nclass = 1", fillcolor="#eda673"] ;
1 -> 2 ;
3 [label="TASK_N_S <= 0.9\ngini = 0.21\nsamples = 2237\nvalue = [68300, 9120]\nclass = 1", fillcolor="#e89253"] ;
2 -> 3 ;
4 [label="TASK_I <= 2.5\ngini = 0.05\nsamples = 1763\nvalue = [55080, 1520]\nclass = 1", fillcolor="#e6843e"] ;
3 -> 4 ;
5 [label="TASK_R <= -0.5\ngini = 0.03\nsamples = 1596\nvalue = [49920, 800]\nclass = 1", fillcolor="#e5833c"] ;
4 -> 5 ;
6 [label="TASK_F <= 0.6\ngini = 0.06\nsamples = 530\nvalue = [16680, 560]\nclass = 1", fillcolor="#e68540"] ;
5 -> 6 ;
7 [label="TASK_N_L <= 0.1\ngini = 0.05\nsamples = 524\nvalue = [16520, 400]\nclass = 1", fillcolor="#e6843e"] ;
6 -> 7 ;
8 [label="TASK_F <= 0.3\ngini = 0.03\nsamples = 440\nvalue = [13920, 240]\nclass = 1", fillcolor="#e5833c"] ;
7 -> 8 ;
9 [label="gini = 0.04\nsamples = 404\nvalue = [12840, 240]\nclass = 1", fillcolor="#e5833d"] ;
8 -> 9 ;
10 [label="gini = 0.0\nsamples = 36\nvalue = [1080, 0]\nclass = 1", fillcolor="#e58139"] ;
8 -> 10 ;
11 [label="TASK_E <= 1.5\ngini = 0.11\nsamples = 84\nvalue = [2600, 160]\nclass = 1", fillcolor="#e78945"] ;
7 -> 11 ;
12 [label="gini = 0.0\nsamples = 7\nvalue = [200, 0]\nclass = 1", fillcolor="#e58139"] ;
11 -> 12 ;
13 [label="gini = 0.12\nsamples = 77\nvalue = [2400, 160]\nclass = 1", fillcolor="#e78946"] ;
11 -> 13 ;
14 [label="TASK_N_L <= 0.1\ngini = 0.5\nsamples = 6\nvalue = [160, 160]\nclass = 1", fillcolor="#ffffff"] ;
6 -> 14 ;
15 [label="TASK_M <= 2.5\ngini = 0.4\nsamples = 3\nvalue = [60, 160]\nclass = 3", fillcolor="#83c2ef"] ;
14 -> 15 ;
16 [label="gini = 0.0\nsamples = 2\nvalue = [0, 160]\nclass = 3", fillcolor="#399de5"] ;
15 -> 16 ;
17 [label="gini = 0.0\nsamples = 1\nvalue = [60, 0]\nclass = 1", fillcolor="#e58139"] ;
15 -> 17 ;
18 [label="gini = 0.0\nsamples = 3\nvalue = [100, 0]\nclass = 1", fillcolor="#e58139"] ;
14 -> 18 ;
19 [label="TASK_RN <= 0.9\ngini = 0.01\nsamples = 1066\nvalue = [33240, 240]\nclass = 1", fillcolor="#e5823a"] ;
5 -> 19 ;
20 [label="gini = 0.0\nsamples = 678\nvalue = [21460, 0]\nclass = 1", fillcolor="#e58139"] ;
19 -> 20 ;
21 [label="TASK_N_S <= 0.3\ngini = 0.04\nsamples = 388\nvalue = [11780, 240]\nclass = 1", fillcolor="#e6843d"] ;
19 -> 21 ;
22 [label="gini = 0.0\nsamples = 312\nvalue = [9560, 0]\nclass = 1", fillcolor="#e58139"] ;
21 -> 22 ;
23 [label="TASK_R <= 2.5\ngini = 0.18\nsamples = 76\nvalue = [2220, 240]\nclass = 1", fillcolor="#e88f4e"] ;
21 -> 23 ;
24 [label="gini = 0.0\nsamples = 45\nvalue = [1360, 0]\nclass = 1", fillcolor="#e58139"] ;
23 -> 24 ;
25 [label="gini = 0.34\nsamples = 31\nvalue = [860, 240]\nclass = 1", fillcolor="#eca470"] ;
23 -> 25 ;
26 [label="TASK_F <= 0.3\ngini = 0.21\nsamples = 167\nvalue = [5160, 720]\nclass = 1", fillcolor="#e99355"] ;
4 -> 26 ;
27 [label="TASK_D <= 1.5\ngini = 0.17\nsamples = 151\nvalue = [4680, 480]\nclass = 1", fillcolor="#e88e4d"] ;
26 -> 27 ;
28 [label="gini = 0.0\nsamples = 45\nvalue = [1540, 0]\nclass = 1", fillcolor="#e58139"] ;
27 -> 28 ;
29 [label="TASK_N_S <= 0.3\ngini = 0.23\nsamples = 106\nvalue = [3140, 480]\nclass = 1", fillcolor="#e99457"] ;
27 -> 29 ;
30 [label="gini = 0.0\nsamples = 77\nvalue = [2400, 0]\nclass = 1", fillcolor="#e58139"] ;
29 -> 30 ;
31 [label="TASK_N_S <= 0.5\ngini = 0.48\nsamples = 29\nvalue = [740, 480]\nclass = 1", fillcolor="#f6d3b9"] ;
29 -> 31 ;
32 [label="gini = 0.42\nsamples = 9\nvalue = [140, 320]\nclass = 3", fillcolor="#90c8f0"] ;
31 -> 32 ;
33 [label="gini = 0.33\nsamples = 20\nvalue = [600, 160]\nclass = 1", fillcolor="#eca36e"] ;
31 -> 33 ;
34 [label="TASK_R <= -0.5\ngini = 0.44\nsamples = 16\nvalue = [480, 240]\nclass = 1", fillcolor="#f2c09c"] ;
26 -> 34 ;
35 [label="TASK_D <= 1.5\ngini = 0.47\nsamples = 7\nvalue = [140, 240]\nclass = 3", fillcolor="#acd6f4"] ;
34 -> 35 ;
36 [label="gini = 0.0\nsamples = 2\nvalue = [80, 0]\nclass = 1", fillcolor="#e58139"] ;
35 -> 36 ;
37 [label="TASK_RN <= 0.9\ngini = 0.32\nsamples = 5\nvalue = [60, 240]\nclass = 3", fillcolor="#6ab6ec"] ;
35 -> 37 ;
38 [label="gini = 0.0\nsamples = 2\nvalue = [40, 0]\nclass = 1", fillcolor="#e58139"] ;
37 -> 38 ;
39 [label="gini = 0.14\nsamples = 3\nvalue = [20, 240]\nclass = 3", fillcolor="#49a5e7"] ;
37 -> 39 ;
40 [label="gini = 0.0\nsamples = 9\nvalue = [340, 0]\nclass = 1", fillcolor="#e58139"] ;
34 -> 40 ;
41 [label="TASK_F <= 0.1\ngini = 0.46\nsamples = 474\nvalue = [13220, 7600]\nclass = 1", fillcolor="#f4c9ab"] ;
3 -> 41 ;
42 [label="TASK_E <= 1.5\ngini = 0.33\nsamples = 269\nvalue = [8020, 2080]\nclass = 1", fillcolor="#eca26c"] ;
41 -> 42 ;
43 [label="gini = 0.0\nsamples = 67\nvalue = [2000, 0]\nclass = 1", fillcolor="#e58139"] ;
42 -> 43 ;
44 [label="TASK_D <= 1.5\ngini = 0.38\nsamples = 202\nvalue = [6020, 2080]\nclass = 1", fillcolor="#eead7d"] ;
42 -> 44 ;
45 [label="gini = 0.0\nsamples = 43\nvalue = [1420, 0]\nclass = 1", fillcolor="#e58139"] ;
44 -> 45 ;
46 [label="TASK_I <= 2.5\ngini = 0.43\nsamples = 159\nvalue = [4600, 2080]\nclass = 1", fillcolor="#f1ba93"] ;
44 -> 46 ;
47 [label="TASK_I <= 1.5\ngini = 0.39\nsamples = 142\nvalue = [4220, 1520]\nclass = 1", fillcolor="#eeae80"] ;
46 -> 47 ;
48 [label="gini = 0.34\nsamples = 40\nvalue = [1160, 320]\nclass = 1", fillcolor="#eca470"] ;
47 -> 48 ;
49 [label="gini = 0.4\nsamples = 102\nvalue = [3060, 1200]\nclass = 1", fillcolor="#efb287"] ;
47 -> 49 ;
50 [label="TASK_R <= 12.5\ngini = 0.48\nsamples = 17\nvalue = [380, 560]\nclass = 3", fillcolor="#bfe0f7"] ;
46 -> 50 ;
51 [label="gini = 0.46\nsamples = 15\nvalue = [320, 560]\nclass = 3", fillcolor="#aad5f4"] ;
50 -> 51 ;
52 [label="gini = 0.0\nsamples = 2\nvalue = [60, 0]\nclass = 1", fillcolor="#e58139"] ;
50 -> 52 ;
53 [label="TASK_RN <= 0.7\ngini = 0.5\nsamples = 205\nvalue = [5200, 5520]\nclass = 3", fillcolor="#f4f9fd"] ;
41 -> 53 ;
54 [label="TASK_R <= -0.5\ngini = 0.22\nsamples = 63\nvalue = [1620, 240]\nclass = 1", fillcolor="#e99456"] ;
53 -> 54 ;
55 [label="TASK_E <= 1.5\ngini = 0.37\nsamples = 33\nvalue = [740, 240]\nclass = 1", fillcolor="#edaa79"] ;
54 -> 55 ;
56 [label="gini = 0.0\nsamples = 4\nvalue = [120, 0]\nclass = 1", fillcolor="#e58139"] ;
55 -> 56 ;
57 [label="TASK_I <= 1.5\ngini = 0.4\nsamples = 29\nvalue = [620, 240]\nclass = 1", fillcolor="#efb286"] ;
55 -> 57 ;
58 [label="gini = 0.0\nsamples = 6\nvalue = [160, 0]\nclass = 1", fillcolor="#e58139"] ;
57 -> 58 ;
59 [label="gini = 0.45\nsamples = 23\nvalue = [460, 240]\nclass = 1", fillcolor="#f3c3a0"] ;
57 -> 59 ;
60 [label="gini = 0.0\nsamples = 30\nvalue = [880, 0]\nclass = 1", fillcolor="#e58139"] ;
54 -> 60 ;
61 [label="TASK_D <= 1.5\ngini = 0.48\nsamples = 142\nvalue = [3580, 5280]\nclass = 3", fillcolor="#bfdff7"] ;
53 -> 61 ;
62 [label="gini = 0.0\nsamples = 20\nvalue = [740, 0]\nclass = 1", fillcolor="#e58139"] ;
61 -> 62 ;
63 [label="TASK_E <= 1.5\ngini = 0.45\nsamples = 122\nvalue = [2840, 5280]\nclass = 3", fillcolor="#a4d2f3"] ;
61 -> 63 ;
64 [label="TASK_RN <= 0.9\ngini = 0.47\nsamples = 30\nvalue = [940, 560]\nclass = 1", fillcolor="#f4ccaf"] ;
63 -> 64 ;
65 [label="gini = 0.48\nsamples = 12\nvalue = [360, 560]\nclass = 3", fillcolor="#b8dcf6"] ;
64 -> 65 ;
66 [label="gini = 0.0\nsamples = 18\nvalue = [580, 0]\nclass = 1", fillcolor="#e58139"] ;
64 -> 66 ;
67 [label="TASK_F <= 0.6\ngini = 0.41\nsamples = 92\nvalue = [1900, 4720]\nclass = 3", fillcolor="#89c4ef"] ;
63 -> 67 ;
68 [label="gini = 0.4\nsamples = 89\nvalue = [1840, 4720]\nclass = 3", fillcolor="#86c3ef"] ;
67 -> 68 ;
69 [label="gini = 0.0\nsamples = 3\nvalue = [60, 0]\nclass = 1", fillcolor="#e58139"] ;
67 -> 69 ;
70 [label="TASK_D <= 1.5\ngini = 0.46\nsamples = 339\nvalue = [7240, 13040]\nclass = 3", fillcolor="#a7d3f3"] ;
2 -> 70 ;
71 [label="TASK_RN <= 0.9\ngini = 0.14\nsamples = 33\nvalue = [980, 80]\nclass = 1", fillcolor="#e78b49"] ;
70 -> 71 ;
72 [label="gini = 0.0\nsamples = 9\nvalue = [300, 0]\nclass = 1", fillcolor="#e58139"] ;
71 -> 72 ;
73 [label="TASK_F <= 0.1\ngini = 0.19\nsamples = 24\nvalue = [680, 80]\nclass = 1", fillcolor="#e89050"] ;
71 -> 73 ;
74 [label="gini = 0.0\nsamples = 14\nvalue = [380, 0]\nclass = 1", fillcolor="#e58139"] ;
73 -> 74 ;
75 [label="TASK_R <= -0.5\ngini = 0.33\nsamples = 10\nvalue = [300, 80]\nclass = 1", fillcolor="#eca36e"] ;
73 -> 75 ;
76 [label="TASK_I <= 1.5\ngini = 0.48\nsamples = 6\nvalue = [120, 80]\nclass = 1", fillcolor="#f6d5bd"] ;
75 -> 76 ;
77 [label="gini = 0.0\nsamples = 1\nvalue = [40, 0]\nclass = 1", fillcolor="#e58139"] ;
76 -> 77 ;
78 [label="gini = 0.5\nsamples = 5\nvalue = [80, 80]\nclass = 1", fillcolor="#ffffff"] ;
76 -> 78 ;
79 [label="gini = 0.0\nsamples = 4\nvalue = [180, 0]\nclass = 1", fillcolor="#e58139"] ;
75 -> 79 ;
80 [label="TASK_RN <= 0.7\ngini = 0.44\nsamples = 306\nvalue = [6260, 12960]\nclass = 3", fillcolor="#99ccf2"] ;
70 -> 80 ;
81 [label="TASK_E <= 1.5\ngini = 0.36\nsamples = 114\nvalue = [3460, 1040]\nclass = 1", fillcolor="#eda775"] ;
80 -> 81 ;
82 [label="gini = 0.0\nsamples = 22\nvalue = [680, 0]\nclass = 1", fillcolor="#e58139"] ;
81 -> 82 ;
83 [label="TASK_R <= -0.5\ngini = 0.4\nsamples = 92\nvalue = [2780, 1040]\nclass = 1", fillcolor="#efb083"] ;
81 -> 83 ;
84 [label="TASK_I <= 2.5\ngini = 0.48\nsamples = 52\nvalue = [1420, 960]\nclass = 1", fillcolor="#f7d6bf"] ;
83 -> 84 ;
85 [label="TASK_I <= 1.5\ngini = 0.46\nsamples = 48\nvalue = [1380, 800]\nclass = 1", fillcolor="#f4caac"] ;
84 -> 85 ;
86 [label="gini = 0.0\nsamples = 8\nvalue = [180, 0]\nclass = 1", fillcolor="#e58139"] ;
85 -> 86 ;
87 [label="gini = 0.48\nsamples = 40\nvalue = [1200, 800]\nclass = 1", fillcolor="#f6d5bd"] ;
85 -> 87 ;
88 [label="TASK_F <= 0.3\ngini = 0.32\nsamples = 4\nvalue = [40, 160]\nclass = 3", fillcolor="#6ab6ec"] ;
84 -> 88 ;
89 [label="gini = 0.44\nsamples = 3\nvalue = [40, 80]\nclass = 3", fillcolor="#9ccef2"] ;
88 -> 89 ;
90 [label="gini = 0.0\nsamples = 1\nvalue = [0, 80]\nclass = 3", fillcolor="#399de5"] ;
88 -> 90 ;
91 [label="TASK_F <= 0.3\ngini = 0.1\nsamples = 40\nvalue = [1360, 80]\nclass = 1", fillcolor="#e78845"] ;
83 -> 91 ;
92 [label="gini = 0.0\nsamples = 33\nvalue = [1180, 0]\nclass = 1", fillcolor="#e58139"] ;
91 -> 92 ;
93 [label="TASK_R <= 7.0\ngini = 0.43\nsamples = 7\nvalue = [180, 80]\nclass = 1", fillcolor="#f1b991"] ;
91 -> 93 ;
94 [label="gini = 0.49\nsamples = 4\nvalue = [60, 80]\nclass = 3", fillcolor="#cee6f8"] ;
93 -> 94 ;
95 [label="gini = 0.0\nsamples = 3\nvalue = [120, 0]\nclass = 1", fillcolor="#e58139"] ;
93 -> 95 ;
96 [label="TASK_D <= 2.5\ngini = 0.31\nsamples = 192\nvalue = [2800, 11920]\nclass = 3", fillcolor="#68b4eb"] ;
80 -> 96 ;
97 [label="TASK_M <= 1.5\ngini = 0.32\nsamples = 184\nvalue = [2800, 10960]\nclass = 3", fillcolor="#6cb6ec"] ;
96 -> 97 ;
98 [label="gini = 0.0\nsamples = 1\nvalue = [20, 0]\nclass = 1", fillcolor="#e58139"] ;
97 -> 98 ;
99 [label="TASK_F <= 0.3\ngini = 0.32\nsamples = 183\nvalue = [2780, 10960]\nclass = 3", fillcolor="#6bb6ec"] ;
97 -> 99 ;
100 [label="TASK_E <= 1.5\ngini = 0.35\nsamples = 154\nvalue = [2560, 8640]\nclass = 3", fillcolor="#74baed"] ;
99 -> 100 ;
101 [label="gini = 0.44\nsamples = 28\nvalue = [680, 320]\nclass = 1", fillcolor="#f1bc96"] ;
100 -> 101 ;
102 [label="gini = 0.3\nsamples = 126\nvalue = [1880, 8320]\nclass = 3", fillcolor="#66b3eb"] ;
100 -> 102 ;
103 [label="TASK_I <= 1.5\ngini = 0.16\nsamples = 29\nvalue = [220, 2320]\nclass = 3", fillcolor="#4ca6e7"] ;
99 -> 103 ;
104 [label="gini = 0.49\nsamples = 8\nvalue = [120, 160]\nclass = 3", fillcolor="#cee6f8"] ;
103 -> 104 ;
105 [label="gini = 0.08\nsamples = 21\nvalue = [100, 2160]\nclass = 3", fillcolor="#42a2e6"] ;
103 -> 105 ;
106 [label="gini = 0.0\nsamples = 8\nvalue = [0, 960]\nclass = 3", fillcolor="#399de5"] ;
96 -> 106 ;
107 [label="TASK_D <= 1.5\ngini = 0.31\nsamples = 199\nvalue = [3200, 13200]\nclass = 3", fillcolor="#69b5eb"] ;
1 -> 107 ;
108 [label="gini = 0.0\nsamples = 21\nvalue = [800, 0]\nclass = 1", fillcolor="#e58139"] ;
107 -> 108 ;
109 [label="TASK_N_S <= 0.9\ngini = 0.26\nsamples = 178\nvalue = [2400, 13200]\nclass = 3", fillcolor="#5dafea"] ;
107 -> 109 ;
110 [label="TASK_R <= 0.5\ngini = 0.42\nsamples = 50\nvalue = [1640, 720]\nclass = 1", fillcolor="#f0b890"] ;
109 -> 110 ;
111 [label="TASK_N_L <= 0.1\ngini = 0.5\nsamples = 25\nvalue = [840, 720]\nclass = 1", fillcolor="#fbede3"] ;
110 -> 111 ;
112 [label="TASK_F <= 0.3\ngini = 0.47\nsamples = 21\nvalue = [760, 480]\nclass = 1", fillcolor="#f5d1b6"] ;
111 -> 112 ;
113 [label="TASK_N_S <= 0.3\ngini = 0.29\nsamples = 20\nvalue = [760, 160]\nclass = 1", fillcolor="#ea9c63"] ;
112 -> 113 ;
114 [label="gini = 0.0\nsamples = 16\nvalue = [600, 0]\nclass = 1", fillcolor="#e58139"] ;
113 -> 114 ;
115 [label="TASK_R <= -0.5\ngini = 0.5\nsamples = 4\nvalue = [160, 160]\nclass = 1", fillcolor="#ffffff"] ;
113 -> 115 ;
116 [label="gini = 0.0\nsamples = 3\nvalue = [160, 0]\nclass = 1", fillcolor="#e58139"] ;
115 -> 116 ;
117 [label="gini = 0.0\nsamples = 1\nvalue = [0, 160]\nclass = 3", fillcolor="#399de5"] ;
115 -> 117 ;
118 [label="gini = 0.0\nsamples = 1\nvalue = [0, 320]\nclass = 3", fillcolor="#399de5"] ;
112 -> 118 ;
119 [label="TASK_R <= -0.5\ngini = 0.38\nsamples = 4\nvalue = [80, 240]\nclass = 3", fillcolor="#7bbeee"] ;
111 -> 119 ;
120 [label="gini = 0.0\nsamples = 2\nvalue = [60, 0]\nclass = 1", fillcolor="#e58139"] ;
119 -> 120 ;
121 [label="TASK_I <= 2.0\ngini = 0.14\nsamples = 2\nvalue = [20, 240]\nclass = 3", fillcolor="#49a5e7"] ;
119 -> 121 ;
122 [label="gini = 0.0\nsamples = 1\nvalue = [20, 0]\nclass = 1", fillcolor="#e58139"] ;
121 -> 122 ;
123 [label="gini = 0.0\nsamples = 1\nvalue = [0, 240]\nclass = 3", fillcolor="#399de5"] ;
121 -> 123 ;
124 [label="gini = 0.0\nsamples = 25\nvalue = [800, 0]\nclass = 1", fillcolor="#e58139"] ;
110 -> 124 ;
125 [label="TASK_I <= 2.5\ngini = 0.11\nsamples = 128\nvalue = [760, 12480]\nclass = 3", fillcolor="#45a3e7"] ;
109 -> 125 ;
126 [label="TASK_N_L <= 0.1\ngini = 0.13\nsamples = 94\nvalue = [700, 8960]\nclass = 3", fillcolor="#48a5e7"] ;
125 -> 126 ;
127 [label="TASK_F <= 0.1\ngini = 0.32\nsamples = 4\nvalue = [60, 240]\nclass = 3", fillcolor="#6ab6ec"] ;
126 -> 127 ;
128 [label="gini = 0.0\nsamples = 2\nvalue = [60, 0]\nclass = 1", fillcolor="#e58139"] ;
127 -> 128 ;
129 [label="gini = 0.0\nsamples = 2\nvalue = [0, 240]\nclass = 3", fillcolor="#399de5"] ;
127 -> 129 ;
130 [label="TASK_RN <= 0.2\ngini = 0.13\nsamples = 90\nvalue = [640, 8720]\nclass = 3", fillcolor="#48a4e7"] ;
126 -> 130 ;
131 [label="gini = 0.0\nsamples = 1\nvalue = [40, 0]\nclass = 1", fillcolor="#e58139"] ;
130 -> 131 ;
132 [label="TASK_RN <= 0.5\ngini = 0.12\nsamples = 89\nvalue = [600, 8720]\nclass = 3", fillcolor="#47a4e7"] ;
130 -> 132 ;
133 [label="TASK_N_L <= 0.8\ngini = 0.44\nsamples = 3\nvalue = [40, 80]\nclass = 3", fillcolor="#9ccef2"] ;
132 -> 133 ;
134 [label="gini = 0.0\nsamples = 1\nvalue = [20, 0]\nclass = 1", fillcolor="#e58139"] ;
133 -> 134 ;
135 [label="gini = 0.32\nsamples = 2\nvalue = [20, 80]\nclass = 3", fillcolor="#6ab6ec"] ;
133 -> 135 ;
136 [label="TASK_F <= 0.3\ngini = 0.11\nsamples = 86\nvalue = [560, 8640]\nclass = 3", fillcolor="#46a3e7"] ;
132 -> 136 ;
137 [label="gini = 0.17\nsamples = 58\nvalue = [560, 5360]\nclass = 3", fillcolor="#4ea7e8"] ;
136 -> 137 ;
138 [label="gini = 0.0\nsamples = 28\nvalue = [0, 3280]\nclass = 3", fillcolor="#399de5"] ;
136 -> 138 ;
139 [label="TASK_RN <= 0.3\ngini = 0.03\nsamples = 34\nvalue = [60, 3520]\nclass = 3", fillcolor="#3c9fe5"] ;
125 -> 139 ;
140 [label="gini = 0.0\nsamples = 1\nvalue = [40, 0]\nclass = 1", fillcolor="#e58139"] ;
139 -> 140 ;
141 [label="TASK_R <= 6.0\ngini = 0.01\nsamples = 33\nvalue = [20, 3520]\nclass = 3", fillcolor="#3a9ee5"] ;
139 -> 141 ;
142 [label="gini = 0.0\nsamples = 30\nvalue = [0, 3280]\nclass = 3", fillcolor="#399de5"] ;
141 -> 142 ;
143 [label="TASK_R <= 15.5\ngini = 0.14\nsamples = 3\nvalue = [20, 240]\nclass = 3", fillcolor="#49a5e7"] ;
141 -> 143 ;
144 [label="gini = 0.0\nsamples = 1\nvalue = [20, 0]\nclass = 1", fillcolor="#e58139"] ;
143 -> 144 ;
145 [label="gini = 0.0\nsamples = 2\nvalue = [0, 240]\nclass = 3", fillcolor="#399de5"] ;
143 -> 145 ;
146 [label="TASK_N_S <= 0.1\ngini = 0.07\nsamples = 1500\nvalue = [6640, 163680]\nclass = 3", fillcolor="#41a1e6"] ;
0 -> 146 [labeldistance=2.5, labelangle=-45, headlabel="False"] ;
147 [label="TASK_D <= 1.5\ngini = 0.43\nsamples = 109\nvalue = [2220, 4960]\nclass = 3", fillcolor="#92c9f1"] ;
146 -> 147 ;
148 [label="TASK_E <= 1.5\ngini = 0.34\nsamples = 28\nvalue = [860, 240]\nclass = 1", fillcolor="#eca470"] ;
147 -> 148 ;
149 [label="gini = 0.0\nsamples = 16\nvalue = [520, 0]\nclass = 1", fillcolor="#e58139"] ;
148 -> 149 ;
150 [label="TASK_R <= -0.5\ngini = 0.49\nsamples = 12\nvalue = [340, 240]\nclass = 1", fillcolor="#f7dac5"] ;
148 -> 150 ;
151 [label="TASK_I <= 1.5\ngini = 0.47\nsamples = 6\nvalue = [140, 240]\nclass = 3", fillcolor="#acd6f4"] ;
150 -> 151 ;
152 [label="gini = 0.0\nsamples = 1\nvalue = [20, 0]\nclass = 1", fillcolor="#e58139"] ;
151 -> 152 ;
153 [label="gini = 0.44\nsamples = 5\nvalue = [120, 240]\nclass = 3", fillcolor="#9ccef2"] ;
151 -> 153 ;
154 [label="gini = 0.0\nsamples = 6\nvalue = [200, 0]\nclass = 1", fillcolor="#e58139"] ;
150 -> 154 ;
155 [label="TASK_R <= 2.5\ngini = 0.35\nsamples = 81\nvalue = [1360, 4720]\nclass = 3", fillcolor="#72b9ec"] ;
147 -> 155 ;
156 [label="TASK_RN <= 0.3\ngini = 0.29\nsamples = 68\nvalue = [1000, 4720]\nclass = 3", fillcolor="#63b2eb"] ;
155 -> 156 ;
157 [label="gini = 0.0\nsamples = 3\nvalue = [100, 0]\nclass = 1", fillcolor="#e58139"] ;
156 -> 157 ;
158 [label="TASK_I <= 1.5\ngini = 0.27\nsamples = 65\nvalue = [900, 4720]\nclass = 3", fillcolor="#5fb0ea"] ;
156 -> 158 ;
159 [label="TASK_RN <= 0.7\ngini = 0.16\nsamples = 14\nvalue = [100, 1040]\nclass = 3", fillcolor="#4ca6e8"] ;
158 -> 159 ;
160 [label="gini = 0.0\nsamples = 2\nvalue = [0, 160]\nclass = 3", fillcolor="#399de5"] ;
159 -> 160 ;
161 [label="TASK_R <= -0.5\ngini = 0.18\nsamples = 12\nvalue = [100, 880]\nclass = 3", fillcolor="#50a8e8"] ;
159 -> 161 ;
162 [label="gini = 0.14\nsamples = 3\nvalue = [20, 240]\nclass = 3", fillcolor="#49a5e7"] ;
161 -> 162 ;
163 [label="TASK_E <= 2.5\ngini = 0.2\nsamples = 9\nvalue = [80, 640]\nclass = 3", fillcolor="#52a9e8"] ;
161 -> 163 ;
164 [label="gini = 0.0\nsamples = 2\nvalue = [80, 0]\nclass = 1", fillcolor="#e58139"] ;
163 -> 164 ;
165 [label="gini = 0.0\nsamples = 7\nvalue = [0, 640]\nclass = 3", fillcolor="#399de5"] ;
163 -> 165 ;
166 [label="TASK_E <= 1.5\ngini = 0.29\nsamples = 51\nvalue = [800, 3680]\nclass = 3", fillcolor="#64b2eb"] ;
158 -> 166 ;
167 [label="gini = 0.0\nsamples = 5\nvalue = [160, 0]\nclass = 1", fillcolor="#e58139"] ;
166 -> 167 ;
168 [label="TASK_E <= 2.5\ngini = 0.25\nsamples = 46\nvalue = [640, 3680]\nclass = 3", fillcolor="#5baeea"] ;
166 -> 168 ;
169 [label="TASK_I <= 2.5\ngini = 0.39\nsamples = 31\nvalue = [620, 1760]\nclass = 3", fillcolor="#7fc0ee"] ;
168 -> 169 ;
170 [label="gini = 0.4\nsamples = 23\nvalue = [420, 1120]\nclass = 3", fillcolor="#83c2ef"] ;
169 -> 170 ;
171 [label="gini = 0.36\nsamples = 8\nvalue = [200, 640]\nclass = 3", fillcolor="#77bced"] ;
169 -> 171 ;
172 [label="TASK_RN <= 0.9\ngini = 0.02\nsamples = 15\nvalue = [20, 1920]\nclass = 3", fillcolor="#3b9ee5"] ;
168 -> 172 ;
173 [label="gini = 0.0\nsamples = 5\nvalue = [0, 720]\nclass = 3", fillcolor="#399de5"] ;
172 -> 173 ;
174 [label="gini = 0.03\nsamples = 10\nvalue = [20, 1200]\nclass = 3", fillcolor="#3c9fe5"] ;
172 -> 174 ;
175 [label="gini = 0.0\nsamples = 13\nvalue = [360, 0]\nclass = 1", fillcolor="#e58139"] ;
155 -> 175 ;
176 [label="TASK_R <= 12.5\ngini = 0.05\nsamples = 1391\nvalue = [4420, 158720]\nclass = 3", fillcolor="#3fa0e6"] ;
146 -> 176 ;
177 [label="TASK_RN <= 0.7\ngini = 0.05\nsamples = 1364\nvalue = [3980, 157440]\nclass = 3", fillcolor="#3e9fe6"] ;
176 -> 177 ;
178 [label="TASK_I <= 1.5\ngini = 0.29\nsamples = 127\nvalue = [1800, 8240]\nclass = 3", fillcolor="#64b2eb"] ;
177 -> 178 ;
179 [label="TASK_E <= 2.5\ngini = 0.47\nsamples = 23\nvalue = [500, 800]\nclass = 3", fillcolor="#b5daf5"] ;
178 -> 179 ;
180 [label="TASK_R <= -0.5\ngini = 0.37\nsamples = 20\nvalue = [500, 160]\nclass = 1", fillcolor="#eda978"] ;
179 -> 180 ;
181 [label="TASK_N_L <= 0.9\ngini = 0.49\nsamples = 10\nvalue = [220, 160]\nclass = 1", fillcolor="#f8ddc9"] ;
180 -> 181 ;
182 [label="gini = 0.0\nsamples = 5\nvalue = [140, 0]\nclass = 1", fillcolor="#e58139"] ;
181 -> 182 ;
183 [label="TASK_E <= 1.5\ngini = 0.44\nsamples = 5\nvalue = [80, 160]\nclass = 3", fillcolor="#9ccef2"] ;
181 -> 183 ;
184 [label="gini = 0.0\nsamples = 1\nvalue = [40, 0]\nclass = 1", fillcolor="#e58139"] ;
183 -> 184 ;
185 [label="gini = 0.32\nsamples = 4\nvalue = [40, 160]\nclass = 3", fillcolor="#6ab6ec"] ;
183 -> 185 ;
186 [label="gini = 0.0\nsamples = 10\nvalue = [280, 0]\nclass = 1", fillcolor="#e58139"] ;
180 -> 186 ;
187 [label="gini = 0.0\nsamples = 3\nvalue = [0, 640]\nclass = 3", fillcolor="#399de5"] ;
179 -> 187 ;
188 [label="TASK_N_S <= 0.7\ngini = 0.25\nsamples = 104\nvalue = [1300, 7440]\nclass = 3", fillcolor="#5caeea"] ;
178 -> 188 ;
189 [label="TASK_RN <= 0.3\ngini = 0.47\nsamples = 14\nvalue = [340, 560]\nclass = 3", fillcolor="#b1d8f5"] ;
188 -> 189 ;
190 [label="gini = 0.0\nsamples = 1\nvalue = [0, 160]\nclass = 3", fillcolor="#399de5"] ;
189 -> 190 ;
191 [label="TASK_E <= 2.5\ngini = 0.5\nsamples = 13\nvalue = [340, 400]\nclass = 3", fillcolor="#e1f0fb"] ;
189 -> 191 ;
192 [label="TASK_N_L <= 0.2\ngini = 0.49\nsamples = 12\nvalue = [340, 240]\nclass = 1", fillcolor="#f7dac5"] ;
191 -> 192 ;
193 [label="gini = 0.5\nsamples = 8\nvalue = [220, 240]\nclass = 3", fillcolor="#eff7fd"] ;
192 -> 193 ;
194 [label="gini = 0.0\nsamples = 4\nvalue = [120, 0]\nclass = 1", fillcolor="#e58139"] ;
192 -> 194 ;
195 [label="gini = 0.0\nsamples = 1\nvalue = [0, 160]\nclass = 3", fillcolor="#399de5"] ;
191 -> 195 ;
196 [label="TASK_RN <= 0.1\ngini = 0.21\nsamples = 90\nvalue = [960, 6880]\nclass = 3", fillcolor="#55abe9"] ;
188 -> 196 ;
197 [label="gini = 0.0\nsamples = 5\nvalue = [180, 0]\nclass = 1", fillcolor="#e58139"] ;
196 -> 197 ;
198 [label="TASK_R <= 3.5\ngini = 0.18\nsamples = 85\nvalue = [780, 6880]\nclass = 3", fillcolor="#4fa8e8"] ;
196 -> 198 ;
199 [label="TASK_E <= 1.5\ngini = 0.17\nsamples = 80\nvalue = [680, 6720]\nclass = 3", fillcolor="#4da7e8"] ;
198 -> 199 ;
200 [label="gini = 0.5\nsamples = 11\nvalue = [300, 320]\nclass = 3", fillcolor="#f3f9fd"] ;
199 -> 200 ;
201 [label="gini = 0.11\nsamples = 69\nvalue = [380, 6400]\nclass = 3", fillcolor="#45a3e7"] ;
199 -> 201 ;
202 [label="TASK_R <= 6.5\ngini = 0.47\nsamples = 5\nvalue = [100, 160]\nclass = 3", fillcolor="#b5daf5"] ;
198 -> 202 ;
203 [label="gini = 0.44\nsamples = 4\nvalue = [80, 160]\nclass = 3", fillcolor="#9ccef2"] ;
202 -> 203 ;
204 [label="gini = 0.0\nsamples = 1\nvalue = [20, 0]\nclass = 1", fillcolor="#e58139"] ;
202 -> 204 ;
205 [label="TASK_E <= 1.5\ngini = 0.03\nsamples = 1237\nvalue = [2180, 149200]\nclass = 3", fillcolor="#3c9ee5"] ;
177 -> 205 ;
206 [label="TASK_I <= 1.5\ngini = 0.27\nsamples = 64\nvalue = [940, 4880]\nclass = 3", fillcolor="#5fb0ea"] ;
205 -> 206 ;
207 [label="TASK_D <= 1.5\ngini = 0.49\nsamples = 16\nvalue = [400, 560]\nclass = 3", fillcolor="#c6e3f8"] ;
206 -> 207 ;
208 [label="gini = 0.0\nsamples = 2\nvalue = [100, 0]\nclass = 1", fillcolor="#e58139"] ;
207 -> 208 ;
209 [label="TASK_N_S <= 0.5\ngini = 0.45\nsamples = 14\nvalue = [300, 560]\nclass = 3", fillcolor="#a3d2f3"] ;
207 -> 209 ;
210 [label="gini = 0.0\nsamples = 1\nvalue = [40, 0]\nclass = 1", fillcolor="#e58139"] ;
209 -> 210 ;
211 [label="TASK_RN <= 0.9\ngini = 0.43\nsamples = 13\nvalue = [260, 560]\nclass = 3", fillcolor="#95caf1"] ;
209 -> 211 ;
212 [label="gini = 0.0\nsamples = 1\nvalue = [0, 160]\nclass = 3", fillcolor="#399de5"] ;
211 -> 212 ;
213 [label="gini = 0.48\nsamples = 12\nvalue = [260, 400]\nclass = 3", fillcolor="#baddf6"] ;
211 -> 213 ;
214 [label="TASK_N_L <= 0.1\ngini = 0.2\nsamples = 48\nvalue = [540, 4320]\nclass = 3", fillcolor="#52a9e8"] ;
206 -> 214 ;
215 [label="TASK_RN <= 0.9\ngini = 0.43\nsamples = 8\nvalue = [180, 400]\nclass = 3", fillcolor="#92c9f1"] ;
214 -> 215 ;
216 [label="TASK_N_S <= 0.7\ngini = 0.2\nsamples = 3\nvalue = [20, 160]\nclass = 3", fillcolor="#52a9e8"] ;
215 -> 216 ;
217 [label="gini = 0.0\nsamples = 1\nvalue = [0, 80]\nclass = 3", fillcolor="#399de5"] ;
216 -> 217 ;
218 [label="gini = 0.32\nsamples = 2\nvalue = [20, 80]\nclass = 3", fillcolor="#6ab6ec"] ;
216 -> 218 ;
219 [label="TASK_N_S <= 0.8\ngini = 0.48\nsamples = 5\nvalue = [160, 240]\nclass = 3", fillcolor="#bddef6"] ;
215 -> 219 ;
220 [label="gini = 0.0\nsamples = 1\nvalue = [60, 0]\nclass = 1", fillcolor="#e58139"] ;
219 -> 220 ;
221 [label="gini = 0.42\nsamples = 4\nvalue = [100, 240]\nclass = 3", fillcolor="#8bc6f0"] ;
219 -> 221 ;
222 [label="TASK_D <= 1.5\ngini = 0.15\nsamples = 40\nvalue = [360, 3920]\nclass = 3", fillcolor="#4ba6e7"] ;
214 -> 222 ;
223 [label="TASK_N_S <= 0.9\ngini = 0.32\nsamples = 3\nvalue = [60, 240]\nclass = 3", fillcolor="#6ab6ec"] ;
222 -> 223 ;
224 [label="gini = 0.0\nsamples = 1\nvalue = [0, 240]\nclass = 3", fillcolor="#399de5"] ;
223 -> 224 ;
225 [label="gini = 0.0\nsamples = 2\nvalue = [60, 0]\nclass = 1", fillcolor="#e58139"] ;
223 -> 225 ;
226 [label="TASK_RN <= 0.9\ngini = 0.14\nsamples = 37\nvalue = [300, 3680]\nclass = 3", fillcolor="#49a5e7"] ;
222 -> 226 ;
227 [label="gini = 0.09\nsamples = 10\nvalue = [60, 1280]\nclass = 3", fillcolor="#42a2e6"] ;
226 -> 227 ;
228 [label="gini = 0.17\nsamples = 27\nvalue = [240, 2400]\nclass = 3", fillcolor="#4da7e8"] ;
226 -> 228 ;
229 [label="TASK_E <= 2.5\ngini = 0.02\nsamples = 1173\nvalue = [1240, 144320]\nclass = 3", fillcolor="#3b9ee5"] ;
205 -> 229 ;
230 [label="TASK_N_S <= 0.7\ngini = 0.04\nsamples = 553\nvalue = [1200, 64720]\nclass = 3", fillcolor="#3d9fe5"] ;
229 -> 230 ;
231 [label="TASK_R <= -0.5\ngini = 0.18\nsamples = 37\nvalue = [320, 2880]\nclass = 3", fillcolor="#4fa8e8"] ;
230 -> 231 ;
232 [label="TASK_N_S <= 0.3\ngini = 0.07\nsamples = 18\nvalue = [60, 1600]\nclass = 3", fillcolor="#40a1e6"] ;
231 -> 232 ;
233 [label="gini = 0.2\nsamples = 3\nvalue = [20, 160]\nclass = 3", fillcolor="#52a9e8"] ;
232 -> 233 ;
234 [label="gini = 0.05\nsamples = 15\nvalue = [40, 1440]\nclass = 3", fillcolor="#3ea0e6"] ;
232 -> 234 ;
235 [label="TASK_N_S <= 0.3\ngini = 0.28\nsamples = 19\nvalue = [260, 1280]\nclass = 3", fillcolor="#61b1ea"] ;
231 -> 235 ;
236 [label="gini = 0.49\nsamples = 4\nvalue = [60, 80]\nclass = 3", fillcolor="#cee6f8"] ;
235 -> 236 ;
237 [label="gini = 0.24\nsamples = 15\nvalue = [200, 1200]\nclass = 3", fillcolor="#5aade9"] ;
235 -> 237 ;
238 [label="TASK_N_L <= 0.5\ngini = 0.03\nsamples = 516\nvalue = [880, 61840]\nclass = 3", fillcolor="#3c9ee5"] ;
230 -> 238 ;
239 [label="TASK_M <= 1.5\ngini = 0.08\nsamples = 95\nvalue = [440, 10480]\nclass = 3", fillcolor="#41a1e6"] ;
238 -> 239 ;
240 [label="gini = 0.49\nsamples = 2\nvalue = [60, 80]\nclass = 3", fillcolor="#cee6f8"] ;
239 -> 240 ;
241 [label="gini = 0.07\nsamples = 93\nvalue = [380, 10400]\nclass = 3", fillcolor="#40a1e6"] ;
239 -> 241 ;
242 [label="TASK_R <= 9.0\ngini = 0.02\nsamples = 421\nvalue = [440, 51360]\nclass = 3", fillcolor="#3b9ee5"] ;
238 -> 242 ;
243 [label="gini = 0.02\nsamples = 420\nvalue = [420, 51360]\nclass = 3", fillcolor="#3b9ee5"] ;
242 -> 243 ;
244 [label="gini = 0.0\nsamples = 1\nvalue = [20, 0]\nclass = 1", fillcolor="#e58139"] ;
242 -> 244 ;
245 [label="TASK_D <= 1.5\ngini = 0.0\nsamples = 620\nvalue = [40, 79600]\nclass = 3", fillcolor="#399de5"] ;
229 -> 245 ;
246 [label="TASK_I <= 1.5\ngini = 0.11\nsamples = 4\nvalue = [20, 320]\nclass = 3", fillcolor="#45a3e7"] ;
245 -> 246 ;
247 [label="gini = 0.0\nsamples = 1\nvalue = [20, 0]\nclass = 1", fillcolor="#e58139"] ;
246 -> 247 ;
248 [label="gini = 0.0\nsamples = 3\nvalue = [0, 320]\nclass = 3", fillcolor="#399de5"] ;
246 -> 248 ;
249 [label="TASK_I <= 1.5\ngini = 0.0\nsamples = 616\nvalue = [20, 79280]\nclass = 3", fillcolor="#399de5"] ;
245 -> 249 ;
250 [label="TASK_RN <= 0.9\ngini = 0.0\nsamples = 122\nvalue = [20, 14720]\nclass = 3", fillcolor="#399de5"] ;
249 -> 250 ;
251 [label="gini = 0.0\nsamples = 44\nvalue = [0, 5600]\nclass = 3", fillcolor="#399de5"] ;
250 -> 251 ;
252 [label="gini = 0.0\nsamples = 78\nvalue = [20, 9120]\nclass = 3", fillcolor="#399de5"] ;
250 -> 252 ;
253 [label="gini = 0.0\nsamples = 494\nvalue = [0, 64560]\nclass = 3", fillcolor="#399de5"] ;
249 -> 253 ;
254 [label="TASK_RN <= 0.9\ngini = 0.38\nsamples = 27\nvalue = [440, 1280]\nclass = 3", fillcolor="#7dbfee"] ;
176 -> 254 ;
255 [label="TASK_I <= 2.5\ngini = 0.5\nsamples = 19\nvalue = [400, 480]\nclass = 3", fillcolor="#deeffb"] ;
254 -> 255 ;
256 [label="TASK_E <= 1.5\ngini = 0.47\nsamples = 15\nvalue = [380, 240]\nclass = 1", fillcolor="#f5d1b6"] ;
255 -> 256 ;
257 [label="gini = 0.0\nsamples = 3\nvalue = [140, 0]\nclass = 1", fillcolor="#e58139"] ;
256 -> 257 ;
258 [label="TASK_E <= 2.5\ngini = 0.5\nsamples = 12\nvalue = [240, 240]\nclass = 1", fillcolor="#ffffff"] ;
256 -> 258 ;
259 [label="TASK_N_L <= 0.3\ngini = 0.49\nsamples = 10\nvalue = [180, 240]\nclass = 3", fillcolor="#cee6f8"] ;
258 -> 259 ;
260 [label="gini = 0.0\nsamples = 3\nvalue = [80, 0]\nclass = 1", fillcolor="#e58139"] ;
259 -> 260 ;
261 [label="TASK_N_S <= 0.9\ngini = 0.42\nsamples = 7\nvalue = [100, 240]\nclass = 3", fillcolor="#8bc6f0"] ;
259 -> 261 ;
262 [label="gini = 0.0\nsamples = 2\nvalue = [60, 0]\nclass = 1", fillcolor="#e58139"] ;
261 -> 262 ;
263 [label="gini = 0.24\nsamples = 5\nvalue = [40, 240]\nclass = 3", fillcolor="#5aade9"] ;
261 -> 263 ;
264 [label="gini = 0.0\nsamples = 2\nvalue = [60, 0]\nclass = 1", fillcolor="#e58139"] ;
258 -> 264 ;
265 [label="TASK_N_S <= 0.6\ngini = 0.14\nsamples = 4\nvalue = [20, 240]\nclass = 3", fillcolor="#49a5e7"] ;
255 -> 265 ;
266 [label="gini = 0.0\nsamples = 1\nvalue = [0, 80]\nclass = 3", fillcolor="#399de5"] ;
265 -> 266 ;
267 [label="TASK_N_L <= 0.6\ngini = 0.2\nsamples = 3\nvalue = [20, 160]\nclass = 3", fillcolor="#52a9e8"] ;
265 -> 267 ;
268 [label="gini = 0.0\nsamples = 1\nvalue = [0, 80]\nclass = 3", fillcolor="#399de5"] ;
267 -> 268 ;
269 [label="TASK_RN <= 0.3\ngini = 0.32\nsamples = 2\nvalue = [20, 80]\nclass = 3", fillcolor="#6ab6ec"] ;
267 -> 269 ;
270 [label="gini = 0.0\nsamples = 1\nvalue = [20, 0]\nclass = 1", fillcolor="#e58139"] ;
269 -> 270 ;
271 [label="gini = 0.0\nsamples = 1\nvalue = [0, 80]\nclass = 3", fillcolor="#399de5"] ;
269 -> 271 ;
272 [label="TASK_R <= 60.5\ngini = 0.09\nsamples = 8\nvalue = [40, 800]\nclass = 3", fillcolor="#43a2e6"] ;
254 -> 272 ;
273 [label="gini = 0.0\nsamples = 6\nvalue = [0, 640]\nclass = 3", fillcolor="#399de5"] ;
272 -> 273 ;
274 [label="TASK_D <= 1.5\ngini = 0.32\nsamples = 2\nvalue = [40, 160]\nclass = 3", fillcolor="#6ab6ec"] ;
272 -> 274 ;
275 [label="gini = 0.0\nsamples = 1\nvalue = [40, 0]\nclass = 1", fillcolor="#e58139"] ;
274 -> 275 ;
276 [label="gini = 0.0\nsamples = 1\nvalue = [0, 160]\nclass = 3", fillcolor="#399de5"] ;
274 -> 276 ;
}